0.2005114 -0.45077583 0.46230847 0.17494 -0.28000578 -0.11097253 -0.7061249 0.14268664 -0.13177373 0.13117717 0.09321272 -0.4630091 0.40938044 -0.11961055 0.95576024 -0.5351942 -0.78175825 -0.35490277 -0.1876354 -0.7141064 -0.20422292 -0.6576808 -0.6559031 -0.17718658 0.22104089 0.20673308 0.07892991 0.4893531 -1.5103968 -0.49841473 -1.0467002 -0.08100307 -0.2307767 -0.058999293 -0.5214064 -0.3226034 0.14924787 1.5942664 0.36287063 -1.0102588 -0.24928609 0.29413408 0.85079706 -0.3905209 -0.21069294 0.624347 -0.33238757 0.54929036 -0.20761265 0.12441942 0.6149363 0.12110048 0.46794057 0.1381141 0.0114029925 0.045369714 -0.2979865 -0.23111127 -0.35556832 0.2605772 -0.8800911 -0.9523653 -0.48006305 -1.1376125 0.3433482 0.852199 -0.91573757 -0.48913556 -0.51831853 -1.0176677 0.39917892 -0.18345007 -0.2540372 -0.72076356 -0.6759531 -0.6567705 -0.52883774 0.43846163 -0.48361877 0.024910362 -0.07715799 0.116864994 0.23555109 -0.7472947 -0.15964152 -0.35710838 -0.78327686 -0.14088799 1.149601 -0.35676965 -0.24043493 0.043060374 -0.19436502 -0.54886687 -0.7281033 -0.13097127 2.7354906 0.41947234 -0.15847151 -0.8266661 -1.1092606 -0.42214876 0.8349948 0.20513144 -0.97051054 -0.53407836 -0.03620467 -0.71392083 -0.3458705 0.27063906 -1.2472613 -0.58188134 0.37429973 -1.333865 0.08958591 -0.23251064 -1.1488981 0.26483026 -1.0282379 -0.0658271 -0.6493873 -0.5165474 -0.14545308 -0.49729314 -1.6111877 -0.5016977 -0.15220264 -0.5262486 