0.09793556 -0.120625645 0.2413914 -0.024672342 -0.015823478 0.04220935 -0.14723004 0.07872908 -0.20348278 -0.041526463 -0.13757253 -0.26163837 0.32085112 -0.2955726 0.36243266 -0.24073471 -0.15850462 -0.06280302 -0.17587411 -0.55424833 0.05799285 -0.37273565 -0.2424857 0.082452744 0.12650815 0.12312636 0.18393463 0.23460037 -0.5996684 -0.28970784 -0.48373753 0.040306207 -0.25524494 -0.001506523 -0.16298865 -0.25693256 0.008356807 0.6642049 0.039508577 -0.3145897 -0.09182443 0.03310616 0.29960153 -0.50834537 0.0223557 0.38355193 -0.122308314 0.115329355 0.098941565 0.21663266 0.22964667 0.19620723 0.14331569 -0.073008314 0.14110424 -0.131079 -0.19427669 -0.051924083 -0.29559335 0.15175238 -0.4493012 -0.4112466 -0.3453225 -0.23327556 0.17073512 0.472486 -0.14027548 -0.15677933 -0.29768237 -0.7392431 0.3917583 -0.13683794 -0.20682824 0.0033113358 -0.35408193 -0.20085791 -0.17495178 0.28015295 -0.19575721 -0.017698118 -0.089015305 0.122315 0.19248635 -0.22310218 -0.10635508 -0.08818123 -0.27125722 -0.039144736 0.50713134 -0.09061441 0.034815952 -0.11849509 -0.0369658 -0.317449 -0.19172402 0.04978895 1.059188 0.26127437 -0.22775906 -0.5318646 -0.29362345 -0.4529214 0.2232857 0.40202972 -0.2554615 -0.24037698 -0.050050817 -0.36999148 -0.09396754 0.10494413 -0.54686683 -0.107408725 -0.00646542 -0.683673 0.058925573 -0.14344609 -0.75288826 0.3857025 -0.2562369 -0.18193577 -0.48027924 -0.18160887 0.035183918 -0.19661926 -0.5581547 -0.07948116 -0.077222705 -0.21180893 