-0.074783355 -0.007769555 0.023726769 0.10314735 0.048384346 0.101895966 -0.09880083 -0.02776619 -0.09289408 -0.0042382404 -0.013815321 -0.022904389 -0.04581459 -0.07477218 -0.016177595 0.04265029 -0.08882734 0.030274682 0.069182165 -0.0705505 -0.056429263 -0.06849601 -0.03422702 0.012692243 0.023667224 -0.0799902 0.04422172 -0.038674608 -0.09192155 -0.0816232 -0.038817026 -0.0013617873 -0.021872863 -0.011328362 -0.09514475 -0.077314444 0.09337429 -0.041915618 0.062556975 0.07194879 -0.016284779 -0.09878034 0.0053394064 0.014702447 -0.04824221 0.027773775 0.03736221 0.07052643 0.03770625 0.09737206 -0.05874854 -0.038257703 -0.06596881 0.07428964 0.05972422 0.0050669834 0.034151368 -0.0063880756 -0.0032131076 0.07895363 0.03121502 0.04282277 -0.07179804 0.029586874 -0.052629914 -0.076265104 -0.071145855 -0.10754594 -0.025402367 -0.016172275 -0.037736505 -0.052663185 0.048865877 0.008045413 -0.004183784 -0.016171165 -0.054096054 -0.007720083 0.096698456 0.019001 -0.022597797 0.09378817 -0.072514795 0.013136454 0.055499934 -0.10445282 0.04246459 0.018290393 0.026561089 -0.06659828 -0.059651665 0.013172194 -0.07458952 0.09690847 0.008841015 -0.06227356 0.09442485 0.00064051896 0.023552112 0.08371096 0.069045655 0.07266591 0.04119823 -0.028246664 -0.0075502545 0.046942852 -0.070026085 0.013719305 0.08493028 0.04507763 -0.037735112 0.018813811 -0.043415852 -0.09149513 0.09275056 0.0002206713 -0.052142836 -0.04531174 -0.008922651 0.008036122 0.09364294 -0.09861792 -0.013925657 0.1062798 -0.022674374 0.012593985 0.08545899 0.037556745 
-0.05821743 0.052797936 0.08096018 -0.08553242 -0.044909574 0.013518997 0.017782696 0.09914092 0.103992246 -0.10112803 -0.009615511 -0.09291478 0.05857175 -0.10765806 -0.060804553 -0.09508952 -0.107110634 0.09357538 0.090408646 0.021909766 0.067924686 -0.057039198 -0.07890145 -0.078013346 -0.06546687 0.016515337 0.10424905 -0.061463397 0.09221312 0.046938084 0.09321714 0.029981859 -0.005301282 -0.01620242 0.08190816 -0.049048632 0.08847631 -0.08973912 0.08237965 0.09749331 0.017356165 0.026989989 -0.031149954 0.03671571 -0.101768106 -0.10223487 -0.10413396 0.049426816 0.08975146 0.08313837 0.018118106 0.09559054 -0.051113345 -0.014367178 -0.10145945 -0.088738814 0.071948044 0.10751549 -0.019555211 0.087444074 0.0023492128 0.10064616 -0.09685505 -0.01310163 0.03979794 -0.02093742 -0.040303603 -0.08026894 -0.0387725 -0.096431874 -0.01661548 -0.014460251 0.07432773 0.08244973 0.024366654 -0.027617037 -0.10160984 -0.02545701 -0.055601835 0.080499135 -0.090060085 -0.06700602 -0.04912526 0.07362486 0.091058575 0.053002782 -0.07675572 -0.09799725 -0.04142221 -0.069922864 0.092662565 -0.07182266 0.039241724 0.045810275 -0.005750194 0.055402063 -0.02465485 -0.06037338 0.006138034 0.02347324 0.0915399 -0.027454697 0.08789737 -0.002664268 -0.08239545 0.049610995 0.07029287 -0.018785574 -0.036806434 0.09953759 -0.10118757 -0.039057106 0.05937574 -0.07680876 0.055155016 0.05709205 -0.106400974 -0.08449387 0.09829935 0.005324386 -0.017788574 0.041908138 -0.075119056 -0.058681898 -0.06784246 0.013394006 -0.085665315 0.10215969 
0.03254757 0.10413947 0.09394836 0.043031253 0.019004442 0.068173654 -0.041697964 0.05770611 -0.04724862 0.01854252 0.0009510815 0.02350434 -0.07012284 -0.10301605 0.04334929 0.03102561 0.061820053 -0.022040159 -0.08256067 0.09135764 -0.012795918 0.044449784 -0.08325416 0.07032121 0.085870735 0.0554939 -0.053297505 0.06589361 0.028624512 0.069341354 0.025469549 0.057089932 -0.063047975 -0.018330343 -0.005614765 -0.10133022 0.017420344 -0.106122516 0.060849465 -0.092824936 -0.025945686 0.07498283 0.034406535 -0.060825925 0.019261368 -0.027192526 -0.08399378 -0.05071957 0.05987572 -0.017333604 -0.035379834 -0.08259147 0.044120274 -0.06466709 -0.005423315 -0.02229882 0.10643775 0.0355883 -0.078093246 0.027005605 0.017080642 -0.009479158 0.044039093 -0.004988238 -0.069586955 0.08461922 -0.066824734 0.075891666 -0.09274998 0.102948226 -0.043591686 -0.006430067 0.04119148 0.10342493 -0.032658085 -0.103478946 0.095714994 -0.009995326 0.04085598 -0.06667788 0.072232805 0.057051785 0.09400382 0.0044541135 -0.09986514 -0.07375507 -0.020366356 -0.056494407 0.094922654 0.05251529 0.008722886 -0.08620919 0.015277125 0.006415352 0.027200215 0.08795952 -0.10099669 0.04427273 0.016708136 0.070987485 0.034398787 0.05136106 0.04141698 0.08988259 -0.1051296 0.09204098 0.05732184 0.082978405 -0.08198946 0.07555119 0.011505567 0.080020316 -0.026376627 -0.069872305 0.103111036 -0.09745347 -0.10107726 0.0586494 -0.026292287 -0.012474284 0.038514562 0.101194434 0.052850075 -0.033169553 -0.00061134994 -0.0015369356 0.05755084 -0.052507527 
-0.021506079 0.023090608 -0.04861689 -0.0014687702 0.035879068 -0.02173122 -0.07770357 -0.08227365 0.09454977 0.029672332 -0.06854853 0.06465366 0.0956834 0.07453153 -0.015264578 -0.055943605 0.019708939 0.0681467 0.09265841 0.008017719 -0.055435933 0.018270053 0.04613497 -0.05901177 -0.052326266 -0.020227917 0.091058485 0.017658822 -0.026347674 0.043424882 0.0068855807 -0.040450744 -0.06515352 0.06025458 -0.10480739 -0.02859997 -0.015705481 -0.005824834 -0.032228358 0.014617585 0.016055174 -0.05822187 0.10238186 -0.06486484 0.08822193 -0.011653952 0.019244783 0.007747337 -0.038978152 -0.007242039 -0.010754928 -0.036882825 0.0309783 -0.106794365 0.08294194 -0.058595847 -0.04223991 0.02705326 0.077129416 0.0064797476 0.02358868 -4.8443675e-05 0.05318787 0.001314275 -0.070140004 -0.09504856 0.0062279254 0.034563117 0.085493185 0.013292678 0.03697177 0.0871888 0.10782256 -0.01668661 -0.04713919 -0.01769992 0.08879482 0.07714436 0.07070216 -0.05737627 -0.03920734 0.008782066 -0.058478285 0.08532395 -0.06279713 -0.005032353 -0.01248724 0.0254957 -0.10180504 -0.017908819 -0.05438045 -0.033077255 -0.061754555 -0.084083825 0.066460304 -0.039412163 0.0944527 -0.10060041 0.023945801 0.02496136 -0.05277001 -0.08642471 0.0076134354 -0.09396737 -0.05565632 -0.0065804347 -0.018514156 0.056282587 -0.07141918 0.09266757 -0.07563824 -0.052096356 -0.02867242 -0.06872636 0.014121734 -0.019482195 -0.09131077 0.08680237 -0.049367845 -0.0063135624 -0.094698966 -0.06614925 -0.04820693 0.009024598 0.102008365 0.10445023 -0.04921993 0.027033038 
-0.09987828 -0.047579758 0.056582622 0.039445482 0.071622975 -0.022923023 -0.07482452 -0.023181148 0.089860834 -0.051771645 0.0013255551 -0.05414055 -0.09365252 -0.030968435 -0.03808096 -0.0109365955 0.018768974 0.083738215 -0.058484945 -0.033012815 -0.049591046 -0.006904319 -0.029346585 -0.07176015 -0.0519344 -0.08763094 -0.06713936 -0.028514229 -0.038486324 0.06340275 -0.04824616 0.08024972 -0.09554522 0.10771646 0.09839929 -0.052765314 -0.05440208 0.07715156 -0.052604493 0.008101493 -0.0018265694 0.0037609711 -0.0077006966 -0.09406573 -0.1022971 -0.023081057 0.09985208 0.051687606 -0.03559903 -0.0038768053 0.06269903 0.06697815 -0.0729551 -0.07620762 -0.08990123 0.0016998425 -0.01229617 0.0066934526 -0.0064280033 0.013340965 -0.07571203 -0.04744116 -0.07503432 -0.0882204 -0.019280933 -0.032870293 0.0659594 -0.0031469613 -0.03469322 -0.033247113 -0.064287476 -0.09039509 -0.017901696 -0.058835283 0.024390452 -0.032215685 0.018170677 0.06313596 0.05522757 -0.092688456 0.019952677 0.033122815 -0.03716255 0.10660987 -0.0016312152 0.043334596 -0.081006706 0.078861915 -0.015345417 0.027253978 0.03410458 0.05728338 -0.039853483 -0.0727357 0.070575856 -0.099284634 -0.07380976 0.04927764 -0.102932274 -0.07313972 0.091083325 0.06571015 -0.09530668 0.08910351 -0.042445302 0.07951858 0.10604792 0.0010490045 -0.02977056 -0.0990502 0.09073744 -0.029427424 -0.0036220104 0.027790792 -0.05522623 0.031346165 -0.07666523 0.018237866 -0.078717686 -0.05906504 -0.05118352 0.09500886 -0.0088593885 -0.018794917 0.06154766 -0.048754375 0.05339133 -0.050396174 
-0.09223245 0.05500006 -0.018707395 -0.021404497 -0.022437803 -0.06420101 0.052706696 -0.082097135 0.092560805 -0.06905208 -0.055180755 0.075600915 -0.08307989 -0.06056969 -0.03693881 -0.00065873563 0.07318597 -0.046214484 -0.1052334 0.0024295822 -0.016598545 0.008046523 0.03881841 -0.006940067 0.04504133 -0.044689678 0.080235384 -0.018351272 0.07137943 0.07267136 0.063652046 0.009742312 0.080911286 -0.07666521 0.09332471 0.023978747 -0.012909278 0.07528757 -0.038888 -0.0035366043 0.026417531 -0.06914616 -0.014677465 0.053047933 0.011431493 -0.06251991 -0.09055272 0.02161961 -0.10185684 0.0015448332 -0.08153808 -0.08090053 0.0029429123 -0.05485793 0.08664984 -0.04053875 0.098140724 0.02049195 0.088862725 0.09847442 -0.03002324 -0.07352733 -0.047402393 0.08150215 -0.07003029 -0.0060550794 0.054869287 -0.06972269 0.042725496 0.08206012 -0.012759142 0.07983074 0.053695224 -0.08451787 0.060169928 -0.00679674 0.022849776 -0.07198851 0.06593483 0.018120386 -0.032732494 0.039854594 -0.032471843 -0.04650244 -0.022855453 -0.007327415 -0.034530208 0.10272799 0.056955777 -0.011354685 -0.01064229 0.0901467 -0.067738265 -0.0003720671 0.0004924238 0.018905796 -0.010189414 -0.047504574 0.04735651 -0.0024738237 -0.09945288 -0.10067794 0.038718663 0.104935564 0.08303764 0.06657242 -0.031035773 0.09849892 0.080702804 -0.038712516 -0.08991837 0.008177839 -0.0732632 -0.068473585 0.017373167 0.009662405 -0.07781146 -0.008112028 -0.028225914 -0.09930639 0.10495528 -0.08058317 0.053609513 0.0047120526 -0.003187716 -0.025599733 0.00968767 0.08856314 
0.042592265 -0.017979823 0.049453087 -0.09962042 0.05753327 -0.06501469 -0.069973424 0.0012285113 -0.10327183 0.028797366 0.07017707 -0.045274086 0.043194793 0.018579684 -0.0138068795 -0.029535465 0.10605817 0.06383098 0.008324929 0.081614785 -0.023894988 0.044554077 0.07251247 0.09797417 0.025681473 0.09906673 -0.035877697 0.021693848 -0.08369318 -0.0672714 0.052208625 0.100782104 -0.023981012 -0.020830698 0.07944221 0.09315706 -0.07783809 -0.098908275 0.028956406 -0.05686067 0.044228517 -0.10111801 -0.0075409114 0.08805678 -0.015702441 -0.0022120625 0.049152754 -0.09371093 -0.107682884 -0.08369759 0.032182522 -0.010352425 0.08363826 0.06497755 -0.047457032 -0.05223392 0.043046974 -0.07327424 0.01726035 0.08299149 -0.05519864 0.073707424 0.027551688 0.073102064 0.10819987 0.066744246 -0.10180266 0.017195515 0.010070324 -0.06862369 -0.10368857 -0.04948453 0.064843394 0.06788107 -0.09061352 -0.10565343 0.043650232 0.0363233 0.03462168 -0.02559238 0.027498849 -0.031428933 0.009045243 0.040706076 -0.08988905 -0.011144161 0.05110059 -0.0075246245 -0.0035500824 0.030966468 0.09676332 0.016753502 0.1068703 -0.012868315 0.010700546 0.08299137 0.06512683 -0.03638251 -0.08486895 0.09535169 -0.039378457 0.06529803 -0.088878654 0.0094247535 0.01166226 -0.0356538 0.083055265 -0.081342645 0.061279632 -0.105723396 -0.04757351 0.09161205 0.0976625 0.048358075 0.009285636 0.042573445 -0.04493293 0.013446711 0.072633214 0.03702847 -0.08366758 0.057174467 -0.10151505 0.086372755 0.07597064 -0.060199372 -0.017640091 -0.06706448 
-0.09735214 0.028059103 -0.012079805 0.10070356 0.0038818866 -0.06222994 -0.030941881 -0.09927258 -0.015560485 -0.08889318 -0.051714372 -0.03318716 -0.005563304 0.04535588 -0.008963712 0.023479022 -0.0038977861 0.008627288 -0.067475274 -0.06792025 -0.017578997 -0.020124704 0.05290223 0.0071277246 -0.096567094 -0.042649508 -0.06504806 -0.027690366 0.09351451 -0.08246387 0.10578818 0.10193626 0.06885467 0.0576595 -0.09775038 -0.0682224 -0.09792772 -0.08544998 -0.10099865 0.011848606 0.06605073 -0.09760373 0.058475234 -0.026166335 -0.03249342 0.011424914 -0.047945816 -0.08285204 -0.057125427 0.07533064 0.031716757 -0.05808562 0.0014066473 -0.016768299 0.0033035725 -0.05610223 -0.0053038895 0.07427109 -0.10163542 -0.054149043 -0.10771112 -0.07709016 -0.024123684 0.018943675 0.04932911 0.044168167 0.05732519 0.015053302 -0.01808843 0.024131991 0.018858634 -0.032104544 -0.07138157 0.10259468 0.04394453 0.022482686 0.009310931 -0.005374171 -0.034273505 -0.03998018 0.032173567 0.046223007 0.028641857 -0.106124274 -0.0040340647 0.035896562 0.06264331 0.0023179278 -0.0066413954 0.00874573 -0.04216122 -0.020193636 0.0646357 -0.09778202 0.059850223 0.06392606 -0.060760472 0.050970204 0.062160276 -0.041360453 0.025745817 0.10593658 0.034007482 -0.06442494 -0.06526166 -0.09447022 0.023529865 -0.102628596 0.06189335 0.07126143 -0.013064027 0.060279272 -0.013260566 -0.107585944 0.048002265 0.07243096 -0.054715663 0.006403558 0.092861585 -0.026341893 0.03195978 0.09755046 0.08739009 -0.06114594 -0.025671795 -0.022979468 0.0661181 0.09317858 
0.20723599 0.621136 -0.20391794 -0.23588055 0.5411687 0.29767296 -0.5633709 -0.007848627 0.347653 0.15678895 -0.17597498 -0.3950558 -0.08170559 0.082681 0.14210388 -0.09257162 0.03267814 -0.09663449 0.15882216 0.3316995 0.25670007 -0.15430725 0.2766827 0.5696237 -0.061191935 -0.1334125 0.47906998 0.22183181 0.4185447 -0.08967828 -0.38204217 -0.018167952 0.17400849 -0.10720947 -0.018098515 0.33536145 0.31109273 -0.09066246 0.22400574 0.5877616 -0.2128266 0.123201735 -0.15263799 -0.2586254 -0.122870564 -0.109129936 0.11629932 -0.13198416 -0.05770767 -0.4584052 0.26015797 0.19782166 0.06392772 0.35638246 -0.09137892 0.45723036 -0.07305403 5.8651432e-05 0.12187985 0.18481508 0.7466318 -0.090555064 0.44711167 -0.1318137 0.13469467 -0.015740806 0.9160858 -0.028318897 -0.3212265 -0.4079207 0.52381986 0.11332038 0.11289507 0.53104985 -0.4160619 0.04251517 0.30569416 0.4654948 0.55317914 0.38918817 -0.2357694 -0.1497409 -0.044372886 -0.014247926 -0.31827387 -0.1415402 0.023719873 1.6385361 0.91207457 0.27539745 0.12293264 -0.33754832 -0.060419478 0.06794631 0.5126624 -0.2839546 -0.1878693 -0.09189255 0.2143722 -0.019060155 0.018388024 -0.28046954 0.27284107 0.3145529 -0.38797063 0.22784853 0.09872717 -0.18870124 -0.077338964 -0.17239037 -0.25337034 0.09840136 0.21890047 0.079536326 0.13108228 0.10556285 0.25151744 -0.119215846 -0.060612053 0.091827855 0.9088418 -0.08644064 -0.07835047 -0.21804951 0.6030465 -0.0931395 0.54356027 -0.22056957 
-0.38948953 0.49448162 0.23248392 0.29200396 -0.22085297 -0.21137439 0.22573629 1.0350895 0.1551478 -0.27670455 -0.12651214 -0.019079713 0.36104622 0.41019806 0.79989666 1.7494379 -0.11718848 0.3732202 -0.0066694547 -0.3917356 0.2996437 1.4754695 0.7790439 -0.20087077 -0.524376 0.048641585 -0.14237453 -0.23061489 -0.5380066 -0.22850466 0.056951173 -0.19760656 0.45856696 0.4761192 0.10049514 0.05054487 0.4030147 0.066596776 0.29929247 0.065780446 0.0386207 0.4399884 -0.10140098 0.53691065 0.16292465 0.32615614 -0.03131954 -0.31233335 0.16367441 0.14375147 -0.33053294 0.73506176 0.5085137 0.28902736 0.15075707 0.19068934 0.11425123 0.058339782 -0.09021157 -0.25117812 0.7731892 -0.43113622 0.6468424 0.81217057 0.13978739 0.1287288 -0.14606902 -0.003689573 0.26326254 -0.25066143 0.52033293 0.14674541 -0.15823147 0.5324102 0.49502882 0.27408406 -0.1868865 -0.09302304 0.122996524 -0.0245425 0.10695174 0.030646328 0.72028357 -0.23700978 0.30816695 -0.0011996569 -0.19433914 0.9647953 -0.098805405 0.36700025 -0.15811537 -0.1570069 0.07101582 0.22975965 -0.20965947 0.5683285 -0.24276361 0.31462488 0.07679111 0.50692016 0.8474417 -0.022686703 0.28299725 -0.096104905 0.75632435 0.7192054 0.04167832 0.47749966 0.5059989 -0.35620093 0.38718858 0.35399744 0.022631558 0.38673595 -0.06326199 0.18004036 -0.05252451 0.1637889 -0.34673432 0.24915923 0.20373955 0.07510921 0.7248604 0.56430316 0.7105365 -0.021840472 0.35828924 -0.6147132 
0.18483251 -0.019008256 -0.048018735 0.08234355 -0.2593126 0.3065219 -0.29030704 -0.26694784 0.26816005 0.45393056 -0.26546332 0.08286236 -0.021333536 0.11347813 0.07678678 0.21942085 -0.678617 -0.14344592 -0.29759413 0.17360355 0.8451689 -0.1907593 -0.22088231 0.29908675 0.35897997 -0.39641392 0.04174263 0.03233774 0.032617595 -0.16259754 0.17653379 -0.1966928 0.6665553 0.21951415 0.10990751 -0.048365567 0.6765989 -0.36490875 -0.25209263 -0.5310488 0.022311334 0.38173896 0.083839394 0.1616184 -0.036048852 -0.17926392 0.17464486 0.48468602 0.9019963 0.10404772 -0.042656958 -0.04050365 -0.1813609 -0.09394915 -0.27007493 0.40712836 0.15477866 -0.13082492 0.2920058 -0.08845669 -0.11570079 -0.070209526 0.9640835 0.7853828 0.60835624 0.100282684 0.28616813 0.28918526 0.8929695 -0.42860457 0.32065284 0.18381618 -0.09226882 0.26209223 0.30623618 -0.3901102 -0.1073572 0.33729386 0.25900966 0.42044723 0.6323113 0.13302936 0.440923 1.2748973 0.08131578 0.32110313 -0.2651203 0.22441033 0.1769085 0.15326852 -0.16148832 -0.2865615 -0.26692092 0.38380513 0.08755863 0.89775133 -0.3984234 0.4326371 -0.44474047 -0.0713486 0.8052945 0.48348698 -0.21112202 -0.32612568 0.17537062 0.10266735 0.113524884 0.24182919 -0.17095621 0.015683439 -0.3450249 0.5000749 0.38421267 -0.18650313 0.05277065 0.4434041 0.27453342 0.22544526 0.3111311 -0.09675079 0.24493131 -0.08472343 0.29798108 -0.052529406 -0.3724136 -0.3864553 -0.5408199 0.26557234 
0.32808053 -0.04488058 0.344903 -0.46548945 0.22349548 -0.31046107 0.17251542 -0.05715513 1.0417066 -0.041193552 0.28101745 0.073694564 -0.04555168 -0.21297637 0.7303905 0.11716152 0.11185563 -0.019552946 -0.04107413 0.38670582 -0.26400262 0.2329957 -0.036015626 -0.32464743 0.29664466 0.12655474 -0.03413371 0.23264839 0.82684666 0.017875748 0.11877937 0.2174308 0.873062 0.1910567 0.1751363 0.05286712 0.15445928 -0.11465612 -0.11290708 0.64045596 -0.21040139 -0.0008683066 -0.3037327 0.6797316 0.11677747 -0.03353098 -0.33197513 -0.33767468 -0.04201824 0.27926493 -0.2392616 0.21853803 0.10585389 -0.3246983 -0.18572721 0.26798892 0.2520994 -0.1901026 0.4577378 -0.37514722 0.1740057 0.3394715 0.23629186 0.16189264 -0.14508295 -0.15755577 0.43364376 0.32338932 -0.29923534 0.02431482 0.77884537 0.72491926 0.10821936 0.047670946 0.24622135 -0.36631224 0.40744883 0.095429905 -0.24774699 -0.013413111 -0.17865531 -0.31406993 0.30593044 0.50936246 -0.27196127 -0.056958824 0.055938397 0.57637817 0.4784058 0.5370398 -0.008491463 -0.73234236 -0.36947954 0.37708485 -0.02048638 0.8130897 -0.21793719 -0.12118834 0.47576144 -0.17728193 0.74133897 0.2902007 -0.5716362 -0.023800928 -0.42171907 0.42117512 -0.0025335206 0.112637766 0.10344934 0.16737857 0.38328555 0.21955812 0.20199938 -0.7390891 0.22866887 0.13330492 0.68722904 -0.066008955 0.29670733 0.5734052 0.57572913 -0.217048 0.5003587 0.27592686 0.07254662 -0.331163 0.4858684 -0.6042136 
-0.3209789 0.26030293 -0.08346649 0.22588706 0.36107737 0.585872 -0.42108253 -0.3408669 -0.28781518 0.57175094 -0.1667832 -0.07244642 0.083854705 0.5711503 -0.3502743 0.31339824 0.41035312 -0.23044886 0.11142119 -0.31012005 0.6027179 0.10004191 -0.086803235 0.36912173 0.46402586 -0.02024739 -0.24249072 -0.23020492 1.1012317 0.4524418 -0.25804847 -0.15360352 -0.71358943 -0.03259138 -0.11717355 -0.13424782 -0.53723073 -0.07645302 0.22840977 0.30215576 0.34990242 -0.25738007 0.17289287 -0.433625 -0.13363759 -0.07190495 -0.5495069 -0.33266342 0.20272344 0.10603687 -0.32358012 0.24530374 -0.574241 0.55202913 -0.5273219 0.33066 0.24972394 -0.20230928 -0.18409534 0.23290235 0.6881252 0.11189009 -0.03253204 0.34615505 -0.038894612 0.42809424 0.24158256 0.04120787 0.5663862 0.3514329 -0.13353592 -0.2289932 -0.12661456 -0.28315794 0.38087672 -0.30459717 -0.13909742 0.3440973 0.23496851 -0.15611674 0.31999782 0.22948796 -0.36842135 -0.098340265 -0.066922426 -0.056481905 0.3739172 0.68083155 0.99417186 -0.07474744 0.32159212 -0.0029648305 0.16335328 0.30377546 0.15426503 -0.108274214 -0.40153083 0.73890626 0.16069683 -0.0034046858 0.56006694 0.41607514 -0.5024626 0.37727717 0.11722358 -0.3637936 0.053574752 -0.3103416 0.17798178 0.092629895 1.1663545 0.46991926 0.5142168 1.0316229 0.41943753 0.1521188 -0.009171735 -0.10850796 -0.06723374 0.02524821 0.08851181 -0.11836389 -0.106422104 -0.21152045 0.19172978 0.1916903 -0.031771895 -0.36630312 
-0.34998164 0.14817753 0.15964146 0.061411817 0.16652347 0.2047497 0.19173387 -0.028904416 0.01993729 -0.21857344 -0.0083786575 -0.0545765 0.09534671 -0.15952168 0.035828352 -0.23111625 -0.12204214 -0.035747368 -0.47813576 -0.49018168 -0.22331841 0.21881758 -0.025742883 0.47480753 -0.12450586 0.27328897 0.05099438 1.0204709 -0.2410681 1.2156969 -0.21064052 0.15418372 -0.35512263 -0.085470825 1.0534716 0.18245247 -0.46041262 0.2989516 0.2499435 0.4975135 -0.3663042 -0.12222093 -0.045474768 0.20244822 0.25489655 0.24090134 0.22318032 -0.12632857 0.6073984 0.5054455 0.6993453 0.034893733 0.62211275 -0.039551657 0.0045703095 -0.015025088 -0.15069859 0.1480838 0.5793484 0.046785057 0.064283215 0.25687945 0.7009177 -0.08197857 -0.09251787 0.06336183 -0.008343109 0.15897754 0.050178163 0.054603893 -0.09328251 -0.328095 0.020007215 -0.07369599 0.39965653 0.39959085 0.09627745 0.06740486 -0.00048296375 1.0718763 -0.16723491 0.17262386 0.17400314 -0.021158045 0.06731897 -0.014350634 0.16961353 0.48499167 -0.198461 -0.5016215 -0.066713594 -0.090635315 0.2553462 1.0756791 0.16000456 0.015132639 -0.07392766 -0.13057607 0.2552758 -0.023009868 -0.32367784 0.4864975 -0.34997502 0.3388226 0.57729036 0.121634476 0.993876 0.5699986 -0.075110085 0.0058042943 0.38027802 -0.5042595 0.1575488 0.06661556 -0.02397903 0.048070226 0.17235158 0.17203033 0.041078374 -0.08338856 -0.045252923 0.350599 -0.059178054 -0.13691467 0.15506148 0.36703318 0.6275122 -0.23106106 
0.35466006 0.6415192 -0.04348327 0.09335147 -0.069412775 0.13614604 0.3051778 -0.0011038991 -0.42102012 0.49747136 0.1774264 0.027715258 0.09807888 -0.30758494 0.5048015 0.4220027 -0.15741232 0.47352684 -0.08724968 -0.71669805 0.0022517387 -0.46119392 0.015509105 -0.08587476 -0.15833302 -0.29646602 0.41114643 -0.40476704 0.023879325 2.0174775e-05 -0.19764753 0.4416778 -0.24511069 -0.36860967 0.19593793 -0.40399083 0.76608974 -0.061428107 0.107259504 0.68919206 0.053986415 0.082776695 0.477423 -0.03069344 -0.16370302 0.55464154 0.36528072 -0.24038306 0.01098185 -0.056905847 0.12305257 0.6291621 0.11109765 -0.045068253 -0.30194795 0.23143944 -0.08938862 0.51646155 -0.39911816 0.29829848 0.20089804 -0.31015462 -0.15401389 -0.72274584 0.76250446 -0.23581031 -0.08695573 0.09433334 0.14119793 0.65774405 -0.23553833 -0.15276499 -0.10399862 0.32141784 0.455684 0.6240536 -0.12499863 0.5071535 -0.25561452 0.0571331 0.30838138 -0.21279454 0.4636663 0.26669836 0.18702127 0.2123251 -0.19856484 -0.22033612 -0.081528716 -0.43215078 0.8487264 0.053232603 0.46787658 0.0045910194 0.15340278 0.54503024 0.01942874 0.12308542 0.06949336 1.0199116 -0.109932475 -0.25640923 0.35688013 0.6263278 0.21446146 -0.19835828 -0.24464256 -0.64543015 0.4412033 0.23279889 0.103651404 -0.08058124 -0.112762176 0.13354848 0.5408821 -0.38796753 0.009346604 0.21695416 -0.19798562 0.06451987 -0.20716147 -0.023751387 0.368891 -0.3683243 0.26610804 -0.17403245 0.2687284 0.023602765 
-0.28892326 0.088234305 -0.16952255 -0.35302207 0.48032102 0.29024288 0.21408495 -0.19508797 -0.59181845 -0.1553238 0.068550386 -0.27589542 -0.07819706 -0.37490547 0.03079 0.3909419 0.23271081 -0.434815 0.086225994 -0.51444244 -0.26633537 0.5898712 0.27509272 -0.19657068 -0.10224474 -0.17564017 0.294122 0.66017187 0.69113755 -0.11254073 0.5159287 -0.11874852 0.15556796 0.14503089 0.3282996 -0.18657269 -0.16430537 -0.2862832 0.11091056 -0.18595883 -0.058680475 -0.38311085 0.22617486 0.05267996 0.16811974 0.17445295 0.20708676 -0.10217204 -0.17914692 0.28276673 -0.08632492 0.16804914 0.56490743 -0.51242566 -0.20323628 0.3794796 0.061454196 0.06575847 0.002901332 0.029201789 0.26528597 -0.056455426 -0.12549777 -0.28472352 0.4519157 0.09814585 0.6612711 -0.18538369 0.8271334 -0.32550755 0.16973335 0.27462 0.095097534 0.37433398 -0.37553245 -0.22162896 0.078953445 0.14765473 -0.07494951 0.6022145 0.20964387 0.032351546 0.017765224 0.8072628 0.15901393 -0.042095475 0.08980609 0.2889746 -0.5176677 0.28009984 -0.41800565 0.06194017 0.08700356 -0.44019985 -0.4050826 0.11280361 -0.35357368 0.3333182 0.37044087 -0.32480785 0.2636254 0.21252126 0.15105389 0.101062015 0.2824719 0.5217853 0.5147481 0.6112235 0.38985136 0.04597259 -0.48909375 -0.20427512 -0.20412818 -0.09294749 -0.066694595 -0.041151997 0.25207546 -0.5098983 0.49098876 0.13876818 0.19242601 -0.25387812 -0.15808 -0.012752535 -0.025866373 -0.1259884 -0.15786046 -0.06268373 
0.15320264 0.34624907 -0.26888257 -0.3730361 -0.07983383 0.2206607 0.25161287 0.44880742 -0.21640521 0.35126445 -0.3685567 -0.024216842 0.20431753 -0.38795763 -0.1751912 0.46331412 -0.15162419 0.4080988 0.27295798 -0.05193182 0.26132265 0.2823363 -0.11977344 -0.6698418 -0.0010952988 -0.18205501 0.0915006 0.075835325 0.2660503 0.26839775 0.6699937 -0.27772 0.17624587 0.32200256 -0.0057452247 0.65664786 0.03201146 0.15607698 -0.2366707 0.0236002 0.35324073 -0.56337327 -0.19124745 0.041377913 0.00089688017 0.07861881 0.054261543 0.08015142 0.18329272 0.19023898 0.2720548 -0.054223947 0.07843328 -0.12792958 0.2275913 0.0288047 -0.090029515 0.42014185 -0.3275975 0.0007294504 0.30979255 -0.27131477 -0.0020791208 -0.69334817 -0.21711497 0.039342534 0.15134634 0.2809024 1.0160531 -0.26266623 0.03623115 0.32625985 0.0753353 0.07098194 0.34082934 -0.3858339 0.2941509 0.64280474 0.17048293 0.17338899 -0.19532904 0.07225812 0.63608074 0.42302352 -0.42597282 -0.04714159 0.57284254 0.872264 -0.23808329 0.15188532 -0.3514706 -0.030369563 0.13567236 0.20544675 -0.14377275 0.15092747 -0.12242639 0.12519012 0.8690666 0.5972925 0.39253157 0.0041353586 -0.045393314 -0.24694642 0.5218378 -0.28061077 -0.30011368 0.27958575 -0.5192111 -0.21975523 -0.20328407 0.5528124 0.44044513 0.45310447 -0.2697056 -0.19655323 0.017234849 -0.8919148 -0.03310085 -0.5759864 0.7966316 -0.27284542 0.45168358 -0.3511937 0.34882143 -0.1454758 -0.20897064 0.45047107 
0.16246669 -0.38155678 -0.34007993 0.027736327 0.2496255 -0.67849094 0.28499827 0.39351058 -0.20432062 -0.0054582907 0.24253838 0.065764695 0.073133916 -0.35790652 -0.67155564 -0.08402747 0.28193828 -0.026170807 -0.33607504 -0.28412193 0.6770045 0.46676117 0.22210564 0.23594774 0.081273206 -0.35373038 -0.019651892 0.12282314 0.6279814 0.5718041 -0.21169686 -0.17923671 0.14745946 0.5910683 0.41702726 0.6199093 -0.6422923 -0.16516995 -0.07966087 0.7681737 0.36718646 -0.22353068 0.11364415 0.4986665 -0.32363907 0.10321421 0.04696805 0.25463906 -0.06842183 0.4623856 -0.41640273 0.16813679 0.68072677 -0.56647646 0.1234796 0.20548125 -0.025668053 0.082479164 -0.40395188 -0.19834879 -0.1557515 0.48988232 0.34956744 0.1792508 0.31064457 0.3994704 0.1033778 -0.030122247 -0.01287977 0.12968948 -0.38283303 0.13963605 0.14610142 -0.94744647 -0.095410034 -0.12756081 -0.069616854 -0.39723152 0.45375752 0.03047988 -0.15825075 -0.31639153 0.060859498 -0.3013672 -0.10271815 0.5160157 -0.05277548 -0.09707082 0.042487312 0.10125128 0.44303933 -0.18694423 0.11449588 -0.30638072 -0.38264582 -0.2038497 -0.22654781 -0.040083893 -0.026819846 -0.1368048 -0.63157606 -0.5989945 0.03277563 -0.072363146 0.36711973 0.7475137 0.89573675 -0.38616565 0.10311126 0.06774344 -0.2548557 0.31676847 -0.0768864 0.42208803 -0.40517345 -0.039468035 0.20706232 0.15376997 0.08820856 -0.21505457 0.2785832 -0.75619984 0.7514515 0.63320184 0.069028586 0.22670221 -0.20343754 0.2910308 
0.08029215 0.15543842 -0.02673694 -0.3133242 0.094291046 -0.17641619 -0.101164125 0.31868443 0.011595166 -0.05175147 -0.09825841 0.14486805 0.5698909 0.29224786 0.024056887 0.24686988 -0.3524993 -0.19811071 -0.3879701 -0.2533173 -0.666767 0.9370135 0.30181953 -0.34037977 0.3901214 -0.6049772 0.5274003 0.12779759 -0.60342854 0.5470481 0.69647926 -0.39968276 0.5899026 0.34280148 0.109538175 0.45527324 -0.20804642 -0.12238957 0.013690054 0.5455795 0.11059658 0.13113317 -0.12860715 0.0031457434 0.4060421 0.56045306 -0.33498773 -0.00767678 0.12157832 0.21183191 0.17528917 -0.20435955 -0.1705039 -0.058432493 0.11356956 -0.26484647 0.14731681 0.14395294 -0.4162503 0.3442813 1.2579845 0.18236335 -0.33155358 0.078769416 -0.58374804 0.14606963 0.36172733 0.15667062 0.0061850906 -0.37764534 0.5974559 -0.5020002 -0.070406206 -0.238291 0.44247732 0.2975664 0.03497202 -0.024712984 0.15792297 0.17565185 0.31501505 0.30627555 0.5073014 0.23396236 0.3402503 0.13402465 -0.12222957 -0.16285238 -0.8027254 0.3475506 0.34154725 -0.14981271 0.0025288274 1.3617765 0.09555751 -0.08831559 -0.111487396 0.626503 -0.2696249 0.35904005 0.021582354 -0.19170484 0.2478596 0.17750467 0.031243294 0.08677242 0.42904294 1.5940634 -0.334753 -0.57139707 0.73860615 0.17397599 0.07155942 0.044092324 0.39373916 0.08565247 -0.02488694 -0.78521234 0.39859957 0.65608704 0.5712195 -0.05939094 0.69146734 0.97116494 0.19878472 0.798003 -0.28023186 0.71456844 
-0.2179285 0.5230646 -0.05866028 -0.032481093 0.4140912 0.38015425 -0.53738886 0.28866747 0.2385977 0.290759 -0.19530755 -0.04919472 0.22179145 0.2435652 0.31479415 0.48071808 0.6089966 0.31799388 -0.13672273 -0.21090867 0.17161095 0.2850546 0.582534 0.12032637 0.048643786 -0.16414024 0.2991734 0.17410919 0.14670008 0.52530354 0.18592486 -0.38822412 0.23962858 -0.036366824 -0.56879574 -0.18109182 -0.44653612 -0.20931073 0.47926083 0.26438257 -0.030042907 -0.040251646 0.12298527 0.49380964 -0.49025398 0.40308824 -0.2005849 0.11241396 0.74145526 -0.16826221 -0.010093826 -0.08018723 0.4455822 0.17114851 0.37017816 -0.18474862 0.30548587 0.3006876 0.510761 -0.29647726 0.46977916 0.7790279 -0.27472562 -0.59705544 0.30026767 0.16556627 -0.10748053 -0.045963325 0.5373948 0.3121314 -0.07866942 -0.3783508 -0.12724791 0.37744746 0.1829687 -0.21483962 0.069116645 -0.40127087 0.20321675 0.15568201 0.39514056 -0.11103723 -0.3072625 -0.11422502 0.026707074 0.030559734 0.416893 -0.5619819 -0.14183359 -0.64757186 0.23989749 -0.2721575 0.18107273 0.26161245 0.112125665 -0.174599 -0.20477198 0.3742104 -0.24101977 -0.14055568 -0.48078454 -0.68292135 0.048547722 0.26545143 1.0497673 0.46152773 0.39474338 0.17493519 0.17987852 -0.19120881 0.14170413 0.24738368 -0.4351808 0.6085224 0.19977242 -0.26108396 0.024253074 0.66351634 0.7764759 0.43944752 -0.014998632 -0.25163254 0.04616972 -0.30371946 0.30609185 -0.18074088 0.049779795 -0.009975082 
0.295319 -0.19656627 -0.21223447 -0.03505898 0.17128561 0.26426685 -0.2736419 0.05309714 0.18939245 -0.07840823 0.17835693 0.27719173 0.34790486 -0.54157656 -0.18299264 -0.34513238 0.10051934 -0.021925244 -0.15289949 -0.7742035 -0.1804381 0.39196894 0.9981127 0.39840066 0.37482098 -0.320566 0.40530398 0.14897403 0.36078683 -0.5333991 0.009857634 -0.31904766 0.43415695 -0.15297687 -0.29582772 0.1597708 -0.17648345 -0.09180983 -0.27940053 0.25000033 0.3363547 0.29461733 0.015140775 0.606701 0.4770226 0.12253719 -0.34953213 -0.058989342 0.36425778 0.07477481 0.012357222 -0.08285412 0.35271645 -0.23784707 0.46938977 0.27653515 0.38713676 -0.48491126 0.78424525 0.15180849 0.2179478 0.5119922 0.30573136 0.5922716 0.10718263 0.24079004 0.45339298 0.4547103 0.8403015 0.28663784 -0.0703764 0.21019246 0.3581396 0.88951194 -0.14972799 -0.3732798 -0.016174812 0.10671335 0.118877076 0.29843128 0.13574323 0.10082392 0.20055388 0.12117438 0.31253234 -0.112945326 0.07801648 -0.018393977 -0.228162 0.35852036 0.35463116 -0.24057645 -0.19555697 -0.28372464 -0.10569363 0.039867174 0.03553333 0.37850827 0.13405402 -0.1540484 0.29971743 0.10233327 -0.2846739 -0.0055942126 0.19923499 0.34957168 -0.5312223 0.40003473 -0.13482243 -0.38505512 0.43290704 0.06830674 0.28211227 -0.5743691 0.28828436 -0.16236375 -0.7303884 -0.03920788 0.225752 -0.4763582 0.31527966 0.6778573 0.14680678 0.07275743 -0.096605085 -0.23134755 0.6615874 0.17637491 
1.1185595 -0.6423569 0.09146643 0.0040812115 -0.52799 0.064287834 -0.5473176 0.6302829 0.33802283 0.12026838 -0.3330481 -0.19735289 -0.3273276 0.01138518 -0.08543997 -0.06204247 -0.3230257 -0.07296735 -0.6727985 0.5742484 -0.19611242 0.65221906 0.3747607 0.019428013 -0.9009985 -0.05263511 0.3098446 -0.18688244 -0.12937434 -0.22274844 1.0178769 0.7079872 -0.53646207 -0.34270152 0.76898295 -0.188145 -0.23491333 -0.32415763 0.20781757 -0.1887695 0.24094488 -0.40033302 -0.18463309 0.1768058 -0.40179583 -0.11158914 0.20918249 0.05274398 -0.006725734 0.22348395 0.5392379 0.046734933 0.89050907 0.70507014 0.0699216 0.1377886 0.36917147 -0.48960862 -0.28508312 -0.06930896 -0.28767294 -0.5407158 0.8049371 -0.19302376 0.11034299 0.57793206 0.30016035 -0.105652936 1.0725737 0.63195527 -0.52374536 -0.24010581 0.15436727 0.10795819 0.5031852 0.16836299 0.08442562 0.40317863 -0.06309839 0.3834963 0.33641466 -0.20060478 0.34299323 0.022528842 -0.13829744 -0.09830222 0.19876176 -0.28573257 -0.30275086 0.0016801709 0.10759244 -0.07040373 -0.5897887 -0.16536912 0.020568969 -0.24977115 -0.21998744 0.3195115 0.23610795 -0.5705862 0.18575849 -0.6618976 0.086092904 0.81776977 0.3395986 -0.031727295 -0.114129394 0.7046293 -0.4067078 0.4287972 -0.0030969852 0.18738508 0.10867985 -0.41339096 0.5601045 -0.055957865 0.9315734 -0.23247346 0.17136894 0.2578099 0.2644711 0.35950598 0.3717305 -0.26033282 0.14172299 0.071675606 0.2668421 0.44082642 
0.38170192 -0.14340487 0.107010335 0.17157657 0.23579426 0.16517667 0.16587242 -0.14824453 -0.0060302126 0.047082774 -0.30649787 -0.1152519 0.15306175 0.67503613 -0.17797253 -0.3351653 0.15505871 -0.16750146 -0.3318512 -0.7771861 0.3376868 0.4461077 0.27475336 -0.64731944 0.2057227 -0.0065761567 -0.38059834 0.1185239 0.2091592 -0.27460623 0.4115301 -0.083785996 0.20341721 -0.47207958 0.43960968 -0.3040751 0.06969915 0.040281978 -0.14144044 1.3118125 0.14482725 -0.20336662 0.3437184 -0.13001196 0.7807582 0.55930865 -0.05346658 -0.18459897 -0.20710029 0.062244758 0.09604529 0.0073145702 0.2152352 0.067961305 0.32836398 0.89497 0.11597301 0.2101945 0.103884116 -0.0025457686 -0.3967613 0.40103883 0.23176366 -0.10645942 1.0866697 0.037431963 -0.1746264 0.060243372 -0.08534417 0.26417974 0.37224248 0.6134867 -0.0069185374 0.24504134 0.024149934 -0.24989326 0.09033593 -0.26819888 0.11529912 0.07251455 -0.042548526 0.026949773 0.393313 -0.700177 0.029983371 0.08612004 0.54724175 0.31653863 -0.14434066 -0.0037122946 0.57343525 -0.42467692 0.34014454 0.25264743 0.20402229 0.060444623 -0.20149547 -0.23207894 0.22898683 -0.23161644 -0.20654117 -0.47653425 -0.29711986 0.16423298 -0.38198152 -0.35695735 -0.2192039 -0.2398833 -0.3392875 -0.009781686 0.71319526 -0.24924847 0.20869888 0.22302067 0.22788134 -0.69161314 0.30152145 0.32896653 0.10828046 0.20488648 -0.33163548 0.46420637 0.6420464 -0.1838676 -0.20933567 1.2174764 -0.2714665 0.47120646 
0.71413773 1.4383103 -0.3866143 -0.13972348 0.112017855 -0.12126112 0.68189496 0.5473585 0.42695522 0.13043344 0.4560488 -0.26335663 0.0007750662 0.16613175 -0.829934 0.0196371 -0.20556916 -0.54191726 -0.31612816 -0.3162322 -0.07984686 -0.06831949 -0.12566933 -0.5487287 -0.08372599 0.014495945 -0.054519575 -0.29954806 0.087643474 0.722696 -0.12958887 -0.05057038 -0.051668976 -0.29599336 0.6423347 -0.36201757 0.1695518 0.008746476 -0.109347396 0.66497934 0.7842655 -0.2283666 0.00457014 -0.54591554 0.74853146 0.25878888 0.42377642 0.73795396 0.24834138 0.0463033 0.37403205 -0.23516251 0.18189295 -0.2793555 0.09746328 0.48067302 0.19326724 0.0416707 -0.43259495 0.09125456 0.2628611 0.2956982 -0.23099011 0.5850455 0.3217306 0.026778474 0.22761525 0.44759154 -0.39384443 0.65128434 -0.36035138 -0.16966946 -0.041068636 -0.18938613 0.7440644 0.5601109 0.21868895 0.55523896 -0.41185436 -0.33302936 -0.28680104 0.18341203 0.31497285 0.13472828 0.18167977 -0.020278137 -0.12691888 -0.31234676 0.7419778 0.5526278 0.15984714 -0.39899927 -0.20311964 -0.34350055 0.07207197 0.10050582 -0.093931496 0.41389307 -0.13369215 0.57554495 0.53794104 0.017849011 -0.24186212 0.14840306 0.09706029 0.0548439 -0.41483054 -0.11988466 -0.11703873 0.06955541 -0.29438153 0.110931806 0.22822426 -0.34621033 0.19497564 -0.07059263 0.9955226 -0.16805068 0.45082837 0.22702444 -0.018900145 0.52572024 -0.24813 0.090133145 0.14021923 -0.5440882 0.12671483 0.37941867 
-0.08706662 -0.2871916 0.53107077 -0.29732007 0.051757623 -0.022668615 0.07612539 -0.022266505 0.10979217 -0.091443785 -0.1891427 0.0041459044 -0.11066094 -0.60967505 -0.28461713 0.24718013 0.102849975 0.11110859 0.033834293 0.41546807 -0.08710567 -0.2015342 0.124552 -0.14813165 -0.08056776 -0.31713107 0.21988061 0.05023505 0.48470202 -0.24948435 0.037439525 -0.25736108 0.1369996 0.51367396 -0.23958702 0.5754089 0.35794553 0.06261468 -0.09448472 0.06028945 0.124911465 -0.1321403 0.27097574 -0.6301834 0.31535462 0.19057727 0.15012711 0.29471266 0.463696 -0.2071037 0.016665818 0.032150675 0.2385742 -0.005203266 -0.006454286 0.071877845 0.2014447 0.9597082 0.112170026 -0.057433352 -0.2352443 -0.27901834 -0.52186805 -0.09408638 -0.15679647 0.0796569 -0.4115196 0.0889335 -0.23865643 0.05881408 -0.010548678 -0.32697958 0.19653848 -0.3314484 -0.04619989 -0.21974613 -0.47935098 0.32723802 0.39319772 -0.4037736 -0.07559619 -0.34693906 -0.50064003 -0.15618728 -0.31080854 0.3681411 -0.13110314 -0.8178949 0.007393379 0.49420872 0.6559904 0.02115057 -0.3282097 1.2726492 0.15337391 0.63855827 0.10890755 -0.11084213 -0.015725719 -0.15866816 0.08629107 0.18201965 -0.09272253 0.33498096 0.04456882 -0.38112015 0.11594052 -0.70012623 0.21966451 -0.1711356 0.034623004 0.07877841 0.09440436 -0.43018487 -0.080851495 -0.25154975 -0.18468332 -0.4023236 0.09768836 -0.097214825 -0.13215359 0.2846597 0.09926237 0.75582683 -0.18324764 0.17541403 0.17914055 -0.2021417 
-0.31048977 -0.5240907 0.03192816 -0.1834568 0.3868628 0.03831426 0.14221983 -0.38482177 0.11167369 0.18781054 0.2073761 0.029620005 -0.25631827 0.26687092 0.43829283 0.25700262 0.1501394 0.39755818 -0.4338429 -0.26741794 0.008349259 -0.28577402 0.57001054 0.40349773 -0.014922153 -0.2588315 0.06444196 0.19306435 -0.29335368 0.4536838 1.0591282 0.0024182792 0.34442526 -0.093544535 -0.42359775 -0.10357879 -0.011584668 0.28417274 -0.08550627 -0.5122914 -0.42207402 -0.13516666 -0.1104209 0.015982933 0.3310597 -0.097934805 -0.2430765 0.06506791 -0.550019 0.07923473 0.1881075 -0.16864131 0.30885878 -0.110044196 0.4592645 0.032448977 -0.1072404 0.015892567 0.59358996 -0.41952994 0.032183334 0.12716581 0.074290015 0.5059021 0.22581562 -0.35958958 0.26742244 -0.26699287 0.4130232 0.12060776 0.846254 -0.2838559 -0.024209464 -0.27357012 -0.2975115 -0.32471704 -0.2273736 -0.2948122 0.3024909 0.15692718 0.7047014 0.25722158 -0.738955 0.036142647 0.32423237 0.20045258 0.22683172 -0.61443454 -0.036367636 -0.43476278 0.13650857 0.27020308 -0.4896739 0.19811486 0.6657999 0.19133504 -0.23444162 0.11984758 -0.24029621 0.37042797 0.40522268 0.2212727 -0.07874506 0.40590343 -0.8753281 -0.5710989 -0.08393904 -0.4958194 -0.37679246 0.6363745 -0.30025956 0.121772304 -0.31627852 -0.014409057 0.32687032 0.018416962 0.09971995 -0.42211685 0.09441611 0.595244 1.24213 0.47460744 -0.19469157 0.042730916 0.2810211 0.19487509 -0.13243535 0.24890932 
0.1703075 0.116924144 -0.29689097 -0.08441619 0.22139943 0.029283825 0.29855812 0.39207444 0.78069556 0.40104276 -0.29803467 -0.30816588 -0.2766356 -0.4706569 0.05851757 0.015688581 0.3687263 -0.241294 -0.3629704 -0.31491992 -0.054886255 0.23122285 0.20891255 0.3405308 -0.3909191 -0.13698512 -0.04248948 0.13303532 0.32686105 0.11281859 0.63052845 -0.35432637 -0.1202222 0.17940646 0.45077854 -0.041427758 0.20607807 -0.048554327 0.30821598 0.26533717 0.7256749 -0.062662415 0.2880423 -0.049837608 0.14852369 0.11739874 0.35498106 -0.04559532 0.4790168 -0.0014137973 -0.4518509 0.06960181 -0.0855233 0.30163082 -0.38583013 -0.095017165 0.120965034 -0.21990544 -0.24891111 -0.07195629 0.3101645 0.03487474 0.33248875 -0.38550305 0.2596033 -0.09235205 -0.6471071 0.220217 0.90048325 -0.11383837 0.17768909 -0.4051235 0.011443285 0.62549776 0.4504907 -0.10452572 -0.46476594 0.45272923 0.008442779 0.31803367 0.111687675 0.05988314 -0.18130341 -0.63701653 -0.40211853 -0.31788868 -0.35215932 -0.3626984 0.8164977 -0.8793587 0.019916093 -0.12796088 0.12508132 -0.010742922 0.008629688 0.095899545 0.07728634 0.012989359 0.2933731 0.019116523 -0.112907544 -0.15164694 0.037886404 0.11699772 -0.21563293 0.48275995 0.37165627 -0.30604717 -0.1730854 0.05410857 0.58139247 0.31844458 -0.20419002 0.05008039 0.06884167 0.16601677 0.37412697 0.28630483 -0.40067023 -0.6016434 -0.7167699 0.63431805 0.06506263 0.10589162 0.1072279 0.22072922 -0.22552694 -0.20502272 
0.76368076 -0.045477554 -0.0922709 -0.44511816 -0.0724999 0.23244093 0.7148934 0.47607034 0.16095838 0.4377753 0.2600807 0.16293262 0.021963896 0.13938488 -0.2577783 -0.6190847 -0.3981649 0.020323649 -0.3666377 -0.36269557 0.02856237 -0.41333544 0.58598566 0.12069699 0.33241454 -0.12456484 -0.08567361 0.038669273 0.10620954 0.15484232 0.17565493 -0.020559061 0.04834634 0.2987818 0.4241155 0.1805156 0.11800835 0.47156698 -0.349508 0.48316336 -0.48675656 0.04198539 -0.2070774 -0.10277999 0.8642368 0.29928052 -0.07106815 -0.019790063 -0.59557766 -0.40548283 0.10199879 0.0046626916 -0.3087312 -0.13255914 -0.21314496 0.433223 -0.11132252 0.3659964 0.79471034 0.0126998015 -0.229296 -0.3915335 -0.60623395 -0.1862175 0.03992139 0.017329743 0.255557 0.08658075 -0.0342272 0.15569997 0.47697398 -0.1890185 -0.4285239 -0.42391476 0.6691428 0.7789065 -0.03368365 0.42277977 0.08307053 0.41840613 0.1412302 -0.015609564 -0.20566589 -0.36488557 0.3286094 0.16124237 0.11489985 0.89946824 -0.49437496 0.16519229 0.4882143 0.14914249 0.08148175 -0.6940402 0.26285836 -0.40019038 0.075009264 0.11363876 0.017328825 0.2775297 -0.2499766 -0.17926343 0.34713116 0.53583777 0.4777499 0.1025043 0.46449468 0.11136675 0.36547983 -0.3013501 0.47726148 -0.054128945 -0.18171601 0.2568265 0.06050895 -0.026188962 -0.35615724 -0.24265864 0.0659447 0.9675224 -0.022818703 0.45446914 0.044143915 -0.12274198 -0.061042383 0.23328222 -0.15837836 0.20202729 
-0.41456553 0.4704631 -0.1210441 -0.16849808 0.50977737 -0.3328998 0.4894962 -0.26074252 0.23982356 0.56559443 -0.044157255 -0.48509398 0.47804755 0.08877764 -0.064453006 -0.5258726 -0.38953203 0.096445605 -0.41107786 0.3008344 -0.5891938 -0.5370215 0.005670146 -0.08863336 -0.5823169 -0.34309053 0.4844845 -0.074071184 0.7536741 0.27836636 0.45056316 0.20308888 -0.17762557 0.21878403 0.02019745 0.11110768 -0.36588705 -0.11859889 0.08461854 0.20727673 0.9649885 -0.020614367 0.563191 0.06815375 0.34058285 -0.38223165 -0.10334655 0.28127632 -0.16252224 -0.16289923 0.28718084 0.7863769 -0.23327596 -0.116154164 -0.00813829 0.2727033 -0.27848575 -0.078053765 0.9602402 -0.2370105 0.49468133 0.28577054 -0.57581717 0.46927917 -0.057324253 0.030967824 0.3343083 -0.36257738 -0.5953107 0.7651481 -0.10930936 0.16209003 -0.14715096 0.6974263 0.48573613 0.22392505 0.10874773 -0.0124956295 -0.1483848 0.87782276 -0.37067965 0.13162306 -0.406146 0.36753848 0.35784578 0.33883423 -0.19972263 0.05575942 0.55560875 0.26730415 -0.03823425 -0.2724267 -0.1849974 0.3931606 -0.034799725 -0.43325204 0.19567408 -0.14091606 -0.14288199 0.20875825 -0.085490376 0.5659338 0.32087043 -0.22151883 -0.02621972 0.27145258 -0.22312185 -0.48727793 -0.15326388 0.3955084 -0.08766435 0.30785176 -0.101248845 0.78219944 -0.013207249 -0.298924 0.6675013 -0.47216842 -0.0701424 -0.1464752 0.1868951 0.39189315 -0.034445282 0.28802574 0.50196385 0.28231335 -0.24935661 0.001966221 
0.2291784 0.14928697 -0.5202082 0.16722926 0.23508579 0.32485285 0.18997784 0.35486662 -0.11325732 0.17663029 -0.10535629 -0.025678437 0.059225693 0.29293728 -0.518907 0.48568258 0.42841324 0.90270734 -0.07623461 -0.7511281 0.21909145 -0.5852003 -0.16213557 0.23417792 0.265988 -0.5727337 0.05526926 0.30094403 0.53508043 -0.35912672 0.3051177 -0.06524933 0.12372911 0.3887996 0.72885555 -0.32371873 0.12849358 0.225596 -0.091758214 -0.010543028 -0.252013 0.0114221 0.15336974 0.70119023 -0.2170234 0.28851947 -0.15058327 0.14736703 -0.18503818 0.0662371 0.3811504 0.26886764 -0.3138488 0.3288899 -0.22905666 -0.11869717 0.14749034 0.5415444 -0.06693606 -0.23284814 0.360358 0.22945915 -0.40321133 -0.42060184 0.032562867 -0.064848855 -0.4137555 0.6706559 0.7733902 0.24658346 -0.055303115 0.03494678 -0.3323516 -0.2235237 -0.5372673 -0.2673263 0.009442062 0.3424359 0.5331462 0.27611274 -0.5067233 -0.30126083 -0.3391155 -0.29302755 0.025212819 0.32251924 -0.10833504 0.26456004 0.15737467 0.02768826 -0.20234366 -0.07686329 -0.51961446 -0.42926946 -0.09508545 -0.16635244 -0.5324108 -0.06473728 -0.081988685 0.11698135 -0.15266936 0.38119197 -0.2729883 0.015363549 0.000104709914 -0.12069301 0.50785565 0.35278973 0.12185229 0.062475078 -0.09324128 0.03779034 0.42694023 0.19752045 0.3328244 -0.30070817 0.64588594 -1.1681865 -0.14660737 0.08674793 -0.43592304 0.40070504 0.13838829 -0.13459015 0.94842196 0.4391189 -0.3424402 0.60964423 
-0.06530715 1.0716661 -0.32162264 -0.26092046 -0.110822506 0.18921739 -0.06688853 0.052210223 -0.14173797 -0.069932885 -0.09434786 -0.20170835 0.17718527 0.1986225 -0.023496872 -0.466112 -0.26637655 0.002851056 -0.5395384 0.90144455 0.9474147 -0.3024525 -0.24812803 -0.111081645 -0.61384434 -0.26535067 0.6585371 0.51824635 -0.24828094 -0.15351918 -0.17062625 0.07155307 -0.32387355 0.051367197 0.19534563 0.51695067 0.02102462 -0.47763124 0.46578377 0.34707054 1.2047554 0.059899952 0.719517 0.68043274 -0.19961683 -0.5357597 -0.6206189 -0.27568275 -0.34696636 0.090122595 0.046566665 -0.096503966 -0.1832661 -0.2406269 0.3182165 0.86380047 0.2738871 -0.06014684 0.46820155 -0.25374037 -0.06256765 -0.18831632 0.3526618 0.07886654 0.09238756 0.061394393 0.6840787 0.53491205 0.19432808 -0.9716376 0.24954441 -0.18975931 0.05992907 0.67241234 0.119889446 -0.23942208 0.27417445 1.5669961 -0.20796283 0.22612466 -0.5368033 -0.15683572 0.33683723 0.06427441 -0.5586244 -0.13747117 0.1335208 0.48027822 0.18384975 -0.5298145 -0.0626149 -0.1606052 0.11812768 -0.43580285 0.0745336 0.2569585 -0.67126095 0.1934472 -0.49860606 -0.19409516 0.005294675 0.19228499 0.31995028 -0.9852482 0.19069943 0.9392606 0.769274 0.19101281 0.012235782 0.45035782 0.018677523 -0.04431123 -0.812718 0.5817992 0.39083335 -0.1496458 0.25797036 -0.18739755 0.058393776 0.03300585 0.18107234 -0.3782587 -0.16446751 -0.10974723 0.068702556 -0.23527102 0.36090332 0.049995687 
0.10441867 -0.33445892 0.14753631 -0.6702979 0.03654284 0.2774288 0.77817106 0.15643089 -0.016326308 0.16782469 -0.2536863 -0.0727578 0.1703161 -0.15898629 0.13398594 0.03785467 0.19906242 0.54487526 -0.41166708 -0.035573438 0.3802939 -0.27109736 -0.40508595 0.19443552 0.1445109 0.29810756 0.26355532 -0.20428658 -0.16733038 0.22657116 0.34038705 -0.26963535 0.2588052 0.1270427 0.5260864 -0.36500004 0.42729437 -0.0025783682 0.019370599 -0.038217347 -0.20931832 -0.34601703 0.47368878 0.33273613 0.60301 -0.2292357 0.18063664 0.08510419 0.015873184 0.27518755 0.46102208 0.09937149 -0.29288253 -0.026045559 0.0670735 0.14168465 -0.03441308 0.10469456 0.44565827 0.08753117 -0.021529013 -0.48642847 0.41440517 -0.3256266 0.42548645 -0.056311645 0.02695133 -0.45927045 0.109050795 0.16348581 0.019971816 0.2327198 -0.20621906 0.57122546 0.36566103 0.04022628 -0.44235647 -0.031908587 0.22063582 -0.042699125 0.07906962 -0.2367037 0.43416834 0.06078694 0.3132082 -0.2094639 0.11788624 0.1004803 0.12956879 -0.6117436 -0.10635352 0.19701217 -0.41308975 0.02188519 0.027164966 0.0102212485 -0.15751857 0.18747973 0.61622995 -0.11069445 0.1331486 -0.24329975 -0.1313977 -0.62109613 -0.42922443 0.07748217 0.10309347 0.25233203 0.47565603 -0.10486027 0.37031984 -0.079204954 -0.07864198 -0.14406061 0.18426827 0.16278563 0.76572603 0.05146447 0.048569083 -0.14984904 -0.07209663 -0.0931179 -0.37683284 0.17975378 0.8101018 0.08416561 -0.30792776 -0.2194978 
0.20283984 0.11000298 -0.4438092 -0.0067455387 -0.16177501 -0.10232545 0.21347229 0.35556194 -0.14819553 -0.083467245 0.707205 -0.07040869 0.10702062 -0.37095976 -0.012147548 -0.056344945 0.15567634 -0.22909622 -0.31092787 0.121491574 -0.24790819 0.016855856 -0.32041785 -0.15339863 0.09010598 -0.09522194 0.3412653 -0.10061837 0.5321955 -0.17144345 -0.19346043 0.021106638 -0.22230314 0.14690264 0.4299355 -0.046826657 0.10444272 -0.090040274 0.08960773 -0.9803499 0.15322472 -0.10449137 0.113137275 -0.019416137 -0.11375006 -0.11536183 0.06902304 -0.16544643 -0.073654175 -0.10592522 -0.1772927 0.26637927 -0.051304515 -0.2858995 -0.1652789 -0.0228589 -0.44851777 -0.20146155 -0.82847047 -0.012640226 0.3685156 0.008882468 0.25100505 0.07675037 -0.40113094 0.42823252 0.4871235 0.69095224 0.4538954 -0.11708607 0.12595798 -0.46809304 0.32439858 -0.0074859518 -0.2086545 -0.36559477 -0.26941252 -0.018409606 -0.27065575 0.43844053 -0.25108403 0.5909241 0.4358389 0.011326591 -0.11588851 -0.08105959 0.082466885 -0.041453987 0.0855889 0.055625893 0.068455964 0.33468837 0.33087006 0.25231707 -0.07995464 -0.041973073 0.21651982 0.33686936 -0.29171753 0.041903663 0.07840786 0.2178177 -0.19647437 0.352783 -0.083397254 -0.014542772 0.40513012 -0.4731204 -0.05467947 0.0127623705 0.36889997 -0.08755233 0.4736969 0.061271153 -0.2605117 0.0057302206 -0.024431096 0.89989775 -0.2549131 -0.9120656 -0.084060214 -0.2547834 0.23541003 -0.03860767 0.4145972 -0.50063086 -0.17440258 -0.30921242 
-0.1694749 0.5070662 -0.3929157 0.30510652 -0.17004904 0.3619066 -0.39345413 0.15072536 -0.52286816 -0.18603851 0.3705337 -0.1554825 0.5676808 0.4568164 0.15293287 0.79741204 -0.46756628 -0.29810685 -0.16621336 -0.024755144 0.026073517 -0.43148834 0.1639898 -0.039601263 0.07118992 0.6650764 0.2831249 0.2371211 0.12483524 -0.056523774 -0.21505712 -0.30834043 0.26478535 -0.5576988 0.44712025 0.28968668 -0.8817298 0.22551692 0.32351568 -0.20005152 -0.21173775 -0.10424189 0.38911545 0.0026512218 0.14690675 -0.013861526 0.38920888 -0.3945398 0.14114782 -0.036490772 0.7044923 0.10248526 -0.10856329 0.022347195 -0.39212313 -0.07728282 0.1300162 -1.7513301 -0.07702703 -0.12361755 0.25378293 -0.0671327 -1.3878621 0.06623981 -0.7526707 0.34841883 0.16727118 0.10149883 -0.05530284 -0.5224867 -0.21714507 0.2967065 -0.16749127 -0.4774957 -0.3087012 -0.26623416 0.6266138 0.19678086 0.16579507 0.06689511 0.27646264 -2.0877588 0.13462964 0.3350758 0.033817742 0.6373045 -0.03313755 -0.27563515 -0.42301133 0.53661364 -0.33810133 -0.11538326 0.40992695 -0.2829215 0.0010088322 0.34177512 0.12342827 -0.49855107 0.27232763 0.1630227 0.48582992 -0.04346843 0.8099234 -0.15482369 0.2626029 0.8627424 0.062551506 0.26097745 -0.39493036 -0.49886557 -0.14830174 -0.3268885 -0.27018732 -0.5209366 0.029052764 0.5653404 0.5045905 -0.23489891 -0.12144256 -0.007892748 0.064448014 0.05905508 0.2328391 0.34599966 0.075111 -0.26413298 -1.1000044 0.123355836 
-0.021069335 0.16377555 0.5646267 -0.20042053 0.18678766 0.10761863 -0.8202713 0.26566878 -0.059154753 -0.22119643 0.39526343 -0.019290062 -0.050061837 -0.14189401 -0.5982134 0.19774373 0.8452424 -0.59090084 -0.38327223 -0.19245571 0.314736 -0.1643509 -0.3963246 -0.08242957 -0.13563478 -0.10468836 0.31866595 0.34607926 -0.29656693 0.2186316 -0.07978693 0.4258375 0.12734845 0.0037098462 -0.4027216 0.33936426 -0.035808984 0.11111568 0.4886064 -0.03537251 -0.16403332 0.09639013 0.3763202 0.15050548 -0.3385426 0.07540682 0.024249801 -0.30538574 -0.009014017 -0.25984102 -0.16711678 0.49455282 0.11009157 0.100550815 -0.23266318 -0.3642966 -0.06112888 -0.029435018 -0.5388937 0.033706833 -0.5567422 -0.018097835 0.13825037 0.63254267 -0.019564118 0.25049663 -0.38760075 0.72059196 0.5963929 0.4302711 0.14200243 -0.47315642 0.100899346 0.14281765 -0.44488344 0.12551746 0.03501598 0.051810056 -0.1470156 0.020168493 -0.27737892 0.10422225 -0.1539275 0.48016176 0.3115852 -0.040949333 0.04450996 1.192185 0.092175044 0.33660805 -0.5181191 0.44230583 0.18691766 0.6199206 -0.03526608 -0.0063483696 0.23812631 0.22824878 -0.695577 0.39835307 0.29696947 0.049343094 -0.8540167 0.11034745 0.16365431 -0.8360855 -0.33390698 -0.58375084 0.22859092 0.012128151 0.37002137 -0.2796227 0.67219335 0.7868714 -0.0023076502 -0.10686884 -0.36643884 0.46516415 -0.03462459 -0.47197974 -0.20391244 0.20076571 0.21877132 0.032111548 -0.23297061 -1.0005648 0.3108221 -0.25231814 
0.23291962 -0.17609978 -0.446969 0.25286895 0.201786 0.31797627 -0.04714348 0.31513777 0.23957841 -0.054819044 -0.12900916 -0.60167116 0.24407707 0.6463049 -0.5795435 0.72662205 0.051633503 0.12841162 -0.42123145 -0.28043932 -1.0551573 -0.12555054 -0.42097443 0.21462819 0.3728522 0.01201922 0.048399534 0.4899921 0.16621928 -0.700144 -0.12432596 0.516402 -0.0161065 0.000999987 -0.24876258 0.20503035 -0.56834793 0.24187337 0.2695652 -0.11659685 0.2969502 0.10486585 0.21713996 -0.14144586 -0.1007901 0.21350503 0.1298578 -0.061029952 -0.42880452 -0.065552555 -0.1662159 -0.033525884 0.0054449476 0.23770356 0.3381128 -0.12488854 0.24511185 -0.30010304 -0.19912776 -0.45099854 -0.3146452 -0.20267235 -0.09386797 -0.37164903 -0.08318632 0.50689244 -0.4355315 -0.3755371 -0.53241396 0.06747653 -0.15345107 0.5351185 -0.15181851 -0.24918057 0.020856706 -0.03985004 -0.20699432 -0.14111365 0.13252725 0.25289354 -0.10545071 -0.07070619 -0.012010893 0.14423163 -0.08535044 0.6847703 -0.20345198 0.0055312263 0.67717576 -0.24824938 -0.080452815 0.40698573 -0.4238103 0.000106712236 -0.10394071 -0.6097089 0.37949198 -0.48127568 0.93480974 -0.04579491 -0.19331755 0.6426572 -0.17839506 0.33965236 -0.2460406 -0.6153705 -0.011679904 0.09168001 -0.15232444 -0.08748407 -0.44501123 -0.34204787 0.08020959 -0.6704713 -0.22158307 0.17918144 0.19367546 -0.78199846 -0.42232934 -0.06129424 0.23961578 0.21832128 0.13794234 0.087890685 0.07520313 0.6759308 0.2005219 0.7343417 
0.07640076 0.2076135 -0.012082934 0.1900907 -0.37756467 0.523459 0.22163863 0.2670792 -0.14042084 0.35980263 0.06155258 0.2966748 -0.01320904 0.3056943 0.48421884 0.4465683 -0.684903 0.60132337 -0.13464005 -0.5225709 -0.32569495 0.32198614 -0.60044694 -0.031366535 -0.19426613 -0.35210583 -0.17887275 0.43732783 -0.57012284 0.15098453 -0.15044552 0.27142942 -0.15785886 0.024387913 -0.10844335 -0.2857868 -0.48445696 0.3671002 0.4244152 -0.20312478 -0.09980607 0.23503399 0.2443762 -0.21723141 0.24761172 0.044734433 0.54560286 -0.3019538 0.17299467 0.26774997 0.3846279 0.1779205 0.53024924 -0.15268758 -0.5145422 0.016111244 -0.13494714 -0.25600845 0.6647016 0.051699452 -0.47723463 -0.5092879 -0.21815696 0.07188058 -0.17784 0.20600124 -0.8094355 -0.33253694 0.039242636 0.086033754 -0.3932665 -0.23243853 -0.15261672 -0.006805538 -0.08065285 -0.5917153 0.06901117 -0.12051963 0.08702375 -0.13958924 0.069642924 -0.07582593 -0.05927264 0.5541906 0.367742 0.06320967 -0.015786631 0.20431389 -0.13882174 -0.3962187 0.1560006 0.3170301 0.32277128 0.18505687 0.32195306 -0.3327194 0.31397086 -0.2529822 -0.52326876 0.13916992 0.7169318 -0.65133065 -0.19168007 -0.031338874 -0.75712144 -0.013679001 0.13137123 -0.064709425 -0.07077696 0.48868707 -0.33804527 -0.0025868241 0.13489352 0.13036007 0.27858374 0.29890102 0.090292916 0.43787578 0.13244148 -0.14693502 0.42040914 0.3637777 0.366178 0.23645306 -0.014785803 0.105866045 -0.5950785 -0.042093787 
0.13401231 -0.25865522 0.40258452 -0.35257155 0.13676676 -0.02930751 0.47792926 -0.3275894 -0.1693908 -0.12480849 -0.37592134 -0.49618983 0.15939441 -0.30671814 -0.32701567 -0.17925388 0.010634826 0.38855714 -0.4664481 0.19897166 0.12346513 -0.18231419 -0.20158035 -0.25977403 0.19133075 -0.05684164 -0.23973076 -0.046679936 0.18663831 -0.1899562 -0.24851315 0.19738986 0.17594473 0.11840978 -0.5823335 -0.24938352 -0.2196991 0.61315817 -0.19809619 -0.1677901 0.11696822 -0.013837455 -0.06123431 -0.7331904 -0.5195337 -0.12539153 -0.28467485 0.29362735 0.18042566 -0.032494012 -0.031316757 0.17781007 -0.4384517 0.21475384 0.622492 0.034580152 -0.029847108 -1.5123969 -0.12979124 -0.4756289 -0.12540035 0.67530626 0.07189213 0.60927165 0.73832947 0.65646183 1.0039736 0.39746082 -0.29930654 -0.050707556 0.19255416 0.6111503 0.1406307 -0.056577798 -0.48318687 -0.032349583 0.7181754 0.22287245 -0.18106768 0.16027328 0.41288522 0.51884705 0.2723475 -0.1945352 0.123274416 0.2887547 0.19573158 0.20475857 -0.4041535 0.5657543 -0.29500714 0.18646026 0.21579051 -0.103749044 0.20646146 0.07433875 0.25407445 -0.597934 0.29957837 -0.101008885 -0.3753992 -0.07264703 -0.27483267 0.25107223 -0.8856099 -0.48091194 -0.3556619 0.28389204 0.070526846 -0.012426839 -0.22377779 -0.07925547 -0.1045945 0.018008463 0.13598414 0.113665506 -0.9116245 -0.51884055 -0.56126636 -0.16857918 -0.21096413 0.23596601 -0.055532444 -0.24077111 -0.15821269 0.14170323 -0.45868665 -0.014560467 
0.33846927 0.2925639 -0.6863857 -0.07474867 -0.06268358 -0.33160016 0.23266011 0.20585288 0.43873718 0.13182533 0.1747119 -0.2307184 0.2928334 0.5168225 0.7920441 -0.17068568 -1.0263362 0.3884915 0.344271 -0.28196827 -0.41141114 0.29090714 0.3321872 0.25182572 -0.18938929 -0.597492 0.19810496 -0.103818804 0.04545709 -0.3074126 -0.13356942 -0.39747778 0.083509825 0.32814163 -0.65878475 0.094674446 -0.6661908 0.06540965 0.21850011 -0.009232261 0.1165777 -0.1333269 0.07217565 -0.6994051 -0.43868652 -0.017269855 0.26299196 -0.6691304 0.34401184 0.13450465 0.54618984 -0.17604497 -0.050087348 -0.1602774 -0.950282 0.2438121 -0.021494161 -0.3279928 -0.6280624 -0.38389522 0.01275897 -0.2976689 0.011844628 -0.15479048 -0.032231342 0.08785176 -0.24463439 -0.5404646 -0.97252023 -0.091656744 0.34603027 -0.6074 0.23283342 -0.23491018 -0.24370602 -0.32097003 -0.24198602 -0.08283829 -0.07526998 0.0927034 0.1313563 -0.095097095 0.099814974 -0.42883724 -0.16314368 -0.071379974 -0.14886707 -0.08852324 0.4276205 -0.1496252 0.40951005 0.097130306 -0.16948403 0.28219166 0.028369594 0.7734994 -0.005263442 0.05576809 0.1167839 -0.23619846 0.40361053 0.60278696 0.6449225 0.059439264 -0.10379506 -0.011315558 0.14395204 -0.33114925 -0.08646419 0.26071045 -0.2118401 0.23884775 -0.027813619 0.041229643 0.1762904 0.5016191 -0.42403746 -0.52790636 -0.5382165 -0.13877209 0.112284295 0.58707637 -0.10928042 -0.023052443 -0.31060338 0.30419838 -0.27521375 -0.3049607 
-0.2413427 -0.0907898 0.3765921 -0.31767157 -0.093165755 -0.065724 -0.7152525 -0.20361681 0.6369332 0.013628535 -0.14098218 0.14680107 -0.04059759 0.13463636 0.1921962 -0.21132319 -0.06153132 0.29346642 0.040864 -0.07721043 0.14376311 0.06741814 0.11114437 -0.12405319 0.15082857 -0.20154005 -0.089131236 -0.14834718 0.17828661 0.25030994 0.34220967 -0.38914537 -0.2315681 0.07926314 -0.3362705 -0.05332765 -0.17315757 0.24823487 -0.10399722 -0.6137119 0.23473294 0.27648595 0.08428714 -0.465448 0.50274235 0.3593945 0.23155129 0.18204841 0.352399 0.22399476 0.10866507 0.1445068 -0.34014088 0.28460962 0.6264341 -0.10516469 -0.20574836 0.36362857 -0.011460504 -0.4686606 -0.5439735 0.122492835 0.06462238 -0.01022808 -0.13280556 -0.07423435 -0.3313912 -0.8258495 -0.7583347 0.46706983 -0.11308437 -0.65001535 -0.071411505 0.00662385 0.17236808 -0.20427218 0.4197266 -0.26009247 -0.18884651 0.2174117 0.24847025 -0.09954982 0.39417273 -0.5710391 0.16784889 0.7335385 0.3281858 0.2687858 0.07577788 -0.3045043 -0.29541218 0.35863355 0.39409444 -0.51905745 -0.095676646 0.30783194 -0.07569985 0.050483447 -0.1116889 0.00544998 -0.035721038 -0.5241221 -0.2781361 0.21530195 0.72123694 0.18903951 -0.06989855 0.4852034 0.36501908 0.10168629 -0.11632908 -0.043420687 0.13593292 -0.44981813 0.30308077 -0.16422226 -0.39754564 0.786795 -0.50480837 -0.010696355 0.015818952 0.24226359 0.06710608 0.14218657 -0.43929827 -0.6526326 -0.29850993 -0.5173302 
-0.5238336 0.42894298 -0.41581014 -0.25683007 0.11029036 -0.20456254 0.115788504 -0.5128056 -0.0560001 0.01649526 -1.3403536 0.14206389 0.28582063 -0.6431219 -0.10622156 0.6371055 0.3419872 0.109964095 0.35381564 -0.22869514 0.78078586 0.4486101 -0.4610665 0.08566729 0.38560104 0.010026501 -0.16238853 0.35703668 -1.2448722 -0.09166255 -0.43353534 0.34855297 0.13233405 0.6993883 -0.9244304 0.15481125 0.6022911 0.37181643 0.3481983 -0.6492497 -0.3091353 0.5289741 -0.05173793 0.6196044 0.39812002 -0.18813325 0.20200652 0.21305172 0.23778245 0.40905246 -0.15839565 0.16516836 -0.07867617 -0.7901974 -0.35306144 0.024119865 0.22503003 -0.645435 -0.5281667 0.26937467 -0.46544603 -0.0038642094 -1.5051638 0.31024045 0.036787063 0.020620445 -0.072401285 -0.3719771 -0.3597575 0.5020064 -0.019401906 0.30524927 -0.5616497 0.010123521 0.21770643 -0.2864765 0.11971197 -0.1158904 0.11081074 -0.26774374 0.2337906 -0.060898714 0.037531298 -0.22185268 -0.13055313 -0.26590878 0.12164927 -0.12222006 0.13115098 -0.15709724 0.2839313 -0.721871 -0.11835586 0.26554364 0.0066775717 -0.21719444 0.44897076 -0.32695365 -0.2645267 -0.43001813 -0.025414225 -0.46633148 -0.48659247 0.4916803 0.77413785 -0.08121576 0.34295377 -0.88735795 -0.19069494 -0.03413697 -0.10640166 -0.05386491 -0.041855484 0.0048327474 0.16574894 -0.00041522153 -0.23998685 0.4419434 0.40649715 1.1398064 0.26034194 0.51445264 0.46297425 -0.31821272 0.13834213 -0.024217738 0.74773633 0.19436237 
0.32589507 -0.7740183 0.55202305 -0.070392415 0.087502286 0.15518147 0.0965479 0.2664051 0.32296336 0.3795542 0.28273225 0.25005972 0.23872475 -0.74809456 -0.013842365 0.67731494 0.047239978 -1.038471 -0.079051435 -0.12822297 -1.2397718 -0.42921567 0.50039256 -0.055425473 -0.09133245 -0.14350265 -0.0484785 0.40621457 -0.097788475 0.22200516 -0.017379202 0.09220937 -0.31668663 0.24690849 -0.41964403 -0.24555027 0.054978654 0.54503745 0.39268416 0.46187174 -0.12871581 -0.1612468 -0.046036277 0.69272083 0.32891434 -0.06287747 0.34466508 -0.12458698 -0.08611059 0.32022592 0.038945 0.38516995 -0.39144257 0.058986943 0.12676293 0.20574276 -0.22240269 0.5607025 -0.5099635 0.34531432 -0.83327526 0.14911893 0.30637035 -0.09444367 -0.31685093 -0.12469552 0.1630985 0.25446838 -0.16430272 -0.06441148 -0.20055054 -0.41673616 -0.21568803 -0.5387448 -0.9316914 0.48883334 -0.39486405 0.43401566 0.39626467 0.47891936 0.21035403 -0.14015661 0.23752332 0.1413154 0.1266269 -0.16546296 -0.09365321 0.17400345 0.1877441 -0.7795009 0.16993271 0.04882687 0.6959342 -0.23154138 -0.37515846 -0.17133024 0.65203553 0.06743656 0.262391 0.48726088 -1.4841561 -0.024687545 -0.5332033 -0.62424743 -0.31245166 -0.05646147 -0.106266394 0.010253801 -0.32204884 0.2505512 -0.35644054 -0.34239164 0.06975627 -0.28914887 0.23255989 -0.093313344 0.30978462 -0.40483305 0.20377363 -0.7051748 -0.92970407 -0.20431913 0.24850899 -0.2457326 0.036416706 0.16333428 0.113747396 -0.18490252 
0.2983452 -0.5257732 0.16540742 0.10894843 0.025267595 0.07862652 -0.26684576 -0.29352018 -0.053666916 -0.31825706 -1.2397972 -0.03348442 0.112699896 0.27647027 0.6769402 -0.5711497 0.5414249 -0.14123975 0.26847312 0.047205955 0.07403827 0.06659068 -0.3000372 -0.4286883 -0.028850604 0.28440022 -0.23633434 0.031057457 -0.33061194 -0.28243583 0.7810009 0.8784546 -0.2645604 -0.43872502 0.14017743 -0.3852332 0.6580309 0.24229673 -0.43697816 -0.31124595 -0.0025189868 0.042997524 0.34002507 0.49466792 0.40074193 0.25584024 0.15537205 -0.3423378 0.09389394 0.17091481 0.23697539 0.39624417 -0.08323995 -0.44651562 0.002173634 0.16018692 -0.0351922 -1.0043329 0.13370605 0.0083130095 0.85797244 -0.81106955 -0.18206902 0.8634613 -0.13946408 0.22554232 -0.36941105 -0.03987667 -0.91336507 0.60376656 -0.028610414 0.39983258 -0.9446651 -0.84150016 -0.47253284 0.03831781 0.090231515 -0.07786144 0.293579 0.21888645 -5.748638e-05 -0.4730106 0.32230464 -0.46393844 -0.43415368 0.0641523 0.5693819 -0.014482196 -0.025258195 -0.17018265 -0.16709988 -1.0133317 0.36078113 -0.14043073 0.2574606 -0.21510218 0.124869995 0.24704356 -0.5156931 -0.10238676 0.24370663 0.46955797 0.43685606 0.19949524 0.8380953 0.026831241 0.26055324 -0.017361209 0.34043345 0.38420624 -0.56760335 0.1408936 0.18362541 -0.2802771 0.24951957 0.13263848 -0.48784366 0.26964515 0.19411355 0.2573144 0.04748891 0.5611742 -0.031935036 -0.4901886 0.11753127 -0.820647 -0.7834805 -0.075041726 
-0.021706458 -0.1952553 0.57773525 -0.53454936 -0.025792602 0.16015662 0.54492253 0.06155724 0.22594905 -0.2908537 -0.12923001 -0.057679493 0.007335282 0.048014365 -0.23541398 -0.73691297 -0.0995931 -1.4352609 0.21225497 0.5111409 0.20189612 0.14474355 -0.5921595 0.4496302 -0.081848115 -0.34614027 0.3529655 -0.1768462 -0.2666053 -0.13275808 -0.23567133 -0.019843148 0.3679113 0.19049305 0.5601093 -0.113822505 0.44349656 0.17415166 0.2203841 0.17816009 0.52590877 -0.29666525 0.2877237 -0.88179475 -0.055879958 0.026732873 -0.30933455 -0.15647674 0.09857342 0.20718607 0.25311208 -0.083045006 0.08614154 -0.5175226 -0.3499357 0.17120104 0.1126062 -0.010984057 -0.4943545 -0.32738665 -0.38347986 -1.1972533 0.19285402 -0.32301414 -0.17287828 0.30873862 0.170528 -0.4289158 -0.17719933 -0.20897084 0.18414584 -1.1101067 0.038622495 -0.040747415 -0.2669672 -0.49797007 0.30646658 -0.011593301 0.12432923 0.20717101 0.31598213 0.42793733 0.2574156 -0.09515893 0.21348386 0.04299019 -0.16930677 0.073484235 0.40921405 0.018530104 0.40680462 0.119585186 -0.5088305 -0.20408587 0.050986506 0.401887 0.50972766 0.2656468 0.53510034 -0.35179195 -0.57121694 -0.16870002 -0.31111404 -0.01873734 -0.7284438 0.29665828 -0.39701214 -0.43816525 0.6484635 0.35215425 -0.04304347 -0.30437922 0.26030174 0.29836378 0.42555076 -0.042946033 -0.38957396 0.30241066 -0.13590518 0.5574167 -0.24468741 -0.13578732 -0.20554724 0.48447394 -0.38535488 0.3505937 -0.4354851 -0.12856579 
0.02545422 -0.6009211 0.164688 0.6259633 -0.48272625 0.07149998 -0.86623204 -0.093397185 0.27497455 0.29602212 0.19848561 -0.3588441 0.10900238 -0.36091238 -0.4097867 0.1361813 0.1659192 0.17493498 -0.15142235 0.5276267 0.39352536 -0.89975107 -0.35503164 -0.1605931 0.32323822 0.37074426 -0.06167393 0.03321722 -0.70189714 0.18266863 -0.5207417 -0.4869017 0.14169215 0.15471868 -0.0020415466 -0.05521459 0.46668583 0.36828524 -0.17948292 -0.373265 -0.25255468 0.1436198 0.22140068 0.11510035 0.00796747 0.40936202 0.07376884 -0.32761633 -0.15316504 0.42767477 -0.08765098 0.20243996 0.008421869 -0.99266404 -0.11562737 0.3703775 -0.08314078 0.12788711 -0.89619213 -0.33449608 -0.26501256 -0.13393366 0.07224082 0.6903826 0.08980098 0.2557178 0.13532916 -0.9028774 0.16802457 -0.100522436 0.45396927 -0.01053158 0.46474373 0.44148868 -0.74636394 0.2836788 0.0071363407 0.33450025 0.29985705 0.24670704 -0.03841979 -0.2161508 0.019056825 0.028861327 0.05630447 -0.05205297 0.398722 -0.369813 -0.21856953 -0.14186636 -0.03869245 0.07051618 0.36445725 -0.3535218 -0.022488859 -0.15505774 0.4109198 -0.24316914 0.44270647 0.27989843 0.07340357 0.32824755 0.5407676 0.37539208 0.15770325 0.09534131 0.31561735 -0.5191613 0.21912324 0.21919686 -0.090382405 0.25330848 0.6544691 0.490316 0.0688505 0.018850423 -0.5415556 0.32468262 0.2400621 -0.9569899 -0.49655256 -0.12900604 0.18125612 0.29421067 0.5688903 0.7341364 -0.25056642 -0.046323244 
0.33464542 -0.18516798 -0.07150281 -0.3227351 0.46520242 -0.29367122 0.5646349 -0.42742032 0.31687108 0.10678952 -0.52291167 0.07606828 -0.10241019 -0.020246381 0.25684506 0.23480819 0.008536574 0.3305518 -0.0034135194 -0.20266162 -0.5616765 0.30566105 -0.5774187 0.33057293 0.21739115 0.1429806 0.5073734 0.014432136 0.3508345 0.17021297 -0.09105428 -0.12829818 0.57229656 -0.09724595 0.22683853 0.025894407 0.74242747 0.20949674 -0.17042795 0.21376082 -0.14693342 -0.5885874 0.089672066 -0.22920312 -0.139886 0.28844127 0.4568587 0.091417015 0.6044698 -0.13196759 0.18541951 0.15894477 0.26342452 -0.696173 -1.4885538 -0.24481963 -0.08947939 0.52182007 0.63979304 -0.59242094 -0.27911788 -0.47083154 -0.0011673204 -0.6079089 -0.041933943 -0.17972907 0.16673626 -0.045596633 0.112610355 -0.3451083 0.13744955 -0.33980224 0.80599576 -0.15094051 0.8378765 -0.77955824 -1.2711273 0.12683725 0.27890438 -0.3601375 -0.11083709 0.09760742 -0.04564799 0.22631904 -0.5333623 0.0032723327 -0.078519456 0.1090317 0.17200823 0.015136926 0.59892195 0.31147012 -0.4998574 -0.24006905 -0.3114766 0.049957342 0.55619454 0.18245465 0.22694206 -0.14638242 0.64910644 -0.8062952 0.788504 -0.14224765 -0.65655327 -0.29248512 0.1570436 -0.21339604 -0.28775153 0.79272205 0.06463028 0.35225216 0.61500067 0.6563063 0.0062520504 -0.16721292 -0.47075447 0.8859094 0.49854177 -0.43955508 0.45551592 0.35809493 0.9477189 0.25229615 -0.31114972 0.16093718 0.30257994 0.3178183 
-0.46798494 -0.2217772 0.6518461 0.02127239 -0.0077151833 0.16402566 0.55979896 -0.060184076 0.18067741 -0.1242858 0.19901644 -0.2641597 0.2815568 -0.5221061 0.4410479 -0.1587671 -0.060219478 0.61683595 -0.52625537 0.28005052 0.10786622 -0.5260219 -0.08408612 -0.056742545 -0.18242943 0.4071261 0.056076687 0.028893523 -0.423401 0.62351096 -0.10636458 -0.25532782 -0.4449508 0.09480029 0.07978153 -0.38633084 -0.26446128 0.8641211 0.27709678 -0.5877518 -0.14502536 0.07848962 0.25804725 -0.53377146 0.0740233 0.00391175 0.007833678 0.060613453 0.017363856 -0.38241306 -0.07634478 0.22111787 0.23856476 -0.38145593 0.17112431 -0.11613996 0.28728342 -0.28554583 0.20671275 0.032303814 -0.3285293 -0.14206819 -0.76834923 -0.5349677 -0.2325913 0.37936598 0.013619475 -0.107143745 0.06748714 0.09772457 0.37015823 0.26963416 0.19531319 0.67486703 0.45810777 0.3197367 -0.0023588608 -0.26625034 0.23295583 0.15253033 0.047756393 0.14392878 -0.26837236 0.26475447 0.46054026 0.1905078 0.35732198 -0.105713256 0.77412754 0.03480266 0.4311121 -0.55866164 -0.3501799 -0.052257508 0.19173342 -0.41602924 0.8854801 0.16827309 -0.21347213 0.38242215 -0.2424316 -0.4040367 0.17699936 0.2732253 0.48686704 -0.38605818 -0.24054638 -0.3165159 -0.11541864 0.3223532 -1.0749679 -0.059121914 -0.49709967 -0.72537255 0.34469712 0.09796904 0.34167325 -0.21518546 0.11654586 0.60581225 -0.24621364 0.03918434 0.40992847 0.40460768 -0.7970518 -0.451331 -0.2529302 -0.2275195 
0.27908355 0.11202343 -0.1478832 -0.13113648 -0.3846415 -0.48779488 0.54616547 -0.037485346 -0.03342319 -0.29140928 -0.38281265 -0.09241067 0.11974129 0.1481842 -0.56101054 -0.039597496 -1.2391593 -0.60811913 0.17664994 0.36861008 -0.85817784 0.1974319 0.20924944 0.52068526 0.2663478 0.36856067 0.3503618 0.3086466 0.14460725 0.31529763 0.20367877 0.0009693415 0.35545257 0.1417387 -1.057772 0.21518026 -0.32581547 0.44951984 0.09492532 -0.124990836 -0.40089652 -0.3208424 0.29413202 -0.8154127 -0.4201983 0.6517408 0.011617697 0.23245797 -0.15335384 -0.17208916 0.2600304 -0.27913347 0.19607322 0.30180818 -0.99296284 -0.1335809 -0.44312328 -0.61168647 -0.2405643 -0.105232365 -0.5293533 -0.38420254 -1.2217976 0.45226052 0.28875902 0.25395352 0.66886324 0.36671165 -0.16476576 -0.30470762 0.16385676 -1.0874435 0.40896142 -0.18338257 -0.07567631 -0.045399994 -1.728796 0.25766507 0.42385226 -0.14822206 0.007990956 -0.020897526 0.2153472 0.14485931 0.42600292 0.26294425 -0.114562854 0.1776014 0.50733376 -0.0918704 0.2837645 0.023013195 -0.41432926 -0.71273464 -0.27891874 -0.1314355 0.37806016 0.115609676 -0.13763188 0.10786644 -0.09331521 0.34535336 0.5574396 0.04446664 -0.28832597 -0.15400285 0.1462613 -1.0082538 0.19522692 -0.046055067 0.43791828 0.1882784 0.10797389 0.47256362 0.35875693 -0.09706755 0.17439017 0.018994981 0.49551272 -0.27548793 0.20097075 0.027727516 0.23416638 0.6376241 -0.47888657 0.29060918 0.34052047 0.2768841 
-0.24446325 0.3240752 -0.0071134865 -0.14763106 0.29258168 -0.15647033 -0.11403948 -0.24786381 0.3703138 0.05901184 -0.24449293 -0.10231879 0.15735607 -0.34835735 0.24094081 -0.38417462 -0.8011629 0.17361178 0.023080086 -0.2075817 -1.0336521 -0.402559 -0.5394562 -0.20501553 -0.0649333 -0.1704783 -0.05762423 0.0545163 -0.1863482 0.102969766 -0.41884753 0.12065108 -0.22537872 0.11126924 -0.45465106 0.19942011 -0.20636441 0.15068397 -0.05004355 0.33095866 0.14194432 -0.2385312 -0.033111926 -0.32283017 0.095074676 -0.02926715 -0.33008182 0.18670785 -0.42306313 0.23060189 -0.22193146 0.1113374 -0.069830365 -0.30168957 -0.04342492 -0.18782718 -0.083008334 -0.20955636 -0.20354752 -0.36610872 0.05849136 0.07537354 0.019953022 -0.15749222 0.805703 0.09003896 -0.812048 0.54624546 -0.90221 -0.01725359 0.06283529 -0.1771708 -0.035733834 -0.37121633 0.28942662 -0.4623545 -0.062455725 -0.09605855 -0.28789535 -0.1827545 -0.013705007 0.046154246 -0.07572014 -0.16537172 0.34061745 0.09244262 -0.0054779225 -0.5484109 -0.38025746 -0.43872827 -0.06672157 -0.078398526 -0.16869365 -1.7209316 0.16510117 -0.156186 0.11014987 -0.13848679 -0.18501584 -0.117945194 -0.4410232 -0.43279472 -0.038909867 -0.2030781 -0.52743423 -0.28177506 0.08928251 0.18371086 0.2917929 -0.1654905 -0.0834834 0.16339485 0.37551188 0.106793225 0.19484857 0.20793937 -0.79789144 -0.33457065 -0.012180625 -0.15339863 -0.041681096 -0.0749401 0.009499829 -0.2667275 -0.05176451 0.3036485 -0.30179715 0.11036051 
0.22797868 -0.39730555 -0.22675563 -0.24918221 0.49860996 0.13125023 0.124509394 0.18052325 -0.088112526 -0.036181547 0.014593047 0.41819862 0.056416947 -0.1529699 -0.30144235 -0.037799783 0.2282034 0.12070014 -0.0900118 0.10895234 -0.18648955 -0.63837004 -0.042060573 0.5498691 -0.10987091 -0.15654556 0.12194791 0.36396658 -0.21974583 -0.084144466 -0.20686881 -0.3930147 0.0521503 -0.38729325 -0.2439069 -0.3630099 -0.13525964 0.22075692 -0.23147383 -0.81517124 0.38767588 0.42725533 -0.35312274 -0.37119043 -0.35938156 0.2284144 0.099119134 0.1765881 0.07894716 -0.022950798 0.17932801 0.008624515 0.27682278 -0.59933484 -0.104507744 0.1763724 0.17514716 -0.42413598 0.451126 0.057850946 -0.44689667 -0.6702657 -0.088163465 -0.02738296 0.08830415 0.11751989 -0.49583745 -0.014880289 -1.4389628 0.33009955 -0.78963006 -0.4375594 -0.04759486 -0.15183505 -0.40266687 -0.91214997 0.791551 0.277285 0.026970994 0.32043004 0.112185165 0.31114456 0.19763854 -0.35807517 -0.2940818 -0.142471 0.22409205 -0.44071975 -0.7656411 -0.0052676955 0.042343143 0.11291206 0.49551013 -0.24193121 0.08217014 -0.29801878 0.5804211 -0.006786037 -0.24847423 -0.594072 0.3654604 0.10748064 0.10430168 -0.058705635 -0.23567572 -0.42181578 -0.2033802 -0.5653291 -0.28721744 0.2651643 0.42223912 0.09414376 -0.1016678 -0.36988667 0.27360484 -0.3053908 -0.62744474 0.48005277 0.042239692 0.009364082 -0.13719754 0.7344721 0.21934597 -0.26613662 -0.047447316 0.52500784 0.36318964 0.27616948 
0.3161341 0.06575074 0.37273756 -0.18249927 -0.38779137 -0.24666323 0.27270237 0.30827036 -0.12119348 -0.032051574 -0.1498461 -0.24236602 -0.13206133 0.5787455 -1.1661749 0.453144 -0.9080381 0.17963986 -0.02929016 0.0105017945 -0.65077025 -0.13924588 -0.124610014 0.13168181 -0.185539 0.022575237 0.16141796 -0.045656797 -0.1678157 -0.44271973 -0.5592634 -0.17727688 -0.21426773 0.15834035 -0.7177137 -0.15735456 -0.63219506 0.000995448 -0.6386572 0.17341368 0.03398755 -0.14080241 -0.06203149 -0.59791714 0.068286225 0.41408876 -0.13512842 -0.02696409 0.03245407 0.24774963 -0.16527955 0.13997021 0.002848397 -0.1918949 0.14621507 0.052397776 -0.0053630057 0.9414582 0.33765152 0.09509512 0.080530874 -0.19588014 -0.27172902 -0.13172162 -0.2527012 -0.258674 0.08072767 -0.32706305 -0.95127165 -0.13734469 0.23615241 -0.23064528 -0.0665803 -0.17088911 0.1936656 0.20536475 0.07283247 0.0049760374 0.22526401 0.18374498 0.16836686 -0.5418221 -0.0105321845 0.15108487 -0.2242787 0.09521355 -0.07227979 -0.842773 -0.13374265 -0.8193851 0.16757789 -0.048307654 -0.13403203 -0.3309173 -0.081320405 -0.22130279 0.276364 0.10356967 0.069260016 0.2262752 -0.760822 -0.48785123 -0.6524383 -0.01055623 -0.9183333 -0.09279552 0.12162138 0.2134703 -0.23909144 0.06717959 -0.55461633 -0.2917183 0.08271382 0.04699916 -0.1143202 0.06452104 -0.3973791 -0.35866183 -0.31075123 -0.1760869 -0.19672902 -0.063405015 -0.09502301 -0.10751432 0.23272167 -0.36098272 0.39307815 -0.40453458 
-0.5024854 -0.49900973 -0.088458925 0.09155877 -0.099574044 0.18422173 0.4186044 0.13223684 -0.82123363 0.362349 0.028680624 0.612004 -0.04990951 -0.26077056 0.38556772 -0.22537045 -0.21318102 -0.47707993 0.31315848 -0.24140035 -0.4511655 0.24790941 0.43994653 -0.41449088 -0.13758405 -0.19654174 -0.059375525 -0.18866125 0.5774081 0.38163152 0.28648993 -0.49363843 -0.30751845 -0.28768405 0.9224444 0.19937918 -0.22133464 0.15862504 -0.35746863 -0.5813786 -0.04325797 0.3145501 0.033586845 0.18642999 -0.37361068 -0.030975528 0.29945847 0.38589334 0.3600264 0.27877125 0.30438262 -0.13180456 0.3558754 -0.23089339 -0.588516 0.6263432 0.1970078 0.06965223 0.15529805 -0.18484437 -0.38460648 0.07579125 -0.09050448 -0.4342105 0.25345692 -0.2749609 -0.29402098 -0.39453238 -0.5326614 -0.3370077 -0.034793995 -0.264215 -0.3486672 -0.05004076 -0.4572245 -0.68166465 -0.26558113 -0.21507803 0.32893896 -0.008759115 0.08273121 0.13597554 0.4904341 -0.41968885 -0.7607515 -0.23019233 0.56141603 -0.118727945 0.09888643 0.014422134 0.16372448 0.070540436 0.5077671 -0.40883192 -0.29988968 0.43806744 0.2852254 -0.23973016 -0.5415968 0.018124662 0.35745904 0.3260495 -0.4143933 0.27726057 0.21479614 -0.16187516 -0.43824318 -0.19271258 0.0024416288 -0.037915908 -0.4523267 0.40081882 0.48675394 0.174343 -0.07778819 0.09671355 0.05285969 0.29385072 0.21421248 -0.984626 0.43779114 -0.22492832 0.28151414 0.32500717 -0.7381856 -0.68473357 -0.3689136 -0.35239124 
-0.084033005 -0.08297365 -0.46152267 -0.38446796 0.22429988 0.05685086 -1.2058486 -0.05747512 -0.46653578 0.0810054 -0.6523544 -0.21265242 0.03404373 -0.39167807 -0.69902265 0.038638305 -0.3320669 -0.3094111 -0.046055615 0.76805514 0.20458816 0.25974068 -0.09399729 0.008707466 -0.5460501 0.09053012 -0.12787151 0.2673954 0.7219755 0.047377676 -0.18426621 -0.66173553 0.13611686 0.12561865 -0.10419185 0.19510597 0.49166486 0.06478826 -0.47324386 -0.38369226 0.36599743 -0.5446765 0.04802524 -0.013036668 -0.048916385 -0.17070757 -0.0226425 -0.57367355 -0.1547856 0.16455762 -0.15430662 -0.09345784 0.31596538 -0.05032554 0.1083383 0.027790355 0.16261908 0.17058171 -0.54965603 -0.080167264 -0.36780003 -0.17619474 -0.27602163 -0.0993318 -0.16492142 0.0889321 0.20842056 -0.40315863 -0.38228488 0.14559436 0.16957046 -0.06419731 0.12611654 0.17666516 -0.34319282 0.075195424 -0.04484645 -0.06296765 0.4043059 -0.07699531 0.2188612 -0.26550204 -0.3349397 -0.30092862 0.21539514 -0.11857488 0.34292206 -0.061441094 0.29119974 0.78611666 -0.23671374 -0.37829447 -0.75042075 -0.44047055 -0.3369838 0.3150216 0.21907906 0.31357527 0.025281828 0.5179642 0.24059217 -0.5018685 -0.20141186 -0.20099568 -1.1048661 -1.2689463 0.20986934 -0.22636525 -0.09836197 0.04114644 -0.7600853 -0.54899275 -0.13462915 0.027310876 0.17835836 0.08747152 -0.48052275 -0.26613843 0.5872042 -0.81689775 0.2857116 -0.07737581 -0.18558863 -0.16566731 -0.47751987 -0.9287891 -0.6777082 -0.2403111 
0.09112841 0.12895635 0.000494839 -0.4442419 0.11968404 -0.33536905 -0.5020092 0.16126597 -0.44994804 0.2544739 0.032728016 0.23374242 0.0434223 -0.41434002 -0.12456197 0.24953854 0.02495366 -0.79831094 -0.16531011 0.18167137 0.6537647 -0.17695351 -0.1405004 0.12626024 -0.07188542 -0.06100948 0.025635662 -0.12148176 0.26020366 -0.024520226 0.10623551 -0.47736797 -0.08714859 -0.04907536 -1.5344688 -0.0009682948 -0.71262234 0.30958745 0.1966227 -0.11332578 0.16503707 0.043150824 0.23787856 0.25450584 0.19565767 0.33170485 0.5861707 -0.50004673 0.14816955 -0.04277783 -0.36577356 0.12882327 0.58451843 -0.27870286 -0.30673435 0.20430894 0.15593739 -0.54865444 -0.68962365 0.6123939 0.5280426 0.6842926 0.24449886 0.3802397 -0.58554965 0.15602091 -0.71549976 -0.1275933 -0.94325566 -0.32850155 -0.110552035 -0.15369868 -0.15699714 0.2194681 -1.0324886 0.22317854 0.103525825 0.3100607 0.11350765 -0.25197434 0.16064075 0.33483297 0.10898997 0.6697345 -0.0049797064 -0.3007105 0.10564807 -0.16933072 -0.11384455 0.3775166 -0.10545805 -0.08479414 0.38703105 0.68643236 0.2252037 0.17204556 0.7900251 0.0999322 0.18150024 -0.4361698 -0.54717726 -0.33110413 0.14057982 -0.014487362 0.8605756 0.22607926 0.38467962 -0.124192335 -0.21657722 0.2554518 0.4478597 -0.5232264 0.27616945 -0.1681231 0.27207693 0.17925888 0.27491683 -0.75076634 -1.9019104 0.3905138 0.13279516 0.12453321 0.2960183 -0.21908674 -0.58807796 -0.5831598 -0.16182674 0.4708464 
0.039286565 -0.12377053 0.002590646 0.2423747 -0.14474665 -0.07758783 -0.5237192 0.18827699 0.20599304 0.2477344 -0.4398281 0.34875745 0.2655368 0.3859858 -0.23834819 0.22273442 -0.23190618 -0.21311396 -0.77249 0.6198231 -0.091658734 -0.26614216 -0.7879975 0.07539314 -0.52338827 0.31901112 -0.036636245 0.38216817 -0.6142969 -0.52479446 0.21833593 0.25956374 -0.35437667 -0.14572088 -0.794171 0.067106195 -0.18371516 0.6306845 0.13842691 0.1440059 -0.06449923 -0.022560727 -0.027657606 0.1314626 0.4397107 -0.14673686 0.19280389 -0.18901606 -0.14179774 0.24592406 -0.15749273 0.10122918 -0.07235346 0.23639454 0.25804093 0.3065507 0.15761283 -0.06631073 -0.318567 -0.03522715 -0.47422233 -0.295067 -0.1070641 0.3621325 -0.41262057 -0.0883577 0.1477089 -0.38464624 -0.64971167 0.5568898 -0.04156312 -0.22627117 0.34464836 -0.61628026 -0.35834807 0.42798352 0.16723257 -0.050128162 0.010438416 -0.0025787698 0.29130757 0.04104105 -0.3049908 -0.12042894 -0.28624654 -0.3614155 0.21152824 -0.43847144 -0.43005225 -0.20252563 -0.15454288 -0.023201665 -0.88808584 0.37941372 0.2778874 0.14000799 0.6530612 -0.18256527 -0.059440464 -0.19095954 -0.61833984 -0.6813538 -0.37250474 0.36777067 -0.955874 -0.78656524 0.070518926 -0.20284547 -0.3141264 0.009003747 0.8037648 0.05344729 -0.6557126 0.33448383 -0.18017086 -0.0873861 -0.49491844 -0.36681652 0.36925593 0.31535682 0.15712337 -0.015672438 0.30993038 0.08856144 -0.4581326 0.513492 0.34721375 -0.076399475 
-0.21940197 0.6351699 0.0071878084 -0.26888573 0.5398898 -0.07674205 -0.24542868 -0.13112146 -0.50259674 -0.18461624 0.0706183 -0.17328872 0.09036471 -0.41946912 -0.0984396 -0.0006171826 0.4201971 -0.2795701 0.31132126 -0.2967368 0.5151919 -0.88417083 0.42710948 -0.40990442 -0.05585929 -0.22968389 -0.21361075 0.017360276 -0.19285432 -0.68746424 -1.201419 -0.50203454 -0.27337763 0.059509985 -0.37265396 -0.20379953 -0.6048342 -0.032619342 0.14198793 0.38814464 0.114813104 -0.010091103 0.05581038 0.67408794 -0.13784634 -0.18846837 -0.38488245 -0.53042 -0.21992466 0.07759409 -0.39315325 0.013996339 0.05260626 -0.39290324 -0.1601316 -0.4188938 -0.18222587 -0.5564126 -0.40657622 0.17602222 -0.16836236 0.6757931 -0.32267693 -0.2452056 0.09117755 0.0018071884 -0.4030798 0.4991334 0.31409308 -0.48669985 0.1656735 -0.19395027 -0.34057254 0.22927798 -0.81831354 -0.23709525 -0.2614264 -0.10328692 0.10794493 0.1559607 0.106256634 0.031716216 -0.05476777 -0.11332299 0.1572186 -0.020735433 0.26852632 -0.51575345 -0.19428076 0.2648566 0.1269765 0.039786723 -0.11831847 0.09037261 -0.28925997 0.07310422 0.40402776 -0.17602675 -0.33388433 -0.32422107 -0.74541605 -0.41010514 -0.48627317 -0.19930917 -0.7080327 0.0055758003 -0.11797303 -0.0008970011 -0.37093708 -0.02504051 -1.0061662 0.24655227 -0.30609217 0.14399123 -0.035537653 -0.25930515 -0.8674357 0.21271896 -1.2573128 -0.38419622 0.05624223 -0.15112635 0.17687468 -0.14597662 0.24607594 -0.17839825 0.28676158 -0.09764421 
0.07210656 -0.008994944 0.046108253 -0.00095472485 0.10155303 -0.046884757 -0.014632292 0.03732396 0.053011306 0.00029508024 0.038431995 -0.05284935 0.07027004 -0.076465696 0.008684844 0.035313062 -0.05086996 0.10562102 0.061161198 0.005607538 -0.09192836 -0.08454497 0.08993434 0.011875682 -0.03764821 -0.08118314 -0.09579838 0.09558106 -0.07505512 -0.021965206 -0.054439165 -0.071833886 0.011849016 -0.009491317 0.08698521 -0.05366888 0.06915227 0.005503893 0.032958306 0.092435904 0.01497902 0.033685543 0.023473717 -0.10803358 0.10727709 0.06753311 -0.027980536 -0.0038682371 0.10341249 -0.10047433 -0.031394422 0.068986066 -0.056361075 0.05600562 -0.07806886 -0.009559527 0.0003543645 0.092256196 0.04441782 0.0032166466 -0.10797717 -0.08111212 0.00261309 0.047850214 0.024958052 0.0016547516 0.07017381 0.0220901 0.09627166 -0.014598668 0.07468297 0.106001385 -0.090470925 0.049004085 0.049388386 -0.069908984 -0.1003061 0.063621946 -0.014519483 -0.03153658 -0.09101063 -0.0036420375 -0.053363398 0.03124661 -0.08883677 0.02828414 -0.09544804 -0.102549076 0.090100355 -0.016234607 -0.055127792 -0.09405458 0.09720688 -0.0034739673 -0.02164068 -0.0800891 -0.010530174 0.007649906 -0.042515866 -0.0038472489 0.06754152 -0.057570744 -0.011038519 0.042886756 0.014650211 -0.09914077 -0.10618309 0.024603672 0.015569314 0.09270885 0.10304814 -0.08480007 -0.03354144 -0.08286877 -0.07480356 0.06780403 0.030085213 -0.038237467 -0.0940942 0.07543246 -0.035041444 -0.030982189 -0.07868697 -0.094067305 0.06270138 -0.043974183 -0.01957769 0.07729561 
-0.00023156404 -0.025481477 -0.0732943 -0.027420342 -0.092321984 0.07406411 0.034531735 0.05115875 -0.02847033 0.0103235915 -0.054826386 0.088080935 -0.03776004 -0.101390846 0.058513753 -0.047290742 0.04001183 -0.05508655 0.0032027364 0.016547032 -0.10822259 -0.06143841 0.07732988 0.09202882 -0.09260876 0.00017413497 -0.013755985 -0.06041398 0.10513765 -0.02142904 0.0049365982 -0.10531548 -0.057062037 -0.108105205 -0.061718937 0.006395638 0.07242931 -0.032811522 -0.040849783 -0.06072212 0.038925625 -0.016259663 0.095764615 -0.044499412 -0.07284836 -0.089791514 0.017396532 -0.06927894 -0.008829221 0.09599959 -0.014123537 -0.049076766 -0.0064454526 -0.067398414 0.012597136 -0.092065565 -0.08331641 0.016483277 0.046562605 0.03341732 0.09905722 0.091677316 0.028833829 -0.08319384 -0.018107966 0.01340384 -0.083690695 -0.011974245 -0.03874313 0.004404582 0.10584793 0.061438926 0.0149615705 0.06557881 0.105822064 0.09177061 -0.043245994 -0.053327937 0.036284484 0.019861646 0.06165629 0.07008181 0.09040805 -0.0008246675 0.03035473 0.010046296 0.01949849 0.06327585 0.034278385 0.08883024 -0.021562994 0.022157855 -0.025009185 -0.06295612 0.0447103 0.017423056 -0.05482329 -0.099767014 0.029891498 -0.012332536 -0.08511149 0.10267972 0.058767177 0.024784185 -0.00975661 0.09191758 0.07685984 0.0029829666 -0.017904997 0.08304014 -0.069891974 -0.027171798 -0.069138825 0.023020767 0.004756883 0.010334641 -0.02654723 7.587671e-05 0.029373564 0.04220853 -0.029432073 0.05287405 0.08412587 -0.05343205 -0.09942346 -0.092352 0.07660607 -0.018842094 
-0.020585865 0.10154491 -0.096998185 0.03293208 0.06548319 -0.020033777 -0.04821323 0.09252315 -0.09327761 -0.010198705 -0.076342456 -0.10042709 -0.0062535256 0.021074422 0.021724693 -0.053115703 0.025705762 0.05182708 0.06021435 -0.08704465 -0.07570065 0.101337604 -0.09276919 0.038377203 -0.099250205 -0.015114032 0.002350375 -0.08007677 -0.055245534 -0.07536711 -0.1062496 -0.060967542 -0.10331335 0.011347845 0.039062478 -0.02935046 -0.08738268 -0.08345201 -0.030679293 -0.044394083 0.10591098 0.106400125 0.012561493 0.039073937 0.03013935 -0.0788081 -0.024284117 0.07004624 -0.011424318 0.009516709 0.018209584 -0.07061212 -0.08940238 -0.06844783 -0.09366831 -0.084279336 0.07590877 0.014656611 -0.07617025 0.08009868 -0.09856266 -0.03155981 -0.00031745434 -0.06565136 0.023461081 0.105695136 0.08405242 -0.07089813 0.06923089 0.010964811 0.0050525814 -0.100104295 0.026262917 -0.09361538 0.054411866 -0.050307132 -0.06724368 -0.10150137 0.011258982 -0.009373851 -0.08319317 0.030812494 -0.06992346 -0.107177794 -0.033861272 0.059467904 0.07836928 0.033746548 -0.03711331 0.07530192 -0.029604323 0.046746127 0.10453182 0.045431547 0.059389345 -0.014660142 -0.028332688 0.018083058 -0.10648222 0.10427532 -0.025371037 0.058992542 -0.095919944 0.03793668 -0.07004404 -0.017247654 -0.069748215 -0.081217885 -0.0388363 -0.0030807853 0.05833701 0.103908114 -0.075046584 0.022839539 -0.08169389 -0.03803765 0.08693045 0.0034210086 0.056664728 0.0945931 -0.036734864 0.09063283 -0.008749731 0.040894903 0.055886157 0.060195364 0.041182883 0.01630798 
0.020346798 0.007973634 -0.020305187 0.08792063 -0.07589126 -0.016401693 0.030426867 -0.001369454 -0.012241378 -0.018756688 0.052120976 0.011095531 0.034127004 -0.024627052 -0.10343904 -0.041616455 -0.056156613 0.052098595 0.0070981756 -0.098391674 0.026526786 -0.053684857 0.03078083 -0.101156704 0.053656466 0.06930708 0.021533586 -0.093495086 -0.0052625686 0.088897206 0.0084576905 -0.039211266 0.023039557 0.094581 -0.04241126 0.017719947 0.020690002 -0.08780859 -0.09863181 0.0402605 0.019546933 -0.10117854 0.06759087 -0.053024184 0.06218622 0.033594348 0.06644077 0.05878318 -0.07859431 0.010763496 -0.034530774 0.0065528676 0.058621474 0.0018303916 -0.09660062 -0.08586128 -0.019570231 0.05453887 0.09199067 -0.104867935 -0.072425395 -0.06177399 0.06962817 -0.0669947 -0.041867763 -0.09133794 0.037353806 0.09316813 -0.066113636 -0.016221933 -0.03759058 -0.07820185 -0.03185285 -0.09115281 0.09973813 0.0939062 -0.009346135 0.0986596 0.07901382 -0.00020717084 0.09072665 -0.01675462 -0.007210262 0.015553102 0.048749812 -0.10002113 0.08547153 -0.10613338 0.0046012253 0.08063368 -0.09251783 0.030048944 0.1028597 -0.08283147 0.058580525 0.06488938 -0.005265385 0.09429165 -0.019765742 0.008508921 0.10608145 0.05815602 0.10235349 -0.0067107975 0.044208996 0.099547274 -0.09106826 -0.05157673 0.10797588 0.012365572 0.085681416 0.071957536 0.02224321 -0.08288487 0.0399395 -0.03194166 -0.08336751 -0.007458657 -0.06710077 0.07358638 -0.090446636 -0.0034090802 -0.05345182 0.022819601 -0.024576105 0.018324383 0.060278095 0.096154965 
0.039664783 0.08927805 0.038671248 0.052975588 -0.012931831 -0.08563297 -0.1014858 -0.09245421 -0.008859962 0.013993688 -0.051065315 0.0786146 0.09752948 0.021560334 -0.084684625 0.01842346 0.0388873 0.061225735 -0.08186 -0.10127682 -0.05686467 -0.01756429 -0.06532876 -0.074968204 0.09656649 -0.044093452 -0.010213591 0.07456864 -0.0071493015 0.014040329 -0.011515841 0.021616004 0.019421287 -0.060564965 -0.10372532 0.092180155 -0.0656198 -0.07186674 0.039235853 -0.043762572 0.0013113618 0.05872079 -0.091627866 -0.029152036 0.04744313 0.018623121 -0.08693334 0.0034140348 -0.018218122 0.08993266 0.042558767 0.04151877 0.025542565 0.02220232 -0.04276772 0.048138194 0.104066454 -0.07741724 -0.07655234 0.047782026 -0.106259614 -0.017451242 -0.06456284 0.016255923 -0.018701382 -0.101948075 0.09824035 -0.07845391 0.08032363 0.033037104 0.06401109 0.052027293 0.027095191 -0.040024526 0.026935048 0.107812576 -0.016132139 -0.08329654 0.0342248 0.01539804 0.10215884 0.0065758377 -0.08963369 -0.085711434 0.092888616 0.07218761 0.05369743 -0.06942782 0.026121862 0.015133701 0.024024807 -0.042434826 -0.013995446 0.021743871 -0.09156574 -0.025785282 -0.014249928 -0.0056405514 0.02780328 -0.05929609 0.09772343 -0.08114242 -0.06830652 -0.06006857 -0.049291834 0.054562412 0.07505951 -0.047077943 -0.0698713 0.041859277 0.0261982 0.09545586 -0.069329195 -0.02687519 -0.06283009 0.020905934 0.025299422 0.10018835 -0.06986965 0.08486494 -0.055499732 -0.02895245 0.03163407 -0.067710236 -0.0011919364 0.019739263 0.024812467 -0.03309246 
0.016769193 -0.07250713 -0.09486699 -0.055318885 0.03528715 0.029783286 -0.1026223 0.02351997 -0.09250629 0.016713247 -0.023000948 0.063325666 -0.06350751 0.08893531 0.03190548 -0.10246125 0.05306112 0.04326824 0.049735986 0.07095202 -0.040834688 0.0574793 -0.017485596 -0.07515842 0.012014769 0.07215493 0.093495704 -0.0051684454 0.032593943 0.059609644 -0.10522388 0.09592854 -0.035069212 0.037836336 -0.049185473 0.044872664 -0.05106036 0.051466323 0.012062259 -0.004551284 0.087855645 0.035653047 0.049564622 -0.058054183 0.024502449 -0.06891467 -0.04469858 -0.06473754 -0.06516823 0.09657452 -0.0424833 -0.064325854 -0.06463882 -0.009560719 0.08592101 -0.03668861 0.012797959 0.0599939 -0.0041558295 0.026075892 -0.05074494 -0.09572464 -0.021849684 -0.030219987 -0.03505858 0.052511625 -0.07469547 0.08930629 0.06646452 -0.0036783516 0.047593333 -0.010835789 -0.08341957 0.0021858886 -0.10471858 -0.05821872 -0.082898654 -0.028957248 0.0030292422 0.034787036 -0.04049836 -0.06369184 -0.02192071 0.04226353 -0.046779662 -0.06265799 -0.026586153 0.001759775 0.091073506 -0.106014036 -0.036233075 0.0821052 -0.036413483 -0.00012128055 0.043218218 0.09155635 -0.033974476 0.08254511 -0.004163936 0.038065754 -0.057393793 0.021954678 -0.068119094 0.04513765 0.08402356 0.07658196 0.028881557 -0.0080450475 0.073496096 -0.042478934 0.087673835 -0.03993713 -0.04659097 0.097655974 0.043939315 -0.0785477 -0.025219224 -0.10179993 -0.010832123 -0.09473126 0.04739114 -0.035822257 -0.0765807 0.095741205 -0.056912858 -0.037320122 0.037231304 -0.04518713 
0.012025736 -0.04658668 -0.020139538 -0.02395603 0.09200718 -0.00037749112 0.10237401 -0.057893235 -0.01809568 -0.05853538 0.07023891 0.072903566 -0.08772956 -0.083928816 0.07874205 -0.011554815 0.052210532 0.10316069 0.030779742 0.035221003 0.106203 0.054037564 0.052858867 -0.004023403 -0.027636036 0.06865748 0.024663292 0.0060311034 -0.105376385 0.035123266 0.06888602 0.04098732 -0.087506615 -0.07425003 -0.072067074 -0.03870088 0.0043977946 -0.021071754 -0.036333136 -0.09180507 -0.09413274 -0.09266022 0.052071907 -0.09850258 0.10460388 -0.012483858 0.079211764 -0.104341246 0.08402418 -0.026361607 -0.018799663 -0.049709823 -0.08930147 -0.06551121 0.09993056 -0.015365213 -0.018539429 -0.053256754 -0.059069145 -0.1074834 0.053475 0.09866946 -0.032975726 0.09391794 -0.068310596 -0.078981355 -0.07646559 -0.095123924 0.023322321 -0.055918932 0.052344777 0.10411567 -0.059809312 -0.038117558 -0.059829522 -0.0048165545 -0.027123198 0.081724815 0.072648905 -0.078071564 0.10713915 -0.029598929 0.055878468 0.038309433 0.037557535 -0.07707754 0.06516304 -0.029741138 0.03509035 -0.10452942 0.059830584 0.04709082 -0.021753982 0.10645228 0.09460219 -0.03154236 -0.09834738 -0.034612775 -0.010567367 -0.07183845 0.05208472 0.043766297 0.058499135 -0.06533491 -0.0335297 0.058655657 0.033525236 0.0391018 0.032113172 0.104628734 -0.03799434 -0.042191006 0.038614593 0.08624218 0.024411313 -0.036042415 -0.08363082 -0.060687713 -0.010353304 -0.061532333 0.080600075 -0.024333417 -0.05799838 -0.027276143 0.106087185 0.0630702 0.02431997 0.09317153 
-0.024609968 -0.011559099 0.018323012 0.094275825 0.04442165 -0.10703646 0.091217436 -0.051006984 -0.07479563 -0.08491379 -0.0060398504 -0.0844128 0.037908994 -0.03108605 0.014539301 0.014525704 0.06402647 -0.106711954 -0.08016715 -0.020885333 -0.08740841 -0.078706324 0.105087705 0.020971097 -0.019847788 -0.08961611 -0.061853454 -0.05548706 0.097614 0.019997202 -0.03770768 -0.062860236 0.016133279 -0.018046021 0.067269646 0.07626552 0.100653596 0.06581398 -0.0070276856 0.08155041 -0.100348994 0.013732135 0.075056605 0.07389986 -0.005389087 -0.024615847 -0.053719312 0.08460186 0.071821935 0.057783984 0.07654836 0.019308321 0.0038559511 -0.027389117 -0.047299106 0.06556154 0.05146622 -0.10763506 -0.10374543 -0.06943401 0.06309756 0.035733707 -0.07258727 0.066475116 -0.036282778 -0.04811017 0.10026934 -0.01671002 -0.041530795 0.023007788 0.009933636 0.0041454807 0.0035597086 -0.04069913 0.024357833 -0.045123845 0.05059644 -0.037882842 0.08644415 0.011432454 0.08267505 0.02257093 -0.095653355 -0.078786545 -0.08284043 0.007403478 0.0056494027 -0.061307196 0.06488522 -0.06894837 -0.01766608 0.019615553 0.08248354 -0.079610825 0.06670839 0.086252116 -0.099376336 0.08478575 0.06920036 -0.018473484 0.0024554431 0.038240455 -0.06461993 0.034372382 0.027548157 -0.066171065 -0.04650515 -0.021954648 0.037397064 -0.05619427 -0.0011149496 -0.006596051 0.08989336 -0.04181207 0.09010982 -0.05234815 -0.107999384 -0.097290665 0.040454842 -0.041164503 0.06378014 -0.04180017 -0.062423225 -0.075852826 -0.045499608 0.046085335 0.017984904 0.020309322 
0.071621574 0.8957135 0.11924324 0.19786294 -0.41223836 1.053988 -0.49794507 0.13031255 0.9683695 0.55810624 0.6698923 -0.2901663 -0.31761068 0.26395482 -0.19293164 0.555447 0.40312517 -0.42113304 -0.3947017 -0.36545944 0.32519788 0.91326773 -0.73730356 0.2486601 0.7815282 -0.88599503 -0.93122345 0.88032115 0.15382208 0.377024 -0.30661124 -0.22348575 0.6068704 0.56893086 -0.14561492 0.3181574 0.37096307 -0.2539441 0.094521105 -0.22825709 -0.12046881 -0.08360527 0.1611857 0.5990206 0.5552765 0.01065281 -0.17888357 0.5848486 0.418687 0.44539467 -0.07453274 0.9586344 0.29008538 0.24401824 -0.37600544 0.5224561 0.36285067 -0.6356706 -0.13071719 -0.6039906 -0.48047572 -0.59202695 0.6552291 0.4763093 -0.86437225 1.1000289 0.35704875 -0.041521445 0.09330954 -0.31753746 -0.13408639 -0.07505827 -0.22396936 0.54988843 -0.16932651 -0.22604088 0.07861734 -0.24354002 -0.26220825 0.68700534 0.32344678 -0.37414053 0.041042164 0.22041968 0.21348332 0.38748154 1.2852665 0.67634994 -0.4682571 -0.37719244 -0.47634646 -0.21124226 0.10983827 0.5479638 0.53915447 0.574768 0.036163557 0.8201594 -0.47078654 0.11123478 0.48375958 0.3917793 0.48682985 -0.69589937 0.07707987 -0.26289234 1.2098656 -0.6965586 1.4223484 0.6780426 0.115343906 0.6007797 0.7317187 -0.11366428 1.1850888 0.21900012 0.40257707 -0.5957377 -0.19198874 -0.37704942 0.44028428 0.050358918 0.48062217 -0.10199688 1.668488 0.7768612 -0.32426554 -0.10054535 
0.31106 -0.35236254 -0.3238916 0.122021906 0.19607031 0.22543049 0.23383431 0.6395058 0.22079255 0.23934215 0.8044644 0.07962894 0.14753951 0.52727354 -0.1125828 -0.2662006 0.0031992109 0.55935496 -0.4497968 -0.7213204 -0.29692844 0.2561564 0.029213013 0.09320346 -0.21977599 -0.37472114 -0.084197596 0.09703611 0.3693336 -0.16579796 0.31615472 -0.5006369 0.093042344 0.20114318 0.06555697 0.30249244 -0.33446765 0.1428622 0.30770686 -0.0758133 0.12362218 0.2076947 0.44498587 -0.76171744 -0.53883487 0.65989196 0.39023483 -0.019123962 0.10685183 0.6332938 0.43977988 -0.0050641038 0.34924227 0.012447477 -0.021798985 -0.28264016 -0.07586048 -0.6439405 0.13260847 -0.07368893 0.85216993 -0.03651386 0.33248574 0.18615614 0.0106891375 0.31661516 0.37563708 -0.0013167737 0.21276717 0.49057665 0.74438095 -0.12905581 0.15889555 0.5802526 -0.09794039 0.3195576 -0.08152266 0.06003375 0.4005678 0.05049493 0.0637215 -0.024729364 0.16531783 0.15937282 0.9003949 0.3619393 0.49044412 0.005253432 0.3913876 0.14824674 0.44322065 -0.54079545 0.3175153 -0.117670715 0.41890037 -0.03662657 -0.038964637 -0.2552716 0.11633218 0.99215335 0.46796033 0.009939071 -0.07975957 0.5327201 0.30551028 0.028670402 0.31904578 0.030627606 0.14023623 0.48292708 0.14199187 -0.12845787 -0.2442648 -0.06317824 0.3713437 0.12747002 0.2294023 -0.10988685 -0.00057461933 -0.05483532 0.9995752 0.42437163 0.51400137 -0.270772 0.42371115 -0.15031765 0.31676823 -0.19590355 
1.1857306 -0.34685093 -0.55803126 0.5864526 -0.1253861 0.80069226 -0.24416007 -0.5803318 0.70463127 0.5743034 0.041266087 0.19071415 0.22895294 0.5140171 -0.18680806 1.0593067 -0.052870642 -0.35654762 -0.078601025 0.13891542 0.017675633 0.4016099 -0.93123347 0.39701012 0.26459643 -0.67928046 0.06568796 -0.16654573 0.5343511 0.28956613 -0.92723024 0.13256803 0.44081554 -0.149327 0.7273579 -0.27638456 0.22283344 -0.22057018 0.88618183 -0.46447653 0.87526524 -0.16591984 0.53478265 0.72222686 -0.6940371 0.48967645 0.48307478 -0.300775 0.4418335 0.48764277 0.07076365 0.62963915 -0.06999892 -0.40058696 -0.6277239 -0.21580945 -0.09082262 -0.39699382 -1.2121235 0.3131718 0.22963712 -0.17242092 0.54819286 -0.45800126 -0.25333315 -0.09080042 0.19033393 -0.10072831 -0.17957297 -0.119755134 0.16851081 -1.4148216 -0.19369383 0.6811904 -0.01508183 -0.20127511 -0.623374 -0.33191246 0.3862798 0.2887051 0.39687592 0.67558444 0.9313399 0.16486292 -0.6646833 -0.58218205 -0.7377515 0.1927184 -0.27895507 0.726461 -1.101393 -0.5364735 -0.24837272 0.08833181 -0.1946738 -0.18514434 0.19187963 -0.08030937 -0.9772672 -0.0466192 0.5706791 0.13423225 -0.8452847 -0.21567439 0.42411557 0.7015706 1.2015032 -0.61457056 0.3877863 -0.3136935 0.18664317 0.5055191 1.0089226 0.8495835 0.33630222 -0.4858809 0.8150492 -0.66936904 -0.4084699 -0.10738997 0.13903032 0.0066877655 0.2932526 0.17794983 -0.15829033 0.2735721 -0.2847061 0.035605878 
