0.10890964 -0.49853358 -0.5351211 0.5248734 0.022558399 0.06951811 0.41972178 -0.18438424 -0.21420084 0.0348623 0.17157313 0.18390277 -0.14473134 -0.40173066 -0.15402274 0.22070286 0.69466996 0.035432465 0.2664934 -0.51639134 0.38614866 0.22691174 0.24686766 -1.1394174 0.5627034 0.47810885 0.26422843 -0.44584098 0.46709856 0.11747257 -0.6097874 -0.1827286 0.30217525 -0.33061463 0.6349467 0.17040427 0.40242076 0.37437034 0.479482 -0.4976863 0.2827455 0.56217116 0.07261213 0.056340344 0.3424055 0.9734095 1.2999784 -0.029911522 0.0491236 1.330402 -0.011795004 0.06926074 0.40756693 -0.24161756 0.19315484 0.470566 0.5462569 0.18590799 -0.10173531 0.041332025 -0.5982277 0.5839864 0.5798212 -0.004996455 
-0.7096828 0.19939189 0.6063145 -1.3228828 0.63392425 0.2778906 0.47121146 -0.7347944 0.11704691 -0.004640853 -0.3209703 0.22421348 0.16323099 0.034817424 0.76409817 -0.5532756 -0.6150354 0.42026287 0.011456794 0.36996126 0.45190778 -0.20070483 0.04365817 -0.73149425 0.07776174 -0.57844573 -0.48316526 0.44364694 -0.64629847 0.35724205 0.13137536 0.16347148 -0.2572653 0.30428573 -1.1769437 -0.7862456 0.13850817 -1.0680135 0.44947276 0.44087836 -0.05507126 0.35546377 -0.1910432 -0.19608927 0.06377893 -0.9592742 -1.6949416 -0.803855 0.23724365 -1.0148612 0.17271991 0.8941179 0.38258654 -0.042413335 0.92245954 0.5444675 0.20374277 0.054574728 -0.3389622 0.6985483 0.01101358 -0.25697675 -0.26338616 0.3039033 
-0.5545692 0.26617575 0.5499512 -0.516273 0.12056406 0.7346411 0.27147737 0.45180658 -0.17516692 0.15853864 0.1683844 0.43319923 0.41573563 0.19970584 0.19740799 -0.07522305 -0.4480493 -0.0046680127 -0.15120767 -0.29640242 -0.6203494 -0.6154998 -0.178131 -0.18285593 -0.20529786 0.22132319 -0.97304714 -0.07460971 -0.7854296 -0.12097364 -1.1413622 0.9340023 0.088348396 0.6005553 -0.20584586 0.4986013 0.8135497 -0.23445189 0.33225638 0.5180562 0.7086306 0.3932794 -0.6786343 -0.13443334 0.027367024 -0.8377368 -0.3884925 -0.33496037 0.06443162 -0.5219683 0.09713585 -0.20159383 -0.032759756 -0.11490258 -0.41077283 0.027812248 -0.107431255 -0.33669236 -0.21223354 -0.068772614 0.033323336 0.11889456 0.23399593 0.19910794 
0.68221354 -0.13954543 -1.1163911 -0.25036907 -0.45909464 0.27069193 0.25505918 -0.38626403 0.13305403 -1.3526325e-05 0.17850839 -0.006097281 -0.42054343 0.5103018 -0.63181573 -0.102502845 1.2173033 0.7775581 -0.09650834 0.22800049 -0.15280066 0.40950635 -0.87361014 0.13534167 0.24863705 0.2822585 0.669073 -0.057507254 0.13928023 -0.33961177 0.585133 1.7389085 0.32079333 0.3404502 0.45388412 -0.19868931 -0.57400066 0.5142779 0.43340677 0.6000358 -0.5546436 -0.26926816 -1.4327924 -0.57420564 0.055500958 0.8655437 0.5463429 1.462297 0.025325717 0.1219776 0.33794117 0.06863013 0.06797627 0.7766555 -0.20357029 0.31311306 0.24263424 -0.12331052 -0.50042784 -0.66154265 -0.76463133 0.15818106 -0.016793478 0.45020318 
-1.1126679 -0.086622536 0.17542213 -0.9713095 -0.6312083 -0.11195959 -0.007027836 0.21553658 0.5731558 0.17751199 0.388065 0.47686052 -0.94367915 -0.26159284 -0.10325471 1.1221217 0.15741615 -0.2966962 0.46438158 0.3706752 0.45580977 -0.085718825 -0.101293474 0.84572303 0.26851296 1.3787384 -0.66864765 -0.21433473 -0.12899719 0.5594895 0.22104022 -0.6057171 0.5727213 -0.37486884 -0.27763325 0.38381842 0.6298845 -0.8452335 -0.7160147 -0.37258363 0.111892395 0.34344643 -0.35041773 -0.16223447 -0.19406523 -0.6504452 -0.24344489 0.0030384471 0.08075861 -0.51379246 -0.019903047 -0.5050818 0.24850136 0.23584844 0.14409642 -0.11538646 -0.2208681 0.28232554 -0.42955408 -0.2028889 0.091015995 0.4339964 0.29881996 0.25929213 
-0.40020794 0.3032125 0.1970326 -0.5457922 0.11509708 -0.15123406 -1.7412778 -0.18678458 0.364912 -0.17762455 0.83293253 -0.41244414 -0.2601567 -0.0078030163 0.06037553 -0.025382912 -0.3030478 0.12164253 -0.79709464 -0.27818048 -0.7123366 -0.93154526 -1.5666422 0.27449027 0.113846816 -0.8088289 -0.5624825 0.26841995 -0.06458484 1.1716154 -0.40986753 0.28561583 0.64665735 -0.91924006 -0.39097401 0.13301975 -0.22148715 0.14007196 0.09508917 0.4607105 0.51255256 -0.63105035 -0.12456457 0.81360924 0.23858893 -0.32424435 -0.22498372 0.49396813 0.269674 0.76000744 -0.025275508 -0.7894528 -1.247023 0.040686265 -0.9160569 -0.37184903 0.1522691 0.83492845 -0.16335255 0.7201282 -0.3365258 0.5147571 0.3666037 -0.53333473 
-0.65025836 -0.7884171 -0.10315596 1.1209682 -0.33208007 0.10336795 0.060154375 -0.7241164 0.021840997 -0.052900583 -0.2581885 -0.34268495 0.9523793 -1.5790339 0.38649315 -0.6425606 1.2214819 -0.023413021 -0.11407778 0.075448036 -0.07301662 0.97821367 0.24269648 -0.59886605 -0.48453498 0.06786908 -0.37049508 -0.41458064 0.01921643 0.061686765 0.09876969 0.12714338 0.019646842 -0.34016985 0.622098 -0.0046054693 0.97069293 -0.3930906 0.5284808 0.115589306 -0.6212051 0.06468776 0.37375548 -0.23668462 0.00039709068 1.6319442 0.3697946 0.6069613 0.5530662 0.126596 -0.63890994 -0.5745761 -0.04965931 -0.36449417 -0.3741949 -0.10811351 -0.49381727 0.12935755 -1.0896653 -0.10482589 1.0876404 -0.42250106 0.5438249 0.0334602 
-0.16454528 -0.84915674 -0.55076236 -0.2899285 0.27457452 -0.5233309 -0.5281195 -0.57373405 0.18894222 -0.15960102 -1.213112 -0.55846906 -0.95266443 -1.0692859 -0.67385006 0.28750068 1.147035 -0.9464359 -0.7521666 -0.36026025 -0.8542768 -0.5350837 -0.30928665 0.1878168 -0.54412854 -0.38569427 -0.51869035 -0.322104 -0.31459972 0.14740369 -0.4400129 0.03157773 -0.10990953 -0.23675586 -1.4844669 0.093658336 0.28081563 -0.16250636 -0.19937165 0.2457372 -0.6639111 -0.8283827 0.1270585 -0.73796797 -0.65275335 0.27648297 -0.23974273 -0.48549446 0.3614647 -0.45177013 -0.47155392 0.3453956 -0.044002425 0.08104384 0.090716496 -0.23975518 0.2691186 -1.534562 0.3713908 -0.82894987 0.0010056573 0.21351688 -0.07973428 -0.019073214 
0.00829726 0.5436656 0.51534474 -1.3303161 -0.11879579 -0.3512107 0.012468071 0.14395793 -0.010272205 -0.017156592 -0.564036 0.35334492 -0.062265486 -0.2637891 -0.054114025 0.05541392 0.31518346 0.031711068 -0.005262342 -0.58648735 0.16907264 0.07623845 -0.63918287 0.56655747 0.38604915 -0.07008047 -0.89956146 -0.2256067 0.69382435 -0.4139836 0.56464887 0.35163435 0.015006407 0.11020523 -1.1995078 0.65594184 -0.35911235 0.102548525 -0.068329215 0.41663215 -0.3426454 -0.23811996 -0.6725818 -1.0396348 -0.038709056 -0.89182216 -0.34665245 -0.5643693 0.2929999 -0.8992114 -0.4975776 -0.16785601 0.17868027 0.7329278 -0.4196468 0.2613359 0.2507699 -0.18181245 0.16336247 0.33265033 0.7322634 -0.3967821 -0.26516688 0.46341705 
-0.5676702 -0.041740965 -1.1101635 0.40583006 0.55865806 0.2923129 0.3340966 0.20228875 -0.092194416 -0.96197075 -0.4964653 0.20834328 0.78170764 0.36805257 -0.0007543556 0.01123278 0.7359603 -0.64309365 -0.093382545 0.1797503 -0.1951406 0.54544824 0.39267123 -0.36531588 -0.49939945 0.65616256 0.03613213 -0.32782862 -0.27760923 -0.5266377 0.34685683 0.08776898 0.06827259 0.54961884 -0.22627066 -0.20774195 -0.37176105 -0.19598185 -0.4234501 0.43787846 -1.5249037 -1.3244709 -0.32407364 -0.13852046 -0.88425934 0.22333974 0.6413291 0.23342298 0.5084645 -0.040172234 -0.11250333 -0.010874898 -0.3041238 -1.2248898 -1.2425225 -0.42998478 -0.2611669 -0.81941205 -0.39060843 0.20362271 0.26859888 0.15188573 0.65047866 -0.29797044 
-0.44947594 -0.079755835 -0.109904796 -0.11309314 -0.013497692 0.14400893 -0.7726349 -0.9048233 -0.7173608 -0.8668414 -0.44775888 -0.17936322 0.17466068 -0.7324531 -0.933296 -1.0587571 0.72096205 -1.0693333 -0.007204444 -0.019091442 -0.6774546 0.3938396 0.2486505 -0.6834971 -0.2978146 -0.7897138 -0.6802151 -0.99347603 -0.62298036 -0.12500454 -0.59798336 -0.09313804 -0.6423076 -0.39100882 -0.5194926 0.44079122 0.21265541 0.01166736 -0.2823789 -0.49943373 -0.10622849 -0.3241287 -1.8956217 -0.15109667 -0.08353999 -0.3400441 0.16817535 0.17371728 -0.19969617 -0.67316437 -0.15578175 -0.46062842 -1.5292162 -0.30646345 -0.67717063 -0.18145281 -0.4409097 0.17069907 -0.89023477 -0.8001013 0.5215222 -0.48328865 -0.18623522 -0.3253647 
0.2131577 -0.619811 0.06460406 0.33448428 -0.6337348 -1.1313951 0.3255723 -0.5306098 -1.2966813 -0.17509452 -1.0717432 -0.8705895 -0.22259201 -0.1288405 -0.30639976 -0.9576702 0.06524423 -0.64081824 -0.58742636 -0.8238527 -1.0830667 0.38391405 0.17432916 0.24926625 -1.2115529 -0.99445707 -1.32079 0.14010839 0.02756902 0.16254507 -1.7120554 0.040110826 -0.71257067 -1.4701135 -0.025279704 -0.55956817 -0.3976545 -0.030095324 -0.051841594 0.25552437 0.17968777 -0.4919856 -1.0904766 -0.029199084 -0.712771 0.16500151 -0.052573547 0.04968637 -1.0779669 0.2558407 -0.58990866 -0.81752414 -0.33836925 -0.11087917 -0.55378103 -0.77820265 0.28353074 -0.61946654 -0.6718172 -0.18817683 0.21170543 0.08163259 -0.42140365 -0.3150221 
0.23720838 0.21637526 0.35036543 1.0246147 -0.20251161 -0.18995933 -0.7449068 -0.12859303 0.18201573 -0.12047839 -0.013786033 -0.05900115 0.0042678146 0.037457664 -0.8166492 0.54659796 0.30879351 0.21713185 0.6385243 0.6134799 0.2331571 0.6133678 0.47831184 -0.3114534 -0.60591406 -0.16622609 0.20151976 0.72286594 -1.0470067 -0.5534111 -0.4502143 0.7824063 0.18251903 -0.24181849 0.43941084 0.1843995 -0.19746771 0.4363405 0.10076163 -0.1310087 -0.27157068 0.23747237 0.30766568 -0.22991963 0.6112573 0.8470079 0.7730224 0.6580244 -0.28798705 0.6020752 0.2207323 0.1661661 0.7185639 -0.75667995 0.35653406 -0.2200235 -0.031373207 0.56545347 0.5655112 -0.3561931 0.15976104 0.49995357 0.30046356 0.026113585 
-0.5177997 -0.0037131123 -0.5492134 -0.00884858 -0.73171926 -0.26998726 -0.06405581 -0.103748746 -0.56322926 -0.23195514 -1.5965492 -0.6628535 -0.42991695 -0.26169577 0.14008252 -1.1129144 0.497621 0.017825805 -0.33415917 -0.13014038 -0.21513909 0.3756476 -0.31225568 -1.5302293 -0.0061233616 -0.6930525 0.07838896 -0.28659725 0.10891431 0.44642845 -1.733417 0.29849112 -1.0539398 -0.59455997 0.28813154 0.35797563 -1.0749085 0.5106506 -0.6142591 0.17492153 0.49696073 -1.3897887 -0.68181854 -0.6324446 -0.24585184 0.07821958 -0.08385452 0.14595939 0.17161204 -0.22283404 -0.51199746 -0.4365725 -0.9312361 -0.4812495 -0.2601777 -0.16836661 -0.45795965 -0.924563 -0.9036804 -0.247765 0.4531192 -1.931788 -0.7173813 -0.45879716 
-0.4636039 0.04939609 0.27666447 -0.3258805 -0.13266085 0.05878846 -0.25136197 0.34731552 0.1680889 -0.07981874 -0.08914221 -0.6894847 0.54983366 -0.25736785 0.124414474 -0.6080615 0.38035825 0.18974954 0.108487055 -0.9948277 -0.31725663 -0.54574233 -1.0144359 -0.950654 0.1330942 0.45382226 -0.019839736 0.5142093 -0.035504464 0.16421406 -0.3129843 0.7053901 -0.13803944 -1.0000995 -0.13537593 0.612304 0.052778456 0.3868051 -1.0116543 0.7031653 0.42217135 0.3655291 -0.5631392 0.120958716 -0.76270425 0.3045821 0.20882156 -0.1885173 -0.49911404 0.514696 -0.04561363 -0.3078403 0.067054294 -0.07260092 -0.12860836 0.031293627 0.24071847 -0.24388795 0.1379326 0.37403724 -0.33564577 -1.0917367 -0.39573628 -0.035402697 
-0.47364202 -1.3906791 0.6064059 0.057083804 -0.31271154 -0.1134247 0.29418775 -0.19276688 0.16029778 -0.72119826 -0.8559926 -0.120994546 -0.44311395 -0.77973574 -0.2977241 0.2622311 0.9709567 -0.75293416 -0.43763638 -0.72472805 -0.2447211 0.3936459 -0.17504846 0.07307585 -0.4116183 0.47124052 0.65930814 -0.04260913 0.06304814 -0.5097449 -0.6098007 0.54665565 -0.24819446 -0.54292864 -0.11590619 -0.06905441 0.812726 -1.071438 -0.25102046 -1.130729 0.475621 -0.22115971 0.4991992 -0.03565623 0.4913381 -0.0163776 -0.08394764 0.14976527 -0.28118113 -0.20747253 -0.2430492 -0.48557994 -0.29513916 -0.022145003 0.62871367 -0.14215527 0.19046281 -0.714849 -0.21503402 -0.3552257 -0.16267502 -0.26185185 -0.40683487 0.39497593 
-1.0353479 -0.20527723 0.6960608 -0.004051343 -1.012458 0.85633534 -1.5083716 0.2896336 -0.3697003 0.3987859 -0.88186175 0.03862941 -1.2096533 0.96689534 -0.047012884 -0.27179983 0.34399316 -0.19059207 -1.1154727 0.22135209 0.08746408 -0.3552631 -0.21423672 0.5842145 -0.1676585 0.649986 -0.26111606 0.285219 0.05248075 1.3713022 -0.6918842 -0.3649471 0.27722174 -0.16930644 0.5181389 0.5159062 -0.013292049 0.33176023 -0.5251255 -0.4634976 0.3176107 -0.042738885 -0.6891674 -0.21790828 -0.17418888 0.8197682 -0.72063667 0.26878625 0.21600038 0.7443198 0.3386055 -0.34825435 -0.020643879 0.25034186 0.65366834 0.42402908 -0.2058869 -0.41292205 0.06286155 0.39836225 0.28166652 0.5073668 0.4901566 0.22244854 
0.048586823 0.40731493 -0.31527516 -1.2647706 0.08494089 -0.39876473 0.7506178 -0.08532533 0.89437145 -0.15252167 0.7885355 -0.21383426 -0.27678752 0.35638028 -0.5368074 -0.072275534 -0.6374241 -1.0545393 0.33519253 -0.020499272 0.081085816 0.44945624 -0.41357327 -1.062086 0.2697053 -0.41471156 -0.45820343 -0.6066241 -1.4376045 0.13962089 -0.4966997 0.32709786 -0.06049829 -0.19758861 -1.3662959 -1.2419823 -0.042291906 -1.2063191 -0.08262756 0.471337 0.46706638 0.11398799 -0.0512186 -0.17208342 -0.21429443 -1.9778873 -0.4504629 0.033639986 -0.3259489 -0.90923285 -0.012499225 -0.0395456 -0.39437532 -0.16789865 0.025608521 -0.04202631 -0.64637643 0.333674 -0.36124992 0.18549226 -0.4121312 -0.25666073 -0.62165684 0.3603976 
-0.66194093 0.30503488 -0.3267593 0.5720103 -1.1485833 0.5386435 -0.080285825 -0.31723428 -0.43061477 -0.41128626 0.4595001 -0.5082279 -1.85289 -0.5616301 -0.509643 -0.23523423 0.70208937 -0.76654565 -0.9592457 -0.54036266 -0.25491402 -0.22223432 0.31968412 0.23207471 -0.84151185 -0.20368506 0.16208696 -0.09902387 -1.1280061 0.44436246 -0.83290565 -0.5393182 0.45479056 -0.2656375 0.16837086 -0.19256267 -0.34772104 0.028740048 -0.65025896 0.7600853 -0.1712557 -0.5050958 0.1863927 0.16357887 0.6689492 0.09561387 -0.62819344 -0.020894896 -0.07800635 0.40969652 0.1557379 -0.083763584 -0.27327275 0.6191728 0.44292107 0.14073347 0.11038723 0.32406843 -0.7777807 -0.8302921 -0.23887084 0.47141105 0.3503281 0.238795 
-0.4664941 0.5087745 0.10522791 -0.5531432 -0.84235317 0.43410194 0.51654106 0.23129416 -0.5617415 0.19300658 -0.051839367 0.009270294 0.9279252 -0.23654942 0.49993038 0.049968526 0.13914528 -0.22691701 -0.035093356 -0.09253041 -0.1975324 -0.19794004 -0.074603155 -1.4433631 0.24358267 -1.1322485 -0.3650196 -0.16792515 -0.18924773 0.52967185 -0.015235018 0.3559536 -0.021978106 0.75959074 -1.5803441 -0.41889036 0.6043725 -1.4505774 0.014600047 0.045050137 -0.33685827 -0.14729795 -0.2683261 0.08230753 0.5396491 -0.34935257 -1.2111936 0.05792473 -0.7165793 -0.52704424 0.72967666 -0.012583758 -0.17867577 0.36320484 0.9528435 -0.04290796 0.44960025 -0.93265545 0.046833187 0.2111932 0.61183643 -0.1157953 0.3993531 0.53593147 
0.10165029 -0.3198477 0.15536468 0.6719417 -0.20652159 -0.34221345 0.7385915 0.5327411 -0.084076 -0.06159927 -0.0012809358 -0.15648922 0.12836687 0.52888536 0.04134219 -0.13783102 1.4254079 0.17029886 -0.18161558 0.5547734 0.7026865 -0.4722381 0.29276824 0.35406196 -0.020043053 -0.19015813 -0.5619467 0.17974456 -0.24698658 0.25396457 -0.54793406 0.07313234 0.090803444 -0.15046501 -0.3049543 1.26334 0.602521 0.6638978 1.0428212 -0.5996831 0.008692967 0.36787614 -0.320567 -0.068517305 0.9636878 0.6889222 0.38585383 0.33080968 0.26164833 1.213087 0.42491648 0.081847765 0.67615986 0.47651392 0.35795224 0.4039455 -0.4021751 0.29904762 -0.8301469 0.44018286 -0.11725456 -0.8479138 0.7974361 -0.054988462 
-0.6927524 -0.19249123 -0.25233716 -0.14675061 -1.3551387 0.13062595 -0.25234765 -1.2700386 -0.5838705 -0.6980854 -0.039588984 0.23017651 0.12935291 -0.38285118 -0.7404261 -0.305354 -0.2197351 -0.7236455 0.15933803 -0.70026374 -0.6397313 -0.325521 -0.3166669 0.0019842358 0.27906263 -0.49968323 -0.8666453 0.09584331 -0.13877368 -0.22577152 -0.4383776 0.5091996 -0.5128052 0.29302442 -0.11261538 -0.4770536 -0.20636731 0.44757324 -0.3059576 -0.13887754 -0.742006 0.5643836 0.32282424 -0.24708621 -0.25145426 0.442062 0.44624916 -0.31059235 -1.126223 0.18754795 0.06681587 -1.1505613 -0.91422224 -1.1298035 -1.3334639 0.23675328 0.20343114 -0.6114606 -0.10731795 -0.69064134 -0.95240194 -0.0633872 -0.59027654 0.5571504 
0.22453272 0.040354952 0.20197555 -0.328608 0.10416043 0.7558796 0.7284976 0.51359767 0.07511772 0.35436627 -0.44986013 -0.05461427 0.22382842 -0.2158833 -0.12788083 0.49147892 -0.20511697 0.5622062 -0.1051485 -0.21393178 -0.9208156 -0.49980408 0.83606917 -1.3514186 -0.17390035 -0.18422762 0.24263966 0.2053415 -0.53119165 0.2490807 0.16632676 1.1193876 0.20884448 0.45864525 -1.807516 0.1089824 0.5344598 -0.72699296 -0.3222846 0.17405252 -0.18772131 -0.9514834 0.20136161 0.17380783 0.16460313 -1.0934098 -0.5095441 0.39304295 0.4398993 -0.7115177 -0.19049764 0.1874461 0.856064 -0.060733076 -0.19465351 -0.79033554 -0.52382374 0.18186876 -0.3128036 -0.019916473 -0.008295325 -0.20281675 -0.19318125 0.156946 
-0.59425706 0.76946384 -0.19096172 -0.258816 0.48022375 -0.93236285 -0.14380072 0.055416826 -0.13585684 0.1468604 0.22483972 0.025567273 -0.24259995 0.27434725 -0.29970178 -0.343279 -0.3184911 0.119404696 -0.71389276 -0.9799467 0.40870544 0.6145325 -0.5950137 -0.4647857 -0.06639266 -0.38913864 -0.21146096 0.1467747 0.2762422 -0.3947608 -0.23010032 0.05744579 0.62404776 0.041093867 -0.6558568 0.24533623 -0.23781008 -0.058309317 0.23546715 0.4474534 0.31252617 -0.23924437 -0.5005107 0.11731514 0.6059862 -0.18286912 -0.74366426 -0.5429427 -0.01737548 -0.7175933 0.22493164 0.12940827 -0.5007038 -0.0154650835 -0.21474968 0.67311573 0.95771545 -0.36334756 -0.5325893 0.16093606 0.6284873 -0.82469946 -0.50557 0.17384417 
-0.22431073 -0.19187523 0.039180156 -1.4196993 0.43362728 0.08100597 -0.0776413 -0.24755248 0.0917649 -0.039827228 -0.31584927 -0.7098826 -0.23301078 -0.3144649 -0.5814537 0.10313213 -0.3823433 0.121188454 -0.28152248 -0.2532122 0.485183 -0.20528167 -1.096816 -0.56041944 -0.41327888 -0.23114549 -0.14244913 0.25130397 -0.48960456 -0.9026128 0.36852878 0.85623497 0.4941638 0.65706164 -0.27706367 0.25702766 -0.5327584 -0.7820663 0.1933218 0.2683623 -0.47809917 0.059732523 -0.1505531 0.5423425 0.217348 -1.5476035 -0.55041885 -0.29205224 0.0021132664 -0.55482304 0.13582085 -0.56070083 -0.13908648 -0.09251258 0.27385858 -0.6469939 -0.7688057 0.0073985863 -0.36877042 -0.035279963 -0.10653953 -0.8525481 -0.029407168 0.17505606 
-0.24025951 -0.75216824 0.5052712 -0.9805146 -0.14805646 0.020657362 -1.1942136 -0.012552134 0.3189202 -0.11189889 0.59529525 -0.08702898 0.3933971 0.08780497 -0.01870042 0.12632942 0.6362162 0.07173573 0.46524012 0.39512965 -1.2603631 -0.41256234 -1.7813745 -0.102377236 -0.29003233 -0.04647433 -0.27724302 0.16642313 0.53956825 0.9800975 0.3560794 -0.14270243 0.5106321 -0.4659395 -0.14851443 0.84204596 -0.899651 0.28875685 0.2801185 1.0180362 -0.3430869 -0.3845775 -0.4779958 -0.36752442 0.6000569 -0.095612936 0.026843665 -0.111090876 0.6689634 -0.46108788 -0.26025796 -1.0138719 -0.22111344 0.51533836 -0.30516466 -0.19400889 0.12683527 -0.08946608 0.086378105 -0.25208306 0.10165959 -1.008519 -0.5001599 -0.2618831 
-0.4248094 0.59159523 0.4509941 0.4845307 -0.16491884 -0.80427426 0.010794865 -0.0066194055 -0.8778071 -0.595241 0.3193241 0.24409173 -0.16122155 0.24905758 0.5735752 -0.26453426 1.0062608 -1.0056403 0.8340815 0.28699625 -0.021592027 -0.7513083 0.8048336 0.4938074 -0.42839727 0.119513586 -0.64661473 -1.2003947 0.8593064 0.35733652 -0.26073006 -0.058949143 -0.7823293 -0.32286182 0.0837778 0.6082259 0.44495648 -0.029771179 -0.13158888 -0.37446624 0.044221953 -0.074232735 -0.07631791 -0.75330716 -0.3907111 -0.5655843 0.082020596 -0.06472919 -0.51963204 0.5263129 -0.92464554 -0.25974923 -0.6765597 -0.26103118 0.35064533 0.79240036 -0.96961075 0.25615677 0.028220717 -0.20096736 -0.5155299 -0.26059026 -0.63014156 -1.1522415 
-0.15556833 0.27811083 0.43760654 -0.3001841 -0.6268577 -0.63482594 -0.09060989 -0.76625896 -0.41012248 0.31111076 -0.7759551 -0.5629781 0.17982507 -0.78497255 -0.7099169 0.33888137 0.030360162 -0.24016336 -0.00453639 -0.17800301 0.0373755 -0.5273654 -0.41937032 0.3578789 -0.24335508 -0.078358755 0.048948824 0.32035872 -1.4011004 1.0640203 -0.5471311 0.74375623 -0.591476 0.1160538 -0.1708735 -0.003987364 -0.26050955 0.24670145 -0.4848693 -0.30252454 -0.3121905 0.54552674 0.55796015 -0.42961475 -0.4580767 -0.6396922 -0.8008359 -0.9300265 -0.69062304 -0.15051755 -0.49029833 -0.6854513 1.3441236 -0.42981917 0.052688252 -0.86991256 -0.33576906 0.07643383 -0.3114886 -0.36619735 0.7131758 -0.4124409 0.080209315 -0.6627675 
-0.24082501 -0.2330994 0.25515643 -1.0283386 -0.3425441 -0.6487287 -0.4313253 -0.2896803 0.02912935 -1.4166809 -0.09003179 -0.5255497 0.18915392 -0.8509101 -0.17968783 -0.41673923 -0.2550686 -0.72502 -0.6338929 -0.8989114 -0.13051154 -0.62158954 -0.020567687 0.40283456 -0.35215077 -0.20675153 -0.33193472 0.4053286 -0.15250237 1.0041707 0.25458542 0.23030661 -1.4871957 0.21732917 -0.3708983 0.28276244 0.032804865 -0.103319734 -0.23100887 -0.28513592 0.2704187 0.51931846 0.11355789 -0.16767019 -1.1156979 -0.2689445 -0.6988425 -0.9027963 -0.674662 0.3479927 -0.30828568 -0.79143155 0.09250851 -0.71289635 -0.7642644 -0.9190282 -0.110221885 -0.54791623 -0.061909102 -0.9415653 -0.08628954 0.24867745 -0.22143634 0.016843697 
-0.0002924745 -0.8591407 -0.4235427 -0.02755614 -1.0172882 0.6720775 0.44489262 -0.23726773 -0.43835786 0.11980195 0.6645594 -1.2502108 -0.5113694 0.18159807 -0.87378144 -0.11849485 1.2370961 0.08359455 -0.100619145 0.016445078 0.015758596 -0.05099399 0.6499641 -0.30049923 -0.48050424 0.3882932 0.85782 -0.25865132 0.42906857 0.048449308 0.27276912 -0.09475121 -0.13919851 -1.0228237 0.013625226 -0.7111706 -0.27830338 -0.4817348 -0.74643856 -0.37178525 -0.3272288 0.69650006 0.29184198 -1.8873063 -0.1089304 -0.2582561 0.23001362 0.26206076 0.593573 -1.0736843 -1.0125041 -0.81775194 0.07321771 0.51925176 -0.13943897 -0.8936782 -0.74570686 -0.89170814 0.13372955 -0.9903306 -0.33650604 -0.131798 0.14739503 -1.0007268 
-0.057313744 -1.1381915 -0.15352607 0.06059008 0.60141987 -0.86745554 -0.28692254 -0.21948163 -1.2266058 -0.028019337 -0.31442904 -0.6929954 -1.0302168 -0.8897326 -0.6613574 -0.37693068 0.34299272 -0.50959843 -0.9950578 -1.1493194 -0.30477825 -0.22220352 0.49583563 -0.27564088 -0.9140865 -0.2058912 0.007032174 -0.39291078 -0.07504706 0.31507328 -0.61599815 0.5777693 0.20089164 -1.5485014 0.34136978 -1.076451 0.16663729 -0.18030326 -0.592143 0.3744948 -0.49156463 -0.6305708 0.25647572 -0.40392527 -0.7796331 0.31387293 0.03881688 0.41438872 -0.6145923 -0.28944576 -0.11400239 -1.1581614 -0.08773285 -0.23639886 -0.3665294 -0.38270605 -0.27062532 0.04379313 -0.20448725 0.2351783 -0.011391772 0.48410815 -0.70786744 -0.17482175 
-0.7844689 0.1695931 0.48853397 0.05830442 -0.39533633 0.06371077 -0.50395197 -0.1968381 -0.40913957 -0.6270644 -0.90238464 -1.254404 0.52780473 -0.6557571 -0.38307437 -0.16480823 0.47624493 -0.36270285 -0.5609667 -0.015999792 -0.6655209 -0.30188948 0.36266646 0.06630015 -0.53665406 0.103560746 -0.6930273 -0.49764153 -0.48035255 0.29496828 0.26824805 0.30736122 -0.6064718 -0.32024494 0.05392058 -0.1086067 -0.25014022 0.20120536 -0.83941334 0.17570253 -0.9283797 -0.61217237 -0.40559453 -0.40661156 -0.21251778 -0.34980953 0.19677891 0.18978341 -0.14642835 0.12676397 -0.30276904 -0.6892908 -0.07379425 -0.6194702 -0.84900534 -0.658678 -0.40496448 -0.78293216 0.04224616 -0.31307626 -0.09819019 0.02545212 -0.9193455 -0.8606137 
0.024718687 0.3841208 -0.532807 0.4487465 0.101913504 -0.18568268 -0.01396457 -0.12364813 0.33724418 0.16778223 0.19732256 0.3214317 -0.99753284 0.48799235 -1.0790596 0.20948157 0.1095712 0.06448294 -0.080167405 -0.26099712 -0.18542969 0.49912232 0.28823966 0.24757232 -0.25486323 0.58682054 -0.36409998 -0.057458997 -0.2774305 0.36428782 0.0052659754 0.22551611 0.15488803 -0.08906563 0.80042464 0.00012363485 0.49010676 0.12345606 0.2852801 -1.0162048 0.80970114 -0.9052731 -0.012957991 0.2510576 0.0438907 0.22509344 0.43155837 0.6335881 0.7594307 0.24738286 -0.82399446 0.04482484 -0.4153369 0.73254955 0.06762814 0.41121766 0.5199108 0.25269762 -0.83130264 0.044936474 0.9166564 -0.53714466 0.45243695 0.2910723 
1.0159074 -0.09867005 0.023659859 -0.48186848 0.24275371 -0.42279214 -0.55363095 0.03532266 0.26892847 -0.39095226 -0.10368521 -0.081681214 0.45458227 -0.103050105 -0.2972934 0.0076572606 -0.28718886 -0.7876668 -0.38327315 0.5691781 0.27699512 0.49441344 -1.0642467 -0.10868484 -0.16632856 -0.21196869 -0.19429778 -0.45611128 -0.1823525 -0.058366906 -0.27032766 -0.24569066 0.14602599 -0.26247236 -0.051289774 -0.90106314 0.0295682 -0.09350302 -0.2710106 -0.22025894 -0.73417455 -0.62206906 0.057465076 0.017318737 -0.52636796 0.011561728 0.14794609 -1.5470108 0.31961182 0.046951238 0.25493506 0.3938473 -0.26867583 -1.3835645 -0.63424027 0.31576398 0.50640875 0.22374351 0.04917899 0.5869256 -0.16614342 -0.45727885 0.11270996 -0.060915016 
0.056222107 0.19851783 0.41735765 1.2354225 -0.061621007 -0.55041015 -0.55789965 -0.1711327 0.29209492 -0.17459904 0.39818713 -0.03097595 -0.28481624 0.57883763 0.76254517 0.6429435 1.1256988 0.6338611 -0.2634107 0.4018027 -0.084136166 0.54787785 -0.12654993 0.16699663 0.22267829 0.8782614 -0.4191138 -0.84655374 1.0368625 0.2084613 -0.054557696 -0.8175882 -0.11080679 0.29284474 0.9203901 0.43394002 0.05924535 -0.36255217 0.42405623 -1.4399717 0.34724063 0.22684464 -0.21574086 0.12337387 0.3778661 1.1773902 0.5281173 -0.22359943 0.22146425 0.12507525 -0.11175554 -0.5760061 -0.061505575 -1.5774747 0.2501467 0.10095413 -0.4119632 0.6182 0.26480985 0.03004818 0.0098725315 0.45251256 -0.41973737 -0.023447966 
0.103134155 -0.48974428 -0.18028124 1.0583496 -0.3189554 -0.004355431 -0.9820877 -0.085152335 0.44914547 -0.35329735 0.38150242 -1.0513319 0.22724685 -0.48933813 -0.57823 -0.08274851 0.54098475 0.39330006 0.30969194 -0.74080247 0.039635345 0.08760573 -1.0244219 0.08126304 0.27038595 0.56738806 0.9073132 -1.1118621 0.39203066 -0.54065627 0.06253112 -0.3255681 -0.18796195 -0.07248046 0.4563663 -1.0737879 -0.27894223 0.27315992 -0.3516565 -0.3312427 0.037513785 -0.36407155 -0.477886 -1.0586604 0.0006337494 -0.28109488 1.0766534 -0.058696877 -1.2421309 -0.19546615 -0.14108568 -0.2580734 -0.90147245 -0.08142035 -0.18446076 -0.23823464 0.29527184 -0.19553916 0.29287812 0.21040244 -0.7562586 -1.6132964 -0.55110735 0.5229394 
-0.6075556 0.490874 -0.7127818 1.3082138 -0.08291826 -0.6261863 -0.3389627 0.010238505 -0.058440086 0.2716077 0.4342619 0.25162384 0.44411546 0.49578202 0.3711442 -0.48142743 0.8853007 0.6709478 0.21345645 0.021267042 1.0187997 -0.015308281 0.9404485 1.1007327 0.61705136 1.0401742 0.3021372 0.65581125 0.25101963 0.096218534 0.3356727 -0.13475055 -0.02511127 0.16673514 1.7210244 0.72374237 0.46098968 1.6283838 0.35996166 -0.588671 0.47610217 -0.21440546 0.55625117 -0.054950602 0.036379635 0.98283637 0.95450866 -0.14080766 -0.76276875 1.0092026 -0.46884242 0.9520709 0.042694993 -0.12326566 0.17474338 0.33420828 0.4665513 -0.11256155 -0.5687671 0.5560343 -0.4731704 -0.65298593 0.11940227 0.22816783 
-1.1628171 0.41962552 1.1091392 -0.15010737 -0.5601015 0.1686256 -0.0137151 0.37151402 -0.37906465 0.09242788 0.071331576 -0.5414033 0.32012948 0.3813838 0.36505634 0.56251305 -0.2427316 0.49903974 -0.5649889 -0.08548006 -0.32306787 -0.013446239 0.08814118 -1.2888646 0.11578604 -0.06785576 0.6796494 0.38540682 0.13942207 0.7563569 -0.21426606 0.21644525 0.13270263 0.44052348 -0.62146 0.25642458 0.20009008 -0.66743076 0.28591344 0.4613271 0.21657823 -0.29405192 -0.53162795 0.046188798 0.16421367 -0.6418493 -0.5467627 0.79931515 -0.5206454 -1.3801923 -0.76580906 0.1548075 0.40507036 0.4923233 -0.43426785 -0.35654986 0.6062492 0.21507938 0.91683304 -0.44245327 -0.7640115 0.2304075 0.79128414 1.1607224 
-0.00077157817 -0.03316898 0.017034633 0.9358288 -0.19502836 0.16009596 0.5768285 0.1785307 0.6912277 -0.22774583 0.22828326 0.0148029355 0.6939932 0.059219465 -0.24502966 -0.120321736 1.6133064 -0.13607568 -0.044025145 0.6210403 -0.046491276 0.20745859 -0.18446139 0.086041875 0.07047085 0.15382332 0.17110583 0.04268651 -0.5886629 0.3220378 -0.5597714 -0.28167218 0.3770439 0.18401882 0.9599759 0.22886248 -0.15704401 0.6139401 0.5529633 0.044713303 -0.11586411 -0.120340355 0.004072886 0.045607213 0.5302382 1.1955912 1.1513895 -0.14080955 0.13489774 0.7791986 -0.4471513 0.21581827 -0.2719182 -0.3189055 -0.603557 -0.007570258 0.31114596 0.05075162 0.082523085 -0.047650922 0.12509546 0.34900543 0.12890244 0.42336854 
0.21609801 0.34801853 0.09261789 1.158344 0.8268407 -0.27943593 0.027081477 -0.14653991 0.0802971 0.25153732 -0.6667197 0.04585386 0.46577612 -0.3646806 0.2107635 0.26313698 0.3507735 -0.19419134 1.0040114 0.37029564 0.706802 0.41345772 1.1584753 -0.47904456 -0.5564059 0.32883957 0.19334093 0.17425887 0.7162689 0.2236765 -0.29936332 -0.55113703 0.9994414 0.76253897 1.2331344 0.13043249 -0.4150608 0.96469754 -0.8003191 0.67605746 0.79141617 -0.08127462 -1.148117 -0.560381 -0.33495992 0.5534846 0.99799454 -0.09918063 0.81030875 0.18321024 0.38985166 -0.49820742 0.49448127 0.20126297 0.84937644 0.06603894 -0.018881308 -0.031969115 0.3392403 -0.06220941 -0.0065619275 0.080303766 0.45548385 0.68619174 
-1.5821973 -0.92093 -1.6397761 0.2959945 -1.1759412 0.18582298 0.23327702 -0.042587195 -0.26273486 -0.2861582 0.24398375 -0.7200684 -0.110760674 -0.9869075 -0.55712575 -0.3930517 0.65220356 -0.23301989 -0.8637439 0.24058151 -0.89301676 0.16934863 -0.9560176 0.32551518 0.058196917 0.53947335 -0.34406283 0.17425166 0.43020266 1.2291205 0.30884483 -0.111220635 -0.8815116 -0.4414783 0.03201007 0.21381389 -0.4850064 -0.50004673 -0.2504908 -0.18333912 -0.6655641 -0.79787385 -0.30596587 0.03783081 0.14201298 0.424036 -0.3203069 0.2692061 0.34519276 0.6243876 0.3749839 0.8248048 -0.07841319 -0.02764921 -0.20025933 0.53224325 -0.23101567 -0.91424024 -0.7216061 -0.1440409 -0.33799294 -0.0005905428 0.114424706 0.06880726 
0.74995863 -0.52813154 0.07737537 -0.54879546 0.024503807 -0.048303343 -0.21526074 -0.24935412 0.23079169 -0.12817156 -0.6753966 -0.3243064 -0.14572734 0.30230802 0.23581733 -0.57078284 -0.054606833 0.30158722 0.21396561 0.1280734 0.06924815 0.12275721 0.5313325 0.62092763 -0.23648527 -0.1194942 -0.7108738 0.056713972 -0.8007665 -0.049815178 -0.1961433 0.61086965 -0.6425798 -0.5683256 -0.37496474 0.029535715 -1.5567433 0.04558154 -0.6766903 0.51161176 -0.69315255 -0.05310413 -1.1686661 -0.66928214 0.4950385 -0.6476659 0.2852042 1.1485915 0.7606199 -1.17053 -0.060796905 -0.1192995 -0.5101436 -0.42224047 0.44916666 -1.2813901 -0.66625446 -0.014287497 -0.41889644 -0.6140484 0.297864 0.1828655 -0.2029123 -0.4281762 
-0.5600818 0.09832867 -1.3885454 0.08138443 -0.063634746 -1.4463388 0.059451323 -0.48657158 -0.1458739 -0.19853443 -0.5728851 -0.24868341 -0.28878185 -1.5241889 -1.358854 -0.3375737 0.14512554 -1.131588 -0.3252031 -1.5231894 0.021476468 -0.12711506 0.1463496 -0.1325208 -0.8764892 -0.2476951 0.25936022 -1.468496 -0.7927112 0.5666284 -0.9885087 0.09482301 -0.58194005 -0.3946276 -0.018514026 -0.20625232 0.42781678 -0.15262753 -0.61838365 0.1334491 0.10862219 0.17031923 -0.4489941 -0.5408573 -0.62863237 -0.4442405 0.3911988 0.12016452 -0.45841512 0.25729275 -0.60568243 -0.22763549 0.64873505 -0.118071645 0.01401996 -0.44861937 -0.67825824 -0.36726394 -0.5191582 -1.5960639 -0.64725316 -0.30652937 -0.62779915 -0.24887297 
-0.33426 -1.0326775 -0.8044364 -0.2812107 -0.5044545 -0.44869947 0.23722781 0.015364403 -0.14832303 0.09337195 -0.07899539 0.02680054 1.2294488 -0.22617948 0.38809374 0.058557734 -0.38900846 -0.35092384 -0.3378111 0.44951034 -0.08765066 -0.62511694 -0.31945783 -0.11863039 -0.16486166 0.4286747 0.671566 0.15265529 -0.8460117 0.91401726 0.5553289 -0.21519049 -1.1367096 0.4637757 -0.07804178 0.69761175 0.03413427 0.36969155 0.014626522 0.86559486 0.83586806 -0.86858094 -0.5507578 0.6793906 0.6629176 -0.4877733 -0.48158637 -0.9401783 -0.023193661 -0.78144723 0.38192657 0.33975905 -0.12880239 0.53027445 0.5698636 -0.6342909 -0.1679066 -0.18392666 0.3031638 -0.02105034 -0.18328086 0.23789397 -0.020605046 -0.09281766 
0.3893937 -0.6479385 -0.3030585 -0.52837443 0.098956786 -0.9984998 -1.0085524 -0.093670554 -0.7236417 -0.12616791 0.21878469 -0.278712 -0.8291165 -0.14285786 0.21995008 -0.7700087 0.11897553 -0.79039973 0.17931484 -0.390185 0.26686907 -0.57620007 -1.5447116 -0.6693548 0.53610396 0.16220483 -0.49681756 -1.2793133 0.06942829 0.8675997 0.6241751 -0.3280863 0.4514162 0.028988415 -0.83681625 0.7352614 0.17981273 0.0076766377 0.21208729 0.43305048 -0.423123 0.53929836 0.16608621 -1.2990557 0.4298716 -0.07970049 -0.00015509647 -0.21350904 -0.024523413 0.075764425 -0.8390893 0.36438304 0.28546086 0.13873722 0.30496883 -0.39850575 -0.6746798 0.053991586 0.5950932 -0.04119932 0.045794345 -0.27638167 0.183923 0.37466583 
0.29865673 0.60670406 -0.08200826 0.19592805 -0.13681404 -1.3042536 0.27400917 -0.11399483 -0.09016583 0.33512112 -0.44443625 0.40882644 -1.0150722 0.13650787 -0.4250225 -1.0785977 1.1078361 -0.01971627 -1.1557665 0.18656671 -0.4833765 0.73873305 -0.15491386 -0.92688847 0.33670288 0.11678998 0.32478753 -0.5170037 -0.41817772 0.4149546 0.13100545 -0.30356672 -0.27484927 -0.83290315 0.104359515 0.030855916 0.35502502 0.5487015 0.13425522 -0.2278865 0.21898793 -0.39057192 -0.14556666 -0.037226792 -0.6607939 0.5737005 0.9802294 0.18058552 0.0050380034 0.30630904 0.09787229 0.12924749 -1.6331309 0.7718753 -0.13928968 -0.8697034 0.39676067 0.23414375 0.6636053 0.15726998 0.16189751 -1.2065271 0.1672373 0.18254384 
0.19758125 -0.10934218 -0.2826365 -0.28948337 -0.10817897 -0.12523162 -0.90339285 0.06114161 -0.64027905 -0.12607269 0.32313022 -0.32181695 0.07788595 -0.31673333 0.13823776 0.37938324 0.33592278 0.064975806 -0.7146222 -0.56290233 -0.7025028 -0.3420576 -0.88311 1.3865441 -0.15664473 -0.1790108 -0.2690095 -0.041870236 -0.46043536 0.73327833 0.36106676 0.5694415 -0.1579058 0.15893659 -0.30310345 1.035383 0.29863966 0.26407114 -0.16284408 0.13334198 -0.22200957 0.52499235 0.18903565 -0.63556206 0.7260621 -0.27036247 -0.19069158 -1.0532186 0.4234961 -0.22149013 -0.49135518 -0.8118676 -0.43210256 0.19670832 0.1460556 0.16227122 -0.5870874 0.6996499 0.269922 0.12264583 0.052548848 -0.1841074 0.72892267 -0.18058972 
-0.46322015 0.7338623 0.2678203 1.1978488 0.0054261545 -0.38855538 0.5724881 0.97701746 -0.45425272 0.38944572 0.36266252 -0.7501663 -0.6808811 0.28477046 -0.30319366 0.79039 0.54227024 0.51624966 0.4059532 -0.9275835 0.7610296 0.40641353 0.65823996 0.6634248 -0.18901783 0.04009291 -0.08932765 0.03827595 -0.27307355 0.03718661 0.2045277 0.46796486 1.45038 -0.38970867 0.718536 0.07148845 -0.06827158 1.2743498 -0.25523126 -0.5913375 1.3440638 -0.34721434 0.9048207 -0.53398126 0.40473565 0.44884583 1.0996418 1.152109 0.23798129 0.90676737 0.16449861 0.2810824 0.5371867 -0.18670414 -0.2319331 -0.29127267 0.4250457 0.67543733 0.55633485 -0.13975196 -0.5391924 0.18813802 0.088801235 -0.13911943 
-0.5184057 -0.16393529 -0.27836832 -1.6717155 -0.18447171 0.07241513 -0.23595637 -0.2184094 0.35636264 -0.3091885 0.27615803 -0.07183728 -1.3165462 -1.6448103 -0.59052557 0.24209012 0.8408819 -0.31433606 -1.2529912 -0.7272196 -0.16645129 -0.31143838 -0.44954342 0.3124122 -0.1045288 -0.30534777 -0.7024902 -0.17144726 0.4860989 0.12356098 -0.18768269 0.046986192 0.012859244 0.20665978 -1.2916434 0.20175813 0.42636406 -0.65653473 -0.7728251 0.08721137 -0.69736636 0.30014458 0.36536694 0.4099378 -0.3270525 -1.1711524 -0.4857813 0.0147425225 -0.10989491 0.04222209 -0.078191176 0.26819098 -0.089752264 0.02028329 0.5037912 0.30048895 0.3644877 -0.5861186 -0.32707018 0.16170545 0.22677712 -0.23195106 0.5979814 -0.101985514 
0.52483815 -1.0758317 -0.29329765 0.8571675 0.041838236 0.1588318 0.4097473 -0.72987413 0.0021247377 -1.1842154 0.36544028 0.3516776 -0.38837746 -0.5682974 -0.19653498 0.057454493 1.1067913 0.087466486 0.07205547 -0.98445237 -0.52070767 0.21068287 0.56271183 0.49086887 -0.29105106 -0.3221573 0.32851076 0.4708183 0.37152126 0.36349306 -0.54812247 -0.9178012 -0.057640396 -0.703598 0.60277724 0.119788654 -0.44693288 0.06053157 -0.23157075 -1.125093 0.3270663 0.15538727 -0.13784757 -0.9408143 -0.104823805 1.6889989 0.30087808 0.58643186 0.06665288 -0.30905247 -0.3192014 -0.35201746 -0.26635423 -0.069517575 0.15361688 0.5186947 -0.6743964 -0.6951336 -1.0301411 -0.3442642 0.687194 -0.38163868 -0.35912538 -0.24574405 
-0.59499896 -0.42105526 -0.70815086 0.24702652 -0.26013237 -0.5430532 -0.5222721 -0.31612444 0.44184977 0.13007328 -0.114259504 0.41028845 0.47547013 -0.59911186 -0.51857024 -0.55746144 0.31597155 0.22685064 0.037262272 -0.5916309 -0.31005633 -0.1978878 -0.84564424 -0.63713026 0.0940666 0.3763678 -0.5038932 -0.17308725 -0.61660963 0.08179793 -0.34725747 0.25961927 -0.5073985 -0.37666228 0.5153369 0.21179442 0.35924104 0.44735354 -0.030380437 0.37645158 -0.021866431 -0.061268594 -0.7158315 -0.6237486 0.11897599 0.5363189 0.47738433 -0.07730126 -1.0969365 0.34454784 0.049211644 0.15364872 -0.07626613 0.00083612656 0.3889384 -0.20317343 -0.07354999 -0.09441241 1.0601469 0.07785067 0.5757583 -0.8053412 0.26785278 -0.030625153 
-0.69444406 0.5939464 -0.3732707 -0.4821293 0.5886541 -0.35166022 -0.58842033 -1.2055914 0.052443575 0.18065614 -0.040767595 -0.2077736 -0.6693145 -0.5558602 0.24292925 -0.7483845 0.09037417 -0.6664471 -0.54613733 -0.009821313 -0.10599223 -0.7639089 -0.5461094 0.11427008 0.31710437 -0.044611562 0.37668136 -0.41900593 0.38949487 0.9642047 -0.28227308 0.07658299 -0.6320761 0.73533005 0.44542834 0.3583926 0.2035454 0.2515653 0.29833204 -0.05518925 0.17976663 0.12734462 0.35279283 0.33320835 -0.018276265 -0.1769976 0.2534246 -0.24591818 -0.5183869 0.03266743 0.22338589 0.042108685 -0.44999665 -0.59989035 0.16701905 0.2592612 -0.074303105 -0.0036370435 0.29129872 0.5014772 0.5639444 -1.5380169 -0.07146663 0.41428724 
-1.0640858 0.41667458 0.36141202 -0.71233875 0.19172016 0.0865678 0.4455144 -0.25618082 0.30516788 0.66560525 -0.9249671 -0.04298023 -1.129019 0.27930424 0.17629005 0.05710055 0.85869104 0.57247096 -0.1786903 0.3610915 -0.104436986 0.1680344 0.65589994 -0.21386677 -0.19336766 0.8824279 -1.1012146 0.22012655 0.8558579 0.77434975 -0.046237092 -0.020277556 0.13178664 -0.18156852 -0.8282345 -0.22365737 -0.104058616 -0.90049577 -0.28958887 -0.7144143 0.002011212 0.14805043 -0.4010248 -0.69235206 0.031993557 -0.060981944 -0.5907164 0.41631392 0.45688707 -0.96330994 -0.24273562 0.358181 -0.6116779 0.8375966 -0.3892268 -0.5726142 0.18965548 -0.17134829 -0.65508777 -0.40263194 0.27617872 -0.105889216 -0.075104505 0.17848021 
-0.52231985 0.1686056 0.09813677 -0.9507059 0.45262793 -0.50235784 -0.31740937 -0.3799597 0.7037314 0.5721845 0.00018452722 0.48765522 0.3289244 -0.19781244 -0.6706508 -0.7165288 -0.8649346 0.5173049 -0.026089465 -0.17792538 0.62803036 -0.07883648 -0.8423763 0.09775372 -0.017236749 -0.31745678 0.35793954 0.4707902 -0.12795576 -0.7887185 0.3546368 0.88618916 1.1220508 0.63428855 -0.38810766 0.54771596 0.717515 -0.47499338 -0.15713908 -0.24947236 -0.5214965 -0.53783494 0.060193263 -0.123253345 0.4388685 -0.5281429 -0.743724 -0.5490632 0.34728703 -0.91640246 0.09276938 -0.30360264 0.39216352 0.3559709 0.001839184 0.0876009 -0.13069656 -0.048005804 0.111440524 0.03326739 0.11921666 -0.17091706 0.31707057 0.28272292 
-0.44222322 -0.25519276 -0.11345942 -0.8465054 0.10510152 -0.8613752 0.26471266 0.64080256 0.47101697 0.18179838 0.5012577 -0.29086554 -0.20045559 -0.20905684 0.51101923 -0.05943521 0.58954996 -0.54692185 0.38770935 0.0049166577 -0.1364167 0.5657539 0.06019086 -0.23323175 0.46731907 -0.46127465 -0.18397342 0.2953653 0.2946267 0.66145337 0.22995369 -0.004997238 -0.21036515 0.4678643 -1.1465068 0.7423918 0.273305 -0.5486603 -0.37117568 0.6713167 0.46574134 -0.42376164 0.1803061 0.36032605 -0.7489963 -0.99069273 -0.051350772 0.0101027 1.0052209 0.48547778 -0.16621836 -1.0038084 -0.66657615 -0.41027686 0.091516264 -0.1980252 -0.4469116 -0.76109284 0.16956487 -0.58627206 -0.12871777 0.43834767 0.65702003 -0.18966939 
0.24003534 -0.49777636 0.3693867 -1.4030634 -0.48563144 0.05748628 -0.12482256 0.23649198 0.62153417 -0.3270671 -0.46985397 0.20948641 -0.15742831 0.21942696 -0.96993256 0.5609026 0.116264716 0.18877017 -0.5856886 -0.6642215 -0.49377063 -0.05255563 0.45718795 0.59246916 -0.07732268 0.4772737 0.12363768 0.27420446 0.15424588 0.72864574 -0.52936065 -0.12960146 0.2521599 0.498403 -1.5122553 -0.7188172 -0.6449743 -0.8600301 -0.5232005 0.71828854 0.13032366 0.1956255 0.7069223 -0.2661693 -0.4027217 -0.54639554 -0.55368435 -0.5730466 0.2572994 -0.8931129 0.2599831 0.10159231 0.098100215 -0.52984476 0.59924054 -0.9534912 0.3019426 -0.5471769 -0.53098714 -1.0920275 0.21833669 0.17840128 -0.19514588 -0.06671761 
-0.38633972 -0.29880524 0.31158888 -0.87696093 -1.1136426 -0.6504838 0.42949012 -0.22285165 0.59308827 0.1846685 -0.17046744 0.0040273755 -1.106611 0.45646757 0.35359433 -0.07067802 -0.24866517 -0.33276564 -0.00594312 0.21541394 -0.22894157 -0.18742083 -0.4371531 -0.4788579 -0.48056057 -0.51999515 -0.28261036 -0.12718283 -0.38718924 -0.32754716 -0.7916362 0.6313795 0.46778116 0.08986022 -1.3342555 0.60544264 -1.1919326 0.22372495 -0.059644718 -0.0007159151 0.22754128 -0.45059294 0.28364575 0.85612947 -0.5348188 -0.14749727 -1.356488 0.033472426 -0.46435097 -0.5224315 -0.3647018 -0.28614828 0.2926823 0.38271108 0.93784773 0.15775734 0.1131741 -0.19054896 0.28302336 0.114364594 -0.22466579 -0.046785504 0.16196424 0.65292096 
0.7638734 0.016027523 -0.51859486 -0.71032184 0.062833674 -0.31737605 0.28307983 -0.5413136 0.20754676 -0.06994239 -0.041023266 -0.030326506 -0.5014223 0.16947027 -0.041180257 0.028051559 -0.20660707 0.45057857 0.30267358 -0.16827132 -0.75044936 -0.42558706 -0.77364665 -0.3062416 -0.41347525 0.14284146 0.12732174 0.94226545 -0.032157272 0.14092633 0.20747657 0.84460056 -0.014989201 0.05247586 -1.3281964 0.15485533 -0.22797745 -0.37235934 -0.5276769 0.39821404 -0.57130456 -0.21980685 -0.43438563 0.21891801 -0.37310612 -0.18002579 -1.2219108 0.5814131 0.08117004 -0.35670534 0.6077951 -0.11064731 -0.482411 0.13320383 0.56909174 0.3064776 -0.73123336 -0.40619367 -0.43518347 -0.86631507 -0.49923658 0.39912188 0.18116331 0.13104695 
0.043585725 -0.34372732 -0.67269224 0.07258619 -0.86561984 -0.09686803 -1.2690768 -0.2832539 -0.37951508 0.013476641 0.09905034 0.17938563 -0.2824577 0.25721386 -0.78707826 0.4260134 0.38995042 -0.46347815 0.13138062 0.1860493 -0.72799414 -0.5342112 -0.81799096 -0.030745896 -0.05076147 0.06132397 -0.6338943 -0.20071982 -1.3278236 0.130271 -0.3044706 -0.6930891 -0.22919713 0.41693732 0.1759299 0.0139065785 -0.4027656 -0.20970373 -0.4876124 -0.44864932 -1.0445193 -0.15616086 0.036627967 -0.16208072 -1.3299434 0.34967127 0.025868755 -0.08416601 -0.066342525 -0.12045945 -0.2641712 -0.40522957 -0.4790185 -1.1907066 -0.37648904 -0.17804499 -1.0685147 0.18052517 0.25844324 -0.5744562 -0.095698155 0.019104816 -0.47329435 -0.8209065 
-1.639424 -0.3962307 0.40856874 0.21497098 -1.0838722 -0.25606838 -0.7333566 -0.112863235 -0.008426565 0.082767196 -0.21810392 0.32815483 0.5100258 -0.5444181 1.0043939 0.17038369 -0.2023991 -0.016535798 0.022661053 0.6374988 0.39889997 0.15400915 1.0782857 0.26495495 0.0467371 -0.4346335 -0.26965436 0.36276352 -0.95905787 0.5351508 0.17130505 -0.027582232 0.42150968 0.6876146 0.4837194 -0.022596264 -0.48282254 0.7482647 -0.117999114 -0.22396506 -0.40714946 0.048297677 -0.5645911 0.5495862 0.98775786 0.32420683 0.25700122 0.612806 0.49695998 0.10954624 -0.027290324 -0.17458934 0.065214224 -0.1368851 -0.51894754 -0.076858565 0.23298025 -0.8886513 -0.6771986 0.0947639 -0.9995688 0.5839051 0.17767084 -0.060373127 
-0.42881277 0.3241206 -0.51033527 -1.0077709 -0.15630254 0.49649304 0.05892115 0.44734445 -0.2147269 0.6540156 0.6304019 0.18846758 0.054808713 -0.07791051 0.3611065 0.16640814 -0.8866492 0.27935168 0.32347924 -0.11208421 -0.32534283 -0.87442297 -0.7183717 -0.59990454 -0.0396323 0.16329743 -0.7195379 -0.86123794 -0.2545337 -0.2424827 0.17350121 -0.39815405 0.7537894 -0.21779443 0.26252824 -0.5169575 0.30682912 0.6098575 0.02233035 0.537417 1.0249566 0.18221301 -0.4587855 0.18765873 0.07636895 -0.84551376 -0.1515581 -0.7357583 0.77066964 -0.49112174 0.19041245 -0.29095286 0.97250116 0.37310207 -0.1360296 -0.008379166 -0.36568767 0.08254205 0.34072238 0.8027167 0.06551162 0.46103793 0.048799753 0.31112617 
-1.2836697 -0.08090604 -0.20464256 0.6150572 -0.14357278 0.30992794 -0.19547382 0.7575373 0.15923731 0.062963 -0.25575876 -0.3672158 -0.14334731 -0.47955966 0.27149954 -0.070588924 1.061884 0.62757146 0.091389894 -0.19680978 0.7852618 -0.46005553 0.64661807 -0.68956673 -0.30701435 -0.06452372 -0.24646865 0.5335757 -0.15818343 -0.17944212 0.41318762 -0.5175979 0.23567663 0.026871935 1.2268674 0.7130116 0.6915658 0.93507856 -0.29519966 -0.7137414 0.31398582 -0.26087257 0.27086878 0.45695767 -0.17363492 1.1689612 0.8761461 0.5281179 0.44378614 0.7859397 0.65873677 0.22095606 -0.47999138 0.013904086 -0.27637905 -0.15965433 -1.0660434 -0.04291376 0.2101453 0.20436011 -0.033028092 -0.49591333 0.69120145 0.08129277 
-0.382788 -0.0011357728 -0.263659 -2.0110683 -0.2244212 0.05100431 -0.06693641 0.032041647 -0.6235907 0.60416603 0.23024653 -0.042782377 -0.16048194 0.20481867 -0.12139993 -1.3012208 -0.29870826 0.18660656 -0.92190474 -0.03768481 0.21091916 -0.36035013 0.30156606 0.48778144 -0.66945505 0.5196482 0.4248082 -0.002783295 -0.28210723 -0.322127 -0.0029076254 0.60320514 -0.07138739 -0.32813618 -0.12970297 0.3910345 0.08982683 -0.15640745 -0.050619233 0.17657652 0.79534304 0.4633522 0.023013871 -0.6158084 0.15060793 -1.0193843 -1.8822138 0.82692975 0.34678155 0.05949784 -0.26263484 -0.35046405 -0.64493483 0.119119786 0.7312078 -0.2747307 -0.73651034 0.0053116125 -0.16698982 0.2582299 0.20464623 -0.14665839 0.5184568 -0.24529828 
0.8150583 -0.08348005 -0.98406607 -0.38565838 -0.06255566 -0.3025656 -0.6354233 -0.4630288 0.23948169 -0.06199413 -0.96861386 -0.48924437 0.5928182 0.3202032 -0.47056884 -0.010012478 0.78307647 0.25637716 -0.71523786 0.020447206 -0.79455805 0.10138915 -0.45365345 -0.6666717 -0.5920017 -0.04275117 0.2878387 -0.12061075 -0.3194674 0.68795353 0.46199512 0.43458855 0.32462844 0.0026491464 -0.5687983 0.27213323 -0.4827715 0.0796381 0.45997214 1.2254142 -0.98879194 0.011982571 -0.32866362 -0.33952543 -0.13995574 0.31137255 -0.3370835 -0.59544253 0.55793923 0.017491316 0.0060163764 -0.0047004595 -0.52744925 -1.7716395 -0.0116313 0.5361378 0.29226336 -0.4185869 0.17390877 -0.98913556 -0.49124786 -0.0018896956 -0.5179566 -0.6007222 
