-0.44518906 1.8113952 0.43778417 -1.7034694 0.045952294 -0.92775285 -0.33987868 0.981759 -0.2574003 -1.8080266 0.11482731 -1.2129682 -1.6301032 -0.21815109 0.98358554 0.0045544603 0.7473125 -0.5605939 0.76106757 0.47517785 -0.86868393 -3.505444 0.3729287 0.3849762 0.31395578 2.1369543 2.396563 -0.33226842 -0.3199815 -3.0447152 3.6343997 -0.603978 0.2509653 3.4088202 -0.70305455 -1.0668315 -1.0303748 0.23706141 -0.0108825555 -2.3791795 -0.6775352 -0.47733432 0.6965899 -4.017479 0.06293613 1.9880506 -0.21361372 0.671691 0.12977172 2.7141278 -0.16025002 -0.22129759 -0.16137886 -0.528016 0.57464606 -0.28609377 -0.7293307 -0.958273 -0.3405652 2.7401803 0.41944036 0.3894744 3.6121438 -0.36273515 
0.114037044 0.64281577 0.38058642 0.6631754 -0.269485 0.7544777 -0.3353987 2.4656053 -0.12127445 -2.0083234 0.61399657 1.3225079 -0.88491327 0.10348461 1.184349 -0.1380033 -0.60100204 0.44816595 0.042795137 0.4879866 -0.6660414 -2.7082863 0.00085385627 0.6301766 0.46119466 3.186485 -2.2917545 0.57889605 0.18327285 1.8383416 1.2118528 0.23378386 0.0958751 1.5371817 0.59192216 -0.49671456 2.386761 -0.25142232 -0.5965213 -0.3118302 0.3082036 1.3780494 0.12638064 -3.432204 -0.81720245 -1.809904 0.37108567 0.5737463 -0.25446132 0.49687916 0.6257968 -0.38603175 -0.07963525 0.07063377 1.0994396 0.9684595 0.61130375 1.1932288 0.5595553 3.1867626 -0.15612037 0.4884305 1.4556184 -0.59224993 
-0.9849879 -2.048074 -0.1520302 -2.2915828 0.016469594 0.119938105 0.009324587 2.5009706 1.0164297 -0.7512594 0.06533372 -1.930882 -4.0383115 -0.38505343 0.21179412 -0.850141 0.683969 0.9696589 -0.39928415 0.50473696 0.47482032 -2.453952 0.28200227 0.26977965 -0.70337635 0.4767698 -0.09538513 0.1073054 0.26775226 0.39128298 -0.021636093 -0.1722645 -0.0011041919 0.25388244 -0.09347105 -0.79634434 0.64433026 0.365809 -0.77602375 -0.14344415 -0.7054444 0.87984 -0.23980391 -2.1090736 -0.09339237 -2.3368561 -0.24176359 0.49803674 -0.81558794 -1.4690866 -1.207627 -0.04385341 -0.23384766 0.5692373 0.28565952 0.0017739862 0.43607593 1.1460178 -0.062667 0.27390555 -0.011632174 0.3075661 1.684489 -0.053513482 
0.70517254 0.18251154 0.13360567 -0.13283437 0.16019444 0.06663085 0.12779647 0.38298368 1.6184363 -1.4970213 -0.44975507 0.6352084 0.7402934 0.022771195 -0.7529678 -1.2802235 -0.58357143 -0.9506764 -0.6614106 -0.40310687 0.112646416 -3.292426 -0.29931557 0.4413114 0.37114096 1.2042944 0.3650986 0.42746285 -0.145977 -1.8688827 2.1759694 -1.8893801 -0.09010696 0.03316021 -0.19064185 0.22705519 1.184853 0.5694049 -0.1454277 -0.22452377 0.21234657 0.54646134 0.2373872 1.9313079 0.12831962 2.347209 -0.7432099 1.0245763 0.34459606 0.966826 -0.4572921 -0.3816389 -1.2674637 -0.48365936 1.4130492 -0.043148197 0.07273987 1.5636063 -0.2731456 2.937042 -0.37945235 -1.408023 1.5025774 -0.64330417 
-0.063614994 0.14550431 0.94452256 -0.37002096 -0.33002356 -0.6541366 0.45656997 -0.29495585 0.14741363 0.47334722 0.111138284 0.24545468 -0.43886048 -0.011381152 0.56596315 0.57435346 0.45757002 0.9256281 -0.19592772 -0.06340727 -0.16308297 -0.0035679392 -0.032633767 -0.12888917 0.16911009 -0.5266197 0.30112058 -0.36118105 -0.003809285 -0.12077213 0.155493 0.13029593 -0.35570467 0.7382576 0.09043886 -0.24450044 2.0099359 0.33044255 -0.14466114 -0.63888323 0.7091566 -0.13821107 0.5640428 -0.036875412 0.4708861 0.061207294 -0.9450559 -0.7965011 0.7345441 -0.4725801 -0.0018682652 -0.3212126 -0.32760417 0.35570318 -0.123945765 -0.015902357 0.0080242995 -0.14998809 -0.7927549 0.15838245 -0.57131875 -0.1002087 -0.016643824 -0.6258105 
-1.6277841 0.6727838 0.21139404 0.58549184 -0.032235406 -0.31002307 0.11556143 0.9914356 -0.39709353 0.45068967 0.13628905 -0.47826257 0.31641012 0.54658085 0.5661405 0.11483837 0.050670933 1.0435028 -0.40952358 0.63855463 0.4979451 0.37285662 1.0699712 -0.3140236 0.17611445 -0.41145143 1.1219902 -1.5311928 0.17881475 -1.5934465 0.08910285 -0.0065517887 0.22128227 -0.8109701 0.657116 0.58965874 -2.6102762 -0.32603177 0.0061432137 0.4351976 0.17556249 0.06756963 -0.5658399 0.67194706 -0.4051953 -1.5490967 -0.54991627 -1.3509278 -0.0962861 0.34339637 -0.08640157 0.2559663 0.3925232 0.56626034 -0.6259955 0.15438436 0.8680587 0.3804718 0.76074994 -3.0650966 -0.844167 0.0013672109 0.039676566 -0.2857502 
-0.1335969 -0.51418155 0.2813418 -0.5024591 -0.05947873 0.04997422 -0.6853653 -1.7310355 -0.41935703 0.0234465 -0.331378 0.72274804 1.4292791 -1.2106545 0.21636741 0.19239546 0.26570594 -0.11921466 0.85988706 0.14499812 0.15016323 1.5285913 0.18832865 -0.011408699 -0.17667635 -0.45163944 3.3616686 -0.83754075 -1.1963719 -0.8511378 -1.0184863 0.21360055 -0.3741561 -1.6488129 0.34609407 0.29692635 -3.7567904 -0.56516266 -0.60332024 -1.1232793 -0.122137226 0.11881532 0.30638015 0.3932243 0.17106125 2.6457224 -0.060534026 0.9507417 0.036782485 1.302822 -0.26686087 -0.75252163 0.010448097 -0.389136 -0.031667985 0.37630284 0.23237583 -0.5291575 -0.73604083 -1.8764137 -0.55630046 -0.39527085 -0.015530713 -0.21236205 
0.16727716 1.3758534 0.39496446 -0.28153077 0.45353997 0.06520769 0.008285274 0.63053745 0.27137908 0.69833684 -0.40806475 0.8813953 1.259903 0.1453028 0.27736396 1.1550701 -0.38058236 -1.031158 0.06981292 0.614602 0.22855791 2.3073356 0.26075327 -0.32663688 0.5358987 1.5201389 2.3508253 -0.9904294 0.17465708 -0.23708472 1.4905275 -0.10517005 -0.52452224 0.23534806 0.031197926 0.4755799 -1.997428 0.023995144 0.08579436 0.38488778 0.42177913 0.8715184 -0.26500675 -3.7525997 0.18890315 -5.501256 -0.4841247 -2.1710355 1.2150187 1.1406027 -0.7503726 0.1771802 0.26859757 1.0652322 -0.29632708 0.4661942 0.15242454 0.15143757 0.0880276 -2.488712 -0.42389482 0.013667519 -0.0972429 -0.20463774 
0.44306183 -0.96961665 -0.013639583 -1.1795615 0.5141846 -0.6140219 -0.16577017 -0.22529177 -0.36672613 0.66355884 0.3122318 -0.19455332 -0.506994 -0.41339415 -0.3889986 0.8315685 -0.18511368 0.1081026 -0.42850545 0.37128228 -0.38163105 -2.2350945 0.62296486 -0.27204245 -0.32809737 -0.10844787 4.7443604 -1.6991738 -0.6137675 -1.8130116 -2.084051 -0.05852605 0.016924268 0.46697715 0.24431822 -0.19690514 -4.0060267 -0.099171855 -0.31457606 -0.21813294 -0.25997815 -1.0706832 0.15143375 1.4775817 0.4380008 -1.6654428 -0.06808783 -0.60474545 0.57136846 -0.51196474 -0.76730525 -0.42611858 -0.40605432 0.22623587 -0.17547835 0.028936962 0.16464777 0.81409025 -0.5302734 -1.8651435 -0.1390848 -0.27911806 0.07797413 0.18280219 
-0.00038230626 -2.9948115 0.056770742 -0.7837378 1.1043497 0.44432765 -0.43801674 1.9840281 -0.5686318 0.33317065 -0.097523086 0.41306672 1.4177691 0.67608595 -0.033960868 -0.6488815 -0.107773446 -2.6238618 -0.061345704 0.3606121 0.42880863 -6.5557876 0.24286748 0.26039362 0.4754702 1.5481893 4.8977284 0.542189 -0.31161416 0.8285368 0.8218838 0.37632054 -0.19142756 -0.76603675 -0.013631933 0.486085 -3.4844596 0.39336208 0.107835814 0.20675257 0.7022469 1.539814 0.5417123 -6.830474 0.59800863 -1.7717508 0.70672154 -0.41762313 -0.46080437 1.1222947 2.1009364 0.25464126 0.1877798 -0.3091999 0.15263367 -0.0032114526 -0.19441597 0.040230006 0.27792552 0.5289686 -0.46383017 -0.23583308 -0.64398474 -0.1924694 
-0.158282 1.5814893 0.4594876 0.8428471 0.28835925 0.29818025 -0.27949083 5.852951 0.9535694 -4.4755197 -0.115750104 0.24473526 -1.2761233 -0.20952062 -0.3855443 0.021061016 -0.119100265 1.7722517 -1.1162115 0.17730181 0.1840643 1.1684068 0.3585139 0.084743865 0.028720152 -1.5414941 2.7329798 0.20254295 0.74526894 -1.9195663 1.3788188 0.4510224 -0.3691137 0.59871197 -0.15085989 0.13495103 -2.6663225 0.027763333 -0.60686374 -0.12686428 0.07072078 6.037069 -0.7459874 2.9796894 -0.2172008 0.010318157 -0.7045268 -1.1655127 -0.44610524 0.18173602 0.03589708 0.43350613 0.31134322 0.13683267 -0.1579986 0.5751922 0.22680305 0.7986105 0.1403493 0.43609267 0.41866472 -0.13546273 1.1980089 0.4494307 
-0.40401784 -2.3834205 -0.16779344 -0.038173277 0.07080867 -0.16416906 -0.6940947 -0.39840004 1.0874937 -0.23841973 -0.33857542 2.104448 0.5905518 0.36560133 -1.0953501 -0.4157991 -0.5700177 2.2241151 -0.5761636 0.041776624 -0.6838194 0.74395156 -0.12413436 0.26517868 0.71102846 1.6159122 1.6875268 -1.2244782 -0.08361325 4.2448187 -0.0538026 0.44372368 -0.111869216 -1.317087 -0.09185002 0.55752873 -2.996017 -0.5437396 -0.17924327 0.45959374 0.64315027 0.8704445 -0.07454656 -1.6791234 -0.5365049 -2.6452913 0.9490899 -0.3581432 -0.08648728 2.7172472 -0.59036577 -0.37294418 0.1418419 0.14188118 -0.2225183 -0.031137677 0.35092998 -0.05527374 -0.046701808 -0.26219675 -1.099942 -0.6882994 -0.6209469 -0.7725826 
-0.4597828 -1.4660659 0.4705644 -0.01858126 -0.9167375 -0.3126326 0.16146582 0.26755232 0.27624243 -1.902099 0.45563972 0.8559774 -0.9199426 0.22631016 -1.1163429 0.6075118 -0.31912568 0.57594496 -0.7009681 1.3470479 -0.20631896 -0.9061166 -0.15557355 0.33511436 -0.3569096 -1.7817888 -1.1977086 -0.21659936 -0.052514922 -1.5877486 2.418394 -0.99412626 -1.0737622 -1.1038879 0.4820371 0.3440845 0.47381592 0.32953596 -0.64657265 -0.4843885 0.46893823 1.7817209 1.1479973 -2.6738124 -0.09060998 0.76773053 -0.7859009 -0.051231846 -0.14715841 0.12933177 -0.4073202 -0.0064513884 -0.11188767 -0.23572752 -0.102451466 0.21403827 0.29618508 2.6629152 0.4813587 -0.5397915 0.0003040176 -0.21412568 2.6598217 -0.16992971 
0.6545132 -0.17436329 0.39485446 -0.60705066 0.30781743 0.4289491 -0.20596848 -0.11566398 0.16878916 -0.03779118 0.32013944 0.34639087 -0.46740666 -0.07150794 0.15245737 -0.0939405 -0.054666497 -0.65089935 -0.08360166 -0.90319175 -0.1250659 -0.0523498 0.017998701 0.004448841 0.21630263 -0.40817854 0.39590976 -0.10025759 -0.5641239 -0.45305753 -0.020049948 -0.4035413 -0.03488019 -0.19128238 0.042057127 -0.32927802 0.3527434 -0.6481371 -0.51080734 -0.6387198 -0.06712353 -0.084905215 -0.93477964 0.2237603 -0.4401269 0.8154363 -0.2954154 0.05982883 -0.73747593 -0.6753492 -0.11286192 0.13122565 -0.13021375 -0.14425038 0.39472467 0.31842953 0.2713513 -0.074160755 0.22545514 0.122583136 -0.6374002 0.19266532 -0.0020755487 0.63485384 
0.24943416 -1.970141 0.11403999 -0.6310136 -0.06813301 -0.15640388 -0.15564996 -0.5723786 0.26188514 -0.69433564 0.35860133 -0.16491264 -2.3498123 0.011287626 -0.32121193 0.91979164 0.18562856 1.2133147 -0.5237925 0.34464002 0.42926902 -0.8282016 -0.51262635 0.31364235 -0.45705852 0.92778856 2.1786175 -0.23781867 -0.26486728 2.5505996 -0.39999807 -1.093173 -0.5949058 -0.66067797 -0.4500376 -0.5661949 -1.4505465 0.25849858 -0.25201565 -1.0771598 -0.43808475 -0.8999578 -0.263834 -4.7375593 0.07019835 1.7774124 -0.840294 -0.8656326 0.22588736 0.15794829 1.5898954 -0.51513004 -0.022363544 0.3239947 0.35427153 -0.5764576 -0.53520447 -1.2074697 -0.27351594 -1.3850268 0.3605962 -0.53461117 -1.8860818 0.47634897 
-0.43602312 1.6507561 -0.2505547 -1.710352 0.34317514 -0.17860988 -0.92611575 2.0516083 -0.6669187 -0.96758115 -0.060728077 -1.7068524 1.3046741 -0.45035815 0.033330303 0.39947966 0.075441234 1.3516748 -0.34627104 0.51689196 -0.013717553 -3.4920993 -0.26170918 -0.4999476 0.047092423 0.087946534 2.4787903 -0.25776756 0.38058633 3.2116923 -3.6190033 1.0285794 -0.05523625 1.127454 -0.35433087 0.63424087 -1.0335301 -0.3619057 0.0032994102 0.526122 0.7771112 1.641374 0.4676583 2.373234 0.1319757 3.8172014 -0.036793344 -1.6035705 0.4606566 1.2058208 0.41580042 -0.16245425 -0.122537374 -0.3296688 -0.43201327 -0.13491073 -0.38018194 2.074388 -0.17729011 2.2950892 0.14589244 -0.8568329 2.1773617 0.34530517 
-0.7028309 -0.44318303 -0.9749276 -0.91193825 -0.7468853 -0.5132791 -1.182419 -1.9484074 -1.3378533 -0.72183484 -1.3917648 -0.28859153 -0.9992812 -0.89684117 -1.0873145 -1.4903773 -0.72558546 -1.8938385 -0.6417932 -0.9380288 -0.9357394 -0.025056522 -0.9452827 -0.5379071 -0.6348699 -0.89906824 0.0061505656 -0.56097597 -0.84842855 -0.87968135 -1.575115 -0.74889827 -1.1430564 -1.2310803 -1.3196052 -0.82825273 0.18417037 -0.83279467 -0.6687703 -0.9188854 -1.0600222 -1.9267883 -1.0347079 -0.62980974 -0.79182905 -0.42678756 -0.56559205 0.08941778 -1.6728315 -1.5000933 -1.4446937 -0.72619146 -1.2526481 -0.82447374 -1.2559757 -0.9846895 -1.2650882 -1.8132038 -1.1396004 -2.742941 -0.86112446 -0.55073595 -1.454417 -0.96500736 
-0.37125394 0.9614355 0.7147589 1.027394 -0.64850664 0.82928944 0.25465804 1.6352692 -1.3360267 -1.0904742 0.9918773 -0.31000036 -1.9716133 0.13381878 -1.7760696 1.2602655 0.5287115 -0.24344702 0.44004366 1.0561447 -0.62366575 -3.490775 0.8448207 0.21743786 -0.3601221 1.0510054 -3.1309257 -0.45052966 -0.6224206 -1.9795569 3.4341652 -0.4929118 -0.36449742 1.5470165 0.3780223 -0.086107075 3.156157 0.50150937 0.038137276 -1.5885706 0.12592262 -2.301602 0.8159192 -1.1164517 -0.870606 -1.2596241 0.21209662 1.5559082 0.1692008 0.8871938 0.8556574 0.6641741 -0.44836247 -0.49402454 0.39136255 0.0095924055 0.0011167297 0.5738873 0.22971731 0.7302129 -0.5648187 -0.36596805 0.85524476 -0.4798062 
0.047408935 -0.7826544 1.1218992 0.84918356 0.17726386 -1.1631646 0.32056963 -1.991061 -1.3576502 -0.3117729 0.44685465 1.6941 -0.1266655 0.07347739 -1.4650351 0.38846645 0.2520527 1.4155025 0.14416777 1.019535 0.46458822 -0.6258303 0.8595881 0.039584953 -0.3170619 0.6535365 2.5267813 -0.3444062 -1.134073 4.8800807 0.7334621 0.11604554 -0.54993993 -0.41244724 0.14020182 -1.0591749 -3.4344013 0.83853364 0.37932488 -1.532203 0.73734677 0.8907848 -0.62091213 -2.0250056 0.15330623 0.9059281 -0.0933408 0.08485271 0.31795064 2.7190886 -0.3905478 0.013236568 0.05031896 -0.52966326 0.83680296 -0.47765583 0.7212799 -0.85166705 -0.36011264 -0.68026173 -1.0142325 -3.192212 1.6764379 -0.089320295 
0.18032907 -1.0879538 -0.24629799 0.32504845 0.2624327 0.14389922 -0.40438092 3.3379574 0.735298 0.41204745 0.33834067 -0.9677892 -0.47182736 -0.09521788 0.35905582 0.22235204 0.798944 0.08397327 0.48669946 0.51900196 0.35667583 -4.5928 -0.152739 -0.087254375 -0.13716252 -0.5539073 3.9421353 -1.2855064 -0.15922365 2.585544 -0.2982179 -0.2815128 -0.21352415 1.5768235 -0.2530301 -0.21146742 -4.560178 -0.8094059 -0.28155303 -0.18586041 0.20111445 0.5025683 -0.40804663 -2.6884687 -0.33617184 -1.8049686 -0.7164894 -2.2771719 0.72751004 -1.2788813 1.1750836 -0.82636344 -0.011188101 -0.6189521 1.049278 0.42476952 -0.06840819 0.837202 0.24818589 -0.23875958 0.04121428 -0.31956032 3.1234853 0.54506826 
-0.27465087 -0.11902294 0.23650339 0.09621188 0.6167132 0.20476428 0.22377494 -0.3982198 -0.39688393 -0.84417766 0.34225348 0.2720658 -0.36792928 -0.054829378 0.61984944 -0.34409332 0.03334313 0.42843795 -0.47506595 0.344069 -0.43951103 -1.1554011 0.5363389 -0.46078908 -0.036084164 0.83565724 -0.8746505 -0.11697463 -0.74723345 0.051943343 -0.052849036 -0.18459488 0.33490643 -0.62035906 -0.39006826 0.55561435 0.5352338 -0.00078492775 -0.15095162 -0.03747916 0.27631208 -0.18885362 0.5342996 -0.35357708 0.49191228 -0.2623036 -0.10938328 1.0225253 -0.087901995 -0.10345675 -0.6813987 -0.43244392 0.1820732 0.39842334 -0.12900183 0.093822695 0.243733 -0.6346359 0.3854088 0.14677547 -0.4515214 -0.25786123 0.47426596 0.5893975 
-0.04891382 -3.3344958 0.7320003 0.24535394 -0.1764748 -1.0635717 -0.13997851 0.9691275 0.92460877 -1.4634701 -0.46126932 1.547708 1.4792235 -0.442487 -0.8718282 0.36272043 -0.5085973 -1.6920005 -0.803161 -1.0016326 0.08035813 2.3586717 -0.2655396 -0.7564991 -0.8002329 2.3433428 -1.0116217 0.4303337 -0.0017014064 1.720507 0.5416401 -0.24542156 -0.0029842972 -0.11522506 0.56805164 -0.15387003 2.7144132 -0.9465918 0.051063437 -0.4649945 0.036832847 -1.3039067 -0.06350907 0.3110213 0.40532288 -1.4441137 -0.1775343 0.39662978 -0.027863372 1.552475 1.184765 -0.5542311 0.19887218 -0.9253808 0.75985914 0.5099451 0.037247445 -2.4403653 0.49745062 -0.28757897 -1.0031093 -3.314492 0.00049548683 0.5571622 
0.033340976 -2.9076583 -0.1330878 0.5950301 0.36425787 -0.889396 0.068429805 0.37723574 -0.97005576 -0.044610906 -0.43969697 -1.9546311 -2.2347512 -0.869815 0.82095706 0.03417911 -0.4660336 0.20469755 -0.13918611 -1.1099362 -1.3984535 -0.48643947 0.28209054 -0.88957703 -0.091844685 -1.0308119 -1.5311291 0.7642717 -0.3670723 -0.779153 -1.3548403 -0.29755142 0.028040886 0.75976866 -0.38516346 0.15364964 1.650897 -0.0683187 -0.26907623 -0.542505 0.40206084 -0.0016885409 0.6867718 1.3011986 0.07559119 -3.5481174 -1.7610482 0.8988064 0.39035332 -0.25785428 0.926482 -0.5226388 -0.51161754 -0.36643043 0.43693045 -0.0022210174 -0.03308353 -2.0133748 0.17211358 1.5141577 -0.34247303 -0.6409879 -1.8049643 0.0063137542 
0.058226172 -0.71569896 -0.23020197 1.3533645 -0.069507904 -0.13913158 -0.69370615 2.8574052 3.306429 -3.2480557 -0.5590578 0.22448131 1.0009826 -0.37843558 1.9266232 -0.6618406 -0.4108363 -0.58537656 -0.372437 -0.9617597 -0.2999211 -3.769943 0.11933033 0.6578256 -0.54475075 -1.364711 5.3890967 -0.87529856 -0.046614088 0.5749037 0.049847484 -0.91573197 0.07504216 -0.02772522 -0.12515402 0.3598259 -3.053585 -0.12762582 -0.49485868 0.03219469 -0.9205195 1.3910998 -0.18604867 -7.0081363 -0.035535805 0.60804814 1.00002 0.13391672 -2.0481195 1.0559615 0.756289 -0.10550021 -0.69012934 -0.43494686 -0.19948383 -0.5270269 0.3723148 1.6527392 -0.072460674 -1.2062993 0.12119403 -1.0616208 4.6994953 -0.1562193 
0.5013458 -0.21540013 0.37125722 1.4466102 0.6560548 0.41572225 0.26135033 -2.087361 -0.04115259 0.31211966 0.07078845 -1.5507087 0.7163059 1.0065944 0.049657132 1.3373235 -0.17184643 0.41227442 0.5240942 0.8173132 1.1335163 -0.69712937 0.19902782 0.2793298 0.6428675 -0.5815491 0.94095314 -0.1351924 -1.1798778 2.1306171 2.0614579 -0.5276907 0.22330223 -2.4705684 0.13012168 0.001531286 -2.5410705 0.23642597 -0.11972411 -0.38736352 0.3291745 0.13910896 -0.32248324 -5.6899257 -0.2654922 -3.3879957 -0.16672994 -0.3844385 -0.36341465 -0.23591167 0.19222508 0.4354757 -0.004847819 0.042184163 0.023083644 0.26468632 -0.15448487 2.4582593 -0.124518126 0.7117763 -0.6045312 1.7997656 3.5860507 -0.14622971 
0.03747671 -4.093952 -0.27624568 1.9541297 -0.2633656 0.2556646 -0.5818038 -1.9928571 1.2399462 -1.415961 0.07142935 -1.9998667 0.22929831 -0.61387724 0.6008328 0.3395672 0.29895124 3.6134233 0.14471173 1.0969659 -1.1729279 -0.45694518 -0.21461229 -0.4457264 -0.3421772 -0.8513167 -2.2020042 0.0767552 -0.86076206 1.447692 -1.0745678 -0.5616001 -0.8274171 2.929858 0.092037015 -0.30112633 3.5255964 -0.163116 -0.40461752 -0.23078448 -0.5150058 2.5890348 -0.057952646 4.0477567 0.40897256 1.847928 0.027700879 0.79760104 -1.300522 3.16089 0.80121505 -0.31474248 -0.1481343 -0.7770132 0.92429227 0.14890699 0.026150813 1.2227412 -0.22723313 1.910565 -0.21207465 -1.7900695 2.204794 -0.18491626 
-0.093848124 0.60891825 1.0984209 1.2611802 -0.31667292 0.69849145 -0.15357314 -1.119615 -0.048560236 -0.50941 0.20479095 0.41218793 0.49430814 -0.04833597 -0.086341746 -0.9159653 -0.19651452 0.6114236 0.3394738 0.3490566 1.2386932 0.46740258 0.41054145 -0.37474415 -0.2749034 1.5771998 2.0863018 -1.0705291 -1.0538418 0.4935154 -0.40460065 0.08561097 -0.6962243 0.45182893 -0.055128537 0.41281712 -2.0514066 -0.62107277 -0.14066014 -0.90575856 0.06971281 -0.4728867 0.48470366 -0.6054301 0.02014116 -2.3439176 0.8366267 -0.117446445 -0.12649322 0.20089154 0.11157451 -0.33345312 0.43056282 -0.6615527 0.20862125 0.4058206 -0.060246058 -0.16272059 -0.45881718 -1.9902855 -0.7411697 -0.31807896 0.06508748 -0.43378168 
-0.8987365 -0.29311278 -0.3454067 -0.5420164 -0.28072873 -0.20903932 0.339614 -1.0838219 0.08816434 -0.5927744 -0.58681697 -0.42073798 0.6541712 -0.10803854 0.042086493 0.0043286756 -0.413235 0.8975849 0.47025752 0.8511249 0.4014741 -0.89457345 0.23331316 -0.17680551 -0.08988521 0.98808974 1.8199512 0.19060516 0.4942029 0.10958606 0.71918285 0.23859665 -0.9492924 -1.2512589 -0.2964183 0.04515316 -2.0891798 0.37368214 -0.47552902 -0.33210516 -0.24680819 -0.079987615 -0.37096298 -0.13140808 -0.09853637 -1.6956134 -0.26417476 0.5908355 0.073630765 -0.30064568 0.07259915 -0.14621663 0.4616771 0.24616246 -0.45952052 -0.690765 0.1475339 0.21070734 -0.086973645 -3.635642 -0.00899975 -0.2546606 -0.32501093 -0.59555703 
0.39853454 -0.80965817 -0.46295124 0.21968533 -0.6213864 -0.005499524 0.30711392 -0.6023099 -0.29360956 0.12328507 -0.15487783 -0.14726959 -0.42501095 -0.12441628 -0.24961592 -0.14603962 -0.13230534 0.61280644 0.58349705 0.1253417 0.48691922 0.4489346 0.041882697 -0.58329976 -0.4282476 0.28737143 1.1871855 -1.1673748 -0.46710965 -0.3367395 -0.09079838 -0.5616447 -0.25347143 -0.13178103 0.35228762 -0.3823768 -0.50258934 -0.8643245 -0.38362643 -0.338014 0.015201872 -0.12624611 0.44837344 -0.9107592 0.01329078 -1.6697179 0.51071805 -0.78675056 0.30310297 -0.34761548 0.058079608 -0.46968442 0.314656 0.09463861 0.36415234 -0.51366085 -0.012645942 -0.12695886 -0.45915648 -1.928716 -0.80494756 0.20425771 0.032877963 -0.19581373 
-0.32133374 -0.37390545 -0.5992093 -4.1136503 -0.4229494 -2.7983284 -0.24652806 -0.65164137 -0.8106465 -0.68833774 -0.21926191 -1.5988617 -0.32739443 -0.3948485 -1.3850083 -0.32006052 -0.15243092 -2.9746406 -0.453316 -0.83733267 -0.21423419 -1.1740505 -0.6878645 -0.37576264 -0.78297573 -0.5889973 0.1684275 -0.5129196 -0.31434488 -0.456085 -1.0900757 -1.135855 -0.4575946 -0.7453694 -0.2729622 -0.6289543 -0.4834951 -0.26204556 -1.0357379 -0.63577753 -1.1079623 -0.12470968 -1.4615256 -0.20726702 -0.6448446 -1.3231853 -0.56665796 -1.2513623 -0.79855394 -1.9079415 0.2951768 -0.101832464 0.10647698 -0.52699226 -0.8901688 -0.40387115 -0.87270325 0.2601328 -0.6319489 0.38916484 -1.4999411 -1.9144526 -0.9870174 -0.57158184 
-0.17662656 1.3636823 0.4991191 -0.7168207 0.08474172 -0.31879476 -0.22231656 4.1470537 0.2544192 0.49084106 -0.07748728 -1.284623 -2.294959 -0.5410509 1.0537648 -0.7677226 0.15142034 1.7546736 -0.25562647 0.17498228 0.4265365 -4.048805 0.379164 0.26391074 0.5412062 -0.8860446 2.033989 -0.007372495 0.36632317 1.8443562 1.8660411 -0.0010992374 0.044776898 1.5834256 0.01678093 0.12417193 -2.8084595 -0.81926626 -0.70914245 -0.18444455 0.03650299 1.6787024 -0.13201398 -5.0993023 -0.23224299 -2.3406405 0.2882963 -1.88817 -0.17361 -0.9725878 0.543579 0.5395903 0.38241252 0.1471251 -0.6943885 -0.31184706 -0.17439787 3.9401011 -0.039955597 -0.0151326675 -0.1573088 0.51830286 5.3063936 0.43313572 
-0.96783787 1.6280955 -0.6858952 0.3592404 -0.56537473 -0.36970168 0.10584121 -0.7148497 0.37355876 -2.6937082 -0.9931985 -1.6626894 1.1943897 -0.61665505 -1.4432085 -1.063642 -0.112118036 -0.017111145 -0.53005195 -0.009267928 -0.47829634 0.18289068 -0.24747376 -0.53244 -0.57369703 -0.5342496 1.27978 -1.1209224 0.25062895 0.58314794 -2.5363922 -0.4709251 -0.5801474 0.00337083 -0.43358025 -0.12552251 -1.5625783 -0.0781402 -0.68097794 -0.39612156 -0.17841744 -1.4665618 -0.5594536 -2.5825675 -0.0054517696 -1.3022376 -0.38350534 -1.9303752 -0.83070153 -1.401217 -0.77494067 -0.24914166 -0.26353702 -1.1956308 -1.5010517 -0.6058659 -0.67497 -1.5498569 -0.5929357 0.8662567 -0.9871041 -1.8997405 -2.283477 -0.1597929 
0.43756706 -0.070167445 0.9407143 -1.5133862 0.17512341 0.3694589 0.036932785 0.33022717 0.67541265 -0.13961078 0.072843984 1.2298763 -2.4420695 -0.3016746 -0.59670925 -0.17615524 -0.1655742 2.4407952 0.74054533 0.89906734 0.08244154 1.7093486 0.4308983 0.16971385 0.6304501 -1.406258 1.167093 -0.018292796 -0.31306142 0.010075239 -0.5558552 0.06631921 -0.015859433 0.4345064 -0.49224886 -0.6114437 -0.8780747 -0.6540866 -0.010259349 -0.30053204 0.014345798 1.074448 0.5802313 1.0244628 -0.39843816 1.5906856 0.8645824 0.8259581 0.26407704 1.76967 0.46384883 -0.41734362 -0.11277187 -0.04828147 0.08089345 0.24098763 -0.015707806 0.6173411 0.27056953 -2.6429403 -1.1837761 -0.51116055 -0.24132663 -0.497712 
-0.17698127 1.7386242 -0.99302477 -1.7019559 0.3000828 -0.045461226 0.00082747394 0.023418527 0.13046907 -0.69218373 -0.03936949 -0.2048654 -2.7750907 0.1809382 -0.77529544 -0.18312481 0.5534186 -0.6138679 -0.29731312 0.48289752 -0.038303014 2.04756 0.9640731 -0.08366111 0.14082997 -0.037717905 0.30261168 -0.43657282 -0.39346138 1.0112022 -3.2211554 0.15585479 -0.6981004 1.8178307 -0.64231324 0.06367178 1.6597383 0.6593538 -0.7021861 -0.050181746 0.040257733 0.6591042 -0.16850378 4.2792077 -0.46122104 -0.011772773 -0.74500865 -0.3660683 -0.3697819 -0.49926502 -0.13314006 0.33414382 -0.10996602 -0.19777773 -0.59303737 -0.20312822 0.45279673 0.5741495 -0.32974708 1.9514036 -0.07190253 -0.45572582 0.7359911 -0.077203326 
-1.0692458 1.5704508 -0.0736139 -0.6093483 -0.5521917 -0.88049227 0.009728862 1.2554908 0.5729217 -4.735852 -0.4146805 0.22616014 -1.8572829 0.0112670595 0.16207188 -0.21088183 -1.327186 -0.28688213 -1.3227681 -0.6940367 -0.34635365 2.37473 -0.67467654 -0.1365616 -0.3833184 -0.7664769 -1.4528769 -1.0632846 0.19797428 0.7014537 1.8543477 -0.553943 0.40262023 1.0157119 0.23184612 -0.017872717 1.5138792 -1.6478691 0.43739307 0.32063037 0.16690382 1.8621174 0.54620653 0.9171602 0.19124086 1.2892419 0.32035482 1.0440522 -0.58733815 -1.704371 -0.7298068 -0.60273135 0.25070503 -0.11886011 -1.4723194 0.035974875 -0.044072215 0.9662266 -0.8978152 2.6312346 -0.37915963 -0.49432784 0.577749 0.1322187 
0.08429959 2.2755015 -0.8441519 1.877063 -0.06458429 0.38113052 -0.5368672 -1.2865051 -0.8417194 -0.77868354 -0.40139943 -1.2253953 1.7366549 -0.39626414 0.44628146 0.21644415 -1.0791423 -0.32881844 -0.43895575 0.028323868 -0.43678784 -1.7589914 -0.541083 -0.16113432 0.02588169 0.45059484 2.466019 0.33060664 -0.51670253 -2.1610963 -1.3609563 -0.28488538 -0.23022844 -0.63488865 -1.2375189 -0.4646954 -1.0013654 0.106180675 -0.33493468 -1.2394208 -0.6072362 -0.7409619 -0.35422844 -3.5194657 -0.74810594 0.9525655 -0.41020712 0.3153171 -0.8381171 -0.8485317 -0.9459797 -0.3422603 -0.11344097 -1.1093135 -0.45852673 0.20050229 -0.5365397 -0.010988428 -0.43772817 1.2880418 0.029757338 -3.7022774 -0.25435573 -0.17004803 
0.51675797 -2.1216924 -0.79656744 -0.819347 -0.122955024 -0.86269844 0.49308255 0.5938255 -0.9319256 -0.6048248 -0.28015226 0.772785 -2.1045825 -0.027473016 -1.0355842 0.4559029 -0.5611072 -1.0010523 -1.0398064 0.23660365 -0.47106043 0.2806793 -0.24737132 -0.3100957 0.488953 -3.2470224 1.2495422 -1.5749516 -0.35651246 -3.8234997 -0.14186123 0.7884282 0.24774435 0.63413334 0.57528526 0.26011002 -0.79259086 -0.19154584 0.066623576 -0.31619164 0.5302623 -1.3515023 -0.07207926 -2.2738566 -0.06838605 -3.872545 -0.27985746 0.23842514 0.25767475 2.142432 -0.74026376 -0.17358635 0.022504887 0.32576007 -0.47539172 0.06464702 0.6842896 1.3626366 0.3201294 -3.1665666 0.17155732 0.79741573 1.4707311 0.37159896 
-1.5564518 1.8336154 -0.44653207 -0.76414675 -0.68313265 -1.9816074 -0.5101926 2.11925 -0.01848652 -1.7568607 0.2481644 -2.9488986 -0.12515335 -1.348094 0.6706666 -0.3547636 -1.2105039 1.0347073 -1.1554766 -0.43592292 -0.5193675 -4.221713 -0.57969135 0.17444874 -0.4038889 -0.26807103 0.84951043 0.23884128 0.47257861 0.75372076 -0.2822842 -0.19652186 -0.018301018 -1.0776252 -0.20738369 -1.2712535 -0.92191386 -0.5465569 -0.815935 0.49120966 -1.0426116 1.5289993 -0.4217641 0.16214752 0.3463328 2.5740983 -0.2760132 0.03954316 0.00987446 -0.3030479 -0.61263084 -0.24843027 0.008973354 -0.5855801 0.7623527 -0.04378628 -0.7219593 0.20266949 -0.0770198 2.1145754 -0.47635886 -3.243986 1.7919871 -0.16948962 
0.7511062 -2.1832736 -0.24812493 1.3402661 -0.17705265 0.32275727 0.42443588 0.19439161 0.06565383 -0.3950095 0.2768938 -0.116907984 -3.2225065 0.22870862 -0.4642734 -0.50385946 0.23140681 1.5036554 -0.5398454 0.9131746 -0.31984547 3.9476326 0.30855322 0.30499083 -0.00677732 -0.64702153 2.910308 0.33800626 -0.018852891 3.1027074 1.5058548 0.4757153 0.24918221 -1.8604777 0.5405613 -0.17057462 -4.540395 -0.2465228 0.06954544 -0.34205416 0.1268886 -0.38130197 0.2678908 -1.6480106 -0.12982452 0.5167501 -0.79591376 1.2342511 0.09860554 -0.17824353 -0.28704116 -0.0374835 -0.2862514 0.10600981 0.46426255 0.53978264 0.27293387 0.24356532 0.25801608 -2.248308 -0.35365778 -0.182637 -0.81996655 -0.09961351 
-2.0184717 3.5097709 0.4424093 -0.42606062 0.12142215 -0.15273185 0.23777851 -0.59918046 0.931266 -0.6957293 -0.6291309 -0.7980265 -0.88974434 -0.4300762 -0.7878068 0.9253735 0.36495823 -1.8938888 0.8923838 -0.6885676 -0.6840708 -1.5287938 0.4575311 -0.73109126 0.17770857 -2.0348482 1.0093384 0.25116146 -1.1589782 0.5586687 -1.5465438 -0.4809689 -0.7891371 1.357979 0.45003057 -0.9154413 -0.75735474 0.2875425 0.46448666 -1.7998674 -0.35775635 -0.17306982 -0.56499237 -2.2424138 -0.59714246 0.44930512 0.35700116 0.8207765 0.32868215 0.91266525 0.96549445 0.121815726 -0.39626414 -0.12895598 0.18029352 0.3202197 0.25190645 -0.06555613 0.62894213 2.189849 0.98211384 0.03578138 0.4488088 0.3818804 
0.26919323 -2.1929476 0.33800948 0.9851087 -0.3304588 -0.58856124 -0.43545416 -1.016253 0.96835923 -0.3664248 -0.54335135 -1.7723776 1.2002556 -0.41033724 0.1862398 1.6517758 -0.2021106 -1.0555452 -0.35178348 -0.76360893 -0.049625527 -2.4486325 0.25145277 -0.3511343 -0.509587 1.5564291 -1.1954563 -0.1052961 0.35528332 0.31079614 3.0477457 -0.38519344 0.4246767 -0.60631716 -0.37488878 -0.16279858 2.1186137 0.08112726 -0.035381045 -0.22378437 -0.34676006 -0.25237858 -0.97028434 -3.1733356 -0.23915811 3.7162373 0.6280465 0.8168625 0.81162786 0.6737997 -2.1458683 -0.3181775 0.3417155 -0.6815949 0.6954703 -0.04688869 -0.6542494 -0.9814891 -0.1474204 0.46533874 -0.66639405 -1.2038965 -0.7151101 -0.27108395 
0.22099817 0.19476146 -0.0027029437 0.58650154 -0.1904914 0.3683881 -0.12467339 -0.31937203 0.018051283 0.63020515 -0.034359485 0.13037445 0.7971735 0.1884364 0.012747106 0.2430466 -0.372477 0.053723387 -0.7417032 -0.100549124 -0.3069855 -1.4231074 -0.21123378 -0.4428719 0.116105996 0.58918357 0.04166243 -0.6063173 -0.6162115 0.567687 0.8533282 -0.57958287 -0.15100491 0.04720225 -0.21357794 -0.1923487 -0.9169773 -0.79476076 -0.0021255054 0.27430674 -0.13063742 -0.75524926 -0.53421515 -0.3798268 0.45461905 -1.1203899 0.459512 -0.14868136 -1.6944155 -0.40286326 0.8014669 -0.28819942 -0.3040502 -0.19827174 -0.7561898 -0.48273328 0.1299611 -0.44447336 -0.09315472 -0.9623731 0.24769966 0.37648356 0.39507458 -0.37929103 
0.029939596 -2.9613035 0.0773127 -0.25645387 -0.41895545 -1.1190752 -0.12119004 -1.1743627 2.5370846 -1.2069671 0.32680616 -1.4791877 -3.143906 0.6028935 1.0742679 0.027056245 -0.63123274 2.9587054 -0.39946255 0.06796181 0.30540717 -0.75288594 0.3511096 -0.41412908 -0.49152887 -0.24994761 -2.7231166 -0.25251383 0.07981361 0.20334226 1.4570196 0.98015946 0.02083776 2.720682 0.17057662 -0.5740106 1.369581 -0.6518062 0.25770086 0.19552127 0.0012377633 0.4236086 -0.7107084 1.6126603 0.09961796 -0.24313073 -0.21526769 0.50428796 1.0785192 -0.020197866 1.1370412 0.1750584 -0.5190732 -0.09962834 1.0175589 0.2830158 -0.09469145 -0.8312454 0.53714263 4.689377 0.16872326 -0.20948258 3.0169606 -0.8188805 
-0.8187018 3.4463992 0.34926227 -3.873036 -0.20236495 0.6951244 -0.13091034 -0.99680763 2.0312068 -0.22092055 -0.059103444 2.425118 -1.2970434 -0.049487326 -0.29769954 -0.59918356 -0.19478485 -3.0215728 -0.09127585 -0.09946322 -0.016726848 1.8158424 -0.283718 0.63257563 -0.37453493 -1.2852716 3.423994 -1.2359909 -0.02215862 2.081584 -1.468244 0.5077724 0.1534502 -1.1990682 0.36962786 0.4243004 -3.4607968 -0.36067548 -1.057198 0.07152373 -0.34653124 -0.099320255 -0.6388706 -0.99852943 -0.35982066 1.6487046 0.19993307 0.74696827 0.8796141 2.2817063 -0.688361 -0.6082806 0.6342529 -0.8656155 0.5130844 -0.37130034 0.34343085 -1.5962069 -0.08346753 -3.280593 -0.3310931 -2.1512198 -2.4112532 -0.21093816 
-0.20169936 0.21927315 0.2863026 -2.0475638 0.21882026 0.023548057 -0.37518203 2.5569994 0.04934952 1.3297386 -0.14706254 0.74939126 0.33499885 0.4319683 0.29360017 0.18228833 -0.18147287 -0.30761465 -0.22321521 0.04297354 -0.38961703 -0.48280615 0.0169343 -0.21217366 -1.0432645 0.28549123 1.8653004 0.029480929 -0.54428077 -1.2108909 -1.2430111 -0.22432171 0.24479751 -0.17172752 -0.25650468 -1.0718834 -1.3830609 -0.48947266 -0.26828367 -0.76535773 -0.20856935 0.4332513 -0.17439881 -3.2097924 0.07562717 -3.598246 -0.37990367 -0.2235031 -1.1750189 -1.3536351 0.5137684 -0.7017216 -0.90126365 -0.5028043 -0.6280774 -0.17616765 0.17242722 0.54634 -0.3445982 -0.21705325 -0.28042075 -0.4750206 3.1633813 -0.4349902 
-1.9001993 0.73410696 0.45576528 -1.179949 -0.84150213 -1.3048885 -0.72678703 0.8483316 -0.08770174 0.20002232 -0.25459015 -1.9690958 -3.7651458 -5.9168087e-05 -1.376779 0.6152799 -0.10733974 1.4142623 -0.049873654 -0.26340342 -0.41340128 2.111972 0.12209962 -0.095164195 0.005620163 -1.6628261 -1.2318673 -1.8673607 -0.57058847 -0.40014657 0.64188427 0.00047541087 -0.10958569 0.7046582 0.16987827 -0.4181968 2.3276339 -0.6735707 -0.38023373 -0.3053687 -0.27220464 1.0991125 -0.8762598 1.938908 -0.9731152 0.7258368 0.50001717 1.3816326 -0.4452739 2.266056 0.64187115 -0.6136029 -0.8992186 -0.36455357 0.43962944 -0.15067713 -0.4476653 -0.4043526 -0.57791483 1.1226107 0.05159272 1.1183978 0.6519429 -0.84608245 
-0.0657044 -0.607097 0.121384844 2.2781303 -1.3982279 -0.8335142 -0.6494276 0.6362093 0.74050796 0.36474738 0.11542271 -0.53450346 2.1836917 -0.6080751 -2.8782868 -1.0539198 -0.8242574 1.8296924 -0.7026703 -0.81333977 0.20085901 -1.4198873 -0.8626253 -0.34468466 -1.5297865 0.17188299 -0.966711 0.5417947 -0.3571473 -2.168332 -0.07701585 -0.25426143 -0.37575677 0.10490116 -0.2517304 -0.0049267733 1.53717 -0.072168045 0.37443924 -0.55761087 -0.028784523 -0.4561153 -0.27351823 1.197773 0.32094353 1.9279655 -1.6284305 -0.0029551794 0.03955647 0.18799579 1.3152559 -0.6344389 -0.4940036 -1.8954142 0.2657467 -0.59592104 -0.3917199 1.2891848 -0.22726946 1.3432368 -0.10408032 -2.30386 0.6727335 -0.18467544 
-0.78255 2.3568406 0.66455626 1.0768464 -0.23489489 -1.0909984 -0.6198824 2.326865 0.54953456 -1.9035788 0.57204443 -3.708162 -0.3622899 0.1354734 -2.1036172 -0.7242122 0.106893964 1.7443364 0.6051087 0.6427132 0.18570818 -0.9064958 0.30720332 0.019649288 -0.89231277 -1.354928 1.6522862 0.39462292 -0.29774192 -0.4604011 -0.5262955 -0.9693853 -0.21859892 0.32010904 0.1132985 -0.6570086 -2.0116627 0.0673593 -1.7470791 -0.13701603 -1.5128174 0.5257742 -0.6930112 -3.9674177 0.041393023 0.26509047 -0.012152605 -0.30505523 -0.050590135 -0.83612895 0.08838304 -0.34948793 -0.07252842 -0.3498027 -0.0597999 -0.8295094 -0.45102894 1.6663382 -0.1127539 2.12226 -1.6080221 -2.3998775 -2.3602407 -0.32993826 
-0.1518428 1.2850046 0.39726877 2.2960055 -0.6731638 -0.21511845 -0.5108975 -0.40067175 0.26843196 -0.4558374 0.3219101 -0.9069066 0.40126508 -0.25987056 -2.0622573 -0.01429739 -0.2602483 -3.4007075 0.14467278 -0.14741752 -0.016985776 -1.0778939 -0.5484492 -0.00943794 0.11499065 -0.5946936 1.6864167 -0.7703412 -0.97382987 0.58013076 -0.12068507 -0.055352516 -0.5879058 -0.2607568 -0.3989322 -0.6081264 -1.4573476 -0.10380421 0.63432205 -1.871854 0.041667473 -1.7598053 -0.4494297 -3.7752786 -0.1048966 -3.7693517 0.012457925 -1.2778349 0.44730893 0.6118779 -0.8164308 -1.1099236 -0.03686445 0.48634523 -0.4147759 -0.557817 -0.51981205 -3.330314 -0.28065455 -0.10130567 -0.77953666 1.6244473 -3.4453297 -0.99600583 
-0.36100185 1.0060283 0.21541643 -2.696254 -0.06497416 0.7618363 0.027967386 0.06523854 -0.15271664 -0.5925961 -0.24916922 -1.1873975 -0.9221149 -0.083461985 -1.7039094 -1.1660144 -0.8508086 -2.7042212 -1.0708487 -1.9240385 -1.3256754 -2.0135868 -0.20223002 -0.3160259 -0.5070497 0.02830891 -0.26951814 0.22774464 -0.045935262 -5.4556675 2.439765 -1.0680774 -0.2204085 2.6859298 -0.041954212 -0.37004033 0.8608545 -0.7346736 -0.38949645 -0.56002164 0.41150308 -0.09108066 -0.63506925 2.2470458 -0.43025267 1.4449486 -1.1300966 0.47064233 -0.47269204 -1.0885161 0.3380737 -0.73641735 -0.632412 -0.4703197 -0.11438428 -0.059891768 0.40713367 1.689916 -0.06069641 1.6245914 -0.045839123 -0.94401556 -0.06877985 -0.06773612 
-0.7866358 1.9350181 0.39654154 0.63708246 0.1257419 0.59102243 -0.26830465 -0.7242773 0.39639938 -0.1994851 -0.6690298 0.28317976 -2.1430645 0.6060404 0.3743361 1.1655147 -0.08662699 -0.18779613 -0.18736905 1.0449227 0.20761925 1.4994812 0.16500498 0.05354236 0.2914057 0.8000061 -3.4116523 -0.7897108 0.07580085 -2.9741383 -1.5686542 0.6442356 0.21305409 -1.1613522 -0.33588538 -0.41676238 -0.3340915 -1.1439854 -0.76464564 0.19774465 0.26576903 0.39441648 -0.52428204 0.06975158 -0.4819267 -0.92421794 -0.55001855 -0.10187695 -0.055821497 -4.2199874 -0.13285474 -0.6078105 0.19635966 -0.17667887 -1.0043736 -0.19042368 0.016849894 0.034985434 -0.10398138 -3.5175266 -0.4680403 0.22332409 -0.25244868 0.073092565 
-0.36622268 0.69761735 -0.5075269 1.2155584 0.41743007 -0.020136222 -0.364597 0.7652208 -0.91274863 -0.23310192 -0.32283235 0.60433424 0.56725127 -0.3106276 0.48447028 0.5454409 -0.09425438 -1.4704745 -0.37415633 -0.16712072 -0.59093857 3.6934752 0.29495457 -0.28124943 -0.4191456 -3.3158932 3.0091598 -0.31894618 -0.07991781 -2.4092999 1.5547937 0.41288367 -0.2408839 -0.042480268 -0.35870656 -0.122309595 -3.9588716 -0.36436468 0.26957235 -0.673958 -0.26745987 0.655928 0.05718354 -8.593901 -0.10869107 -1.4043576 -0.42402136 -0.8229965 -0.70938635 1.2832435 0.12845671 -0.7424482 0.5653147 -0.9572894 1.485521 0.30699 -0.020949086 -1.5996403 -0.08906382 -1.6949543 -0.41815457 -2.3682125 0.80076414 -0.14612156 
-0.096706375 0.21301341 0.30422148 -0.08345859 0.008654704 -0.061853398 -0.39115253 -0.021198368 0.5545765 -0.66343015 0.36010054 0.018069133 -0.27457124 -1.0052348 -0.50865114 0.55620104 -0.5041353 -0.06491465 -0.7784644 -0.90447545 -0.43540862 -0.77251476 0.25134224 -0.8622394 -0.15181096 0.07302973 0.3473881 -0.56034386 -0.0881685 -0.5635696 -0.2737049 0.10004605 -0.1844304 -0.02550192 -0.16550907 -0.20030575 0.9275777 -1.2780108 0.08635446 0.07945271 0.41294017 0.050654404 -0.29343006 0.059511933 0.3768872 0.010163931 -1.4355043 -0.21118686 -0.14099564 0.04800499 0.6733492 -0.56679595 -0.5889393 -0.14105996 0.34397155 0.5773595 -0.014242124 -0.09809318 0.27982414 1.1433018 -0.12758212 -0.09704849 -0.8433732 -0.20481096 
0.24973881 1.9236465 -0.33115703 0.5905019 -0.2965027 0.10163128 -0.185252 0.7779622 1.1528056 0.36603764 -1.1034045 -0.634965 3.0642564 -0.005372559 -1.2263405 0.1276206 0.17725396 0.11335441 -0.11460887 0.41923028 -0.03572808 1.8350154 -0.56918055 0.31714964 -0.22696464 1.8582355 4.52233 0.19416073 -0.48441312 -2.4105113 0.064760484 -0.7903438 0.13471182 -0.5985628 0.5090672 0.13119091 -5.398363 -0.27403262 -0.056561247 0.03374545 -0.4268356 -3.9555821 -0.26841912 -5.499755 0.035344575 0.5470533 -0.11581585 3.4912844 0.19391346 1.7504512 1.1604317 -0.6415478 -0.2745835 -0.3405137 -1.3569199 -0.42948318 -0.15477946 2.255092 -0.06298183 0.9444577 -1.1140261 -0.057334844 -0.69552934 0.014877605 
-0.36615804 -1.1799744 -0.6142983 -1.6886365 -0.055422444 -0.107188895 -0.49905458 -0.8110678 1.4848251 0.27326867 -0.15075664 -0.094771065 -0.49274465 -0.21333186 0.009883551 -0.16593455 -1.1198329 -0.6888372 0.14588125 0.39435202 -0.304996 -0.9394804 -0.021882448 0.26407912 -0.19859223 -0.20892295 2.2221563 -0.2563286 -0.9285569 2.3423052 -0.78827 0.12881427 -0.35166195 -2.8966708 -0.6196919 -0.404518 -4.9727545 -0.27509966 -0.95878154 0.095695816 -0.5809221 0.14084592 -0.5855242 -1.640695 0.19297409 0.5957161 -0.056591805 1.6506498 0.6205877 0.8544279 -1.1627071 0.044609137 -0.0883869 -0.058415283 -0.1308266 0.428101 -0.4209605 0.06635646 -0.1013053 -4.1409016 -0.6653296 -2.6842117 -0.5025674 0.08411559 
0.1599919 -1.9031827 -0.34289682 3.1888795 0.28573102 -0.14610223 -0.72847223 -0.764818 0.28330114 -0.48848462 -0.038712706 1.7796745 -1.5700583 0.73198164 -0.19350263 0.884635 0.11383213 0.6946074 0.69163674 0.6209865 1.4463841 0.30675146 1.1668701 0.7494384 0.22278266 -0.36730984 3.8199034 -0.70597064 0.13637793 -2.0703738 -1.1078616 -0.36484173 -0.02860609 1.2453299 0.4542409 0.52379704 -2.7509508 -0.9168706 -0.45491612 0.15045251 -0.17569263 -2.6268933 0.113231 -4.7765417 -0.03275528 -5.1414905 1.2442378 -0.25916228 0.33436435 -0.24641284 -0.39058748 0.4076992 0.1148165 -0.39826477 -0.5878172 0.38031805 -0.13714986 1.0136834 -0.37304935 1.8603314 -0.2343782 -0.6102783 2.6804073 0.19033085 
-0.5093945 -1.9463277 -0.21730185 -3.0876305 0.54224247 -0.81766146 0.32695442 1.7720588 1.1585141 1.1620489 0.48411062 0.017379874 -1.8200328 0.043288723 -0.0389937 1.3905898 0.7572067 -0.67670214 0.8422748 -0.66771644 -0.06328597 -1.4392848 0.32580256 -0.026068095 0.009099236 -2.6212158 -2.6703513 0.1339006 -0.3296079 1.664975 -1.0987804 -0.14576519 0.09236855 3.0064144 0.042066514 -0.82477266 1.0374355 0.12630273 0.14866999 -1.5673122 -0.0794295 1.9628775 -0.23493803 -2.6948023 0.29354241 2.5950537 -0.35993364 0.2477503 0.3329243 1.077588 -1.3609669 0.8009636 0.07157221 0.4515752 0.7138648 -0.025912503 0.15785164 1.2280083 0.62037444 -1.2363926 -1.0974095 0.75948936 -3.5177512 0.6687712 
0.3021476 0.7128733 0.45266587 -1.8051838 0.042799573 -1.1673222 0.06961843 0.40836805 0.8221481 0.6112349 0.013936957 1.4636409 -0.9215 -0.30981213 -0.5580689 0.18823981 -0.53335285 0.14026113 0.36310372 -0.93915445 0.6100055 -2.7697818 0.3255153 0.20581543 -0.10318235 1.9412199 -4.263649 -0.24318883 1.2221308 -0.23935322 0.04078433 0.6450315 -0.2896591 1.1407909 -0.043187298 -0.57614005 1.9210547 -0.53723055 0.10536998 -0.471996 -0.09960269 -1.0722601 -0.5288812 -3.6985812 0.40967712 -1.5852243 0.084772475 0.43731344 -0.059175286 -1.6957493 0.16640644 -0.03690427 -0.536646 0.7315268 -0.27877665 0.59996605 -0.3672256 -0.2671101 0.010156126 2.8443735 0.29320094 0.45269635 -1.0748756 0.24261248 
-1.343007 0.6208151 0.24047123 -1.1652374 0.3112753 1.0595984 0.35691807 0.8879035 0.1493888 2.5181615 0.8055728 0.97835755 0.09888804 0.42085248 -0.7787279 -0.12519963 -0.112888835 1.6754255 -0.05663381 0.22777146 -0.30113202 -5.947471 -0.04918146 0.045772348 -0.07053287 0.28091273 3.75541 0.49094635 -0.48976225 -0.5733645 1.2810694 -0.4174398 0.37108612 2.196501 0.27556396 0.23536396 -2.2227738 0.0221035 -0.5042156 -0.72975755 -0.63635516 2.49242 -0.34304482 0.82277554 -0.5827974 1.8021172 0.06933411 -0.36001253 -0.6783436 -0.7841158 -0.95098305 -0.62853366 0.1386176 -0.09041982 -0.18958902 -0.2067925 0.30848065 1.7954713 0.08271216 1.6669049 -0.023363028 0.54497033 4.1823015 -0.058017965 
0.6923649 2.7737098 1.002875 -2.292917 0.98948634 0.34993264 -0.42256427 -1.1674414 0.70006233 0.25522724 -0.4746537 0.76396126 -1.2361166 0.076235145 -0.8063475 1.8155277 -0.58344275 0.9789845 -0.24283762 0.5679063 0.51406264 0.5654008 0.17545348 -0.4183388 0.08832945 -0.08674127 3.4169977 -0.6818521 0.029688522 0.10602092 2.489966 0.044944555 0.370782 -0.5668147 0.12451497 -0.45539 -5.3483086 -0.58411205 0.34169927 -0.38888088 0.14122875 -0.60979354 0.200423 -1.4175195 -0.21841921 -0.3629194 -0.6896912 -0.29601088 0.20440428 2.4631288 -0.49531534 0.2737845 -0.0024910802 0.19341832 -0.5393619 0.11507179 0.51337796 -1.4061893 0.80094296 0.186498 -0.5760896 -0.83567166 -0.03333785 -0.22752003 
0.07671894 -2.1976388 0.28820983 -0.65092355 -0.21918255 -0.23555921 0.54880106 -0.16029574 0.96904033 -1.7322097 -0.5990744 1.5094619 0.59791195 -0.41717938 0.3676991 0.25211054 -1.4915047 1.52469 -1.0177845 -1.7909459 -0.38922343 1.6759667 -0.7317075 -0.34622335 0.11258333 -0.36101192 -0.61225826 -0.5659114 -0.42734796 1.6270726 0.33759105 0.19319892 -0.34114894 -0.0714398 -1.290604 0.14645027 1.7595813 -0.5059612 -0.76851374 -1.1793946 0.045799937 -1.3526924 -0.61108446 -2.1150596 -0.069171235 1.3679445 0.260052 0.27397624 -0.035230353 0.49830678 -0.69994307 -0.2792097 -0.814058 0.40565932 0.47261062 -0.33616975 -0.4993925 0.8771348 -0.30268452 1.04276 0.46961412 -0.4733975 2.4112692 -0.6935637 
-0.6852573 -0.6205499 0.087632574 -1.4280907 0.56253487 -0.18238233 -0.3526402 1.8654845 0.2035358 0.543739 0.33392638 -0.42357922 -2.35489 -0.45643005 0.046187565 -0.178519 0.008920904 0.1476112 0.14987881 -0.5117599 0.34093544 0.51602435 0.3827791 0.38779646 0.11718713 0.050873265 -1.454035 -0.23871635 0.09368094 -0.12256237 0.8263056 -0.4831434 -0.30926406 -0.866143 0.40303963 0.124835104 1.9555368 0.3882705 0.96230924 -0.32004642 -0.7969219 2.4716396 -0.22588736 -1.7671398 0.44704986 0.29489118 -0.10681277 0.8666169 -0.12772179 0.51519036 -0.9045837 0.03132029 0.4167153 -0.29517794 -0.43054497 0.71509653 0.6258731 2.3257172 0.41875052 -0.68123466 0.11120243 -0.041361082 -0.43898687 -0.28384694 
0.00929568 -1.5785784 0.061345235 0.40836534 0.06243066 -0.87520486 0.12496494 -0.22793648 0.28364617 -0.95359695 0.22710516 1.1630555 1.8315436 0.10560797 -0.7097296 0.2520879 -1.0009769 0.09985247 -0.5781575 0.09051679 -0.13269348 -0.75071657 -0.5937566 -0.025616286 -0.7379021 1.5724409 -1.5694666 -0.35593572 0.035188526 1.3352476 2.1192517 -0.84376866 0.18613777 2.7683306 -0.04707107 0.24181469 2.4760828 -0.2696921 -0.60009915 -0.30509192 0.5090543 -0.39803222 -1.1967973 3.3844852 0.00732488 3.2434847 0.059126783 1.3397245 -0.74511564 1.4540228 0.5044433 0.14484909 -0.17710623 -0.86586016 0.74567103 0.21747334 0.31365034 0.23723763 -0.047502458 2.3212028 -0.40019193 -2.1166973 2.241612 0.20228122 
-0.45683882 -0.108698174 0.53258395 -0.33836776 -0.08463621 -0.86863744 0.53910565 0.38304308 0.98579675 -0.15629274 0.41260472 -1.7650316 0.08376049 0.20692462 -0.9421887 0.69239193 0.13332264 -2.381841 0.19917901 0.39665917 -0.32769394 -1.2989262 -0.25599596 -0.37418526 0.16735186 0.034114968 0.5740467 -0.038338955 -0.33392236 1.7870758 0.5801359 0.21425669 -0.7586441 -0.22274451 0.079933874 0.21607274 -1.1411109 -0.18952878 -0.13605055 -1.0925679 -0.0051894994 1.2104723 0.30533078 -2.1798942 -0.027621003 -1.8678232 -0.17020175 -0.22654709 0.13209526 -0.35215262 -0.07354333 0.21693449 0.31331977 -0.7443637 -0.5270883 -0.27397785 0.5112319 -0.6610579 0.050341744 -1.6475127 -1.527827 -1.5590656 -1.1600299 0.49765077 
