0.20606296 0.29076153 0.47020262 0.48099655 -0.50222456 0.07707866 -0.17352138 0.4039174 -0.2960362 -0.5011651 -0.5438885 0.4376171 0.3945938 -0.39566147 -0.24263327 -0.41699395 -0.7861414 -1.0414788 0.258569 -0.12936364 0.42290556 0.3598764 0.8452602 -1.0100743 -0.8805923 1.0143422 0.031338494 -0.818887 0.80337113 0.6268798 0.1916478 0.6550637 -0.70186025 0.45702353 0.33271167 -0.31793544 -0.5378603 0.7259303 0.19496094 -0.993498 0.68065006 0.32383892 0.8452247 0.87075907 0.07888854 -1.4040753 -0.28816912 0.53037876 -1.1337296 0.14293495 -0.4899765 -0.6236736 -0.0014218434 -0.85815644 -0.5624677 -0.012922943 0.04964358 0.15310206 0.36867708 0.24146171 -0.85896856 -0.40033695 0.9306272 -1.0407737 
0.4220077 0.33573824 0.5325838 0.07574992 0.40507296 -0.12845808 -0.22505705 0.66923416 -0.48039776 0.06819477 -0.7412418 -1.0263191 -0.13905892 1.2068607 -0.11275025 -0.2181427 -0.20420411 -0.44954333 -0.16237338 -0.1521283 1.0670265 0.3544297 0.19373947 0.64066976 0.7015105 -0.48238003 -0.10905081 0.6445722 -0.3162454 0.037404887 0.41889125 0.09145822 0.54021317 0.11584917 0.68039453 -0.24233864 0.55859035 -0.3929495 1.2669648 0.70828253 0.62964 -0.20929343 0.44756967 0.13998112 0.096723065 0.3809137 -0.2055079 -0.9816833 0.644176 0.4644117 0.7602856 -0.35582173 0.66919225 0.44458568 -0.2257642 -0.36092547 0.38369876 0.7273236 0.3954447 -0.002758348 0.04961207 0.05613218 0.54618317 1.0046592 
-0.26890984 -0.31320757 0.044948436 0.7020436 -0.30408674 -1.2198569 0.24890868 0.38040033 -0.104126304 -0.5142129 0.67320114 -0.29110867 -0.07137177 0.11616265 0.25649732 -0.042974014 0.19580252 0.33078882 0.035564158 -0.59271216 -0.79438996 0.023726849 0.092315905 0.32986096 -0.5314476 -0.88321 -0.863124 -0.72208667 -1.8944526 -0.24620356 -0.73565537 -0.66794413 -0.3838314 -0.13649125 -0.0064884177 -0.15711749 -0.8960936 -0.11158536 -0.8997949 -0.8975268 0.48733562 -0.13879384 -0.51899403 -0.9475455 -0.13347217 0.17109859 -0.1464363 0.31414813 0.28030142 -0.307764 0.026761742 -0.1125879 -0.2818689 -0.50925374 -0.33124274 -0.094942994 -0.47854128 -0.41400704 -0.33141723 0.03258604 -0.041628834 -1.4292201 -0.5471888 -0.034261096 
-0.44759607 0.48097426 -0.29150197 -0.26753554 -0.16137435 -1.131135 -0.8340172 0.13405159 -0.1463935 0.5358984 -0.073439784 -0.017579444 0.47988683 0.59208536 0.88813925 -0.36682916 -0.20236787 0.576911 -0.57061505 -0.009787013 -0.07758461 -0.51496446 0.27239057 0.21113548 -0.3447188 -0.2760731 0.12341948 0.3023879 -0.6627191 -0.23488717 -0.6201715 -0.09871378 -0.02727053 1.0558428 0.41775298 -0.3839684 0.37244257 -0.5168471 0.15610163 -0.7880409 0.2431779 -0.5946623 0.07850639 -0.7006203 -0.27171707 -1.7398324 -0.76085365 -0.14446732 -0.5775825 0.08376785 0.4918679 0.10263373 -0.29317608 0.43547413 -0.08674636 -0.2848427 0.24196997 -0.027595134 -0.5726195 -0.5538567 -0.14324656 -0.9106272 -0.8917468 0.017690549 
0.50162077 -0.7290723 -0.6326143 0.8914939 -0.4055439 -0.61655897 -0.28372806 -0.015865536 0.47117588 -0.31374744 -0.19038907 0.79250914 0.49453446 -0.29924163 -0.08867451 -0.11637143 -0.48263398 0.71109915 0.6423772 -0.26258695 0.38126987 0.16237772 1.0818814 -0.40524882 0.11109184 -0.63129425 -0.10049985 1.1942008 0.8456768 0.00889948 0.17658482 -0.31424433 -0.26381892 0.6025239 0.26409882 -0.7105426 -0.49920505 0.11153478 1.1211823 -0.6077373 -0.11921805 0.18419148 0.77350193 0.060633995 0.48741663 0.008399987 -0.5310342 1.104479 -0.3472234 -1.3084518 0.7494009 -0.91360134 0.049191464 -0.77411 -1.027848 -0.008953392 -0.26797754 -0.5414625 0.3718909 -0.50366336 -0.28055438 0.0048216046 0.21148075 1.224294 
0.12750113 0.40999112 1.3268639 0.6446885 0.40068093 0.12853272 0.8344328 -0.42516914 -0.044038456 -0.035506465 -0.70805407 0.4867098 -0.1848444 -0.40156567 0.6028734 0.45115584 0.067701265 -0.13795938 -0.19103277 -0.055411663 0.25397524 0.8002792 -1.2130022 0.10104765 -1.0139534 0.039843407 0.6721639 -0.3777788 -0.4124987 -0.048608597 0.27972814 -0.18294264 -0.1428461 -0.48908693 0.6358679 1.0986515 -0.2897228 0.87330014 -0.43340433 -0.49749336 0.55574584 0.20015949 0.7900854 0.35685298 -0.15779136 -0.7350503 -0.14285263 0.40573704 -0.16259204 -0.7257789 0.2935505 0.61636317 -0.07833322 -0.20751415 -0.95149595 -0.43675476 0.44754332 0.08703177 0.4343024 0.16611953 0.13946328 -0.29637104 -0.4397309 -0.6221656 
0.35216495 0.31124347 0.4175208 -0.044251826 0.14078735 -0.5839029 -0.6453179 0.9478592 0.29506823 -0.1824143 0.3772597 -0.22105704 -0.95837843 -0.5625952 0.09511567 0.34223664 1.0780531 0.095086046 -0.2613241 -0.10209944 -1.3679552 0.05508779 0.3472026 1.1280481 0.5294841 -0.026059609 0.6341922 -0.09985905 -0.45962563 -0.007954573 0.47758636 -0.24783148 0.09961398 -0.05885663 0.16198885 -0.3560366 0.51405764 -0.15549216 -0.25239015 0.6206122 -1.8339232 0.061856102 -0.6630054 0.117444456 0.8231032 0.39487 0.1463915 0.068260655 -0.77129346 -0.4931907 0.9777978 0.58215904 0.17123032 0.7379234 0.59996635 1.0773058 0.2511848 0.5740892 0.12777022 -0.73909414 0.052143227 -0.04239252 -0.019503368 -0.25598067 
-0.16930977 0.3107977 -0.66489327 -0.26707974 0.8537144 0.18865943 0.06745596 -1.1175258 0.25465962 -0.67806655 -0.034375664 -0.09882488 -0.23648825 -0.049043443 0.38295525 0.48569202 0.022326117 -0.341179 0.73039913 -0.8903901 0.3136804 0.17459357 -0.36734968 0.09417757 -0.38997695 -0.70535517 0.6948355 0.4329463 0.20956586 -1.1355523 0.18448143 -0.041561954 0.14467299 -0.20496276 -0.8802551 0.14309438 -0.7413321 0.2089607 -0.08037641 -0.22965121 0.46477866 -0.023057252 0.5614832 0.5586863 0.5653581 -0.09718586 0.61269975 -0.2440131 -0.60415184 0.23411283 1.5557711 -0.21945342 -0.7502929 -0.162084 0.1558255 0.59695977 -0.046378583 -0.05645692 0.11979956 0.47389972 0.29939744 0.6652547 -0.25096574 0.6018392 
0.0995591 -0.66215247 -0.019394556 0.7463884 -0.4576066 0.6333126 -1.1547692 -0.7970775 -0.15786599 -0.1255303 -0.50844264 0.65930766 -0.40440696 -0.8279362 0.235711 0.0092315385 -0.8365587 -0.21850076 0.4448877 0.59778607 -0.36248806 0.5221522 0.25561392 0.5163719 0.45859438 -0.47190568 0.13112065 0.5849376 0.46389315 0.38117006 1.0060258 0.64041597 0.15422577 0.5090788 0.7643201 0.53211945 0.18154003 0.11512927 -0.12441805 0.4158626 0.5183585 -0.5706695 0.70531654 -0.6395506 0.2516147 -0.64665145 0.68657786 0.019237047 -0.40465492 -0.85132354 0.17508224 0.71886307 -0.59532994 0.010541335 0.97799194 -0.1532569 -0.9503701 -0.16571729 0.3820776 -0.38638416 0.77866745 0.1850831 0.029083053 0.24558842 
0.25383773 0.24090047 -0.29110965 0.2307578 0.9957778 0.8388555 -0.2744504 0.28054637 0.32184708 -0.3994787 -0.38655636 0.47273424 0.22223161 0.325065 0.878242 -0.6861563 1.0687525 -0.5168949 0.6366131 -0.349041 0.4177999 1.1146348 0.2542071 0.30763084 -0.20060225 1.206129 -0.28200758 0.16670059 0.35206017 -0.34708646 0.24309559 0.73951226 -0.7125294 -0.0027255996 -0.66341066 -0.12693498 0.32054916 0.5347175 -0.02952399 -0.520109 0.7886657 0.20561388 0.0041124844 0.93346894 0.012239393 -0.122725256 -0.4383659 -0.3383526 0.5851355 -0.92520136 0.1558918 0.45715696 -0.361963 -0.14907455 -0.046045944 1.072465 -0.20971777 -0.23010643 -0.11081782 0.48500317 0.13923435 0.5700987 0.002484406 -0.022353666 
-0.048297852 0.41479304 0.07673667 -1.0588647 -0.20837976 -0.2766032 0.31552392 0.20575288 -0.061978795 -0.18985768 0.62745476 -0.1232423 -0.17700322 0.37457833 -0.25197634 0.61273307 -0.16300818 -0.122919954 -0.111737326 0.14288273 -0.57275844 -0.02747326 0.61312765 -0.38001916 -0.15281509 -0.45898277 0.1784307 -0.1195604 0.30312714 0.42140496 -0.25380445 0.24457611 0.63392216 -0.24531737 0.12694752 0.14434567 0.127079 0.8877357 -0.14234084 0.3905472 -0.8110372 0.88419634 0.07576956 -1.4702847 0.35328922 0.44975635 -0.63547105 -0.33125377 -0.6982714 -0.7656292 -0.4421885 -0.27118558 -0.59650314 0.42101917 0.24916053 -0.31049934 0.11069922 0.12958702 -0.37874097 -1.0707694 -0.26087615 0.52223843 0.2852438 -0.25996056 
-0.89010715 0.39722168 1.2609967 0.38910037 0.06542723 -0.5032924 0.20339316 -0.11964646 -0.1553739 1.0945104 0.37216085 -0.47794276 0.1288679 0.5292693 -0.11391328 0.29586002 -0.88803107 -1.2829081 -0.98026884 0.53939193 -0.5797042 -0.6164362 0.3803567 -0.011601063 0.049390428 -0.47829193 -0.2568148 0.44919756 0.0041886186 -0.13029958 0.3211822 -0.09566741 0.51431125 -0.6227803 0.33005187 -0.20462263 -0.9735605 -0.31850308 0.4887854 0.29743412 -0.33176807 0.23760688 0.22509228 0.44857848 0.046447348 0.47615212 -0.461672 -0.5070216 1.0211421 -0.30128157 -0.30077016 -0.12853777 0.3446905 0.36794817 0.19673586 -0.17237513 -0.41326538 0.0022709186 -0.9524277 -0.06857419 -0.7244524 -0.27943927 0.3316999 -0.7729724 
0.47567433 -0.04793661 0.53560907 0.30350453 -0.526416 -0.66080415 -0.90645385 -0.13207631 -0.6647947 -0.34189755 -0.17547937 0.30446422 -0.48639408 -0.10102213 0.76143664 -0.079783745 -0.21065061 0.35391802 -0.03173191 -0.8183914 1.0777357 1.0345812 -1.0831468 0.14123566 -1.4768755 1.23384 0.20396963 0.30434373 0.35328045 -0.036525425 -0.03390074 0.70973486 -0.5112435 -0.41558585 0.25827068 -0.06646111 0.12391421 0.89555204 0.47090867 -0.22690487 0.53804976 -1.0449826 0.14569446 0.17726524 -0.04967008 -0.7081191 -0.4290468 -0.659397 -0.16855271 -0.96657133 0.5238634 0.27151924 -0.14503182 -0.7595095 -0.42639074 -1.202572 -0.05284507 -1.2951835 0.4389366 0.89078736 -0.2742636 -0.9917816 -0.48939344 -1.3301897 
0.2980406 0.38782263 0.58928543 -0.3697604 -0.15551877 -0.42161044 -0.14285602 0.619018 0.11752345 0.14100718 0.7039056 0.1459266 0.46455336 0.059054893 -0.31154045 0.38079968 0.33045942 0.14651166 -0.6646294 0.32554096 -0.55596685 -0.4625477 0.13906369 0.50967896 0.08923073 1.1982386 -1.0433366 -0.46059453 -0.63586783 0.30937195 0.023766994 -0.37851825 0.580837 -0.06276186 0.049983237 -0.3353625 0.2257939 -0.6637682 -0.15160431 0.19791271 -0.27202448 -1.2123749 -0.15570694 -0.9146983 0.11532912 -0.060839374 -0.70719343 -1.0067219 -0.31184483 0.2661189 0.030347003 -0.40977186 0.2747212 0.15969186 -0.22848389 0.11179191 0.016831359 0.33823872 -0.79676205 -0.4232598 0.611979 0.2405668 0.4974915 -0.058530312 
-0.1990415 -0.11927047 0.10823331 -0.69609267 -0.09291331 -0.7457796 -0.1750556 0.23680224 -0.12980181 -0.24524802 0.02743416 -0.3892787 -0.37528163 0.28924948 -1.8386348 0.3774781 -1.107167 0.0067156395 -0.50851315 0.2054047 -0.52594745 -0.48132053 -0.7506428 -1.2478561 0.39042154 0.5544544 0.10187085 0.17679916 0.37089595 -0.24112868 0.3158877 0.07864032 -0.5955698 0.106867455 0.35044217 0.47133344 0.23685701 -0.40781862 -0.37557176 -0.754699 -0.15306143 -0.45038608 0.024444833 -0.48538586 0.22232977 -0.64412004 -0.24860857 -0.9161691 -0.45949537 0.93056333 -0.4368785 0.050908946 0.1702643 -0.53600883 -0.08271269 -0.5773025 -0.24942961 -0.79206306 -0.7739566 -0.49019796 -0.49426642 0.25050762 0.25826213 0.20529145 
-0.23267704 0.7184005 -0.26069 0.63200426 0.33277076 0.038655806 0.36030424 0.9658641 -0.2777477 0.31786504 -0.6139799 0.046367347 1.3804007 -0.8105844 0.1768026 -0.7877617 -0.48462874 -0.19174239 -0.65247244 1.0587615 1.0631906 0.33306485 -0.57193077 0.089241736 1.3237245 -0.75634456 0.7469342 0.08029625 0.18432762 0.07470079 1.1805791 -0.065936774 0.48256913 -0.088223286 -0.24726553 -0.9899078 0.27773467 0.5565608 0.3447001 0.048416615 -0.5076087 1.0911894 -0.4172324 -0.41305006 -0.102468155 0.21348594 -0.31253028 0.07040349 -0.8254548 0.04523421 0.6317589 0.7125605 0.43894017 0.033510134 0.319573 -0.029933425 -0.1830957 0.32256827 -0.12881652 -0.13831891 0.63113844 -0.5076255 0.045115102 0.67120373 
0.25173557 0.41132906 0.122413635 0.48218578 -0.82990915 -0.56121624 0.36947718 0.18321739 0.3205499 -0.72971016 0.28168067 -0.007810368 0.32906076 0.26382682 -0.41970137 -0.39601973 0.008272118 -0.44898495 0.6652031 -0.1496241 0.15314524 0.05009437 0.16222256 0.07764974 0.19224992 -0.011958998 -0.20807719 -0.061737753 0.34630185 1.089049 -0.6699197 -0.53543216 0.8276788 0.14869063 -0.15426809 0.039698 -0.8871771 -0.18527776 -0.19324741 0.6025218 -0.52385473 0.6748292 0.2731417 -0.7526731 0.06680528 -0.024680812 -0.06304812 0.19187056 -0.24794573 0.08446316 -0.024245001 0.07281772 -0.67786026 0.3258688 -0.92415833 -0.33848116 -0.5055363 -0.10680435 -1.1136076 -0.540147 -0.3906257 -0.013226546 -0.95358855 0.33101678 
0.42224094 -0.52184707 0.11398773 -0.663276 -0.15687004 -0.53266376 -0.16846687 0.28402352 0.029520746 -0.5037774 -0.27003047 -0.48127347 -0.060592894 0.8214702 -0.14998923 0.07201621 -0.28946254 0.21823406 -0.037140507 -0.25170636 -0.20432536 -0.7413949 0.6292434 0.21186669 0.33299282 0.44144034 -0.37845683 -0.4681767 0.1194111 -0.21023837 0.33419925 -0.2919724 0.5216155 -0.1115265 0.6172045 -0.5540589 0.14376253 -0.5361832 0.16217141 -0.04342486 0.4748043 0.67710686 -0.65542454 -0.18052073 0.7209153 1.0192792 0.6947294 -0.18023154 -0.512969 -0.07583487 -0.76545113 -0.11191044 -0.08899199 -0.30089313 -0.17180268 0.70234895 0.21327867 0.03494239 -1.2226555 -0.8429562 -0.09017362 0.11258782 -0.21769689 0.49106908 
-0.14190188 -1.1890132 -0.3464427 -0.3795078 0.2976741 -1.1570106 0.34621045 -0.16599403 -0.11414048 0.059348315 0.9596816 -0.08403089 -0.8325896 0.017915333 -0.05972345 0.0042693117 -0.30549252 -0.9065556 -0.9760184 -0.80393136 -0.25744152 -0.47491148 -0.9765906 -0.8716392 0.24403451 -0.30675948 -0.32824892 -0.41329527 -0.59717214 -0.54476684 -0.78792334 -0.34453288 0.2750961 0.060642116 0.1151589 -1.1684614 -0.5321458 -0.5107831 -0.09491604 -0.35165936 -1.1550031 -0.3146964 -0.32995057 -0.83670616 -0.2659211 0.11595874 -0.34578794 -0.7941881 0.43752107 -0.037962317 -0.41542122 -0.28720656 -0.1455007 -0.6300934 -0.9840251 -0.9529064 -0.13782017 -0.5287569 -0.31434754 -1.0643725 -0.5803207 -0.23595692 0.09223963 -0.43496805 
-1.037621 -0.864655 0.09026969 0.14588095 -1.0713068 -0.12403151 -1.3864062 -0.8029339 0.8741349 -0.1394644 0.28906107 0.033654567 -0.15057074 -0.32542375 -0.07404217 0.3225499 0.22175272 0.75269544 0.23258936 -0.4154835 0.08359176 0.33953443 -1.0168352 -0.31792468 -1.1207887 0.059335068 -0.29431152 -0.47260523 0.3736831 -0.15261728 0.40198284 0.13858551 0.84465474 -0.11670139 0.30707645 -1.341039 -0.3202598 -0.5813644 -0.89043194 0.30786598 -0.84582597 -0.5200369 -0.5484483 -0.72299063 0.09875242 -0.20888369 0.038286474 -0.11775599 0.44817013 0.80198836 0.16643085 -0.41195235 -0.19295125 0.31474248 0.71964234 -0.71763915 -0.9313182 -0.38239747 -0.13033965 0.11088454 -1.018598 0.3974418 -0.90614444 -0.5778143 
0.8183996 0.5421092 -0.5482366 -1.6092875 0.7387584 0.11878333 0.5845139 0.25167125 0.009882536 0.6030612 -0.6662285 -0.0845092 0.5780809 0.97300434 -0.051641665 0.53498155 0.35053343 -0.389552 -0.9067351 0.16575097 -0.83456075 -0.14714785 0.5750389 0.30335575 -0.13927023 -1.0098271 -1.0132265 -0.59626025 -0.61542624 1.0041379 1.1509929 0.84132946 0.3056415 0.27380008 -0.5870425 -0.925126 -0.70029986 0.44489157 0.3814063 1.006814 0.40879425 -0.4231732 -0.4902734 -0.03498582 -0.3249626 0.2853227 -0.7323737 0.10658538 -0.640539 -0.2497132 -0.16867189 -0.8425937 -0.24959975 -0.31679064 -0.2536801 0.50079316 0.78792834 0.64081675 -0.39308503 -1.044725 0.19055407 -0.0018515857 -0.5004832 0.8822126 
0.0753987 -0.27181697 0.7347097 -0.50722134 0.3690459 0.52547944 -0.0127071915 0.6073176 -0.29494885 -0.36471814 0.41820735 -0.21788019 0.61488044 0.6095824 0.43589932 -0.3557602 0.3059716 -0.7903427 0.50719005 0.60070086 0.120094374 -0.31821838 -0.2184354 0.89797527 -0.4083816 0.051730648 0.1171432 -0.29925388 0.19413845 0.7358681 0.11146899 -0.84994435 1.245535 0.4607776 -0.13889875 0.1417915 0.3164054 0.5576335 0.11750772 -0.016292548 -0.34443825 0.55900574 -1.3995337 0.06964947 0.56457543 -0.12513055 0.53648776 0.53256446 -1.4771949 -0.15097609 0.43365917 -0.008910745 0.3678846 0.06807739 -0.32612175 -0.7594604 0.50173336 0.44598803 0.12518166 -0.110340215 0.19496922 1.7163222 -0.25260472 0.32917014 
1.317098 0.08786674 0.5853009 -0.06686184 0.00047052238 0.62186337 -0.25658754 -0.080333665 -0.16937028 0.43514594 0.09599954 0.057174485 -0.10193872 0.33208358 -0.24298643 -0.013238297 -1.4570569 1.1656046 0.3976137 0.1598336 -0.042607162 1.2610854 0.89781153 1.0529664 0.8185996 0.6212413 0.61073256 -0.14313015 0.5417795 -0.9864667 0.9206431 -0.10468051 0.08992859 0.2864611 -0.18608393 0.32928178 -0.5987456 -0.2809846 0.14303203 -0.75158536 -0.70999247 -0.17161432 0.89620924 -0.7122303 0.47634462 0.26236063 -0.40551114 0.2088398 -0.96821344 -0.33646598 0.75496745 0.68771267 0.90490377 0.12385365 -0.456834 0.6611818 0.21560134 0.93746525 -0.2655622 0.25208056 -0.44522563 -0.17985603 -0.33332583 -0.79678094 
-0.03522997 -0.0794896 -0.51634735 0.5625712 -0.516582 0.7796755 0.48009232 0.3031623 -0.070793025 -0.49237362 0.04296624 0.68794084 -0.28118291 -0.584605 0.26711664 -0.17638731 0.25658935 0.23845729 0.9943718 -0.75051224 0.02400229 -0.8821284 -0.6662835 0.11960897 -0.15063721 0.13310352 0.17187998 0.24243023 0.80557543 -0.3189553 1.2498446 0.44510865 1.0630366 1.0139186 -0.3396841 0.6498844 -0.30314484 0.52089703 0.35274655 -1.5629324 -0.83405614 -0.25349525 0.28789788 -0.2015954 -0.79144424 0.14906543 -0.0032389106 -0.63501996 0.021699402 -0.7670601 0.44136527 0.09617404 -0.75342023 -0.0669005 0.044058047 -0.5800503 0.47985023 0.25307497 -0.51819247 0.1665446 -0.65157497 -0.7042348 0.049758513 0.03159506 
0.121878125 0.07375276 0.70802045 -0.5215042 0.055300962 0.044711497 -0.12987937 0.48829272 -0.45761922 0.4235472 -0.558745 -0.36104178 -0.5567854 -0.042247947 0.2746087 -0.7869107 1.1334604 -0.66886425 0.64173883 -0.47427127 0.25147614 0.293863 -0.87307173 -0.08256262 0.44307697 0.6359013 0.49652427 -0.119028084 -0.33323905 0.06148367 0.55489004 0.41707754 0.67576134 -0.46195006 -0.07571217 0.17474835 -0.20895144 -0.7154356 1.0335399 -0.44357464 0.25280952 0.35003492 0.599701 -0.21497785 0.70887697 -0.69194037 -0.18615928 0.07336864 -0.2348441 -0.52620524 -1.731734 0.2706039 0.09803367 -0.24264383 0.44455504 0.06002513 0.5987037 0.3654037 0.3565711 0.5308098 0.4307778 -0.08627585 0.23427682 -0.08845916 
-0.89079016 -0.31129166 -0.8293715 -0.40109617 -0.52656883 -0.8470138 -0.06579802 -0.13746513 0.5964011 0.017519651 0.5739257 -0.20158702 -0.663015 0.2999594 0.044718664 -0.22152835 -0.24287163 -0.32686338 -0.37305787 -0.35984367 -0.7835059 -0.6087893 -0.5923625 -0.042213403 -0.054422904 -0.06481437 -0.9566699 -1.1297065 -0.6669782 0.28468215 -0.42575294 -0.07216977 0.30302024 -0.45026815 -0.47340983 -0.074054986 -0.82259935 -0.29621583 -0.7172238 -0.58435637 -0.5743477 -0.6123864 -0.46448794 -0.34217033 -0.27255788 -0.27955553 -1.1807376 0.12765339 0.13541338 0.1413268 0.06287695 -0.49918228 -0.18827046 0.0930929 -0.85928345 -0.018135903 -1.0340929 -0.31392637 -0.5692589 -0.34501946 -0.87807757 -1.6069249 -0.42433038 -0.18319574 
-0.5044597 -0.47316813 -0.01664916 0.11515396 0.48148242 -0.87670827 -0.7263553 -1.1590098 -0.32907644 0.3336657 0.03379711 0.77043813 -0.23579803 -0.4694487 -0.27945942 0.5811369 0.7070702 -0.65857464 0.4282671 0.621479 0.5104209 0.23455761 -0.5417691 -0.34505507 0.5509292 1.0249784 -0.25138527 -0.84201956 0.31088912 0.58678573 0.7407959 0.6725352 -0.7462133 -1.2488855 0.16040534 0.08167192 0.46904406 -0.4918302 0.52933544 -0.03624725 -0.01994245 -0.983311 0.79896456 -0.048778005 -0.49135375 -1.0388126 -0.17450543 0.34970063 0.05007039 -0.51389825 0.13854302 0.18486188 -0.10388996 0.7884179 0.59529185 -0.93590224 0.27306035 -0.9336018 -0.27052954 0.43817058 -0.44112617 -0.09117438 0.13712297 0.44096178 
-0.9765708 0.7210087 -1.0054834 0.36489367 0.03679379 0.19789772 -0.012800412 -0.779828 -0.38957533 -0.69430137 -0.089778736 0.7356964 0.58296293 0.23391552 0.49729487 -0.284007 -0.65372825 -0.25702062 0.8540512 0.11485627 -0.13466099 0.6915801 -1.2283549 -0.23582388 -0.37148824 -0.39884755 0.06994135 -0.39968422 0.6006731 0.5583407 0.14019862 0.05648286 -0.07460401 -0.42813373 0.9855726 -0.1653277 -1.2182275 0.48469636 1.072246 0.4118967 0.4429606 -0.7975851 0.46110365 -0.09627826 -0.62754077 -1.2773677 -0.9284787 -0.6386565 -0.24045208 -1.5327302 -0.08149 0.005752271 0.61698586 -0.20073129 -0.5038783 -1.1079845 -0.08630852 -0.42045066 0.3395885 0.58885777 -0.07142291 0.059130322 -1.3623288 0.25438774 
0.37672567 0.4473162 0.74817604 0.65043765 0.30091757 0.79598874 -0.8104592 0.16978762 0.16628738 -0.2157228 -0.052771114 -0.873782 0.6833102 0.27741152 -0.3422535 0.22398484 0.5100378 -0.4022123 -0.17538266 0.22015908 -1.1746444 -0.7303409 0.031409916 0.6232868 0.09806366 -0.53887373 -0.72264206 0.13791308 -0.043785628 0.58757854 0.43416145 -0.79064715 0.059483122 -0.13022126 0.52837837 -0.10393697 0.33799434 -0.277762 0.027079606 -0.26073793 -1.4881973 0.84037614 -0.35134247 -0.56209576 -0.13575618 -0.7732642 -0.06219984 0.7966388 -0.96816695 -0.0012029646 0.3365792 -0.16022772 0.04456994 0.5792814 0.5419728 -0.18006104 0.4155306 0.68921226 -0.7787259 -0.6150505 0.949113 -0.78112894 0.62433714 0.21153116 
-0.33446622 -0.01108277 -0.7401539 0.69517505 0.3212567 -0.9158255 -0.55651397 0.28659713 -0.48877963 -0.3869011 0.19072583 0.49780098 0.6348612 -1.1233287 -0.28311437 -0.1346865 0.5492303 -0.27516356 0.31640613 -0.12930197 -0.1286708 0.05883282 0.25500128 0.11062925 0.25808755 0.036141567 0.548213 0.23644082 -0.9430628 0.56179833 0.6858859 0.8908684 -0.4227001 -0.60228705 -0.05253985 0.32090202 -1.1895889 1.0801424 0.52018535 0.5978408 0.0014026915 0.3071827 0.7584682 0.6848113 -0.5583926 0.60196924 0.00021965589 -1.3790766 -0.54281956 -0.6818275 0.48042458 0.50532967 -0.037029468 -0.546116 -0.27434725 -0.1651276 1.0583407 -0.5953922 0.79229075 0.08721644 -0.025580183 -0.18564293 -1.0187767 0.15155183 
0.19766985 0.20071328 0.8752635 -0.94851196 0.6792009 1.0725906 -1.2420706 0.61379135 -0.63314724 -0.3437503 -0.1017481 -0.6582085 -0.3117071 -0.6510924 0.24399215 1.4021059 0.041672874 0.08690448 -0.0460936 -0.2478605 0.33289862 -0.43516862 0.1687694 0.118320614 -0.24416426 0.3846449 -0.24626383 1.0627584 -0.28110936 0.119950406 -0.06130233 -0.8801775 -0.33994222 -0.3819716 -0.2538409 -1.2500885 -0.61141145 0.020716304 0.93301904 0.2687487 -0.80162674 -0.08259285 -0.24311279 0.15208232 -0.00010983486 -0.82445014 -0.15280272 -0.3189365 0.12273196 -0.27800143 -0.10824215 -0.7108483 -0.79878056 0.27826324 0.007924222 0.34154075 0.5353146 0.9928607 -0.44359496 0.68647975 -0.25890946 1.0951908 0.86124456 0.35954303 
0.47741348 -0.083782315 -0.2506041 -0.08284054 -0.8263485 -0.5125155 -0.32416755 0.472872 0.039554924 -0.49937195 0.1255279 -0.0091752 -0.37879243 0.3339537 0.24554421 0.09474932 -0.44910008 -0.43446308 -0.75422895 -0.2009248 -0.03201137 -0.47802633 -0.19065219 -0.16479814 0.75772274 0.27168956 -0.72498536 -0.14351715 -0.13751638 -0.04389076 -0.8768856 0.0089160325 0.0670639 -0.71344656 -0.48100907 0.67383957 -0.22693759 -0.6496054 0.046336755 -0.32668597 -0.015227892 -0.33600706 -0.2648981 -0.25548965 -1.931777 0.27385667 0.06538928 1.2029618 -0.7720412 -0.10263067 -0.6356714 -0.052420545 0.40203276 0.049164977 0.2868069 0.86943233 0.033959847 0.018355269 -0.1913195 -0.4785438 -0.020457169 -0.16746049 -0.8163443 0.27286774 
-0.4292045 0.19529587 0.33049116 0.9970105 1.2013098 0.08050922 0.12312565 0.5253609 -0.20792517 -0.8241681 -0.79387444 0.5708284 0.8370113 -0.15546882 0.65946454 -0.18812923 1.0562301 0.32572308 0.2176923 -0.0021925736 0.4173085 -0.1846935 0.25369036 -0.020072447 0.8332227 0.46568862 0.45905542 -0.38064957 1.2869927 0.3857394 0.9372731 0.6344549 -0.26199582 0.03126921 0.60985327 0.565977 0.77453655 -0.29788315 -0.10584299 -0.6210208 0.40349692 0.15417409 0.34165353 0.67394495 -0.8346609 -1.1460873 0.027138963 0.33242002 0.911597 -0.8015353 1.0692677 0.81554365 0.27178767 0.22868623 -0.046445448 0.71399885 0.8560184 0.45455354 0.38355002 -0.030871054 0.69315016 0.486468 -0.39889905 -0.023374608 
0.26308027 -0.119492725 0.3666618 1.1822257 0.546483 0.0066712117 -0.6896807 0.37499294 0.9472795 0.33970267 -0.5769042 -0.27253023 0.1498134 0.24230565 0.37050232 -0.74576485 1.2511021 0.17979302 0.7379857 0.47108263 0.06767999 0.86399776 0.80237836 -0.08320263 0.10010184 0.6576501 0.49154198 0.74526405 0.17458175 0.16276313 0.08663729 0.42372784 0.6639079 -0.30332065 0.383715 0.33593217 -0.21119376 0.12034836 0.5903331 0.011290095 0.18277612 0.45684233 0.47758925 -0.9158958 1.0148981 -1.0832264 0.23540132 -0.1876534 -0.56733274 -0.2819583 0.43279696 0.42395106 0.67529577 0.28061828 -0.8414797 -0.09517624 0.9636196 -0.2656612 1.4405452 0.42365554 0.9362691 0.5153137 -0.007597003 0.9639102 
-0.13338287 0.6786637 1.156873 1.043648 -0.20179613 0.048424274 0.70262873 0.51996744 0.60858774 0.06801826 0.61904466 -0.7986622 0.4692833 -0.3467561 -0.09681222 0.8195974 -0.0048893685 0.14496289 0.12810256 0.16771369 -0.44651118 -1.0319674 -0.12888926 0.38332987 -0.0864454 0.36476776 -1.5721446 -0.2561692 -1.0587484 -0.1768151 0.103860915 -0.12493976 0.60847765 0.69238305 0.024875974 -1.128275 0.5469319 -0.5179833 0.19415021 0.8187166 -0.32864636 0.35082945 -0.44009617 0.16801281 -0.5702923 0.097530864 0.22058403 -0.11314859 -0.44447416 -0.35897097 0.34545147 0.1308581 -0.03324222 0.045546606 -0.07960529 0.61851287 0.0851066 0.86636925 -0.1824572 -0.8869104 0.29939914 -0.7479133 0.032206155 1.3490866 
-0.5639211 0.30308297 0.23367928 0.3836536 -1.0003555 -0.4275231 0.60142297 -0.1870679 0.5076626 -0.05577336 -0.7391526 -0.029551694 0.104868546 0.22403456 0.6586224 -0.94180137 0.75624734 -0.009396736 0.4178394 -0.9055358 0.31496304 0.92828214 0.8930578 0.44111785 0.49852788 0.37232798 0.15297504 1.1377517 0.2864114 0.8184386 0.2973515 0.041677002 -0.09529769 -0.26386374 -0.23399131 1.283597 -0.5685878 0.17655681 0.09117969 0.32255292 0.6370652 0.119159095 -0.4762716 0.5909089 0.6294298 0.6923945 0.49105152 -0.011819114 -0.063808076 0.07155789 -0.43808904 1.0008001 0.7277775 -0.10301465 -1.1227 -0.2709893 0.09650549 -0.59840775 0.06618863 -0.39936545 -0.78446054 -0.29892626 0.4693362 -0.01326494 
0.09223799 -1.316668 -1.3137566 -0.89228344 -0.34114334 0.29188648 -0.11013881 0.51543003 0.5382743 -0.42879313 -0.8250599 0.10394513 -0.93413955 0.6656409 -0.43091825 0.2847126 -0.01741384 -0.3272142 0.035006143 -0.8536621 -0.12488883 -0.38486394 -0.098404445 -0.4424053 0.044943348 -0.87764233 0.44742852 -0.11877935 -0.20531751 -0.17795028 0.02594348 -0.030986937 0.5105458 0.1462248 -0.719886 -1.3770182 -0.5380269 -0.42702022 0.23425722 -0.37181923 -0.4921912 0.70235515 -0.4044844 -0.3551233 -0.60101795 0.38237175 -0.9548516 -1.3155849 0.20301509 0.023575509 0.36291853 -0.34858772 -0.67383355 -0.15631951 0.18244064 -0.8779418 -0.32587892 0.1679625 -0.58825433 -0.7351033 0.2027713 0.3108711 0.95363575 -0.12801917 
0.12056652 -1.1316891 -0.2749917 -0.6495208 -0.4910517 0.2593286 -0.8992587 -0.42451465 -0.93188334 -0.6388384 -0.33976695 0.32330093 0.29028946 0.4718549 0.16604346 -0.22509648 0.28424868 -0.676996 0.16644888 -0.2409166 -0.5014578 0.19166915 -0.61198467 -0.9312678 -0.19666104 -0.29687613 0.20545217 -0.6744054 -0.5560187 -0.4588838 0.46855128 0.32271624 -0.5647961 -0.7200294 -0.59371936 -0.30876303 -0.48717546 -0.9244536 -0.654615 -1.0529774 -0.1955755 -0.1799088 0.116322055 -0.49121428 -0.3760191 0.13317034 -0.32922155 -0.45019346 -0.81355214 -0.63801324 -0.7250623 -0.2392291 -1.180304 -0.7484206 -0.7186748 -0.8157744 -0.5313729 -0.57125956 0.28093624 0.23820189 -0.86249775 0.14258271 -0.5618982 -0.43527824 
-0.18491082 0.5189654 0.4742091 -0.46364 -0.089683995 -0.6136713 -0.3921188 1.302319 -0.1765259 0.6551089 1.0235422 -0.45683956 -0.19310455 -0.13636693 -0.49398753 0.77687633 -0.072938755 0.374824 -0.109375484 -0.085762456 -0.71045727 -0.44824737 -0.22970559 0.44476146 0.62869537 0.01029104 -0.5776884 0.3340198 -0.981513 -0.103937775 -0.015962891 -0.21740629 0.012959174 0.044560097 0.39380172 -0.6899459 0.18638657 -0.0019384368 -0.91035664 0.010962878 -0.67599905 -0.18715188 0.2983874 0.023803202 0.65915424 0.39413106 0.6072656 0.96294063 0.7893807 -0.72190356 -0.39500564 -0.8922412 -0.05873369 0.11123666 0.60275215 0.08932354 -0.031872317 0.61089873 -0.41544884 -0.36762652 0.110317014 0.16216104 0.8221229 0.25233698 
0.23698576 1.2713121 0.22259212 0.030317897 0.17008488 0.10762556 0.1888273 0.34323215 -0.11814931 -0.8264589 -1.2529364 0.08458993 0.6881711 0.34845683 -0.60176057 0.32035673 0.047180444 -0.40372598 1.0026788 0.8294793 -1.2875669 -1.0847484 1.3399259 0.7278414 -0.6889952 -0.51047325 0.24820274 1.6243482 -0.34290022 0.31299508 0.5852166 -0.5438037 0.96792704 -0.19762427 1.07618 0.14446285 0.94489276 0.6580136 0.1626905 0.6158998 0.746967 -0.3959128 -0.1347602 0.41553655 0.37499195 0.6320674 -0.22309573 0.09661189 -0.42488614 0.23297048 0.27167484 -0.46935734 0.19066767 1.0511197 0.030572541 -0.88390607 0.5206414 0.34709993 -1.0281862 0.58074903 0.4640199 0.053836547 0.028435748 -0.6548196 
0.2856169 -0.23804596 0.2590094 1.2200477 -0.23210229 -0.24640629 -0.069799215 0.95623285 0.08216675 0.32176617 -0.22726156 0.15625373 1.1014485 -0.06114664 0.04348029 0.023286447 -0.5445846 0.48803025 0.7859618 0.37495273 0.041179374 -0.38379994 0.48873195 0.46452922 0.7297231 0.1524059 0.8092905 -0.36070272 -0.111164846 0.5014624 0.3446771 0.19987348 -0.2490262 0.9290642 0.18870026 1.3272122 1.0865642 -0.45245624 -0.36535066 -0.14384408 0.4366613 -0.3047324 1.198335 0.6251228 -0.11053951 -0.4894572 -0.7704885 0.8065206 0.2787755 0.2106363 0.22125924 0.764848 -0.0128472885 0.15388335 0.5159951 -0.43117464 0.07129588 -0.1255373 0.8083843 -1.0021657 -0.006424698 0.12140652 -0.064411394 -0.20630722 
0.5301208 -0.29592535 -0.092018336 0.040439654 -0.16178462 -0.5443436 0.21201336 0.40655094 0.15228805 -0.6400197 0.5780273 -0.036660798 -0.8069707 -0.104331225 0.09749627 0.6087685 0.4394048 -0.41614583 -1.0183232 0.3103153 -0.608297 -0.5894924 -0.23248644 -0.36229345 0.372971 -0.30297232 -0.24124399 -0.37210447 -0.986337 0.3819932 -0.6442969 0.32959265 -0.29519388 -0.16880642 0.22878683 -0.597779 -0.39956412 -0.43753096 -0.39854893 -0.35650504 -0.3649493 -0.360003 0.0028651452 0.7503869 0.42252505 -0.24072656 -1.049852 -0.63174856 -0.3114785 -0.2412878 -1.2402031 0.49955678 -0.35812554 -0.13128912 -1.0283381 -0.6587347 -0.8052988 -0.265093 -0.48097613 0.1758607 0.12576565 -1.2416829 -0.0072687934 -0.3496126 
-0.68252647 -0.33848438 -0.4704119 -0.14844944 0.04811066 -0.7901954 -0.18292448 -0.610943 -1.4547969 0.5453487 -0.40526414 0.16472523 -0.8001159 0.10026426 0.77477413 -0.7000443 -0.54872155 -0.068975575 0.26705542 0.26050764 0.85021204 0.5397775 -0.49951142 -0.101974 -0.024951918 0.049258184 0.35589883 -1.175998 -0.09389744 0.08747865 0.34107405 0.4925583 -0.5746013 -0.30428094 0.19279666 -0.039284244 0.574229 0.2438926 -0.024354046 -0.5053259 0.25701454 -0.13897064 0.3163286 -0.76520735 -0.7655099 -1.4540976 -0.22409019 -0.23262496 -0.7040024 -0.6559176 -1.2544295 -0.31837597 -0.14348462 -1.349172 -0.688003 0.48740053 -0.7392603 -0.07184235 0.7628079 0.38290322 -0.39446166 0.29737082 -0.043975916 0.6455925 
1.2422876 -0.23400402 -0.24811406 0.0691471 0.7060181 -0.11909593 -0.6335514 0.67606944 0.94149566 0.28788257 -0.8771664 0.4349585 -0.35962063 -0.38748813 -0.030477503 -0.34096935 1.4077536 -0.3728113 0.5135997 0.25148812 0.12159138 0.01921726 -0.2177899 0.20184179 0.15162362 -0.13120696 -1.3403164 0.2558211 0.42661753 -0.31923488 0.920559 -0.27807114 0.96872395 0.4531688 0.17178477 -0.04216988 0.49121085 -0.4062869 -0.5981264 0.10135354 0.46790037 -1.3258104 -0.33506575 0.0421309 0.42133957 -0.0077006854 -0.5590247 0.41896358 -0.12568972 0.017135989 0.38626805 -0.41277355 -0.91167337 -0.37514582 0.828692 -0.5027521 0.3612852 -0.25240985 -0.14122997 -0.17937715 0.008300519 0.48577356 0.15094945 0.024916613 
0.16801995 -0.1381066 -0.58810455 -1.6394159 -0.6623936 0.0016487888 -0.11143761 -0.2917834 -0.576945 -0.21157801 -0.26896372 0.8317499 0.8020954 -0.1952686 0.37391907 0.19396284 0.756918 -0.17625913 -0.08050144 0.40278485 0.8024123 -0.26037467 -0.56677014 0.323608 0.15250963 0.11891066 0.3391176 1.0406151 0.3225425 -0.74750525 0.28165868 0.43547067 0.44270727 0.39622045 1.06094 -0.09779554 0.3038098 0.12041431 0.5184652 0.015466947 -0.6739005 0.5240087 0.1504896 -0.56817824 1.5984266 0.037275042 -0.6186363 -0.50030804 0.71067697 -0.22612418 0.19637987 0.5897279 0.1822827 0.44094434 -0.5013783 -0.5606835 -1.1647062 0.049141157 -0.7908813 0.2720375 -0.049777564 0.55840176 0.41725868 -0.5285853 
-0.20595069 -0.4380896 -0.39717662 0.12765524 0.13090457 -0.8724343 -1.3391862 -0.34362274 -1.3928005 0.29150122 -0.31308994 -0.07504295 0.6341391 -0.019297862 -0.02261119 -0.40319425 -0.07567751 -0.7298909 0.30272928 -0.9520273 0.318514 0.42416102 -0.24136347 -0.629709 -0.97922546 0.4066966 0.27112308 -0.22743903 -0.79132897 0.04299017 -0.43234065 0.6515785 -1.0176563 -0.3522876 -0.32894626 -0.7464159 0.92211694 -0.07962228 -0.9937147 -0.65101993 0.35377753 0.09823641 0.70985115 0.65108335 -0.14157204 -0.57134444 -0.48716614 -0.32136095 -2.0392911 -1.1578653 0.09581402 -0.7458628 0.008720623 -0.52717155 -0.7134473 -0.5318271 0.5255475 -0.16748911 0.42004853 0.51292324 -0.24948692 0.11666234 -0.7794943 0.27856115 
-0.73728454 -0.03959549 -0.026037844 -0.22775641 0.15532283 -0.62853914 -1.0365242 -1.4682518 0.28775924 -0.031814933 -0.52739185 -0.033511933 0.35539836 -0.4184805 0.38539404 -0.14251474 -0.41861278 -0.14537229 -0.23209842 -0.32660586 0.42002413 0.35849285 0.44645008 0.2019951 -0.17914283 -0.017983686 1.1678843 -0.04143632 0.56784475 -0.072308 0.55885816 0.14510076 -1.0725125 0.43404117 0.0059454534 1.1330614 0.83159566 -0.035567664 -0.50996214 -0.006742279 0.8734121 0.28617063 0.19510673 0.9563004 -0.4506016 -0.5794991 0.34173 -0.07191738 -0.1729322 -0.6295158 0.6082618 0.3698434 -1.1207615 0.07650304 -0.45983782 -0.047096875 -0.5665477 0.14714794 0.38121632 0.34100175 -0.36084777 -0.8147762 -0.6879969 -0.31179714 
-0.88552266 -0.2350709 0.5019356 0.16707136 0.12652825 -1.060004 0.6265164 0.6749453 0.22758763 -0.23525126 0.46443376 -0.23380546 -0.018134132 0.11840539 0.2656461 0.465347 -1.0447391 -0.61831635 -0.15302627 -0.09591337 0.024920428 -0.028462103 0.68773884 -0.35828358 0.663467 -0.61286044 -0.40705943 0.08075809 -0.54485637 -0.25160366 -0.4478515 -0.499286 -0.5141303 -0.23140132 -0.58231616 -0.49475196 -0.5489336 -1.3152854 -1.020414 -0.16933975 -0.06007891 -0.3849137 0.45337218 -0.23833053 -0.03967417 -1.1067318 -0.64665073 -0.72050846 -0.6123126 -0.22955371 -0.8244869 -0.0535158 -0.9701074 0.6802423 0.52951217 -0.49697068 0.705108 0.050946176 -0.4525026 -0.03088191 -0.72322994 -0.24450424 0.360478 0.7579107 
-0.4291662 0.26874354 0.018579427 0.2590994 -0.5670879 0.7077907 -0.02691442 -0.021041382 0.92845803 0.724239 -1.1617699 0.6936253 0.4702411 -0.82868695 0.5760825 0.2266888 0.083907574 -0.19855064 0.11519894 -0.4662844 0.056107238 -0.04159751 -0.69496965 -0.057857323 -1.0594482 -0.14328079 -0.2546076 1.174457 0.19934918 0.6057724 0.53679883 0.64729446 0.09469552 -0.36428192 0.34146324 -0.27663735 -1.3230026 -0.04775105 -0.17070356 -0.23612894 -0.079246856 0.15395893 1.1417248 0.4187176 -0.4827853 -0.07507342 -0.22344258 -0.5104189 -1.0158755 0.35651898 -0.10210546 0.81313217 0.045248292 0.42755565 -0.07956999 -0.833094 -0.6764017 0.29363325 0.06824585 0.4796753 -0.27327177 -0.16512948 -0.062223665 -0.010337379 
-0.24080911 -0.23329914 -0.30446342 -0.4651439 0.29106322 -1.111098 -0.72343355 -1.5622115 0.46850827 1.0925244 -0.20436889 0.5077293 0.666412 -0.7557699 0.63204026 -0.83107376 0.6226166 0.058617715 0.30590326 -0.6846693 0.16619758 0.5494383 0.13828339 -0.27276722 0.7059252 0.26300186 0.11599146 0.24654514 0.53962237 0.73998874 0.31128904 0.7721849 -0.017820334 0.3810789 0.48520756 0.43951827 0.7444303 -0.122020416 -0.029270397 -0.1681633 0.72344494 -0.82624483 0.5461327 0.77783847 0.591042 0.9111093 0.61082006 0.7103587 0.21524873 -0.44669074 -0.034101244 0.41048872 -0.32272145 -0.09458148 -0.3682602 -0.43269345 -0.52880883 -0.930244 1.0178568 0.612273 0.18106705 0.20223181 0.045983497 0.3421738 
-0.6042122 -0.2962074 0.22201608 0.710635 0.05298769 0.28314024 0.19595246 0.2536102 0.96611917 -0.32530817 -0.01609606 0.48569965 0.3811828 0.40976793 0.5256993 -0.5009906 0.21765636 0.59886026 0.7779377 -0.735533 0.5784119 0.10495074 -0.07828708 0.20943168 -1.4432511 0.44703722 0.6164929 -0.8867288 -0.26704532 0.8315135 0.072968006 0.4479369 -0.37779453 -0.5480856 0.33131447 0.37954125 -0.48751155 -1.0430977 0.43505305 -0.26021764 0.3930391 0.8845444 0.8418843 0.41271904 0.49023825 -0.1849197 0.16023429 -0.07467886 -0.4967068 -0.017351482 -0.32562196 0.65396047 0.097691566 0.36170763 -0.16988146 0.14268158 -1.5313116 0.2884245 0.5819636 0.13467662 0.5150173 -0.2803689 0.34703487 -0.8859238 
0.41638967 0.46758288 -0.005136694 -0.6144351 -0.045431092 0.40485764 -0.8535729 -0.64119387 0.10312368 0.4626943 -0.83605576 0.6031009 -0.47981203 0.21948296 0.25219217 -0.9052842 0.78262264 -0.5128136 -0.17137642 -0.8676755 0.76360726 0.15166745 -0.25037467 -0.51323235 -1.0582744 -0.0014740351 0.15781868 -0.6322868 0.2820012 -0.71060723 0.540247 0.1331434 0.30183366 0.5336593 -0.054341197 0.72794884 0.8711165 -0.5634336 0.48396108 0.55510306 1.2442923 0.9311494 0.10786586 0.5268758 0.4691337 -0.09232906 -0.2387735 -0.739124 -0.8088338 -0.8051071 -0.53635484 -0.43581787 -0.2633808 -0.1488898 -0.36417088 -0.17418113 -0.20739117 0.25663415 0.20353383 0.006934438 -1.2037668 0.57999665 -0.5992331 0.5101308 
-0.9237418 -0.1995604 0.06034066 -0.24825466 0.07516824 0.58569163 0.049951892 -0.012427142 -0.49726012 -0.29182246 -0.02874572 0.023791218 -0.05545516 0.682156 -0.46970406 -0.8607861 -0.715722 -0.14894809 0.21805084 -0.39792666 0.07060637 0.1888282 -0.09415242 -0.4071911 -0.58932275 1.1129788 0.6436767 -0.094295375 0.43053684 0.6887288 -0.17107975 0.659903 -1.170805 -0.6416039 -0.82515687 0.32177472 -0.3590804 0.010823585 1.2708708 -0.3846554 0.04789186 0.058575775 0.61204326 0.28998592 0.14168978 -0.60077804 0.014909403 0.20758833 -0.6162558 0.44340408 -0.20345059 -0.94871527 -0.7214425 -0.5128725 -0.14309588 0.16807815 -0.19698635 1.0549607 0.30137536 0.72144544 0.40857995 -0.6264287 -1.3468845 -0.22156802 
-0.85590273 -0.12902601 -0.40634677 -0.7893182 -0.41861165 -0.82482797 0.7613991 0.3969647 -0.16013144 -0.14117078 0.7337631 -0.2516284 0.48633146 -0.032463994 0.025580253 0.52658296 -0.5458799 -0.10077923 -0.81076366 0.08450201 0.38583252 -0.24618706 0.18231621 -0.09297712 0.23347434 -1.0128957 -0.83777916 -0.16226947 -1.0955985 -0.4498275 -0.114159405 -0.19745149 -0.13748609 -0.63929915 0.05932055 -0.6677136 -0.95362324 0.30314365 -0.41480038 0.43148705 0.37830833 0.57937 -0.07210284 -1.1164111 -0.529701 -0.55939215 -0.69514954 -0.036814936 0.44799456 0.51060426 -0.7405866 0.8161335 0.41644287 -0.41644627 0.3130788 0.002371913 -0.5865226 -0.08021233 -0.17523594 -0.12467996 0.1775934 0.46242365 0.0970283 -0.52023065 
-0.2132831 -0.022075878 0.33294642 -0.0026580272 -0.17575814 0.5004812 0.096521296 -0.47629118 0.6536262 0.81933457 0.88326126 -0.91445285 -0.08291404 0.66064614 0.08304919 0.5096588 0.5180573 0.26991203 -0.4851427 -0.20971379 -0.5452591 -0.28051475 0.22614293 -0.38618347 0.2291439 -0.33067158 -0.14732593 -0.20698471 -0.54692984 -0.18276624 0.35435346 0.55340666 0.59490883 -0.8214003 -0.04602966 -0.35305315 -0.25140533 -0.31124246 -0.77485406 0.004397464 -0.55603355 0.2067978 0.40586174 -0.7976272 -0.8734404 -0.21582443 0.64917463 -0.17470497 0.38831714 0.38574737 -0.32390866 -0.15660386 -0.3292856 -0.81630903 0.16117597 -0.91185296 0.5806907 -0.997342 -0.8333754 -0.7757732 -0.477795 0.394466 -0.48408657 -0.024783542 
-0.33874035 0.8120159 0.07298574 0.6518515 -0.3365668 0.756231 0.8347872 -0.21340215 -0.53853786 0.038634434 -0.07124825 0.6939927 0.21462975 -0.6214235 0.4066623 -0.704152 0.9484995 -0.95470524 0.62187797 0.32758966 -0.042297117 0.3285718 0.0154695045 -0.112105854 -0.75710815 1.0356171 0.5104411 0.7569994 0.6702817 -0.03538871 0.82442415 0.3109201 0.5977314 1.0193933 0.5775096 -0.43551463 0.74302155 0.35237768 0.7935567 0.347519 0.38513526 -0.16476019 0.5135644 0.0076708207 0.25453347 0.45059493 0.3111458 0.15957552 0.50249034 0.68412924 0.8417975 -0.12392509 0.115855135 0.46176142 0.08472601 0.025456121 -0.25237587 -0.14525907 0.20198321 -0.602013 -0.10291013 -0.21506 -1.0549676 -0.39493433 
1.0098825 -0.3791743 -0.085225515 0.6849994 0.29461822 0.95350915 -0.80843663 0.3486027 0.15133736 0.18117742 -0.34788468 0.76774573 0.40025595 -0.69224966 -0.4702413 -0.40851143 1.0513504 -0.12809868 0.82061756 0.16530252 0.4181675 0.8171535 -1.2053996 -0.14959967 -0.26896456 0.394691 0.36469755 -0.17756529 0.47132018 1.1731476 0.40893412 0.3995074 0.33155704 0.24554768 -0.23845905 -0.19246186 -0.14062364 0.5499436 -0.14298265 0.28252706 -0.24041688 0.46038473 0.31013417 0.5551256 0.9424705 -0.1380328 -0.013923944 0.27198693 -1.1271312 -0.13040327 0.25429446 0.307478 -0.38765994 -0.16083467 -0.24265313 0.739434 -0.12641475 -0.11491027 0.0966551 0.50326777 -0.70743495 0.24022715 -0.68520933 -0.5251574 
0.42941073 -0.13093483 -0.61295116 -0.9090824 -0.01076095 -0.5651066 0.38525727 1.1424507 -0.14095782 0.93407685 0.46946427 0.60867727 -0.34391692 0.6446565 -1.1698464 0.52512085 -0.08952808 0.007703594 -0.12024377 -0.6267307 0.3010021 0.326956 0.09644886 0.25126758 0.09212686 -0.17433238 0.1585419 -1.2423693 0.1370482 -0.22733875 -0.5993768 -0.31145334 -0.76571554 -0.17907223 0.1175677 -1.2879173 0.023649355 0.217811 -0.0014621764 -0.1661716 0.5322897 -0.6524056 0.2370728 -0.66467077 -1.2485207 -0.7980033 -0.957445 -0.46415785 0.549147 0.28881106 -0.6272353 -1.0029938 0.5185559 -0.4962499 0.6323065 -0.19728951 0.036458973 0.27680522 -0.68105954 -0.33731928 0.2847136 0.048158225 1.0461434 -0.2793389 
0.899633 -0.3573373 -0.7849732 -1.0930252 0.08963642 -0.23416746 -0.33939272 0.3147039 0.7590582 0.33911413 0.82761264 0.24089946 -0.81101024 -0.6184652 -0.33866888 0.4663224 0.5887911 0.032313775 -0.7706581 0.06304133 0.24345478 0.58607125 -0.35686436 -0.2365651 -0.22501093 -0.018051034 0.0097229425 -0.0817316 -0.1767572 -0.023960033 0.7271231 -0.89293635 0.44897002 0.48502487 0.30847934 0.25701323 0.1461597 -0.41184363 0.3534223 0.8989301 -0.5135142 -1.0027534 0.53561807 -1.0637543 1.440573 0.5384067 0.5317224 -0.119814895 0.029261924 -0.23438354 0.37105677 0.27129272 0.28664657 0.22240537 0.33497372 0.88753927 0.08312306 -0.3967042 -0.8653145 0.46907404 0.7901583 -0.36636916 -0.83145326 0.5268947 
0.26486686 -0.49650943 0.6244114 -1.4687774 -0.5070277 0.0302952 -0.40710115 -0.24138203 0.11240819 -0.3655206 0.14808437 -0.4887664 -1.0039685 0.6569501 -0.06762798 -0.4808051 -1.3138969 0.17533596 -0.39490303 -0.2872752 0.012101336 -0.7208681 0.2768528 -0.64388263 -0.5003057 -0.27308804 -0.17522389 0.15152916 -0.9817562 0.075191185 -0.54123986 0.32115176 0.17580757 -0.3783441 -0.50589997 -0.05862963 -0.89551365 0.028199567 -0.7016881 -0.9642549 -0.038755342 -0.65673554 0.10991439 -0.584151 -0.54871476 -0.91414076 -0.46828598 0.18775252 0.4234273 0.1460995 0.050017014 -0.8624456 0.1073551 0.09042842 0.12939037 -0.0755247 0.46840683 -0.21621095 -0.31402555 -0.517337 -1.1054251 0.1362542 0.02845516 0.22637606 
-1.4527624 -0.9767016 0.45560303 -0.6047386 0.21113214 0.93774897 -0.8640873 -0.4892958 0.1052432 0.01385895 -0.14090852 -0.35824358 -0.025936574 -0.30111572 0.16827299 0.45754638 -1.5189935 -0.21392266 0.19335784 -0.16872533 0.7975432 0.62374336 -0.36654302 0.1503979 0.4422038 0.46062738 -0.9623927 -0.19959024 0.95214134 0.94654834 -0.59674823 -0.972777 -0.8528838 -0.1891441 0.072822444 -0.40668246 0.37841973 0.66683495 0.1772044 0.51685333 0.13157132 -0.40567073 0.26272446 -0.28974068 1.2910528 -0.3407753 0.15196542 -0.52926534 0.29528874 -0.14886144 0.18800855 -0.21508312 0.1782321 -0.09559953 -0.58274686 0.9408578 -0.01740609 -0.5606099 -0.2921054 -0.6996543 0.350052 1.6420078 0.32570165 0.026938627 
1.1858084 0.57494444 0.36906132 -0.37077644 -0.5659081 0.35207272 0.117902674 0.4776163 -0.17828774 0.8880799 0.18449749 0.009462867 -0.26321507 -0.41396326 -0.7048276 -0.22538461 0.1422271 0.72190976 0.22277226 0.23762433 -1.3314773 -0.20209315 0.12673509 0.39511213 0.4841646 -0.32684395 -0.6440349 0.13972333 -0.47726095 0.06684946 -0.12242409 0.19953722 -0.6334957 -0.2545756 0.0364165 -0.3964372 0.47546005 0.22181442 0.57640797 0.9142085 0.37313205 0.12686062 -0.52963215 0.024260908 -0.04061731 -1.0536381 -1.0850744 -0.15388758 -0.118557505 -0.19340332 1.0253172 -0.30125025 0.28732806 0.21168695 0.9428921 0.04086266 0.1831962 -0.0896234 -0.46434617 -0.6395137 -0.49615264 -0.8392699 -0.1451458 0.8344359 
-0.20609671 0.1396925 -0.28928098 -0.09477137 0.33641922 -0.5331426 -0.16616973 -0.3467675 0.5836509 0.047816105 0.63882875 0.30518562 -0.2786878 0.05353364 -0.19828534 0.023744963 0.05535444 0.24238938 -1.6884437 0.41380635 -0.889982 -0.61505306 -0.25177845 0.5065079 0.5309036 -0.6601149 -0.84685075 0.3987989 0.4167886 0.48810235 -0.67244154 -0.090699464 -0.023238825 0.7470977 0.5344262 0.104636475 0.3426972 0.49990553 0.3669038 0.07136233 -0.082237504 -0.031394847 -0.34131372 0.032491688 -0.48205277 0.19704607 -0.43111166 -0.3546684 -0.9433879 0.14465094 0.036435068 -0.346185 -0.20843516 0.37593523 0.51821005 -0.10164106 0.47758648 0.8583484 0.17239352 0.0052533313 -0.31378636 0.93580127 -0.42284623 1.0397599 
1.0660425 0.24090996 0.25255942 0.7259971 1.1506306 0.3484738 -0.46971717 0.08338522 0.23918301 0.36458325 -0.24696465 0.16395502 0.78910124 -0.45238766 -0.586534 -0.67889184 -1.0094274 -0.3912082 0.14202708 0.7185147 -0.46433684 -0.017737962 0.010461602 0.75770706 0.60841113 0.7397672 -0.945738 0.3335426 -0.27768847 0.5283637 0.29559034 0.7993702 0.17525922 -0.17870653 -0.088532045 0.27052218 0.86642003 0.74961394 0.7452849 0.08611588 -0.021105846 0.012811193 -0.23412882 -0.1376252 -0.9043374 -0.7798701 0.2336686 0.5194385 -0.2757402 -0.77091765 0.48119003 0.13223755 0.59324324 1.0552641 1.1063573 -0.40780252 -0.25245824 0.16759111 -0.673584 0.9201814 0.3037482 -0.78240204 0.72718376 -0.01446077 
0.19236106 0.07748982 -0.43121684 -0.16425948 0.49238244 -0.16224527 -0.14521526 0.38816598 0.03613657 0.34159103 -0.25664026 1.5038656 0.13932416 0.8105498 0.3300281 -0.27988824 0.5416169 0.1609907 -0.4841718 -0.46465352 -0.7902508 0.69695705 -0.3304358 0.15183902 -0.4677309 0.17786577 0.730397 0.14142247 0.5661233 0.20011002 -0.049731653 -0.8295222 -0.19729209 0.1219345 -0.426751 -0.5767307 0.038438343 -0.28166652 0.075092256 -0.010075601 -0.26303568 0.66203696 0.96355516 0.3342234 0.5812835 0.8933282 0.38194975 -0.017497184 0.19155762 0.6311057 0.2578554 -0.19591378 0.24120085 0.4249798 -0.30377057 0.7905882 0.06267125 0.63367945 0.24230847 0.3185997 -0.47943327 -0.86380655 0.13662632 -0.08710331 
-0.8487447 -1.096735 -0.2166646 0.31766465 -0.45964205 -0.37675726 -0.43855757 0.14656226 -0.72481775 -0.49724576 -0.55725133 -0.34946623 -0.7400431 0.33517402 0.76302165 -0.9366078 0.53305984 -2.0274355 0.7229919 -0.94636875 0.3958271 0.18897635 -0.5787674 0.08505715 -0.28416842 0.0064332453 0.39431906 -0.5736487 -0.40018997 -0.02375666 0.5951107 0.86299074 -0.07299246 0.16172165 -0.03800893 -0.11760579 -0.5046248 -0.36517197 -0.51271796 -0.07128155 0.84597623 -0.027355183 0.39065433 -0.7794275 0.0033868942 -1.5500911 0.06533691 0.15729453 -0.8023096 0.25890973 -0.6121339 -0.28428704 -0.3420148 -1.3637893 0.2992476 0.047304634 -0.0857314 -1.4586073 0.5062863 0.3845452 0.20307696 -0.10570368 0.16840395 0.13896567 
-0.17326115 0.020594584 0.8345163 0.33981556 0.567432 -0.38671577 -0.80368716 0.5183801 -0.84802794 -0.781986 -0.28955704 -0.5809644 -0.5096766 -0.8153306 0.27011287 -0.015777338 0.30627793 -0.20637268 0.5735809 1.2290953 -0.12671585 -0.32923606 0.1942317 0.27765343 -0.44554442 -0.079812355 -1.3088762 0.44325912 1.0948594 0.32746977 0.023607515 -0.5363224 -0.11926278 0.4355125 -0.5259511 0.22110479 -0.39828518 -0.32497525 0.7875277 0.0027127094 -1.2086096 0.29417342 0.6427662 0.34162402 0.4237975 0.24931955 0.17977783 0.5337557 -0.65392286 0.42544496 0.43759838 -0.29683778 -0.62634164 -0.35870117 -0.44549516 -0.036130086 -0.4970419 -0.19048624 -1.5312994 -1.3301791 -0.40089753 0.9091066 -0.333903 0.20912701 
0.1655679 0.019155493 0.6020132 -0.42146024 0.22716448 -0.3543346 0.41421023 -0.15440428 0.58276004 0.58366895 0.64136446 -0.23796965 0.24368732 0.12154783 -0.18805774 -0.14165886 -0.20975274 -0.18090372 -1.4748101 -0.5011279 -0.5286846 0.5822314 0.50431335 0.49028954 0.16435222 0.32644188 0.673886 -0.02365441 0.7952818 -0.022106856 -0.0028070605 0.4689212 -0.7397478 -1.0489604 -0.06124258 -0.6372505 0.69717765 0.29564795 -0.057786763 -0.26159844 0.037295464 -0.6090527 -0.6871346 -0.8193835 -1.0626123 0.21060356 0.010876855 -0.17484811 0.91797423 -0.45595863 0.111963935 -0.58089453 0.58330816 0.36906832 0.5930685 0.40182063 -0.16180289 -0.6443326 -0.47448683 0.071346834 -0.73264945 0.22791675 0.28378716 -0.31018603 
0.12076247 0.8270485 0.07629892 0.96709 -0.046768416 -0.37370235 1.0828099 -0.53448725 -0.1185771 -0.12662259 0.48354518 0.6346145 0.43753734 0.73150027 0.6980016 0.059828985 -0.6102795 0.6720582 0.54056066 0.53532356 0.14565146 -0.30008003 -0.23111863 0.61124754 -0.05237784 -0.4530024 -0.35935688 0.94115317 0.07422717 0.48677865 1.1907028 0.27101225 -0.098193556 -0.64115644 0.12657782 -1.4564079 0.96957904 -0.91708845 -0.42787465 0.07020324 0.38598895 -0.01913124 0.3800938 0.6242078 0.36158067 -0.3543217 -0.3441168 -0.34158766 0.46892837 -0.11925462 -0.046842746 -0.9593034 -0.017222282 0.118638545 0.3458471 -0.6174901 0.7596359 -0.00078596105 -0.848105 0.00393157 0.12423846 -0.9897663 -0.08119986 -0.26821268 
-0.110087164 -0.04456192 0.5174373 0.5703297 -0.064670786 0.44529313 -0.91781545 0.5858527 0.44069958 -0.765401 -0.8052664 -0.6340728 -0.01592179 -0.7939344 0.706873 -0.54493576 -0.2600358 -0.15079048 0.7561388 0.101632945 -0.17595114 0.016816823 0.14934213 0.34527218 0.35966432 -0.78227496 0.064383045 0.0801414 0.90618664 -0.1400341 -0.91928077 -0.2837106 0.0076582823 -0.39918056 0.27023923 0.22627549 -0.42271787 -0.28936067 0.66615117 -0.11246137 0.8235728 0.31707206 0.045342535 -0.4743847 0.26733518 0.5184331 0.5727914 0.83180344 0.0033711114 0.27715382 -0.018800944 0.4034835 -0.5526787 0.20206936 0.64932054 -0.030844372 0.59400153 -0.059772402 0.5413718 0.45549083 0.52020645 0.1168071 -0.7925394 0.55626065 
-0.66690516 -0.12426363 -0.947951 0.68135875 -0.41696143 0.6798001 -1.1278776 -0.49591184 0.5466543 0.39621705 -0.45951146 -0.32129893 0.690635 -0.27363622 0.3025125 -1.2202183 0.5515986 0.0345835 0.2379527 -0.9351886 0.13980271 0.9973215 0.40111783 -0.3615741 -1.3289168 0.2560614 0.9161695 -0.77317685 0.29620636 0.32926768 -0.047219582 0.8645484 -0.24609451 0.6456782 -0.34023142 0.49412793 -0.17940022 -0.0409229 -0.17460199 0.16112004 0.36985394 1.0810661 -0.42766625 -0.36822367 -0.022834178 0.5555666 0.06654725 -1.0522126 -0.98843426 -0.45143545 0.37728143 -0.3238632 0.74519396 -0.18648873 0.093831934 0.8416551 -0.5594879 0.06561949 0.41691306 1.2647094 -0.08930153 -0.12142581 -0.5234175 0.33156005 
-0.054495644 -0.18302402 -0.41046914 0.14022198 -0.1788447 -0.47412685 0.4988216 -0.17933835 0.66240335 0.09876833 0.40771684 -0.21617837 0.0039824285 0.4789815 0.2614638 0.36456102 -0.0311162 -1.1082989 -1.1947142 0.44525328 0.18839848 -0.058174167 0.2688706 0.43053472 -0.010499637 0.51124424 -1.3106211 0.09152652 -0.28721032 -0.87685627 -0.33768687 0.33852038 0.721538 -0.108963735 0.40594196 0.23218915 -0.90985847 -0.22826768 -1.049012 -0.082170315 -0.41059315 0.047825128 -0.12658793 0.54462683 0.19586135 0.1240607 -1.0654731 -0.85850185 0.6675244 0.17405786 -0.432044 -0.040486477 -0.04001769 -0.1711615 -0.34548157 0.61204034 0.1628309 -1.274785 -0.29416192 0.11962247 -0.7851684 -0.16142842 -0.7508765 0.2098126 
-0.28651455 0.010731873 0.2958586 0.26035315 -0.13980338 -0.06811367 0.47521964 -0.094963595 0.5574919 -0.37539306 0.27139992 -0.9336978 -0.17581052 -0.2095301 -0.21916662 -0.07954916 1.124717 0.0421187 -0.42732516 -0.10054349 -1.2200271 -0.09784361 0.7714193 0.6025359 0.39799145 -0.008058702 -0.25062728 0.60218817 -0.5761253 1.036554 -0.34642616 -0.34227812 0.22114603 0.13234495 0.28439406 -0.25348577 0.27042487 -0.3540744 -0.025908474 -0.13261065 -0.36973834 0.080765046 -0.5018523 -0.29562545 0.41045377 0.20075385 0.13251863 0.1958876 0.7497109 -0.24281883 0.8392976 -0.18671308 -0.5257196 0.037748866 -0.1746732 0.23994015 0.5975423 -0.103957206 -0.99383986 -0.6044906 -0.15871371 0.38559365 0.5918531 -0.09660609 
0.110507935 0.25477025 0.36299086 0.7844918 -0.21334437 0.4901528 0.24955733 -1.0290079 0.26009077 -0.34862822 0.31474036 0.27679756 0.3631818 -0.03673174 -0.99231184 0.19801517 0.69603914 0.70840263 1.2806913 -0.31292978 -0.804828 -0.32008675 -0.14052631 0.18776985 0.95665455 0.73276776 0.5006201 0.18616773 -0.37193957 0.056325123 0.06320072 0.7661437 -0.37937316 -0.9134145 0.1263542 -0.69522506 0.5934411 -0.094189554 -1.3907496 0.8050492 -0.4552271 -0.2038819 0.68189853 0.2693619 -0.056885757 0.25210932 -0.92088604 0.80959356 0.31434286 0.052074246 0.032494444 -0.59478337 0.039252635 -0.8347524 -0.045065522 0.4572154 -0.0528394 -0.22372155 -0.28475907 0.35221642 0.32996237 -0.05421132 0.56125253 0.030353133 
0.47675538 0.2778077 0.015172603 -0.3062347 0.9318681 0.5465884 -0.071149655 0.5497731 0.5667766 0.9337592 -1.4117495 -0.19186293 0.49123493 -0.39415336 0.6508668 0.073207736 0.16672684 -0.6205084 -0.7416984 -0.09034777 0.33263475 0.7770641 -0.2209242 0.22653817 0.11591877 0.11656135 -1.4448398 0.44251305 -0.05683621 0.54718626 1.0475425 0.082847506 0.12075079 -0.56871957 0.084947094 0.90548503 -0.42776048 -0.61956817 1.0344908 -0.0055616354 -0.9009244 -0.29721087 0.19996141 -0.23866072 1.2494701 -0.07240025 0.18079974 0.024252819 0.4591516 0.00871866 -0.69891363 -0.37067798 0.08833235 -0.22385459 0.031439275 -0.2889224 0.8141522 -0.060301587 0.12271056 -0.25944898 -0.59493154 0.34438294 -0.47156578 0.5548249 
0.13990599 -0.45630363 0.22490004 0.07561307 1.2642599 0.6325405 -1.1050966 0.4283063 1.086272 -1.2756702 1.0520549 -0.34366456 -0.31522912 0.14567995 -0.1558106 -0.17606 -0.26429772 -0.096129246 0.63315576 0.5727992 0.18540314 -0.20769656 -0.13486278 0.74685186 -0.33691972 -0.21276228 -0.37421444 0.73103565 -0.28679785 -0.16514431 0.14695784 0.13820218 0.7545536 0.29242137 -0.63945264 0.9631038 -0.32069084 0.5840452 0.4548871 0.00064631377 -1.1823537 0.45006466 0.29750237 -0.51995397 0.1324228 -0.027392915 -1.6325121 0.5005221 0.44185528 0.5915549 0.6952466 -0.22861476 0.061067026 -0.0049735764 -0.04376392 0.36891773 0.3009923 0.7395575 -0.036774285 0.72166616 0.31596586 0.40334183 -0.25286502 -1.1905687 
-1.0118455 0.19149293 -0.2677942 0.25753468 0.35615033 -0.26819783 0.37268674 -0.71281725 0.26870248 0.5680825 0.423459 0.202013 1.0978236 -0.10059604 0.048489932 1.0193553 0.38888243 0.6534314 -0.8099564 -0.001473195 -0.7271013 -0.5343943 0.09565183 0.012073185 0.20039655 0.19265461 -0.64438236 0.3263947 -0.48263508 0.75687355 -0.13791412 -0.29295194 -0.3896225 0.74357086 -0.09729323 -0.50399065 -0.79667157 -0.3652295 -0.6569837 -0.6322294 -0.7558998 -0.83868295 -0.2752053 -0.1366097 0.4984125 -0.22395734 -0.11175541 0.3827932 -0.23213282 0.31515524 -0.46291578 0.057197154 -0.23464552 0.03272723 -0.34521502 -0.6328086 -0.39713666 0.2837512 -0.24926685 -0.94513386 1.0419225 0.439977 0.514067 -0.065268524 
0.15246229 -0.48024768 0.09242908 -0.22920047 -1.0302954 0.2451651 0.2848911 -1.5576109 0.5319283 -0.55938464 -0.10538025 0.60519713 -0.30331844 0.09456947 0.38694614 -0.3348461 0.15441436 0.2793852 0.6458576 -0.23962377 0.88852626 0.31018198 -1.5485682 -0.6189394 0.051352404 0.5341658 0.4100441 -0.0809028 0.41026178 0.2119046 0.16347241 0.5210472 -0.59163237 -0.18700501 0.7583925 0.19933021 -0.037691224 0.47355947 0.0572032 -0.26507396 0.3497579 1.0185225 0.14155583 -0.23319863 -0.10624815 -0.7876275 -0.1367612 0.44413617 0.838432 -1.4785354 -0.7596306 0.9325512 -0.15561704 -0.68640125 -0.3264768 0.045501117 -1.0902207 -0.045546286 0.17184238 0.1865063 0.38737905 0.06315052 0.07795905 0.6306543 
0.18447319 -0.808321 0.761406 0.57338774 1.2516198 0.26140904 0.65514946 0.22166808 -0.29755154 -0.11185082 -1.2129469 0.4354273 0.3306058 -0.41278782 0.12533179 -0.041409206 0.25948745 0.04225935 0.8142394 0.60390943 0.5756777 0.46487358 -0.046505816 0.21465236 -0.7457697 0.18233222 0.40719503 -0.078185715 0.008242512 0.10332174 0.209114 0.4746085 0.38374925 -0.22311059 -1.0262502 -0.007401101 -0.52604747 -0.3131911 0.55855477 0.9876069 1.0431579 1.065267 0.12963346 -0.1729258 0.4948661 0.3459609 0.25813505 0.39842308 0.25915116 0.025055954 -0.030668786 -0.06304086 -0.5097499 -0.35434064 0.35975552 0.40878862 0.36668268 0.17385985 0.09679687 0.25350115 0.52150965 0.2708278 -1.3984044 0.17291802 
-0.6620214 0.09416103 -0.69327337 0.064895995 -0.02210355 0.122269504 0.72226536 0.12357205 -0.28661776 -0.40251097 -1.1197101 0.2550021 0.21774016 0.32529125 0.68436337 -0.024199862 0.6874066 -0.3481891 0.58007324 0.08470881 -0.06440155 0.41205746 -0.105706654 0.32770467 -0.09917785 0.023831552 0.48683754 0.93459445 -0.35744113 0.13214754 0.3501307 0.24823585 -0.1321862 0.37783062 -0.21194828 -0.15436406 1.0923892 0.5945419 1.030932 0.42374554 0.93301874 -0.64471173 0.14315033 -0.009951832 0.51873666 0.5007639 -0.5122357 0.8947947 0.34552175 0.2245857 -0.43352923 0.5361378 -0.20653816 0.035307158 -0.45909896 1.2319711 -1.2388929 0.49978364 0.29307202 0.5776631 0.045735985 -0.14125761 -0.23833406 0.1961428 
-0.7643469 0.36296538 0.955393 0.32759672 0.34571603 0.983427 0.12758864 -0.53966504 0.1493076 -0.6328344 -0.0431971 0.7426565 0.041838426 -1.0116026 0.94455624 -0.2950116 0.38719064 -0.2114943 0.4795177 -0.48485515 0.08662089 0.44649506 0.14764133 0.40410638 0.15049924 -1.1517714 0.39501777 0.072645664 -0.099446185 0.03334245 0.3922619 0.3891023 -0.3293793 -0.25593948 0.20979239 -0.6546582 0.37617704 0.50118166 -0.1775709 -0.17382088 0.61663556 -0.36882353 -0.015038178 -0.57667303 -1.0572118 0.6981748 0.17506021 0.2845107 -0.20845479 0.14981507 -0.50143427 0.55831647 0.39736372 0.38508198 -0.46323708 -0.8793571 -0.5237142 -0.17331536 0.71594065 0.46230075 -0.27424547 0.28615093 -0.66684407 0.77910393 
-0.149609 -0.13773063 -0.9347544 -0.35378665 0.052347194 -1.0358981 -0.27253857 0.34905857 -0.31180745 -0.044936083 0.4797151 -0.34643853 -0.99199116 0.3647916 -0.26360193 0.31029388 0.06929579 0.41235927 0.13141274 0.47701934 -0.2973984 -0.9993593 0.29325667 -0.57792515 -0.1837616 -0.087633885 -0.7008917 -1.0575458 -0.38324672 -0.5113084 -0.10284799 -0.058012556 -0.16266394 -0.53393924 0.09622446 -0.85859346 0.09687962 -0.5463798 0.029578708 0.23468708 -0.55153495 -0.2618793 -0.18003365 -0.5997873 -0.2601318 -0.14614937 -0.54122555 -0.75720525 -0.017523635 -0.32589522 -0.6854065 -0.3017544 -0.436388 -0.2701652 0.31816944 -0.04073405 -0.19119911 -0.19796486 -0.017827682 -0.056201108 -0.82046 -1.0022879 0.07609183 0.4428768 
-0.03997014 -0.11017398 0.094644204 -0.55650824 0.3155659 0.021181962 -0.80195683 -0.0018016432 -1.1835161 -1.2706401 -0.16804974 0.8514548 0.26588637 -0.14731756 -0.22316289 -1.0754044 0.6494874 0.08950876 0.5428455 0.13765578 -0.2031537 0.26476732 1.1046958 -0.31044328 0.32182178 -0.57563084 0.3528205 -1.0524662 0.14167066 0.15982655 0.49582434 0.7004617 -0.5367548 -0.73599994 -0.28574952 0.26929745 0.037062008 -0.15974528 0.61298585 -0.7306912 -0.01678268 0.46719667 0.19183156 0.84698457 -0.35637856 -0.012621305 0.6136016 0.698326 -0.32585672 -0.70619863 -0.67002666 0.98643655 -1.2938586 -0.53612804 -0.25386524 -0.014794506 0.045736622 -0.17756055 0.47863713 -0.20344752 0.04556779 0.9031361 0.21645407 0.7630151 
0.0059977863 -0.07913 -1.1018625 -0.42004824 0.20410755 0.08798 -0.7442935 0.28471845 -1.0442677 -0.10959499 -0.8845741 -1.9078557 0.78885496 -0.2166916 -0.118749395 0.4096066 0.26478243 0.5022249 -0.53850585 0.19683021 0.6405512 -0.327927 0.17340061 0.052317195 0.22079138 0.25102657 0.82740796 0.46870756 0.41220042 0.8782554 0.6072941 -0.1802778 0.6204264 -0.78184 0.19114584 0.14499289 0.43416554 -0.57908815 -0.34678072 -1.0243729 0.024451397 0.3830335 -0.58867043 -0.65478194 -0.1224815 0.033246 0.6179591 -0.24362695 -0.3000746 0.3711429 0.028053148 0.16462357 0.05105913 0.4875291 -0.3570465 0.6517193 -0.51773554 -0.3729187 0.7452981 -0.23083824 0.1565089 -0.639948 -0.79801315 -0.930584 
-0.08050304 0.1287602 -1.002974 0.044341575 0.2996481 0.24006185 0.5862028 0.65335375 -0.35782936 -0.16706742 0.8486902 -0.12519215 -0.27909988 -0.556548 -0.34343463 0.42310357 -0.969057 0.82188535 -0.87394655 0.769629 -1.0127325 -1.2660776 0.116431296 -0.27462474 0.21558917 -0.3263143 -0.358872 -0.14888398 -0.3028191 0.5749204 -0.14404117 -0.22280557 0.6778653 0.24119972 0.31295422 0.57692987 -0.40870216 -0.7081154 0.46118358 -0.37481135 -0.5124123 -1.0147328 0.171916 -0.7536076 0.1498081 0.6982278 0.431987 -0.30398157 0.5743269 0.2269779 0.46586257 -0.66248304 -0.29286826 0.9348022 0.7245061 -0.16608122 0.13301855 -0.4417006 -0.3916491 -0.5716803 0.2355361 0.1492926 -0.82789594 -0.42431635 
0.56344545 0.5523505 0.6938898 0.13921233 0.4219294 0.5796457 0.64258873 -0.31535232 -0.14927568 0.2842491 -0.8199455 0.8266209 0.70036286 -0.73518807 0.9416466 0.60904187 0.20375252 -0.5086047 -0.049872525 -0.05265547 0.39682817 0.16680053 -0.5191641 -0.18476193 0.49484164 -0.46978718 0.77028835 -0.6231454 -0.50068074 -0.24495742 -0.19002487 0.30805877 -0.03611872 0.07645631 -0.06848214 -0.5744758 0.048135884 -0.6215233 -0.30746233 0.101429164 0.5368711 0.73342466 -0.14957981 -0.5937628 0.4876529 -0.77449495 0.6748607 -0.35349432 -1.3566191 -0.31712416 -0.8063833 0.23599324 -0.084646136 0.27105683 0.020540075 0.5316701 -0.5515932 0.61457944 -0.17468658 0.3999542 -0.64103353 0.28738564 0.0354133 0.06934064 
0.18419869 0.23255277 -0.6443217 0.71834886 0.2766692 0.73860633 0.07239989 -0.16216996 0.010599707 -0.22585103 -0.097625114 0.8351855 -0.009719381 -0.4461591 -0.75324595 -0.43156064 0.29400137 -0.3402761 0.31348482 1.1915411 1.152051 0.44905883 0.15348253 0.558543 0.65875185 0.805488 0.13536918 0.2245332 0.4965121 1.324492 0.5675441 0.3402256 -0.020160712 0.04618353 0.37119293 -0.6817482 0.78966254 -0.02799919 0.44134098 -0.02146105 0.12135524 -0.8855654 -0.31246552 0.4167757 -0.07478649 0.49557728 0.07868347 -0.8908543 -0.43493143 0.12572822 -0.0018851217 0.30009437 0.32434693 -0.071035124 -0.5639304 0.6450023 -0.031467088 0.044499837 0.19127993 -0.08556197 0.9296714 -0.6891245 1.2152119 0.8400621 
-0.24679673 -1.0592642 -0.20255674 0.042506017 0.20810686 -0.23523012 0.48215806 -0.6635328 -0.04954533 -0.012444991 0.3701573 0.543063 -0.60154015 0.8247506 0.43520245 -0.33610433 0.009644868 -1.0644916 0.36898062 -0.5364421 -0.64443535 -0.073065475 -0.2703229 -0.38333628 -0.47233978 -0.08455479 -0.10308629 -0.07856619 -1.5812273 0.7370602 0.04125099 -0.025225779 1.1068816 0.0068298774 1.1085851 0.3147733 -0.045128625 0.30982086 -0.21857914 -0.76190645 -0.040746253 -0.26245746 -0.49881327 -1.1279942 -0.88677084 -0.5886696 -0.8593081 -1.4711392 -0.622416 -0.43422732 0.30747554 0.42200014 0.28229693 -0.23540442 -0.38548675 -0.6040521 -0.17190196 -0.87719494 0.7815171 0.31876406 0.37052542 0.4800294 0.18290281 0.10835745 
-2.135529 -1.0921779 -0.66189283 -0.38803262 -0.27322266 -0.31973985 -0.08071 0.6091248 0.010410768 -1.0860486 0.2806076 -0.36007506 0.36903903 0.20991544 -0.6845497 -0.6246916 -0.091560625 -0.03488678 0.08167329 -0.65233415 0.105053045 0.23958361 -0.54486805 -0.33182067 0.17744127 -1.1470257 0.16819276 0.21423931 0.2312415 0.18276446 -0.4313 0.33678156 0.08788428 0.099317215 -0.020814 0.25782922 -1.3405066 -0.94341576 -0.22217177 -0.6743678 0.2894051 0.21926211 0.2265862 -0.8401985 0.0065049385 0.28930384 0.42443576 -0.34633893 -0.016396152 0.22682469 -0.17060632 -0.37551796 0.57418275 -0.6104563 -1.0340201 -0.037525892 0.04429541 -0.5657533 0.43903556 0.0034929912 -0.54932696 -1.6907175 -0.17515537 -0.089945026 
-0.84326524 -0.70666945 0.39416784 -0.16692421 -0.12963338 0.33862287 0.17709854 0.6821136 -0.67616755 -1.1089352 0.7331958 -0.84989965 0.20011649 0.29120767 0.6121404 0.45546305 -0.97321963 -0.18580332 -0.24740893 -0.36684343 0.9012085 0.3872264 0.017208908 0.16681221 -1.0430818 0.2952852 1.0204914 0.4654057 -0.023542183 0.28177434 -0.38964868 0.15662363 -0.9903768 0.1305876 -1.052553 0.37558043 -0.13206175 0.120800085 -0.35674393 -0.6247046 -0.035410654 -0.17613377 -0.46621403 -0.2924969 -0.35988143 0.09042378 -0.055636868 -0.1415469 -0.6512137 -0.96966076 0.12558769 0.9349432 0.049186457 -0.6130733 -0.9641975 0.30107298 0.14965741 -0.40399036 0.5687804 -0.10499827 0.48653212 0.6089676 0.21463093 0.8396095 
-0.20530364 0.35983986 0.050027296 -0.11651803 1.0358402 -0.042536594 0.20786656 -0.27086735 -0.53876615 0.06728961 -0.025322244 -0.030665385 -0.38451 1.2953818 0.38068947 -0.346437 -0.079018965 0.26133192 0.7073971 0.39107153 0.7300738 0.11300224 0.6397104 0.27359295 0.16955651 0.50737053 -0.25930277 0.1853203 -0.8968944 -0.1574715 1.6760252 -0.1597799 0.60756385 -0.09357848 0.11818425 -0.21734077 0.646916 0.13832869 0.5750746 -0.3663545 -0.27236348 1.1018295 1.4219468 -0.80242705 1.0116414 -0.25235605 -0.6877823 0.8343852 0.12950395 -0.6810911 0.14674519 -0.6924775 0.13095039 0.3509539 0.123173304 -0.31420827 -0.9104965 -0.022015516 -0.14038526 -0.41841808 0.6324998 0.31111026 0.33342305 -0.1147947 
-0.3803813 0.033850484 0.001060073 -0.22787458 -0.1605105 0.007898462 -0.22813801 -0.19254598 -0.15902358 -0.1634042 0.16829619 0.35615066 -0.5433971 0.69839066 -0.04316439 -0.08456662 -1.3865913 -0.037555233 -0.4200047 0.91836655 -0.23816845 0.03736782 -0.06294754 -0.44571218 0.042273287 -0.08324391 0.36777794 -0.23659599 0.36181396 -0.25748473 -0.18241741 -0.496204 0.5802187 -0.5813094 -0.2651313 -0.723271 -0.91754615 -0.53485644 -0.31408647 0.16774562 -0.20076233 -0.39730367 0.28197134 0.27338836 -0.8307923 -0.39186347 -0.70976824 -0.17764884 -0.07061964 -0.78815085 0.6533525 0.39043888 -0.18007939 0.24858326 -1.2170366 -0.5023959 0.031251743 -0.061814062 -0.70819193 0.16802242 -0.94181454 0.021669379 0.09702839 0.53963834 
-0.54748964 0.75940627 0.07609447 0.3700343 -0.88724947 -0.67770696 0.056529153 -0.4591638 -0.4617342 0.34409538 -0.07065107 -0.38165405 -0.6706135 0.6049085 0.3500253 0.3518666 -0.08357872 0.120684825 -0.16857955 -0.1340135 -0.9140914 -0.7382585 -0.03595355 0.20897543 -0.036955677 -0.07311673 0.00080044067 -0.53488517 0.6074827 -0.13789804 -0.4544998 0.023797978 -0.99884635 -0.023698268 -0.11830257 0.6871474 -0.12046669 0.39958125 -0.30423692 -0.106768966 0.26541272 -0.2174634 -0.04784108 0.040792663 -0.6107124 0.21783784 -0.5831923 0.22017206 -0.19321257 -0.32345232 -0.014594805 -0.0825783 0.2835722 -0.6001798 0.9616289 -0.0020485756 -0.31111047 0.84664845 -0.377796 -1.067214 -0.59650254 0.54939145 0.5990178 -0.22379078 
0.18765816 -0.468334 0.24173397 0.0055781687 -0.17610738 0.108272605 -1.1588762 -0.83676547 -0.34909594 0.28465062 -0.23413263 -0.47760782 0.34358656 0.23763767 1.1066871 -0.40786582 -0.22533266 -0.10648746 -1.3491435 0.8849298 -1.1483595 0.110476345 -0.9740235 0.27126488 -0.116129674 0.5275831 0.1301738 0.03377809 0.27811676 0.13427725 -0.09985085 -0.8385794 0.21732397 0.6673402 0.08837033 0.17637292 -0.15096448 0.47258207 0.8507302 0.39436004 -1.1114687 -0.28894797 0.5439948 0.4848557 0.5365583 -0.0639779 -0.22389933 -0.21409573 -1.0159093 0.045587853 -0.029905006 -0.88660103 -0.32693535 -0.07934193 0.0069263247 0.44025227 1.0353035 -0.3695093 -0.43501765 -0.9356679 0.5573526 0.8631612 -0.8959016 0.59151155 
0.25168523 0.20985863 0.17822975 -0.0447035 -0.042834453 0.1301572 -0.85218 -0.21015063 0.28520083 0.22447002 -0.8180632 -0.37084088 -1.5721015 -0.9157302 -0.7021252 -1.0576494 0.15224788 0.6626026 0.7702256 1.1216847 0.47465065 0.05103095 0.00654191 0.05688947 0.05939422 -0.7005752 1.0859094 -0.59335816 -0.041565362 0.52767956 0.80230296 0.41459227 0.59967285 -0.2454726 -0.07849655 0.7294302 0.46246064 0.7837409 0.7788787 0.29365563 0.4158821 0.40056726 0.13192289 0.7128176 -0.20780332 -0.6650594 -0.05255426 -0.17802502 -0.01442743 -0.810697 0.9439871 0.88841134 -0.0017628912 0.1356 0.2863261 -0.1544482 0.44047615 -0.23771241 0.34775734 0.017723361 -0.04672041 0.33510584 0.4113254 -0.23252368 
0.6558078 -0.076455005 -0.1878491 -0.07555782 -0.02134122 -0.6512579 -0.95393646 0.70484966 0.2182458 -0.18892854 0.1809236 0.35219872 -0.56282574 -0.29704207 1.0461168 -0.9933031 0.6463959 0.27604526 -0.48661435 0.19105239 0.36107993 1.0412371 0.4347436 0.20917267 -0.68187577 0.68970704 0.74120206 1.5172868 0.12825473 0.22556558 -0.11484878 0.973348 0.18067946 -0.21505772 -0.1427918 0.6375367 0.3305442 0.72496647 0.1016426 0.29930943 -0.71815556 0.9602558 -0.10862595 -0.2463411 -0.24338278 -0.8629786 0.6471575 0.26969323 -0.52560437 -0.19658391 0.462037 0.3920125 -1.1462097 0.019471195 -0.14758044 -0.8080863 0.004480713 0.2864238 0.10079079 0.62196326 0.63885283 0.8713992 -0.50424564 -0.45223883 
-0.27590397 -0.9889301 -0.38429427 -0.34112296 -0.6704936 -0.82590646 -0.2144645 -0.5275501 -1.0241976 -0.46078315 0.1830457 0.20855832 -0.54892623 0.2753718 -0.39289868 -0.7037236 -0.23650485 -0.75755453 0.18057571 -1.1961865 -0.05321474 0.58156323 -0.5084054 -1.8976661 -0.8593076 -0.21072121 -0.3398984 -0.34375006 -0.1573767 -0.26799473 0.46143243 0.09676738 -0.86325246 -1.1195227 -1.6478262 -0.24070105 -0.35432604 -0.91156375 -0.69192433 -0.5056737 0.271972 -0.506806 0.10464112 -0.29326946 -0.59831387 -0.68125206 -0.31558618 -0.5766191 -0.43430483 -0.6582413 -0.5639104 0.10217518 -1.0551281 -0.7265852 -0.23227128 -0.83596563 -0.96494544 -1.5025035 0.41894972 -0.023943897 -0.2797213 -0.79367745 -0.7839889 -0.5752994 
-0.041924905 -0.3000267 -0.5827492 0.7859077 0.53931904 0.23407225 -0.95499754 -0.028172262 0.16651128 -0.58998543 -0.73349035 1.0843942 -0.023832684 0.42673776 0.69635284 -0.5059457 -0.46295828 0.27253887 -0.0708555 -0.33975783 -0.47196686 -0.37542313 -0.85303575 -0.31369612 0.35292944 -0.09938699 1.0481045 0.6077952 1.0371252 0.24613588 0.86805737 0.85013205 -0.48672816 -0.19923748 0.61763376 0.47362623 -0.2144802 -0.155123 -0.21626793 -0.09407876 0.43725112 -1.3186799 1.1735728 -0.10445244 -0.014804817 0.07581956 0.14774527 -0.17121837 0.47685668 0.15170024 -0.33332708 -0.32162097 0.7294579 -0.3319277 0.43776816 -0.15364893 0.6806156 -0.25214666 -0.07185093 0.5064292 -0.17777613 0.136946 -0.076721735 0.30510166 
0.5682575 -0.021668626 -0.2427506 -0.5358183 -0.19788605 -0.34104472 0.3636513 -0.027305814 -0.5881222 -0.23282066 0.36806813 -0.8670824 -0.6132324 -0.19800955 -0.5327795 1.0580466 -1.1670414 0.44894743 0.20367171 -0.0019119169 -1.0920353 -0.26083255 0.5344166 0.22952683 0.38469407 1.1692929 -0.8531104 -0.3513461 -0.7553712 0.6535357 -0.048262067 -0.63675493 0.3047047 0.30117232 0.05036892 -0.16560167 -0.7329679 0.4787958 1.078826 0.74347496 -0.8121025 0.42592904 0.34473023 -0.13875425 0.40534782 -0.19765468 -0.15406522 -0.1377383 0.6785256 -1.113674 0.1532872 -0.23914899 0.02116153 0.089304715 0.34966373 -0.16644374 -0.321969 -0.57767445 -0.6593601 0.06512953 0.053299382 -0.014530889 -1.2004646 -0.074680336 
0.7982241 0.3675693 0.17056118 1.3515608 0.99726343 0.73474157 -0.5777083 0.53462446 -0.0053808317 0.8255937 0.36706644 0.71733534 0.062829345 -0.30900943 0.289978 -0.45123783 0.43934742 -0.74748516 0.5211219 0.27169284 1.06019 0.41206184 0.002912358 1.1486677 0.8756766 -0.7538042 0.1981798 -0.4804519 -0.30688918 -0.10715847 0.12504949 -0.21644282 0.6374598 0.2924117 -1.0023679 0.3927938 -0.51139635 0.64813864 0.043182936 1.093077 0.009079251 0.63456184 0.20670989 0.05651907 0.5869139 0.20407331 0.27562124 -0.23514572 0.34114534 -0.030650323 0.027619494 1.1239461 0.55878484 -0.03765865 0.27176782 -0.32006443 1.0259088 0.052078225 0.35044152 -0.14725706 0.46462187 0.8604926 -0.080501825 -0.36410436 
0.2760982 0.31648213 0.17438555 0.8278135 -0.09474264 0.211265 -1.3251785 0.7926526 -0.6271184 -0.9928857 -0.9129874 0.042158745 0.31603423 -0.23111798 -1.1701976 -0.15702695 -0.82259655 0.3618854 0.281955 1.3687999 -0.028322168 -0.15084365 0.3023986 -0.18108086 0.26748076 0.05179471 0.23390234 0.10630238 -0.06369786 -1.803073 -1.1631323 -1.1514937 0.67858464 0.021078398 0.6357557 -0.7194308 0.5093712 0.54692894 0.6445614 0.21578516 -0.5611686 -0.19025654 -0.101293005 0.29478687 -0.103566706 1.2184778 0.07232779 0.06051688 0.11523569 -0.80293185 0.11838186 -0.17888214 -1.1469897 0.74600524 -0.23888865 -0.07775555 0.22901587 0.8006164 -0.16122288 -0.2844082 0.26804432 0.7381109 0.26479948 0.25443965 
-0.15011714 -0.69457436 0.22156727 -1.4428324 -0.9189975 -0.80503863 -0.29525557 0.87416685 0.32740822 0.047200657 0.14822252 0.07448638 -0.6493726 -0.32984617 -0.08399984 -0.040703904 -0.5331556 0.18669893 0.2303606 0.23278746 -1.320975 0.28594956 -0.25846803 0.45320874 -0.008368147 -0.39230195 -1.2119085 -0.21482103 0.36982438 -0.7361701 -0.09539076 -0.22612171 0.5716243 -0.033986986 -0.052987386 0.26677033 0.40011045 -0.35633233 -0.70052516 0.19684403 -0.077374645 0.44626477 -0.7821357 0.3684976 0.3842781 -0.12366672 0.6075558 -0.41107625 -0.10296223 -0.12629119 0.19430652 -0.23506291 0.52978975 -0.27737424 -0.03441361 0.24752401 -0.3331712 -0.44602323 -0.8866481 0.3090516 -0.08557095 0.57223034 -1.1145265 0.28465807 
-0.99165076 -0.5488596 -0.03652944 -1.3794106 -1.1795194 -0.32353923 0.2761244 0.9161591 0.47055638 -0.83951074 0.105641894 -0.4804808 0.70608026 0.55543774 -0.13349178 0.66404027 0.25326967 -0.54106796 0.5438688 0.04182531 -0.12836874 -0.36563498 0.4121233 -0.24729288 0.7498732 -0.30860332 -0.045388207 -0.16853428 0.62056524 -0.3835593 -0.39822316 0.48132357 -0.73239255 -0.07771839 -0.2618201 -0.030892147 -1.5870407 -0.23093753 0.41436556 -0.33408588 -0.8304146 0.51591736 -0.46367198 -0.7631373 -0.019951032 0.0815603 0.083904095 -0.36803493 0.2434254 -0.1734755 -0.6915285 -0.42732 -0.44714218 0.108486086 1.0389533 0.1751196 0.054877613 -0.67925745 -0.5136387 -0.6362642 0.12842008 0.2829623 0.21674244 0.00022660164 
-0.004039545 0.59841967 -1.005938 0.12781428 -0.82550895 -0.35994336 -0.48042986 0.573026 -0.47204134 -0.19444442 -0.2272228 1.2600248 -0.15235065 0.29920045 0.24679391 -0.14416525 0.06708189 -0.0133336745 0.05880317 -1.0088552 0.28346333 0.46409306 -0.20300893 0.16606387 -0.27533594 0.44693646 -0.0164921 -0.3784799 -0.33890894 0.48859045 -0.046236515 0.38764927 0.39405596 0.20144041 -0.4726817 0.048744395 -0.598595 -0.34529272 -0.3062819 -0.028459404 0.3839147 0.81124717 0.8958399 -0.11957134 0.56573147 -0.23072673 0.4302084 -0.079468235 0.25688568 -0.36047244 0.10961459 -0.29430658 -1.2794436 0.33362025 -0.8568705 -1.1312587 -0.49185938 0.4092848 0.036421515 0.76276004 0.056650728 -0.21385607 0.50403994 -0.20274913 
0.10644089 -0.09823901 -0.49116942 0.009940058 -0.41435668 0.6431963 0.16809513 -0.3374771 -0.3656305 0.052768003 -0.076383635 0.33797547 0.3469562 -0.14303897 -1.3146293 -0.6593584 -0.93999624 0.5745859 -0.11868515 0.25254047 -0.20394114 -0.002440129 0.3284797 0.5240848 0.31428805 0.7871745 -0.31747964 0.16272512 -0.4824438 -0.75514543 0.1603619 -0.21889672 0.23548007 0.3980014 0.06299846 -0.6143762 0.1814227 -0.14221019 0.57754403 0.09869047 0.87168074 -1.6309856 0.38824055 -0.46223378 -0.64865077 -0.59751636 -1.708334 -0.14753906 0.5393139 -0.13699988 0.58369577 -0.35444254 -0.017749926 0.28028774 -0.4187798 -0.02855706 0.9043254 0.71782315 -1.1962229 -1.3743663 0.9791896 -0.33329073 -0.27275854 -0.7399115 
0.017720113 0.0060661663 -0.49646094 1.1830009 -0.5680396 0.9718228 0.562748 0.58628577 0.23860714 0.233388 0.6187985 -1.2007476 0.95724773 -1.0844792 0.77181596 0.7826449 -0.20732184 1.0097876 -1.3605881 -0.036760468 0.18101065 0.3174374 -0.24501471 0.51522744 0.11052572 -0.7312072 0.012749832 -0.054808732 -0.7228361 -0.18885493 -0.74454755 0.12944834 -0.14292009 -0.44779322 -0.6415608 0.10885433 -1.2290721 -0.8276291 0.10332855 0.1565556 0.051386874 1.0219262 0.13028911 0.13290387 0.5726479 -1.0590571 0.10619559 0.8588571 1.0579476 0.18566975 0.22924662 0.38057745 0.25859734 0.2816786 0.22756492 -0.40954384 -0.3931615 0.38847318 0.41209134 1.0775651 0.2745851 0.1727313 0.09195624 -0.50194186 
0.5655482 0.46278557 -0.004166685 0.30755556 -0.35113165 -0.75340134 -0.37374583 0.2766961 0.24841438 -0.3528585 0.3890503 -0.25471804 0.32236862 -0.06711615 0.6903758 -0.45725366 0.5750357 -0.12055915 0.6856156 0.5171694 -0.34657943 0.007423135 -0.5276082 0.1883689 0.19320971 -1.1459447 0.39089242 -0.24004854 -0.23048078 -1.020069 0.28613928 0.51449615 0.4046522 0.06520192 -0.12040914 0.72329116 0.06928804 -0.25534055 0.27534956 0.85709953 0.98059154 1.0529943 0.3944083 0.09937651 0.066109516 -0.77902144 0.48127624 0.9519417 0.7001028 0.2668435 -0.39407492 0.13554321 0.2872732 -0.20238574 -0.50414735 1.0299444 0.12746769 -0.19954878 -0.3418889 0.4150096 -0.19406576 0.74505 -0.25310034 1.1638407 
0.60700005 0.14171892 0.2138823 -0.46703666 0.5945389 0.6946128 1.0395089 -0.46452618 0.47979924 1.0353252 -0.64451313 -0.12991802 0.28771076 -0.32806256 -0.42943695 -0.05495727 -0.16275686 0.10585405 0.124515004 -0.37473813 0.006047418 0.24586488 0.8331617 0.37265474 0.24396041 0.65710294 -0.40356022 0.87553144 -0.08296529 -0.24152245 0.84044886 0.2352595 0.13761425 0.049801126 0.264277 -1.3920535 0.3236853 0.49300048 -0.106076546 -0.20856641 0.7852678 0.12406947 -0.025263883 -0.25954744 0.2874049 -0.2385798 0.38894537 -0.42981145 0.16101198 0.37436125 1.0899748 0.43726206 -0.18782112 1.3277075 0.40046388 -0.07720916 1.1293143 0.89765406 -0.43320096 0.8622142 0.2924641 -0.10898823 -0.68314284 0.40392277 
0.11269688 -0.81865835 0.07089774 0.9296922 -0.5187788 -0.025143204 -0.5933998 0.963997 0.06025539 0.1600292 -0.63259053 0.5147163 -0.42684394 -0.71636033 0.97426033 0.4632701 0.25374827 0.5116102 0.21884735 0.00069525436 -0.12134212 -0.07848704 0.34572217 0.32777357 -0.29607838 -0.6450018 1.3784004 -0.36744118 0.32221994 0.3958136 0.46630156 0.90905565 0.38197136 -0.13362545 0.8598008 0.38355368 -0.14672595 -0.24405462 0.76149046 -0.025875824 0.18244591 0.5972498 0.6924239 0.7189347 -0.119381584 -0.95907885 0.07860116 -0.21084943 0.46423453 -0.61743385 0.9104189 0.37918544 -0.4933735 1.007603 -0.08699423 0.12601472 -0.087124705 0.6804615 0.5609811 -0.1901468 0.62746596 0.08510107 0.25584212 0.5519729 
-0.90827596 -0.8664598 -0.40461153 -0.15754414 -0.27537677 -0.031248316 -0.30309168 -0.43535703 0.123253025 -0.41716897 -0.57658166 0.15225393 -0.3178111 -0.23814406 0.11809211 -0.29231754 0.9551236 -0.64856416 0.33190727 -0.7347313 0.6094761 0.44814608 -0.03495242 -0.11994411 -0.9194586 0.591912 0.5822414 0.4538319 0.65526974 -0.2611517 0.5688853 0.9387906 -0.017269053 -0.44170186 0.18686719 -0.24801672 0.3398916 0.6517377 -0.34960115 0.1985543 0.6426586 0.83707505 0.59554464 -0.20299113 -0.34028065 -0.19450814 -0.13996327 0.0058602677 -0.039662704 -1.2727246 -0.37842962 0.80861855 -0.5260048 -0.9724549 -0.8538179 -0.12598218 -0.49113402 0.7414118 0.50349396 0.27399856 1.0024229 -0.69710517 0.39828107 -1.2284255 
-0.17923458 0.4680714 -0.2801978 -0.5087469 0.8379977 0.5200783 0.06753566 -0.12594634 -0.0009527783 -0.5478317 -0.27122512 -0.15923095 0.45800152 -0.13709852 0.3582632 -0.7625255 -1.0560424 1.0049127 -0.15810287 0.18973659 0.4349209 -0.5272237 -0.2020028 0.7529173 0.35274172 0.12206527 -1.0773082 -0.16644947 0.784923 0.3746805 -0.17485955 0.18554401 0.43501294 0.3764675 -0.26365322 -0.58877397 0.04043136 0.6536203 1.0815526 0.20119922 -0.74322855 0.62248814 -0.70585406 -0.032436237 0.3183007 -0.5064575 0.20363286 -0.21156538 0.9817086 0.26039898 0.44159636 -1.0272373 0.055741064 0.14010441 0.6835093 -0.43091342 0.6956776 0.78195715 -0.8068662 -0.19745056 0.5842044 0.9559826 -0.4645383 0.8386582 
0.312713 0.59527636 0.4707142 0.83095664 -0.8583157 0.29698125 -1.7804799 0.6573841 -0.11888565 0.60243803 -0.3910195 -0.13423638 0.068631776 -0.5011486 0.32500607 -0.25953338 -0.07547165 1.2624184 0.6210809 0.92472917 -0.61787677 0.106946506 0.6950583 0.48256364 0.72187096 0.46696573 0.28209904 -0.8731728 0.15212645 1.2989802 0.77144843 0.6225921 -0.18057856 -0.46772894 0.1641492 0.2474224 0.70605886 -0.23565926 -0.4431453 -0.530746 0.35396263 0.105775386 1.0045117 -0.17958704 0.13200253 -0.01794362 0.27648517 0.20640032 0.3743499 -0.11834002 0.11465722 0.0954217 -0.30418217 0.0384226 -0.9737623 0.53149873 -0.35300875 0.46099564 -0.20602766 0.42992786 -0.25963736 1.0057311 0.315124 0.40555772 
0.25421003 0.4547036 -0.23128724 0.35023695 -0.42053884 -0.37991375 -0.78645265 0.6711728 0.046270467 -0.0120741725 -0.35015526 -0.5383987 0.10329063 0.5910553 -0.35096008 -0.47653377 0.46548447 -0.15476723 0.624228 -0.3898737 -0.2254237 0.17691949 -0.5709708 0.12721546 0.39838207 -0.4201711 -0.005728712 -0.5735191 -0.35494515 0.6224089 0.36380318 0.025131432 0.5770684 0.0865353 -0.039671317 -0.21456762 -0.4092583 -0.5405847 0.005753208 -0.98650706 0.13683142 0.029196737 0.6539465 -0.03765549 -1.3202925 -0.46553096 -0.29788306 -0.55264276 -0.025894409 -0.70310044 0.32496193 0.5408222 -0.88587034 -0.7509062 -0.22125691 -1.4097575 0.50652146 0.22125313 -0.20600599 0.46254677 0.37647155 0.19254589 0.5331917 -0.20183027 
-0.5868996 0.43810943 0.6551509 -1.0408254 -1.1861181 -0.7080837 -0.4398312 0.09741019 0.33562547 -0.3308513 0.17941877 -1.6241472 -0.077323385 -0.21363454 0.46530327 0.09649663 -0.14093025 0.56880116 -0.63337636 0.04196248 0.12750752 0.39171144 0.36511177 0.19915164 0.50188535 0.47333148 -0.5185988 -0.69901097 0.024272753 -0.04267957 -0.5214645 0.082365714 -0.16669047 0.0072865007 -0.2577075 0.329811 0.2796379 -0.18316776 0.8324778 0.0106751975 -0.4153754 -0.1899451 -0.33296144 -0.39248225 0.6738519 -0.16221413 -0.19440003 -0.063051306 0.03154564 -0.03671645 0.98673266 -0.52235496 0.16690329 0.38579762 0.59521276 0.068215236 -1.6116033 1.2636445 -0.02202282 0.46518034 0.13321812 0.19263548 0.0010258366 0.36675313 
0.59113437 -0.7321675 -0.3129899 0.1812449 0.28472367 -0.05564493 -1.3099672 -0.8897337 -0.83713263 -0.9929605 -0.42773572 1.0343041 -0.07324074 -0.044909395 0.784265 -0.74829084 -0.2462415 0.23597226 0.52484095 0.23692785 1.0195417 0.8529917 0.17786178 0.27417436 -0.21778087 -0.046551555 0.8923953 0.036581818 0.378661 0.25558996 0.79788715 0.16015635 0.29324123 -0.2603386 -0.53414357 0.7541635 0.1827039 -0.9291204 -0.14161205 -0.21854258 0.26511815 0.048708946 0.08676645 0.76338094 0.96288556 -0.30302793 0.5957295 -0.018104274 -0.21655546 -0.09399174 0.69287866 0.9065209 0.19762501 0.21798122 0.14200728 -0.63619 0.18737435 -0.028697116 0.62125903 0.1760102 0.1586844 0.87854683 1.412223 1.1325006 
1.1944194 -1.1600314 -0.43395773 0.24901007 -0.45260796 1.0237733 -0.2883067 0.40099478 0.33778304 0.028476767 -0.934479 -0.2839967 0.09806376 -1.2617823 -0.01830672 -0.08502397 0.14281745 0.2924846 1.074631 0.53448284 0.34655088 0.3892726 -0.14373478 -0.3159882 0.04538679 0.37863213 0.3080992 0.84762174 -0.08568279 0.5227127 0.459419 0.107215345 -0.30801263 0.664422 -0.56155634 0.07898212 0.029936047 -0.28756914 -0.52701145 -0.72542745 0.24756393 -0.23298705 0.999155 -0.47563004 0.8925824 -0.29464015 -0.71709806 0.12302105 0.03674483 -0.6650874 0.2226146 1.034264 -0.162418 -0.17744066 -0.69472086 0.16472638 -0.35518804 -0.6749849 -0.20940822 0.6264949 0.6453656 0.05790397 0.053176563 0.086872384 
0.9063098 0.8787425 -0.03079391 0.44108304 -0.6860465 1.1595429 0.0660994 0.3161401 0.24853182 0.6285344 0.36989814 -1.4364959 0.5475921 -1.2582637 -0.26380196 0.2206596 -0.13792644 0.7707885 0.20907223 0.8339517 -0.22052422 -0.7356551 0.34971705 0.8475539 0.37814596 0.45298296 -0.6911717 1.0096434 0.1792905 -0.64271224 0.24974056 -1.3447334 0.5126128 -0.050285574 0.5045207 0.26860794 0.45901155 -0.022081373 0.5033884 0.45173007 -0.652243 0.29817775 -0.3243753 -0.37657723 0.13164233 -0.20577736 -0.897751 1.419688 0.6121042 1.045712 0.21693917 -0.38633296 -0.16111052 0.00043972273 1.146179 0.13224486 -0.012331661 0.11292781 -1.3319491 -0.25124514 0.24975172 -0.32290298 0.3911403 0.30645812 
-1.2234721 -0.77120847 0.023787338 -0.047400396 -0.61352617 -1.0967053 0.25918323 -0.67469573 0.5285962 0.62794435 0.289376 0.48084897 -1.4124535 0.5924409 -1.1349844 0.2690891 -0.8026736 -0.32712033 -0.13201359 0.314137 -1.808398 0.24274877 -0.89010173 -0.1382101 -0.44509685 -1.5663033 0.031225784 -0.3730779 0.284317 0.0052098446 -0.17399423 0.25759622 -0.5119715 -0.92583054 -0.31852755 -0.14154442 0.24435446 -0.7383539 -0.14042062 -0.15042779 -0.043888304 -0.071444385 0.0814229 0.6946743 -0.50445414 0.22460155 0.2901177 0.1681676 -0.53228 0.21887891 -0.33557206 0.34874868 -1.3221984 -0.13058607 0.21855322 -0.3444277 -1.0405542 0.13386288 0.24639419 0.3589323 -0.1402625 -0.7694319 0.19369137 0.14304823 
0.58850616 -0.10636592 0.6686489 -0.97594815 0.10669741 -0.27180928 0.5994525 0.36184093 0.66623825 0.6270319 1.0096357 -0.024721257 0.49952504 -0.30166355 -0.6416267 -0.15652123 -0.020477917 0.07259113 -0.4452977 -0.29269955 -0.73708993 -0.8340203 0.4739936 -0.11384113 0.4451819 0.0793422 -0.37919456 0.3550902 -0.67641515 1.0693816 -0.19376384 0.084653854 -0.3192949 0.50086635 0.37897834 0.19670509 -0.03253096 -0.034024134 0.43993554 0.4110025 -0.57721555 0.16846654 0.040842317 -0.15745047 0.48757085 -0.53956103 0.16907954 -0.60002685 0.761722 0.786322 0.120880745 -0.6309089 -0.46414527 0.5782393 -0.62074655 0.6210178 -0.7583776 -0.48859847 -0.14773244 -0.0972673 0.64487004 -0.47385442 0.24350522 0.60052264 
0.44979566 0.38282734 0.098065466 -0.189925 -0.35088825 0.19423327 -0.3931713 -0.61531115 -0.058541365 0.01957581 1.1829748 -0.72857267 -0.245562 -0.0036692987 1.2688197 0.27360392 0.15707916 -0.6704398 -0.17995527 -0.14155316 0.24978063 0.051698353 0.24296941 -0.09964165 -0.0725007 -0.8431251 0.11977485 0.2954269 0.12190219 0.44851178 -0.48092544 0.007195898 0.6497674 0.16511184 -0.84857434 -0.16034237 -0.7979841 -0.13550195 -0.26283765 0.2947091 -0.78300893 -0.37338674 0.065029934 -0.45921823 0.6732441 0.3874925 -0.19670036 0.2753379 -0.95605946 0.26915157 0.36382946 -0.63848627 -0.039348666 0.4938761 -0.09908566 -0.356584 -0.018044189 0.060606446 0.03476888 -1.1262099 -0.96768105 0.8521994 -0.36868775 -0.23852456 
0.6797218 -0.28064266 -0.43067345 -0.45261446 0.18596575 0.16196169 0.017653216 0.032125223 -0.36754286 0.16474733 -0.41128287 -0.42726052 0.42386788 0.3109076 -0.9950395 -0.60527676 0.33389452 -0.27657077 0.3121254 -0.42318267 1.1735884 0.39584878 0.28428802 0.17022014 -0.62609965 0.915726 0.7585507 -0.42495084 -0.048745744 0.1095796 0.36132595 0.29494664 -0.19595896 0.46141732 0.21502708 0.32652083 -0.6629588 0.15273297 -0.25384027 0.091111735 1.2281488 -0.5692366 -0.2950609 0.5037371 0.1905541 0.3817848 0.4963301 -0.9673719 1.017036 -0.90439606 1.0450157 0.05222472 0.32287714 1.3588394 -0.65240866 -0.48198906 0.33828214 0.73762095 -0.23882738 0.34580174 -0.53871036 0.16702524 0.42430013 0.6770895 
0.5460805 0.28194532 0.049712803 0.43810835 -0.61510694 -0.5835572 -0.49816802 -0.47412187 0.1883237 -0.4185347 -0.11840689 -0.04939922 0.6552062 0.18734013 0.3488662 -1.2455953 -0.042676255 0.21470587 0.15878549 -0.10975953 -0.25379717 0.027983619 -0.04615786 0.17072527 0.3445758 -0.098293275 0.25662452 0.7153923 0.2677918 0.46624663 0.2793915 -0.26107785 -0.50208867 -0.83469874 -0.50181794 0.4509476 -0.6671467 1.0575184 -0.6290418 -0.12582943 0.39508906 -0.17843875 0.24979532 -0.37842634 -0.2787571 -0.3930169 -0.8901702 -0.28520063 -0.20109387 -0.40399122 -0.1239948 1.2541965 -0.8884998 -0.2571676 -0.37923118 0.8977796 -1.1004438 0.26746663 0.28338438 0.8434957 0.37349984 0.28706446 0.19562982 -0.5118222 
0.12507251 -0.51783156 -0.47949 -0.5354989 0.053451102 -1.2160294 -0.25569898 -0.84392554 -0.6808649 -1.0818559 -0.46105897 0.4245214 0.75536406 0.19979745 0.12761204 -0.74468386 0.90717274 -1.2211832 0.6660985 -0.17129841 0.39443284 0.5474103 0.50643826 -0.12376111 0.3537525 0.3059434 -0.2472815 -0.40094844 0.8088532 -0.84611565 0.4703739 0.52414 0.22131765 1.1894008 -0.42223367 0.34968057 0.9872952 0.5776491 0.24709243 0.45661885 0.12858698 -0.12456159 0.28516033 0.29518858 0.5481956 -0.41437507 0.80078137 -0.0943155 0.44218826 -0.25358087 0.20645688 0.34538126 0.22895046 0.5176027 0.60844773 -0.1677021 0.46103644 -0.559493 0.61253023 1.1475008 -0.08777905 0.0638609 1.2054474 0.16022375 
0.4267742 0.5499268 0.11432651 -1.060076 -0.31217486 -0.018272102 -0.20481305 1.3687663 -0.1612893 -0.33762178 -0.5828806 0.033059582 -0.09139132 -1.3573848 0.7789406 -0.29146752 -0.1260209 -0.4806762 0.8841705 0.2322838 0.2886543 0.18963522 -0.92251444 0.60449344 -0.6628088 -0.14166111 0.8392765 0.5758085 0.30501825 -0.10466648 0.19174625 0.20063272 -0.30136752 0.102862924 -0.09474613 0.5458215 0.070769824 0.25095224 0.5513593 -0.37805623 -0.26341498 -0.30055976 0.6035568 1.0553662 0.23868446 0.25613457 0.34014687 -0.43347356 0.0930476 -0.07438373 0.40458435 0.2062657 -0.4274955 -0.21997364 0.0040114 0.4563417 0.3577934 -0.4933523 0.39964363 0.10512587 -0.54723346 -0.22183332 0.5863951 1.022795 
0.28590223 -0.66193885 0.54176277 -0.20318627 0.25960618 -0.107559346 -0.24169692 0.26461032 0.4546588 -1.54886 -0.51218677 0.43686092 0.19333895 0.76600415 0.3088472 0.13393407 0.573812 0.25751808 -0.06534713 -0.1889473 0.44772345 -0.3754315 0.38509274 -0.44686368 0.49678186 -0.0567524 -1.508675 -0.4810104 0.5196932 -0.41472813 0.031617556 0.0965555 0.8532055 0.13361137 0.21352877 0.63674283 0.17369938 0.4562941 0.7288512 0.7532581 -1.0188465 0.010222541 -0.18387505 -0.329062 0.053098507 -0.39854777 0.26041418 1.2119129 -0.17787802 -0.3465821 -0.20959802 0.76482457 0.13943097 0.4480285 -0.12698857 0.68910325 0.52894527 -0.71909374 -0.47238842 0.5974877 -0.28710097 0.23269695 0.25533882 1.1813236 
0.29738542 0.79787856 0.40744337 -0.41816857 -0.5532244 -0.061537076 -0.25122026 0.8039631 0.05650957 -0.65827787 -0.027642345 0.6126305 0.077782184 -0.808934 -0.33716282 0.11316626 -0.33185852 -0.532806 0.19248374 -0.41419354 -1.0644016 0.3271312 0.6214448 -0.38254654 0.8038674 0.53385115 -0.422877 -0.21683109 -0.6536 -0.53245205 0.73006755 -0.5905654 -0.15936437 0.5837048 0.06451403 -0.43909302 0.121685185 -0.0069312598 -0.14351617 -0.07939655 -0.33291355 0.29617515 0.14208212 -0.31152338 0.048785076 -1.5676693 -0.30660892 -0.9802303 0.25854588 0.12887155 0.2829885 -1.1133584 -0.285921 0.27065462 1.1947682 0.11147051 0.4160505 -0.2353969 -0.2829522 -1.2467657 -1.0065722 -0.060011607 -0.5101836 0.22781278 
-1.1545643 -0.33219114 -0.45452207 -0.7713884 -0.14564839 -0.05321222 0.2756566 0.0505989 -0.063017584 -0.34008157 0.24371158 1.1577685 -0.23662381 0.83286047 0.48795247 -0.03645487 0.69027513 -0.16321515 -0.94773984 -0.14336911 -1.777985 -0.2065847 1.087328 0.1058492 -0.042049758 0.121884584 0.1178812 0.98343825 -0.36437473 -0.86455345 -0.18979643 0.34137836 -0.25221074 -0.04735309 -0.6384943 -0.40569788 -0.36323953 -0.07119505 0.30546156 -0.21772496 0.03331347 0.017797904 -0.18557404 0.013634038 -0.20071313 -0.43023974 -1.391882 -1.0060356 -0.53256124 -0.046303116 0.71308273 0.5961421 0.41590178 -0.8909808 -0.38367787 0.79306865 -0.48398358 0.11244276 -0.96031404 -0.99295455 -0.025026694 -0.04216594 -0.9870291 -0.0704884 
-0.12525 -0.07789508 0.8222983 0.18972602 -0.6794685 -0.67418176 0.54891664 0.7499451 0.4432464 -0.883145 0.38624352 -0.16230378 -0.8777234 1.4473388 0.16428173 0.026478065 0.46626693 0.036101915 0.16315311 0.041110557 0.09624415 -0.02317441 -0.56965977 -0.0874192 0.56830806 -0.39424863 0.62769055 0.71606344 -0.087701865 -0.052932616 -0.32309628 -0.40107447 0.45158824 0.25357008 -0.2779731 -0.20971718 0.36765167 0.3041757 -0.14472014 0.0808681 0.07418019 -0.15748642 0.15964063 -0.21601583 -0.16217527 0.5328597 -0.32216284 -1.408477 0.6043518 0.5705295 -0.14957795 0.7725004 -0.09223479 0.3655022 -0.37704098 -0.53977615 0.41397893 -0.34845582 0.17995419 -0.25220934 -0.45772636 -0.94524866 0.35580468 0.28843135 
