0.76584435 1.1845965 -1.107963 0.65439755 -0.41078413 1.7314398 0.7743688 0.237422 0.7145201 -0.30142707 -1.5377693 -2.5359294 1.6840388 -0.44179365 -1.0335162 -0.2023465 -1.522989 0.10367956 0.008630439 0.6221695 -1.0688431 0.12833601 1.1362869 -2.502518 -0.85768193 1.7171162 0.5993141 -0.256593 0.7822231 0.9213118 0.13394073 0.07493522 -1.0818113 -0.67866486 1.106811 0.30292913 -1.021653 0.24778554 -0.15521276 1.0428314 0.44495213 1.0334553 0.5338624 0.810528 -0.8582725 0.6175142 0.60473275 0.5213121 -1.4963347 -0.25936142 0.3599232 0.35221475 -1.2212869 -0.440799 -0.38075626 -0.5459416 -0.78007865 -0.117598094 1.3588805 0.9844956 -1.5861977 -2.0071151 0.26411432 -0.56803125 
-0.9599788 -0.3043399 0.3677824 1.7351304 -0.09207332 -0.96249634 -0.44632104 0.5481906 0.22055401 0.6253477 -4.0762806 -0.25393346 -1.6247684 0.25444582 -1.2026107 1.2814087 -0.28015754 0.035724603 -0.62620836 -0.62704074 0.886872 0.20641154 1.0491198 -0.045562584 -0.030791044 -0.15634768 -3.303123 1.0856537 -0.7821453 0.95625347 2.3959913 0.9997134 0.21185008 0.9893855 -0.81159204 -0.2511997 -0.26230326 -1.3956981 1.8139552 2.0029874 0.5576099 -0.03713523 1.6223592 -0.42751366 0.7346574 0.17771165 1.5047588 -1.5378335 0.9810417 1.3102579 0.549023 0.15956125 1.4793077 -0.7185753 -0.6235038 0.6740774 1.1287662 0.6612504 1.9672376 -0.29175735 0.2695186 -0.9547897 1.3185622 0.1006677 
-0.5821162 -0.10119083 0.297274 0.6562939 -0.9421539 -1.5910176 -0.7284989 0.78457206 -0.7064036 -1.2492889 1.2665241 -1.5762908 -1.3055432 0.9991835 0.5728296 0.9129905 0.08027797 0.18812867 -0.6892039 -1.0173827 0.18759218 -0.5207169 0.011569483 1.1017671 -0.8406703 -0.7142724 -0.9351079 -2.458895 -2.5231936 0.14569262 -0.46776515 -0.8828305 -1.4040997 -0.28006402 -0.37622553 -0.59741527 -0.80350643 -0.4019761 -2.2433362 -2.5073922 0.42537317 0.13952404 0.6351318 -0.8764376 0.27748096 -1.2095281 0.7353763 -0.33818987 1.0039779 -1.1238328 -1.4970905 -1.545068 -0.7263125 -1.3151745 -0.33974466 -0.42644382 0.47288093 -1.0265133 -0.184707 -0.14134745 -0.5837066 -1.1775138 -0.28006354 -0.23932208 
0.27898237 0.057750277 -1.301151 -0.1685403 -0.72021383 -0.76387465 -1.2883693 0.23618321 0.4272551 1.7340547 0.2908901 -0.2873302 -0.05332306 -0.12216824 0.6918476 -0.061786834 1.5409055 0.9733153 -1.526679 -0.28178763 -1.1818027 0.37596646 0.10444891 1.4055771 -1.2192278 0.34656113 0.5926205 -0.067075364 -1.1475714 -1.6516036 -0.18649916 -0.44146124 0.85623944 -1.6671778 -0.46218717 -0.88070214 -0.5111074 -0.2065035 0.48893118 1.1421705 0.43845198 -0.9566214 -0.6098245 -0.8306993 -0.4730464 -1.2863191 -1.2503446 -1.5355643 -0.45975375 0.99685836 0.9048482 -0.7122216 0.75375235 1.0079938 -0.05222005 -0.36127186 -0.33604398 -0.02912141 0.09106532 -2.612893 0.3004025 0.22872064 -0.27267402 -1.7998549 
0.5339966 -1.0711994 -1.9391458 0.5702617 -1.375238 0.0959183 0.08893206 -0.7500742 0.011661831 -0.018984431 -1.1923549 0.23596339 0.79872364 -0.10789708 0.7440826 -0.23693074 0.31579444 1.7415951 1.6543647 -0.20829554 2.5330186 -0.8670765 1.8700988 -1.6406534 0.11274827 -0.038894556 0.59590226 -0.41351068 1.8759272 -0.09057347 2.0995116 0.14101028 0.33813098 1.3145001 -0.26543912 -2.1410127 -0.8722517 0.55572903 1.8174253 -0.13112378 0.9217222 -1.2500976 0.5737447 1.3161194 0.5923554 0.3500562 -1.6797479 0.31762412 0.069372155 -0.40595138 1.5631409 -1.3567464 -1.1908537 -1.3068043 -0.47727576 -0.8297189 0.7822317 -0.40619567 1.270195 -0.2571221 -0.96942306 0.27358907 0.36573285 0.6377697 
0.13362093 -0.9921512 0.13854264 -1.1222429 0.8178034 1.2434773 1.5141159 -0.24787907 0.22156501 -0.52001727 -1.9215566 -0.2563245 0.0497836 -0.17384054 0.59499466 -0.1902116 -1.7890595 -0.27576438 0.38449323 -0.3755174 -2.1749616 0.45444998 0.2614819 -0.9317646 -1.6541293 -0.68941855 -0.6569215 -1.1724083 -0.722848 0.24507175 1.0011551 0.11831461 1.2208142 -1.3813566 1.1759981 1.4159073 1.5306656 -0.060062528 2.29522 0.23468877 0.90795827 0.66936123 0.013491772 0.53115886 0.90041816 1.536508 -0.062207893 0.7352013 0.46717888 0.66505474 0.74807405 0.842086 -0.6332682 1.2060887 -0.37785 -0.9375727 -0.03382945 -0.8061281 1.7243859 0.7882826 0.009965438 0.7074248 -0.15693359 -1.5041795 
1.0983313 0.9587614 0.43113664 0.984686 2.3853183 -0.933291 -0.6984928 2.157576 1.5356055 1.9200207 1.5784125 -1.3304013 -1.8146702 0.48755822 0.09868608 1.6264806 2.116637 0.5155675 -1.7551222 0.7114985 -0.67854154 0.7435662 2.5148182 0.6228399 0.43871364 0.9909225 0.25809816 0.068782695 0.7184835 0.95691586 2.1018093 -2.4296672 1.4254017 -0.46319205 -0.121749245 -0.3537311 1.6115831 0.3873101 -3.1823487 1.4756218 -8.275033 0.64943725 -1.5446029 -0.41390482 3.1541147 1.2948027 1.89663 -0.44927782 -0.95402247 0.8521356 0.7092097 1.6734519 2.5122104 1.7637452 -0.9921756 0.8152979 1.6080023 0.22988501 0.33461386 -2.3982954 -0.1739883 -0.6386257 -0.47469446 0.8485037 
-0.20395304 -0.47497258 -1.5843589 -1.6410499 0.260398 0.40907472 1.1999319 -1.0104908 0.09294142 -1.7958492 -0.3699802 -0.8009951 0.10540754 -0.19426782 0.6570443 -0.7966283 0.06845424 0.11035281 1.1751032 -1.627213 -0.960845 0.2778611 -2.3516579 0.7415926 -0.9476982 -0.39878735 0.9270065 1.1568947 -0.527385 0.19575593 -0.1880721 0.14237222 0.20140857 -0.41267103 -1.537591 0.89434457 -3.55514 -0.35930878 0.018744037 -0.65833914 0.8449827 -0.9590915 0.5749123 -0.97833973 -0.2488408 0.5019707 0.1628435 -0.009148726 -1.1443315 0.8802681 0.83226115 -0.819586 -2.8842049 0.28268558 -0.48316216 -0.6712348 1.1748073 0.8682579 0.3082309 0.6798797 0.44316274 1.049366 -1.2024975 1.3241802 
0.31505242 -0.913025 0.15423186 0.2680181 -0.6045634 0.53479344 -2.1040523 -0.5594789 0.7748479 -1.3733281 -0.75516665 0.6228855 -0.44149336 0.056243926 0.7572208 0.022693332 1.3275771 0.5286646 0.46968338 1.5946305 -1.630738 1.7533785 -0.3418137 -0.9833879 1.2950696 -2.4117548 0.3509511 -0.9230894 1.5812297 -0.7643662 2.231209 0.7803445 0.42126495 -0.1699474 2.5383644 0.7470026 1.0726397 -0.74687463 -1.0668273 -0.7468088 0.043641843 0.20183608 0.9368906 -0.40032005 -0.16552368 0.8355644 -1.1226661 0.6392365 -0.20844762 -1.3465635 1.465989 1.3613554 0.87476784 0.5718302 1.7700018 -1.4288064 -0.98016137 -0.748525 0.17799096 -0.48466298 0.82876366 0.29708496 0.014387158 0.13118838 
0.2978396 0.016222749 0.4251787 -0.88598794 0.31636754 1.114218 2.059764 0.6623538 0.15210457 -0.649363 -0.08990012 0.444934 -2.048422 0.06502098 0.81042856 -1.7446125 -0.82810473 -0.6243134 0.75601614 -0.8367 -0.6017136 0.90792626 0.1740976 -1.2222288 -1.5996069 1.0506805 0.6064698 -0.047990654 1.221177 -1.7905452 0.7094833 0.5274047 0.6240506 0.5652038 -0.07144021 0.079368174 0.7041278 1.029837 1.3138775 -0.5866386 1.0469471 -1.1871419 0.88652956 -0.0132540185 0.31079677 1.3511761 -2.248067 0.009920149 0.34784722 -0.25937504 0.15515067 0.61649776 -0.6475813 0.34086403 -1.376035 0.16300733 0.33839124 -0.34313038 -0.4981059 1.2920386 -0.58654046 1.9501755 -0.333107 -1.4308447 
-1.3597914 0.9633452 -0.078054406 -0.22747234 0.08895248 0.70627755 1.0107101 0.4609634 0.49420437 -0.035415288 0.7146738 0.042324413 -0.90018183 0.5397112 -0.26693386 1.714027 -1.2107519 0.09307251 -0.7758364 -0.041278686 -1.3876121 -0.95855564 0.11491343 0.6878596 -2.2447686 -0.24531059 0.5425398 -0.553367 -0.66415066 0.06845145 0.25396726 -1.0119364 0.35965368 -1.135017 -0.16158205 0.012064098 -1.829953 1.4968065 -0.6504304 0.016229333 -1.2775947 0.24328434 -0.09007846 -2.8644664 0.18831316 0.011995714 0.9173041 -0.74010575 -0.9695801 -0.815817 -1.7863115 0.5387556 -0.64340484 0.17704189 0.2933581 0.3983001 0.36431974 0.018275995 0.23509464 -2.2047248 -0.21721274 -0.4075696 -0.37591857 -0.71179664 
-1.8779807 1.5396584 0.68833035 0.17109582 -0.22689539 -1.2539873 0.002784693 -0.9194418 0.6058203 0.90193886 1.240475 -2.2240045 -0.0909891 0.95753646 0.044672925 -0.31607056 -1.3886789 -0.689881 -0.9863379 1.0656064 -0.7628814 -0.9452124 0.6838179 0.14207739 -0.017352805 -0.9045097 0.3489205 -0.08846066 0.7157193 -1.4047452 -0.47774783 -0.58959264 0.709974 -0.09210274 0.98198664 -0.26782435 0.13627289 0.36527577 -1.1335951 0.007131962 -0.9413545 0.9093862 0.053791426 0.6512656 0.83761936 0.17333068 -0.89463043 -1.4303926 0.95905423 -0.7045048 -2.2831748 -0.57441103 -0.8624992 1.415178 1.0434327 -0.59136915 -0.8115073 -0.13251433 -1.1891929 -0.27663904 -0.004059906 -0.84317833 0.53264505 -1.7462603 
1.3524684 -0.5521533 -1.2318505 -0.46722642 -0.60459155 -0.54351616 -0.30717817 0.4740471 -0.43682817 -1.2643138 -0.56976366 0.43727267 -0.8854584 -1.199355 0.2922059 -0.6998872 -0.51526934 -0.356597 0.5207093 -1.0332309 1.7225919 1.8593065 -0.4849986 0.061525397 -1.0609 -0.70258987 0.8472531 0.107684046 -1.0766844 0.45366606 0.77200675 0.82262266 -1.4482787 -1.2227389 -0.5520244 0.35379264 0.6544725 0.067398876 0.63158375 -0.19693008 0.90010226 -0.14483416 0.41625586 -0.402132 0.46486685 0.029251117 -1.5745597 0.08383262 -1.2054642 0.3641873 1.1296958 0.9549727 -0.97933793 -2.4731684 -1.6954608 -1.9117798 -1.2429701 -1.6367434 0.7170578 0.7593993 -0.89529264 -0.871108 -1.082621 -3.630842 
-1.2278256 0.91209716 0.94855666 -0.34200326 -1.3238093 -0.6070523 0.40319297 1.2533617 0.75035334 -1.6229984 0.9462699 -1.1767217 0.75149035 0.064194635 1.0214027 0.23138042 0.3748432 1.2993071 -0.30285138 0.8425291 -1.7718081 0.16730067 0.67080027 0.5930693 -0.30426908 -0.5622692 -3.4679065 -1.5878348 -0.49062467 -0.6210164 -0.22651652 -1.4593523 1.3913085 0.89287627 0.04182595 0.80179346 -0.31610867 0.32103994 0.6044368 0.04734487 -0.14075655 -0.16710468 -1.1244881 -0.57352084 0.2098835 0.22125173 -1.6420585 -0.95032704 -0.29776174 -0.16106531 -0.7525648 1.0996397 -0.18415508 0.9460598 0.2595968 1.1328648 -0.07235248 0.6269529 -1.3217074 -1.5928005 -0.036408346 -0.61637306 1.0081621 -1.07211 
-0.7453123 -0.063675635 0.23761526 -0.8657893 0.47672284 -1.134049 -0.5094348 0.047429048 0.6618029 -0.13731146 -0.35330862 -0.4925093 -0.4460564 1.4808903 -5.1288548 0.20871638 -1.5910789 -1.3277797 -0.5299259 0.7055882 0.38024902 -0.79085135 -1.7552714 -0.9351114 0.5268899 0.71387535 -0.3325945 0.2635957 -0.48201102 -0.5435441 -0.27111703 0.33994594 0.5283748 -0.86886925 -1.2124997 0.063686855 -0.92031455 -1.4712065 -1.2974299 -1.0247099 -0.64213353 -0.09715739 -0.41585967 -0.6714821 0.095592946 -1.1342008 -0.2308395 -1.8074005 0.18908814 0.042921282 -0.41698003 -0.029905166 0.6683085 -0.9242725 -0.01992205 -1.5408634 -0.20937072 -0.79635227 -0.11244579 0.5838445 -0.064324975 0.39718625 -0.095804885 -0.4032349 
-0.17857453 0.83253956 -1.2084543 1.0289316 -0.60210013 0.7189338 0.6245611 0.6370165 -0.84627134 -1.0895225 -2.7898965 1.5406375 1.7259241 -3.0464272 1.9111506 0.5187946 1.7041948 0.8351099 1.4344472 1.9367018 0.017959166 2.027498 1.4132673 0.15823191 0.7742784 -0.62958235 0.7931837 0.54575765 -0.34921607 0.8228901 2.7174518 1.5807999 1.1507052 1.1906949 0.438754 -0.41862506 0.49984354 -0.22938159 0.5030548 1.7123084 0.4285619 1.2216868 1.0559546 1.4459887 0.94729555 0.56032884 0.9059842 0.43800125 0.2620755 0.84043926 1.6713519 3.1326163 0.28269976 1.2429883 0.39297596 -1.382087 -0.034376286 -0.2288663 1.2691046 1.0735095 0.18367834 -0.0887283 0.69015485 1.0565411 
-1.1531432 1.1236994 1.2510449 0.44846514 -0.36155334 -1.270259 -0.5098824 -0.63499105 0.19714066 -1.8545699 0.92665344 -0.11437031 1.1289545 -0.17817761 -0.33325157 0.025695406 -1.0232587 -0.040945027 0.7667764 0.16195822 -2.1544166 0.5542762 1.4791595 -1.0221634 -0.58054936 -0.2919565 -0.4562038 -0.26596534 0.54034394 1.2033658 -2.4860556 -1.9216024 1.1848439 0.46491948 -1.191403 0.8183223 0.14580087 -0.23709835 -1.6971595 -0.032449152 -1.4668932 -1.1439902 -0.26300797 -0.5129606 -2.3005226 0.21412809 -2.7411802 0.094793364 -0.26748332 0.32752606 1.3835407 2.196904 0.7341654 0.12126628 -0.53985244 0.73869103 -0.53492844 -0.29937473 -2.4349134 0.5933529 -0.9359203 1.0968521 -0.55760866 -0.5373398 
-0.39757982 -0.7819141 -0.6836726 -0.0314211 0.35296142 -0.28450626 -1.1223966 0.661255 -0.29567617 0.7561872 0.6928601 -1.8907996 2.0614197 0.59684765 -0.9513591 1.0189011 -1.786077 0.31001747 -1.0477449 -1.8656876 -0.7971844 -0.3176857 1.4042723 0.7809884 0.11185857 0.08520593 -0.23217815 -0.8976257 1.4038516 0.96789575 -0.9665804 -1.4933289 -1.1785576 -1.0472455 1.2822608 0.9681622 0.40552938 -2.8479657 1.0328352 -0.21729854 -0.28006843 2.0960207 -1.023583 -0.32876548 0.3934054 0.03433414 0.23367503 0.6724557 0.41160592 -0.11835161 -0.5332798 0.31164986 -0.101504415 -0.93128294 0.26362497 1.7140021 -1.281953 -0.14858836 -1.5457095 -2.0218732 -1.2901053 -0.41330355 0.9801558 0.33911565 
-0.8588651 -1.9199299 0.8657652 -0.27616805 0.4351329 0.34583968 -0.49571675 0.44984668 0.0039326223 -0.49562734 1.7206309 -1.343739 -1.3703337 0.6907241 -0.83480597 0.39484045 -0.3914667 -0.9467231 -1.8279141 -1.2891153 -0.51467246 -1.0808884 -0.68690866 -1.1857314 -0.742427 -0.9086387 -0.3206336 0.105175175 0.1547093 -1.3258171 -0.39576662 -0.59230906 0.0438523 -0.16792175 0.099238165 -1.3006926 -0.6245237 0.23085915 -0.9904289 -0.77248293 -1.0929228 -0.7185319 -0.954015 -0.034982122 0.09152825 0.17548336 -0.13884394 -0.9584486 -0.0016375977 -1.1675395 -0.92224616 -0.5133164 0.18159567 -0.7403182 -1.3299006 -1.4169654 0.4042683 -0.863096 0.4199376 -1.696358 -0.7086637 -0.8002103 0.124332294 -0.8409152 
0.90592265 -1.404789 -0.54877555 0.86524516 -1.1705699 0.20987378 -0.49823624 -2.7205584 1.0273052 0.4126157 0.91002864 -1.708997 -0.27945608 -0.8221883 0.12588178 0.7827692 -0.24349096 0.80636525 -0.18111776 1.5874217 1.0836844 0.3029514 -3.5480597 -2.0772204 -1.4596941 -0.12040897 -0.13086154 -0.94447356 -0.59667474 0.80634606 1.0451881 -0.4933722 1.0132478 1.1729647 1.7189822 -1.9277118 -0.486906 -1.3961606 -1.2250592 -1.2401301 -1.4625276 -0.46451968 -0.6193491 0.43832892 0.2573849 0.4702483 0.53846693 0.9518353 1.3672258 1.6506884 0.13776313 -0.98311955 1.05509 0.18388344 -0.5569752 -1.4306351 0.75329167 -0.18513173 0.5710225 0.0047301715 -2.2295845 -0.41232127 0.29181087 -0.07064087 
1.2516671 0.91528827 0.7348362 0.038363345 0.9056746 1.6155308 0.025095133 0.7930589 0.44781643 3.095961 -3.1135342 0.9926088 1.6070544 -1.3173835 0.6184826 2.1540177 0.69760907 0.17804395 -0.106878966 0.47468442 -1.5721107 2.5425613 -0.56237125 0.44063917 0.1026899 -1.2323099 -1.478626 -0.5772752 -0.56018436 0.51158726 2.0824156 1.9976544 1.5075451 0.95964235 0.5518116 -1.5956223 -1.4794452 0.72479624 1.3154113 1.2093911 2.2273226 -0.52164775 0.5618009 0.46110526 -0.6934226 -0.053472366 -0.82890934 0.56322455 -2.9326162 1.3522729 0.6762043 -1.473409 -0.59595156 -0.60411936 1.2727271 3.3101978 0.884743 -0.20929286 1.3465725 -5.129895 1.3401442 0.4231569 0.6698555 1.4045501 
0.7549864 -1.1307077 1.035439 -0.107569955 0.34089404 1.4362453 1.0733951 1.4617249 -1.8952513 -2.126403 1.3428081 -0.1113125 0.5767416 2.2214816 0.4195056 -0.18513098 1.0971553 0.119109064 0.16962203 1.0311826 1.0553539 0.78782904 -1.5479735 1.5425795 0.8319257 -0.025111005 0.8840157 -0.05981121 1.2825171 0.39843002 0.68740654 -2.9163857 0.2978017 0.23491912 -0.55308604 1.0379676 1.0699177 0.7313234 -1.1734424 -0.30490828 -4.0842986 1.4677179 -2.9984353 -0.10989052 0.17928906 0.7351313 -0.30806378 0.283458 -1.0094554 0.12864228 0.20525537 1.1767696 1.4000058 0.45994768 0.60613286 -2.4752548 -1.1477743 1.1304276 -0.18593884 -1.4070743 -0.30008623 1.6814861 0.43733013 -1.4654888 
1.1729312 1.7138568 -0.9504153 -0.08824838 0.072964706 0.63620234 0.07349239 0.43053168 0.84141076 0.27478716 -0.11188042 0.6366021 -0.11078384 0.44997203 0.9050491 -1.0824645 -1.4294275 2.0662496 2.2611957 -0.43065152 -1.1282129 1.4256704 0.684591 2.1436825 0.018586293 1.8503158 0.5791251 0.44599628 1.1491089 1.0634103 2.2607157 -0.80675834 -1.473758 0.878528 0.7500563 0.3069995 0.39018077 0.96863216 1.5995785 0.5127732 -6.112012 -0.11753129 0.8068293 -1.8230957 -0.24342535 -1.2830765 -1.2697958 0.5628678 -1.0480393 0.115293264 1.4748403 1.7563173 1.3313445 1.2425216 0.5029486 0.12421308 -0.5343477 1.3878158 -1.4614385 1.6118281 -1.5516627 0.41799352 -0.1820432 -1.3372629 
1.1013563 0.5414136 -0.7617207 1.0237995 -0.76582336 2.0317457 0.2675054 -0.52197236 -0.2297333 -1.4711224 -0.8995353 0.25803897 0.04990442 -0.37754896 0.33816317 -1.913628 0.6316841 0.22836398 2.1239188 -1.5919422 0.83356494 0.07074197 0.25846827 1.2616079 0.057674922 0.11847839 1.1220789 -0.3616774 0.004196748 -0.18800083 0.9733555 1.0451684 2.1948998 2.1153035 -0.7987672 0.67116976 -0.37456664 1.0685612 1.3909366 -1.0127542 -0.18339509 0.73609316 0.40857145 -1.7126238 -2.7505212 2.1134977 0.1839562 -0.6179827 -0.2635324 0.7979081 1.9689913 0.29460353 -0.84052044 0.50364935 -0.96693695 -1.0950062 0.6834273 0.4349188 0.6094719 0.38876545 -0.95454025 -0.6128495 -0.4985101 0.17300689 
-0.09430125 1.0519333 1.7501493 -0.62528884 -1.2434657 0.71701795 0.65056443 0.77341574 -0.88685507 0.5496592 -1.4935635 0.338092 -0.09240866 -0.43455133 -0.027448539 0.094851784 -0.64533323 -0.63286406 0.9670782 -0.13282049 -0.77267385 1.5152014 -1.0896472 -0.2102042 -0.7166676 0.8076085 0.7409088 -1.1729501 0.4634181 -1.3591636 -0.15517782 1.6831723 2.0980277 1.0361147 -0.29539862 0.15661871 0.26690987 -0.7778676 0.5256129 0.8599351 0.5444681 -0.99605346 1.24372 -1.3899518 -0.80826104 0.2025673 -0.73413 0.8221652 1.4870166 -1.1768669 -1.5667238 -0.16919239 0.39596108 -1.102309 -0.16992156 2.2212107 -0.6921946 0.21495959 0.6020483 0.44576114 0.9369701 -0.31334323 -0.65467256 0.065457135 
-0.8021 -1.0739931 -1.0835268 0.020553878 -0.13147067 -1.2912596 -1.1642222 -0.115786836 -0.41586575 0.7804526 1.1706955 -0.061369825 -0.2328055 1.1865429 -0.037514623 0.99686855 0.060630396 -0.56960356 -1.6056603 -0.7405261 -0.053548247 -1.2751878 -1.1621015 1.1700876 -0.019048342 -0.5971761 -1.0326259 -1.7281127 -0.4279469 -1.0858684 -0.58291817 -0.5330196 0.028041922 0.32018661 -0.6313668 -0.22706276 -0.28777373 -0.5128327 -0.3033019 0.10649709 -0.54457384 -0.44493726 -0.695056 0.5341545 -1.6660783 -1.4156485 -1.8610034 -0.25057873 0.2662774 0.13382368 -1.0452423 -0.7889705 -0.870275 -0.015491398 -1.2562684 0.82019013 -1.0978252 -0.19737643 -0.45811218 -1.0676442 -1.1477503 -1.128011 -1.3128169 -0.77916324 
-0.03715183 -0.87448597 0.5074753 1.1818362 -0.6815854 -0.6303617 0.060030155 -1.9509536 -1.9669765 0.8392287 -0.26276234 -0.18332322 1.000129 -0.7750523 -0.17892832 1.0724822 0.6487994 -0.3723839 0.9151663 0.26624572 1.7273924 1.1411649 -0.36179078 -0.7533416 0.6716238 1.1376362 0.2823729 -2.3404188 0.22616206 1.4210583 1.2193409 1.1497668 -0.9518441 -0.6775522 1.3900883 -0.018354157 0.7513207 -0.70887023 1.2188245 1.20754 0.63381386 -0.044993557 1.4509234 0.49449033 0.4300371 0.3756851 -1.5334023 1.426346 -3.0539896 0.9343331 1.1379355 1.4586334 -2.2220368 -0.3781432 -0.23178288 -0.7228398 2.1982875 -0.9416032 0.8344717 0.04512908 -0.3523534 0.34879592 0.13949247 0.3367215 
-1.8273038 1.1712816 -0.7792348 0.06299575 0.23534437 -0.24526763 0.5665601 0.18483007 0.36059123 -2.7899559 -0.72519904 -0.5552921 -0.7178517 0.006852928 0.9694309 -0.19367625 -0.7810394 0.38751304 1.1351072 -1.5289083 0.7156871 1.5311878 -1.244814 -0.51744723 -1.1202372 -2.5301874 0.5480913 -3.0932302 -1.7038543 0.18385898 0.55673707 -0.07817693 0.9526307 -0.6769296 1.1251775 0.08873422 -0.99015284 -0.90358603 0.70081276 1.1109802 1.0020639 -1.4531579 0.40787828 -1.1466166 -0.15847872 -0.47252184 -0.9657815 -1.3360188 -0.35657978 -1.0726218 0.4709892 0.3577902 0.3342503 -1.0463591 -1.3109121 -0.31702065 0.3492705 -0.9959841 1.3528088 1.2315378 0.6061285 1.0266633 -0.77929854 0.24518707 
1.4492376 -0.8660626 0.21661596 2.1340497 -0.23869646 1.0095683 1.1857283 -1.9740928 0.5450621 0.5599323 2.9979787 -3.7271783 3.0883706 -0.7880564 -0.6432128 1.2364836 0.6107323 0.36695954 -3.4617305 1.188638 0.02425152 2.9069085 0.8476068 0.6155889 -0.12087869 -1.291168 0.23145175 -0.37411854 -0.076152645 1.7719828 0.18066384 -2.176577 1.154278 -1.7782094 0.2648696 0.9524464 2.6552749 -2.3624816 1.4836351 0.12001831 -6.4497914 1.1090614 -5.0614014 -0.95393056 -0.8417937 0.5877605 0.6173338 3.4119039 -1.0172621 0.9266934 1.9585162 0.009713108 0.58151066 1.441577 -1.4477828 1.3292518 0.36634433 0.8661046 -3.3134272 -2.0919747 1.4780426 0.14292282 0.83618736 -0.3485535 
0.521422 0.7767944 0.5501162 0.21443039 0.2662537 -0.38860306 0.3172093 1.2366124 -2.1153686 -1.149962 -0.36173436 1.0941987 1.4662673 -0.16414082 -3.8055155 -0.30855572 0.9127912 -0.48141137 -0.18629786 -0.37518626 0.31713742 1.144581 0.44715667 0.80074114 0.48349407 0.12842576 1.2934244 -0.7714641 -0.44218013 0.6762289 1.0627476 2.9568741 0.46676818 -0.21863826 1.2416757 1.7576725 -1.518599 0.02652848 0.12538505 1.303365 1.6587932 -1.7434648 1.4651426 0.106864795 -0.56163687 1.4718691 -0.40557653 -1.803551 -0.34478456 0.30094677 -0.3640512 -0.32755923 0.50810814 -0.0022491303 -1.1943399 1.5700579 1.5694368 -0.51623803 2.2844262 0.45069405 0.84725136 0.13857661 -1.9587735 0.097058184 
-1.2482646 1.3036853 1.8126581 -0.431188 1.547582 2.3180456 -0.5285711 2.8068666 -2.0899615 -0.13262692 1.8217636 -2.0949123 -0.97904503 -0.51209086 -2.174321 1.6266495 -1.1008173 0.47157618 -0.30062893 1.2584014 0.4542478 2.1443985 -1.6329479 -0.3217234 -0.30635452 -0.30920112 0.7003144 1.6127328 1.3280475 -1.6722608 -1.2354145 -2.2166615 0.081002496 -0.49666741 0.3986756 0.8801382 -2.1823559 -0.5979916 1.6997714 1.3955181 -1.3793745 0.49008137 -1.4304987 -0.17946273 2.245465 -1.059517 -0.1352008 -0.7325238 0.7299974 -1.0429748 1.1948391 -0.40133166 0.84302735 0.5687437 -1.01592 1.355759 0.52416885 0.8273209 0.6582735 -2.8483143 1.0824465 0.17939983 0.73941946 1.3986664 
-0.67066944 0.8512638 -0.47756767 -1.1689212 -0.72800016 -2.1928358 -1.6154186 0.6041495 1.5189489 0.6387247 0.5692088 -2.3340473 -0.54490036 0.4469483 0.12781534 0.007322081 -0.6520664 0.33923113 -0.082301274 0.30885443 -0.23750405 0.028268838 0.5418103 1.3137788 -0.6057383 -0.009804418 -0.20427604 0.5081947 1.3414247 -1.259166 -1.0173887 0.36268082 0.118086986 -0.8396155 -0.73483187 -0.30831653 -0.5411072 -0.2406649 -1.2966272 0.014492322 -0.41922694 -0.47704256 0.2686585 1.0185052 -2.5824258 -0.550933 -0.7417873 0.36814493 0.08428222 0.52186036 -1.2891377 -0.2981225 0.19489034 0.28832263 0.047458984 1.120568 0.9000924 -0.23406914 -0.80067754 -2.132081 1.0378557 -1.0803156 -1.872372 -1.1210334 
-1.9160883 -0.11923654 0.22452205 1.0370603 2.6866078 0.5541522 1.8467108 2.3286052 0.51216316 -3.0221288 -3.4182887 0.7101938 1.1960164 0.5207113 -0.0593645 0.16620703 1.3132615 0.9304874 0.02631571 -0.6076651 -1.3244349 -1.1868876 -1.6115578 -1.0911913 0.045470007 1.5621605 1.6659958 -0.5852127 1.7513281 0.6289521 1.0355976 1.7901644 -0.035324104 -0.7410088 0.14996299 0.6003982 1.2734702 -0.3250889 0.29745135 -0.2249405 1.3583171 -1.0904887 3.1057825 1.5438013 0.5120157 -0.75661 1.5315636 2.071587 1.1290554 -1.0529315 1.1646268 1.0830299 1.2094424 2.944968 0.41883272 0.8803677 1.1512089 0.49435753 1.7835301 -0.36701754 0.6263273 -0.36300796 0.7659138 -0.71294427 
1.4183527 2.032416 1.7085732 -0.18794112 0.6330605 -0.4953973 -0.47338566 -0.01008982 -0.26657268 0.5540138 -0.3960351 -2.3997014 0.77780217 1.0499228 -1.4444399 -1.2525458 2.2930875 0.51459247 0.7938127 1.2951102 1.0942672 1.3021225 0.9013896 -0.21625462 -0.14395992 0.821941 -0.0033614635 -0.39358237 -0.0061446545 1.3531827 -0.8035278 0.69013995 -0.5908399 -0.806822 0.59739125 -1.5500058 0.96472406 1.8188288 1.4446713 1.4883721 0.6844206 -1.0507954 0.5361292 -1.2876472 1.5499597 0.18328427 -0.526293 0.7597147 0.56129664 0.4354489 0.15004009 -0.4795244 0.5128974 -0.47202918 -1.7506479 0.12803411 0.6217448 -1.1319904 1.7867775 0.8967254 0.8823238 1.5758106 0.2125841 -0.5039467 
0.2879291 0.08742773 0.23072065 1.5943203 0.3621757 0.10053694 1.6885301 0.030684603 0.8038318 0.40082562 2.3948176 -0.6747406 -0.2902237 0.50927323 -1.4008014 0.9985371 -1.3026576 0.48435482 -1.4212224 1.312957 0.5936385 -1.6879346 -0.29394597 -0.073388204 0.80941415 1.4704481 -1.441598 0.564402 -1.2774076 0.2822768 -3.209204 -1.27856 1.6287923 2.03991 1.628556 -0.39077744 -0.15640786 -0.13696007 -0.9546224 -0.63099664 -1.2484815 0.44084442 -3.439543 -0.44872716 1.1710545 0.66097295 -0.26327682 0.050023362 -1.1330795 1.1934096 0.52419794 0.48535347 1.7189798 -0.086426474 -1.6833899 0.8162455 0.9641911 1.1782395 -1.5912045 -2.6360404 -1.1397125 -0.99307674 0.70021385 -0.117081404 
-0.91519904 0.3222877 1.0286814 -0.026208322 -0.15629022 -1.8162861 1.1692464 -0.19689368 0.7664092 -0.79476607 -2.2771895 -0.7862079 0.2287091 -0.50557566 2.0265129 -0.65901035 0.7312001 0.98761404 1.4028699 -0.78614223 0.81458855 1.5927653 0.7520006 -0.23985146 -0.16250668 -0.34233302 -0.15119517 0.6639533 -1.2118489 0.8328329 1.1789541 -0.07667128 1.6376276 0.95901346 0.21238041 1.5550923 -0.280184 0.7148315 0.35080144 1.5047923 0.49859154 -0.47540495 0.07751934 1.515392 0.89352804 0.45489594 -0.44938484 -0.36964387 0.8400029 0.6998193 1.4622946 0.96465325 0.32273704 0.20316412 -1.063535 -1.0851123 -0.3841978 -0.530211 -1.2015103 -0.51477087 -0.33748764 -0.120899856 0.7232463 1.529519 
-0.62152 -0.59458476 -1.0254871 -0.71317834 0.03605415 0.11090044 -0.73557675 -0.18060043 0.7519198 0.40008745 -0.64035606 -3.3942964 -1.8524247 1.4385856 -1.6018336 0.35326773 -0.55543625 -0.57765293 0.26321432 -2.0906324 -0.64140314 -0.675686 0.41395044 0.57935214 0.13991214 -0.018947909 0.29341826 -0.7684181 0.42471746 -0.71073973 0.93607104 0.38808843 0.0459682 -0.40748563 -0.37111866 -2.740503 0.2709343 -0.6860647 -0.17007324 -0.07845171 -0.012321462 0.14655189 -1.2684824 -0.5193264 -2.545641 0.9012549 -0.32105 0.50987935 0.5444404 -0.27044812 0.35996807 -0.29638806 -1.657802 0.08284515 -0.8554124 -0.30939764 -0.5324146 0.36956692 -0.6726374 -2.6806588 0.45109677 -0.15434816 0.59826595 -0.44507453 
-1.0742055 -1.6203557 -1.366284 -2.423718 -0.8024488 -0.38042384 -1.4627818 -0.30452713 -1.3887271 -0.8241906 0.19709758 -0.23284727 -1.0471739 0.40340468 -0.6232479 0.33326337 -0.26233152 -1.385726 0.48053107 -0.747751 -1.4590943 0.06512103 -1.0497886 -0.23404059 -1.146611 -1.7189969 0.6313307 -1.0791146 -1.4193517 -1.4025426 0.06684663 -0.29383424 -1.3248256 -1.5384727 -1.8186574 -1.1696777 -0.66543347 -0.6536526 -0.34826428 -1.0353334 -0.24389538 -1.6712229 -0.62082714 -1.1793227 -0.50171465 -0.97616255 -0.9206488 -0.32275325 -1.4500949 -1.0565743 -0.69738847 -0.71659815 -1.5586283 -1.8074409 -0.62230647 -0.6900104 -1.7719771 -1.579314 0.25273526 0.6218353 -1.4312464 -0.12995595 -1.3520284 -0.785375 
0.14789636 0.47328383 -0.27786714 -1.2836552 -0.14149201 0.7899627 -0.7080429 1.9452422 0.4668057 -0.17984487 0.86944324 -0.50529677 -0.8276025 1.5148875 -0.9650251 0.5592725 -0.266457 -0.21346882 -0.32927972 -0.71207464 0.16723762 -0.115071796 0.2036451 -0.009661649 0.4853812 -0.035865795 -0.38769838 0.890634 -0.36117443 0.39041138 -1.4958264 0.85384464 0.071558595 -0.72146595 -0.3793034 0.22752203 -1.8564355 0.42669347 -1.2836462 -0.5859102 -0.42205802 0.82275885 0.39311853 0.435936 1.0852803 -0.26202574 -0.15704729 0.5092443 1.2119701 -0.13530165 -1.0476431 -3.3860807 -0.022255132 -0.28474075 1.4675914 0.84394157 -0.37828052 0.3529336 -0.7448126 -0.4221714 1.2302518 0.7990266 0.032094903 0.06316272 
1.978983 1.8009996 0.715995 -0.09708626 0.013744844 1.2292598 2.4918866 0.57443464 -2.0005755 -1.6545535 -1.682168 -0.4047472 1.0954652 0.3678399 1.3755057 1.6816684 0.44447464 0.52039117 3.745495 0.5387377 -1.7091774 -1.1307901 1.530172 1.1462892 -1.983995 0.540484 -1.9992816 0.9878184 1.2601286 0.92099154 1.4758188 1.3414212 0.4237865 -0.6838775 3.7525537 1.0739096 1.3861284 0.0051780064 -1.6830803 2.197452 1.2088847 -0.8041975 -0.18108672 0.8950578 0.08861064 -0.6640268 2.052684 0.4919012 0.76754606 0.6600223 1.3677607 0.44599536 -0.65855926 1.9081241 1.1395975 -1.3510144 0.5765632 0.47781944 0.36625415 2.4085274 -0.041521132 0.8926389 0.9051118 -1.0982265 
1.4883465 -1.1182103 0.66758674 1.6505642 1.3470862 0.6909252 -1.3926429 1.2720019 0.2865654 0.66052824 -2.1704276 -0.01947519 1.5006438 -0.7205879 0.05250094 1.1227045 -1.4890064 0.5155604 1.6282007 0.4572176 -0.13016592 1.544742 -0.85538805 1.1325694 -1.8038332 -1.8124794 0.5561355 1.1406821 0.107780024 0.8327097 0.44126406 2.3074465 -1.0989223 1.241543 -0.30980784 2.1777263 1.1212449 -0.023742653 -0.5759693 -1.0203043 1.253405 0.028933112 3.391095 1.4439791 -0.90660673 0.51743865 -0.182003 1.4661356 1.7259924 0.44057757 2.8310413 0.76260364 0.47922167 0.4017386 -0.16075449 -2.651133 -0.10674827 -0.4514936 0.55755955 -1.086692 -1.5387114 0.29395664 -1.0404533 -1.0369325 
-0.19406237 -0.046142712 -0.14075823 -0.1718041 -0.49271807 -1.7274216 -0.13345474 0.680229 4.7027486e-05 -1.2193329 1.070909 -0.759894 -1.5234035 0.7434284 0.34136733 0.45130086 0.81214774 -0.7248082 -0.8014372 0.63084316 -0.34785894 -0.50569844 -0.27966076 -2.428432 0.0038477008 -0.8247535 0.12521622 -0.4454176 -0.21431695 0.20837337 -1.6133579 0.5884128 -0.16973652 0.19246712 -1.0322273 -1.9663218 -0.7189822 -0.071931064 -0.0042338534 -1.0112959 -1.3001733 -1.3336293 0.7133252 0.8753517 1.6837649 -0.2282749 -0.95076144 -1.7897747 -0.2977415 -0.8439052 -1.4345423 0.9123499 -1.5690986 -0.43805856 -0.75996834 -0.034929514 -0.64513063 -0.20007078 -0.54280376 0.60610825 0.7484724 -1.9732803 0.074490994 -0.36604047 
-1.3490471 -0.067716904 -0.92815864 0.2941805 0.89683163 -0.2923224 -0.44120866 -0.57398516 -1.4283969 0.07841748 -0.634036 0.8533128 -0.32003257 -0.34816933 0.55436695 -2.0834033 -2.8302858 -1.0617726 0.75584054 0.123893425 1.2563704 0.85218996 -0.6763937 -2.3567054 -0.45467308 -1.6560609 0.81945455 -0.49269605 -2.1500363 -1.3096426 0.04981444 0.24933459 -2.755676 0.3744068 -0.30680236 0.6932039 0.2785657 -1.9895437 -0.158501 -1.1249183 0.6921639 -0.9298233 0.028509434 -1.2334098 -1.1627839 -0.6842216 -0.3698027 -0.7534631 -2.2198088 -0.38933256 -0.28991145 1.0196421 -0.06852422 -0.637684 -0.75784427 0.73455787 -2.7856843 -0.42351365 1.2119981 1.1832548 -2.773359 -0.1164418 -0.52834034 -0.29614395 
1.611997 0.55796635 -0.4921304 -0.0052737603 0.56049144 0.23197196 0.056795284 1.200912 1.8118666 0.50479716 -1.0016545 0.13259768 -0.23401293 0.42172265 -1.4132406 -0.8345503 -0.0014194862 0.7988762 0.36341515 -0.17553999 0.5026816 -1.3309822 0.43849835 0.6187848 0.2288896 0.077143475 -7.9552984 0.39291131 1.5887787 0.5769495 1.4919084 1.3455058 1.4118788 0.95093805 0.49764386 -1.6734642 1.5112202 -0.71821785 -1.7144979 2.6996915 0.41673943 -1.3218484 -0.2949083 -0.26921266 -0.6206388 0.30514345 -1.398383 1.0947714 1.6212368 1.1222235 0.7395649 -0.2884973 -1.4046474 -1.5664902 0.44316918 -1.8649131 -0.70695215 0.9037299 0.26585782 0.9506816 -0.13931657 1.2329243 0.9368579 -1.612112 
0.18999837 -0.9418828 0.3839091 -2.1650643 0.5365536 0.5095374 0.76091677 -1.321884 -0.19492942 1.4128771 -1.992783 1.1836473 2.119386 -0.5051817 0.62479836 -0.2221175 0.32805982 0.3353963 0.7363508 0.6041269 -0.31246236 0.11830898 -1.349375 -0.44872206 0.40432662 1.5041485 0.8008307 -0.262899 -0.9508296 -1.1570567 2.4863048 0.8360242 0.13030267 -0.36277077 1.1020613 1.0592465 -0.3827325 1.2688245 0.45625874 0.18177603 -0.4463382 0.013862119 1.851373 -1.460967 2.512597 0.9556121 1.4686865 0.023833105 1.6002569 0.77404803 0.6353236 1.749812 1.4480199 0.7392384 -3.0110528 -0.6998242 -0.02087112 0.98734564 0.7173998 0.15440586 0.13500907 -0.5818886 -0.6509616 -1.7187194 
-0.38696668 -0.50814444 -0.4843779 0.0016423601 -0.05983568 -0.7420524 -0.5222014 -0.43543702 -1.4399765 0.92803127 -0.9352943 -1.694582 0.7761202 0.03189886 0.011925262 -0.08499673 0.67188275 -0.15457676 1.2766432 -0.72289956 0.32690948 -0.45124516 -0.4769023 -0.83209515 0.3841829 0.5735753 0.56232953 -0.41915745 -1.3374817 0.7155324 0.7870624 0.2949626 -1.9395791 -1.4372113 -0.14789864 -0.5043338 0.9103262 -2.4261189 -0.60540307 -0.830326 1.1864222 0.3516331 0.8977566 -0.15405963 -0.49632466 0.67397237 -1.4184108 -1.5793344 -1.9998107 0.5391141 0.6131839 -1.2721119 -2.0023115 0.059926853 -0.25372085 -0.34530565 0.044894356 -0.5406996 0.4185698 0.10704269 -2.7678943 -0.019719461 -2.3380497 0.15952438 
0.37966916 1.1073458 -0.9012873 -0.88978255 0.35897496 -0.052637756 -1.3593878 -3.2335093 -0.77131116 0.3548214 -0.77985746 -0.9747865 0.030891346 -0.22517757 -0.35619688 -1.2495584 -2.174177 0.3487567 1.0236161 -0.25210336 0.9106519 0.09224598 0.7960825 0.45050642 0.88004166 1.5895972 1.1436834 -0.3431397 -1.1756861 0.23146237 -0.015422932 0.424284 0.44598693 -0.5065258 -0.4515058 0.5930382 1.1268185 -0.8699089 -0.5746152 -0.37750104 0.43916655 1.8094555 0.011199175 0.53494704 -1.413016 -0.20831902 1.5166627 -1.3136998 0.5448265 0.9400994 0.49413675 0.26970592 -1.7530322 0.16944979 -0.4129456 0.7828748 0.08966275 -0.12343096 0.5700243 0.5902178 0.46963602 -1.9533159 -0.062035304 -0.9234694 
-1.6447992 -0.48549405 -0.04120735 -0.14668255 0.092110574 -1.1606752 -0.2412048 0.99777997 -0.28909597 0.31936377 0.9075387 -0.9182777 0.507255 0.6538643 -0.8585919 0.30878782 -1.8341057 0.21658695 -0.7797702 -1.1414537 0.33049205 -0.354165 -0.30632028 -0.064752 0.752632 -0.4263949 -0.018881453 -0.024296567 -0.7930171 -0.3855627 -0.89219373 -0.32184508 -0.64854074 -1.3136815 -1.1691878 -2.110819 -1.1854962 -1.0787091 -1.6043925 -0.28546682 -0.655167 -0.37409967 0.22277842 0.55193937 -0.3667041 -1.969484 0.106270604 -0.115280755 -0.9298344 -0.5634377 -1.4828804 -0.46479115 0.46266833 0.31164235 1.4297082 0.875002 -0.9219685 -0.11449031 -0.45271686 -0.3624868 -0.7415478 0.99617916 0.3825828 0.5490773 
0.5970624 -0.65923864 -1.4293864 0.7867758 0.5447356 1.9874264 -0.468862 -1.3271701 1.0243951 -0.23548 -2.7170463 -0.1129089 -0.07667627 -0.080727115 1.4699419 0.517527 0.9233936 -0.6593464 1.5877427 0.08508859 -0.5744854 -0.59759945 -2.2309942 -0.7665066 -1.5558225 -0.5026479 0.056777935 0.7287094 -1.3230326 0.64857155 0.028851137 0.22128464 0.5089586 -0.091680534 0.9585724 0.3542236 -2.1855721 0.018611237 1.5003179 -0.078083575 0.95971864 0.6618415 1.1768999 1.2987083 0.9715932 0.42674428 -0.8766528 -0.4784088 0.9464526 -0.31451637 -1.1742918 0.22854103 0.26073304 1.23992 -0.5828613 -0.43542787 -0.021598015 0.4689077 0.4720852 0.7102129 -0.34016362 1.2198205 0.3291741 -1.0421574 
0.6083659 -0.15125693 0.6766554 0.5445701 -0.41429904 0.25925067 0.02297796 -1.9082053 1.3217323 1.1671536 -0.57745236 1.7207578 1.2577037 -0.97845554 1.0512953 -2.2516842 0.84986484 0.47730786 1.3952644 -1.2736235 0.6111161 2.1674387 0.48183176 -0.18893437 0.79395884 -0.85457677 0.15438357 0.6916996 -0.96900225 -2.0623503 0.7904865 1.1259474 -1.042645 0.16995013 0.58677685 0.6602972 2.0503736 -0.50102365 -0.0032450706 1.1746541 1.2442058 -0.31181005 0.7619712 0.3117871 0.1665669 0.9719036 -0.21720016 0.8242558 -0.14890116 1.0778686 0.5607641 1.1929933 -0.3856485 -0.35112628 -0.18553364 -1.257813 0.5981845 -1.8331614 1.663941 1.074602 0.06230188 0.21527204 0.67577094 0.12083381 
-1.4876316 -1.8164705 0.58967626 0.5727632 -0.29085845 1.4085797 -0.20351231 0.5472992 1.40149 -0.5230451 -0.8674181 -0.07778342 -2.1026964 0.8672752 -0.5460058 -1.0148885 -0.7285886 -1.0998966 0.3839883 -1.3859509 -0.45039684 0.4100653 -0.94707376 1.375975 -2.0855768 0.26009572 0.82969105 -0.6099797 0.37563476 -0.17916541 -0.26401362 0.4393156 -0.03698821 -2.648298 0.338449 0.83544886 -0.6190214 -1.9602917 -0.40040824 0.19318584 1.3798836 -0.85552406 -0.8977733 0.08649593 0.22791031 -0.8759159 -0.58951014 -1.163948 -0.48652947 0.043349765 0.5402203 -0.7303088 0.51641107 0.2618093 0.4470402 -1.270465 -1.50015 -0.12832868 0.5461756 0.6648724 0.5432618 0.4796492 -0.7150537 -0.44897833 
0.581872 0.6490239 0.4749021 -0.22124152 -0.36997902 0.37539262 -0.4848815 -3.14748 0.057998367 -0.020358982 -0.5084456 0.5330609 0.26595923 -1.3498322 0.26748553 -1.409209 0.82237804 -0.045225874 0.052645404 -0.2586895 0.07022952 1.676731 0.24252862 -0.94867927 -1.7966937 -0.1196495 0.43853197 -0.808878 1.4002389 -0.7302297 1.035677 0.0347258 0.21940112 0.14819871 -0.8304414 2.6259162 1.5739055 -1.0535936 1.7415798 0.3690888 1.5588663 -1.5898063 1.450903 -0.39978206 -1.6400394 0.57326376 -0.6213532 -0.35247895 0.06265341 0.47865194 0.5541251 0.9125069 -0.8680597 -0.41907284 -0.7269466 0.40007442 -0.29179946 0.29777166 0.27621624 0.11304882 -1.3658531 0.8087331 -0.3672358 0.97495127 
-2.0987804 -1.5699404 0.87981683 -1.4258267 0.09200093 1.2573206 -0.39728004 0.9549459 0.08399843 -1.0666534 -0.85546523 -0.80644304 -0.33537373 0.28559038 0.54681164 -0.60538596 -2.028281 -1.4504721 -0.12677889 -0.058553398 -0.61029565 1.1246043 -0.27121776 -1.0157434 -0.8574084 1.3879449 0.88899535 0.0064792596 1.1314033 0.82182413 -0.9135172 0.107016146 -1.2018377 -0.7937087 -0.40901121 -0.5513464 0.5540092 -0.042014167 1.0351179 0.37056643 0.8545771 0.36397988 0.4019621 0.6733776 0.33295003 0.62794495 -1.855131 -0.2737912 -1.1117865 0.14651482 -0.052438483 -2.1275647 0.032831963 -0.51071566 1.322565 0.04364336 -0.6996532 0.6222956 0.4542705 1.2692746 0.3087602 -1.3087078 -0.4188185 -0.29737413 
-1.5274786 0.798919 -0.67779255 -0.7900749 -0.4470636 -2.0102973 0.06490014 0.24092047 0.5640638 -0.8044915 0.9583889 -0.29443488 0.551396 1.092353 0.48046136 0.46835217 -0.0073677655 -0.07756512 -0.6709304 0.8178999 0.6590874 -0.4679989 -0.007815646 0.30374596 -0.25533837 -0.65579367 -0.4955217 -0.47683156 -1.7349446 -0.79531 -0.48560002 0.26284203 -0.19610508 -0.9438453 -0.349254 -2.055831 -1.2267582 0.5599891 -0.82755387 -0.11036214 0.20411132 1.0443361 0.04980856 -1.2827184 -0.17394808 -0.045598928 -0.16471973 -0.59229225 0.088117495 0.43341494 -1.2774255 0.7221835 -0.4606644 -0.5009481 0.1243274 -0.06563048 -1.031915 -0.015387517 -0.4428068 -0.41709924 0.34171814 -0.8538667 -0.41020447 -1.3464289 
-1.10792 1.7557096 0.608223 -0.917435 -0.736412 0.12025602 0.94744635 -0.13017954 0.7909535 0.7939423 0.98456717 -1.9804828 -0.27647772 0.8880069 0.92155325 0.8251679 1.113391 1.2139127 -1.0933717 -0.667719 -1.719117 -1.0027927 0.054870628 -0.4375867 -0.9383197 -1.0280793 0.45076886 0.87323767 -0.8187136 0.90427923 0.25831908 -0.16692987 1.0912693 -0.20650332 -1.2776496 0.32166836 -0.2848391 1.2624719 -1.326075 0.46494663 -1.8032683 -0.03568319 0.0047298265 -0.584951 -2.0367045 1.4639353 0.11319368 -0.19040827 0.12743284 0.058335718 -0.93312114 -0.09004152 -0.24364494 -1.3301082 0.44572702 -2.2155814 -0.2988218 -0.9316519 0.011832532 -0.60608554 0.8446074 0.18908848 0.11670413 -1.2059461 
0.42373127 1.4980835 0.11190902 0.48418775 0.8916414 1.469048 0.6661057 0.2970108 -0.7072428 -0.14068934 -1.9903975 -0.6737124 0.5999927 -0.2386585 0.3313198 -1.6163208 -0.13195877 -1.09306 1.0515486 1.5016462 -0.8935493 0.63124204 -0.84676516 0.030335052 -0.45901954 -0.24824525 0.27711362 -1.7069671 -0.5243908 0.29589054 0.3479956 1.7808884 0.75419 1.599047 0.090705365 -0.25998428 0.7391577 0.6151757 0.27432185 -0.7200566 -0.17226836 0.17385048 1.0632948 -0.7412574 1.2278283 1.9664073 0.32424936 1.0935315 2.037756 -0.1369789 -0.5685944 2.0585513 -0.12594965 1.1178883 -0.2808869 -0.49223468 -0.42159975 0.1110636 -0.2187185 -1.5888708 -1.3614707 0.79234105 -0.5101799 -0.49178144 
-0.04881416 -0.0879659 0.3150138 -0.29693604 0.8425099 1.4387306 0.20906556 1.683184 0.7323031 -1.2341889 0.15255551 1.5946177 0.8825258 -0.8266351 0.2897857 1.4112719 0.70402104 0.21363187 0.5185526 0.3860747 -0.29765955 1.3896787 -2.6564918 0.68961245 -0.2655496 -0.76829207 1.7749045 -0.5648293 1.5227474 1.581936 0.35552323 0.64354324 -0.5473875 -0.61831385 -0.24177249 -0.21338022 1.584587 0.33498058 0.23639362 0.36195114 0.0021400705 -0.3760449 1.671472 1.2505267 1.643417 0.5535781 -0.6796943 0.81037253 -1.5129064 0.71046686 2.1045573 -0.46720788 1.0763061 0.44908834 1.5655364 0.18664667 -0.33135363 0.18099809 1.3344488 0.49687093 -0.7910463 -0.86528325 -0.09262871 0.6491787 
0.958376 -2.2165833 -1.1498649 -1.3576534 -0.21730995 -0.9497353 -0.16212709 1.0114278 -0.5862723 0.92461604 0.7928231 1.7769159 -0.05605258 1.1016904 -4.6441927 -2.1735437 -1.0894392 -0.5967537 0.57845855 -0.42157868 -0.29219308 0.17799214 0.77354944 -0.15395248 -1.4623504 -1.1933975 0.19112732 -0.36095592 0.3366778 -1.3689421 -2.20435 -0.41294253 -0.052330293 -0.8021748 0.55407435 -0.7708462 -0.017032368 -0.008245411 -0.1666912 0.8877181 0.4350484 -0.4858689 0.21300346 -1.2704287 -2.994579 -0.63348216 -2.5025127 -0.3172659 0.52938294 -0.16677041 0.4794315 -0.6442151 1.1709039 -1.1313852 0.29628965 -0.37267992 0.36997432 0.29522443 -0.44464758 0.082840726 0.598205 0.40676835 0.266054 -0.66712844 
1.3524733 -0.0066135563 1.1871573 0.7216619 1.4267657 -0.035537735 -0.22615351 0.82750034 1.8203541 0.6019778 0.4244659 -0.3518283 -0.34350273 -0.44656867 -2.6757703 0.77134854 0.5453664 1.538029 -3.8975964 0.2783489 0.9385319 2.383196 -1.7199008 -1.9252964 -1.4665111 -0.21936865 -2.347621 0.07578626 -0.28710544 -0.8795486 3.1827176 0.16467673 0.9019705 0.4652332 0.36852393 0.9931111 0.12257489 -1.3846358 1.2903074 1.259703 -1.0736849 -2.123933 -1.3578643 -0.875225 0.8722048 0.19965819 0.79865825 0.5679525 -0.71774447 -0.82675153 -0.9637048 1.2122056 0.5667002 -0.45167726 -1.1132237 -0.060856514 -0.11453022 -0.11026125 -1.46878 0.33025402 0.2768626 -2.5965297 -0.4903491 2.019919 
-0.586548 -1.0994382 0.44426262 -2.2355282 0.036962908 -0.5803989 -0.18868203 -0.039251167 -0.77319723 0.866953 -0.5054026 -0.337978 -0.30596605 1.7577726 -0.38986224 0.25009438 -1.2506831 0.0674417 -0.9000611 0.29583463 -0.13051149 -1.3289443 0.47183728 -0.9841247 0.41613582 -1.1576371 -0.73643136 -0.65682715 0.37001294 -0.4190735 -1.1527108 0.39370024 -0.7893111 1.011181 -0.21960431 -0.4595121 -1.1471583 -0.23671228 0.04593747 -0.6705221 -0.16627169 0.061661936 0.21561795 -0.42985982 0.043673113 -1.9399394 -0.53532696 -0.19917503 0.15170889 -0.6370752 -0.78169215 -1.0306479 0.74870974 -0.6719205 0.6115664 -1.3387907 -0.61650276 -0.6925072 -0.7089112 -0.37799075 -0.4621963 -0.57565767 -0.571389 -0.21649066 
-1.9444482 -2.5209162 1.6055784 -0.36007544 0.5968859 0.45609638 0.08582902 -0.540799 1.2221559 1.416666 -1.0647131 0.83507603 0.64756894 1.4451344 -0.119506165 -0.39971036 -3.7102628 0.025797887 2.562524 -0.22257815 1.4319283 0.3050289 -0.26816887 0.16680528 1.9390922 -0.45920628 0.27611297 0.7302571 -0.71994084 2.1962128 0.4965679 0.12380388 -1.2448288 0.8790802 1.2662128 0.20904034 0.36453554 1.7803634 1.6719154 1.0507387 1.1381952 -0.4158172 2.937342 2.1745887 1.979132 0.670597 0.19098176 0.52920836 0.9937548 0.38417473 -0.19831909 1.7956499 1.0434189 -0.3281908 -2.194864 1.2478426 -0.938558 -0.47776178 0.83493906 1.4355252 1.217777 1.8896837 2.179115 0.88387376 
1.0484413 1.3670748 1.8289505 -1.5538958 0.40966642 0.35413128 0.7377532 0.27480608 2.0184815 -0.2601513 0.6218112 -1.1688445 0.77260405 0.2670672 0.6657563 0.52100337 -0.13714397 -0.087546565 -0.50173175 0.5634258 -5.5803905 0.29004192 0.28063676 -0.15900223 2.1036909 0.46396428 -3.1554475 0.4327511 -0.36760032 1.249957 -2.6907988 -3.0465531 0.4375307 1.1221528 0.5338997 1.3416034 -1.4250163 1.2129773 1.2342725 1.1158836 -0.13515677 1.1913804 -2.6484644 0.07535114 -0.8157314 -0.7660767 -0.46896663 0.3436738 0.87436223 0.015394386 0.09160392 1.6116967 0.39820203 1.7338703 1.2724012 2.263017 1.025 -0.39883545 -1.0189557 -4.068108 -1.3408186 -1.8820792 -1.1678543 1.0025523 
0.08653266 0.0855087 -2.8281837 2.3380983 0.6966185 -0.87164557 0.2086675 -1.4856193 0.15559897 -0.22193387 0.84485847 0.04873925 -0.42308918 -0.17981407 -2.0825937 0.7468273 0.1169432 0.07988038 -3.6513646 0.8384748 -2.6606631 2.3069372 0.19017808 -0.68596655 0.52751064 -0.37384158 -0.64170605 0.9054533 0.51733035 0.3420526 -3.2952902 1.81718 -0.9339897 0.5238896 -0.40434018 0.38279787 0.1042702 2.5550067 1.7591782 -0.0020433152 1.2955151 1.5076731 0.6255066 0.57970726 -1.0331522 0.36589247 1.2099985 0.3829091 -2.0035686 -0.010499862 1.239881 0.2632682 0.4110794 1.2410675 0.7469966 -0.3224 1.5164844 0.94784486 -0.102881365 1.5680953 -1.0379401 1.0219532 0.4312979 0.63315237 
0.7235288 0.103460595 0.40046513 1.3555375 0.98232126 -1.1572672 0.5292525 0.6740776 0.728506 1.177927 -0.5880897 0.50731146 1.3060588 -0.82792544 1.386032 0.0073924176 -2.0517848 -1.034041 1.104194 -0.88921213 1.0388222 -1.6185577 -1.5210624 -0.12197997 1.3691918 1.1066287 -6.919598 0.3682268 -0.08192445 1.0584587 1.1053002 0.8800682 -1.4810076 -0.17474636 1.2939031 0.16315354 -1.1730635 1.4591368 0.5181234 -0.7561871 0.46034494 -0.267881 -0.26260462 -1.280849 0.4501741 -0.5078663 0.17648059 0.82111925 -1.4009168 -1.4945662 1.9120761 0.65382934 0.69179386 1.0598208 -0.24592237 1.483031 0.09470062 -0.3901118 -1.8216642 0.9287284 0.03925233 -0.90006053 1.5819085 -1.1425874 
1.1010146 0.6897442 -2.0809999 -0.13858864 0.29384178 -0.51808274 -0.31733575 0.39470524 -0.6506863 1.5939552 -0.6553045 1.3508005 1.08584 1.600089 1.3218247 0.31272748 -0.7078325 -0.62773657 0.6601859 -0.7163969 -0.15406714 0.91541994 0.12209442 0.123737805 -1.6193968 0.66779214 2.65603 -1.3234181 0.8901287 1.0424124 -1.1760789 -0.49353778 0.61163133 0.14896491 -1.3106153 -1.287074 -0.50545967 -0.50080067 -1.4189312 -0.2680445 0.39620256 0.8142873 0.21151012 0.17105943 -0.4598909 0.14030401 -0.39135164 0.28268117 -0.28311962 0.43860435 0.8146381 -0.27218533 1.2466424 -0.6169233 0.5799239 -0.23824972 0.30515537 0.6298649 1.2024114 1.4810374 2.2760992 -0.8072078 -0.6145536 -0.16276887 
-0.6805129 -1.4589689 -2.1147163 1.3779098 -0.6789965 -1.8456491 -0.37289438 -0.2312753 -1.669859 -0.3735535 -0.32032016 -0.32320887 0.83534396 -0.0074992166 0.66233146 -1.4312378 0.5495523 -2.80729 0.6719051 -0.35061568 -0.453131 1.2617065 -0.3397314 -1.0767885 -0.56761956 0.37837872 1.3100022 -1.9636488 -2.5859091 0.058256168 0.057310168 0.8806587 -1.5231417 -0.11730267 0.29385948 1.3293947 0.74993676 0.15049875 1.0948035 1.720941 0.23607226 -0.45987278 -0.24618502 -1.5343748 -1.1265382 -1.0028245 0.9390475 0.17689829 -0.39079127 0.1516435 -0.89179915 -1.5305328 -0.27113807 -1.3345817 -0.6295776 -0.48347205 -0.24749838 -1.2005818 0.8162667 0.69643545 0.8030066 -0.13115463 0.045242887 -1.0360988 
0.038057927 0.76096565 0.1183687 0.5458849 0.706876 0.011386151 0.4831735 -0.84477854 -2.0518584 0.24654712 -0.9777982 -2.7673101 0.8043994 -2.1198087 2.060265 -0.91053605 -0.06252212 0.06245393 1.4330409 2.6821618 0.9554285 -0.19322424 1.2980568 0.6551283 -0.1775754 0.013139994 -0.22320616 -0.17269045 2.0348241 0.39464605 1.3272183 -0.12141004 0.5509706 1.2880886 -0.10704388 -0.21083808 2.2273746 0.9675068 2.2392206 0.024501918 -4.5081124 1.2721637 2.3018878 -0.06778757 2.0768142 0.3930645 0.81836146 3.0904353 -0.78417796 1.9375677 0.019803649 1.8480409 -0.9888897 -0.58479345 -3.213075 -0.12116826 0.79673034 -0.4278727 -3.1674535 -6.062827 0.9548332 1.7879307 0.16225463 0.61385584 
-1.0237958 -0.2482542 -0.29417908 -0.73060083 0.94607776 0.48659062 -0.29014608 -2.5110233 0.52958167 1.1469867 2.043455 -1.6820049 0.004021098 0.48518556 1.3290441 -0.15655063 -2.2322242 0.030421512 -5.0539217 -0.9905114 -2.429952 2.5259597 2.1241734 2.2894332 -0.15019701 0.19059463 0.3702105 -0.88924515 0.4476071 1.1929103 1.6117253 0.44753262 -1.1036218 -1.7291025 0.54366696 -0.98969716 1.7786968 0.86425304 -1.221348 1.4106991 -1.1937629 -0.8372219 -1.5107149 0.7896653 0.7528679 -0.4194702 1.0222043 -0.08622374 0.76414084 -0.4984758 0.3380808 -0.7076442 0.4066549 0.196839 1.1200426 0.50712204 0.1507564 -0.85754716 0.8007063 0.9724637 -0.89036745 0.30276158 -0.03212157 -0.9654124 
0.7560716 0.7339751 0.457934 2.9815896 -0.2584753 0.31205648 0.81120735 0.52809846 -0.22991712 -1.7967927 -0.2917354 1.0389845 1.2629422 1.0059031 2.5751638 -0.05180643 0.19723114 0.020937005 3.8669894 1.1603909 -0.017668867 -0.039850023 0.13614841 -0.027869891 -0.67336285 0.22543637 0.81535715 1.325726 0.895858 2.1209576 3.4225733 0.7920752 1.6059967 0.46805668 0.25640965 -2.0417762 0.09954717 -0.9077351 -0.23960792 -0.24484274 0.5623415 -0.4645974 -0.39251468 0.39524084 -0.1607402 -0.19997346 -0.62859744 0.56659144 0.7347733 0.7362041 -0.26736954 -2.9457443 0.5988064 2.0515993 2.835793 -0.27514005 1.8370342 0.07976565 1.9959819 -1.4151894 0.30192906 -0.6261955 -1.1779337 -0.21096896 
-0.50507903 -0.22456715 0.96098554 2.3694127 -0.06833508 -1.458869 -0.30253828 -1.3797294 0.43157512 -1.3644967 -0.8210478 -4.0138726 -0.21103553 -0.28416243 0.2300973 0.06352116 -1.1706669 1.1292181 0.3814035 1.843046 -0.20810907 0.34453347 0.28910026 -0.23660089 0.5869977 -0.4914763 -0.845493 0.33248043 -0.47006604 -3.4775746 -1.799077 -0.32167894 1.0176667 0.037851587 1.5754876 1.2988945 -1.0512643 0.88597745 0.4859135 -0.5667358 1.2262174 1.4836303 0.50220245 -0.39874887 -1.8554256 2.0074635 0.81532955 1.0242049 -0.29263082 -0.86571807 -0.15340297 -0.97532636 -1.667168 -0.8785299 0.4822501 1.3706136 1.7342182 0.3177292 0.74461305 0.97803223 0.52729636 0.8628637 0.38056523 0.59713465 
1.1219703 -0.4493349 -1.2013427 1.2102158 0.77310437 1.044655 -0.6160973 -1.2143167 -0.7228955 1.0566514 -1.5517923 -0.32232764 0.19450177 -0.20552213 -1.8198717 -1.3626516 1.082213 0.26997542 0.050646443 -0.6713341 1.5524294 1.0746685 0.42443496 -0.9123623 -0.69051963 -0.68910384 0.3980565 -0.45340475 0.521278 -0.27635887 -1.1126227 1.0646436 -1.7627816 0.5046046 0.04473554 1.4853281 -0.85882753 0.4197059 -0.52798975 0.34973133 1.3246865 0.20071192 -0.62064976 -1.1024064 1.4173349 0.40853682 -1.584333 -0.7142987 -0.99262905 0.33572152 1.6024535 -2.7327123 0.85254467 0.26752436 0.059552927 1.2548441 0.19202639 -0.0077237096 1.6721151 0.54548955 0.19180028 -0.37707198 -1.4582036 0.7478898 
1.0800073 -0.31347698 0.8137803 -0.7711701 -0.22091839 -1.1884909 0.2511962 1.0995033 2.0086958 0.011172341 0.70466685 -0.98373026 -0.6234471 0.9097438 -0.20016497 0.66928965 -0.6813065 -0.5612621 -1.5734324 0.7868512 1.594234 0.28427672 0.033172186 0.5667143 0.088083565 0.3884917 -1.560346 0.5065408 -1.262037 -0.2964532 -0.07453893 -0.098196715 -0.058161013 0.89808846 -0.6245201 -0.12629732 -0.15727617 0.48744258 -0.118386686 0.56596345 -0.94118077 -1.2168381 0.27537674 0.7480318 0.008096082 0.4335042 -0.7815749 -0.17991914 0.45724958 -0.39492744 0.090523496 -1.6289434 0.23097524 0.5967617 1.1521958 1.6219262 -0.3029443 -1.1967447 -0.54936683 0.50413984 -1.94978 -0.97366476 -1.7197454 0.71507853 
-0.5246397 0.8573497 0.7028237 0.86644095 0.72669226 -0.8879335 -0.3253737 0.18048044 -0.70377225 0.6561324 0.4890294 -1.3054204 -0.9894208 -0.36500028 -1.4337196 -0.11103602 1.1769607 0.3729675 -0.90659505 -0.72438216 0.99826175 0.4205191 0.07842011 -0.2402472 0.45100093 -0.11236277 0.753326 0.9391554 -0.17010012 1.4083118 -0.46872002 -0.24743195 0.37281594 -0.677258 0.46169946 -0.572984 -0.29791227 -1.0827651 0.72548246 0.048994884 -0.5415961 -0.48497587 0.35052016 1.0621058 0.7408457 0.34504557 0.5554096 1.1640098 1.219924 0.23254816 -1.7902415 -1.5299937 -1.1830463 1.3100214 -0.9266394 0.45563757 0.4883155 0.6771261 -2.4060993 -1.1315291 0.42051724 1.0625639 0.96433765 -2.4809327 
0.31377125 -1.2235382 -1.1400988 0.74611217 1.4069253 1.4454143 1.278529 -2.0181768 3.3725636 0.04174384 0.03166377 0.8310116 -0.28188467 -1.0315135 -1.7380773 0.3857645 0.62429744 0.009900893 1.4305387 -0.24907626 -3.4651797 -0.77959067 -0.8081572 0.6624235 0.5058878 1.2285441 0.6924217 0.8002619 -1.0665375 -0.21080664 0.6634469 -0.15047325 0.1584374 -2.5332325 1.045151 -2.1402657 1.2514204 -2.015034 -3.8411512 1.2728121 0.46906668 -0.42840755 2.669435 0.65339506 0.5833989 -0.25474265 -1.5105467 0.86107713 -0.6331248 0.8334255 -0.4823188 -0.812502 0.716782 -0.6467339 -0.35662517 -0.24961674 -0.34109214 -0.13033052 0.5871973 0.8301418 -0.182641 -1.1028358 0.82551837 -0.9219876 
1.2581964 0.36263755 -0.5206217 0.30937043 2.1373963 1.5616195 2.0156898 -0.44217846 -0.99523413 1.3414811 -4.7208934 1.5072439 -0.081829764 -0.58011764 3.4583838 1.3597813 3.281658 0.39157024 1.3143009 -0.015702829 -0.43747848 1.0158281 0.5292508 0.35156003 -0.2464351 2.4235098 -2.5393178 1.8258392 0.54053515 1.7253603 4.646991 0.078229085 1.4330802 -1.3380593 1.7694494 1.0552337 -0.8240373 -1.3766758 0.5942011 1.10187 1.8181618 0.24682313 0.42048237 -0.16448511 0.71096146 0.9875738 0.78145415 0.051514108 -1.5603795 0.06901812 -0.35276574 0.9140815 1.6215777 0.5180338 -0.19441019 -0.327322 0.6978461 0.21119803 2.0883331 1.841365 -2.1221178 0.0410261 0.027920961 0.6148317 
0.39542645 0.38060746 0.17318903 2.046837 0.47566554 1.7667295 1.4967142 1.9947306 -0.68715936 -1.5479174 1.1797622 -1.4842 -0.5921217 0.7698924 -1.7108258 1.5164018 -0.37379172 0.34647134 0.10131771 1.9071195 0.7518186 1.2775644 0.8833583 1.541219 0.119576566 -0.24031684 -2.222168 0.46189496 0.1722623 -0.058868136 1.979197 -0.3042606 2.11218 0.6083975 0.11644718 1.3547227 -1.1121216 1.5291268 1.4749478 0.8208715 -3.6201832 0.26720014 -0.31680197 -1.7193493 -1.0218996 0.5281841 -1.0006027 0.054180097 -0.002309425 0.6849026 0.60935163 -1.7309762 1.8651514 1.0047799 1.1795092 -0.2320046 -0.39957413 0.13366845 -0.5002949 1.8689178 -1.0785184 -0.89868045 1.838775 -2.489314 
-0.9095945 -0.5027963 0.6014141 1.060221 0.66798353 0.357218 0.43627766 -1.51907 -0.6345592 0.17212966 0.7721038 0.51606745 2.1590939 -0.104827285 -0.7228187 0.92107594 1.6399182 0.1122944 -1.3898927 -0.736408 -0.687931 0.020420479 -0.5193014 -0.04933786 1.4065506 -1.8685741 -1.3439137 -0.35464075 -1.4489075 1.8660928 0.47558147 0.4568549 -1.2420008 -0.1276163 -0.36840144 -1.3167832 0.7914513 -1.1541996 -0.5143097 -0.7064777 -0.82809716 0.5539758 -0.95047486 -1.7461519 -1.1837381 0.25315157 -0.74420387 0.7267348 -1.4471847 0.081861675 -0.13327499 1.1388713 0.27870458 0.6623601 -0.37949887 -0.6028194 -0.3689461 0.76984227 0.02946417 -0.97312295 0.6597191 1.1060983 0.9586874 -0.11372888 
-0.08944468 -0.5338556 0.85971874 -0.50360197 -0.9774849 1.3048861 1.2001647 -1.6186743 0.7750147 -2.002284 -0.4545798 1.3975501 -0.38834736 -0.1445707 0.8867237 -1.2065152 1.0981109 0.36513382 0.985368 -1.5875206 1.561864 0.7761948 -0.017686551 -0.016425917 -0.6156017 1.4862418 1.6297187 0.730967 -0.07654677 -1.4490961 -0.14813435 1.0617551 -1.3157985 -1.7460327 1.5568719 -0.64362746 -1.5101465 -1.9439988 0.95792013 -0.07335112 1.1578094 1.705495 0.4302853 -0.7000053 0.36757672 0.27649623 -0.8000213 0.2635364 0.8258762 -1.5137672 -0.13197254 0.5981909 -0.95015776 1.315211 -0.5093052 -0.38450664 -1.6067691 -0.5484222 0.40496966 0.687241 -0.74745417 0.081060424 0.7966217 -0.6543292 
1.4940716 -3.0811815 0.92147505 0.24460648 1.6428002 -0.07028818 0.9213509 -0.63286436 -0.58655584 0.14432898 -2.5542943 1.3182225 1.1742029 0.44680882 -0.667263 0.458342 1.4639071 0.2987472 0.527701 1.0630921 0.5630947 0.8402868 0.17289923 -0.89024675 0.9317989 -0.6962728 0.7611014 0.5424682 0.40063533 -1.071521 0.21741036 0.9070925 2.2975478 0.91666853 0.48843583 0.2669369 -0.02638569 -0.97191083 -0.21386606 1.012284 0.9047674 1.2056327 0.6654832 -1.4000721 0.8438176 0.6324706 -0.17528477 0.09285351 -0.20823315 0.1381344 0.44465002 -0.9860519 1.1320882 1.0703274 0.6515594 1.0481864 -0.3392027 0.19455262 -0.52842605 1.2519765 -0.7154053 -1.3393426 -1.9626031 -1.2862782 
0.34202924 -0.8165033 -1.01936 0.6728324 -0.78452206 1.8715165 0.52670187 0.33869326 -0.94254714 -0.08360715 -1.9155347 0.5175615 0.39883104 -0.7721638 0.5944781 -0.35191405 0.40454224 -1.3387322 0.7475156 1.0902113 0.86678857 0.4384334 0.7692669 0.63416994 -0.97689617 0.50481725 0.34029844 1.31773 -0.98152745 -1.950513 1.1372231 0.028467897 0.39080667 1.1218097 0.6266235 -0.25246552 0.9109046 0.96488595 1.3245142 1.2463115 1.4481246 0.67502165 0.1491069 0.16016136 0.15729098 1.2175933 -0.2066408 1.0617353 -0.7404386 1.1631435 -0.068080604 1.7904819 2.2655373 -0.06519331 0.14676271 -0.15417527 -1.0932157 0.22596538 0.36275515 0.2622007 0.92766196 -0.013929839 0.12241137 -0.17186946 
-0.7645011 -1.0441114 0.43453768 0.7733399 0.59689474 2.1893225 1.2576892 -2.3806632 0.5571408 -1.6843337 -0.2599263 0.021040132 0.6809776 0.22747496 0.6560667 -0.39696914 0.7700262 -0.24983393 0.9157559 -0.10750952 -0.89447653 1.1988429 -0.43159354 -0.09488696 0.23216228 0.12305014 0.2984699 0.70746595 -0.9512834 0.76512694 0.85659575 0.19220987 -0.41880694 1.3901831 0.72296596 -0.22404076 1.0579003 0.3758811 -0.5279727 -0.5331962 0.70068634 -1.1748137 0.13796717 -0.7511346 -2.0307903 0.761635 0.12337268 1.2324982 -0.73811346 0.5644789 0.34782177 -0.24450509 0.8454276 0.04514647 0.27964556 -3.4458878 0.4734221 -0.59007436 1.7933686 0.19875407 -0.7158885 0.5871744 0.5357714 1.2870977 
-1.4389894 0.61378235 0.070273265 -1.1612929 0.28014183 -1.1651537 -1.4902812 0.5360418 -0.8832358 0.7658155 0.9144896 -1.6326629 -0.9207253 0.5442813 0.51607436 -0.27502337 -0.1629253 0.4364233 -0.65129596 0.6749996 0.016889721 -0.9991464 -0.056246243 0.04171503 -0.6673603 -0.19891065 -1.2448281 -0.28918186 -0.12929042 -0.50933105 0.6264409 -0.5178694 -1.931518 -0.6184771 -1.5357646 -0.6996334 -0.6906234 0.017308518 -0.19998324 -0.93211585 -1.126467 -0.46105903 0.28451532 -0.25402147 -0.047227647 0.42449695 -0.6470689 -0.20068154 -0.19994602 0.09607403 -1.2049377 -0.4974631 -0.8355498 0.57608646 1.028358 -0.5322201 -0.1437677 -0.9977313 -0.32046562 -0.28020924 -0.6244667 -1.4050993 -0.5088185 -0.19102378 
1.1628045 -0.29245958 -0.58807224 -0.09076068 0.67043054 -0.109803334 0.8244586 0.32210132 -2.24523 -1.7070367 -1.0615343 0.94776577 0.31167725 -0.4709224 -0.026053442 -1.7707869 1.5110689 0.35355723 0.14342128 0.67508125 1.1868963 1.2442588 -0.62417215 0.60647994 1.7724597 1.8175821 0.5335824 -2.2086172 0.42593858 0.4372231 0.5596639 0.8310319 -0.4418038 -0.037804775 0.05709279 0.2825356 0.4108649 0.06436395 0.35504788 -1.2274106 0.7295016 -0.67545784 1.2904 0.4535637 -1.8141102 1.2344474 0.33642462 0.7154526 -0.5523222 -0.1502169 -0.054157183 0.22924083 -1.4557916 -1.0462061 -0.2201776 0.53441024 -1.134579 0.3119874 0.6057748 0.88248914 -0.15540506 -0.4112382 -1.010695 -0.21052071 
-0.7920764 0.23277073 -0.68493956 -0.21487413 0.88491976 1.4989026 -0.086473584 1.2998228 -1.4266835 0.5747575 0.013435424 -2.279205 1.0731786 0.6683028 1.3182808 1.0687263 0.2701965 1.5007278 -3.2076902 0.9079942 2.2761328 -0.21965514 1.1993456 -0.22868393 -0.81331885 0.4756585 1.9440249 -0.08342679 -0.1868186 0.41992447 1.9822739 -1.5918804 1.6910328 -1.3072975 0.84483427 0.76937985 1.4083406 -0.29056466 -0.79531646 -0.36074182 0.065597825 1.5575527 -2.9001844 -1.6007469 -0.18939283 1.0640891 1.4629155 1.545956 0.17261763 0.6374332 0.45942518 -0.039625295 0.65744483 -0.17294888 0.1058582 0.4100137 0.832483 -0.29921713 0.36894256 -1.4178259 2.335366 -3.1420574 -0.549323 -3.137307 
-1.1186985 0.57817566 -1.0184578 0.015714167 0.23832501 1.2524333 -1.067207 1.961588 0.45837587 1.1651957 0.3118364 -1.0653825 -1.9280694 0.013925752 -1.5575843 1.3332814 -0.60398686 0.86826307 -1.7479262 0.6237487 -1.2129214 0.380934 0.87896824 0.8556636 -0.51579356 1.4605767 0.20453489 -0.7112404 0.69643974 0.14348288 -0.115055084 -0.9708417 0.2156707 -0.34739375 0.3222017 -0.045142435 -1.3234309 -0.048668716 -0.023074348 -0.8705472 -2.1403065 -1.5357964 -0.3290352 0.4770542 -0.27914673 0.16851954 0.49833623 -0.13431309 1.8421292 -1.2918464 -2.1801877 -0.13215917 0.11683767 0.5830438 0.91747856 -0.47973028 0.30296484 -0.71883166 0.1600747 -0.2929796 1.5205809 0.05402006 -1.7009902 -2.7255485 
1.4825249 0.27644187 1.2681388 0.53209376 -0.7359049 0.800454 1.2520082 -0.9756783 -0.03864712 0.31985164 -1.4696292 0.8582406 -0.28788415 -1.3782444 0.9591995 -0.076650135 -0.35670575 -0.25582483 0.10678564 0.7996101 0.4716185 1.3526223 -0.031036615 0.07400578 -0.78232765 -1.3841306 1.3157177 0.9724476 0.11378802 -0.25243318 0.0003221959 0.20356192 -0.34091693 0.38857168 0.0029645115 0.07090641 -0.677241 -1.218908 0.54815656 0.7522861 1.691462 0.1669093 -0.66317236 0.79970306 1.150655 -0.1845648 0.60044605 0.35186058 -1.1775744 0.64477146 0.22241415 1.9737151 -0.96085626 0.44606766 0.10435445 -0.13427365 -0.283102 0.69130987 0.31782907 0.008850382 0.77760124 -0.41351804 -0.58513105 -0.5054044 
0.36418816 0.4812108 -1.0272437 1.2085359 0.8114379 1.4613801 0.71671075 -1.3291565 1.5422938 0.042027853 -2.178224 1.9761922 -0.12910828 -1.3350803 -0.10292365 -1.2439972 1.2053882 0.02309452 -0.017630057 0.639656 -0.15382625 0.71187544 0.20939222 1.5734698 -0.38193223 0.14996412 -0.09579157 -1.2112515 0.4094653 0.93127227 0.50083935 1.2174041 1.0143871 -0.25968137 0.54111433 2.023673 1.3118823 -0.31444693 -0.0013313907 -0.14883997 0.6987159 -2.292176 0.7343046 -0.11197191 0.50296295 1.0455977 0.9607491 -1.5154253 -0.14642707 0.30026096 0.25031078 -0.70015454 0.67888 -0.10635322 -0.56475 1.0193805 0.7581895 0.85368735 0.6969025 0.40528372 -0.6721732 -2.1109884 2.6091607 1.7026646 
-1.1538111 0.2132836 -1.3211471 0.020625833 0.41997856 0.9263356 0.5321786 -0.032600265 0.0027524736 0.9607294 -1.3156065 1.5186563 -2.5665069 -0.33152592 -1.4257984 -0.8300638 1.1987883 -0.064396806 0.55890965 -0.14699502 -2.8988705 1.1068648 0.901472 -0.5965449 -1.133664 0.8692365 0.4383743 0.3614504 -2.591264 0.26434585 -1.3831934 1.5577333 0.3707734 -0.33647546 0.38984096 2.046157 -0.10317863 1.1447712 0.14884746 -1.3471955 -0.3461243 0.7751936 -2.4767046 -1.8053125 0.85854876 1.2680552 -0.74219304 -0.44487765 -0.76513773 0.068025805 0.14438683 0.82670534 -0.16126405 0.09776384 0.7557813 -0.3575217 0.18520135 -0.6657541 1.0864053 0.2825138 0.54152143 1.1777773 0.25786057 -1.4028181 
-2.7360992 -2.278528 -2.3908095 -0.53471714 -0.3559236 -0.4459669 -0.36908114 -0.17461342 -0.43272832 -2.599383 0.17041408 -0.31333303 -0.43691903 0.7235794 -1.8405795 -0.03951751 -0.45796406 -0.9059854 0.33733374 0.5273921 0.01735789 0.88225883 -1.2249185 0.30492133 0.3044962 -2.0640507 0.018460192 0.024219334 0.8536259 -1.9964362 -1.2821175 1.2119857 -0.21183655 1.344557 -0.028101392 -0.31262234 -0.7345091 -1.8695145 0.81954426 -0.7047006 1.1173216 -1.8548146 -0.34780005 -0.22429071 0.71440774 0.4231093 0.49954367 -0.5048732 -0.4292654 -0.8752716 0.023802083 -1.4845515 0.7719634 -0.3565479 -1.4812955 -0.26665726 0.37311718 -0.6473087 0.8096865 1.0934294 -0.45808125 -2.7203164 -0.59912556 0.56238836 
-1.6237054 0.58663267 -0.7234944 0.83898926 0.63775504 -0.5503583 1.645924 1.0999573 -1.1802944 0.3384219 0.0276071 -0.37922505 -0.36548063 0.5674841 -0.74190825 1.1464769 -2.1170733 -1.6905856 1.4501725 -0.540922 1.6058589 1.2949594 -1.7359867 0.81893855 -3.19097 0.5354899 1.3445325 -0.44630882 -0.877225 0.45777813 -1.0969884 2.0793478 0.69733787 1.6841155 -0.34919503 -0.3031417 1.3494874 2.042101 -0.059698354 0.040234428 1.5764475 -0.002382304 -1.7712281 0.07398928 -0.21730994 -0.91042775 -0.8582182 0.75428015 1.1123359 0.09399964 0.045214407 0.5597105 0.47848967 -1.6208754 -1.847072 -1.8394846 -0.10256031 -0.37168536 0.40259162 -1.7420009 -1.5543337 1.8735002 -0.35088146 0.62805545 
0.7326918 1.2521812 0.1552738 1.4713504 2.2094939 0.9031494 0.9106281 -0.99074745 0.9531589 2.2364154 -0.8710426 -0.03873678 -0.06871571 0.91682667 0.82149976 -0.8237718 -2.1281924 0.28854993 2.1963987 0.75557375 2.163278 0.44850835 -0.8355256 -0.5916298 -0.8268694 -0.19357994 1.5624206 -0.36786872 -0.7744725 -1.4912817 1.9423229 -0.51544803 0.29186866 1.035091 0.8944304 0.8469144 -0.07303993 0.5152674 0.92539614 -0.1300659 -0.8575591 0.71464366 3.2299054 0.5432515 2.4857793 0.94126 -1.9894103 0.7186746 0.481681 0.17227449 -0.108037114 -0.6652645 0.1560806 -0.7105743 -0.53667027 -0.80705315 -0.67322296 0.4238643 -1.1512804 -0.5119728 1.233613 -0.65331036 -0.5317727 0.9989739 
-0.38418922 0.83249557 0.74903274 -1.4445269 0.43750295 -1.2463548 0.01539753 -0.63847286 -1.0817972 1.1470239 0.6704748 -0.9222103 0.03053791 0.5842013 -0.54334706 0.17523202 -0.14665264 -0.5810419 -0.4462116 -0.05369147 -0.6902433 -0.66881436 0.22408758 0.48064542 -0.47839564 0.5660784 -0.054336928 -0.51175916 0.36146626 0.9582274 -0.88055664 -1.4660525 1.3396978 -0.36031657 -0.7941999 -3.2742841 -0.5977934 -1.119367 0.51144814 0.50499713 -0.96577054 0.33990154 -0.32081464 0.17459455 -1.239894 -1.8055663 0.9983685 0.10389452 -0.2449013 -1.2968992 0.26131412 0.24214442 1.5845224 0.61202496 -2.9388204 0.45851088 0.75637925 -0.4914943 -0.81963325 -0.64958316 -0.6666616 -2.1847205 0.6661825 0.5173655 
-1.4884874 0.2868778 0.39929116 -0.42855197 -1.8142025 0.10835219 -0.6909662 -1.6895487 -0.7149048 1.5050163 1.23434 -0.9573066 -0.26552442 0.5921032 -0.63356483 0.013756701 -0.19550262 -0.51045465 -0.6610928 0.09784334 0.4716081 -0.08649331 0.22815818 0.46527058 -1.9686061 0.54377013 0.10494564 -0.10015783 -0.41393244 0.25164667 -1.4908339 0.28675294 -1.2507557 -0.09946179 0.07146249 -0.17201154 -0.031476658 0.48764205 0.34042513 0.14535414 -0.21010506 -2.337778 1.0335369 -0.02402839 -0.6754781 1.4128463 -1.2096349 -0.31997862 0.33532745 0.46437258 0.77674985 -1.2427907 -0.5380209 -0.065992475 1.6046915 0.4666888 -0.38792166 0.08787454 -0.93720233 -0.8456846 -0.8491012 -0.55822843 -0.17113626 -2.7436352 
0.33152494 0.49678597 1.132331 1.6886923 0.600565 -0.49710175 -0.95951384 -1.3968937 -0.1246275 0.90584207 0.7900316 -0.8336464 0.0770933 0.53401446 1.0999933 -0.6757766 0.39915013 0.26691675 -4.458928 1.2924359 -0.83832836 0.2943072 -1.700404 -0.65487105 0.9893307 1.8725193 1.5039557 -0.40910435 -0.8536855 1.0889336 -0.077801794 -1.4216694 0.6338325 -0.12406293 0.13433412 -0.6733662 1.6046642 0.6395458 1.9238105 0.5585279 -2.8521435 0.13354953 0.78599083 -1.4191482 1.800374 -0.21111514 -0.296283 0.5169984 -1.7852638 0.51712996 1.9240617 -0.9480258 -1.0123537 -0.031432398 -0.8479469 -0.34484133 0.14276919 -0.876366 0.90272737 -1.7251323 -0.34043214 1.0497836 0.5399459 1.0715134 
0.5959755 0.9757135 -0.03771486 -1.3537141 -0.59323895 -1.0596267 -0.5248403 0.5131107 -0.706651 -0.50417143 -2.5498242 -1.0692397 -1.3346914 0.24157439 0.26024258 -0.42581502 0.8962718 1.3771412 0.21748768 1.0650402 1.328422 0.044590272 1.1027162 -0.19545501 0.09526911 -0.6067356 0.7937747 -0.62145835 -0.20707226 1.3619533 0.48447368 1.2780836 0.8167891 -0.29522213 -1.6594702 0.9048479 0.6590922 1.5271627 0.36491787 1.1635908 -0.39220038 1.3317503 0.5008627 1.1376535 -1.9853265 -0.82653207 1.9500695 0.07890523 0.31844616 -0.28516898 1.4936142 1.9966084 0.44630328 0.121144384 -0.16248673 -1.7117114 -0.8344813 -0.38480714 0.84521896 0.97407085 -0.80945784 0.74660313 2.8440764 -1.2608064 
-0.02606203 -0.43813112 0.75659364 0.19645962 0.61249053 -1.5649042 0.2625629 -0.24315625 0.11268916 -0.07728504 -1.0213449 -0.92029274 -0.40040544 -1.8153187 2.945707 -0.75798595 -0.4603608 0.84224796 -0.450628 0.068935916 0.12072877 3.7317216 1.1677151 1.9717247 -0.43110177 1.014981 1.3391811 2.265865 -0.7899811 0.31459874 1.1023653 2.490503 0.88314444 0.8869109 -1.1698638 1.6763086 1.4292173 2.5500066 -1.1540949 -0.71406937 -0.23763686 -1.5655265 1.0662469 1.1387001 -1.0331407 1.0689456 -0.6825544 1.1895677 -2.0695596 0.97527546 1.4569141 2.1696692 -2.2751005 1.2346901 0.44460854 -0.10459878 0.47527945 1.0719528 2.521502 2.5613182 -1.2128037 1.0376142 0.7595804 -0.96932 
-1.2301407 -1.3158215 -1.2081481 -0.6489345 -1.8335304 -0.8057801 -1.1847835 -0.3842086 -1.4829118 -0.72848785 0.35189268 -0.18261231 -1.7921578 0.6790063 -0.7340734 -0.5543053 -1.1931598 -1.6096278 0.555223 -2.1626203 -0.65320754 0.38361672 -1.1931407 -1.5443212 -1.9448845 -1.0439118 -0.69498247 -0.3752023 -1.3511778 -0.58815426 0.4147164 -0.53926694 -1.2237818 -1.8033864 -2.4036763 -0.77032465 -0.41903478 -1.3792177 -0.97850335 -1.2435255 0.31680506 -1.3375016 -0.25562516 -0.8075986 -0.5395706 -1.9486645 -0.39849222 -1.7012812 -1.2137902 -1.709153 -1.3350563 -0.47232005 -1.5840999 -1.3816669 -0.7036166 -1.454602 -1.4572178 -1.9162589 -0.0005956162 0.017337458 -0.4748953 -1.4579037 -1.7688129 -1.3395745 
1.4847288 -0.65233886 -3.2801375 0.23033306 1.0573579 0.612934 0.22149034 -0.042784285 0.5718178 -1.3344247 -1.1648804 0.535746 0.7116454 -0.44113958 -0.21521328 -2.4533978 0.9121607 -0.74314785 -0.8999026 -0.9615381 -0.4446999 -0.46271273 -1.6336945 1.2235347 0.9241784 -0.7515132 1.0028192 -0.2880692 1.7034957 -0.46387497 1.9032086 0.678007 0.51692003 -0.15146881 1.2973559 -0.2569203 0.20775259 -1.0840398 0.38863218 0.50631416 0.23575756 -2.1434264 0.8570727 0.38071665 0.85153776 1.7100233 1.5965669 0.8582773 0.19769682 0.4939976 1.6969323 0.2406118 0.7001812 -0.09114557 1.3386917 0.5178062 0.16807416 -0.5054878 0.24496354 1.7307848 -0.9570614 1.0601592 -0.6942629 -1.8706652 
1.4521126 -0.23601364 0.681374 -0.8294857 0.10402483 1.1737254 0.48340976 0.05408222 -1.1668262 -0.66869736 0.63091224 -0.14331329 -0.701994 0.4106255 -1.7518964 0.4336916 -0.54119176 0.43312818 -0.67460996 1.4223838 -2.6145146 -0.46062297 0.26113516 1.2677766 1.4454652 1.2613994 -3.2560673 -1.2140169 -0.92549497 -0.6992054 1.0355302 -1.6392691 -1.1936803 0.81379795 0.40889338 0.51375514 -0.0015038103 0.845973 -0.19468722 0.73862493 -1.3317834 -0.1697107 1.3276292 -1.8386384 -0.37088412 0.8948503 0.4247969 -0.0594768 1.5143676 -1.5867478 -0.4733469 1.0599829 -0.54909384 1.4309968 1.3919332 0.5181632 -0.75111014 0.03560637 -2.4240458 -0.2786748 1.1266179 -1.554267 -0.35049576 -0.28404373 
1.687535 0.9903982 -1.0657067 0.44081584 1.0274458 1.3339257 -0.7172564 0.104126856 -0.58749646 -0.2201621 -0.10373286 -0.5855009 0.18928355 -0.9082143 -2.4076552 0.702589 -0.67600983 -0.98257035 1.3766168 0.29986784 1.2860535 0.6799729 -1.2807416 0.2959726 0.28758967 -1.9940815 0.82302845 -0.4959217 -0.8823438 -0.9668519 1.7757843 -0.020455591 0.68507534 0.30279827 0.24072987 0.6839096 -0.29320574 1.1222187 -0.30824843 1.104299 0.6151508 2.548706 1.2607783 0.9519314 0.56918764 0.08581272 0.59694374 -0.78408056 0.5435077 1.3053511 -0.04134703 0.84685796 1.4685229 -0.33809543 -0.46581316 -2.1058753 1.2966471 -0.8122456 1.1292235 -1.2344052 2.7060325 1.2966576 0.62705225 -1.8402433 
1.3769332 1.2926285 1.4831046 0.68314254 0.25365108 0.35063094 0.38237482 0.058025178 -1.4737573 -0.05613507 0.3080325 0.89224565 0.49646017 0.9503221 -3.614856 1.203639 0.061740343 0.32500413 1.5868816 0.8381181 0.25882128 0.25353354 1.662834 -1.0338396 -1.546778 -1.49263 -0.93651783 -0.051808875 -1.0201215 -2.0047812 -2.2321332 -4.2637467 1.6814101 2.122075 1.0235798 -1.0817181 1.6167367 -0.41142872 -0.57237226 -0.11186992 -3.8891492 0.70683414 -1.7425616 0.5985926 -1.00837 1.1055808 -1.0723381 -1.8990494 0.70723873 0.39804828 0.7047791 1.0514625 -0.9307132 0.10319006 -1.2274792 0.1800803 1.1583033 0.35285795 0.9686819 -0.19479613 0.34420362 1.8475474 -0.6003157 -1.1277738 
0.17559542 -0.024323573 0.9110514 -2.490114 -0.4126258 -0.5304712 -0.3221013 0.63431305 0.68566483 0.42562613 1.3608892 -1.3117883 -1.3358488 0.3971944 -0.98521644 -0.2508 -1.1175733 0.8918714 -0.57024676 1.0117116 -0.91593856 0.16270168 -0.15636553 0.36750925 0.33879715 1.2217625 -1.1392195 -1.5303911 -0.36830786 -0.93658125 0.35919815 0.047519602 1.3925089 0.37922594 -1.5103742 0.5200099 0.46026394 -0.6034858 -1.5610099 -0.50290585 -0.4691042 0.5712415 0.0015669293 -0.22247235 0.37923634 -0.007868432 0.880639 1.3108555 -0.64490014 -0.6938926 1.1586294 0.6112245 1.4817702 -0.7466507 -0.7801314 0.81584144 -0.534163 0.37167758 -0.8474477 0.3811267 -0.09805424 -0.55735785 -1.0804849 -0.2518852 
-1.6865836 -1.1702944 -0.0585454 -1.7496918 -0.7571482 -2.5336924 -0.6264285 0.84791744 -0.24087726 -1.5346773 0.6156683 -0.25306052 -0.8716712 1.8130846 -1.4286419 0.96186656 -1.2159231 -1.2691381 -0.21275732 0.5638664 0.15436827 -0.4572847 0.8348432 1.1177478 0.3090658 -0.18029706 0.2456527 -0.64697033 0.9754335 -1.2071345 -0.06999377 -0.35540307 -1.8310884 0.41468838 -1.4082557 -0.28311568 -2.2862532 -0.9950005 -0.73321986 -0.111367226 -1.6416471 0.50057906 0.038741194 -0.64928234 0.11164376 -1.5510092 0.11725429 0.49234012 -0.09582272 -0.30916584 -0.20301883 0.71490777 0.059029277 -1.3838574 0.9908039 -0.66447175 0.8115487 -0.48912215 -0.99586684 -0.30745125 0.23544702 -1.8666657 0.40898556 -1.1189263 
-0.408211 0.4875094 -3.2610922 0.34146652 -0.7287252 1.3066397 -1.3248224 0.6393132 -0.8009849 -0.6661252 -2.019114 0.71352607 0.44552764 -0.48055592 1.1296893 -0.21548705 -0.2620225 -0.052976076 0.12865543 -0.9559028 -0.4879284 1.8548474 -0.1596793 0.16795896 0.13950224 0.49417228 0.60969776 -1.5333871 -0.4282739 0.3551831 1.0852937 1.4480366 -1.9745274 0.5749938 1.2601614 -0.79870677 0.24832992 1.8350691 -0.6512208 0.87404037 0.9255063 1.3194877 2.4528596 0.4357221 0.57447445 0.67107975 -1.692712 1.5613782 0.8096667 -0.13116261 1.2744287 0.20316288 0.21173893 0.9909241 -0.7227852 -0.55618006 -2.0004303 0.6169069 -1.1402942 2.987742 -2.096902 -0.24763882 -1.4747723 -1.0681479 
2.4720268 0.41644007 -0.17156368 -0.24124064 -0.86411786 0.8687263 0.6292743 0.5013178 -0.25646254 1.6689011 0.4885541 1.4389492 0.40512472 -0.047917034 -2.9513733 0.7012928 -2.0372834 0.8271039 -0.31649032 0.7783611 1.4543672 0.032610185 1.3805815 1.4038978 0.75330424 2.0147507 -2.4750073 0.13271496 -2.33899 -0.86626774 1.6993153 -2.805696 1.383749 -1.3303798 1.0852028 -0.12088458 1.5646112 0.48105234 2.2763839 -0.45780835 0.14763552 -2.297035 -0.45561916 -1.7769734 -1.67097 0.28778312 -1.5270586 -0.97768754 1.25409 -0.26130402 1.7302518 0.6659859 0.52648187 1.6464438 0.051672895 0.03069482 2.1080296 0.13062361 -4.1393614 -2.515208 0.59142333 -0.2990904 0.021432096 -1.2462767 
1.004239 -2.1907759 0.4641552 0.06975812 -0.19712974 0.41317946 1.796355 -0.055180993 -0.34456807 -0.4988868 2.2887068 -2.0220594 -0.12074711 -0.86655265 1.127362 -1.2727282 0.7624678 1.2818379 -2.3208604 0.12927298 0.8355583 1.217981 -0.03739688 0.27859315 -0.17213066 -0.58153033 -0.53646517 -1.2778422 -0.54563564 -0.87547743 -3.2368658 1.0415716 0.104228586 0.19072057 1.9816024 -1.2040151 -0.98609084 -0.5834002 -0.4669236 1.466518 0.41775694 0.5303446 0.8398867 1.7166458 0.08761612 -0.0730431 -1.6810515 1.4095813 0.46082753 1.4264901 -0.53729033 1.0758216 2.1790578 0.42962676 1.9021664 -0.6351251 -0.861568 0.44469514 0.72942764 1.6273602 2.6375644 1.1307281 -0.45666388 -0.35821697 
1.0514511 0.591893 1.228741 -0.22968955 0.011598045 -1.6076738 0.5716658 1.623068 1.1859192 -0.20004274 -0.38902235 0.75630414 -0.09485493 -1.4146323 0.7699315 -1.1092781 -3.191638 -0.4023656 0.92856807 -0.07298494 -1.726569 1.3132005 0.8321485 0.91305286 -0.4941527 -0.42808235 -0.9519991 -1.3904884 -1.8853726 -1.1315963 0.5684091 1.4797242 1.1548628 -0.7727808 0.059637118 1.8892486 0.7096941 -0.7928969 0.4172845 0.032457188 0.27784458 -0.62698185 1.3244368 -2.1779368 0.60312694 0.6834651 -0.6524093 1.5302918 -0.1737416 1.6383364 -1.2001487 0.010421709 1.6449505 -1.8423676 -0.7505229 0.71494514 1.3886397 0.18641946 -1.6287963 0.44610575 0.12263076 0.4654226 0.1742854 2.0366154 
2.0982597 -0.2970384 0.40846637 -0.22890514 -0.68535924 1.729443 1.9680526 0.46119815 -0.030911967 3.2387497 -1.9676468 -1.4577675 -0.3659815 -1.6133919 -1.0320941 2.1206548 1.086885 0.96858984 1.4969089 0.09262616 0.7596047 0.50896525 0.37027958 -0.7564225 -0.34968302 1.5830121 -1.0778435 0.9180108 0.27316466 0.36221045 1.6706685 4.2151484 2.3786376 -1.3550284 -0.0971868 -2.1828065 -0.07816896 0.37076515 -0.33710426 0.60172164 1.6720093 1.164827 1.6848149 1.9790648 2.5204308 0.84645027 2.227092 -1.4718803 1.0849679 1.0708165 0.23762155 1.7124559 0.88425994 1.2672348 1.3159784 0.15699849 1.3963193 1.5225663 -2.3946435 0.4927265 0.9298574 -0.13576531 0.333224 0.99998176 
1.4954051 -2.0825539 0.66979223 1.0753053 -1.9815211 -0.00013817697 -1.460394 1.7861421 -1.361487 -0.028390741 -1.9009993 0.5796396 0.97460175 -0.63582784 -0.31219503 -0.6952423 -0.4845577 -0.74644935 0.22038569 1.29477 -0.05825993 -0.11989146 0.80269337 0.08125122 -0.08152958 -1.2520268 0.9036455 -1.8886597 -1.9728477 -0.14862289 -0.24030174 1.558922 -1.0382699 0.86975276 1.9069955 -0.66153544 -0.9103394 -0.8427436 0.27807423 -0.19201247 1.1434102 -0.8188341 0.9172637 -0.98425037 -1.0647475 1.2813926 -1.2084178 -0.20965643 0.6473032 -2.169413 2.0687475 -0.62521535 -0.9273332 0.46673846 -1.4625733 0.18946306 1.2395718 1.2459632 1.5105168 -0.72480863 1.0328956 -1.2537427 -0.8982783 -1.6393374 
-1.4664421 -1.6502463 -0.7602024 1.4234983 -1.1826446 0.95191896 -0.29226473 -0.26041222 0.8260847 -0.93271965 -1.0678544 -0.4951688 -0.19729163 0.1330387 0.01083204 0.24749656 1.9577382 -0.0029740292 0.40060163 -1.0303295 0.49460915 0.84605974 -0.6920511 0.6159472 -3.0170472 -2.051133 1.4284499 0.3519228 0.77317053 -0.12961228 0.8042393 1.2915859 -1.0451709 -0.8408671 0.24983904 0.7740695 -0.2762765 0.23481414 0.10534303 0.77417606 1.3741039 -0.45818052 0.59433806 -1.2362006 -2.0243654 -0.741906 0.51982975 0.28968996 -0.9470873 -0.6452534 0.32668236 -0.87326163 0.053252347 -0.536106 -1.4103403 -0.41772234 -0.09515118 0.15200678 0.8351508 0.4968873 0.59039396 -1.0596195 -0.8322077 -0.2755491 
0.66926455 0.38362083 -1.2699039 -1.762765 1.7758384 -0.06171955 0.83432317 -0.42656016 -0.014895207 0.8566135 1.2640696 0.28943613 0.772122 1.5525354 1.5774925 -1.1478249 -1.928424 1.6164118 -1.3924748 1.9643089 -1.3530381 0.057445914 1.2875639 0.6847714 -1.5242095 1.1336775 -1.1721926 1.1555375 0.4692557 1.5977674 -1.4334209 -0.38396513 0.34113988 -0.07358767 1.0152819 -0.050434683 -0.024975868 1.99898 1.4676769 1.4908909 -1.9735818 1.2177018 -4.7114844 0.9661217 0.79705465 0.83764917 1.6474506 1.8242525 1.0505341 1.0035431 2.4387388 -0.9934506 1.6100278 -0.20087256 -0.15604559 0.082278274 -0.8602079 0.91146475 -2.4930115 -1.2188134 0.7224482 1.2382013 -1.7324737 0.322161 
0.22329828 0.091991745 1.2797765 0.7064067 -0.7373861 -0.7244221 -0.31304085 2.3133543 0.05014472 0.5629742 -1.5827285 0.13162802 -1.0176928 0.5369144 0.8048172 -0.6103949 -0.17883658 1.4157383 -0.23062186 1.371585 -0.9950893 -0.12305583 2.1732957 1.3317364 1.4184706 -0.89639926 0.04285545 -0.42582637 -1.0701035 1.8824921 -0.58171827 2.1766565 -0.42076522 -0.5192631 -1.0128049 1.1104381 1.2096603 -0.013841606 1.5217118 -0.9266172 0.30992007 2.0193596 0.95342714 -0.60216504 0.0042701466 -0.014753165 -0.20412634 0.80863154 0.8092792 0.11798266 0.3813242 0.16781591 0.42809498 -0.009223832 -1.2824358 1.806658 -0.4151413 1.1922412 -0.011879372 1.3905237 -1.2043463 0.7624615 0.67237043 1.3700266 
-0.18365668 0.5246479 0.051309098 -0.062038925 0.70142716 -1.3299599 0.061082922 0.52492887 -0.5663852 0.7591912 -0.68488693 -0.22703314 0.7031145 -0.44498312 1.247207 -0.92234653 0.8081329 1.1158984 2.291248 1.0651989 -2.9218018 1.3730941 -1.865157 0.5322848 0.43827224 -2.2969093 -1.3017669 -1.8042116 0.034960415 -0.33555332 -0.03511499 0.01637547 -0.3349649 -0.054560516 -0.3564994 -0.42620605 -1.3889725 -0.48600727 -0.23297592 0.9606489 0.050403845 0.57946646 0.95336413 0.015870314 -1.9546943 -0.62468725 -0.30273086 -0.15766084 -0.011580162 -0.3242636 -0.09326261 0.21995442 0.5327672 -0.61416346 -0.22070704 -0.50693655 -0.051170815 -0.26637766 0.21659182 0.89769 0.6944764 0.27647847 0.050935 -0.13439308 
0.63558435 1.0919445 1.1186427 0.12389876 0.593536 1.9995514 0.35541153 -0.107039474 1.5436989 0.7543652 0.79798734 -1.8787359 -0.5116267 0.21040432 0.461984 -0.17425118 -0.37787837 1.2482207 -1.2829868 -1.3032585 0.049875513 2.0179079 1.0896854 -0.016042056 -0.03465681 0.69538 -2.954725 -0.18928295 0.7156814 1.6640152 -2.5252073 0.24930014 -1.0193163 -0.95771194 -2.5160952 1.0944263 0.82826525 0.19179755 1.2755793 -0.43488595 0.04798926 -2.2041261 -2.053429 -1.9913796 0.074543566 0.13949445 -0.32857823 2.2491484 1.7523525 1.0490417 0.34189665 -3.4734077 0.33656037 0.834062 1.6138736 0.39098018 -2.5165017 0.81033164 -2.352474 1.4289819 0.7266532 1.238714 0.6244444 1.6732641 
0.7061819 0.110235475 -2.8821254 0.5443174 -0.81259465 0.28728077 -0.5927906 -0.93013054 -0.676364 0.077276446 -1.1903206 0.92319876 -0.06826784 -0.9874801 1.0023923 -1.5446897 -2.2798243 -0.71952474 0.894277 0.048118345 1.3069892 1.8847574 -0.49426177 -1.1226461 -1.4184172 -0.74795157 0.73540395 -0.046278916 -0.804379 -2.3029883 1.0052696 -0.25565797 0.27643108 0.29117262 -1.152638 0.50216967 1.055283 -2.7552443 -1.1005927 -0.92380023 1.1189095 0.5622019 -0.035740726 1.1315312 0.41007298 0.22418019 0.47845873 1.1088935 0.88171995 -0.28635415 2.7350888 1.0686618 0.22368817 -0.51521194 0.26765054 -0.4818727 -0.10385708 -0.78759193 0.37842286 0.689358 -0.73252064 -0.07408686 2.0492868 0.3090677 
2.0338724 -0.91593903 -0.0712869 1.6955296 -0.7697823 0.80138016 0.73623073 1.9540243 -0.40167364 2.1412919 -2.448668 -1.8801527 -0.065899596 -1.3462056 -0.22277576 0.16058034 0.0027756703 1.7685491 1.0361987 1.022201 -0.88180506 1.216257 1.680206 -0.49651787 -0.7393783 0.3187871 1.1487464 0.3867926 -0.30804858 0.9083436 0.063070804 0.64269286 0.5375096 1.3667526 -0.13904993 0.9178971 1.6983757 -0.0849671 -0.50342745 -0.9575332 1.8937497 -0.85312694 1.3720069 -0.5712126 -0.13561939 -0.31454682 -0.11810028 1.5127379 -0.13186815 1.5018824 1.4710401 1.842031 0.2848547 0.29849613 -0.22636028 1.262578 -0.56264377 -0.56053066 1.2469186 -0.7536437 0.3889288 0.3927969 1.1533937 -0.2774194 
-0.21219607 1.0675437 0.43463504 0.870376 -0.45002332 0.7418871 -0.34933758 0.1808978 1.5441582 0.9990706 1.699045 -2.4108825 -0.33364064 -0.6307612 -1.5640336 1.1782029 0.5853057 1.6479363 -0.61290586 2.4511015 -1.4945819 0.42932943 1.2947279 2.4499211 1.0858665 -0.73295677 1.7386426 0.5234415 1.2629534 1.1910609 1.6065835 -3.0208595 1.21064 1.3107506 0.55782056 0.8649581 1.0168538 -0.076882556 1.1900961 0.9691029 -3.2185616 -0.39081293 -0.66666394 -0.4886998 -1.2518262 0.39737496 -0.5678466 0.8242591 1.6892513 1.4526305 -0.08371834 0.5359138 0.86882657 -0.04371635 1.4031034 1.230677 -0.5033488 0.8025511 -1.2857084 -0.8805273 -0.6561927 -0.0788952 0.0020126076 1.6147503 
-1.7880554 -0.7820421 -0.2080497 -0.6783428 -0.6824469 -0.31469744 0.61413956 -0.7024873 1.0127455 0.56543916 0.20353076 0.7694757 -3.0108986 1.4010245 -2.6657815 0.76797575 0.08227134 -1.165724 -0.77592456 0.07436759 -3.9608037 0.3530549 -0.058193877 -2.4813812 -0.21607052 -2.3668582 0.10520165 -0.5586168 1.1476963 0.17229234 0.4120307 -1.0409169 1.1126908 -1.470413 -0.7987415 0.036853008 -0.38977084 0.4460935 -0.7031954 -0.58157 -1.0921707 0.48883262 -1.1290382 -0.6972519 0.0806996 -0.105071515 -0.13185103 -0.9958315 -1.6295336 -0.025875771 0.068309054 0.10115452 -0.7274682 -0.43948776 -0.93224126 0.6219491 0.2982932 -0.077995636 1.4167383 1.4129679 -0.30267152 -0.9471442 0.59263426 -0.17010464 
0.9485145 -0.17701162 1.3199587 0.41878095 0.29094583 -2.0380287 -0.23864655 0.3413654 1.1599568 2.382182 1.4204662 -1.3825129 2.1212544 0.71923524 -0.82625616 -0.331726 0.9347921 -0.38383657 -1.9400088 -0.19099079 -2.2227416 -0.6927137 0.8472425 0.06321224 1.156129 0.39621535 -0.7922445 0.005932182 -0.18417858 0.39235258 -0.786527 -1.0477768 -1.2946877 0.64196086 0.85809153 -0.16799049 0.6964191 -0.62404203 -0.4126016 1.2498256 -0.7957547 0.99587137 -0.65196025 1.367846 -0.8982899 -1.5309744 0.4904753 -0.35508513 0.06359848 -0.27153003 -0.6257125 -0.49446008 -0.38524866 1.0230745 -1.9417301 0.24712904 -1.9553751 -0.8637804 -0.43429682 -0.87551945 1.3955829 -0.8632937 0.6673134 -0.75384927 
1.1988868 0.5730489 0.6659853 0.52139056 -0.3743684 0.8039757 -0.9362062 -1.4670635 0.5251861 0.7262614 1.6395792 -3.146962 -1.3630803 0.7429728 2.0101588 -0.34248057 -1.2692126 0.46288276 0.736445 -1.2804165 0.45298886 0.36004472 0.0635679 0.14939018 0.83760834 0.379141 -0.84897804 -0.6806134 -1.1818627 -1.5799401 -1.1485077 -0.7494734 -0.11821255 1.5723512 -0.66473657 0.057138167 0.9687509 -0.22257853 -0.6507403 0.26237422 0.33508196 0.62648064 -0.3211793 -2.1909163 1.4057189 -0.8949827 -0.07756545 0.34575742 -2.301985 0.34638742 -0.58776134 -1.7752894 1.2061125 0.33843818 0.9154034 0.94005233 0.014105349 -0.2608167 -0.97291976 -1.869458 -0.18405773 1.0335839 0.34264308 0.28365585 
1.6522342 0.56254286 0.8362066 1.1252292 -0.53251195 1.8862511 -0.5967328 -0.31608766 -1.9919175 -0.854897 -0.6237514 1.67551 0.56993496 -0.4931289 -1.8497162 -0.9521243 2.0613356 -0.015028791 1.3111303 -0.43159425 1.0077372 -0.36786455 0.33558714 -0.4773744 -0.20690362 1.2726727 1.3810312 -1.4947654 0.6868902 -0.441672 -0.94092464 0.1678892 0.167826 0.12376023 1.6607718 -0.15610352 -2.0247471 1.1069788 0.37351754 1.37433 1.508486 -0.30218533 0.45966312 2.0031667 0.28508967 0.99730396 -1.2766329 -1.5278342 1.025576 -0.3120922 1.4294966 0.6632687 1.7947873 0.540167 -0.2886173 -0.07023166 1.9371555 1.2189091 0.13908765 -0.11118085 -1.1176827 -0.06086063 0.33969498 0.61554307 
0.31872213 0.7440197 -0.1264878 1.1353719 -1.8109992 -1.4255955 0.7339006 -1.2975903 0.47539103 1.0232368 -0.92720157 -1.782535 0.49231988 -0.052601866 -0.6602319 -2.5765114 -1.8415675 0.83588874 1.1984459 0.8526424 -0.9125222 0.32555017 -0.5279918 -0.97357047 0.25623786 0.973695 -0.08551907 0.95467967 1.3485758 0.34384242 0.17694785 -0.9681274 -1.6773647 -1.2822535 1.2462032 0.56148195 1.0047189 1.2684876 -0.4093802 0.1300878 0.21959116 -0.42214513 0.5345306 -0.022680596 -2.2859836 0.30362406 -0.5448161 0.5024229 0.83857965 0.80875176 1.3263777 1.1027356 -0.44022173 -0.46276984 -0.87946767 1.1273165 -0.5471013 0.5286977 0.61560136 1.2985146 -1.0706522 0.24845809 0.4654607 1.1796544 
0.6928628 -0.15684557 -1.2406089 -0.53603905 -0.088516265 -0.21502535 0.062205993 -0.5729499 -0.3701269 -0.21384549 -0.38662457 1.0440464 0.47386384 -1.038264 0.6811678 -3.6023314 1.3913978 -1.6634455 2.2276819 -0.39771873 -1.3171852 1.5587827 0.94152063 0.72607607 1.7085421 -0.502549 0.90341437 0.8414269 -0.16437213 -2.6608424 0.963566 -0.16078067 0.37126428 0.2030553 -0.0035928215 1.0025483 0.4675412 -0.013019642 1.7026165 -0.3355034 0.74027807 -1.639459 0.32949606 -0.3287457 0.45376012 0.37811032 1.3935256 -0.39144784 1.372566 0.550654 2.445962 -0.038015697 0.37621233 1.2526729 -0.2732463 -0.72740644 0.017412607 0.4057367 0.35391057 0.8637378 -1.7169381 1.0287722 0.7988436 0.75879335 
0.76709014 0.40385717 -1.2743843 -0.12591513 0.98216325 0.27233 1.0591195 0.55694485 -0.67492646 -0.7979597 -1.1387689 0.92234045 0.39989546 -0.56946486 -0.009194963 0.17661259 0.83969146 0.09533771 0.80583733 0.5247426 -1.5484986 0.13808444 0.065806925 1.5254947 -1.5442817 0.38879433 1.8022004 1.2921792 1.4979606 0.6466265 0.11100448 1.0932755 0.41926482 -0.5759474 -1.2882547 0.4923386 -0.5050162 0.6673883 0.25217766 -1.4830471 0.42179376 1.1923025 1.2317793 1.1462921 -0.19961855 1.6042479 -0.32368475 0.27176556 0.4661651 1.1262193 0.98292977 -0.32382244 -1.0288466 1.4794092 1.1597115 0.66621387 0.98710424 -0.22698537 0.723629 -0.33316594 0.8487114 -0.26789272 1.6629754 1.4879386 
1.2623606 0.49251872 -1.4883888 0.39513242 0.7682541 -0.79577535 1.0339417 -0.9184888 1.067855 -0.86924267 1.6344163 0.059849154 -0.100967504 1.4724787 -1.5223427 0.5251632 1.4581336 1.55785 -3.110374 1.9997033 -0.38317084 -1.0216421 -0.49469638 -0.63855356 -0.10380171 -0.7011421 -3.8179786 -1.823332 2.3844306 -0.3696605 -3.561121 -1.1070358 1.346656 0.80138946 0.28586861 0.38146594 -0.8406308 1.4361538 0.7656605 2.3856091 -4.7695827 -0.51609856 -3.3023734 0.6227479 -1.9646713 0.028870866 -0.6070967 2.0135257 1.7695739 1.534166 -0.20410682 0.41703933 0.3296972 -0.8680446 -1.687559 -0.14510776 2.5975027 0.2037495 -2.8009048 -0.74176717 -1.1524855 0.687294 0.14413582 1.4529184 
0.9405752 1.485349 1.191778 0.24726458 0.39743513 1.7790598 -1.1284537 0.98805475 1.7843298 -0.3771625 1.706239 2.1207526 -0.2541158 -0.17747271 -2.2252192 2.228685 -0.93694186 1.4206263 -1.6719863 0.58211476 0.6188969 0.34234855 0.75086045 0.1966002 1.122229 1.4702141 0.20945308 -0.10089713 1.1393069 -0.5953009 -0.28360787 -2.2355754 -0.8415582 0.6732118 -0.83639765 0.14498039 -0.3623804 0.30535716 -1.1118054 -0.3054138 -0.994286 -0.080357924 0.5138862 -0.29709315 1.3441951 0.13391992 0.91984934 -1.260155 0.54099107 1.5499048 -1.1024905 -0.17405507 -0.57859755 0.42301956 2.3487074 1.0176793 0.26096165 -1.0066282 1.0623153 -2.7724502 0.40559044 -0.21891998 1.1299142 0.64342135 
0.17618075 -0.8008883 0.0033489394 -1.2081695 0.56988806 -1.1299857 0.7062687 -0.8832078 0.98695433 -0.28147888 0.6059154 1.6102258 1.1907036 0.98703897 0.28795034 -0.59432626 0.61768806 -0.8115022 -1.3736619 1.4248942 -0.3825978 0.05302793 -1.1261623 0.15742895 0.3752351 -0.094232835 -0.6981543 1.2030257 -0.19472732 -0.6771009 -2.626967 -0.18034102 -0.619091 -1.0020316 1.0700442 0.8431504 -0.84703636 0.25382254 0.17807317 0.47528952 1.6990513 0.56684726 -0.86628735 -1.2355951 0.6537699 0.08139147 -1.0887148 0.02069166 -3.056691 -0.58789235 1.0173696 0.72904813 0.81075144 -0.30081505 -1.0834839 1.2382575 -1.2945518 -0.38633466 -2.036736 -1.4237185 -1.2815086 0.018754069 -2.1725533 0.2279497 
0.3175181 1.0265068 1.4309253 -0.10930575 -0.2614512 -1.785305 1.3240687 0.46989954 0.098838545 -1.5115672 0.10537352 -0.44952223 0.28011903 1.492525 0.18635136 0.25084835 1.3120041 0.74270755 1.7822084 0.96584165 -1.493184 -0.48134005 0.49250436 -0.23373091 1.0098237 1.4872885 -0.67121625 0.77958906 -1.845798 -0.33321726 -1.6015722 -0.5866976 -1.0300848 1.562148 -0.6560853 -1.3636817 1.136335 0.4851941 -1.1536727 0.93362767 -0.1398411 0.29509607 0.48726073 -1.1942973 0.24464014 0.32239816 0.036283903 -1.1797968 1.3173062 0.52896404 1.6573993 -0.4024912 0.048192337 0.04112539 0.37763187 0.18983327 0.26757053 -0.13100252 -0.36482364 -1.3546592 -0.89990705 -1.325593 2.283457 0.05863695 
