0.88066906 0.10378869 -0.23207489 -0.09945667 0.4135435 -0.9104787 0.2903932 -0.80477905 -0.20929651 0.5187027 0.5237 -0.077980444 -1.0719358 -0.13138503 0.43481156 -0.10157604 0.6088438 0.23633532 0.9382578 0.8342041 -0.7043127 0.09191338 -1.0560138 0.5336011 0.3831127 0.7009088 -0.6926248 0.5971142 -0.037327677 0.4042511 0.44404647 0.21649848 
-1.1294843 0.19043484 0.3535857 0.73985183 -0.6939254 0.9201091 -0.21677582 1.2408357 -0.018811412 0.9375433 0.013142544 0.85197794 -0.33075637 -2.8866313 0.5996548 -1.2754622 0.5259897 1.1860461 -2.2565968 0.6662632 -0.44301677 0.87223864 -1.0241259 -0.0015826751 -0.083915204 0.11607574 0.5476391 1.6961273 -0.15921386 0.26145512 -1.8460995 -0.15992238 
0.22993453 0.57284904 0.7474421 0.67434293 0.16513883 0.92690957 0.4684303 -2.0754912 -0.15836516 1.5553797 0.20176707 0.4542243 -0.38356018 -0.7272997 0.91766906 0.90803194 0.8130865 1.0218276 0.33851847 0.7817379 0.013711621 0.93843174 -0.7880782 1.311119 -0.41794172 0.104553804 0.6060908 1.2396268 0.8741201 0.99219084 0.13197674 0.5735235 
-0.91525763 0.217989 -0.028740587 -0.9994925 0.078920566 0.13888149 0.060645677 0.009094064 0.053893525 -0.25421867 0.59076905 -0.24226497 0.5782392 -0.08628754 -0.4625357 0.37501502 -0.24948339 -0.101464316 0.5080409 -0.5639386 0.15628798 -0.38801807 -0.44194555 -0.09141263 -0.07440994 0.3018401 -0.42559844 -0.39309585 -0.38907614 -0.009014113 0.23378843 -0.19504604 
1.465937 0.81884426 0.98722225 0.53341395 1.0996945 0.50519484 0.5190969 -1.1017226 -0.26407278 0.769485 0.060348067 0.041074064 0.37117258 -0.4382949 0.7461737 0.7492659 0.6121029 -0.029729892 -0.38153365 0.8234421 0.3793187 0.60204273 -0.5751777 0.237264 -0.24298966 0.59100103 0.43082148 -0.019135216 0.55420184 0.47164166 0.54989773 0.77908134 
0.18600528 0.17093879 -0.0767493 -1.8758941 0.9373378 0.40174267 0.34364998 -0.7577165 0.47776136 -0.44864836 -0.6307581 0.782995 1.0868946 -1.8995163 0.38540292 -1.1626085 0.36763453 0.16449453 -1.6347258 -0.35629684 0.35821664 -0.95549107 0.77292305 -0.27604768 0.5151391 -0.10932821 0.08715185 0.09333714 -0.05913577 0.059528574 0.14750448 0.6515933 
0.31462094 -0.12586966 0.43087325 -0.10649708 0.23872752 -0.1638948 0.44637927 -0.64560425 -0.35491705 0.31062868 0.50690037 0.5372862 0.056692168 -0.14886811 0.64291817 0.7100866 0.31537908 0.6206114 0.56422377 0.76049024 0.13523006 0.8276078 -0.72496396 0.53470945 -0.3837104 0.72791684 -0.3701354 0.20139109 0.33144152 0.725851 0.50441146 0.29544878 
-0.08568571 0.25573134 0.29249015 -0.5809362 1.2031786 0.6210433 -0.63110006 1.3313663 0.6848503 0.15709606 -1.0471605 -0.8323911 0.38910145 -1.2011331 -0.5478241 -0.1719851 -0.19286533 0.5229201 -3.4381328 -0.44653982 0.1577323 -0.028419936 -0.0294349 -1.2342535 0.6327812 0.29182142 0.27473146 -0.016099507 -0.3890785 -2.0786636 -0.9848757 -0.2729905 
0.098065145 -0.09241054 0.11347829 -0.78952235 -1.2961277 0.18894237 -0.7419569 0.18345746 0.14420669 -0.42415902 -0.6967469 -0.9165777 0.6007901 -0.4881721 0.2009841 0.1899774 -0.69611406 -1.5439686 0.23473169 -0.67108 0.15529306 -1.0917188 -0.35511965 -0.93068105 -0.42714915 -0.50502247 -1.2379497 0.25785798 -0.5595004 0.14551784 -0.16020669 -0.8969767 
-0.13669768 0.27194998 0.0013214484 -0.16196959 0.18771686 -0.08302558 -0.12058736 -1.11712 -0.17779459 0.6801511 0.25874817 0.11636199 -0.71343166 1.1572763 0.934741 0.0065053147 0.8723672 0.590763 0.18726897 -0.2678075 0.78593504 0.24545458 0.07705031 0.69921243 -0.5013313 0.6838118 0.7280819 0.7361537 0.67587733 -0.4656921 0.42927563 0.8184649 
0.4705068 0.78567123 0.8292049 0.7309152 0.64652956 0.40881413 0.6870785 -1.9736478 0.49977592 0.04791757 -0.03929997 0.5592361 -0.17728387 -0.20476706 0.5567695 1.3317581 0.70771694 0.41959804 -2.3007889 0.789412 -0.27767655 0.60797215 -0.7140133 0.8355749 -0.74354744 0.82962316 -0.046223406 0.6281905 0.8744115 0.71458554 0.8837259 0.44449458 
-0.16860043 0.17010498 0.9937819 -0.011395759 0.15010482 0.21177018 0.17647098 -0.9690395 -0.056523904 0.31896773 0.24007204 0.1463953 0.16260426 -0.01201524 0.43443444 -0.16007821 0.60258484 0.40668777 -1.5944815 0.35409838 -0.33189553 0.45478785 -0.7159777 0.20906462 0.79108125 0.0549502 0.33311215 1.5605401 0.7792829 0.804225 0.019041061 0.32381132 
-0.94161975 0.18094805 -0.95551157 -2.3575432 -0.20329344 -0.37708056 0.49593273 -0.50044036 -1.4028231 -1.0056397 0.21162003 0.5278898 0.06821887 0.04383583 0.36507162 -0.89956224 0.47434464 -0.08509635 0.46850342 -1.3129808 -0.022783054 -1.8851285 0.19130011 0.6353462 -0.62042725 -0.07822285 0.120938286 0.14006107 -0.8662592 0.02040006 -0.47709015 -2.4559395 
0.12703402 0.27223015 0.25012913 -0.14470725 0.39738306 0.020504965 -0.40037286 -1.003368 -1.0520831 0.0015665379 0.3179689 0.25684887 0.67232853 1.3547671 0.31587598 -0.09005159 0.3174707 -0.07184518 -0.44339788 0.62957406 -0.12822616 0.09495691 0.27118418 -0.20083693 -0.28014532 0.86914396 -0.21095926 0.98716646 -0.0395932 -0.02408024 -0.0011962899 0.39052114 
-0.23594329 -0.023320746 0.12124539 -1.8088274 0.09640614 -1.2559147 -0.25816545 8.39912e-05 -0.05156063 -0.031928185 -2.1824524 -1.9973112 1.071943 -1.1382809 -0.43995687 -1.3849467 -0.68213725 -0.879482 -1.1940644 -0.612238 -0.84941256 0.037527528 0.36166182 -0.24580038 -0.40262032 0.7065395 -0.7682917 0.34565285 -0.15968719 -0.56191725 0.068725176 -0.32792166 
0.59121025 0.6255506 1.5193529 0.9215399 1.2579954 0.64715827 1.6677868 -0.92720115 -1.096687 1.2060968 -0.19755854 1.0563449 -0.54699665 0.06653368 1.2604645 1.1843407 1.2996665 1.3184569 1.1082935 1.6994802 0.56624967 1.3047717 -0.5228837 1.3845268 -1.4065431 -0.43927395 0.35615245 0.44414926 1.0701184 1.3878615 0.14057757 1.1332827 
0.53274655 0.34893146 0.45702314 0.77713025 1.1432705 0.28098887 0.8755898 -1.405351 0.42277718 1.4788524 0.69929343 1.0214802 -0.12127285 0.0070505794 1.7461851 1.130176 1.7044113 1.4476472 0.10700422 1.0532469 -0.084191404 1.551868 0.93436754 1.1084411 -0.2038387 1.0248464 0.101901166 0.39146355 1.7024307 0.6008071 0.47780856 1.470354 
0.5050255 -0.1614341 0.3067551 0.3244822 0.17381856 0.29166025 0.4191502 0.24095592 0.10779757 0.09961931 0.51975596 0.5791993 0.35393023 -0.6773784 0.8201318 0.2731844 1.3045951 0.25005928 -0.9913136 1.0572906 -0.04915924 0.5474643 -0.25806156 0.29940954 -0.48216033 -0.09298697 1.0761918 0.8354131 0.6638918 0.08481321 0.55766803 1.3193673 
0.20096858 0.72225314 0.27650174 0.75757176 1.4690987 0.92407817 1.0742847 -1.327932 0.37843105 1.2312129 0.42539558 0.90163267 0.62095636 -0.39773694 0.9875223 0.950301 0.22138973 1.1258388 1.2158259 1.3246881 1.0926006 1.3318521 0.03170644 1.2654611 -0.4041225 1.2821693 0.015171442 0.56640434 0.3963346 0.94385403 0.25929713 -0.38558948 
1.1103272 0.051599734 0.2086023 1.9086299 2.32479 1.1921113 1.8113438 -0.08680078 -1.2986163 2.6687212 0.95455533 0.7845096 0.35742122 0.2531443 1.2563736 1.5973519 1.9026555 2.5276923 0.94111335 1.2910395 0.5198541 2.1710656 -0.7758014 2.3299112 -1.889944 0.53213435 0.36100698 -0.9447586 1.2001356 1.0396241 0.0047040596 1.0409163 
-0.2740236 -0.12870201 0.5703778 -0.09509162 0.4426285 0.42861682 -0.07633224 -0.54265404 0.34567353 0.78649884 -0.36352882 -0.23242836 0.13157684 -0.11897257 1.3812011 1.1908338 0.5607221 0.7037087 -2.3543303 0.29237333 -0.65094864 -0.25116754 -0.273464 0.9678039 1.2009627 0.5074543 -1.1777802 0.98871946 0.9125136 -0.42967796 0.33907318 -0.42587483 
0.871443 0.31293663 0.37173063 1.2545046 0.6902198 1.0014789 0.7149434 -0.95615655 -0.6387377 -0.32033023 0.7417119 1.1736203 -0.15093255 1.1088953 -2.0659342 0.8293582 -0.77182 1.1429689 0.9716537 1.3853812 0.6275241 1.0785103 -0.44634956 0.6378238 -0.7861272 -0.15941934 -0.5529961 0.3236143 -0.418561 0.8040572 0.23569493 -1.2970133 
-0.25167108 0.56137466 1.0796103 0.40814686 0.8373539 0.53564364 0.8542133 -1.2037853 -0.3300961 0.99890745 -0.5249044 0.9187215 -0.14670001 -0.27142107 1.0237259 0.9362941 0.9523651 0.75227463 -0.0683987 0.22802934 -0.030296547 0.7151034 -0.72879905 0.8950404 -0.106929235 0.49361292 -0.37285975 0.8994823 0.7613495 1.0295433 0.3558107 0.8949234 
0.010200837 0.458812 0.05120011 0.18473361 0.6059294 0.48405364 0.67628175 -1.2006108 -0.15715462 0.11226987 0.019436838 -0.33778843 -0.02164425 -1.3344162 0.5269512 0.44375554 0.6091881 0.01573454 -2.0297837 0.50589806 -1.1517482 0.5060725 0.41644308 0.053656586 0.26867837 1.4255024 -1.1396905 0.5018912 0.7389527 -1.5617139 0.98375756 0.2754221 
0.2343118 0.2882105 0.47353363 0.10276433 0.3255278 -0.039569035 -0.611525 -0.8128897 0.17296351 -0.50867885 0.24239844 0.31366453 0.53825533 -0.23144184 0.23234035 0.2519315 0.29221594 -0.2215884 -1.0909745 0.42611143 -0.023615826 0.16317554 0.086233094 0.14853498 -0.5188005 0.74463975 0.25492793 1.0247219 0.26204482 0.79420775 0.36683044 0.24815677 
0.30897194 -0.517421 -0.24674125 0.46153587 0.4319124 0.4139462 0.39619505 0.069240585 -0.55661374 0.6414009 0.7113344 0.93928015 0.052014146 -0.10136733 0.62223196 1.0925454 0.5228195 0.78476924 1.7783256 0.98454475 0.5577676 0.4156575 -1.3353274 0.63959074 -0.6537949 0.448732 0.8220279 -0.068911225 -0.17141894 0.23340979 -0.3519616 1.0504415 
-0.039469153 -0.05148675 -0.28891873 -0.10285941 -0.044111505 -0.4492855 -0.080787115 0.038275234 -1.5782995 -0.06372801 -0.38196245 -0.16165377 -1.8241006 -0.0517471 -0.3571117 -0.044696596 -0.17898321 -0.21161489 0.18382186 -0.27666733 -0.030424923 -0.23194166 -0.0855236 -0.3380801 -0.800097 -1.9561211 -0.16669744 -0.26898783 -0.14538783 -0.08277186 -0.2515429 -0.11351948 
0.43424174 0.57555676 -0.044997092 0.5152805 0.28989986 0.07661687 0.5336522 -2.034374 0.14030309 0.8861963 1.2816774 0.27088004 0.35029712 0.4132832 0.6113685 0.16080818 0.7825187 0.8882886 0.37015384 0.85250884 0.131259 0.4940547 0.063069925 0.26270926 0.48914027 0.19585095 -0.245759 -0.093951814 1.2096311 -0.9361666 0.4916271 0.6024315 
0.200149 -0.37009537 -0.075870566 0.15956877 0.76205456 0.023447612 0.06338861 0.33428124 -0.09636908 0.14470266 0.124287315 -0.80645263 0.48515892 -0.5477556 0.66461533 0.25038907 0.49099737 0.4751432 -0.7844321 0.3437246 -0.6882318 -0.028503137 -1.2298877 0.25997165 -1.2189265 -0.52592766 -1.0338401 -0.27115133 0.29232073 0.80023414 0.3296938 0.65886635 
0.28168347 -0.35431737 -0.8343271 -2.3053663 -1.0664486 -2.0720038 -1.5352193 0.8917751 0.52476954 -1.6623132 -0.4467631 -2.3892407 0.6073999 -2.126043 -1.1361706 -1.4916731 -0.15368891 -1.15908 -2.3150315 -0.99889755 -0.38906002 -1.7805247 1.2761285 -2.3954892 -0.70782363 -0.23212034 -0.80029494 0.18159439 -1.256402 -2.4597504 -0.62522274 -0.053642448 
-0.7344664 0.05400352 0.29431286 -0.9221035 -0.41337 -1.6684017 -1.2159624 1.885381 0.9953738 -1.1875091 -0.98071563 -0.55780655 0.60180974 0.4667939 -1.4927227 -1.4092976 -1.9088144 -1.6762109 0.9621872 -0.982721 -0.236761 -0.6963649 0.0287889 -1.9551134 0.88838506 0.5482493 -0.69347763 -0.110325254 -1.1436697 -0.53141725 -1.1191751 -0.9848364 
0.094110936 0.13691561 0.3843082 0.7122539 1.225737 0.39305395 1.0455456 -0.28206033 0.3908121 0.73353106 -0.037888125 -0.6192878 0.31085813 0.42205328 0.878695 0.49899948 1.0401474 0.21805425 1.0239859 1.054064 -0.49669757 0.85141677 0.3933462 1.0236408 -0.17462003 0.71209943 -0.4309719 1.6969543 0.7327522 -0.117265336 0.3024855 1.304351 
0.970567 0.9807389 0.9013828 0.44798332 0.5398584 0.2412835 0.53721476 -1.1314613 -0.23931906 0.6124983 0.45817494 0.44013762 0.48161924 0.18511198 0.5471136 0.6651023 0.79521686 0.18527588 -0.63916457 0.6010293 0.03631929 0.62561655 -0.57182926 0.59964424 -0.6532222 0.04950679 0.5450766 0.5482479 0.4797752 0.7531769 0.40375414 0.80752814 
-0.4168417 0.078235984 -0.40817022 -1.1832356 0.06302426 -0.17919391 0.49519068 1.3074492 0.24425125 0.16065814 0.04806635 -0.7388141 0.10668235 -1.1707649 0.0006188844 -0.630954 0.6434643 0.37544036 -0.9873157 -0.31931794 -0.7680948 -0.19253813 -0.4656721 -0.22844322 0.33867073 -0.8693574 0.32201996 -0.12969063 0.15979798 -0.7793558 -0.015787229 -0.06254036 
0.40915316 0.8398863 0.50137705 0.8962971 0.43706596 0.5227612 0.5131419 -1.900775 -0.85037166 0.58146757 1.0870512 0.34724632 -0.24997048 0.9856454 0.85630965 0.71482277 0.9671247 0.6878593 1.1450129 0.71162015 0.23669694 0.5133551 -0.7946754 0.56449527 -0.5720965 -0.16992964 0.05632577 -0.052234113 1.1668942 0.46412376 0.56781137 0.3489473 
-1.7071532 -0.54630876 0.10885435 -2.6342638 -0.8117123 -1.5155177 -0.821175 1.930145 0.23153947 -0.64892197 -1.1120799 -0.4379029 -0.2742263 -1.5414473 -1.3023607 -1.4880376 -1.5568707 -2.318945 -1.4489084 -1.3533232 -1.399274 -1.0526026 0.020960314 -2.113356 0.6896914 0.0012644209 -0.6069435 0.312609 -2.8156834 -0.9995204 -1.0990288 -0.5062978 
-0.12896635 -0.086961105 -0.566956 -0.07349777 -0.17072313 -0.033978507 -0.08396368 0.31231302 -1.5740162 -0.023277082 -0.1698082 -0.07742572 -1.5114975 -0.13545598 -0.04506795 -0.096350774 -0.3173915 -0.31456375 -0.267479 -0.15300868 -0.14855908 -0.08926822 -0.09692244 -0.22525421 -1.3062323 -0.39817938 -0.12543684 -0.6059798 -0.16115966 -0.12584826 -0.35398093 -0.13003328 
0.5589844 0.930999 -0.50714815 0.36276978 0.5900155 0.10967112 0.8044137 -1.5429426 0.35030094 1.2487965 1.0226711 0.14783779 -0.6851185 -0.032052197 1.0461297 0.64109886 0.802919 0.688516 1.1138726 0.6818475 -0.015078761 0.99712926 -0.36595982 0.8395756 0.063439086 0.38298142 0.36277917 0.088743985 1.0827317 0.88676566 0.80314946 0.5866833 
0.29506335 -0.3899302 -0.13517584 -0.07283327 -0.24023828 0.36960992 -0.37201723 -1.099072 -0.2819092 -0.23445423 0.41523987 -0.64600104 -0.6095923 -1.563796 0.0028687571 -0.10015849 0.58994794 -0.1785712 -0.13196181 0.5684096 0.18105921 -0.07907063 -0.8119519 -0.03051504 0.4279553 0.26018113 0.119486056 0.2984896 -0.27385274 0.8912121 -0.19545782 0.115618415 
-0.28203875 -0.3089237 -0.15975107 -1.6513728 -0.90859276 -1.716688 -0.8594237 2.144803 0.9037548 -1.3793166 -0.96788377 -1.5347753 1.0833919 -1.1307566 -1.6662574 -1.4014816 -0.75213444 -1.8328967 -0.04289801 -0.927979 -0.03945012 -0.8286999 -0.45311955 -1.7025919 -0.36665022 0.06660817 -1.2216246 0.20785487 -1.4631438 -1.0399207 -1.147647 -0.62800354 
-0.12889391 -0.778018 -0.3716559 -1.1908004 -0.24353223 -1.5270327 0.17209685 0.64017874 0.3717043 -0.23975953 -0.8622441 0.6429704 0.57041395 -0.72516674 -0.084310085 -0.72445923 0.14772533 -0.3351993 -0.7233431 -0.029389322 -1.2491378 0.30743334 0.5065886 -0.3543114 0.5451487 -0.9811327 -0.087351814 -0.033797335 -0.5328186 -0.5379127 -0.48607868 -0.19515215 
-0.379516 -0.6868223 -0.41453123 -0.9409411 0.32389563 -2.048613 -0.49749395 1.2794607 0.9715639 -1.2117321 -1.6412407 -0.98972344 0.62119097 1.0264312 -1.1007638 -1.6126164 -0.51685184 -1.3878227 0.18001524 -0.26118347 -1.294158 -0.26989067 0.28763333 -1.671971 0.06615174 0.48305058 -0.76505005 0.11445085 -1.2775103 -2.0363412 -1.4224635 0.1815677 
-0.26629198 -0.34733382 0.41310048 0.38467306 -0.4271457 0.6480791 0.2560012 -1.0385118 0.2366992 0.08354903 0.14452717 -0.18954793 -0.80793536 -0.20397767 0.31739214 0.5596586 0.5779911 0.42948464 -0.81369287 0.5607523 0.08760888 0.30372483 1.3011514 0.32681867 0.36324647 -0.011245493 -0.81856793 -0.35940066 0.17468871 0.6728323 -0.0065241447 0.568075 
0.19387832 -0.4562394 0.43270445 0.16013056 0.21492974 -0.18537289 -0.69077855 -0.6915782 -1.1318964 0.09632102 -0.13651508 -0.15474686 0.48582268 -0.35280415 -0.10341539 0.042758536 -0.23540083 0.15022995 1.0136334 0.36668637 -0.24960391 0.17567115 -0.3880559 0.055946358 -1.2588339 -0.1490559 -0.50387466 -0.39875108 -0.8975137 0.064252034 -0.39142308 -0.11770524 
0.7512857 -0.1485905 0.3619733 -0.20969269 0.80691 0.77911717 0.6137989 -1.142784 -0.19107758 0.7615923 0.3125703 -0.73854196 -0.5460446 -2.246785 1.1650875 -0.0009378156 1.1923231 0.4007942 -2.6575499 0.8038441 0.529667 0.60494936 -0.22660795 0.9701071 0.6022065 -0.97259945 -0.089705706 0.8630002 0.57067925 1.1256578 0.54752076 0.8561793 
-0.22674629 -0.07285321 -0.8957359 -0.3237774 -0.20328422 -0.36031207 -0.002289829 -0.2147349 -0.52828777 -0.44865257 -0.41155148 -0.4505716 0.017855123 -0.06909393 -0.31611443 -0.5334292 -0.13353655 -0.6820291 0.35376343 -0.26263657 -0.20378539 -1.0061871 -0.47225416 0.024770213 -0.5031756 -0.6451799 -0.7702942 -1.1248319 -0.38593075 -0.17096984 0.38515484 -1.4261743 
0.3335096 0.62852836 0.54593456 0.78407884 0.45037752 -0.042489614 0.90771776 -2.2102387 0.0949562 0.33741385 0.17466857 0.118416004 -0.2669642 -0.71129405 0.3466505 0.70920223 0.48961723 0.47864377 -1.2476962 0.5927985 0.033867717 0.6573319 -0.2675619 0.9366154 0.21405505 1.4575442 0.13910715 1.3011031 1.0436505 1.0862998 -0.30520695 0.51381797 
-0.22751088 -0.5835171 -1.1078935 -0.3915061 -0.09908427 -0.4717307 -0.5709553 -0.42311528 -1.6572291 -0.005583874 -0.13584466 -0.5281577 -0.53855145 -0.36972305 -0.3884067 -0.23549531 0.21037494 -0.16762713 -0.29423746 -0.1677056 -0.4065758 -0.22390217 -0.63825625 -0.14476451 -1.1646117 -0.50442576 0.20123589 -0.59209037 0.20063213 -0.38642076 0.038154423 0.19406599 
0.23074183 0.30790842 -0.31065008 -0.11723666 -0.059339836 -0.22810362 0.24773802 -0.3978958 0.54411083 0.36125135 -0.118214086 -0.019892653 0.025357991 -0.22717015 0.57742745 0.36385208 0.04402904 -0.18964744 1.0140194 0.2978623 -0.021694405 -0.12224511 1.1890969 0.070138395 1.4416636 0.052694947 -0.29882106 1.3408194 0.38157895 0.20443125 0.052451048 0.255121 
0.1344117 -0.37469482 0.52302015 0.2538734 0.05489574 0.65192467 -0.10543697 -1.8393232 0.13258542 0.034560926 0.2283689 0.4164615 0.33150318 -0.0972209 0.5105546 0.87134516 0.22837542 0.53311604 0.8604498 0.6153452 -0.4177339 0.47193766 -0.5448228 0.15669797 -0.09879689 -0.20341526 0.43331015 0.102259815 -0.37536627 -0.134981 -0.42248654 0.39051986 
0.2856699 -0.30776104 0.46072903 -1.4007847 0.4172025 -0.8106085 0.02193125 1.409647 -0.1084129 -0.4296274 0.000364889 0.6073849 0.47740227 -0.3272129 0.11568575 -0.5802296 -0.23538063 -0.9119303 -0.6501506 -0.42105526 -1.3225983 0.6104788 0.3725147 -0.2347125 0.28006977 0.108596064 -0.29772606 0.42404467 -1.1486263 -0.07557372 -0.2586579 0.09032669 
0.94136244 0.8212035 0.93422675 1.1076627 1.5007949 0.6584907 0.7425345 -1.3955512 0.64992255 1.0357687 0.55148077 0.4044043 -0.16578965 -0.65850264 1.5707418 1.0968568 1.5440131 1.356642 0.13489163 1.0872103 0.5683577 1.0718936 -0.17253816 1.4078984 -0.8768743 0.049662434 0.48598176 -0.95019096 1.0671489 0.6298944 0.75436443 1.0447762 
-0.21260563 0.26084727 -0.40680543 0.079339825 -0.024477787 0.019306647 0.46079165 -0.4678734 0.2552117 0.18942398 -0.30846196 -0.05734339 0.6109986 -0.5006281 0.08400099 0.10072768 0.36918306 -0.57092893 -0.60892886 0.15267633 -0.91430175 -0.23605056 -0.24195288 0.6006894 0.31630626 -0.7624056 0.14910416 -0.5923885 0.30109107 -0.08098996 0.28582862 0.20341651 
0.8370786 0.060383443 0.58519757 0.8950422 0.033526644 0.61360896 0.5752111 -0.93311924 -0.2218928 1.4764665 0.4793069 0.79731935 0.04018542 0.2306463 1.2570271 1.3783342 0.6370553 0.40516168 -0.41248238 0.9103108 -0.67705053 0.958855 -0.33919084 1.2417052 -0.41683176 0.63541275 0.20138012 0.18376584 1.0184147 0.7806157 0.5001723 1.0093939 
0.797833 0.5864971 0.47889253 0.6955032 1.220521 0.54876834 0.9198746 -1.6650988 -0.5325152 0.74838865 0.5964369 0.51528776 -0.2446323 -0.6778067 0.87410295 0.81494284 1.12345 0.6233302 0.7107187 0.6154746 -0.06960794 1.2294179 -0.17837222 0.7299457 0.07837884 -1.124944 0.6208426 0.2329554 0.88648564 0.4337395 0.4458626 1.0936726 
0.50663453 0.6328845 1.2476876 1.0025141 0.72190034 1.0930824 0.26662934 -1.4844123 0.283849 1.0159111 0.19874616 0.90304595 -0.33463052 -0.778695 0.8274671 1.1733373 0.9890565 0.10664671 -1.1726186 0.8521898 -0.37157398 1.1350108 -0.6831876 1.0960058 -0.12336657 0.6429821 1.1491823 1.1879647 1.147772 0.9503637 -0.056481536 1.2290009 
0.3571051 -0.16347232 0.774068 0.40167674 0.11238425 0.2416925 0.23422185 -0.2548026 -0.8572 0.07120014 0.056722634 0.69181424 0.93147975 -0.39675292 0.17559145 0.33670214 0.3783443 -0.5883928 0.34246263 0.1831044 -0.7073517 -0.25601953 -0.4474299 0.09611422 -0.6392313 -0.30454236 -0.05506267 0.2703739 0.4126886 0.15442409 0.014799167 -0.26118243 
1.0619053 0.4662511 0.47111493 0.6170207 0.15836062 -0.10263233 0.009254763 1.2479682 0.17170283 -0.16474651 -0.17695212 0.07617525 1.1804335 0.0763213 0.037381344 0.62493664 0.5257232 0.14170878 -0.14046088 1.2423054 -1.0301805 0.7721791 -0.4096195 -0.24713986 -0.9915568 -0.50678504 0.2992761 -0.7840874 0.34901068 -0.16542359 1.1000952 0.4447353 
-0.45803457 -0.68975484 0.5818002 -0.34748393 0.36312413 0.36471966 0.45363706 -1.4728243 -0.1613762 0.42351723 0.19734778 0.27241778 -0.3058134 0.5954558 0.70647144 0.21065103 0.55308044 0.6556489 -0.16730236 0.49030417 0.25525826 0.9417364 -0.46077478 0.51250887 0.35931978 0.64836913 -0.06585903 1.8610698 0.47530714 0.4991723 0.12190436 0.6608095 
0.1303268 -0.018162303 -0.17748195 0.11877233 0.1881462 -0.12885308 -0.17585492 0.25944668 0.49901024 0.09016422 0.04330898 0.022107774 -0.68686724 -0.17788866 -0.07421279 0.07195676 -0.07083951 -0.21841711 -0.16225147 -0.033531718 -0.19068503 -0.030945897 -0.09633569 -0.030293912 -1.7621335 -0.23112148 0.20033956 -0.30333447 0.08914272 -0.05240525 0.12137878 0.13307546 
0.19160815 -0.13045304 0.35778725 0.44297647 -0.0061250646 0.6561397 0.13613907 -0.4626183 -0.89849895 0.81055546 0.1436845 0.036725275 -1.276305 -1.2989167 0.71011335 0.44059297 0.45063838 0.30007705 -1.3721868 0.2898141 -0.24188699 0.04627338 0.030834502 0.36568448 -0.79386806 -1.7060654 -0.19929828 -0.31556997 -0.060695097 0.99095315 0.64790255 0.059320193 
0.17386667 -0.07131099 0.7460366 0.0106468005 0.9541671 0.17350139 1.2129008 -0.85041183 -0.9453843 0.7269598 0.7979614 0.77837473 0.79645085 0.3195463 0.8177266 0.08425715 0.92188525 0.1177786 -1.3303043 0.22939052 0.15166299 0.6345265 -0.6269368 0.6868282 0.011968535 -0.20157515 0.22868495 0.69987184 0.2608099 0.51125944 0.39050838 0.9078692 
-1.1322421 -0.78947276 0.27548325 -2.8742533 -1.7156636 -1.394819 -1.722685 0.3900324 0.75867856 -2.2262814 -1.3235378 -0.91368985 0.9016894 0.35603786 -1.7444509 -3.03733 -1.6409494 -1.7398742 -0.8357976 -1.3018476 -0.15872534 -1.3366768 0.4834893 -2.651146 0.40801722 0.41874054 -0.9075143 -0.35306677 -1.8383318 -2.1907015 -1.4856968 -0.055897508 
0.18916571 0.17857547 0.43231812 0.4890431 0.72674596 0.79280055 0.8213243 -1.0383295 -0.48197895 0.621227 -0.011429851 0.5196041 0.17883202 -0.6771443 0.5183027 0.7569478 0.91177726 0.55624145 0.31852013 0.4431382 -0.067209326 0.6666699 -0.5052892 0.65288067 -0.4722319 -0.44073272 0.37737304 0.42730832 0.5962138 0.48778203 0.4412727 0.8442196 
