-0.44518805 1.5394293 0.21394995 0.87260425 0.045952294 -0.92775285 -0.34232682 -0.5340237 -0.040833328 0.011160239 0.17773393 0.58076805 0.21130511 -0.21815109 0.05857112 -0.10106469 0.7473568 -0.87449574 0.7564976 0.6190311 -0.84797305 -1.6402323 0.37292594 0.3735771 0.33917296 1.6130046 -1.475188 -0.21515317 -0.3199815 -0.55237573 0.27452114 -0.54285645 0.2509653 0.2533827 -0.67157257 -1.0668298 1.9592875 0.23706141 -0.010883727 -2.3791795 -0.6809564 0.27301097 0.42005152 -1.550759 0.06285467 1.7165205 -0.2644271 -1.070812 0.20060326 0.73841107 -0.13190483 -0.22129759 -0.16137886 -0.5318273 0.21379372 -0.28595993 -0.7293403 -0.9917378 -0.36258 1.6134646 0.61297727 0.47054917 -0.6050139 -0.35963786 
0.114126414 -0.6019174 0.40420192 0.05823753 -0.26948562 0.75847626 -0.3353987 0.31373087 -0.34775925 -0.15086873 0.6141292 0.5519839 0.3304616 0.10348511 0.688247 0.029931035 -0.60100204 0.21288644 0.08200352 0.17682591 -0.666647 -0.5520948 0.0008533832 0.6626278 0.38767272 1.9205331 -0.25879538 0.7519109 0.18327285 0.36541477 0.39361256 0.20974801 0.095863074 0.12731148 0.5727607 -0.50213253 2.933151 -0.23393214 -0.48697412 -0.3118302 0.30819318 0.051454496 -0.09496023 -1.3674469 -0.817205 0.7336165 -0.2721931 -0.39760202 -0.25863457 0.8015219 0.0060589146 -0.38603175 -0.079649426 0.24881701 1.7189518 0.9199098 0.6537394 0.39815298 0.64183444 2.4727163 -0.15701124 0.49539846 -0.28449133 -0.5171862 
-0.9980689 -0.9687354 -0.01070878 0.7463605 0.102505565 0.044781696 -0.012983362 0.6409593 0.8570063 0.95256454 0.07048814 -0.64677656 0.55786186 -0.38750985 -0.08949425 -0.11814912 0.7320393 0.9256383 -0.64164424 -0.26344612 0.5395673 -2.476373 0.3910884 0.34308583 -0.7919829 0.006685355 -0.8365616 0.23594719 0.25848997 0.07998517 -0.06286673 0.48574573 -0.0011041919 -0.51240486 -0.09347105 -0.79634434 0.5043245 0.38430128 -0.78620464 -0.14344415 -0.67307657 -0.19809432 -0.1167262 -0.6432206 -0.09340277 -1.2799088 0.66106504 -0.7400227 -0.7266525 -0.79413867 -0.3554775 -0.04385341 -0.23384914 0.5258563 0.10212549 0.021867668 0.5148005 -0.08103726 -0.0031944811 0.81046534 -0.030687787 0.22328237 0.15769075 0.06587019 
0.7446258 0.015441368 -0.39063028 -1.7099173 0.16020583 0.062207557 0.12779647 -0.6789216 0.23402925 -0.18866937 -0.27792794 -0.23821758 0.859844 0.03917169 -0.08132222 -0.477518 -0.5835723 -0.37281054 -0.39374885 -0.28588712 0.19443247 0.21359637 -0.29931632 0.41248003 0.3750475 -0.3983142 0.5434383 0.27790815 -0.145977 -0.5395456 -0.19302212 -1.5195886 -0.08954812 -0.49636123 -0.22992666 0.22704653 1.7164582 0.5694049 0.03215856 -0.22452377 0.24192496 -0.66777205 0.45312107 0.7570896 0.1399426 1.0661695 0.07869416 0.94778615 0.44560272 0.49381223 -0.34223506 -0.3816389 -1.2676128 -0.41416797 0.21209314 -0.008948421 0.09888451 -0.72530144 -0.27314517 0.63589793 0.0420769 0.40812445 0.57666343 -0.6144566 
-0.063614994 0.14550431 0.94452256 -0.37002096 -0.33002356 -0.6541366 0.45656997 -0.29495585 0.14741363 0.47334722 0.111138284 0.24545468 -0.43886912 -0.011381152 0.56596315 0.57435346 0.45757002 0.9256281 -0.19592772 -0.06340727 -0.16308297 -0.0035679322 -0.032633767 -0.12888917 0.16911009 -0.5266197 0.30111492 -0.36118105 -0.003809285 -0.12077213 0.155493 0.13029593 -0.35570467 0.7382576 0.09043886 -0.24450044 2.0099413 0.33044255 -0.14466114 -0.63888323 0.7091566 -0.13821107 0.5640428 -0.036875412 0.4708861 0.061207294 -0.9450559 -0.79649633 0.7345441 -0.4725801 -0.0018682652 -0.3212126 -0.32760417 0.35570318 -0.123945765 -0.015902357 0.0080242995 -0.14998809 -0.7927549 0.15838245 -0.57131875 -0.1002087 -0.016643824 -0.6258105 
-1.6277841 0.68703574 0.21139404 0.5000149 -0.032235406 -0.31002307 0.11556143 0.9966771 -0.38397112 0.4510144 0.13628905 -0.47826216 0.3164084 0.54658085 0.59378004 0.17026505 0.050670933 1.0435061 -0.40952358 0.63855463 0.4979451 0.17700629 1.0699712 -0.3140236 0.17611445 -0.41145164 0.80699795 -1.5311928 0.17881475 -1.3652627 0.041063838 -0.0065517887 0.22128227 -0.8186247 0.657116 0.58965874 -2.5741644 -0.32603177 0.0061432137 0.4351976 0.17556249 0.0022247122 -0.5658418 0.6623522 -0.4051953 -1.5124875 -0.54991627 -1.0351149 -0.0962861 0.35360956 -0.11907287 0.2559663 0.3925232 0.56626034 -0.5934292 0.15438436 0.8680587 0.37400153 0.76074994 -3.1341932 -0.844167 0.0013672109 -0.0055398406 -0.2857502 
-0.1335969 -0.09582563 0.20768319 -1.2779646 -0.05947873 0.04997427 -0.6853653 -1.7516903 -0.18652175 0.4303833 -0.32625338 -0.14311716 -0.17952204 -1.2106545 0.18675059 0.11470938 0.26570594 0.12030567 0.8293881 0.0982661 0.010505441 0.78262144 0.18832794 -0.011408699 -0.13401909 0.26484534 4.3863683 -0.94810647 -1.1963719 -1.265372 -0.89312583 0.24524507 -0.3741561 -0.9082099 0.34609407 0.29692635 -2.9564943 -0.56516266 -0.59858584 -1.1232793 -0.09391222 -0.056519397 0.45851183 -0.3356644 0.17106125 0.37267122 -0.080745935 -0.071900725 -0.012574406 -0.23492151 -0.31514943 -0.75252163 0.010448097 -0.2368315 0.26622504 0.37632862 0.23237583 -0.2518397 -0.7217131 -2.0501168 -0.55630046 -0.29130933 -0.5785374 -0.21233985 
0.13643123 -0.07241109 0.35389787 0.76380736 0.4535363 0.06520769 -0.013201278 -0.45813277 -0.15886705 0.9671101 -0.3855804 -0.2627133 -0.51683503 0.14529173 0.37355638 0.1318486 -0.38058236 0.3991825 -0.36269075 0.60917246 0.17002544 -0.6070846 0.27872914 -0.32663688 0.1351613 0.2683293 2.4398673 -0.9905371 0.1620654 0.70108736 0.5520373 -0.22821657 -0.5245285 0.2575645 0.031971782 0.49284232 -2.9955928 0.023995144 0.13979793 0.38488778 0.45662624 0.61144394 -0.3141216 -4.999107 0.1889003 -3.1697674 -0.5245355 -1.9507158 0.8241168 -0.33281058 0.4438795 0.1771802 0.26859757 0.2701457 -0.3673666 0.4661942 0.15242454 -0.45551553 0.0880276 -0.90567803 -0.461757 0.50949484 0.6227877 -0.2206604 
0.44313243 0.35103837 0.018117463 0.04152186 0.5141796 -0.6140177 -0.16577017 -0.4440363 -0.055664852 0.78135663 0.3122318 -0.4573029 -0.6339515 -0.41339415 -0.3161641 0.36350268 -0.1555659 -0.17868917 -0.39541608 0.3446086 -0.38163105 0.4972284 0.62296337 -0.2710374 -0.32809737 -0.058300894 1.4889183 -1.6743643 -0.6137675 -0.90234274 -0.9862731 -0.12026018 0.016924268 0.17002428 0.24431822 -0.19690514 -3.0135188 -0.099171855 -0.3124153 -0.21813294 -0.27477115 -0.64734966 0.202801 -0.34093875 0.4380008 -1.5273005 -0.116035916 -1.0153114 0.57662034 -0.39747816 -0.61535305 -0.42611858 -0.40605432 0.2262343 -0.13770406 0.029026482 0.19640477 0.21441053 -0.5302734 -3.2454057 -0.1390848 -0.47567368 -0.39820284 0.18280219 
-0.0003823059 -0.44320974 0.1348215 1.5664177 1.1590159 0.4841417 -0.44021127 -0.37558037 -0.60715526 -0.35308036 0.13411754 0.111903526 -0.23894234 0.67608595 0.03465031 -0.73335356 -0.08490576 0.24344788 -0.0057948474 0.41895914 0.34818766 -1.5680978 0.24276088 0.26039362 0.57771546 1.1567618 3.5856173 0.5201535 -0.31161416 0.5717614 0.25074857 0.44344577 -0.19142756 0.22956051 -0.013631933 0.4623261 -3.8226962 0.39336208 0.103305236 0.20675257 0.7022469 0.28596574 0.52463984 -3.7956376 0.59614867 -1.1610038 0.2136897 -0.77501947 -0.49065602 0.91079724 0.32546332 0.25464126 0.1877798 0.010548058 0.5805089 -0.0032114526 -0.19441597 0.09493461 0.27792552 -0.9163351 -0.24541992 -0.0984421 -0.5845855 -0.1922462 
-0.158282 0.044245772 0.40133473 0.4294187 0.28835925 0.29818025 -0.2794238 0.23071902 0.7966381 -1.4827694 -0.115742296 0.051862665 -0.89071906 -0.20952062 -0.17514533 -0.08186232 -0.090029575 1.0021596 -1.0313766 0.30006054 0.21572685 2.3175886 0.3585073 0.084743924 0.09847395 -1.2377304 1.0053886 0.2680071 0.80687 0.2584591 0.11401713 0.57896984 -0.3691137 0.09218347 -0.15086663 0.1349157 -1.8554287 0.027763333 -0.60686374 -0.12686428 0.065662004 -0.124072775 -0.7458143 1.2336061 -0.2172008 2.4273736 -0.7853478 2.0773602 -0.43508953 0.25653744 0.39071953 0.43350613 0.31134266 0.16649885 0.23789889 0.57519287 0.22681014 -0.20990078 0.14034796 -1.0182921 0.41866472 -0.10158278 -0.34361255 0.4494782 
-0.37439752 -2.3485887 0.052422658 -0.16341504 0.15311326 -0.14671092 -0.68799496 -0.6684418 0.19697334 0.05291282 -0.32554403 0.6447893 -0.17003311 0.36560133 -0.17839189 -0.337207 -0.5491691 -0.0709584 -0.5674413 -0.031317327 -0.6289548 -0.10837879 -0.017508818 0.33874595 0.49551743 -0.7641771 0.6169024 -0.8528171 -0.08361326 0.7798148 1.050274 0.41670832 -0.111869216 -0.30962607 -0.09185002 0.5575262 -2.3354046 -0.5437396 -0.20061536 0.45959374 0.66306627 0.03824622 0.009745966 1.35408 -0.5368411 -1.8688532 0.364017 0.00052300596 -0.26394472 -0.71642935 -0.0039684693 -0.37294418 0.17356259 0.61870337 -0.3038786 -0.018385394 0.39088792 -0.010853358 -0.01183234 -1.9041646 -1.0996038 -0.5421715 0.2208658 -0.70030576 
-0.45975062 -0.25599805 0.41642222 -0.340192 -0.88207084 -0.2666083 0.16118926 -1.1069422 0.62573266 0.69841033 0.52973133 0.22516568 0.7298323 0.2261827 -0.30676693 -0.12205768 -0.31622872 0.00069447287 -0.6179066 1.2635006 -0.22173528 -1.5192754 -0.07110706 0.40352905 -0.19610573 -0.5546359 0.3184001 -0.119865246 0.00085354614 -1.4648939 -0.36821365 -0.98650986 -1.0737622 -0.90352434 0.4820371 0.3440845 1.538627 0.34720814 -0.63241106 -0.4843885 0.50140536 -0.5727588 0.9605556 -0.233854 -0.09060998 0.9088032 -0.62870336 -0.7648789 -0.1939147 0.36583576 -0.44137022 -0.0064513884 -0.11188767 -0.052702684 0.36389464 0.22861086 0.3276038 -0.8063221 0.4813587 1.5337733 -0.1170888 -0.4627022 -0.05415292 -0.1433113 
0.6545132 -0.17633635 0.39485446 -0.6062636 0.30781743 0.4289491 -0.20596848 -0.11566398 0.16878916 -0.03779118 0.32013944 0.34639087 -0.46740982 -0.07150794 0.15245737 -0.0939405 -0.054666497 -0.65089935 -0.08360166 -0.90319175 -0.1250659 -0.0523498 0.017998701 0.004448841 0.21630263 -0.40817854 0.39584726 -0.10025759 -0.5641239 -0.4543523 -0.020542847 -0.4035413 -0.03488019 -0.19275765 0.042057127 -0.32927802 0.35275066 -0.6481371 -0.51080734 -0.6387198 -0.06712353 -0.084905215 -0.93477964 0.22373596 -0.4401269 0.8154217 -0.2954154 0.06031179 -0.7375141 -0.6753492 -0.11286192 0.13122565 -0.13026437 -0.14425038 0.39472467 0.31842953 0.2713513 -0.07409237 0.22545514 0.122583136 -0.6374002 0.19266532 -0.0020755487 0.63485384 
0.24954508 -0.3803391 -0.01714385 -0.3246927 -0.017172666 -0.1300722 -0.15553997 -0.23393771 -0.19582519 0.41242138 0.47997412 -0.08258126 -0.20932354 0.017189506 -0.2799594 0.09878789 0.20891964 0.45532075 -0.49573138 0.35985646 0.450309 -0.7412532 -0.50023603 0.31364235 -0.5155369 0.13477492 2.2997608 -0.312623 -0.2727959 0.49577057 -0.40878835 -1.0032703 -0.5949058 -0.13052791 -0.4500376 -0.5661949 -2.047972 0.25849858 -0.18557578 -1.0771598 -0.43808475 -0.09352251 -0.063409805 -3.1123013 0.06996752 -0.066938624 -0.71667737 -0.6361092 0.29725453 -0.0138339875 0.3253559 -0.51513004 -0.011173869 0.58927363 0.26092756 -0.5764576 -0.53520447 -0.19295761 -0.27351594 -1.0126028 0.31123596 -0.3157339 -0.43008202 0.56786674 
-0.46385363 0.60082334 -0.1166703 -0.20379154 0.40443787 -0.15393703 -0.926259 0.14224714 -0.7414957 -0.83002204 -0.04655389 -0.16687627 -0.16550082 -0.45035815 0.5577515 -0.16814633 0.075441234 1.614015 -0.7322893 0.14066383 -0.08854295 -0.50793564 -0.1661678 -0.4999476 0.19705407 0.4423625 -0.560354 -0.22810543 0.4334052 0.5724059 0.34136227 0.4119692 -0.05523625 0.26604187 -0.35433087 0.66741693 0.17029114 -0.3619057 0.038667366 0.526122 0.9062795 -0.13449162 0.103385285 0.6072493 0.1319757 1.6835666 -0.06717967 -0.23824334 0.20689514 -0.3863432 0.51600546 -0.16245425 -0.09944667 -0.25074047 -0.20768665 -0.13491075 -0.26191193 0.2345486 -0.17729011 1.25027 0.26651156 0.31358093 -0.7328838 0.48296058 
-0.5858931 -0.21367635 -0.81671995 -0.6142259 -0.63245827 -0.4260643 -1.2810436 -0.5116728 -1.2575608 -0.30430248 -1.0989497 -0.15668426 -0.29112518 -0.87299573 -0.42661285 -0.9189473 -0.6907004 -1.1065621 -0.19697285 -0.8572695 -0.75404155 -0.16239272 -0.74559444 -0.44768003 -0.5693917 -0.4513555 0.5944518 -0.63799125 -0.7951066 -0.37218344 -0.474089 -0.60629255 -1.142066 -0.20212904 -1.3998929 -0.81951547 0.47464022 -0.79778916 -0.78659475 -0.9188854 -0.92888945 -0.814512 -0.6552587 -0.42765847 -0.73879665 0.14899817 -0.40960366 0.3048241 -1.115724 -0.8096382 -0.9045332 -0.72617763 -1.1233809 -0.8083792 -0.83297753 -0.9280334 -1.0007286 -0.87179965 -0.997464 -0.5528608 -0.470771 -1.0992686 -0.3889247 -0.77019244 
-0.37125394 1.3970237 0.49178243 0.48597005 -0.64772934 0.84350234 0.2246455 -0.12601414 -1.10207 -0.0685653 0.94250584 -0.4670601 -3.9191124 0.13366236 -1.2865677 0.44709238 0.5287115 0.108498745 0.49684435 0.66216475 -0.6415167 -2.9284902 0.84523255 0.2175042 -0.09766188 0.908519 -4.26991 -0.54299164 -0.6224206 -0.9323112 0.87748885 -0.69777536 -0.36449742 -0.20568216 0.37803108 -0.057249296 4.328311 0.50150937 -0.100777015 -1.5885706 0.12541823 -1.0565087 0.67623746 1.0073957 -0.870606 0.56478274 0.25180024 0.47161916 0.25580576 0.19779798 0.1722737 0.6641741 -0.44818544 0.009286352 0.23397474 0.012059823 0.00089733355 -0.3241045 0.22971731 2.3599613 -0.6384148 0.09041324 -0.32685626 -0.4787483 
0.03237493 -1.4332914 1.4223379 -0.16978936 0.208857 -1.1418428 0.32056963 -1.4803666 -1.1640147 0.025910938 0.49775574 0.49344248 -0.24612883 0.07347739 -0.8275678 -0.31473294 0.2520527 0.5294049 0.24195582 0.8092878 0.71735746 0.49342507 0.93967867 0.03955622 -0.04387672 0.77691233 2.266931 -0.6775209 -1.134073 0.92476505 -0.22815412 -0.39419585 -0.54993993 -0.58214086 0.14020169 -1.0591749 -1.7476995 0.8535709 0.37114784 -1.532203 0.829421 -0.66890234 -0.45614168 0.3120729 0.1541432 -1.8838391 0.3198299 -0.20147684 0.028203312 0.879011 -0.0788392 0.013236568 0.050273504 -0.012508972 0.42091691 -0.4594277 0.79886305 -0.46902344 -0.4131095 -1.6913433 -0.99180454 -0.085395776 0.7805336 -0.014876692 
0.18032868 -0.35612267 -0.24626936 -0.33172503 0.2624327 0.14389922 -0.40438092 -1.0607271 0.42221227 0.22540492 0.33834067 -0.0512257 -0.3499645 -0.09521788 0.524499 0.19629401 0.798944 0.08482092 0.48669946 0.5991006 0.35667562 0.92591417 -0.152739 -0.087254375 -0.13716252 -0.734129 -0.62591946 -1.2854954 -0.15922365 -0.36846912 -0.21950711 -0.28151283 -0.21352415 -0.5372206 -0.2530301 -0.21146742 -2.62026 -0.8094059 -0.28155303 -0.18586041 0.20111445 0.33650535 -0.40804663 -0.9089627 -0.33617184 -1.5318137 -0.71649164 -0.4962344 0.72752845 -0.11681112 0.22097073 -0.82636344 -0.011188101 -0.6189521 0.79289293 0.44506782 -0.068298824 0.049760494 0.24818589 -1.6337353 0.04121428 -0.34406886 1.2737963 0.5451203 
-0.27465087 -0.11902015 0.23650339 0.096195355 0.6167132 0.20476428 0.22377494 -0.3982198 -0.39688393 -0.84417766 0.34225348 0.2720658 -0.3679664 -0.054829378 0.61984944 -0.34409332 0.03334313 0.42857784 -0.47506595 0.344069 -0.43951103 -1.1554011 0.5363389 -0.46078908 -0.036084164 0.83565724 -0.87464994 -0.11697463 -0.74723345 0.0520086 -0.052849036 -0.18459488 0.33490643 -0.62035906 -0.39006826 0.55561435 0.5352806 -0.00078492775 -0.15095162 -0.03747916 0.27631208 -0.18885362 0.5342996 -0.35357708 0.49191228 -0.2623297 -0.10938328 1.0224906 -0.087901995 -0.1034902 -0.6813987 -0.43244392 0.1820732 0.39842334 -0.12903386 0.093822695 0.243733 -0.6346359 0.3854088 0.14681499 -0.4515214 -0.25786123 0.4742685 0.5893975 
0.0025855056 -0.60739547 0.17790185 -0.53101456 -0.14487414 -1.044597 -0.13583665 0.8680256 0.057751376 -0.5299187 -0.28404218 -0.30603477 0.7608487 -0.4424867 -0.3051759 0.46666002 -0.5086687 -0.150047 -0.5895227 -1.5740837 0.25704205 0.97627145 -0.18323247 -0.7189773 -0.39142755 1.0722296 2.3841777 0.09416433 0.00033518876 0.5934725 0.33850014 0.07492987 -0.0012578387 -0.276156 0.46599036 -0.15424852 2.3129344 -0.94746566 0.46427962 -0.4649945 0.042539842 -0.3110372 0.25885814 -0.19852753 0.44947585 -1.0104566 -0.2699477 0.2796586 0.23554914 0.03460174 0.36187157 -0.554231 0.22727235 -0.09611396 0.21268284 0.5757411 0.066395864 0.24867427 0.65616006 0.28800583 -0.33784947 0.041260265 -0.40264013 0.45606324 
0.12904713 -1.2484157 -0.02627916 -0.7002916 0.46438307 -0.99945605 0.08279069 0.4150598 -0.5150704 -0.91437536 -0.41890475 0.45280784 -1.1349609 -0.86982954 0.30586752 0.20363079 -0.43540746 0.010135614 0.3883485 -1.0356821 -1.4086509 0.06222896 0.38811517 -0.91666967 -0.024821667 -0.9090952 0.4925736 0.5276583 -0.3670635 -1.2409261 -1.4252826 -0.030886719 0.028040886 -0.17578988 -0.38516322 0.15707952 1.766284 -0.04800184 -0.3162021 -0.542505 0.43085155 0.34955278 1.0433232 0.0063859103 0.07546762 -0.40912852 -0.9919082 -0.0008806542 0.47655615 0.4825924 0.37287056 -0.5226388 -0.47383153 -0.26823467 0.43474114 0.030471329 0.20545442 -0.38338155 0.2270452 0.31417444 -0.3093664 0.58000636 -1.3984431 -0.21417499 
0.058997996 -0.57245916 -0.10243223 -0.16079935 -0.058254227 -0.114830256 -0.69370615 -0.17065866 1.8332467 -1.2492999 -0.5599658 -0.6886209 0.68770874 -0.37843558 0.6857085 0.088950224 -0.4108363 -0.9684232 -0.36223286 -1.0226529 -0.2999211 -0.5797618 0.12151457 0.6741913 -0.21050154 -1.1751583 4.3595576 -0.8615185 -0.046614088 0.6685274 -0.7095645 -0.64611596 0.07504225 0.1192091 -0.1435104 0.3303398 -3.0429816 -0.12762582 -0.4700854 0.03219469 -0.9205023 0.074288495 0.09360208 -2.8690917 -0.03554107 1.4537325 0.48030388 -0.14559123 -1.8605685 -0.63881904 0.04619177 -0.10550021 -0.6901276 -0.2277413 -0.4547217 -0.5369577 0.47849375 -0.15088348 -0.020502096 -0.3594265 0.1484002 -0.28689224 1.2233491 -0.06584961 
0.57503814 -0.79575974 0.3112017 2.0125823 0.6965019 0.46051958 0.26135033 -0.5860604 -0.4091347 -0.2884056 0.06846567 0.30792883 -0.33836344 1.0283763 0.47363496 0.5648808 -0.15319891 0.59367424 0.06118092 0.8226422 1.1266044 -0.9262122 0.22591849 0.3488589 0.49786073 0.3849778 -1.0390377 -0.81028616 -1.1798778 0.58081406 -0.4793418 -0.32088274 0.22330223 0.08498655 0.13012168 -0.0161611 -1.0474489 0.23640762 -0.08649336 -0.38736352 0.329708 0.29563844 -0.31555223 -1.125415 -0.2654922 -2.2630818 -0.14190024 -1.3641795 -0.39696723 0.24712622 0.029887358 0.4354757 -0.0058158147 0.24746753 0.2442567 0.28518382 -0.12588437 -0.6504565 -0.124518126 0.26663172 -0.6044015 0.2250237 0.61720926 0.15595075 
0.037476707 -1.261778 -0.028858919 0.9398525 -0.26232702 0.25564992 -0.5818038 -0.9098097 0.71906507 -0.5040767 0.05317764 -0.20073421 0.72369385 -0.61387724 0.7571897 -0.123382665 0.29895124 0.63654584 -0.24205635 0.7161355 -1.172928 -0.45818725 -0.21461277 -0.4455888 -0.27609408 -0.04603972 -0.5446139 -0.27674013 -0.86076206 0.65979785 -1.3732705 -0.3417761 -0.8274171 -0.52266365 0.092037015 -0.26881057 1.6569676 -0.16311596 -0.4031193 -0.23078448 -0.5150486 -0.33141977 0.088175185 0.9872253 0.41948253 0.55458164 0.046827596 0.5039284 -1.3292017 0.5379508 0.17601581 -0.31474248 -0.1481343 -0.15451986 0.4846272 0.1530685 0.02629767 -0.38291228 -0.22723311 0.8517186 -0.16062574 -0.8134776 0.48840296 -0.15950441 
-0.093848124 0.60891825 1.0984209 1.2611802 -0.31667292 0.69849145 -0.15357314 -1.119615 -0.048560236 -0.50941 0.20479095 0.41218793 0.49430814 -0.04833597 -0.086341746 -0.9159653 -0.19651452 0.6114236 0.3394738 0.3490566 1.2386932 0.46740258 0.41054145 -0.37474415 -0.2749034 1.5771998 2.11778 -1.0705291 -1.0538418 0.4935154 -0.40460065 0.08561097 -0.6962243 0.45182893 -0.055128537 0.41281712 -2.0690262 -0.62107277 -0.14066014 -0.90575856 0.06971281 -0.4728867 0.48470366 -0.6054301 0.02014116 -2.3439176 0.8366267 -0.06964393 -0.12649322 0.20089154 0.11157451 -0.33345312 0.43056282 -0.6615527 0.20862125 0.4058206 -0.060246058 -0.16272059 -0.45881718 -2.0376909 -0.7411697 -0.31807896 0.06508748 -0.43378168 
-0.8987365 -0.5747921 -0.3454067 -0.5220941 -0.28072873 -0.20903932 0.339614 -1.0919564 0.08816434 -0.5609059 -0.58681697 -0.42073798 0.70383537 -0.10803854 0.042086493 0.0043286756 -0.413235 0.89711154 0.47025752 0.8511249 0.4014741 -0.74174976 0.23331316 -0.17680551 -0.08988521 0.98808974 1.8081294 0.19060516 0.4942029 -0.0003786835 0.7191963 0.23859665 -0.9492924 -1.2331275 -0.2964183 0.04515316 -2.6138399 0.37368214 -0.47552902 -0.33210516 -0.24680819 -0.079971 -0.37096238 0.12836361 -0.09853637 -1.6232677 -0.26417476 1.0356433 0.073630765 -0.30064568 0.07259922 -0.14621663 0.4616771 0.24616246 -0.45952052 -0.690765 0.1475339 0.011789767 -0.086973645 -3.6488917 -0.00899975 -0.2546606 -0.37293056 -0.59555703 
0.39853454 -0.8096574 -0.46295226 0.21968529 -0.6213864 -0.005499524 0.30711392 -0.63359326 -0.29360956 0.12328507 -0.15487783 -0.18242617 -0.42279556 -0.12441628 -0.24961585 -0.1746966 -0.13230534 0.61273944 0.58349705 0.1253417 0.48691922 0.43032032 0.041882697 -0.58329976 -0.4282476 0.2794257 1.1718504 -1.1673748 -0.46710965 -0.29884166 -0.088815816 -0.5616447 -0.25347143 -0.10817934 0.35228762 -0.3823768 -0.4322875 -0.8643245 -0.38362643 -0.338014 0.015201872 -0.10728158 0.44837344 -0.910724 0.01329078 -1.6672529 0.51071805 -0.79346085 0.30310297 -0.36866778 0.08624192 -0.46968442 0.314656 0.09463861 0.36415234 -0.51366085 -0.012645942 -0.12696904 -0.45915648 -1.9312507 -0.80494756 0.20425771 0.07089612 -0.19581373 
-0.31244218 -0.096478395 -0.27505526 -0.6421467 -0.33279377 -2.8927016 -0.21388274 -0.29992995 -0.85282683 -0.3404945 -0.029622 -0.4614831 -0.028153066 -0.37244013 -0.5177153 -0.1758562 -0.11094472 -0.15573595 -0.09555442 -0.5989789 -0.060687486 -0.33900258 -0.5623063 -0.301485 -0.5434676 -1.2238588 -0.42047304 -0.11747818 -0.31434917 -0.37440047 -0.9324178 -0.59611297 -0.4560087 -0.48568967 -0.37482202 -0.65648794 -0.072767764 -0.2450249 -0.8367496 -0.63577753 -0.98071164 -0.20478535 -1.1004283 0.33689192 -0.6452476 -0.2702981 -0.65701586 -0.70866895 -0.4167186 -0.47366247 0.030263828 -0.101827115 0.24198055 -0.24689749 -0.38303113 -0.45408738 -0.652839 0.06474182 -0.57210547 -0.054952018 -1.105671 -0.3266023 -0.38313013 -0.28639448 
-0.17662656 0.12294946 0.47144753 1.1716833 0.08470765 -0.31879476 -0.22234899 -0.49559274 0.2117927 -0.09389967 0.06983565 0.21950307 -1.5972707 -0.5410509 1.3898071 -0.7147947 0.1717981 1.0125935 -0.4063228 0.233789 0.4185913 -1.061474 0.37940365 0.26391062 0.5412062 0.17954114 0.9369545 -0.007372495 0.36632317 -0.24275947 0.37375972 -0.016674802 0.044776898 0.1863634 0.01678093 0.15186207 -1.8612341 -0.81926626 -0.70914245 -0.18444455 0.035467256 -0.31270957 -0.13232648 -0.585974 -0.23224299 -2.0008845 0.22330998 -1.1297946 -0.27712965 -0.251303 0.5528534 0.5395903 0.38241252 0.15562674 -0.3356372 -0.31184706 -0.17439726 0.5476477 -0.039955597 -0.07380231 -0.15732951 0.7068603 0.62949985 0.431528 
-0.91044885 0.4289624 -0.27017155 -0.31335232 -0.51140213 -0.31186885 0.12444403 0.08590388 0.02642142 -1.4674917 -0.8741029 -0.21992971 -0.005942091 -0.61665505 -0.27088454 -1.5772257 -0.08081879 -0.7331637 -0.23967817 -0.45741555 -0.23325919 -0.050149355 -0.20920411 -0.5305663 -0.7752203 -0.17224537 0.9894582 -1.3573058 0.25062817 0.17022891 -1.8446016 -0.5736745 -0.5801474 -0.5484938 -0.43371487 -0.11155179 -1.1910441 -0.07303053 -0.72309655 -0.39612156 -0.15440571 -1.380213 -0.35135028 -2.106056 -0.0037291972 -1.3659843 -0.71670806 -0.474898 -0.77721024 -0.42712566 -0.38578394 -0.24914065 -0.2031512 -0.64622444 -0.43381372 -0.5389248 -0.63139933 -0.8954018 -0.52691585 0.16869965 -0.8156612 -0.7641675 -1.8956689 -0.017423298 
0.5178418 -0.13392484 0.22805579 0.5771017 0.17512341 0.36521444 0.028001374 -0.7042138 -0.7185264 -0.37454385 0.10413373 0.76985306 -0.77278405 -0.3016746 -0.6130734 0.15158603 -0.1346999 -0.018625002 0.28850037 0.5991095 0.10289327 0.101141244 0.4308983 0.16971385 0.32401684 0.04648095 1.8821542 -0.2722261 -0.26583683 0.14649835 -0.07712784 -0.026447212 -0.015859433 -0.13032177 -0.49224886 -0.61143845 -1.0110575 -0.6400872 -0.2764471 -0.30053204 0.0143362135 0.5551497 0.6097033 0.7548095 -0.3986457 -0.9636751 0.44636005 1.7937992 0.22748058 0.3117828 0.38232216 -0.41734362 -0.1180233 0.046288475 0.06745833 0.24098665 -0.01570793 0.547405 0.30679733 -2.1279125 -1.1839718 0.088916555 -0.3975051 -0.497712 
-0.1769752 -0.81829387 -0.94856775 1.0350835 0.38215706 -0.04486483 0.00082747353 -0.28603557 0.054359857 0.22194095 0.0712121 0.2403306 -0.80603606 0.1809382 0.034303185 -0.152922 0.5829745 -0.3234501 -0.25937098 0.64035255 -0.0060618194 -0.9858332 1.0897875 -0.08359396 0.14055322 0.011110896 -2.407249 -0.32889512 -0.38700977 -0.08082083 0.22680628 0.35480127 -0.6981004 0.13440932 -0.64231324 0.06367178 1.3059741 0.6815868 -0.7022686 -0.050181746 0.04025773 0.06321857 -0.078904435 0.004201509 -0.46122104 0.35269395 -0.7327165 -0.69107175 -0.3732287 -0.9264143 -0.47627836 0.33414382 -0.10996602 -0.16194893 0.1833237 -0.19235058 0.48391128 -0.5233774 -0.32974708 1.2083701 -0.07190253 -0.423798 0.56011206 -0.018587181 
-1.069246 0.5441611 -0.11347994 0.93859947 -0.5521951 -0.88049227 0.009728862 0.58055216 0.3125053 -1.6681526 -0.22105591 0.17182837 0.55941176 0.02320534 0.4495158 -0.18906222 -1.3271838 0.7439326 -1.3361273 -0.8710983 -0.24758384 0.381716 -0.67467654 -0.13564609 -0.33850253 -0.75745106 -0.36148328 -0.661202 0.19797428 0.8667771 -0.3042632 -0.46637994 0.40374225 0.47483265 0.15827969 -0.04358464 1.9021332 -1.6478691 0.49693558 0.32063037 0.17382206 0.13567623 0.06352865 0.283608 0.19141169 0.16260983 -0.018054131 0.21931982 -0.27067488 -0.8878809 0.53785837 -0.60273135 0.250615 -0.08784774 -0.32978994 0.052336507 0.011411473 -0.5518827 -0.8978152 0.8462768 -0.39267242 -0.16003206 0.847243 0.19951777 
0.24510604 0.39771035 -0.39428088 0.49527934 0.034723345 0.4823532 -0.53416365 -0.6247746 -0.23075889 -0.27049142 -0.3426716 -0.7627678 0.00735805 -0.3804923 1.040912 0.16122596 -1.0595776 -0.98728913 -0.4915161 -0.10830883 -0.48323786 -0.95523673 -0.43098646 -0.08971386 -0.07880449 0.013946587 4.121787 0.16167796 -0.51113087 -0.19805606 0.029391859 -0.08336212 -0.23022844 -0.78169745 -1.2375189 -0.464696 -0.5386267 0.11065526 -0.4702432 -1.2394208 -0.59123725 0.0010699596 0.107473426 -3.9255352 -0.7487541 0.69197327 -0.4857396 1.0189302 -0.55267787 0.0622013 -0.58069605 -0.3422603 -0.08404602 -0.53241134 0.14325942 0.24148917 -0.50487876 -0.26415357 -0.29326004 -0.62785834 0.05990567 -0.6744326 -0.17455724 0.011110317 
0.5209586 -0.7411046 0.64670795 0.8446107 -0.09205916 -0.75257957 0.506308 -1.1226202 -0.2918455 -0.13263012 -0.21546276 -0.56873804 0.4307269 -0.027483711 0.04866473 -0.025658533 -0.5611072 0.3585866 -0.8686857 0.5222559 -0.4406646 -0.018878164 -0.15061422 -0.30801576 0.19746193 0.078098744 2.3896577 -1.0204557 -0.35651246 -0.46337694 0.14289851 0.50858986 0.24774435 -0.06690033 0.57528245 0.29183236 -0.85482454 -0.18324168 0.37966895 -0.31619164 0.59970236 -0.9814767 0.23318858 -0.51256853 -0.0685913 -1.8165514 -1.131242 -0.35942298 0.675544 -0.5334648 0.058534063 -0.17358635 0.03742937 0.3509566 0.15007958 0.1255432 0.79580826 0.4878149 0.30922925 -0.8143651 0.0852606 0.060265467 0.39148548 0.3815579 
-1.5528455 0.669111 -0.314084 -0.48589906 -0.68313265 -1.949582 -0.5101926 -0.21389075 -0.15989299 -0.024081878 0.2717708 -1.2315627 0.4923339 -1.348094 0.16624787 -0.81615657 -1.2105755 0.4733977 -1.0224037 -0.7581836 -0.30363396 -0.69820046 -0.58536226 0.17483975 -0.116671406 -1.3205113 0.9996094 0.3172617 0.47257861 0.39846268 -0.3257591 -0.42250893 -0.018301023 -1.4548415 -0.20745769 -1.2797599 -0.044481322 -0.5465569 -0.02254573 0.49120966 -1.0740324 0.05037221 -0.043150607 0.8987395 0.3877627 1.0641037 -0.23711057 0.5945733 -0.12082779 -1.2266232 -0.419096 -0.24843027 0.008973346 0.10071045 0.38770458 -0.03192366 -0.7199891 -0.25250676 -0.09715064 -0.11492814 -0.46082318 -0.37718147 -0.025648756 -0.054488685 
0.7511062 -0.28407925 -0.19674848 0.7190701 -0.1458872 0.3257038 0.42443588 -0.53803563 0.35876563 -0.34332147 0.30682772 0.0003873484 0.25788864 0.22870862 0.51575345 -0.57881147 0.29002512 0.21594748 -0.13341536 0.7454424 -0.3201748 1.0211114 0.2697086 0.30499083 -0.038293533 -0.10633455 1.5469861 0.2930153 -0.018852891 0.21073379 -0.020235484 0.47633785 0.24918221 -1.4381087 0.5405613 -0.17057462 -1.5557384 -0.24652271 0.06606052 -0.34205416 0.1268886 -0.46219614 0.322661 -0.08326282 -0.12982452 -0.87326 -0.60498077 0.33718225 0.041489076 -0.7050916 -0.11028191 -0.0374835 -0.2862514 0.21899346 0.5052824 0.5398321 0.30423555 0.040304277 0.34019175 -1.6858988 -0.35365778 0.068666585 0.20889886 -0.06791644 
-2.0187454 0.050504178 0.12017699 1.2553749 0.12142215 -0.12267121 0.17662214 -0.94622904 0.89926636 -0.5651143 -0.5863976 -0.1912571 0.096839555 -0.41935995 -0.17289978 0.3472495 0.36495823 -0.85312593 0.7953362 -0.010039529 -0.6840385 -0.7475511 0.48337746 -0.7310806 0.017489012 -0.3406747 3.3232963 0.24243361 -1.1589782 -0.65491503 0.28584874 -0.34929016 -0.7891371 0.27680874 0.45004302 -0.9154413 -1.3186002 0.2724319 0.4777657 -1.7998674 -0.35775915 -0.2356902 -0.43941054 -2.5192688 -0.59714246 -0.22901565 -0.28894746 -0.2794611 0.26950544 0.7629821 -0.08360866 0.121815726 -0.39626414 0.53416294 0.34329286 0.35011536 0.25190645 -0.2755144 0.6630111 -0.13359626 0.8403516 0.7410361 -0.32810223 0.30905813 
0.27475438 -1.1559899 0.22102726 0.044947118 -0.29994684 -0.48185107 -0.45763236 -0.37284377 0.2905824 0.04588175 -0.49272993 -0.78979766 0.7509044 -0.4089911 -0.06702399 0.61424667 -0.20229986 -0.5476402 -0.22362223 -0.30324963 0.02674698 0.016243715 0.40524176 -0.35114038 -0.53534454 -0.2802298 0.85110694 0.16620047 0.4132333 -0.7304745 -0.16194282 -0.3563051 0.42525345 -0.0652268 -0.424711 -0.15460478 1.6002132 0.08112726 -0.24527755 -0.22378437 -0.31486106 -0.21008673 -0.90500116 -1.7325412 -0.2390711 1.4059997 0.38424763 1.0472661 1.0346392 -0.16698356 -0.37194613 -0.3181775 0.48109522 0.014539436 0.016606618 -0.012167693 -0.4930525 0.124634646 -0.14788863 0.6579595 -0.6487606 -0.9037183 -1.0717508 0.022136291 
0.22099817 0.19476198 -0.0027029437 0.58637094 -0.1904915 0.3683881 -0.12467339 -0.31949526 0.018051283 0.62772596 -0.034383032 0.13037445 0.79731166 0.1884364 0.012747106 0.2430466 -0.372477 0.053924546 -0.7417032 -0.100549124 -0.3069855 -1.4273648 -0.21123378 -0.4428719 0.116105996 0.58918357 0.029689834 -0.6063173 -0.6162115 0.5159683 0.8565442 -0.57971114 -0.15100491 0.049813773 -0.21357794 -0.1923487 -0.9925814 -0.79476076 -0.0021255054 0.27430674 -0.13063742 -0.764019 -0.53421617 -0.37995172 0.45461905 -1.120405 0.45950654 -0.13226204 -1.6944155 -0.402915 0.8014669 -0.28819942 -0.3040502 -0.19827174 -0.7561909 -0.48273328 0.12996097 -0.49587142 -0.09315472 -0.96235913 0.24769966 0.37648356 0.41472197 -0.37929213 
0.06169502 -2.5884318 0.1023663 -0.117447615 -0.41895545 -1.1182437 -0.121187225 -0.10552999 1.9880073 -1.213429 0.44498876 -0.483556 0.06759127 0.6028935 1.5617653 0.24871114 -0.6312636 1.15047 -0.3407349 0.11507573 0.21256705 -1.4424673 0.35091734 -0.38319656 -0.45177734 -0.61359656 -0.034512885 -0.25249618 0.07981361 -0.004855298 -0.023968581 0.4421959 0.020844197 0.6526844 0.16924596 -0.5740106 1.6005007 -0.6518062 0.15847379 0.19552127 0.030594412 0.41014194 -0.5814032 0.85200214 0.09903927 1.098707 -0.16102402 0.19571155 0.6089796 -0.4292722 0.31048036 0.1750584 -0.5190732 0.20542368 0.4069297 0.28301504 -0.09469145 -0.11210521 0.61597985 0.8849656 0.06956573 0.0418408 -0.91777986 -0.71842486 
-0.84866524 1.8344576 -0.1160984 -0.88447905 -0.20236495 0.69519097 -0.08191736 0.20910075 0.7585076 0.02923729 -0.058659002 0.19462235 0.15254602 -0.049487326 0.05622725 -0.075111 -0.19478485 0.5576531 -0.13362548 0.06735748 -0.016756795 3.2965415 -0.28213933 0.63257563 -0.50177735 -0.7782044 3.419135 -1.0368607 -0.02215862 -0.5851274 0.7770914 0.7138278 0.1534502 0.03985764 0.36962786 0.45599 -4.67774 -0.36067548 -1.0127199 0.07152373 -0.34629196 0.36335117 -0.61196464 -0.43530694 -0.35982051 -0.23497798 -0.0062186364 0.66507256 0.8426577 -0.49723646 -0.03758187 -0.6082806 0.65859574 0.55357283 0.13753293 -0.41009185 0.34343085 0.52004164 -0.07959869 -4.2258506 -0.30105734 -1.232997 0.26522577 -0.25197014 
-0.20170571 -0.34303424 0.31732264 -0.12473603 0.22832091 0.036352567 -0.3752079 0.4595028 0.5021283 0.27284625 -0.32187188 -0.2716992 -0.0071887076 0.4400888 1.6080856 -0.07708459 -0.18150976 0.6246818 -0.19554499 -0.13951328 -0.38912475 0.11080998 0.016226642 -0.21209702 -0.99808776 1.2095478 -0.39025837 0.14350031 -0.54428077 0.86705226 -0.3511466 -0.15488333 0.24479751 -0.29269078 -0.25654247 -1.0718834 1.4900666 -0.48947266 -0.118247904 -0.76535773 -0.23554224 0.1861056 -0.14119415 -0.2006044 0.07562717 0.656957 -0.20654285 -0.5176792 -0.96863097 -0.2816778 0.5742952 -0.7017216 -0.9009384 -0.47236001 -0.46061078 -0.14942297 0.22275245 -0.23913833 -0.3445982 1.4646103 -0.2964108 -0.52342767 3.7117963 -0.33559942 
-1.8851323 0.17648202 0.13757618 0.29753345 -0.823705 -1.3335211 -0.7278313 -0.25664908 0.006531667 -0.34000543 -0.08228505 -0.47775432 -1.2167466 0.014600787 -0.36770815 -0.021227866 -0.12530118 0.18705994 0.2010974 -0.00527086 -0.38085422 0.6682697 0.20922025 -0.12737915 0.35637906 -2.208586 -0.2493444 -1.6661253 -0.53996307 0.32168937 -0.46308428 0.04082912 -0.109461926 0.3793091 0.15988696 -0.4183598 2.1046736 -0.6735707 -0.32879075 -0.3053687 -0.24040096 -0.07628826 -0.8654303 0.69430804 -0.97361726 0.9646413 0.48559546 0.8222838 -0.2313776 0.00015701285 0.035016492 -0.6136029 -0.86889875 -0.20836908 -0.09949599 -0.11990775 -0.3886626 -0.62296534 -0.57797116 0.22152598 0.08221442 0.20701204 -0.22045098 -0.84161437 
0.068779446 -0.20656608 -0.6060777 0.8574189 -1.3982298 -0.8082203 -0.6328265 -0.068994105 -0.3141042 0.25060454 0.2496997 -0.77895385 1.1120853 -0.60019565 -1.6722925 -0.009127487 -0.8166729 0.14838696 -1.0265988 -0.5525571 0.1331666 0.10757887 -0.8328272 -0.36740223 -1.4299266 -0.7419064 0.87377775 -0.23451379 -0.32588693 -0.28968608 -0.5098408 -0.18561614 -0.37575677 -0.64191914 -0.2517304 -0.004927461 1.6208795 -0.072168045 0.4233 -0.55761087 -0.0074953143 -1.5307137 -0.14684464 0.62127316 0.35789463 0.679037 -0.55536526 0.49330133 0.04930811 0.25754973 -0.008162431 -0.6344389 -0.47429654 -0.35743573 -0.11773947 -0.59592104 -0.38405132 -0.4804178 -0.19656022 0.18595318 -0.17007287 -0.33035496 -0.53680956 -0.21923788 
-0.78255 0.54496896 0.36591965 0.979917 -0.21686634 -1.1524897 -0.6472794 -0.16813932 -0.53266656 -0.8115226 0.52520204 -1.0710092 0.24352565 0.13547347 -1.0958472 0.06913952 0.17314091 1.0406057 0.6827841 0.33337486 0.18534282 -0.08093914 0.46015972 0.017982222 -0.7719624 -0.8511596 2.3470118 0.28049967 -0.23005281 0.12674879 0.16024108 -0.49871817 -0.21859892 -1.6925627 0.11329753 -0.64161897 -0.784572 0.084033646 -1.761831 -0.13701603 -1.4819036 0.16178003 -0.5010831 -2.1079104 0.09177028 7.020676e-05 -0.53607297 0.73293185 -0.09721032 0.3016803 0.2912916 -0.34948793 0.04611873 -0.1925484 0.14564227 -0.82950956 -0.46840122 0.09373821 -0.18468444 -1.2939614 -1.3944443 -0.15485643 -0.7177224 -0.19097845 
-0.050506238 0.38934952 0.2456544 1.4122447 -0.6436304 -0.158682 -0.4966077 -0.011153522 -0.43544856 -0.2564547 0.39324877 -0.26899523 0.24335365 -0.25987056 -1.4094836 0.26740962 -0.25888133 -0.6276688 -0.20704083 -0.21831992 -0.044713963 -0.15689032 -0.42187285 0.049362004 0.21227881 -0.6781433 2.7436943 -0.6961322 -0.96834916 -0.16191307 -1.4498751 -0.8849164 -0.5879058 0.54605716 -0.39975297 -0.5823625 -0.595471 -0.10164088 0.3868426 -1.871854 0.19485483 -0.85926884 0.058268305 -1.9743259 -0.06105599 -2.2777185 -0.016128687 0.6020285 0.62168014 0.47689632 0.078380905 -1.1099236 0.052073296 0.10955321 0.3660107 -0.4567051 -0.44685853 -0.11822676 -0.3094898 -0.48487845 -0.2546544 0.63741356 -0.12416731 -0.8242604 
-0.34448433 0.10266264 0.11285014 0.23159981 -0.06523489 0.4841782 0.05247063 0.49104702 -1.5315533 0.27341026 -0.1343127 0.057965253 -1.1394097 -0.07159678 -1.0192184 -0.34093627 -0.85313195 0.2908599 -1.3539661 -1.9165666 -1.2273595 -1.9674251 -0.11185205 -0.3156845 -0.55236393 -0.10913402 -0.18476294 -0.2932147 -0.054226592 0.33808067 -0.18758848 -0.7932382 -0.2204163 -0.11909472 -0.04485432 -0.38079864 -0.017394288 -0.7346736 0.1716088 -0.56002164 0.46904987 -1.1174111 -0.1251082 0.939263 -0.43025514 0.61365813 -1.0466897 0.56216735 -0.4384286 -0.64632636 -0.99797004 -0.73641735 -0.57880455 -0.2841425 -0.27641833 -0.059891574 0.4326136 -0.040419273 -0.060879014 -0.07656233 -0.052803326 -0.56519353 -0.35363606 0.13832563 
-0.78661704 3.9150674 -0.11261109 -1.3854393 0.12574156 0.59102243 -0.26830465 0.0035548608 0.055645578 -0.20608217 -0.68275476 0.3227831 -1.0226729 0.6060404 0.40425515 0.7009628 -0.08662699 0.6211607 -0.19800559 1.0449227 0.20746002 -0.021796945 0.16500498 0.05361211 0.25323552 0.72964907 -2.8768718 -0.77761525 0.07580085 -0.9756693 -0.17808844 0.6512917 0.21305057 -0.6163921 -0.33431283 -0.418486 -1.7693783 -1.1439854 -0.76464564 0.19774465 0.2426388 -0.012740472 -0.56278366 1.3857526 -0.48192662 -0.9893181 -0.4202787 2.1393218 -0.03330688 -0.11639836 0.37900418 -0.6078105 0.19635966 0.07341532 -0.6677264 -0.19025469 0.04756357 0.611474 -0.10319335 -3.5970714 -0.46959686 0.20678863 -0.30223885 0.16313218 
-0.33655065 -0.12646757 -0.52400863 -0.349818 0.41743007 0.12913845 -0.364597 -0.6194758 -0.97791994 -0.24101062 -0.3228348 0.0838071 -0.6578287 -0.3106276 -0.06069612 -0.5582179 -0.09425438 0.27427572 -0.38350582 -0.12818442 -0.5888843 1.397556 0.29458615 -0.28118378 -0.052537777 -1.1425697 2.9490836 -0.78373367 -0.07991781 0.27831307 0.16701105 0.30460754 -0.2408839 0.05781905 -0.35870656 -0.122309595 -3.252478 -0.36436468 0.05634831 -0.673958 -0.26745987 -0.27030757 0.057118017 -6.188701 -0.10869034 -1.1492527 -0.47775602 -1.345862 -0.68653536 -0.68871784 0.31935436 -0.7424482 0.5585978 -0.10542154 0.066336766 0.30664727 -0.021322774 0.109506674 -0.05176064 -1.2863353 -0.41815457 -1.3104477 0.20403464 -0.14612156 
-0.096706375 0.21301341 0.30422148 -0.0834061 0.008654704 -0.061853398 -0.39115253 -0.021198368 0.5545765 -0.66343015 0.36010054 0.018069133 -0.27457124 -1.0052348 -0.50865114 0.55620104 -0.5041353 -0.06491465 -0.7784644 -0.90447545 -0.43540862 -0.77251476 0.25134224 -0.8622394 -0.15181096 0.07302973 0.3473871 -0.56034386 -0.0881685 -0.5635696 -0.2737049 0.10004605 -0.1844304 -0.02550192 -0.16550907 -0.20030575 0.92753893 -1.2780108 0.08635446 0.07945271 0.41294017 0.050654404 -0.29343006 0.059511933 0.3768872 0.010163931 -1.4355043 -0.2111591 -0.14099564 0.04800499 0.6733492 -0.56679595 -0.5889393 -0.14105996 0.34397155 0.5773595 -0.014242124 -0.09809318 0.27982414 1.143267 -0.12758212 -0.09704849 -0.8433732 -0.20481096 
0.2845628 -0.31113273 -0.23125853 0.052372783 -0.2965027 0.10170599 -0.2101665 -0.9332684 0.45966688 0.18976955 -1.0865071 -0.77505666 0.30668533 0.008700759 -1.1117753 0.01219168 0.17712031 -0.6705589 -0.040221497 0.16593152 0.24480216 0.059019905 -0.50870925 0.31747246 -0.26035807 -0.12690218 3.3977046 -0.20998056 -0.48441312 0.010714718 -0.31696147 -0.7042356 0.13705899 -0.48472482 0.398044 0.14160761 -3.644236 -0.27403262 0.06417514 0.03374545 -0.4268356 -0.57695365 -0.17903407 -4.623882 0.035613414 -0.43936235 0.0063762343 -0.7350546 0.7230452 0.057098772 0.50669116 -0.6415478 -0.20279106 0.10654053 -0.41711417 -0.42192492 -0.041525383 0.14021683 0.023096655 -2.2719567 -1.138082 -0.14580199 -1.4107554 -0.11498401 
-0.30630702 -1.4528403 0.008643968 0.7956818 -0.055422444 -0.10729291 -0.5237787 -0.6449543 -0.34744275 0.58175015 -0.17616706 -0.7649421 -0.15758073 -0.21333186 -0.037398074 -0.0355353 -1.1198329 -0.64473003 0.1483781 0.22391114 -0.3318885 0.27876335 -0.021882445 0.29737997 -0.08503037 0.29063973 1.8190595 -0.4323982 -0.9270443 0.5211364 -0.59984905 0.11444744 -0.35166195 -0.86552364 -0.6284976 -0.404518 -2.7121243 -0.27509966 -1.0349348 0.095695816 -0.5830305 0.37397534 -0.41011164 -2.4739356 0.19282179 -3.6774857 -0.061245047 -0.15429983 0.33158833 -0.34837863 -0.16097099 0.044609137 -0.056780826 0.50658333 -0.37237597 0.42410326 -0.38919955 -0.20977004 -0.064213 -0.78607374 -0.61991596 -0.21054824 0.31007016 0.17386805 
0.1599919 -1.70617 -0.29995236 1.4934105 0.3172258 -0.14610223 -0.6757506 0.26760122 0.35635525 0.1651725 0.043222822 0.21977554 0.19535686 0.7415889 -0.22004353 0.52389437 0.113765806 -0.05815742 0.7067099 0.90020186 1.4628768 -0.7742876 1.2485281 0.7494384 0.18448879 0.20278028 1.2671139 -0.70597064 0.13637793 0.109522745 0.31577703 -0.48134556 -0.02860609 0.07942983 0.4542409 0.5175177 -1.4191813 -0.9168706 -0.451875 0.15045251 -0.1818607 -0.8525102 0.30239058 -3.5213058 -0.03275528 -3.7011867 0.7281618 -1.0058942 0.5542352 0.29804298 0.37022546 0.4076992 0.123527005 0.11444796 0.06294244 0.38031805 -0.09691506 0.7310947 -0.37304935 -0.4860573 -0.2345042 -0.23955111 1.5911684 0.22077918 
-0.5093973 -0.5357975 0.048536263 0.030763058 0.60453826 -0.6207385 0.37352544 -0.11101425 0.30166325 0.5069138 0.651631 0.31774387 -0.30512545 0.04220381 -0.07085253 0.5628623 0.81225175 0.3944152 1.0340135 -0.842642 0.025742762 -0.8215248 0.4353704 -0.026068294 0.0029746243 -1.1423289 -0.41997632 0.25378412 -0.28671446 -0.2547852 -0.38077903 -0.1879012 0.09236855 0.029244425 0.042066514 -0.82477266 2.228954 0.14931008 0.15129067 -1.5673122 -0.0794295 -0.3573388 -0.26204675 -0.33132282 0.29354241 1.2627022 -0.24336489 -1.1711267 0.4536486 0.64113194 -0.089084096 0.8009636 0.11109615 0.49980542 0.54177994 -0.029516403 0.18652892 0.4037143 0.6572106 -1.508519 -1.0974095 0.6523204 -1.193597 0.59030235 
0.3021476 -2.2246654 0.26745424 0.7028333 0.042799573 -1.1673222 0.07459875 0.08759476 0.4310216 0.22402713 -0.019679625 -0.14468707 1.2198452 -0.30981213 -0.55743605 0.5060082 -0.53335285 -0.4561246 0.43628034 -1.0414784 0.6377127 -2.8764386 0.32550317 0.20581083 0.024849918 2.0042186 -0.06420376 -0.12579595 1.273732 -0.03809719 0.1260842 0.77334446 -0.2896591 0.35245264 -0.04318564 -0.54482913 1.0674556 -0.53723055 0.04859571 -0.471996 -0.0996028 0.14100236 -0.29542497 -1.420618 0.40944794 -0.79565585 0.11599972 0.15799354 -0.14890635 0.18089613 -0.14464422 -0.03690427 -0.536646 0.23195036 0.14277257 0.6137302 -0.3672256 0.028603572 0.010156126 1.8158426 0.2922461 0.02069733 0.794061 0.2435408 
-1.343007 -0.62036055 0.2779449 0.35789043 0.378336 1.0843658 0.29977995 -0.07057573 -0.26306325 0.76266503 0.8747013 -0.0749058 -0.556987 0.42638153 -0.9567352 -0.22161189 -0.113211684 0.83644515 -0.16699973 0.32099524 -0.30228102 -1.7029135 -0.0056752907 0.023472378 -0.09662689 0.154921 1.2988348 0.20908126 -0.48976225 0.4941605 0.26525727 -0.12904115 0.37108612 -0.11354796 0.27556396 0.23538177 0.016790614 0.0221035 -0.51351494 -0.72975755 -0.6362464 0.06838011 -0.21836358 0.5232002 -0.5827974 1.6493025 -0.07755412 1.4160464 -0.72003603 -0.21662697 -0.48878804 -0.62853366 0.1386176 -0.052384473 -0.028035248 -0.20670511 0.33997262 -0.10005822 0.16098937 0.37253034 -0.11183504 0.34823042 0.7935546 -0.04679455 
0.7232168 0.52849007 0.49584094 -0.5669673 0.98948634 0.3442104 -0.42256427 -0.6513594 0.11606918 0.5629839 -0.4746537 0.32847607 0.088489436 0.076235145 -0.4694024 0.810293 -0.58344275 0.7386295 -0.23244503 0.2604276 0.5058001 0.5831792 0.19836779 -0.4183388 0.13078487 0.12251812 2.1282887 -0.69852275 0.029688522 -0.3324144 0.72828823 0.22607458 0.370782 -0.33093646 0.124507695 -0.45577613 -1.7523264 -0.58411205 0.42862737 -0.38888088 0.04727036 -0.6139527 0.14017045 -0.8766671 -0.21843135 -1.5133569 -0.61023116 -1.218304 0.36690286 -0.14340954 0.46535796 0.2737845 0.013194358 0.21905243 -0.3765452 0.11506874 0.5178858 -0.008206024 0.8583554 -3.1647978 -0.5760896 -0.42224953 -0.89621556 -0.15556632 
0.12182786 -0.21110871 -0.078503035 -0.9381155 -0.1990433 -0.20311539 0.49277133 -0.25663874 0.3280914 -0.11937686 -0.2899581 -0.41149166 0.5529546 -0.40243572 1.0393597 0.027723268 -1.4611547 0.2935649 -1.6965454 -0.70749104 -0.3652915 0.39336538 -0.6698122 -0.28327 -0.021762136 -0.0671275 2.607369 -0.8482143 -0.37224448 0.37223697 0.04674528 0.22274546 -0.34114894 -0.5632006 -1.290604 0.19697885 1.1108272 -0.4975026 -0.57058704 -1.1793946 0.09036186 -0.50365126 -0.09226518 -0.7016918 -0.041639213 0.1277033 -0.39995036 0.5063198 0.092325665 0.20096695 -0.096209385 -0.2792097 -0.8163943 0.121904105 0.04943694 -0.309165 -0.47720963 -0.17950736 -0.26602694 -0.10129174 0.7277769 -0.44680026 0.1327903 -0.66197485 
-0.68550354 -0.5358392 0.12274468 0.635555 0.5899774 -0.15320837 -0.3526402 0.16001078 -0.23836151 -0.017838243 0.35312697 -0.042847738 0.4966227 -0.45644507 0.37769383 -0.066836834 0.028760077 0.1457978 0.7246171 -0.7505718 0.32748955 0.12455436 0.43419594 0.3688379 0.31037945 -0.39765596 0.01754985 -0.024108002 0.14532124 -0.41423103 -0.3965017 0.7800922 -0.30926406 0.9299464 0.40303963 0.0974998 2.3149548 0.41199797 0.95473593 -0.32004642 -0.7969219 0.67225873 -0.041379478 0.40720403 0.44704968 1.3940126 0.14189431 -0.6134194 -0.019737145 -0.2858528 -0.20655945 0.03132029 0.4167837 -0.37348467 0.0352458 0.8327178 0.80552316 0.37047356 0.48938087 1.2618654 0.10950337 0.2583645 -0.85865897 0.12445515 
0.009733804 -0.6225877 0.04445942 0.67224795 0.06461667 -0.87514174 0.1530326 -0.66034055 0.14974071 -0.29808706 0.36237016 0.4731098 -0.068728246 0.11683013 0.734289 -0.18604918 -1.0221179 -0.04803411 -0.65300953 0.01724478 0.053410977 -0.4903379 -0.5417493 0.043809157 -0.49300423 0.2460206 -0.91363 -0.22983684 0.035186846 0.41525897 0.67611194 -0.2994034 0.18735726 0.89401084 -0.13113013 0.27286056 2.3018396 -0.25289232 -0.6162285 -0.30509192 0.53880924 0.3296537 -0.41028038 0.7284744 0.0076367757 0.99626845 0.057064135 0.34415054 -0.5310079 0.4048975 0.302198 0.14485377 -0.10414117 -0.25670326 -0.04404313 0.26480716 0.3967014 0.002919858 -0.0041762497 -1.5021468 -0.47084808 -0.24296308 -0.50006515 -0.054507524 
-0.4849234 -1.6984098 0.45320344 0.11838673 0.023633806 -0.7918236 0.47850424 0.20312509 0.42984083 0.18723874 0.6788821 -0.67980254 -0.7691691 0.22881871 0.1984272 0.43367597 0.17126055 -0.4644414 -0.13033007 0.4434194 -0.05861534 -0.31523877 -0.07248429 -0.37499014 0.13825366 0.25522432 0.4574443 0.17079513 -0.2661567 0.50455385 0.71368223 0.4786019 -0.7585366 -0.14494489 0.05381439 0.22287574 -0.05321916 -0.16691245 -0.04237161 -1.0925679 0.061419398 0.1632238 0.37688562 -1.2017171 -0.027805232 -1.5380642 0.18175161 0.75134194 0.3466761 -0.42705363 -0.05731705 0.21693449 0.42365175 -0.53363144 -0.039299842 -0.1970448 0.76993185 0.6564779 0.14037682 -0.18325932 -1.1506351 0.3455181 -0.1446896 0.62259233 
