-0.27404767 -2.3325868 -2.9030259 -0.75129265 -1.8553503 -0.5751079 -1.0526103 0.8467735 0.5430665 -0.40105018 -0.560313 1.9752156 -2.4151268 -3.2421572 -1.9984692 1.1687881 1.194072 8.741009 -0.591949 1.0837078 -3.0845444 -2.9222105 2.092412 -1.0094984 -3.1509023 -0.5039494 -1.8646964 -2.0876462 -1.3182478 -0.56013584 -1.5506146 -0.8169642 -0.35258198 -2.3618262 2.3320012 -1.902146 0.24033101 -1.9595284 -2.9085114 -0.29825208 -3.1970828 -1.5718331 -2.9473855 -2.8397532 -0.9544543 -0.6285377 -0.7503515 -0.23624201 -0.92893845 -0.7208149 -1.6997277 2.303445 -1.8066782 -2.3089583 -2.1599731 -2.44454 -1.2991904 -1.442185 -1.943782 -0.108885154 -0.5892021 13.817825 -1.8493183 2.1331363 15.560669 -2.1078424 -1.0065362 -2.6826153 -3.3230002 -2.561478 -0.49389356 -1.321204 -0.29346755 1.7448443 -2.2561648 -1.1449268 -3.8720925 -1.7981416 -2.537202 -0.6265279 0.5763121 1.8350039 1.4957913 -0.4686098 -1.2174505 0.88087475 -1.4564186 -3.4249666 -1.9740853 0.26318482 1.2784902 7.850031 -0.86189896 0.0065516825 -0.5430849 -0.8923455 2.6073742 -2.306071 -0.68005854 -0.032455415 2.4352467 -0.5605862 0.3085544 0.38904124 -1.331164 -4.1975613 -1.9555779 -0.666154 0.36305127 2.2173958 0.6052263 -0.33933595 -2.2811577 -1.6995898 -1.5966756 0.17976439 -1.8395861 -3.3976686 -2.581447 -0.8321562 -3.0482898 -1.105068 0.19175288 -4.2819953 -3.3083673 -0.46848094 1.15022 1.2289181 