0.09227478 0.043579333 0.08824516 0.085334636 0.006142266 0.049828313 0.021616139 0.061135195 0.04827202 0.066386364 -0.090483725 0.07425531 -0.0731087 0.07916158 0.017420374 -0.06942454 0.057905443 -0.07104231 -0.03903506 0.0197637 -0.038017884 0.029476874 -0.0072427318 0.07613868 -0.07901723 0.07626591 -0.08278419 0.059746884 0.0759578 0.01995454 0.051323257 0.10447564 -0.009692885 -0.097508214 -0.047479667 0.0008499101 -0.06316337 0.005237147 -0.04870147 -0.054351054 -0.02573707 -0.02026198 0.080395125 0.047566287 0.056518175 0.007650934 0.08655115 -0.014546245 -0.09731797 -0.0039984956 -0.0050847456 0.04390452 -0.04235162 -0.095668405 0.022622712 0.027142353 0.072754614 -0.05564752 -0.06673523 0.07576833 0.039715357 -0.08452861 -0.026882626 -0.049788255 -0.010430604 -0.039163545 -0.061524436 0.07130324 -0.0037558079 0.01888173 0.044032253 -0.01254794 0.09413638 0.08524237 -0.053991243 0.1062488 0.026894905 -0.01157257 -0.027531482 -0.049073227 0.017039947 -0.08286314 0.047632612 0.032522358 -0.019674659 -0.08986316 0.049835466 -0.06463214 -0.038958177 0.025582679 -0.05289369 -0.056833494 -0.03931187 0.04620991 0.08275121 -0.085275844 -0.064900145 0.10786312 -0.0046349615 -0.034531213 -0.007598363 -0.0059074983 -0.0029033422 -0.020466574 0.10755358 -0.058013946 -0.0037722737 0.08427309 0.09863005 0.08791802 -0.07272364 0.005883731 0.013491772 0.09684075 0.027890988 -0.036038518 -0.0013398752 0.0028843507 -0.026191317 0.074624695 0.05109618 -0.0018494129 0.042722605 -0.06482914 -0.032570384 -0.0069667473 -0.028675437 0.10574115 
0.04995305 0.033281796 0.07956987 0.089499764 0.09407406 0.015793622 0.046952195 -0.04310265 -0.014504306 0.030713521 0.015262619 0.05658365 -0.067078546 0.067095436 0.0724751 0.025861524 -0.03721665 0.07179909 0.05954025 -0.0056288317 -0.042524718 -0.06899935 -0.021066777 0.06737644 0.06427493 -0.044100344 -0.051883195 -0.07518126 0.058859907 0.023195036 0.0343026 -0.0922699 -0.05463124 -0.022122517 0.025850601 0.10208773 0.007510975 -0.03954155 0.062337182 -0.06504272 -0.08187729 0.014739975 0.04367157 -0.06142236 -0.06973216 -0.078404516 -0.019713864 0.04982049 0.041084982 -0.014463969 -0.048089135 -0.012143172 -0.013676487 0.0374782 0.08332082 -0.082450345 -0.08552447 -0.080154344 0.025423639 0.09833562 0.003255181 -0.031773873 -0.08342759 0.041235976 -0.0022088066 0.08699962 0.041420944 -0.03720449 0.073895045 0.055419795 -0.08744088 0.08242064 0.058264844 -0.021087915 -0.0986842 0.04618215 -0.04028546 -0.07167031 -0.048120726 -0.007076077 -0.006232366 0.10048733 -0.024995558 0.0021651164 0.0179495 -0.06292592 -0.006340146 0.043701194 0.043418743 0.080879115 0.012395278 0.0009563714 -0.079923354 -0.05918462 0.058366098 0.10756148 -0.037542418 -0.050951753 -0.078440204 0.010587886 0.103370525 0.10742041 0.07960824 -0.012849681 -0.07719691 -0.05137859 0.06287178 -0.019495904 0.09274537 0.057792597 -0.023629047 0.024806835 -0.022408977 -0.0703415 0.10207436 -0.07403307 -0.050263 0.04847019 -0.0039413795 -0.08332506 -0.0014605373 -0.022998206 -0.0009874776 0.03137333 0.087235846 0.05476845 0.09771722 0.05155637 
0.07645362 -0.10563211 0.042601533 -0.103214346 0.012561776 0.03620533 -0.10310512 0.048777096 0.01397384 -0.026308984 -0.057592217 -0.07626655 0.0325555 0.056164928 0.07204286 -0.051149737 0.107758634 0.10490725 -0.059030507 0.063843586 0.0042224675 -0.08931749 0.0039120615 0.08901905 0.046578147 0.102180175 -0.004150979 0.0006136969 -0.025187328 -0.06768123 0.00791347 0.04782591 -0.038116887 0.07517729 0.040442787 -0.03967142 0.022627093 0.09081083 -0.045284748 -0.09276854 -0.07153334 0.030652292 0.055895425 0.09819812 0.025279902 -0.038975775 0.10386229 -0.10018498 -0.02552171 -0.07987493 -0.090880856 0.10150314 -0.06828894 0.010064855 0.012317568 0.08963511 -0.07737768 0.024879344 0.029280074 -0.07329406 0.065664284 0.02555526 -0.10076249 -0.010267176 0.046590008 -0.10247232 0.076914035 -0.00015158206 -0.09343889 0.09926798 -0.05009619 0.0071140975 -0.031522848 -0.027270257 -0.10641305 -0.046106316 0.07913766 -0.04018774 0.04661832 -0.017524667 0.07203794 -0.087555915 -0.09587062 -0.07159762 -0.031065919 0.01786331 -0.06850417 0.013583109 -0.10454333 -0.0631246 0.09476883 0.07114702 0.09391642 0.090591945 -0.06570847 0.052083842 0.08924807 -0.046463545 0.05057434 -0.06390101 -0.07730678 0.09874082 -0.10667789 0.004843943 0.028271832 -0.06730583 0.07008707 -0.025577284 0.077688195 0.06177438 0.063735925 0.09261263 0.10083499 -0.1052764 0.025531955 -0.07846795 0.077721365 0.10642146 0.10690168 -0.019450143 0.020239793 -0.016153097 0.03808341 0.10818898 -0.024029821 0.03320556 0.07812112 -0.06486332 
0.031434424 -0.102803096 0.07098935 0.06561995 -0.03198939 0.025974356 -0.03420733 -0.021015234 0.05453115 -0.10203575 0.06838312 0.023884483 0.063329555 0.07021082 0.0020527393 0.0814575 0.016014092 -0.00074641407 0.035989143 -0.051712643 -0.047911618 -0.027234614 0.061635055 0.074681275 0.012248963 -0.10009178 -0.10341679 -0.032047562 0.028493397 0.034273066 -0.017279297 0.07163272 -0.08537343 0.0012191385 0.06617067 -0.053534284 0.005509101 0.07856507 -0.023458056 -0.05044653 -0.05239128 -0.09728362 -0.06383563 -0.10216093 -0.041130155 0.007270865 -0.043671258 -0.035668798 0.05127915 0.06023241 -0.08190759 0.008684248 -0.0018790886 0.048024558 -0.08466485 -0.0784711 -0.0407004 0.04246094 -0.07654552 -0.106113635 0.026350178 -0.10470684 0.09074598 -0.0763711 0.011715144 0.00417351 -0.011207752 -0.018088765 -0.0719298 0.013408303 0.0075718835 0.096028216 0.0070498586 -0.028532892 0.06683328 -0.060556732 -0.015235104 -0.07316561 0.027746372 0.085331984 0.028641142 0.04957994 -0.060437877 0.035335936 0.07615196 -0.05588244 0.011917256 -0.020555384 0.03902299 0.0024125203 0.0941096 0.046603538 -0.0660345 -0.08263292 0.027863525 -0.102771066 -0.060927458 -0.040719397 0.059948035 0.032965936 0.0011978224 -0.06234696 0.06509062 -0.0011249632 -0.045627937 0.060019247 0.07082682 -0.081952065 0.08946616 -0.08867896 -0.0029845685 -0.08792721 -0.028994031 0.014310323 0.0759343 0.037880547 0.0065821633 -0.04769652 -0.00078920275 0.098821126 -0.10698316 0.017765112 -0.0797855 0.020674415 0.004290864 -0.055087194 0.0836506 -0.052403487 
-0.07126432 -0.06735502 -0.096800745 0.031210966 -0.035579473 -0.08546126 -0.013117768 -0.06839667 0.078515954 0.08666732 -0.06726737 -0.072349586 0.09819416 -0.09472612 0.10707546 0.06420357 -0.028762184 -0.006229788 0.054535843 0.014488824 0.019648872 0.07161438 0.041786186 -0.04781607 -0.026604116 0.00676433 0.059608124 0.095781185 -0.051407754 -0.08055799 0.035848506 0.05541379 0.05538989 0.027245276 -0.061758786 -0.037260346 0.039581455 -0.011306345 -0.07684685 0.00887008 0.06386892 -0.09512178 0.000525482 0.05288791 0.08186447 -0.04393989 0.0058774054 0.053348847 -0.053456984 0.1050609 0.10776537 0.023589171 -0.010457419 -0.069245294 -0.10778065 0.07667463 -0.010749683 -0.07332343 -0.08629212 0.047146447 -0.004840791 0.0067704692 -0.076332465 -0.06332646 -0.06951451 0.0042010993 0.089590065 -0.04091289 -0.09058934 0.103056036 -0.020343743 0.03571319 0.077778585 0.10051934 -0.06650935 -0.010980271 -0.0231812 -0.029227398 -0.038487047 -0.0584986 -0.04714732 -0.10737449 -0.030556202 -0.047603272 0.0027775243 0.104787596 0.08564585 -0.039883032 0.00018492341 -0.07665878 -0.074205816 -0.07955146 -0.009667747 0.00739488 0.081069045 0.08375842 -0.040272266 -0.062185366 -0.07156123 0.08937525 0.047218584 -0.017081104 -0.0816185 0.049254723 -0.010527179 0.055601545 0.025892265 0.010977276 0.08652892 -0.034535192 0.091255404 -0.097376816 -0.035849363 -0.018479317 -0.012097642 -0.014785737 0.04217247 0.081298225 0.09985071 0.047704853 -0.029251456 0.078646444 0.021575816 -0.0884267 -0.008573398 -0.0755295 0.0017241538 0.04929284 
-0.016214497 0.010774337 0.103343494 0.057214476 -0.03172788 -0.05158548 0.053309657 -0.039488897 0.06467981 -0.079857334 -0.07509206 0.009102181 0.10580299 0.007382542 -0.06951115 -0.04574441 0.07771798 -0.075170495 -0.093637295 -0.10767442 0.0438335 -0.050593566 0.06949987 -0.035461776 -0.068016134 0.04263518 0.094182216 -0.08271262 0.036438726 -0.028651848 -0.0732794 0.06997692 -0.070170484 0.07283638 0.0035271868 0.059079207 -0.082536235 0.0145064 0.072956316 0.060404815 -0.059130676 0.06725512 -0.049686465 -0.06276053 -0.031601958 0.034359403 0.035966612 -0.06487772 -0.09320034 -0.0072219074 0.09061048 -0.0019716695 -0.04354766 -0.061408576 0.0967012 0.06472879 -0.05127889 0.019239716 0.05582223 -0.016182005 0.05285325 -0.060146462 -0.035771236 -0.0022872165 0.07030132 -0.1055258 -0.09135844 -0.10129881 0.09659944 -0.024555042 -0.04010079 -0.06908834 -0.06417913 -0.10000813 -0.047372144 -0.0412457 0.056210972 -0.062313665 -0.06983073 0.014832579 -0.08374345 0.10346774 0.096911855 -0.0336731 -0.03885243 0.006307885 0.05468648 -0.10183862 -0.039591365 0.081755005 0.043692447 0.051357843 -0.080445714 -0.071601756 -0.10147669 0.015929587 -0.09326827 -0.06133778 -0.08764478 0.10487973 0.055873044 0.062471755 -0.031873472 -0.025875226 -0.07144658 -0.07774799 0.09675037 -0.0014686957 -0.09235726 0.086622976 0.06411474 -0.10755745 0.028839715 -0.027381316 -0.07551606 -0.0772015 -0.08270575 -0.09426798 0.012244314 -0.056912806 -0.04892387 0.022887789 0.10006637 0.10579016 -0.07212995 -0.086687624 -0.091801666 0.10148681 
0.081437446 0.0063613877 0.080657534 -0.08518525 0.049636416 0.027820982 0.081987806 0.055550598 -0.08330227 -0.07524323 0.03426718 -0.018417113 0.0836774 0.10696616 -0.05356252 0.07410204 0.10155379 -0.03270013 -0.013929889 0.073222704 0.072913446 -0.021760717 -0.044387735 0.016045652 0.07579059 0.078893654 -0.059218325 0.008226104 -0.06162997 0.017302684 0.06185312 -0.03909135 -0.034462586 -0.04229094 0.029492669 -0.014334708 -0.00010726601 -0.014050603 0.06789034 -2.0571053e-05 -0.025714226 0.051692776 0.07918871 0.087808825 0.093712844 0.08331499 0.010967106 0.075165726 0.029745556 -0.055526316 -0.025335006 -0.10432609 0.006382987 -0.093804255 -0.009400003 0.06317971 -0.03377463 -0.046277665 0.009763658 -0.0367281 -0.06462078 0.038234524 -0.0071309283 0.005868502 0.02921421 0.10735483 0.048780285 -0.04182004 0.032651015 -0.090683594 0.104983546 0.012461863 0.076971956 -0.06944655 0.024548955 0.06521616 -0.056724474 -0.010118432 -0.018786348 0.1000048 0.028120197 -0.058212448 0.03127957 0.06495967 0.07144564 -0.0923201 0.048207752 0.05464066 -0.0805816 -0.07613288 -0.005227186 -0.07570584 0.012869112 -0.039961755 -0.008276254 0.0027528778 -0.00022792071 -0.07341743 -0.07051058 -0.022290304 0.046645068 -0.035550565 0.031821437 -0.088044 0.007453032 0.10457554 0.08050036 0.043949224 0.042218156 -0.10324243 0.06171409 0.10130999 0.08481752 0.05268114 0.015986755 0.046660624 -0.045533627 -0.053270277 -0.09341876 -0.02868896 -0.03377863 0.043674 0.039531328 0.08531693 0.07899279 0.07902474 0.023558013 -0.051215086 
0.0017344803 0.10371304 -0.074892886 0.10704655 -0.09416337 -0.06424187 0.096163966 0.018353365 -0.03875967 -0.06888501 -0.023081236 0.1028591 -0.055588365 -0.023314789 -0.008386046 -0.055339277 -0.06154658 -0.022784993 -0.07983173 0.05048261 0.0069107935 -0.084977254 0.1064064 -0.05743491 0.09710079 0.0842847 0.075209655 0.09879992 -0.052456606 -0.0010980964 0.008221559 0.003989227 -0.031929456 -0.07290003 0.09748695 0.08129854 -0.010515854 0.10355728 0.048804633 0.055993028 0.10633377 0.037253685 -0.02919808 -0.003627278 -0.005343847 0.09485661 -0.09429572 -0.0071184337 0.04024703 -0.040976174 0.09553432 0.017468713 -0.08556628 -0.051768523 0.024262793 0.021574818 -0.10509842 0.06109137 0.08981673 -0.012402065 -0.023617223 -0.026480772 -0.07876177 0.078277715 0.011874363 0.10176093 0.1057139 0.0951437 0.08847239 -0.020711072 -0.082674034 0.009073511 -0.021422558 -0.10236586 -0.076770045 0.088772036 -0.06238944 -0.06446417 0.08277444 -0.09180151 0.0728303 0.06823342 0.024466641 -0.102905996 0.07964822 0.07210607 0.09211602 0.049018122 0.0029928014 -0.050408177 0.033862688 0.032397814 0.038692363 -0.07932803 -0.027760461 0.10227325 -0.094073474 -0.06543846 -0.107239865 0.007582538 0.06354306 0.07101294 -0.0013215542 -0.038716935 -0.07458072 0.053473763 0.094388254 -0.039912403 -0.051422544 0.08812099 -0.08268898 -0.024382792 0.09070382 -0.102453224 0.075716905 0.08645744 0.05500775 -0.06626736 0.0021539107 0.03291037 0.09635074 -0.004521504 -0.091505006 -0.06204455 -0.08823514 0.01591266 0.10641991 -0.0040720254 
0.47239074 -0.1207322 0.09953296 1.059474 -0.3781949 -0.1856015 -0.66594416 -0.22575173 -0.06542764 0.15983146 0.31505722 0.17035215 -0.15740325 -0.0107743945 0.16301976 -0.3838776 0.19707528 0.24020292 -0.5002598 1.2075053 0.34212354 0.3790043 -0.25098118 2.40885 -0.24647401 -0.505164 -0.39473 0.2600101 -0.2898719 0.49952826 0.6112301 -0.22316267 -0.16120878 0.30205163 0.37330896 -0.5326538 0.7511843 0.74347496 0.6680399 0.024340048 -0.4973037 0.355531 0.5683658 0.42944044 1.0438209 0.25569832 -0.43488035 0.7853987 0.13314053 -0.4346828 -0.16769975 -0.3454506 -0.18822703 0.37625134 -0.05115464 0.15317307 -0.0055266237 -0.18712011 0.34360585 0.15457474 0.5939252 0.041499197 0.2103858 0.4570697 -0.4627469 -0.6883412 0.4389087 -0.37112036 0.27559412 -0.19858937 -0.22561507 0.37816703 0.2215857 0.1794189 0.3569232 -0.3555579 0.31011814 1.2247812 0.24957652 -0.2083332 -0.24323885 -0.38473997 -0.106479116 -0.11270527 0.8099701 -0.20461136 -0.5360804 -0.5156922 -0.016419353 0.23583068 0.2039756 -0.25418344 0.106036335 -0.076617524 0.062547736 0.10138753 -0.038675413 -0.049530134 1.0683583 -0.13282886 0.30459467 0.029621465 0.44034788 0.5899225 0.32147917 0.1720767 1.3487511 0.20837359 0.46340674 0.25053102 -0.35412666 -0.33201358 -0.565416 -0.30657837 0.95367455 -0.27729553 0.39684775 0.19106135 1.5061796 0.098138735 -0.07643725 -0.2569478 -0.43109503 0.30900314 0.22610705 -0.24030682 -0.08810974 -0.2185402 
0.55055714 -0.2508929 0.04079019 1.8959349 -0.21708435 0.35459706 0.122640364 -0.18463428 -0.18534553 -0.18462005 -0.48447606 1.0840709 0.1436005 0.104392916 0.4068228 -0.10875359 0.58270305 0.43383428 0.00428248 -0.06917559 0.80039173 0.32890385 -0.34565675 1.5803322 -0.038269732 -0.22592728 -0.101511605 0.44975978 -0.051029947 0.24986699 1.6110241 0.36975458 -0.44682497 -0.07129235 0.5569282 -0.81245416 -0.5569959 -0.4543211 0.59993833 0.60648996 -0.15888126 0.62732345 -0.18402013 0.60487616 0.043186586 -0.13134651 0.1408165 -0.673166 0.044657886 0.17581183 0.27009863 -0.1632675 -0.3733034 0.20137417 0.4446096 -0.70224816 0.96949214 0.47799528 0.25376326 -0.054509234 1.1671226 -0.22428735 -0.40471712 -0.51166505 -0.49307543 0.2972047 -0.25728083 -0.4577858 -0.1639317 1.4147894 0.15689637 -0.707089 -0.509639 0.24018739 0.9255495 -0.54177016 -0.32788244 1.4136553 0.404787 -0.07055062 0.2802533 0.7416661 0.858179 0.26933166 0.17188509 -0.37939417 -0.1803643 0.23007868 -0.01024792 0.7239365 0.4247975 -0.15469928 0.295613 -0.5931809 -0.5284226 1.0216479 -0.5679759 0.018752571 -0.15888359 -0.41363752 -0.14682375 -0.25953966 0.06402171 -0.08074389 0.0026237743 0.92132604 0.9035201 0.56167 0.3898354 -0.008551356 0.20359424 0.14470273 -0.560986 0.20964533 -0.25155404 -0.22926305 -0.4294672 0.79003745 0.1935756 -0.1464224 1.543408 -0.33889547 -0.18158892 1.3362352 -0.7938642 -0.14311527 -0.105502784 -0.022770759 
0.50236285 1.1950612 -0.038958114 -0.17579834 -0.26992148 0.28068498 0.6272476 0.051610522 -0.17832565 -0.03402268 0.673607 0.15246686 -0.5475006 -0.52887964 0.41812217 -0.3160175 0.53568196 0.05020803 0.010007181 1.0488677 -0.70239574 -0.18526213 0.11775504 1.0970968 -0.19751003 -0.03834216 -0.0716785 0.10405476 0.037549574 2.033992 -0.40987274 0.36177382 -0.4429266 0.6873654 -0.07051577 2.100537 0.7312181 0.09709206 -0.26416337 0.054089073 -0.15465096 0.20641634 0.3334704 0.2109422 -0.9246609 -0.16664024 0.45302424 -0.43692157 0.0900444 0.10242578 0.89101005 -0.60547346 -0.13376741 -0.023037927 0.4925341 0.35166267 1.7650286 -0.73886997 0.46576107 0.04755587 0.6591834 -0.37076443 -0.32315773 0.22658715 -0.57021433 0.47430074 -0.06361339 0.20609052 2.5650964 0.08904858 0.18006392 -0.26878893 1.2703859 0.363911 0.021964123 -0.89567995 -0.08534982 1.1715738 -0.32942337 0.11592076 0.08360749 -0.1115993 -0.07602404 0.2955853 0.6156543 -0.26471448 0.040518265 -0.27850828 0.43121895 -0.24652421 -0.5491141 -0.16456823 0.21860838 -0.029597731 -0.24778305 -0.29350293 0.14059749 0.3206045 0.32475686 0.2042318 -0.40315366 -0.13205005 -0.413714 0.10573667 0.004683307 0.16243224 0.03006234 0.29410923 0.11715936 -0.09521512 -0.1622582 0.16735315 0.6736548 0.44016033 0.054699194 -0.119575985 0.35971758 0.7569447 0.8798001 -0.14760019 1.7540805 0.21317312 -0.11956416 0.0018430082 1.1408657 -0.39678794 0.18147239 -0.24498697 
1.0428778 -0.49637288 0.17998348 0.22829753 -0.2414466 -0.40330076 -1.2193141 -0.18457368 -0.295096 0.14608267 0.42048442 0.7152988 1.2097167 0.46858203 -1.3569402 0.5053544 0.8823548 0.7229197 -0.1289079 1.3162289 -0.5565652 0.791552 0.5225354 0.7460623 0.36080632 0.25269204 -0.14112137 0.014023092 0.047872964 -0.16825661 3.006831 0.9402043 -0.16984813 0.63712907 0.43546477 -0.26359287 0.623577 0.51412344 -0.020973118 -0.30217505 -0.34472775 -0.52772725 0.06244924 0.12817332 1.2818599 -0.3200515 0.09342168 -0.55159336 -0.9697149 -0.106750056 -0.2427084 0.089319974 -0.097135425 -0.15563114 -0.08120468 0.1917358 0.8041015 -0.19287324 -0.23245978 -0.25822473 0.18790689 -0.17059438 -0.6362385 -0.42100936 -0.112063594 -0.46479556 0.16605024 -0.72974813 0.3472238 1.1184254 -0.21500312 0.40566593 -0.599311 0.47497776 0.47767267 0.62600994 0.110498026 -0.07043813 0.36155018 0.09439235 -0.340228 0.83596617 0.6623726 -0.11160295 -0.10345902 -0.47862417 0.91051215 -0.07924418 -0.15351078 -0.021447884 0.36575213 0.0041246996 0.8456137 -0.7426664 0.07707454 0.07265208 0.414227 -0.31662825 0.39254978 -0.15034084 -0.1106427 0.1544888 0.040999196 0.10663489 -0.1227186 0.20084536 0.50042844 -0.12303201 -0.23389785 -0.04809265 -0.12608704 -0.3889163 0.3460269 0.106006816 0.75151783 2.7180717 0.48575392 0.61660093 -0.5933347 -0.101820365 -0.03209504 -0.1944907 -0.7172944 0.021867167 -0.08514472 0.5625331 -0.4592201 -0.24025339 
-0.33183363 2.0717714 0.033811882 0.07263203 -0.34494847 0.06792714 2.1690564 0.15535004 -0.22451544 -0.5760147 0.13862817 0.37023896 -0.6862412 0.39427727 0.1597952 0.04272435 0.13613905 -0.5845833 0.57287264 -0.33975732 0.08508011 -0.12792602 0.23548637 0.99241877 0.42735645 0.09575512 0.6694963 -0.061862875 0.054197032 1.4719983 0.25236365 -0.15605357 0.24742775 0.62782437 0.44570234 -0.23238777 -0.33506784 -0.06401917 -0.07300901 -0.2918891 0.4040529 0.25197887 -0.12279543 -0.44653237 -0.48575392 0.08531152 0.27625442 -0.99819374 -0.07560931 0.21998537 0.4164464 0.075285114 0.19738641 -0.43414018 0.2764743 0.31020674 -0.37901208 -0.12738648 -0.18412052 0.20900945 -0.64419234 -0.44040808 0.712784 -0.2287815 -0.3936349 2.1580734 -0.23042504 0.10297007 -0.17544521 -1.3309726 0.026004285 -0.15465686 0.120886765 0.15046759 2.193041 0.8736541 -0.4745167 0.091158584 0.08041237 -0.093187414 0.3805792 0.49239436 0.025856819 -0.45374903 1.8101015 0.3399992 -0.05052865 0.3044205 -0.3433921 -0.1877695 -0.4700639 -0.091647714 0.29738328 0.15952188 0.4279265 0.37467912 0.17226763 0.109348446 0.11391044 -0.23915783 -0.08576143 -0.23918463 -0.08469996 0.15368895 -0.45006713 0.13762604 0.52980393 0.0461496 0.32303503 -0.22156239 -0.51333827 0.23282692 1.2597551 0.03789624 0.25889423 -0.6841069 -0.09718957 0.064916365 -0.5864396 -0.4586431 -1.2146643 -0.5147959 -0.071585625 -0.8660864 0.45359576 -0.77307785 -0.055631775 -0.24449645 
0.048048593 -0.38561752 1.4530466 1.0241789 1.8955172 -0.11479575 0.10912471 -0.2121864 -0.1463029 -0.067469135 0.48583987 0.26107493 0.6527987 0.6387457 0.031923722 -0.4557465 0.39820835 0.58245265 0.2491894 0.15343362 1.4252353 0.22905709 -0.104361154 -0.1895633 0.34347907 -0.35184568 -0.0083869975 -0.21810018 -0.4993552 0.4764745 -0.061018202 -0.9338906 0.12605292 1.2078061 0.056150086 -0.2271896 0.16167249 -0.32020107 0.138307 0.19145302 -0.16062304 -0.30323634 0.33758122 -0.14473283 0.1617149 -0.22303371 -0.54151434 -0.22703815 0.56572706 0.055992045 0.6204273 -0.2005681 -0.072979055 0.6117102 -0.33464122 -0.25828326 1.9781916 -0.23746412 -0.0724253 0.015568351 0.08808919 -0.4501842 0.85791993 -0.31409138 -0.8555194 0.56156695 -0.53624487 0.2936521 1.6545265 1.3670032 -0.06688611 0.079786405 0.47509152 0.3678953 -0.42085886 0.1828432 0.45177978 0.65753615 -0.3259976 -0.3762885 0.10111309 -0.460405 0.6304081 -0.28986743 1.2793542 -0.109747656 -0.5881478 0.2565378 0.056939647 0.3538153 0.045200504 -1.0214927 0.8532713 1.2012608 0.0940687 0.2978452 -0.18298042 0.1159829 0.0004712231 -0.031892 -0.5184912 0.16517192 0.17943203 0.016588898 -0.37858108 -0.05326724 -0.7904567 -0.40544653 -0.099898465 -0.6532708 -0.38390356 -0.3839615 -0.4407206 0.44565955 0.98158216 0.05912536 -0.11115307 0.18022403 0.1045079 -0.35402265 1.7275933 -0.045915894 0.036613043 0.12376608 0.4455671 -0.11695362 -0.0002275228 -0.2453294 
0.038946744 2.3007581 0.41248763 1.1501149 -1.0187061 -0.46708447 1.1261222 -0.6198886 -0.3421701 -0.007288647 0.60348004 -0.34299976 -0.022936538 0.2725643 0.29077563 0.023613144 -0.44443163 0.23220345 0.15515928 1.040477 0.6761444 -0.2919643 0.19407572 0.014436894 0.17571813 -0.11378962 -0.57619756 0.536815 -0.53618044 0.023612805 0.20890516 0.53935444 -0.11262513 1.3040669 0.45638976 -0.25289378 0.9854954 0.29684073 0.61608404 0.00797104 0.28507137 0.7662897 -0.08476077 1.0317292 -0.23385105 -0.21488234 0.08055118 -0.36875072 0.36547083 0.076119594 0.13579157 -0.04150934 0.32396168 -0.4712585 0.9642949 0.7743213 1.9302528 0.52023923 -0.41528898 0.3024898 1.2318325 -0.13114545 0.9559237 -0.14941889 -1.0849406 3.148401 -0.19958985 0.32456407 0.46680138 -1.4910237 -0.6297867 -0.9558437 -0.51041144 -0.25936908 1.4979398 1.4256251 0.16854791 0.5531839 0.55828637 -0.14750478 -0.23570743 0.49312094 0.12420079 -0.0367545 0.28121993 0.100616656 0.29733068 1.0382504 -0.121061705 0.41678584 -0.028010514 -0.33977267 1.0501543 0.2550268 -0.022169504 1.5220307 -0.0897764 0.24406298 0.9577688 -0.16601698 -0.5136564 0.19577055 0.21500525 0.031928424 -0.14854094 0.018361023 1.7551652 -0.26336363 0.11518497 -0.31828943 -0.27541515 -0.41444486 1.5596302 0.5422094 1.7579664 0.2526686 -0.31552574 -0.5099288 0.015252832 0.3873056 -0.5933278 -0.02455986 -0.13075112 -0.29736027 1.2166336 -0.21701184 0.11461291 -0.09733012 
0.24368733 -0.30105263 0.20462966 -0.32772356 0.76421463 -0.05785123 1.3495463 0.019866852 -0.0882996 0.017721055 0.6734151 -0.13518533 -0.004276329 -0.27537954 0.18750207 0.16278648 1.2740854 -0.15337135 -0.4434473 0.29858077 2.3704495 -0.11937252 0.19930197 0.46570444 0.32094872 0.32980788 -0.037982 -0.60654575 -0.11755997 0.50167483 0.15666004 -0.55209595 -0.50134695 0.38258243 -0.074432164 -0.05886032 -0.13775335 0.2605082 0.43760312 0.103350095 1.6174992 -0.80116963 -0.05612569 -0.5952465 0.7632423 -0.3239575 0.26691836 -0.050707016 0.14660311 -0.41783294 0.24721476 0.3433325 0.066741 -0.069789834 -0.20234744 -0.29198608 0.52177274 -0.626045 -0.20349972 -0.021659767 0.7745419 -0.30973923 -0.27307224 -0.17458056 -0.57799536 0.6591896 0.058881007 -0.1903845 0.47921425 0.56675154 -0.0037662645 -0.0013746191 0.4649055 0.039287634 -0.73974437 1.2094275 0.23025389 0.87739134 1.0397731 0.17685468 0.087735906 -0.49212742 0.99039817 -0.34671068 0.14706348 0.16363356 0.4311534 -0.4893301 -0.642104 -0.093751945 0.16751237 -0.2590717 0.11055881 0.9738656 -0.035469197 0.44583112 0.14043264 0.036085304 -0.058411457 -0.097102284 -0.060726 -0.09907591 -0.2052937 0.32497287 -0.08717222 -0.154329 -0.27611467 -0.2637625 -0.76647127 -0.043133263 0.07956826 0.40382242 0.14606187 -0.026509121 3.628573 1.241711 0.7049026 0.53490186 -0.30481446 0.026971702 0.07098526 0.21486299 0.1732359 0.36211482 0.66763896 -0.19954394 -0.5940516 -0.23304068 
-0.20815937 -0.114909574 -0.42829347 -0.9619185 0.996635 -0.6525706 0.048358772 -0.4209497 -0.034054678 -0.32474372 0.03994935 0.9422266 1.1988068 0.4374885 0.55898565 0.09323281 0.88838595 -0.028057972 -0.041077644 -0.5947309 0.34055194 0.8881643 -0.024247605 0.65994984 -0.30393356 0.1932048 0.6574076 -0.08868196 -0.29356846 -0.036868792 -0.4803227 1.0712576 -0.060646247 -0.25821933 -0.4805519 0.6451497 0.41233832 0.53431535 1.2083794 0.14201622 0.045716576 0.26233426 0.72651917 0.6470367 0.89006466 -0.499641 -0.14894237 0.595695 0.43453896 -0.19668286 0.63766056 -0.15411066 -0.38668945 0.097546466 -0.5225284 -0.15391956 0.1435483 -0.033074852 -0.22049278 -0.24143851 0.28204972 -0.49549866 2.459749 -0.7993408 -0.44619203 0.39557365 0.036602348 -0.22927202 0.14215378 -0.05313754 -0.34225664 0.5470902 0.34284195 0.51135695 -0.22622523 0.5042306 -0.13450038 -0.86865443 -0.011296747 0.1014274 -0.031113738 -0.3692897 -0.26167887 -0.53986794 0.22550097 -1.3319585 -0.12479508 0.123484224 -0.4483171 0.24742097 0.009187044 -0.15973955 0.44628713 -0.43242496 -0.054835636 0.14066654 -0.8085741 0.22334841 1.1770928 -0.161217 -0.36727434 -0.054467663 -0.36983874 0.26726526 0.4037093 0.2156099 -0.17980504 0.32065022 -0.7690605 0.118975006 0.067207836 -0.16210252 0.15481973 -0.880489 0.50429255 -0.41813505 0.39297378 0.42070153 -0.796062 -0.052709617 -0.71189404 -0.10734212 0.067439064 0.4281376 0.0632004 0.13801618 0.14447989 0.03962372 
0.5064671 -0.46968618 0.22647315 -0.92424375 0.22495914 -0.067545205 -1.2945833 -0.4252073 -0.024018494 -0.030127848 0.37681675 0.049967896 0.57797533 -0.58416665 -0.16142705 0.032923643 0.08000007 -0.49189126 -0.38933098 0.8853316 -0.1386961 0.46915495 0.0074590486 -0.68183255 0.13137607 -0.122857496 0.17081156 -0.2531312 -0.14513175 -0.2430536 1.4067988 0.5868709 0.35982484 0.82480943 -0.6352889 -0.20102845 0.32393903 -0.38964048 0.37436557 -0.41374236 -0.19561055 -0.05559255 -0.4129076 -1.182756 0.51280206 -0.066074036 -0.27908322 0.43583265 0.26409593 0.7241991 1.0197076 -0.2421855 0.14212547 -0.57224077 -0.20128381 -0.49714318 -1.2371911 -0.5558206 0.13920537 -0.28734934 0.859882 -0.6793323 0.07257829 0.17898932 -0.97888017 0.96490425 0.56808394 -0.7597075 -1.0915849 0.30954248 -0.19162047 0.025134604 1.6576467 0.5754725 0.711819 0.17458017 0.7616751 -1.052363 -0.49985495 0.016794581 -0.4256225 -0.14638819 0.4221501 0.049716942 -0.5737027 -0.1814997 -0.12861826 0.20488301 -0.38351735 -0.114916034 -0.31918898 -0.506243 0.23233677 -1.0674533 -0.13854164 -0.7006054 -0.17883533 -0.71280825 0.8658358 -0.016811324 -0.7019728 -0.12981696 -0.07498895 0.5245142 0.2515551 0.5871942 1.2947761 -0.018618034 -0.9855264 0.29940617 0.053311132 0.054980274 -0.4754936 0.1021893 0.62622917 0.67557585 0.1996261 0.306268 0.5830521 0.032864645 -0.3194896 -0.030227564 0.3713396 -0.5695836 0.95329016 0.11651225 -0.18474945 -0.006383604 
-0.6068139 -0.76740533 -0.34927806 1.5790863 0.42410547 -0.37859663 -0.16120395 -0.50264686 -0.13219611 -0.02497239 0.12893891 -0.43360573 -0.024290679 -0.0691556 -0.15721174 -0.1329298 0.33798382 0.018670447 -0.36406252 -0.32552192 0.08361115 1.3582954 0.18230553 1.8674414 -0.19958773 -0.059694387 0.30427808 0.16688715 0.5970525 1.0671891 0.22143456 0.5510738 -0.41694456 0.43167275 -0.08000647 0.7606157 0.052060712 0.42329368 0.21458775 -0.036826473 -0.08829834 0.11077486 0.88659686 -0.30143237 -0.022818036 -0.08637654 -0.90304554 0.42239574 0.27803582 -0.21302712 0.8490898 -0.35752663 -0.12062001 -0.848017 -0.40606117 -0.018675096 0.10283498 0.31049415 -0.22155821 0.059384234 0.8161035 -0.53245187 1.140345 -1.29235 -0.13180913 -0.5631749 -0.3337923 -0.0075905654 0.9572953 0.1899714 -0.105853796 0.5876831 0.41755164 0.7180719 0.74134797 0.9226515 -0.4478517 -0.22370766 -0.35263494 0.52009267 0.014462116 0.41586867 -0.2848386 -0.20940094 0.21637587 -0.430123 0.15996282 0.5946939 0.37414005 0.34262776 -0.17464866 0.040884044 0.12132966 -0.8960866 -0.06502612 0.4195029 -0.18140873 -0.37620693 0.9666406 -0.62432265 -0.22002587 -0.20957991 -0.012167981 -0.40340814 -0.09707188 0.97431886 -0.8986277 -0.15638004 -0.06092782 0.19317807 0.22782551 -0.7856191 0.32683626 0.17551708 0.26735106 -0.6813539 0.80511534 -0.620895 0.25528517 -0.03022427 -0.086424775 0.09818117 0.17907135 0.2966356 -0.5627496 0.10099245 0.42588857 -0.10324501 
0.1917487 -0.90919274 0.62063664 0.111455336 -0.38161382 -0.4240585 0.67003506 -0.26122895 -0.061827064 -0.007886246 -0.5681554 0.10209642 -1.0956012 0.21296564 1.0146232 -0.006475686 -0.8571366 -0.71942997 0.32400712 0.54068285 -0.26387396 0.8059581 0.07434132 0.81425697 0.062503 0.6767591 -0.24744125 0.06865277 0.11049312 -0.087716654 -0.056467444 -0.04535985 -0.17398259 0.044902086 -1.2845441 -0.1635273 0.85807425 0.36897498 0.6585738 0.60807836 -0.56947017 -0.013204456 0.58865637 -0.35088256 -0.8004416 0.6527133 0.48227102 0.047602255 0.2912155 -0.10202129 0.84273756 -0.21735065 -0.032201096 0.26970547 0.16852495 -0.5801361 -0.16119938 -0.4161261 -0.12387256 0.124333866 -0.010044071 -0.7004405 -0.088161185 0.08714367 -0.68677235 -0.24054049 0.2612116 -0.04923827 -0.7900461 0.19489554 -0.3605434 -0.48879182 -0.19678587 0.101598285 -0.10411404 -1.3703519 0.18855399 1.5159779 0.050977178 0.31782097 -0.32057086 -0.91740435 0.30380172 -0.13505712 -0.3683777 0.62839 -0.50628173 -0.2739998 -0.12033642 -0.2505241 0.11338082 -0.9733121 -0.76949644 1.569023 -0.23998375 0.56703043 -0.3112977 0.025864514 1.0954214 -0.016637202 -0.10546952 -0.19852711 -0.16734011 -0.112186365 -0.28170174 0.3136684 -0.0687857 -0.16357306 -0.21491034 0.058675695 -0.22115791 -0.012679847 0.83231926 0.042389713 -0.24552631 0.54862416 0.26555306 -0.0139615955 0.61708564 -0.74138474 1.4628733 -0.48923573 0.8954079 -0.55572134 -0.21271603 0.13227172 -0.34571123 -0.1496688 
0.35236418 -0.20116192 1.632129 -0.01101438 0.58314955 -0.3846416 -1.2112528 -0.13262267 -0.2479705 -0.24175121 -0.823251 -0.5834649 0.854283 -0.1361159 -0.6130975 0.016538328 -1.2564312 0.332836 -0.6117226 -0.10125788 1.0381266 0.44032446 -0.13267449 0.54851913 -0.2776307 -0.36250448 -0.16634965 -0.17709704 0.32968715 0.3360829 -0.022323787 0.10856961 0.13482377 0.63881874 1.0234517 1.0517238 -0.7032214 -0.47257975 -0.036428586 -0.13206144 0.60136247 -0.36652726 1.5522939 0.3477896 -0.20946033 -0.045872718 -1.5632299 0.5494522 1.0960575 -0.110329285 1.3179744 0.049908902 -0.04910541 -0.12873504 -0.025862625 0.3453411 0.9071322 -0.25932097 0.29976094 -0.29245037 0.33525902 -0.48527637 0.60620266 -0.028744174 -0.41283727 -0.44182968 -0.3336773 -0.12241529 -0.62266386 0.35974893 -0.15832245 -0.7088944 -0.6653471 0.40441993 -0.41027272 0.060040087 0.69001347 -0.20215288 0.16048472 -0.17488706 -0.07584211 0.49647158 0.19679539 -0.5220014 0.3603179 0.3088387 0.35850865 0.43583786 0.3742103 -0.2956108 -0.19806018 -0.21541286 0.85336584 -0.026831016 0.043090224 0.77265215 -0.17348363 -0.06777983 -0.90013444 0.017147662 -0.3136469 0.031673007 -0.70924824 0.021544175 0.115365654 0.7066901 -0.047982156 0.3397405 0.9122615 -0.7094655 0.088367276 -0.21339636 0.33190107 -0.1344029 1.3945564 0.5433858 0.2163884 -0.14196497 0.55830187 -0.5949739 1.1465056 -0.17601979 -0.18687572 -0.624038 -0.027847929 0.45802334 0.026127307 0.056762595 
-0.059064582 0.76336664 1.030938 -0.81527615 -0.8546841 -0.21513328 -0.07221778 -0.44528946 -0.04064683 -0.0017712864 -0.56645817 0.34028083 -0.29755503 0.5219613 0.8568863 -0.14919671 -0.54331154 -0.41349146 -0.36198235 0.73316526 0.3164965 0.21422453 -0.64957863 0.47081408 0.41422063 -0.2527403 -0.15938798 0.47777903 0.3749897 0.36851218 -1.1763005 0.50570834 0.4315802 0.3409482 -0.5747715 0.23737003 -0.37157708 0.46165925 0.0024235342 0.66631854 -0.20205921 -0.12795317 2.5026999 0.40419874 0.25192046 0.43859273 0.6054414 -0.14676042 0.5798601 -0.4280268 -1.0481117 -0.47469822 0.25919554 0.11030194 0.021876603 1.104154 -0.3255488 -0.25736427 0.61030895 0.6484759 -0.12846918 -0.49727267 0.06980974 0.3341863 -0.47260702 0.50979346 -0.31112158 0.24480636 0.46656576 0.71131474 -0.6515085 0.77612597 0.9632027 0.1706524 0.6448811 0.9984364 -0.71689963 -0.6304924 0.66306144 -0.21154672 -0.14689584 -0.07488631 0.69112265 0.041689645 -0.30530155 0.8827467 -0.15194073 -0.28138632 0.38125157 0.45203376 0.03876393 0.3290428 0.28469303 -0.053234477 -0.26515606 1.3355837 0.3556084 -0.22617665 0.73921883 -0.2641784 0.07742749 0.416635 -0.15546528 0.13130909 -0.19251585 0.116427466 -0.49507296 -1.0967065 -1.0150582 0.046369303 -0.26027426 0.36336032 0.9317719 0.21237908 -0.86048806 0.7374031 -0.026342914 -0.8918018 0.8202093 0.048448123 0.55078095 0.02754781 -0.07980294 1.5446252 -0.24859911 -0.2498785 0.11037825 0.118778646 
-0.66950434 -0.9871639 -0.58336294 0.82914865 0.79037464 -0.526862 -0.10541253 -0.23082803 -0.78252864 -0.06450436 1.1129563 0.38485372 -0.48973718 0.16754712 1.232233 -0.34978923 -1.0494511 0.24379775 -0.12875499 -0.28920862 -0.18946467 -0.09436598 -0.04383286 0.16846424 0.48137483 -0.10436085 0.34828898 0.01372404 -0.028123554 0.0050015645 1.4991087 -0.546583 -0.026208494 0.25432894 0.67606765 1.493738 -0.3537923 -0.4784236 -0.69642055 0.33106604 -0.123558715 -0.15428387 0.3413829 -0.12999675 0.12859793 0.11311376 0.8877169 1.2930098 -0.059176125 0.0034838014 -0.32118747 -0.08567189 0.09879663 0.08567802 0.48165056 0.53736645 0.0960709 -0.12679821 0.47812355 0.03843334 1.1663978 -0.27402592 1.0995599 0.40575573 -0.84050083 0.55677724 0.035475615 0.5988825 0.11204688 -0.15127648 0.012972077 0.047367554 1.4265281 0.29477346 -0.83595395 0.27434933 0.56091505 0.3077461 -0.011375091 -0.17154029 0.177043 -0.8519673 0.30745852 0.659774 -0.80698144 -0.08460185 0.15665767 0.40862754 0.538964 -0.27551427 0.42917112 -1.0556769 0.650637 -0.06061715 -0.2674662 0.06867251 -0.39471212 0.36350492 0.35241887 -0.27845925 -0.5151527 -0.15412432 -0.12000085 -0.31103522 0.36522985 0.6061639 1.7964345 0.6681666 2.3220987 0.49910328 0.22600457 0.021109369 0.3303373 -0.49704936 0.012295563 -0.18811212 0.6190792 0.02899862 -0.3646073 -0.41356915 0.7352766 -0.41867745 0.067506 0.018801302 1.7322999 -0.683375 0.27631712 0.049098678 
0.18855374 0.6055561 -0.20944294 -0.15646033 -1.4170789 0.017061658 -0.53648823 -0.21379125 0.16124704 0.22325176 -0.2777855 0.07881131 0.47283727 -0.057939798 -0.71567476 -0.22930694 -0.3400943 -0.17382254 -0.380484 -0.34513512 1.4262276 -0.003588664 0.16646825 0.6281499 0.2603613 0.1548746 0.039041255 -0.5541523 0.21918288 -0.37730154 0.23394276 0.1502671 0.23453957 0.13816836 -0.2886581 -0.49382904 -0.41853723 0.20975044 -0.08855286 -0.1589776 0.7621081 0.34037572 0.8013589 0.0145303 -0.46191043 -0.40617716 -0.063216686 0.109548114 0.2410255 -0.4135302 0.01144475 -0.024009775 -0.19729362 0.27900174 0.6192332 0.92241424 0.3338402 0.0873412 0.37054962 -0.44128856 -1.0412039 -0.076596655 -0.1809281 0.1505169 -0.027921747 -0.06038477 -0.3255441 -0.24864408 -0.474365 0.013306063 -0.2752872 -0.39565316 1.1366353 -0.33899122 1.7980658 0.39663902 0.12736776 0.55830085 -0.5805307 -0.4731262 0.04772321 1.8390223 -0.073345155 -0.040814776 -0.75148547 0.68774134 0.2552121 -0.48056898 0.15300502 -0.13245137 -0.6460476 0.10830054 -0.2955986 -0.774272 -0.19812773 1.110971 0.14681506 0.020418657 0.17003459 0.31748882 0.1626455 -0.30323273 0.26761767 0.566937 0.08784909 -0.33038214 0.062273648 -0.80745983 -0.3523381 0.24913347 -0.7205071 -0.15337403 -0.2845448 -0.24956849 0.48769867 0.24153669 -0.004422776 -0.09961894 0.4614179 0.21845046 -0.43832654 -0.17671321 0.21583268 2.620986 0.49058852 -0.111436784 -0.18908703 -0.41417322 
0.38543603 0.27476662 0.5156193 -0.9072713 0.36813933 0.014446035 0.02951702 0.09841131 -0.38477302 0.39026013 0.44456762 -0.2113266 0.37734893 0.017459245 0.18163203 0.30610874 -0.25775695 -0.19940338 0.296617 -0.28176937 -0.14691383 -0.76609135 0.12437244 1.3823777 -0.09362403 0.2934922 -0.058795117 0.6762205 0.10015006 0.53313524 0.54892343 -0.24279779 -0.7119039 -0.40154114 -0.30097502 -0.1076105 -0.20090432 -0.2510645 0.70607626 0.06285758 -0.30759826 0.016784528 -0.16773869 0.13671434 -0.6450709 0.2615837 -0.42909455 0.7046421 -0.1303747 -0.13025853 -0.70507437 0.1403576 -0.18086967 -0.5659388 -0.064129785 0.2330587 0.94638246 -0.13406324 0.4628906 0.029378384 0.041568242 0.21237761 -0.81516117 -0.21918808 -0.8089046 1.3327192 0.06653032 -0.50927097 -0.36295947 -0.08787871 -0.33911276 -0.23071781 -0.71811277 0.240519 0.057287768 -0.37799776 -0.6417705 -0.04040164 -0.2597075 -0.08917864 -0.42418784 0.30166498 0.47375688 -0.11072578 -0.16639757 0.7739623 -0.6575962 0.001487785 -0.21995302 -0.5272087 -0.2681994 -0.052773457 0.30354828 0.24272142 0.23856556 -0.48920262 -0.44369987 -0.24366711 0.3219413 0.02297322 -0.19756961 0.039558534 -0.24195443 -0.33373436 -0.16302092 0.58724564 0.6963761 0.29151398 -0.18839893 0.5793593 0.44869536 0.06682309 -0.05795255 0.32533252 0.36787093 0.0966563 0.17710865 -0.6837356 -0.25982535 -0.15309563 1.4010458 0.32584837 0.05703931 -0.22207378 -0.41995266 -0.036024828 -0.01780195 -0.5459247 
-0.1749541 -0.23224548 -0.49610662 0.108650126 -0.50372434 -0.043090876 -0.3597515 -0.4536267 -0.07421052 -0.25754106 -0.06644478 -0.24189691 -0.043960597 0.073853135 0.42000774 -0.6474134 -0.032699738 -0.045880437 -0.0917246 -0.31509155 -1.0419191 2.2017045 0.009627273 -0.35530216 0.42936966 0.26061437 0.1531935 0.10745386 0.36494893 0.74114734 -0.05108025 0.68989486 -0.26148808 0.22326341 -0.01683798 0.64700377 0.43780464 0.1298896 -0.8718571 -0.5548797 0.9522322 -0.5713272 -0.41781658 -0.32171074 0.023223303 0.30723736 -0.48847565 0.47581223 0.93021786 -0.2674303 -1.6425022 0.0070924507 0.22297883 -0.055937327 0.67104137 -0.4446195 -0.10285518 -0.11104477 0.044216067 -0.2859969 -0.49293813 -0.0701224 -0.00089729327 0.69595164 -0.3397518 0.42848307 0.49828398 0.3015344 0.45316455 0.36304146 -0.08194452 -0.6999145 1.0913059 -0.7342209 0.04880895 0.6632109 -0.3528099 0.06686383 0.49644926 0.32368693 -0.19049391 0.30824196 -1.0664455 0.06659351 -0.33895516 -0.07983616 -0.09662819 0.48771337 -0.42518723 -0.15685278 -0.46979186 0.24140157 -0.1526723 1.5465332 -0.41995147 -0.45412728 -0.1134647 -0.42134434 0.71953565 -0.0012878818 -0.49035868 0.29070926 -0.40107512 -0.44783935 -0.10085153 -0.28209394 0.2338725 -0.4491663 -0.063050345 0.23377715 -0.44239768 -0.10803739 0.53688955 0.32621947 -0.17014773 0.88972867 -1.0648472 -0.3441502 1.2389576 0.07870584 0.45304984 -0.035910852 -0.54171646 0.84654874 -0.19682373 -0.03877159 -0.3102356 0.03942766 
0.09128558 0.21098828 0.19326006 1.2836374 0.091187015 -0.28647274 0.33283374 -0.4205721 0.023679882 0.14256619 -0.5184856 -0.044497523 0.39361772 0.11261864 0.40230677 -0.41286916 0.46033394 0.16370405 -0.1627115 -0.607549 1.2397509 -0.113859154 0.15247376 0.08480793 0.08939156 0.061292455 0.16696079 -0.6539489 0.44549644 -0.10803506 0.41267753 0.8064364 0.24691878 0.082230814 -0.13064735 -0.0250374 0.6849846 -0.4187956 0.13418482 0.120225 0.18854138 0.94687 0.30386078 -0.6196273 1.2844467 -0.063226976 0.35517234 -0.38852113 -0.5984861 -0.8272347 -0.00882644 0.08477338 0.1377192 -0.33394432 0.96059597 0.7932641 0.26534763 0.30156946 0.5354556 -0.43752748 -0.2845283 -0.029380158 -0.35708797 0.322601 -0.3903132 0.32622632 -0.520393 -0.42324027 0.3512505 0.57518685 0.049663138 0.3430858 -0.7385684 -0.036087696 0.043663964 -0.41966045 0.3231645 -0.07089803 0.5282101 -0.17942765 0.51009905 0.4220929 0.32870135 0.42323104 0.087592416 0.5660361 -0.15340464 0.75388956 -0.38899705 -0.7690339 0.14371766 -0.26531002 0.27585357 -0.17388242 0.13201322 1.116669 -0.03491485 -0.74659216 -0.1903955 0.012633615 0.09114527 0.29295307 0.022577863 -0.59784806 0.0061788764 0.13804835 0.6361375 -0.2081002 -0.60255045 0.21378924 0.012498079 -0.23368295 -1.0084658 0.31546578 -0.5472851 0.57719356 0.097679295 -0.35387298 0.06450028 0.04013181 0.7897628 -0.082804136 -0.29502815 -0.49162668 1.3534071 -0.20362888 0.19864742 -0.14567833 
-0.1547096 0.08077111 -0.36983165 -0.8529279 -0.008065869 -0.17096463 0.31475726 -0.28097388 -0.23626925 -0.1441241 0.29042518 -0.9572713 1.0342184 -0.29663432 -0.018408548 -0.2417951 -0.35337353 0.15903278 -0.21206579 -0.04453691 0.70704377 0.554578 -0.06523832 0.12058403 -0.6406164 0.03257426 0.17052695 -0.12510623 0.33786666 -0.27139255 0.33174783 0.26978973 -0.36585128 -0.9471625 -0.4382477 0.62250185 -0.15496273 -0.45416963 0.644442 -0.21853483 -0.30495226 0.71553195 0.23510402 0.2128373 -0.087720335 0.5669959 0.3656804 0.5778717 0.38044688 -0.37976882 0.57206213 -0.036032856 0.34115776 0.45768315 0.03600145 -0.8072594 -0.20377518 -0.6211978 0.58368045 -0.36135012 -0.23791623 -0.18347959 -0.3297948 0.73683906 -0.75053966 -0.16299981 -0.060713585 0.20540497 0.32612517 0.122444786 -0.09190743 1.2477366 0.7916801 0.5484596 1.0617802 -0.5647751 -0.41356516 0.06472571 0.42596582 -0.059422214 0.42897224 -0.05159799 0.370163 0.26217195 0.45932057 0.062937774 0.031560834 0.35037532 0.26472774 -0.27914175 -0.7303365 0.2670013 0.27940348 0.0014789689 0.13529736 0.097704895 -0.45182657 0.41164634 -0.5629508 -0.004208556 -0.4691346 0.10962902 -0.11192704 0.015384229 -0.33892602 1.0895349 0.814698 -0.4983492 0.10457735 -0.45901904 -0.00893938 -0.30494815 0.0065396163 0.6413056 -0.18802555 -0.3813153 0.17470798 0.3968034 0.4704067 -0.13289909 0.21656823 0.13250987 0.5379758 0.0387561 0.9345428 0.2417822 0.381835 0.40981027 
0.094349906 0.76782554 0.21969564 -0.008289991 0.5481963 -0.16969551 0.3787062 -0.34495252 0.16731966 0.080250375 -0.09462306 -0.09866904 0.5317955 -0.70032007 0.4309018 0.18632783 -0.28883618 -0.12539265 0.3960253 0.6776531 0.43451762 0.12719561 -0.78651536 0.05895833 0.00505508 0.22570002 0.507365 0.79641694 -0.17652598 -1.2153878 -0.3912529 0.524793 -0.25253832 -0.5399309 0.12421063 0.13527133 0.20643678 -0.12993138 -0.1980361 -0.051227335 -0.45641395 0.032125767 0.95458096 -0.00080872653 0.113980375 0.049882855 1.0100652 0.3150049 1.1162777 -0.6725538 0.93569845 -0.294735 -0.31594422 -0.69687384 -0.29802737 0.7296035 0.7702891 0.29081118 0.11690946 -0.50614 0.989682 0.19553347 -0.38235053 0.0018663078 0.43227538 -0.6401221 -0.06718614 -0.5507132 0.86311996 0.9639928 0.018597508 -0.32764086 0.26999658 -0.49052912 -0.50860566 1.0085548 0.61964107 1.7374122 -0.009136943 -0.052035343 -0.3387607 -0.27827823 -0.4076349 -0.06502701 0.8558215 -0.10227269 0.07417868 0.572261 -0.44124487 0.0022107433 0.07134048 -0.26338938 -0.06316269 0.5569122 -0.036321625 0.17624411 -0.49022147 -0.21926242 0.5651358 -0.17852081 -0.6624663 -0.031315256 -0.5610896 -0.14293465 0.069959715 0.17288849 -0.41556415 -0.51272595 -0.41264728 0.10862968 0.11905906 -0.17980027 -0.72965765 0.15742081 -0.47551844 -0.1646 -0.57179064 0.1585009 -0.2567362 0.20280102 0.18914378 0.04367862 -0.21876699 0.13661912 -0.35957202 0.38596743 0.48869315 -0.36116928 
-0.08927898 1.3316422 -0.33846092 -0.2697444 -0.14314379 -0.6386093 0.6964571 -0.26129285 -0.12683526 0.33238563 0.42026034 -0.5833297 -0.37402442 -0.5723598 -0.86341727 0.034655627 0.30319992 0.026026208 0.053519957 -0.4540587 0.23948175 -0.65177095 -0.028096573 0.34684432 -0.17130508 -0.40464786 -0.63639 -0.25631478 0.24064349 -0.03415496 0.15530665 0.326332 -0.23429926 -0.24862218 -0.36206406 0.9642108 -0.9117837 0.24840817 -0.13722526 -0.0011302896 0.30493495 0.27090526 0.38499293 0.1661514 0.8850447 0.22360803 -0.44806024 -0.097363874 0.1284406 -0.6504891 0.21249902 0.041500192 -0.579371 -0.5352237 0.2622848 -0.036987327 0.9329269 0.4690028 0.42017284 -0.15504633 -0.017116696 -0.36156514 1.0328767 0.589016 0.2494497 -0.4516002 0.060516704 -0.39323035 0.058849104 1.0623025 -0.08169894 0.5978672 0.4939653 0.43547922 0.51185995 0.5708319 -0.37942126 -0.002486102 0.2537675 -0.33806232 -0.23478955 -0.078270435 -0.21173187 -0.015047445 0.053449724 -0.12863873 -0.0765439 0.444774 0.5760308 -0.32118908 0.1546997 0.052230686 0.36220074 -0.0032713555 0.099844545 0.21544987 0.0089665605 0.38806617 0.0038477813 -0.54863065 -0.4046603 -0.32501087 -0.04764862 0.2565788 0.19676246 0.2865726 -0.082943484 -0.10828103 0.22570162 -0.39440826 0.71910375 -0.22181621 0.41489303 0.33365044 -0.8985971 0.348091 0.34168375 0.46363062 0.20502245 -0.4339556 0.1396672 -0.19324997 -0.34989822 0.50867873 0.10431241 0.2587454 0.4763458 0.32770336 
-0.05604372 -1.2416008 0.3771887 0.3261156 0.61932635 0.1557424 0.3454349 -0.10727664 -0.5827465 -0.092339806 -0.1321684 -0.16242369 0.22429386 -0.23010428 -0.45137456 -0.41490114 0.22391541 -0.38172442 -0.11942712 -0.9529373 -0.25911337 0.23941904 -0.26357743 0.22086279 0.09479351 -0.115339585 -0.26392817 -0.056577634 0.36022222 -0.35608134 -0.31778887 0.88613737 -0.024068361 -0.42850336 -0.4949372 0.5695283 -0.0612323 0.06282433 -0.0023482207 -0.21688391 0.3644759 -0.22471316 -0.31679866 -0.7225461 0.35136116 -0.19549422 0.8718973 0.6260529 0.7990499 -0.7986629 0.84034497 0.14931259 -0.13966574 -0.31974337 -0.12642382 1.9518727 0.112027325 -0.8718254 -0.6427859 0.032024 -0.4642508 -0.039169643 -0.030162534 -0.011011971 -0.1498047 -0.39419279 -0.30483097 0.016657975 0.34434533 0.2058186 0.105377145 -0.7432033 0.5411917 -0.31257993 -0.775012 -0.5520664 0.3402824 -0.38113448 -0.16967387 0.62106115 -0.15451095 -1.0158236 1.2164819 -0.107771456 0.24303438 0.09074415 0.25054324 0.32099625 0.6717687 0.085837565 -0.15413563 -0.2510138 0.34556347 0.7827434 -0.4051291 -1.8042992 -0.39254454 0.2763213 -0.42752683 -0.25312525 0.46270838 -0.31655377 -0.37222788 -0.22700423 -0.26098245 -0.81983376 -0.12589538 -0.10323781 -0.52369946 -0.13364142 -0.5288274 -0.80313504 0.18123986 -0.26356098 0.275842 -0.00690732 0.23114415 0.22750716 0.007001472 -0.08130761 -0.16822533 0.30527323 -0.100905575 2.099044 0.50474405 0.4541485 0.46958387 -0.46534058 
0.05144719 0.048344288 0.6698039 0.6913795 -1.0021281 0.123181954 0.4218877 -0.29637712 -0.08726963 0.04539433 -0.50406176 0.26949674 -0.06945536 -0.4091228 0.28598192 -0.12479043 0.24439715 0.20643549 -0.08560183 0.49749058 0.95686686 -0.5884238 -0.053051163 0.2808979 -0.52839744 0.20809862 -0.17868224 0.11040988 0.6463996 -0.28690585 0.3477468 -0.12189069 -0.12581891 0.15973042 0.34281844 1.0744566 0.42860577 0.3095895 0.43251532 0.117217086 -0.6409151 -0.12974739 -0.39431146 0.0989462 0.11892831 0.2721031 -0.16825122 -0.27006695 0.04441017 -0.33908752 1.360068 -0.364191 -0.7935231 -0.5458453 0.5374761 0.21845748 -0.84524286 -0.45297486 -0.09615635 -0.0026463685 0.37597457 0.007394706 -0.35879466 0.28278065 -0.26356333 0.018937493 -0.11128994 -0.0821425 0.041447565 0.7267559 -0.16847645 -0.36133924 -0.34587988 0.21653739 -0.24865237 -0.5813139 -0.33022884 0.40425625 0.054874286 0.20257361 -0.13698381 -0.18484211 -0.5457301 -0.29368913 -0.36377826 0.052084576 -0.19482863 0.00982518 -0.12788177 -0.44157648 0.26290023 0.11078921 -0.33234918 0.26860702 -0.07482354 0.44706905 -0.2157772 0.11219606 0.043415435 0.20599933 -0.16316016 0.07098554 -0.69651914 -0.12991923 -0.35973588 -0.9691043 0.26294237 -0.0748007 0.35247225 -0.026007624 0.17691112 -0.008489838 0.9126308 0.36555094 0.38213396 0.4348886 -0.03251004 -0.009422718 -0.031440213 0.10428646 0.029079434 0.31410894 -0.28384936 -0.33054575 0.41073802 -0.1986675 -0.105529085 0.19274196 
-0.27646142 -0.15964276 0.13046391 -0.4214422 0.13924149 -0.07122671 -0.37117642 0.29648376 -0.03960047 -0.43832824 -0.30969545 0.21099247 -0.69004726 -1.0318594 -0.9725193 -0.15982051 -0.1923527 -0.093925476 -0.07426749 -0.41019547 -0.9714496 -0.44567597 -0.018637314 -0.65969455 0.112617865 -0.21069914 -0.6949495 0.3336586 -0.59155095 -0.07226582 -0.052988496 -0.22095056 0.22510585 0.73817664 0.48400605 0.39268777 -0.13246505 -0.092086636 0.15735254 -0.49986735 0.37651533 -0.11789509 -0.523224 0.48146468 0.6770987 -0.3941799 0.47036594 -0.48585555 -0.6931118 0.4861307 0.638993 -0.17815545 -0.11700679 0.2078184 0.17202947 0.28363612 -0.6967314 0.10710286 0.12534408 -0.2847983 -0.58683276 -0.17419344 0.051998205 0.006392711 -0.0056702364 -0.09941642 -0.04369863 0.4015267 0.2767703 0.16197237 -0.14035803 -0.5092447 -0.30130827 0.29668373 0.3807201 -0.32063708 -0.30899823 -0.16295457 0.3759721 0.39018703 0.23700441 0.10643165 0.43900177 -0.1447931 -0.8174126 0.2883036 0.29218578 0.13350528 0.30221668 -0.002396959 -0.53345233 0.51437074 0.4474031 -0.15771973 -0.20003568 0.36557356 0.092155896 0.4350019 -0.08536679 -0.1692658 0.20343079 0.505596 0.52628815 -0.9990021 -0.1458349 0.068193145 0.05909068 -0.34431887 -0.14796522 -0.17536604 -0.6902139 -0.16596295 0.7483724 -0.7643783 0.31198913 0.09003356 -0.005870417 -0.25844517 0.17917114 0.07674573 0.24874157 -0.50543845 -0.72560906 -0.113874845 -0.4328865 -0.028895894 -0.274738 0.09446571 
0.29938266 0.15100037 0.3172828 -0.28639543 0.08207881 -0.480126 -0.14537168 0.42211127 -0.2709488 -0.09297795 0.30556634 0.15575437 0.41225407 -0.34975588 -0.4082267 -0.3410112 -0.23008704 -0.2761029 -0.38266757 0.14683966 0.5464973 -0.02441925 -0.6963262 0.29110906 0.104025245 0.02806862 0.4162316 -0.44402286 0.04837976 0.13623218 0.20742458 -0.6396517 0.61153644 -0.041640624 0.5932727 -0.024642449 -0.015267796 0.12663272 0.72209585 0.18378286 -1.1434594 -1.2636968 -0.101426676 -0.47569275 0.6310671 -0.2592457 -0.45083076 -0.6272835 0.8585273 0.86566514 -0.19994253 -0.10774773 -0.06685904 0.2343043 -0.47674283 0.53118044 0.3705197 -0.01451587 -1.5095829 -0.22997552 0.14582753 -0.03364493 0.06902307 0.3198515 0.09843903 -1.3344848 0.44227412 -0.16060144 -0.5272652 0.2122832 0.13347979 -1.1879835 -0.51639736 -0.019370578 0.7079739 0.28010815 0.10480217 0.26943076 -0.004830801 -0.69800985 -0.6196426 0.5834268 -0.4051197 -0.02321285 -0.41297066 -0.050608106 -0.222049 0.71338737 -0.04785273 1.4608389 -0.4670446 0.34891668 -0.029826982 0.7813172 0.42824236 0.1008064 0.63003033 -1.398386 0.07990855 0.051054154 -1.0827953 0.44347855 -0.2863321 0.074532315 -0.43534333 0.7064122 -0.08402821 -0.1899365 -0.2990568 -0.12074792 -0.1665759 -0.08591345 -0.05488757 0.5625403 0.13982089 -0.39668265 0.40119308 -0.13278593 -0.25159958 0.1535438 -0.18134901 -0.7638274 -0.27468234 -0.13159138 0.23517817 -0.99029285 0.41466948 -0.036186486 
-1.1833041 0.33258498 -0.69317824 0.3201263 0.23364528 -0.15994026 -0.30018142 0.52893907 -0.27644202 -0.8452532 0.3309046 0.0108984765 -0.18500023 0.19486424 -0.6456686 -0.5597053 -0.052544683 -0.086185746 0.17993121 -0.98267514 0.601484 0.28783947 -0.24814662 -0.7651457 0.7854786 -0.46638206 0.07544658 0.09065944 -0.8669393 0.009647232 -0.24625915 -0.8545778 -0.6619491 0.22500694 -0.034817234 0.030051477 0.17847429 0.4513223 0.31312475 -0.008005523 0.17214318 -0.42548096 -0.22822951 0.5626701 0.883626 -0.10068289 -0.12313535 0.6930736 -0.13683112 -0.2341557 -0.9008779 0.16493344 -0.4382074 -0.17513289 -0.20149966 -0.49210453 -0.5358743 0.09745915 -0.1347037 0.4461858 0.027040089 0.37448862 -0.10961682 -0.023904543 0.63243157 0.11603734 -0.65306866 -0.5694414 -0.03260226 0.5435925 0.11964365 0.010941498 -0.075321056 0.19173244 -0.036627155 0.07109335 0.22469793 -0.6621421 0.79154044 -0.18682687 0.23934914 0.7564524 0.096322455 0.536849 0.5968768 0.051966332 -0.38476714 0.3071706 -0.94281995 0.5602101 0.082993984 0.29983997 -0.20478612 0.5782144 0.16348718 -0.00804125 -0.5035963 0.17271216 0.030063547 -0.17998168 -0.23563555 -0.27705655 -0.0687594 -0.103382856 0.058419496 0.22579962 0.8070129 -0.097164385 0.3282524 1.0478904 0.023786854 -0.20427583 1.1420301 0.4335419 -0.39283198 0.0372978 -0.100222595 -0.7231835 0.13426009 -0.2620085 -1.0004541 -0.13581659 -0.37538478 0.06777524 -0.344461 -0.29711404 -0.39566386 -0.46328166 
0.7247856 0.31373587 0.88545007 -0.039388694 0.4839854 -0.32474798 -0.4783944 -0.39998716 -0.45802072 0.12919371 0.120449685 -0.42684427 -0.4690838 -0.20032477 1.1605198 -0.08000427 -0.27274287 0.07534298 -0.60734326 1.428341 -0.72269464 -0.2296948 0.26454332 0.7165233 -0.10706732 -0.14126839 0.12559451 0.88348943 0.03792046 -0.24190514 -0.14797302 -1.1006607 0.011711014 0.7216641 -0.23770238 -0.14267069 -0.27507934 -0.2642399 0.9484131 0.10956188 -0.56191707 0.23114195 -0.4747227 -0.14134254 -0.7175761 -0.5946949 -1.2977413 -0.2747377 -0.3238431 0.38635358 -0.0962855 -0.58076924 -0.68028855 -0.28023493 0.28359178 0.26335105 -0.62985367 -0.10174653 -0.24728483 -0.25014612 1.0659853 0.4043632 0.11162206 0.1622685 0.048393957 -0.22590326 0.33476466 0.4877254 -0.2504459 0.60840875 -0.4535233 -0.49741143 -0.41686454 0.2693097 -0.08761233 0.90084356 0.19337621 -0.6557498 -0.28297603 0.018815149 0.35799333 -0.008964262 0.30798936 -0.34623075 -0.0069558937 0.17367181 0.25335893 0.51144046 0.9135612 0.49798492 -0.41435385 -0.088700704 0.62080675 0.008149696 -0.016118797 0.9237161 0.06715084 -0.27638415 0.20499432 0.042152915 -0.77408534 -0.3217705 -0.3378435 -0.10374156 0.34970355 -0.085838996 -0.3485408 -0.4477468 -0.19116563 0.2989894 -0.050035227 0.41687205 -0.09229134 -0.5781632 -0.32714418 -0.30354017 1.0856614 -0.6316518 -0.115142 0.13450019 -0.18040657 0.15457213 0.008486476 0.09684786 -0.3604096 -1.5224401 0.09701603 0.2656386 
0.374075 -0.12631273 -0.235276 0.48976374 -0.228535 -0.61938816 -0.18880488 0.078302294 -0.1653581 -0.5644292 0.5149945 -0.2237493 0.21389481 -0.45774022 -0.05932741 -0.19358955 0.05598793 0.34332955 -0.12300112 -0.5925896 -0.6851013 -0.29696053 -0.14619872 -0.37673122 0.2582468 -0.32849595 -0.2273855 -0.737112 0.41310528 0.39693928 -0.49099386 -0.9839928 -0.6318394 0.0642636 -0.15187494 0.10503666 -0.25477603 0.3476191 0.025877118 -0.41053954 0.0490325 -0.3274417 0.066535845 -0.9224786 -0.5726647 0.6332927 0.27397606 -0.38368037 0.32860133 -0.841172 -0.010204489 -0.22347155 -0.3956936 0.22722459 0.4124908 -0.35576794 0.3092612 -0.54273003 0.12215291 -0.060430065 0.13149153 -0.26933318 0.1896493 0.13474576 -0.17620689 0.3400723 -0.237288 -0.73688483 -0.24372448 0.52843636 -0.28528553 0.810573 0.7474606 0.44420198 0.4336897 0.08086239 -0.8469644 0.33072057 0.766217 0.33867502 0.0825733 0.11864135 0.4386008 0.7412357 -0.7461412 -0.20717126 0.05458881 0.28602353 0.24913985 0.030400164 -0.030861126 -0.033673123 0.4744714 0.3483633 0.018458504 0.8053033 -0.35834658 0.49089402 0.23727976 0.23569392 -0.4241341 -0.42992827 1.0469085 -0.7486239 0.4963715 0.51121587 -0.23391102 -0.6509281 0.09427861 -0.23543586 -0.43355876 -0.29885003 0.6018523 -0.8505686 -0.20915735 0.021344407 0.9511207 -0.41112658 0.8695783 0.3799586 -0.054900423 -0.42371115 0.10438335 0.85192466 -0.6472341 -0.3894458 -0.35389662 -0.39338496 
-0.32598385 -0.36402237 0.4741744 0.3756405 0.17866826 -0.13105404 0.010716352 -0.14422415 -0.38973376 0.7499271 0.7436279 0.4410627 -1.0556947 -0.34820095 0.3167425 -0.33659104 -0.060969997 -0.21575724 -0.20390113 -0.5176028 -0.01767281 -0.15645418 0.14478908 0.30947876 -1.2017034 -0.4806837 0.59380835 -0.40669706 -0.57089657 -0.045198284 0.061043613 -0.36726713 -0.050649017 0.042616434 -0.39595616 -0.8169479 0.31475872 0.11998878 -0.8361112 -0.45622456 0.24047038 0.530981 0.14335683 0.33058393 0.6082913 -0.016588418 -0.4532945 0.5497187 -0.7942508 0.45707458 0.46424624 0.3691314 -0.12731642 0.26847813 0.12012716 0.15978597 -0.5510207 -0.7038834 -0.705242 -0.14130001 -0.8329444 -0.12811552 -0.57524514 -0.10160255 0.12075838 0.20374283 -0.49838662 -0.36784384 0.44996458 -1.1274161 -0.50157684 -0.9529418 -0.16943173 0.2674103 0.5166165 -0.039500806 -0.41080797 -0.6477238 -0.36273742 -0.4905132 -0.6991448 0.07694704 -0.08475766 0.3977765 -0.2054641 0.640376 -0.26004946 0.36351407 -0.7033019 0.11164183 -0.1285767 0.4253173 -0.22578463 -0.026859578 -0.13993433 -0.72820944 -0.40161577 0.24665903 -0.49303788 0.3122839 0.07267934 0.21264976 -0.8981291 0.060952436 -0.20100078 -0.06645237 -0.5466668 -0.13747895 0.30114564 0.09585618 -0.0088810995 -0.2325717 -0.53116626 0.7166951 -1.0545077 -0.5345877 0.23739462 0.24280484 -1.0821829 0.493135 -0.20850696 -0.4401212 -0.26239222 0.24623626 -0.77285165 -0.25378573 -0.27116752 -0.3996879 
0.19547635 -0.59587604 0.13897553 0.82617563 -0.21153206 -0.14952256 -0.450619 0.19786353 -0.30539897 0.35988575 -0.7345417 -0.28468183 -0.8886626 -0.17742315 -0.22743465 0.2925735 0.26184732 -0.55865204 -0.8958474 -0.09661154 0.29979962 -0.21992438 1.314558 0.049379133 -0.30228084 -0.12379865 0.086426996 -0.28103575 0.096658505 -0.3776967 0.32234374 0.5312743 -0.1316214 -0.20913301 0.38044614 0.51616997 -1.0611951 -0.042481303 0.10585989 0.007327866 -0.24297383 -0.74574023 -0.3598146 0.921658 -0.5745311 0.48134813 -1.1480588 -0.649797 0.45388088 -0.7788754 0.46120548 0.003633208 0.12412006 -0.18714398 0.6164971 -0.042098682 -1.1335596 -0.99562037 -0.30231455 -0.052364513 0.9531628 0.13351277 -0.042080667 0.5959355 0.41145685 0.20469923 -0.18303013 -0.3734744 -0.5936879 0.038919833 -0.59035563 -0.09829866 -0.809924 0.6736596 -0.06722518 0.11903448 -0.020146985 0.17923805 0.4926528 0.06889745 -0.535013 0.13426788 0.02703005 -0.41708362 0.081694394 -0.050038245 0.3506339 -0.047208272 -0.07734796 -0.5749152 -0.9170891 -0.46183822 0.7121199 0.034982108 -0.2148163 0.12409191 -0.5912361 -0.7485644 0.8455376 0.14530519 0.24593884 -0.097343124 0.33571178 -0.12238735 -0.40793747 -0.2851913 -0.31661984 0.2854036 -0.28694108 -0.09774455 -0.26922914 -0.09738964 -0.9936374 0.32069525 -0.2296617 0.060779303 -0.47873306 0.40206283 0.32832918 -1.6115489 -0.1477089 -1.587924 0.83743715 0.2922856 -0.69028026 0.38643748 0.24586622 -0.73521525 
-0.021270275 0.26309404 -0.83421665 0.5039889 0.21957132 -0.099461645 -0.1305737 -0.2302613 0.16310233 -0.24471098 -0.30966413 -0.051456574 -1.0799196 0.42242414 -0.8292295 0.029071992 0.51366013 -0.875434 -0.17817461 -0.049480215 1.2154896 -0.2537681 -0.2642751 -0.10185473 -0.3898282 0.14484179 0.24735759 -0.3505515 0.03526089 0.0692312 -0.13023269 -0.119593166 -0.4620095 0.025514651 0.47409752 0.40701884 0.62880474 -0.31969693 0.35465103 -0.35766444 0.8978624 -0.034374923 0.24008021 -0.4147504 0.24833268 0.24971814 -0.026031848 -1.216524 -0.93589985 0.25517246 0.034254383 -0.12884657 0.25032002 -0.10951055 -0.44532624 0.07602 -0.49074677 -0.33539897 -0.24535139 -0.18698134 0.0741141 0.13219114 0.21482572 -0.17625989 0.21350127 -0.28215355 -0.37998772 -0.27613902 0.2807331 -0.43359888 -0.5157416 -0.45601648 -0.4319325 0.22966081 -0.3062384 0.0052886014 -0.3781503 -0.408355 -0.24879965 0.46804035 -0.4155415 0.36352307 -0.15297882 -0.16066876 -0.5222058 -0.22189716 -0.57413757 -0.23536374 0.41925883 0.05570849 0.07422339 0.21916386 0.6856969 0.5920578 -0.19553895 0.6865099 -0.1133902 0.13753413 -0.32580677 0.008098157 0.44447792 -0.6675674 -0.43028945 0.7151606 -0.5916624 -0.002516058 -1.1556551 0.54967034 0.3945781 -0.06463424 -0.34128016 -0.019672105 -0.7102739 0.3432545 0.4551918 -0.14890327 0.02028456 -0.27016285 -0.33229902 -0.09322699 0.45783466 0.40605348 -0.054654427 0.13935512 -0.19648945 0.23395811 0.06713549 -0.20122203 
-0.5449551 0.3736896 -0.44717887 0.46148646 0.083972275 -0.8776164 0.4878309 -0.0543884 0.3794863 -0.52737594 0.29525885 0.159273 -0.33069745 0.36344194 -1.1213721 -0.2258415 -0.3403788 0.38026837 0.46072912 -0.22139603 -1.7455591 0.016886754 -0.29225308 -0.20380078 0.20750804 0.32062733 -0.5100158 1.0379581 0.24098833 -0.37448046 -0.92757684 0.053455714 -1.0506902 0.6848307 0.00469135 0.28954926 0.0136397835 -0.83584476 -0.83249277 -0.37696466 -0.36995012 -0.88938314 -0.3263283 -0.14367248 0.50703096 -0.2949542 0.272173 -0.22018947 -0.6493747 -0.5001451 -0.13460493 0.28437233 -0.04038663 -1.2588742 0.0042593856 0.045257386 0.6794497 -0.5494068 0.2719347 0.19780052 0.38135502 0.6714243 0.02693003 0.4064108 0.44610482 -0.72544056 0.20138232 -0.55431426 0.2612421 0.25082028 -0.121806554 0.15165174 -0.0692477 -0.24264555 -0.34924665 -0.13900056 0.4459621 0.7640907 -0.84366035 -0.93883157 -0.51637423 -0.24231908 -0.14578538 -0.32891676 -0.38866517 0.06395139 0.3985479 0.17440012 -0.71708405 0.057219632 -0.12612237 -0.23598811 0.05845017 0.110919535 0.062355835 0.13954416 0.10612938 -0.25853756 -0.2991379 0.061597552 -0.10764317 -1.3376217 -0.028110439 0.024497066 -0.58415127 0.44829348 -0.21568342 0.08503412 -0.087746024 -0.3485243 -0.1654964 0.11188997 0.25508472 -0.88756114 -0.22235881 -0.27886385 -0.7221366 0.406626 -0.11404863 0.55769974 -0.15686318 -2.4388584e-05 0.5390799 0.430958 -0.34751227 -0.7551579 -0.070271015 -0.183404 
0.43039188 -0.5545029 0.36846876 0.79338366 0.41264582 -0.09571887 0.09347869 0.22790788 0.08721909 -1.0692945 -0.59001017 0.13406788 0.15704799 -0.13525161 -0.28030857 -0.031522483 0.09359111 -0.7584396 0.17026918 -0.6465278 -0.23750693 0.2400301 0.7458904 -0.2431723 -0.25057384 0.25613216 0.69433796 0.60555667 -0.055874802 0.23200963 0.15804832 -0.4841258 -0.20713307 0.40784568 0.45253554 0.14796215 -0.6032634 0.5894505 0.6358436 0.16736852 -0.5535526 0.7992115 0.1344591 -1.3431131 0.3469342 0.053886715 -0.17177601 -0.6233323 0.10108304 -0.692292 0.7943273 -0.13148123 -0.28024638 0.01088705 -1.4264443 0.468145 -0.18756737 -0.68365043 -0.5101984 -0.28816894 -0.6632641 -0.31661153 -0.22861639 -0.0453566 -0.37408978 0.12652512 -0.69274104 -0.5132881 -0.68206847 -0.118707225 0.38575676 -0.8182758 0.2182551 -0.10865707 -1.08488 0.47432485 0.18712345 -0.11485256 -0.051456288 -0.0182205 -0.26346177 -0.47142386 -0.15734684 -0.017521726 -0.20294422 0.26385814 0.66138005 0.423297 1.3065085 -1.1012357 -0.27599752 -0.6598068 -0.33143142 -0.07736254 0.43954518 0.7156925 -0.52095705 0.3759709 -0.37515867 -0.100474134 -0.8034716 -0.45161587 -0.4809829 -1.0508279 -0.1633606 -0.9209443 0.035771795 0.06626335 0.5765836 0.6316387 -0.6178963 -0.6245875 -1.2001084 -2.0935445 0.076986626 -0.2507168 -0.26250008 0.7576042 -0.07285774 0.20842482 0.17584555 0.25724617 0.4073336 -0.35143673 -0.13983491 0.2250243 -0.52328384 0.17613934 
-0.17321108 -0.8119307 -0.36796328 -0.5375643 -0.23999152 0.30852595 0.8091995 -0.017492944 -0.8721198 0.74264276 -0.7520766 -0.41765752 0.06434953 0.22456391 0.6968955 -0.47758776 0.07378312 -0.32546315 -0.4270805 0.584942 -0.07296988 -0.040299814 -0.27327797 0.23000549 0.077980995 0.3069807 -0.785203 0.42182398 -0.32465264 0.12063693 0.17933972 -0.050331946 -0.5027861 -0.8965617 0.65079707 -0.4140847 -0.023627339 0.6081319 -0.017297585 0.26295105 -0.052749287 -0.5757126 -0.05939025 0.10737732 -0.2888851 -0.42600548 -0.46550643 -1.0708323 0.54528034 -0.24610378 0.23016061 -0.34797055 0.0031387566 -1.7216103 0.109891385 -0.13120338 0.4498249 0.123554595 -1.1094759 0.111808755 0.6607219 0.14634308 0.51256824 0.0872227 0.5031256 -1.1487612 0.16583817 0.32015106 0.34861547 -0.05636108 -0.09601442 0.5271691 0.6109555 0.32814005 0.26126274 -0.069373436 -0.04707793 -0.40555602 -0.24841122 -0.44039443 -0.27897313 -0.3681789 -0.021935543 0.16319239 0.3127587 -0.33718166 0.8113104 0.11708339 -0.9976195 -0.75497 -0.9713627 -0.2710655 -0.71848214 -0.0031450223 0.20826337 -0.1934569 -0.816208 -0.17947415 0.1479395 0.15060887 -0.6554405 -0.8455369 -0.12210782 0.11293547 -0.030687153 0.21405298 -0.34957615 -0.11543508 -0.10378316 -0.76081926 0.477593 0.009392152 -0.5660749 -0.40322348 -0.45337608 -0.2429774 -1.0814599 -0.0019531073 1.0720931 -0.15050507 -0.09774855 -0.016290894 -0.13757136 -0.061750513 -0.62245905 -0.33831784 -0.11199302 -0.73186636 
0.08099633 0.039989114 -0.74044394 -0.7493455 -0.41997287 0.18733677 0.52681655 -0.2689644 0.031646393 0.03911934 0.18299252 -0.17789611 -0.42296517 0.17229171 -1.1410805 -0.123230256 0.07243543 0.78144217 -0.09675927 -0.36430284 -0.057661194 0.24560212 -0.30270186 -0.08996143 -0.06329785 -0.3454122 0.15301609 -0.92606664 -1.5603756 -0.1554955 0.23927687 -0.07720238 0.09325912 0.021614313 -0.014292441 0.29235876 0.23429455 -0.72649384 -0.5244623 0.103976555 0.37609363 -0.32708472 -0.07511818 0.29006696 0.30586854 -0.35321355 0.002815011 -0.20940639 -0.13386366 -0.7160698 -0.54112023 -0.8694791 0.008594685 -0.5440263 -0.5803396 0.2760947 -1.0213945 -0.87823135 -0.6978985 0.127885 -0.51576346 0.79208726 -0.07857909 0.23929326 0.59038436 -0.3608951 -0.049847018 -0.9508109 -0.66669583 -0.09615953 0.21786906 0.5932078 -0.55698586 -0.012300685 -0.75565577 0.43709385 0.11511968 1.0265968 -0.3674395 -0.17171787 0.5322235 0.18130144 0.10454462 -0.6318695 0.2902273 -0.15160543 -0.67645574 -0.048264626 -0.5220762 0.12783536 -0.039777134 -0.06608201 -0.69840664 0.2880008 -0.561601 0.3301766 -0.47161978 0.118750095 -0.3113138 0.13154885 -0.7195278 0.2523395 0.48740083 -0.40010336 -0.32999113 0.46134916 -0.3517662 0.19120575 -0.27258235 0.23463254 -0.06680193 0.6265274 0.20218517 0.62703717 -0.2769486 -0.12429875 -0.40381125 0.43459207 -1.1563379 -1.1635334 -0.3255715 0.3382846 0.090572864 0.31684098 -0.4382902 0.14292136 -0.55474263 -0.031175278 
-1.1117073 -0.2602513 0.13110793 -0.605979 0.19984174 -0.25382882 0.21663363 -0.12074305 -0.047161072 -0.28369406 1.108436 0.3863569 -0.4110541 -0.26797622 -0.86870736 -0.046145495 -0.1485715 0.15373929 -0.160721 -0.14152339 0.059114236 0.156175 -0.6318972 -0.42094004 0.15572162 0.3324367 -0.19803686 -0.28603974 -0.7949395 -0.0637031 0.40757653 0.15444435 -0.17604928 -0.09359168 0.7001682 0.06753982 -0.06449574 0.4128376 -0.68704206 0.25115746 0.47774082 -0.89959747 0.2799446 -0.23138763 -0.89915323 -0.45723942 -0.052327365 -0.6984903 -0.58852327 0.44622728 0.27348775 -0.10119833 -0.58325243 -0.8019555 0.10633184 0.09070631 0.43480092 0.32681045 0.04829465 -0.24660572 -0.6349338 0.45843732 -0.4516184 0.01601435 1.0918615 -1.469435 -0.5870763 -0.18915212 -0.5415749 0.28221032 0.22288243 0.89082444 -0.22782621 0.113450386 0.44792503 -0.35308746 0.67165375 -0.13760304 0.61970776 -0.36235687 -0.38871056 0.09623331 0.3685073 -0.19296172 0.35921383 0.2370359 -0.29462898 0.63723546 -0.011974477 -0.65758646 -1.2442708 0.046339322 -0.6549717 -0.5472776 0.14832485 0.059484556 -0.39347285 -0.17454344 0.067596935 0.10527873 -0.037495635 0.070563465 -0.15998463 1.2741256 0.39699224 0.7102857 0.19112475 -0.2364933 0.02592446 0.5746199 0.031032186 0.36816978 0.09094343 -0.1657408 0.69903505 -0.260469 -0.1698218 0.17404245 -0.3658886 0.1056626 0.38119122 0.5331132 -0.10856997 -0.22209527 0.69649494 -0.38996992 0.05220177 -0.5357439 
-0.41137156 0.20244947 -0.77164453 -0.3512936 0.103372164 0.26192704 0.010749528 -0.07174428 0.13211769 0.13566464 -1.8220724 0.11628498 0.20532289 0.06375803 -1.1476011 -0.1977487 -0.190861 0.1621927 0.33122575 -0.4757368 -1.2259616 0.23316549 -0.44895694 -0.22346556 -0.6555516 0.94428825 0.2256342 0.335548 0.17992067 -0.48959467 -0.26415357 0.32869443 0.83077854 0.28451827 -0.021805149 0.42277122 0.43453246 -0.06364639 -0.7951775 -0.41479614 0.7813535 -0.2099537 -0.14361142 -1.5239764 0.09974509 -0.06592587 -1.3723336 0.42709038 0.5686299 0.33290046 -0.18862389 -0.49000338 0.5643436 0.21314518 -1.1757219 0.36680645 -0.24379858 -0.6547231 -0.14919724 -0.81955564 0.9996624 0.060028125 0.72261345 0.31601343 0.8783797 0.5305155 -0.3919828 -0.4109806 0.96079504 -0.36155912 -0.37759653 -0.36291766 -0.008821109 -0.08350725 0.16786528 -0.28710648 0.03860326 -0.41247284 0.35115275 0.065393336 -0.060375642 0.2611873 0.4061851 -0.8374946 0.027125427 0.63055193 -0.55181426 0.43349257 -0.27405033 -0.22732863 0.09088979 0.7229362 -0.5324495 -0.2954501 -0.2033083 0.46677956 0.7754697 0.24106137 0.1900776 -0.90427715 -0.19496709 -0.90249443 0.030374896 0.07380766 -0.08133326 -0.24221432 -0.29831818 -0.3810279 0.46213123 -0.61481476 0.10463865 -0.103423364 -0.010384087 0.09654714 -0.2880808 0.030231252 -0.18226339 -0.12151472 -0.6037561 -1.4173219 -0.5690635 -0.3260551 0.56712466 -0.15652506 0.17840162 0.09620205 -0.7914218 -0.3673733 
-0.7918513 -0.09005937 0.2896346 -0.25705254 0.04459643 1.0825721 -0.045901366 -0.36276767 -0.36880165 0.42723784 0.18667458 -0.098130055 -0.09351726 -0.38797495 -0.13915369 0.2723459 0.32992846 0.4668704 0.406545 0.689347 0.17488968 -0.16361079 -0.8095374 0.3558366 0.06636207 -0.73510456 -0.7284144 -0.2738017 0.2337194 0.33740827 -0.4740543 -0.45935765 -0.59869397 -0.7511411 0.29681593 -0.78531957 0.95576924 1.192525 -0.0021945047 0.24384348 -0.1251457 1.3533227 0.18200709 0.17457688 0.36720598 -0.7445287 -0.09315056 -0.37616688 -1.3972675 0.40770313 -0.45871753 -0.4719475 -0.39739415 -0.70550996 -0.53968173 0.2782726 0.10719842 -0.045056794 -0.20000656 -0.6148788 0.71786016 -0.15297279 -1.3449134 0.23490435 0.3908072 0.32543436 -0.51460606 0.10729791 0.69921136 0.095061 0.21450949 0.36857668 0.3793714 0.5503314 0.6635812 -0.27780855 -0.18830998 0.04952104 0.7248293 0.28197476 -0.66461456 -0.07297833 -0.090813056 -0.19475622 -0.011357889 0.194278 0.105074815 0.49436527 0.11653446 -0.2726271 0.10804472 -0.17365445 -0.57832664 -0.15666392 -0.50324327 -0.50014555 0.41974872 -0.31068316 0.28042144 -0.31513458 -1.0450934 0.059578773 -0.23202623 -0.372869 -0.14929134 0.9788955 0.86518353 0.43368304 -0.45172685 0.53110206 -0.59563947 0.5950581 0.6114905 -0.25064662 -1.0676334 -0.2177887 0.6813468 0.853088 -0.07347477 0.012792327 -0.25446066 -0.41391358 0.4386428 0.44770145 -0.27065396 0.46185347 0.43732515 0.40165493 
0.42631778 -0.47456777 0.54095393 -0.56417733 -0.14981851 -0.051600732 -0.3231569 0.25682673 -0.028942712 -0.42742813 0.07699824 0.17899755 -0.79203343 -0.72759694 0.057072785 -0.06909708 -0.00573801 -0.5070389 0.44375733 -0.21359889 -0.10389133 0.05298209 -0.34937707 -0.15879807 -0.75194746 0.06526095 0.085077696 -0.21629639 -0.037676666 0.39565796 0.08321084 -0.0016368028 0.00512532 0.6159581 -0.16178279 0.657217 0.6960665 0.19775009 -0.4419187 -0.255916 -0.29626757 0.5251216 0.48731536 -0.23442802 -0.5477547 0.34488392 0.19545184 -1.8731647 -0.1351205 0.09306545 0.03232763 -0.97558874 0.036583323 -0.31518322 -0.08920543 -0.17152925 0.34438375 0.09183264 0.35625777 -0.5205042 -0.22666557 -0.28072447 -0.20845208 -0.05507765 0.67299414 -0.18349041 0.003736038 0.35651362 0.7804442 0.03045651 -0.112402625 -1.6107389 -0.56088597 0.31674564 0.3216495 0.50163364 -0.1781613 -0.24259323 -0.92299783 -0.0820015 0.29259434 0.31340155 -0.2641277 -0.008855995 -0.5024101 0.043568082 -0.18931447 -0.049935292 -0.99286425 -0.28741053 1.5404335 0.18683474 0.60623 0.004386439 0.010281597 -0.2097125 0.15613739 -0.2929639 -0.5318623 -0.21940851 -0.24713692 -0.54409856 -0.1981557 0.83979374 0.6192173 0.5114587 -0.04087851 0.033888604 -0.0051414 0.72063 -0.18867762 -0.3091347 0.7902029 -0.46782833 -0.339131 0.4164523 0.8983981 -1.0747799 0.32935396 0.09992774 -0.19803329 -0.2960849 -0.4945683 -0.35395202 -0.78154176 -0.70426345 -0.28373396 0.0072925286 
0.056310125 -0.38824448 -0.17561622 1.0730952 -0.32850355 -0.15745525 0.09116779 -0.20446268 0.11452958 0.8368155 -2.9234478 0.19483852 0.021360412 -0.42427123 -0.13717206 0.2920581 0.27131474 -0.34481588 0.3467026 0.2542547 -0.12774609 0.16230547 -0.72452205 0.108762756 -0.15209873 0.18932126 -0.62437105 0.016942352 0.1851186 -0.48556563 -0.03277073 0.60710716 0.20580001 -0.95984036 -0.7450751 -0.17945257 0.7138514 -0.21505286 -0.26947466 0.2320901 0.0008676877 -0.9918339 0.27636296 -0.36532962 -1.2948397 0.08575155 0.32965693 -1.6660533 0.019132048 -0.12091627 0.44540453 0.07553644 0.36854506 -0.21574768 -0.60689956 -0.07709335 -0.53913724 -0.5732105 -0.62119114 -0.037801724 -0.71095914 0.17065457 0.0029992738 -0.03281339 0.86583835 0.5190324 0.2569995 0.01131088 0.37437275 -0.03254411 -0.03362835 -0.7535918 0.11919003 0.26020554 0.22571859 0.53079283 0.554018 -0.8106766 -0.8789556 -0.24105954 0.19888873 -0.1331468 0.19036475 -0.2211792 -0.6227709 0.087812565 -0.16211842 -0.33549765 0.20444916 0.3404446 -0.31137717 0.24382232 -1.4329978 -0.0073892553 0.0688168 -0.2085801 -0.008289037 1.0229377 0.18763888 0.053088885 -0.03362873 0.20023884 0.06334954 0.17941627 0.13965529 0.119242296 0.18285042 -0.017908769 0.035232387 -0.017697737 -0.29046246 0.5392505 -0.9698567 0.48283052 -0.54640585 -0.27510363 -0.030419227 -0.74858856 -2.158882 -0.16086407 -0.20878966 -0.980109 -0.37875345 -0.051950563 -0.2859795 -0.2736324 -0.7889525 0.04378709 
0.16840303 -0.26459467 -0.15605302 -0.26357466 -0.13448171 -0.6382015 0.6959158 -0.50356436 0.008088481 -3.3596075 -2.763006 0.082876675 0.7144159 0.40749657 -0.29122317 -0.40524176 0.18914369 -0.4757094 -0.38974097 0.18607393 -0.24790296 0.050129276 0.061729822 0.35617608 0.5206933 0.5501657 0.43644065 0.5582562 1.3184283 -0.44111156 0.6881481 0.06935011 -1.3492693 -0.4260723 0.5710328 -0.4488863 0.24958438 -0.669011 0.47117293 -0.07098931 -0.42973456 -0.81913245 0.19013149 0.08962328 -1.0097594 -2.2535107 0.19157898 -0.8693939 0.9456176 0.028967815 0.48167026 -0.5603136 -0.1756946 0.32692167 -2.1031406 0.23675612 0.18421617 -0.3480166 -1.2411826 0.4847412 -0.42400408 -0.33582404 0.17954375 0.18612021 -0.16497795 0.6795082 -0.57549196 0.43014687 -0.38876778 -0.16667128 -0.4552439 -0.19547375 0.19148347 0.2903658 0.07590408 0.059448 -1.1434102 -0.2902657 -2.6029255 0.83646536 0.3327666 -0.39469683 0.00043754833 -0.16222574 -0.16184397 0.14419074 -0.025820425 0.18423626 -0.27776653 -0.6717222 -0.26754242 -0.0683188 0.03844775 0.5460713 0.85419863 0.7911843 -0.03341218 1.1880186 -0.7421626 0.084025055 -0.07592745 -0.8915002 -0.17708082 -0.53402066 0.5026832 0.57601917 -0.3621456 0.41188 -0.09494156 -0.2874323 0.078842975 -0.20806524 -0.7221093 -0.3291274 -0.47110555 0.5772475 -0.7090832 0.57865995 0.16496076 -0.12784542 0.57548517 0.0347473 0.14161885 0.77010775 -0.08797094 0.6813401 -0.23603216 0.38820904 
0.1810927 0.0013090196 -0.455845 -1.2060665 0.21885024 -0.46049467 -0.446851 -0.18320094 -0.90191823 0.5729533 -0.7791093 0.018252447 -0.20603834 0.118365586 -0.2476436 0.3543204 0.13879026 -0.7665984 0.24400975 0.12657551 -0.5779395 -0.034996465 0.048273724 -0.6102953 0.8141191 0.4213776 -1.1719757 -0.21536998 -0.4601937 -0.2809151 0.010406745 -0.36827654 -0.15646753 -0.48332116 1.0132768 1.0689944 0.73030454 -0.121764466 -0.24367516 -0.3343616 -0.05195009 -0.72392946 0.26852813 -0.2163424 -0.38467094 -0.18235053 0.49751934 -1.1273916 -0.9504201 -0.2987587 0.053019755 0.001651884 0.33621526 -0.26804966 0.07547127 0.10121909 -0.7298743 0.78616047 -0.7169992 -0.0663004 -0.96952754 0.9484152 0.070007615 0.03501807 0.47203323 -0.012714617 0.08641128 -0.2831914 -0.9056801 0.07642343 0.1887045 0.089600295 -0.13075486 0.22653973 0.26023176 -0.7726591 0.31554204 -0.015622529 -0.24473616 -1.7924352 0.3110207 0.016546233 -0.07550806 -0.22473319 -0.32498765 0.30295202 0.48322037 -0.12988876 0.97727937 0.47775844 -1.4494886 -0.08400241 -0.5703165 -0.48888287 -0.39100897 0.18514025 -0.45938727 0.52900434 -0.039365012 0.24829984 0.20549363 -0.35028383 -0.2407936 0.49469835 0.45651242 -0.30952042 -0.41818917 -0.119384624 -0.15953018 -0.0986155 -0.5926863 -0.09285363 0.6770789 0.21752645 -0.27280402 -0.1131792 -0.5962318 -0.8865259 -2.250818 -0.3178849 0.33195287 -0.17429389 -1.3167316 0.2767054 -0.5640235 -0.5143013 -0.12891121 -0.36860582 
0.80666506 0.60608935 -1.0440414 -0.2515788 0.14378986 -0.4633799 -0.52697164 0.064020686 -0.08015974 -1.9109485 -0.63478863 -0.02744315 0.2042365 0.059161883 -1.2563201 -0.5056133 0.05914906 -0.29806936 -0.6034989 -1.0061512 -0.35015118 0.25354862 0.41677633 0.55615944 -0.5573455 0.20211448 0.37376785 -0.2690814 0.02363656 0.08919957 0.28461885 1.0882448 -0.5874534 -0.22495589 0.98138225 -0.13789417 -0.18580262 -0.12341853 -0.41501427 0.027845385 0.72256964 -0.47850215 -0.098766334 -2.0894938 -0.97663474 -1.1746293 0.14717093 -0.059333406 -0.5964606 -1.5924147 -0.034032423 -0.49468833 -0.09363182 0.025447674 -0.7881629 -0.01662674 0.80155045 -0.7172735 -1.1400591 0.52771086 0.6175625 0.121263176 -0.832575 0.15784982 0.4889351 -0.7416186 0.24270546 0.37052506 -0.24238501 0.041103758 -0.34743395 -1.2586478 -0.50169384 -0.036705956 0.22451225 0.15096423 -0.19983378 -0.4672501 -1.722469 0.32372266 0.24811555 0.39498478 -0.17061518 0.59014714 0.2350659 0.09395734 0.40582338 0.110982835 0.61848676 0.48335555 0.45590812 -0.63520056 -1.310551 0.3212128 0.452226 0.47483435 -0.15551215 -1.1174642 0.23411787 0.70073986 -0.059474397 -0.2734574 0.43331686 -0.22900052 0.037015326 -0.28303266 -0.7629407 -0.48041525 -0.06015009 -0.15738754 0.35428467 0.12003437 -0.23060326 -0.7449159 0.29779077 0.24452911 1.3061687 -0.07017163 -2.8348172 -0.28388774 0.21098568 -0.40363094 0.023267517 -0.40295118 0.112822056 -0.08773883 -0.32718074 0.29559278 
0.17846985 0.3682964 0.99533504 -1.0083251 -0.6704217 0.9663459 -0.050473247 -0.41301674 0.01604643 -0.70100933 -0.4833687 0.5489506 -0.3032164 0.08669384 0.61475515 -0.45295873 -0.11140679 0.042214114 0.80364025 -0.42544916 0.2728293 -0.20276244 -0.15625857 0.34221607 -0.4636155 -0.07156123 0.22278811 -0.75597066 -0.882473 -0.05380683 0.42625532 0.084581636 0.31444404 -0.30709717 -0.63099134 -0.6327639 0.3084809 -0.7895883 0.17403725 -0.20650738 -0.0062149153 -0.26397467 -0.09832869 0.5732821 1.3200247 -0.027290806 -1.2736181 -0.9101703 -0.6328251 -0.055639792 -0.51139516 -0.3632792 -0.57266814 0.10934785 0.07327484 0.14122686 -0.2800998 0.39585015 0.4875835 0.25922748 -1.6274611 -0.2004809 0.13725494 -0.0943615 0.82233405 0.16154523 0.4400887 -1.1332695 -0.14757551 0.22474506 0.29313365 -0.6682703 0.6947535 -0.22444591 -0.17186965 -0.87243927 0.03497182 -0.6159445 0.1935264 -0.33171535 -0.27855918 0.21733107 0.4026525 -0.9894473 0.023609398 0.13247281 -0.6588173 -0.05313779 -0.31000745 -0.19644186 0.037149955 -0.31213474 -1.4784132 0.16555153 -0.2207991 -0.2385497 -0.023214214 -1.9599264 0.29858908 0.2195861 -0.027485814 0.16543782 -0.6078274 0.12572233 0.15029047 -0.07953988 0.07004044 -0.05352896 0.29320064 0.5560355 -1.4090285 -0.35926014 0.09014378 -0.72365373 -0.4760622 -0.2855035 -0.5138534 0.6472621 -0.64001393 -0.28905982 0.28054282 -0.8294925 -0.80871075 0.2725045 0.012391839 -1.0799783 0.25088888 0.08932436 
0.39360029 -0.28006625 -0.052661832 -0.47659817 0.07248875 0.010824463 -0.7765839 -0.46205726 -0.070373625 -0.42296523 0.20144452 -0.27333146 0.20444293 0.5020076 -0.1614432 0.40710178 0.104138434 -0.5565203 -0.22475627 -0.93714046 -0.483665 -0.31764698 -0.30362824 0.44655588 0.05791405 -0.45086536 -0.6002453 -0.17301862 -0.9917719 -0.18386908 -0.103624895 -0.9054493 0.3028225 -0.0980108 0.34939837 -0.7711419 -0.1842033 0.6386404 -0.40428513 -0.24242812 -0.52361053 0.16663508 0.06855151 -0.2807281 -0.57573044 0.020656645 0.34741393 -0.35555556 -0.1139622 -1.2827688 0.2655061 0.30641863 -0.80276024 -0.3219482 -0.00257206 -0.51977205 0.011696885 -0.5699409 0.09947599 -0.3272152 -1.5725665 0.5308778 0.3926632 -0.09209951 0.28256628 -0.31163326 -0.37393567 0.38293663 -0.9689925 -0.21669018 0.003327177 -0.6841647 0.22803897 -0.21400715 0.020081677 0.52754575 -0.054614168 0.085517414 -0.9587587 0.47291744 -1.0576626 -0.084226914 0.7415142 0.61573946 -0.975775 0.6389622 -0.2000644 0.2147691 0.039970927 0.41125512 -0.9527673 -0.37645048 0.16811444 -0.70648986 -0.15353082 -0.25353995 -0.60748583 -0.7269934 0.38497955 -0.2122769 -0.20251183 0.2801855 0.16943638 -1.7054427 0.26098981 0.53385246 -1.1774402 0.30654818 0.37546095 0.100563034 0.5295733 -0.68124825 0.16471905 -0.20898603 -0.2029315 -0.2401415 -0.7360296 -0.36346358 0.48415014 0.042083267 0.10148623 0.42584252 -0.0075850366 0.06390186 -0.09468885 -0.10385672 -1.2440488 -0.7724076 
0.43106252 0.918537 -0.042565193 -1.0658654 0.7351064 0.3508443 0.5114848 -0.5331743 0.38711587 -2.1502206 -0.84076524 -0.030135319 0.3556661 -0.11270821 0.048440743 -0.012982219 0.052923623 0.36362588 0.26590127 -0.3082195 -1.3107215 0.45300496 -0.95874643 -0.66572076 -1.573487 -0.1520921 0.34497914 -0.96898437 -0.48609525 0.033099934 0.004943243 -0.54851955 -0.22337088 0.36610863 -0.39740574 -0.28678888 -0.18239442 1.5868526 -0.06650301 -0.25004053 0.28569734 -1.578043 0.5635772 -0.9624069 -0.17050993 0.6502103 -0.68333465 -0.8441299 -0.9406101 -0.8848001 0.005593178 -0.786577 0.048829067 -0.47192335 -1.6666483 0.007999147 0.21709685 -0.42912132 0.2915582 -0.116755664 -1.6189464 -0.5363569 -0.37939447 0.17022058 0.30121383 -0.1788385 -0.7937628 0.15251188 -0.08161426 0.13075334 0.18609814 -0.7607007 0.3890445 0.10889159 -0.39993435 0.20114979 -0.7111928 -1.7370565 -2.6461358 -0.5300965 -0.44830915 -0.69576335 0.053461615 -1.0186838 0.16242611 0.34987855 -0.01321794 0.10495947 0.760465 -0.71502125 0.52275705 -0.4055823 -0.86624944 -0.3215056 -0.319697 0.054560106 0.5929912 0.41508356 -0.7734766 0.18117657 -0.8582186 -0.59972924 -0.23947714 -0.035669297 0.06321402 0.12365782 -0.68704206 0.358198 -0.16995 -0.12715335 -1.7149043 -0.20904388 -1.1110927 0.016702749 -0.42538282 0.021492084 0.112921074 0.19261383 -0.23529884 -0.5572489 -0.49087793 -0.42971534 -1.1912577 0.21737848 -0.27530786 -0.20174819 0.51041216 -0.08472349 
0.16524713 0.39883226 0.43965456 -1.0919576 0.21441226 0.40798613 -0.36135375 -0.1782506 0.2823528 0.058902383 0.2034839 0.42153072 -0.11588718 0.032861866 0.4995231 -0.11204679 0.46846074 0.11555677 -0.09502878 -0.76132107 -0.6419554 -0.30937576 0.6057103 -0.24576178 -0.39939734 -0.20724459 0.05084935 -0.4377545 -0.7009591 0.6353201 0.1978477 -0.14210577 -0.30106837 -0.94123477 0.4170264 -0.40038872 -0.66371685 0.009148328 1.2504365 0.013731577 -0.18344215 -1.6803864 -0.2333646 0.48493844 -1.0642955 0.20995052 -1.4774735 -0.84893167 0.35060748 -0.06811029 -0.27139005 -0.003204931 0.5343181 -0.20903276 -3.1934595 0.092532486 0.42258516 -0.032064833 -0.84511626 -0.27449685 -0.5243097 0.3330605 0.12065171 0.28139666 0.4930632 0.21143785 0.37216944 0.31544653 -0.30908388 -0.0119173 0.2737726 0.34183213 0.011349532 0.19850942 -0.2218628 -0.09935196 -0.5214563 -0.08143904 -0.8727896 0.22240172 -0.05732567 -0.04562969 -0.17806415 0.14944139 0.27625227 0.12731478 -0.4245071 0.18530083 -1.1263362 -0.19075194 -0.17801018 -0.027863631 -0.86027455 -0.32592702 0.095815785 -0.2094388 -0.26531145 -1.0346122 0.262568 -0.4956717 0.0341172 -0.06266536 0.19301991 -0.59416014 0.08712984 0.50809354 0.4507214 0.66321975 -0.1567589 0.6756176 -0.29180032 -0.38457167 -0.5906066 -0.04239563 0.30640447 -0.83848506 -0.16825187 0.8224867 -1.2044957 -0.44599384 -0.08620007 0.5077593 -1.1272361 -0.22394368 -0.7771513 -0.16882515 -0.60421103 -0.31971213 
0.09278733 0.09381389 -0.04086499 -0.024326935 -0.02155447 0.061724998 -0.00870686 -0.051983852 -0.10323185 -0.091570795 0.043881096 0.043256782 0.09400738 0.01850029 -0.040314548 0.10130044 -0.013523981 -0.106607735 -0.028839976 0.038593642 -0.048405997 -0.017510995 0.09003743 0.06419214 0.00030329078 -0.085651115 0.028339751 -0.0666569 0.037930883 -0.061091427 0.054213278 -0.0013468713 -0.03127069 0.023014031 -0.028389104 0.04753036 0.08980178 -0.07935637 -0.07183484 -0.098731175 -0.09264585 -0.10453606 0.034378313 -0.041015945 0.012497172 0.093992956 0.03375525 0.0831959 -0.096725255 0.03873492 -0.058403336 -0.0823192 0.03300775 -0.030314445 0.012989312 -0.09222066 0.07320022 0.09772014 -0.0827727 0.0871344 -0.03397458 -0.010123879 -0.105871 -0.025899254 -0.0111474395 -0.03299485 -0.017212093 -0.03442599 0.046151735 0.027456664 0.047452204 0.044583865 -0.021976076 0.049121834 -0.09995744 0.028704606 -0.06773724 0.011635572 0.092625044 0.09310167 0.07291704 0.04956635 0.042292513 -0.07532762 -0.03270656 -0.04108669 0.0729635 -0.07416454 0.02099482 -0.091747284 -0.10271552 -0.07250914 0.052232705 -0.0038092881 -0.04533758 0.067857556 -0.0045275167 -0.07674728 0.019101508 -0.030508459 -0.058819927 -0.047006708 -0.006285511 0.09175875 0.05652847 0.09683014 0.041222416 0.049165808 0.08897988 -0.10216945 -0.025957406 0.040405057 -0.06916636 -0.027842946 0.006015204 -0.09674562 0.09077602 0.10498317 -0.090222225 -0.09340493 -0.07702081 -0.010216564 -0.037672937 0.021658458 -0.056624487 0.10537473 -0.046548486 0.013683483 
-0.023653746 0.015648752 -0.021373421 0.00021398813 -0.10768562 -0.09380157 0.027350165 0.08702568 0.012439333 0.005510062 -0.02298925 0.08540236 -0.07579984 -0.056097046 -0.009398036 0.05026073 -0.08567362 -0.08815676 0.03299261 0.032815553 0.022000901 -0.04033775 -0.033108078 0.09375439 0.1063283 0.039783023 0.044727392 -0.095726036 -0.054161016 0.031266145 -0.094009414 0.09812721 0.057028927 0.08592165 0.057916664 -0.06504233 0.005044535 -0.0793096 0.0040814504 -0.038309604 -0.0048320964 0.10768361 0.051700123 -0.07053611 0.06472754 -0.10190268 -0.05061615 0.10670372 0.018341072 0.02338887 -0.028851278 -0.108034335 0.0752847 -0.10099756 -0.0523433 0.107546665 0.086249866 -0.091993585 0.10490098 -0.10673454 -0.058421686 0.0262141 -0.003920883 -0.045361683 -0.06077201 -0.060918555 0.030890383 -0.07536536 0.079731174 -0.08036511 -0.061437637 -0.09182866 -0.0066201016 0.05581639 0.00017648935 -0.016245678 0.016364686 -0.07646175 -0.073314376 0.012749955 0.053070955 0.08425733 0.018070005 0.06822086 0.019982673 0.003353566 0.026489131 -0.08386321 0.068828486 0.030470215 -0.06191315 -0.008665405 -0.043494776 0.062215276 -0.048839368 0.096335344 0.0060693026 0.04127819 -0.098784596 0.08862365 0.096393116 0.019941278 -0.012613624 0.07325951 -0.08458152 0.044628747 -0.061005972 -0.0074632466 -0.024901353 -0.015411258 0.015692271 0.06533121 -0.028358027 0.013579369 -0.06787723 0.09561417 0.084515385 -0.079802305 -0.10271307 -0.020562999 0.035098515 -0.04113108 -0.061933544 0.10678054 0.079269 0.038020663 -0.08615242 0.10715937 
-0.09033852 0.027657919 -0.06792657 0.007947512 -0.002925463 0.08246521 0.016118594 -0.041418366 -0.0006588921 0.08175296 0.0022811815 0.09899644 -0.02026593 -0.028719775 -0.031953998 0.076579176 -0.0011147633 -0.098197356 -0.060997844 -0.06656736 0.020992734 0.046033345 0.025605641 -0.07869965 -0.03608536 -0.035850212 -0.05021636 0.061047293 0.010701574 0.00023324043 0.030965261 -0.08043407 0.03856688 -0.0073608086 0.0042865276 0.0033539757 0.0021129772 0.046460472 -0.030377448 -0.081095986 0.046791114 0.022194631 0.016676106 -0.07555635 0.068345 0.10378683 0.05289679 -0.079497986 0.102183156 -0.033183828 -0.07305584 0.027307741 -0.00044243038 0.06629353 -0.026565246 -0.09899957 0.00018603355 0.054827936 -0.0060532764 0.08421894 -0.010951906 -0.047033317 0.08051454 0.0058323666 -0.038726196 0.0066926777 -0.08142694 -0.034117334 -0.030656427 0.006035723 -0.10075048 -0.04992809 -0.02421885 0.036166556 -0.0057134405 -0.0032673627 -0.100814134 0.07291149 0.04369975 -0.09152728 0.015028626 -0.020904124 -0.09260127 -0.04709957 -0.03905744 -0.00802809 -0.034066617 0.020531021 0.09773188 0.03625328 0.013053909 -0.037201807 0.041446574 -0.09310755 0.034620337 -0.09245464 0.011497028 0.062300913 0.07446871 -0.06867319 0.012840308 0.036820598 0.047313787 -0.08824108 -0.09295866 0.005329214 -0.04970035 -0.012391299 -0.019822754 0.0039348975 0.049179338 0.027644835 -0.004564166 0.0785665 0.052787386 0.07692581 0.029643632 -0.06668243 0.09950187 0.04747107 0.07377281 0.030958734 -0.015632264 0.07513934 -0.00063633174 -0.055038825 0.008204088 0.058968104 
0.035567217 0.09151869 0.043590985 -0.0645306 -0.0046042725 0.017043121 -0.08657709 -0.10575798 -0.082449615 -0.04185708 0.019168787 -0.021478906 0.08035589 -0.034371145 0.098578684 -0.070952594 0.010105811 -0.031355448 -0.08187179 -0.028643847 0.049867205 0.033529647 -0.097434916 0.02203726 0.009663105 0.016060263 -0.03512592 0.10389004 0.047852077 0.04479312 -0.06900929 0.08276772 0.06286534 0.061550833 0.06678709 0.004058428 0.07528026 -0.037096456 0.07566025 0.09688672 0.019287772 -0.050869882 -0.009861529 -0.058235884 -0.011417016 -0.09227558 -0.013507254 0.0039078295 -0.08806155 -0.103510484 0.01990997 0.06808125 0.08273647 -0.028979242 0.04835763 0.10652035 0.05640065 0.055881582 0.0016267747 -0.10063729 0.098086186 -0.03208839 0.07056669 -0.052104484 -0.106729686 -0.04030951 0.07442584 0.0071989372 0.039273076 0.08351547 0.0009371191 -0.04873737 -0.07440772 -0.070597425 -0.033673048 0.09323121 -0.102233894 -0.0793104 -0.059784252 0.08183264 -0.018249094 -0.048354898 9.304285e-05 0.058385707 0.10032923 0.034697913 -0.101526946 -0.013173409 -0.003846787 0.009103626 0.022692002 0.09672425 0.037041165 -0.08643836 -0.032046117 0.002808258 -0.04006035 -0.04463592 -0.036622435 -0.057145532 -0.045720875 0.026963674 -0.022345096 -0.002171278 -0.1081312 0.012553617 0.047123216 0.043784104 -0.1005652 -0.03846348 0.09004102 0.028898232 -0.09493149 0.010707125 -0.10163364 -0.017214261 -0.10467891 -0.07739428 0.07959864 -0.0011751577 -0.068739444 -0.027646251 -0.08730466 -0.09856628 -0.04301182 -0.036482938 0.057864822 -0.08822879 
-0.0866531 -0.056592897 -0.0069766864 -0.013478659 0.012445763 0.097717814 0.0054987296 -0.013360269 0.034530602 0.055832632 -0.07388141 -0.073933676 0.0462491 -0.073368475 0.0879984 -0.033965185 -0.08168029 0.057485394 0.04162409 0.007847816 -0.034513563 0.042152442 -0.0788313 -0.027383126 -0.093861476 0.08334521 -0.10422531 0.021212213 0.018653966 -0.0948244 0.01114656 0.06508141 -0.09156889 -0.09425809 0.032929964 -0.08547822 -0.093304604 -0.10797704 0.07157863 -0.07960961 0.084301926 0.07064726 -0.04634402 -0.07681387 -0.014375724 0.009964868 -0.069502994 0.0601468 -0.08206178 -0.04277257 -0.09274875 0.0605636 0.04543989 0.00990659 -0.059816383 0.056040205 -0.06609035 0.0948314 -0.011533983 0.03382542 -0.10780367 0.06311386 0.06324934 -0.07499468 -0.00090175867 -0.00029791892 -0.024613582 -0.06746636 0.05253274 -0.03230132 -0.10767218 0.082360856 -0.04090915 -0.09783749 -0.03182503 0.09496533 -0.07688391 -0.08346492 -0.056072578 -0.07931079 -0.026504025 -0.106427096 0.10589101 0.097725965 -0.08854155 -0.06972003 0.022468723 0.06879597 0.08613724 0.059970357 -0.01938957 -0.07811596 -0.08933112 0.0068112463 -0.026673518 0.01310654 -0.016760163 0.09504693 -0.10079996 0.049837016 -0.025926434 -0.010641672 -0.06909167 -0.07043702 -0.052538447 -0.07789327 0.011261411 -0.041523695 -0.008070521 -0.08432161 -0.096252754 -0.059643332 0.09038951 -0.026926525 -0.0884894 -0.05788126 -0.052436113 0.064822175 -0.005930856 -0.03734131 0.076636426 -0.016424716 -0.07108541 0.016303025 0.103323705 0.06465294 -0.07403957 0.09359052 
-0.01694081 0.09204193 -0.033551328 -0.0023383498 -0.038308963 -0.073593915 0.09277136 0.019715391 0.072549276 0.041357927 0.048322506 -0.029692024 -0.024252012 -0.031942904 -0.030102186 0.009407535 0.056008212 -0.03757003 0.034291647 0.08162204 -0.04091624 -0.057859555 0.0039219707 0.07603829 0.014939636 -0.07498402 -0.106468 0.026604779 -0.032568887 -0.0942249 0.06265665 -0.087784275 -0.028990261 -0.019256212 0.091616504 -0.056234814 -0.058092073 0.04497666 -0.09022501 0.074282266 -0.022117227 -0.06153961 0.087107964 0.0649823 0.10569609 0.03257797 0.013603523 0.0131704435 -0.07017015 0.047590293 -0.00018689036 -0.084074356 -0.07746058 -0.09378407 -0.009048961 -0.006316453 -0.03488847 -0.053110827 0.07595041 -0.074376695 0.051351853 0.07068018 0.021711983 -0.07221037 0.027022101 0.03222116 -0.04957778 0.071453474 -0.05976701 -0.014177918 0.089577265 0.015631795 0.060726784 0.09253106 -0.0028051361 0.08800795 0.08865435 -0.049048115 0.066423275 -0.09556576 -0.049660757 -0.08630611 -0.029312007 0.07085926 0.058558963 0.072960936 0.075229935 -0.0077487826 -0.016097762 0.07610486 -0.09077535 -0.071753204 0.04515717 0.08076937 0.043427773 -0.100231305 -0.045552053 0.023222111 0.059104063 -0.09295071 -0.04545065 0.10170815 -0.023273833 0.04055462 -0.09367885 -0.035050914 -0.10078203 0.016260803 -0.09524822 0.03416071 0.106499486 0.085413255 0.0961367 -0.020586334 0.098617814 0.040827043 -0.047619864 0.007168554 0.03506545 0.0044852644 -0.017734602 -0.08387172 -0.043060012 0.012575373 -0.10675851 0.097471274 -0.09122247 -0.069307774 
0.03724111 -0.102829345 -0.060445413 -0.005759299 -0.09886006 -0.09798806 -0.0524867 0.041332655 0.10678267 0.05559335 0.045991562 -0.0439865 0.08897833 0.016238764 -0.0072523057 0.07296745 -0.09477735 0.031232156 -0.04874986 0.0672914 0.07490518 -0.033564746 -0.06853847 -0.014046885 0.025109611 0.01904779 0.093901925 -0.023317367 0.10001386 0.023288332 0.04326027 -0.09872487 0.04052957 -0.018931061 0.10078225 0.07505559 0.029728152 -0.08152796 0.039421476 0.09431069 -0.05811313 -0.08152409 -0.058944277 0.04449468 0.00064209104 -0.0072347596 -0.0133891255 -0.04054048 -0.0852171 0.0969548 0.10031877 -0.07527435 0.0886248 0.101380415 0.085928 0.035622828 0.08420769 0.037883393 -0.022732265 -0.038381353 -0.017281651 -0.06231289 0.09471605 0.10553976 0.044401906 0.009050794 -0.024735503 0.037407942 0.06012114 0.057258807 0.054053552 0.08091668 0.06833912 -0.038727358 0.09695669 -0.01669693 0.08858345 0.0546379 -0.08087792 0.07992927 -0.08200709 0.039684616 -0.035453826 0.075661115 -0.082092464 0.05502584 -0.0055234507 0.027084075 0.10373657 0.05289387 0.01997248 -0.03741967 -0.07266751 -0.009703286 0.016986229 -0.08573745 0.019920982 0.098841794 0.079962246 -0.017192118 -0.039253876 -0.092430465 -0.010501839 0.010368817 -0.042781137 -0.095532954 -0.025610574 -0.068027616 -0.0026002377 0.093284406 0.08919955 0.06459237 -0.09523356 0.010551184 0.023025416 -0.09767789 0.044503443 -0.039166562 -0.07556701 0.04605011 -0.08229102 -0.06186845 0.03945943 -0.023920722 -0.07447335 0.08705435 -0.044589825 -0.029301345 
-0.048961163 0.009672679 0.10316371 0.10709437 -0.10698704 0.023407452 -0.006926924 -0.013288647 -0.09697315 -0.039293624 0.053230457 0.005466573 0.07556378 -0.031833418 -0.017836913 -0.04276932 0.022908472 0.052239336 -0.090782575 0.10046593 -0.034339033 -0.09346424 -0.036431186 0.07757089 0.089167304 0.08987578 0.09096513 0.056880422 0.017630853 0.048900403 0.028050773 0.09345827 -0.038669832 -0.09367666 -0.0935627 0.08055494 -0.049305566 0.0679139 -0.07988495 -0.044073217 0.027391769 -0.09999546 0.079424374 -0.011979766 0.029082306 0.026011996 0.086467065 -0.0942561 -0.054283768 0.046451904 -0.010288753 0.10518994 -0.058635727 -0.014123566 -0.0074114725 0.0031362772 -0.0014978573 -0.096457735 -0.031220205 -0.047573123 -0.023310326 0.01158341 0.08521896 -0.08921978 -0.08471338 -0.063336626 0.05595649 0.008567795 -0.01887092 0.08009643 0.10577204 -0.10453546 0.004878424 -0.005297415 0.022958048 -0.0105535835 -0.09606231 -0.045783386 0.01999142 -0.0051225275 -0.029440403 -0.032616273 0.055158354 0.043357722 0.077173986 0.0388915 -0.066611245 0.031792514 -0.057298556 -0.0896467 -0.06729177 0.023282431 0.021426253 -0.09241619 0.0112898275 -0.07955954 0.076562606 0.07479026 0.075666524 0.089549415 0.061622106 0.049359553 -0.06121031 0.0020079836 -0.0049313307 0.07006023 0.019333102 0.041936256 -0.09906652 0.007999003 -0.024686694 0.014852606 -0.015596747 0.089872085 0.07184736 0.022101201 -0.022330925 0.04537923 -0.07819434 0.051472105 0.08007183 0.08905173 -0.019216202 0.049149103 -0.03572627 -0.044678606 0.036240228 0.0770838 
-0.42502478 1.3587956 0.8724955 0.28112826 -0.86910385 -0.47005004 0.60069317 -0.36881325 -0.5319917 -0.5265913 0.39539203 0.38324547 0.42014003 0.016524976 -0.82746893 0.0530242 1.1659534 0.36113176 -1.1395397 -0.043085095 0.24105453 1.6374229 -0.3364367 -0.51015127 -0.26181865 -0.34717897 0.03698457 -0.6828077 0.4057301 -0.81663704 -0.79253113 -0.33696315 -0.46284088 0.7260226 0.8314039 0.8754046 -0.21939564 0.9651646 -0.12624541 -0.87001854 0.09340121 -0.4603545 0.095617525 0.29843608 -1.715566 -0.36400485 -0.45348597 -0.3986855 -0.6777569 0.3640529 1.0641683 -0.25111613 -0.49063057 -0.6950957 0.31524092 1.3897982 0.16933526 -0.9919923 0.968923 0.09981166 -1.0426966 -0.47085467 0.5224759 0.5665033 1.6900017 -0.3427803 0.38657725 0.16044354 -0.42209628 -0.014186784 -0.667226 0.29285058 -0.3623496 -0.48120248 1.1198574 0.57506096 0.3886304 -0.37502298 1.4709945 -1.6643873 0.6343123 0.67783034 0.12055315 0.08315767 0.102789864 -0.17112498 0.52940714 -0.060928423 -0.017315691 -0.06897688 -0.15598832 0.033358447 -1.011085 0.5010292 -0.10383029 0.81365174 0.017074116 0.22358079 -0.1340916 0.37449148 -0.49896917 1.3466079 -0.7505441 0.7361424 -0.9084456 0.2872347 -0.39568365 0.043475036 1.1187981 -0.290336 -0.8915338 0.27595827 -1.8270212 0.29009548 0.25384277 -0.23673278 1.2417762 -1.0087736 0.7386109 -0.34410673 -0.511644 0.9596307 -1.3030682 1.1432627 1.6234651 -1.0870948 -0.546653 -0.61604685 
-0.18248598 0.3736895 0.27627003 -0.70041966 0.8697928 -0.5888796 0.19477361 -0.06613898 -0.5352786 0.32031026 -0.4908311 0.28128362 0.2823315 -0.3148124 -0.14454128 -0.37819794 0.35760573 -0.13941343 -0.07609334 0.30009514 0.28793013 0.19009756 0.07678185 -0.04986429 -0.03017282 0.29559937 0.53011864 -0.5184427 -0.08196738 -0.36769828 0.13744476 -1.0768225 0.21454026 -0.019912258 0.0674804 -0.14888994 0.6643605 0.30432084 0.12447317 0.017162383 0.037143312 -0.22781911 0.13149564 0.6890551 0.31226072 -0.58210564 0.4225298 -0.2929172 0.41500255 0.41364294 -0.54638827 -0.71425354 0.38696185 0.1335566 -0.19068915 0.62704676 0.50748426 0.27437684 -0.3089758 -0.34585273 -0.13561395 -0.8385815 -0.12743169 0.43341735 -0.56228983 0.032547805 -0.75807196 0.025065243 0.75847733 0.5454742 -0.018011803 0.5077726 0.091957726 0.42517138 0.52565485 1.1992916 -0.31860435 0.66643083 -0.5865599 0.020110523 0.23084989 0.056821764 -0.0015525623 0.51921093 0.5528027 0.43634364 -0.4276599 0.7034519 0.9181776 -0.14931373 -0.7959329 -0.52405435 0.53474575 0.4420593 -0.23746626 0.55697745 -0.04250321 0.46487674 -0.0016345896 -0.33761376 -0.51398396 -0.15299089 -0.23640104 -0.40354443 -0.74035305 0.22690326 0.63345504 -0.30711377 -0.046913356 0.3544622 0.049148247 0.15458998 1.2804663 0.22174138 0.06427517 -0.56845766 0.35842484 -0.14714855 0.26141888 -0.37668148 -0.31489018 0.08718032 -0.37083808 0.414862 -0.3093835 -0.5112389 0.37723872 -0.23096181 
-0.19847105 -0.22702505 0.41431296 0.5336915 -0.1254802 0.17781064 0.519454 -0.056241415 -0.409575 0.11800854 -0.29426005 -0.4142315 -0.09524314 -0.18135542 0.8402554 -0.11655407 -0.19805369 0.019498682 -0.89289534 0.0026789152 0.6020577 0.55109465 -0.4296705 1.1231748 -0.6937533 1.5203618 -0.37787348 -0.45298812 0.2533733 0.11561596 0.33245233 0.7292026 -0.92797214 0.81519926 0.41352472 -1.8355703 1.1807082 -1.0380094 0.45537567 -0.077501014 0.2799866 1.4528686 -0.6985826 -0.48968267 0.015336335 -0.1844042 0.17887674 0.2810803 0.38266963 -0.1582786 -0.2896146 -0.78056777 0.35400274 -0.79794425 1.751259 0.28942597 -0.11233396 1.3369682 -0.89182115 -0.79862714 0.007356344 0.29802665 -0.0032249703 -0.13714404 0.45870492 1.0326425 -1.321523 -0.18806642 -0.26800105 1.2049098 -0.13440908 -0.03962061 0.44085106 0.6782031 1.8007193 -0.40493125 -0.22119646 0.9955623 -0.40760276 0.4488661 0.53494906 0.042069316 0.7953646 -0.8270039 -0.46206474 0.9336868 0.29571876 0.6408245 -0.5196819 0.0685471 -1.1112856 0.06298492 0.39721546 0.14820318 -1.0066669 0.6387226 0.22803886 1.0965414 0.1218522 -0.29780865 0.3018283 -0.70552814 -0.6989588 -0.1540436 -0.1996943 0.49163145 -0.5241183 -0.02200033 0.30722746 0.08089983 -0.7174307 -1.346904 -0.51070046 -0.94253683 0.79468954 -0.054539204 2.335057 0.37681022 0.96435416 -0.9488131 -0.26592395 -0.9058994 -0.5664881 -1.4251108 0.17814814 -0.9300401 -0.11234939 -0.21643229 
0.57354456 -1.1779913 1.1690888 0.8430242 -0.23617816 -0.572344 -0.63884634 -0.58312076 -0.6782656 -0.23206341 -1.5774511 0.8297137 0.6446381 0.7108259 0.4617195 -1.0289942 0.0025494462 0.5631383 -0.48371518 0.21256375 -0.20224601 0.5307466 0.092346266 -1.006971 0.0183483 0.3588293 -0.16684823 0.013224604 -0.18554848 -0.11470847 0.9485149 0.024869125 -0.49537724 -0.40708804 -0.41361707 0.23460047 1.1962048 0.57985365 -0.907364 0.76533604 -0.25979167 -0.045038525 0.47548032 -1.0098937 -0.22787413 -0.18206131 0.72949463 0.59924126 -0.828768 -0.2624119 -0.85014 -0.7509994 -1.2647058 -0.8613948 0.52467376 -0.19251454 1.2643366 -0.4545607 -1.1596183 -1.3015139 -0.042142227 -0.3051538 1.2656056 0.699731 -0.64941376 -0.0432501 -0.6804196 0.055548035 0.6474972 0.49673462 -0.32943812 -0.74381566 0.062550366 0.6403108 0.8673647 -0.21485777 0.15443623 -0.46118793 -0.61653984 -0.51807404 0.17439245 -0.13257354 0.52143437 -0.7773328 1.447056 0.44851717 0.2043238 -0.61383647 0.056196146 -0.43428573 0.8647373 0.22918807 0.072314754 0.37444216 0.07737994 0.291026 0.5401223 -0.3106101 1.105698 0.18299079 -0.44595233 0.31207657 0.081523485 -0.61658245 -0.051061686 1.1331093 -0.44845325 -0.94615585 0.2859098 0.16502258 0.4350014 -0.9810102 1.9203618 0.2956261 -0.65847987 1.0380627 0.34415817 -0.103435166 0.27487153 -0.5694107 -1.8437824 0.0519759 0.12010899 -0.70304203 1.073633 0.2176794 0.28645292 -0.17558093 
