-0.4257189 -0.24526505 0.050511066 -0.091561176 -0.29729012 0.13632418 0.041653655 -0.09739276 0.9613741 0.014453773 0.4810961 -0.8932634 -0.0748768 0.13087367 0.20386015 -0.73791933 0.59443456 -0.44709808 -0.47505793 -0.41341254 0.14766431 -0.11739033 -0.0041935225 0.03712998 -0.41695273 0.0104530435 0.001675973 0.07363876 0.08538772 0.17912187 0.58884484 0.021864172 
0.6923564 0.55787075 0.8198404 0.81877714 -0.5183967 0.44189224 -0.02387033 0.6372114 1.0900472 0.30335602 -0.033952106 -0.35512778 0.4234115 1.5656283 -0.22849499 0.26930013 -0.16597724 0.17984961 0.63183045 0.64218044 -0.11084338 0.53537786 0.30671877 0.65453535 0.5071873 0.4509753 0.5659148 -0.22812566 0.5782909 0.46812075 1.5991027 0.45068654 
0.037420467 -0.25210723 0.0717502 -0.5355273 -0.3900704 0.6745723 -0.049063098 0.36572516 -0.6511875 0.30678082 -0.38159052 0.56562114 -0.022238549 0.3797318 -0.22208948 -0.16603565 0.14852291 -0.18200824 -0.1894354 0.40304452 0.123321004 -0.0031565276 -0.05724918 -0.030078296 0.9542019 0.22156064 0.6696934 0.21403214 -0.089820586 -0.20553227 0.029017638 -0.0853109 
-0.6314548 -0.4930011 -0.2754321 -0.54377663 -0.27018023 -0.90123975 -0.68825215 -0.102239184 -1.3468086 -0.5962005 -0.21645002 -0.30747914 -0.79845834 -0.4520658 -0.12884684 -0.2735791 -1.0081083 -0.09156639 -0.6713155 -0.42946246 -0.51084137 0.010185231 -0.34066597 -0.6604141 -0.5130205 -0.38895753 0.3363596 -0.40083808 -0.37580267 -0.58590966 0.28600025 -0.59564805 
0.09205879 -0.39828598 -0.6652869 0.0077843177 -0.008304608 -0.4115319 -0.0035981855 -0.69592637 -1.2477652 -0.0857583 -0.09240515 -0.41145176 -0.29103938 -4.1207004 -0.486606 -0.96150196 -1.5396281 -0.19996534 -0.2612008 -0.17865601 -1.0917089 -0.037112385 -0.7812419 -1.6418452 -0.91996694 0.012451058 0.3167355 -0.5069699 -0.042545155 -0.37192148 0.2850919 0.013490213 
0.4441033 0.4398364 -0.065778606 -0.17481177 0.75184894 0.2942933 0.6000376 0.48967063 0.016364137 0.5515074 0.55781233 0.77151614 0.17675273 -0.6387145 -0.45875272 0.34266797 -0.77246577 0.01647803 0.45572644 0.7911058 -0.03631746 0.1940922 0.5596 0.17881614 0.08704859 0.17878506 0.5398547 -0.8183797 0.31675822 0.079789594 -0.013652658 0.25291774 
0.38119522 0.26996517 -0.046349805 -0.43479556 -0.41764057 0.06901757 0.036758926 0.49717933 -0.94910824 -0.25203225 -0.777367 -0.57494485 0.02867757 1.5028855 -0.59771127 -0.2978958 0.47193947 0.15948589 0.19019838 0.3208524 0.49822205 -0.27510044 0.4930452 0.34056494 0.41939467 0.032955 0.20616598 -0.3064229 -0.031241126 0.04267699 0.2847446 -0.016214726 
0.30656052 0.53518265 0.42069885 0.42409056 -0.8927288 0.1823053 0.40472823 -0.052075755 -1.2627889 0.005895567 0.8473191 0.66000366 -0.07392454 -0.3290444 -0.031898793 0.2313995 0.3148628 -1.0742427 0.57126606 0.13897058 0.1967667 0.29418072 0.011735895 -0.21932831 0.09825866 0.18810298 -0.20665379 -0.25595427 -0.360072 0.39936477 0.89093673 0.19206126 
0.5968033 0.35137773 0.63278687 0.55529916 0.13188505 0.8245687 0.32761675 0.2447556 -0.604285 -0.15325643 0.3670719 0.94757676 0.46847892 0.20435289 0.2208479 0.55169827 -0.2830367 0.25218493 0.66149664 0.5372375 0.6164899 0.3440178 0.6885939 0.47887573 0.967724 0.9011557 -0.047768895 -0.9764341 0.4018491 1.1103218 1.3877574 0.21342193 
0.00202372 0.7110912 0.69398934 -0.41538662 0.19750538 -0.20996407 0.12837566 0.38196617 -0.07913514 0.34155163 -0.16328518 0.34531733 0.1668828 0.045776673 -1.0544018 -0.44961083 0.42659575 -0.5243965 -0.30754006 -0.031640153 0.63961846 -0.4084888 -0.37524018 0.07084405 0.33009887 -0.08763813 -0.6579625 -0.35701635 -0.06762154 1.0772663 -0.007028719 -0.016568875 
1.1045281 1.1485472 1.3082972 0.32834452 -0.47157425 1.1260921 1.2058166 1.7435454 0.30591497 1.199569 0.32544598 0.003023429 0.8857414 0.22646262 -0.032382853 0.8736513 0.872889 0.52235883 1.2002109 1.5557795 0.9959404 -2.2596996 1.1347313 1.6615725 0.34863585 1.4229223 0.53102124 -0.033361536 0.8760983 0.9435364 0.8599306 0.96766335 
-0.35522315 -0.19189191 -1.0809115 -0.585386 -0.253585 -0.89631337 -0.46746755 -0.43384245 -0.29197136 -0.29802716 -0.19151539 -0.6077034 -1.110629 -0.6313019 -0.01880798 -0.37651098 -0.10772264 -0.6734919 -0.8350545 -0.38012165 -0.31734547 -0.3306745 -0.57579005 -0.5508798 -0.4706563 -0.5594851 0.07510531 0.06337518 -0.25282773 -0.27578476 0.15069711 0.020428723 
0.03909213 -0.09589154 0.2273713 -0.70808303 -0.46950918 -0.107380345 -0.16388491 0.5793548 -0.26923746 0.3846396 0.50514007 0.90789676 0.022451665 -0.37328452 -0.22388305 -0.5879257 0.5140804 -1.0957987 -0.3145264 -0.0813412 -0.08325462 -0.8441607 -0.45039204 -0.4587043 0.16897562 -0.33770925 -1.281422 0.18793704 -0.40726554 0.26345515 -0.92123365 -0.4385907 
0.2709597 0.81401664 0.6977611 0.46246216 -0.58969945 0.30633816 0.28832918 0.61612517 0.23610096 0.69069475 0.79998213 -0.8236349 0.4497439 0.49562368 -0.69153434 1.3918014 1.3088613 0.46052566 0.95458037 0.66192406 0.7888042 0.4239027 1.1806022 0.56114316 0.5631862 0.5430092 0.5822377 0.43797037 0.49024278 0.95972556 0.67255014 -0.014110415 
0.49996588 -0.12895356 0.4442559 -0.16227758 -0.6980186 -0.23219825 -1.0218264 0.13817714 -0.5422457 -0.58881646 -0.40428403 -0.3008525 -0.18669161 -0.719844 -0.9999075 -0.0027334983 0.58577245 -0.26061314 -0.13614595 -0.003134187 0.010651555 -5.8691905e-05 -0.010562758 -0.30020136 -0.5131749 0.06549904 -0.38123265 -0.22902603 -0.4360669 0.21562241 0.30985928 0.04474584 
0.038408205 -0.1218613 -0.24639122 -0.117142655 -0.70736396 0.12114519 0.0059129633 -0.46223038 -0.018663645 -0.6442805 0.09347752 -0.5488717 -0.21011044 0.71057665 -0.24894775 -0.39856565 -0.36655816 0.021217525 -0.18283226 -0.014265628 0.023522621 -0.62779945 0.023667686 -0.0014390182 0.09884976 -0.23987779 0.7216765 0.17163846 -0.20074311 0.040286887 0.66845137 -0.5433299 
-0.27271682 0.24277444 -0.038827676 -1.5801373 -0.028540416 -0.6785133 -0.34371728 -0.4482272 -0.02650945 0.586363 0.3515416 0.25463045 -0.61146444 0.17023341 -0.36974764 -1.0373108 0.11660567 -1.8054339 -0.3670388 -0.32079294 -0.2982778 -3.1404636 -0.34945932 0.09820695 -0.8597889 -0.81106097 0.16785455 -0.43825418 0.33061513 -0.1455601 -0.6121854 -0.30540714 
-0.00059784326 0.45101684 0.2154924 -0.2516485 -0.48231843 -0.04693138 -0.0211331 -0.1977984 0.8846673 -0.4753249 0.9407403 0.7068724 -0.5064718 0.67857635 0.14084983 -0.15227525 0.63009024 -0.08805285 -0.061178297 0.387897 0.16657144 -0.07727749 -0.11398016 -0.28308573 0.054398652 -0.307969 -0.26475582 0.508217 -0.2638037 -0.058768928 -0.08100663 -0.114401445 
0.8794074 1.16273 0.9877996 0.47331724 -0.45820522 0.5286961 0.90391994 0.93282384 -0.789401 0.793722 -0.050441314 -0.2485316 0.59076387 -0.25584868 -0.4286319 0.94200677 0.13448414 0.39882106 1.219476 1.2380356 0.6749345 -0.0091550965 1.0361959 1.0016279 0.75996464 0.67235976 0.741403 -0.7792072 1.3161833 0.9495925 0.9017224 0.027453331 
0.64031255 0.35684997 0.33069184 0.2160907 0.054516684 0.3951658 -0.43004772 0.11043135 0.7861126 0.44845042 0.051419944 -0.46294966 -0.11574618 0.039343253 0.76351655 0.46058953 0.71749973 -0.45921198 0.34564415 -0.17985253 0.02023157 0.39939633 0.48667857 -0.08397363 0.4119372 0.5855357 -0.3519778 0.25039548 0.07816343 0.35380188 1.411245 -0.12090454 
0.95999306 0.44420928 0.19429003 0.34819946 0.3676477 0.67917526 -0.02125219 0.87630385 0.12368589 0.6111855 0.08994568 1.2644945 -0.7098248 -0.20103511 0.20719412 -0.15168075 -0.4087508 -1.1923467 0.9286583 0.7589904 0.8225698 -1.9919691 0.6943442 0.80189544 0.5968458 0.5883579 0.35065582 0.57068074 0.96101856 0.68184817 -4.346185 0.4543569 
-1.0572624 -0.17838359 -0.4623455 0.03138296 -0.7675807 -0.32731575 -0.048629507 -0.4952933 0.01582186 -0.010225611 -0.1770183 -0.2246702 0.06989097 -1.139143 -0.056232747 -0.62259257 -0.6532315 0.22646157 -0.41118094 -0.4466209 -0.5107111 0.0006599746 -0.44899258 -0.77496594 -0.33840206 -0.037743844 0.28987408 -0.5605422 -0.017522525 -0.1490781 0.24525008 -0.013670484 
1.2252359 0.9325652 1.4808466 -0.76623887 1.0772309 0.9033281 0.53012353 0.78916943 0.9713812 0.33351228 0.33830246 0.60507023 0.447792 -0.11131898 -0.57130224 -0.9850102 -0.58124006 -1.6275336 0.25024745 0.45512542 0.52836734 -1.5349889 -0.07264544 0.68101114 0.6898918 0.3015084 -0.56147456 0.18102807 0.44529337 0.28977305 -0.14519238 0.2419128 
-0.36540332 -0.19835894 -0.36673266 -0.72834593 -0.2327349 -0.14831164 -0.7221485 -0.37983254 -0.7135938 -0.5036965 -0.6570733 0.68916553 -0.7707351 -0.7377311 -1.2244055 -0.32881057 -0.51727617 -0.6461788 -0.42634547 -0.23532179 -0.6001232 -0.62516594 -0.3551598 -0.2734942 0.06744134 -0.36452317 -0.372922 -0.104454316 -0.12883279 -0.64318514 -0.55235934 -0.4462501 
0.28988987 -0.43185937 -0.26738498 -0.23902828 0.49825376 0.33324406 -0.3812231 -0.014963755 0.58330095 -0.034537368 1.2408195 -0.53470093 -0.12482855 -0.012242361 -0.8804152 -0.046641875 -1.2345364 -0.055827137 -0.25348377 0.018482707 -0.6208088 -0.83505344 0.059303712 -0.097033486 0.27739084 0.18107608 -1.1219572 0.47436684 0.14988954 -0.45882118 -0.94803095 -0.29276612 
-0.30432802 0.31133536 -0.15346022 -0.5716631 -0.15414633 0.48666263 -0.06267088 -0.14377718 -0.07617337 0.26021308 -0.43704146 0.63489133 -0.10117199 -0.38046578 0.18730877 -0.32631075 -0.16920976 -0.24642566 -0.095081955 -0.42043668 -0.46061432 -0.18331842 -0.3052129 -0.57390434 0.1542644 -0.4720536 0.17844802 -0.2204014 -0.7116817 -0.25346488 -0.19707358 -0.1678784 
-0.13622902 0.31219366 -0.49000356 -0.37106988 -0.6392284 -0.1313029 -0.57450694 0.051739626 0.50010914 -0.41789478 -0.027402775 -0.49119085 -0.6617882 1.3211819 -0.3542248 -0.14634107 0.089402 -0.48386458 -0.06933129 -0.36375257 -0.011441647 -0.88801885 0.017079039 -0.25610772 0.040979076 0.026543451 0.13883567 0.42564723 -0.30158716 -0.6466823 0.17609924 -0.42086044 
0.48748752 0.5936378 0.4529216 0.6011004 -1.0090277 0.79073524 0.21724637 0.32982665 -0.7359498 0.44209224 -0.9764407 -1.5688897 0.5783153 -0.05663553 0.633647 0.61011535 -1.0719544 0.48981875 0.6462609 0.45105633 0.35397425 0.5013369 0.7447338 0.82550687 0.82790124 0.54051435 0.5996398 0.46465346 0.539919 0.33492678 -0.10974953 -0.17715374 
0.4278158 0.49004766 0.20049897 0.11431295 -0.34210274 0.12672654 0.28945497 0.51901734 0.11868517 0.390496 -0.08917356 -0.5265683 -0.340637 1.0425769 0.238084 0.07035888 0.7723932 0.083897136 0.21069078 0.48209092 0.5913919 -0.74765956 0.70692563 0.45303532 0.0768143 0.327297 -0.20866139 -0.3032783 0.40334997 0.26077324 0.4388966 -0.35402712 
0.48235077 0.72010624 0.65578026 0.42069015 0.33838406 0.31293544 0.66396946 1.2039745 -0.55930847 0.5755298 -0.2870156 0.9840451 0.17261273 0.75716835 -0.14039434 0.08063589 -0.068227895 -0.5112157 0.04424651 0.7121865 0.029117715 -0.3385752 0.6332067 0.5691435 0.25671333 0.12247683 -0.59783006 0.42368567 1.0016838 0.69223285 0.08421587 0.0020428838 
0.7603017 0.9853464 0.08625368 0.21670307 -0.30879468 0.0091371415 0.56403846 0.8002599 0.14076483 1.1552308 0.08592572 1.3083938 0.071540184 -0.2529141 0.073130056 0.0040601543 0.27706856 -0.01482139 1.2083135 0.67655504 1.3651862 -1.3042634 0.42897686 0.8451545 0.9162358 0.43151274 -0.06317468 -0.81217843 0.25425 0.714222 -0.780386 0.2140778 
0.7619396 0.012151987 0.2283007 -0.7164721 0.32667893 0.47261274 0.32877144 0.34661847 -0.37064216 0.6065522 0.4620665 1.6228744 0.43716374 0.8771965 -1.1505401 -0.14669117 0.051466405 -0.84090835 0.042592082 -0.19044173 -0.5490036 -0.97242016 -0.33696076 -0.5597079 0.03334249 0.32402605 -0.18717033 -0.5390299 -0.3353966 0.12898365 0.517095 -1.2933706 
-0.42515284 -0.3159958 -0.17888407 -0.25629392 -1.0927992 -0.011599866 -0.80832607 -0.124540694 -0.122564286 -0.3433147 -0.47577706 -0.4546736 -0.010860125 -0.43536755 -0.060248543 -0.6175919 0.23682845 -0.40983483 -0.50717515 -0.025859011 -0.2144751 -0.22338761 -0.41395304 -0.48238277 -0.5432972 -0.8660667 -0.8209148 0.32354152 -0.4669119 -0.34162548 0.22918603 -0.70217496 
0.3596798 0.514677 0.094329625 1.1515822 -1.3557993 0.45857072 0.62340605 0.5650492 0.41740713 0.27046952 -0.2727506 -0.4748887 -0.10127935 1.4422531 0.91845804 -0.016262759 0.33955535 0.8398577 0.29959047 0.19737601 0.42381033 1.1064788 0.746923 0.3561121 0.3878266 0.32695892 0.76932013 -0.44065955 0.6094929 0.29329184 1.9841452 0.8999794 
-0.19779806 0.3655197 0.078033276 0.374163 -0.022164254 -0.28916723 0.5541766 -0.06533959 -0.29223043 0.3073494 0.30972517 1.1755646 -0.07901184 0.06897114 0.049705584 0.34022152 0.21739055 -0.10810655 -0.26901352 -0.35087782 -0.50328386 0.030680293 -0.18257515 -0.49733612 -0.2034088 -0.34925926 -0.081154875 -0.37860104 -0.16819434 -0.25047252 -0.12654264 -0.67411685 
0.0668298 -0.14018106 -0.121109076 -0.36730212 -0.042256694 0.358785 0.24935478 -0.32301232 -0.30039358 -0.43433633 0.18011211 -0.0026124474 -0.037396915 -0.22606511 0.47042504 -0.45207068 0.035996996 0.28291023 0.255204 -0.20171875 0.5167994 -0.08383483 -0.11522122 -0.17821607 0.067058004 0.21962576 -1.2991788 -0.043788657 0.2895402 0.707321 -0.15351567 -0.12072747 
0.29877943 0.46673608 0.61019695 -0.26639733 0.87545156 0.49440044 0.44445783 0.18229787 -0.080173045 0.1605819 0.39039052 0.7431364 0.20887831 0.014302497 -0.22211356 -0.20881727 0.111168526 -0.07295872 0.25267592 0.63954043 0.5284781 0.25080156 0.39824203 0.5483845 0.790777 0.64064556 0.37929684 -0.5532459 0.5386488 0.31391916 -0.34611055 0.13985167 
-0.9240764 -0.33242816 -0.28288677 -0.15024748 -0.5268557 0.7767115 -0.37448996 -0.62764424 -0.5017332 -0.5958176 -0.868843 -0.44283527 -0.060647815 -1.3447706 0.13366407 -0.42609403 -0.3092696 -0.2297463 -0.450044 -0.41705382 -1.5260032 -0.16010197 -0.33633906 -0.6845176 -0.43720382 -0.9145956 0.5210302 -0.47042978 -0.772876 -1.7054137 0.5205233 -2.148362 
0.07904618 0.20030761 0.21770023 0.0002476034 0.056177203 -0.21648245 -0.22544497 0.18362772 0.8550557 0.24070035 0.65169483 -0.26549014 -0.6918717 0.19369215 0.059411373 -0.16714357 1.0547612 0.105770156 0.08068436 0.31179264 0.052098237 0.07365531 0.22438307 0.29514894 -0.25966662 -0.20332727 -0.27737695 -0.30765116 0.1856937 0.03922791 -0.23134872 -0.004824903 
0.19580598 -0.29437956 -0.1482035 -0.39195177 -0.04393461 -0.25050187 -0.7013147 -0.0964016 -0.7587952 -0.16161661 -1.0500335 0.645859 -0.4286655 -0.79873383 -1.139714 -0.054421134 -0.3740507 -0.8661309 -0.045499653 0.0807807 -0.1850202 -0.36453998 0.09189408 -0.572343 -0.99090546 -0.024427125 -0.514609 -0.32302648 -0.11702462 0.26799136 -0.7239619 -0.85636187 
0.8835171 0.43295887 0.7643709 -0.4292044 -0.22061622 0.15564452 0.4137938 0.7625976 -0.2327447 0.8699115 -0.40500256 1.4050199 0.16382143 1.0807326 -0.30761063 0.077658996 0.050562758 -1.1294099 0.6208981 0.9165761 0.7672664 -0.25977185 0.2758463 0.15404992 0.33168897 0.7715278 0.16984625 -0.57340866 0.7527092 0.31764972 1.1372603 -0.11775683 
1.1053168 0.9443563 1.0472971 0.13743696 -0.04601443 0.3018432 0.36953044 1.0905404 0.25484022 0.8820082 0.42208934 -0.04285682 0.024085809 0.02522471 -0.46122256 0.61680233 0.5017831 0.3131541 1.0599732 1.2530961 0.9889078 -0.028623344 0.94198936 1.209226 1.7313361 0.8025379 -0.07060851 0.07943235 0.9376006 0.9939421 2.1239634 0.010584597 
0.119466215 0.18598627 0.05194562 -0.07564781 0.07219799 -0.5194103 -0.49831295 -0.50325507 0.685132 -0.67795354 0.13753936 1.1080251 -0.33049333 0.07902518 -0.55377764 -0.37513295 0.41968396 -1.4614041 -0.41091523 -0.08741277 -0.4223055 -0.92896676 0.096460514 -0.7463974 -0.8646572 -0.3165672 -1.0453513 -0.9553546 0.042008355 -0.26220813 -0.88458836 -0.2521847 
0.30814102 0.4529408 1.2645023 0.6569081 -0.37797454 0.29689437 1.0981468 1.518064 0.07730971 0.8107773 0.06820308 1.8488586 0.96319395 1.4901694 -0.39487866 0.89422697 0.9916163 -0.7563233 0.5346087 1.1130121 0.85430306 0.5762057 1.064979 0.81892705 0.72349524 0.8974723 -0.30248094 -0.46078238 0.8317332 0.88060874 0.4676841 0.8056859 
-0.08911074 -0.07752258 -1.1524719 -0.027265392 -0.056769267 -0.32303143 -0.2119417 0.054184724 -0.8511293 -0.0068929675 0.006049302 0.1585837 -0.27155223 -2.2249286 -0.18991189 -0.12742014 -1.0651348 -0.3549921 -0.74322414 -0.6391613 -0.20088913 -0.4302642 0.009837821 -1.0173659 -0.72054595 -0.015535395 -0.43320486 -0.8926193 -0.16720477 -0.09321315 -0.19690147 -0.09035587 
1.1107078 1.4878865 0.2618334 0.9270409 -0.9023722 0.71842104 0.5185724 0.9619748 -0.1795196 1.148993 0.039680377 -1.2752117 0.34893724 0.8550865 -0.07227824 0.9186166 -1.3540769 0.42548305 0.9109753 1.1085521 0.8513551 0.39117455 1.4168335 0.97531027 1.4019579 1.3885684 0.81815255 -1.555839 1.1601562 0.8439789 0.88689744 0.7369852 
0.84228945 0.4258796 0.5231847 0.45347616 -0.081142195 0.48784447 -0.06919775 -0.065219074 0.5957452 0.47293854 0.8088041 -0.92347187 0.20252375 0.91887933 0.053783625 0.67237055 0.5905302 0.23833792 0.84685546 0.81520486 0.66492003 0.43368688 0.6676787 0.77462465 0.46517062 0.72681785 0.28357518 0.06814989 0.4858017 0.7493238 1.9627669 0.40505815 
0.28583738 1.3221222 0.89436895 -0.5871104 0.2572316 0.0056474637 0.27453455 0.56077015 -0.14044528 0.8210075 0.36290294 1.0328853 0.25972998 -0.14114647 -0.18274005 0.23049998 -0.7685896 -1.291489 0.34325558 0.1901419 -0.44815147 -2.1517992 -0.18877397 0.1731075 0.8703781 0.32150167 -0.62948567 0.12995239 0.4520106 -0.12462639 0.5397456 -0.10257212 
0.1129904 0.6495368 0.19659716 -0.16886565 -0.39763007 0.1174725 0.077145286 0.32378477 0.17667972 0.4007719 0.071284465 -0.85814273 -0.014680063 1.4087645 0.18353723 -0.01261272 0.8018538 -0.01783121 0.22328715 0.45611328 0.14406833 -0.11579145 0.19971275 0.31990695 0.29521197 -0.19044214 -0.5462971 0.31528723 -0.13720393 -0.20060799 0.78200287 -0.68115985 
0.2178848 0.6713128 1.3176649 0.52973145 0.133774 0.41990677 0.8269632 1.038736 0.17691985 0.95544636 0.71196896 0.29042116 0.86444175 0.6717637 0.41094252 0.9356161 0.5907928 0.22139956 0.6039117 1.0188094 0.49357328 0.7676326 0.6684536 0.7521937 0.7961919 0.48220155 0.59798217 -0.054025464 0.91044426 0.39139897 0.9747001 0.46971807 
0.23154794 0.5894545 -0.67596084 0.04551821 0.11171307 0.17533804 -0.44677895 0.023958435 0.36593145 -0.13476788 0.32855392 -0.33694467 -0.42859465 0.61034584 -0.70703375 0.15153188 -0.074754894 -0.041839574 -0.5004329 -0.14787167 -0.85695803 -0.027022952 -0.26488975 0.24501844 -0.2196694 -0.7247735 -0.2285486 0.4861361 -0.2853794 -0.7722962 0.66781807 0.1198016 
-0.58590317 -1.2255329 -1.2862085 -0.039082404 -0.26871958 -1.4725368 -0.42400765 -1.0301802 -1.5076796 -0.10746966 -0.7230043 -0.10895801 -0.17408122 -2.1841018 -1.1751336 -0.44756603 -1.580722 -0.28638437 -0.6041724 -0.9538016 -0.22042483 -0.16244246 -0.6951058 -1.5278031 -1.6349311 -0.27544072 -0.1434341 -1.5805142 -0.26391578 -0.5779994 -0.14940307 -0.22184324 
-0.18653558 0.14662792 0.03642442 0.02381379 0.062096767 -0.178314 -0.031378552 0.43747035 0.4289159 0.21218206 0.12189065 0.72074354 0.018383585 -0.9604831 -0.35204604 0.6578625 -0.30562738 -0.7288289 0.3290876 0.29161704 -0.016600246 -0.03574013 0.31967458 0.449877 0.38805884 0.3383081 -0.17448817 -0.6293276 0.1322392 0.092361756 -0.45312274 0.009998165 
-0.4176964 0.14374135 -0.21686421 -0.0779891 -0.2965298 -0.22041911 -0.7338448 -0.23898104 -0.52703696 -0.41275695 0.5079544 0.7186602 -0.40646905 -0.54239386 0.33714506 0.12932637 -0.6719522 -0.46664798 0.2904961 -0.15477553 -0.3210111 -1.7623857 -0.14076573 0.08256211 -0.0714 -0.20623359 -1.4827803 -0.22120503 0.21994022 0.187333 -0.7831678 0.14993261 
-0.7713088 -0.77366894 -0.5907294 -0.6334674 0.5825097 -0.15008987 -0.7161897 -0.80921143 -0.3452064 -0.5660876 0.5925477 0.90531844 -0.49926457 -0.13661896 -0.63983005 -0.9400154 0.37757868 -1.05359 -0.81639105 -0.48848656 -0.5463844 -1.4799091 -0.55487806 -0.42656103 -0.5306883 -0.629032 -0.5918969 0.32540166 -0.9556706 -0.72213566 -0.7376495 -0.3527249 
-0.70794934 -0.6273686 -0.47250736 -0.09035337 -0.05944368 -0.23734055 -1.6994753 -1.0549027 -0.60034513 -0.2302171 -0.3546892 -0.14741953 -0.93695813 -0.97489285 -0.5947885 -1.3050805 -1.2983369 -0.020838117 -0.60718226 -0.8138323 -0.59351844 -0.088490315 -0.8053914 -0.8997569 -0.6189489 -1.1466727 -0.2395048 -0.41575915 -1.1852908 -0.23979948 -0.19267945 -1.2681519 
0.011142825 -1.0257403 -0.322387 -0.24061555 -0.17474557 -0.44280174 -0.38844162 -0.49797964 -1.0829141 -0.47950956 -0.21201266 0.19135807 -0.30079472 -0.98332036 -0.61618394 -0.76344323 -1.1390543 -0.5748013 0.07850189 -0.21166447 -0.514825 -0.535824 -0.47432563 -0.5429113 0.25249696 -0.46088272 -0.19070888 -1.026165 -1.1870888 -0.3766226 -0.19895628 -0.3490685 
-1.0713031 -0.5856908 -1.5929195 -0.018085165 -0.011344348 -0.667862 -0.06451905 -0.85219014 -2.4272037 -1.0821368 -0.12616196 -0.25307813 -0.1366734 -4.6629453 -0.00047698067 -0.7734546 -1.7435211 -0.7665636 -0.6467315 -1.1021477 -0.7751429 -0.17812121 -1.3210504 -2.5907328 -1.3313106 -0.06667011 0.20004508 -1.8247138 -0.2648922 -0.21809667 0.21905318 -0.059331324 
0.039725702 -0.024851244 0.5521336 0.20323764 -1.0591946 0.16711092 0.40086123 0.5608034 0.45344055 0.033701494 0.53880644 0.48167327 0.49659663 -0.029266248 0.10546709 0.57565147 0.11123299 0.7616687 0.5433414 0.97027254 0.3223903 -0.14443685 0.2606006 0.26274022 0.44337326 0.38127005 0.29280025 0.042188633 0.10262624 0.18380238 -0.6267227 0.12748326 
-0.5229549 -0.20182675 0.21556802 0.00096227037 -0.047134556 -0.17631201 -0.7837031 -0.041406903 -0.1122212 0.087817654 0.29581705 0.70526433 -0.16044007 -0.6352009 -0.008370503 0.086908676 -0.20426692 -0.69551104 -0.4648913 -0.057464648 0.12394313 -0.021046469 -0.3852288 -0.46371686 -0.34293935 -0.59685266 -0.9722798 0.25493443 0.011928818 0.21517506 -0.54311323 -0.07174295 
-1.7608763 -1.1354578 -2.014289 -0.51178485 -1.28018 -1.3728594 -0.09177806 -1.3619205 -1.4100848 -0.64926267 -1.0869561 0.13538285 -0.33571446 -3.253664 -0.12578148 -0.19095957 -2.6945791 -0.48806146 -1.2720873 -1.6975833 -0.7138132 -0.29546943 -2.1048198 -3.1711383 -2.692898 -0.37856004 -0.28189102 -2.7653131 -0.95594025 -0.75381106 -0.12465339 -0.06903233 
0.42366707 -0.12194214 0.25993443 0.23379846 -0.091217235 0.3731701 0.18269588 0.10689419 0.073703304 0.5585907 0.43468896 0.7952112 0.16477586 0.57004297 0.05788661 0.57125485 0.60288227 0.37793955 0.37413594 0.59876376 0.72713614 0.06581474 0.7064827 0.8601089 0.85382444 0.2606565 0.5861359 -0.481253 0.6907246 0.68773985 0.55789757 0.3841465 
0.7306557 0.62326777 0.87404627 0.21554376 0.89830124 0.08225848 0.35728076 0.81472516 0.17671095 0.39046052 0.52036506 -0.70908314 0.0529494 0.40341634 -0.40817004 0.53650296 -0.46483207 0.31986275 0.32671562 0.53686506 -0.12133754 0.36208507 0.37907976 0.61580294 0.1998613 -0.09720039 0.42310163 -0.4860354 0.20552793 0.5617837 0.7743873 -0.48841053 
0.6269352 0.6722888 0.30490583 -0.18974294 0.26302508 0.41283223 0.35984325 0.68064815 0.39934206 0.40742722 0.40334138 0.82219946 0.14024745 0.11249197 0.021083659 0.47614563 -0.12680586 -0.7949011 0.7491305 0.93270546 0.93545127 -0.05097828 1.0063369 0.9570999 0.7357838 0.3783887 -0.14647488 -0.7012376 0.07731118 0.33581853 -0.76939607 -0.045050785 
