1.5294851 -1.3513349 -0.18008456 -0.2726081 -1.3570821 -1.3497081 0.6592727 -1.2356511 -1.434301 1.0652578 1.0901353 -2.7239609 -0.4609723 1.3308184 1.2051972 -1.4751999 -0.8292415 -1.4205589 -0.20766364 -0.17789768 1.1058503 0.2456639 1.1521991 0.78042173 0.2389851 0.77076024 -1.1320482 -0.9790118 0.13179082 -0.32648015 0.31644136 -0.51359457 -0.6299737 0.38029602 0.6629944 -1.2692231 -0.634555 -0.58635396 1.7677559 0.47252187 -0.011322264 -0.3819992 -0.12758438 -0.26171362 0.030314717 -0.9757748 1.6030535 -0.14577518 0.42616156 -1.7644758 -0.20128365 0.17945434 0.524051 0.4031727 1.559365 -1.4228513 -0.28468725 0.5951152 -0.48024112 -0.1493431 0.042039175 -1.3559356 -0.012469543 -1.2847096 
0.32768366 0.6643082 0.03733978 -0.8307938 -0.0147908 0.13144755 -0.822175 0.55791426 -0.16980542 -0.6884562 -0.51383674 0.21040833 0.9956942 -1.2916806 -0.07436953 0.038534727 -0.3381663 -0.19047812 0.47388482 0.23543383 0.3077565 0.46104652 0.020615092 -0.35385767 -2.1142054 0.7438501 -0.0008666426 0.4275698 0.3736776 -1.5237651 -1.0202067 0.6237745 0.7533518 -0.8013596 0.13774595 0.9558812 0.8007146 0.46324578 0.049706083 -1.1320665 -1.209875 0.17598331 -0.061770275 -0.22350043 -0.37230536 -1.0929898 -0.3941757 1.3064041 -1.4809184 -0.46100128 -1.6976336 -0.59877795 0.30462092 -0.2642192 0.92278886 1.7752931 0.3723569 0.15378773 0.13181402 -0.28621745 -0.40912697 0.8183073 -0.8799149 0.9450355 
1.307802 0.61157745 -0.85759866 -0.6988921 -0.5797471 -0.51691926 0.92119914 0.9981292 0.29636037 0.78210354 0.09742682 -0.2801287 0.9767641 -1.5680782 -0.2014034 -0.69508964 -0.27674997 0.62170523 -0.038555786 0.101030275 0.194182 -0.8202066 -0.19841497 -0.30175537 -0.9744398 0.8408222 -0.15914984 0.6520361 0.9687807 0.039084036 0.32131073 0.5246029 0.9206612 -0.35252023 -1.8668003 1.4316992 0.84531885 -0.28904167 0.7455608 -1.4067665 -0.091881834 -0.63305026 0.65047026 0.7402056 0.11307528 0.71241385 -0.05467206 -0.21683365 -0.8469852 -0.059465557 0.6782472 -0.7351738 0.21603622 1.1903199 -0.2535117 1.1702598 -0.38870612 0.8058283 -0.95017976 0.61895597 -0.7555335 1.0994754 0.7473063 1.161684 
0.54993623 -1.5182261 -0.03921464 -0.77339625 0.5355087 0.9981028 0.18425989 -0.52013314 1.4279664 0.59263474 -1.112203 0.51144093 -0.66230595 -0.44771737 -0.7126515 -1.4651845 0.28843936 -1.3527352 -1.6469704 0.09524363 0.1266305 -1.3245662 -0.3018124 -1.3602291 -0.8411139 -1.1982079 0.34520313 2.0973802 -0.66532034 0.22780824 -0.0064042034 1.8901818 -0.9857974 0.1072469 0.7121877 0.4071507 0.20302762 -1.923735 -0.30821633 -1.8751723 -1.4498669 1.182397 -0.47653112 0.5242576 1.026678 -1.4783338 0.7802742 -0.31478256 0.38436455 0.5526934 0.34197003 2.520844 1.8026148 0.28443423 -0.08577103 -1.0670444 0.25370955 0.31445938 -1.0416148 1.0767777 0.267666 -0.54682684 0.26388317 -1.1598988 
-1.0158881 -1.3078346 -1.7449201 -1.5328193 -1.1042055 -0.59457785 0.46719328 -0.3431846 -0.5620583 -1.7702457 0.6298268 0.06030872 -1.0927706 -1.5577749 -1.3480412 -0.9592086 1.6160258 -0.9245845 -2.2518644 0.30099112 0.0852124 -0.26092646 -2.0069168 -0.7778479 -0.40585542 -1.1035155 -1.6543324 -0.6117354 0.48490447 0.44443497 -0.7700412 -0.76859444 -0.9599058 -0.49271968 0.061463878 0.19881207 -1.4954294 -2.1391888 -0.17117076 -0.5786238 -0.19703461 0.016456798 -0.08904932 -0.29317755 1.1178527 -1.5256444 0.373918 0.273605 0.020607654 -0.043718655 -0.009257909 1.1736386 -0.66878575 -1.7205691 -1.9024283 -0.33573142 -0.5434448 -0.4495807 -0.26113313 -0.6382472 -0.79725426 -0.3822435 2.3282037 -1.6395491 
-0.2869728 -0.9772059 -0.06612603 -1.5458497 -0.9199495 0.434296 0.97057307 -0.26243612 1.0176156 0.039345607 0.22376797 0.7664385 -0.3706358 0.058227893 0.7424142 -0.9905184 -1.390227 -0.5328686 -1.5478954 -0.41789868 0.81476283 0.4431649 0.91881377 0.5005446 1.2718103 0.05522601 1.1224025 0.5461492 -0.41435522 -1.4942619 -1.2535678 0.6717905 -1.2622474 -2.1476064 -0.7762236 0.55078727 -0.45336056 -0.22095504 0.0109516075 0.59601843 0.3575593 0.45845863 -1.2726706 0.5998657 -0.15526411 -0.827309 1.2965498 -0.13760279 0.63374424 0.97198445 0.65982604 0.1700284 0.66734684 1.0660003 0.64807415 0.030202432 -0.31093943 0.76986897 -0.27395234 -0.12591755 0.0015754718 -1.553473 -0.2398985 -0.5213789 
0.5368134 0.7394578 0.7343969 -0.3506331 -0.06488726 -0.6803935 0.8581345 0.26252225 -0.29003468 0.49223742 -0.14453182 -1.2949182 0.59175247 -0.46247968 0.07117508 1.0675381 -1.5539708 1.0698489 0.52600336 0.8542128 0.6025068 -0.726501 0.30560824 -0.35762274 -1.3469508 -1.4989619 0.1262866 0.09454376 -0.3737877 0.2821079 -0.5566279 0.728365 -1.103626 -1.0476776 -1.0373135 -0.28366238 -0.25297147 0.53185874 0.92611843 -0.8336014 1.3326344 -1.0718194 -1.291504 -0.3062764 -1.75508 0.11244353 1.070966 0.8976643 -0.07938117 0.68565077 1.0651141 -0.59855884 1.0820721 0.35299996 0.63094866 0.830918 0.3130677 -0.059453633 0.5475154 0.34080628 -0.54883206 0.20276468 -0.84796643 0.69520843 
0.8825058 1.4522369 -0.24011226 0.35693002 0.21402912 0.6336946 -0.04031576 -0.23169738 -0.6002091 1.041016 0.65534806 0.18841292 0.70153165 -0.833773 -0.1127579 -0.27591136 0.08277522 1.0573629 0.14330876 -0.6602174 1.0355431 -0.64133346 1.3420202 0.15439494 0.02256189 0.99967134 0.23830788 0.62027913 0.98395073 -0.3341453 -0.27737895 -0.5540249 0.438714 -1.3300865 -0.80121714 0.061622474 -0.1330826 0.29144114 0.07189384 0.09857192 -0.722234 -1.1138972 1.2858126 1.3933835 -1.2380505 1.5703067 -0.15281111 0.25359255 -1.3238487 0.22791283 -1.0034577 -0.6596541 0.6883234 1.3551879 -0.033063855 1.1702199 -0.8630588 -0.13363338 0.09976506 0.20255151 0.58375007 0.46296075 0.2798757 0.73382074 
1.2262783 -1.2814037 0.19764206 -1.1193216 -1.3505648 0.01743449 -0.37475803 -0.42083383 2.593142 -0.08950293 1.0868977 -0.8598555 -1.0197108 -1.9056808 1.0469042 0.00040670228 -0.57920694 -1.6016978 -1.1962274 -0.21668348 -1.236556 -0.19667166 -1.0597908 -0.50698 0.030547703 -0.9554951 -0.37318167 0.9026986 -0.21643123 -0.051142976 -1.1080307 0.9480533 -0.7022724 1.6881677 1.8220465 -0.26904228 -1.0943232 -1.0184867 1.6658897 -1.7728775 -0.82490695 -1.4133841 -0.8475604 -0.8431633 -1.0677563 -0.60483897 -0.4776917 0.1966919 1.2350497 -0.9315106 -0.10487093 1.2487965 0.48031846 -1.0600394 -0.16914594 -1.1103576 -1.6416432 -0.41757375 -1.2624099 -0.06559967 -0.6167199 -0.3391528 -1.1722038 -1.9220812 
0.5484103 0.92994505 0.28543824 -0.10952038 -0.7656515 -1.3838276 -0.31948367 1.1076577 -0.27395773 -0.3907649 0.6129974 0.051922582 -0.342575 0.7929853 -0.17006104 1.7958907 -1.162858 0.13363215 -0.35546774 -0.46858257 -0.73562884 -0.8377355 0.38518518 0.72613585 -1.5035261 -0.49644163 0.9440539 -0.029858207 -0.1446985 -0.032752432 -0.38831842 -0.56764257 1.0101134 0.57736564 0.041109454 0.04925607 -1.2287544 -0.4251745 -0.41987795 1.8064846 -0.566784 1.1600014 1.8433495 -0.027433684 0.24493882 1.1845943 0.18926288 0.013244199 -0.8539818 -1.2283742 -0.35389826 -0.5951655 0.14086433 0.09863502 0.7250799 -0.1736412 -0.040713593 -1.0925369 -0.8391633 -1.3452886 -0.9924365 1.2068887 -1.0203066 0.16498293 
-0.38864577 0.46366712 -0.709609 -0.7232339 -1.119185 -0.17736334 -0.41994527 0.9936503 0.34961587 -0.26558307 -0.030628607 -0.5169762 0.35704905 -0.23323153 -1.3675145 0.5282051 -0.22775038 -0.0029195175 -0.17811754 1.0506909 -1.2029783 -1.4319685 -0.6574132 -0.80092776 -2.00016 -0.7480523 -0.42245048 -1.1261507 -0.97211206 0.54768497 -0.97297066 -0.40411738 0.6452219 -1.1185236 -1.2804166 1.0896425 -0.26610127 -0.5671452 -0.17806444 -0.06832774 -0.7456215 -0.71953064 -0.3122142 -0.693549 -0.81402445 0.5574008 0.14871839 1.5040575 -0.5062087 -0.482199 0.38547978 -1.4346781 -1.0270379 -0.95232624 -0.4862665 0.36217815 -0.100643896 0.12709257 -0.26597807 -0.74968654 -1.3701929 0.9137678 -0.010658983 0.38069662 
0.5065784 -1.328427 0.090779886 -1.1363235 0.22842346 1.0076983 0.6905974 -0.74928147 0.85163146 0.26682395 -0.6681009 -0.56745785 -0.88496584 -0.86943996 -0.10161336 -1.0859082 -0.31418657 -0.24116577 -1.9984436 -0.6375802 0.31228134 0.44591188 1.6628954 0.3431732 -0.19571598 -0.33651152 -0.024083419 0.9142715 -0.14232112 -0.15630803 0.36438382 -0.7400082 -1.203126 -0.8383827 -0.14058381 0.28009915 -0.17006172 -0.4286649 -0.5023279 0.94112045 0.8452462 -0.018797383 -0.2557745 0.56538767 -0.45327362 -0.5630554 1.1710701 -0.46722126 -0.8999567 -0.8902315 -0.19081123 0.90595376 0.30875266 0.59689075 -0.75566864 -0.31417623 0.054200873 -1.1496916 -0.37683633 0.41909787 1.0385218 -1.251798 0.7968048 -0.49514055 
0.40227413 0.033563677 -0.1668962 -0.27677816 -1.4036654 0.37496188 -1.5381083 -0.49736297 -0.035183903 -1.0433966 -0.12037921 0.1529958 -0.018904584 0.5596915 -0.49784043 -0.071702205 -0.99984384 -0.7344382 -1.6283106 -1.7268468 -2.4952323 0.043814328 0.13386509 0.7930004 1.0452298 -0.4582834 1.4075735 0.3289978 -0.65162575 -0.39076763 0.5069148 -1.120358 0.18399678 -0.64298725 0.16359696 -0.7724217 0.31607327 -1.116766 -1.3248762 0.10070937 0.035993144 -0.28194833 0.25848305 -1.357961 -0.1847447 -0.3622376 -0.9261375 1.1500118 0.81509 1.0805191 -2.4018438 0.14019065 -0.192502 -0.4456915 0.6176528 0.35591373 0.23675193 -0.048604086 0.22565998 -1.5076323 -0.5125219 -0.54904056 -0.8832335 -0.2783237 
0.00788506 -1.0635116 0.5549308 -0.3697477 1.2562684 -0.4492122 0.09238539 -1.0095451 0.20490535 0.8284517 -0.4498443 0.781175 -1.0422752 0.24211445 -0.03263638 -0.23249596 0.50621104 -1.0124034 -1.3946563 -0.97633 1.570244 -1.3045679 1.496866 0.6220045 1.3029983 -0.3705347 -0.6685433 0.520814 2.5454078 -0.12127488 0.5009452 1.4151592 -0.68605596 -1.3331285 -0.5404987 0.009344759 -1.0340897 -0.8963196 0.7523669 -0.9271455 -1.1419444 -0.08243388 -0.41208753 1.3614033 -1.1488204 -1.0031986 1.274083 -1.2716657 -0.30054414 -0.7794278 2.1007714 -0.71574557 -1.3033961 0.77898806 1.4753001 -0.1232956 -0.9666372 -0.43241677 0.15842898 1.0788093 1.5657969 -0.6640706 0.7906974 -1.1395667 
0.13166194 -1.2240044 -1.49039 0.5759618 -0.0720856 -0.45419165 -0.055646796 -0.8525742 -0.085796855 0.7546693 1.2539765 1.2182857 -1.3250574 0.19408734 0.18560342 0.27229986 1.7467006 -1.4357345 0.29680923 -1.4054992 -0.2316481 -0.7558653 -0.99164337 0.20723347 -2.9490929 0.51582277 -1.2900527 -0.84145945 1.0123076 0.4307177 0.7788589 0.42115903 -0.8355736 -0.28376943 -0.4490003 0.7133983 -0.74191254 0.24148767 0.7251595 0.7044075 0.943875 0.07216517 -0.65249026 0.16270165 0.90426487 -0.6349742 0.045988422 0.3655629 -1.4462886 -1.1559675 1.1925504 -0.098592326 -0.11433256 -0.68683827 -0.013791452 -2.2376375 -0.89517254 -0.041461356 -0.17911296 -1.1894307 -1.1160842 0.07495245 1.3956858 -0.36204082 
0.29508883 0.6472235 -0.86566824 -0.9888896 0.6267597 0.105259664 -1.1747583 0.3933996 -0.37985012 0.26363572 0.10946716 -0.9634798 -0.08804639 -1.1099799 -0.2209662 0.3877809 -0.45849103 0.71558625 0.8493845 -0.20750333 -0.23144951 0.26129535 -0.066396564 -0.5222684 -1.3576362 -1.0439997 0.5812163 -0.46040478 -0.52640814 -0.14729866 0.86436707 -1.04352 0.66352415 -0.40569183 -0.71307826 0.76900995 -0.8214044 0.52733105 -0.9307144 -1.4296696 -0.5142358 1.0881332 0.33854604 0.6811688 -1.1366965 0.7969601 -0.46065798 1.1067662 -0.59774244 0.2586254 0.20316644 0.11937293 -0.30161324 0.6436892 0.34108335 0.9565504 -0.87360036 0.11573997 -1.4540476 -1.0686114 -0.1529772 1.0791854 -1.2062014 0.3307034 
0.6264219 -1.5116112 1.7451574 1.996356 0.5208173 0.54885066 0.47828737 -1.0403959 1.8504531 0.8202342 0.53926706 -0.3998647 -0.81131124 0.30847514 0.9463948 -0.7713846 0.5570178 -0.8382128 -0.63319427 -0.75766796 0.583454 -0.025609076 -0.48682925 -0.37633243 0.852185 0.6212916 -0.38357833 0.3947496 0.25420794 -0.22326508 0.5563861 0.86145896 -0.5200668 0.912175 0.64862585 -0.23071615 -0.50403386 -0.4302006 -0.3876043 0.23480198 1.0871813 0.84840643 -0.6382205 0.7333225 0.239754 -1.5008774 1.6005592 0.3117253 -0.18892041 -0.512594 0.8791324 -1.0015109 1.1062238 0.78195345 1.1521846 -0.85512257 0.2872705 1.1898206 -0.8198252 1.6858639 -0.5139 -1.5527172 -1.0990183 -1.697411 
-0.11938778 -0.49219045 -1.0085038 0.7009016 0.38034 -0.33413437 0.41804296 -0.34774497 1.1452707 0.13691384 0.48411533 -0.72853243 -1.2167184 -1.0350441 -1.644564 -0.46293226 1.6538471 -1.0841027 -1.1292794 -0.6775913 0.40441498 0.0973609 1.0824516 0.18309204 0.5794257 0.68788457 -0.13347599 -2.457566 -0.23679139 -1.2222039 1.1214238 -0.90922093 -1.1827879 0.1424365 -0.076142356 -0.12466965 -0.8178553 -0.14152062 1.039079 -0.58665246 -0.061679684 0.55893373 -0.21801315 0.20909062 1.6576562 -1.2739154 1.5819262 1.1942024 -1.0790895 -0.62124944 0.18095046 -0.12627539 -0.14635049 0.3747473 0.13461673 0.3639114 -1.1115766 1.5964622 -0.10524056 -0.35360274 0.39893764 0.15164891 1.3371143 -1.1568894 
-1.8323892 -0.5771847 -0.9875889 -0.4896637 -0.7794307 -0.16773245 -2.0137851 0.6903648 -0.18774517 -1.5439694 -0.18499604 -0.99387264 -0.046663597 0.42700213 -1.3998715 0.17367414 -0.8959602 -0.91123605 0.411603 0.40859145 -2.4534547 -0.9124806 -0.3359692 -0.948926 -1.0750798 -1.6277859 -0.3556374 0.19601853 -0.43773836 -1.1459271 -1.1492245 -0.27258417 -1.142226 0.8030473 0.6036832 0.09482772 1.2309527 0.9243659 0.19220263 0.5746457 -0.6708783 0.046102565 -0.6749721 -0.5589816 -1.1532115 -1.209306 -1.0993434 2.222866 0.23780625 -1.6705587 -0.48345193 -1.107506 -0.561189 -2.0164664 -1.4671104 -1.0068244 -2.0273137 0.36821842 -0.6250647 0.31669527 -1.3934382 0.44897375 -1.22477 -0.7121815 
-0.2895307 -0.20503972 0.16297409 0.17982633 -0.69290274 -1.428104 -0.7907758 -0.66829675 -0.52873063 -1.1307749 0.6318389 0.49350652 0.60670495 1.2217008 -0.93627864 -0.6117942 -1.9306316 -1.0695672 -0.43816212 0.6756373 -1.0705513 -0.41665438 -0.3222352 0.41416115 0.05978001 -0.63379085 -1.5401906 -0.9063359 -0.2096231 -0.89899206 0.35144293 -0.41053358 0.22329523 -0.068312764 0.31677923 -0.29716736 -1.261956 -0.05029028 -0.88324374 0.68377644 -0.78974545 0.5602324 0.1217692 -0.41414174 -0.9356647 -0.9928622 0.04420741 0.6978151 0.5136713 -2.1602142 -1.2472672 -0.23873323 0.2659645 0.59512806 -0.6747253 -0.15479659 -0.0956645 -0.8219835 -0.3457844 1.5723988 -0.73518986 -0.56159616 -1.5693265 -0.15596324 
0.38073227 0.052301068 -0.27311566 -0.33973545 0.19747433 -2.4218812 1.6000354 -0.013703264 -0.18794303 0.7370035 -0.4794609 1.137127 -0.4272922 -0.1295738 1.810937 1.0159113 0.82289433 -0.23728758 -0.794246 -0.1794435 1.4910868 -0.4797734 0.23171666 -0.7471478 -1.1740797 0.6718752 0.43709663 0.40984988 1.2616258 -0.036691587 1.1646329 1.0740942 -1.1737576 -1.4117362 0.1266627 0.9434561 0.07394618 0.6291353 0.019350108 -0.11768698 -0.62482965 -1.5533068 0.0008999481 0.66325635 0.13257806 -0.0070151407 2.1433842 -0.5613381 -0.35510534 -1.1358806 -0.24091513 -0.9971067 -1.015404 0.66408515 1.8857125 -0.42454112 -0.89089185 0.8402309 0.3395426 -0.55052334 -0.2568229 0.50587165 1.4756889 0.056928877 
-0.633698 1.1754882 -0.0075321626 0.28958717 -0.8325725 0.37496817 0.21795242 0.18248214 0.18118009 -0.88191456 -0.86569 0.20306942 0.847398 0.2992395 -0.804908 -0.5097573 -0.7328384 0.43182346 0.5387112 -0.966968 -0.590098 -0.5101246 0.06806986 -0.610794 -0.75144345 -0.62737507 -0.059774537 0.49878538 0.07888355 -0.3788695 0.35812056 -0.3682336 0.35059518 0.053681113 -0.5394509 -1.1977092 -0.93620366 0.6005024 -0.8401467 -0.42022988 0.4207602 -0.44164386 0.4741144 -0.61668575 -0.13257542 0.5851565 -0.2860536 -0.16770045 0.11655703 -0.24063464 0.3718976 -0.6627554 -0.4641502 -0.91928333 0.16148067 0.67401993 0.66001076 0.44401217 -0.38116097 -0.4856443 -0.4341573 -0.11597065 0.1360352 0.65423715 
-0.22465016 -0.964787 0.57197714 -0.6410526 1.0123647 -0.65130144 1.4203575 -0.9204815 -0.065435804 1.1070745 0.56354034 -1.4762541 -0.77313215 -0.25608167 0.8494357 -1.2763578 0.4409454 -1.0762048 -0.7415928 -0.79398 1.0239905 -0.4484115 0.27550128 -0.2847963 -0.26784608 1.4187589 0.6273008 0.7849076 0.38550487 -1.4487851 1.7938989 0.1786549 -0.49453783 0.830976 0.0894686 -0.38479814 -1.656287 -0.6207216 -1.1386518 -2.3903327 0.50453126 -1.2356907 -0.04600141 1.0225846 -0.4807967 -0.39840758 1.8331398 -0.7629775 0.17479244 -0.10374579 0.1640621 -0.6584016 -0.26590595 0.19962697 0.93471694 -0.6833722 0.077339776 0.029933194 -0.57123035 -0.4338343 1.2032642 -0.27735263 0.75808007 -0.8906747 
-0.6448033 -0.087279715 0.9537761 -1.381232 0.28738624 -0.20714885 -0.28830877 -0.9496955 1.0054162 0.85751116 -0.3814445 -1.1952236 -0.44475642 -1.7722299 0.16453807 -1.3001142 -1.3516103 -1.1101892 -0.7438623 -0.36590818 0.22470595 0.66949904 0.8918859 -0.04633586 1.8256724 0.08856557 0.9192042 -0.056443043 -0.011425 0.89324105 -0.20334491 -0.06281862 -0.39343145 0.18797804 2.207882 0.9984598 0.2506149 -1.3690053 -0.53291106 -1.5149019 -0.78104794 -0.6762715 -1.3463249 0.6538087 -0.9537074 -0.9561039 0.056861155 0.44972208 -0.20556797 0.36420685 -0.21934739 -0.26579228 0.013216466 0.8948027 0.3485068 -0.28767776 -0.20606911 -0.34814957 -1.0845718 0.95707965 0.3615961 0.6541677 -1.297928 0.37663606 
0.7268364 0.6755211 -0.04925695 0.27741426 -0.8301798 0.6359982 0.25069663 -0.79718846 0.61544174 0.20763877 -2.3375785 -1.3123407 -0.036564108 0.077030115 0.20701838 0.66596335 0.092341855 0.9325812 0.9714474 -2.075282 0.16249959 -1.0860724 0.114799134 -0.7892684 -2.2175686 -0.6693722 0.34217927 0.60123515 0.5228119 -1.1056029 -0.45091772 -0.40268937 -0.67316484 -0.6470685 0.09380514 -0.49644917 1.3768907 0.52480406 0.2908453 -1.634126 -0.734093 0.28235695 -0.37502658 0.10507477 -0.10147913 0.8199093 0.3452851 0.8411933 -0.2132151 -0.6302208 0.055754095 -0.6319053 0.5776902 0.5655716 0.17965643 -0.9415463 -0.39917973 0.15690133 1.3781966 -0.32316622 -0.5309102 -0.40934435 0.44981095 0.6795447 
1.207323 -0.7329348 -0.33541113 -1.1656126 1.039078 1.8022455 0.22501862 0.34446838 0.29355973 -0.71290576 0.37116355 0.58817637 -2.0258434 -0.6340114 0.9240171 -0.44616085 -1.035078 -1.866424 -2.0403826 -1.0326982 0.37446368 -1.295725 1.5941799 -0.27250847 1.0322492 0.51618963 0.75505704 -1.2642698 0.067421824 0.9837251 2.0637467 1.1410009 -1.4882697 0.28348014 0.06914922 -0.02137582 -1.1264144 -1.1492207 -1.3426466 -1.0784115 -0.935436 0.262684 -0.20431803 0.12262715 0.83861256 -0.33702493 1.8047879 -0.23855336 -1.7679127 0.056126148 -0.017360192 0.27506506 0.70932263 0.3970476 1.2911932 -0.8679113 -0.8271258 0.8188617 -0.106684946 0.6952564 0.5286558 -0.10637302 0.31640798 -1.868619 
0.08611616 0.7176032 -1.0936613 -0.7218217 0.25154093 -1.1751635 -0.73866224 0.3620932 -1.2937325 0.07581014 -0.29347682 0.4230104 1.3861507 0.42199117 -0.010363023 -0.9285667 1.0915464 0.14514425 -0.13292721 0.11165418 -0.5584583 -1.0895749 0.32524565 -1.5243264 0.62153864 -0.7786862 -1.2186619 0.8020405 0.004538104 -0.3528322 0.8346016 0.7698014 0.47802335 -0.81516373 0.47740576 -0.39682236 0.9720014 -0.1986859 0.9625505 0.034286793 0.93454427 0.61815727 0.019556457 -0.8720325 0.59923565 0.8202204 -0.45066467 -0.3562594 0.029797772 -1.0145234 0.54390144 -1.5072745 1.5736195 -0.48356172 -1.2533386 1.5065676 -0.7671674 0.060069676 0.73167795 -0.24195658 0.18298002 0.3589173 1.2534598 0.9783285 
0.5171506 -0.020473624 -1.1303234 1.8034712 1.3538175 1.0271227 0.91219586 0.4198399 0.16203412 1.3061095 -0.43931946 0.45591244 0.1494781 -0.23961847 0.35956216 -0.37236905 0.809016 -2.0138135 0.042324275 1.6717591 -0.48426276 -0.023235248 0.25151563 -1.0108194 -1.4442992 -0.40058866 0.4656624 1.6831343 0.4947426 0.23548527 0.7806245 1.1744629 -1.1276748 -0.9887428 0.73150086 0.24517815 -0.40515554 -1.0436338 0.30440968 -1.0406352 -0.82777554 -1.1178175 -0.6935245 -0.047732137 1.9834515 -1.0937963 1.8658843 -0.42923105 -0.29981482 0.19205202 0.36849332 0.57307905 1.2204574 0.43080044 0.3804141 -2.2770371 0.84524786 -0.62744075 -0.7737882 0.74520874 0.90613025 0.5170853 1.6103722 -0.77691096 
0.24937735 -0.10617154 -1.0227699 -0.5579619 0.26372156 0.0048546586 0.12706633 -0.59815854 -0.19188896 -0.32137486 -0.94594353 -0.41889387 1.0969058 -1.8256645 0.04458908 1.3709362 -0.9074473 -0.32489127 1.3210181 0.72152615 0.5312218 0.09712889 0.4803838 -1.0563754 -0.29838154 0.73557365 -0.9545927 -1.313207 -0.47881615 -2.165735 -0.76234055 0.4133115 0.013861718 -0.15790482 -0.71592677 -1.3788288 0.27153885 0.36548206 -0.73263186 -0.47260565 -0.40148935 0.19967428 -0.6996334 0.53813404 -0.9707144 -0.2754008 1.2787662 -0.098626524 0.7479964 0.7937726 -0.79501706 -1.8084489 0.24475303 0.41890067 -0.7716994 -0.2869444 -0.50870115 0.54149526 -0.32048106 0.24844798 -0.25401437 -0.39963087 0.34139103 0.28029162 
-0.4272514 0.50567293 0.3551044 -0.41646323 0.73974687 -0.682388 -0.0571499 0.7795564 -1.1663095 -0.707426 -0.1765777 -0.32162324 0.89187217 -1.4462476 0.37756822 1.4968637 1.0172036 -0.4896055 1.0934116 0.5618735 0.89417 -1.6945218 -1.3897504 -0.122713774 -1.394302 -0.70195276 0.067098096 0.4980696 0.85730475 -0.1497757 0.029021524 -0.8508638 0.5422259 0.37778276 -0.17604095 -0.9647216 -0.24061553 0.5474005 0.46485394 -0.40957773 0.46737072 0.6967931 -0.767578 -0.5471373 -1.5953511 0.58049905 0.050279547 0.59531283 -1.1873333 -0.5648663 -0.26718193 0.57299095 -0.40461951 -0.76910955 -0.1966231 2.193714 0.08611563 -0.5880565 -0.31923354 0.40326363 0.016654389 -0.5253339 -0.8253579 0.85308194 
-0.8210618 -1.3217891 0.15102021 1.3902057 1.1077583 -0.25291744 0.6661027 -0.5842562 -0.80015707 0.6948429 0.15223102 -0.63594794 -0.8940509 -1.4017998 1.2954496 -0.5584629 0.6337332 -1.1169643 -0.75850904 -0.75294363 0.6905855 -0.7192013 1.7272016 1.1212935 -1.3018345 1.2778157 0.93793845 0.071090244 0.110324375 0.055440944 -0.041709777 -0.06473092 -0.5808623 -0.093476 -1.1673582 -0.96402735 -0.39569846 -0.966673 -0.11042054 -0.96496487 0.68928695 -0.51501834 0.2209553 1.5326983 -0.8749807 -1.0121596 2.152575 -0.12599584 -0.41965246 -1.1528935 -0.19744165 0.72451186 -0.10284678 1.3638351 1.18779 -1.0416617 -0.2232038 -0.07518915 -0.5498926 -1.3853514 0.74530053 -0.23555076 0.441553 -0.89700735 
-0.5866762 0.07771733 -0.9671081 -1.3157343 -0.16648586 0.3246016 -0.6461542 -0.13634929 0.2619098 -0.29192397 0.6005864 -0.72303635 -0.4127605 -0.5212453 0.22982374 1.1483665 0.2572045 -0.19919182 0.4544245 0.81630003 -1.1992179 -0.577514 -0.18259747 -1.3083038 -1.6377317 0.2280865 -0.41467017 -1.0296307 0.8038067 0.061591096 -0.1998932 0.49639982 0.9395932 0.16611868 1.0545441 -0.051951233 -1.1043535 0.24957597 -0.06506315 -0.042006828 -1.0205306 0.01742628 1.4163876 -0.70560634 0.7795423 0.635571 0.9320907 0.6053928 0.99001783 0.05137202 -1.3362154 0.6834891 -0.53311294 -1.5081378 -0.6287767 -0.010220388 -0.9093608 -0.88073987 1.2011026 -0.9032921 -0.96396047 1.2645603 -0.381313 0.4490194 
1.425998 -1.3326808 -0.66928434 0.76654786 0.5886695 0.5929814 0.028997548 -0.650339 -0.4992176 0.8114373 0.15888083 0.83892685 -0.1916647 0.26931608 0.7743133 -0.9690993 0.5206195 -1.377017 -1.873118 0.2738391 0.8225127 -2.038003 0.6339683 -0.27280995 0.018711742 0.608834 0.5764134 0.93182117 -0.692679 -0.77159125 0.6966807 1.4566542 -1.1897606 0.007099967 0.4151585 0.76439804 -1.2919856 -0.8891717 1.3235934 -2.3727074 -1.0399805 -0.42264545 -1.1357038 0.6227232 1.9985714 -1.1364783 2.6923852 0.26135683 -1.4607027 -0.88570696 -0.6554232 1.3996477 0.75547636 0.3391173 0.7622874 -0.5528624 -0.40962964 1.8112469 -0.28628975 -1.438163 -0.37486514 -0.57541466 1.8753682 -1.2382902 
0.93784904 -0.7531959 -2.6408236 -0.09193945 1.1503453 -0.014191576 0.38141528 -0.9442673 1.5962214 0.11526092 0.33653888 0.5453839 -1.7150476 0.46154094 0.63264954 -0.39142236 0.10907882 -0.5749557 -1.0483723 -1.4990194 0.5832551 -0.0010451599 -1.4140254 -0.6343918 -0.565582 1.0154027 -1.4629205 1.2105722 0.20839354 -0.72667897 1.8144982 0.4253112 -0.006192136 -1.2612898 -0.9894424 -0.18059738 -1.1174321 -0.9228985 1.8105887 -0.19521926 0.27730155 1.3346021 0.4262256 -0.01199742 -0.23136194 -0.6038505 1.0243856 1.2459246 -0.28112182 -0.34360766 0.80601496 1.3159676 0.7180404 -1.011581 -1.0246441 -0.5040553 -0.31390452 1.0518465 0.13682449 1.7082822 -0.9887593 -0.85207504 0.59334636 -0.91006947 
-0.6217161 0.31460693 -0.52344227 0.0417848 -0.070385925 0.15552695 0.17044505 -1.6131141 -0.449839 -0.4371504 -0.9374354 -0.424664 -0.34066427 -1.1972994 -1.0607952 -0.5999165 0.5729916 0.88868564 -0.47788918 -0.77249914 -0.14076811 -0.7213315 -1.6878928 -0.78868246 -1.8358623 -0.582573 -0.20376238 -1.1557924 -0.7298826 0.13184227 0.12670556 0.24675684 -0.3141848 -0.43176013 -0.46115574 -0.69878286 0.111989886 -0.25186798 -0.074749514 0.49506864 -0.3206607 -0.02675059 0.9753839 -1.1710993 0.24617954 0.97522044 0.350797 0.20020124 -0.11957139 -0.35610366 -1.345596 -0.60791636 -0.3975555 -1.0449212 0.38238516 -0.31809875 -1.0727179 0.3317307 -0.4467783 -0.28347945 -0.7994481 -1.4216455 -0.8409571 0.62819743 
0.5191915 -0.7619496 0.3456655 -0.4558434 0.57258576 0.6197482 1.5866977 -0.011669034 0.8998216 0.3499463 0.0055442885 0.3968179 -0.9855034 -2.2104714 1.6804519 -0.27455068 0.2870339 -0.61972713 -1.5315783 -1.0588259 1.3637693 -0.6072829 0.32359982 -0.000970311 0.10780875 0.5369929 0.41900325 0.71488994 -0.3543046 -0.47628173 1.1583763 0.74532294 -0.9794662 0.01315802 -0.50839984 0.5545018 -1.5080758 -0.9483452 1.3605298 -1.5306898 1.3203357 0.4865655 -0.08491873 1.9989009 1.5369177 -0.31503257 1.8043175 -0.052632872 -0.8511191 -1.7977933 -0.09649892 0.44302124 0.87281036 0.94531167 -0.59626865 -1.0955057 -0.21158278 0.41577968 -0.2181384 -0.12852608 0.5770335 0.2606655 -0.42272615 -1.2756146 
1.3327687 -0.80244505 0.6780759 -0.7469756 1.2824858 0.8168466 1.9410987 0.59844124 1.0678576 0.8280353 1.2968441 -1.11745 -0.7361632 -0.36791247 1.1225315 -0.07648491 1.7863253 0.1056948 -0.82160574 0.12683704 1.742863 0.63995075 0.7830781 1.256542 -1.4591316 0.69039357 1.5711387 0.35335764 2.3256097 -0.9593927 1.6593866 0.30701616 -0.7263346 0.35728446 -0.7999836 -0.47157708 -0.70535505 -0.13548188 0.48858166 -0.27528897 -0.8866143 0.7494276 -1.0138272 1.2391138 0.6951618 -0.71455956 1.2063458 0.10187789 -1.2472138 -1.1612551 0.17685166 -0.2856559 -0.049615826 1.2232664 1.39342 0.13052142 0.23284528 0.6496448 0.24371636 -0.12553236 -0.07274384 -0.29580218 0.6022852 -0.34217435 
0.39955616 0.6384168 -0.46133268 -0.9509484 0.6384141 0.54631263 1.0690693 -0.38922125 -0.90065694 0.09068078 0.64524776 -0.6356827 0.6230273 -0.7804267 0.77249485 0.7722808 -1.0990638 1.0524255 -0.066870145 -0.42717022 1.0411146 -0.35159317 -0.22549543 -0.3927528 -1.3845044 1.6915075 -0.34857365 -1.5679077 0.29433924 0.04964311 1.6991267 -0.23569554 0.12849489 -0.2296196 -1.1206856 0.532641 0.21142572 -0.17988428 0.6550029 -2.0048597 -0.016423427 -0.21639305 -0.1235849 1.4507462 -0.25409034 0.9049465 0.66934407 0.41580564 -0.2173605 1.5411873 0.33974263 0.3691671 -1.4570906 1.450686 -0.5492942 0.80912083 -1.3475571 -0.7485442 -0.042130377 -0.6897173 -0.16702302 1.7362937 0.4762193 0.5415883 
0.8357156 0.95168877 0.6146429 -0.82742715 -0.08688014 0.14661385 -0.802448 -1.6800399 0.01211313 1.369002 0.10658146 -1.317252 0.3468993 -0.52025926 1.4646769 -0.5939495 0.02124684 1.4775842 0.14103352 -1.4466578 -0.543865 -1.2285019 -0.087071665 -1.2539846 -1.6742706 -0.13207233 1.0202214 -0.16006286 0.72244173 -0.042461887 -0.07614442 -0.8953369 0.76417625 0.65035176 -1.3475274 -0.6738081 -0.2016004 -0.31365108 -0.27851057 -0.11098294 -0.19144484 0.012726514 1.2864428 0.315404 -0.19499694 2.3044417 -0.4989532 0.6772574 -0.7658342 0.99826175 -0.85944957 -0.73530096 -0.40487707 0.54411453 0.37121114 1.5517856 -0.7987226 0.102813475 0.96975166 0.4775593 -0.46433777 1.1438692 -0.290534 1.2723881 
0.1489431 -1.3291131 1.1840125 -0.37405866 -0.8953069 1.5567502 0.88250375 -0.7336506 1.6359485 0.016455207 1.4014032 -0.6302226 -1.0118073 1.7231672 0.69401103 -0.41545436 0.43340164 -1.1612813 -1.1913474 -0.9575307 0.20815611 0.327271 -0.53006124 0.1556039 0.8078867 -0.10009288 1.3171617 -0.38036826 -0.58252525 0.06257927 -0.647691 0.96500725 -0.861654 -0.5900067 -1.828482 -0.8774596 -0.3117558 -0.47419217 1.2147206 -0.51527137 -0.7734834 0.79128313 -0.08619427 0.19569811 0.094070576 -0.8817083 1.5241859 0.40894386 -1.1044251 1.4523525 0.56185174 0.23004378 0.52663654 -0.52041996 1.1817247 0.26456177 1.4756728 0.60702854 0.011581444 -1.1860116 0.43399858 -0.47439378 -0.41249907 -1.553232 
-0.2179445 -0.8520345 -1.6858984 0.41333342 0.5181611 1.1388783 1.2181269 -0.5525684 0.32460955 1.7443057 1.4194405 0.4251085 -0.26760545 0.28771526 0.41465685 -1.4564553 1.9990091 -0.80023754 -1.5919974 -0.35536143 0.8876846 -1.7904899 -0.35167956 -0.21511784 -0.3242963 -0.8020445 -0.33354485 0.06844294 0.5777882 0.858211 0.67651016 0.16319057 -1.6063541 -0.21107496 0.43123654 1.2554982 -0.32237574 -1.1244926 -0.14360604 0.15468381 -1.9191884 0.8670004 -0.24312307 1.4396343 1.9958596 -0.82790816 0.9636293 -0.9836835 0.22455783 -0.28273788 0.28317133 -0.36626133 0.887949 0.29270408 1.531863 -0.6989525 0.31783608 1.2716043 -0.16051745 -1.1059703 -0.09913023 0.39263484 2.0965693 -0.69291973 
0.9331969 -0.8408236 -1.0670398 -0.15641528 1.1321379 0.82498825 0.5758419 -1.3734502 0.26748908 0.23858842 -0.37168962 0.5830103 -1.1483403 1.353257 1.4199331 -0.8833453 -1.0191162 -1.5577443 0.13648339 0.6006697 0.424418 -0.24158931 0.38590157 0.22975744 0.5984745 -0.24788734 0.46033245 0.29824075 0.4430807 -1.1660467 0.65176094 0.7215382 -1.0980304 -1.0806504 1.3057634 -0.884676 -0.6241061 -1.4727373 0.76670605 -1.7987053 0.47273988 0.3305403 -1.2024192 0.56251633 0.35145432 -1.4936154 1.0345712 0.5081832 -1.0208064 -1.0225329 0.2899949 0.024431352 -0.21028796 -0.093599334 -0.417757 -1.3307787 0.7473481 0.6610836 0.28206748 -1.189957 1.027426 -0.9977789 0.36759073 -1.9844086 
-0.32782605 -0.14790846 0.32077324 -0.23399352 0.41046524 0.79103816 0.36114535 -0.04289977 -0.24888787 -0.26019987 -1.0610887 -1.7169645 -1.6734083 0.14777617 0.10264572 -0.20024763 -0.9791828 -0.069903575 -0.8928702 -0.814564 0.13122506 0.09764934 -1.1930815 -0.7382993 0.34852466 1.176763 -0.34538218 -0.028891735 0.72962123 -0.3367457 -0.45365533 0.21917799 -0.6192337 -1.4547802 0.6010483 -1.9596835 -0.7293077 -0.9228144 -0.17802337 0.96263593 -1.0458012 0.6424935 0.08352784 0.7025369 -0.7739572 -0.7526588 1.2025342 -1.4679987 -0.0054944092 -1.5158024 -0.06056063 -1.0076715 0.8309781 0.9066455 0.07421245 -0.6204409 0.41602933 -1.0609076 0.5602988 -0.13307855 -0.18972082 -0.39587343 -0.61183596 -0.30478868 
-0.3704618 -1.8493245 -1.8011378 -1.606404 -0.29048318 -0.9386806 -0.8449145 -1.2525595 -0.50082517 -0.84525746 -0.3894775 1.7724334 -1.3362027 -0.27065682 -1.7836169 -1.2290281 0.93488955 -1.2221783 -1.2463578 -0.21525405 0.527537 -1.0756934 -2.0090039 -0.5876998 0.30394337 0.17338052 -1.765558 -0.3526246 1.3251015 0.24270819 -1.0265046 0.0415647 -1.1523734 -0.37235907 0.47318235 -1.0641367 -1.5732961 -0.82012296 -0.73890984 -0.096175574 -0.53563035 0.8799237 -1.857761 -0.68979335 -0.36156443 -0.848884 0.09032187 -0.08936177 1.7790338 0.8569859 0.1845275 -2.7275307 0.38583916 -0.53619605 -0.26533994 -1.0768849 -0.85264236 0.71134627 0.25647333 -1.2208438 0.07214991 -1.5593628 0.694364 -0.9654606 
1.1148562 -0.42937705 1.1006298 0.44828025 0.40120393 2.388398 0.3312709 -1.3289535 1.6656147 -0.35714364 -0.21792698 0.5075855 -0.6929028 -0.25007185 1.8745719 -0.79523724 0.9345118 -0.75053024 -2.403748 -0.79107594 -0.42424032 -0.15102232 -0.16921946 -0.007765475 0.28552184 0.13843898 -1.4423863 1.0946172 0.7933976 -1.1158127 0.72397494 0.51958036 -1.097744 0.41010055 -1.5811341 0.9109465 -0.67655486 -0.8704578 0.25816897 -1.408253 0.57494706 -0.37255418 -0.41574025 0.61289304 1.5372127 -0.59934086 2.438046 -0.073095314 -0.95008826 -0.96584594 0.17716862 0.5810281 2.6064696 1.2979141 0.032591607 -0.25391704 -0.4443673 0.003022053 0.13479562 -0.106639914 0.0020107124 -0.96767247 0.2732633 -0.805327 
-2.3131778 0.07718609 0.6180168 -0.47613275 -0.02474658 -0.6488749 -1.2396687 -0.16580448 -1.124795 -0.5581034 -0.22000162 0.67756736 -0.043903235 -0.90427727 0.6679031 -0.70059264 -0.8709481 0.20688431 -0.22282262 0.1546447 -0.6839825 1.0108672 -0.9235306 -0.45649204 -0.10029561 -0.54724103 0.08694727 0.68068326 0.103954196 0.0036964202 -1.2282641 -2.023341 -1.407014 1.0563426 0.6112987 0.02771801 0.19893228 0.53926915 -0.35049832 -2.0688725 -0.41291365 1.0143269 1.2473547 -1.3589545 -0.37810013 -0.46465224 -0.14139302 1.0802264 1.0217831 0.9563545 -0.156139 0.65624785 -1.4544885 -1.0946754 -0.83397573 -0.6663451 0.35875124 -1.0827636 -0.3834905 -2.2873063 0.5074181 -0.23782074 -0.7317374 0.15742068 
0.4894332 -0.2750685 0.5653797 -0.412319 -0.5583374 0.6641592 0.3997503 -0.3403547 0.9443613 0.9975877 -0.039260186 -1.6209121 -1.3271095 -0.08996107 0.5720872 -0.12391506 -1.2991608 -1.2527028 -2.025449 -0.7007218 -0.77097607 2.133397 0.3412269 0.77167934 -2.2854679 1.3058394 1.6401138 -0.6168435 0.067676395 -1.465941 0.17701031 0.63632923 -0.33946058 1.974097 -0.65897363 -0.19622712 -1.5062076 -1.6562277 0.4161374 0.6734146 -1.277515 -0.88372076 -0.39929157 0.8736808 1.5860802 -0.981108 0.18551615 0.5541926 0.24591495 -0.86915934 -0.6575147 0.319854 0.2994178 1.1598598 0.9071062 -0.13033569 0.963822 1.3865325 -1.1679837 0.3983731 -0.6074962 -0.83092 0.08773952 -1.0457965 
-0.6377428 -0.9711348 1.2349676 0.30935386 -0.73176193 -0.47301647 -0.6132458 0.018222366 1.1786892 -0.38830534 -1.4352777 1.4379889 -0.82093227 0.6220603 -1.3919159 -0.9568826 2.014557 -1.5973167 -0.88702834 -0.24023132 -0.3286157 -0.02330991 0.85351497 -0.9931692 0.86526346 -1.9779352 0.8664899 0.37424618 -0.48591977 0.2376496 0.17274271 1.8959138 -0.99511623 -1.26462 0.7424403 0.19153441 -1.0152007 -1.113669 0.27280563 -0.74959666 0.0652599 0.26747593 -0.06819428 -1.2041663 1.1539614 -1.4763936 -0.019394228 0.21050277 0.1535306 0.9028239 0.31138602 0.050486367 -0.39230645 -0.6702819 0.35586584 -1.2182163 -0.6662284 -0.5435168 -0.6937317 0.98273194 0.41972494 -0.42545575 1.166222 -1.319619 
-0.2205453 -0.59220505 0.27713835 -1.1145169 0.28916904 0.74336886 0.71638685 0.028409634 -0.2743701 0.39642283 0.28586608 0.7117693 0.061022922 0.886097 1.3950912 -0.6956373 1.1708832 -0.7382939 -1.0284902 -0.74673814 -0.52872235 -0.42498955 0.35443875 -2.1599941 0.83902377 -0.5112294 1.0416713 0.11267054 1.8710753 -0.047181245 1.2560087 0.42504412 -1.6208028 -0.47538778 -0.13243923 -0.154649 -0.22293364 -1.0191936 0.95076174 -0.30124816 1.6522334 1.5216018 -0.12703113 -0.36015782 -0.30915478 -0.7940704 0.48863047 -0.024406292 0.058272634 0.38115886 -1.8776526 -0.029373482 0.51169807 0.40470743 -0.35291573 0.09353284 0.1710157 1.1862422 -0.29768753 1.007507 0.10650992 -0.45736694 2.2823749 -0.8082183 
0.4070333 1.1812993 1.1948571 0.20690441 -0.49427933 -0.51735604 -0.0071257832 1.689327 0.14761883 -0.5474629 -0.32089394 0.08955048 0.33705044 0.47373834 1.0173466 1.1387409 -1.1260291 0.4682719 0.5527025 -0.07762602 0.97303313 -0.3357533 0.84989333 -0.89838505 -0.38004237 -0.20601179 0.5330644 -0.32506484 0.8265376 -0.7937043 0.7547408 0.26814374 -0.23426586 0.0735792 -0.2872791 -1.2042698 0.15970351 1.2278159 0.70046526 -0.33537143 -0.127999 -0.301121 1.203606 0.6970809 -0.08164613 0.774241 -0.57750887 1.2751564 -0.6256742 -0.5303273 -0.1930627 0.6732504 -1.0242147 0.6251368 -0.86559457 1.3159151 0.10914871 -0.013297588 1.6259009 -0.9805862 0.7794453 0.403134 0.44867107 1.367314 
0.9641771 -1.1410463 0.49431154 0.73068905 0.052787673 0.75939184 0.9434951 -0.28994894 0.009317603 0.3147625 1.4300598 0.89031804 -1.3807076 -1.5410594 0.13218075 0.54339784 -0.46008983 -1.0229384 -0.4490495 -0.1418858 0.71636254 1.0356762 0.755146 0.16084719 -0.2546919 1.1202838 0.2259799 -0.13682242 1.0127434 -1.1265274 1.4226534 0.76873976 0.5408176 0.96129507 -1.0652899 0.70740354 -2.2478197 -0.98969436 -0.22868194 -1.8458802 0.5936063 1.8098242 -1.575982 1.0656999 1.5099142 -1.2614928 0.25771102 -0.40064222 -0.7032832 0.44375873 -0.47820252 0.5292216 -0.16561313 0.38344815 0.7843656 -0.8046929 1.1321493 -0.19578446 -0.42845067 -0.6173099 -0.8366955 -0.2197445 0.87345105 -1.1595336 
-0.53572047 0.9168724 -0.58538806 -1.6273909 -0.17644414 -0.36042014 -0.14633761 -0.17037843 -0.70672566 0.57613593 0.15566616 -0.42595086 0.6979059 0.1092112 -1.1070722 0.8512644 -0.18953606 -0.23480268 0.22799416 0.7177914 -0.53865254 -0.06820139 0.093667775 -0.31782043 -0.5664491 -0.120386876 -0.4012925 -0.7227781 -0.9056102 0.51346225 -0.47822523 -1.4065049 0.8383779 -0.25360644 -2.0436919 -0.42236608 -0.23487654 0.5575598 -0.6119022 -0.021303354 -1.0042211 -1.0536894 0.54750454 -0.07487552 -0.8831724 0.072984375 -0.2212508 0.92569375 -0.85397667 -0.13729283 0.10275295 -0.40357995 -0.546864 -0.47294202 -0.37023458 0.9483294 -0.6606806 -1.1251993 -1.026394 -0.021586187 0.09093921 0.11786598 -0.6689827 0.70394623 
0.18772236 -0.5105097 -1.2113198 -1.7985783 1.4154487 0.060041923 0.20703235 -0.503943 0.48751011 1.6512234 0.29308864 0.04918994 -0.0077670435 -1.0505798 1.6142825 -1.7611771 -1.0126942 -0.38682505 -1.5924814 0.12307371 0.60359395 0.035800017 0.6546574 0.14150251 -3.0811384 0.79408044 0.7304931 -0.5788842 -0.6838262 0.3894807 -0.7519636 0.45287642 -0.3814902 0.8719177 0.08637501 -0.12011174 0.086258836 -1.160275 0.34109688 -1.0851724 -1.537899 0.62270415 -0.93201965 0.633784 -0.33457083 -0.05056211 0.6955132 0.09110066 0.45085788 0.04302611 -0.06706122 -1.17156 -0.32871386 0.56394064 -0.22501418 0.41499075 -0.9314801 0.043144047 -0.1349796 -0.7456451 1.5107782 -0.75246817 0.51940215 0.11039307 
1.3825806 -0.55452144 0.18925874 0.21185608 0.29802397 0.64205533 -0.31396586 0.13318053 -1.1598712 0.78938246 0.16196734 -0.060176242 -0.86119306 -0.7582868 0.5676967 -0.32404512 0.4807402 -0.2662944 -1.4574243 -1.1942258 0.13260004 0.28243166 0.0724265 -0.29694209 -0.97963595 0.3560557 0.3532498 -1.34265 -0.5083731 -1.1729656 0.8781417 0.626181 -0.267479 0.5086884 0.049342867 0.22174326 -0.36143637 -0.5863871 1.0442593 -0.7098677 0.5041381 0.16966543 0.122143514 0.7255458 0.9407681 0.0843388 1.3253617 0.4073721 -1.0351493 -0.47809657 0.989723 1.9047589 1.6185148 0.49709177 0.33768773 0.100456245 -0.03084817 0.025558317 0.739686 0.77345383 0.6645874 -0.36957458 -0.028610626 -0.58071315 
-0.5636317 0.6177165 -0.76357526 -0.2955279 -0.7378334 0.56616277 -0.18344434 -0.930865 -0.08775856 -1.0162659 0.3948158 1.0916315 0.59903294 0.19641057 -0.24366313 0.7608007 -0.7927743 -0.10509572 0.2584345 -0.068698265 -0.5329717 -1.488432 -0.509729 -1.4306341 -0.48971203 -0.02464183 0.05837708 0.6005714 -1.0208116 -0.31780988 -0.6251055 -0.05408909 -0.18694577 -0.12263493 0.17495354 0.22838014 0.48924994 0.048024267 0.109119184 -0.81316936 -0.4974678 -1.4986352 1.269466 0.19065481 -1.6930896 0.22240044 -0.512503 0.06073758 0.45022735 0.050495047 0.1631884 -0.57015294 -0.20532668 -0.565163 -0.6996409 0.11266562 -0.5882031 0.32007092 0.36329642 -0.33051896 -1.446403 0.043674726 -1.1278086 0.6375312 
-0.5115036 -0.25358334 -0.53785175 -1.2088927 -0.21908638 -0.73608285 0.5940756 0.19710627 -1.0719396 -0.47495702 -1.0797801 -1.4899046 -1.1207094 -1.6229559 -0.42783257 -1.019996 -0.0062930346 -0.65044284 -0.9069457 -0.14195053 0.8632754 0.4649715 -1.0000918 -0.23916739 -0.11159352 -0.056894064 -1.7968311 -1.1823554 -0.9934475 0.08444007 -0.1125783 0.4980594 -1.1602625 -0.43846908 0.018428154 -0.30060732 -1.0466802 -1.5968153 -1.2881451 0.56932455 0.53651124 0.16360156 -0.07687203 0.5648801 -0.6131101 -0.3949339 1.3704787 -0.47638816 -0.15768497 -0.33462045 0.78528655 -1.391964 0.11079224 0.060233984 -0.5528138 -0.538976 -1.6711932 -0.014522903 0.049302787 0.5263934 -0.12941654 -0.41119927 -0.6787813 -0.5435409 
-0.19767325 -0.3041114 -0.3454103 -1.1208113 -0.2507875 0.33004275 -1.0446292 1.0870835 -0.5859829 -0.19103038 -1.1358914 0.044987194 0.6439699 -1.3811872 -0.22698446 0.0500662 -0.65004754 0.14844386 0.11945938 -1.3985218 -0.6512614 -0.23292357 0.6416467 0.81508905 -0.90511006 -0.37091306 -0.1459139 -0.5175075 -0.28469247 0.59036016 0.7917191 -0.32075754 0.64987034 0.1019416 0.50372875 -0.32230112 0.6435394 1.1782422 0.4051829 0.3666002 -1.4327825 0.36200088 1.0527394 -0.81201303 0.34285644 -0.0086715445 -0.29875696 1.198909 0.15907212 -1.2521363 -1.5324161 -0.8582801 -1.7235255 -0.62693053 1.0025978 0.28584415 -0.31715292 -0.46568182 0.54149926 -1.0074989 -0.47877872 1.3113457 -1.1481144 0.7891468 
0.00039139276 -0.5655196 0.290089 -0.78251034 -0.34643197 -0.16128366 0.31884316 -1.0897532 -0.005187305 -0.8364576 -0.53895384 -0.90710187 -1.3078272 -0.0930367 0.0614458 -0.27918848 1.075856 -0.4076082 -0.7724175 -0.7464996 0.45842507 0.7503601 1.5075961 0.15188777 -0.84421366 0.9116883 -0.086995386 -0.0606623 0.11767318 -0.53044665 0.8680657 -0.34328157 -0.82656175 -0.4108903 -0.724404 0.075071834 -0.7085344 -0.24586755 -1.3252759 -0.40224093 -0.34972194 0.16201593 0.35475513 -0.38671836 0.29137367 -0.5743177 0.53450835 -0.5628626 -0.2044706 -0.8408851 2.875334 0.7904222 0.2642162 0.14397672 0.8253119 0.11040516 0.37966636 0.88587296 -0.5091475 1.0280253 1.3631263 -0.23336484 2.426412 0.23555821 
-0.43637195 -0.6848633 -0.4709782 -0.67282003 -0.640485 -0.4014735 -0.5661883 -1.3135718 -0.5499028 -0.42816445 -2.0075839 -1.0155078 -0.33172607 -0.23847316 -1.3136034 0.0065007727 0.36794773 -0.16143589 0.2621912 -0.2239964 -0.5751496 0.4232922 -0.49143404 0.49258718 -0.52381486 0.037229408 -1.3089871 -0.3690841 -0.4851967 0.49891627 0.6368347 -0.41259378 -0.29037797 -0.39726406 -0.025149465 -0.80227846 -0.42612353 -0.3988485 -0.9744005 -1.3565294 0.99938494 -1.295907 -0.5314483 -0.6860716 -0.94147986 0.010962466 0.08649196 1.0001153 -1.1121898 -0.3962933 -0.020595487 -1.1892216 -0.5171133 -0.44347978 -0.28828618 -0.9181197 -0.8323989 -1.2556628 -0.07232257 0.12224169 0.006790056 -0.6022328 -0.20425949 -0.24523893 
-0.14705758 -1.0580009 -0.42044413 1.9792377 -2.1432993 -0.019448888 -0.5855975 -0.9524703 -0.04372546 0.060097132 -1.6041299 0.14715166 -1.8522643 0.24437761 -0.6122207 0.03753089 1.3910518 -1.2591665 -1.250832 -0.59722346 -0.6272872 0.62498707 -0.23235421 0.09560476 -0.4832409 -0.89647686 0.20342778 -0.12752151 -1.0606753 -1.12328 1.4715457 0.3767755 -1.4559127 -1.1436541 -1.8538735 0.06922404 -1.2927326 -1.0446724 -0.018061724 -2.0189219 0.5973075 -1.3437266 0.38861865 0.08679391 1.1548759 -0.6614006 1.4224833 0.36275396 -2.8119502 -2.064386 0.105615355 -1.2531729 0.7558758 0.6816144 -0.19213533 -1.661632 0.70433867 -1.3321444 0.90417206 0.36342543 1.1178058 -0.4807451 -0.03222175 -1.3122414 
0.7251039 -0.42157584 0.1848038 -0.90632534 1.8456526 -0.10524555 0.92563534 -0.34059095 0.23940296 1.2284814 0.9420249 -1.2868109 -0.22963089 -1.8726349 1.5464084 -0.7193195 0.33071882 -0.5510448 -0.10344668 -0.016897885 0.8844159 0.8285605 1.223888 1.5375351 0.1794944 1.4725302 -0.39338037 -0.15350579 -0.065175876 -1.2457703 0.073292725 1.0657355 -1.1351461 -0.18225256 -0.81440383 -0.20370369 -0.07013875 -0.2243687 0.18821822 -1.650095 -0.29315183 -0.7823523 0.02589172 0.5207738 0.1695199 -0.88974553 0.8257856 -1.1154151 0.8350603 -0.2579548 -0.3135462 -0.091874585 0.20843324 0.9165712 0.7873431 -0.03213681 0.41918015 -0.13299894 -0.2664423 -1.4272448 0.35675782 0.3206315 0.19462182 0.2506401 
-0.8719875 1.4392049 0.23731169 -1.3892367 -0.48115927 0.91357857 0.19390252 0.47742864 -0.4626488 0.6184309 -0.08401158 -0.042546444 0.65180594 -1.7992245 1.1546916 1.4440627 -1.2034237 0.8237134 0.46972102 -0.16592996 0.6725815 -1.5349058 -0.39606342 -1.0756907 -0.91583925 -0.18889527 0.18048605 -0.024531754 -1.1394271 0.9078905 1.4969904 1.1586149 1.2002422 -0.7574305 0.14672084 -0.38441303 0.101546325 0.05481918 0.4482233 -0.5891507 0.20656933 -1.5756246 0.7835069 1.0473304 -0.2603392 0.655308 0.52832454 0.050474815 -0.7698537 -0.6955976 0.051883966 0.514394 0.6699321 0.688573 -0.31041723 0.73396 -0.42286086 0.71021503 0.08649208 -0.0237992 -0.40688923 1.1415935 -0.78748554 0.572941 
1.1534934 -0.5759875 0.29968128 -0.39756262 0.3980514 0.020289443 0.30364084 0.37670088 0.48123693 0.48010373 0.57950056 -0.65540177 -0.33414856 -1.5419853 0.5909069 -0.66903645 -0.29795817 -1.0290849 -0.3300593 0.0034330217 0.51224583 -1.1737251 0.52662057 0.94553995 0.6160859 1.5689662 -0.4722859 0.4674702 0.8327768 0.41415548 0.47839764 -1.2250478 -0.37344456 -0.37879765 0.34463722 0.3010748 0.031111998 -0.12085391 -1.5014334 0.1361385 0.64020663 -1.5112567 -1.4919508 0.6676399 -0.551132 -1.4077109 0.97028697 -0.6899377 0.8402181 -0.11617163 -0.32050064 -0.7815788 -0.4783729 0.69330233 0.2606583 0.66669625 -0.85947406 -0.22793725 -1.2931135 -0.52754444 -0.085097 -0.36786777 0.17194146 -1.2350973 
0.70331055 -1.0318037 -1.4122576 -0.21952167 -0.73438525 0.42050415 0.8572536 -0.46022713 -1.1406617 0.51811886 1.1865621 0.62320375 -0.48364994 -2.883045 -0.31712618 -0.25125766 0.7509727 -0.58251977 -0.78391606 -1.0508299 1.3680153 -0.77231324 0.21879539 1.5601021 -2.4219658 0.82754683 0.033136297 1.7146966 -0.26443398 -0.42961824 -0.26801187 0.3438123 -0.6615437 1.1730356 -0.4487295 0.0010089047 -0.37856656 -0.4242777 -0.3775377 -0.29043043 0.571674 -0.051501468 -0.82343376 0.5071605 -0.7924769 -0.06094499 1.4768054 -0.4198481 -0.18091471 0.21806054 0.91220105 -0.53777164 -0.47339386 0.85818696 0.87770617 -1.3523537 0.6052783 -2.5614135 -0.4071688 0.14671215 1.8399662 -0.28364632 0.8003593 -0.6634772 
0.07997843 -1.1560978 1.6626343 0.19028714 0.95964664 0.36550975 0.26117983 -0.82049525 -0.80082494 0.20864631 -0.10692458 -0.21457717 -0.6920376 -2.7010343 1.7818694 -0.7165323 1.7168461 -0.78128755 -1.9139292 -0.8620362 0.9540159 1.1032779 0.6886814 0.8632351 0.57345074 -0.7586849 -1.847471 -0.40862188 0.5536846 0.67191774 0.27934802 1.5986701 -0.4146757 0.30597624 -1.047264 -0.30457318 -0.8711025 -0.5860266 0.35467675 1.0561218 0.5968943 -0.009977305 -0.4219118 0.24230048 -0.82965153 -0.73434156 1.0667039 1.2331083 -0.7477233 -0.6413432 1.1337812 0.2790063 1.3509134 0.7843246 -0.49159867 -0.8669647 1.1134418 -1.1496701 0.41206327 0.48796394 0.74734455 0.35395497 0.15177898 -0.88804173 
-1.1017836 -0.992377 0.8317352 -0.39739564 -1.8772708 2.2134926 -0.58650064 -0.13447261 -0.16130716 -1.8075336 1.4831171 0.25850457 -0.99963415 -0.9897194 0.90337735 -0.03837583 1.3849281 -0.36539903 -1.0591029 -1.3832146 -0.7860574 -0.8805835 -1.4721482 -1.3608546 -0.6602062 -0.20391063 1.0102112 0.59244597 0.44915456 -0.5528771 0.93262154 0.6719186 -0.67145574 0.06577255 -0.5460618 0.51684016 -0.95632875 -1.6822293 0.5299422 0.7840758 -1.0812123 -0.2480371 -0.5810499 0.12057993 0.85637534 -0.30004603 0.628724 -0.10129643 0.09625537 -0.70093435 -1.3919262 -0.18969165 1.0486029 -0.75719506 1.1313652 -0.21095526 -0.39660704 1.977663 -0.6913662 -0.8074049 -0.70360905 -0.67658806 1.5149219 -1.1805925 
-0.5747451 -0.48518524 0.012052179 0.016030664 -0.29384705 -0.13445759 1.4878788 -0.012553591 0.44021752 0.14632797 -0.50906885 -1.5659106 0.0138867665 -0.52236897 -0.05351946 -0.090972915 -0.663096 -1.37292 -0.47177473 0.15967743 0.6580642 0.024313346 0.105238214 -0.043120883 -2.1006875 0.9941073 0.2676895 0.121699415 -1.155707 0.8071419 -0.24469803 0.8120198 1.1661304 1.134437 0.32036197 -0.55096346 -1.2171448 -1.3003591 0.4737968 -0.74312323 0.39833698 -0.16880445 0.9480852 0.18978772 -0.43357435 -0.06818563 1.4613639 -0.6706279 0.3053741 0.033570938 -0.4982603 -0.14467461 0.7940885 0.12356118 0.9755815 -0.41405752 0.8054293 -0.52339447 -1.4206907 0.3094712 -0.35932603 -1.1060052 0.35029677 -0.6002872 
-1.0051332 0.50170535 -0.63827074 1.0582597 -0.17780769 -0.22961195 0.3087562 -0.33260316 -0.036374226 -0.40917578 0.007685881 -1.3733006 1.0459646 0.3892819 -0.35816228 0.16955175 -0.40634343 -0.009305531 0.8674097 0.23151302 0.18993531 -0.64938825 -0.39951092 -0.48276705 0.24445646 -0.0063709235 -0.19758491 -0.42639366 -0.026786052 0.119635895 -0.7530034 -0.036013715 -0.7726261 0.23644924 1.1062447 0.4805916 0.86349773 0.5917716 -0.5099211 0.04240634 -0.83162624 -1.3630189 -0.32337576 -0.107381545 -0.9742149 -0.29024577 0.3470286 0.6139289 0.33526984 -0.84756345 -0.44864807 -1.1199484 -0.5802823 -0.6709407 0.011949367 -0.5032783 0.830277 -0.13057625 -0.063239396 0.38001192 -0.4364237 -0.8661356 -0.24296 0.7952727 
-2.0159268 -0.32349622 -0.30398437 0.32742187 -0.14775681 -1.5517513 -0.4105124 -0.04631816 -0.62876135 -0.70062786 0.17502579 -1.3229192 -0.410596 0.53797865 -1.3949122 -0.5812067 0.64296865 -0.43257967 -0.97874594 -1.7538912 -1.1713072 -1.3982354 -0.3297296 -1.7679008 0.72184783 -0.061062653 -0.25849146 -0.5690148 -0.86768514 -0.23128451 -0.59020644 0.030906597 0.5291909 0.9001467 0.3799598 0.18549694 -1.4012059 -0.89111483 -0.18810393 0.47395286 0.6467135 -0.48694634 0.9573783 -0.8369807 0.7498799 -0.111948006 0.083845355 -0.11625071 -0.018759467 1.5414814 1.055543 0.6755663 -0.7858137 -2.4383948 -1.1302563 -0.12736653 -0.6011004 -0.790284 0.16696179 -0.8900259 -0.65292126 0.17777173 0.2225574 -0.29416022 
-1.0780605 -1.1708179 0.24432582 -0.04815447 1.0842497 0.45157593 -0.6879681 -0.7529898 0.12857687 -1.9149307 1.0068219 1.0722938 -0.7153359 0.92142016 -0.045312528 -0.50937563 0.12747262 -0.964435 -0.830904 -0.29123294 -0.9928848 1.3350526 -1.4343008 -1.3449205 0.34307754 -0.7313516 -0.8921508 -0.4581216 -0.109726995 -0.248064 1.5696903 0.4240025 -0.29462707 0.07808575 -0.46954867 -0.4625853 -0.6010599 -0.4495483 0.6121687 -0.9914046 0.04735355 1.6653951 -0.15853661 -0.91062564 1.8640565 -0.6499058 1.167713 -0.55001867 -0.3208639 1.2338933 1.2614139 1.1912869 1.0539645 -0.8880808 -1.3587989 -1.3723944 -1.0807264 1.2878072 0.7693936 1.3257177 0.17806049 -0.7412164 -0.19241458 -1.293164 
-0.7187372 -0.023419768 -0.012770754 0.14957343 -0.23798545 0.2809815 -0.69931656 2.3058498 -0.271208 0.21166126 -1.4346204 0.5699562 1.8475263 0.14990905 0.35539088 0.28586 -1.3566674 0.040640783 -1.7267357 1.1527549 0.31635788 -0.08076841 -0.45066997 -0.83494866 0.5617896 -1.2294134 -0.27388015 -0.04275773 -0.7631197 -0.23954383 -0.624624 0.3471541 -0.12091163 -0.09041601 1.1461272 0.9740173 -0.0006225696 -1.1720792 -1.2060348 0.7385287 -0.28369874 -0.42387918 0.3085259 -1.1052898 -0.92387927 -1.3198036 -0.46265134 1.9668945 0.87198436 -0.37763655 -0.47831827 -0.63186556 -0.6839287 -0.85466045 -0.43643364 1.0152243 -0.013820927 0.35952443 -0.43845552 -0.24875413 0.14097738 2.8138635 -1.0713652 0.30366766 
-0.28406164 -1.3421004 -1.1112701 -0.14340045 1.2214757 0.95289433 0.71951723 -0.009987151 -0.7350624 0.5351083 0.09076678 0.5146488 -0.66023076 -0.1410487 1.3886975 -0.6043642 0.52178943 -1.1805427 -1.6211067 -0.52515054 0.71961457 0.3812228 -0.3333792 -0.8112661 -0.57559174 1.7956958 1.4921142 -0.8967153 1.2222118 -0.8023607 1.3822286 -1.0885512 -0.3158024 2.2866735 -0.87899154 -0.36563963 0.32282746 -0.83376145 -1.1417776 -0.15142964 -0.7634123 -1.2070266 -0.3532615 1.2092081 -0.30798706 -1.0374985 1.8662659 -0.75604945 -1.1507376 -0.4203116 1.125616 -1.6663557 0.49164438 0.316854 0.94733715 -1.1515965 -0.5860437 1.3119022 0.16627876 -0.4747719 -1.289716 -1.1347893 0.8379947 -1.6286707 
1.4384748 -1.1996703 0.98377454 -0.35202727 -0.012191829 -0.41199094 0.8871648 -0.9736044 -0.33264765 0.9547295 1.6849854 1.2788861 -1.0383327 1.1886026 0.22618563 -1.7632067 1.9784442 -0.9617596 -1.4368672 0.23750386 1.6036515 1.3759692 0.8071699 1.6855096 -0.6192546 1.7829293 0.4810815 1.0105703 0.8432044 -0.33410355 1.1250796 0.7834741 -0.35197765 -0.5098869 0.7243448 0.32310364 0.33328274 -1.5498414 1.3105754 -1.9087069 -0.8579178 -0.96616364 -0.536087 0.62474406 -1.1883805 -0.9297001 1.9273611 -1.3351686 -0.5735113 -1.135364 0.13964204 0.050067168 0.5399599 0.031648863 1.5928631 -1.2748024 -2.1578145 0.20378044 -0.9854264 -0.6412221 -0.3850198 -1.1891247 0.33280203 -1.5712279 
-0.3960014 0.53643817 -1.1445581 -0.58073175 0.1348087 0.5060945 0.10646883 0.79195493 -0.052987434 -0.5483011 0.07721711 -0.7130599 0.7771661 -0.7786384 -0.21956097 0.3363499 -1.4600546 -0.19018085 1.2362604 0.95806915 -0.055072784 -1.0455934 -1.6231352 0.06869583 -0.2564391 -0.060059983 0.88978875 -0.41522187 0.0232608 0.93971306 0.29884472 -1.7555101 -0.42112818 0.5219342 1.2309717 -0.005058924 0.50552344 -0.04096957 0.24449413 -1.2557039 -0.7755065 0.93043876 0.40577123 -0.6052735 -0.092711374 -0.18512835 0.8938266 0.3406753 0.61978585 -0.093685634 -0.9820014 -0.4941628 0.2783724 -0.5188236 0.19051646 -0.9916524 0.6732698 0.49016562 -0.5845159 0.5958902 -1.845282 1.2533642 -0.5125849 0.56623393 
0.17201088 0.03588731 -0.34565467 -1.2455783 -0.74548435 0.610222 0.7515906 0.12863155 1.1639374 0.5198864 0.53694797 -0.9543642 0.017938761 -1.1603594 0.1191151 -1.3700979 -0.78180707 0.26399398 0.07123753 -0.027128557 0.5678575 -0.15435046 -0.5376891 -0.36976105 -0.69273955 0.43672025 -0.29294914 -0.4187315 -0.64179987 -0.24711785 -0.34379634 0.42500257 -0.9394314 -1.324537 0.8599842 -0.19316502 0.15223736 -0.035785258 -1.1667485 0.02397674 0.5860541 -0.27457044 0.374754 1.0285627 0.060890235 0.11152526 0.8612906 -0.62305677 0.5003238 -0.24632873 0.3445026 0.42474988 0.14235836 0.46916422 -0.8615794 -0.7703006 0.36217085 0.5566554 0.2152405 0.42640465 -2.3140683 0.73319 0.8750446 0.033257622 
0.6578768 1.5861219 -0.627703 0.24047786 0.16375552 0.35176083 0.7458569 0.57336915 0.0013672856 0.86084104 -0.7697874 -0.790901 -0.020368874 -0.5973715 -1.2349355 0.9119424 0.83083004 0.35607994 -0.432983 -0.25934336 0.09271718 -1.6349478 -0.68925977 -0.07461796 -1.0091895 0.5312166 -1.7711236 0.6567893 -0.47996956 -1.5196441 -0.21863571 -0.21403201 0.8256454 0.053023923 0.0043570898 0.21272989 0.8679985 -0.29699105 -0.16010927 -1.1033933 -0.4078697 -0.42562348 0.54490167 -0.44883654 -0.12781693 -0.657001 -0.21561453 -0.78144765 1.1165032 0.42139953 -0.101716764 -2.4060495 0.33250725 -1.3545663 0.7723801 1.6101997 -0.9562803 -0.6122596 -0.29863912 0.7293958 -0.34467852 1.0502622 0.24153985 0.7256719 
-0.88427347 -1.86979 0.16562001 1.2406781 0.089372255 0.74574786 -1.9992361 -0.79915893 -0.78447914 -1.8628412 0.19540258 0.5914234 -1.3216382 -0.32779816 0.8816816 -1.1373713 0.7184585 -2.131334 -0.9783396 0.1440964 -1.1249439 1.6528091 0.18957874 0.11631563 -0.1533571 0.271743 0.03779647 1.1221491 0.21326196 0.9707314 -0.2336941 -0.46756157 -2.1438987 0.116612814 1.0986154 0.88352764 -0.22930479 -1.3124998 1.6191571 -0.016031537 -1.5108807 -0.62112975 -0.67724466 -1.982848 0.8613993 -1.4226979 0.017565006 1.4669276 1.4407357 0.15021867 0.40030003 0.4790548 0.2844458 -1.3372525 -0.8757487 -1.1949606 -0.026648674 1.4376173 -0.58793694 -1.6243875 1.0743171 -0.62923086 0.752384 -1.7851301 
-0.3745379 -0.74788797 0.8786003 -0.44859928 -0.04228292 -1.5450404 -1.0661112 0.010249015 -0.781797 -0.80177915 0.32940853 0.97857094 0.08258869 -0.9775768 -0.07936668 -1.2778502 0.45771 -0.7988628 -0.50812125 0.42561334 -0.28391665 0.7555034 -0.85162586 -0.47013524 -0.92813385 0.342198 -1.2867312 -0.5603333 0.004321488 0.61300695 -0.34315088 -0.50621647 -0.7013757 -1.3800175 0.98771995 0.5418711 0.9805995 -0.40977958 0.33583748 -3.3267353 0.30668914 -0.29819494 -0.3471322 -1.1521093 -0.094329044 -0.708784 -0.83691585 1.2110525 0.15160397 1.1696687 0.4776064 0.42642263 -0.8933238 -0.649873 -2.1718912 -0.8128878 -0.21287607 -1.7254182 0.15740617 -0.25142935 0.36911586 0.19442658 -1.0705788 -0.61830413 
0.8254876 0.0029079358 1.4413975 -0.50793684 0.06080462 -0.5893948 0.19440174 0.4266724 1.3128045 0.2734269 0.37718457 -0.2474995 0.038347676 -0.64144236 0.85511047 1.577891 -0.24193028 -0.5700817 0.1354201 0.6228437 0.14207503 1.2484547 -0.83877176 0.14684984 -1.5723581 0.19389555 1.4108865 1.9411898 1.485528 0.6390011 -1.4807492 -0.45589846 0.56312454 1.4589301 -0.5001613 0.19009732 -0.4009172 -1.0371367 1.4590046 0.1741561 -0.94210255 -0.61540484 1.0897956 -0.37126464 1.2585667 -0.59965444 -0.053592708 1.1803054 -0.18651594 -0.18956569 -1.056607 -0.051491912 0.30781814 0.51258665 -0.76267856 0.11930098 -0.37288344 1.0851849 -0.093104176 -0.27816755 1.2420098 0.22503398 -0.1815697 -0.13964778 
0.68064874 -1.0821617 0.48276284 1.1039557 -1.2610482 -0.7207797 0.6500946 -1.23555 0.8394435 1.4110265 -0.5042489 0.08124926 -0.80336213 -0.54742837 0.44414577 0.06569316 -0.5247847 -0.7882589 -0.5744379 -0.7436739 0.3681764 0.2719106 1.0165962 0.9598526 0.904822 0.247753 0.7720302 -0.27207842 -0.35592517 -0.44386047 0.5662281 0.32519916 -0.2628233 -1.7284532 0.20519589 -1.1382614 -1.1104581 -1.0364404 -0.3678513 -0.36878094 -0.37171602 -0.3200633 -0.50536996 0.46590292 0.67498857 -0.5803226 1.6456397 0.6165346 -0.23557754 -1.6289011 -0.13057393 -0.43303892 -1.0697596 0.52772975 0.49169898 -0.3622366 0.0422126 0.39182952 -0.9103724 -1.1009064 1.6271366 -0.9394529 -1.1855667 -1.3557642 
0.26836893 -0.1468757 -0.7119933 -1.8172036 1.762724 -0.054838087 0.57485616 0.7738943 0.41616288 1.1184696 -1.9563754 0.6669536 -0.17390202 0.20362096 -0.023899892 0.22053501 1.4217613 -0.47867864 -0.95256716 0.11061913 0.9502015 0.29701534 0.34779176 -0.5302813 0.87862855 0.27342638 -0.2787768 0.22978432 0.5968269 -1.0021678 0.24533238 -0.6751867 0.43301213 0.1640587 -0.22015989 -0.54402107 0.22899902 -0.24071455 0.26003918 -0.021577144 -0.74716955 -0.34848478 0.10721412 0.36863616 -0.9882013 -0.829179 0.85325384 0.9534369 -1.1452959 -1.2624832 -1.600174 -0.26878208 -0.7884928 -0.15380193 -0.27112263 0.09522824 -1.7117428 0.20210156 -1.1031121 0.5100178 -0.15768515 0.30872658 0.8637027 -0.98103166 
-1.4288781 0.61048675 -0.28911993 0.07819556 -0.36395139 0.3809417 -1.2177488 0.63081056 0.2958763 -0.6852644 -1.531862 -0.5730039 0.38751394 -0.73294806 0.07933351 -0.11499738 -0.41729143 0.7556206 0.72173834 0.8580792 -1.543548 -0.189917 -0.28792244 -0.6689915 -1.9186301 0.22563885 1.25106 0.57642025 -0.8949071 -0.12890565 -1.0554754 0.8846351 -0.4237308 -0.40768787 0.038980465 0.5812469 0.22424094 -0.18375629 -0.53495264 -1.4711213 -0.9780622 0.60043377 -1.5803834 -0.54270655 -0.7581495 0.8732401 -0.2346553 1.3359715 -0.5495092 -0.53349173 -0.1468195 1.0254277 -0.24071749 -0.6319294 -0.0055276 -0.50904363 0.31986624 0.20326151 0.98292613 -1.0067807 -0.96076703 0.051458843 -1.0036591 0.4133073 
0.43801606 -0.32588637 -1.3514347 -2.3855648 0.28762713 0.62061304 1.1265517 -1.2208141 1.2787547 0.1417957 0.33249804 0.029801114 -0.67271733 0.23474741 0.35420933 -2.1022923 0.71992344 -1.5089717 -1.5529037 -0.7100603 1.2576929 -0.6829154 -0.49706683 0.85295045 0.95582974 0.5146971 1.8353357 0.4561914 0.39897817 -1.9876341 -0.78850555 0.64819497 -0.35880572 0.03928639 0.37186676 -0.1298507 -0.40418792 -1.0045964 0.9172325 -1.1070697 -0.4528458 -1.1350601 -1.1984555 1.141547 0.24053103 -1.0886061 0.86988765 0.017856672 -0.36141407 0.11256338 -1.2704595 0.48229098 0.47263023 0.09120145 0.67573965 -1.1105198 -0.13353531 -0.26719365 -1.0279319 -0.47834066 0.55790997 -0.7568808 0.12635925 -0.8542243 
0.47188118 1.4601512 0.63472164 0.034652036 0.036044143 -1.4272318 0.79689676 -0.7039059 -1.0144498 1.0545872 1.1600497 0.07787167 1.037007 -0.78482276 1.104271 0.33679593 -0.022494243 1.6127344 0.78414965 0.46019766 0.92241186 -0.05569797 0.8908595 -0.25980425 -1.660186 1.2395457 -0.5494061 0.13122483 -1.1153809 0.8247732 -0.05779243 0.39744228 1.2111901 0.35082912 -1.8370947 -0.81746906 0.78986174 0.20984684 0.8900828 -1.740168 0.6085053 0.051354002 -0.41424578 0.32815138 -0.56239647 0.9207849 0.588919 0.16271427 -0.64588434 -0.6256595 0.08432907 -0.9680053 -0.74731594 0.5320123 -0.17047016 1.5988711 0.27569443 -0.4960306 0.024468819 -0.06071098 0.28070432 1.1017182 0.25743672 0.95380104 
0.21539916 0.81646484 0.263578 -0.75837445 -0.75513864 -0.97525674 1.3343593 0.98253214 -0.63734823 1.0694162 0.48649895 -1.8482134 0.956726 -0.39146703 0.17849892 0.71256036 -0.2768131 0.22156739 0.97173786 0.31708035 0.68279034 -1.1621573 0.3110065 -1.0276909 -1.5683622 0.7267937 -1.1271349 -0.17792523 1.0996232 -1.0643615 -0.55361074 0.07416026 0.39475158 0.21883082 0.37508845 0.88317055 0.2984205 0.6548489 -0.07014512 -1.2620717 0.6969131 -0.27581662 0.50521743 1.0094608 0.19508772 0.45862418 1.2211418 -0.4441384 -0.15719153 -1.3028951 1.3758327 -1.4646441 1.5259767 0.40633318 -1.1181837 0.18155429 0.5977316 -0.0153434975 0.3143942 0.17360714 0.07180795 0.35665366 1.062824 0.91604763 
0.28191882 -1.2308999 0.9145792 0.7781957 1.5789447 0.26304448 -0.87372786 -0.18431371 0.21834 0.1384434 0.9665642 -0.7258074 -1.5575415 2.470791 1.2655643 -1.0069846 -0.35484898 -1.3378853 -1.2431136 -1.3310528 -0.106801815 1.1248646 -0.9715806 0.9868912 1.0789808 -0.87851936 0.33739707 1.7026316 1.3043486 0.17186597 -0.2554131 0.104447655 -0.20529053 -1.9980692 -1.2852912 1.1121494 -0.39939564 -1.8691736 1.1556523 0.9097111 1.0672328 2.105398 0.06812506 0.68648696 -0.52213436 -1.651647 0.21969368 -0.8953059 -1.1248984 1.0284042 0.20705247 0.8430436 0.52158386 -0.67541987 -1.3412205 -1.1648096 0.3184845 1.2063442 -0.24551381 0.8148336 0.65633917 -0.12435182 0.5099938 -0.8102674 
0.42482466 -0.81848997 -0.28508297 -0.15671302 -0.7402572 -0.63396776 0.4560435 0.34727755 -0.0887646 0.5226612 1.1925058 -0.31372786 0.32989192 -1.0277314 0.34195915 -0.81577593 -0.76760966 -0.9582739 -0.32815894 0.50810915 -1.08442 -1.5527935 -1.428289 -2.1097665 0.6626558 1.4289821 -0.25747892 0.073906474 0.13600911 -1.7618084 -1.5212666 0.23586586 -0.7656029 -0.1475524 0.2466422 0.7153434 -1.1073264 -0.25872636 0.39075175 -1.7802129 -0.97094107 1.3133509 -1.0248202 -0.06741823 1.0988915 -0.3184569 0.4483108 0.67847896 -1.7395006 1.1607615 0.98484474 0.14792866 0.9191589 0.031938076 -0.8908052 -0.21922776 0.92257017 0.008656899 -1.2073171 -0.163264 -0.6932915 -0.36563143 0.75230277 -1.0808252 
-0.42498085 -0.64007 0.16429181 0.8011262 1.5471005 0.17278722 0.24663642 -0.86440045 0.64890987 0.7975227 -0.09588236 1.2992442 -0.8427182 1.4914587 -0.21469127 -0.24485748 0.5371752 -1.0888406 -0.6921163 -0.013089819 0.22617558 0.24838087 -0.90559316 0.3395142 0.25233784 0.6318169 -0.23701857 0.20452397 -0.5320296 -0.45964608 0.83385575 0.14957276 -0.46746975 0.55655366 -0.60531896 -0.7757997 -1.285164 -0.32034758 0.63097215 -0.89988375 0.6155356 1.4950526 -1.2842246 0.7608148 2.0086126 -0.7963313 1.4094386 -0.16280873 -0.22435093 -0.10715744 0.43905154 1.1246606 -0.22721055 -0.019281438 -0.15368257 -1.1226667 -0.29718876 -0.41255978 -0.6336141 1.0474015 -0.88631773 -0.35837072 0.17111434 -1.1559874 
-0.48329762 -0.42417327 0.66594505 0.11023586 0.93851334 1.2532034 -1.1876308 0.21976098 -1.297363 0.053432614 -0.85406744 1.43654 0.1058751 -0.06586526 0.28513604 -0.124939315 -0.8456506 -0.27515352 0.38471052 -0.21741754 0.26284614 1.2960784 0.04878654 1.3643279 -1.0642374 0.3678419 -0.07705678 -0.51870775 0.051618334 -0.102500655 -0.24234496 -1.7103022 1.1298475 -0.2582348 -0.48306084 0.36130446 -0.48464444 0.34139445 -1.5986036 0.0070903758 0.31989175 0.38965738 0.065856375 0.5323958 -0.6595476 0.8173981 0.20886149 0.35083047 -0.90659773 0.0033525608 -0.8931548 -0.027880535 0.67931575 0.20210105 -0.042177994 -0.95009184 0.0493438 0.0053769387 -0.40028673 -0.8787114 1.3748952 -0.2506094 -1.1284103 -0.12982687 
-0.89754534 0.26900035 -0.3273449 -0.0500923 -1.657947 -0.25301147 -0.32443368 0.8616875 -0.38205215 -0.50314116 0.39327598 -0.13739717 0.24489571 -0.58876663 -0.61367166 -0.5876332 0.33528015 0.8774454 0.3647485 -0.10202158 -0.33543965 0.044504784 -0.77358866 -1.1867567 1.0747247 -0.041224662 0.29816487 -0.8075475 -0.8991372 -1.0180411 -0.5805454 -0.4856988 -0.014210604 -1.0208116 -0.4861328 0.0059499163 0.12706086 0.44965264 -0.688782 0.2723216 -1.0999355 -0.82202744 -0.13369672 -0.58247095 1.0599668 0.5747134 0.13296244 0.11754026 -1.3227504 -1.1766943 -1.1248496 -0.141491 0.14052156 -1.4284534 -0.2496858 1.0996898 -0.51748556 -0.48996 -0.17208311 -1.4045757 -0.34250224 0.0529585 0.48891592 0.1964495 
-0.84539086 0.39103335 0.08518143 -1.1649601 -0.36192086 0.1273817 -0.45294595 0.4903132 -1.257935 -0.25295135 0.29204306 -0.087031856 0.28306404 0.8105055 -0.49015936 0.67790675 -0.2102157 0.11710162 -0.34675327 -0.06831158 -1.0942441 0.6271439 -0.6875631 -0.2609804 0.05454997 -0.9813011 -0.52339035 -0.14867166 -1.15145 0.1352127 -1.4926349 0.016969135 1.2294579 -0.21302107 -0.6685837 -1.1965272 -1.2300447 -0.37233594 0.55166227 -1.6174574 -0.28759047 -1.1115134 -0.8584246 -0.8768227 0.005368422 0.5185465 -1.4433874 0.8210535 0.75568247 0.36254257 0.28705174 0.12604934 0.03361901 -1.1669842 -0.45377326 1.0787538 -0.1399675 -0.38566577 -0.6553786 -0.6305179 -0.04447812 -0.3088957 0.6575998 0.4040772 
0.6549777 1.2041969 0.9704453 -0.23400685 0.2767476 0.22300753 0.19814081 0.4546154 -1.033903 0.050604932 1.0159593 -1.1806281 0.21741723 -1.8084162 1.2125136 -0.7702236 0.056360062 0.78713214 -0.42113927 -0.48225158 0.5738598 -0.45126283 0.43792447 0.49799198 -0.14271016 -0.17970566 0.7777594 -1.6009945 0.41803625 -0.402935 0.97880065 0.9908353 -0.5726942 -0.83393884 -0.86022806 0.018117324 0.50399476 -1.2800511 -0.05590147 -0.2700271 0.4059942 0.38244492 -0.10141793 0.63537645 0.4866462 0.7383638 0.62679106 -0.3943223 -0.13037467 -1.2493731 -0.4489423 -0.4587388 1.6878619 2.0254872 0.30537352 1.8515041 0.5413473 -0.07298068 0.3619131 0.7020867 0.4600465 -0.17619698 -0.24549912 1.035661 
-0.38963646 0.13649514 -1.3949323 1.3646011 0.43120113 -0.8756133 -1.7497083 1.0128138 -0.7116992 -0.34339327 -1.5013256 -0.20268221 0.29983607 0.6594282 -1.3981184 -0.20608653 0.41332492 0.2651877 -0.07050655 -0.5309441 -2.8250346 0.2144152 0.052000303 -0.6657082 -0.3385259 -0.42599624 -0.3554584 -0.3020191 -1.5508829 -0.24429402 0.001332896 -0.14093506 -0.7800261 0.40879458 -0.36104465 -0.7068701 -0.78280616 -0.5928507 -0.7948419 0.44194487 -0.7783507 -1.078492 -0.49993315 -1.007519 -0.45167732 0.041038465 -0.58853024 0.41806877 -0.8398289 -1.2627895 0.119213276 -1.3739159 -1.1438516 -1.0167946 0.11460297 0.70771676 0.015309387 0.2141316 -0.42868665 -1.7401373 0.2985869 0.9540259 -0.7195331 0.003204954 
0.6593179 -0.9519675 -0.54935944 0.50307304 0.24340126 0.48131147 0.4066687 0.0011596078 -1.0991505 0.45427173 1.235388 -0.94819075 -0.9441332 -1.5275829 0.7954703 -0.49996215 0.88273585 -1.1992223 -0.41928414 0.33291498 -0.4080633 0.43695867 -1.4514673 0.40427154 -0.22879809 1.0239241 -0.39997783 -0.27184728 0.51340616 0.025949806 -0.68337274 -1.2596675 -1.9844273 1.0890903 1.2242291 -0.19924462 -1.5625162 -0.31082818 1.6096556 -0.46447235 -0.117063284 0.23209968 -1.9451339 -1.6098604 1.2589676 -1.0124035 -0.6466163 -0.06606818 1.268914 -0.60960865 0.3483007 0.95654887 -0.56879246 -0.48624596 -0.16697335 -0.47854596 1.0937396 0.37278357 -0.25818843 -0.9875403 -0.75386024 -0.7642914 0.002320637 -0.7915099 
0.17695521 0.46302477 -0.7254122 1.2170693 -0.14738712 0.21315199 -0.77468145 0.42025694 0.24189627 0.37430683 -0.2006186 -0.16059344 -0.719757 -1.5202073 0.6614902 -0.7893283 -0.7992228 1.059291 -0.002793431 0.3439416 0.034998175 -0.9671801 0.50449187 -0.72915536 -1.0000336 0.82829165 -1.5887879 -0.427831 -0.13773859 -0.0041319137 0.27990085 0.6890172 0.4936823 0.86357534 -0.41843545 0.36043215 -0.39527547 0.44880688 0.60754013 -0.788054 -1.7915695 -0.9610923 0.6754282 -0.80606174 -0.7374971 0.61334956 0.19707537 1.0381082 -1.1288897 -1.6740835 -0.6858678 -0.8258295 0.10805176 0.5957349 0.16957465 1.1177437 0.22290775 0.5452445 0.28338933 -1.2030619 0.7479769 -0.28789768 -0.23040575 0.1471749 
-0.5974384 -0.204134 1.5546278 -0.20017922 -0.6330098 -0.646048 1.4767746 -0.7461462 0.338166 0.64742815 -0.89431983 -0.23570187 0.031206748 -1.197292 -1.8332658 -0.3493269 0.16968043 0.21972957 -1.0942847 -0.22547239 0.5016706 0.82673603 0.34411952 0.4946179 -0.90157783 0.7283602 0.6622046 0.08514296 -2.1074493 0.3203746 -1.4183483 -0.7054459 -1.3888803 1.1753182 -0.09649204 -0.70665085 -0.8567953 -1.0790262 -0.47152618 -0.32227474 0.65558285 -1.2518123 -0.60359144 0.22643611 0.99304366 0.5459862 1.6919256 -1.2699537 -0.74397695 -0.104230426 0.8412401 0.7380577 0.26193863 0.29285228 1.0435814 -0.894398 -0.58436114 0.3729386 0.2536539 0.5631105 0.62965643 0.00015890709 0.6922156 -0.47065535 
-0.41146246 0.36272377 -1.164402 -0.109715685 -0.36366946 0.4821594 -0.44806468 -0.58541703 0.032367073 -1.3270309 -0.37329686 -0.43067637 0.27997023 -0.66514486 0.028649723 -0.50100434 -0.23394243 0.25099346 -0.11903899 -1.6244897 -0.43031698 -0.4855857 -1.0332384 -0.80856276 -0.6729016 -0.58790445 -0.6438617 -0.11142492 -0.17626062 0.043170463 -1.5597283 -0.06849769 -1.1017047 -0.14164737 -0.6997346 -0.69650424 0.84248435 -0.21280417 -0.03529122 -1.7558315 -1.8804711 0.2871045 0.13193612 -0.9472788 -0.5622041 0.24379429 0.012054141 1.0221026 0.14650683 -0.3759873 0.30178323 -0.10891956 -0.71669835 -1.3563468 0.057299394 0.33511874 -0.049017224 -0.40812516 0.49972972 -0.67025566 -0.7683093 -1.4519507 -0.16492334 0.24780652 
-1.1495001 -0.05311793 -0.3996061 -0.34292117 -0.06755261 -0.32101393 -0.28894436 -0.4530222 -0.5663597 -0.4159272 -1.3068613 -0.06822517 0.29475763 -0.1739559 -0.6353125 -0.06115324 0.0071232454 0.5626931 0.029846879 0.93169844 -0.2790146 -1.1542412 -0.5493629 -0.39607233 0.13761097 -0.8592262 -0.41608113 -0.20029472 -0.9541877 -1.0321652 0.054414846 -0.80908734 -0.029421575 -0.7054284 -0.887204 -0.7308078 0.39124602 0.5772213 -1.3983797 0.0266053 -0.5588411 0.14482053 -2.0766077 -0.2790978 -0.26946992 0.20077218 0.33005333 0.72493124 -0.5333014 -0.5668702 -0.6577015 -0.7480996 -0.93953675 -0.83713764 -0.8768651 0.63004017 -0.6414037 -0.033003513 -0.65062344 -0.65813863 -0.43366566 0.52219737 -0.8411176 0.12726969 
0.39999843 -0.41023868 0.939029 0.601971 -0.10806867 0.44630978 0.29081017 -0.59396553 -0.038004626 1.2000278 0.27030513 -0.67875487 -0.56339514 -1.4277791 -0.17387249 0.7148213 1.393569 -1.0169332 -1.5284705 -0.20636298 -1.2780983 -0.7060381 1.7345827 -0.22460681 -0.91354275 0.3307327 0.9928384 -1.3043575 0.4973154 -0.4174856 -0.5927684 -0.70951575 -2.1405556 0.5613436 0.3291312 -0.61617875 -1.3009827 -1.1450617 -0.112641945 -0.30639604 0.120404355 -1.4304969 -0.5027768 -0.026677042 -0.16661906 -1.2165142 1.443246 0.19128221 0.39543235 -1.7096877 -0.39832854 -0.20573671 -0.12272471 1.1408432 0.9185504 -0.92427206 0.8280552 0.0337582 -0.59775704 -0.047903538 1.3724816 -0.9652296 -0.57144535 -1.0177289 
0.670749 0.09508093 -0.7853303 -0.14518295 1.0799086 0.67693317 1.3546782 0.6154415 0.4514433 1.0105174 0.9223727 -0.46213725 -1.1636121 -0.87144345 2.3951824 0.30161008 0.617691 -0.090298034 0.25183722 -1.8334891 2.083857 0.3252284 1.066227 -0.02326959 0.79914457 1.4104543 0.4484301 1.3326523 1.475543 0.046259295 0.30483428 0.8809355 -1.093075 -0.42289662 0.33369416 -0.34416646 -0.23721589 0.11961752 1.1901362 -2.3134775 1.0674416 1.1817037 0.0025290858 1.3668882 0.9827733 0.33785725 1.2430661 -1.283871 -1.1859698 -0.9957783 0.53763807 -0.45488566 0.15784992 0.5442295 1.0400236 -0.16022122 1.1890211 0.08798081 0.6643682 -0.5546587 1.1442662 -0.77539307 0.11994587 -0.07691477 
