0.6511338 -0.4717662 -2.0988564 -0.36697462 0.61734724 -0.17070332 -0.18524313 -0.50331753 -0.08010793 0.27902222 0.345721 -0.47077134 -0.17834346 0.36025307 -0.21638799 2.5884724 -0.21056809 1.1903195 0.08601448 0.90696985 0.1511752 -0.26518798 0.17558403 -0.80396324 3.218812 -0.75263536 0.49205306 0.54171664 0.2539213 0.90378857 -0.8533906 -0.029976377 0.6289527 -0.53948367 2.4365177 -1.2406936 0.5289089 -1.0882454 2.2115717 -1.0906757 -1.2894683 -0.47859892 1.10014 -0.8411318 2.9572065 1.6110414 0.24058795 -2.3635175 -0.52356434 0.059432276 0.4709698 1.3939846 1.2521662 -0.4312487 -0.40309694 -0.7618174 0.605794 1.0186104 -0.4367751 1.0747586 0.8406364 -0.9516649 0.1335244 1.7933521 
1.5800313 -0.29518804 -0.6051411 0.8757105 0.3425222 -0.29409072 0.31009325 2.893521 0.46789762 -1.5124693 0.78577965 -2.026598 0.2949467 -0.45376903 -0.21026465 1.7466896 -0.7706189 0.498425 -2.4854677 1.9074833 -0.2112115 -1.0089716 1.4354253 2.244444 0.9684906 -2.4132771 1.1964467 0.7221254 -2.4158943 0.30561194 1.1632184 0.76128536 -1.1488956 -1.2174817 0.15600044 0.33500174 -0.25095588 0.44636744 1.5038229 -2.3041985 0.16937073 0.3447089 1.1364135 0.88287234 0.2424849 -0.19131878 0.5800798 -1.7833886 0.6249908 -1.3622507 0.48604912 1.4229668 0.542849 -2.5759873 -0.6099131 1.1007463 -2.0576468 2.1507142 -0.6818761 1.4234577 -0.055973392 0.47395495 -1.6594634 -0.3687966 
-0.5582056 2.2241693 1.2138064 -0.7863633 0.026483087 0.4993152 0.88864547 -0.6352328 -1.6006707 0.008698312 1.027587 2.192868 0.06562768 -0.20608637 -0.7235275 -4.5756483 2.8673937 0.74019796 -0.5050924 -0.09264044 -1.9954089 -0.9180641 0.409583 0.023831546 -2.4598932 1.5474768 -0.44179612 -0.22249188 -0.6590965 -0.18709768 0.47065794 -0.6433994 0.29903385 1.1768566 1.2780616 0.6040242 -0.6452565 -0.460684 -1.3398032 0.64737195 0.5023555 1.2431383 -2.395212 -1.3846022 -0.33621624 0.4274412 0.3314345 2.748134 -0.22346835 -0.09871249 -0.41555485 -2.692533 -0.030374788 1.3200902 0.16523921 -0.27410498 -0.94976234 -1.367053 -0.64605093 0.38894677 -0.028790133 -2.4374602 0.8583877 -1.26639 
0.89822406 -1.4312439 -1.7851568 1.6437086 0.53996366 -0.2894957 -0.7648578 -0.14861225 0.42263862 0.6590636 0.26510173 -1.1456823 -0.1849879 -0.9309511 -0.41834176 0.6067375 -0.7446687 0.60203797 -1.0732315 0.29866466 -0.572068 -0.25061888 -0.48732537 -0.25704095 3.8346176 -0.12833013 -0.40473714 -0.56244725 1.2867405 1.049902 0.6802777 -0.18330318 0.90496457 -0.059041332 -0.0013792852 0.047144383 -0.09354125 -0.36593956 -0.37058467 -1.5797077 -0.6211422 -0.90131825 1.7629116 -0.8608268 0.17877477 0.9233386 0.37970883 -2.948693 1.4128989 -0.45741364 1.626953 1.3619103 0.16968708 -1.552548 -1.5905408 -0.50938344 0.18742579 -0.9404689 0.6694645 0.43304557 2.479867 0.22025646 -0.19046548 2.060361 
-0.5184487 -0.9112405 -0.084735245 -0.34925196 0.1728157 0.47199243 -0.6148782 -0.26902092 1.2759622 1.1812903 0.64367205 2.899645 -0.27486002 -0.88330966 0.68320197 -2.3911202 2.293346 -0.2461758 0.06615014 0.8160744 -1.407982 -1.0702305 0.15992802 1.6564186 -3.3051546 -0.26968405 -0.066192664 0.24561153 0.28410515 0.52700216 -0.834098 -0.6569236 0.45672545 2.1454923 0.910865 1.9864198 0.28057894 0.094001524 -0.9667044 2.0471249 -1.0090936 0.45033294 -2.1546164 -0.83930993 0.35642356 -0.39063543 -0.45542696 3.0310726 0.36890987 0.10453365 -0.6573744 -1.2501878 0.7630301 1.1756169 -2.5950289 -0.6555799 0.20138745 -3.4983094 0.09161078 -0.34666422 1.1733872 0.24801749 -0.06482705 -1.9635514 
-1.0385697 0.8187521 0.9373664 -1.3709651 -0.025049688 0.20337363 0.016360909 0.54235137 0.8022378 -0.7286437 0.61805946 1.7572594 0.63253534 -0.2367268 -0.116643704 -1.4848238 1.0725276 -0.046786122 0.6001249 -1.8190588 -0.596378 0.84847677 -0.03560845 2.7341602 -3.1263716 1.044745 0.26480842 0.65990263 0.40556565 -0.4509065 1.7433137 -0.10494649 0.6566942 -0.2247777 0.25952747 0.46509007 0.564853 0.024474002 -1.7608098 0.23694146 -1.5826778 1.3358928 -1.0834566 -1.0888528 -1.9771674 -0.2431967 0.8728761 1.6830846 0.047485948 -0.646961 -0.27407652 -3.272415 -0.07510827 0.3477127 -0.8104747 -0.0068842876 0.30394083 -0.8613769 0.53175014 0.7641343 0.07334718 0.29382885 0.9851328 -2.5342171 
-0.25117126 0.77760303 -1.1592865 0.29793742 -0.051938552 -0.2809128 0.0958673 0.2937096 -0.48334122 -0.4696008 -0.75353646 0.21825236 0.056985408 -0.11134041 -0.45622316 0.16456883 -0.74839175 -0.60479206 0.25072253 -0.050208956 0.45311302 -2.8884275 -0.45963147 -0.4183088 -0.20068954 -2.4486518 -0.95334566 -1.4597161 -2.3290699 -0.9903942 0.20534594 -0.13911621 -1.038071 -0.33584723 0.7156292 -2.0080738 0.7078044 -0.45570555 -1.1944816 -0.1487492 -0.21552478 -3.106766 0.040955808 -0.12655197 -0.5920147 -0.019433524 -0.78948224 -0.19967817 -0.3345825 0.4964475 0.047902126 0.5973343 -0.26885805 0.22005717 0.6399263 0.5045781 0.11767189 0.2559828 -2.800682 0.025637936 -0.3878504 -0.8342056 -0.6264593 -0.5283132 
0.06530751 -2.1059916 -0.39806592 -0.0156342 -1.1238239 1.1732844 -0.74812454 -1.2235018 0.30410993 -0.63553834 -0.3656031 0.20355539 0.14496681 0.6695696 0.48234087 2.061387 0.11400385 0.40869164 -0.16955867 3.485045 2.2074533 -0.059029 -0.7166778 0.01345408 0.60926056 0.4136224 -0.0032138114 0.78529364 0.36461887 0.588069 0.5906376 -0.121025756 -0.16207492 0.33197534 0.9984152 -1.5153595 1.5876886 -0.77071303 -0.11404515 -0.2014328 -0.6604737 1.2623041 0.21159227 -0.5444767 0.6002372 0.3440934 0.5655535 -0.50908715 0.45766053 0.49543795 0.12828456 2.0572631 0.5240009 0.19406682 -1.5303373 1.7064717 -0.9528505 1.465263 0.7110111 0.84846365 -0.20017657 1.0186359 1.1552004 1.6747092 
-0.6376545 1.1215205 1.2655413 -1.2445874 0.38430536 -0.12003017 0.7785878 0.66357356 -0.85134363 0.36714056 -0.42320767 1.5267444 0.18498103 -0.62328446 0.17987943 -1.495356 2.1851473 1.4618797 0.6867492 2.1285973 -0.70758486 -0.22551559 1.0571826 0.29607165 -1.0162276 1.9057662 -1.7876772 -0.38469198 -0.14306873 0.012331759 0.052984275 0.16149169 0.18365116 1.0419937 -0.5188014 0.6536144 0.90796405 0.30380064 -1.4494313 2.2510276 -0.040508416 0.13759136 -1.9454314 -0.6161538 -0.92238957 -0.19702898 0.3696366 0.90302026 -0.32921404 1.655969 -1.2584339 0.8916829 -0.27380747 0.6049162 2.111869 -0.77399886 -0.59761924 -0.39225346 -0.44377378 1.1240557 0.5893123 0.15200703 -0.57838607 -2.3284664 
0.45294124 0.3242806 2.6980865 -1.573958 -0.6961815 -0.083919 0.48380747 0.8531036 -0.58800614 -0.1712614 -0.90517855 -1.0588483 0.30084255 0.054714933 -1.278896 -3.5151339 1.7651119 2.4495962 -0.8542444 -0.7795607 -0.870453 0.21277161 -0.05189554 1.4869115 -1.8348833 0.88225967 -0.48426464 0.22457622 0.15458904 0.024428716 1.0999116 -0.28288746 0.96761173 1.309509 0.23801117 1.7167246 -0.07960367 -0.36216304 -1.3262422 0.7820264 0.9702175 -0.9316874 -2.246821 0.28875792 -1.8268615 -0.32603773 0.56555843 2.9141266 -0.4624328 -1.2213413 -0.42855385 -1.8566573 -0.18308973 1.5602853 2.07567 0.30432034 -0.14949867 -1.5023924 0.17634094 0.2552524 -0.6817169 0.5350198 0.83444464 -2.3812492 
0.15671505 -2.2769895 0.8045636 -1.2520225 0.11676965 0.2808556 -0.11008853 0.68750554 -0.9080161 0.15455906 0.44219506 -0.81126183 0.049311526 -0.7085344 -0.77776414 0.3041369 -0.24698432 -2.8196719 0.7449287 1.1147497 0.3031277 -0.31296533 -0.110151686 0.2964199 0.5982164 0.076362714 0.27645147 -0.2551006 0.7503341 0.32073757 -0.92740256 -0.4210556 0.07505057 -0.82253647 0.57116467 -0.19022003 0.33265927 -0.17240666 0.42140624 1.158936 -3.3118362 1.0844626 0.377705 -0.32112846 -0.22961321 -0.12205288 0.76653326 -0.97389257 -0.8209459 -1.3492634 -2.5787406 0.10658078 -3.0916545 -0.11290847 -0.45872742 -1.3000778 -1.0727516 0.10227388 -2.272242 -0.23263422 0.6668953 0.22607432 -2.5042846 0.2919564 
-0.091363326 0.9007588 -2.2866015 -0.16057694 -0.6838817 1.2236944 0.2580626 0.64522547 -0.80396914 -0.66533 -0.05058153 -0.8554552 0.11063805 -0.38437176 -0.070801005 0.9857867 0.12555513 0.8427134 -0.6530088 0.21885148 0.67393804 -1.2077112 1.0663015 0.3877354 1.83276 -1.2047273 -0.3137149 -0.0254026 0.43015072 1.7269591 -0.5972987 -0.013261655 1.3366207 -1.163991 2.8510044 -0.81683594 2.60259 -0.74047387 2.1972508 -0.51678693 -0.03808383 0.5150539 1.6298004 -0.43044606 4.372182 0.46146053 1.3945059 -1.8943819 -0.5175869 2.8659303 0.031976942 1.6112862 0.527568 -0.90387625 1.494714 -1.8732322 0.45266342 2.4168842 0.72166467 1.525113 0.47139388 -0.31516927 0.32079124 2.0159276 
-0.19920547 0.16162923 -0.9686473 2.4280763 0.4259487 0.66276234 -0.23468706 -0.343202 0.28092587 0.0709243 0.25864455 -0.41449642 -0.3105454 0.8601042 1.6062108 2.64328 -0.66920924 -0.43782392 -1.169554 1.7887511 0.8993536 -0.7772876 1.062883 0.9151766 3.295209 -0.600261 -1.0048141 0.0013220806 -0.15715237 0.74938035 0.11030309 0.40211597 -0.052641284 -0.29818216 2.0964143 -1.6995202 0.705299 0.9431992 -0.03073278 -3.6772406 -1.6569394 0.15859945 -1.1717439 -1.0554451 0.18918796 -0.66935545 0.49885905 -1.9677492 0.90788615 0.96135086 0.87530077 3.52145 0.44394937 1.0726765 -1.3347038 1.100037 1.0732559 -1.2235885 1.1444461 1.8055985 0.31597495 -0.017350217 -0.7112061 2.6310496 
-0.14153954 0.029212683 0.14758557 -1.0950514 -0.48516864 -0.8816081 -0.10723566 0.5275795 0.67125183 0.08254292 -0.48259628 0.17525125 -0.08378044 -0.09953432 -0.3023283 -3.1122615 -0.109938376 -1.9487826 1.1129912 2.1348865 -0.44803 1.5659238 1.1003835 0.5921941 -1.2305048 0.27148217 1.656222 -0.9834371 -0.88094044 -1.0549281 -0.9320308 -1.5133569 -0.16508187 0.36944956 -1.2119979 -1.0803945 -1.2560736 -0.46168283 0.45644876 1.4346068 1.184489 0.88297284 -3.3399754 1.1676475 -4.683536 0.066741504 -0.7729859 1.018399 0.3744144 0.3303132 -2.0888925 1.2020693 0.083439104 -0.10227839 0.9706823 -0.023569608 1.9503819 -2.9811575 -1.0099119 -0.90577257 0.20904654 -0.56242937 -0.29983887 -0.5671293 
0.12975928 -0.29500142 1.1451361 -0.43925664 -1.1268872 -0.05747134 0.2871557 2.365081 -0.33930162 -1.0590839 1.024463 2.6930428 -0.57249945 0.95073676 -0.7581468 -2.3868542 1.6523912 0.3181065 -0.28495532 -0.81647676 -2.063123 2.064594 1.1403753 2.8000748 -1.8916045 2.1828372 0.08343968 -0.4482781 -0.4545098 0.5542625 -0.57506794 -0.41485035 -0.53527087 1.3753824 0.33903864 0.013425881 -0.13785604 -0.8702529 -2.2180471 1.4914083 -0.34716615 0.19945002 -1.2780572 -0.20303284 -2.4353213 -0.13963224 0.33178723 2.3572874 0.23935696 -0.36303347 -0.15961605 -0.36342567 1.3868725 0.70455927 1.8103714 -1.6277109 -0.38953713 -1.4075286 -0.867309 -0.7651136 -0.07401303 0.73298013 0.001248492 -1.2394807 
0.21433312 0.38760388 -1.3366992 0.15809672 0.34517688 0.4777264 0.4715399 -1.0911611 -0.08105652 -0.021744804 -0.5403885 -0.6646646 -0.80043024 -1.1257445 -0.61962044 3.6505103 -0.6291722 -1.7061454 -0.8694007 1.4968646 0.55191576 0.8080293 2.8134706 -0.5215314 1.3342774 -2.0937529 0.011013685 -0.6337047 -1.3028464 -1.2582507 0.85252476 0.003409963 0.40388045 0.21748613 -0.0280362 -0.56520087 0.39311615 0.079563916 -0.12453053 -0.9623545 0.5501127 1.0495443 -0.4334298 -0.0919558 1.1168871 1.4396839 -0.46249276 -1.1737459 -0.08754564 -0.29835 0.28102535 0.7961346 -0.52353823 0.05290549 0.33372363 -1.227555 -0.78557056 1.7787327 -0.8110677 -0.8130441 0.13859671 -0.78968245 0.47922537 1.6844412 
-0.42041045 0.31112456 0.33945754 -0.3727658 0.26570004 0.11515741 -0.006669146 1.0141181 -0.017698273 -0.19308072 -0.1123864 1.454972 0.09895661 -1.0547687 -0.31512275 -1.343178 -0.31640399 -0.6958324 0.627846 -0.5742204 -1.5711594 0.32782972 -0.35965466 -0.50288993 -1.1762062 0.09235301 -0.22654699 0.12120425 0.23264983 0.21629496 -0.29206622 -0.19003402 -0.030774783 -1.5984266 -0.35225874 -0.34186295 -0.29814723 -0.3601967 0.038029663 -0.6131406 0.004194713 -0.06717116 -0.15881717 -0.63873094 -0.6787124 -0.19008695 0.25880095 1.4803549 0.13372713 -0.7222027 -0.06646129 -2.4134004 0.58976096 -0.30050623 -0.35754105 -0.18753414 0.28333476 -1.5651364 0.074308656 0.20450307 -0.101617135 -0.43419728 -0.13443504 -2.0158675 
0.53820395 0.044111274 -0.30547118 -0.42369527 0.20443977 0.33943012 -0.44791535 -0.93172204 -0.07889994 0.5883958 0.1123847 2.3004484 -0.87458944 -0.878193 0.48445234 -2.1434128 1.7664309 -0.2637126 -0.1582462 -0.18872382 0.33704165 0.079104565 -0.10767248 -0.58527523 -1.9127644 -0.3728186 -0.03053821 -0.6522448 0.66059726 -0.26162657 0.6534815 -0.11748133 -0.079050094 -0.14126451 0.42173505 0.22328745 -0.0073341248 -0.7144807 0.9674317 1.6646615 -0.6017306 -1.1592159 -0.7960414 -0.20330636 -0.0024451695 -0.6721074 0.52319044 0.5815941 -0.4271661 -0.04463371 -0.31166482 -1.802409 -1.0159585 0.4660248 -0.804931 -0.8075337 0.64525473 -1.3575456 0.24424724 -0.42862195 -0.20845085 -0.37684035 -0.04488599 -0.58364326 
0.5501758 0.22806136 2.542306 -0.06741042 -0.24609847 0.6323541 -0.23653647 0.034576442 -0.110105015 -0.27443445 -0.7508838 1.3889713 0.1783443 0.35894743 -0.6403831 -2.8858142 0.8950856 -0.6304345 0.71899635 0.6183799 -0.72343063 0.5140524 0.391748 -0.11928877 -2.4976923 0.69420993 0.57972944 -0.16788317 -0.027460393 0.5652851 -0.34573504 0.4441598 1.3439486 2.0219407 0.8866453 0.30115515 0.062068973 0.09866653 -1.288518 -1.415785 0.28545836 0.7280703 -1.952315 -0.2771272 -0.2530882 -0.8618497 0.21115308 1.7383928 0.2797506 -0.45526257 -0.7533045 -1.9676225 0.47922263 -0.104980506 0.45916504 -0.53776604 -0.475137 -1.2256885 0.48338726 -0.5918678 0.30266252 0.4008604 -0.2576059 -1.9394858 
-0.20421161 0.95334554 1.690866 -0.91263324 0.32356068 -0.11699428 0.079767235 0.23484129 -0.51170516 0.13684942 0.38011423 1.5339013 0.90459573 -0.13216901 -0.5397832 -3.2220976 1.4677945 0.07394224 -0.9960452 0.1660288 -2.1339834 2.1639862 0.8279673 0.3953118 -2.1863565 1.4049476 -0.64364433 -0.9129317 -0.9743184 0.15458846 -0.4011929 -0.10843853 1.3611475 1.3875365 -1.0248196 0.956394 -0.3343799 0.6903361 -1.1615175 0.60908645 0.93719536 1.2667041 -2.0049067 -0.76133734 -1.9292655 -0.30517107 0.33964074 0.9539277 -1.0104768 -0.2498662 -0.98331827 -2.4564574 -0.038650524 0.3193398 -0.49459603 0.3567137 -1.0057687 -2.578464 0.057252575 -0.9419289 0.22638662 -0.2938567 -0.7615741 -1.9406173 
0.50478625 -0.46431166 1.5006114 -0.5042564 0.011507318 0.38131553 0.7369165 -0.17989632 -0.32727695 0.5731774 -0.2746404 -0.76746696 0.5179893 0.06729139 -0.56232107 -3.0684452 1.8810862 -0.16530171 -0.08031951 -0.39286903 -1.7971493 0.27334994 0.27602774 0.73455137 -1.0588 1.4345925 1.5485685 0.2643976 -1.2288305 1.2481486 0.10437953 0.15287237 0.7047977 0.6630182 -1.9619147 0.45775557 0.056256477 -0.32692719 -0.5642711 0.16608323 2.952283 2.3218315 -0.53912187 -0.18859519 -1.4016916 0.72231096 -0.9036998 1.3972312 -0.76347977 0.031383988 0.5852898 -1.7893707 0.69907206 -0.988162 0.3136134 -0.02833981 0.48632884 -1.8327621 0.15375294 -0.65246415 0.19467314 -0.7540943 -1.326788 -2.6651444 
1.3947712 -0.17521909 0.80664086 -0.08276781 -0.58452874 -0.18866207 -0.99586684 1.3162259 -0.5359195 1.0830775 1.6752155 -0.562057 -0.9907723 0.18120748 -0.66688365 -0.63382703 1.9148993 -0.6200897 -0.45669106 1.4033674 -0.7499322 -0.031869724 1.4629414 0.807055 -2.8411784 1.2002949 0.41115853 -0.846835 0.74693537 0.8940187 -0.14645876 -0.32272333 -0.59922695 -0.5979314 -0.60994333 -0.50764745 -0.7240669 0.43278438 -1.7853594 -1.7893541 0.7481027 2.0965228 -1.6745213 0.12151455 -1.1791236 0.502344 1.0200803 1.8182563 0.9202961 0.64833665 0.04022244 -0.2543861 0.490815 -0.8845008 1.1585084 -1.4175171 -0.19828747 0.84354055 0.5694416 -1.8099393 -0.90100014 0.34747884 -1.3810141 -1.6716603 
0.5700296 -3.1142645 -2.7165134 0.70871556 0.68705165 0.3598586 -0.41325772 -1.4147663 1.0596071 0.047827963 -1.0493221 -1.1412196 -0.8263621 0.08262975 0.8013897 2.3618095 -0.0012058431 -0.02204033 -1.7625302 1.2439923 0.4274325 -0.91429824 0.26982135 -0.64102525 1.112849 -0.18730353 -0.2370348 -0.60760266 -0.9021577 0.9987673 0.5912937 -0.91845894 -0.40959325 0.48031035 0.17120965 -1.6068127 -0.058641423 -0.7371308 -0.16684245 0.23560664 -2.7284012 -0.99799216 1.7654823 1.5740262 2.4835086 -0.35851085 0.7225195 -2.4229984 0.7584589 -0.32429725 1.2872357 1.7665774 0.36847034 0.9709002 -1.0526133 1.8358213 -0.78629917 1.263385 0.10365568 0.05307421 1.4760907 -0.2330674 0.4992988 1.0943836 
0.8529741 -1.7919832 -0.8688635 1.627675 -0.17633395 1.7521784 0.39964998 2.5876548 -0.048147596 -0.30713353 -0.6775742 0.64633334 0.013220033 0.0671149 -0.08475952 1.1466624 1.6949607 -0.327228 1.2239786 0.6302351 0.2856352 -0.4150693 1.2161353 -0.19164397 0.83460814 -0.93183064 0.72669643 0.54114056 0.5414166 0.7168507 0.35736012 -0.30970326 0.20942032 0.69249845 0.9341501 -2.3867724 -1.4436406 -0.46084908 1.2805687 0.97572386 0.32391047 0.4913055 0.80411476 0.7912249 -0.10358693 -1.131364 -0.35493144 -2.7559435 1.3010508 1.7816241 0.26968738 0.3420904 1.0369022 -0.06139402 0.82097274 0.87660307 -0.74594694 2.0823052 0.32097578 0.50823754 0.8572229 -1.185092 0.9158541 0.7671445 
0.034332506 1.298383 2.2659745 0.022759177 -0.8747317 0.088813 0.6285929 0.17194085 -0.9312727 -1.5690678 0.1561528 0.581627 0.51679397 -0.032999557 -0.5612695 -3.082303 0.6639935 -1.2092825 -1.0993224 0.7349159 -1.1351247 -1.2393429 2.706994 3.6608956 -0.4443913 1.773298 2.1722183 0.6413727 -0.14152114 1.1070251 0.31170085 0.07511132 1.9736465 0.5972732 -0.91913134 2.4142902 -0.57446635 0.7655426 0.711514 1.0886183 1.9816254 2.6078925 -1.3857955 -1.0122589 -0.21545877 -0.56432503 1.7248012 0.8737129 -0.6584789 -0.50074166 -0.90473944 -0.32137933 -0.1118791 -0.3681372 3.2413216 -1.7138176 -1.381707 -0.71264964 -0.79273164 -0.8450596 -0.19428052 -1.6295531 -0.6043285 -2.4257376 
0.9387388 -0.85431594 1.7292954 0.57946944 -0.31585753 0.64498204 -0.19510025 0.1574728 -0.8485799 -0.012914518 0.397286 0.69865113 -0.45273837 0.20256037 0.21876033 -1.6206406 2.1307507 -1.5470325 -1.16648 1.7471699 0.5048088 -0.57938004 0.6287574 -0.05795443 -1.1724814 -0.9559554 0.21945637 -1.0501338 0.05341 -0.7367426 -0.38672936 -0.21687697 -0.58334285 1.154617 1.5391722 -0.35354215 0.8351261 -0.64549506 -0.04915252 -0.85995144 -2.027413 1.938505 -0.5857041 -1.3086599 -1.9585333 -0.15031752 -0.34280947 0.8844191 -0.0041865115 -0.61787677 -1.5072064 0.7442022 0.50645185 -0.7302805 0.5414067 -0.14142163 -1.3649218 0.96921223 -0.47057825 0.3974282 -1.1329787 -0.6931767 -0.50524336 -0.6407208 
0.9481172 1.257796 2.0556777 -0.4438418 0.23697281 0.860508 0.5790204 0.24724051 1.1343633 0.5750693 0.25859213 1.8135206 0.68371767 -0.031930212 -1.0190777 -3.580616 2.2111645 -0.65417737 0.18413673 -2.6164086 -2.280872 1.532644 0.7671148 0.8384826 -3.7296574 1.1774131 0.069656834 -0.16151182 0.09077614 -0.34809336 0.35945028 -0.59678626 1.0069951 0.93952686 0.024794433 0.70667946 -0.32476878 0.15101044 -1.4485703 0.47231916 -0.015725749 0.8554303 -3.5730548 -0.43595794 -2.4727938 -0.33686036 -0.13157079 1.4660081 0.27983654 0.20660609 -0.38705093 -0.56914544 -0.38453886 1.4598379 0.9794199 -2.2976418 -0.9116206 -2.4649694 -0.9098651 0.17919813 -0.5228435 0.72840893 -0.47401536 -3.136505 
1.6683174 -1.2650903 0.19945316 -0.8932675 0.07296684 0.8711065 -0.15344854 -0.39955014 0.24315321 0.5728771 -0.6652416 -2.2697845 -0.628931 -0.37103713 -1.0691622 2.6118977 -0.90081525 1.1330655 0.3655604 2.158314 0.30759838 -1.2267215 1.4104643 -0.8382835 2.6069002 -0.36212486 -0.2855015 0.46927854 0.83689195 -0.12700893 -1.1034361 -1.1452591 1.9446748 -0.5761652 -0.10530756 -0.3606006 1.4431627 0.7456003 3.1542997 -0.91749215 1.4156615 0.8147761 1.14898 -0.38891786 0.7977015 0.41378233 0.26894215 -1.6679082 -0.20809153 -0.35911918 -0.23026398 2.3572776 0.7351029 0.44501528 -0.44323286 -0.6765238 -0.46776986 -0.33916658 -0.09147751 -1.1808957 -0.84917784 -0.21354897 -0.85040843 1.9543471 
0.33121493 -0.88811535 -1.0404764 2.2334654 0.87021565 -1.0063459 0.10275341 -0.6922309 -0.965379 -0.20067684 -0.29847735 -0.31069487 -0.13343196 0.07826237 -0.15242141 1.1794883 1.0514301 -0.31880683 -0.9179667 0.089464515 -0.12232022 -0.7935712 0.4420963 -1.2260644 0.33397916 -1.0419762 -0.3036126 0.29664546 -0.4254916 0.38705856 -0.17470567 0.8940461 0.65243304 0.2933966 2.361071 0.84470856 1.3900112 -0.23825154 1.6914179 -2.3205216 -1.2350937 0.0063653663 1.9003581 -0.12941477 2.720508 0.39673835 1.2439637 -1.6185998 0.1448433 -0.12646784 -1.1003062 3.4379334 0.78932196 -0.6068369 -0.0053722877 0.6402391 -0.57421046 0.731828 -0.44562343 1.3461761 0.87133646 -0.22407638 -1.3470179 2.043317 
1.2513204 1.4640183 0.92453647 -0.67315716 -0.032939456 0.4954191 0.40034637 -2.3894198 0.29096887 0.19535017 -0.46283314 2.1310296 -0.4987785 -0.27707618 -0.7129191 -1.4484322 0.75002533 -0.12711169 -3.0816875 -0.7144863 -0.549247 -0.9835384 1.7360142 0.5002178 -2.0609179 1.5430999 -0.364132 0.13206379 -0.9052134 -0.40691283 -1.0939431 0.1048579 0.8934696 2.1358955 0.3292194 1.3860904 0.013492516 0.17825137 -3.0448515 0.9977221 0.22727959 0.22914879 -1.2237357 -1.0338998 -1.8528264 0.7409451 -0.1402574 1.7506905 0.9507425 -0.08953106 -0.5008951 -0.6436821 0.18474083 0.25909126 0.1975666 -1.2809049 0.12873724 -0.7530467 0.09831054 0.6089906 2.0637012 -1.164249 -0.23092046 -2.771155 
-1.5469476 -0.8415065 -3.2380505 -0.6755463 -1.0727406 -1.718545 -0.22160126 -0.58432555 -0.7166883 -0.3104366 -1.6380252 0.68500096 -1.3540088 -1.0445656 0.58199865 -1.487125 0.8535497 -0.50984013 -2.4111745 0.2060498 -1.9475837 -2.5326827 0.0327986 0.22131817 -0.84629315 0.7321127 -0.2318186 -0.7517466 -0.6413754 -1.596751 0.9289412 0.034907427 -0.6068446 -0.9548841 -0.4695259 -2.5523214 -2.183292 -0.95281774 -0.14209422 0.71691906 -3.4121747 0.56149995 -2.0583584 0.5029654 -2.2283392 -2.6003194 -0.81234205 0.50219387 -0.82001764 -1.9681911 -0.9944222 -0.26011953 -1.1412604 0.114891954 0.024451498 -2.8277357 -6.082371 -0.4860265 -0.98133504 -1.2275355 -0.22794314 -0.34167355 -0.65365136 -0.56080925 
-0.025085386 -0.5750813 -3.398694 -2.0277967 -1.5748948 0.01302933 -0.15608089 -0.3339999 -1.3059871 -0.14399154 -2.1356127 -0.40444878 -0.5580109 -0.31839126 -0.17812827 0.35268378 0.4431667 0.38773578 -2.8313677 0.48274466 -0.09745495 0.4178578 -0.012449229 -2.4708529 -0.0021643732 -1.9412284 0.25284064 -0.46851358 -1.8472748 -3.0114439 -0.15708664 0.92393875 -0.32357913 0.23058774 -0.25670972 -0.019741174 -0.07049607 -0.51858896 -0.39710233 -0.33648083 -2.3531656 -0.45730653 -0.00039698044 0.47934282 -0.47519374 0.16572906 0.8395505 0.14824899 -2.0277584 -1.7139268 0.73238236 -0.30623084 -0.13493536 -0.8397655 -1.9065274 -0.07644855 -1.0085828 0.21515767 -2.9512844 0.27844357 -1.547563 -1.7521979 -0.26473585 0.46004283 
0.13590519 -1.3218203 -0.6193828 0.94188577 0.26576358 0.32490414 0.13892835 -0.027475752 0.50869447 -0.49108252 0.19095677 -0.05003504 0.33935258 0.052866124 -0.27810127 3.2233968 0.77202183 1.8947616 0.6987085 1.9794936 2.885753 -0.51400155 0.43154097 -0.84355795 2.90931 -1.3451802 -0.19379532 1.5505555 0.71543455 1.402974 0.9845182 0.33431834 0.76384544 0.0112375 0.30916664 -0.7728393 0.556448 0.08108749 -0.10063128 0.44790718 -0.73217136 -0.017228302 1.6747864 -0.6633036 1.2374076 -0.6090635 2.4930992 0.21512467 0.70130396 0.38720334 1.1385785 2.8602738 0.5483725 1.4084538 -1.1578121 1.0601734 -0.47646123 1.994949 -0.0088994345 -0.024196576 -0.14752208 0.10848924 -0.34855425 2.0493262 
0.5188795 -2.6648896 -3.805314 0.054990727 0.2170525 -0.7813864 -0.9723326 0.78543305 1.6412134 0.20840973 -0.31439093 -2.8983307 -0.75191975 -0.098473124 -1.0535465 2.1786225 -0.43984625 1.8096316 -1.0366042 1.8501602 -0.2735488 -2.1078904 0.41046345 -0.87013996 2.2436986 -0.82299197 -0.26515585 -0.5955682 -1.0292778 1.5132892 -0.32018083 0.11167468 -0.20487744 -1.0474786 1.1300203 0.19364396 1.0654585 0.6922406 -0.6457314 -1.1496418 -1.8990306 -0.042893138 0.18021014 0.51588726 0.9823542 2.312576 0.07656726 -2.3110852 -0.53256786 0.7952772 0.6014292 0.91045636 1.8943013 0.11171807 -0.08831319 -0.21569404 1.1371278 0.10697509 -1.5873885 2.3098574 -0.55777794 -1.3463259 1.0944686 2.0617356 
1.1240522 1.8492669 2.1695182 0.6489916 0.38479564 0.65727115 -0.004329669 1.9918225 0.4044231 -0.2273379 2.3151405 2.310892 0.4804381 0.75153214 0.37256205 -2.2105823 3.1035042 -0.67833155 -0.33913672 -1.5048397 -0.7309408 -0.02122712 0.5701698 1.0662526 -1.3092641 0.9764761 0.90942585 -0.081933126 -0.7710458 -0.293422 -0.45687303 0.37774578 1.0403508 0.21747294 1.5172185 0.8263034 -0.273164 -0.08752511 0.6991507 -0.39625064 0.96480405 2.6374316 -0.45190638 0.2935655 -2.8060608 0.5089553 1.1006404 3.7265913 0.4777918 -0.29623544 -1.2143061 -0.8639664 -0.15371482 0.50422007 -1.1577632 -1.7065406 0.7393712 -1.6716044 0.5114049 0.6581983 -0.16242269 -0.111330554 0.8071677 -1.8381748 
0.79376227 1.3480082 0.5974537 -0.34721327 0.3221299 -0.8702984 0.0074929832 -1.2604078 -0.81929684 -0.123442344 -0.14642568 0.071700856 0.6008027 -1.2266296 -0.045913592 -2.7631552 1.8192182 -0.4449014 -0.50654745 -1.4604911 -1.0936261 1.3353721 0.20889246 0.91635966 -0.9681964 -1.6025666 0.33891883 0.48151875 0.111503735 -0.77160615 0.49888802 -1.0571384 -0.21165653 1.0972582 0.31506976 -0.8891749 -0.75584453 -0.75204706 -0.4981091 0.9515417 -0.6126399 1.0189188 -1.0318891 0.8791904 -0.8750255 -0.75241476 0.573613 0.6582605 0.2556743 -1.0533293 0.07691656 -2.5123928 -0.54544497 0.53645426 -0.1914167 0.6367897 -0.72789425 -0.47740638 0.04159824 1.2947383 0.9433498 0.41163927 0.74283755 -2.2130344 
-0.39982978 -0.16808254 0.660702 -0.26798943 0.20108286 -0.89808273 0.085727155 1.3047273 -0.4205795 -0.22325109 0.21225297 0.85493237 -0.5681336 0.9380281 -1.0247922 0.25028744 2.1826677 -0.741456 0.7975035 -1.2940725 -0.298948 0.7383134 0.42456403 -0.19723052 -1.3807648 2.5714276 -0.53369653 0.084074005 -0.3559652 0.34001106 0.10196164 -0.42001256 -0.4839914 0.3116285 0.8781092 0.19355674 -0.90105104 -0.3690605 -1.6700886 0.3861523 -0.49501634 1.4376531 3.2807329 -0.34417823 -1.5858965 -0.044035364 -0.21272075 1.2149073 -0.46908352 -0.715313 0.74308306 -1.2870955 0.26250365 0.3712196 -0.7133256 -0.4532101 -0.4880172 -3.6451833 0.47699985 -2.2371502 -0.013188085 -0.33411542 -0.54924476 -0.61538553 
0.293132 1.3063865 1.595304 0.06733107 0.24992035 0.4894494 -1.011015 1.5705534 0.32992002 0.45672143 -0.0041716313 1.3608367 0.6303558 -0.114005215 0.47586104 -2.6077187 2.2330544 0.10370938 -1.0780891 0.49182618 -1.004223 0.93568987 -0.07011935 0.17082305 -1.2939878 2.525069 0.1841106 0.38593495 -0.4127555 0.65869063 -0.1521144 0.10363339 0.76557493 -1.2107507 -0.6033101 0.3240764 -0.6675126 -0.17200674 -1.0288426 1.3368146 0.6506162 0.8781483 -2.1976433 -0.37881097 -1.7118864 -0.14378315 0.46068084 2.9874656 -0.04555937 0.23864028 -1.0797111 -2.375582 -0.40817705 -0.33389622 -0.027115092 0.0015865387 -0.14711703 -2.3343382 0.66405964 0.96796525 0.81012994 0.6753513 0.43595582 -2.2425556 
0.67358917 1.0282985 1.4721742 -1.6987683 0.05907547 0.6993656 -0.5114648 0.10276807 -0.39465803 -0.20969987 0.5166151 1.2725174 -1.3822088 0.2693913 0.5025438 -2.6449986 1.1740193 0.4360375 -0.073986076 0.9743455 -0.6582209 -1.3082869 -0.64031273 -1.049331 -3.3856823 0.58015376 0.22400111 -0.29509178 -0.25534245 -0.14145386 0.8034013 -0.7558876 0.63314205 -0.0666011 1.786259 0.62811625 2.0403426 0.7670808 0.60434836 1.3744751 1.0728313 0.49725902 -0.854353 0.08313986 0.20842645 1.0711313 0.12674774 2.9625247 -0.18005233 0.049785055 0.38650444 -2.000849 0.3709334 2.024701 -1.2201154 -0.83690023 -0.02603788 -0.70502275 -1.2766539 -1.1904746 -1.0667285 -0.20041423 -1.8535407 -3.1250057 
-0.30890033 0.61042273 -1.5304887 0.2252335 -0.20724633 -0.5589638 -0.27220705 1.4595674 -0.096684985 -0.40699184 1.1621377 -0.6344187 -0.16414648 -1.0091891 -0.15971795 -2.7479377 -0.4582586 -1.5503356 -0.8004346 -0.6804166 0.08081223 0.5983921 -0.12010605 0.6548738 -4.178071 0.107746385 0.32653823 -0.5124588 -0.26735118 1.0120535 -1.1147027 -0.80255973 -0.59481686 2.3118687 -0.26220927 0.45181218 -1.9520502 -0.044771373 -1.5386704 2.1138391 0.07521462 -0.7339312 -0.9655738 -0.14238867 -2.3457143 -1.5921962 0.7008517 0.9074594 0.38766292 -0.48925167 -0.51180136 -0.7230757 0.2588674 1.6687884 0.109847054 -0.10800536 -0.09523571 -0.8309037 -0.72056735 0.6668396 -0.010745889 0.22551918 -1.912361 -3.595172 
0.5177931 1.6064728 2.3482563 -0.7358115 -0.09738657 -1.7926306 0.28217152 0.78112733 -0.31816104 -0.62096834 0.06394999 1.6371101 -0.97377187 0.15368089 -0.9613402 -1.2186713 2.2464807 0.7977682 0.8570438 -0.4565633 -1.1126969 1.5833493 -0.2658822 1.1367296 -2.1376019 0.29636335 0.10272631 -0.1354598 0.18811665 -0.7794228 0.9236094 0.61912376 0.7974596 1.2395816 -0.3250812 0.0707901 -0.78264487 0.12825552 -1.3539627 1.8202559 -1.196351 2.2051303 -1.4287199 0.06993688 -0.67606723 -0.89467704 -0.24120307 2.2143853 -0.34378356 0.24985383 0.81525415 -3.5675933 0.5424458 0.41256586 0.52699983 -0.6757016 0.35636127 -0.7135602 -0.7351933 0.87704587 0.6975242 -1.1319969 -0.6213021 -3.4328916 
-0.031001737 0.935126 1.9863995 0.29935527 -0.5956352 0.7155277 0.19546144 0.33222163 0.3382133 0.54446465 0.026551303 -1.3287323 0.14269498 -0.5806567 -0.40436804 -2.9750235 -0.5104644 1.1144342 -0.023198646 -1.654756 -1.4694867 1.2070073 0.22698428 0.13368875 -1.0520573 0.4035026 -0.59604895 -0.88717335 0.058976386 -0.14668195 -0.51673144 0.8899428 0.6410194 -0.20012528 1.4867357 1.0855217 0.4232581 0.09268423 1.6623522 1.2467614 2.3846357 0.9840966 -1.5687273 -0.52115697 -0.38620082 0.61733836 1.2887219 0.73419744 0.5624932 1.0787972 0.12526606 -2.7926292 0.27089438 -1.1264572 -0.06839264 -0.6735534 -0.27608302 -2.395413 0.1915952 0.7269968 -0.013845327 -0.19458318 0.4882552 -2.0494342 
-0.0526235 0.30902934 -1.856924 -0.5430444 -0.7495222 -1.3118638 -0.125154 0.43132475 0.92971474 -0.34897688 -0.10604237 0.81542087 -0.9020087 -0.3141835 0.7071369 0.26770818 0.44288456 -1.1674827 -0.49872613 1.1229556 0.2606663 0.19262128 -0.29783565 -0.047400918 -0.34335223 0.786046 0.11316089 -0.074977964 -0.5867233 0.14591222 -0.13705139 -0.49423698 -0.5166184 0.40499356 1.0445213 0.4294202 -1.5494065 -0.4429206 0.802692 -1.8442191 0.2851708 0.66217136 0.40708318 0.33136433 1.154161 -1.1289381 0.35948938 -0.32994354 0.37657285 0.84582734 -1.3311532 0.29456702 -1.79633 0.8536706 1.245251 0.9665141 -3.1348884 -5.669413 -2.3665857 -0.91072965 -0.72201794 0.70378435 0.33706483 0.039234508 
-0.71374696 -0.17682442 0.38881007 -0.3939724 -0.062272184 -0.7961312 0.2916652 0.3869973 0.7640497 0.44529384 -0.6735213 0.80217314 0.047519863 -0.33341134 0.525099 -3.7132816 1.7216858 -0.6814949 -0.3929488 -2.8191316 -2.7440436 -0.01435684 1.2204372 0.23008457 -1.103125 1.8509454 -1.0637708 0.37673104 -0.31546748 0.7804936 1.3105303 0.49383432 -0.24627705 0.36105278 -0.32572955 2.051633 -0.024080126 -0.2460836 -1.9711629 1.967268 -0.09789992 0.87397164 -0.74712014 -0.6644506 -2.6181436 -0.28252152 0.3301168 3.3451245 0.6021025 -1.0055588 0.29210845 -3.4918392 -0.6789177 -0.6276761 1.4569293 -0.97426057 -0.5108023 -2.2541559 0.5486162 -1.3345344 0.9144581 -0.6435684 -0.5089462 -2.80309 
-0.042311974 -0.7742593 -0.51806754 -0.9111576 -0.26449665 -0.10233317 0.16995892 -1.0677198 0.23814896 0.24397776 1.071949 -1.0863333 -0.33368963 -0.63621706 -1.3332794 1.669234 -0.66587806 -0.4068291 -0.12800495 1.2056981 -1.6028785 -0.18708384 0.0098483665 -0.7515826 3.6187408 -1.2127557 -0.5461314 0.53179497 -0.5382771 -0.9752106 0.08564395 -0.06809418 0.83482957 0.3068588 -1.022019 -0.2846095 0.5500644 0.24121104 -0.93243635 -0.30511826 -1.1974841 0.8270283 1.2623887 -0.091549784 0.68177533 -0.23463278 0.66173506 -0.06883426 -0.96377635 0.33103812 0.45816433 1.8262306 0.29603526 -0.3278903 0.09740323 0.65687597 0.7091799 0.7127772 0.18128036 -1.4506862 0.06269207 -2.168885 -0.63526917 2.2347972 
0.84938955 -0.98000157 0.67850995 0.31354567 -0.49131453 0.09241505 -0.16942869 0.16550042 0.027117541 0.72341126 -1.3530108 1.3775204 -0.2196447 -0.19676435 -0.47741002 -0.96836233 2.7664819 -0.71722573 -0.3490691 -2.4226704 -0.4444079 0.3398069 -0.59733766 -1.7315454 -1.2115396 0.721763 0.23231955 0.16716054 -0.37015852 -0.23681279 -0.9578361 -0.24863921 0.30135933 0.37671697 0.08382742 0.9031068 -1.3085581 -0.38725036 -3.5227592 0.32374397 -0.20245512 1.1400102 -0.6621118 -0.6734482 -0.4911281 0.5985649 0.25348648 1.5298251 0.1077963 -0.1775424 0.58750296 -1.4622861 0.5692555 2.2333276 1.3912387 0.77884597 -0.3498138 -2.3971002 -0.18335183 0.32945177 -0.114346445 0.3618151 0.44644964 -2.8225775 
0.81038874 1.1156034 0.42688832 -0.19678727 -0.04488831 -0.78485125 -0.5800408 0.5988946 0.3539169 -0.66803604 -0.76085925 1.8066763 -0.37352166 -0.17829803 -1.6753471 -3.0079784 1.1259034 -1.1281366 0.92655367 0.2047694 0.18781388 -1.8875743 0.5562808 -0.57110643 -1.2985967 -0.12996377 -0.58646226 0.68340445 0.938932 0.10237992 -0.68874705 -0.7559261 2.2282124 -0.06372767 -0.43143213 -1.6478714 0.60766095 -0.7459604 0.06981822 1.4134024 0.4403928 1.1129862 -2.12495 0.5044079 0.13034643 -0.4561101 0.57453084 1.8640202 0.16407748 0.012190544 0.8486151 -1.1745138 0.70076823 0.8938521 1.8808488 -1.4496195 0.24925001 -0.20637278 0.09140138 -0.7484021 0.5644705 0.36847872 0.8733292 -1.9932578 
0.6372158 -2.4391975 -0.88315606 -0.65801275 0.3819094 -0.41267964 -0.47690737 -0.50391585 -0.27651963 -0.5264623 0.8029877 0.1322626 -0.2791512 -1.525785 0.15420859 0.7908553 -0.018893007 -0.5902697 0.14140545 -0.06132501 0.31243873 -0.34605515 -1.6200776 -2.1129956 -1.0098464 0.73750913 -2.010776 -1.1750562 0.15211357 0.24412784 -1.4736271 -0.98363996 -1.0808303 -1.1240989 -0.65095705 -0.30496883 0.6583941 -0.5286106 -0.29472417 -0.5313465 0.26890093 -1.6240895 -0.3124792 -0.304032 -0.97813165 -0.34973165 -0.84678704 -0.7587147 0.5332646 0.10536383 -2.6886613 1.0351455 0.601775 -0.915604 -0.33897868 -1.9408529 -2.3571754 0.41529325 -1.59407 -0.07450964 0.38637936 -0.6804649 0.5075773 -0.12310603 
-1.2614579 -0.059521087 -0.17260383 -0.9339717 -0.99878573 0.011513077 -0.49069086 -1.2308923 -1.4286519 -2.3231657 -0.40034854 -0.08989603 -0.6373766 -0.9763665 -0.31381094 0.19112697 -0.37422672 -0.7534947 -0.5475926 1.230063 0.26966766 -0.9691917 -1.5657507 -0.17355049 0.27516362 -0.020803146 -0.38806665 -0.34998283 -0.72817284 -0.6223515 -0.3027863 -0.9480153 -1.4994607 -0.6540845 -1.0608728 0.34682316 -0.68012273 -1.252234 0.35494027 -0.39718285 0.17546815 -0.72855765 0.13098806 -1.0341882 -0.45286748 -0.47227246 -1.6601335 0.6196917 -0.633312 -0.32764012 -0.9606513 0.3477588 -0.6854084 0.21787463 -0.4660025 -0.671612 -0.7769929 0.19820698 0.33734876 -1.1651896 -1.3871734 -0.90753263 -0.2842309 -0.21117812 
-0.16311271 2.0117652 0.7006461 0.29188865 -0.42678687 0.16492414 -0.12757392 -1.654577 0.5514232 -0.056703556 0.32410723 0.6677443 0.47367746 0.21202974 -0.25617653 -2.8699536 1.8828273 -1.0476944 0.8626873 -1.0237358 -2.7448058 0.08805581 0.8354054 -0.39211547 -2.4965267 2.229316 -0.30787444 0.3900811 0.47331494 0.35259774 -0.18025689 -0.087547496 0.39393437 0.8686345 -0.52598 0.69173473 -0.59758055 -0.54831433 -0.6948242 0.85940963 0.27734193 -0.41349092 -2.145397 0.3679015 -1.3889978 0.41770273 -0.15085801 1.4876863 0.11763826 0.88852996 0.7806533 -2.0472453 -0.26280555 0.061142553 1.0281209 -0.1533879 -0.34818873 -1.8047506 -0.35300177 -0.5591502 -0.22548127 0.0015453652 0.36354253 -3.40213 
2.3516488 -0.98235697 -0.9370478 0.3971801 0.18192437 1.0118238 0.09917306 -1.177429 -0.48493055 -0.14147614 -0.2895125 -1.5262367 0.5084305 -0.15846504 0.31934997 2.8461413 -0.8226785 1.2669142 -0.2804248 -0.27284598 0.46904668 -0.4629982 0.8442863 -0.28421727 2.2639358 -2.199128 -0.21437965 1.0087881 0.43957588 1.6217409 -0.50375867 -0.5600418 0.6241204 0.09022178 1.0257753 -0.38969418 1.9776046 -0.4440853 0.38525686 -0.75375044 0.9662321 -0.54735374 2.131707 0.041754976 0.8159924 0.43687668 0.04905398 -2.2901723 1.6200603 0.8411013 0.08388988 1.3915422 0.54242563 -1.5820746 0.7112888 0.19054909 -0.98846865 1.0363861 1.1974887 -0.07527836 1.4480438 -0.48460448 1.7289977 1.1556865 
0.26531005 -0.026996795 -0.28065622 -0.3637735 1.0657121 0.40093392 -1.3547001 -2.7030165 -0.61557406 0.14108501 -0.49411353 1.0732653 -0.72573626 -1.5383621 -0.95682937 0.5440061 -0.8250385 -1.3776911 0.6103466 -0.32980847 -0.72473145 1.1962605 -0.42664057 -0.24353518 0.50550413 1.0456023 -1.1083387 0.51525444 -1.4068977 -0.5734992 0.19549684 -0.8094832 0.301403 0.7532052 0.7099692 -1.2855582 0.29121777 -1.8113333 0.65131634 0.15091597 0.973342 1.35387 0.45476976 -0.6963698 -1.9644271 -1.6748375 -0.27196288 -2.4687848 0.17666097 -0.3318321 -1.521336 -0.042815853 -1.3704847 -0.70706177 -0.80818915 0.36939913 -1.8742679 0.783946 -1.3430878 0.43953112 -0.16323933 0.22830743 -2.2226338 0.71200687 
0.2877555 -0.9903008 -0.4193091 -0.14695048 -0.31481972 0.6591217 0.48593816 -0.37430334 -0.3335223 2.3731449 -0.44751146 -1.2145444 0.28005403 -0.23475716 -0.64559674 0.5464578 -0.29828748 -0.089043945 -0.052823648 -0.55249584 4.208464 -0.15535888 -0.5829175 -0.1141956 2.0257268 -0.29200643 0.69135094 0.34906495 -1.3343828 2.3920865 0.6852706 -0.40073037 0.57976806 0.56618047 0.5534751 -0.40831342 1.6174595 0.23738064 2.8833601 -1.6871157 -0.727849 -0.13032444 0.4125915 -0.5232923 1.7048845 0.6265334 1.4657763 -1.59406 0.25150838 -0.6020562 0.16288155 1.1663647 -0.28644505 -1.50369 1.1998031 0.3242726 -0.054099906 2.4695246 -0.29742795 1.0776497 0.86241746 -0.9299419 0.7954896 3.52757 
0.08775574 0.27719092 1.6982176 -0.48603854 0.111788556 0.17933825 -1.1517918 2.6058567 -0.081588216 0.34987968 -0.3011925 0.7925895 -0.64608383 0.4020709 -0.0816393 -1.5510433 1.997169 -0.032887924 0.8361231 0.7284192 -1.1377102 0.133753 0.484015 0.8750561 -2.4012632 1.4625643 1.082251 0.06163316 -0.9676288 0.62699854 -1.1121922 -0.3231851 1.2763244 0.5123503 -0.52654463 0.20478812 -0.79796094 -1.1145455 -1.1740125 -1.2866223 -0.29912573 2.1420412 -2.6625621 0.182086 -0.7211869 1.0032626 0.016951004 1.081438 -0.25999415 -0.3161108 -0.40305167 -0.17068045 0.1958155 0.39217886 0.4097044 -0.35658032 -0.30612653 -1.8889565 0.40437508 0.47911173 -0.20199028 -0.39624718 -1.2344134 -0.99291027 
0.92619526 0.46824446 0.9551478 -0.40273327 0.3155401 0.21708582 0.26248178 0.33969992 -0.8883128 0.12713149 0.6694774 0.9733202 0.96822697 -0.77109295 -0.02245301 -1.5440208 1.3495697 0.52301675 1.1222755 0.5636434 -0.39511362 0.86789256 0.3736482 1.4099064 -0.68616366 1.8106867 -0.46895415 0.3579573 0.45753163 1.136907 -0.23706263 -0.3799241 -0.5661937 0.490157 -0.36143297 0.08685874 0.09839505 -0.52541727 -1.8175405 1.2668223 0.92784935 0.14976119 -0.031146992 -1.2937365 0.61202884 0.117940366 -0.28802305 0.79099435 -0.6479242 -0.38494214 0.14829798 0.25251675 -0.5305595 1.110643 2.1190007 0.0362319 -0.3716318 -3.0227838 -0.2431406 1.2916087 0.5756948 -0.10919364 0.5187247 -2.7220159 
0.19495694 -1.6601081 -0.030425185 1.6287887 0.3771575 0.11098356 -0.6407679 -3.0838742 0.7068583 0.23651226 0.582299 -0.42603981 0.2386747 0.9862897 0.03858944 2.615431 -0.2663682 -0.07124218 -0.34571964 0.8782225 0.8277985 -0.110402435 0.9230722 -0.8010918 1.1709348 0.17159143 0.32071984 -0.8557127 0.7366014 -0.008839383 -0.042158168 -0.6238754 0.674864 -0.3397686 -0.1994752 0.27150995 0.7893753 -0.25848073 -1.3613119 -0.5256584 0.73282045 0.95293874 1.8888624 1.0481555 1.8752321 1.4121017 0.08381837 -0.24157959 -0.48917496 0.15706435 1.7097164 1.6593194 -0.0155809 -0.60367525 -0.20419423 -2.019499 0.55767727 1.7714245 -0.015738932 -0.12428473 0.60083926 -0.8134206 0.063637756 2.2285998 
1.5549859 -0.41414195 0.11847716 -1.6757183 0.3803424 1.1647799 -0.21548688 1.3582736 -0.924176 -0.23858115 -0.3748677 0.022072185 0.4577952 0.66093254 0.70884436 3.3089232 -0.5314607 0.40679947 0.34940886 0.13792591 -0.44207248 -0.5613857 1.4100918 1.0659794 3.0494447 -2.1195762 1.5898222 0.27517098 -0.054253016 1.1510389 -0.729998 -1.0585684 -0.5063061 -0.41095605 -0.41089842 0.0078949565 0.19147316 0.9304161 1.1369554 -0.0018847174 -2.030765 0.51922935 0.57248044 -0.6828922 0.5251068 0.7872935 -1.3033509 -0.37199545 1.3380549 1.8533059 0.76633173 1.860591 2.0453877 -1.2876819 -2.4038033 0.24322297 -0.5315812 1.4886183 -1.2733566 1.007494 0.59816825 0.37668025 0.840126 2.0997956 
1.4143823 0.087348 2.2228537 -1.2516073 0.4767274 -0.3718241 -0.07252052 -0.35857284 -1.5036956 1.2363145 -1.0901067 3.0255134 -0.05674638 -0.875472 0.3841982 -2.6254628 3.221461 -2.1570396 1.551884 -0.085255295 -1.6994257 0.35627604 1.2347416 0.4519319 -3.1457226 1.9271163 0.52876747 -0.55953205 0.68325424 0.027580468 -0.24114206 0.44190332 0.6215225 0.53728896 -0.5886216 0.41153637 -0.10085862 -0.43052378 -0.5269587 -0.34947217 0.67121035 1.8418267 -3.7543006 -0.010297332 -2.176706 0.29539648 3.5296679 1.1311905 0.10187708 0.2119263 -1.3969135 -1.9321315 0.01273144 2.0374749 1.030819 -2.0577154 0.13845201 -2.1517172 -0.09069283 0.35033673 1.265545 0.08865793 0.12012055 -3.5588021 
0.72221184 -0.754163 0.72950256 -2.6540718 0.13655704 1.1221629 0.9057607 0.4238317 -0.56527686 0.5970883 -0.48366052 2.085871 -0.29387423 0.1560639 -1.0310774 -1.9269623 0.86386436 0.056513682 -0.23656574 0.98406047 -0.9870471 1.2204899 1.7164322 0.30651188 -1.9959279 -0.5836437 2.5831568 0.4838815 -1.2087466 0.7120884 -1.0604887 0.63265777 1.421573 0.28951675 -0.7028608 -1.0980519 -1.2626239 -1.3028743 -0.7944256 0.5861813 -1.7676598 1.2612908 -1.2633386 -1.2966597 -0.23874518 -0.052952245 1.929907 1.9181936 -0.19375657 0.35431638 -1.9026319 -0.79744893 -0.38496083 1.1069922 1.7266322 -2.3014119 -0.7783396 -1.7227771 -0.8212743 -1.2084101 -0.4220413 1.099473 0.18343838 -1.4705808 
0.57790107 1.2560328 1.5948324 0.58635086 -0.11377512 0.35906503 -0.19724095 1.2902119 -1.0060917 0.5676858 0.7718335 0.31739444 -0.26219004 -0.28007117 -1.3017087 -2.252414 1.2022635 -1.557623 -1.3914714 -0.9888046 -0.7281 -1.3503121 0.75118476 2.6026306 -1.1149879 1.120874 0.82948154 -0.84910256 0.33018777 -0.44295856 -0.6337374 0.42149934 -0.04538888 0.29728287 -0.25027674 -0.39282528 -0.51937693 -0.43486506 -1.3343426 -1.8209327 2.460749 0.71216863 -1.7014444 -1.124564 -1.2271869 0.1999143 0.06466195 1.1712391 0.51584363 -0.33636418 -1.0062163 -0.60858446 0.45240766 1.0448724 2.3663013 -0.38090754 -0.6246917 -2.4532819 -0.05983529 -0.072275154 -0.6982239 -0.05815727 -0.479262 -2.748038 
0.33128607 0.16472222 0.27998957 0.6201893 -0.30115804 1.2749546 -0.20912954 1.7914329 0.16309427 0.6291229 0.9896695 1.175441 0.42326874 -0.082333535 0.39130434 -1.1488398 2.6816993 -0.68423694 -0.28742945 -0.733088 -0.18017788 0.06461351 0.69353694 -0.5667171 -0.026747918 -0.04727044 0.7450436 0.21636382 0.91398627 0.36960658 0.63181436 -0.5322172 0.18965083 1.1765662 -0.40238106 1.7161169 -0.98652494 0.077806756 -1.0962087 1.255609 0.51675946 1.4928985 -0.73545104 -1.0269778 -1.5157597 1.0731608 0.73175997 4.2399178 0.36091152 0.04090791 0.57195246 -2.2486644 -0.545752 0.86854625 0.23494601 -0.885375 -0.46516073 -2.871674 0.20545429 0.9659634 0.030922113 -1.4550073 0.21722636 -2.601673 
-0.60716623 -0.37579685 1.3688177 -1.1975418 -0.293881 0.02101928 0.7197852 0.10321831 -0.30129668 0.8284096 0.56607693 1.3709128 0.06156552 -0.44259992 -0.13901587 -4.7356496 0.19939558 1.2965245 -1.4805005 -1.2812186 -0.82061553 -0.042085104 0.72104686 0.09015081 -2.229114 1.1740286 0.23905702 -0.41808024 -0.33519897 -0.21228608 -0.66268224 0.3472793 1.9890974 0.6002353 -0.41736042 -0.67634887 0.035776816 -0.65609646 0.045553584 -0.24292243 0.1916293 0.42164415 -0.6446417 0.26223266 -3.9178991 0.1525368 0.1019766 2.3993576 -0.50945365 -2.3183525 -0.87898725 -2.1370058 -0.91247535 -0.72471565 1.3720934 -0.46604595 -0.66503847 -0.2549173 0.16266793 0.5550887 -0.15424307 0.28789446 -1.6975383 -2.3950198 
-0.0764935 -0.67993367 2.1706553 0.15025625 0.31642625 0.728423 0.39327458 1.6675278 -0.8395996 0.8181908 -0.16836914 0.3236678 -0.14221188 0.09598362 -0.46814588 -3.508432 1.3168225 0.043530297 1.2598403 0.66300666 -0.6414288 0.2078562 1.1642063 0.42919442 -1.9507967 0.6825152 0.64131576 -1.6942524 -1.4777201 -0.023891548 -1.96285 0.031687677 0.42162114 1.6581544 1.0428995 0.42337334 -1.6028305 0.6631966 -0.20471025 1.7681333 1.0489264 1.4434167 -2.6561694 0.4071902 -2.383841 -0.51155543 0.638783 0.5625453 0.19228573 -2.3085215 -1.2283028 -1.8090396 -0.51310736 0.050975557 1.3494847 -1.5392326 -0.623301 -2.9495187 -0.65295863 -0.98902786 0.8245469 -1.2532523 0.10628609 -2.502133 
0.18378995 1.0982722 -0.38953835 -0.6232692 0.34839347 -0.6061384 -0.03284269 0.73849654 -1.7672514 0.1559144 0.6476976 0.9246845 -0.60733944 -0.60507673 0.7796646 -1.4109517 1.2241966 -1.3027148 -0.69019014 -0.29745057 -2.7974856 0.020820182 1.0721879 0.60912204 0.64538103 0.18718103 -0.74311036 -1.109011 -4.166899 -1.2277104 -0.20501761 -2.2371304 0.47529203 0.6685661 -0.89065075 0.569418 0.6092009 -0.4042445 0.082382254 0.14443094 -1.0912634 1.0345392 -0.14882682 -2.2052426 -2.6245463 0.29193372 1.9306165 0.51127464 -1.2785296 -0.30705184 -2.2536364 -1.5430704 0.85137755 0.69921964 1.6788557 -2.6634455 -0.27653646 -2.347489 -2.2146707 0.6531695 1.2811133 0.8765979 0.24279761 -2.7852356 
