-0.099797286 -0.09482298 -0.0099692345 -0.03515254 -0.0037938803 -0.037133574 -0.0058652908 -0.024680555 -0.06644784 -0.06529684 0.05673136 -0.09953813 0.035641685 0.051222205 0.09850949 0.092700124 0.06788215 -0.072668545 0.03201264 0.0769777 -0.020511106 0.085939616 -0.027386189 0.005228825 -0.08276451 -0.04847721 -0.04781897 -0.07024863 0.014896728 -0.041943043 0.021405183 -0.010159709 -0.020890735 0.07339078 0.011232428 -0.044924818 0.07255678 -0.05558535 0.012955263 0.096247435 0.034633934 0.09019601 0.047707155 -0.041732263 -0.043497898 -0.051410824 0.031773716 0.07672888 0.04079084 -0.046568464 -0.0482536 -0.08982852 0.028837025 0.09622508 0.05635509 0.08812733 0.066364005 0.057306856 0.038829252 -0.06083078 -0.079495996 -0.030709267 -0.01657416 0.0025765821 -0.03978316 0.062417954 0.055069134 0.09320085 -0.09885672 0.021372393 -0.01399985 -0.044392776 0.061879143 0.0387792 0.0068239197 -0.023361757 0.0014141575 -0.0073738024 -0.014939018 -0.05381215 -0.09210754 -0.02959457 -0.021324009 -0.05599156 0.06478217 0.052478388 0.069067866 -0.06869699 0.07801443 -0.03567311 0.054122984 -0.023301966 0.0378464 0.09517568 0.027466774 -0.0099116415 0.044846714 0.083196715 0.047163382 -0.065941125 -0.060314227 0.08158502 0.07449417 0.002913773 0.006321743 0.081424266 0.040495947 -0.07285223 0.024840966 -0.014865674 0.07041903 -0.07056763 0.06431998 -0.09103833 0.092346296 0.0930146 0.06259838 -0.040495556 0.015423313 0.07962732 0.10032904 0.08177197 0.09119731 -0.004704006 -0.018390447 0.07265034 0.07916863 -0.10091254 -0.03320095 0.08308053 0.018728673 -0.08710926 0.09414278 -0.065766305 -0.08537313 -0.069261834 0.038827285 -0.027653106 0.079014674 0.08535822 0.013714977 0.02691093 0.024178475 -0.026404314 0.04194425 0.025362596 -0.01926773 -0.074832976 -0.009395793 0.09599386 -0.010237455 0.061549246 0.040651157 -0.0752126 -0.0713895 -0.06124632 -0.011416718 -0.046481077 -0.025722198 0.0388197 -0.02714926 -0.07261226 -0.009346783 -0.022702985 -0.09966923 -0.029948123 -0.09216044 0.030524075 -0.02181939 0.058285207 -0.045765128 -0.025214411 -0.087000124 0.032665864 0.09941889 0.07221787 0.074351385 -0.09596201 -0.069099575 0.018421695 -0.02996961 -0.0040635094 -0.09169927 0.034205765 0.06963025 -0.025186598 -0.020332493 0.077436954 -0.017027274 0.020590127 0.083746865 0.021577805 0.06656952 -0.091100775 0.062378004 0.058476597 -0.07434201 0.03580168 -0.07142067 0.06114523 
-0.041823227 0.036915466 0.01063066 -0.009667538 -0.043524697 0.06462067 0.08618115 -0.093276314 0.08469845 -0.06552742 0.0052087456 0.09501997 0.023075849 0.05230145 0.012386411 0.033318564 0.027792543 -0.013251685 -0.018692158 0.046607852 0.06782295 -0.07382973 0.08277756 -0.009989485 -0.09038304 -0.09414299 0.100326166 0.052053258 -0.033759646 0.040073007 0.070876494 -0.060390107 0.024566352 -0.09751795 0.08175887 0.05660978 0.03645575 0.092707545 0.07648027 0.036787197 0.075017184 0.0875459 -0.06297991 0.07119368 0.03411126 0.09620063 0.04915154 0.045931026 -0.04144906 -0.0442472 0.0042120293 -0.021934494 0.037811533 0.06362575 -0.047354423 -0.0649078 -0.07494332 0.09840536 0.089848846 0.005050361 -0.07255076 -0.06657974 -0.078161225 0.06898767 -0.041910395 0.004867062 -0.028569028 0.092065305 -0.008740887 -0.014080346 -0.024344765 -0.071772054 -0.024177752 -0.07071937 0.016396128 -0.013151079 0.0018169135 0.06945869 0.09545156 0.02635102 -0.051553648 -0.06365197 0.018527754 0.032021955 0.019931264 0.042720646 -0.05747051 -0.053698014 -0.037853584 0.006825514 -0.030832872 -0.0837007 0.08040179 -0.09873513 0.021097139 0.08898029 -0.04941851 -0.076715544 -0.07396154 0.008967735 -0.010393567 0.01169163 -0.069773234 -0.06267065 0.010447383 0.03980404 0.05222121 -0.06648484 -0.06816824 -0.03957678 0.08155905 -0.02070555 -0.08098831 0.056378826 0.04965797 -0.06403895 -0.05909917 0.011768892 -0.021371186 0.06422274 0.02294825 -0.07595554 0.03189288 0.100163475 0.010777496 -0.060668238 -0.06389876 -0.0010684133 -0.05720652 -0.032201916 0.00394623 0.026083618 0.067193195 -0.0873661 0.052353725 -0.08640095 0.010317318 -0.03682144 -0.031728283 -0.06543851 0.00077529997 0.0007482618 -0.02053687 0.071514994 0.09981538 0.09618378 0.039543718 -0.08983618 -0.0660786 -0.069074616 0.057613507 -0.046532817 0.088058695 0.0050709248 0.06583592 0.055008993 0.06615996 0.017511636 0.030763954 0.052330345 -0.07335373 0.07847971 0.06731504 -0.0023786128 0.08147818 0.0038199574 0.05309303 0.008442476 -0.071415216 -0.08471136 0.04169099 0.044214845 0.034265503 -0.09581723 0.024891824 0.0022924617 -0.08852412 -0.06379078 -0.056255482 0.052001476 0.08435711 0.08281815 -0.0520492 0.06826864 0.06629677 0.034539223 -0.052352995 -0.031343795 0.05563526 0.09473243 0.004377134 -0.07973635 -0.041526247 -0.006644316 -0.0047176406 -0.037317477 0.090309784 0.07661721 -0.006723754 0.012757823 
0.027267337 0.07117292 -0.05200645 0.04036069 -0.09005483 -0.06825784 -0.021362312 -0.0041792393 0.019302212 0.06480953 -0.06749745 -0.034870885 -0.04662472 0.05043073 0.0756399 0.030801997 -0.037116677 0.06976654 -0.009127982 -0.06595738 0.03102386 -0.09861495 -0.08573538 -0.090432554 0.022031188 0.013692088 0.05074826 -0.069391966 0.026779786 -0.05171073 -0.05070505 0.046892434 0.09646389 -0.03603618 0.041919366 0.040238112 -0.04407876 -0.030234925 0.07811856 -0.093661964 -0.048739415 0.002968967 0.08712782 -0.08306992 0.028742999 0.0869986 0.0994492 0.004435234 0.022973813 -0.065018624 0.054816574 0.0447665 -0.072745785 -0.0710031 0.08641322 -0.02208177 0.0029512793 -0.045942508 -0.018653885 0.0368661 -0.06344545 -0.047340743 0.038795367 -0.045675013 -0.03751134 -0.062514246 -0.06510004 -0.031175718 0.06185864 0.09235275 -0.041787364 0.09930776 -0.08687021 0.014131412 0.08797762 0.033137128 -0.049853865 0.016405262 0.055616185 0.0077286586 0.022333987 -0.03036929 0.06381425 0.091016755 -0.005523123 0.101211354 0.08087209 -0.043865323 -0.03942347 -0.08980266 -0.0349363 0.06764801 -0.060002312 0.08597705 -0.046029266 -0.099623 -0.01074291 -0.015537791 -0.095223 -0.049825277 0.038241044 0.016620316 0.029747441 -0.06254825 -0.075730264 0.08782011 -0.008365415 -0.06176548 0.034164295 0.034425497 -0.00329753 -0.045618728 -0.03827265 0.061265007 0.031318948 -0.09467764 0.017429426 0.062799826 0.09707701 -0.004057586 -0.06216744 -0.017017998 0.058266625 0.077606216 -0.01966688 -0.033337176 0.0029488131 -0.09465406 -0.009923391 0.04945171 0.053565606 -0.001201354 -0.014824137 0.06563215 0.007777013 -0.04715882 -0.025997378 0.06424141 0.010399632 -0.028958127 0.0901863 0.09309949 0.086957425 -0.013543732 -0.09594038 0.05418074 -0.100402944 -0.094039634 -0.0009853318 -0.085986905 0.09007402 -0.052318193 0.017464876 0.01898259 -0.061523892 0.044670835 0.0020065755 -0.040180113 -0.06949435 0.04193616 0.07790968 -0.06979354 0.09833671 0.06726159 -0.0076431334 0.037027508 0.051487714 0.041403368 0.054914445 0.06372793 -0.088628374 -0.057090424 -0.082688406 -0.027585462 0.059744358 0.089778736 -0.04731039 0.039486766 0.087204665 -0.046265032 -0.047422014 -0.08446051 0.006064929 -0.057971165 -0.074129954 0.04868442 -0.033397615 -0.07678674 -0.0088569075 0.02514556 0.076748684 -0.05898919 0.062313795 0.07940607 0.08529797 -0.0007643327 -0.014756471 0.08130458 0.05970934 -0.0015866086 
0.070769295 0.0719817 0.05107382 0.054129988 0.06014204 0.026588693 0.035231665 0.06731917 0.03778623 0.07973395 -0.100185886 0.092075035 0.07157546 -0.025313228 0.0024695024 -0.08056047 0.022155598 -0.008509539 -0.0018944442 -0.00093494356 0.01090613 -0.039980285 -0.021824129 -0.09317298 0.0026652217 -0.043487024 0.044488788 -0.04473074 0.083438456 -0.004988909 -0.052408334 0.069459334 0.09864825 0.044204786 0.0134013 0.09139137 0.042806327 -0.014097549 0.03892736 -0.06706536 -0.07964878 0.09547016 -0.0020470992 -0.089106165 0.083495975 -0.0313285 0.001790598 0.085779145 0.09836529 0.060419112 0.094579 -0.08002613 0.06635758 -0.021481693 0.027741283 -0.030599065 0.0782066 0.07370368 0.0050680265 0.06842318 0.04760544 0.015876524 0.012998879 0.08298151 0.088936105 -0.0058659017 -0.029518425 -0.050766118 -0.010150529 0.016139045 0.0619722 -0.08771056 -0.006583415 -0.007967345 -0.07089044 0.020690054 -0.03119643 0.09046987 -0.034412816 -0.100628994 -0.010822393 -0.014768288 -0.037784226 0.068339884 -0.039893456 -0.0069333464 0.0034815073 0.044165954 -0.09051885 -0.08572593 -0.09170873 0.021215819 -0.0064625666 0.055970997 -0.02575083 -0.06390441 0.0045201555 0.06307854 -0.080490604 -0.0094515905 0.011807047 -0.049476024 0.0076381043 -0.041980017 -0.05925821 0.062410384 -0.03351216 0.020414896 -0.029223599 -0.030586936 0.021284908 0.083008975 -0.053727232 -0.015116446 0.05088955 0.052474022 -0.077239424 -0.08352521 0.07481408 0.0019409359 0.08307001 0.09115444 0.0849552 0.06624177 -0.09783108 -0.07499194 -0.07707466 0.051059052 0.08293976 -0.03296767 0.017562509 -0.031777315 0.030929103 -0.018234424 -0.064895496 0.014049411 0.017471738 0.07514812 0.062139526 -0.07219433 0.09532185 0.04113379 -0.08725612 -0.0791952 -0.057773557 -0.014209561 -0.063217245 -0.0997507 0.097979814 0.04714203 -0.08976523 -0.06574192 0.015214831 0.068648845 -0.057165317 -0.05361099 -0.09484983 -0.00740698 0.021629855 -0.0076001137 0.01573953 -0.09594212 0.018785976 -0.0815479 -0.086697295 0.028018177 0.061581746 0.054937482 0.0021951646 -0.0043844357 0.028551266 0.06398454 0.053305775 0.084133714 -0.06979421 0.058564544 0.063319445 0.06942688 0.046840847 0.08570783 -0.080558226 0.0515209 -0.047659084 -0.045305945 -0.06574038 0.08128841 0.040708393 -0.0069631636 0.009417325 0.06638697 -0.06769576 -0.021199822 -0.057040714 -0.06586321 0.038170382 -0.051890597 0.05307737 0.035472795 -0.08523405 0.01679992 
0.027931288 -0.042891614 0.0057747215 -0.09580824 -0.010034114 0.01574371 -0.079785 0.07019724 0.058140814 -0.10103622 -0.0023188218 0.09153606 0.08939746 -0.0324871 -0.0115030855 -0.00633806 0.022382036 0.019361854 -0.021656469 -0.083103344 0.033194304 -0.0045826733 0.079705805 0.095417425 -0.09763956 -0.029416755 -0.02838894 0.049249396 0.025031403 -0.030374825 0.0856341 0.018578507 0.004058942 0.10016568 0.017957099 0.09816994 -0.07754943 -0.071852766 0.054638207 -0.059749413 0.074720696 -0.06726746 -0.040863175 -0.07269392 0.04071279 -0.0227018 -0.059171475 0.08206479 0.06787811 -0.08882661 -0.08998942 0.079861194 0.068479344 -0.037913583 0.050406232 0.015199654 -0.060707968 -0.064378485 -0.0038929656 -0.07136233 0.045221 -0.0953986 0.095350236 0.099114224 0.010508597 -0.09350288 -0.02836284 0.09333436 0.09771454 0.06110233 0.092083156 -0.040250704 0.046326965 -0.045685768 0.009647869 0.075489596 0.021995373 -0.053026 0.015206732 0.007478513 0.053920582 0.0112179 0.07746127 -0.09302078 0.022091605 0.046963945 0.02245929 -0.029136792 0.1005076 -0.0019707605 0.08203626 0.019175485 0.08761759 0.010693371 0.09194763 0.07157597 -0.013299629 0.06545682 -0.048454978 0.0061198846 -0.021302283 0.04576969 -0.019222178 0.07602207 -0.09239174 0.02416186 -0.053386077 0.053314924 0.07503757 -0.023184061 0.07050069 -0.07975668 0.09655546 -0.04427953 0.08981629 -0.10033465 0.05877994 -0.06933996 0.044701904 0.022224635 0.036813676 0.053928167 -0.042564865 -0.09452825 -0.060686145 0.074577 -0.081312746 -0.0010233894 -0.09251167 -0.053184893 0.032281205 -0.068101704 0.09921141 0.058586165 0.08883564 -0.078844234 -0.044910584 0.049564406 0.09833498 0.038971588 0.08599341 -0.004896976 0.09641187 0.06382918 0.030712098 0.058870777 -0.07199919 -0.07923676 -0.050687674 0.004161909 -0.080975235 -0.025001772 0.044911116 0.015077762 -0.0851769 0.07611436 -0.06540154 -0.09505476 0.02261763 0.014437281 0.030255586 0.08093099 -0.014167078 -0.06570676 0.0034299418 0.030057594 -0.05443675 -0.048231438 -0.029081449 0.086998746 0.057993993 -0.0054139197 0.037450686 0.041500673 -0.09224768 -0.059192937 0.020332612 0.05337788 -0.088116944 -0.05090882 0.014449075 0.010907628 -0.036514454 0.08669543 0.03462021 0.0406819 0.031650484 -0.058828317 0.0057603642 0.083863124 -0.008313313 0.05896978 0.08747031 -0.0070950165 -0.03384056 -0.009271696 -0.09883972 0.08147152 0.025055736 -0.05881575 
0.009028368 -0.020457357 0.0043708533 -0.06337996 0.053608015 0.06847876 -0.019979663 0.03472686 -0.06200514 -0.029169925 -0.08380392 -0.04160684 -0.034760594 -0.06068518 0.054396823 0.06782316 0.071822554 -0.0816392 -0.0059462786 0.020826302 -0.006183006 -0.0748291 -0.033692345 -0.089199714 0.06349738 -0.090254255 -0.077191114 -0.083636954 -0.061829813 0.034269437 0.04325962 0.10102297 -0.01111906 -0.08693896 0.017104678 -0.0070414394 0.081116915 -0.025046967 0.016386725 -0.07357292 -0.0063928217 0.053983584 0.038081303 -0.033164293 0.08170779 -0.007205285 -0.06736799 0.019237086 0.08727415 -0.040641643 0.033992738 -0.029631495 -0.08668731 -0.06271106 -0.047132045 -0.08039174 -0.04930732 0.07040173 0.08258864 0.05981952 0.10027708 -0.08026811 0.059186846 0.08634527 -0.05618564 0.09704435 0.014471933 -0.07156108 0.048403025 0.08174728 -0.05954204 -0.007652603 0.0970747 -0.087695606 -0.038414672 0.0084917545 0.06899074 -0.09896312 0.07424216 0.060076237 -0.07386419 -0.005974695 0.026712775 -0.053643204 0.014038682 0.014489889 0.0143214315 0.037376106 -0.040337242 0.020847477 0.07116608 -0.022442497 0.08913997 0.09773448 0.0903915 0.09874354 -0.05574388 -0.016733103 0.07816966 -0.08878243 0.027964756 0.04029043 0.049499348 0.0048739687 0.038544863 0.016570844 0.018263236 -0.00614357 0.036679447 -0.078885384 -0.03781542 0.07030828 -0.08118841 0.05300115 -0.08575493 -0.06654124 0.07697816 -0.07453314 -0.046108097 0.04427463 -0.019217484 -0.06534743 -0.034466222 0.036868513 -0.081144035 -0.06840192 0.024144799 0.07288408 -0.041342825 -0.08051054 -0.014652774 0.07792522 -0.07353774 -0.060484454 -0.07513247 -0.06698957 -0.06411213 0.060832664 -0.038963974 -0.018650256 -0.012867443 0.018438779 0.05468361 -0.020061515 0.09738837 0.036154285 0.026346698 0.062449798 0.014569588 -0.0013162866 0.09087905 0.08974084 -0.023730293 -0.10135178 0.09016593 0.03177154 -0.08848961 -0.06788564 0.049581632 0.0002265796 -0.007199198 -0.04869468 0.03635946 -0.06481384 0.039582655 -0.009587958 0.0052250847 0.07236038 0.04726407 -0.0615853 0.046151087 0.063324586 0.022368766 0.035984173 0.08543372 -0.08358466 0.09202294 -0.077620625 0.08531538 -0.079101674 0.08787654 0.099267006 0.080208436 0.05175084 -0.040831055 0.0860623 0.09625858 0.044163987 0.013974763 -0.006940037 -0.044073272 0.008116744 0.070761636 -0.062137738 -0.07064445 0.092615545 0.0375517 -0.09883801 0.0051614493 0.058423847 
0.09824993 0.03577222 0.04923688 0.077079296 0.047356352 0.072503775 -0.03770566 -0.027147107 0.07180612 -0.012389943 0.0033140182 -0.007863745 0.030705571 0.084656656 0.056877285 -0.05086143 -0.012858957 0.085230455 0.07211709 0.004782431 -0.014819808 0.08223879 0.057238176 0.041153967 0.0008252263 -0.047111962 0.052537188 0.033481613 0.07858652 -0.033690244 -0.02798254 -0.045389052 -0.031945318 -0.04259326 0.09751263 -0.055262852 0.009074695 -0.05170633 0.075590536 -0.044115152 -0.007517658 0.013391368 -0.01685381 -0.07963094 0.085896626 0.06627147 -0.07244931 -0.08652987 -0.0071050227 0.050792098 -0.0047503114 0.08510283 -0.05215495 -0.038714334 0.025962427 -0.093495265 -0.09782218 0.07248378 -0.011617273 0.029787749 0.064401105 0.00081157684 0.09968306 -0.026048608 -0.035801046 -0.027812868 -0.022560358 0.08373897 -0.028157674 0.036742076 -0.04628226 -0.0305719 -0.09006418 -0.08243732 -0.0963355 0.069262356 0.082481205 0.061753348 -0.058926478 0.04524052 -0.04199954 -0.06004663 -0.0009856 0.0013949499 -0.0618737 0.08104247 0.09059195 -0.097435184 0.08645174 -0.08138534 0.003760241 -0.029733524 0.043462396 -0.029621348 -0.09883426 -0.022137642 0.007540934 0.057920784 -0.017029688 -0.042721268 -0.050133273 0.0012352318 -0.06270282 0.06564787 -0.027125359 0.005689293 -0.08874026 -0.04316126 0.044148713 -0.024739526 0.085381195 0.06835526 0.0112926215 -0.07044979 -0.011786193 -0.054921526 0.07984902 -0.026522048 0.03200388 -0.07314885 0.014269784 -0.01570139 -0.0365031 -0.012156278 -0.06335485 -0.03714522 0.012849003 0.07968807 0.091308 0.055133462 -0.0018996596 -0.066491604 -0.06996864 0.090676144 0.047544584 0.07815683 -0.028096892 0.059860125 -0.05093446 -0.0014300868 -0.01732254 0.0099004805 -0.033214964 0.08237608 -0.048303068 -0.08374652 0.08535212 -0.020351708 0.021684185 0.043811798 0.086187825 0.058670685 0.07028036 0.006620124 0.04517837 0.054053143 0.10046095 0.07020149 0.08049895 0.02422142 -0.08779077 -0.090446375 0.060071796 0.043904707 -0.0043719187 0.08478519 0.048322886 -0.017860651 0.02724421 -0.00709787 0.011945739 0.06648818 0.0922644 0.08986564 0.041616708 -0.051958743 -0.08498567 -0.09775292 0.0211206 0.094012424 -0.02803094 0.007337041 0.089480355 -0.025735684 0.031325623 -0.044951934 0.006779939 0.03031765 0.08466646 0.074370936 0.025684416 -0.05889929 0.1004508 0.04783219 0.026599795 0.021601804 -0.070477486 -0.05515681 0.075445905 0.0033746734 
-0.05404287 -0.07922734 0.06496452 0.1013114 0.08949408 -0.08343314 0.087997615 0.09658663 -0.07285909 0.08027314 0.10115294 -0.0035237297 0.029081166 0.046179682 0.024762511 -0.08970462 0.03324972 -0.09708871 -0.04270771 0.014736094 -0.097338036 -0.011960648 0.03456229 -0.031721033 -0.032814965 -0.08626738 0.09120247 -0.05038562 0.0032834187 -0.07819863 -0.0943346 0.021499895 -0.09457308 -0.039564263 -0.086818054 -0.021104485 0.030168429 -0.06312561 -0.0039953813 0.029426321 0.08451915 0.051073626 -0.027674466 -0.0075038373 -0.0051206574 0.0017610416 -0.0486906 -0.031480677 0.004874021 -0.03247816 0.031765327 -0.063286796 -0.009095982 0.07470049 0.06302546 -0.07527836 -0.019416012 -0.09447405 0.057475537 0.08422613 0.01620429 0.07372819 0.09818177 -0.06351236 -0.10076843 -0.05022755 0.058909535 -0.07277863 0.057854146 0.0933927 -0.09013255 0.05566384 0.016437545 -0.021083362 -0.06302169 -0.024141096 0.0147257745 -0.0024381354 0.09898342 -0.09802049 -0.091983035 -0.08107021 -0.051537406 0.07983638 -0.07350926 -0.09615382 0.0400735 0.048493817 0.0721004 0.026511103 0.020095661 -0.060812075 0.06275463 0.10003057 0.09418003 -0.05854736 -0.010168552 -0.0712691 0.075855136 0.005923055 0.05067651 -0.04770761 -0.00536979 -0.05615954 0.03770344 0.04817857 -0.071883455 -0.09034901 -0.08486752 0.008032985 -0.0022901893 0.0931143 -0.072879106 0.04750316 -0.03150665 0.064407334 -0.083938256 0.038293883 -0.07675056 -0.030322678 0.0036366135 0.0018268004 0.02842684 -0.022628985 -0.0578469 0.06309958 -0.008584432 0.009297796 -0.043624386 -0.052300867 -0.011731505 -0.06071111 -0.10052174 -0.08674079 0.0021401644 0.09373067 -0.07007147 -0.04534768 -0.06610272 -0.014644124 -0.051059227 0.091700315 0.039617598 -0.032894373 0.07093148 0.08637746 0.025132298 -0.046322525 0.083342806 0.034737587 -0.095618844 0.013307512 -0.097160585 -0.032689206 -0.070689306 -0.042490337 0.05142936 -0.08530854 0.043423608 -0.034737974 0.095899686 0.05849129 -0.05099497 0.008536391 0.07677376 -0.0033629239 -0.07987357 0.04352793 -0.019771494 -0.0031753033 0.034232005 -0.021542639 0.0062318444 0.083077386 0.029917166 -0.075187564 -0.09120882 -0.08248696 0.04341337 0.063688144 0.054873347 0.08779012 0.058016762 -0.069777705 0.055878177 -0.0353958 -0.07248333 -0.039002374 0.06234236 0.018754728 0.043103844 -0.00757201 -0.09393847 -0.05814673 -0.082479104 0.046260834 -0.049653646 0.06844044 -0.0057283714 -0.0144149065 
-0.40118042 0.014549571 -0.10512536 -0.15653622 -0.56075704 -0.015919011 -0.8956367 -0.52009124 0.1945534 -0.8502456 -0.57072836 0.61318314 -0.04474839 0.13174503 0.28723383 -0.4714059 -0.46338665 -0.6779057 0.1726483 -0.07917348 -0.8602104 1.1323662 -0.13813758 0.44225946 0.8027059 0.29707333 -0.5892889 0.0023822968 -0.4739741 0.13071711 -0.12751542 0.47141385 -0.24139304 0.6178432 -0.29785353 0.18519543 0.030117089 -0.0005556084 -0.6610374 -0.20748332 0.030354748 -0.09640782 -0.73192936 0.07270226 -0.5467777 -0.040584795 0.45466986 0.49204835 -0.18122357 -0.38407192 0.18756121 0.03150989 -0.0036572176 -0.11352507 -0.180911 0.41076997 0.07209541 0.47004047 0.13108197 -0.050668743 0.29691032 -0.27383128 0.26413852 -0.12237108 -0.27291545 -0.62269104 -0.525815 0.22830944 -0.1195657 0.025476601 0.028272452 0.25850856 0.06932805 -0.38634637 0.26536426 0.08978514 -0.38363895 -0.06931441 -0.22954303 0.47096807 0.47476915 0.06663987 -0.73759484 0.2551004 -0.4824147 0.13713342 0.07129271 -0.28836143 0.22612071 0.78871334 -0.48719594 -1.0116488 0.2629626 -0.29655924 0.14154956 0.03876322 1.612002 -0.18003939 -0.0742986 -0.23979671 0.1625877 -0.27194926 -0.16463393 0.044914674 -0.29592818 -0.08487096 -0.5024529 0.17201689 -0.36945447 0.11338471 -0.40786198 -0.16377752 -0.103780866 0.5242614 -0.10699037 0.18152867 -0.05146192 0.1555148 0.09540992 0.5524017 -0.6436482 0.8082277 -0.17725258 -0.77030736 0.2414132 -0.23833275 0.044215053 -0.40768322 0.36431026 -0.2921267 -0.19067231 -0.38843113 0.24127553 0.29089025 0.20077768 -0.059751242 -0.7287121 -0.2200147 -0.013717896 0.57864636 -0.31688154 -0.46426135 0.84731615 -0.47784752 -0.40497372 1.2210109 0.17905857 0.4104782 -0.30391124 -0.3779286 1.5572783 -0.6199133 0.34399718 -0.348219 -0.00724826 0.8982518 -0.21199547 -0.516523 0.19898595 -0.024378449 0.5217711 0.46351707 0.07341153 1.0837948 -0.49183914 0.3257996 0.7923683 -0.71286523 -0.12097043 0.3925512 -0.8268628 -0.0021068784 0.59065276 0.057775993 -0.046248455 1.382797 0.8042908 0.043415137 0.33157143 -0.16766526 3.5346806 0.12339929 0.50582045 0.3173691 -0.041363437 0.1934308 -0.5165141 -0.36659837 -0.18659145 -0.5235404 -0.5358007 -0.20861453 -0.036624935 1.0746881 0.38089278 -0.5540078 0.1892054 -0.27259314 -0.24593897 1.8502264 
-0.84089696 -0.9934049 -0.0988183 -0.37591857 -0.4298075 -0.41989118 -0.4500032 -0.23800322 -0.18919185 0.3479145 -0.08115081 0.51849633 -0.3401286 0.6374526 -0.05016996 0.05687081 -0.2015026 -0.5107512 0.44046977 -0.19648345 0.33261132 0.5630715 -0.08155097 0.075873226 -0.12130337 0.40039238 0.0010877303 -0.21684583 -0.18495806 0.018024951 -0.42602548 1.9242163 0.07007707 -0.15892848 1.3369957 0.094043836 -0.148374 -0.5939457 0.52579516 -0.6037543 -0.097847946 0.57252634 -0.7405011 0.41670224 -0.5416806 0.40591526 0.3584026 1.1692833 0.63032764 -0.8038672 0.62883663 -0.4703383 0.47995412 -0.23846541 0.3091237 -0.14630671 -0.7251379 -0.28979525 0.3020005 -0.20917508 -0.15467146 0.47293046 -0.9492516 -0.7249872 0.3399975 0.64982545 0.11445533 -0.6757661 0.07450114 -0.989965 0.33099496 0.08472234 0.32138512 -0.5435971 -0.060256377 -0.6115701 -0.017492013 0.5937241 -0.19422156 -0.34254196 0.020960383 0.05592768 0.19002572 -0.24762644 0.20453826 0.21506901 0.9665584 0.37681806 0.30699843 0.89735186 -0.05481997 -0.27884158 -1.3003638 -0.1895357 -0.6783034 -1.0382102 4.57704 -0.35503066 -0.36691812 0.23652108 -0.88511086 0.54207563 0.5185746 0.013691658 0.36250845 1.0901197 0.6430613 -0.15754218 -0.52098155 -1.0479059 -0.8317197 0.2576203 -0.20064265 0.5069846 0.65622073 -0.41749486 -0.053480998 -0.6641843 0.40667987 -0.38187632 -0.38554004 -0.88510865 -0.041749205 0.1756559 0.46545863 0.10835005 0.1264809 -0.72816753 0.15032764 0.57792884 0.09265578 -0.15807024 -0.063836925 -0.29909316 -0.54154557 0.14163923 0.40099087 -0.2781239 0.20772693 -0.16165736 0.40254724 -0.012737697 0.2985453 -0.16417587 0.09320334 1.1892916 -0.41625056 -0.22522233 -0.03404346 0.62351865 0.730432 0.17834778 -0.5759516 -0.07056695 -0.21918792 0.073700316 -0.66123205 1.0183966 0.9051221 -0.34836093 0.2347111 0.8830056 -0.8177665 -0.20241274 -0.679361 -0.12347441 0.3980896 0.6219975 1.0088701 1.9579681 1.10289 -0.22636345 -0.1651723 -0.2813611 0.47211048 0.44474173 0.48934 -0.1963432 0.005434212 -0.024590105 1.5561383 0.10253821 -0.2076417 -0.64879626 -1.1885283 -0.0057735364 0.13977566 -1.5361367 -0.79360247 0.20298466 0.80000114 -0.7272403 -0.115557715 0.90450346 -1.0913274 -0.41895583 0.122296594 -0.093077384 -0.08526221 0.21204838 
-0.025161743 1.9997782 -0.3827189 -0.39187565 -0.38221148 -0.09176403 -0.69661224 0.5552444 0.17917979 -0.72420317 -0.3322972 -0.55960554 -0.5512676 -0.832769 -0.16161929 -0.2219074 -0.56019074 -0.10788134 -0.32661337 0.91252875 -1.1612146 0.7298908 -0.7264374 -0.13808723 0.1132178 0.2946918 0.66628575 -0.16304182 -0.4233396 0.53370124 0.4388521 -0.54455465 0.19679475 0.621147 0.1711901 -0.019828526 0.27690256 0.70505255 -0.32640666 -0.054380134 -0.03278774 -1.3749527 -0.032937158 -0.10927151 0.33366144 -0.35083005 1.140744 0.0061007915 -0.44763523 -0.42491204 -0.075711325 2.7966468 -0.28295416 0.013574478 0.00898925 0.8720716 0.099814296 -0.37695855 -0.45676795 -0.2171721 -0.34120345 0.48407835 -0.119645305 -0.1272276 2.1325333 -0.15422189 -0.92814404 -0.19220123 0.7063253 -0.7476967 -0.22649938 -0.088011056 -0.3015505 1.1131378 -0.08124462 -0.30439714 -0.2886189 -0.81201583 0.4306586 0.07706572 -0.21425356 -0.59735006 -0.15481496 0.32060865 0.061614625 -1.1665066 0.38576436 -0.041814093 -0.3812382 -0.18509589 0.34786043 -0.149126 -0.8449647 -0.045762725 0.49795526 -0.44353256 0.43437964 -0.7352925 0.4389508 0.5074497 0.25907347 -0.2793752 -1.1191189 -1.0592307 0.1317315 0.86845577 0.75561607 0.38695088 0.117518224 0.21858343 0.102681644 0.1492292 -0.3784776 0.1801566 -0.52356046 -0.40838215 0.34807786 0.33064312 0.32958147 1.4223622 -0.71650815 0.6223418 -0.2626526 -0.23994179 0.58849156 -0.38934487 -0.122877605 -0.52455384 -0.28568572 -0.11697696 -0.29805073 -0.008122377 -0.05461156 0.0061347713 -0.4792755 0.26696554 0.086630166 0.037220713 -0.16092946 0.19539422 -0.4774093 -0.28452095 0.88181734 0.532976 -0.2457059 0.36276245 -0.22687046 -0.048140083 -0.40690738 0.039356574 -0.19720584 0.37494677 0.038865022 -0.5452559 0.204534 0.22586276 -0.10827073 -0.3059514 -0.2474453 0.19117512 -0.20316285 -0.85044754 -0.14808811 0.26784745 0.69099784 0.5441272 0.38140106 0.4713143 0.508011 1.3991297 -1.5315797 0.19312477 0.210853 -0.1636724 1.5134101 -1.0221175 0.2365933 0.5398369 -0.16722313 -0.36957783 0.9963058 -1.696203 -0.46263528 -0.7125468 -0.98654413 0.25038502 0.32690784 1.4618332 -0.37156793 -0.92454416 0.29167742 -0.7227682 -0.72119784 0.4167478 0.16002725 -0.70899475 0.102726914 0.02336977 0.24441242 0.6132704 
-0.052622657 0.4388636 0.025036728 0.2567658 -0.20927122 -0.012114797 0.87596446 0.31370434 -0.08921368 0.7276696 -0.56498677 -0.26300365 -0.2380979 0.06792318 -0.2628877 0.16546847 0.06198156 0.4583914 -0.81488985 -0.28118762 0.12400773 0.34885946 -0.3849077 -0.4579542 -0.4868425 0.7593304 -0.42271152 -0.100884765 -1.095365 0.2568424 -0.22582798 1.1481043 -0.20889658 0.47865093 0.16361628 0.26367736 -0.5039292 1.5910527 1.0199189 -0.6735781 -0.6798913 0.35788795 0.021962192 1.4898374 0.97299767 -0.94804394 0.5419559 -0.10811764 0.23827879 -0.076215364 -0.35776272 0.46027994 0.5422287 0.037810273 -1.0766206 -0.017121218 0.25983655 -0.11219059 -0.74483895 -0.6757896 -0.36724815 -0.34094292 0.49652836 -0.11571064 -0.9072843 3.020558 -0.121514514 -0.9366538 -0.16451824 -0.2678787 -1.0869764 -0.51776934 -0.41502434 0.15892182 0.4179428 0.0139074335 -0.20309593 -0.96288145 0.29586095 0.35825965 -0.8487666 0.38399357 -0.27315867 0.66049546 -0.7609078 -0.9218372 -0.0055239154 -0.31024346 -0.40963295 -0.99667513 -0.105233185 0.34600595 0.6299272 -0.47186184 0.43707713 -0.65967536 1.3938767 -0.15598726 -0.020502742 -0.3509655 0.11301348 -0.17600977 0.31910136 0.2543917 -0.15550825 -0.11914013 -0.2548263 0.29926217 0.376339 -0.23831816 0.13703768 -0.92295104 -0.2814961 0.40381092 0.00060742686 -0.0978322 -0.3707702 -0.35862535 0.32059172 0.03451125 0.055596843 -0.56368357 0.38073346 0.3547996 -0.15352991 0.030811805 -0.46078464 0.19558655 -0.17097332 -0.44796675 -0.6105946 0.6095901 0.4191904 0.53926295 0.82115465 0.09654549 -0.9981368 -0.5877221 1.6044286 -0.05344424 -0.21077847 -0.09682493 0.26910284 0.3608872 0.35132158 0.06841182 -0.19386299 -0.3763336 -0.5156553 -0.1358362 2.8670895 -0.47265744 0.25987244 -0.13503861 -0.17974727 -0.5770092 -0.9354937 -0.18438792 -0.20895933 -0.71614176 -0.3665491 0.7403959 -0.71429724 0.28608984 -0.24479365 0.8941064 1.0230906 0.039228544 -0.47068784 1.8285041 0.62753516 -0.22364303 -0.56282127 -0.12951432 -0.33424687 -0.431079 -0.62248886 -0.61635923 -0.5900738 -0.1415143 -0.28370106 -0.3117899 0.041637346 -0.40020588 -0.1679598 -0.17243916 -0.08224877 0.6781582 -0.12407064 -0.6538735 0.53386015 0.7675919 0.10571601 0.4718034 -0.04791805 0.058332667 -0.4991827 0.016875649 -0.86215144 0.46236065 
0.022183042 -0.21821421 -0.99938214 -0.10869519 -0.0076479553 0.0894683 -0.007997394 0.5821945 0.29134947 0.91166 -0.39329383 -0.13538158 0.05761985 -0.34954393 -0.9655432 -0.6532242 -0.3635914 0.37788492 -0.65224063 -0.38687986 0.13460246 0.19789292 -0.4710937 -0.68354315 -0.691845 3.8947818 -0.6383241 -0.57467973 -0.13563505 -0.43528017 0.22024478 -0.569616 -0.31624597 0.4223311 -0.70430917 -0.19781761 0.39463162 0.24901682 -0.27301732 -0.13544792 -0.12940297 0.031040013 0.121545255 -1.1366127 -0.3059463 -0.22207366 0.024208004 -0.19158278 -0.31873953 -0.22497573 -0.16744329 2.2536044 -0.17834446 0.12115427 -0.49302933 0.12589933 0.2937428 0.63494796 0.3773261 -0.464249 -0.19586383 -0.004541888 -0.30137306 0.32026148 1.9725381 1.1901368 0.4382336 -0.73225945 0.37945387 -0.52350616 0.30077034 -0.4245605 -0.42755848 -0.59626746 -0.26442677 0.12834519 -0.11476191 -1.0815524 0.19629066 -0.097468495 -0.37541047 -0.37719533 0.621119 -1.072076 1.1473678 -0.17384936 -0.09903518 -0.17999943 0.13003759 0.36940643 -0.087334 0.7494982 -0.41475174 -0.75495046 0.7578382 0.8682858 0.1147568 0.87262136 -0.12588185 -0.6049871 0.636464 0.4911976 -1.0838556 -0.26749066 -0.097445056 0.34458023 0.010064195 -0.49858314 -0.58341014 -0.37996638 -0.8975692 -0.27007034 0.050186325 -0.14528862 -0.20082289 -0.14212029 0.2508051 0.2807345 -0.049459185 0.782899 -0.47454685 -0.9250966 -0.43682137 1.800641 0.14860755 -0.65967554 -0.10094622 0.081088215 -0.5682119 -0.10088187 -0.07054079 0.3795362 -0.2638214 -1.0870849 -0.16847269 -0.6176416 0.56073225 -0.2588215 2.0516455 -0.33864042 -1.2421985 0.4984017 -1.3048483 -0.14552203 0.7350907 0.45419717 0.51958334 -0.79700387 -0.33887658 0.25338528 0.022931937 0.54157597 0.5368277 -0.109670065 0.04268121 -0.06595387 0.22054648 0.44999352 0.9738969 0.061297283 2.4034681 0.5863248 -0.061184566 -0.36768225 0.7136843 0.040017217 -1.1856638 -0.44581816 -0.7819956 0.818118 -0.17148544 0.14859869 0.41781783 0.55788696 0.23214522 -0.2405004 0.03789479 0.046912745 0.23218273 0.29808 0.13469325 0.43108255 -0.024642486 0.459046 0.08957305 0.33555147 0.35957915 -0.41712436 -0.8371559 0.0050700353 -0.40317166 -0.87307626 -0.0456558 0.057968263 0.6090482 -0.7054555 -0.6112221 -0.34806666 1.6110249 0.71313107 
-0.21271174 -0.846119 -0.5094611 -0.3486307 0.5079618 0.33128467 0.4759931 -0.38428393 -0.86135745 -0.9634291 0.8565044 -0.5751234 -0.2532274 0.9377262 0.023592466 0.06665343 -0.3180347 0.60577077 0.14165212 -0.40565377 -0.4470397 -0.0320156 0.21807496 1.2088432 -0.42105603 0.58951527 0.79825675 -0.18104075 -0.18950415 0.39172554 -0.9246738 0.91229063 0.096904635 0.11946638 0.42404443 -0.2925112 0.18588306 0.84406954 0.19958673 0.46321648 0.42179325 0.53487223 -0.29516003 0.5013774 -0.5144425 0.761619 0.55944127 -0.20663096 -0.14700814 0.2512617 -0.76099885 0.56042767 0.8224178 -0.37192276 -0.39653778 0.4848346 -0.19394779 0.5111689 0.38637802 -0.120600075 -0.1285852 0.021007203 -0.5840333 -0.24000764 -0.25169468 0.5774773 0.053684372 -0.89862984 0.80866075 -0.36742917 -0.82171017 1.5324311 -0.23270021 -0.7709244 -0.39975524 -0.23056482 -0.4586521 -0.122092 -0.037215643 0.35056075 0.036878712 0.05453671 0.2861864 0.42727843 -0.7188238 -0.17912303 0.2933269 0.55387163 -0.2562746 -0.12374028 0.37761366 -0.7995618 -0.16427112 0.14495474 0.39526805 -0.17104858 0.012015024 -0.12805006 0.12835325 -0.047324646 -0.14164114 0.34531823 0.61182344 0.31708476 -0.445473 0.37515333 -0.14451356 0.08659199 -0.024770865 0.0604794 -0.31731454 -0.7745752 0.5375859 1.2462058 -0.55794275 -0.30210552 0.11286992 -0.55603963 0.48852134 -0.39127097 0.5265632 0.41592377 -0.22193427 0.735847 -0.5417556 0.12251253 -0.13431332 -0.17599784 -0.4637993 0.58853966 0.14721191 0.04416763 0.29934445 -0.52295065 1.7275193 -0.79717284 -0.05242115 -0.83758736 -0.23757535 -0.9784519 -0.09741928 0.094096325 0.70232356 -0.07036238 -1.0979176 1.0958002 -0.057973146 -0.75769025 0.15790015 -0.6766041 -0.6950875 -1.1524177 0.34980956 0.79243135 -0.04032717 1.231395 0.1007759 -0.26324794 -0.356341 -0.15564807 -0.47902104 -0.2841232 -0.03811544 -1.1111233 0.5445332 0.41805816 0.12983704 0.008321502 -0.15837042 0.30278456 -0.27256235 0.37925178 -0.6314992 -0.17116709 -0.37102693 -0.2655947 3.0268292 -0.16513602 -0.27937597 -0.82588637 0.8417325 -0.45105726 0.20342073 -0.16154061 -0.37970173 -0.45247224 -0.20688136 -0.072725266 0.64273727 0.503939 -0.46174237 0.7906787 -0.48915514 1.5443065 0.38057962 -0.55657154 -0.25463894 0.11347767 -0.60572374 0.32726887 
0.72335863 0.2750845 -0.27923304 -0.006827942 -0.11928371 0.031350955 0.06487957 -0.6337058 -0.44329584 1.925262 0.6536203 -0.09754876 -0.1595217 -0.061568283 1.9719036 0.13668942 -0.053550422 -0.7482976 1.0206608 -0.082697764 0.92963284 0.339902 0.44479752 -0.7319545 0.3903484 0.6614589 0.8131432 -0.25561318 0.7478789 0.28751495 0.017013555 0.36879167 0.59697235 -0.5452489 0.20536792 0.44325927 -0.67550176 0.35264713 -0.7717077 -0.4406704 -0.39373612 -0.2834618 0.13921486 0.28931037 -0.3018832 0.1204501 -0.13294867 1.3730414 0.7735421 -0.4892462 -0.39285016 0.42825758 0.20625104 -0.70773786 1.4815894 0.29049066 -0.76530504 -0.24204117 0.48123723 -0.6739454 0.11133242 0.20542812 0.2625448 0.14781961 0.5351272 -0.4964272 -0.49697116 -0.5583809 0.10268147 1.218902 -0.09821888 -0.06963348 0.06319283 -0.30013257 -0.78400785 0.16601092 -0.39849854 0.08714302 -0.75237674 1.4428632 0.39555076 0.5246698 -0.0227619 0.5249467 0.50431293 -0.99389124 -0.36619693 0.6901488 0.20708479 0.006385808 0.042229734 -0.8930303 -1.2337269 0.12261354 0.5595968 0.17205913 0.5863306 -0.34649906 -0.20989774 0.19103672 0.08242026 -0.23012753 -0.34749112 0.18337876 -0.34134158 0.57697856 -0.6261296 0.028600605 0.062215917 -0.39987496 -0.51158565 -1.1095493 -0.7463549 -0.43649006 0.65742594 0.6828832 -0.19114535 -0.05014471 0.055019423 1.1369358 -0.2203987 0.61482257 -0.27521506 0.80963814 0.47360292 -0.010493118 -0.45532915 0.31053153 -0.5806143 -0.46740875 -0.35892463 -0.21389128 1.1711227 -0.37469944 0.35911906 0.28480223 0.21344276 -0.76025844 3.1752343 -0.83391315 -0.47992253 -0.23336588 -1.0181645 -0.7370456 0.9280964 0.33053407 -0.9334019 0.49312752 -0.47338635 -0.26450068 -0.71133095 -0.20053501 -0.1216518 -0.03543215 0.20311654 1.5262928 -0.507594 0.4797076 0.6175098 -0.066980205 0.49116585 0.49910426 1.4281268 1.1683251 1.3514677 -0.07223934 0.06119933 -0.11457458 -0.6703464 1.6203002 -0.53629124 0.5826734 -0.11401447 -0.4233055 -1.069341 -0.079077005 -0.9687528 -0.1979323 -0.05209921 -0.34830725 0.02358427 -0.19239144 -0.5404615 0.037052292 0.29609677 0.06299789 0.36422512 -0.09843066 1.6481254 0.22866927 -0.08867769 -0.32084182 0.036454905 -0.780624 0.2989483 0.01467309 -0.59105766 0.33183202 1.505083 -1.0094135 
0.08196771 0.13407736 0.2717999 -0.37477902 -0.473165 -0.15622719 -0.29231605 -0.10317181 -0.5361676 0.69815505 -0.5362431 -0.88105655 -0.0179285 0.98883194 -0.14351627 -0.025335088 -0.09189586 1.2235757 0.03138211 0.09100548 -0.22667168 0.21216245 -0.53315204 1.6321307 -0.038815226 0.54075885 0.63885504 -0.16607401 0.74102324 -0.2912908 -0.11971979 0.69722736 -0.35145867 -0.13717975 0.39961666 -0.48985317 0.62919515 0.015057516 0.6268228 0.18889332 -0.08562505 -0.06728654 0.10477266 0.4347975 -0.01253919 0.91958755 0.26451853 -0.3067407 -0.3147854 0.2466241 -0.027940003 -0.17187992 0.2170508 -0.055934325 -0.22640055 0.22877617 -0.39580244 -0.08319071 -0.2718414 0.14427194 -0.43819514 0.37915835 0.009369556 -0.3362911 0.54792565 1.3916551 0.15326363 0.7515604 0.2724527 0.07416719 -0.46296158 0.3737412 -0.057244796 0.96446383 0.1308657 -0.2787916 -0.45898494 0.223748 -0.18532664 0.37663624 0.08495825 0.34959877 0.24820398 0.19036992 0.44299808 -0.3656043 -0.3495687 1.3916421 -0.15004508 0.5499146 -0.057614777 0.33077028 -0.21299906 0.282164 -0.48907605 0.16138262 -0.7499614 0.6105865 -0.10103322 -0.08294859 -0.20135677 -0.32597917 0.41000167 0.10336088 0.49270743 0.46935025 0.15400465 0.22384344 -0.47052556 -0.011261816 -0.22449659 -0.4892796 0.45656756 -0.17836854 0.09816872 -0.23577963 0.08436667 -0.40193158 -0.24093254 -0.11147145 0.43008852 -0.092258066 -0.2212216 -0.025690245 -0.8298853 -0.3713442 0.7345397 -0.3908947 -0.3145947 -0.22062583 0.20043583 0.064940155 -0.3485227 0.040143143 -0.043737967 0.3912273 -0.54465663 -0.4881145 0.3687635 1.1883671 -0.4656444 -0.36166784 0.48030916 -0.3533178 -0.1808577 0.17707177 -0.06885561 0.21349722 -0.19973677 -0.33245987 -0.377124 -1.21477 0.5876781 -0.10149971 -0.20061822 -0.8586567 0.17985098 -0.31876007 -0.31502065 0.27265027 -0.6410628 -0.15413609 -0.57497245 -0.48401234 -0.5266974 -0.33649972 1.1997881 -0.5972578 0.045006312 1.2651197 0.54029405 1.9421322 -0.61739576 0.0021466224 -0.17460535 -0.40520683 2.8846 -0.56198466 -0.15469046 0.40552703 0.41698408 0.84914696 0.30569154 -0.5299245 0.6042092 -0.33606124 -0.04338048 -1.0255582 0.74348986 -0.2062409 0.08482104 -0.06597462 0.4564063 0.32543367 1.3282005 -0.66831857 -0.44368967 -0.17152037 0.18718746 0.13031362 
0.27433226 0.62512356 -0.19662155 -0.29854032 -0.02024256 -0.2976022 -0.43478304 0.41869104 -0.32402062 0.6472475 -0.1974391 0.13908114 -0.5020867 1.2083834 -0.6191844 -0.12322424 -0.04107826 -0.122445695 0.609627 -0.14992638 -0.7799427 -0.9823442 -0.46876806 -0.8798704 -0.18517786 -0.28460363 0.43913278 -0.08134565 -0.20087136 0.43872756 -0.2594565 -1.4149554 -0.05218445 0.02518431 1.9396265 -0.50716364 -0.3408394 -0.27555645 0.49524182 0.34533605 0.5248859 0.00010962905 0.19882508 -0.50195146 -0.439199 1.748925 -0.18823013 -0.42124778 -0.36094987 -0.09648725 -0.6718126 0.15741308 -0.21681654 0.26783916 0.9431183 0.43932775 -0.30573836 -1.1972662 -0.03108277 0.44112808 0.61634976 -0.41221017 -0.59609354 -0.042643916 0.48747444 1.0189536 0.03693882 0.33489802 -0.24898326 -0.4672402 -0.5184612 0.1935847 0.12204984 0.917776 -0.1341204 0.073867306 0.04573085 -0.13682401 -0.4829506 1.52481 0.8117608 0.5742133 0.3591336 0.6932842 -0.27434245 0.38211453 -1.0866649 0.28687304 0.23693165 -0.35835192 0.29345843 -0.05548196 -0.5369453 -1.1854414 0.28269053 -0.5526048 0.6040982 0.14875859 -0.45293275 -0.09559946 -0.4279187 0.5265288 0.40632072 -0.012834412 -0.91729414 0.60621053 0.15208833 0.5983463 -0.29001167 -0.5366162 0.09822245 -0.04118461 -0.11527797 1.1890081 0.5546381 -0.5268375 0.1074859 -0.4757986 -0.30647466 0.6499894 0.0038694437 -1.1065415 -0.33138835 -0.085335486 1.9555479 -0.82184803 -0.27003148 0.2540061 -0.79092485 -0.04256707 -0.27301618 0.25238228 -0.2928402 0.33647045 0.28309366 -0.017835345 -0.9630368 -0.15608755 -0.23503694 -0.45072752 0.5411817 0.405603 0.45750293 0.0742448 -0.11957569 0.6972557 -0.009788469 -0.1794871 -0.25728455 -0.45389676 -0.07128504 -0.3353164 -0.50018317 0.7648783 0.13090983 0.3518177 1.3403473 -0.9803955 -0.30901816 0.26073858 -0.21318243 0.82005435 -0.30070624 0.015830414 -0.54163617 0.40724576 -1.080164 0.7282506 -0.50508976 1.0996987 1.6164919 0.33524677 -0.6866226 0.14316119 1.1136615 0.1778336 -0.2908888 -0.31320837 -0.089693725 -0.3133544 -0.2984654 0.26601 0.3122646 0.25222012 1.0423434 -0.17048736 -0.4719366 0.48120755 0.5413233 0.03207805 0.718364 -0.254405 -0.46947828 0.4643939 0.47043425 -0.4970705 -0.065377764 0.21543987 -0.729291 1.6732417 
-0.07519828 0.25280893 -0.57299334 -0.15401298 0.14839911 0.40820256 0.42401755 0.65632725 -1.334818 -0.16315655 -0.3490991 -0.72243583 0.9364413 0.2826519 -0.23867944 0.07683281 0.29712594 0.25203887 -0.4695401 -0.27994046 0.065421626 -1.0680082 0.023855167 0.345523 -0.9637891 -0.30321804 0.92613477 -0.59564143 0.12249787 0.07514984 -0.044644702 0.55940336 0.48832673 1.3289315 0.08165931 -0.033523276 -0.32329124 0.39929524 0.500495 -0.5113917 0.3094044 0.26798195 0.2080003 -0.37961674 1.0249918 -0.8099792 -0.40958104 -0.011282473 -0.3470372 -0.80872566 0.72033525 0.6530105 0.51236993 -0.5616749 -0.5530493 0.58121943 -0.054900944 -0.8420143 -0.4261625 -0.33178672 0.052053653 0.29086548 0.11596273 0.49532917 -0.53679454 -0.6948923 -0.25402102 -0.46769455 -0.42535323 -0.3970755 -0.3994642 -0.11160379 0.22892302 0.20193188 -0.19790523 0.16653776 0.53017354 0.39991936 0.57569367 -0.6493529 -0.27851 -0.31298637 0.011661968 -0.35642007 -0.66981876 0.33323297 -0.28621444 -0.12623982 -0.03096487 -0.25519285 0.21066791 0.14166772 0.64369583 -0.06720146 -0.098666094 0.73387754 -0.5358921 -0.49135676 -0.104114465 -0.3690941 0.2558251 -0.3422602 -0.9647333 -0.19491899 -0.36905465 -0.44613543 -0.3269193 0.8601769 0.5244026 -0.54588 0.12577036 -0.21449883 0.8641725 -0.26329383 -0.31722525 0.08596928 -0.59939975 -0.046233118 0.5216049 0.33143663 -0.20447977 1.4144168 -0.38055268 0.96022177 -0.05420716 0.12055286 -0.47904322 -0.5112133 0.030314159 -0.29797083 0.28703007 -0.59731704 0.15919489 0.04946043 1.4387641 0.10225445 -0.056144398 -0.37075028 -1.4382931 -0.83047354 0.055986423 -0.49507853 0.45209277 -0.4670909 -0.6977635 0.5885468 -0.406911 0.014458443 0.7372281 0.12283543 0.5651214 -0.852082 -0.32424638 0.41801587 -0.4323186 0.89212877 0.09538881 0.3757722 -0.3779777 0.18022513 -0.31951454 1.2778056 0.9052215 1.9245825 -0.5970622 0.022403847 1.6661421 0.08784786 -0.010279916 1.9969935 0.49836558 -0.9517535 -0.4700501 -0.26218727 -0.7478234 1.1000103 1.0963237 -0.12921704 -0.9950377 0.40839392 -0.4709343 0.6072315 -0.44411668 0.0888799 -0.77570784 -0.62337995 0.11013988 1.1439598 -0.432422 -0.1854353 0.53206146 -0.25262523 -0.11356853 0.40806663 -0.22329767 0.18513127 0.2447127 -0.69014794 -0.11216733 -0.37078393 
-0.38232192 0.77525026 -0.065977916 -0.517077 0.99267757 0.32039443 0.56808263 0.45960706 0.42679048 0.5363212 -0.021785531 -0.40655163 0.8366948 1.7076708 0.56645906 0.3436189 0.41743064 -0.37103185 0.21700102 -0.8993927 0.10268485 0.06517133 0.23325802 -0.65200263 -0.45366332 0.072578244 0.5760637 -0.16355217 0.16521034 -0.362419 0.51120865 -0.82662785 0.25180584 0.054859582 1.631521 -0.0683052 0.88782555 0.16857797 1.6633672 -0.3336081 -0.08882421 1.1730034 0.03029583 -0.2835046 -0.8272957 0.28990364 -0.08598125 0.15044007 0.68953764 -0.5468893 0.034153357 -0.75614274 -0.1048107 0.2552142 -1.1960127 0.8512942 -0.36059898 -0.07194697 -0.08635577 0.6014676 1.1985265 0.45799497 -0.4642764 0.36261967 1.0412483 0.67364794 0.025678134 -0.71070117 -0.8009762 0.39008328 0.07593169 -0.17568453 -0.40429148 0.13284406 -0.3639636 -0.56473863 0.20766152 -0.19445482 -0.33701754 0.7688453 -0.29557142 -0.21492796 -0.10435866 -0.6572886 0.9117215 0.24588609 -0.009656243 0.76790816 0.22518082 -0.76592785 0.8362987 -0.18096077 -0.297095 -0.39377975 -0.24405135 0.9426767 1.7197037 0.28818405 0.4401987 -0.17209181 -0.9650554 0.050913386 -0.36625227 -0.6075578 0.33573616 0.032738548 0.41401595 0.6698896 0.4062183 0.35597014 0.37006325 -0.86518383 0.7621335 0.57241017 -0.0041366196 -1.0325925 -0.388261 -0.26777193 -0.13279302 1.9445449 0.0940697 -0.052107457 -0.6378333 -0.12774462 0.01108303 -0.078795664 -1.2382227 0.1744469 0.5834321 0.25183338 -0.36978194 -0.7827638 -0.14929566 -0.8175834 -0.110058635 0.14756867 0.30475405 -0.21117778 0.38085893 0.22325268 0.07208476 0.24012621 1.0385683 0.6963217 1.4302186 0.77385515 -0.3825835 -0.5162456 0.07365921 0.4021189 0.12441819 -0.8608859 -0.57833403 0.90142834 0.42317408 1.3907844 0.62487465 -0.37597236 0.34378052 0.52869725 1.2763284 0.9195156 0.014205029 0.6615911 0.34356222 0.8134465 0.22043414 -0.06970723 -0.6176316 0.5514228 0.26471493 -0.40844995 0.5578904 -0.43997055 -1.0045457 0.0627438 -0.4185755 -1.0705608 -1.0440454 -0.48805183 -0.14389251 -0.21056576 0.6600902 -0.015437427 0.38417685 0.51517725 -0.8124702 0.7542705 0.54552025 -0.0739087 -0.22085759 0.6425696 -0.19635147 0.2474224 -0.34824654 -0.21402311 -0.066830456 0.034015995 -0.6316214 -0.79992193 
0.44780737 0.34642583 -0.4114051 0.05124446 -0.54117835 -0.5675203 1.1464036 -0.15874745 -0.12061703 0.022851389 0.5889476 0.005838166 -0.54499257 -0.35476544 1.0295824 -0.54337287 -0.009352338 -0.64999217 -0.42328775 0.2310357 -0.27864575 0.82018363 -0.48455024 -0.29131582 0.28200236 0.8998963 0.60232455 -0.43749085 -0.20447972 -0.6911742 -0.59066975 0.28762487 -0.15963167 -0.8788154 -0.40753245 -0.13960849 0.42554235 0.038651258 -0.16521713 0.28492585 -0.80218154 0.2025635 -0.5498717 -0.4433719 0.82251924 -0.6974775 -0.042749707 0.38869673 -0.043226458 -0.56308347 0.710918 0.22775571 0.52265996 -0.063537374 -0.019804051 -0.03914172 -0.31630108 0.4158656 -0.13063268 -0.41921264 -0.5110564 0.21515658 -1.6271662 0.004675199 0.021656316 -0.35634738 0.4584475 -0.5071562 -0.021783184 0.5999758 0.38568348 -0.827191 0.20242138 0.84666586 0.19192828 0.52347004 0.15896928 -0.32237545 -0.24927613 1.3897822 -0.4052752 -0.08763172 0.5700234 1.0487946 -0.03572149 0.09322697 0.15659209 0.7215211 -0.57199365 1.1464297 -0.54211557 0.55099636 1.392939 -0.66230357 -0.3180222 0.17869169 -0.95361835 0.11167483 -0.4509663 -0.81437767 -0.332506 0.41302395 -0.7170984 -0.07677256 -0.71741104 -0.56375855 -0.4178889 0.104452066 -0.8046663 -0.025240706 0.32478458 -0.23478378 -0.12417997 1.8130589 -0.1434871 -0.2789441 0.7891895 0.17583154 -0.49069783 0.13848205 -0.33659235 -0.1841288 -0.026444364 -0.988221 -0.6479363 -0.16908325 -0.059178196 0.07521302 0.09460387 -0.052947428 -0.82557285 -0.16473602 -0.5320563 0.12022983 0.14137192 -0.26439545 -0.3161945 -0.7905712 0.53116965 -0.48625216 -0.84232026 -0.46097028 0.21039128 -0.85398245 0.6320089 0.008533217 -0.8341538 -0.9887709 0.5061266 -0.5073772 -0.37694678 0.32235163 0.6170253 -0.86877286 -0.019620955 0.22910075 -0.40350804 -0.089475654 0.368142 0.43757385 0.5156216 0.37398186 0.28087297 0.09615807 -0.24174683 -0.4926298 0.2376449 0.036790054 -1.2537743 0.2842488 0.20818834 -0.38504082 1.1257008 -0.0045925984 -0.09472563 0.37200898 0.75029105 -0.58529466 -0.112756014 0.2643273 -0.6298316 0.21120279 -0.46784148 0.45384154 1.4985822 -0.3007783 0.19682649 0.16537516 -0.30442044 0.10748203 -0.6424107 0.14115863 -0.13049567 0.8174001 0.3638793 0.05584257 0.0643686 0.5974855 0.2059395 1.3867655 
-0.27497917 0.11864261 -0.22011888 -0.2541804 0.15728289 0.042048763 0.9493811 -0.09240311 0.90294117 -1.0534211 1.2152377 0.7037325 0.8707008 0.111779906 -0.3518065 0.67148316 -0.072759956 -0.3200944 0.6077083 -0.13581201 0.14124492 1.5402693 -0.83396435 0.6073314 0.120370716 0.18755649 -0.33174065 0.5546465 -0.33945498 0.37165523 -0.04822068 0.25029713 -0.013057853 0.28841603 -0.24065003 0.6698816 -0.099433444 0.23636729 0.17799456 -1.1537482 -0.40239337 0.8719502 0.09932998 -0.3877676 1.2007952 1.4324251 -0.34940043 0.5489408 0.39172155 0.26933846 0.4675513 -0.15206854 -0.2408284 0.007687072 -0.28127927 0.18710794 -0.18984538 0.15696755 -0.8358174 -0.22865754 0.10034886 0.44425592 -0.0349914 0.007077927 -0.51072985 0.28040084 0.7730126 0.032643624 0.5524684 -0.5245825 0.036072392 -0.33650476 -0.3703608 -0.5862279 -0.82419986 0.11454422 -0.32431552 0.17715433 0.08744036 1.1119351 0.10835146 0.08613712 0.47903058 -0.80699986 0.31025448 -0.052330937 -0.18496919 -0.16598372 -0.35855716 0.15875404 0.5920554 0.34547204 1.3629956 0.3879226 0.81264335 0.06221582 0.47106928 -0.57092625 -0.094074346 0.8252299 0.25225583 0.09592286 -0.44979674 0.3490887 -0.25293466 0.012562177 0.0051894556 1.4420978 -0.07475526 0.029757349 0.14410992 -0.45674008 0.0141653875 -0.16801639 0.3323827 -0.57577795 -0.7296491 -0.35083783 -0.570636 -0.8873759 -0.20343459 -0.07454504 -0.6559597 0.42680705 0.41716382 -0.17605512 -0.58143795 -0.06755127 -0.50882816 -0.12159698 0.14768317 -0.535697 -0.028213417 -0.2320579 -0.61128783 -0.33378375 0.20743005 -0.68249035 0.6024717 -0.50939053 -0.16896309 0.018609785 -1.1817977 -0.3966933 0.79786783 0.8825595 -0.23653941 -0.018078636 0.20915382 0.35059062 0.7467488 -0.20957524 -0.15909788 0.32492694 0.07393084 -0.16210878 -0.3084258 -0.046144105 0.44697797 0.18768562 -0.4446501 1.1868458 0.64312357 -0.120860316 0.13872007 -0.14361134 0.14299779 -0.19981635 1.47161 0.7191353 0.8701463 0.8051966 -0.58190703 0.111865565 0.8264512 -0.04161142 0.10042827 -0.12247372 0.0032188175 -0.081270404 -0.21972993 -0.15562353 -0.6652736 0.039025933 0.22881262 -0.5592027 0.10098969 0.7968698 0.20056744 -0.37053084 0.04109 0.26414827 -0.08014491 0.6150299 0.50454175 0.42163983 -0.40921974 0.32418603 0.568802 0.9388395 
1.1119074 0.076362446 -0.23888086 -0.20442908 -0.045355402 -0.118615195 -0.5168402 -0.67794496 0.17840421 -0.65170234 0.721153 0.35806733 -0.5331088 -0.64278 -0.41362435 0.008013757 -0.55791116 1.0177889 -0.77325785 -0.8456072 0.8073009 -0.7308924 0.93539476 -0.4065112 -0.2599718 1.0078801 0.997429 -0.02080252 0.064268254 -0.5410367 -0.82147074 0.16606611 -0.32947153 0.50034 -0.8804323 -0.8253451 -0.3194904 1.1769603 -0.892923 -0.115992956 0.43599632 0.03925952 -0.27941972 0.22264417 -0.53513443 0.76260763 1.0322045 -0.071287386 0.073674485 -0.042542227 -0.2238142 0.3211542 -0.8969246 -0.58244765 0.60545385 -0.6168666 -0.44640982 -0.19630711 0.31370753 -0.25500342 0.4577829 1.5311396 0.68470746 0.57083255 -0.26310563 0.4358348 0.355919 0.13134591 0.48998633 -0.7655162 -0.5873992 -0.91107756 0.07057322 0.19330344 0.56030035 0.1255752 -0.18299218 0.15014724 -0.23645832 -0.45270962 0.06403088 -0.19129875 0.57065713 0.6036308 0.56223655 0.53965425 0.060548026 0.12127939 -0.88305527 0.9533442 -0.006242578 -0.14916895 -0.0066136243 -0.16568199 -0.40081224 0.6428209 -0.11375817 0.20871086 0.5902681 -0.30874497 -0.056761615 0.22376199 1.0371281 0.13122936 -0.03607487 1.4005895 0.20003855 0.53201276 0.06250629 0.073728666 0.049220387 -0.023803705 0.14159973 -0.28150907 0.21934313 -0.92682666 -0.07128602 0.08449748 0.12398323 -0.136522 -0.093272656 -0.19579478 -0.1187312 0.80212915 0.73891723 0.12296624 -0.69365335 0.09961608 -0.71922505 -0.026746482 0.09759597 -0.21408114 0.6553448 0.23944744 -0.5098763 -0.44089752 0.42563167 -0.27444488 0.59243405 0.19103824 0.76022774 -0.30142388 1.4068259 0.5809473 0.050171666 -0.2411922 -0.98267746 -0.21347208 -0.18311565 -0.009686859 -1.2279391 -0.08284387 -0.0041946643 0.2775215 0.67793447 -0.211558 -1.267368 -0.9079295 -0.33985165 0.2432086 1.3015378 0.79278445 0.12136709 0.8030096 0.32087815 -0.015147114 0.81158626 0.12019766 0.11507376 -0.4189239 0.2114939 -0.6690124 0.3234503 0.039135884 1.3606795 0.87665623 0.35022905 -0.5747735 -0.74424684 -0.55108047 0.38633567 -1.1732572 0.48094314 0.15654065 0.88587046 0.45540804 -0.27545774 0.56286037 0.4619834 0.20887378 -0.8570646 0.4347413 0.11405642 -0.6305485 0.21778885 -0.21817441 0.23284759 -0.35012716 1.0499512 0.8624691 
0.27026832 0.3363635 -0.41875932 0.1259987 0.26365378 0.2450719 -0.023293464 -0.42687425 -0.5111296 -0.5212786 0.5040602 0.58298934 -0.06525692 -0.14820248 0.7356321 -0.85100764 0.43902472 0.96219146 -0.073387645 -0.05703658 0.109419435 -0.037895586 -0.47446373 0.81756413 -0.21953104 2.1259286 0.32440594 -0.653221 0.2293869 -0.039268587 -0.7405444 0.437488 1.2111382 -0.3034012 -0.28106576 -0.44003314 -0.20110859 -0.10328058 -0.49357498 0.94650394 -0.13870016 0.3114704 0.59280235 -0.093177035 0.19305308 0.23606287 -0.22015627 1.5561504 -0.32607457 0.13688019 -0.48570237 0.45891264 0.42630315 -0.1338836 -0.17750525 1.0887915 0.18387464 -0.21796098 -0.1870885 -0.5275193 -0.34093684 1.0641978 0.9414747 0.057739124 0.9170564 0.82581216 -0.23079754 -0.32159874 -0.36196014 0.09746751 -0.72370034 0.12874068 -1.0282297 -1.3359306 -0.60372025 0.35616723 -0.3194107 0.43752462 0.089918785 0.40790296 -0.3260378 -0.12902844 -0.06382639 0.1473964 -0.9017479 -0.3683466 -0.14336407 -0.4471815 -0.004833531 -0.8986051 0.20064268 0.9720075 -0.5925091 -0.55900824 -0.44069496 -0.74771434 -0.28797287 0.19952434 -0.29582322 -0.0049187574 0.48854005 -0.06948343 1.8665462 -0.41582656 -0.042949826 0.79271156 0.15182965 0.8275567 0.39271238 -0.5743581 0.051936153 0.12206875 0.48571345 -0.14939065 0.3192339 0.07846779 0.1745416 -0.2772077 -0.6323809 -0.43101984 0.050203428 0.050960533 -0.355986 0.61599106 0.4655475 0.25107992 -0.20459719 0.103627704 -0.22186781 0.20061222 0.2102833 -0.75139093 1.0524977 -0.16124111 0.26798618 0.57797277 0.36948675 -0.53607523 -0.94039387 -0.0669076 -0.3977625 -0.3682458 0.015076809 0.1539363 0.47197068 0.5440542 -0.40602842 -0.00876798 -0.01465075 0.40630257 0.43448576 0.38624048 0.14214902 1.2174573 -0.19120967 0.060242753 0.08920366 0.69661325 0.51573735 0.4102342 -0.40981594 0.37628806 -0.35096547 -1.2518847 1.221442 0.10642083 -0.44713655 0.26947793 0.1851218 -0.09600494 -0.49573693 -0.08449307 0.4942654 -0.18377036 1.2414593 -0.23436406 1.3356743 -0.30556646 -0.6798511 0.3885739 0.015654877 -0.2321786 -1.2908138 0.25312406 0.13047016 0.12329161 0.45774406 1.241051 1.0662774 0.5875246 -0.6889361 0.43840834 -0.5746799 0.23726662 -0.35355943 -0.3671647 -0.113302335 0.48728898 0.9127584 0.70181215 
-0.6471526 1.512938 -0.24995159 -0.40207964 -0.06204946 -0.010983936 0.17832354 -0.14128587 1.04235 0.4115791 0.14201738 -0.08417783 0.2676631 0.49873906 -0.3121292 -0.57154393 0.012408471 -0.12922686 -0.20146808 -0.09292304 -0.17742251 1.0795289 -0.02077097 -0.06797569 -0.6960118 0.12033379 -0.040061213 -0.1633923 0.14298315 0.3238351 0.1400284 0.1401686 0.7085037 -0.13834146 -0.4446207 0.701943 -0.56661415 0.31232825 0.6136289 -0.34063458 -0.3436784 -0.16729422 -0.14088893 0.4783336 -0.847771 1.3081019 1.1348823 -0.582295 0.27948952 -0.2722708 0.31391284 -0.20047855 -0.32482228 0.50355786 0.15966931 -0.5600064 -0.506381 0.03617267 0.005587204 -0.022136977 -0.32102543 1.3900875 -0.07810136 -0.5725446 0.21894021 -0.04680834 -0.6909466 -0.10153615 -0.04585524 -0.20930009 0.34739178 -0.7196089 -0.0610588 -0.33050188 -0.5262363 0.025361186 -0.1992775 0.29309383 0.5676965 0.21417935 0.06180281 0.2681499 0.5378627 0.7509866 0.18895045 -0.24323718 -0.043949775 0.39980507 -0.67297435 1.2235355 0.1826402 -0.24148187 -0.84909403 0.38941813 0.06503441 -0.30160332 -0.003965595 -0.25272533 -0.31509796 -0.04743198 0.48037404 0.028356768 0.7679698 0.61585504 0.08290714 0.6716335 -0.2252125 -0.057776913 0.1946863 0.9300708 -0.51565224 -0.47201008 -0.51173425 0.82976955 0.1046041 -0.10847683 0.08079384 -0.6661811 -0.48095787 0.76222694 -0.16933204 0.73867124 -0.3205632 0.050649513 -0.23487441 0.2190624 -0.09723535 0.5944161 -0.86528575 -0.5438465 0.10497718 0.40878695 0.79347473 0.2701929 -0.36388645 -0.3054028 -0.16293783 0.59978044 0.024281621 -0.35751724 -0.76859874 -0.14673813 1.6539811 -0.33654553 -0.08239425 0.86878896 0.3898544 -0.020679267 -0.06914475 -0.38993835 0.24888064 -0.21045308 -0.2664222 -0.36215517 0.03909716 -1.1343737 -0.2293241 0.079621874 0.47304004 -0.050123446 0.35780278 1.8638794 0.1003394 -0.2933368 0.6814253 -0.8378689 0.084185444 0.20760319 -0.53876704 0.43424058 0.059209965 0.35024637 1.6639326 -0.2868347 0.4891169 -0.97384214 -0.3419957 -0.5878001 -1.1959307 -0.4071353 0.19013011 0.49593645 0.74717486 0.031751495 0.18769975 0.6597335 0.26578474 0.028547216 0.84374535 0.6267357 0.5315698 -0.039586734 0.07189628 0.11527861 0.19321397 0.47121948 -0.070940234 -0.014283762 0.4549059 0.26980853 
-0.021331 -0.3486741 0.2906586 -0.0013420982 0.12392262 -0.037904903 0.6364836 0.39178258 0.2692568 -0.15419146 -0.49760512 -0.06126701 0.50563836 -0.54201347 0.28919286 0.3301663 -0.33159417 0.1768755 0.38155127 -0.12488433 -0.26725137 -0.102064654 -0.12913586 0.87410593 -0.037065916 -0.54942405 -0.118290916 -0.2941047 0.0034155638 0.33574197 -0.4639328 0.545987 -0.49291232 0.4701198 0.7830035 -0.2904069 0.12689559 0.13494028 -0.8379785 -0.1485159 -0.16538598 0.32546324 -0.039561395 -0.2898649 0.62617606 -0.97488034 0.77220243 0.61169094 0.68667036 -0.008865811 0.7720751 -0.49578202 0.9459995 0.012855222 -0.15005039 -0.073626064 -0.6294975 -0.44889784 0.052814137 -0.099815026 1.1359903 -0.2989207 1.1244062 0.51819175 0.65684247 0.6370087 -0.008249064 0.25245473 0.63511777 0.5842227 0.7453028 1.0961024 -0.13631533 0.16250123 -0.27147192 0.051866587 -0.29454678 -0.05943865 -0.21580403 -0.51969796 -0.16181874 -0.38994524 -0.30771795 0.1405622 0.26831776 -0.0069716116 0.5912139 0.6726269 -0.49439126 0.47739002 0.87413275 -0.70072544 0.56237614 -0.38702172 -0.4331211 -0.05135807 0.41914156 0.040988956 0.16235058 -0.14574155 -0.446619 0.19885588 -0.30320162 -0.39182967 -0.30323666 -0.03959085 0.2072258 0.17592773 0.5480571 -0.046935868 -0.94217634 -0.2033051 -0.135527 -0.9843986 -0.29172456 0.8220913 -0.29689863 0.11874194 0.30233735 0.40244338 -0.22190548 -0.045823555 0.21189076 -0.7472777 -1.0226612 -0.5770294 -0.67932475 0.5518416 0.3824104 0.28801498 -0.41625398 -0.23107097 -0.25476333 -0.5285577 -0.3309315 0.3650376 -0.2285517 -0.1561387 -0.3154977 -0.34483686 -0.5662265 -0.5157266 0.07428025 0.4456205 -0.92634284 0.6066698 -0.15865767 0.11770037 -0.39271906 0.26649892 0.9741775 0.028218288 -0.04097129 -0.73656994 -0.17265983 -0.3254836 0.6907206 -0.1218696 -0.20239328 -0.5781385 0.94531864 0.14689569 -0.62666094 0.22765514 0.32811567 0.18095459 -0.46683675 -0.085755736 0.74116755 0.63606733 -0.21112494 0.5757474 0.025093297 0.25480655 0.88561463 0.4138671 0.078128956 -0.24992868 0.63473094 0.23629123 0.34005865 -0.006695153 -0.58580524 0.22887382 0.73374736 -0.1434784 0.37542495 0.4289717 0.0061132605 -0.05632998 -0.3023124 0.37685078 -0.5440393 0.30054814 0.46942472 0.045844786 -0.39847672 -0.26168987 0.34892362 0.37284824 
0.6243556 -0.19486693 0.2788342 0.48102844 0.6376422 -1.0172018 0.09792553 0.24187343 0.05539745 -0.22724982 0.18308853 0.71347815 0.13734464 0.6638804 0.56966245 -0.16024801 0.34531775 0.15213327 0.1727354 -0.4267535 -0.014848824 0.16344419 0.7861321 1.192097 0.1494382 0.34889245 0.1556149 0.23719916 -0.109514005 -0.010564261 -0.44996074 -0.41634992 0.020922368 0.9952503 -0.5336544 0.058270015 -0.13908263 0.5149577 0.5234425 0.5945628 0.048521347 -1.1004108 -0.29505587 0.1259452 0.012210301 -0.77733207 0.84382915 0.16006754 -0.35205683 0.27166077 1.1185617 0.07232273 -0.098000295 -0.6201804 0.8345698 0.059654616 -1.110012 0.6514734 -1.6308825 0.060793612 0.5687608 0.752734 -1.117401 -0.5244715 0.03897299 -0.47286946 -0.32755342 0.579122 0.19899261 0.039113652 -0.030771172 0.6054365 0.14835802 -0.043118335 -0.3186978 0.2904534 0.070702426 -0.5889316 0.02463884 1.172538 0.42013285 -0.4451349 0.14508848 -0.18202667 -0.24315293 -0.41745812 -0.094720304 0.13452962 -0.42828327 0.9180591 1.3225859 -0.55221033 0.7002544 0.40943438 -0.08865984 1.3895121 1.2247967 -0.12355332 -0.30789495 -1.0349548 0.32589066 -0.4334409 0.6385893 0.21157771 -0.5595466 1.5562372 0.1760628 0.06471934 0.28732863 -0.2602629 -0.013640696 -0.44607323 -0.56273806 0.037896726 -0.09530176 1.4588083 0.36492854 0.054699894 -0.19916049 0.054387413 -0.19151959 0.8586476 -0.09886172 0.57944155 -0.61838806 -0.07098464 -0.29129735 -0.3845457 -0.63489884 -0.10425982 0.17557591 -0.29064035 -0.26877013 -0.26377204 -0.76777697 0.53162473 -0.26305234 -0.37264913 -0.51167065 0.62007254 -0.3642767 0.58877814 -0.28254923 0.08925183 -0.7343291 0.46108717 0.5467748 -0.2518731 0.13187182 0.04123087 0.10878136 -0.5406382 0.3514666 -0.3705464 -0.26341358 0.0016582354 -0.7663559 0.7022759 0.5903878 -0.28169557 0.97736186 0.18577553 -0.301553 1.1089259 0.1870252 -0.20815115 -0.5185977 0.10518542 0.021681992 -0.59151983 0.5172145 0.86404073 -1.1300081 0.14912921 0.8537874 -0.28653175 -0.23784834 0.28538454 -0.27742785 -0.5235244 0.22779398 0.75373566 -0.24498357 -0.019807436 0.6969267 0.6477915 -0.32675725 -0.58199954 -0.07177481 0.19546634 -0.12326246 -1.0333877 -0.275189 0.91952354 0.27424026 0.38643196 -0.54610455 -0.33187282 0.5411584 -0.27786952 
-0.15338546 -0.5675241 -0.31580922 -0.34138855 0.12305419 -0.39570904 0.47162473 -0.23598418 -0.7606056 -0.28395554 0.3475265 -0.5829067 -0.42775247 -1.1480078 -0.09868434 0.44274026 -0.24746567 0.5254396 -0.6201755 0.4831663 -0.0639308 0.65349215 -0.0908094 -0.16425322 0.21074598 -0.5186505 1.7456839 -0.25446323 0.07219515 0.20084193 0.2965162 1.146483 0.08882863 -0.2533381 0.4641006 0.0827383 0.12765893 0.12974094 -0.21306951 1.3529391 -0.13719332 0.51703197 -0.7938029 -0.7492811 -0.44115388 -0.3649754 0.32219976 0.4400377 -0.81935155 0.23622134 0.74190027 -0.96420664 0.2613835 0.13342449 0.43164387 0.10028188 -0.23919481 -0.33629736 -0.6462893 0.07464076 -0.7448883 -0.09144733 0.48242 0.2834579 -0.35870868 -0.46893522 -0.5540391 -0.23402245 -0.19393177 0.1479861 -0.26759472 0.8350307 0.024465155 -0.5714319 0.32395914 0.1908218 -0.094678864 0.6348545 -1.1230658 -0.11263841 0.17946765 -0.15911344 0.25745744 0.47753254 -0.16884394 -0.24245954 -0.51142347 -0.080929734 -0.33402127 -0.067659006 -0.054251164 0.29789025 -0.48991925 0.4064409 -0.13340445 0.45387343 1.1382558 -0.3556274 0.12888955 0.2356682 -0.002951899 -0.036670584 0.64645034 -0.81281203 -0.3951305 0.0075754626 0.00986112 0.90802634 0.8609579 -0.72930706 -0.22955526 0.5379107 -0.051799137 0.29230434 -0.39350542 0.3540263 0.20074785 -0.21302114 -0.37243754 0.3147439 -0.11601731 0.12975003 0.0668471 1.0618166 0.6333297 -0.25453 -0.6269445 -0.04336325 1.4413866 0.077765405 -0.031904783 0.32762605 0.5234263 0.023495734 0.3644534 -0.83359826 0.44532493 0.1578894 0.07790902 -1.490099 -0.89146405 -0.06996896 0.10935008 1.3341806 0.4776452 -0.052272823 -0.073834576 0.6792279 0.1438464 0.48876587 0.82978743 0.3919417 -0.10180753 -0.0510415 0.066309966 -0.6065612 0.041132692 0.054211263 -0.37734273 -0.44391236 0.70212543 0.13661377 -0.1384725 -0.3746708 0.21115123 -0.003763757 -0.05248517 0.044977106 -0.14444254 0.27995297 0.65769786 0.18401778 -0.43209976 0.42126173 0.22543566 0.17251341 -0.20324521 0.085477315 -0.7721969 0.19245179 -0.5828108 0.63210213 0.62271225 0.4742698 -0.26327258 -0.21439424 -0.46544117 0.55766344 0.4403567 0.36851558 -0.55307335 0.004999414 -0.2967628 0.8359623 -0.23059528 0.90010196 -0.5214639 0.88451654 0.80618733 0.36844087 
-0.36998498 0.4207061 -0.05148715 0.43728048 -0.44155183 0.39361745 0.55324423 0.03302525 -0.6918541 0.23926392 0.13810185 0.4629115 0.038997248 0.42580786 -0.26529038 -0.4961379 0.49534947 0.28210115 0.21411403 -0.045047797 -0.101137415 0.25253016 0.05232997 0.7660762 -0.088012695 0.07205147 -0.6672642 -0.46450695 -0.36358103 0.03441434 -0.03802919 0.09985985 1.4655037 -0.35463125 0.55862546 0.09597579 -0.053009372 -0.45470235 1.0745425 -1.2764062 0.18358137 0.6830845 0.06252974 0.6758287 -0.6615477 0.60109526 -0.29865476 0.7106537 -0.22090748 -0.049936607 -0.16606826 0.17754352 0.53278434 -0.21141155 0.14915468 0.74732435 -0.76688176 -0.7591153 0.27647611 0.49098945 -0.59419775 0.3819734 -0.1218708 0.039142508 0.28713283 0.21316272 0.29552335 0.33077 -0.5192495 0.014937103 -0.30655596 0.17950323 0.25204164 -0.18408208 0.23034674 -0.22920935 0.42470086 -0.32187533 -0.35454458 -0.39386472 0.1941012 -0.0119845215 -0.44328997 -1.3733659 0.56033444 -0.1495726 -0.63752717 0.2913214 -0.33860856 0.3853537 1.0599109 0.16008598 0.12251121 0.0037045386 0.20879114 0.3483904 -0.05991366 -0.24612792 0.64125025 0.7703124 -0.5454955 -0.65312743 0.9200779 0.6678589 0.14160438 0.96723914 0.1533252 1.0732859 -0.41688418 -0.7682833 -0.2810328 -0.009387242 -0.38418657 0.15058593 0.12354779 0.618376 -0.38263458 -0.23698898 -0.33494836 0.40432534 0.06525444 0.56171876 -0.29105628 0.1298226 -0.18483606 0.12174923 0.26897594 0.48629293 0.0334055 -0.29518053 0.05247854 0.2326056 0.48220056 -0.69756526 0.14717774 -0.5707839 0.44321686 -0.7570571 0.07684605 -0.1318417 -0.2047249 0.22907312 0.6013665 0.034299098 0.033160817 0.53108656 -0.042011373 0.31224197 0.24794725 -8.7220746e-05 0.035995573 -0.094303586 -0.55280644 1.3700384 -0.44167534 -0.2609707 0.68914247 0.75386626 -0.47738874 0.15769698 0.094022855 -0.57699835 -0.2787459 0.41444588 -0.2298091 0.29006353 0.06379846 0.29295963 -0.5550846 -0.39424762 0.27047095 0.24308817 2.2464426 -0.76592845 0.83192146 0.32470715 0.21281184 -0.40475166 -0.08917023 -0.14258271 -0.5962859 -0.32793057 -0.069435954 -0.0068525444 0.032817565 -0.0011153837 -0.584838 0.49023607 0.3880484 0.15094717 0.031234985 -0.9962279 -0.7680836 -1.1038395 0.7836715 0.2689847 -0.6251782 0.028490609 -0.6445786 -0.022362323 
-0.7043921 -1.0348004 -0.5382959 -0.34435755 -0.42343438 0.26021913 0.6276212 -0.98720074 -0.35388172 -0.43203896 0.5505815 0.15157878 -0.26009345 0.23142423 0.52515954 -0.37411973 0.25286597 0.21662934 0.20365484 1.5141 0.32676125 0.26073754 -0.45216322 -0.56025755 0.1224038 -0.13734849 -0.026124317 -0.02072434 -0.6957544 0.6327932 -0.031099798 0.31709108 0.08580344 -0.74526936 0.38619137 0.66933674 -0.20450614 -0.34933764 -0.72899944 0.6914088 -0.16302118 0.49575135 -0.07791233 -0.28916094 0.22505344 0.15114282 0.35139278 0.27236903 -0.5151687 -0.61450994 0.77821654 -0.5978817 0.3487807 0.4252797 -0.24146006 0.7994095 -0.16102853 0.24692364 -0.3925761 -0.14367664 -0.2434071 0.4810434 0.2462747 0.040026873 -0.7393453 0.559638 1.7555026 -0.53353596 -0.988997 -0.42160168 -0.11526666 -0.61247724 0.21753648 -0.11362681 -0.41832486 0.16003197 0.426725 -0.08145898 0.36039826 -0.28155264 0.12790835 -0.36603007 -0.42459872 -0.14155592 -0.44449812 0.099696 0.5620139 0.26194152 -0.51455206 1.3337435 -1.1138201 -0.49218696 -0.70347273 0.26436916 0.44036007 0.78450227 0.8309458 -0.279403 0.033145964 0.0582245 -0.32504004 0.118581414 0.1576339 0.20253535 -0.4970563 -0.004996939 0.3025207 -1.3486006 -0.12431223 -1.0703672 -0.09622002 -0.28765768 0.5656597 -0.5745547 -0.01028534 -0.5064566 0.25130713 -0.7508588 -0.2967614 -0.37038872 1.217758 0.8848612 -0.4322986 0.18606876 0.59416074 -0.02550222 -0.070565864 -0.17472026 0.5588636 0.11417386 -0.33466545 -0.05672898 0.63463646 0.31306866 -0.43623045 0.3824216 0.121157676 0.6299166 -0.09678528 -0.82347864 -0.38452634 0.5202486 0.22549519 0.29580092 0.3998086 -0.56336856 0.015816322 0.44184357 0.19804008 -0.8859797 0.29732043 0.028030038 -0.77032286 0.40795818 0.46831188 0.6409576 -0.7098593 0.23591192 0.39814094 0.15454173 -0.11427877 0.3262229 0.7332588 0.4658413 0.6939534 0.12606792 0.59133965 -0.5828358 0.55792135 0.1044392 1.2016674 0.9366791 0.37874144 -0.93610585 0.7420973 0.43411383 0.1861541 -0.17109314 -0.6051807 0.09978314 0.632579 -0.13529146 -0.4403773 0.68145496 0.23162062 -0.1479304 -0.24889168 0.6030762 -0.27842098 -0.24412125 -0.34761572 -1.786462 -0.46312317 0.18653862 0.93815434 -0.39639285 -0.28259173 0.05215104 0.4130687 0.31993398 
-0.62956184 -0.5628645 0.025500508 0.122469604 -0.034157187 -0.56553006 0.050251767 -0.08426538 0.009893025 1.700325 -0.46952 0.13321297 -1.3948854 0.46583483 -0.039811123 -0.41113937 0.26055512 -0.047712322 -0.09366416 0.058600426 -0.049322255 0.0049277106 -0.66451746 -0.014373956 -1.1136314 0.4706319 0.54431033 -0.6321722 -0.11775491 0.08093683 -0.21492419 -0.47251537 0.5617967 -0.38776574 0.6686476 -0.069045186 -0.7132915 0.6051604 0.5357862 1.1151053 0.78959924 0.78531075 0.12335829 -0.38728252 -0.15870762 -0.17487937 0.539098 -0.18392228 0.168892 0.17135377 -0.4214549 0.1701032 0.33724844 -0.17308104 0.16784793 0.63886 0.1983646 -0.15022007 -0.10920625 -0.5577629 0.4374987 0.18673651 0.49072456 0.1239419 -0.39702922 -0.31717396 1.3227204 -0.46112412 0.98022515 1.1351843 -0.23375504 0.9667424 0.3272104 0.08208702 0.2828758 0.24148162 0.40430945 0.40462047 0.5758968 0.2898445 0.4722438 -0.03237339 0.042500626 0.5175211 -0.6099934 0.62598866 0.5535163 -0.4323057 -0.15365598 0.4961195 -0.31649667 -0.32520363 -0.32516932 -0.19223198 0.13015062 0.79095757 -0.5244595 0.02089022 0.10831304 0.06627819 0.096880265 0.3754908 0.6605205 -0.32999355 0.19243549 0.30940497 -0.40461567 0.3846101 0.21976747 -0.4567244 0.11735185 -0.34605816 -0.56128484 -0.47245318 -0.30854052 -0.057040166 0.54117787 -0.53700477 -0.8688747 0.10198972 0.06196711 0.34423032 -0.624931 -0.22767366 2.0754564 -0.26545492 0.4299404 -0.46538198 0.9449358 -0.119163476 0.020923633 -0.109344766 0.5047595 0.33080822 -0.0720151 -0.07126695 0.9096874 -0.9261621 0.31028172 -0.09793558 -0.26420832 -0.649872 -0.034364317 -0.38322875 1.0317609 0.09461523 -0.20218657 0.3364582 0.33529317 -0.21735121 0.4999111 0.50004256 -0.6268984 0.38533735 -0.97769785 -0.14156856 0.81307715 -0.07885185 0.30135545 -0.1753232 -0.019688915 0.102073416 -0.5727358 -0.62828684 1.033905 -0.17183454 -0.9266062 0.14447735 0.41766915 0.35979873 0.38351974 0.2668645 0.9968443 -0.029838871 0.14335424 0.09570291 1.2381127 -0.43817618 0.08785205 -0.27496806 0.15559968 -0.64966613 0.33689985 0.21563186 0.5390314 -0.5613818 -0.00081927184 -0.42961025 -0.5294764 -0.05318964 -0.6788427 0.36330876 0.14343865 -0.5859161 0.30477703 0.01788068 -0.17832795 -0.10379277 -0.6043629 -0.0011658432 
0.6758542 -0.52042884 -0.338051 -0.36929515 -0.15664686 -0.58210593 -0.82082057 -0.26153123 1.367058 0.78843874 1.4254221 0.115707316 0.18476315 -0.037963837 0.34345424 -0.073216215 0.31519854 0.47968575 -1.2461857 0.19394322 0.5941764 0.5379588 -0.18850127 0.34876812 -0.2663563 -0.22583808 0.34110448 -0.5453755 0.24486133 0.36763677 0.4083478 -0.54826385 0.76247996 0.24629325 -1.120828 -0.40177447 0.45897982 0.499935 -0.09636895 -0.71163744 0.5604778 0.8171861 -0.4519813 -0.7702262 0.15805788 -0.7326489 0.5526949 -0.93151855 0.030364508 -0.5724638 0.029534485 0.12929638 -0.17649537 0.13219912 0.31387264 0.51862353 -0.19162768 -0.7569821 -0.7706943 -0.066264816 -0.8353867 0.36180305 0.60202694 0.09405516 0.28669444 -0.52773076 -0.44146627 -0.3311597 0.6309291 -0.32253727 -0.18479638 -0.13661811 0.24046925 -0.56489855 -0.2939335 0.43849173 -0.29472807 -0.11491414 0.03155921 -0.30864725 -0.6338411 -1.0980281 0.45495656 0.6561656 0.034554195 -0.23780778 0.28750774 -0.22716178 -0.8559796 -0.20097573 0.54006886 -0.29212862 -0.37887385 -0.0036780948 -0.46423027 0.49317396 0.26916558 -0.4046841 -0.47700453 -0.4763662 -0.011965046 -0.64788467 -0.35349944 0.21767926 0.40749553 1.2199162 0.7015367 -0.4389295 0.33094898 -0.30670083 0.09629305 0.38401616 1.4411205 0.35654268 0.010087281 -0.6500369 -0.606525 -0.60760826 -0.13256648 0.05843546 0.29096225 0.16301541 -0.04739254 -0.41242182 1.3217063 0.05849778 0.7164671 0.46500203 0.8389004 -0.12665316 -0.66966695 0.08187845 3.1938035 -0.22163466 0.2150491 0.535503 -0.42318457 0.097208545 0.075215384 -0.5829773 0.62681466 -0.307597 -0.51149786 -0.48231575 0.34638736 0.45892343 -0.031029072 -0.27300283 -1.0547631 -0.71346974 0.024492862 -0.042373735 -0.68201596 0.69505763 -0.14661077 0.05190488 -0.12404786 0.43093938 -0.23420542 0.77600014 0.38181245 -1.2451103 -0.52879083 0.4580381 -0.04106412 -0.1771444 0.34447092 -0.53607094 0.50922054 -0.23298739 -0.1365641 -0.21311802 -0.31393364 -0.3547708 -0.33062962 0.16847634 0.6283969 -0.36796942 0.11528813 0.40455008 0.69797605 0.14405274 -0.8388269 -0.25888327 -0.9807978 -0.008656774 -0.7334164 -0.010016974 0.43607065 0.17554156 0.08470334 0.37786737 -0.15769689 -0.28568894 -0.07881414 0.4023988 0.09299999 -0.16294388 -0.73468393 0.95193934 
0.44846213 -0.2570041 -0.033840515 -0.23246282 -0.050709456 -0.13473473 -0.85158783 0.39793032 -0.37814933 1.0044782 -0.2032965 -0.47565144 0.04834637 0.6768474 -0.69040716 -0.17544718 0.1131628 0.47946876 0.2724009 0.21623181 0.13547681 0.6495894 0.19925606 -0.2584027 -0.059976656 0.26376182 0.035191737 0.18005413 0.07306092 0.7404207 0.33923686 0.69179195 0.9005635 0.21047872 0.48522368 -0.33342266 -0.056757092 0.19272073 0.04297 0.3681441 -0.2996332 0.532455 0.3390625 0.48080212 -1.5660006 -0.25842547 -0.3454246 0.30652142 0.38861668 -0.3677634 -0.73487943 0.2631487 1.2581267 -0.14498527 -0.35594907 -1.0622383 0.65752465 -0.21844642 0.47992286 -0.23225957 0.6037691 0.41507018 -0.19453534 -0.032073062 -0.014141295 0.4030358 0.4691984 -0.5261596 0.5463324 -0.32738483 0.41073316 -0.25640014 -0.10392766 0.14201789 0.27461162 0.27678606 0.39363903 0.018817768 0.24825275 0.886726 0.37930864 -0.17770413 -0.012210926 0.5997715 0.36617646 -0.1616317 0.44918123 -0.95996565 0.30857685 -0.16404249 0.61104673 0.16171953 -0.5481513 -0.2915796 -0.065378085 -0.22720118 -0.2298806 0.08888317 -0.08493045 0.81737226 0.22043987 -0.019065239 0.6984793 0.18010882 0.004340033 0.45259318 -0.05944567 -0.92513174 -0.10131889 0.0073855775 -0.20864466 0.15824619 -0.66459274 0.43023217 -0.055428617 0.2619162 -0.37424663 0.15882854 -0.11442705 0.1306434 -0.56174767 1.2016342 -0.7488472 -0.4138174 -0.14707543 -0.15886854 0.36900425 -0.057227287 0.02646217 0.18235682 0.38605025 -0.2066458 -0.10914073 0.2695757 0.10326634 0.3059467 0.20782217 -0.16301833 0.124169394 -0.043203287 0.4701542 -0.7398273 -0.2529709 -0.7349164 0.27570525 -0.08767521 -0.7374448 -0.49522108 0.3062341 -0.5518716 0.60312754 -0.07064192 -0.2868201 -0.5602058 -0.47700727 -0.14258672 0.36138755 -0.28849694 -1.3536936 -0.44435364 -0.43228757 -0.26338002 -0.9453968 0.42231625 -0.03206246 0.42153177 0.037083507 -0.60110414 -0.58845013 0.43693253 -0.23637927 0.07286054 0.028319912 -0.2641825 0.75823545 0.8388852 0.7680268 -0.30124247 0.15375054 0.7032119 0.03987526 0.528349 -0.7668742 -0.32822835 0.20636843 -0.19464952 0.055845026 -0.53409576 -0.48477554 -0.53135985 0.43148667 -0.154941 0.09403353 -0.10224538 0.3490479 0.090726964 -0.23517767 -0.41249296 0.5862391 0.28319624 
-0.3768223 0.21896023 -0.24541025 0.037709568 -0.12893333 -0.023209302 -0.51664245 -1.0298966 -0.73252577 0.046308823 -0.03314149 0.25265303 0.44108513 -0.20038189 0.33124116 0.47902244 -0.83230674 -0.30266827 -0.23373352 0.7440896 -0.50471103 0.144474 0.32117617 0.33152694 -0.33486372 -0.0652855 -0.350896 0.40032825 -0.15259102 0.15589172 -0.8458541 -0.38691735 0.3967597 0.2321043 0.1427704 0.47991318 -0.43983218 -0.2556094 -0.35179582 0.34426606 -0.14636835 -0.3037397 -0.403766 0.047884095 1.0921618 0.26996735 -0.34689817 0.052208163 0.38248917 -0.07014693 -0.2485813 -0.28167236 0.6769181 -0.44578555 0.32724333 -0.1924418 -0.5901853 0.3282465 -0.5052201 -0.71570265 0.022020211 -0.4314555 0.3000639 0.41646025 -0.7769268 0.51499546 -0.1468365 0.22103871 -0.21435863 0.10481371 -0.4876759 -0.5226166 -0.71520054 -0.28445497 -0.18113425 0.30719522 -0.17777134 -0.31121913 -0.6468727 0.017349007 0.4122068 -0.61730266 -0.5291104 -0.3399855 -0.36228004 0.032149855 0.034916367 0.11145821 0.15691158 0.47423756 0.4476814 0.66058403 -0.39873978 -0.29929087 -0.28122213 -0.63987875 0.13428636 -0.12071266 0.15394382 -0.25609642 -0.30396366 0.30208775 -0.032982703 0.15044965 -0.14871131 -0.23074256 -0.83497554 -0.41300002 -0.33088002 0.3999223 -0.41972303 0.39518934 0.30462846 -0.15146045 -1.0388799 -0.121918805 -0.4879012 0.23805818 -0.63866127 -1.3868461 0.82115364 0.70522 0.4586531 0.029826961 -0.5293387 -0.11202212 0.49359295 0.05424718 -0.26990736 -0.14720105 -0.29319176 0.08927464 -0.4387583 -0.55537856 -0.25724003 -0.95074904 -0.17637964 -0.45385903 0.23011819 -0.39242002 -0.24418636 -0.5900367 -0.75919545 -1.2130253 -0.497931 0.08403639 0.47371355 0.16299509 0.3602502 0.028871313 -0.4827541 -0.31564817 -0.8330585 -0.4519901 -0.19740343 0.45930788 0.9374191 -0.9102777 -0.2903724 -0.24490349 -0.38872486 0.3920893 -0.3704857 -0.5960841 0.4579229 0.41165653 -0.19896995 0.39257964 0.07852449 0.11837193 0.5267625 -0.14446676 -0.097973324 0.041680865 -0.13407211 0.6825911 0.48223013 0.03811808 -0.34177738 -0.17481743 0.14749837 -0.39779592 -0.13879347 0.119904116 -0.097953685 -0.48699862 0.21384938 0.29450825 0.09926813 0.12211717 0.20266402 -0.69295204 -0.16161314 0.81527334 0.4887743 -0.087379694 -0.14202072 0.10118827 0.21181715 0.019241747 
-1.628134 -0.37464827 0.5154038 -0.6589073 -0.6176241 0.13617182 0.38029495 -0.9367886 0.78419167 -0.24813168 -0.28475356 0.49587676 -0.38020843 -0.39935815 -0.4223434 -0.5392161 0.24989088 -0.2329392 -0.18515667 0.039751746 -0.90491205 0.12448743 -1.3124428 0.17648417 0.16777919 -0.5377368 -0.020490486 0.15099107 0.043583173 0.23414843 0.049999423 0.5047892 -0.028179152 0.13508843 0.510021 -0.15595575 -0.7974939 -0.25975874 -0.10362192 0.09862495 -0.6696368 -0.37410516 0.55522555 0.7052433 -1.4128852 0.7000556 -0.43134448 0.28455085 0.16445471 0.01635031 0.55704945 -0.2621379 0.02775709 -0.8025308 0.101707675 -0.23105232 0.27437213 0.9949822 -0.56071424 0.058388256 0.8529498 0.39307234 -0.60225713 0.12672292 -0.5612163 -0.42796943 -0.30883715 -0.6566539 0.21036196 -0.0055881427 -0.80270815 1.0043948 -1.0955158 -0.049554627 -0.66173905 -1.1131883 0.2663124 -0.1580012 -0.02805524 -0.028858379 0.3723619 -0.45048213 0.1410022 -0.599552 0.32710925 0.063963376 -0.24944136 -0.29691958 -0.040835015 0.27251562 -0.22757868 0.18447512 -0.07709061 -0.4892452 -0.32561186 0.67429674 0.5253161 -0.21104093 0.49118596 -0.31098363 -0.07393527 0.10251684 -0.7190533 -0.45091438 -0.11884948 0.15569936 0.7821535 0.08548629 -0.101129934 1.0729969 -0.50553894 -0.44450578 0.13964012 0.9167386 -0.04142235 -0.08683499 -1.1469841 -0.5614272 -0.7030932 0.57925034 -0.26293194 0.22209139 -0.52560073 0.7075604 -0.29842818 0.44011095 0.17142616 0.11249323 -0.041892238 0.010029057 0.9122501 -0.114147194 -0.41650322 0.4364169 0.13013352 -0.58750176 0.21333775 -0.4919541 -0.048082843 0.23543702 -0.93609935 -0.916024 0.3135405 0.35108212 0.09976276 -0.644589 -0.29521233 -0.017394666 -0.9264703 -0.40117088 0.08804638 0.53449464 -0.3643798 0.077658206 0.04785006 0.04200116 -0.55458647 0.022071514 -1.0465183 0.34088787 0.35871157 0.30838516 -0.29076415 -0.36406803 -0.28473356 0.004721014 0.6583701 0.182654 0.22580369 -0.7519111 0.06437927 0.3521908 0.3531439 -0.46523252 -0.047450867 -0.02694973 0.04734562 -0.17770189 -0.043122597 -0.5345404 -0.3263273 0.16632462 0.4620736 -0.38958728 -0.12623289 0.043179307 -0.30582798 0.1769533 -0.084673755 -1.2596345 -0.5753838 0.16321217 0.22176911 0.4539395 0.62448305 -0.9417824 -0.26021668 -0.068030864 -1.0630347 -0.12929805 
-1.7855299 0.175024 0.17203689 0.04454333 -0.31951725 0.060203064 0.3967127 0.051892538 -0.099022664 0.12624866 0.7950197 -0.53170705 0.5165991 1.4881854 -0.11671886 -0.43952224 -0.10811228 0.33435148 0.09098447 -0.42490056 -0.345584 0.31486657 0.19885862 0.73695964 0.6122537 0.70673513 1.0499089 0.43606776 -0.7231932 0.77798253 -0.6823318 0.066222005 -0.22113162 0.21154454 0.11011799 0.25182232 -0.1944529 -0.14667052 0.13362545 -0.06896985 -0.22389612 0.07642595 -0.81822175 -0.3004845 -0.57485604 -0.2596628 -0.07522853 -0.12499885 0.37092015 -0.8083698 -0.28847748 0.37957793 -0.23577146 -0.39312965 0.6460273 0.11613415 -0.97133785 -0.011558298 0.61797136 0.27281252 0.3399626 0.25502753 -0.45185316 0.13506646 -0.0048016864 -0.15820464 -0.20641524 0.2626005 0.57891655 0.64154106 -0.6682647 -1.195729 -0.59090453 0.14907545 -0.39457878 -0.011520835 0.27296776 -0.35989702 -0.54143816 -0.21542269 -0.527023 -0.093162246 -0.27185977 0.16668819 0.029632147 -0.096353024 -1.0955663 -0.21351185 0.10047795 0.25872073 -0.2050707 -0.9945618 0.022524104 -0.8322982 -0.15650679 -0.32012746 -0.59557265 0.1909475 -0.35714075 -0.23652346 -0.61265147 -0.035663262 -0.3808893 -0.1732554 -0.7084029 -1.0111434 -0.682342 -0.119239606 0.31487796 0.038401946 -0.2631979 -0.23906796 0.22446616 0.4075595 -0.3891542 -0.10431989 -0.28460255 0.38632664 -0.40450403 -0.24478742 -0.060546435 0.52752155 0.35569602 -0.14252168 0.511253 0.07504654 -0.64384973 -0.27330288 0.32238823 0.13245031 0.4966605 -0.2476086 0.14562841 0.898072 0.073777325 -0.01598807 0.53000945 0.1491751 -0.6071253 0.5124506 -0.13694428 -0.74814534 0.5312307 0.21402682 0.09653756 0.63320106 -0.6661234 0.2380023 0.32479295 -0.42470297 0.6607265 0.611195 -0.33397976 -0.49639687 0.049038425 0.04639811 -0.25884113 0.5609506 -0.78665 0.36143032 -0.21797688 -0.27087748 0.12605062 -0.405709 -0.50127226 0.030042136 -0.6738668 1.2560043 -0.0032357553 0.16119118 0.4789681 -0.15477912 -0.41711137 0.16011028 -1.3373826 0.06044876 -0.42031476 -0.16211356 -0.34604663 -0.1945285 -0.26512358 0.15989122 -0.69858253 -0.25811395 -0.30845544 -0.01135222 -0.820975 0.27497312 -0.033152256 -0.25016418 0.23786886 0.3344859 -0.28005293 -0.3899384 0.097691305 0.29689458 -0.15221415 0.3621773 0.033598732 0.14641266 
-1.531979 0.12639077 -0.0113836555 -0.44923016 0.052376483 -0.3949151 0.7937879 0.45106128 -0.9982832 -0.44253156 0.5169712 0.7980049 -0.28803623 -0.41918394 0.08883514 -0.52044797 -0.15139751 0.36113933 -0.9316546 0.6931555 -0.6905767 0.074761964 0.34776512 -0.030826235 0.23938401 0.08492115 0.9796343 -0.2906789 0.26621458 -0.23077293 -0.2626013 0.7419334 0.11347575 -0.35025668 -0.27425024 0.15321456 -0.53240645 0.9217997 0.09721361 -0.049661156 0.09207326 -0.5715828 0.04955591 -0.4182511 -1.2024462 -0.03375324 -0.4666141 0.52183497 -0.008582985 0.33706695 -0.37427548 -0.24215743 -0.13227923 -0.3876475 0.10150091 0.39273322 -0.3042513 -0.26591086 -0.0032324784 0.043071695 0.52518225 0.02931059 -1.375411 -0.4145796 0.41387534 1.2076083 0.34849927 -0.7604639 -0.14266373 -0.1003127 0.63408977 1.4130571 -0.029220495 -0.5875673 -0.09168168 -0.09176773 -0.071772724 0.680553 -0.48248982 0.2381646 0.104463704 -0.33395573 -0.31733355 -0.022569997 0.4879225 -0.05310915 0.37439036 1.1648446 -0.3359747 -0.02580255 -0.76881224 0.04039293 -1.3132013 -1.0111178 0.26603144 0.6459069 0.16954416 0.34831062 -0.18693331 0.7831735 0.06563725 0.30801997 -0.27871284 -0.5687171 0.04037872 -0.06877748 0.2963634 -0.20109798 -0.41851544 0.5720642 -0.415294 0.28097618 0.3368038 0.7316577 1.0632018 -0.17507257 -0.4181802 0.47872904 0.41985863 -0.09668798 -0.11913016 0.3252184 -0.7950502 -0.55498904 -0.4920382 0.2792972 -0.3869633 -0.5197303 -0.8951825 -0.27808583 -0.23876128 -0.7092152 0.43645838 -0.70224214 -0.00966896 0.06992984 0.2734827 0.15865456 -0.26375663 -0.007217636 0.36573383 -0.4055378 -0.06986609 -0.4736566 0.092614315 -0.6500787 -0.8051152 -0.28458127 -0.5645303 -0.5117007 0.19229272 0.727826 -0.010296866 0.0109684765 0.18409441 0.66838175 0.43065953 0.33201167 -0.24182612 -0.644652 0.32248712 0.42923546 0.21225393 0.24344945 0.080888964 0.30286294 -0.71425796 0.1743634 -0.71273917 0.026915083 -0.26805344 -0.90025276 -0.050850205 -0.17453074 0.5924297 -0.06966121 -0.19234413 0.1476119 -1.7431556 -0.1126198 -0.4098635 0.5410104 -0.84313595 -0.039532114 -0.22770782 -0.45521083 -0.6374684 0.038483903 -0.31006706 -0.4053959 -0.24676612 -0.4770978 -0.21881936 -0.14746249 -0.14188698 -0.13879667 0.28109953 0.09147742 0.46817127 -0.377633 
0.25960386 -0.0062142126 -0.3590997 -0.139635 -0.28663802 -0.16486275 0.13853444 0.60422766 -0.117440544 0.5105806 0.14378005 -0.15209988 0.61137426 -1.673705 0.039588716 -0.009337164 -0.13914625 -0.99576473 1.2885313 -0.40156654 0.09449881 -0.9803312 -0.034462515 0.11130158 0.5129877 0.7590029 0.13572015 -0.48068327 0.18338783 -1.2921349 0.9327113 0.016912276 0.12367105 -0.1771826 0.20980516 -0.25020495 -1.2496381 -0.16374195 0.5271533 0.27817392 0.18176694 -0.41513622 -0.39446154 -0.21194442 0.24276789 0.055018682 -0.2695708 0.5283063 0.2478579 -0.7472569 -0.2788521 -0.27172774 -0.39446548 0.025855374 -0.03140305 0.5085622 -1.1697855 -0.50173336 0.01899744 -0.18640329 0.7616116 0.18914586 -0.8841113 0.27530107 0.14407471 -0.3845561 1.0646236 -0.073895186 0.29536918 -0.59257954 -0.08807983 0.012935711 0.04718202 -1.027209 0.07165615 0.033133816 0.0055237995 0.19032569 0.10657071 -0.8047013 -0.5648356 -0.31442714 -0.90416235 0.27512053 -0.09268929 -0.16093291 -0.06393914 -0.63610566 -0.15979703 0.5048464 -0.44682688 -1.2558271 -0.4687676 -0.23443808 0.65989417 0.4765119 -0.16748098 -0.67888695 -0.48694196 0.39945808 0.1131177 -0.41626015 -0.043582126 -0.8767634 0.28306213 0.2966257 -0.6244405 -0.2866158 -0.6702069 -0.53147703 0.1656927 0.4287232 0.110497266 -0.22476715 -1.0428149 -0.036904275 0.22172123 0.016967814 0.6403097 0.75689733 0.15330707 -0.14239682 0.16674688 -0.40562472 -1.0543565 0.31907183 -0.26530233 -1.3001127 -0.4260468 -0.025932489 -0.03954723 -0.26713106 -0.32141778 1.1093142 -0.29916298 -0.60418063 0.74834496 -0.6832824 0.21693799 0.88607925 0.08207988 -0.42201605 -0.57385415 -0.41361436 1.2052004 -0.48377272 0.10282043 -0.17247726 -0.20484743 -0.13339603 0.51453567 0.04162971 -0.22780405 -0.12558627 0.4295165 -0.18235447 -0.7944382 0.17414235 0.30476782 0.11744142 0.17623809 -0.7426294 -0.3800795 0.030025085 0.69323146 0.6530979 -0.50882214 -0.4458396 0.21781069 -0.24312223 -0.48249456 0.20178466 -1.0504421 -0.16962385 0.13002898 0.5196295 -0.529066 0.05834159 -0.35629666 -0.16990569 -0.10557907 0.23975955 -1.8226384 0.073333316 -0.45526668 0.10769984 -0.93897736 0.15347117 -0.4447106 -0.23734674 0.25332686 0.5801296 -0.5445214 0.19647965 0.030523319 -0.6626929 0.25296855 -0.67264235 -0.42439702 0.23562545 
-0.10968907 0.62914455 0.40517342 0.4508453 -0.1046239 -0.16443151 -1.0275578 -0.23974586 -0.330485 -0.21429186 -0.10698933 -0.16933674 -0.85531324 -0.75514287 0.08143617 0.35542482 -0.44990918 0.1528875 0.26550063 0.50311667 -0.5416114 -0.73519826 0.06669809 0.3281959 0.6543171 0.6110325 0.58374786 -0.22593142 0.22717386 -0.23038153 0.1269027 0.42387065 -0.19614959 0.106364615 0.8426009 0.33846816 0.23383038 -0.5684154 0.4629913 1.0487435 -1.6465855 1.5976919 -0.21653105 -0.13050711 -0.48286077 -0.5180631 0.45954528 -0.25778905 0.33620888 -0.28101814 0.12076122 -0.007227492 -0.013933987 -0.44911817 -0.19677813 0.64291555 -0.6003588 -0.0019367058 -0.18498448 0.024652293 0.06452247 0.46027872 0.4532007 0.1610065 0.7151679 0.77155864 -0.52147573 -0.3155615 -0.36988968 0.07228579 0.20588799 0.13642074 0.17051032 -0.8481378 0.14848857 -0.14550282 -0.15845594 0.0031435413 0.14615576 0.3218789 0.19398323 -0.5129645 -0.32252333 -0.2354725 -0.020578934 -0.24210066 0.089472406 -0.4436698 -0.32593286 0.017859912 0.72259754 -0.7509817 0.38642922 -0.077083014 0.03582882 0.2369114 -0.24993815 0.03521616 -0.20745622 0.11177564 0.26141208 -0.4733388 0.5163183 0.18874991 -0.44095847 -0.10890881 0.3117709 0.14765066 0.022954864 -0.5803997 0.2673393 -0.19050917 0.528692 0.21036263 -0.010035815 0.16511403 0.6176669 -0.27818018 0.08895808 -0.20962457 0.06899888 0.1862042 -0.36028746 -0.21221094 -1.5205564 -0.26188394 -0.15901501 -1.025971 -0.70852834 0.17512466 -0.3670421 0.34817788 0.6634469 -0.8065502 -0.52637887 -0.21542358 0.24165681 0.89213896 0.4026415 -0.3824005 -0.53819287 1.0864482 0.41173846 -0.63461244 0.41864803 -0.55635285 -0.31969032 -0.7122857 -0.6881979 -0.42611498 0.20410614 0.15445843 0.3122653 0.23662454 -0.6267573 -0.0024166524 -0.82916266 -0.66198766 0.2479261 -0.4103691 -0.45166597 -0.65185827 0.046534613 -0.5298668 -0.032871664 -0.39578104 0.6242258 0.31303486 -0.062534064 0.03987944 -0.3348843 0.56831366 0.8189918 0.23845787 -0.25858775 -0.34160313 -0.47007278 0.2837647 -0.5511507 -0.46685508 -0.0046088104 0.6030001 -0.21390021 -0.5166849 -0.452494 0.2503086 -0.8305856 0.19511956 -0.38776955 -0.13002218 0.36886176 -0.20507488 0.19631873 -0.22373591 -0.21040966 0.2324654 -0.5932488 -0.104888216 0.7448607 -0.21977168 
-0.9448249 0.070234515 0.16960442 -0.015225163 -0.13431007 -0.21644439 -0.12094967 0.84026647 -0.10904082 0.18961017 0.45443353 0.13202396 -1.421385 1.0893898 0.061382495 0.3813541 -0.25724685 0.5302013 0.4390658 -0.053949267 -1.0212678 -0.045238998 -0.0807714 1.0514383 -0.5583909 -0.2692421 -0.21542183 -0.5131833 -0.27033445 -1.0621097 0.504373 0.4742229 0.7153299 0.7809142 0.29036245 -0.19503206 0.8931046 -0.08810671 0.29605561 -0.28316316 0.46784437 -0.4627374 -0.32619283 -0.7419048 1.286557 -0.2525475 -0.7503193 0.22352254 -0.13335685 0.08221414 -1.4173914 -0.4907808 -1.2496967 -0.043657172 -0.7835928 -0.024140399 0.30044767 0.07004569 -1.1904665 0.08600945 -0.023824228 0.007062523 0.30874497 -0.04874371 -0.10235131 0.7818789 0.47001138 1.0643653 -0.48503506 -0.11086303 0.19026396 0.50053793 0.6607962 0.53656584 -0.75654477 -1.4361306 -0.13553077 0.15826863 -0.38080767 1.0510517 -1.4852312 0.6194708 -0.4810149 -0.10680936 0.03688509 -0.6632185 -0.32312176 -0.10124262 0.074436724 -0.14658946 -0.6294297 -0.05373874 -0.3994408 -0.051717594 -0.02830883 -0.051229566 0.21186721 -0.21724375 -0.25375628 0.19663344 -0.26731598 0.19764282 0.38842863 0.54030573 0.4347052 -0.58288574 0.2653525 -0.3401147 -0.5232562 -1.0450279 0.43649605 -1.5203128 0.533597 -0.15644898 -0.16876903 -0.0651147 -0.47292164 -0.24942659 0.42509794 0.2628668 0.5095829 -0.96915007 -0.1370807 -0.012746955 -0.6484681 -0.08678069 0.08641021 -0.64711434 -0.41716427 0.61893827 0.048245706 -1.0997875 0.38056406 -0.7934015 0.21779843 -0.94991237 0.5630606 -0.17289175 0.32602277 -0.7945178 0.06820723 -0.11943416 0.017302962 -0.49529 -0.030482724 0.38022733 1.4862113 -0.1647919 0.8426089 0.48211023 -0.35315868 0.0244595 0.5564968 0.10033867 0.37426007 -0.36143523 0.28300697 -0.5021447 -0.017147506 -0.5039939 -0.12195741 -0.3857793 -0.448055 0.10104846 -0.78584325 0.9452957 0.2757218 0.42500216 -1.0517795 -0.16763927 0.080741055 0.1342963 -0.49198714 -0.15956639 -0.69826436 -0.015554088 -0.72256416 -0.5339889 -0.40613532 -1.0275363 0.06066677 0.82303977 1.1588697 -0.11695865 0.051571555 -0.25927052 -0.76068616 0.39764258 -0.3220551 -0.7493751 -0.017921522 -0.8068546 -0.46834418 -0.19427817 -0.1288982 -0.50864786 -0.47374225 -0.13965394 0.9270998 0.15822887 
-0.46171367 -0.42081067 -0.14324974 0.14828138 -0.21353728 0.21340267 0.20450363 -0.6764022 0.5386029 -0.930297 0.16789363 -0.0020152503 -0.21926476 -0.3235677 0.16791107 0.14802928 0.1882627 -0.2739974 -0.35467026 -0.021834873 -0.30908722 -0.6657133 0.27357817 0.14988066 -0.89253753 1.0132831 -0.33166263 0.069069415 -0.7234554 0.13675779 0.06923218 -0.36203095 -0.8995746 -0.7952415 0.029463723 -0.13878497 -0.56053954 -0.345045 0.32842916 -0.16338103 -0.50592107 -0.63214576 -0.08231631 0.0059038396 0.023795616 -0.15550512 0.77986443 0.8928323 0.43092972 -0.89562273 -0.062474187 0.92970437 0.92361027 0.45807937 0.06549909 -0.0860782 -0.3288347 0.12896441 -0.51409745 -0.2164183 0.65553737 0.48251784 -0.20317997 0.020031177 -0.25922093 0.107773624 -0.23156933 0.20252003 -0.10016205 -0.23190323 0.0909399 0.76052547 0.48736528 0.19565715 -0.1662075 0.36213514 -0.23867299 -0.23844084 -0.1705582 0.55170685 0.24734277 -0.16696496 -0.63043934 -0.32167494 0.38550887 -0.34676057 -0.00039098033 0.17645921 0.36154494 -0.80360764 -0.4911154 0.18390782 -0.35841802 -0.19691658 0.36387816 -0.6684449 0.037751473 -0.532932 -0.21891567 0.603968 -0.8689381 0.46793547 0.8062036 -0.14910597 0.26940382 0.05706618 0.6953249 -0.71275866 -0.12850748 -0.15446897 -0.4121796 0.6091493 0.11896912 -0.38815108 0.039921477 0.50589865 -1.0635039 -0.10615912 0.07307975 0.21615124 -0.050531548 0.4192663 -0.050602723 0.5501517 -0.3769289 -0.060869604 0.26544386 -0.01011038 -0.051381 0.11164673 -0.8819011 -0.3854325 -0.699682 -0.116605416 0.46941498 0.067135826 0.4220725 -0.59425694 -0.13986447 0.12910059 -0.29861882 -0.074277245 0.727023 -0.37418976 0.41944158 0.23871364 -0.031472314 -1.0358468 -0.2533251 0.34791565 0.021382643 -0.2283085 0.64098704 -0.28643295 -0.45502526 0.15565673 -0.3894503 -0.67978454 -0.022350516 0.41243094 -0.24508622 0.14125043 0.19930713 -0.47214407 -0.8162588 -0.14640413 0.005568644 -0.364743 -0.7666159 -0.059951495 -0.18898973 0.18924838 0.26520082 -0.12746213 0.94697005 -0.2480529 0.23581271 -0.36422452 -0.054736596 0.13337563 0.072770834 0.46228483 -0.83292073 -0.49281543 0.68939215 -0.20692685 -0.37905994 -0.7495783 -1.1631359 0.051497247 0.56425595 0.27072755 -0.08549837 -0.0540162 0.1622654 -0.039384995 0.01903194 -0.4220347 0.24927637 0.36939475 
0.59404486 -0.8133374 -0.040427852 0.12887529 -1.2593608 0.16385409 0.52192324 -0.9576657 -0.18566461 0.07646646 -0.41773507 -1.3255321 0.16099443 0.6857222 -0.15755962 0.015712442 -0.068358645 -0.8566961 -0.7337646 0.37432706 -0.5324948 0.44302103 0.2635667 -0.0007824597 -0.40285528 -0.43091887 0.21346895 -0.62176836 -0.04431506 -0.6746557 -0.046900604 0.54233056 -0.32211474 0.4468791 0.19627951 0.46142417 -0.4394479 -0.23236097 0.20581454 -0.10843796 -0.6584515 0.3037941 -0.0075727445 -0.18868753 -0.12030073 -0.019965926 0.8070204 -0.6262713 0.9081646 0.4746919 -0.43346918 0.842369 -0.67162836 -0.7906438 0.5406438 0.22692536 0.05501444 -0.9279912 0.52617776 -1.8961219 0.11414313 -0.10174203 0.3648976 -0.15752551 -0.7004652 0.57325935 -0.78024733 -0.25626916 0.0008079534 0.07676967 0.247264 -0.6989903 -0.80849594 -0.2551275 0.41624594 0.3564706 -0.24103229 -0.4507948 0.3458419 -0.47832513 -0.28988543 -0.35661355 -0.44427958 0.24595174 0.915557 -0.85588264 -0.6487965 -0.61787146 0.10415488 0.3944499 0.39248395 -0.6043709 -0.546468 0.19263934 0.18621023 0.047505267 -0.34459037 -1.2290477 0.6072933 0.03899387 -0.52902347 -0.27329382 -0.7209387 -0.6146522 -0.056134295 -0.029706024 1.0482099 -0.2596697 0.24477659 -0.0863448 0.09840316 -0.8018395 -0.26610562 -0.6004522 -0.71571314 0.1647249 -0.30892357 -0.16558181 -0.8233442 -0.24834749 0.14432533 0.46349055 -0.22812715 0.42393443 -0.68206626 -0.09935203 0.11369574 0.7312231 0.50336856 0.118120834 -0.03740929 -0.662679 -0.6296479 -0.746536 0.55245334 0.2802843 0.15433268 -0.44486138 -0.73671883 0.30462503 -0.31570825 0.82041264 0.15016021 -0.45252833 0.17873481 -0.34713247 0.42675528 -0.3628311 -0.13737808 0.22448008 0.03411842 0.437903 -0.74452 -0.83680075 -0.42637628 -0.5581103 0.83478594 -0.27647936 -0.1669287 0.16597725 -0.39872727 -0.20180196 -1.0022086 0.014789397 -0.22643328 -0.19319871 0.30424294 0.41824716 -0.054214604 0.4163239 -0.16903713 0.06576652 -0.7412142 0.25498775 0.6138236 -0.13616794 -0.17379679 0.5360297 -0.088696145 0.2395733 -0.027993353 -0.0078066397 0.28300267 -0.36429897 -1.035029 -0.8728474 -0.22587463 -0.6807667 0.018946584 -0.3351564 0.0662271 0.025577603 0.1487497 -0.009726823 0.095395 0.028283782 0.24706474 0.11125996 0.34837407 0.39803445 
-0.343589 -0.4750053 0.3196074 0.56429076 0.11341838 -0.36569726 0.016212154 -0.5896008 0.28173026 -0.055375773 0.053565808 -1.5258622 0.391062 -0.47214314 1.6083024 0.4231234 0.05439853 0.90448844 -0.08615543 0.023905467 0.3533716 -0.039289095 -0.78378177 0.54982156 -0.19211726 0.15073937 0.049138486 -0.5072445 -0.10744071 -0.21107313 -1.035977 -0.10614949 0.36936665 -0.294604 -0.27819315 -1.9700891 0.51677126 0.76768047 1.3350432 -0.59566855 -0.3922438 0.03958461 0.30673423 -0.4682069 -0.118369274 0.6125657 0.2864733 -0.028596207 -1.2787025 0.17122234 0.22204508 -0.27140278 -0.1003586 -0.021855207 0.6789434 0.53060526 -0.029425679 -0.5465922 0.0513974 -0.6993864 0.037839074 0.2507544 0.27724135 -0.28384104 0.15085839 -0.5900566 1.0740584 -1.7638115 0.6023184 1.0631065 -1.2047597 -0.817582 0.019519802 -0.183411 0.1308042 -0.4015812 -0.08831643 1.5477644 0.15432356 -0.4140536 0.007724487 -0.040924486 -0.7115142 0.13873838 -0.64102256 -0.7310512 -0.55060387 0.3948091 -1.1063777 0.14240496 -0.06532499 -0.16258611 -0.6712016 0.06582357 -0.79793274 0.29069757 0.19570778 -0.0492513 0.18881921 0.24511349 -0.7320746 0.80021816 0.041913927 0.9717969 0.9110454 -0.39382234 -0.38242126 0.255245 -0.17209968 -0.64421624 -0.38330096 -0.73514056 -0.052885037 0.6043385 -0.06621217 0.11555862 -0.88541716 0.49565646 -0.32892108 -0.015912516 -0.30961758 0.05698887 0.06451488 0.3097795 -0.23846434 -0.45003062 -1.6111537 0.90514016 -0.62101007 0.7412538 -0.15335864 -0.26011288 -0.14771646 -1.1389586 -0.93755573 -0.5752711 -0.4492268 -0.17707115 0.24134469 0.26953503 -0.48145032 -0.19934227 0.78153056 -0.6180359 -0.6333215 0.41095883 0.05441159 -1.1617886 -0.6075014 -0.11272284 0.25162575 0.5083005 -0.3886287 -1.249744 1.0187385 0.69053155 -0.023042727 0.8349644 1.2319195 0.32524037 -1.4328196 -0.019043671 0.10628462 0.77177966 -0.4280176 -0.10965535 0.25672942 -0.6330053 -0.29128474 0.46323982 -0.24173903 0.03170218 -0.6649268 -1.068011 -0.06800239 0.89498067 -0.994209 0.3373042 0.38765883 -0.02983286 0.03880204 -0.5718351 -0.22964719 0.007969058 0.30956492 -0.09513952 0.27116656 -0.13046387 -1.387917 -0.7750061 -0.81647766 -0.35236493 -0.6965367 -0.055824015 0.38766012 0.16774745 -0.12550834 0.37775946 0.6343136 -0.045167796 
-0.081550084 0.5255615 0.38690326 -0.51984364 -0.6032732 -0.5849381 -0.62116987 -0.96814144 -0.951118 0.20951906 0.33211735 -0.46353802 -0.611699 -0.8285228 -0.88419116 -0.29769742 -0.580002 -0.13976316 0.6757278 0.8633684 -0.08409945 0.6701067 0.24664599 -0.088232875 0.07626711 0.10697526 -0.22066787 -0.0006815167 -1.0628725 -0.43837115 -0.083367266 -0.24830343 0.3598177 0.33455366 -0.29775223 -0.31501803 -0.5480748 -0.21768495 0.31329277 -0.214951 -0.8151472 -0.021067126 0.03716572 -0.105584346 -0.9373032 0.30650404 -0.8950518 0.507944 0.31699285 1.0737435 0.03194833 -0.10274549 -0.6702449 0.066517495 0.53554106 0.02250029 -0.852102 -1.3380557 0.26666662 1.0108364 0.33902505 0.4444834 0.12736803 -1.5658337 0.23082727 -0.16917725 0.54897046 -0.3820218 0.52035695 0.3233184 0.5358876 0.5324259 -1.0629766 -1.1927291 0.17266342 -0.44768387 -1.0053451 -0.11706585 -0.3531307 0.50318974 -0.35795063 -0.95753986 -0.569625 -0.02972536 0.12506871 0.42236367 -0.35093278 0.25180522 -0.26096064 -0.4912824 -1.1032833 -1.7033273 -0.952144 -0.5950744 -0.7525601 0.09855953 0.07491489 -0.26085928 -0.010995622 0.6394574 -0.17544551 -0.35783505 -0.28014153 -0.77931964 -0.088303864 0.08572568 0.05394698 -0.45119822 0.39169976 -0.10210717 0.71279705 -1.8764522 0.8113765 -0.9325743 -0.6153242 -0.6422392 -0.19917738 -0.4684685 0.22362444 -0.53973323 -0.31852758 -0.3504482 0.15995555 0.23722938 0.09771301 -1.5930874 0.45638227 -0.41386867 0.10026396 -0.93801874 0.61012465 0.31632313 -0.056796424 0.06413092 -0.3137708 0.9056278 0.12966882 0.14772306 -0.9840463 -0.63307106 -0.20730862 -0.5282855 0.03244388 -0.0586365 -0.16369835 -0.57785076 -0.1177828 0.009890672 0.14384726 -0.07835798 0.035379745 -0.43754923 -0.35473293 0.012342643 -0.24311924 -0.83195907 -0.36620474 -0.18862477 -1.8375506 0.056739844 0.5386077 0.22129124 -0.07855048 -0.031496786 0.06276462 0.45177248 0.3757507 0.45639747 0.088970326 0.056451533 0.17750917 0.3015469 0.78423023 -0.113159485 -0.5946422 -0.63567936 0.053417422 -0.89113295 -0.06304117 -0.85883456 -0.25854713 -0.021261869 -0.4972427 0.6955989 -0.02790776 -0.2925332 -0.055911068 -0.51877964 0.24533777 -0.17793773 0.066266805 -0.31548858 0.23377272 -0.84683925 0.69673103 -0.6545967 -0.622975 0.11210252 0.40318543 -0.5557862 
