0.21058072 0.3344954 0.558113 1.591647 -3.0331557 0.092791125 -0.2159409 -0.08886864 0.31784895 0.09802309 -0.36675718 0.3002691 0.20436807 0.39239612 -1.339787 0.57621455 1.5137616 0.19289848 0.2976619 0.33391494 0.38034448 0.7586692 0.8805508 -1.8643887 0.22975595 -0.4552789 1.3516749 0.8113331 0.49821898 0.35514927 -1.1011759 0.68899345 -1.7974247 0.32302696 0.6254382 0.2777248 0.7323384 -0.30668423 0.5697556 0.11182946 0.29721317 -0.23882027 -0.2327431 -0.09846105 1.8545295 0.67476636 0.8432514 0.60370314 0.45685858 -0.06096356 0.38558412 -0.9061563 -0.010972588 1.0016184 -0.8026988 3.02501 0.05198277 -0.9168348 0.96948105 -1.9022658 3.0172231 -0.4352167 0.5384137 0.87104 
0.960405 -0.017630275 2.706926 -2.6396701 -2.4736283 -0.4276007 -1.9962027 0.24089015 -0.25830743 -0.54872656 -0.5821934 0.38464606 -3.0943284 -0.20922664 -2.016963 -0.3124292 0.5253197 -0.29309112 -1.03219 -0.1237703 -0.37056717 1.2402685 -0.061804157 -3.2506256 -0.57427055 2.7107623 0.1455151 -1.0111762 -0.20359357 -0.53487366 0.7625998 -0.5390726 -0.32187855 -0.08269803 -0.25400424 -0.6238283 -0.7553514 -1.0155098 1.0706797 2.280989 0.20996077 0.29806814 -0.51090497 0.40566343 -3.0512488 -0.1838524 -0.20697245 -0.5397306 0.1339172 -0.45213708 0.89938366 0.75802886 0.20051067 -3.1344335 -0.59558403 -2.6251504 -0.59046775 0.25309405 0.658748 2.3665714 -0.5639454 0.071159296 0.07261397 1.9105756 
-0.24692884 -0.75564265 -0.9243501 0.23180892 2.5451746 0.59034187 -0.18585485 0.21946536 -0.06730156 1.3488652 0.13938442 -1.7476681 -0.98203903 -0.037948616 -0.61749613 -1.4487853 -2.8270593 1.4086676 -0.9640414 -0.17870572 -0.5567708 1.03983 -1.1206828 -1.2117183 0.53915185 0.12932423 -1.0739497 -0.46547595 -1.6712343 -0.29898238 1.4751018 0.03190772 2.890901 0.11420356 -0.18914741 -0.6369178 0.28097814 -0.7326366 -0.5496189 1.3959365 0.4127453 1.6152153 -0.6551248 -0.24010509 -2.291877 -0.5813902 -0.14777207 1.3499795 0.64431584 0.20063673 0.06626001 1.2132335 0.03958692 -1.3488905 -1.4685154 -1.4490572 -1.9474959 1.206976 0.48843902 0.62116635 -0.6550081 0.30370045 -0.33710176 -2.583043 
0.03008427 0.8354993 -0.4189424 3.3646028 -0.8056918 0.4959139 1.4147583 0.66728 0.35346794 -0.35362124 -0.5593465 0.38084647 -0.450629 0.11352927 0.9411275 0.6607317 -1.1675726 0.19893768 0.19669211 -0.33466837 -0.68101484 1.1162469 0.23170014 -1.9787562 -0.2945027 -1.8302819 4.022959 0.46102893 -0.6540199 0.060982455 -1.6619022 -0.33432475 1.248909 0.26352686 0.80936193 1.4822526 0.13004197 1.162867 0.17511953 1.4382035 -0.041859712 1.1588794 -0.5805162 1.5264101 1.0516274 0.4655958 0.8121105 0.857923 -0.7421779 -0.3600875 -0.20104185 -0.57782185 -0.15859167 -0.63080937 0.5805016 0.6664839 -2.1778984 1.859686 -0.67554945 0.37103662 -1.0649582 -0.049735617 -0.11402158 -1.4350446 
0.6797277 0.45798782 -1.1728979 -2.903407 -3.776314 0.67185044 -1.8976122 -0.06057054 -0.07824427 -0.8457298 0.34415767 0.7910866 -0.16812268 -0.2935312 -0.32803628 -2.4057846 2.0058024 1.7437297 -0.4430508 1.0383217 0.43512332 0.12240049 0.40681002 1.4234256 0.2150368 0.4285549 0.37124062 0.12721567 0.46896145 0.15238833 -0.1968226 -0.04769455 0.85038286 0.23695546 0.0051130406 0.35901663 -0.20300965 -3.6852226 -0.08694178 0.9882312 0.25470152 0.21038106 1.5173645 0.50549084 -1.1134685 -0.24187955 -0.019610465 0.55249393 -0.4461162 -0.017492209 -1.262869 0.47738737 0.32635877 1.3398784 -0.41351247 -0.79801935 -0.6457432 0.09559325 0.60323733 1.6207329 -2.0946286 0.47046772 0.22780634 -0.76937705 
-0.41420567 -0.3419134 0.547415 2.7624846 -1.2052045 -0.32624722 -1.1241848 -0.31214 -0.5072851 0.7158272 -0.36031616 1.0657609 -0.71451193 -0.0870055 2.1036153 1.9448409 2.86906 -0.99569315 0.5262637 0.7488793 -0.1771383 -0.7252926 -0.31089547 0.6635739 0.6186593 0.0060845464 -0.6863544 0.25435755 0.27221504 -0.26297614 -0.64465564 0.2833206 0.4938127 0.52775437 -0.66510856 2.32241 -0.3892153 -1.2953923 0.92850095 -1.5519506 -0.2877037 0.45585534 -0.17408863 0.39220974 -0.4867576 -0.4757075 0.51261806 -0.9825147 1.073115 0.14274745 -0.3197086 -0.9503281 -1.534071 -2.4644415 0.6687506 -1.5573788 -0.002941797 -2.6482103 -1.4824729 -0.23107003 2.2166615 0.53935194 -0.0147934295 -1.6493037 
-0.14271273 -0.20102909 -1.1224272 -2.7180822 1.5856822 0.25110376 -1.48573 -0.078503564 0.48855576 -1.1271659 0.18708731 1.3418864 0.2581766 0.57258254 -0.49066606 -1.8474082 2.0040576 -0.4310145 1.0398862 -0.88350475 -0.48827523 -2.874929 1.2843977 2.5369067 0.14997834 0.77142346 -0.20848198 0.4918135 1.1702724 0.76978827 -0.80083126 0.4150128 0.9027271 -0.60315603 0.0044557727 0.45996022 0.26733765 -2.9974167 -1.6096696 0.84246343 0.4633171 0.013285489 0.22030625 0.81125486 2.3595045 -0.49684578 0.91960186 -0.25591847 -0.7425722 0.76137364 0.9021014 -2.8711448 0.81984186 2.023254 0.8060319 -0.8430266 0.62313586 -3.1463184 1.3368632 0.77830386 -0.60446775 0.6381214 0.42906442 0.25476852 
-0.36974418 -0.27003357 0.83642834 -2.0139647 0.58447367 -0.87705 0.8197554 0.09051558 -0.78974724 -1.3177636 -0.8387081 -2.0807877 -1.6965917 1.0849655 0.34611258 -1.260289 -2.6196907 -0.2740334 -0.6260181 -0.758841 -1.3775882 0.15971577 -1.1614447 2.4358797 -0.49907202 3.2270117 0.37659818 -1.2411165 1.3088131 -0.5243917 -2.47031 -0.4215059 1.1354072 0.22037701 -0.5611087 1.8338666 -0.45685455 -2.6374245 0.55583346 0.44266072 -1.0677614 0.5260931 0.18725045 -0.7122209 -2.5262082 -0.82767624 -0.104118876 -0.08692055 0.2959076 -0.17148528 0.8382811 2.1057343 0.11963911 -0.63928 -0.7280996 -1.8395423 -1.5143408 3.444115 0.35045096 0.3912742 0.43034 -0.45552728 -0.16906191 -1.2799824 
-0.44104135 -0.02624987 0.5690502 1.5314229 -0.11508515 0.49557227 -1.0680825 0.2775736 1.0256777 0.04088251 0.82221997 -1.0868083 0.09055677 0.24827534 3.7885127 -0.14250228 0.9382003 1.3678733 -0.13225812 0.22198008 -0.20484023 -0.43741006 -0.8123746 -0.8116018 0.69795305 -0.11393105 1.6062977 0.30722404 -0.30310276 0.021007434 -1.1454562 -0.05972465 0.6503736 -0.28444877 0.1294536 2.620681 0.027344836 -1.6636536 0.63924694 -0.4660774 0.17184843 0.86152077 0.24498165 -0.20487565 2.8533332 0.08094106 -0.07227795 -0.66458726 -0.1356706 -0.10891774 -1.2540518 -1.5882621 0.22827132 -0.024361085 0.83625597 3.016604 -1.045732 2.8525598 0.0046845856 -0.045431476 -0.5964715 0.49096805 0.35766387 -0.07828966 
0.63003856 0.14722383 0.0004221077 -0.82060355 -2.837334 -0.05089332 0.9413783 0.009522059 0.48287287 0.9651913 -0.08077273 -1.2342644 0.09766812 -0.9285984 -3.6178768 0.5547843 -2.7380748 1.0030671 -0.11283389 0.20405571 0.04034853 -1.5286212 0.11726917 0.6350129 -0.58695793 1.092993 0.9450878 -0.08133971 0.694218 0.5782839 -0.24927229 0.50552195 1.8353083 -0.77090436 -0.023871094 1.5852845 -0.62108755 -0.5416067 0.065245815 1.0074388 0.22526607 -0.41741574 1.0511742 -0.58491665 4.0393567 -0.119838774 0.13232946 1.960418 -0.55823267 0.092898004 0.5179173 0.370419 -0.086314656 -1.6969596 0.59963596 -0.10406657 1.145281 -2.1387696 -0.11556843 -0.25456345 3.3170679 0.024472585 0.08317304 0.94294924 
0.04729953 0.52863204 -0.37775445 -0.25780153 5.1464877 0.3667228 -0.36981466 -0.39966625 0.19379485 -1.7165489 0.16562617 0.81344783 0.11429298 -0.8398656 -4.2275243 -0.36249268 0.4662604 1.3348291 0.109666534 -0.84755224 -0.05163291 0.6889276 0.9933025 2.2276397 1.1304932 -1.3414394 0.17481217 -0.6236897 -1.1355501 0.58440113 -0.20980301 -0.36666542 0.35835528 0.24205282 0.3250992 -0.5344687 -0.58114785 -1.1790144 1.2875156 -0.07942019 0.008613951 0.38779134 -0.5136846 0.46632427 -0.8473822 -0.8343713 0.48460647 0.37198955 0.06641606 0.17832498 0.077666886 -1.0901008 -0.67518634 -1.4790202 0.13717695 -4.4349437 4.287011 1.0050389 -1.059806 -1.6865304 -3.0539012 -0.0024759816 0.15190464 -0.3378407 
-1.2446535 -0.5392789 -0.584253 -1.1124212 1.0222846 -0.46150368 -1.5394179 -1.1213123 -1.4539754 -1.3503397 -0.49869233 -1.9226315 -2.0919187 -2.4220667 -4.6881967 -1.1524904 1.2850976 -1.5513314 -0.8679192 -0.8194769 -0.6457347 -2.3442686 -2.927692 0.11097863 -1.7988558 1.1289413 0.60739464 -1.2924142 -0.6532821 -0.43361178 -0.12948564 -0.5093326 1.7572079 -0.98650646 -0.25659844 -2.209418 -0.6479414 0.0037609166 -1.6142623 -1.1927894 -0.64760685 -1.9338404 -1.2519323 -0.38031495 -1.6406957 -0.33916315 0.039655127 -0.121742055 0.24985354 -0.47906804 -0.5630756 0.85761696 -0.052897535 -1.7134343 -1.5171694 0.22278409 0.27333727 0.39913908 0.44506425 0.7202041 -0.4789193 -0.036329165 -0.49797493 0.11836806 
0.9566038 0.21181285 0.11648202 -0.38196385 2.343488 0.044437792 -0.31740296 0.7034026 0.46891174 -1.1694824 -0.062090795 1.0338403 0.77858156 0.4793053 1.2693609 -0.7583415 -1.2857512 -0.17593484 -0.18685701 1.3387525 -0.13937469 0.34517574 0.053201087 -0.8979606 -0.78400713 -0.21453878 -0.6082335 -0.3160614 -0.34405962 -0.42299446 0.2965356 -0.45873064 1.1688513 -0.25869635 0.43883166 -0.44012606 -0.018300151 2.5242517 2.1318989 -0.7168628 0.28485548 0.0009969529 0.18292104 0.044872567 -3.4822145 0.66595054 0.6571979 -0.44652364 3.0726852 -0.54021007 0.060508505 -0.77090335 0.24717222 -1.1432395 -0.0589105 0.5158269 -1.0361065 1.6380023 0.13398844 0.7972976 -3.6882293 0.6295549 0.32300523 0.50896746 
-0.8865131 0.6879556 0.80028015 -0.6670519 0.24182779 0.174275 -0.3497741 -0.5836591 0.59737784 -0.4995124 -0.13282385 -0.74456286 -0.92761713 0.24081452 0.638787 -0.95412827 -0.30339813 -0.11895762 0.53156424 0.0021142452 0.720264 -1.238282 0.19325557 0.049068913 -0.70221883 0.03583861 0.838296 -0.061083652 0.61730313 -0.21083815 -0.057249315 -0.5768877 -0.023524735 0.34454137 -0.008219989 -0.5743876 0.46594185 0.49114373 0.5819812 -0.18166366 0.6993253 0.8729055 0.51771706 0.5092257 -1.2710313 0.008009372 0.123560295 0.5364507 -0.34593576 0.3954127 -0.45964342 -0.5856297 0.19488055 -0.26280364 0.72209805 -0.49963716 -0.50415707 0.42581558 0.5246923 0.31264845 -1.4778978 0.4925674 0.05659534 -0.28365058 
1.1674929 -0.40304238 2.8226125 1.9433136 -0.5892301 0.45288813 -1.0947086 1.2508361 1.326496 -1.4731109 -0.1422665 1.2305356 -3.7344954 -0.31117997 0.91359645 -0.04548843 -5.8302054 -0.26626816 0.025425145 0.053664096 -0.09297883 -0.86061776 -0.04815961 2.1043224 -0.1360223 -1.8723783 2.5854614 0.43330985 -2.4097025 0.29229367 0.3658746 -0.29545817 -0.017626718 0.7323139 0.74224526 -1.795549 0.74795717 -1.6482077 -0.6205667 0.33044502 0.31740472 0.28279015 0.56884855 -0.20615321 2.261815 0.46587312 -0.030691648 1.4879519 0.5215551 0.29701647 1.1288571 -1.320083 0.03437005 -2.049654 0.8581178 -1.325007 -0.6327265 -2.0221953 -0.2985797 -1.3206584 1.2920244 0.2564775 0.4210588 -4.8354287 
-0.23752247 -1.812632 0.56076837 -2.5993865 1.3924469 -1.1346024 -4.4407287 -0.6984186 -0.44453633 0.52816385 -0.48200017 -2.2880812 1.4766163 -2.0482059 1.1796372 -0.41771004 1.2972862 -0.71676546 -1.0324681 0.24528217 -0.3500353 0.78172284 -0.51184493 -1.7158177 -0.3512924 -2.1425765 -0.07319466 -0.76892537 -1.8064313 -0.24689746 -4.0117927 -0.3673114 0.26997027 -0.5496861 -0.3376795 -0.12275977 -0.8496785 -0.037970454 0.778301 -0.23291951 -0.56038123 -0.39811274 -0.9012569 -0.855666 0.33441523 -1.5998905 -0.5783785 -0.66445804 -1.9370322 -0.63231665 0.77038455 -1.3252516 -0.026380876 0.2649408 -0.29784778 -0.2720907 -2.5633016 -2.0844355 -0.9403403 -0.35426623 0.03917858 -0.75088805 -0.8031521 -2.8979833 
-0.034890737 -0.46844733 -0.40872625 1.3494455 -2.7403147 0.4055732 -0.83275485 -0.42232576 -0.72368675 -0.5900848 0.12972076 1.0967104 0.8060467 -0.35032156 -2.2313342 -1.8478259 -6.4686937 -1.0216633 -0.10564591 0.6587504 -0.3833842 0.40709096 -2.101621 0.5019053 -0.7006838 -0.8847213 0.11983033 0.055511348 -0.23016256 -0.56983757 -0.7291401 -1.2475197 0.023338577 -1.0820533 -0.2865727 1.0039299 -0.35736153 -0.08450206 -2.4099662 -0.38923597 0.32442078 -1.7369751 0.2227312 -0.7016647 -0.9753664 -0.22617617 -0.30151016 -0.571974 -0.96412253 -0.75741905 0.6214965 -0.20235206 0.32387075 -3.0305753 -0.29711056 -0.3051558 0.49231026 0.10071664 -0.624475 -0.08528546 0.19360451 -0.16740721 -0.8123205 -3.890763 
-0.8673315 0.022035299 0.80663556 -0.7516363 -0.13557142 0.26196453 -0.9902164 -0.5064048 -0.24432379 -1.6754942 -2.0487716 -0.11615597 1.2990834 -0.34186852 -3.7436366 2.2945666 0.50656307 0.21210568 0.7289671 0.4872327 -0.43586105 -0.45041 0.27476463 0.37040496 -1.1267396 -1.9455413 -0.84673315 0.5726942 0.7010794 -0.406655 -1.0992777 0.5990923 -2.1173801 0.15241428 0.016645703 0.65961003 -0.052115925 -1.9761647 2.158283 -0.5701446 -1.1513464 -0.36402136 -0.90139014 -0.77436477 -0.772316 1.045949 0.43288285 1.3553786 0.03510767 0.3824922 0.12132463 -1.4179087 0.85512185 -0.030864514 -0.6009649 2.7643175 0.11186131 -2.8684678 0.8435697 -0.95105606 2.98073 0.6881925 0.49748036 -0.60138667 
-0.4801967 0.25936437 1.0761347 -1.4951812 -0.7900629 0.14029334 1.0988525 -0.46216112 -0.04944166 -2.0097237 0.062266823 -1.0099266 0.20033719 -0.39793214 -3.3193839 0.9228523 -0.6236081 0.9102697 0.2285801 0.08182406 0.055193365 -0.7446869 0.31884378 -3.629446 -0.2928646 1.168797 3.3817286 0.42473033 -0.9828451 -0.4240297 0.26052392 -0.043731425 0.92101496 -0.10605028 0.71866906 -0.3524802 0.3707205 0.7862812 1.1295528 2.3448236 0.061234906 1.7100431 0.42809498 -0.6627041 -1.4045744 0.03118356 0.066311866 -0.9945392 -0.3722735 0.42960832 -1.4169677 -0.9981145 -0.6382648 -1.1153936 -0.2162136 -2.4006908 0.017618079 3.497384 -0.62954617 1.2707897 -3.430152 -0.19896284 0.5337209 0.20505127 
-1.9280921 -1.214635 -3.1088977 -0.34283268 -0.33145583 -1.6693547 -0.47732255 -1.4975435 -0.9900667 -1.4746592 -1.3260542 -1.9269032 -1.0682902 -0.6958506 -0.5927223 -1.1604562 -0.7715558 -2.3300095 -1.7133552 -1.8369874 -0.7608534 -1.2507409 -0.8078411 -0.54980415 -0.70835394 -0.90605116 -1.5527425 -0.7887363 -1.8385757 -0.852416 -1.4086543 -0.80332536 -1.319764 -0.86551565 -0.9603053 -0.8350651 -1.3765619 0.02283273 -1.88095 -1.6585728 -0.96396345 -1.1839324 -0.9070037 -1.1312056 0.27773175 -1.4817529 -1.219401 -1.8837883 -1.6274116 -1.0428168 -1.9166555 0.03302285 -0.98358876 -0.80114096 -0.7655401 -0.01396916 -0.26191834 0.27067247 -2.1766615 -0.82779497 0.21619412 -0.98559386 -1.0508233 -0.89997375 
-0.8509398 -0.038050048 2.2443585 -0.6208404 -1.251785 -0.16283278 -2.114483 -0.13316578 0.24160807 -0.0025667436 -0.968166 -2.1454713 -0.043034397 -0.37318972 -0.11828977 2.1774392 -0.6248886 0.624857 0.81830645 -1.1064409 -0.010787051 1.2528452 -0.51651525 -1.6934874 0.40569296 -2.6918938 0.19470392 -0.4466176 -1.3705204 -0.6986389 -0.11053272 -0.4307891 -2.6976643 -0.6841837 0.41775104 -0.80243605 -0.06415195 -1.8313881 1.3925021 -0.8795713 0.518069 2.0926762 -0.934176 0.2626121 0.47988445 0.060608137 -0.4044965 0.44460475 -0.44078335 0.30501536 -0.5215101 -0.8046037 0.637973 0.011523438 0.5174051 1.0340859 -4.1661787 -0.60569227 2.1291142 -3.256332 1.1684401 0.16466388 0.415711 -2.6725883 
0.0063883564 -0.0068406174 -0.11665728 -2.7951264 1.4141363 0.80088866 -0.4608607 0.12978889 0.20855784 -4.1894646 0.1831573 2.5488067 0.38187194 0.59727603 -0.19061679 0.53147507 2.2084491 -0.015595841 0.40566742 0.36199477 0.16515668 2.6430042 0.3179318 -2.467893 0.09784498 -0.5088358 0.1001354 -0.21350224 0.96527845 0.32224265 -0.8023109 0.02585717 -0.25269672 0.0841375 0.06020198 -2.2130086 0.15173025 0.41712132 0.8309716 0.8922282 0.6794402 0.31722242 -0.21139336 0.5052419 -3.4418514 -0.7001126 0.6679015 -0.6723521 0.02199708 -0.021960812 -0.7458644 0.288014 -0.68541294 0.012580276 -0.4880233 -0.28216955 -0.33913982 1.3474773 -0.35582542 -1.3375921 -2.0621116 0.23476933 0.23428728 -0.18971735 
0.9347037 0.059644576 -2.1369941 2.4205782 3.601292 0.38736114 0.24987608 0.3831795 -0.36964592 0.3535526 -0.054417536 1.4093455 1.318289 0.99065775 0.06395829 -0.2505195 -0.5228086 0.044562366 -0.47371644 -0.082046255 -0.23131698 0.36725077 -0.32180837 -0.76705325 -1.394972 -1.5584332 1.3519853 -0.004233805 -2.3668833 -0.43992475 -3.635594 0.019628027 -0.917974 -0.02841431 0.5322176 -0.20262223 0.23419918 0.45422485 0.9997627 0.74086845 0.62372273 0.20398887 0.7016739 0.23497625 -2.4476435 1.0962574 0.44031355 0.44664 0.40418777 -0.103542596 1.8796908 1.3166829 -0.5317275 -2.0764658 0.71013546 3.9739306 -1.7033918 0.1723705 0.33257055 -1.7085596 1.724037 0.0011946062 -0.026453836 1.2926825 
-0.08504523 0.23309411 -0.08285656 -1.4994735 1.215943 0.14902428 1.5627578 0.280658 0.090503134 -1.6729213 -0.33622992 2.3001933 -0.45557743 -0.08854852 0.6596398 0.04834471 0.8745449 0.66969854 0.08069199 -1.211992 -0.32013404 2.6251683 -0.28682917 -1.3573318 0.74023426 -2.3299255 0.6678532 -0.071961924 -0.083076805 -0.092869125 -1.8988563 -0.46562022 1.000088 -0.04217452 -0.2321547 -1.7609519 0.23502451 3.115512 0.4555247 0.15071668 0.43435377 -0.023377566 0.04311456 0.11998474 0.6461844 -0.13984449 -0.8647003 -0.73349655 0.11652822 0.52359045 -1.3594958 1.9034408 0.15158004 -3.8959076 -0.42945653 -0.23906723 -0.8307136 0.73735845 -0.57536983 0.045740873 -1.6531318 -0.06718999 -0.07161256 -2.955019 
1.0079237 -0.2832365 0.014347455 -0.7337844 2.3767962 -0.48720363 0.7228458 -0.9303119 0.0060689435 1.1052086 0.79007417 -0.01981337 0.5684285 -0.12635334 -1.2878388 -0.66234934 -1.0245907 -0.71958256 -0.3832071 -0.3128702 -0.19689424 1.817617 -0.8574937 0.024168404 -1.1286728 0.3141719 1.6645149 -0.6475585 -0.77230465 -0.8013562 1.5420015 -0.51577353 2.016377 -0.8618487 -0.98899305 -4.327797 -0.31158715 -0.36203167 0.17228964 -3.6573658 -0.120721504 1.0013549 0.21213244 -0.52294445 -0.017752586 0.3985942 -0.23381495 0.3982563 -0.3595202 -0.34060252 0.27044368 -1.3660203 0.773868 -1.9006823 -3.5931416 -0.004399945 1.1401359 -3.2277951 -0.24282432 -1.9655182 2.510291 -0.8881232 0.101757444 -6.5877237 
1.3732364 -0.086698204 1.1451201 0.46917996 0.5286568 -0.51970345 0.90773934 -0.50219095 -0.28366297 1.1067779 -0.22069363 3.6331716 -0.43427283 -0.2822376 -1.9008881 -0.70814025 -1.2313421 2.918887 0.37888867 -0.5402831 -0.1368673 -1.8329551 -3.3990114 -2.1206765 -0.90746194 0.17897518 -0.77182573 -0.58043545 2.0948055 -0.31323814 0.7101536 -0.39971888 -0.47898188 -0.91046 -0.69242465 -3.0974374 -0.45083612 0.24321583 0.04829852 2.212462 -0.18359613 0.59743 -0.8113806 0.023846457 -1.3565632 -0.47865355 0.38150105 -0.015284017 -0.017275384 -0.21727785 -1.8715903 2.9177682 -0.80583245 -1.0086355 -0.7992941 0.502383 -0.84469444 2.565937 -0.7139607 -0.671077 -1.8273113 -0.08097357 -0.4430407 2.867862 
-0.11580595 -0.25870496 1.080706 0.80318147 2.7903981 -0.42218542 1.526294 -0.25954896 0.011548218 -1.4052013 0.75782275 0.6209691 0.2553468 0.37035927 -2.2257159 0.68734753 -1.0954813 -0.4158014 -0.13386005 0.17618823 -0.09626039 -0.7354128 -1.0202404 -2.8333342 0.22294171 0.30351824 3.6555245 -0.3640616 1.256923 -0.44510132 -2.6268086 0.028617093 2.4640822 -1.4253234 -0.20108102 -1.5275682 -0.11111722 -1.0513493 0.33537298 0.12572616 1.0347774 0.85250914 1.6420481 -0.56245726 -3.6930528 0.12275497 0.5066484 0.073465414 1.9920536 0.05651153 0.67216235 -0.2896564 0.14069325 -2.8857117 -0.11857388 -2.7938547 -5.360386 -2.6066055 0.23451899 -1.3127867 1.7729813 -0.062693216 0.07171781 -1.0319844 
-0.83883095 0.54034495 -0.4308465 -0.7160559 2.0496168 0.25743183 0.4131773 0.6782543 0.34281957 0.8993667 0.094427995 -0.11914749 0.3694125 0.28086334 -0.9362431 -0.29913524 -0.7180032 -0.33091626 -0.4377925 0.83742434 -0.67645043 -1.9863249 -0.037543263 -0.49612364 0.23577148 0.64751184 0.5587051 -0.38036484 0.14691348 0.33496264 0.25727868 -0.18165882 -1.0385488 0.9245652 0.3460951 -0.8912238 0.038372822 -0.0883184 -0.44861346 -1.4048679 -0.17825112 0.092492774 0.30812356 0.12607025 0.90708166 0.82213503 -0.22161856 0.529947 0.30310404 -0.25848353 0.3814278 -0.5231495 1.4961244 -0.49482653 0.3208737 -0.52351195 0.758697 -1.6309261 0.78145784 -2.931839 0.4341538 0.4314544 0.25558993 0.15621589 
-0.46603233 0.29074195 -0.79307175 1.059548 2.3264844 0.27395022 -0.922199 0.62850595 0.33991736 0.3740319 0.117073715 -0.31218293 -0.7026162 0.76381683 -2.3102493 -0.986437 -0.77437913 -0.8631071 1.8439845 -0.5996081 0.2274858 0.07386263 0.8732405 -0.96598405 0.023947874 3.556722 0.49241522 0.51764464 2.1346023 -0.59498847 -0.23871873 -0.25394014 0.6251375 0.16100433 -0.016674988 -1.4331806 0.44228944 -0.34148148 0.41794762 -0.41814366 -0.4696151 2.0782292 -0.1545945 0.17191438 5.0134845 0.97256964 0.994868 1.2560725 -0.008802316 0.799939 -0.32456663 -2.0877144 0.0900697 1.1039219 1.2832942 -0.24488254 0.17052591 -1.2616949 0.50045276 -0.7237509 5.7395988 0.4490968 0.5153884 2.1746323 
0.8751537 -0.1640375 0.7825252 3.027418 -0.46297365 0.5318383 -0.691176 -0.23115666 1.1917756 0.3092461 -0.4254749 -0.75245786 0.55061656 0.41261843 1.7768581 -0.37104324 0.611227 1.0564257 0.19164269 -0.2719647 0.4278273 -0.7479062 0.23840532 -2.5841057 -0.14668657 -0.30995503 1.9577801 -0.058002453 0.35077506 0.38658825 -0.0798315 -0.18225554 -1.9283388 -0.35071194 0.682087 -0.74252313 0.40700254 1.7279799 2.4604177 1.2837694 -0.29045817 0.29725537 0.2858812 -0.0406827 2.159368 1.093124 -0.7154846 1.4325091 -0.24645135 -0.054941878 -0.3463041 -0.3301779 0.20389138 -1.0440454 0.3354173 0.7437163 -0.6520513 -1.0309453 0.586007 0.9812331 0.8961469 0.057653926 0.32454857 -1.1967361 
-0.05252381 0.48803487 -1.2465155 0.90611124 -2.8046653 -0.4014337 1.5316888 1.5510907 -0.16831455 1.0055133 1.0118455 -1.1019287 1.4992397 -0.9900872 -0.69597816 -1.6718059 2.0287728 0.3188009 0.47362432 -0.5885073 0.18833126 -2.8784032 0.48437014 -4.355322 0.090653114 -0.46774143 -1.8000757 -0.8324806 2.2211916 -0.44301277 2.209864 0.088292785 2.60485 -1.0311041 -0.4338159 -0.27670547 -0.26512006 -2.7087266 2.2388966 0.3943723 -0.3004162 -1.5906162 1.141383 -0.36931568 -2.8070006 -0.011806844 0.07919788 0.20582995 1.2692674 0.1016773 0.28874266 -2.1220548 0.17027044 -2.4502213 -0.588133 -1.4652777 -2.620068 -1.5962496 -0.56541175 0.10335763 1.8145834 -0.6879684 0.4790802 0.9000492 
0.434582 0.17251597 1.493676 -6.5829387 3.8895073 0.6647591 -0.24386552 -0.12427337 0.3465268 -0.5868972 -0.8494653 1.1682646 0.48101914 0.9270314 -1.2997061 3.4873104 -1.4695612 1.4138764 0.16067927 0.6023641 0.92812777 2.5116134 0.10725658 0.7434103 0.19274035 0.3082414 -1.4015651 -0.5779045 3.4415352 -0.32944983 0.52338624 -0.47753033 0.79718304 -0.1707506 0.50717545 -3.1184125 -0.10475911 0.71626335 -0.59323984 0.09020533 -0.2850629 0.06576851 -1.3305998 0.108489916 -1.2764677 0.23978479 -0.41689894 -0.22274168 0.3697276 -0.0023727051 2.555889 0.055283435 1.0821965 -0.5302513 0.016591702 -3.3193295 3.0080757 0.42537197 1.0911224 1.0477617 -4.0647726 0.48422846 0.14237617 -2.4369166 
0.6380712 0.75354034 -0.42146873 0.52877694 -0.9039647 0.5164098 0.98083854 0.05365603 0.74882084 0.17974302 -1.1916177 1.2406607 -2.7348404 0.23113345 -1.4189167 0.7895379 0.58943003 -0.08857224 -0.055732306 0.049888667 -0.35898986 1.8157017 0.52370703 -1.0558553 0.786198 -0.7397232 0.29455033 -0.40159366 1.663057 -0.40274334 -0.052275207 -0.59000003 -0.85669756 0.6199394 -0.07865232 -2.0319932 0.2557715 3.1922238 1.8055371 0.2722739 0.09379901 0.75651157 -1.200248 0.5880377 -0.6091768 0.16674559 0.65294087 0.11213972 -1.389012 0.21916145 0.9662171 2.193777 0.8238006 0.022585008 -0.26599354 2.3815627 -1.8449215 2.010682 -0.7523034 -0.80399144 -1.8297077 0.20132826 -0.036239937 -1.0075016 
-0.18298763 0.5011674 -0.5471588 -2.2252393 -2.5321205 0.31045118 -0.019310294 0.5560081 0.98235774 0.56698525 0.25243476 0.6300096 -1.7717406 1.0011426 1.1220313 -1.852744 -0.77636755 1.4087425 0.8370645 -0.44562298 0.31745902 1.0478631 -0.16216275 2.6242993 0.996321 0.1904214 -0.45122176 0.73387414 1.0598036 0.36245108 -0.48547083 0.39632395 -0.778163 0.39266232 0.28475335 1.3195053 -0.53755176 0.5446104 1.7805551 1.8673154 0.6297183 -0.39140087 -1.5912671 0.70410734 2.1659563 -0.97956073 -0.17711158 -0.06027227 -0.12458639 0.807037 1.5502969 2.5325038 0.30647454 0.0068574124 -0.24322316 -1.7112838 -0.0067461906 2.3430083 -0.042855687 0.057958376 -1.0083352 0.39527953 0.5277342 1.4818984 
0.012092347 1.003681 -0.8545691 0.10072392 -3.6603374 -0.17791656 -1.367071 0.10855089 0.4912472 -0.8758398 -0.5015171 0.75750095 -0.4463143 -0.058456983 4.200444 0.58967423 0.8397201 0.99303824 0.6568431 0.29447177 0.1065839 0.28908712 0.51185596 1.3885324 -0.280279 -2.0862164 1.6941174 -0.48783413 0.90092283 0.22078815 -0.12488597 -0.17198242 -0.24124646 -0.5043335 0.45474625 -0.041951027 0.045983102 -0.94044477 0.50921637 1.5069747 -0.07914762 1.0939894 0.2937702 0.50344926 -1.0588738 -0.033248994 0.39115795 0.22685681 0.07434647 0.5022984 -1.0949237 -1.7539383 -0.62148476 -0.95534456 0.026649985 0.34604618 1.8503307 -2.4697132 -0.7175467 0.6790522 2.5391731 0.16304894 0.5838276 -1.7617208 
-0.35944122 -0.2263342 0.746446 -1.1682112 -0.8879742 -0.36494675 -1.7025563 -0.5463382 -0.9079299 1.9743713 -0.09262836 2.530766 -1.9669274 -2.5085897 -2.7571201 -1.0322114 -0.52758443 1.204793 -0.57849854 -0.6270616 0.24678944 1.4984813 0.36379042 -2.44385 -0.30941722 0.2845198 1.029862 -0.30929786 0.22206362 -0.539902 -0.0032004344 0.7050636 2.999056 0.08287819 -0.6635558 0.04817134 -0.8924847 0.05270964 2.6745212 -1.2847687 -0.4631558 0.55828357 0.23994297 -0.45890284 -2.7146096 0.7431211 -0.14602761 -0.34548852 0.85657114 0.039905738 1.1099719 2.2800977 -1.3924699 -3.3834147 -0.9261095 -1.4467095 -1.3106962 1.8893602 -0.7946454 -0.3900274 -1.2460957 0.22771966 -0.6781293 0.39173275 
-1.0599136 -0.3054601 0.111214094 -0.010032796 -4.789088 0.021267522 3.527422 0.97869104 0.120482765 -0.3907191 -0.8131614 0.17246167 0.034686 1.1654984 -0.5701607 2.33866 0.11781382 -0.6389813 0.5010264 -0.022684269 -0.23806311 -4.9843597 -1.6527731 -0.94992244 -0.81791973 0.37782776 -1.6035068 0.4673629 -1.3494936 -0.65585864 -2.3240469 -0.6352339 -1.6964885 0.03727188 0.25666514 0.5159413 -0.5465612 3.0915427 -1.0586563 0.3510643 -0.12958774 0.15514822 0.32975027 0.5096397 -1.6625277 0.6498638 0.17573678 -1.2123035 -0.54928005 0.05165991 -0.42269313 -3.3221376 -0.21642272 -0.9172539 -0.08747114 1.4276941 0.4276745 -5.3320303 0.9253618 1.9992082 2.4344058 -0.2742481 -0.016279314 -2.2935274 
-0.1458942 0.42119363 -0.11738224 -0.7640084 -0.5875369 0.33536234 1.1720947 0.19900963 -0.14270942 -0.05712549 -0.35090643 -0.14744586 -0.7304622 0.7930297 0.06408143 0.6213452 0.24338564 0.33793932 0.6264306 0.62206924 -0.23859562 0.58568555 0.14097679 -0.035117213 -0.35899252 -0.052995346 0.4293794 0.41832608 -0.16617417 0.40565926 0.4607274 -0.23389071 0.34569302 -0.035775088 -0.41650915 -1.538028 0.26183525 0.7714697 0.6721094 -0.333098 0.031418283 1.0872111 -0.8163912 0.009558425 -2.3419979 0.44290417 0.04610617 0.6637776 -0.51550066 0.65514046 -0.6331768 -0.92987823 0.7264096 -0.42318153 -1.1694485 -0.39623785 -0.24006318 0.0024410095 0.19958772 0.1879766 -2.4141786 0.5436184 -0.021770388 0.3916708 
-0.9041478 0.17108749 0.9527453 1.4636937 -2.752293 -0.60818976 1.0802789 -0.8018191 -0.29697508 0.14003016 -0.2908897 -3.0556393 -1.9537845 -0.7587009 -0.5018008 -1.0534987 -0.39753658 0.3521721 0.117158934 -1.4220687 0.03315183 -0.62896264 -0.21409063 1.03216 -1.3526882 -0.36670312 0.34391892 -0.7988255 -2.6100285 -0.28383234 -4.017284 -0.08379518 2.2887723 -0.7588575 -0.60140294 -1.1166571 -0.5450417 0.22460061 1.4999923 2.806141 -0.74950486 0.4653636 -1.676129 -1.1710851 2.9420538 -0.12428969 -0.6956712 0.41979975 1.9237894 -0.29224285 -0.37596062 -0.116624415 0.81311727 -1.644173 -0.586699 -0.44638458 -4.9698124 1.2497393 -0.5336404 -3.6950545 0.5659221 -0.3101457 -0.065977864 -1.1882261 
-2.485124 -0.13518324 -0.806194 -4.32278 2.3207185 -1.1127012 -2.3958867 -0.28517586 -1.2122704 0.67831093 -0.22342229 -0.13478602 -2.6983395 -2.526975 0.63202053 -0.6527417 1.1570106 -1.7512258 -0.80640423 -0.43720734 -0.39211988 -0.80266523 -2.8212125 3.7385304 -1.4817832 -2.2708542 0.86779094 -0.6270164 2.1008942 -0.93426293 -3.829498 -0.12144816 -0.4259513 -0.28746682 -0.027083613 0.15188129 0.12435429 0.74854416 1.0450925 0.90258896 -0.20024683 0.59015405 -0.08305704 0.20235372 -1.513084 0.24059923 -0.40982935 -1.1543404 -1.2315172 -0.56787694 -0.12156972 2.2706294 -0.8533142 3.9782538 -0.68184066 -0.90257376 -5.6937647 2.5397005 -0.2070003 -2.1151931 -1.3002794 -0.54227984 0.057976414 2.3043156 
-0.20806393 -0.40895405 0.44245088 0.4174392 -1.0779201 0.1538402 1.3137503 -0.5049289 -0.42244956 1.5698564 0.72314465 -0.06613813 -0.5770326 -0.14978477 -3.2923298 -0.30792847 -2.8570423 1.254473 1.1115963 -0.6316737 -1.0653722 -0.60198075 -0.7610551 3.0080054 -0.042092267 -3.1822157 -0.23479597 -0.04094384 0.39089918 0.081878714 0.54533803 0.80792195 1.431183 0.04461454 0.518007 -0.5417279 0.3030751 -1.3050508 -0.72060335 -0.8041289 -0.3224871 -0.42156333 0.48077208 0.2986505 -2.205493 1.0827522 0.31860673 0.10156683 -0.50177807 0.15683404 -0.5989527 2.5013502 -0.3033448 -1.8718661 0.36641085 -2.18062 2.1210973 3.6127405 0.8077045 -0.23826359 -3.449449 0.7244039 -0.16788311 -2.9850028 
0.27021596 0.22319332 0.31328294 -0.6230563 -0.14068002 -0.33604655 0.47577402 -0.4632538 -0.0059624733 -0.58320194 -0.2287727 1.6044323 -0.40790704 -0.08166079 0.7896818 -1.7260239 -0.9435333 -0.84506375 -0.1168569 -0.52932477 -0.15514146 0.2573833 0.67173994 -0.7610602 1.107077 -2.5208247 1.4956461 -0.73482716 0.7465483 -0.05828958 -1.2559247 0.23035812 0.73872536 -0.58107865 0.37122238 -0.9578794 -0.036555946 -1.5005214 0.30356893 -0.94802934 -1.0536733 -0.27213407 -0.21038924 -0.45426422 -3.2428257 -2.1722772 0.0860206 -0.9614527 -0.1477118 -0.050019637 0.57462925 -0.5916967 -2.0037236 -0.92176974 0.25115454 0.095980994 -2.5875247 -0.14429392 -0.49457824 -1.4910284 0.20035774 0.1907268 -0.10836187 -0.07054052 
0.42921275 -0.2265114 0.94712484 -2.5504162 0.7682247 0.24610116 -0.04546577 -0.44738632 -0.41950312 0.9631293 -0.21952958 -0.7216357 -1.0172708 -0.574781 -0.48889518 -0.022299813 -1.3997998 0.15666015 -0.93647873 0.19196935 0.10321782 1.6402478 0.23524217 0.21437852 -0.002352553 -0.15567644 -0.2872098 -0.81706035 -1.59455 -0.5098168 -1.8048722 -0.181961 -0.64572567 -1.5711851 -0.71756977 -2.2607534 0.26223847 -4.349624 0.4769452 1.3345778 -0.30843046 -0.52991325 0.3935129 -0.1489559 -1.5082637 -0.31791577 -0.74581045 -1.3759097 -0.19343936 -0.4741307 1.7123611 1.8771099 -0.101301715 -0.5202761 -0.72340494 -0.75013494 2.8214192 2.975909 -0.37144864 -0.15395856 -1.5969968 -0.34198958 0.1678568 -2.763709 
0.31301764 -0.8404108 0.3580861 1.8673716 -1.7685559 -0.18142965 -1.111054 -0.0009901273 -0.18528634 -0.051325366 -0.33514416 1.9001547 1.3472525 0.035875343 1.4903907 -0.10766842 -0.8160452 0.8914242 0.8179849 0.5829654 -0.7272474 -2.9521968 -0.34379965 2.8784323 0.4095184 -0.0650559 -0.68550533 -0.44755065 0.023982842 0.034447238 -0.6008633 0.07511624 1.225819 0.12534651 -0.10786773 -0.18750899 0.43346345 -1.0606718 -1.3296645 1.5764357 0.38786626 -0.186952 1.8401603 0.24232432 1.0803155 -1.2377831 -0.8705345 0.43679643 0.18533657 0.22521791 -0.19514336 -3.037535 0.4563202 0.31758893 -1.156247 1.6710304 -0.18656257 -3.397784 1.3229314 -0.69433326 3.666362 -0.3017677 -0.28508544 -1.4081751 
0.16739799 -0.752282 -1.6596406 2.1141298 1.5047798 -0.34685066 1.375485 -0.42724323 -0.5395105 -0.3798687 0.47953758 0.6746557 -0.6202718 -0.3816786 -2.0246654 -1.4093932 -0.1539759 0.6578125 -0.355452 0.25804597 -1.0787568 -1.4248028 0.24889103 0.4855571 -0.7476578 -1.5880347 -1.6959664 -0.31848556 -0.5934735 -1.0777423 -1.028435 -0.560734 -0.94221514 -0.032036725 -0.7081569 -1.3838927 -0.39593932 0.28396064 -1.8089118 -2.207842 -0.3210861 -0.78467095 -1.9466859 0.19495088 -1.9496654 -0.60662365 -0.84813553 -1.840861 -0.082006335 0.059052207 0.6666049 -4.308658 0.5164814 0.06904461 0.18522884 -3.0576682 -0.6023892 -1.1882137 -1.2775667 -0.5516597 -2.789643 -0.5064669 -0.5772145 -0.14885241 
-0.53320736 -0.43724185 -0.26462394 1.2003578 -0.375404 -0.34267226 0.43727875 0.09901185 0.9276085 0.41860664 -1.150942 2.8568995 0.04312715 -0.20201072 1.5982162 3.3039815 -0.63283485 0.8848948 0.51819336 0.05177643 -0.8976548 -1.7340599 0.37235993 2.1228087 0.48354903 -0.48378342 1.1892741 -0.35525888 0.1618854 0.3969325 -0.89381677 -0.16486636 1.3563802 0.61291677 0.31043082 0.9095549 0.17201702 -0.8259953 1.789092 -2.0072052 -0.019860214 -0.017668875 0.8452661 -0.06383222 0.18653777 -0.40919626 0.31112185 1.6242666 0.014720443 0.10852086 -0.34441707 -1.9716594 0.7832752 0.56412745 -1.253465 0.0020576408 -0.35307154 -0.5335085 -0.33643702 2.389498 -1.7127436 -0.48326954 0.037576463 -1.549831 
1.3314209 -0.3287738 1.1084542 -0.27943796 -0.59950435 0.4954373 -0.08311913 0.750568 -0.40748966 -0.5843492 0.26969266 -1.3598655 -2.1381211 -0.59630007 0.1084884 0.32443693 0.70384127 0.0029366717 0.990892 0.2245642 0.070296966 0.58874863 -1.0825272 1.3602203 0.31361035 -2.6002119 -1.3561985 -0.39582208 1.6399188 -0.17052722 -0.5416014 0.55512756 -1.4552699 0.057392046 0.16045375 -2.1241267 -0.20591189 -0.54480916 -1.1236732 -0.34863746 0.53046167 0.1178303 -1.3020215 0.03333168 0.12178057 0.20537496 -0.027564975 -0.010043271 -0.65333897 0.30028298 0.32667273 1.8531426 0.23760512 -3.5135658 0.45313764 -0.6740307 -2.3957267 1.4310286 0.013531937 0.00971114 -0.6152196 0.73718786 0.23010089 0.40683743 
-0.22538263 0.18773483 0.8455593 -1.7788632 -2.8855069 -0.7060926 -1.5422771 0.004767613 -0.36466372 1.1043463 -1.1344268 0.7828211 1.1988248 -0.9861771 1.9157538 -0.14444469 -8.242309 1.0968524 -0.38158223 -0.4028767 -0.2620268 1.5714183 0.12270478 2.261069 0.51545376 -2.2962523 1.3417944 -0.0045743347 0.48930395 -0.36649102 -3.5248842 -0.09747017 -1.8265896 -1.5365115 0.073773734 1.9690845 0.19402465 -3.7569988 0.8545059 1.0677366 -0.5661972 0.13607343 -1.8596146 -1.4538144 0.0026939162 0.54436606 -1.0117908 0.5245289 1.4957999 -0.34832332 0.16101776 0.84873074 -1.3070401 3.4406657 0.28233457 -1.1403614 -1.8633671 0.8811737 -0.8944011 1.7858291 -1.0734954 0.060024068 0.29949418 0.33254173 
0.100608215 0.3045896 0.56462204 0.5619261 -3.3417332 -0.29630032 0.017491752 -0.22148718 0.34316853 0.60449785 0.53779703 -1.2815697 0.21373773 0.6114998 -0.29296547 -1.6498289 -0.42246056 -0.0023790856 -0.42928597 0.35121056 0.30975172 -0.92575926 0.25597334 1.2366827 0.36215964 -0.2644354 0.56150144 -0.08252053 -0.14497365 0.38382727 -0.7414558 0.21569824 -1.8437557 -0.5596216 0.2680385 -0.65334815 -0.18968885 -1.2489476 -0.08332705 -1.6362115 -0.058069818 -0.256784 0.34323755 0.7222202 -1.8687968 0.16302952 -0.4851011 1.9020405 -0.20508164 0.01870041 -1.1723007 -0.5345477 0.16421893 1.37284 0.29517847 1.8505119 1.524366 -1.3760076 -0.8796281 1.2347006 1.6855963 0.38487473 -0.0122485645 -0.18603522 
0.07281905 0.32674325 4.0768905 -0.39002275 -0.8863626 -0.28903362 0.03856794 -0.11379197 0.31662944 -0.44650742 -1.3864961 0.63423866 -0.060665026 0.26832643 3.7158058 1.0414796 0.4378236 -0.22803593 -0.44280124 -0.20287143 0.59079826 -0.78934395 -0.15989926 0.8009609 0.019625572 -0.019127795 -0.19230816 0.6242963 -0.8969491 -0.32005274 -1.3114431 -0.1750327 1.0748876 0.27183157 0.060001135 1.7989159 -0.6179789 4.1290727 0.538716 2.2296145 -0.26944152 -0.6423492 -0.009468656 -0.9375394 1.4365746 -0.44027892 0.19822097 0.44911757 1.3103248 -0.0047424184 -0.62386525 -1.9017128 0.10656007 3.9837182 -0.5638711 -0.63438326 2.4356105 -5.0725827 0.9168001 0.91780657 1.785821 0.020554021 0.2870031 -1.2560223 
0.16770628 0.024043033 1.2157435 -0.6503147 -1.6988884 -0.017665278 -0.047798898 0.43346107 0.26885003 -0.5745312 -0.063487135 -1.2226151 0.488498 -0.51124114 -1.0778913 0.5067734 1.0540632 0.056077268 -0.644946 -0.45076606 -0.07462251 -0.74988836 1.649405 3.0963056 0.1940103 -0.40068075 0.023480034 -0.49001038 1.1726569 0.1878717 -0.1231178 -0.66122997 -1.993165 -1.6558428 -0.09646622 1.5236197 -0.717349 -0.5659652 -0.73382556 2.1196754 0.18324217 -0.8794672 0.75203395 0.0002544043 -0.11807582 -0.09151423 0.2704468 0.776303 -1.7723262 -0.84203404 -0.21391761 -2.8603513 0.7810334 0.614345 -0.13437326 1.4629122 2.2984364 -4.3723726 -0.40125048 1.198034 3.3424377 0.22298141 -0.27857873 0.12535772 
-0.5049126 -1.1453319 -0.48142365 -2.8807375 -1.2369328 -0.865274 -1.4165972 -0.23115359 -0.31199202 0.7859727 0.020350618 -0.3300233 -1.0344536 -2.3458264 0.27524534 -1.8106562 -1.4530369 -0.053036023 -0.69409 -0.15115935 -0.042374343 0.1676421 -1.9212085 -1.514857 -1.2258416 -0.8874691 -0.89793265 -0.028227706 -0.4267014 -0.38166302 -1.6463958 -0.4967954 -0.26963237 -0.66706747 -1.0918868 -1.1331464 -0.93331337 -1.7022716 -1.236952 -0.7742436 -0.4112516 -0.52910125 0.52347404 -0.37392777 -1.0545481 -2.1374202 -0.3703366 -0.124387115 -1.3726785 -0.9973185 -0.9620866 -0.31429937 -1.387147 -0.29698732 -1.2740527 -0.042706266 -0.96244335 -1.071608 -1.5011203 -2.6954377 0.04905294 -0.30945367 -1.3952452 -0.38033926 
-1.2891542 -0.29856515 1.290562 -4.837195 -0.83297217 0.26465708 -0.6066352 -0.0028414242 -0.41775608 -1.1092153 -0.5933597 0.57493454 1.6920646 0.0563074 2.669585 1.6790026 -1.2761806 0.9461145 1.075488 -0.35157874 0.47167483 -1.4271095 -0.6198816 -3.6830099 -0.79339963 -0.45011833 -0.8483179 0.31492108 0.9202077 -0.045344714 -1.9705626 -0.21970887 0.32243323 0.75765234 0.31372684 -0.44951907 -0.60117054 0.7783996 1.2799574 -1.234522 -0.2983824 0.72562444 1.1072359 0.41174078 -1.8109628 1.9388971 -0.3768134 1.2744762 -0.8608527 0.63520086 1.1349707 1.2513194 0.27763307 2.103961 0.52713746 0.19848582 2.4203408 -0.024784472 1.766411 1.2416458 -3.7462423 -0.105554916 0.41121703 0.8540246 
0.6794995 0.06526703 -1.0085417 1.0654011 1.5871623 -0.6104735 -2.1472971 -0.7876873 -0.21994261 0.60557497 -0.24942994 -1.0391089 -0.23028189 -0.4023571 -1.0301467 0.28226534 -0.43250233 1.455087 0.010353062 -0.42053476 0.07392851 1.8585219 -0.22480217 0.103434555 -1.8998636 -2.1833756 0.30467144 -0.23281564 -2.3767061 -0.07474075 1.1930447 -0.89861846 -2.372442 -0.49615648 -1.2896914 -0.55870754 -0.69674975 0.28564382 -2.0462902 -3.5821486 -0.30375224 -1.364737 -0.43542656 -0.2546865 0.39694223 -0.90215087 -0.27572843 -0.36276445 0.38405752 -0.69847053 -0.39015722 0.60897785 -0.634669 -3.5978496 -0.20725329 -1.0790547 1.3777256 1.1778761 -1.8414233 -0.642148 -0.94333863 -0.68414223 -0.56257105 -1.6393481 
-0.46786225 -0.23538518 0.45929366 -3.605755 -4.1184754 -0.5201051 0.35465875 -0.04705461 -0.35769 -2.3203049 0.20836653 1.9809666 -0.79916936 -0.16231248 -3.3171635 0.7688105 -0.87338114 -0.8364573 -0.18129836 -0.11032317 -0.17574155 -1.2333499 -1.3102645 2.3314514 -0.5755364 -1.7206501 1.554459 -0.3861087 0.7195738 0.0048637646 0.123382755 -0.09241332 -1.6669073 0.48666736 0.29029372 0.42079312 0.23161258 0.84742147 0.8938621 0.42038125 -0.0070894593 -1.0564175 -0.8878195 -0.3834976 0.8516684 -0.614388 -0.22062823 -1.0384679 -0.9960383 -0.29441118 -0.24428265 0.5105682 -0.298543 -2.225157 -0.7483642 0.21415676 2.0082564 1.1811357 1.0194201 -1.6968857 0.115517385 -1.1424999 -0.6293062 2.1607378 
0.57016325 0.6138987 1.3430831 0.9359985 -1.4064454 0.4621615 -0.45521283 0.543917 0.026740504 0.73051286 -0.06205194 -0.060052153 -0.18822865 -0.34312993 0.60774916 1.130762 -1.5443647 -0.48113912 -0.63574636 -0.097515635 -0.14559932 -3.3716884 0.3655881 -1.6540185 -0.89454204 3.325254 2.326464 -0.10158315 0.12744279 -0.34466946 -0.8645568 0.0023010764 0.56273454 0.2498995 -0.3587699 0.7462024 0.13419749 0.63647485 0.19419429 2.1057389 0.5645124 -0.37095076 -0.0041615493 0.12303369 1.5448829 0.3956338 0.6900763 -0.70100117 1.7583488 -0.08225903 -0.41861844 -0.24686825 -1.0760607 0.33977664 0.5781929 0.80050164 -2.4383075 -3.0410507 0.8356532 1.4113082 3.8887541 0.6583314 0.50803006 -0.551082 
-0.025344053 0.073880866 -0.30465367 2.936502 0.5924925 0.4863924 -2.1175733 0.2325651 -1.0073649 0.05866516 -0.11505847 -0.16739629 0.47338015 0.4448908 -1.211699 -0.15204036 -0.27589533 0.8136936 0.3912767 0.7511321 0.13626313 -1.5727986 -0.61775446 -0.026730007 -0.47731456 1.3444562 -0.6654491 0.4924428 0.023547918 -0.11920899 0.9122383 -0.13604851 0.41778082 -0.20379013 -0.30699506 2.0187924 0.16559865 -0.32963187 0.41982764 -0.50009316 0.5898382 -0.008807038 -0.7366403 0.18739344 2.8182085 0.08529594 -0.067524575 0.32124928 -0.20705298 0.17120878 1.0322645 -2.3753963 -0.5333429 -1.4127107 0.4106651 -0.2967446 -0.567996 -1.6094574 0.085528985 0.47900084 4.601056 0.08558815 0.014788868 -0.6581669 
1.156285 0.07294753 1.0313643 1.1146606 -0.526796 0.72137785 -0.9058275 0.04477772 -1.0492891 -0.7136741 -0.4927114 1.3418396 -0.26799446 -0.4033466 1.237719 0.6701086 0.44529584 -0.73904574 -0.4560666 0.40599573 -0.18845543 -0.14549918 -0.69993854 -2.6746306 -0.05334911 0.34969574 -1.3959286 -0.36695445 1.5605501 -0.3771569 -0.39141306 -0.51849216 0.8852493 0.35800162 0.06229679 -0.28022692 -0.16489968 -3.6368513 1.2750006 -0.389654 -0.03172831 0.13809209 -0.6550026 -0.60137814 0.852168 -0.30855936 -0.24959782 0.034763873 1.4894489 -0.359909 -1.7058963 -0.34407318 0.7669143 0.7261915 0.41693422 0.1859669 -3.5090373 -1.1708468 0.13500606 -2.2110715 1.3790697 -0.6461638 0.12670606 -3.614298 
0.19373982 0.5901975 0.33433726 -0.97240937 1.0019783 -0.51866376 -0.8706181 -0.6926579 -0.68111473 2.8882346 0.4831018 0.20811816 -0.7440551 0.2199389 -5.302179 -1.0016031 -0.043374863 0.53716266 0.19629216 -0.21689992 -1.930206 -4.125283 -2.270593 1.3897849 0.76877975 0.009830389 0.037527774 -0.0066620302 -1.0608248 0.115125045 0.3180895 -0.35808116 2.9005542 0.29037952 -0.5385123 0.9606705 -0.9796617 1.7539278 1.2575072 0.20793892 -0.8267507 -1.1955724 -0.3302981 -0.29773578 -2.5958107 -0.20169148 0.73697793 -0.43443435 0.7868742 0.16979782 0.11377095 0.15892118 -0.07267494 1.0180674 0.44620267 -2.7253773 -0.0006022686 -3.6669323 -0.10366697 0.11021864 3.3090622 -0.11519884 0.14371055 -2.3881557 
0.010865779 0.03890716 1.3142942 0.1353007 -1.1896712 -0.09172219 -1.4832393 0.29742503 0.3276378 -0.90663505 0.40907136 0.4701179 -0.9086052 -0.360932 4.2036633 -0.78264207 0.9273812 0.018431002 0.23278563 -0.6128363 0.21330549 -1.073636 -0.43374184 -0.7160937 0.6761308 -1.1403538 0.09482239 0.10333447 0.7100239 -0.08028494 -0.75629306 -0.16183782 -3.1984532 -0.6484259 0.25766456 0.36510822 0.30361444 -1.4271384 0.0046752165 1.7428509 -0.04597249 0.6805572 0.8502888 0.23986946 4.091674 0.2977002 0.6413862 0.015644623 0.21046466 -0.37736917 -0.85826033 -1.3172584 0.584064 0.090588205 -0.022309273 -2.6902258 -0.6513091 -3.2956772 0.29080644 0.69582206 3.050802 0.025356242 0.5306359 -2.3418899 
1.5391932 -0.34693107 -0.124931306 -0.079369314 -1.2075833 -0.080043346 0.24913053 0.2758879 -0.027748762 -0.60311055 1.4972769 2.86578 0.97943276 -1.3958305 -2.8570251 -0.5362169 1.5099244 -0.3259748 -0.56692946 0.40447333 0.34142527 1.0806154 -0.34681028 -2.221774 -0.48558095 -2.8054225 0.7361982 -0.02018893 0.12779632 0.26640114 -0.84563524 -0.013607081 2.1365767 0.29166505 -0.30647552 -1.6639488 0.37777886 0.7013157 -0.48699057 0.97312015 -0.018953921 -0.48442078 0.27986208 0.3392684 -1.476871 -1.4585301 0.38504982 -0.11706805 -1.5749332 0.17233281 -0.5946506 1.7538983 -0.42195767 -0.5678509 0.08560077 1.3069986 -2.5933871 -0.5850577 2.222405 -0.7190749 2.1416469 0.30968258 0.62444353 -0.3637516 
0.75553566 -0.23021297 2.2937968 -3.2338195 3.1625829 0.4601323 0.3853303 0.3138558 -0.8217045 -0.3265405 -0.7460466 -1.5787694 -0.15765753 -1.0844674 -5.0009947 1.5587815 -0.28949687 -0.3609036 -0.2613395 -0.33667728 -0.20234741 2.3514047 1.0191977 -3.324163 0.50430906 -0.94019735 2.3264682 -1.2756102 1.7829088 0.37089407 -2.4199185 -0.69978905 2.9226005 -0.46850204 -0.42198947 0.15332238 0.7559027 3.6581857 -1.2999989 1.6252134 -0.22646405 0.16454643 0.4464066 0.8379858 -3.548782 0.15784147 0.44979608 0.3248282 0.52326196 0.5747471 -0.20408651 2.5959258 0.7146554 -3.2553084 -0.38262916 1.3815068 -2.5523043 1.0895046 -0.10368461 -0.6006555 -3.1476984 0.25115666 -0.23331074 1.6258237 
-0.5223841 0.12218217 2.1552367 0.88300264 0.49942103 -0.2308623 -2.9748678 0.883949 -0.060976487 -1.6835611 -0.9300527 2.5123875 -0.5792462 -0.6349634 -0.71531624 -0.30192646 2.26304 2.5518415 0.11871487 0.8808553 -0.3670325 -1.4289259 0.5041457 0.6796751 0.9418918 -0.15272719 -0.028138109 1.1301945 1.8783695 -0.12560226 0.2422934 0.256885 2.2219574 0.4570924 0.1772493 0.68661964 -0.025504539 -1.8630637 1.4252998 -1.2110976 -0.36606902 -0.42328826 0.5239135 -0.078633144 -0.1562014 -0.08774673 -0.7323076 -0.55468076 0.68703234 -0.41261622 0.23516165 -0.7631946 0.95296955 0.50372297 0.56741565 -0.5981501 5.185711 -1.9925841 0.55392104 -1.4091003 3.0549202 -0.51462847 0.5723734 -2.194452 
0.6087306 0.055057243 0.10446102 -1.6955667 2.0236673 0.23862992 -0.52574795 -1.4939592 -0.02548176 -1.6578219 -0.011789379 -1.5845146 -0.41140088 -0.58574176 -3.230043 0.3965035 -0.14399265 0.30798241 0.009463284 -0.8231925 0.48617643 -2.3706458 1.1406171 -5.176848 -1.4479856 1.2173657 -0.25227576 -0.502874 -1.7612212 0.14030783 -0.12989609 0.72268224 -0.62861073 -1.3029176 -0.4644129 0.41851088 0.29431412 0.36464316 -0.0020712554 0.410204 0.05756494 0.55207604 0.0844749 0.36053982 -2.1656773 -0.10587136 0.14085785 0.5594239 -0.6865925 -0.0028272937 -0.77113754 -1.3638514 1.6227976 0.6911812 -0.028893583 -2.61818 0.25537592 2.1870992 -0.7838747 -0.015885904 -3.428254 -0.19497646 -0.01579318 -1.5514227 
