0.26379925 0.29017785 0.5114504 -0.380393 0.20840149 -1.2244459 0.827165 0.23234743 -0.34919342 0.20812096 0.20525202 0.45401752 -0.3223904 1.1403184 0.27783728 -1.6566967 -1.004766 -0.65329117 -0.035243943 0.98483235 -0.32592142 0.34899053 1.2193056 -0.2628085 -0.38835528 0.055563178 1.154029 8.4966916e-05 -0.4652173 0.000986475 -0.1880695 0.467455 0.78812814 -0.25927463 0.07287683 0.35121912 0.62893146 -0.041401245 -0.5058942 -1.7700534 -2.042516 0.22145186 0.39345753 0.6335497 -0.53432393 0.3955764 -0.75227386 -0.14483714 0.6275906 0.11088931 0.14162903 0.65600854 -0.05177281 -1.2531056 0.975993 -1.9060717 0.5328506 0.3284034 -1.5868078 -0.5570386 -0.013565694 -0.15769005 -0.19399798 -1.0127784 
-0.6668249 0.83131707 -1.2050592 -0.96666205 -0.38957635 -0.2406632 -0.70625716 -0.31492582 0.8906237 -0.96638066 -1.5166767 -1.3644154 -0.45068035 -1.664731 0.84381014 -0.046014834 0.78264034 0.45393538 -0.74326503 -0.46406674 -0.43092942 0.3776811 0.25497624 -0.189295 -0.31592476 0.71835583 -0.58637327 0.53489524 -0.74477637 -1.4615009 1.0409701 -0.44699356 -0.1524389 1.2405112 0.24485664 -0.041062996 0.6742086 -0.051310547 -0.10108326 0.42886156 -0.23710255 0.57315755 -0.49129865 0.11035899 0.068503976 -0.6467353 0.44240618 -0.60309905 -0.37523004 -0.7668914 -0.5505455 -0.15961005 0.31611338 0.5925424 0.020624546 -0.08511986 -0.5152112 -0.15170021 -0.6417476 0.11811707 -0.21258354 -0.28605306 -0.22805275 -0.7927729 
0.90890366 -0.43409094 0.7647502 0.25208026 0.7526024 1.0499966 1.1342105 -0.9393064 0.047854025 0.25880986 -0.062349986 -0.96374816 -0.48431143 -1.1065177 -1.1266505 -0.28526443 0.6198078 -0.0041205436 -0.0031122481 0.39184585 -0.12032443 0.5046811 -0.7278021 -0.13663962 0.9432778 -0.4917097 0.028397525 -0.49489674 0.78920394 -1.4036331 0.46075153 1.2848349 0.54380995 -1.1465956 1.6834263 0.530812 -0.46890515 0.576207 0.4249861 -1.5922065 -0.8882546 0.18450533 1.8739442 1.0515037 -0.025052557 -0.059362363 0.6059754 0.5420671 -0.8455703 0.9455286 0.41989866 0.18928063 -0.71407235 0.20521359 0.23273578 -0.16518779 0.18881771 0.5235494 0.007181531 -0.105936155 0.9451631 1.0667745 0.74522114 -1.2706337 
0.39673588 0.32036686 -0.997654 0.014013366 -0.50459486 0.25242972 0.8783238 0.8037466 0.22812887 -0.40962052 -1.7794839 -0.26201516 -1.2400185 0.19889279 0.29039267 -0.5150985 -0.36426073 0.037166327 0.27694157 0.03861202 0.83819133 1.3803251 0.10240527 0.9294673 0.069067694 -0.3852458 0.5449294 -1.06746 0.99094677 -0.8567742 -0.15072699 -1.974134 0.59114915 -1.1460947 0.36633 0.22288756 0.54690224 0.24898015 -2.6701775 0.50684726 0.96019816 -0.18814304 -1.0379395 -0.2554715 0.65367657 -0.22060761 0.5013682 0.9792566 0.031643312 -0.43999657 0.25731593 -0.4007434 0.0014322033 -0.53696126 0.6884179 1.3051728 -0.5265691 -0.19920413 0.91879386 0.020397402 0.5023101 0.17650954 0.19708177 0.42906767 
-0.112618946 0.3478253 -0.26971036 -0.24714291 -1.0279756 0.34719336 -0.749075 -0.3435691 -0.2411835 -0.8975935 0.06767805 0.26137516 0.465584 0.9241716 -0.16199557 -0.40563983 -0.056671835 -0.46653143 -0.09472747 0.07693159 -0.5198349 -0.19019544 0.3081174 -0.6025091 0.7920365 0.62834686 0.5514507 0.32043839 -0.4981912 -0.5684417 0.60897225 -0.57526994 -1.3801848 -0.7265773 -0.7019249 0.039802663 0.40644503 0.16815971 0.1987041 0.5894961 0.37077722 -1.097289 -0.055020712 -0.3386709 -0.49297112 -0.88949746 -0.83314526 -1.0966531 -0.6480769 0.2860577 0.23139311 0.1518158 -0.74737865 -0.75228655 0.00553636 -0.39357018 0.06159067 -0.8299205 -0.9745484 -0.6486446 0.14475565 -0.04732992 0.022824422 -0.005551686 
0.59031445 0.7971184 -0.064299285 -0.071446955 0.2310728 -0.9004883 0.42043525 -0.04170944 0.21972512 0.54251754 0.4741181 -0.18474023 -0.022922292 -0.24139048 -0.6845616 -0.8562665 -0.98185563 -0.7894039 -0.2697169 -0.78444076 0.30894235 0.7721179 -0.002668163 -0.16610889 -1.7069029 -0.1418275 -0.59440154 -0.30677316 -0.97645485 -0.3046979 0.40145314 0.778267 0.78417856 0.5432976 0.8081422 -0.020341853 0.256276 -0.50919485 -0.19817993 -0.001391406 -1.0902619 -0.9182602 -0.76062304 0.018017441 0.75732845 -0.4933458 0.3652995 1.1016709 0.31884497 0.5382475 0.8564524 0.44733137 0.284033 -0.8060452 -1.4597844 0.28968513 0.6729822 -1.2197767 1.0576934 0.32452384 0.6428782 -1.079934 -0.6341406 -0.5064489 
0.1820857 0.21051617 0.63295484 -0.41884694 0.9490208 -0.71986264 0.7089911 -0.49126557 1.4839655 0.3172277 -1.3048892 -0.94579 -1.3924713 0.034477618 0.4256652 -0.6657047 -0.25538468 0.09188237 0.5525617 0.1499379 1.1174953 -0.72940695 -0.20840631 -0.8365588 -0.86403996 0.9821272 -1.2235625 0.33611518 0.58822393 -0.37813848 1.3387216 -0.6548729 -0.8436877 -0.14741126 -0.30731672 -0.87737936 -1.4486275 -0.25937456 -0.43029365 0.22925062 0.23673986 -0.38791558 0.22576433 -0.9363643 0.07954022 -0.61477363 0.085233554 -1.8416331 0.40178195 -0.60149974 0.35946095 -0.026769366 -0.75788665 0.61635745 -0.14100394 0.2156416 1.2364968 0.90029174 -0.07255698 -0.37209898 -0.21165085 -0.25791752 -0.018245347 -0.17407042 
0.14854288 1.023344 -0.33547378 0.43197435 -0.71839976 -0.48658434 1.8677356 -0.70907444 -0.28234163 0.5300656 0.13819183 0.5802706 0.9882835 -0.56033295 -0.29357654 0.21840611 -0.028896468 -0.43118405 0.21705407 -0.6345176 -2.0527077 0.056551695 0.28193164 0.32249522 -0.05882337 1.2663867 0.25236621 0.40361845 1.0004294 0.29144284 -1.3001254 0.040656727 0.42084625 0.73436195 -1.5953335 0.033098854 -0.18707372 -0.019867688 -0.99793786 -0.95114887 -0.493465 -0.2929837 -0.06854422 0.48484713 -0.45855352 -1.1084484 -0.19578074 0.3746571 0.27786848 0.48596096 0.7586698 0.88572925 0.12086512 -1.1243962 -0.055635985 0.3750139 0.40556914 -0.38229886 -0.2927395 0.13279195 0.039608754 0.5981912 -0.8554666 -0.69397634 
-0.81260526 0.7938592 -0.15431084 0.82804215 -0.21357825 -0.6439465 1.2973944 -0.713286 -2.2299638 -0.17079203 0.09478528 0.046318572 0.7247822 -1.4081085 0.06262607 0.38107824 0.10752028 -0.7443614 0.83396995 -0.6382535 -0.079990536 -0.06570892 -0.015704885 0.312506 0.03753714 -0.42185265 -0.21488227 0.017965676 0.76004237 0.39395025 -0.60624564 -0.060922544 0.306428 0.1381455 -0.23721495 -0.2828732 -0.40594375 -1.45765 -1.0107473 -1.4455535 -0.5928278 -0.5135899 -0.8365936 0.36573902 0.61812156 -0.27372086 -0.57613456 0.70205027 0.13672616 0.2481192 0.9637779 -0.074699886 -1.363085 -0.20692833 -1.2083708 0.074291706 0.019537937 -0.16163988 -0.24021077 -0.08669317 0.14641325 -0.46833476 -1.444375 -1.517242 
-0.053991366 0.91201377 0.41873562 0.9575214 0.0029902325 0.17368747 0.49246982 0.7310711 -0.99061805 -1.0165092 0.6570719 0.6354596 0.6110177 -1.1124277 1.1017311 -0.71442604 -0.028633071 -0.75666463 0.56916636 -0.8909275 -0.44622287 -0.5884967 -0.17957567 0.40974334 -0.6768763 -0.010877317 -1.1216391 0.6986636 1.6285441 0.38128182 -0.89842963 -0.46458545 0.33877438 1.0857044 -0.04227756 -1.3016483 0.78054357 -0.66007245 -0.4064222 0.37565088 -1.02678 -0.55291265 -0.5149255 -0.21223173 -0.86799926 -0.42488465 -0.47067392 0.1440518 -0.5884222 -0.2975124 -0.90524554 0.30106285 0.43232968 -0.17998579 -2.2107954 -0.4179209 0.6858816 0.60230225 1.0501748 -0.09322211 0.19280228 -0.1321889 -0.50138587 -1.3338706 
-0.98000234 0.5134341 0.38052374 -0.16017617 -1.2983255 -1.1402354 -0.38642913 0.28735888 -1.2327895 0.5314523 1.7702848 0.5077538 -2.2762764 -1.2252975 -0.039526775 1.2341542 0.033941057 0.3308732 0.3518709 0.079885304 0.09914323 0.56925344 0.48162222 -0.20491286 0.26565826 -0.27405322 -0.19753698 0.70371586 0.12562884 -1.1999427 -0.29709357 -0.32282647 -1.4374821 0.5077406 -0.7101229 -0.2774471 -0.28077912 -0.1295384 0.28119063 0.6426632 -0.063612595 -0.058110047 -0.80890536 0.037298303 0.07629407 -0.6765393 0.22370914 0.40414366 1.2726855 -1.1026766 0.6052336 0.61619085 -0.002861758 0.40041307 -0.1379764 -0.43920097 0.19995141 -0.80347025 -0.2900299 -0.6937882 0.12151977 0.21545921 -0.089961596 -0.4446115 
-0.24902536 -0.2513304 0.5814265 0.3548711 -0.7221587 0.19980723 -0.3680876 -0.99020183 0.44131362 -0.97719353 -0.6722541 0.34816548 -0.4373341 0.79956716 0.52666134 -0.33263424 -0.09963344 -1.6554635 -0.07262429 0.30267802 0.19103242 -0.7320555 0.48897347 -1.0573684 0.064289525 0.2802807 -0.08332943 0.23017359 0.15589918 0.55599844 0.4875569 -0.42284697 -1.1491317 -0.39031798 -0.102601066 0.48597014 0.9174161 0.65132415 -0.85360557 -0.57693565 0.435015 -0.030375987 1.0028473 -0.8018038 0.2207445 0.36661732 -1.0269036 -0.9000429 0.47721514 -0.05149166 -1.0215389 -0.5480484 0.1683121 0.25166672 -0.6987489 0.10336313 -0.43798554 -0.2125308 0.39643034 -0.07624732 0.6249426 0.27258253 0.044542626 0.5604528 
0.3555439 0.08033463 -0.3185976 -0.35677665 -0.9839646 -0.5937468 -0.5850913 -0.6344506 -0.36849287 0.21978706 -1.4362675 0.15165703 -1.3849213 1.0649284 -0.19975795 -0.86711127 0.3724393 -0.32596505 0.51872426 0.20372342 0.1832834 0.33411804 -0.97599494 0.27407813 -0.98864 -0.04185032 -0.2260997 0.2743975 -0.5547187 -1.4604905 0.59214574 -0.6667896 0.7518302 -0.8149202 0.064199366 0.71635354 -0.46716294 0.47192442 -0.13519578 0.35394558 -0.96569145 0.48670435 -0.4755821 -0.36490628 0.27604803 0.34069192 -0.6572026 -1.8494747 -0.64128536 -0.46582997 -0.7283447 -0.355876 -0.6456845 -0.6509098 0.48663875 -0.35045165 0.6754146 1.0491308 0.31364277 1.2999028 -0.7840053 0.4571101 0.77804786 -0.001910679 
0.96663374 -0.40999112 0.9582779 0.0305736 -1.1376654 -0.43139625 0.6842376 0.69806015 -1.2656547 -0.2005556 0.3476042 0.2546833 -0.24787644 1.1134996 -0.6167047 0.41624495 -0.5617927 -0.34197792 -0.6442175 1.0217571 -1.1819377 -0.49018604 -0.365745 -0.3398751 -1.4777321 -0.92467916 0.22426808 1.181789 0.5725866 0.89420414 -0.43063474 0.7604221 0.22144997 1.0943782 -0.12230756 -0.31868014 0.18888839 -0.071383946 0.53394234 0.28184098 -0.33300117 0.41448477 -0.33087948 -0.230188 -1.3754972 -1.5751903 -0.16487856 0.5446645 -0.10598444 0.25867972 0.84304774 0.7682395 -1.2543511 0.3656755 0.5337613 0.28510305 0.4902246 -0.09327043 1.026773 -0.78351504 -0.8530047 0.8717851 0.5330833 -0.14480269 
0.14997071 0.6159285 0.5578124 0.38788512 -0.09111728 0.78948253 0.13440108 -0.6234535 -1.1872716 0.058713365 -0.76013976 -0.51547766 -0.49253312 0.22875537 -0.7151189 0.4386398 0.16828826 0.52483964 0.44995496 -1.2070664 -0.09738339 0.19657494 0.14996609 0.935205 1.1179425 -0.5846998 0.37377602 -0.17617977 1.2494814 -0.2928563 -1.3431668 -0.59279954 0.4114811 1.5797857 0.40419522 0.759165 1.5720441 0.04165054 -0.43659922 0.9153697 0.27899915 0.21250167 -0.28418306 0.440048 -0.2726056 -0.8256715 0.5652858 1.6298084 1.8105868 0.43411317 0.19047475 1.107281 0.9972311 0.12805288 -0.30542693 -1.1489655 0.59593534 0.17708589 -1.0460222 -1.5354985 0.26715982 0.6189538 -0.84918714 1.181915 
0.11128166 0.054470144 -0.860962 0.5197636 -0.39342803 -0.05825481 0.38670185 0.098201625 -0.030903399 -0.6322673 0.39494658 -0.15073167 0.2009206 0.38188228 -0.76408935 -1.3839967 -0.39671928 0.45367396 -0.6776283 0.10975171 0.10243368 -1.0248014 0.31086132 0.515908 0.0458727 -0.2496874 0.48674005 -0.5785733 1.2838899 -0.97768235 -0.2249167 0.7370582 -1.3197924 -0.28290722 -0.55376774 -2.1094034 -0.25180578 0.29046878 -0.38787666 -1.0413712 -0.65057 -1.9781852 -0.1374634 -0.41838607 -0.74482757 0.09319627 -1.633469 0.59834296 0.4762118 -1.0196005 0.47132736 -0.035400953 0.031187609 -0.3164189 -0.11506653 0.13078076 -0.3233603 -0.6101223 -1.5753475 0.31800205 -1.2275949 -1.5341226 -0.06875271 -0.85159075 
-1.8203844 -0.5209218 0.19065168 -0.6299576 -0.62037915 -0.7206679 -0.62427056 -1.0200676 0.5582587 0.28442898 0.5162965 -0.20073704 0.38950324 0.44391134 -0.33225897 -0.38840938 0.05327293 -0.6736181 -0.8465756 -1.0135238 -0.2529287 0.1257314 -0.7696065 -0.23463872 0.54337627 -0.12599014 0.42985642 -0.606445 -0.45587137 0.18338668 -0.08320926 -0.94067883 -0.17073777 -0.0577414 -0.64477473 0.6780897 -0.2771515 0.6709405 -0.8854836 0.97276205 -0.063499905 0.2191982 0.8973638 -0.46116042 -0.6212384 -0.117117465 -0.21590987 -0.66622365 0.65236866 -0.11639913 0.7043315 -0.9835212 -0.8188267 0.18825544 -0.64586693 -0.21257053 -0.8403375 0.2131673 -0.57369894 0.9523663 -0.44621664 0.061244905 -0.1432748 0.38965368 
-1.9356854 -0.25345814 -1.4326133 -2.035984 -0.5916212 -1.433641 0.361763 -0.56505406 -0.274319 -0.1996403 0.2907566 -0.37737495 -1.1061426 -0.024954027 -0.017012045 -0.7450214 -0.19281861 0.017930113 -1.0795197 0.009174516 -0.94735533 -1.1734822 -0.06058846 0.477814 -0.41270742 -0.23376061 -0.5094153 -1.0379401 -0.8501736 -0.044396795 -0.37647727 0.49528828 -0.33624926 -0.10657809 -0.37365058 -0.30371925 0.2816668 -0.74150443 -0.7404431 -0.080219276 0.2161387 -0.821103 0.55593294 -1.1079483 -0.5139101 -0.24918145 -1.2586486 0.07289599 0.9820548 -1.0855356 -0.7254621 -0.013366377 -1.2399024 0.29264295 0.5840361 -0.82367545 -1.4433821 -0.46431997 -1.0987678 -0.49633485 -2.787136 -0.81614536 -1.0732026 0.2924294 
0.403077 0.76947445 -0.15708919 0.10327837 -0.08362185 0.48713395 -0.3078554 -0.6660841 0.26844132 -0.35315064 0.8887687 0.48958927 0.46492767 -0.585563 0.40782294 0.47469082 0.47989458 0.52070653 -1.4138509 0.6283905 -0.3513601 0.32031503 0.93141234 0.3189095 -1.3805029 -0.19118854 -0.32953542 0.3450738 -0.03799389 -0.25028569 -1.168331 0.72230285 1.1631709 0.7754222 0.7193757 -0.20832579 -0.16380055 -0.25023645 -0.6694637 -0.85244286 -0.61354095 -0.40992403 0.57272595 -0.5283978 -1.5113641 -0.6877466 0.077050894 0.87230545 0.24812976 -0.17740256 0.2984286 0.43105257 0.6279237 -0.8013092 -0.64727753 0.19763371 1.0996068 -0.74288154 -0.036575917 0.4848398 0.15311669 0.43921092 -0.5206826 0.17333063 
1.0055375 0.67043936 0.7757089 0.3105387 -1.3737625 -1.2870512 0.36490822 -0.19775371 0.20593335 0.81408864 0.3930512 -0.12419908 -0.9003527 -0.3952707 -0.5099017 -0.02562824 -0.29235053 0.61147434 -0.36459467 0.010385043 0.03802489 -0.5821572 -1.3124503 -0.65869814 -0.39595085 -0.6076701 0.52165604 -0.37307158 0.41911405 0.7638746 0.88763165 -0.3981784 0.27073592 -0.9274944 0.1306363 -0.49993944 -1.124344 -0.18951899 -2.8260102 0.31665704 0.0780977 -0.47102258 1.091008 -0.24599753 -0.5168574 -0.8885059 0.26800948 -0.33191723 1.1177917 -0.54232025 0.46870926 -0.11350416 0.18521349 0.8856709 -0.04364817 0.23683524 0.30878732 -0.2689014 0.7709542 -0.5538587 0.61170644 -1.1583884 0.5506995 0.5534553 
0.3687589 -0.35999247 0.19130735 -0.15142757 0.93201333 -0.5920502 -0.98932195 0.29317135 0.06823784 -0.8514082 -0.04450709 -0.1803285 0.7132399 -0.3574682 -0.838975 0.35500574 -0.6832221 0.49280056 -0.24223214 -0.27431685 -0.15007432 -0.09906597 -0.40460998 0.3088745 -1.6499045 -0.5522465 -0.50400126 0.47835794 0.20349976 0.8052321 0.34291402 0.036796715 0.28527078 -0.33210057 1.0435556 -0.4622076 -0.6185328 0.33868152 -0.66011477 -0.5050244 -0.10350023 -0.036492858 -0.29020834 0.38190588 -1.2491261 0.5080553 -0.30198815 -1.9339947 0.31819302 0.90948516 0.6178529 0.24590571 -0.572132 0.52818704 -0.36988282 0.5821395 0.86765283 -1.1970567 0.79801154 0.10211718 0.71449155 -0.5627905 0.58585435 -1.3921338 
-0.2699173 0.53087705 -0.48673254 -0.9450802 -0.4583101 -0.29561785 -0.8597404 -0.23759569 0.9827617 0.13162091 -0.230211 0.030747486 -0.7881457 1.2019433 0.5393291 -0.29603812 0.4869949 -0.16336846 -0.055565722 0.08407603 -1.0033672 0.030269185 0.25781068 -0.19120692 -0.037702486 0.60159457 0.102468215 1.4862683 -0.10456779 0.119229354 0.83427536 0.56511563 0.60205853 -0.5656446 0.063232906 -0.24733804 -0.39053854 -0.2203286 -0.236224 -0.25128016 -1.3950269 -0.0035670546 -0.51157963 0.01965398 0.9467634 0.3645966 0.68447304 -1.6969198 -0.075571276 -0.28026485 -0.29285252 0.009259609 -0.044307873 -0.22079344 0.7989854 0.02653934 0.4343332 -0.5335855 0.17543624 0.793674 -1.6142325 -0.055562418 0.44377628 0.2737357 
-1.0704892 -0.05785283 -1.3073595 -0.6587207 -0.22174066 -0.86557186 0.23328324 0.073347546 -0.25222182 -1.0120418 0.95854986 -0.17137204 0.4216079 0.05221071 -1.463222 0.54490334 -0.894091 -1.4294785 -0.21759811 0.0001582588 0.5475197 -0.4362971 -1.0914725 -0.31526023 -2.2791631 -0.23402116 0.46571872 -1.631314 0.1276431 -0.5366414 -1.3202379 -0.0678708 0.48475483 0.09808994 -0.57736176 0.043304533 -1.4374331 -1.8391811 0.47552687 0.36519137 0.31043896 -0.1434421 -0.10983107 -0.44733685 -0.41684893 0.32297358 -0.6899246 0.39698127 0.6933638 0.2958686 0.01198519 -0.096389815 -0.7256481 -0.54234046 -0.6762714 0.008244708 -0.10836855 -0.14478496 -0.4518004 -0.15170233 0.12915404 -0.5970524 -0.04422041 -0.45358998 
-1.0367616 0.13859029 -0.13909012 0.45773843 -0.16854697 -1.3604844 -1.4468635 -0.693391 0.46911973 -0.30953595 -1.5334542 0.5695143 1.0714324 0.21596712 -0.69810116 0.24108694 -0.45501167 0.5755204 1.1114849 0.5502108 0.28418714 -0.20460528 -0.16767229 0.061361667 -0.07446695 -0.021122782 1.3477867 -0.2664218 0.2194071 -0.12311794 1.1411101 0.04269267 0.673758 -0.06559085 0.017134136 0.050593305 -0.0056711207 -0.05975535 -1.6725 0.4768734 0.15788911 -0.9940541 -0.0973386 0.17873846 0.10734894 0.9153286 -0.8570437 -2.5130234 -0.70704335 0.09691176 -0.06427659 -0.8548984 -0.04993379 -0.9137483 0.116452985 0.990473 0.5787044 0.6224548 0.19085962 0.79857415 0.61840004 -0.9044893 0.9744498 -0.40038976 
0.6836932 0.661685 -0.6023263 -0.90852576 -1.0718896 0.22447088 0.47389045 0.75419927 -0.3321564 0.25516418 1.0477033 -0.4641118 0.045750584 0.56950605 -1.0050615 -0.697295 0.3318252 -0.19368526 -0.93926114 0.6243759 0.6284725 0.14350548 0.5662509 0.37557948 -0.6686652 -0.42980048 0.9705533 0.5639343 0.31430107 -0.3802085 -0.47381204 1.5178721 0.35268462 -0.41273814 0.11508584 0.20343696 0.1316508 1.4943362 1.6550397 0.022282273 0.2404481 0.890767 -1.082078 -0.31507698 0.344675 0.07197917 0.63661325 0.74611753 -0.41954294 0.28375536 -0.04884205 0.5156014 0.19758627 1.1347859 -0.8354158 -0.015749596 0.50749147 -0.16536835 0.6756996 -0.32569236 -0.6794848 -1.2226784 -0.22783601 -0.6105889 
-0.5170004 0.77988094 -0.19296026 0.36757517 -0.23323081 0.79383564 0.17534459 -1.011739 -1.634801 0.59952974 -0.12629372 0.57501006 0.78444916 -0.6533761 -1.1185055 0.20113915 -0.12250625 0.70750445 -1.2577419 0.49163553 -0.58106714 -0.06259843 0.42793456 0.5655369 -0.47964197 -1.2347015 -0.6840796 0.072714716 0.8762023 0.4769522 0.102331534 0.015387009 -0.95963126 0.80982864 0.3694207 -0.3031467 -1.781929 0.51182336 0.6103693 1.1916244 0.20185836 -0.4296483 0.15118316 0.03424612 0.10012426 -0.27149224 -0.014396874 1.2324953 1.1664159 -0.19636042 0.8119663 0.20789686 -0.778603 0.055049963 1.3618603 -0.3702931 0.5750081 -1.2397159 1.437335 -1.5971327 0.6245441 -0.5749284 0.20037356 -0.44166443 
0.45782095 0.585825 -0.36588874 0.7267916 0.37640455 0.05835688 0.8630345 -0.09484871 -0.7321688 0.104136184 0.37118065 0.09888317 -0.68387324 0.8978367 -0.45178273 0.44323066 -0.79736036 -0.09061201 -1.1290845 0.6131679 1.4052049 0.76244074 0.29157266 0.42250043 -1.3095002 0.20351571 0.5252902 0.6440138 0.27160344 0.9719038 -1.3019645 -0.17674145 0.95549387 0.8642187 0.4142397 -0.78392315 0.48877507 -0.021989197 -0.744714 0.8166228 -0.9440454 -1.1052866 0.30699518 0.1993052 0.5960355 -0.43793035 -1.086852 0.9593738 0.904271 0.47253317 1.1659721 0.7969896 0.3320738 0.74324054 -0.049462788 0.37127697 0.63015366 0.19865106 0.26023635 -0.009100995 -0.6368588 0.83307576 -0.51525795 -0.40468892 
0.11467043 -0.76513475 -0.4724119 0.52591485 0.12255274 0.555392 0.43612224 -0.85646904 0.6086403 0.62752575 0.4562585 -0.9936583 0.12873076 0.8490081 0.14307232 -1.6391141 -0.48598033 0.523717 -0.4820021 0.40390077 0.8268309 -0.31910405 0.315025 -0.13944004 0.44065922 0.18130216 -1.5462542 0.26290408 -0.36525637 -0.61837643 -1.832376 0.47936648 -0.53423095 -0.21594007 0.76014805 -0.8483234 0.3500361 1.005816 -0.41158226 0.07110246 0.90804213 0.2605048 0.72190124 -0.53349423 0.543048 -0.78483623 -0.64647686 0.25050613 0.779477 0.4955241 -0.588545 0.73650753 0.7490963 0.4977519 -0.41745538 -0.55674815 0.1855044 0.21374045 0.15289672 0.24548036 0.5520356 0.0153430225 -0.05517855 0.47820827 
0.4398553 -2.965623 -0.02380179 0.7584638 0.33632618 -0.5068614 0.6845296 0.2311434 -0.179259 -0.22299139 0.88998944 -0.1518302 0.1070362 -0.43864775 -0.72426957 1.2130426 0.32679045 -1.144846 -0.1746539 -1.1013924 0.64619684 0.051980797 -0.36905488 0.33885142 -1.1800566 0.19709013 -0.1827271 -0.8213784 -0.9252022 -0.5372752 -1.4105401 0.38272184 -0.8691525 -0.9387335 0.40846345 -0.5035444 1.2602569 -0.08511298 -0.9244118 -0.75709456 -1.0990703 -0.46794584 -0.3705009 -0.30867922 0.91530627 0.96551985 0.024257762 -0.5151659 0.9540354 -0.33374074 -0.77480155 0.91387784 -0.45311275 -0.98793876 -0.17984387 -0.25766015 0.28219342 0.3978159 0.6040817 0.18390583 -0.13352114 -0.6349598 -0.040265556 -0.1511068 
0.03723991 0.5180106 -0.10584453 -0.70887977 -0.5588101 0.023859544 -0.07790868 0.07867085 -0.19294257 0.15160869 -0.002430091 1.0476443 -0.13439523 0.40731165 -0.8745154 -0.8100066 0.7279623 0.724529 -0.07609446 0.59386384 -0.041709088 0.13970354 0.122717485 -0.448763 0.8058 0.5135696 -1.354001 0.016549407 -0.63592434 -0.08121224 1.2036493 -0.15521526 -0.3681044 -0.43099892 0.21832477 0.697872 -0.71007144 -0.6231913 1.1554402 -0.34052336 -1.6933341 -0.24274677 1.1529679 0.6279156 0.38474372 0.41731453 -0.39973226 -0.42453536 -0.59321725 -0.12411717 0.21755749 -0.8822895 0.12012173 0.5247491 0.5796062 -0.49075413 -0.13920055 0.14222643 0.7275223 0.41928163 -0.6794829 0.92698556 0.100281276 -0.028286522 
-0.5174973 -0.7440048 -0.20713939 0.17155334 0.08357241 0.4520553 0.2842059 0.86692494 -0.24804771 0.77461404 -0.7063403 -0.2519588 0.9845128 0.8417854 -0.32400948 -0.3564767 0.4373306 0.101078436 -0.15688229 0.079865806 -0.87065816 0.2563458 -0.10739696 0.7700672 0.28334892 -0.09421488 0.47394952 -0.086478904 -0.20070945 -0.03329003 0.4606493 -0.5420791 -0.42521876 -0.5193823 0.33884463 0.18709032 -0.42386463 0.45797986 -0.4336986 0.6253358 -0.9546882 -0.26457062 0.47654882 -0.15153603 0.096136525 0.45955527 -0.69888306 -0.024841223 0.71863425 0.46524617 0.5569462 -2.0422778 0.41500822 1.0678875 0.10748482 -0.22955774 0.55776566 0.058347203 -0.7827489 -0.6997701 -0.18506628 0.17792237 -0.91224384 -0.6120104 
-0.7136985 -0.53995967 -0.2892118 -0.6890071 -0.4218744 -0.02923661 -0.4755929 -0.08811979 1.0631031 0.8993364 -0.7701795 0.90964323 0.073510215 -0.1528055 1.1667411 -0.9042521 0.30658907 -1.0106654 -0.7946647 0.17244776 0.2208974 0.3145144 0.70620203 -0.06596725 0.19037548 -0.51346093 0.22652581 -0.24661244 0.75902194 1.1311728 0.5392958 1.3482504 -0.57236236 0.34702882 1.0021749 -0.2957367 -0.43234906 0.34712908 -1.8801612 0.008151752 -3.2448661 -0.08356143 -0.85930175 -0.11585484 0.16109328 -0.09020021 0.20696944 -0.47599354 -0.49147904 0.47721854 -0.21231636 0.0068723704 0.008738575 0.8784513 -0.043304402 0.3365907 0.19578046 -0.9187454 1.0159456 0.08717031 -0.818239 -0.7759124 -0.05192678 -3.1927323 
0.23815875 -1.1482161 0.14744028 0.7662421 -0.23897325 0.55527484 0.3141626 0.60448015 0.15511884 -1.2407923 1.306983 0.23875864 1.0571746 -1.1838415 -0.94041395 0.2905233 0.87399304 1.0801742 0.18978699 0.10928399 0.46738636 -0.9057269 0.39732382 0.21833025 -0.1501038 0.43608373 -0.026133597 -0.40661177 -0.16007696 0.5162738 -0.8184364 0.4656774 0.48223132 0.68105763 -0.7351544 -0.07806524 -0.40215868 0.5549973 -0.65470546 0.17376095 -0.1666019 -0.93696165 0.09301116 -0.08905094 -0.016725102 0.03827859 1.3502424 0.5993061 0.2568631 -0.45181194 0.8358405 0.78370374 0.049123317 0.8841137 -1.2746811 -0.62755406 0.31608963 -0.40059632 0.05555615 1.096391 0.10385969 0.9108599 0.74483615 -0.47670355 
0.8569475 0.95920444 1.1038282 0.17073174 0.62535036 -0.7889275 1.0359571 0.61956614 0.5205581 -0.09461395 -0.6483703 1.2424933 0.78696215 -1.4126107 -0.888108 0.08215851 1.2201567 0.8656271 -0.8133703 -0.18450466 0.40134594 0.56775767 0.24768807 0.72557604 -0.064405866 -0.16602711 -0.3029045 1.0069672 0.2771938 0.5629353 2.1325932 -1.1172123 0.9591882 0.11307874 -0.1248782 -1.1086718 0.47801206 0.4605256 -0.36890295 1.1047032 -1.3464755 0.28270882 -0.37586287 2.7043716e-06 0.21092662 0.97966814 -0.25945607 -0.2993867 -0.5841772 0.37114885 0.19635235 -0.4169243 0.3593314 0.55910325 -0.25550315 0.29692885 0.5102021 -0.14440046 0.06798219 0.16779836 -0.5209729 0.36544695 0.35764548 -2.3235378 
-0.45036283 -0.8163422 -1.1231352 -0.100591905 -1.3541913 -0.2676143 -0.09496299 -0.47614697 0.33726314 -0.14016052 0.017362582 -1.2366093 1.029365 0.24987027 0.29461795 -0.41597426 -1.5283431 -0.83838004 -0.38881913 -0.6749167 -0.25823137 -0.16422474 0.36260906 -0.558061 0.2734528 -1.2537795 -0.7707972 -1.4442347 -0.13342515 -0.6685397 0.28079247 0.52934706 0.18074797 -0.14055268 0.86573255 -1.0501466 0.09166182 -0.81553376 -0.2983654 0.522559 0.12232868 -0.43838874 -0.056544356 0.6235599 0.24227047 -0.60882527 0.087485835 0.12694931 -0.10433698 -1.0554911 -0.45271522 0.24064831 -0.17219798 -0.7156675 -0.4861702 -0.16960414 -0.95974344 -0.6009607 0.06616714 -2.503023 -0.7691942 -0.56393075 -0.4288716 -0.20430246 
-0.14989981 -0.11028147 -0.10415746 0.7198333 -0.26437408 -0.08773746 -0.441646 -0.8197053 0.24145378 -0.6321732 -0.44175744 0.31980482 -1.0590581 -0.83116204 0.21105224 -0.70377594 -0.5792891 -0.79560757 -0.1068439 -0.6260498 0.69200265 -1.5625066 -0.31406364 -0.64615923 -0.90704477 -0.7273838 -0.9759131 -1.2098094 0.07764127 0.03838379 0.68665946 0.3872779 -0.33329585 -0.59377307 -0.20172086 -0.86722034 -0.569922 -0.6839037 -1.1565853 0.039683558 -0.39012098 -0.7950178 0.1135763 -1.4770495 0.47212714 1.0144925 -0.1867807 -0.4729057 0.13591468 0.89677095 -0.39260283 -0.6835704 0.31376126 -0.40063682 -1.2613248 0.28432605 0.110727616 -0.21621585 0.6910871 0.0743183 0.1471328 0.26805276 -0.33540687 -1.1555613 
0.09744329 -1.0149436 -1.9209692 -0.26489282 0.089707315 0.5988226 -0.20746453 -0.63129884 -0.62457776 -1.3099382 -1.5285423 0.38966525 0.19907938 0.45926008 -0.53617835 -0.9975195 0.1687852 -0.11320756 -1.5581707 0.21150436 0.26035646 -0.32314658 -1.0378121 0.28803575 1.0044798 0.37950495 -0.094099246 -1.1477387 0.8860026 0.3135498 0.7705439 -0.50783765 0.28230652 -0.23846509 -1.125266 0.5838486 0.2966724 0.9938563 -1.162422 0.078949995 0.5636885 0.31710595 0.017150337 0.4461977 0.23434567 -0.38798264 -0.37719336 0.50493515 0.914782 0.6998121 0.4258422 0.3085362 0.7174834 -1.247104 1.4920158 0.7212021 -0.12891093 0.9327765 0.41163942 -0.8558759 -0.389931 0.4886675 -0.7147499 0.39398697 
-0.012260721 0.49424663 -0.65916544 0.25680026 -0.58909094 0.27345017 0.57812446 0.49604148 0.07915926 -1.1934536 0.98371285 0.20994706 -0.50465715 -1.1589681 -0.80021673 0.05621381 0.43838775 0.19849594 1.1190649 -0.5887916 0.42446285 0.20036452 -0.7682776 0.7802005 0.4097756 -0.1215789 -0.057465453 0.24539138 1.1423174 1.0620195 -0.81711036 0.05831055 -0.92059666 0.8198631 0.37854937 0.55532104 -1.7325027 0.1619246 1.2414824 -0.4747521 0.23071425 -0.056661885 -0.08628506 -0.011082148 -0.17426218 -1.380683 0.47801653 -0.43702888 0.27286485 -0.4399 1.0566984 1.1609553 -0.46396968 -0.13749984 -0.13405271 0.25947684 -0.63581026 -0.049683534 -0.3189435 0.6364147 -0.94798064 0.756938 0.4391495 -1.1673669 
-0.15522715 0.64268696 -1.6233819 0.8089288 -0.6975334 0.06208328 1.4670295 -0.31247514 -1.2930326 0.97228974 0.24829598 -0.4797635 -0.14658993 1.0974828 0.44689628 -0.49617845 -0.27832058 -0.16891655 -0.59990627 0.9053816 -0.45180956 1.0755292 -0.068095796 1.124663 -1.9806311 -0.049314126 -0.17118506 -0.14291674 0.60953313 0.5750373 0.25526464 0.8778422 -0.11539723 1.5986964 -0.48731804 0.4229569 -1.1058573 -0.013141777 -0.611155 -0.72344583 -0.40184414 -1.0438875 -0.32032353 0.045895502 0.038542476 0.15032499 0.881968 -0.105231784 -0.8124144 0.9203016 -0.3785123 -1.1019322 0.15165845 0.12825991 0.1793366 0.92979443 -1.5192366 -0.6061091 -0.9683606 0.02025641 0.26241374 0.050914563 0.944712 0.34562048 
0.29465488 -1.2076063 0.24598671 -0.3872737 0.6972327 -0.67841405 0.8654928 -0.4011286 1.250395 -0.3417953 1.1063429 -0.6474392 -0.24382186 -1.2000755 0.5361869 0.22795083 0.014174028 0.37922698 0.1253893 -0.022572707 -0.74032253 0.38783154 0.016171638 -0.5278349 -0.23920104 0.45508608 -0.19842242 -0.067154855 -0.37239826 1.379824 -1.5065906 0.8223747 0.082554206 0.31014404 -0.3507796 -0.1431254 0.4317162 0.9892515 -0.5948355 -0.21023045 -0.4165933 -0.30369437 -0.1289453 -0.6766338 -0.7541535 0.24000381 -1.4837915 0.9358462 0.92910993 0.20586643 0.24614891 -0.6016011 0.19590703 -0.20647442 -0.18330143 0.1360174 0.28086224 1.293463 -1.6301507 -0.5076553 -0.67280614 0.24948291 -0.006812528 -0.39493713 
0.87028426 0.7707761 0.025320863 0.24485551 0.9938405 2.074165 -1.8865727 -0.21939087 0.9976957 -0.30703998 -0.38694075 0.24581221 -0.12874907 -0.44785485 0.53635585 -0.19100747 0.22945774 0.28404677 -0.24159263 0.6211858 0.087923296 0.3599688 0.8067529 1.7405194 -2.2548044 -0.60829735 -0.13057652 0.590271 0.3324523 0.31785563 0.50169307 -0.46689206 0.49127012 -1.1363032 -0.039704844 0.8830747 0.6871912 0.13182949 -1.0553607 0.48569924 0.42662054 0.85891366 -0.60414624 -0.7711201 -0.12596728 -0.41679856 0.8602321 -0.7156409 -0.7948317 0.18732513 0.38563186 -1.7924907 0.49167877 0.2421131 -0.9665953 -0.6730688 -0.4180446 1.0749626 -0.19784181 0.30654678 0.2251604 -0.12449954 -0.058953308 -1.9438769 
0.068956815 0.81686175 0.23843633 0.6455285 1.3512802 0.14843646 1.4592671 0.26091906 0.11827552 0.9879704 0.8282341 0.68114156 0.10528822 1.5259739 0.57665145 -0.080430724 -0.61846924 -0.69281167 -0.769249 -0.9688544 -0.18019082 0.9014186 1.2433388 1.435268 0.19890119 -0.5369415 -0.03739206 1.2462715 -0.6057996 0.012043194 -0.4769392 0.013992682 -0.009140339 -0.8072871 0.03583235 -0.23698214 0.23741037 0.740213 0.6485473 -1.3470179 -0.38181573 0.9432165 0.7142297 0.1694046 1.1684302 0.65437055 1.161632 1.9191074 0.4759031 -0.095253706 0.43224534 0.70483893 -0.27903494 0.003049724 0.93813205 0.5220347 0.83001757 0.4497166 -0.32411328 0.7278256 0.07927888 -0.25444108 0.03640804 1.2059035 
0.52094597 0.8266608 0.0090429755 0.73657566 0.90486 -0.17593387 0.6289144 0.61306345 0.6656813 -0.73328036 -0.22647977 1.155279 -0.6494275 0.51714057 -0.00016576788 0.899128 0.19260144 -0.5286944 0.50405186 0.37023962 0.4804844 0.20639327 0.14959231 -0.4932711 -0.018066803 0.31436333 0.1598458 1.4175477 1.471441 -0.295189 0.35415062 -1.9771357 0.3104332 0.2704617 0.029813472 -0.36996746 0.5416881 0.3269264 -2.3099272 -0.56486124 -0.99030906 0.63414013 -0.60145134 0.38384652 -0.39565116 0.7608127 -0.3348391 -0.9550599 0.09001867 0.2908738 0.2781582 -1.2956263 0.48703974 0.24479327 0.96298885 -0.94242513 -0.048497893 0.5473702 -0.01613793 0.5012796 -0.83020914 0.5454871 0.69727916 -0.47196043 
0.5726224 0.4063667 -0.7531367 0.011333573 -0.77221674 -0.41976622 -1.4618988 -1.3122805 0.10950526 0.52631146 0.17195544 -1.0811014 -0.20410389 -1.0428807 -0.25863388 0.85444146 0.3518777 -0.5911354 -0.008301889 -1.5308449 0.1307297 0.089518264 -0.30023253 0.39434022 -0.8028896 0.6905306 -0.7058217 -0.42103183 -0.40370366 0.70568585 0.5512703 -0.3603452 -0.19480911 -0.4573584 0.032541193 0.13167973 0.07306501 -0.80410296 0.3270739 -2.069897 -0.36613908 0.30699447 -0.1366213 -0.2160563 0.57600415 0.44551808 -0.54870605 -0.36658347 0.15040839 -0.16758959 -0.10089622 0.26325625 -0.9822042 0.57344425 0.8331355 0.4334444 0.7639273 -0.3403121 -0.085564695 -0.83015156 0.66484797 -0.30160502 -0.58943343 -1.1779896 
0.68940765 -0.39916536 1.3675547 0.197037 0.40926224 0.00963175 0.77918017 0.7417702 -1.2385497 -0.7925791 -0.47108123 0.08531895 0.5137697 -1.0449334 0.8597562 -0.5502116 0.3767185 -0.62766534 1.2673055 0.52425843 -0.25599203 0.6524669 1.053661 0.061213724 0.42330673 1.0879675 0.20931368 0.19440426 0.10149449 0.15686885 0.5322012 -1.8674059 -0.1774422 1.0455331 0.29941604 0.9294683 -2.2542844 -0.64714074 0.041609965 -0.96836054 -1.6480392 -0.5089645 -0.5618708 -0.06493346 -0.42954472 -0.13144192 -0.8653156 0.87187487 -0.446377 -0.08769998 0.83442086 -1.4350225 0.52268213 0.045315057 -0.80398905 -1.393468 -0.20060076 0.14056548 0.09314277 -0.5225826 -0.4101924 0.022755861 -0.35327694 -1.4170005 
-0.9991527 -0.1300843 -0.8559568 0.84490156 0.8194872 -0.08495473 0.21594511 -0.10328159 0.10399661 -1.1623892 0.34063888 -0.21833551 0.38848418 0.23676471 -0.5835213 0.25402084 0.093004756 -0.5298935 -0.63609886 -2.1100705 -0.9660868 -0.18652721 1.3594819 -0.2649204 -1.6636405 0.14945227 -0.38138688 0.35740408 0.79893726 1.0102638 -0.7145801 0.86032945 -0.28228718 1.1720983 -0.8865272 0.05973178 0.9658168 -0.9076231 0.45269385 0.65403885 0.3753288 -0.45659822 0.60352796 0.19167252 -1.89413 0.24449722 0.49700472 0.7874662 -0.5590996 0.4307761 1.0205661 0.5205942 -0.13440822 -0.50770366 0.82269675 -0.2700259 0.57547635 -0.26240778 -0.38715187 0.51407325 -0.5726925 -0.67838556 0.12226589 -0.8489831 
0.37469018 0.36075675 -0.85425115 -0.27822915 0.5513779 0.81605774 0.30008203 -0.2310189 -1.0506734 0.7389587 -1.6300361 0.49743137 0.8185733 0.0062563955 -1.0886908 -0.057920918 -0.05249677 -1.7338243 0.4569544 -0.016846519 -0.24644302 -0.30449376 -0.74668586 0.85178894 -0.17408165 0.826942 0.6131607 0.8443947 -0.02322041 -0.6760155 1.2511584 -0.37493452 0.4056632 -1.2264686 -0.5855639 0.122599125 -1.4215729 -0.48362255 -0.6599531 -0.26483583 1.1328813 0.07584297 -1.3507733 -0.025489038 0.7609361 0.5008826 -1.3208634 -1.086513 -0.09904923 -0.9398989 0.9072919 1.3854876 0.11212657 -0.4041205 0.632208 -0.49680746 -0.88839346 -0.6556965 -0.6265748 -0.2668177 0.0793628 -0.8752189 0.4656162 -1.8109027 
1.392508 -1.0393273 -0.8937369 -0.112585366 0.3596091 0.18592483 0.33184487 0.14820173 -0.47969857 -0.27732566 0.637731 -0.4397379 1.0121164 0.5062992 0.120899804 0.26539418 -0.591309 0.11463571 0.541819 0.02487267 -0.18126999 0.3349471 0.88367766 -0.65699184 0.572839 -0.31818995 -0.075374246 -0.07548855 0.6841654 0.16850258 -0.09601293 1.9948204 -1.229367 -0.0048586032 0.11653632 0.7728693 -0.20253228 0.3274168 1.2688594 -0.7717421 0.56678706 1.1255945 0.16166483 0.107503384 -0.7087012 -1.0651401 -0.5805461 0.16644599 1.2615887 0.49723813 -1.0197941 1.4915315 -0.14231737 1.7249119 1.2845107 0.3301288 0.8579508 -0.18735534 0.51376766 0.60272825 0.26570278 -0.04720191 -0.47212395 -1.4208302 
-0.045567885 0.57125765 -1.2319435 0.48614296 1.3401858 0.48365387 0.21071024 -0.8343688 0.10751985 -0.49678522 0.8943451 -0.7400157 1.0356648 0.30410102 0.35932165 -0.19477333 0.92347634 -0.92164266 -0.04026095 -1.0045645 0.16668615 -0.21974242 -1.1290892 -0.7133727 -0.031254586 -0.20506719 0.006497718 0.04994361 -0.3785438 -0.3524364 -0.15127827 0.6447903 -0.3866619 0.47169408 -0.3618682 -1.1386846 1.0280621 -0.10370311 -0.7634522 -0.8196028 0.07987717 0.53364116 0.43062317 0.30704257 0.15504478 -0.109951526 0.08912451 -0.5507838 0.42332453 -0.17095467 -0.27269906 2.01072 0.5386941 -0.9579823 -0.1666674 0.46478778 1.3486391 0.2345497 0.5185751 0.9150577 0.1741576 0.2957212 1.071448 -0.8742578 
-0.5457748 0.47133386 -0.112528056 -0.22641574 -0.04547627 -1.1296449 0.25398275 -1.5303948 -0.95984656 -0.6589779 0.50659084 1.0024351 -0.03175683 0.2331343 -0.03859055 0.4010902 0.12071315 -1.270305 0.23685643 0.03356923 -0.1702495 -0.5699468 0.14078003 0.30695826 -0.49834523 0.21394028 -1.0067538 -0.5278796 0.3502274 -0.4544723 -0.5409219 0.31140503 0.6471527 0.90650314 -0.27285162 -0.2535552 0.69864136 0.36032468 0.09178387 -0.8277938 -0.22510266 -0.10791056 -0.19153953 -0.83649933 -0.41550642 -0.18001577 -1.2320098 -0.41252783 0.318226 -1.479718 0.32938698 0.55604064 -0.6522336 -0.48069143 0.8765515 -0.1774769 -1.5279529 -0.21431512 -0.38814625 -0.34116256 -0.34705964 -0.7994757 -1.4998145 -0.94189715 
-0.54894626 0.6257166 -0.34803087 0.5120415 0.3838207 0.00020819684 -0.5195348 -0.14118306 -0.53615254 -0.10787329 -0.71960026 -0.5144519 -0.34353262 0.76328266 0.53702885 -0.31421486 -0.0380182 -0.04415976 -0.19635022 -0.38252434 -0.3907889 -0.07803282 -0.058422815 -0.7558722 -0.6369683 -1.7018554 0.024365172 -0.33419046 0.41219682 -0.100335315 0.64084005 0.048144594 0.5726173 -0.69085324 0.21743858 -1.4005082 -1.5577705 -0.2198888 1.1921412 0.24431185 -0.59944916 -0.27979082 -0.42222354 0.40913457 -0.3642689 -0.668464 -0.60669744 -0.2065039 -0.044411186 -0.84334123 -1.2912925 -0.23492889 -0.89045787 -1.0953996 0.26303872 -0.48177883 -1.7472477e-05 -0.14365725 0.29958212 -1.3447968 -0.47349045 -0.37498564 0.1693965 0.16507284 
-0.88325095 1.139066 -0.040474903 -0.50783396 1.1505233 -1.977771 1.2372426 0.20370719 -1.3095803 -2.3139365 0.78870445 -0.7675693 0.37385398 -1.233185 -0.18596344 0.34979033 0.17369545 -0.522568 0.42177865 -1.2693653 -0.95301896 0.27903888 0.753564 -0.33376494 0.014552918 -0.87684995 -0.76732516 -0.39453414 0.1164837 -1.0440769 -0.93090296 0.8294358 -0.9364817 -0.2980155 -0.4371941 -1.4027436 -0.4411958 -0.28141275 -0.09889482 0.07629194 -0.06515025 0.6078492 -1.4964446 -0.23994859 0.07735691 0.49647972 -0.82498014 0.45582682 0.82708925 -1.3923521 0.32020783 0.19172828 -0.13040921 1.1334287 -1.4440948 0.27989098 0.59042007 -0.85878205 -0.8211611 -1.1644708 -0.5892909 -0.8887808 -0.022858873 -0.5413796 
-0.032174695 0.27692175 0.31403336 0.5619148 0.14824758 0.7477857 -0.3187997 0.8101621 -0.4875401 -0.08903519 0.4586219 0.15301006 0.25398764 0.19281632 0.1254251 0.27168924 -0.3913501 0.24272169 -0.33813834 -0.352953 0.34286654 -0.017841183 0.98095274 0.19674678 -1.1519551 -0.23519984 0.61411583 -0.42458388 -0.88575613 0.53191763 -0.82742214 -0.2829376 -0.01994444 0.3023048 0.2344685 0.36263198 1.0849708 -0.6640635 -0.80142295 -0.70245564 0.31617934 0.18625647 0.2810517 -0.36714974 0.12645009 -0.7915833 -0.8095549 0.64283824 -0.47594136 -0.18305506 1.1422821 0.37647593 0.18271662 0.9711432 -2.0425801 -0.15204884 0.8647554 -0.114899166 0.7687039 -1.047227 0.38915092 -1.2536293 -0.84808403 -1.4470822 
-0.008518328 0.55023545 0.05528413 0.53089297 -0.72891057 0.21084459 1.0038115 0.48109207 0.19894458 0.40277827 1.0463378 -0.26952186 0.26490694 -0.44576636 0.04520553 0.49897242 -0.6853086 -0.2234477 -0.1442332 -0.80490386 -0.4156304 0.6062196 1.1413177 0.058671128 0.48371902 -0.6831098 0.2502956 0.005894435 -0.7370409 0.29974362 -0.59081084 -0.32919478 -0.37040156 -0.09166997 -0.24231112 -0.8539859 0.9590585 0.46381247 -1.1686918 0.3667035 0.017060068 -0.030967433 0.16433942 -0.5882745 0.15344469 0.15400448 -0.61305475 0.8341506 -0.69560754 -0.4161241 0.43434027 0.55023694 -0.021142164 0.049966853 0.7470502 -0.1499931 1.085902 0.23174897 -0.7003257 0.24976943 0.9587736 0.03590432 -0.6537359 -0.8760783 
-0.3588898 0.653367 -0.32954594 0.47474167 -0.0033885506 -0.18134889 1.7983447 0.13053368 0.803365 0.9267768 0.51461554 0.5167913 -0.4266235 -0.5442907 -2.1571982 0.71515274 0.7638578 0.028973194 -0.28583932 0.5774391 -0.00387362 0.25032756 0.9044077 0.9614646 0.6505556 -0.6755157 0.50854695 -0.31519103 0.5667927 -0.25132757 -0.93992394 -0.84938717 0.1360833 0.71557236 0.5839686 -0.07977499 0.18276419 -0.60282034 0.6208201 0.13679153 -0.8156962 -0.8995239 0.8114207 -0.1355168 -0.9303683 0.09734481 0.17997092 0.06249784 0.017768566 0.727017 -0.17506 0.74943984 0.14197956 -0.0073357564 0.92981595 0.9442859 -0.45335472 0.15333371 0.6186247 0.46650702 0.14095414 0.31619868 0.16927266 -0.68440664 
-0.6025431 0.12706019 -0.1690405 0.38365665 -0.91980904 0.8245138 -0.77763754 -0.0021790075 0.07215006 0.30469394 -0.70374197 0.08285463 0.8819427 0.53579456 -0.49783185 1.0791925 -0.15948993 -0.035656188 -0.16244854 0.75443935 -0.44474414 0.7529636 -0.018333318 0.7936922 0.53963596 0.608181 -0.062388707 -0.034363173 -1.0845807 0.35278577 0.8296324 -0.15000612 -0.004751987 -0.9499724 1.4121379 -0.23678221 -0.6656295 0.3747976 -1.0773646 0.00914526 -0.15286109 0.6155315 -0.025896702 0.4137264 0.5037095 -0.2121506 0.009884185 -0.8818994 -0.3038893 -0.22715664 -0.078298405 -0.26795334 1.6442323 -0.12655853 -0.24663715 -0.05240266 0.17080943 0.63813406 -0.36858824 0.49910325 0.1943078 -0.15406246 -0.15209346 -0.49889264 
0.59287006 -1.1951187 -0.46012327 -0.029811751 -0.7817951 -0.30933267 -1.3887658 -0.6564212 0.3235198 -2.1372235 -0.9240432 -0.5012331 -0.56580055 0.7789908 -0.30697754 1.1758404 1.4594139 0.062060222 -0.3751485 -1.7456448 -0.012305847 -0.5389898 0.07176685 -0.25155616 -0.2610858 1.3850282 0.10396911 -0.44689888 0.74727327 -0.49853778 1.3321608 0.34760424 -0.042510726 0.5204608 -0.8212944 0.09731106 -1.2085791 0.68812877 -0.61515737 -0.15498063 0.1641667 0.9444422 0.9238524 0.6695214 -0.7501271 0.12026749 -0.2507878 -0.08027041 -0.16372843 -0.15020539 -0.34631398 0.19663422 0.6183807 0.35083747 -0.08384528 1.1993835 -1.0397125 -0.22727242 0.51622134 -0.9288237 0.16627748 0.17292516 -1.027518 0.1184576 
-0.24390504 0.45638305 0.62862283 0.12540701 0.057848074 0.2598384 -0.68606085 0.44848877 -1.0615581 0.21603352 0.095193304 0.011621814 -0.12406222 0.1918429 1.1099198 -0.7465695 -1.3086861 0.03240826 -2.039726 -0.19666672 -0.88462365 0.6078131 -0.055079013 0.4838694 -0.7080728 0.14243902 0.3241773 0.4590275 -0.19523266 -0.81841296 -1.0703363 0.7460553 -0.21213573 -2.2345142 0.074700415 -1.2407002 -0.77544177 -2.1314662 0.42106247 -0.4818951 -0.10870022 -0.64584804 0.60662013 0.5697879 -1.210461 -0.16961917 0.4917249 0.027736712 0.050542604 -0.36012486 -0.07739022 -0.04169653 0.94090444 -0.37778386 -1.2464194 0.13982236 0.030459251 -0.2722403 -0.32967427 0.6699009 -0.8820047 -0.12272636 -0.15579061 -0.9811335 
0.27652958 0.16609813 0.39823127 -0.069668636 -0.49014923 0.27590495 1.217646 0.78134614 0.64643365 0.8408679 1.4539642 -0.9493593 -0.011200395 -0.23387533 1.3864832 0.65005285 -0.24756752 -0.45023066 0.8029839 0.36151195 0.52319646 -0.17102276 0.24812376 0.06923979 0.38399237 0.53090584 0.8706291 0.25342694 -0.67210793 -0.43451455 -1.5453712 0.49590808 0.3666108 0.02976821 0.023967095 0.3632938 0.4374882 -0.4145613 1.3008665 -0.70743895 -0.44220576 0.2903872 0.30615178 -0.19802342 -0.31739408 0.16722444 0.44583127 -0.1084483 0.26830056 -0.92405397 0.85020274 1.405192 0.77908486 0.09984566 -0.6120879 0.1486686 -0.2135285 0.7516667 -0.22638673 1.1927245 1.0851594 0.110801056 -0.5559909 -0.1976852 
-0.46345162 0.8461951 -0.75556356 -0.46851593 -1.2823422 -0.46759185 0.60819757 0.15243052 -2.8566103 -0.31654564 0.075820655 0.24807702 0.12877412 -1.7955722 -1.0037087 -0.49601012 -0.44488046 -0.5746451 -0.10030567 0.008598162 -0.09805637 0.032817066 0.47808984 0.20573668 -0.7586115 0.23906381 -0.11213613 -0.19770171 -0.10886067 0.46584436 -1.2219594 1.037461 1.1445284 0.20415245 -0.12295669 -0.69003296 0.4687082 -1.1027299 -0.4776861 -0.8667732 -0.75932246 0.76426685 0.20979656 -0.92187095 -0.6622044 -0.8868929 -0.38999784 0.05870777 0.4780471 -0.51913714 0.5737857 0.904581 -0.43282163 0.19938256 -0.12690942 0.9089037 1.1870793 0.16417402 -1.4112731 0.56000054 0.1886547 -0.4740922 0.041376743 0.34010848 
0.31199357 0.6915299 0.2690961 -0.93252337 -0.29746604 -0.5108581 -0.43332857 0.53750134 -0.450333 -0.051651083 1.5136063 0.5282978 0.18211167 0.2186643 0.3826016 -0.424826 0.29967123 0.18264745 0.6514527 0.37291536 -0.52697 -0.1234951 -0.9435555 -0.5404779 1.2211511 -0.43282315 0.6342408 -0.14083825 0.45222127 -0.13756438 -0.50779665 0.41533488 0.6688685 -0.35219684 -0.1261837 -0.5430732 -2.3686714 -0.8512324 0.9944249 0.22001754 0.108747974 0.78465563 0.5351075 0.6513955 1.1271772 0.9889343 0.7867767 0.5394685 1.1895832 -0.11846342 0.019618735 0.82479763 0.18200795 -0.5208987 0.9124115 0.5077833 -0.78551245 0.08000952 -0.8073102 0.16166088 -0.45589963 -1.1517256 -0.13755229 -0.20813724 
-0.8258227 -0.23973542 -0.12874469 -1.3805058 -0.52258444 -1.5453348 0.29675722 -1.064825 -0.4747358 -0.43395078 -0.09256417 -0.429797 -0.53169173 -0.2309845 -0.025092632 -0.33025578 -1.1690912 -1.664482 -0.35077348 -1.6194853 -0.9790449 -0.595633 -0.29347962 -1.0314549 -0.08087542 -0.48722953 -0.74284214 -1.136221 -0.47872797 -1.4641628 -0.12116665 -0.33620647 -0.048577636 -0.03740839 -0.3625194 -0.29685453 -0.6510297 -0.6110313 -0.82021385 -0.7190914 -0.41244346 -0.44923246 -0.4706893 -0.5577285 -0.34542403 0.108483605 -0.0006407987 0.21806146 0.50067216 -1.3199303 -1.8600749 0.25373444 -0.990571 -0.8586532 -0.34412405 -0.629131 -1.0921602 -1.3223828 -0.18765156 -0.30559242 -0.64274573 -0.64754134 -0.9854029 0.13681313 
-1.0446962 -0.67287403 -0.21433993 0.44249806 -0.3413128 0.043765146 -0.40652037 0.2415829 0.7769725 1.0297168 -0.6446586 0.57702756 0.047528543 0.016645683 -0.3920783 0.9013246 -0.27696103 0.49893868 -0.0684029 0.8932519 -1.5049335 -0.004656541 0.5129806 0.24585149 -0.6044486 -0.59445596 -0.15825081 0.053815894 -0.90176105 0.12749152 0.74466485 -0.4564115 0.35620463 -1.1779227 -0.123237416 -0.86254996 -1.427321 0.757192 0.8705657 0.10451972 -0.68063927 0.30304644 -0.14101411 -0.6986937 1.2010022 -0.10535016 0.22296047 -0.6573057 0.39130002 -0.8958375 0.4424813 -0.048406206 -0.015888838 0.0071970546 0.7048857 -0.17071305 -0.76698065 -0.15522914 -0.41748074 -0.7394111 0.5207561 0.43957832 0.59294116 -1.2331814 
0.3813349 -1.3775991 -0.72336334 -0.77463603 -0.28802693 -0.91110694 -0.92902386 -0.72916275 0.22426736 0.6213794 -0.4790456 -0.95383334 -0.46272114 0.5069713 -0.42281643 0.49394554 -1.297868 -0.3884925 -0.18105878 -0.024901867 0.0013327015 -0.4529708 0.19969663 -0.92581016 1.0343269 -0.7445054 -0.63714933 -0.49648446 -1.003003 0.061742 0.5247222 -0.17263772 -0.974475 -0.5519268 -0.16030139 -0.5199783 -1.0423932 -0.7692202 -0.5912097 -0.33155328 0.11761315 -0.627651 0.9781468 -0.59623617 -0.18758957 -0.38048586 0.120438196 -1.0227567 -0.061053917 -0.2610919 -0.1555902 -0.92740464 -0.9512075 -0.17821385 -0.7458692 -0.45250103 -1.271819 -0.13085711 -0.019128345 -0.45252964 0.07185861 -0.6291301 0.5679795 0.65966463 
-0.8085607 -0.38268712 -0.23615874 -0.87235045 -0.2106037 -0.25692758 -0.13958535 -0.74231505 -0.20104831 -0.42855126 0.106072515 -0.5189764 -0.44451222 -0.3187695 -0.871046 -1.0820081 -1.3563455 -0.52981764 -0.74489313 -0.48226756 -0.9850795 -1.237794 -0.52170265 -0.2356392 -0.11134039 -0.96970636 -0.07864677 -0.5788607 -0.9370324 -0.33982456 0.3847126 -0.056159433 -0.5762621 -0.6352001 -0.9727555 -1.0452775 -0.72697127 -1.0926061 -0.5036049 -0.7806701 -0.9597833 -0.68574625 -0.12662113 -0.4996991 -0.8532069 -1.0780597 -1.8911543 0.18331166 0.6137029 -0.4842231 -0.8580934 0.04231683 -0.651722 -1.031622 -1.0817133 -1.0620382 -0.64049196 -1.0229937 -1.4212294 -0.47849852 -0.38625187 -0.84033144 -0.08407395 -0.05768852 
0.5466641 -1.2914256 0.23022954 -0.075212486 0.16493192 -0.44337672 -0.2314882 1.3355291 0.6691934 0.4364882 -1.6930809 0.25149375 -0.2764078 0.775495 -0.6742079 0.50923395 0.5114829 0.38928297 -0.54731125 0.3521622 -0.076084174 0.46762407 0.520397 -0.06629547 -0.42165014 -0.37393662 0.7972798 -0.78689396 0.7978805 0.11329733 1.0544007 -0.5681536 -0.44985124 -0.82622176 0.94762886 0.12636411 -0.23580071 0.6487782 -2.3315165 -0.2851995 -0.06893625 0.15005757 -1.0777068 -0.53376675 -0.14040227 -1.6196966 -0.1870138 -0.5502928 -1.1402168 -0.5534907 0.37455538 -0.4668371 0.2508704 0.15036125 0.15086544 -0.5779346 1.1731673 -0.65411794 0.30930972 0.52148587 0.68516976 -0.11558298 -0.8682236 -1.4628497 
-0.1222533 -0.32866964 0.46928608 0.31249213 0.10645846 -0.0045655784 1.2823849 -0.88698083 0.47834155 -0.35977054 0.31539416 -0.18048874 0.20383295 -0.8211534 -0.29505995 0.011001856 0.95814 -0.43897042 -0.14582679 -0.69601816 -0.5437493 0.068910375 0.14149836 -0.3380758 -0.1261946 0.043565415 -0.25606892 -0.05476506 -0.7252686 0.5687311 -1.635256 0.22538355 -0.96289223 0.21648012 -0.85296106 -0.35133305 -0.21683665 0.9616445 1.2762119 -1.6149535 -0.28475854 -0.8872708 -1.2112707 -1.0592077 -1.2395507 0.17103064 0.19047926 0.3826449 0.45266727 -0.37300205 -0.039313428 0.561265 -1.1996633 0.14602333 -0.51028895 0.20413795 0.7672736 -0.4556363 0.09347466 -0.12718777 -0.6144189 0.8304976 -0.4388491 -0.3868304 
-0.04214185 0.79717356 0.056603417 0.9001834 0.6871344 1.2988589 0.31101903 0.68814147 -0.2821407 0.7799979 0.1958614 0.34516457 -0.78352374 -0.15548469 0.45681378 0.06419415 -0.12820758 -0.58166045 -1.136006 -0.08591952 0.095060706 -0.5077003 0.07392579 0.58438164 -0.5551407 0.5253399 -1.2436132 -0.36440697 -0.3178844 0.35254475 -0.46747017 0.8598961 -0.72548175 0.77263314 -0.10614321 -0.18780345 -2.3666763 -0.22465052 0.007638504 0.21189319 -0.3468099 1.0035857 0.1350613 1.0956864 -0.897591 0.5002581 -0.6667502 0.32484025 0.78006095 -0.47001165 0.6903422 -0.46148524 -0.15820779 0.3637774 -1.8571855 0.6799476 0.9043151 0.82288575 -0.34150004 0.53681725 0.67443615 -0.8648264 -0.4001264 -0.7368774 
0.9464996 0.27404258 0.73323405 0.8732494 -1.3161148 0.21454673 -0.31913948 0.28966537 0.19108132 0.71501756 0.38165298 0.5030649 -0.8301112 -0.73526293 0.58769 0.43042308 0.6921662 0.5878933 -0.0787743 -0.75755703 0.7816258 0.8253885 1.2714397 1.0426247 -0.4225427 -1.0105722 -0.5271596 -0.28012088 0.4485427 -1.7464648 0.37100166 -1.152334 -0.047512196 0.34317884 0.73379743 0.84884423 -0.33433163 0.35339582 -0.25278434 0.1716713 0.7734426 0.65624136 -0.6348508 0.46131927 -0.043264538 -0.12974566 0.6733184 -1.2055374 -1.670559 -0.332397 0.62824094 -2.0691433 0.94531876 -0.24607982 0.477187 0.58632183 -0.14158921 0.9220794 -0.32186052 -0.67939913 -1.0086936 0.7358477 -0.029646099 -0.010146659 
0.5197732 -0.21490262 0.096684575 0.95089555 -0.1273266 0.6827424 -1.1298646 0.21544088 1.0529051 0.76301605 -0.47354448 -0.16727053 0.6229885 0.6010627 -0.46405336 -0.6356745 -0.8324711 0.92057 0.73355407 -0.49093682 -0.8478612 0.4218453 -1.8662881 0.27211106 0.20121402 -0.14307597 0.6260022 0.33591375 0.56022656 0.8295129 0.15730913 -0.99802995 -1.0993583 -0.08050063 0.4823518 -1.5449358 -1.0161943 -0.085764855 -0.32345012 -0.013027584 0.4980006 -0.049049776 1.1054295 -0.20269462 -0.06388002 0.8136733 0.6413302 -0.98812526 0.22197242 -0.711883 0.15080208 -0.55505997 0.47872725 -0.63287777 -0.45232892 0.11722289 -0.34970805 0.39848804 0.62102455 0.29289702 -0.32136157 0.87550956 1.1550839 0.476362 
0.59366995 -0.1393739 0.26946557 0.94474053 -0.29768324 -0.83578485 -0.4995081 -0.30850503 -1.1255742 -0.24510585 0.610231 -0.3377729 0.21213487 -0.17494057 0.023040777 -0.14118747 -0.64144754 0.24826597 0.021597186 -0.7375607 0.45419434 0.087860584 0.35588658 1.0034518 0.33547908 0.889446 -0.13830581 -0.19535826 0.6201513 0.22853437 -0.40975702 1.1870152 -0.8414828 0.47172782 0.11850212 -0.30151975 -0.26066294 0.33012125 -0.96953547 1.5260243 1.0085113 -0.049739663 -0.06235542 0.22596847 0.23985353 -0.25905836 0.19119197 1.0957958 0.46593547 -0.15441231 0.27194697 0.940795 0.08027065 0.1937661 0.60326177 0.1572411 0.20532879 0.1937669 1.2716954 1.0507149 0.3801547 0.33050835 0.07435311 -0.46848613 
-0.6180685 -1.2982426 -0.30030447 -1.5034623 0.028822983 -0.23056827 -0.2724908 -1.753366 -0.727618 -1.1963049 0.4071255 0.79030967 -0.95243853 0.36424464 -0.952354 0.2793346 -0.4956244 -0.89024335 1.0163168 -0.9259738 0.6067694 0.3262102 -0.069050215 0.48329437 -0.22398792 -0.0089946585 0.3773296 -0.22560266 -0.3891406 -0.17575197 -0.79573053 0.038650755 -0.4312751 -0.040949527 -2.0738251 -0.069649756 0.6427528 0.9766043 -0.9348119 -1.1045544 0.38312384 1.0398064 0.23476331 -0.7718667 -1.2022048 0.12199301 -0.2184521 0.37071446 0.6564205 -0.5888709 0.45178506 1.2399963 0.364093 -0.84242636 -0.2073736 -0.9590458 0.66768616 -0.36552525 1.1463332 -0.23368488 0.50982255 -0.07632642 -0.4360656 0.76097226 
0.26512805 -0.33705816 -0.44833657 -0.08381124 1.1238624 -0.4645911 -0.049695116 -0.14135283 -0.037864923 0.17954426 1.1093519 -1.2991943 -0.64817953 0.43666506 0.16831532 -0.15348783 -1.3236158 -1.3841711 0.1585881 0.3874451 0.4707701 -0.5910747 -1.0824203 -0.16008873 -0.17871906 -0.07450759 -0.69402534 -0.70641357 0.19275917 -0.404065 0.09466701 -1.1732271 -0.22912645 -0.21126789 -0.9296997 -0.8430832 -1.4157112 -0.45428252 -0.23564287 0.18506779 -0.4764008 -0.54241854 0.31307855 0.09181859 -0.78450745 0.9966755 0.4557795 -1.1640908 0.6619711 0.35429192 -0.84727013 0.21936202 0.32198197 0.087402254 0.045045704 0.591371 -0.9656604 0.022772187 0.23051746 -0.10998452 -0.34465307 0.087740324 0.11115456 0.75474185 
-0.7862267 -0.10463922 -0.5325623 -0.40553254 0.2013951 -0.41445372 -0.86603296 -0.65877384 -1.0030109 -0.08017959 -0.3067095 -0.56405044 -0.8052431 0.1548924 -0.015224256 0.32660255 -0.20960289 -0.40304214 0.2764407 -0.06595818 -0.6503486 0.23526292 -0.9574797 -2.0297167 -0.0029975409 -0.60553634 0.65273535 0.26512238 -0.6932444 -0.108238086 0.7007451 0.30341697 -0.09830532 -1.5622357 -1.091275 -0.23479992 -0.13790655 -0.3442492 -0.40941373 0.270955 -0.8919471 -0.25338784 0.7637302 -0.65251976 -1.2882752 0.2477012 0.057808403 -0.21308057 0.20376112 -0.5277634 -0.21859275 -0.35302767 0.043483585 0.0065655643 -1.1004653 -0.18401562 -1.1644685 -0.41840917 0.58162785 0.68874484 0.4361099 0.054793097 -0.0042566373 0.921732 
0.08113663 -2.3032484 -0.32123926 0.70943856 -0.44997454 0.04820257 -0.5795073 -1.0178456 0.3274865 -0.018177696 -0.14301504 -0.24172565 -0.570018 0.0506332 -1.4438704 0.1576601 0.76213294 0.529323 -0.6425961 0.41909158 -0.045182433 -0.44760984 -1.2168306 -0.03685032 0.57824653 -0.16518481 -0.01042161 -0.002687426 -0.34602472 0.25137344 0.28118908 -0.062729985 -0.72983307 -0.64438844 -0.5312929 -1.9087408 -0.40860698 -0.32580265 -1.1503384 0.7485442 0.020730834 -0.31750944 -0.98109263 -0.09926058 -1.3130202 -0.43061125 -0.16034353 0.087687574 0.29341304 -0.67642343 0.01114995 -0.72163576 0.4850857 -0.1171965 -2.2766745 0.09333977 -1.3650413 -0.8236726 -0.19285521 0.33600068 0.14985508 -0.69243455 0.73947775 0.038364474 
-1.0777154 0.6778658 -0.5351061 0.031788692 -1.285001 1.0079482 0.1183434 0.14032084 -0.3130256 -0.9654585 1.2988888 0.2760722 0.35147214 -1.2368126 1.4126822 1.2663412 -0.17614542 0.36888734 0.43902934 0.1126956 1.0438194 0.8732748 0.8954432 1.1406673 0.24980465 -0.6132151 -0.5753016 0.3600067 1.1968222 0.12237221 1.3527222 -1.2881159 0.92184985 -0.70904356 0.7271314 0.28910875 -0.25584444 0.34507394 -0.0870362 1.0213765 -0.77842313 0.74832034 -0.4815231 0.59297717 -0.6226236 0.05684775 0.72155875 0.1389156 -0.458971 0.3573723 0.53572446 0.08596726 0.060777415 1.201983 0.28308952 0.43571952 0.24434623 0.17998444 -0.18145277 0.5127853 -0.12908833 0.7215644 -1.4086275 0.50925845 
-1.0484954 0.72433925 0.52218586 -0.28740484 0.18165417 1.2467594 -0.95011944 0.5713078 -0.31623974 0.96995527 0.14372537 -0.098941624 0.36881456 0.58892536 0.76133955 -0.069650464 -0.06402453 -0.7366641 -1.3135151 -0.10832408 -0.07724857 0.1642841 0.7132686 0.5772209 -0.32836977 1.293011 0.449813 -0.036314704 -0.77319753 0.28928527 -0.7385542 1.2299657 -0.19969459 0.9345577 0.46762213 0.40307105 0.6853168 0.4371333 -0.6595757 0.8400045 -1.0166836 0.7400827 0.33767077 0.42411444 0.78962034 -0.7158384 -0.039969545 0.8567145 0.18147846 0.18149556 0.19249861 1.4339131 0.008605575 0.7623435 0.54749364 -0.6787985 -1.0685312 0.3061467 -1.0856347 -0.26217043 -1.7421134 0.16590817 -0.8883393 -0.0506123 
0.07115392 -0.9271298 0.08253021 1.280222 0.46732652 0.73638207 0.6301011 1.017908 0.39560556 -0.10188246 0.554731 -0.90513545 1.0410582 0.4503203 0.33900416 0.9401584 0.6229356 -0.41907266 -0.099458784 0.7512841 -0.21484396 -0.20634142 -1.0484532 0.7722641 0.044008933 0.58346516 0.080595985 -0.23585764 -0.513316 0.17462271 0.06408217 -2.0573363 -0.3614799 0.10657764 1.420798 -0.4692368 0.6524154 0.6031528 -0.90207744 1.4211105 -1.4045718 -0.6323786 0.41740265 0.47405756 0.8962717 0.35465863 -0.32522452 0.63604826 0.40597376 0.24762534 -0.099473946 -2.7620182 0.23926121 -0.058791175 0.2718329 -0.15543702 0.793817 -0.1627969 -0.18275239 0.38182622 -0.95077944 -0.5736336 -0.021692162 0.29997984 
0.055773612 0.42237514 0.34372514 -0.7886429 0.2829239 -0.83261466 -0.9068059 -0.35018626 -0.23985481 0.34192222 1.4757776 0.21739407 0.35155845 0.02308808 -1.4817193 0.026014168 0.33279964 -0.3625191 0.12973624 -0.81748194 -0.10309164 0.73998773 0.23908436 0.44578338 -0.1228254 -0.403146 0.4187845 -0.36710808 1.3781022 -1.166515 -0.8899232 0.81846 0.7431715 -0.3990636 -0.5678079 -0.68625045 0.4765541 -0.5620166 -0.9298183 0.58582515 0.31385112 0.097481266 -1.4518604 -0.1788572 -0.22192213 -0.8898437 0.6436792 0.89223325 -1.2091293 -0.25645408 1.4772434 -0.7070016 0.85387325 0.95583904 -1.0588619 0.32082784 0.68909395 -1.1954564 -0.13241479 -0.77300614 0.37031668 0.37732708 -0.26670906 -0.8733589 
0.083968334 0.14888906 -0.41592818 -0.9697091 -1.3785781 0.054750487 0.5797929 0.654838 0.22226822 -0.6247523 0.77303106 0.12128185 0.33674625 0.12719472 0.26548663 -0.66757226 -1.6212431 -0.6092258 -1.1956297 0.31322262 -0.35508344 -0.37572438 0.42090225 0.8945054 -0.3071257 0.3423144 1.1823288 -1.262534 0.8757198 -0.15706111 0.08379791 0.7573543 0.24026583 0.20153524 -0.47145134 0.525859 0.40156883 1.4699329 0.0031239274 -0.33852705 -1.5362562 -0.55597955 1.0588459 0.8471015 -0.3078027 -1.4018614 0.6328544 0.40142828 0.11018569 -0.71561986 0.9145964 -0.60372883 -0.23313512 0.39776304 0.24785855 1.042417 0.13343383 -0.6457054 0.7266898 1.0607454 -0.78317374 -0.3920752 -1.3382417 -2.110675 
0.71333945 0.064905666 -0.50763774 -0.6965889 -0.43650964 0.070209876 0.64872813 0.09834061 -0.97128767 0.41415936 0.35826325 0.7145462 -0.033883806 -0.67462415 0.51891017 -0.15603852 -0.10103679 -1.3849894 -1.5704908 -0.5317949 -1.0344889 0.048138738 -0.3481127 0.54501003 -0.4667874 -0.1032817 -2.3547442 0.34965017 0.5151226 -0.8638667 -0.18689787 0.9267976 -0.36158094 0.5547925 0.11804017 -0.408222 -1.7889705 -0.18704616 0.031489205 0.36606583 0.5009103 -0.6056215 0.806938 -0.2666992 0.19436038 -0.21756256 0.6089283 0.45126033 0.08736434 0.15923004 -0.26331216 0.7704494 0.8770447 -0.8565476 0.40524015 0.006836247 0.3843517 -0.20677164 0.12642714 -2.5579295 -0.9007507 -0.0124963 -0.39856392 -0.72753596 
-1.0883111 -0.8587124 0.6743206 0.15267088 -1.0368022 -0.0065374426 -0.4677402 -0.56497014 0.7218547 0.31665945 -0.061241966 0.6208678 -0.19466496 0.09935136 -0.9510236 -0.40402737 -0.13072829 -0.2374184 -0.5515001 0.5240203 0.31338647 0.73110247 -0.04165607 -1.8317423 -0.26203018 -1.8296752 0.37449244 -0.2487092 -0.6402077 -0.37743244 0.025856053 -0.14523786 -0.90848553 -0.090188414 0.293387 -0.31876156 -0.9786925 -1.4405329 -0.8575126 0.46449307 -1.0989705 -0.5234822 -0.29928982 -0.1250918 0.56371176 -0.1859695 -0.49865836 -1.1815149 0.16047087 0.06617017 0.00074348634 0.013146463 -0.37748215 0.41011044 -0.63221985 0.3570547 -0.5953097 -0.11144257 -1.0713645 0.31460539 0.46937093 0.27578476 0.03912744 0.6267777 
-0.84729993 -2.347985 -0.20440498 -0.051151685 0.359077 0.2879804 -0.3450077 -0.5547385 0.18671851 -1.1159049 -0.56455785 -0.30345225 -0.16816007 0.78974277 0.5907898 0.4455955 0.23117028 -0.03152531 -0.46374333 0.22044276 0.49873516 0.8305263 -0.05440886 -0.983311 -0.0955289 0.51592636 0.27499253 0.6559778 0.6379032 0.6278848 0.20581855 -0.25135428 -1.4030554 -0.82368475 -0.28216502 -1.0136079 0.47122425 0.203399 0.1419806 -1.094688 -1.9672818 0.6725852 0.22516148 -1.0354599 -0.062373526 -0.19174524 0.36498848 -0.9800409 0.3255062 -0.36026087 -0.8313825 0.10142947 -0.82006186 -1.0332472 -0.23467964 -1.1071122 -0.45403427 0.36592305 -0.7549866 0.3115139 -1.2347502 0.12940216 0.77387166 0.059444334 
0.38557476 0.4594867 -0.9924035 -0.16944154 -0.14908509 0.6746687 1.163959 -0.13608997 0.3494869 -2.2354164 0.8844597 -0.2726409 1.3393458 0.6653426 -0.06696191 0.4188589 0.7358999 -0.80110204 0.5049324 -1.464784 0.33251578 0.6148193 0.17988583 0.9270806 -0.6955802 0.4057344 -0.13256484 0.4476557 -0.31383184 0.15854873 -0.5942143 -0.27078405 0.10911326 -0.1321281 -0.2581243 0.4256722 0.01627337 0.638217 0.1942614 0.6442329 -0.43597326 0.66115654 -0.88046855 -0.3693026 -0.015418906 0.21427198 -0.4515112 0.62214786 1.0628734 0.18398988 0.85414743 1.3928092 -0.39100495 -0.298616 0.14639574 0.39282936 0.3071661 -1.5330948 -1.3221179 -0.87303156 0.113696136 -0.5614463 0.005275597 -0.21540202 
0.18394487 0.45587337 -1.0664781 -0.06820503 -0.029869288 0.84767526 -0.13992321 0.40425372 -0.5935213 0.3717767 -1.0538423 0.682439 0.6202607 -0.5429727 -0.7752274 0.0335528 -0.056468558 0.99286443 0.13741119 1.0748446 1.1641142 0.3709945 0.4906095 1.0908484 0.03852377 -1.0707357 0.3048488 -0.4179654 1.3502197 0.11140083 1.1674676 1.378202 -0.05758702 -0.2534489 0.48404884 1.0172772 -0.040523022 -0.5142285 -0.43824103 0.08788719 0.26649427 1.1376829 -0.84583104 0.8698873 0.23894466 1.1273638 0.064499326 -0.7761533 -1.4156078 1.0961787 -0.35776496 -0.5798255 -0.34637654 -0.9921413 -0.93248045 -0.9612143 0.26557246 0.17770475 0.07602272 0.31651244 -2.168928 0.612457 -0.555579 -0.5257003 
0.5538049 -1.3732427 0.31649223 0.07957766 -0.66214246 0.13342921 -0.7714941 -0.4591407 0.434825 -0.026276888 -0.2992083 -0.40748227 -0.08609869 1.0307739 -0.13590974 0.5965682 0.024946557 -1.3039421 0.47621322 0.35256606 -0.09793302 -0.32421306 -1.0006782 -0.10242458 -0.0955531 0.0762301 -0.38333964 -1.0553069 -0.6870927 0.08036057 0.3281213 0.17070624 -0.38644937 -0.8942495 0.10805686 -0.0018703078 0.9547027 0.43175185 -0.47527978 0.94963783 0.17939591 -0.1305142 1.0953245 0.061572436 0.36516258 -0.76186836 -0.010042543 -0.055531777 0.46725595 -0.09136631 -0.5581797 -0.2625619 0.16657831 -0.32519257 0.01063151 -0.20218527 -1.952384 -0.747359 -0.021899264 -0.12488011 0.20673786 1.2482835 0.8271823 0.77627385 
0.32954818 -0.21931386 0.011568654 0.5317922 0.9072827 -0.33481085 0.6964111 1.1848888 -0.11956984 -0.13457468 0.52441305 1.0888914 0.710057 -0.42320842 -0.40916845 -1.024509 0.7193846 -0.14672093 0.06056005 -0.3180921 -0.19281517 0.75125235 0.18905628 0.9058589 -0.2125285 -0.37421745 0.45987505 0.4415011 0.32606205 0.36017832 -0.18057674 0.90878963 0.07707872 0.20043032 -0.35911807 -0.40495536 -0.47702464 0.597174 -0.71802235 0.78544563 0.936654 0.17582774 1.0120567 -0.15657704 1.0105072 0.8544194 0.64646924 0.84144783 -0.045975063 -0.17302978 -0.5476973 1.3091825 0.61679995 -0.31326237 0.42640883 -0.44076788 0.06949521 0.16422597 0.38882798 -0.56701607 1.0721538 0.12975532 -0.45228586 0.06702989 
-0.20940451 0.27405164 -0.49634126 -0.9332117 -0.07080278 -0.09241508 -0.60520035 -0.69588584 0.5312877 -0.16854997 -0.65996784 0.38831028 0.6345547 0.011464037 -0.48336816 -0.45474148 0.19886705 -0.065829724 0.44489005 -0.28753668 -0.13225101 -1.302714 -0.055674344 -0.18809578 -0.02181674 0.3601167 -0.5688333 -0.6100045 -0.8470499 -1.6398292 0.9547793 -0.6915732 0.5539795 -1.1199715 0.22652976 0.7374668 -0.0178224 -0.69540596 0.050880756 -1.0074893 -1.04118 0.23694104 0.34226277 -0.27391294 0.023729457 0.04342651 0.7756841 -0.7735394 -0.5011815 -0.22134107 -1.1021243 0.016549468 0.16138317 -0.95850503 -0.21823147 -1.0052502 -1.4347825 0.48633194 0.014148698 0.38867348 -0.3157661 0.58097714 -0.4501349 0.55746603 
-0.5337513 -0.3212539 -0.71000344 -0.025559328 -0.1969793 0.23681366 0.057587177 -0.17873621 -0.76147604 0.010679628 0.092123926 0.31502804 1.1398013 0.27886158 -0.08255232 0.5460444 0.05838651 1.1436083 -1.5211046 0.5851115 0.955887 0.23466818 0.69245654 1.30899 -1.0762745 -0.46032298 -0.029248048 0.222336 0.80580693 -0.012066817 0.10082065 1.9003326 0.13168521 1.1378129 0.49783397 0.7014907 -0.8139124 0.2539695 0.30200794 -0.55638885 0.83574146 -0.6583222 -0.63156176 0.61633414 0.012810486 0.5016203 0.05716522 0.34724003 0.8527257 0.66838485 0.45762283 1.2844883 -0.50632983 -1.1423593 1.1046097 0.60505927 -0.56185627 0.34525904 -0.08295385 0.38592696 0.8456322 -0.6210888 -0.86976635 0.52823186 
-1.0539169 -0.3106057 0.38938233 -0.15842989 -2.4373064 0.044238944 1.0515702 -0.24539573 -0.23117138 -0.58498156 0.54827356 0.5014845 -0.34701416 0.37642783 -0.757466 0.023968697 -0.3896473 -1.6725128 -0.8336552 -0.28842625 -0.32853073 -0.016135069 -1.1585376 -0.048972983 -1.6828377 0.06546732 -1.2419833 -0.1159697 -0.71355563 0.012872897 -0.5697649 0.5630256 -1.4066695 -0.37783 -1.4615417 0.19608276 -0.78896093 -0.4078214 -1.6723648 -0.39031768 -0.96745855 0.1124546 -0.48657268 -1.0393049 -0.053500146 -0.37961233 0.8616659 0.15459906 -0.19986708 -0.58592224 -0.40644228 0.59114605 -0.8193905 0.5160429 0.70994407 -0.39922658 0.10835912 -0.19397122 0.2235892 0.3533652 0.41750717 0.26729894 0.17539029 -0.0860928 
-0.46042025 -0.009015006 -0.37914014 0.52353543 -0.46542358 0.046884235 0.19974032 -0.8550408 -0.17358278 -0.31739745 0.7824738 -0.8970534 -0.5985629 -2.0179281 -0.3156317 -0.17308843 0.10484909 -0.32863346 0.1701013 -0.4881434 -0.9488546 0.3837279 -0.043814007 -0.43624687 -0.4196851 0.27401978 -1.5017666 0.45322174 0.6446711 -0.11202662 -0.71572864 0.26187307 -1.3840425 -0.2643294 0.19722618 0.43666732 -0.3831278 0.1604381 0.32972428 -0.5897003 -0.26473033 -0.22765702 -0.03468081 -0.08773579 -0.75668585 -0.33182305 -0.38125363 0.40822476 0.0065149404 -1.187284 -0.5509388 0.118927136 -0.1857362 0.13133122 -1.81928 -0.53264356 -0.13775283 -0.084368914 -1.2275498 0.007217476 -0.23900707 -0.99272376 0.22807634 0.43759158 
-0.85466635 -0.15678525 -0.06478119 -0.97729105 -0.6757279 -0.6575166 0.032595977 0.088766426 -1.2836529 -0.920567 0.15796123 -1.5266994 -0.91577977 -0.47939795 -1.1641916 -1.0940108 -0.91865706 -0.42448536 -0.6998536 0.07902521 -1.2608339 -1.1407975 -0.25830904 0.10467263 -0.48776668 -0.5301064 -0.7659634 -0.6023819 -1.2702378 -1.0014186 0.07876405 0.058205917 -1.5104158 -0.3682402 -0.59786534 -0.7212548 -0.5292016 -0.9346494 -0.23636267 -0.33266506 -0.38141492 -0.79494405 -0.24863155 -0.236811 -0.36491805 -0.9248122 -0.56537944 0.3808119 0.31013438 -1.1910957 -0.1852083 -0.15681955 -0.04771741 -0.42347148 -0.96291 -0.7375366 -0.7439799 0.47983006 -0.40454248 -0.3156008 -0.4080642 -0.9266977 0.018571615 0.06643081 
-1.376243 -0.81235075 -0.85376227 -0.33534157 -0.5890383 -0.04569731 0.98973435 0.78654236 0.028992075 -1.0715067 0.6392601 0.29556948 -0.2674512 1.5075858 1.0741513 -0.8585663 0.5358022 0.45541835 -0.14718045 -0.23065265 -1.1389616 -1.2620813 0.8598088 1.0115131 -0.5552768 -0.031327166 0.78234303 1.000128 -0.47871307 -0.48789316 0.6231762 0.62683666 0.49387214 0.018555444 0.85632575 -0.3254166 0.45509896 -0.23443858 -1.1903 -0.22622664 -0.98623943 -1.4040749 0.262059 -1.5004879 -0.1056103 -1.1424056 0.6967422 0.9118713 -0.27418035 0.2120254 0.49307024 -1.6854733 0.8418081 0.5358121 0.78899413 0.6345813 -0.6064874 0.68124336 0.5796485 -1.2483741 -1.7968024 0.020218207 -0.39699873 -1.488389 
-0.10060172 0.49700737 -1.929845 0.048090488 -0.6838129 -0.21374431 -0.54624885 -0.43289125 -0.097990535 -0.18289952 -0.032692246 -1.2497679 0.34843147 -0.38244477 -0.42645913 -0.04186075 -1.1726568 -0.12947151 -0.4244048 0.2456152 0.123009145 0.3320571 -0.18700308 0.41834348 -1.7761246 0.25166473 -0.018978162 -1.5649304 -1.2543488 -1.1349802 0.73740244 -0.01821291 -0.18961842 -0.0842161 -0.45414194 -1.7405888 -1.05078 -0.09614458 -0.25761348 -0.21738853 0.5106381 -0.8843914 0.06796882 0.010313317 0.056020238 -1.2556728 -0.020060971 -0.9000772 -0.21890244 -0.061825044 -0.121103734 -0.24886298 -0.8216608 0.10393845 -0.076788135 0.6484693 0.88948894 -0.72813636 0.2799372 -0.36802998 0.6261994 -0.79999346 0.28702652 0.042418927 
0.037775453 0.5664278 -0.6633935 0.517847 -1.1147546 0.52082163 0.82410264 0.42398185 -2.542375 -0.17325561 0.5176375 -0.48682114 0.63530713 -1.0411531 -0.40853086 0.063484915 -1.863317 -0.68525386 -0.42235932 -0.35984352 -0.03150572 -0.9293116 -0.6683675 -0.2713222 -1.8395271 -0.63693005 -1.8116721 -0.6704513 -0.18801926 -0.62865525 -0.07398565 0.58137035 0.50259864 0.15249337 0.48553976 0.6610995 -0.85041994 0.8109233 -0.40259343 0.026398886 -1.0082655 -0.4080655 -0.91565406 0.5106512 0.26780984 -0.3582778 -0.42531753 0.4610075 -0.5077747 -0.6011214 0.06143823 0.22099093 0.28288615 -0.07512478 0.05708017 -0.62623304 0.28001034 -0.12911719 0.6500288 -1.4394404 0.06677426 0.3506665 -0.081327 -1.2902688 
-0.110842615 -0.9924098 0.6133225 0.074249245 -1.0982376 -0.82567036 0.052594807 0.15254149 -0.2187751 -1.1125214 -0.15926035 -0.6533764 -0.13042158 0.8868213 -1.2686645 0.16008173 -1.682858 0.083920114 -0.66956866 -0.34304395 -0.5419136 0.004389771 -0.5610904 -0.17373326 -0.06190467 -0.45135352 0.8357339 0.0905744 0.24706092 -0.58815783 0.48851418 0.14663425 0.35961217 0.3104291 -0.1861993 -0.045441635 -1.3986553 -0.736648 -1.099358 -0.3708086 -0.28844243 -0.25115705 0.11833761 0.7838524 -1.2764143 0.40357795 -0.39561343 -0.96769434 -0.4490157 0.11209428 -0.38400242 -0.02770988 -1.0572363 -0.23604046 -0.6082198 0.23041336 -1.3019743 0.5421484 0.1782405 -0.678127 -0.52705127 0.02561953 -0.009325627 0.11343248 
-0.3070642 0.3163639 -1.9038398 -1.3397259 -1.5725673 -0.7309759 -0.028428514 -0.8099415 -0.6668402 -1.0763345 0.8676466 -0.81424147 -0.85816765 -0.2482115 -0.9229919 0.9382873 -0.013226515 0.38739964 -0.6263577 -0.90711856 -0.08700176 0.23779097 0.48516363 0.4971142 -0.3265916 -1.0699731 -0.6520411 -0.106584564 -0.67475516 -0.33112139 -0.9587084 0.5555031 -0.0028303668 -1.1769472 0.34923163 -0.32770792 -1.3215002 -2.064959 0.35406584 -0.4722885 -0.7127987 -0.7679963 -0.12082567 -0.4316287 -0.72263664 -0.29078946 -0.3275292 0.37772557 0.55251294 -1.2925937 -0.13969558 0.27730125 -0.2442974 0.19707665 -1.0602728 -0.026125357 -0.52784485 -0.3278483 -0.7097054 -1.0225303 -0.046809673 -0.66529727 -0.13222858 -0.66725284 
0.13605267 0.6108847 0.9116492 0.73137516 -0.4153374 0.15567854 0.70113826 0.36225376 -1.1821665 -0.18475044 0.9420953 0.019654136 -0.72629136 -0.5626105 0.8042271 -0.25040054 0.21489495 -0.69483364 -0.47723937 -0.41865924 -0.19606347 0.19854584 -0.5485142 -0.025538236 0.4225323 0.07701575 0.16027677 0.32250398 0.8567947 -0.97966677 -0.9962245 0.61095077 0.03955652 0.18106253 -0.032930892 -0.509394 0.5778319 0.4302899 0.25679538 -0.9601653 0.43844682 0.3944243 -0.8233136 -0.35373425 0.5738397 -0.09857071 0.549249 0.52732533 -0.1193178 0.6281536 0.120252475 0.09446422 -0.46807417 -0.3791554 0.8284871 -0.95571524 0.9343938 -1.2100004 -0.80051845 -0.38827652 -0.40854603 -0.16931815 0.10449845 -0.32205844 
-0.69409806 -2.662821 -1.5776178 -0.33242103 -0.9169318 0.41655174 -0.012785057 0.680847 -0.26717612 0.135006 -0.660043 0.1550204 1.1476176 0.7227627 0.47510692 0.9473067 0.001987922 -0.07710422 -0.08456933 -1.1877823 0.89595777 -0.012692648 -1.5981523 -0.08344168 -0.017906433 -0.33356264 0.8659885 0.60734206 0.73367965 0.027184604 0.7727859 -0.12155345 -0.38971335 -0.61468774 -0.39096215 -0.7937001 -0.28129342 0.17703773 -0.37235156 -1.0190635 -0.7212384 0.05571186 0.15127419 -0.31668806 -1.4518254 -1.0113195 -0.574076 -1.3862187 -0.024576254 -0.5035133 -0.07093383 -0.023861893 0.57432216 -0.043302212 -0.9889326 0.13369234 -0.22406378 1.0085552 0.5934027 -0.091492444 0.41992262 -0.25346866 -0.0020190028 -0.07516644 
0.14415394 0.90683115 -0.68843806 0.8587529 0.1057195 -0.17739172 0.70596904 0.5121267 0.35826555 0.84299034 0.30379403 1.0596374 -1.5689311 -0.03603315 1.2257665 0.39041916 0.11038008 0.08193598 -0.18305321 -0.871984 0.112766966 -0.2724205 1.671972 0.14704323 -0.98024964 -0.4073546 -0.4868585 0.56560904 0.85066944 0.15597475 -0.7859567 0.5842524 -0.02696586 0.77881384 -0.845272 0.778537 -0.35560596 1.0382248 0.55042315 0.27531633 -0.33955434 0.24494995 -0.6581946 0.7213857 0.3902194 0.25212002 -1.1317325 0.7618135 0.16354346 0.001625173 0.8465324 0.8489089 -0.33178803 0.31361237 -1.2816503 -1.4688935 0.12551254 0.2792651 -0.26642102 0.79763746 0.0240308 -0.15943943 -1.1581069 -0.6707126 
-0.6495218 -0.29339498 -0.1300685 -0.7952932 0.43444255 -1.3583308 0.27762017 -1.6411602 -0.1302845 -0.28046188 0.86284834 -0.7867181 -1.0844525 -0.9782964 -0.7998451 -0.3711896 -0.03371257 -1.0580102 -0.7490425 -1.1865524 -0.73378104 -0.032070503 0.65436447 -0.2510113 -0.7411635 -0.82805747 -0.71032894 0.029416073 -0.3005073 -1.4536114 -0.97899973 0.4009133 -0.49119535 -0.07653214 -1.1817291 -0.70656383 -0.371735 -0.23605235 -0.57529527 -2.6903658 -0.69963086 0.20211829 -0.6916919 -1.5035648 -0.7689995 -0.32295138 -1.951028 0.8393315 0.4161108 -0.4684908 0.06400074 -0.08983551 -1.2428234 -0.53543216 -0.3185445 -0.7245628 -0.35967124 -0.3885337 -1.1007234 -0.045278404 -0.80809003 -0.51950485 -0.11339219 -0.10056058 
-0.6753992 -0.07655473 -0.10060165 -0.042426813 -0.5989895 0.5959496 0.30584836 -0.05109046 1.0746152 -0.0125982575 0.24156784 0.16280593 0.31039327 -0.17411461 0.30778086 -0.3330012 -0.16763256 -0.058637865 -1.1118051 -0.42994577 0.20086135 -0.17104371 0.45879698 -0.9643365 0.15993011 0.06198959 0.61272687 0.6154456 -1.2556449 -0.77406913 -1.1714079 0.6890087 0.053464476 0.9011737 -0.29870054 -0.52801454 -0.3864009 -0.4957847 0.015832063 0.79589105 0.08973881 -0.941563 0.91413826 -0.8085189 1.0482 -0.22247149 1.1752863 0.50593233 0.50499684 0.23217589 0.14661767 0.9126367 -0.50787437 -0.33908477 -1.0024576 0.16729094 0.4733982 -0.592946 0.71466523 -1.0762272 1.1062564 -0.6184084 0.31128362 -0.13557382 
-0.770309 0.39218765 -0.47388306 -1.2938832 0.15778096 -0.8907769 0.6989798 0.25113288 -1.0461023 0.18370713 0.2371179 -0.5574682 -0.11182226 0.5904052 -1.5753577 0.0818126 0.851479 -0.21288072 -0.44173202 0.8223432 -0.9656665 0.055027686 0.41734785 -0.29420778 -1.3348438 -0.062833354 -0.46142265 0.04741195 -0.3903931 -0.0029684624 -0.5831473 0.23099105 -0.49283206 -0.8279876 -0.3012716 -0.41195756 -0.5366289 -0.84226555 0.46045762 -0.39204326 -0.605006 -0.5621958 -0.80404514 -1.0130184 -0.63120145 -0.53673214 -0.77548754 -0.005743541 0.1353213 -1.0191256 -1.298574 0.6664292 -1.80497 -1.4798988 0.25302523 -1.3903778 -0.29995653 -0.111036085 -0.27653125 -1.1113566 -0.74900043 -1.2950405 -0.33568355 -0.13311128 
-0.51333237 0.15427564 -0.5266738 -0.3723628 -0.11591737 0.54080695 0.46861017 -0.7665231 -2.4090006 -0.32359317 0.4979107 0.052732512 0.005099676 -0.3510834 -1.0031215 -1.4954411 -0.11271597 0.26768553 -0.187468 -1.1167313 -0.6027722 -0.75577253 -0.18713127 0.40104783 -0.23276049 -0.36605814 -0.5005905 0.42885494 -0.19440505 0.70628476 -0.65690714 0.3451219 -0.5821961 -0.15132017 0.78380305 -0.7117844 0.31793907 0.1520185 0.3405918 -0.10013572 -1.3688518 -0.8621411 -1.3465812 -0.19504678 -0.5125511 -0.54822916 -0.87276167 -0.24464546 0.67521906 -0.570678 -0.57987773 0.29270583 -0.4520022 0.6657303 0.014973258 -0.19721833 0.5538048 -0.80992967 -0.52783835 0.26420292 -1.5325737 0.43983188 0.26628694 -0.18629111 
0.03875145 -0.86632264 -1.5998708 0.46164793 0.0062807663 -0.8670648 1.1489635 0.28923136 -0.7875899 0.56387687 -0.008128077 -0.30627286 0.87270397 -0.43264717 -0.27949473 -0.6419691 0.09903693 0.006651187 -0.4875868 -0.52942055 0.51217175 0.2234612 -0.5310685 1.1502088 -0.7178042 0.7150859 0.2530341 0.04415222 -0.32377973 -0.14394717 0.15217824 0.29917145 0.40464383 0.20902193 0.054114923 0.047329143 0.061628602 -0.43675244 0.8945671 -0.14282377 -0.45038652 -0.8264141 -0.40449604 -1.2515231 -1.0891091 -1.246047 0.119327724 0.5783952 -0.129839 -0.2679268 -0.22453037 0.6434616 1.1980923 0.0173988 -0.5901824 -0.65759695 -0.61927754 0.75911546 0.42245558 -1.103426 0.07669163 -2.005308 -0.69416153 -0.94212186 
0.047865357 0.4814865 -0.5272551 0.68167967 -1.6697934 -1.0637269 0.5411942 -0.5208448 -0.13913764 -0.6530784 0.35471746 0.9255771 -1.0105699 -0.20311925 -0.78160924 -1.078097 -0.13629505 0.12834263 -0.10971668 -0.22357398 -1.2789654 -1.0840961 -2.0461447 -0.042066276 0.53689045 0.41889006 0.0029582595 0.85844606 -0.26248848 0.70083946 0.61363596 -0.038125455 -0.843026 0.5190671 -0.36536872 0.67333543 -0.9928306 -0.32927054 -0.45807296 0.35581458 -2.2555864 -1.1093682 -0.56429315 -1.547158 0.20188767 -0.568367 -1.4142424 -0.46463582 -0.36608568 0.4972737 -0.023495331 -0.105204664 -0.2770482 -0.9007305 -0.2272144 0.028319784 -0.35110563 0.67762655 -0.5735232 0.0118380925 0.6069582 -0.549863 0.86622244 0.29092792 
-0.38095263 0.8354302 0.39747807 -0.19640835 0.14889383 0.532924 -0.12369392 0.14535064 -1.2738655 -0.18011166 -1.9683464 0.47929606 -0.029356293 0.16913685 -0.8779088 -0.7152689 0.9062733 0.14475188 -0.051947966 -0.6994837 0.4292766 0.3401918 0.63613766 0.4259156 0.23923326 -1.6214364 0.5633509 -0.020853223 -0.3281646 -0.355223 1.3505168 -1.3633636 0.37556157 0.07487293 -0.7554302 1.3451475 0.44608435 -0.57177776 0.23765856 0.5572792 -0.6671131 0.28581992 -1.1457866 0.46557444 0.72168267 0.17587525 -0.06481007 -0.88453734 1.1098511 0.9634468 0.28830472 -0.35151514 -0.64327973 -0.083015054 -0.6080313 1.0424998 0.16581911 0.3221266 0.029123133 -0.5426126 1.1008635 -0.27601933 0.3729798 -0.38998657 
-0.3749365 0.52249753 -0.27642065 -0.35571063 -0.123865135 -0.19768457 0.04810434 -0.9074579 -0.37840044 -0.080072306 0.6457936 0.10919166 -0.09987915 0.4768953 -0.6269506 0.12724648 -0.15271868 0.22281694 0.023333166 -0.45004684 -0.25074726 0.02809513 -0.70476913 -0.46185496 -0.2980973 0.52201355 -0.6369834 0.29398534 0.46764815 1.0363994 -1.5958596 0.5319166 -1.1793402 0.83005065 -0.8755595 -0.41244388 -0.2482514 -1.5569415 -0.539448 -1.2359586 -0.01924586 1.057932 -0.3734664 -0.039061666 -0.45500046 1.0943922 0.7141596 0.33361813 0.2017341 0.10390094 0.069504924 0.38182554 0.11777732 0.1633493 -0.060635097 -0.42374653 0.45714056 -0.72462255 0.04765263 0.6005803 -0.62211496 0.026861915 -0.6795877 0.5347832 
0.13378845 -1.3191105 -0.14252031 0.077044904 -1.3103752 -0.14089717 -0.021381846 0.22712009 0.16197516 0.06822475 -0.1174995 -1.095879 -0.44618908 0.41119993 0.11271097 1.1356735 0.8249545 -0.04105275 0.022317326 0.59802604 0.9426866 -0.12605542 -1.1986183 1.0454261 0.6626382 1.2455225 -0.08586244 0.239976 0.20553616 0.11942909 0.26817378 -1.3211757 -0.4579869 -1.567995 -0.14678596 0.49279135 -0.0534753 0.30646238 0.093473084 -1.1668421 0.20503718 0.8383127 0.06583774 1.0297344 -0.45596266 -0.49674186 0.025560051 -0.28759152 0.35863325 0.7682712 0.48061377 -1.5321567 0.2702056 0.6429698 -0.01049147 0.11367994 -0.69406736 -0.20920843 0.053977594 0.27806178 -1.258639 0.08221465 -0.19423732 0.5409074 
0.09171921 -0.45736283 -0.66343653 -0.13386895 0.6139163 -0.48080385 0.044291474 -0.6483259 -0.2775166 0.3537469 -0.5809535 -1.4870739 -1.2869086 0.3593071 -0.17154509 -0.091883816 -0.775254 0.45562267 0.3644158 0.6679156 0.0822382 0.17625327 -1.3736036 -0.065497816 -0.186494 0.5629837 -0.6780468 0.08129183 -0.6062772 -0.43740425 0.4405376 0.37905577 0.11450354 0.5119655 -0.17904222 0.08996965 -0.9831464 -0.5423452 0.17740774 -1.513037 0.46905315 0.7565221 1.2386501 -0.7991152 -0.1847313 -0.93165314 -0.24226661 -0.51455253 -0.10655102 -1.3171331 -0.42815974 -0.52024305 0.08011311 -0.77865154 -0.57295644 0.12434548 -0.2574986 0.45640147 -0.48709783 0.18367775 0.54913634 0.19962126 -0.2205325 0.458081 
-0.2725544 1.0994902 -0.39976355 -0.07806323 -0.4573248 -0.83696467 1.2487227 -0.7240766 0.08066449 0.5992316 -0.37284157 -0.046081718 0.9033269 -0.48715472 -1.8509083 1.0040495 -0.46246034 -0.344136 0.29258847 0.71660995 -1.1727773 0.27044475 -0.56100273 0.0021464701 -0.6823686 0.030813005 -1.4069245 0.038830627 -0.5987562 0.68780667 -1.3762047 1.4973154 0.56844544 -0.099838875 -1.2250301 0.8088519 0.36897638 -0.8195472 -0.32176718 0.43399963 1.1864952 -0.6371964 1.0476983 0.3181364 0.18807927 -1.2567942 0.60238177 0.022508094 0.005863066 -0.59465283 -0.2889708 0.10211013 0.027776403 0.28829274 -0.43091372 -1.2620448 0.8130315 1.0942384 0.58258915 -1.5387444 -0.46929312 -0.11377508 -0.756806 -0.006474404 
-0.04442374 0.8520224 0.052414954 0.33485946 -0.9346269 0.4426736 0.37012082 -0.57789844 0.36415705 -0.21453506 0.24890856 0.22291587 0.60489005 -0.8567134 1.2884176 0.1925828 0.6873479 -0.41603723 0.1493236 0.32220286 0.050212905 -0.4754947 0.6698745 0.22542569 0.33312827 -0.18941562 -0.9882444 0.7742979 -1.027393 0.786934 -0.52515244 0.48467958 0.42528412 0.36727762 -0.20743048 0.69742644 -0.9514693 -0.09532145 -0.48825336 0.7900383 -0.10010091 -0.7726132 -0.6117247 -1.0205638 -0.052579038 -1.6010339 -0.17440045 0.06394944 0.6932687 -0.46768552 -1.0066133 0.84133804 -0.68940854 -0.928465 -0.80005 0.59621835 -0.14634563 -0.4515742 0.23670599 -0.74093425 -0.7504295 -0.3563822 -0.2890817 -0.6291138 
0.31070763 -0.019533722 0.24419653 -0.46826327 -0.55863386 -0.35670218 -0.514522 -0.13838942 0.4180214 -0.3855555 -0.96820307 0.8442733 -1.5415964 -0.39242297 0.1236007 -0.64430946 0.15209906 -1.5372574 -0.27471873 0.076135725 0.39011016 0.9724399 0.96130794 0.40936568 -0.46055925 0.2027137 -0.65478325 0.9402173 0.38310745 -1.3132148 0.039421566 -0.95061815 0.04192566 -0.93399733 -0.045555566 -0.39665288 -0.669525 -0.49821904 -2.5419366 -0.12964925 0.5215863 0.1123349 -0.8006103 0.057911146 -0.20488602 -1.0159383 -0.6336595 -0.04726598 -0.07567767 -0.36810133 0.30926767 -1.8294754 0.55802035 -0.6033186 -0.2932576 0.21380578 0.2686378 -0.84694815 -0.5924358 -0.7725178 0.052136146 -0.06529256 -1.6300372 -0.13055772 
-0.06068011 -0.4710703 -0.04443897 0.07914278 0.72788745 0.7375453 0.7398029 -0.30188227 -0.42532235 0.65791434 1.4307774 0.024989784 -0.08621935 1.3913265 -0.49694103 0.4999148 -0.91301984 -1.00124 0.60074264 0.5589358 0.7264232 0.26494366 -1.0338284 0.3414155 0.002742776 0.85694486 -0.18980606 0.021323748 0.78695786 0.28359663 0.055777468 0.42707625 -0.6353042 -1.2979405 0.3544559 -0.29762203 -0.14705545 -0.7575222 -0.8093635 -0.10285024 0.1763599 0.14745222 0.9256179 0.45464024 -0.7375886 0.097854115 -0.6070947 1.9493967 -0.1352058 0.2799822 0.16866902 1.987924 0.024012562 -1.0965981 -0.4735776 0.66644645 0.4627579 0.5182898 0.237513 0.7536882 -0.14704782 0.56395006 0.3111914 0.54381174 
0.5412625 1.0837265 0.2573325 0.5013663 -0.4350355 0.66728103 -0.58668345 0.5279119 1.7171206 -1.1371822 -2.4200704 0.7769105 0.21299686 0.39345875 -0.09552115 -0.7323354 -0.5783433 0.34463063 -0.53954566 0.29641378 0.6570376 0.050004024 -0.12193758 0.89263374 0.39837492 -0.51500726 -0.6946123 0.41213006 0.29245004 0.49912798 1.4657624 -2.190982 0.46696907 -0.4520757 0.7781335 0.8180466 -0.15933925 0.7034232 -0.3374004 0.75823456 0.3520228 1.1155862 -1.3159899 0.3548566 1.5992354 0.8133916 0.7839057 -0.7934755 -0.29078767 0.9151193 1.1321605 -1.668931 -0.2197717 0.9531195 -0.29760224 0.6354048 0.2529991 0.4297812 1.4007192 0.1882284 -0.26742893 0.33364797 -0.8406872 -1.6736504 
0.1448233 -0.7446512 -0.7246212 0.38624808 -1.1941593 0.42893508 -0.25735676 0.33145586 0.36808607 -0.110964425 -1.4300934 1.4824005 0.8783225 -0.7172262 -0.77974147 0.38785556 0.8545131 -0.0151623115 -0.187499 -0.5910497 -0.15463968 -0.40729177 0.8685879 0.7183386 -0.85854137 0.3177509 -0.85876215 0.85962844 0.45115757 0.72410864 1.5544245 -1.1853848 0.6514886 -0.25135636 -0.856657 1.2867055 0.40098375 0.72102135 -0.56028736 0.53542167 0.07288201 0.824197 -0.60399616 0.7391763 1.0423192 0.09849364 -0.0032440163 -0.019004412 -0.33059517 -0.44028226 -0.018280666 -0.19314079 0.38325644 -0.16435815 0.5219607 -0.2555693 -0.8307323 -0.3808036 -0.14350392 -0.817856 -0.89642847 -0.29810947 -0.63789105 -0.581717 
-0.34353223 -0.59151214 0.8254519 0.6959846 -0.22480713 0.41507176 -0.38463652 -0.062023234 -1.0034424 -1.1887218 0.04981967 -0.6983263 -1.538372 -0.5537461 0.01504821 0.7138248 -0.5279391 1.1692979 -0.16383505 -1.5822169 -0.4728886 -0.17460153 -0.9406833 0.112019494 -0.01601346 -0.66319764 -1.0590463 -0.06400809 -2.1390853 0.91311616 1.4751244 0.7816 -0.06559308 -0.45147207 -0.89961267 0.6136981 -2.356477 -0.73125744 0.5273957 -0.51234293 0.24520645 0.1752683 0.46946284 1.5530177 -0.39697993 0.42692965 0.4430752 1.0991793 -0.57891536 -0.20085177 0.6724853 0.17153312 -0.015386737 0.12394428 -0.93333673 0.38344294 0.12894718 0.34971574 -0.82938075 0.3285157 -0.7765241 0.16049074 0.40665576 -0.21459801 
0.19989908 0.588397 0.92272663 1.5101975 -0.7837429 1.2593714 0.090207316 0.109611094 1.1478182 0.5462464 -0.93824494 -1.2185621 -0.24511942 0.24098103 -0.24291742 0.062781475 0.31535548 -0.091995016 -0.06053426 0.46799818 -0.43986115 1.1359527 -0.13240805 -0.0448783 -0.4927164 1.0606778 1.0741378 0.6731374 -0.39570794 0.513804 -1.0029454 1.0284414 0.64339006 0.82527566 1.0666986 0.36155447 1.3023951 -0.46496314 0.30843484 -0.15595022 -0.08385896 0.039549343 1.1006598 0.11045118 0.11123087 1.7106682 -0.45674312 0.8337994 -0.27467605 0.7319588 -0.41510865 0.48673746 0.52103215 -0.3957902 0.24567929 -1.3264312 -1.0132642 -0.22061725 0.938067 0.8541719 0.011876441 -0.25465968 0.46103707 -0.8430596 
0.33001587 0.3810446 -0.81381726 -0.8963144 -0.8297033 -0.15828672 0.82842183 -0.2942102 1.2606314 0.38606128 1.8984752 -0.45000482 -0.4283404 -0.052008912 -0.94655186 0.9257384 -0.24482584 -0.31581053 -0.22036444 0.076242186 0.32303432 -0.15196358 0.19993071 -1.2630407 -0.2304344 0.08394379 0.5286663 0.32772475 0.4761065 0.19129874 -0.46831575 -0.49065104 0.064577945 -2.016059 1.1238608 0.5359752 0.48161978 -0.8282468 -0.93681765 -0.03313554 -1.3153603 -0.5315724 0.7039271 -0.7721468 0.25745338 0.16691095 -0.74504006 1.4395486 -0.05384087 0.28695413 -0.50287515 1.6199725 1.5309943 0.21904363 1.0605683 -0.020401197 0.5955883 0.0848032 0.36390728 0.45739615 1.0063862 0.5345027 0.68483794 0.561567 
-0.5520065 1.1566744 -0.5499547 0.5051408 -0.09642095 -0.5481122 0.25383794 -0.2065252 -0.70837265 0.20565027 0.74721414 -1.0979891 -0.09019897 -0.03827691 0.6107166 -0.024913218 -0.23829293 -0.20158616 -0.425171 -0.33980945 -0.88896227 0.029484566 -0.7577795 -0.28274813 -0.11298059 0.21400054 -0.25268164 0.6396546 -0.5606368 -0.4609491 -1.8941811 0.12730557 -0.070062004 0.330091 0.6968069 -0.5635492 0.40777397 0.07002566 0.14684765 -0.31671768 -0.72116137 0.36739212 -0.33946618 0.86645037 -0.055504322 0.58766097 0.4632092 0.46935374 -0.06595743 -0.4865732 -0.07533691 0.54637766 -0.24619007 -0.55830765 -0.36220285 0.7728568 -0.13296834 0.11348849 0.38122562 -0.75322706 -0.22553383 -0.24314487 -0.47352752 0.042109746 
0.3086028 0.08353735 -0.37869066 0.28259996 1.0404849 1.2073513 -1.9770521 0.50259954 -0.7071796 0.46285704 -1.7382507 0.39257345 0.41892937 0.14784907 -0.1299611 -1.0459932 0.60842794 1.5222912 -0.21086366 -0.0016160042 0.13628702 -0.91402024 0.76859015 0.22002065 0.24491051 0.38647428 -1.0602293 0.23803085 -1.1145322 -0.10174797 0.79254025 0.6567773 0.6962076 -0.9158291 0.14113042 0.8313827 0.053149544 0.47603443 -0.09788008 -0.2809474 0.46587566 -0.30522367 -1.1182197 0.079339266 0.9313264 0.31210563 -0.31312045 -0.54242355 -0.6803612 0.7409624 -0.016268892 -1.3977916 0.50688416 -1.6859344 0.55766994 0.35709444 0.9948737 0.36313245 0.16611974 0.53409034 -0.35692674 0.19030426 0.5403437 -0.7299501 
0.45240936 -0.025857396 -0.5342642 -0.20141372 0.46383497 0.12342797 0.76341313 0.45960337 -0.67568123 -0.6181367 0.34235254 -0.66150427 0.65098095 -0.02320702 0.296823 1.0646828 0.9333464 0.7290984 0.14979891 -0.0043918025 -0.6557334 0.28145978 -0.6958406 -0.79133767 0.20196804 0.36236665 -0.2873227 0.7509709 0.3806285 -0.14268991 -0.78876746 0.7710385 1.1351327 0.85593086 0.9657284 0.96508765 -0.016863812 0.16225645 -0.9726954 -1.0192714 -0.15348127 0.41938135 1.2988064 -0.3454684 0.46846673 -0.2097677 0.60587436 0.32358876 0.78965175 0.29756513 -0.4464256 1.2523565 0.4380907 0.7985165 0.47851256 0.39243075 0.08077038 -0.02013503 0.52757865 0.69724905 1.2235347 -0.16644286 -0.88819623 0.42190856 
-0.00090218097 -1.0752406 -0.32639828 -1.0305283 -0.5070587 -0.35393927 0.6213707 -1.2642461 -0.4745155 -0.41367698 -0.5742463 0.95974094 1.0661145 0.10803998 0.67304116 -0.77351224 -1.3463072 -0.8443969 0.12263872 -2.1843052 0.2918098 -0.076063916 1.3710133 -0.04496648 0.6033646 -0.22406848 -0.35277584 0.9480438 0.5149348 0.5792625 -1.7262132 0.21847829 -0.35813767 0.27770808 -0.52229184 -0.40823817 -0.055179853 -0.7826466 0.75804883 -0.66209954 0.13499057 -0.09678701 -0.6207407 -0.57826865 -0.6886577 -0.5504582 -0.29305294 0.28859594 0.22589326 0.186734 -0.7034376 -0.22247422 -0.9461158 -0.116692394 -0.7598697 -0.4094252 0.86795557 -0.0013140035 -0.19379672 0.20842108 0.09138831 -0.07436758 -0.048980247 -1.2889292 
0.2492364 -0.03552358 0.6792341 0.025380658 -0.22006072 0.8042115 0.24053283 0.010226665 0.20064576 -0.82294816 0.97361195 0.07512456 -0.116737746 -0.15693794 -0.24961108 0.42201594 0.1870636 -0.79546744 0.3020671 0.2714591 1.5862894 -0.73524076 -0.0029453447 0.58080894 0.83217126 -0.8912041 -0.95818764 -0.45938352 -0.5749401 -0.38337442 1.7362819 0.26001564 -0.4173894 -0.51792186 0.14358729 0.055886596 -0.21595013 -0.12375739 -1.1739643 0.1782046 -0.45420688 -0.3434499 0.36254165 0.8746135 -0.31191793 -0.25657156 0.18132941 -0.2734192 -0.17522106 0.6319886 -0.21129908 -0.6700788 0.6514779 0.4068067 -0.54158884 0.38096386 0.39550415 0.824971 -0.21337734 -0.22079398 0.85792863 0.17738293 0.8920372 0.20523183 
0.34698012 0.11956924 0.21450287 0.45238185 -0.56412405 -0.19031438 0.25679773 -0.013018529 0.8157335 0.7533341 -2.4104667 -0.78348947 0.93203324 -0.47535226 0.17495364 0.9226638 -0.30897325 -0.80295545 0.24946262 0.72491735 -0.6740859 -0.7244952 -0.27158245 -0.1595684 0.47203156 -0.69242513 -0.20214027 0.3974631 0.22021796 0.3344241 -0.97239643 0.6603703 0.34011966 -0.24283408 0.9892694 0.9510089 -0.27632546 -0.20786898 -0.3982718 -0.22105183 -0.5228988 0.6853705 -0.14786628 -0.509984 0.28268903 1.4033372 -0.08351433 -0.31880334 -0.83234453 -0.77602816 0.6712298 1.0104401 0.5107094 -0.043141305 -0.61097467 0.001633954 0.45103306 -1.024276 0.33783305 0.96835613 0.20574453 0.18724875 0.12088784 1.4770441 
0.67161095 -1.3032098 -0.9096601 -0.086532734 -0.66904426 0.38701212 0.17920396 -0.37059322 0.17380033 -0.50673944 0.14006881 -0.7956222 -0.3027873 -0.86172485 0.33063042 -0.77780753 -0.42991072 -0.069634944 0.48223832 -0.2796379 -0.5131494 0.00791739 0.0017223716 0.35406205 -0.52062404 -0.66948575 0.18722744 0.50853604 -0.2894916 0.8751951 -1.5928853 0.4364413 -0.0986403 -0.20590723 0.048445724 -0.8550225 0.07188884 -0.762103 0.6619167 -0.5866436 0.01772836 0.27846068 0.3930352 -1.1540436 -0.34186473 -0.123414874 -0.33194587 0.35906097 -0.30870813 0.016456127 1.2909669 0.47448164 -1.2720813 0.39443442 -0.94567835 -0.24384104 0.37566477 -0.14991292 -1.1964071 -0.43185192 0.4814309 0.13856098 0.1452114 0.19968733 
-0.49710748 0.4332049 -0.19575743 0.27294436 -0.23361675 -0.32948864 0.69448215 -0.4433393 -0.22683015 0.00417297 0.15709566 0.46576837 -0.1719312 -0.7701706 -0.3811058 -1.5131005 -0.102600865 0.07422977 -0.6040407 -1.4770757 -0.7236676 1.2818493 0.45385703 0.545971 -0.35914034 -1.4845135 0.6584094 0.0067938366 0.9498948 -0.039316673 -0.43229002 1.7232828 -1.0852683 0.38723698 0.22545394 -1.1957675 0.16926776 0.08255549 1.4443859 -0.78745437 -0.14590402 -0.27124882 -0.0653536 0.039680343 0.4589277 0.34424016 0.34525874 0.20834708 0.3034973 -0.32965857 0.53234243 -0.40934592 -0.09886538 0.47475854 -0.26783627 -1.2856464 0.499253 0.85723186 1.1385401 -0.56505686 -0.7909803 0.09823976 0.065831445 -0.9791727 
-0.47181502 0.032986 0.05917864 -0.1598341 -0.08908205 -0.7485717 0.56510854 -0.42410094 -0.74796784 0.030778553 -0.025640659 -0.2522254 0.59764004 -2.1314125 -1.3913946 0.3936106 0.6118498 -0.081269756 0.45699236 0.3983641 0.7811744 -0.8311269 -0.03665364 -1.3472631 -2.0712306 -2.1421378 -0.123228535 0.67791694 0.6634379 0.2910276 -0.38174412 0.36836624 -0.91759014 0.20458461 0.59879553 -1.1267118 0.55588245 -0.69118 -0.6300332 -0.70635366 0.8882677 0.8158544 -0.071956895 -0.6024571 -1.9874934 0.99931175 0.19106261 0.96914816 -0.22576396 0.7661147 0.1452035 0.6366391 -1.3740809 0.28505385 -0.99948525 -0.3372177 -0.4326217 -0.16598327 0.90817946 -1.102624 -0.8771245 -0.53428537 -1.2786723 -1.1233848 
