0.08453048 0.39644146 0.3537593 1.1863157 0.13192336 0.15277074 0.3965127 0.09336777 0.32256818 0.23145871 0.2581914 0.41685706 0.31130123 0.5838081 0.18864411 0.30329978 -0.20316114 -0.023769034 0.3119504 -0.21252221 0.32818964 -0.18361925 0.8637844 0.03266644 0.28108692 0.2820387 0.6350932 0.5970335 0.08429663 0.35946575 -0.78413606 0.7500362 -1.0590439 0.37890196 0.6359567 -0.6224356 0.7348697 -0.098852046 0.40109354 0.25730315 0.29234543 0.59779286 0.26953962 0.007938736 1.4015652 0.88518333 0.8986086 0.87105954 0.7421261 -0.29380128 0.10441883 -1.3985121 0.29412222 0.20543277 -0.75750947 -0.33655158 -0.16708297 -0.8174871 0.5714434 -0.92982394 1.3307159 0.05017935 0.5661571 -0.45069283 
0.16065945 -0.41951844 -0.05405735 -0.6999836 -0.8197726 -0.23706807 0.40586427 0.3813668 -0.16654931 -0.5653321 0.082790606 0.040507812 -0.81165355 -0.81513566 -0.44225276 -0.5315951 0.33639547 -1.2088214 -0.914151 -0.030395411 -0.17917198 0.11307703 -0.06889826 -0.78699166 -0.109771326 0.9301606 -0.5834936 -0.9529914 -0.051543985 -0.52236354 0.52566737 -0.5497289 -0.3816388 0.40850294 -0.2681243 -0.054504175 -0.7179293 0.4335993 -0.17798081 -0.5543648 0.28647897 -0.30780992 0.56160295 0.18223515 -1.4693949 -0.56151706 -0.25311 -0.6417237 -0.14224194 -0.1255766 -0.6434455 0.5634451 0.3140387 0.17869268 -0.9551181 0.17901368 0.527267 0.46000624 -0.5443927 0.92902595 0.6437459 -0.31280503 -0.116778925 0.13058355 
-0.50604033 -0.6943383 -0.3817228 -0.03619132 -1.1900382 0.71446115 -0.36228526 -0.41076365 0.3997575 -0.001108612 0.41733718 0.16604319 -0.19587363 0.112884 -0.061229736 -0.6017548 -0.76267135 -0.527073 -0.7067199 -0.13384888 -1.1638919 1.3300613 0.33299357 0.21773696 0.29012087 -1.2567813 -0.42832497 -0.5173093 0.20725183 -0.2958447 0.27967122 0.15505147 0.83265644 -0.110480204 -0.15176944 -0.04739252 0.3254906 -0.66397977 -0.18607801 -0.055462327 0.3529553 0.004660033 -0.113996774 0.6031676 -0.43848792 -0.37377208 0.08881955 0.7009653 0.30345348 0.17637736 0.5145664 0.0057280287 0.116622314 0.34835202 -1.3328757 -0.34973902 0.106946915 0.73230696 -0.22878566 0.036840014 -0.5499617 0.18683136 -0.14176407 -0.821837 
-0.16608568 0.7588324 -0.4142652 1.7457439 0.30779457 0.49117672 -0.035841245 0.17396137 0.46140787 -0.3022181 -0.23677704 0.51014525 -0.19918062 0.13167402 1.1381577 0.22362459 0.04439872 -0.10736382 0.16949372 -0.2313345 0.03543085 0.65881866 0.11090111 0.6811425 -0.071063265 -0.49748987 0.9867448 0.5883738 -0.44233033 0.06127503 0.050216585 -0.33411953 -0.7709989 0.16645668 0.80864006 0.18156819 0.12898572 -1.1071216 -0.08532445 0.15696676 -0.0057835425 0.92450136 -0.45466834 1.1453756 1.5852276 0.332336 0.7704667 0.60319877 0.17683497 -0.37852776 0.002377133 -2.1684752 -0.20403752 -0.19371039 0.62999505 -0.11244084 -0.36299133 -0.8114538 -0.050779518 0.23723714 1.8448058 0.18438992 -0.01879396 -0.35238507 
0.25022545 0.40870073 -1.2147468 -1.357736 -1.5832297 0.6958359 -0.51317704 -0.017050434 0.019602668 -0.5591905 0.9709767 0.66636777 0.48636544 0.5654735 -0.09380031 -0.20861018 -0.04429228 0.9443012 0.044631932 0.87711906 -0.043872505 0.9425874 0.4378682 -0.37124273 0.37102613 0.3596349 0.28297326 -0.19213836 0.34903318 0.16681838 -0.087776564 -0.055570927 0.7681661 0.14937663 0.0074385204 0.12000067 -0.20296845 -0.0809508 0.17999129 -0.5720699 0.11966086 0.3361575 0.53346616 0.3576332 -1.3439679 0.35371688 -0.0019549867 0.65695006 0.28407454 0.08772263 0.31728292 -1.5882252 0.5118778 0.15160726 -0.34411612 -0.29554674 -0.22398886 -0.3783242 0.020056939 0.45529884 -0.9217512 0.4971078 0.108148046 -0.63202524 
-0.33432502 -0.20693024 0.6134291 2.238892 0.651784 -0.018262377 -0.2676446 -0.53757924 -0.44647524 -0.261603 0.23049487 0.15036748 0.3531904 0.2970484 -0.11824546 -0.056837495 0.27495667 -0.32242084 0.5745348 -0.027056739 -0.49948415 0.30501425 -0.02738758 0.5311966 0.41420558 -0.21383701 -0.02247696 0.1580219 0.53297204 -0.23457108 -0.21125832 0.3464558 -1.4030415 0.39312154 -0.69078165 -0.26261958 -0.395649 -1.4918697 -0.33844957 -0.6715376 -0.065783195 -0.07548146 -0.062153824 0.07994067 1.6159309 -0.69945127 0.80298865 -0.27541643 1.2078061 -0.23229718 -0.6513623 -1.1027265 -0.39574924 0.16576867 0.8600049 0.003283577 0.5011909 -0.37998122 -0.29007947 0.38298514 1.2923847 0.46617335 0.09849186 0.43630245 
-0.100029975 -0.124700755 0.0002468217 -0.8619585 -0.18733695 0.58948725 0.7732199 -0.003631068 0.5300093 -0.24887821 0.30814797 0.65808463 0.21361147 0.7071882 -0.34613016 0.13365403 0.27211744 0.017204875 0.71763885 -0.69597685 0.0073984726 -1.1381344 1.2252071 0.80792844 0.10408533 0.47632822 -0.33228582 0.101430595 0.969116 0.8132905 -0.40513483 0.37880635 -0.3176391 -0.75359666 -0.05171797 -0.017544702 0.27084985 -0.7795726 -0.5036986 -0.15131435 0.3633802 0.41569167 -0.61583555 0.5233656 -0.51173466 0.18269336 1.1790314 0.0981557 0.26889342 0.7598795 -0.18070409 -0.7481182 0.18624784 0.5285918 0.9730399 -0.67500955 0.033345282 -0.4364441 0.29125556 1.0768573 -0.8215697 0.13659023 0.47809944 0.04032725 
-0.42847574 -0.25843725 0.36821842 -0.38122034 0.09744439 -0.7778785 -0.015220261 -0.23982401 -0.8396437 -0.20007813 -0.76122606 0.5208281 -1.3479216 -0.3945639 -0.037045415 0.061970226 0.23325814 -0.31309676 0.2541758 -0.6904313 -0.24132158 0.09690706 -0.8093077 -0.21677355 -0.16753712 0.27470368 -0.07924156 -1.1888325 -0.44448486 -0.51744604 -0.25013518 -0.37080142 -0.23175192 0.5600032 -0.54325867 -0.0073575987 -0.25757036 -1.3972576 -0.3845759 -0.21987033 -0.86412793 -0.27111432 -0.75686693 -0.47831485 -0.33643994 -0.59470403 0.033216316 -0.07921294 -0.13669379 -0.032410286 0.0721203 0.9492815 -0.22734213 -1.0950791 -0.6705771 -1.0840563 -0.75276124 1.2887149 -0.44754073 -0.022234494 0.20221657 -0.39078122 -0.1732512 -0.019294268 
-0.5216358 -0.004486816 0.16159542 1.9143717 0.60820425 0.35642725 -1.113225 -0.01591943 0.89114946 0.40783465 0.4913442 -0.1621315 -0.29845947 0.32196915 0.44281724 -0.35374147 0.028286526 -0.20665142 0.2881721 0.28432432 0.0855984 0.40059632 -0.7356972 -0.310621 0.7057609 1.0591514 0.09884347 0.3065011 0.58722466 0.03370932 0.26997688 -0.06631475 -0.37633976 -0.058295373 0.12045088 1.0381131 0.028440516 -1.4459558 0.8501756 -0.31094798 0.33768824 0.7093725 0.44554532 -0.28222808 0.40277833 0.032892033 -0.22479549 -0.3120582 -0.2820703 -0.101557076 0.50472355 -0.60276455 0.53585374 -0.49447584 0.8307402 0.27499095 -0.3719683 -1.8671495 -0.024244102 0.0467771 1.8970459 0.41953298 0.42709932 0.16346808 
1.2426181 0.033349805 -1.0548156 -0.877746 -1.1980251 -0.05159607 0.4963331 -0.13604833 0.3275932 0.50704795 0.3782665 0.85775375 -0.398605 -0.5263747 -0.6274202 0.061110944 -0.62180495 0.5590584 -0.3856138 0.4190448 0.12626532 -0.23418471 0.25965056 0.40386993 -0.54442775 0.46812883 -0.0487896 -0.64541316 -0.3566216 0.6400745 -0.51625603 0.49498433 1.5174245 -0.71458745 -0.020857973 -0.053619217 -0.6084232 0.24931248 0.27688608 0.17240797 0.20491123 -0.6616089 -0.16509864 -0.33281854 -1.0475113 -0.61638886 -0.034373075 0.56609035 -0.5364308 0.15426493 0.7181997 -0.59387577 0.5773418 0.06605136 0.7364967 0.9072021 -0.61667985 -0.29973912 -0.19254562 0.7293284 0.4775709 0.37874404 -0.05198252 0.38921693 
-0.09537454 0.7447266 -0.67180276 2.548953 1.0950774 0.33261397 -0.47140294 -0.36339098 0.28738588 -0.43471098 0.1787588 -0.17185555 0.08982482 -0.14774433 0.26412743 0.23571923 -0.8985214 0.040054545 0.26606306 -0.84312 0.08498007 0.24480283 0.7473331 -0.18597576 0.8959036 -0.6705588 0.8831636 -0.4614214 -0.06332934 0.5701514 0.33686832 -0.4420322 -1.3304735 0.30724245 0.3777213 -0.8989923 -0.5777774 -0.45473883 0.54839844 -0.1388456 0.29654506 0.69604915 -0.37662855 -0.13557135 1.2039121 0.3604411 0.4189897 -0.0838414 0.45468533 0.22660719 0.6619482 0.2828864 -0.46532246 -0.9185039 0.2718273 -0.09024482 0.24643388 0.70896083 -0.4141044 -0.9915526 1.404776 0.07873469 0.21830156 -0.22355406 
-0.23143251 -0.44076633 0.62640184 0.2847851 0.18398534 -0.227527 -0.3563886 -0.28467155 -1.1062831 -1.8640543 0.23946248 -0.36024794 -0.90501297 -0.6058091 -0.4676559 -0.94286793 0.12730612 -1.1227951 -0.29630622 -0.53956544 -0.70129263 0.39246526 -0.1592917 -0.24751745 -0.9101762 0.3475671 -0.67443293 -0.746155 -0.32435 -0.41150418 0.075755835 -0.47145987 -0.75292337 -0.20761071 -0.2650138 -1.1469615 -0.5178289 0.57807463 -0.13207239 -0.7938856 -0.182436 -0.6159966 0.15227298 -0.12082844 0.19901691 0.28713316 0.22954004 -0.4997126 0.11629856 0.17225017 -0.6376883 0.5287156 -0.44804242 -0.62756383 -1.1305319 -0.64135677 -0.331778 0.61007357 -0.9791217 0.012582236 -0.10289486 -0.20906676 -0.32243612 -0.17066401 
1.0381305 0.26997158 0.1149659 -1.0411395 -0.7792466 0.09701805 -0.17625496 0.47763282 0.39278772 -0.9041174 0.13398069 0.44355646 0.0709423 0.31472245 -0.3042919 0.183506 -0.6327415 -0.21153553 -0.18737824 0.6497623 -0.1417064 -0.7251389 0.11641709 -0.4343536 -0.92772824 -0.20269354 0.41459268 -0.7756546 0.37364852 -0.42331672 -0.12309274 -0.45912808 0.89304805 -0.25990587 0.43880913 0.16831787 -0.02727286 0.39661047 0.33494163 -0.6426977 0.51159567 0.3482515 0.03373722 0.051612705 -0.74528444 0.54980266 0.8804069 0.037111193 1.604788 -0.28719902 0.29302657 -1.5579957 0.22064714 -0.06731664 -0.012309173 0.66518676 -0.46575838 -0.8186761 0.17384697 0.43110225 0.4378174 0.5967429 0.2621089 -0.5073119 
-0.92076993 0.70321447 0.67135036 -1.1261439 -0.016732289 0.13878739 -0.3595822 -0.62883294 0.61479276 -0.39478597 -0.1428998 -0.4698798 -0.89704895 0.2560491 0.57350004 -0.90890396 -0.25923663 -0.055789888 0.4328407 -0.004962899 0.72031647 -1.1459771 0.23148401 0.02646767 -0.7142568 -0.29574314 0.47824612 -0.04860531 0.63482964 -0.21109827 -0.050528247 -0.57681906 0.053434756 0.22087918 -0.008220819 -0.50031406 0.4659803 0.46557158 0.26839727 0.013091347 0.7333734 0.5148841 0.53448224 0.58661133 -0.9588622 -0.009627756 0.17688578 0.13257438 -0.34303066 0.34723467 -0.45810863 -0.53594863 0.22657035 -0.14762571 0.73167396 -0.5730828 -0.5589619 0.6372938 0.48735106 0.38858044 -1.335226 0.50270694 0.035137996 -0.21114403 
0.042170256 -0.18569669 0.7016133 2.159746 0.0076981923 0.5294982 -0.2529843 1.3412355 1.4504719 -0.56101966 -0.42178324 -0.15479033 -0.069961525 0.23845123 0.6777094 0.46964657 0.30475438 -0.034106266 0.09047002 0.038941924 -0.053001225 -0.689936 -0.03283637 0.39364955 -0.18469138 0.09350528 -0.04977609 0.6439286 0.7251691 0.28110933 0.82571113 -0.28191248 -1.3219159 0.47868598 0.78873444 -0.13235195 0.76953816 -0.8230774 0.23556527 0.03699489 0.3330197 1.044452 -0.0709423 -0.17413412 1.5419102 0.39089093 0.01819507 1.9554739 0.029824171 0.36466718 0.25065354 -0.33560655 0.2979477 -0.0953991 0.9236359 -0.17572719 0.74148417 -0.20440796 0.643665 0.07829688 1.5484412 0.24712738 0.37544918 -0.13199349 
-0.2429348 -1.7509433 0.13877515 0.5971178 0.7233082 -1.0343571 -0.88774633 -0.055648245 -0.58928406 -0.71186066 -0.32646215 -0.23161939 0.35335115 -1.212807 -0.121965304 0.06817078 0.089157805 0.33943146 -0.53457177 0.056023702 -0.16584682 -0.9808282 -0.3074426 0.19799484 0.2466893 -1.686138 -0.10224539 -0.24536544 -0.021406371 -0.20745108 -1.7116688 -0.20376 0.023564074 -0.39138904 -0.33096516 0.1473359 -0.7574476 -0.48254314 -0.16856521 -0.580777 -0.6277026 -1.1929126 -0.7461189 -0.5101213 0.7525258 -1.2976351 -0.19529231 -0.37350422 -1.0397415 -0.46283683 0.07798771 -0.023202779 -1.2911226 -0.059689883 -0.7084219 -0.28028172 0.44933397 -0.7171277 -0.4425328 -0.27590743 0.8963503 -0.095434785 -0.77014333 -0.26773378 
0.43483046 -0.72250295 -0.5773709 0.4953052 -0.80085605 0.8467946 -0.0825067 0.067691036 -0.11172234 0.15943965 0.9473879 0.55314887 -0.5075018 -0.09363306 0.56521714 -0.23133394 -0.3126876 -0.31732675 0.64905804 0.8211507 -0.028678877 0.22918388 -0.47292894 0.4639602 -0.90704316 -0.23197526 0.33290726 -0.05847118 1.0110694 -0.5408579 0.61403394 -1.2036203 0.41855142 -0.1363045 -0.25570312 0.77233946 -0.3461056 -0.794814 -0.43667117 -0.021356404 0.20437816 0.35217848 0.089774825 -0.1855663 -0.9251454 0.9134085 -0.25239667 -0.12613907 0.11902842 -0.054447316 0.48637417 0.14616312 -0.23518163 0.16368923 0.99062496 0.017568195 -1.2958424 0.86703354 0.3052253 -0.3939822 0.60310537 -0.2523191 -0.42159593 -1.1187154 
-0.06501522 -0.05483212 0.12912704 2.107078 0.55855536 0.08986564 -0.6377477 -0.26852235 -0.15861471 -0.24919692 -1.1048298 0.1252958 0.31275934 -0.23185442 -0.021801522 1.291997 -0.21125048 0.30602694 0.30627742 0.02972989 -0.07997777 1.6028576 -0.44248924 -0.4378471 -1.0558913 -1.1135569 0.5153489 -0.21579033 0.30236173 -0.40701425 0.13583069 0.60901946 -0.23227079 -0.036283236 0.016489767 -1.5850712 -0.052299723 -1.7491606 0.55501556 -0.46261424 -1.1251397 0.003927018 -1.0760145 -0.9883303 2.0136802 0.5623076 0.36954197 -0.034336023 1.151984 0.18430865 -0.17960192 0.71243155 -0.43055412 -0.15475306 -0.51833093 0.22736837 -0.024312751 -0.4318463 0.47392568 0.32573304 1.7616867 0.53805435 0.61312866 -0.06834623 
-0.5028437 0.20345101 0.3456603 -0.85147226 -1.3222324 0.098621406 0.5838694 -0.48084372 -0.031766016 -1.3053802 -0.088316545 -0.3553879 0.36069974 -0.02703937 0.16403371 -0.07525087 -0.16935292 -0.126521 0.053672645 0.0068413294 0.067254715 -0.53573257 0.12516612 -0.3414598 -0.43545228 -0.16191873 0.06476184 0.45002487 -0.060921628 -0.4221582 -0.4612493 0.06703583 0.28935564 -0.420563 0.6378142 -0.44145167 0.36870086 -0.4426585 0.19940165 0.053988244 0.24274307 0.17124046 0.48047513 -0.43005306 -0.69445515 0.09043967 0.11300398 -0.31143454 -0.30411443 0.585878 -0.13662964 0.10996351 -0.32029602 -0.44830978 -0.31942454 -1.721052 -0.58768797 0.22681072 -0.24321347 0.19604298 -0.9266386 -0.095786095 0.6133106 0.2519581 
-1.1956096 -0.8045181 -0.5543428 -0.14637898 -0.38657367 -1.4681482 -0.24446417 -0.5780268 -0.24987409 -0.3046592 -0.26998255 -0.07279658 -0.62751627 -0.61908066 -0.2008259 -0.21760528 -0.43678638 -0.7550864 -0.33474153 -1.6141989 -0.4606827 -0.0046359138 -0.5994649 -0.12097135 -0.3334844 -0.23746698 -0.70855874 -0.5618358 -0.9659505 -0.7649422 -0.4178775 -0.6900467 -0.39618853 -0.20653696 -0.8709256 -0.0014210425 -1.2357454 0.17179318 -1.5370879 -0.4773394 -0.9362385 -0.34518224 -0.854684 -0.49631876 0.102649115 -0.27616203 -0.9885057 -0.32249367 -0.51958907 -0.58477694 -0.8805702 0.1691272 -0.95756596 -0.27440646 0.4772271 0.08976866 -0.4632137 0.38985348 -0.4368094 -0.3476212 0.23134 -0.8433258 -1.0883776 -0.041994352 
0.2668835 -0.08662652 -0.14239925 0.9363829 0.34537148 0.11828812 0.60356843 -0.18017557 0.33001986 -0.23328525 0.19225752 0.376721 -1.4222472 0.11207196 0.46185446 -0.5434305 -0.058372434 0.342577 0.38585624 -0.74844867 0.27699783 -0.0150731215 0.5399803 -0.010995245 0.25104374 0.97508085 0.28996274 -0.21819709 0.06958223 -0.6899898 0.51183814 -0.29980054 -1.2626244 -0.04630347 0.5160667 -0.53140646 -0.07872087 0.48961076 -0.30726552 0.73534846 0.8258094 -0.007866124 -0.53637445 0.50699 0.6748835 1.1107864 0.44745097 0.16675904 -0.05380795 0.7083297 -0.80741185 0.04798858 0.20305529 -0.15554251 -0.056450743 0.53377664 -0.07008209 0.66633457 0.35255396 0.02815727 0.48427004 0.22572552 0.40119392 0.08611048 
0.46274522 -0.20887625 0.320769 -0.32120806 -0.9795566 0.55228674 0.70056075 -0.14326824 0.21857177 -0.47429746 0.2404905 0.43693668 -0.12223001 0.4397 -0.45739996 0.6334053 -0.33631808 0.40406117 0.5318853 0.31712744 -0.023268213 1.2655987 0.64825463 0.19062576 -0.26933688 -1.3245864 0.41836977 -0.36290413 0.68376637 0.36084056 -0.8914315 0.024326406 1.0067106 -0.29803124 0.057785925 -0.28426108 0.13051677 -0.10521691 -0.19278306 0.4191962 0.7520651 0.5775671 -0.13357678 0.31488028 -1.0206113 0.26727906 0.3803694 -0.15256955 0.33647355 0.08732341 -0.04042857 -0.35610133 -0.14908467 -0.019375065 -0.35237712 0.26504025 0.05594765 -0.37356257 0.033587106 0.48597464 -0.98513454 0.2069887 0.10337265 -0.24351011 
0.10545863 0.35778508 -0.34127274 -1.5476087 -0.8933731 0.5200502 -0.016451772 0.47743642 -0.18573128 0.5022223 0.08854375 1.1109732 0.39596593 0.06363422 0.21403049 0.10397694 -0.27263182 0.25173938 0.093420655 0.30271283 -0.31383184 0.20860034 -0.2895967 0.07728816 -0.63411206 0.10526874 0.5332998 0.07701142 0.85941046 -0.40039974 0.21795917 0.051839445 0.2733856 0.13227844 0.4994556 0.046154972 0.24930856 -0.32531404 0.09163641 0.23959726 0.40768507 0.07813129 -0.03782207 0.44430885 -1.4649026 0.46743417 0.68093187 0.011405216 0.58502954 0.00020960817 -0.02534304 2.2503862 0.2267953 -0.78590095 0.6667874 0.06827049 -1.1390446 1.9339375 0.43334922 0.04882693 -0.25123855 0.18689841 0.17930564 0.71716154 
-0.8840427 0.1139237 -0.20640993 -0.7069601 -0.90144986 0.34062156 0.015989548 0.5755522 0.23531753 -0.20909011 -0.033262014 -0.34378144 -0.082673885 0.22102618 0.13087535 0.3061928 0.012379552 -0.0123388 0.2561641 -1.0228122 -0.37608376 -0.43277973 0.91421306 0.38051698 0.32418925 -0.06272637 0.03885447 -0.06796233 -0.0033427933 -0.09292761 -0.2245586 -0.5215507 0.33172122 -0.039355386 -0.2740904 -0.9746969 0.25175464 -0.078806944 -0.63527834 0.713399 0.6079068 0.42112887 -0.49120677 0.59824604 -0.9267727 0.25752285 -0.70113957 0.27687272 0.37614402 0.58124954 -0.4004051 -0.013409892 0.58229524 -0.46569362 -0.5455755 -0.3558348 -0.228043 1.4142278 -0.117037185 0.59146625 -1.8080688 -0.07240748 0.28382924 0.048433132 
-0.56028426 -0.6604184 -0.12298901 0.56631124 0.16404022 -0.47766224 -0.48897988 -1.3550031 0.029154403 -0.8910105 0.51155704 -0.49494883 -0.33850574 -0.1412638 -0.10707014 -0.4850357 -0.62574464 -1.2059455 0.097861476 -0.51967293 -1.1589818 -0.08355521 -0.40367827 -0.5067214 -0.49152526 0.38397282 -0.13994661 -0.30237383 0.43179396 -0.78050524 0.58666986 -0.23339014 0.038040735 -0.48671526 -0.9722221 -1.4333984 -0.17553432 -0.063794434 -0.40069583 -1.1483569 -0.11588385 0.28258118 -0.22253138 -0.44666225 0.27858314 -0.18711007 0.23365651 -0.39600697 -0.049199406 -0.3574209 -0.70911455 -0.013371296 0.015844803 0.28208742 -3.0584452 -0.20895836 0.14522146 -0.28972712 -0.2003538 0.04676999 0.32998928 -0.34760296 -0.006934069 -1.0235902 
0.32140148 0.174569 -0.131719 -1.7494246 0.59197927 -0.323247 -0.57981217 -0.3696323 0.19509666 0.2775082 0.06683047 1.1651487 0.90565294 0.07502759 -0.105420046 -0.35527328 0.27678716 0.57358366 -0.2428775 -0.5126163 -0.4436961 0.89744335 -0.93465334 0.37071615 -0.45912257 1.1587262 0.26778522 -0.3715958 0.1450579 -0.31734535 0.28078902 -0.7154024 0.5234626 -0.42001024 -0.6642872 -0.32763317 -0.42516908 -0.51160085 -0.095902264 -0.0034154262 0.06349878 0.30029383 -0.045858275 0.10893191 -1.1906307 -0.5169658 0.70574754 -0.5424291 -0.7972768 0.2825425 0.24733585 0.9192182 -0.062261987 0.011188806 0.23519558 -0.7066949 0.13025402 0.19057828 0.262622 -0.13423438 0.8854626 0.09817528 -0.2909528 0.37483463 
-0.00014596678 -0.24458209 -0.4183334 -1.0132011 -0.1857423 -0.019346388 0.5858526 -0.36718795 -0.03830995 -0.32030892 -0.114282385 0.37108037 -0.528517 0.26609218 0.2036954 -0.11961826 -0.70727295 -0.5715265 0.38148427 0.51279664 -0.025573505 1.4675854 -0.21772191 0.35964504 0.4704456 0.6858557 0.058649093 -0.3816733 0.27765492 -0.39794707 -0.374539 0.07776694 0.6145101 -1.4236778 -0.23419864 -0.60248077 -0.12728947 -0.6947088 0.34971762 -0.6601976 1.010977 0.21898413 0.45942783 -0.78493196 -1.3491089 -0.29581758 0.39781544 -0.12530005 0.25728032 0.2672205 0.17879772 -0.8017925 0.20555778 -0.35164726 0.25155804 -0.033356164 -0.31865126 0.31963742 0.34283245 0.5689863 -1.2684102 -0.12108772 0.18291672 -0.14148708 
-0.83803564 0.6926093 -0.4900874 0.86090857 0.25554922 0.22242615 0.13882726 0.6498364 0.48340926 -0.06622606 0.041282937 -0.3425045 0.33973184 0.19822447 0.59482837 -0.56954485 -0.8337318 -0.36529505 -0.2819409 0.5526233 -0.70743895 -0.70847195 -0.05664579 -0.08359091 0.11232363 0.65257514 0.30686906 -0.16005565 0.41393965 0.3349863 -0.15417033 -0.18069187 -0.4458028 0.9287646 0.34609723 -0.04036801 0.026004609 -0.6071673 0.2629457 -0.3068356 -0.098545365 0.41216335 0.22582719 0.12007614 0.41127297 0.7873619 -0.14738697 0.5097725 0.237854 -0.25023487 0.44999692 -0.8070291 1.0990937 0.43065926 0.31652144 0.5664589 0.5258281 -1.1226754 0.28247085 -0.53866065 0.6924661 0.54619837 0.4141104 0.57079333 
-0.78816617 0.26630417 -0.481698 2.4871328 2.0693123 0.32376176 -1.0104113 -0.1830776 0.30373344 -0.23231988 -0.25025907 0.4068773 -0.21323022 0.83618397 -0.35340208 -0.19728896 0.23221396 -0.88870317 0.40397036 -0.47070226 0.5355744 -0.8985645 0.72155255 -0.11738504 0.18741445 1.6577696 0.10174213 0.7556969 0.29755342 -0.59739476 0.9063169 -0.26932648 -0.4640681 0.09173929 -0.03050341 0.13093674 0.6098464 -2.9783945 -0.28970897 0.23815186 -0.48349878 0.6147814 0.20082736 0.5526367 2.187512 0.21729338 0.7343114 0.709892 0.17463462 0.6467728 0.04925659 0.62348825 0.26710457 0.39649215 1.7329451 0.38575482 -0.024256319 0.48925084 0.29308677 -0.020406751 2.545587 0.5333253 0.53773755 0.7626229 
0.24300179 -0.20983022 0.5443071 2.7318773 0.78560275 0.48186705 -0.87886685 -0.417936 1.4774936 0.7012413 0.19062479 -0.323938 0.65344644 0.6954452 0.39954287 0.40891308 0.15051667 0.28329876 -0.26032087 -0.05750742 0.5976582 -0.58261555 0.15243292 0.1945942 -0.0055790856 -0.56000733 0.06732178 0.12691733 0.026245141 0.39714003 0.16854115 -0.16734107 -1.1672176 -0.3988234 0.7502003 -0.55842245 0.530826 -0.37287453 0.2240489 -0.23647635 -0.094365224 0.2994241 0.4112619 -0.041715924 1.6250842 0.9653667 -0.48109177 0.5010678 0.15417278 -0.3345244 0.018443711 -1.028198 0.29406816 -0.08341176 0.8643584 -0.2742016 0.71802276 -0.46147725 0.40611675 0.20878273 2.0369616 0.10008847 0.43961066 0.067361854 
0.17424504 0.2727956 0.20740353 0.71584094 -1.2214782 -0.22580157 -0.032206327 0.6430118 -0.12386246 0.73670477 -0.3387263 -0.34598494 -0.4974093 -0.5017907 0.3204684 -0.5191021 0.5460317 -0.2619564 0.25031888 -0.30191272 -0.39059982 -0.1052412 0.46843204 -0.39916325 0.049103335 1.0508434 -0.64390606 -0.7319734 0.6551679 -0.40228063 -0.6306878 0.028925013 0.71209186 -0.57872605 -0.43273953 0.2515006 -0.107268505 -0.9535424 -0.34680724 0.10477467 -0.33960482 -0.3953231 -0.01681367 -0.09878199 -0.45524788 -0.43147564 -0.23949085 0.058649648 0.22120546 0.054181624 -0.5434638 -0.07165212 0.013031991 0.20423779 -0.68801105 -0.36140284 -1.7201736 -0.11287598 -0.5112789 -0.1259693 1.9542826 -0.56258523 0.12076544 -0.55979085 
0.24855866 0.18446784 -0.8426532 -0.100621864 -0.4290602 0.6929082 -0.09613167 0.19516855 0.4586716 -1.1408038 0.37871367 0.720642 0.07163087 0.6569417 0.14750831 0.7192053 -0.81188256 0.09081862 0.27542242 0.88702893 -0.015913935 0.52094036 -0.10961331 0.4367245 0.07822706 0.65075153 0.18221407 -0.5175932 0.22814198 -0.3353418 -0.6194262 -0.5116208 0.66667306 -0.12204733 0.44251195 -0.3660443 -0.06430782 0.9155455 -0.080293305 0.24944712 -0.11167948 -0.034099527 0.29958695 0.3196326 -0.5926842 0.27121535 -0.4400391 0.48835886 -0.4510486 0.10643785 0.7221122 -1.4587461 0.6531027 -0.48249984 -0.14769083 -0.8069442 0.07583872 -0.99713373 0.9955619 -0.14375354 -0.32415837 0.40678978 0.11249457 -0.338142 
0.4452076 0.5485202 -0.5479515 -0.27036712 -1.2074564 0.51927227 1.1777472 0.27653068 0.9189864 -0.07926071 -1.3161497 0.9850534 0.48565224 0.26272148 0.027574727 1.3252596 0.2291101 -0.60104305 0.113358505 0.21034329 0.17505696 0.8137707 0.5349887 0.18002847 0.39511517 -0.4843149 0.6635279 -0.12355526 0.718605 -0.40149117 0.028021585 -0.57258016 0.11062315 0.55261576 -0.08314607 -0.99087036 0.28181416 0.2430368 0.37854403 -0.20873132 0.24559851 0.12372861 0.2013181 0.3248326 -0.2169443 -0.18520088 0.4705149 0.56434786 0.21583885 0.14054179 -0.076742284 0.0730143 1.0568321 -0.72935987 -0.016883962 0.1981308 -0.32880867 -0.47141474 0.36579773 -0.16189367 -0.12006139 0.06786261 0.21532689 0.245126 
0.40973186 0.5642101 0.30545852 -0.8892142 -0.7463009 0.50997794 0.55325955 -0.15939282 0.77855563 -0.4915402 1.1683844 -0.59936523 0.24614203 0.5595514 0.656924 0.73503417 -0.14880243 0.9459557 1.0061402 -0.4491597 1.4727846 0.18049623 0.544971 0.59006745 0.7543841 -0.047249865 0.060891084 1.0889357 0.5885472 0.4197594 0.08108929 0.40788817 -0.59752786 -0.20336911 0.29596215 -0.021360293 -0.5371167 -0.30486917 0.05506795 0.8308418 0.2895822 0.5743812 -1.0529904 0.13459784 -1.6511708 0.296443 0.027370103 0.563876 0.37975654 1.2262527 0.21378736 0.3421131 0.4278191 -0.3978651 0.096374765 0.3823079 -0.3960457 0.5922294 0.052733503 0.43343872 -1.520092 0.77106476 0.53299415 0.21647355 
-0.053340595 0.8351006 0.37459692 1.1436507 -0.876852 -0.10906177 -0.5748747 0.38063046 0.53481156 -0.7765104 -0.55569804 0.17689055 -0.5596433 0.5875581 0.11475314 0.84191173 -0.04809049 -0.045411784 0.3490994 0.4416216 0.17289874 0.12716226 0.6894588 -0.1660652 -0.23506711 0.6269118 0.04254599 -0.16571629 0.632556 0.26143047 0.07278948 -0.0018802244 -0.58128834 -0.17883499 0.3590769 -0.42753127 -0.01431449 0.47007352 0.85430926 -0.39197 0.014116303 0.91868025 0.6129688 -0.10796311 0.88459015 0.3758641 0.56529784 -0.14798145 -0.33002144 0.9388154 -0.5895785 -0.77358556 -0.18772902 -0.8964558 0.06615885 -0.27230567 -0.50253665 -0.116003826 0.59613913 0.6171753 1.3585384 0.33441505 0.56819296 0.24449109 
-0.46034738 -0.36227804 0.33786333 -0.5769759 -1.6082346 -0.23953608 -0.4203545 -1.022782 -0.36609688 0.7225968 -0.46663964 0.88331825 -0.2618515 -0.049448352 -0.5443764 -0.47748825 -0.87461317 -0.22639446 -0.27016434 -0.6315535 0.262168 0.4646119 -0.26442274 -0.16696097 0.54278713 1.4431261 -0.48659337 -0.62273973 -0.31770524 -0.54285824 0.055641204 0.415243 0.7639392 -0.089755155 -0.580454 -0.00538326 -0.822373 0.85839254 -0.43588167 -1.0237579 -0.36602223 0.0802389 -0.21657157 0.21093115 -0.8524937 0.12795568 0.14898273 -0.38607603 0.08920365 0.2729618 -0.07086045 1.1821148 -0.72974014 -0.296388 -0.7994702 0.52269584 -0.0010545747 0.89965296 -0.35991436 0.16663086 0.07452845 -0.022812909 -0.76414734 -0.059544217 
-0.9750978 -0.15391038 -0.7901498 1.1635531 0.22715296 -0.23388802 1.2691151 0.6212038 0.24951002 -0.50084233 0.23575917 0.02245651 -0.45378095 0.7171308 0.24554281 -0.053784166 0.14309052 0.5538579 -0.16789094 -0.21962139 0.04716916 -0.34082443 0.23795691 0.6478964 -0.19165611 -0.12422386 0.58209896 0.37646776 -0.5743354 -0.66177934 0.42095762 -0.6165521 -0.60109234 0.30578753 0.25505185 -0.15248726 -0.44646797 0.25185117 -0.119576864 -0.54543954 -0.049229763 0.008096339 0.059101023 0.30328557 1.3237766 0.7139375 0.63637733 -0.20368351 -0.12196424 0.29527867 0.083808325 -0.028109498 -0.30956432 -0.35129094 0.42313004 0.12545748 -0.1552006 -1.1374558 0.47386914 0.762864 -0.10790925 0.012044224 -0.24309446 0.53772944 
-0.2105325 0.41996163 -0.21523824 -1.1799753 -1.2912725 0.36829922 1.1587284 0.1572523 -0.15573665 -0.04177289 -0.4332199 -0.12413577 -0.72190017 0.64269656 0.42032605 0.57509774 0.31699523 0.34420913 0.56148845 0.6258644 -0.23575903 0.5934998 0.2069253 -0.42903697 -0.33494917 -0.24265988 -0.1615218 0.4177045 -0.15446104 0.40556586 0.5577545 -0.23659575 0.35223126 0.026591185 -0.41666058 -1.4990965 0.25884417 0.9263224 0.6310894 -0.08498672 -0.004745809 0.40515324 -0.7579043 -0.053252313 -1.6487479 0.35567304 0.093386166 0.13768665 -0.5315712 0.6724882 -0.6881501 -0.6734094 0.7157157 -0.5809746 -1.1664155 -0.58522356 -0.25181916 0.32981795 0.23898205 0.06432315 -1.8056889 0.5783428 -0.12095074 0.24208045 
-0.7652091 -0.0018282189 -0.032378007 -0.3430763 -0.09664088 -0.36201054 -0.012776814 -0.70491546 0.041428767 -0.24927989 0.18750732 -1.4285489 -0.41186103 -0.025774091 -0.32425523 -0.42043525 -0.8905398 -0.42316958 -0.015322155 -1.3093061 -0.003096743 -0.32696328 -0.2540937 -0.50583994 -0.8860117 -0.10712336 -0.88071793 -0.66388243 -0.17678459 -0.3072109 -0.22884093 -0.1851719 -0.8015017 -0.11118209 -0.6062991 -0.38774216 -0.37372178 -0.07705157 -0.38067245 0.4041843 -0.6530014 0.016456561 -0.7798408 -0.42034528 0.038756844 -0.1618701 -0.37820747 0.25703785 0.080928266 -0.0966768 -0.4222044 0.50704426 -0.21367174 -0.48985785 -0.18726401 -0.05440947 -2.6180227 0.22773592 -0.26984063 -0.610893 0.009461802 -0.20076354 -0.3106045 -1.4292617 
-1.7823377 0.10903147 0.05874088 0.098090544 0.083281435 -0.923308 -0.739912 -0.9804063 -1.0192534 0.9379837 -0.0068394504 -1.1687098 -1.1885121 -0.57401097 -1.2716149 -0.81497794 0.29450092 -1.331291 -0.41645294 -0.22481377 -0.6527545 0.14428328 0.43867862 0.31713504 -0.87264824 -0.97174627 -0.64070237 -0.647913 0.9830135 -0.9194029 0.0553762 -0.04942549 -1.3053899 -0.026596745 -0.10772441 0.13114558 0.3332438 0.7258916 -0.94019026 0.0021122915 0.2972487 -0.95746666 0.3820232 0.13638014 -0.06966554 -0.87514937 -0.5468401 0.01317773 -2.6848612 -0.59844613 -0.68395245 0.19532444 -0.3189148 0.081987344 -0.7134832 -0.30840138 -0.53402346 0.14450079 -1.3900446 0.053814728 0.21913482 -0.6275251 -0.19635779 -0.6739828 
-0.27117178 -0.24571954 -0.03337473 -1.0718678 -1.7107882 0.112208694 0.4249631 -0.27855015 -0.36301574 0.37984824 0.52652687 -0.16139871 -0.2134591 -0.039640635 -0.13137814 -0.37421805 -0.48794904 -0.119904645 0.43743834 -0.5784912 -0.72090364 0.70936555 0.20950451 0.25670406 -0.43473122 -0.4285785 0.30529392 0.010732676 0.20449981 0.06642376 0.102855854 0.63944715 1.0565773 0.6462549 0.47107762 -0.8222338 0.2938546 -0.41955072 -0.5286752 0.16431662 -0.09583171 0.03000717 0.08048379 0.4387212 -1.1568965 0.43306798 0.088515006 0.07116741 -0.17252527 0.26232445 -0.36327213 -0.06900784 -0.26099494 0.5208774 0.62533677 -1.2134025 0.46721983 0.69205225 0.39333075 -0.06262951 -0.7166506 0.31345388 -0.15411367 -0.33845633 
0.6838273 0.35242257 -0.25024968 -0.68916786 -1.5554845 0.17680216 0.23761678 0.0050414074 0.07018465 -0.6954165 -0.12673815 1.1508989 0.91522366 -0.17084366 -0.14304121 -0.3308375 -0.3359608 -0.6764949 0.066260666 -0.009882415 0.030728342 0.84746706 0.62802666 0.18732382 0.797577 -0.5690415 0.77735317 -0.522621 0.5723915 -0.027365033 -0.28382698 0.3322846 0.15744849 -0.711068 0.35866243 -0.25371137 0.03925307 0.33938205 0.27043295 -0.51190126 -0.6712337 0.20098507 -0.16268772 -0.061886564 -0.67686164 -0.31042838 0.4548705 0.02223527 -0.32108092 0.29950973 0.3054144 -1.0175601 -0.2561933 -0.8864075 0.36834395 -0.48574048 -1.1845063 0.55829555 -0.1447864 0.48400575 -1.4524665 0.18166074 -0.08375761 0.14658105 
0.34331384 -0.4239455 -0.3456401 0.010745263 -0.14321685 0.0034208524 -1.347188 -0.9053178 -0.07931852 0.22101691 -0.90918344 -0.37817776 -0.89148575 0.30320853 -0.2405533 0.24015182 -1.0902094 -0.24558459 -0.16414124 0.10387204 -0.6732416 0.7453673 0.33942467 -0.6743328 -0.13061735 -0.15041566 -0.07003967 -0.3708554 -0.4775468 -0.49796453 -0.5003788 0.027334573 -0.16499773 -1.0058535 -0.7091789 0.58307725 0.41409272 -1.0475351 -0.38469723 -0.14858134 0.054337066 -0.059182633 0.08621094 -0.020165691 -0.006478779 0.040096823 -0.8118192 0.14849626 -0.17718542 -0.22123183 0.72003776 -1.0038943 -0.36321017 0.10841423 -0.6336346 0.2638306 0.5530606 -0.23470625 -0.4194645 0.27041158 0.23418225 -0.12625892 -0.18061072 -0.13499339 
0.3732919 -0.8452986 -0.71242076 -0.09661226 -0.17059295 0.24372783 -0.46052197 -0.020616183 -0.05881834 -0.39622936 -0.06188104 0.81787944 -0.846842 -0.0059805163 -0.58954257 -0.15940645 0.006813458 -0.18856402 0.36110452 0.56966954 -0.40648007 -0.5277489 -0.011050959 0.5500612 -0.14410944 0.24139838 0.25167802 -0.64526 0.19501035 0.03437661 -0.44336757 0.06457809 0.70838445 -0.034605805 -0.11127559 -0.21128787 0.40199178 -0.18926486 -0.7706527 -0.009873942 0.33649954 -0.22043477 0.8657349 0.46546626 0.24431291 -0.2511547 -1.0223274 0.058346074 -0.1101179 0.20795995 -0.33450043 -2.4184713 -0.14877819 0.23214135 -0.96495485 -0.24341616 -0.027734807 0.02424602 0.59545475 0.20486678 -0.7695171 -0.1118398 -0.7350479 -1.3587773 
-0.44521755 -0.7238031 -1.7991858 1.5555006 0.7270866 -0.27585128 0.43547773 -0.46155578 -0.5357247 0.23632361 1.2060735 -0.056492172 0.16534983 -0.3880871 -0.96423143 0.02313046 -0.25539157 -0.113901965 -0.6402181 0.19540705 -1.1715417 0.04584527 -0.11469582 0.2010026 -0.7137346 -0.9610602 -1.0095224 -0.1950997 -0.42989972 -1.0817949 -0.23895861 -0.603374 0.026603533 0.2158029 -0.7113254 -1.0296986 -0.41031003 -0.62914723 -0.063151896 -1.5650758 -0.43006226 -0.47826013 -0.9614524 -0.19342807 1.4948602 -0.5279927 -0.71516585 -0.6278659 -0.26369125 0.11368468 0.026095847 0.29279402 -0.38121605 0.47424802 0.12116028 0.12125189 0.24311417 -0.85079587 -1.1023587 0.1444147 1.475036 -0.5130491 -0.4028134 0.09357438 
0.017887559 -0.3091371 -0.9022105 0.8303181 -0.119130716 -0.122219615 0.122691624 0.14329454 0.93836915 0.87123847 -0.37160385 0.34607318 -0.038681734 0.17309485 -0.09846332 -0.17910504 -0.3131505 0.4825373 0.021410728 0.57560265 -0.73372495 -0.39037186 0.41959465 -0.53583646 0.591066 -1.1476651 0.04675948 -0.5401513 0.5874645 0.3970068 -0.43436518 -0.22343163 -0.1445516 0.6294061 0.29285568 -0.2729782 0.14903754 -1.7729427 0.45334393 0.13998133 0.073153734 0.12995909 0.6721635 0.12515299 0.3819503 -0.36293253 0.52172196 0.62880224 -1.0738133 -0.0002635626 -0.5980734 -1.2168 0.799446 0.20018104 -1.1835121 0.24054456 -0.27708858 -0.45873648 0.47350642 0.031755473 0.47227278 -0.24503466 -0.13877155 -1.1211835 
1.1541181 -0.3165821 -0.95132744 -0.7641577 -0.35309175 0.6585202 0.8149651 0.67381716 -0.12388152 -0.031287666 0.6043532 0.78225505 0.096897334 0.25628412 0.63443625 0.22990128 -0.2824292 0.63457286 0.4851456 0.4378755 -0.11580751 0.79881483 -0.68660235 0.23575789 0.020345563 -0.027416352 0.42607415 -0.23033059 0.010420366 -0.17776817 -0.17006417 0.7040447 0.5427685 -0.11563121 0.12935536 0.035534 -0.14956267 -0.24774534 -0.36086887 0.28450897 0.56262445 0.14871731 -0.45439452 -0.07984613 -1.6589322 0.2035728 -0.048320398 0.028483456 -0.911841 -0.035693016 0.8824036 -0.1299695 0.13020289 -0.60597336 0.0933091 -0.9909872 -0.9225601 0.45381075 0.3965524 -0.7156914 0.054102413 0.36794907 0.56218165 0.37549022 
0.13038552 -0.2440136 0.4129119 -0.22753443 -0.10802257 -0.29029897 0.20354982 0.95670927 0.105723 0.2738199 0.020700535 0.66299945 0.11869557 0.08674042 -0.2565912 -0.400542 -0.5540642 -0.42630243 0.009142559 -0.21504773 0.47895658 1.2067108 0.41334075 0.3478144 0.06025116 -0.6959171 -0.7577142 0.22428024 -0.017692091 -0.38205805 -0.8487636 -0.23006609 -0.31691366 0.14810255 0.08031129 0.14172687 0.22380593 -0.29205713 0.6587792 0.07197625 -0.4356506 -0.17892064 -0.06312165 -0.5931498 -0.08519165 0.33087993 -0.566486 0.35584137 0.13939372 0.30742285 -0.25914848 0.73071235 -0.63125485 0.18652374 1.0080386 0.20703435 -0.8188058 1.1156225 -0.057340063 0.030686233 -0.15811315 -0.25772527 0.47251818 0.44368944 
-0.81197226 0.2715141 0.06215825 -0.32787028 0.40426373 -0.26539132 0.40353635 -0.10597577 0.4283739 0.4796989 0.8577019 0.1814326 0.012645791 0.6289103 0.15214697 0.35275272 0.53492194 0.102144666 -0.09251616 0.29511848 0.5823454 0.20899387 0.15964207 0.54266614 -0.010665089 -0.49352953 0.28395116 -0.01010551 0.49128985 0.39134634 -0.26084208 0.14434205 0.103029914 -0.2211949 0.27954498 -0.59053874 -0.18993528 -0.27288508 -0.004058745 0.20050819 -0.012982661 -0.123421505 -0.08624648 0.9953655 0.4294037 0.075025946 -0.25473255 0.45166662 0.1349724 0.05691309 -0.97370225 -0.94198793 0.19576314 -0.3933368 0.24604908 0.6216084 -0.2422723 0.018025959 -0.04024699 -0.43755305 0.17666061 0.8513419 -0.022953682 -0.45055747 
-0.26583204 0.37560147 -0.60028535 -0.076966345 0.39456266 -0.2586001 0.37576085 -0.17477565 0.42460942 -0.47655332 -1.195827 -0.097879514 -0.2082357 0.15363103 0.31625777 0.13651009 -1.2571592 -0.17558181 -0.17245169 0.030864745 0.10209317 -0.0141132455 0.084712096 0.18120724 0.030037187 -0.19898021 -0.15995899 0.44445708 -0.93922293 -0.34413984 -0.791443 -0.13867214 0.18201765 0.30143327 0.1550423 -0.96140736 -0.6493621 1.0377653 -0.11452216 -0.8243087 -0.2760385 -0.18852186 0.116953075 -0.32335144 0.8522731 -0.6388136 0.39013723 -0.47654352 0.3774333 0.012930541 -0.04556097 0.8953344 0.16681062 -0.2223737 -0.46326423 -0.12386687 -0.19102944 0.32855245 -0.16137643 -0.0027523048 0.90486807 0.060511682 0.21319139 -0.4883381 
-0.1547904 -0.07907936 0.34716406 1.1027163 -1.7470834 0.0094792135 0.5743745 -0.046439745 0.59436595 0.075370856 0.05391101 -0.5271837 0.071305186 -0.4647243 0.1535647 0.053853273 -0.6424732 -0.88833094 -0.75986016 -0.23815143 -0.8972437 -0.64540476 0.27565852 0.6792625 -0.24325454 -0.2126173 -0.13696817 -0.41180795 0.06786672 0.1851077 0.27827856 -0.6696913 -0.2380558 -1.250155 -0.11473048 0.55339193 -0.71765995 -1.1971958 -0.28337044 0.15338552 -0.043942705 -0.16043727 -0.035132114 0.19532679 0.57188755 -0.5558349 -0.00041713554 0.64703375 -0.6291216 -0.8941261 -0.2646462 -1.4210604 0.036976095 -0.66205406 0.2897066 0.8560348 -0.1691764 -0.20248663 -0.0064652595 0.6262535 1.8838248 0.030099126 -0.23217244 -0.13060904 
-0.7586096 -0.9860285 -0.019510392 0.098534845 0.09343983 -0.7893453 -0.18339287 0.0046980036 -0.4055782 -0.05700371 -0.45261842 0.28172982 0.13137677 -0.45581922 0.13560876 -0.6465823 -0.41553912 -0.3301795 -0.20593199 -0.39949077 -0.5317594 -0.6158483 -0.5214922 -0.5003588 -0.2889265 -0.86190116 -0.50965774 -0.17301211 -0.10416568 -0.32780126 -0.6096888 -0.54549843 -0.14944527 -0.16888289 -1.0413545 0.4364482 -0.98197067 0.09707382 -0.9965816 -0.74550134 -0.45331293 -0.27386966 -0.77751005 -0.30457127 -0.12295055 -1.6476151 -0.029161002 0.063652135 -0.85575324 -1.0086967 -0.62128824 -0.19564311 -1.2417668 -0.0154521195 -0.1644885 0.21922418 -0.5649566 -0.47188452 -0.9826631 -1.4724019 0.46276915 -0.13459364 -1.3957386 -1.3757168 
-1.317291 -0.33817202 0.33140528 0.041388452 0.7864916 0.40248495 0.31322053 -0.10276251 -0.48015532 0.6149065 -0.13822336 -0.26836511 -0.12717608 -0.038357284 -0.3007621 -0.27465197 -0.3928631 0.7978159 0.43404636 -0.21547395 0.40579358 -0.7451347 -0.41005093 0.4902371 -0.085217014 1.0646456 0.758174 -0.04302918 0.098346375 -0.046360675 -0.001056988 -0.23064679 -0.7476988 0.55255204 0.37705994 0.51828843 -0.60108566 -1.3266448 0.65820533 -0.19771448 -0.39292264 0.54649204 0.38472763 -0.044021904 1.2209134 0.57433325 -0.5932034 0.7949171 -0.6434474 0.48094755 -0.33356723 -0.25265715 -0.24603796 0.19465044 0.5962382 -0.09129439 -0.25835547 -0.5076154 0.9711792 -0.3526834 -0.00025945928 0.09218743 0.526778 -0.032218732 
0.43003628 -0.39898792 -2.2606623 -0.046373345 -0.22742581 -0.5583892 -0.11645753 0.078184016 0.25120568 -0.34953701 -0.09115366 -1.5162172 -0.3664232 -0.1920791 -0.20439987 -0.9102815 -0.3814444 0.19281061 -0.49278116 -0.0013981813 -1.2281383 0.20757987 -0.375932 -0.092204556 -1.8986528 -0.7129413 -1.0482084 -0.31161833 0.06401724 -0.09535401 -0.7432346 -0.87245536 -0.7836304 -0.39698973 -1.252462 -1.1445976 -0.7004047 0.46607208 -0.3879407 -0.50143546 -0.15512203 -0.32520485 -0.7401757 0.05435931 0.21027747 -0.9579771 0.04002209 -0.55368835 -0.3583144 -0.54698044 0.32508606 0.615875 -0.356595 0.11491536 0.31059113 -0.8775258 0.49195382 0.79828954 -0.9964413 0.31689423 0.4665172 -0.21336761 -0.36263302 0.3475691 
-0.49152797 -0.34191668 0.0012314928 -1.6263366 -1.6714246 -0.2744931 0.2689115 -0.31785068 -0.27424374 0.28738362 -1.0066918 -0.11668792 -0.8431616 -0.3472173 -1.0259411 -0.19840272 0.08395371 0.18752593 0.24130099 0.09183102 -0.17317419 0.4075918 -0.5582874 -0.012221766 -0.92502725 -0.015602007 -0.5816806 -0.23615967 -1.3263068 0.001928987 -0.78453916 -0.037087135 0.6973234 1.0077755 0.20845646 0.59516805 0.30983487 1.0658693 0.44549835 -1.0624946 0.15039109 -0.7453411 -0.12695765 -0.041282017 -1.5419705 -0.1350562 -0.4327747 -0.3579368 -1.3634871 -0.17398608 -0.06891077 0.16904119 0.25162944 -0.8456397 -0.69421417 -0.2207359 -0.4750692 0.8324971 0.1849786 -0.45572984 -1.3842994 -0.80287343 -0.93505645 -0.19603391 
-0.04015931 0.6061787 0.034583587 1.663989 0.3069189 0.46194246 -0.41298398 0.54121876 0.1440795 -0.18694243 0.5647663 0.41581157 0.03170266 -0.06777852 0.06915252 0.3884143 -0.5972197 -0.46899426 -0.11536467 -0.35639474 -0.061652865 -0.17847708 0.5132728 0.7535253 -0.6010393 1.0930281 0.15234742 0.014897539 0.22832529 -0.3449004 -0.405332 -0.03396022 -0.84158653 0.18808024 -0.3587718 0.31383285 0.1341624 -0.6250117 0.48382118 1.1021427 0.53046393 0.117461324 0.108601525 0.4440147 0.93838745 0.51716095 0.56097966 0.33219707 0.5960255 0.22930643 -0.7870172 -0.27339393 -0.53687376 -0.6164119 0.7069663 0.2961074 -0.91920984 -1.0746621 0.009425721 0.19731888 2.3269882 0.6059857 0.24870387 -0.5591838 
-0.08697943 0.045530107 -0.65541154 2.891683 -0.07744362 0.4814402 -2.3819237 -0.0544864 -1.0627942 -0.19945486 0.31369174 -0.86079603 0.4183791 0.25988823 -0.3447853 0.3950202 -0.44708186 0.3803241 0.06524869 0.72703505 0.27172035 0.07310249 -0.022649562 0.3219646 -0.2504235 0.70604885 -0.21255875 0.51336956 0.31302834 -0.11785692 -0.20872147 -0.16489789 -0.052805915 -0.42660668 -0.30725023 0.6269791 0.10863147 -0.7216326 0.13746843 0.109987795 0.51090866 0.02407848 -0.32503876 0.19024262 1.8872784 0.04594812 -0.08227095 0.44089308 -0.35466632 0.21573424 0.88634765 -0.052947324 -0.29532418 -0.9133073 0.50645274 -0.69168276 -0.40796244 -0.45797408 0.45675373 0.46046844 2.6199517 0.122755855 -0.069308676 -1.021138 
1.2006111 0.3476536 0.5112136 1.25041 1.0765307 0.6471489 -0.68584216 -0.03503116 -1.0483171 -0.42841262 -0.3253626 0.40769923 0.37048998 -0.14939415 0.6435344 0.39257085 0.24086879 -0.40454718 -0.0065992167 0.43733743 0.0059460877 -1.012733 -0.23669471 -0.7404981 0.22293189 -0.3819211 0.16400565 -0.03328152 0.15003306 -0.33682537 0.3608637 -0.39525855 0.74999404 0.19592647 0.16601913 0.14022587 -0.132412 0.26418534 0.0071393936 0.77583665 -0.034528825 0.038189225 0.14244466 0.014277273 0.5509937 -0.3092007 0.4781427 0.4032858 0.4910745 0.17867662 0.39965028 0.02076507 0.567602 -0.5482049 0.5006537 0.40292862 -0.48007447 0.71888 0.051269013 -0.2461615 1.1720047 -0.11768246 0.15498339 0.12904197 
-0.027787138 0.3834193 -0.07348906 1.5577142 1.9470428 -0.34905395 -1.1186383 -0.7172713 -0.54956657 -0.116894 0.25183702 0.06188474 -0.67252755 0.17081729 0.23747638 -0.5171783 -0.34848595 0.35164946 0.48555043 -0.35581508 0.2484457 1.3942888 -0.79592854 0.042775124 0.47779372 0.8452216 0.78637606 0.115335956 0.41942134 0.11489155 1.2316899 -0.36081323 -0.08726187 0.23900872 -0.5405541 0.97636676 -0.9621745 -1.7126187 -0.2547325 0.04527795 -0.8388599 -0.020845564 0.32152498 -0.12153749 1.5768889 0.0643756 0.528317 -0.4882993 -1.4763399 0.2705358 0.03475865 0.17540957 0.18140888 -0.23308538 0.25132382 -0.6936274 -0.17397225 -0.3515431 -0.09962596 0.14991495 1.4239446 0.14223255 0.37726942 -0.38363084 
0.03355462 -0.2240275 0.39128587 1.8259437 0.72686994 0.17938624 -1.1024613 0.33806103 0.3094249 -0.08069635 0.7293047 -0.54935443 -0.3741479 -0.3314822 0.36574075 0.6828203 0.18100326 -0.026878783 0.6823738 -0.57192075 0.17225371 -0.5697285 -0.2500684 -0.7828615 -0.3096856 -0.9194377 0.48647654 0.30136177 0.10439482 -0.08426442 0.2845581 -0.19413467 -0.85603696 -0.38822326 0.23957159 0.0032773851 0.30149812 -0.7960937 -0.4898057 0.7533022 0.134343 0.68200934 0.3134998 -0.1419613 2.6058679 0.13241737 0.6868262 -0.12848553 0.3987673 -0.34759018 -0.11352629 -0.97490203 -0.05500527 -0.32726762 0.07567331 -0.8998722 0.05442013 -1.3373227 0.8584937 -0.16784014 1.9812047 0.20526005 0.38642776 0.65854293 
0.67657614 -0.06891459 -1.237871 0.39537773 -0.29443872 0.11979427 -0.70240366 0.19815433 0.07743356 -0.29909995 0.4924311 -0.6496747 0.82619476 0.078095496 -0.51891494 -0.16643377 -0.18663216 -0.11269215 0.028765349 0.61563903 0.23016548 -0.07167644 -0.29455972 -0.0873269 -0.5648251 0.27533993 -0.11963848 0.38660324 0.7117087 0.3184806 -0.16208676 -0.005345738 -0.07198459 0.40266687 -0.29904753 0.21540168 0.40665427 -0.35593796 0.70086485 0.24314678 0.18111049 0.1320821 0.27810755 0.5964954 0.69127345 -0.3556131 0.5131382 0.38971746 -1.1209713 -0.05832019 0.4289755 0.16686477 -0.25259298 0.8541123 0.28242403 -0.54327047 0.38899866 0.5510368 -0.3044101 0.24058332 1.0930243 0.57236195 0.61665714 0.3472327 
0.18473502 -0.13864036 0.28841066 -1.4149222 -0.80683064 0.4560244 1.5108017 0.3343506 -0.8420537 -0.29139704 -0.63503563 -0.31625897 -0.17653045 0.39838737 0.10704085 1.0388151 0.14237319 -0.13991618 -0.17940606 -0.34021598 -0.2136753 -0.7333968 1.0532123 0.7593708 0.69266325 0.19521521 -0.36343706 -1.2510843 -0.01499793 0.37108096 0.026493516 -0.6720528 -0.70139515 -0.5159318 -0.42385116 -0.5247049 0.7451038 0.67403555 -0.27295345 -0.19820593 -0.14189194 0.05946515 0.2424474 0.94739205 -1.5038656 0.29748896 0.36561838 0.19083385 0.4748825 0.6597119 0.21258077 0.46132633 0.832581 -0.6748711 -0.36269304 -0.110819 -0.26286677 0.13125817 -0.14060529 -0.106206454 -1.5012071 0.4471282 0.005086662 0.15899481 
-0.36895472 -0.20160124 0.21014228 3.9388278 1.1391026 0.095871285 -0.86901397 0.45309252 0.20474145 0.29791328 -0.94572604 -0.36089897 -0.47494936 -0.34919277 1.1951739 -0.6489152 -0.1277507 1.112581 0.08219859 0.73969805 0.13578914 -0.55444723 -0.6265632 0.3359407 0.1170061 0.5579402 0.74414265 1.0849406 -0.004121365 -0.11825806 1.032862 0.28814825 -0.70075583 0.7092954 0.25789514 0.74343127 -0.019467765 -3.1547644 0.51922977 0.10022191 -0.0803652 0.12010932 1.0100079 0.11948586 2.9057574 -0.46834752 -0.7573441 -0.6486154 -0.6387997 -0.34220722 0.505175 0.09612475 0.68476194 0.5129141 0.5414781 -0.47689965 0.5192807 -1.2103379 0.21609797 0.015333247 3.1357267 -0.35432443 0.5941793 -0.40640393 
0.20879367 -0.0024996793 0.08516881 0.80299664 0.77019674 0.3266108 -0.047438145 -0.9887153 0.19588868 -0.55091405 -0.525472 -0.41747367 -0.41191083 -0.33083764 -0.39468694 -0.25313 0.06629698 -0.6159305 -0.21079855 -0.66869086 -0.48976177 0.031443775 0.30688888 -0.89803237 -0.9043599 -0.18690024 0.027782615 -0.06718992 0.09152931 0.12619671 -0.10054262 0.6889007 -0.007679975 -0.33214027 -0.47122112 -0.4947488 0.2130281 -1.563278 -0.2595215 0.3305289 0.13262069 -0.34524652 -0.22587317 0.4800163 0.58817285 0.006685255 0.30480653 0.94186896 -0.33930734 0.29234493 -0.79379433 -0.3697333 0.29947674 -0.53392196 -0.90836096 -0.36925274 -0.32987264 -0.3562973 -0.32428768 0.06768123 1.0815941 0.46787104 0.01211436 -0.6336986 
