-0.3347876 -0.09316262 0.15371908 -0.05484724 -0.29735348 0.066766225 0.17357732 -0.04236266 1.0646992 0.072497845 0.59649545 -1.6311185 -0.06065625 0.097715296 0.23011868 -0.47855416 0.6526863 -0.49252927 -0.343687 -0.33953753 0.052426014 -0.039837953 -0.011842871 0.091575414 -0.20928879 -0.007494571 0.16125216 0.07385018 0.1678885 0.17654286 0.8887895 0.1577069 
0.73049575 0.52716386 0.73550653 0.83270955 -0.51381254 0.4167581 -0.050596803 0.57633793 1.169961 0.36689577 0.013673843 -0.4791028 0.46183065 1.6761754 -0.18423043 0.19773942 -0.15517783 0.19783524 0.62927043 0.74179435 -0.068386264 0.46305466 0.41345978 0.6389943 0.41808352 0.35238057 0.5137939 -0.17386106 0.53649586 0.5780966 1.4780554 0.39095095 
0.102912255 0.03736067 0.29364315 -0.5561359 -0.37955442 0.6555149 0.38072073 0.4356707 -0.49553534 0.4856925 -0.324469 0.95250213 0.22822286 0.6739647 -0.0023962937 -0.2687254 0.7097043 -0.11386213 0.011233633 0.6815003 0.46151 0.22930077 0.2572015 0.17267099 1.1198642 0.62669575 0.22570331 0.3211581 0.017961245 -0.1261547 0.97472906 0.086886585 
-0.44043428 -0.17339242 -0.06615228 -0.27884948 -0.23248541 -0.88169664 0.0051346277 -0.167867 -0.74325085 -0.5749414 -0.2583896 0.29664633 -0.0436915 -0.36164734 -0.013930819 -0.13945693 -0.53111166 -0.18661736 -0.3748646 -0.20806421 -0.32135642 -0.13917752 -0.17207424 -0.22209391 -0.6404539 -0.28030938 -0.23027168 -0.3107428 -0.16284713 -0.5078131 -0.13232894 -0.24641813 
0.11498194 -0.30184165 -0.36229336 -0.2514619 -0.30553365 0.9192113 -0.33886477 -0.0070192665 -0.46391943 -0.6153029 -0.22255096 -0.27318302 -0.15848796 -0.39399347 -0.50920254 -0.16794483 0.06440431 -0.612708 0.058636416 0.20514823 0.3697739 -0.27682266 -0.021841524 -0.10590768 0.69139683 0.08059775 -0.2346995 0.09007742 -0.7018614 0.21672328 -0.12723255 -0.247018 
0.55110466 0.43502334 0.0759249 0.012345143 0.7512306 0.21364534 0.68899345 0.4325248 0.09925904 0.60511804 0.48129922 0.6117446 0.12305106 -0.6427866 -0.48681384 0.43509302 -0.50517225 0.13463238 0.49865365 0.6996655 -0.036856346 0.16096313 0.48255077 0.16681582 0.129523 0.11985143 0.5390528 -0.7902552 0.44892186 0.07978011 -0.574222 0.22771047 
0.50992554 0.39795148 0.047170274 -0.23685184 -0.44059822 0.016080061 0.5062281 0.49401924 -0.97964376 -0.20957124 -0.519717 -1.0552703 0.1756364 1.425256 -0.053014506 -0.14066587 0.28325716 0.37961787 0.34190544 0.22933315 0.31720522 0.22564842 0.4038495 0.25979343 0.312185 0.2559233 0.41287884 -0.16497831 0.08136012 0.2396168 0.48552153 0.4255697 
0.34094828 0.45748618 0.39250514 0.46771976 -0.9456684 0.20394543 0.37451425 -0.06172905 -1.2567246 0.037652694 0.96185005 -0.32661995 0.045276638 -0.25301802 0.17471799 0.27893293 0.47711948 -0.9391819 0.605296 0.20565176 0.24550578 0.29271626 0.0758655 -0.18818268 0.08424307 0.14577308 -0.021457747 -0.25582066 -0.41338477 0.45206615 1.0896101 0.21285404 
0.5981055 0.2928794 0.6621788 0.57383853 0.13195926 0.83306843 0.30104375 0.21728446 -0.66633874 -0.15326019 0.38174915 0.5226903 0.42030692 0.21419203 0.22918305 0.55995464 -0.24906969 0.36314136 0.65488905 0.5186035 0.5259096 0.40301487 0.6427204 0.5191462 0.9603954 0.92525387 -0.026463937 -0.9764006 0.38887602 1.0526088 1.6235385 0.17971295 
-0.02650083 0.81406134 0.65796536 -0.28913912 0.1286071 -0.2975661 0.34614828 0.34431404 0.03930762 0.6614099 -0.21032229 -0.534111 0.92299074 -0.030165493 -0.64950764 -0.08456031 0.8221275 0.18475579 -0.30667526 0.01261526 0.54797375 0.24940953 -0.37472516 -0.026264943 0.35690323 -0.08873737 -0.24095958 -0.22610064 -0.14471766 1.0958786 2.36223 0.09114242 
1.2697878 1.2889297 1.2898163 0.6950039 -0.5423833 1.0184438 1.1566596 1.571434 0.38551292 1.2055707 0.34037733 -0.32394964 1.3667841 0.5167826 -0.27380484 0.61313105 0.64786315 -0.20759004 1.4054345 1.4925169 0.8174105 0.10115828 1.1912827 1.4974322 0.5666714 1.2023832 -0.04419396 -0.022774925 1.1392355 0.89921993 1.0965124 1.0456634 
-0.076658845 -0.37970778 -0.8736844 -0.14917523 -0.07003962 -0.74501646 0.18656829 -0.60484797 0.71960294 -0.28881457 0.5489861 -0.5436817 -0.53902066 -0.50575006 -0.49655423 -0.17291853 0.8152271 -0.016453786 -0.3681212 -0.14141078 -0.31756666 -0.26558277 -0.2011805 0.012527443 -0.13267267 -0.7258215 -0.09398556 0.37243608 -0.16838634 -0.5166935 0.7536608 0.34461328 
0.21650366 -0.04192015 0.95414263 -0.8095883 -0.49715737 -0.04696998 0.3477431 0.52281594 0.011931246 0.15913835 0.29048127 1.4631729 0.62100834 -0.37140828 -0.32965666 -0.5594506 0.23224857 -1.2022562 -0.31362596 -0.08553611 -0.04172603 -0.7550372 -0.4987861 -0.466138 0.39422777 -0.29616812 -1.0360193 0.46387085 -0.45158362 0.55440754 -0.18991463 -0.3052484 
0.3881382 0.8274986 0.78594625 0.38185015 -0.5933643 0.27558836 0.3370911 0.66688246 0.16510761 0.722222 0.7804156 -0.18604237 0.37853694 0.29880145 -0.36912453 1.2905043 1.2083423 0.4574646 1.0472969 0.60769194 0.8036306 1.0946152 1.1731484 0.46696293 0.73288345 0.5075567 0.5725908 0.50898045 0.54697335 0.9337293 1.0751386 -0.10900847 
0.72756433 0.604386 0.2939001 0.75734967 -0.40747568 0.60539204 -0.37768036 0.71239245 -0.16475044 0.25298744 0.12164561 0.6274659 0.2011269 0.34265497 -0.9532518 0.57777536 0.9906012 -0.31243584 0.5510181 0.58285326 0.64515746 0.11378619 0.7546599 0.71769553 0.19823611 0.48321903 -0.2672637 0.025558982 0.5277665 0.45076314 0.88862395 -0.25451002 
0.24968705 0.082838826 0.05242583 -0.016951272 -0.34045318 0.15244867 0.3022556 -0.4471729 0.24023542 -0.47502378 0.7628121 0.9376122 0.55031615 0.70795524 0.33054468 0.011593276 0.21512985 0.4210231 0.4765249 -0.04889722 0.18311869 0.13529709 0.4665206 0.396483 0.08256384 0.009179129 0.12951505 0.40825447 0.116439 -0.0047002262 0.27022883 -0.6176649 
-0.21947533 0.12647001 0.32522413 -1.2705748 0.39952973 -0.6704118 0.38065636 -0.2632754 0.16974749 0.04084676 0.7890619 1.6496915 -0.2493749 1.8685108 -0.3916377 -0.80340105 1.094724 -1.4174429 -0.38602382 -0.09422628 -0.3129963 -0.32935455 -0.515018 0.087451264 0.11464531 -0.46577504 -0.7417969 0.0014618775 0.650674 0.17338154 0.043705273 -0.013246646 
0.25769404 0.47004223 0.29323378 -0.14469302 -0.5909535 -0.13682362 0.31196955 -0.11490421 0.840419 -0.34424174 1.0997014 0.67184734 -0.29048502 0.5860721 0.17760965 0.19556867 0.87161785 0.11769675 -0.0014186044 0.2913725 0.12918198 0.24912553 0.081847236 -0.18480334 0.073664196 -0.120839246 -0.4356612 0.4454474 -0.18558435 0.110634394 0.53282326 0.037715353 
0.9223302 1.1362717 0.9421873 0.48278543 -0.49311116 0.7075944 0.9933709 1.0089549 -0.78683025 0.89472455 -0.2300075 0.7582906 1.0286448 -0.39284247 -0.3491682 1.0200796 0.34612972 0.44998506 1.4510759 1.4991475 0.71615416 0.46615446 0.9952788 1.2123823 0.61045575 1.0202125 0.50354993 -0.7221183 1.4489497 1.0290328 0.6836807 0.18718578 
0.63602173 0.39294356 0.34946457 0.3122368 0.054509003 0.3985901 -0.3860103 0.09003522 0.78848165 0.48081675 0.018576007 -0.92682976 -0.11593618 0.039582822 0.7551465 0.5013746 0.6205371 -0.44783327 0.34072003 -0.20893505 0.019687263 0.43015236 0.36334464 -0.12861899 0.43353608 0.59309965 -0.3819354 0.27684796 0.1239638 0.35376453 0.9893453 -0.12741704 
0.9767043 0.46867225 0.21226008 0.62043685 0.26296273 0.6010714 0.053713422 0.9134329 0.022622546 0.6111952 0.20539129 0.69209695 0.109444775 -0.22266673 0.20676343 0.21764861 -0.27368256 -0.4163958 0.8698452 0.78154874 0.86480886 0.20337501 0.6713118 0.86391026 0.5383816 0.5364896 0.27780142 0.58104277 0.96306825 0.6809113 -1.4808846 0.41993782 
-0.30639958 -0.07684474 0.081147455 -0.018988999 -0.7988741 0.1577869 -0.218817 0.017536871 0.5129972 0.15936086 -0.28377464 -0.5022718 -0.0780252 0.81066495 0.18326955 -0.004853284 0.078957714 -0.21787316 -0.29544464 -0.11077888 -0.021731762 -0.34139523 -0.1598468 -0.037775807 0.059951022 0.031136835 -0.32464358 -0.46255788 0.025236795 -0.37912884 0.43469006 -0.008833175 
1.2340364 0.93238604 1.559474 -0.59807706 1.1194665 0.87675977 0.5798274 0.7617714 1.1774976 0.33389962 0.36570573 0.25075778 0.46366012 -0.13679251 -0.66714495 -0.96589243 -0.83026564 -1.2185082 0.23541872 0.46122682 0.5278096 -0.104754575 -0.068080105 0.6545655 0.6919559 0.35971686 -0.60103554 0.18099819 0.48871088 0.28959554 -1.2589774 0.21358441 
-0.34773695 -0.07637193 -0.052346144 -0.5385287 0.57614076 0.24858497 -0.33450052 -0.6033906 -0.35668612 -0.44707763 -0.07564669 -0.5342747 -0.20376994 -0.37899894 -1.0797094 -0.20302284 0.20674501 -0.7761743 0.079763874 -0.013043406 -0.3784716 -1.0229028 -0.38446996 0.12864077 -0.36297357 -0.63724256 -0.5923915 0.8241433 -0.023521733 -0.29627436 -0.6338581 -0.22193415 
0.35548535 -0.4952702 -0.34414706 -0.41335267 0.5277973 0.41382757 -0.3907553 -0.04423569 0.51040775 0.02894632 1.2264041 -0.29357037 -0.049435962 0.09805856 -0.7804362 -0.048305254 -1.3158114 -0.15845554 -0.22431661 0.11961229 -0.57244873 -0.7576356 0.07315668 -0.03899355 0.31145644 0.28715444 -0.3928048 0.54228157 0.05946214 -0.39868346 -0.88366234 -0.30578876 
-0.16480212 0.11348054 0.05140792 -0.07334865 -0.054481465 0.6388469 0.03990587 -0.17762008 0.1990153 0.10479205 -0.2996826 0.7593407 0.10231865 0.2824825 0.024700118 -0.16863452 0.45889503 -0.011315972 -0.085383646 -0.5300138 -0.31983548 -0.14105296 -0.38547453 -0.5727522 0.27355632 -0.3356994 -0.021831593 -0.22708845 -0.7457398 -0.29485086 -0.84207624 -0.06813076 
-0.04211222 -0.010010408 -0.2367014 -0.034711618 -0.5763287 -0.1224683 -0.37697354 0.36236328 0.6593908 -0.054896284 0.7568483 -1.0667509 -0.042404164 1.5710745 -0.37900916 0.32657754 0.37827957 0.14348236 0.25612378 -0.10964167 0.19756563 -0.4151999 0.3398876 -0.07569724 0.16918105 0.34548765 0.3931679 1.1679825 -0.051314455 -0.07893131 1.0930403 0.422553 
0.50102127 0.63347894 0.38927472 0.58092535 -1.0151902 0.79107744 0.2479347 0.3619947 -0.73487025 0.44209212 -0.9030939 -1.4668889 0.60295665 -0.056699004 0.6308645 0.5590194 -1.0700221 0.50197214 0.6366516 0.41637343 0.3511517 0.57258457 0.67616665 0.79392844 0.8597415 0.56101745 0.522359 0.4647627 0.56595916 0.3662855 -0.15749967 -0.20234795 
0.6565249 0.33687818 0.5223671 0.51301503 0.06859539 -0.055721954 0.6342738 0.6388351 0.07374922 0.37825933 -0.22085853 -0.44837993 0.57907474 1.2010654 0.6153358 0.5156258 0.81123364 -0.06891471 0.91561806 0.76735747 0.697113 0.021937616 0.7335319 0.61856705 0.46268418 0.92239 0.48764527 -0.47266352 0.7532053 0.6058455 1.8056247 -0.20203276 
0.48233584 0.7201878 0.6503936 0.4106563 0.3384265 0.31433624 0.6639419 1.2039765 -0.56050503 0.57552934 -0.2868974 0.959403 0.1747189 0.75725496 -0.14158766 0.07951009 -0.06403891 -0.52937317 0.04421165 0.7121185 0.028911704 -0.3394005 0.6329983 0.5693139 0.29793322 0.108799234 -0.6111086 0.423693 1.0072602 0.6923621 0.12155741 -0.013800104 
0.63373893 1.0771271 0.24653044 0.6194585 -0.62697715 0.038602274 0.9993495 0.8278844 0.5900007 1.3150576 0.047064047 -1.1377485 0.8071694 0.15247454 0.011697038 0.28300047 0.80853564 0.77523875 0.93113923 1.0126557 0.98977166 0.2621438 0.74843967 1.0173795 0.92180705 0.72227013 0.50217557 -0.8384745 0.70195514 0.98135823 1.9127482 1.0078839 
0.7688582 -0.030610908 0.21921583 -0.68780786 0.32677144 0.4187177 0.3260732 0.3315225 -0.32597953 0.6110152 0.44497356 1.7720083 0.3897045 0.8834276 -1.1741935 -0.15334019 0.13434379 -0.9474369 0.02696506 -0.18373151 -0.5397121 -1.0306684 -0.32263064 -0.5785263 0.06338831 0.30461916 -0.23293027 -0.53897685 -0.33481544 0.1343699 0.18062395 -1.3115515 
0.07614248 -0.12040967 0.3518767 0.06936385 -0.8270095 -0.12916638 -0.13964759 0.2605032 0.33620998 0.050428733 0.17072408 -1.3482535 -0.021305377 0.2763922 0.07327695 -0.27062088 0.8934605 -0.3470398 0.21796967 0.3220987 0.086011946 -0.72742444 -0.01788952 -0.3000052 0.0176405 -0.021890203 -0.23318288 0.7685277 -0.20314011 0.13485567 0.7279418 -0.80100816 
0.35754082 0.51506597 0.07854587 0.97804075 -1.3494357 0.42776474 0.6699667 0.53653485 0.4593749 0.2703838 -0.18014355 -0.7716434 -0.098279186 1.5608641 0.6730122 0.12137021 0.23295623 0.52596146 0.28923726 0.176013 0.35289323 0.35514352 0.7004099 0.3287649 0.3525562 0.2709712 0.6146961 -0.43829286 0.58475065 0.293019 1.8196609 0.7939791 
-0.2296145 0.36146462 0.0781284 0.3543764 -0.021848986 -0.27525222 0.5542027 -0.064935274 -0.29256138 0.3073475 0.2991184 1.1617965 -0.07243287 0.06326069 0.04252438 0.36529586 0.25365382 -0.123108275 -0.26800007 -0.3528485 -0.5035791 -0.01478199 -0.1504014 -0.49717832 -0.23929511 -0.35356802 -0.13343136 -0.37861374 -0.16838022 -0.22709398 -0.19966064 -0.67589176 
0.11203543 -0.12929899 -0.16884816 -0.76255494 0.2783836 0.41229537 0.75986856 -0.35979936 -0.30263808 -0.4026078 0.2405146 1.2558031 0.32722315 -0.17240442 0.4278895 -0.31473666 -0.014686527 -0.045731515 0.21661529 -0.23277801 0.6248892 0.083783306 -0.17298113 -0.38648987 0.11984015 0.4223268 -0.22992516 0.16646336 0.16723616 0.60907733 -0.53308654 -0.46053952 
0.2987533 0.45491445 0.5837022 -0.24685457 0.875204 0.47600684 0.44690478 0.1824305 -0.08013394 0.16058181 0.39042598 0.8127314 0.21578686 0.017002836 -0.24814272 -0.17175913 0.16908765 -0.1313679 0.2526282 0.63952094 0.53026503 0.22599618 0.39811674 0.5551912 0.75937295 0.6183609 0.36421296 -0.5532418 0.5388073 0.3143242 -0.33248168 0.13851418 
-0.49548787 -0.48473224 -0.035272628 0.25825617 -0.11884466 0.28749844 -0.72491163 -0.4441055 -0.19826983 -0.4258901 -0.51533365 -0.5536918 -0.35753822 -1.000308 -0.4803602 0.5031452 -0.7386612 0.11709852 -0.58833534 -0.4660799 -1.6976348 -0.17295547 -0.20178388 -0.5471786 -0.837294 -0.76597524 -0.008614214 -0.27691206 0.05078484 -1.6136287 0.33273974 -1.6965685 
0.263917 -0.092946865 0.38566187 0.44741243 0.20285231 -0.1097984 -0.1257634 0.10248012 1.2665143 0.28497005 0.9059185 -0.2629491 -0.33233213 0.21695356 0.5525395 0.3378046 0.5903972 0.3502694 0.19117187 0.46006185 0.10690233 0.26853016 0.32402495 0.43060678 -0.23903 0.3331145 0.1946351 0.25796345 0.2676503 0.46078196 1.075369 0.016289597 
0.24076337 0.32101315 0.035304323 0.09519372 -0.048823446 -0.11543685 -0.16907254 0.33015 0.019970385 0.1799427 -0.55148673 1.1525811 -0.3362607 -0.64984304 -1.0464525 0.1597259 -0.019043554 -0.74114156 -0.12001745 0.18909065 -0.7388047 0.5452685 0.58161426 -0.3246165 -0.94410944 -0.032831497 -0.027704546 0.33757406 0.2775617 0.070109315 -0.35001478 -0.79799914 
0.8744927 0.46737128 0.8126753 -0.38689888 -0.22055653 0.09351103 0.44538048 0.7053635 -0.21664158 0.89841175 -0.3658113 1.5153015 0.19122869 1.0210105 -0.2790408 0.16138534 -0.037852682 -1.1491305 0.60315514 0.88755906 0.7301995 -0.32877907 0.20590727 0.09721348 0.37348488 0.8201555 0.12056356 -0.5943836 0.74412197 0.28799894 1.2091823 -0.21930811 
1.1710584 1.0502535 0.8370689 0.96921915 0.08736516 0.17374714 0.5727763 1.2825935 0.0364111 1.1216444 0.5905628 0.68496215 0.66798043 -0.1650276 -0.5137058 0.8958992 0.28259248 1.1017432 1.3205743 1.6609727 1.0152861 0.66961515 1.5809038 1.4404423 1.3164223 1.1748437 0.21099988 -0.0029985926 1.4095203 1.4972504 0.7679183 0.2441626 
0.056694735 0.24569796 0.10775326 0.07175526 0.06911985 -0.4932418 -0.5828403 -0.46439984 1.0312835 -0.6803911 0.35579407 0.06128722 -0.24655977 -0.007518827 -0.5513752 -0.21045789 0.028885525 -1.3087994 -0.35807776 0.00837871 -0.34571362 -0.548847 0.06269402 -0.7203269 -0.74977523 -0.44847742 -1.1710638 -0.8582539 0.10743185 -0.3203117 -1.0639533 -0.34372827 
0.34054175 0.5369485 1.2225003 0.64807343 -0.40570852 0.30408603 1.1423501 1.4701029 0.10322273 0.83131605 0.15763697 1.6308279 1.0865799 1.5451213 -0.37332764 0.77670914 0.9612357 -0.71164304 0.7407426 1.0711917 0.8257123 0.45670015 1.0268481 0.7778784 0.71006787 0.92598605 -0.47389883 -0.49471572 0.923111 0.8569839 0.76227343 0.7918678 
0.22406267 -0.024240877 0.2157047 0.13928853 -0.18112056 0.41115895 0.016729381 -0.12407528 -0.6808613 -0.18746927 -0.3056883 0.32302028 -0.30262306 -0.5855643 -0.043312438 0.125315 -0.18284552 -0.2682318 0.10613387 -0.2922331 -0.021854192 -0.26060215 -0.13488887 0.010114184 0.030887809 -0.18929121 -0.255257 -0.31444722 0.2628065 0.078393586 -0.63687366 -0.053699896 
1.2688994 1.2259688 0.32393926 1.1645243 -0.90602183 0.7151604 0.6773138 0.9963899 -0.14428249 1.2182814 -0.0792959 -0.55521417 0.4844315 1.1052847 0.029440623 1.0455958 -0.96096265 0.51497734 1.2093579 1.325177 0.89068544 1.1367382 1.6231474 1.0656918 1.23145 1.3624065 0.887843 -1.5414695 1.093481 0.9755973 1.3008518 0.84153765 
0.77632755 0.4511722 0.38951778 0.5234064 -0.08110058 0.49478745 -0.06961855 -0.07057607 0.65824366 0.47292167 0.77111775 -1.2992408 0.2541144 1.1246272 -0.010988646 0.47969806 0.22693986 0.32399428 0.8707271 0.8382654 0.77420324 0.6379473 0.6396065 0.7252145 0.4127305 0.72587335 0.19089916 0.06837584 0.54047 0.74088824 2.5033987 0.46773008 
0.31000045 1.1247994 0.95468754 -0.37141946 0.13339567 -0.17369395 0.5851259 0.58329195 0.11240014 0.8869196 0.33260557 1.6700376 0.8397832 0.24820653 -0.27327558 0.42087746 -0.8270262 -0.44558194 0.39575142 0.33766168 -0.38848862 -0.5342411 0.010551125 0.15515439 0.89466155 0.2713926 -0.35866484 0.1836809 0.4304848 -0.116055444 0.14579313 -0.20647013 
0.22070724 0.68856925 0.12989888 -0.03673303 -0.39639598 0.20207371 0.19391888 0.35367033 0.15232454 0.5170847 0.27261597 -1.704307 0.22905001 1.5549824 0.5229921 0.18348584 0.6552054 0.047861807 0.33096007 0.5540478 0.2142397 0.2599316 0.26826712 0.58999455 0.42987123 0.22359283 -0.4602336 0.35347673 -0.027782602 -0.012477442 1.8763405 -0.62342566 
0.16058369 0.73374516 1.0850916 0.693637 0.10710054 0.42681116 0.7862437 1.0945079 0.1744259 0.98776084 0.8421645 0.6539777 0.88849974 0.7930682 0.1492102 0.77824056 0.21671675 0.0766168 0.67838275 1.05977 0.5088996 0.71216154 0.63368404 0.7624637 0.76221216 0.5033121 0.5871898 -0.053854175 1.0199971 0.3652332 0.6313199 0.64849794 
0.30513948 0.47628468 -0.29586136 -0.082376145 0.0032493768 0.29515976 -0.42107671 -0.04036651 0.4701116 0.43505433 0.38108212 -0.86877024 -0.3231392 0.7008452 -0.72857416 0.30140606 0.30855522 0.20552328 -0.3807434 -0.18454638 -0.82811636 0.09126225 -0.22088118 0.0469888 -0.0779905 -0.5685389 -0.46056113 0.6864167 -0.27651906 -0.675502 1.3136474 -0.12119554 
-0.009229535 -0.8332579 -1.6094139 -0.18745163 -0.7363115 -0.57181406 -1.6131932 -0.33942232 -1.1217793 -0.45286438 -0.22540401 -0.16579095 -1.0749363 -0.39835596 0.26437202 -0.14607668 -0.66564727 -0.11649106 -0.28151822 -0.49928737 -0.19046457 -0.05675524 -0.07018522 -0.46900687 -0.67079026 -0.21978298 -0.19684203 -1.0309281 -0.4610596 -0.2715644 0.014029482 -0.5167315 
0.28165874 0.4569445 0.41579416 0.41288993 0.0847749 -0.10582619 -0.19287492 0.5548116 0.4499235 0.412677 0.14298643 0.8542268 0.35729638 -0.7466686 -0.34366867 0.8585891 -0.072684646 -0.5231993 0.6109905 0.49063233 0.22563995 0.21699393 0.3284607 0.31403154 0.411558 0.5278639 -0.16463359 -0.35259357 0.5886919 0.23141548 0.5906334 0.019162172 
0.3366522 -0.0009901819 -0.1453963 -0.06656777 -0.22938654 0.10931865 -0.33974063 -0.22524579 0.015236057 0.13533427 0.5822598 1.1056441 0.03955204 -0.6181594 0.4068203 -0.20156111 0.55913377 0.15046696 0.05543014 -0.011260546 0.0059234826 -1.0293787 -0.029604968 0.29362896 0.53059113 0.20487097 -1.0063276 -0.11882299 0.032509703 -0.14464237 -0.15413278 -0.5150434 
-0.7619159 -0.7976089 -0.56019 -0.41412067 0.533892 -0.23331498 -0.7803895 -0.81002903 -0.43723866 -0.56608856 0.6632814 1.332444 -0.51668084 0.117523596 -0.46860036 -0.972354 0.30666178 -0.47441798 -0.81753236 -0.47604647 -0.56992006 -0.3942716 -0.6182612 -0.4403421 -0.5848998 -0.67981696 -0.56715846 0.34756297 -0.9595154 -0.7174688 -0.40316132 -0.2561629 
-0.13906915 -0.36731094 0.10204246 -0.6587752 0.4884923 0.25427365 -0.27101517 -0.4504111 1.0145323 -0.5582589 0.15796019 0.59964293 -0.2462172 0.0067510023 0.054751858 -1.3117247 -0.16680726 0.0267088 -0.6343271 -0.28975907 -0.26683626 -0.22048435 -0.2475556 -0.255951 -0.09109435 -0.5089243 0.2324252 -0.09712396 -1.0617453 -0.610542 0.56143737 -1.3771108 
0.33663577 -1.0367392 -0.0532851 -0.19742456 -0.52536196 -0.5691904 -0.44891414 -0.3979394 -0.706083 -0.46616286 0.26015016 0.7913993 -0.052843355 -0.6403271 0.042559437 -0.7437108 -0.48036024 -0.62727886 -0.27373594 -0.19134897 -0.4779168 -0.7563582 -0.3888064 -0.5293321 0.11725338 -0.08996847 -0.07364323 -0.9160048 -1.0902667 -0.15881303 -0.1342511 -0.023259997 
-0.52610326 -0.59832275 -0.12785175 -0.20377773 -0.44061685 -0.18143407 -0.3962004 -0.91876817 -1.0493875 -0.9186275 -0.5888612 -0.14414892 -0.4654646 0.1246414 -0.34261808 -0.27005997 -0.20084286 -0.09460889 -0.4507735 -0.8239083 -0.4506537 -0.08160247 -0.6114765 -0.76263684 -0.6336284 -0.62433386 -0.085618764 -0.64168864 -0.16131376 -0.62921244 0.20641187 -0.13836785 
0.23800376 0.16432735 0.70299685 0.6461495 -0.8060221 -0.0010142082 0.702086 0.6132529 0.5596616 0.0068405243 0.922272 -0.9531053 0.567781 0.16834567 0.022441842 0.7740088 0.7299116 0.32741752 0.6147591 0.72401243 0.5515071 0.032456316 0.6051828 0.35159644 0.031716224 0.4040253 0.50359374 0.2941844 0.42926836 0.2390495 1.0161752 0.045740895 
-0.18372777 -0.22569224 0.559563 -0.1588474 0.15615073 -0.20519587 -0.89813405 0.12145515 0.20843087 -0.050607055 0.6640932 -0.40368238 -0.116061166 -0.16854037 0.43758053 0.020536372 0.60951555 -0.5030284 -0.09159954 -0.043590885 0.58596474 0.048579752 -0.113701314 -0.06473141 -0.0041276026 -0.6592044 -0.32757086 0.76047534 0.10729046 0.060824152 -1.0137689 0.1280193 
-0.6040483 -0.5131499 -0.59629023 -0.3210523 -0.81856596 -0.4887032 -0.56330484 -0.45683643 -0.3135278 -0.98992157 -0.84587383 0.41016278 -0.41195816 -0.45078853 -0.30758104 -0.42455167 -0.6115781 -0.0086830435 -0.5330746 -0.46034762 -0.4197587 -0.13002297 -0.5880412 -0.44261384 -0.8814007 -0.2767819 -0.152069 -0.6434668 -0.49938905 -0.4197604 -0.19960555 -0.25939357 
0.43055198 -0.022765078 0.2560739 0.26189372 -0.09563056 0.37421036 0.31021684 0.25810474 -0.052499596 0.60122746 0.5405679 0.9385054 0.05616083 0.42227152 0.00897614 0.65641445 0.8769413 0.34996986 0.4247722 0.6262306 0.7823039 0.20080647 0.5772614 0.9310258 0.7238171 0.3375939 0.45367712 -0.47646585 0.90303606 0.67238873 0.090152636 0.39626747 
0.7093376 0.616123 0.7140761 0.28660366 0.9286826 0.06260203 0.3079135 0.81492543 0.14626108 0.45397058 0.4978498 -0.5394593 0.09458858 0.40881357 -0.43071136 0.6290756 -0.5282091 0.34650865 0.32507804 0.62402636 -0.06574004 0.2281368 0.46294266 0.61954004 0.15799299 -0.07878995 0.33310232 -0.45429882 0.21489322 0.64327675 0.5007407 -0.5593924 
0.58362275 0.7523 0.30135924 0.2717743 0.58608884 0.31896666 0.7253952 0.80766493 0.43193054 0.4388346 0.6040447 -0.97146976 -0.07139983 0.3666282 0.031009668 0.7426282 -0.37046933 0.0975986 0.7211545 1.017054 0.6467957 0.51632595 0.9719565 0.8084295 0.76770043 0.9065409 0.72173584 -0.70431477 0.6422282 1.0057025 -1.6871066 0.3892335 
