-0.429448 0.6431466 -0.77070975 0.0030995084 1.1081808 -1.7028235 -0.26851892 -0.15679875 -1.6971872 1.2567954 -1.2754872 3.5808744 -1.7217246 0.2500545 -1.2546502 1.993557 1.8140326 2.0318768 -4.0582457 1.7040426 1.5415356 -1.2391186 0.13770173 -0.718076 1.5048795 -4.931646 -2.0554993 1.2922739 0.21632431 1.881649 1.4745169 -1.0742023 -0.26266584 0.5647616 -1.3465677 0.55608815 0.6408373 -1.1242566 1.3236407 -1.9425601 -2.4850342 -3.099757 -0.52433866 2.9626582 0.63589597 2.3773067 -0.44534487 -3.364452 1.2824091 -3.5705345 2.3110971 -1.2827815 -1.111591 -0.66787905 0.16562025 -1.0851979 0.20782836 1.7336473 -1.7701234 1.1006013 2.449598 -2.5976431 -0.177563 -1.2748779 
2.1174548 1.6347252 -2.4968016 3.4212651 -1.3856366 -1.8044269 1.474586 3.977501 1.7349436 0.40612403 3.0759184 -2.3569753 -3.0404992 -0.53093004 -1.9085462 0.6379636 -0.09593584 -0.22140665 -7.3194695 1.5481553 0.70038706 -1.9423342 -1.4762151 3.6195853 -2.5223367 0.7432864 0.64774513 0.24814095 -0.18420589 -0.9090093 -0.9094865 -0.68880206 0.95875454 -3.58796 0.28628662 -2.8633342 0.14258592 0.39596644 3.032334 -5.8710165 -0.63162726 -1.6535158 -0.065510035 3.8895476 -2.8098998 -1.099825 0.5284117 -2.83103 0.46487683 0.07786528 1.7864753 5.486634 -1.6711813 -3.5897007 0.7841266 2.1222699 -0.8407902 0.32174364 0.82598704 -1.9762101 0.38779593 0.4732417 1.0245221 0.7874005 
-1.7714037 1.8231474 0.42782342 -0.45547852 0.6487165 -0.7850273 2.2419631 -2.7646768 0.717244 -0.44045478 1.1917369 2.745468 1.3102187 -0.31559193 -4.895825 -3.7692938 0.18438853 0.8735459 0.3269216 0.44742364 -3.1660466 0.64454126 1.3057221 0.8537085 -3.104533 -0.13739325 1.7181581 -0.68052524 -1.1552203 0.20556264 3.956747 1.6566383 0.9635486 1.192244 -0.5661897 -2.5526526 1.1089183 -0.4563167 -1.0659763 0.83986205 0.09524823 0.23508322 -6.818486 -1.0435163 -0.35037786 1.1269585 -2.903241 1.8684671 1.064258 0.5071276 -0.16976075 -3.9719007 -4.628503 0.90009946 0.09559572 -0.50048816 -0.50969625 -1.3015648 -2.642976 -0.71605563 -0.058558926 -0.6803286 0.79523367 2.0653849 
1.2174457 -0.97241706 -0.6034574 3.5774403 -0.08621072 -0.22088727 -2.146485 0.121124774 1.7393619 0.7650343 1.5271523 -3.3526876 -1.3415858 -0.9286236 2.401401 -1.8656728 1.0311077 3.5301795 -4.5056796 0.86468464 0.39154065 -1.0001014 2.0445538 0.6996669 4.95306 1.5783169 -0.98920614 -0.64368945 -0.44849405 0.76808465 1.8036885 -0.0473029 2.5322218 0.13486968 0.24906301 1.2245706 1.3486204 -0.36924785 1.2658747 -5.779532 -1.7239422 -1.8665262 5.464192 0.43799135 -1.3234894 1.0369267 4.099017 -3.0809748 2.4898763 1.943086 2.7268977 4.0838265 0.7626581 1.8724022 -1.3071452 3.3690996 0.2256764 -3.999085 0.89614034 -1.8173445 2.4781218 -0.76406646 -1.1423198 4.1133146 
-0.070597954 0.6815179 2.9063332 0.88485765 -0.5362062 1.8142123 1.4762566 3.4999814 2.57639 0.16643864 0.22025828 2.966703 -0.8441977 -0.91387343 -0.63391805 -2.1674314 1.2570012 -0.8296233 -5.925924 3.423364 -1.3462942 2.7669082 0.97789186 4.4853277 -1.7837057 3.941248 0.88496333 -1.5228192 0.63129383 1.0277333 -1.4350524 -2.4626665 1.8574376 0.63345283 2.888764 2.7909322 0.47659308 0.09400146 -2.324902 0.64839125 -0.6089144 2.0252218 -4.239231 -2.1298692 -2.109634 -0.083216295 0.14654425 1.1821021 1.7854737 0.12989789 -1.7205074 1.3565234 -1.1821817 3.4024758 -2.85721 -0.5538856 1.8754429 -3.0523484 -1.0349987 -1.6454012 -0.7816664 -0.6060884 -1.2079209 -2.9384832 
-2.2401164 0.79496056 0.7042515 -3.983672 0.36557856 0.8110563 -0.74611664 1.5298821 1.2646774 0.044076968 1.6682197 1.6749637 2.8018303 -0.35077363 -0.5787321 -1.4082354 -0.044953987 -3.130955 -2.0521836 -0.18189883 0.13565683 3.2894826 -1.6605386 2.2866566 -1.8136116 -4.094376 -1.0444664 -0.1960436 1.518653 -1.4672701 1.9639635 -0.5349913 1.8045081 0.12931685 -1.5724658 -0.30093497 0.5402404 -0.032390915 -2.8831944 1.0173361 -4.199659 -0.28177097 1.2371684 -1.4885001 -4.0761437 -1.5036713 0.20809251 -0.7032137 -4.888408 -0.7466339 2.038713 -0.27009994 -1.176802 -0.40667945 -0.5637196 1.6733748 1.7028147 -0.8944197 4.034583 2.1433487 -2.270849 4.242544 -1.2411953 -5.0624957 
-2.0704932 1.3646302 -0.06227768 0.9146637 -0.3617314 -1.4661871 -0.23453136 0.30271545 -0.6583028 0.372743 -3.5939295 0.27017042 -1.0199271 -0.31480956 -3.831257 0.50873995 -0.8583467 -2.980821 -0.54610723 0.42599833 0.68514955 -4.3736906 -1.137887 -2.6400647 -1.3184268 -4.575463 -2.6842384 -1.0800196 -1.4847211 -1.3480426 -0.043247294 -0.35134077 -0.039123252 -1.5370768 0.30860397 -5.441196 1.0722775 -0.7271609 -5.411151 -0.5296124 -2.1943703 -5.0267105 0.35621953 -1.5021462 0.15034163 0.66350293 -1.4120461 -0.71105343 -0.51245767 1.6746256 -0.8333515 0.6579833 -2.695077 0.77967733 2.2754803 0.5590133 0.8703211 0.31561458 -3.4726093 -1.512035 0.23187047 -1.4784935 -2.0972025 -4.0979633 
-0.96019983 -0.8264522 -1.2465767 -1.0050697 1.0754815 4.5160766 -1.0675672 -0.7196991 0.8226635 1.3562697 -2.4127576 -2.8044784 -1.3293978 0.61865175 0.26618442 0.7185212 -1.740752 -3.2676678 -1.3294256 1.4676875 2.4007068 -3.236745 -2.8797858 -0.054301858 -2.1261857 -0.84947574 -2.7799554 2.4945762 1.4844518 0.80612594 -1.5725214 -1.1698079 1.4174002 2.08068 0.008644007 -0.54305726 -0.9752475 -0.8739745 1.1821542 1.394376 1.3608795 3.7039769 -4.494287 0.7961236 -1.5744894 1.3576162 0.08949272 0.46744618 -0.8795185 2.2549999 0.20988798 3.4604962 -3.31893 -2.2993228 -2.56997 -0.89802027 -1.4085675 0.144234 0.5136741 -1.2029717 -1.0599474 -0.57094556 2.8482833 3.8166425 
-1.8658974 1.0053625 1.7027379 1.7614217 0.3112202 -0.9957172 -0.1763687 0.0132245105 3.8224487 0.9418773 -0.24390091 1.5997753 -2.2997026 -0.618478 -2.7285037 -0.9085798 2.8526967 -0.3477937 0.3611553 2.4054441 1.4671935 1.405401 0.885453 1.122757 -3.2207093 0.74278474 1.255048 -1.8263184 -1.1102123 -0.43632656 -1.7016424 3.0253787 0.42665696 1.9130028 -1.6105373 3.2410207 1.6045284 0.28023863 -3.4464824 1.4521915 1.6205465 2.0815897 -3.4922261 -0.5065864 -1.9519548 0.43683505 -1.9826685 0.54987013 1.7185277 3.3183672 -2.5375335 3.0579352 1.2603767 0.53149855 4.463214 -0.8776051 0.50867224 -0.09494795 -2.4949982 1.1634301 -0.07055968 2.4272192 -2.8273177 -4.9442286 
-0.7527119 1.496285 2.5220854 1.4890087 -0.62761176 -1.0934106 0.8914079 0.59711003 1.4135753 -2.5595117 -3.1829512 -0.0069285408 0.56030625 0.060472716 0.9427409 -3.3611116 0.85950875 -1.0526218 -0.2963731 0.8014007 -0.20155911 0.737825 0.95149076 2.318699 -1.7844069 -2.5006735 1.3499657 0.82958436 0.50201696 0.42827272 2.8356142 2.2074406 -0.10446468 3.5657053 -0.09899144 1.2589605 0.065178305 -0.3741906 -0.41594857 -0.13021502 1.5777619 -1.0795481 -0.7300763 0.6281207 -4.3104258 -1.6281291 3.9502282 0.79196656 1.5050846 -1.6950853 -0.34214732 -3.1258848 -1.8901927 -2.31572 2.615479 -1.0857278 -0.24690196 -5.476615 -1.8356432 2.2667894 -1.9621589 2.8124058 -0.4579626 -7.7847037 
1.7457284 -3.7991135 0.4727688 -2.6698103 0.8646053 0.8207791 -0.38055366 1.9308376 -3.6014934 1.0685709 0.92796683 -1.9373169 0.29064333 -0.42354736 -0.0016343796 0.10986091 -0.79724467 -2.108277 0.47841004 1.5919123 0.2901402 -1.2408539 -2.9587016 0.60700214 1.1954558 -0.8806868 -2.6018164 0.42002282 0.80976933 0.37451807 -0.6848227 1.0358016 -0.23713304 -2.3501713 2.1746895 -0.3281568 0.5727647 -0.055491753 0.665568 2.9961424 -9.412166 0.5324907 0.4383062 -0.70713973 -0.7880859 -2.051869 1.4252123 -3.5225399 -1.9884626 -0.7417134 0.46977523 0.96459275 -4.9094577 -0.5741199 -0.7066156 -3.3825407 -2.6191704 -0.038563598 -4.0155087 0.9369294 1.4416553 1.985717 -4.4878125 0.5201293 
0.26915628 0.5833002 -1.1953813 -1.0032511 0.6279923 -0.43704084 0.7628726 -0.36572313 -1.2815033 0.27983242 1.7697392 -1.8340492 -5.130708 -0.513713 -1.3690604 1.2946336 0.8731604 1.9755745 -4.782354 -0.69679207 -2.7293794 -4.3454375 0.31340817 2.4719841 -0.6088198 -1.3958875 0.73800266 -1.0245137 1.5457095 0.87280494 0.7664197 -2.863003 0.60025936 -0.3749006 3.7100883 -0.52786136 2.259424 -0.71474475 2.9962509 -1.6457732 0.6022785 -0.4935303 2.6261907 0.2688406 0.64534056 2.2691514 -0.36263132 -1.6041788 0.12182062 2.6262863 -1.2385432 2.9499927 2.575726 0.1924198 2.328509 -0.86500114 -0.4037153 3.2833292 1.4204075 -1.4091368 2.768295 -2.090866 2.1464677 2.0259435 
2.671114 -1.5627387 2.1529505 3.7443352 3.9270797 -5.011494 0.24751095 -3.5022602 -1.0013325 2.651652 -4.2963424 0.36246464 2.0742126 0.9280614 4.988511 1.9718257 -0.29397383 0.46541 -4.868367 4.784574 2.096647 -2.523573 1.0605772 -1.0451281 2.1271005 2.428035 0.64084363 1.2345022 1.6992754 2.3878572 -3.336606 0.15191594 0.14813185 -1.5190135 1.2890244 0.14090763 -1.4150509 1.0141362 -1.7684005 -3.4068377 -1.4461164 0.9082684 -1.0819638 0.85310626 -2.4967396 -3.179311 -2.175126 -2.0883155 2.3162966 2.527776 2.938802 0.89784193 -1.9257864 1.0040809 -0.7896879 -1.5779132 1.4082029 -0.9481632 0.28183874 2.1598682 -2.0268717 -3.452483 0.9236724 3.6876943 
1.5871426 1.1973698 -3.6269596 0.5179304 -0.12622748 -5.1470385 -1.2970997 1.5267837 3.1940696 1.655962 -2.326978 0.35382196 -1.2706048 -0.106285855 -0.11283516 -2.8164988 0.288601 -4.621074 1.536405 2.8719337 -1.6296804 0.8894729 0.60985833 2.7074656 -1.4866191 -3.8737407 2.8836231 -1.5491823 -0.13371177 -0.88546854 -0.96194327 -0.22720662 0.35121027 0.89398366 -1.0602169 -3.1841218 -3.765544 -0.49457237 -1.6167254 3.4196572 0.2579421 1.8101678 -4.6831837 2.1295822 0.8799997 2.736716 -3.296587 0.41290078 0.7706181 -0.667428 -2.7777052 2.2735612 2.422948 -2.347899 -1.3588469 -3.715745 1.3614355 -3.8221767 -2.530062 -5.9161115 1.0037227 0.97050774 -3.5198781 -0.3091428 
-0.138965 -0.572235 2.1353223 0.1801041 -3.7586644 2.0156183 1.8742611 0.3922755 2.5660808 -1.4051702 1.5595318 2.7009745 -0.28331652 1.2525396 -2.5592701 -4.5280924 3.1985457 0.67175734 1.5726248 -0.40878722 -3.5548742 3.0186508 0.7061888 4.788401 -4.263688 1.5709162 0.26979867 -0.91589135 -2.9977427 1.6988661 3.12536 2.2484438 1.4440675 4.0385475 1.8674736 1.2778273 -0.12262567 -0.86806625 1.6634135 1.8596425 0.08506573 1.6399745 0.27493075 -1.2903751 -2.2746494 -1.7407591 -0.095485754 2.9560149 1.5593889 0.6703734 -1.171138 -0.38110885 1.5346811 -0.20276268 1.792553 -0.48368415 1.1047187 -3.6799576 -0.29424784 -0.9560564 1.5701852 -0.38886487 2.0636485 -0.5109042 
0.037258975 -0.42831835 -3.6994092 1.5593084 0.41008982 2.1180773 0.61293703 -3.8758736 -0.20701145 0.687021 -4.4717436 0.036672674 -1.1991314 -1.1518979 -1.5707542 3.131812 1.1528523 -0.1269932 -4.182723 0.65213335 -1.8770716 -2.9884238 0.399705 0.8678767 2.7824576 1.339256 1.4132133 -1.9873611 -2.3677316 0.869392 -1.6567227 1.8568976 0.22493912 1.274009 0.9959833 1.7276405 -1.3699679 0.112428546 -1.1890942 -3.061213 0.8860221 0.7369334 -4.2488647 -0.006633105 -2.509826 1.5274723 -0.017995415 -2.380905 1.095297 -0.41129103 1.9076095 1.6650923 -1.54867 -0.2344543 -2.7111466 1.4671637 -0.4828856 0.17687602 0.16145569 -1.209269 0.79686195 -3.3676963 1.1021366 3.8799405 
1.4050822 0.8414319 1.3251486 0.6301865 -1.0442109 0.31220874 -0.6475383 1.8264838 -0.11172577 0.5759703 0.19174281 3.9110672 0.45032442 -1.0870684 -2.2350545 -1.8808743 -0.4752034 -1.7766669 1.964714 1.6217376 -0.13884577 0.49156448 0.13763382 0.89186776 -0.94726795 0.041386355 -2.1565075 0.244909 -0.74561524 2.257525 -2.8971462 -1.2204397 -0.1183319 -1.6842353 -1.9420162 -1.4718567 0.49699947 -0.36001605 2.331234 0.6264993 -0.15055335 -2.1513703 -1.8493553 -0.41912737 0.7309854 -1.6424422 -1.184325 1.5084299 1.1023972 -1.4692886 -0.090571165 -2.096111 1.5828731 3.4911306 -0.41135135 -1.9411609 0.5151957 -2.7263184 -0.85862845 -0.020546569 -0.39142376 -0.8641085 -1.7481772 -3.1752555 
0.5381999 0.043783348 -0.3051091 -0.4236909 0.20545857 0.33696896 -0.4501413 -0.93194115 -0.07889457 0.58791107 0.11238475 2.3014238 -0.87458944 -0.878193 0.4844568 -2.143274 1.7672201 -0.2660894 -0.1582462 -0.18886438 0.33703914 0.07910489 -0.1075411 -0.5847636 -1.9127597 -0.37284604 -0.029566877 -0.6522448 0.66059726 -0.2619789 0.6535867 -0.11748133 -0.07885602 -0.13990955 0.42173746 0.22228365 -0.005319403 -0.7144807 0.96741474 1.6645777 -0.6017306 -1.1581447 -0.79342544 -0.2033337 -0.0024384751 -0.6721074 0.5231945 0.5810409 -0.42716974 -0.044549778 -0.31166694 -1.8026699 -1.0159612 0.4667689 -0.8051925 -0.8104321 0.645257 -1.3593574 0.2442482 -0.42847553 -0.2082931 -0.37684035 -0.044511564 -0.5836591 
2.1461494 2.5604026 1.0932685 1.8893511 -2.7559593 0.34468353 1.9361393 0.7155101 -0.27013883 -1.1728535 -0.03617854 0.15499099 -1.4735714 0.21322201 -6.265433 -3.763509 -0.11100705 0.45949525 1.2731856 4.0817156 -2.419963 -1.0252714 -0.62065357 1.4919232 -3.173788 -3.6507142 -4.2917104 -1.6580379 -2.9208536 2.3170621 -0.55301696 1.0683272 2.0010076 4.4376187 2.056775 -0.89021796 -1.6450186 0.10918155 0.33243185 -1.5507478 0.009173846 0.6279541 -0.71984196 -2.2131298 -1.0822763 -2.6501827 0.034812823 1.3028445 -0.19136283 -0.4913216 1.4456244 2.669266 1.3636842 -1.0926064 -2.6231687 -0.18452974 0.29746637 -1.9888611 -1.1144979 -1.2536304 1.9021239 -0.88074785 -0.85244 -5.4797726 
-0.6560071 0.62883264 2.8130398 1.1270617 -0.021650732 0.6648567 0.83732486 -2.5595174 1.6772314 -0.18543127 2.7230194 2.8015566 1.1585021 -0.02838588 -2.8326793 -1.7029022 1.3398225 2.0174706 1.2989206 2.7836525 -1.3579727 2.9836764 -3.6892116 -0.19219957 -2.0792923 1.3151234 0.26996475 -0.7272543 -1.5256801 2.1404173 -1.5637943 -0.20487306 1.3748525 -0.28680968 -2.940352 -1.1282264 -1.9219553 0.66945124 -1.486462 2.2143633 -0.94974095 1.1299953 -2.9557538 -0.7161838 -5.901878 -0.7637849 2.4790764 1.1023524 -1.5110091 -5.4439735 -1.3591791 1.1443443 -1.9246274 -3.8796275 -0.88235384 0.8057255 -1.1291426 -4.2130036 -1.2507813 -1.4404824 1.8095945 -1.6394136 -4.633192 -2.7553093 
0.9263655 -1.3429174 2.851867 -1.8124744 0.5899545 -1.818796 2.8937962 1.8477211 -0.77271026 0.6133643 -0.49054575 -3.7538729 -4.5360384 -0.06647824 -4.068321 -2.390649 3.0554047 0.35297143 -4.562295 -0.47027948 -1.687472 3.5325198 2.3227224 0.8896603 -2.2356324 2.8768923 1.7741362 1.6660589 -1.5153147 2.1844962 0.5017004 -0.5977682 0.46354285 0.17499605 0.368027 2.5082037 -0.54798645 -0.33130762 -2.2062664 -0.55818677 3.7356184 2.6561854 0.3083681 1.1548748 -3.7688837 -1.1544768 0.20025808 0.18874082 3.5262413 1.3507928 0.265619 -1.1274842 -0.22592023 -1.7031257 -3.2423337 2.1080294 0.37705296 -1.3957766 -1.037519 0.3125477 -1.9169221 1.0514361 0.81835115 -6.485194 
1.6617196 -3.349922 -1.2210995 1.653724 -3.4347346 -0.5004264 -1.2211199 1.5938693 -0.5382107 1.8302032 -1.7889878 -1.5963488 -0.6392206 0.06862649 0.7967487 -0.7754711 1.9817114 0.6492699 -3.1164753 -0.30135784 -1.7910233 -1.1168417 -0.21758093 3.3841226 -1.6796362 2.9305687 0.8674679 -0.88012 2.0056603 1.4910309 0.26940444 -2.2999766 -1.2538214 0.865394 -1.1319798 -1.7729033 -1.2267685 0.3849319 -1.6628826 -0.26700148 0.007552018 4.080112 -4.9087768 0.19516207 -0.3555281 2.2673795 -0.36911774 -0.08280695 0.096254915 0.45878714 1.3737421 5.542525 1.8658197 -1.6312239 -2.154586 -1.6180862 1.00361 1.3997447 1.5362524 -1.8030237 1.166826 -1.4705067 -0.21138655 -4.1960053 
0.8428031 -2.5574915 -1.5346042 1.8319646 1.4031677 2.5774229 0.057560645 -1.34832 -0.22008035 1.5313705 -7.077627 -3.7126603 -1.1968899 0.11767895 2.251025 2.3527884 -2.9289892 -1.0448703 -9.827455 1.7345011 1.0498263 -1.6083852 -0.15701468 -0.6909986 0.3053904 0.37411824 1.4371542 -1.1182352 -0.4180973 3.44718 -0.45944843 0.62955517 -0.9731014 0.30436516 -1.3605057 0.11379673 1.477848 -0.7609229 -3.3086498 -2.6869938 -3.656313 -0.92042845 4.5250273 2.1536298 3.7763252 0.9200781 -0.23629148 -4.3045864 2.3493843 0.55539054 2.6210167 1.6198171 -1.7178572 1.7499219 0.24604534 3.900639 0.5194057 2.153526 0.536249 0.18371199 -0.14032586 -0.7458845 0.5306529 2.6356695 
2.4540765 -3.56921 -2.5262156 0.44827136 0.46167406 1.850962 2.221496 2.0274694 0.3075757 -1.5434496 -4.25419 0.84923524 -1.716604 0.10971563 -0.40616634 2.2782378 -1.0732834 0.7024569 3.26036 0.81047183 -2.7345643 0.00038760502 -0.12947021 0.8374891 1.3607582 -1.820748 2.014485 -1.4455831 0.6386341 -0.31829882 1.1947757 -2.744369 -0.12753429 0.3092063 0.38269246 -1.932347 -0.63088924 -0.40405723 4.3545585 0.70034045 -4.5048966 2.3625727 2.5239992 1.5398272 1.9320089 -3.5008488 0.38205296 -3.5514958 2.560565 2.585135 1.7650499 0.1550081 2.3576195 1.6234152 1.739263 -1.6979253 -0.15846446 3.2540987 1.6206579 0.53588283 2.3312888 -0.8078181 -0.4764645 1.8049643 
0.06863018 2.6382196 3.5639656 3.0565598 -1.4448668 0.6807985 0.6550013 1.34293 -1.5893216 -0.026789155 -0.25978908 -1.2597241 -0.9169464 -0.044109255 -2.8412123 -5.5438046 0.122394845 -3.8609815 -4.8271656 0.110924006 -2.5376942 1.0983179 0.68752366 4.75889 -3.3604796 -2.0230954 -0.4304703 1.8119683 -0.6974545 -1.2698562 1.5316333 0.56635857 1.3799198 -0.11427357 -1.0527954 1.321311 0.28011972 0.7931364 -0.6328391 1.0498362 0.5946548 2.6026387 -0.39467233 -0.08143933 -1.1683234 -0.3641204 3.5294707 -1.1585903 3.706153 -3.4720302 -0.41787836 3.2076123 0.4934055 0.50775284 3.7561364 -1.7126633 -1.2257354 -3.1191947 -2.9697685 0.58276623 -2.0982697 -1.8902574 -2.9956973 -7.0937586 
1.335071 -1.8394595 0.070030235 0.997695 0.18213606 0.083492145 -0.09602526 0.33574933 0.21444175 2.5872004 0.42589477 0.1576633 -0.040290188 0.13482474 -1.8111644 -2.8557172 0.248351 -2.3229768 -2.375191 0.6767606 -3.1131513 -0.99474204 -3.7827363 0.7094418 -2.004301 -2.2140903 -0.7937119 0.40632093 2.728703 -1.2032543 -1.008645 -3.0779705 -0.99626374 2.1955523 2.938777 -1.8008338 0.4714825 -0.6654804 -3.0930674 -5.9690046 -1.7166203 0.09366628 -1.4087809 -1.5969564 -3.7641919 0.36416358 -1.9810715 0.4180475 -2.6421103 -4.1604233 0.9350976 0.91066366 -2.7977087 -2.0299501 0.39822254 -1.8865477 -0.43175745 3.866469 -0.20527716 1.1904675 -0.38486743 0.034597542 -2.1906128 3.0815594 
0.5875903 0.4021826 2.3682823 -0.7481926 0.65348244 0.182296 0.6537511 -0.55085915 3.1527708 0.24506159 -1.929519 2.9580762 -0.45385006 -0.00402345 -4.7255564 -4.8900647 -0.021592233 -0.43558177 -4.1962824 -1.1165502 -0.34506312 -1.3420966 1.0084566 2.4627092 -3.5618951 0.5137553 -2.4758637 -1.872577 -0.6734195 -0.97246116 -0.059918 -0.019662965 1.5546248 2.3940492 -0.87465715 0.09572768 0.6051201 0.15100886 2.516552 0.63350815 -0.4174167 -0.6442858 -6.5197754 0.74340284 -3.7680933 0.18415618 -0.9549768 1.8367718 1.5680914 -0.39658526 -1.452785 0.28383836 -4.938236 4.4504447 0.92700225 -3.1970615 -1.1437908 -2.0738802 -1.149723 -1.2214034 -1.145211 0.055808175 1.2340189 -4.5802 
2.4547663 0.2214626 0.14411257 1.0331987 2.7121894 -1.6909448 1.902542 -2.405626 -1.6500378 1.0020547 -3.6678243 -3.6843946 -1.9602607 -0.3408875 -2.8384898 2.1753347 -0.09052033 1.260812 -5.5858502 3.1010852 0.35712308 -1.7842091 -0.9895785 0.65961164 -0.016812123 -1.0661094 0.8660184 0.17972831 0.6804448 -1.6294531 -3.287477 1.155679 1.8150895 -0.58813417 -0.38581887 -1.0337261 1.389162 0.6361853 4.6194105 -2.1539218 0.2789261 1.9302986 -3.56001 2.603139 0.15161219 1.7677917 -0.06424586 -3.4652774 -0.18032794 -0.54807144 1.6260725 2.157077 -1.861994 -2.2954745 -0.75562465 -1.5615364 -0.6325798 0.0043835137 0.6541242 -2.8082645 0.51189584 -3.036623 2.4801188 2.9832997 
3.2803023 -4.444678 -3.4747157 3.515186 0.69803494 -1.3578299 0.14832455 2.7700353 -0.33816582 2.607826 0.76633126 -4.6386843 -0.25044745 0.21620013 -0.43996218 2.2058148 0.5533043 3.1317499 3.2310061 2.137955 -1.1421919 -1.206651 -0.30226195 -1.1041131 -2.182748 -1.2272652 0.8947958 -0.37967202 0.89144486 0.5375802 -2.434884 -2.9935026 0.26948762 1.5319508 2.1082954 1.5506048 1.2553108 -0.27904433 1.6132786 -5.712789 -4.657944 -0.09586179 1.9721885 4.0905123 5.556028 -0.53951985 1.9195362 -1.5474527 0.9629335 1.2629055 0.09640061 4.7697477 -0.9524555 -3.6759477 0.61135167 3.9962752 -1.0255302 -1.1279935 -1.3355416 0.30866808 2.365394 -3.7775989 2.458893 4.0910163 
1.4462779 2.9503324 2.915389 -0.75658476 3.6747942 1.3101882 2.0097766 -2.4590929 -0.00249467 0.20825873 2.088031 -0.3802281 -0.85670996 -0.30960375 -0.35395992 -2.6332223 -0.07808365 0.39581102 -2.7757032 1.1734501 0.24240166 -0.45070207 1.3305888 -0.34266922 -1.3268622 0.8938964 1.2522309 0.14299425 -1.4273454 2.2757754 -1.6553909 -3.3223433 0.8967294 1.0975145 0.6150854 0.95795184 -0.012426953 0.21537568 -3.9927356 0.96486026 -0.44183108 0.5248941 -5.965267 -2.321291 -1.068785 1.163259 -0.018089004 1.6923919 -0.6271122 0.22165854 -0.54319054 0.07377328 1.6937768 0.78225434 0.018327976 -1.729988 0.9564706 0.36745128 -3.2868578 -0.3244845 0.68289244 -1.5416117 -0.95083106 -4.673543 
-3.7398167 -2.142497 -2.083024 0.35578337 -1.3141369 -5.1180825 -4.153815 -0.6769536 1.0833383 -0.2282542 -2.17215 2.018346 -0.42942318 -1.0989934 1.1434579 -1.9800164 1.5149298 -1.9395378 -2.4075441 0.91489875 -1.1298354 -1.9803867 1.425216 -0.38038766 -3.4289784 1.153949 -0.22270845 -1.0730646 -0.31501234 -0.446113 1.8727744 0.8521239 0.41450694 -1.7010831 -1.085753 -4.624525 -4.9238276 -0.58341444 -0.6723155 0.8863926 -4.943768 0.66565967 -4.901865 0.18254319 -0.8164359 -4.4742274 -0.16764785 -0.63461787 -3.653426 -6.3982368 -0.36567432 -0.4070821 -0.33341628 -0.45450905 -0.33135334 -2.6803396 -5.147481 -0.88907623 -3.9568582 0.2729941 -2.8692086 -1.0237665 -1.2423286 -1.4836807 
-0.4470188 -0.9210059 -5.551296 -4.255312 -1.3369875 0.500946 0.72966814 -1.7363023 -0.88698566 -0.20252497 -4.3411155 -0.56897235 0.02225922 -0.42163223 -0.5986796 0.052666824 1.9941746 0.94683355 -7.1036124 1.0709687 0.38591284 1.257652 0.76754946 -2.3810906 -0.5491239 -3.1235576 -1.684761 -2.0630777 -2.6538305 -2.8594687 -0.93284696 1.1441952 -1.0530947 0.86088574 -1.2258872 0.6879455 0.01363105 -0.64435244 -0.6560845 -1.8878937 -5.6527896 -0.36671528 0.31995058 1.4044924 -2.8548262 -1.7582722 0.30853325 0.99098736 -2.251147 -6.607925 -0.27428654 -0.5241776 0.8773659 -1.9041438 -3.093895 -0.077920415 -1.4529426 0.111066304 -2.9361467 -2.5461054 -2.998294 -0.87080306 -3.6825275 0.33358783 
-0.4620966 0.056154665 1.2633339 0.59965414 -0.37570024 0.661463 -1.4730465 -1.247162 0.45894065 0.19213723 -2.1797507 -0.3689328 -1.3538499 0.010811482 -0.014143911 3.6519508 1.4812965 1.8159715 -1.3232807 4.9772544 1.2511014 1.2694167 0.92486084 0.08413091 1.529601 -0.99214584 -0.28818873 -0.511523 0.64453554 2.8151176 0.12160542 -3.2743282 -0.2489261 -0.24008916 -1.4743499 -2.0543532 -1.3082138 0.09156726 -1.3463542 -0.57571673 -2.0674229 0.32650152 1.6443725 0.9096498 -0.9895933 1.4111432 0.56948835 -2.0678954 1.519297 2.528022 1.5698396 5.1666203 2.1656406 1.6063881 -1.2185444 0.9363179 0.8304944 -0.001560026 -1.1747625 -0.41174668 0.5354247 -2.8380196 -1.440965 3.7677634 
0.53118056 -3.1184812 -3.8704145 1.5488219 2.5696638 -0.71660346 1.1729343 0.60574603 3.729875 2.527886 -3.9125216 -2.8282 -4.051296 -0.12705153 -5.07902 1.109258 0.2554746 -1.4503698 -6.6530776 -0.8884124 -1.9812288 -3.319524 -0.74929684 2.314229 2.2962203 1.7990037 2.6804824 -1.0283313 -1.5978558 1.9101756 0.92731017 -4.6616044 -1.1494287 -0.9739714 -3.362352 -1.7639811 1.4381825 0.67310697 -1.4808552 -4.3602557 -1.8900433 1.163113 -3.852472 2.0663278 1.7316772 1.5226665 0.5614314 -5.1222067 0.48287508 -0.6682022 2.6136606 0.37162086 2.8108468 1.1483393 -1.4934777 1.3988975 1.2816294 -1.2625064 -2.5034807 3.198843 0.8615956 -2.533676 1.570934 0.073274866 
-0.5360925 2.39403 3.2738006 1.4650433 0.45535594 -0.9191242 -0.92387676 2.509425 1.88711 0.14129584 6.1322837 4.8327765 -1.3738899 0.722323 -2.7775445 -0.85063374 3.2666261 1.2430773 1.3385745 0.07071641 -2.0592344 4.879654 1.4373661 3.6368535 -2.9228916 1.3413914 3.3154914 1.3747488 -1.0138576 0.25565842 2.678544 0.7775551 2.9056082 -0.014904045 1.9010228 3.4047086 0.76747906 -0.090831324 -0.75568515 1.7330999 2.944828 3.2679634 -0.17759332 2.6235042 -3.609966 0.7560493 0.41577366 3.0402393 -0.7254835 0.00063215074 -0.7558868 -1.2613157 -2.959299 2.0312898 -3.8842983 -0.5688029 1.8540819 -1.8120303 -2.006655 -1.719336 1.9247872 -0.035525214 -1.9955211 -4.880025 
3.6950696 1.5235168 1.7090762 -1.7599636 0.7268702 -0.21168374 1.4603314 -1.4264748 0.021355571 0.99678993 1.0718002 0.49218386 2.6070223 -1.2265236 -4.041209 -4.2708964 1.0688121 -0.66963 0.039585285 -1.5118994 -2.3180528 3.014028 3.1329844 3.4552858 -2.6601143 -1.6013377 3.1142647 0.7303455 1.8162864 -0.6736381 0.76216495 1.1667712 2.1066878 1.3445497 1.009931 -0.8470389 -3.4139225 -0.7520474 1.2316821 2.0833628 -0.3300013 1.3556786 -0.056877524 0.715632 0.013671723 0.27105695 1.526953 2.578569 0.29257068 -3.422538 -0.6742083 -3.866206 0.64544713 0.5272602 -5.2685905 0.67969793 -0.2677121 -2.1592216 0.3015685 0.0033540186 1.3658378 -1.2791611 1.0056955 -2.858311 
-1.8864963 1.2415023 0.55793 -0.7859376 -1.591038 -3.0274963 -0.7367614 3.5447278 4.593111 -0.086205654 1.2618613 5.5490994 0.7947246 0.94644386 -4.1607275 -1.4455134 2.980955 0.8520937 1.5100642 0.28134826 -2.0849144 -0.20317015 -1.4190075 5.973689 -0.41629088 2.5241032 -2.455569 -0.4764113 -0.8284873 -0.88799936 -1.2650592 1.5228207 0.5802952 2.2396772 2.9042795 0.6031471 -2.3089294 -0.36907902 1.1751367 0.8586952 2.8013465 2.5946393 5.245716 -0.7279528 -1.618515 -1.8275653 2.9940014 0.014552644 -0.63469267 -3.0682137 -0.44719845 -1.9218289 2.3668709 0.014873074 -3.9671664 -1.4650753 1.1475042 -2.8821235 -1.5340341 -0.47611943 0.8864783 -2.390378 -2.2351894 0.2504902 
0.30998164 -0.6457516 1.8338369 1.982848 1.6680417 1.8504659 -0.2061771 3.1988719 0.43646237 0.10082584 -0.42822146 2.1894271 1.78223 -0.07538039 1.966555 -2.9137292 1.4508119 -0.88623875 -1.8676798 1.5591149 -1.9289228 2.8868687 -0.6995736 1.4339869 0.37150788 2.1273546 0.66623217 -0.8219929 -1.0553331 2.438632 1.5051605 0.80924416 0.47883555 1.551335 0.06585164 -0.8575451 0.22894315 -0.27629748 -2.6410332 0.49920824 1.7918015 -0.19282958 -7.1709614 -1.3635807 -2.658776 -2.9987066 3.6637137 1.4944551 -2.9848077 0.050252046 -0.88717574 -2.3188572 0.19442603 -1.3587805 -2.5566118 0.39741823 0.48593944 -1.1612372 0.23363635 -0.31877288 1.280907 0.22658409 -1.2326334 -5.1430235 
1.7048211 1.3387452 0.7600762 -2.2909958 3.957103 -0.918177 0.66452134 -4.4310637 -2.202698 0.89940226 -4.6313453 2.05395 -3.6223724 0.36525506 0.40151832 -2.1113284 1.5541866 1.6236092 -5.7849426 2.7307222 -2.2164774 -3.6522138 -2.4144084 -3.2342613 -0.99257165 2.2455933 -2.6713908 0.21452314 -1.0693301 0.7376173 2.6508203 -2.287777 -1.7622093 0.39771715 1.1193883 0.23067762 1.7846147 0.7293247 0.27112636 0.5564245 -0.96927977 2.139109 0.47808087 0.045461804 0.3984903 2.020329 -0.09329073 -0.6421677 -0.82956004 -0.29634726 -0.19524035 -3.1916294 1.1270615 3.1725426 -1.0494356 3.0505712 0.8624505 1.6179031 -1.2238076 -2.3779655 -0.6783809 0.4765758 -0.36483118 -5.752423 
0.85534084 -0.2846571 -1.313675 -0.5637014 -0.5794606 -3.3026707 0.17699894 0.7635902 0.083580874 -0.13361105 -2.2538564 0.5093324 -2.9076593 -1.0348847 -1.8074822 -2.7003584 0.3427923 -1.0774258 -6.231592 -0.6131395 -1.034471 3.1486645 1.3732547 4.0896473 -5.34187 0.008920703 1.2601416 -0.5212328 0.4349091 4.956086 0.38034552 -2.7563303 -0.1125006 0.07115029 -1.6339631 5.6702323 -1.7274386 -0.047399774 -2.0379002 4.229593 0.6701382 3.6764505 -0.5832292 1.7662753 -2.6535728 -1.5605936 -0.37688383 3.2447126 2.5878017 1.6708101 2.4162939 -4.2318163 1.8000587 3.2332036 0.7870718 0.34822384 0.15152222 -3.103769 -0.8951752 1.8619579 0.2786614 0.6551783 -1.4147118 -11.702667 
-0.24267863 -0.2552474 4.068638 -1.7085859 -0.49675253 -1.5889288 0.14489226 1.026588 1.3561523 -1.8135458 -0.97757185 4.4544663 -1.1637572 0.1289329 -2.0252044 -4.02958 3.4778588 1.6557728 3.697751 -0.45018706 -2.550908 2.7494738 1.4935925 1.2833414 -4.395152 -2.2483323 -1.0518333 -1.8078296 -0.7589763 -2.366656 0.8052984 0.18503582 1.0023644 -0.5056929 0.4262232 1.9130025 -2.1491714 0.124267496 -1.4705464 0.16009225 0.3554129 1.7042639 -0.4816384 2.9782994 -0.4839363 -1.7975469 -1.6938657 3.6130996 -1.2638069 -2.799586 1.7486179 -4.1373253 -0.4437434 1.1199818 1.4390332 -0.2085998 0.051158242 -3.0027792 -2.8145237 3.6065748 1.8233129 -1.144376 1.822968 -3.632466 
-0.011648014 2.9586089 2.7628531 1.2203135 -1.4268847 0.61564755 1.1473346 2.9725182 1.7068828 0.03452454 4.1133504 1.7513024 -0.8699328 -0.58082944 1.3048272 -3.9382358 2.3846626 -0.3798568 -6.6299233 -1.6623663 -3.6368852 3.960057 -1.4205415 1.1356436 -2.6101375 1.5662854 -0.8113184 -2.1040869 -1.2158507 -0.63321936 -1.0848091 -0.6429604 3.953146 0.53279793 0.8236504 1.6266989 0.4261584 0.09267003 2.1196547 1.4587821 0.9211628 -0.44717443 2.0899246 0.25415695 -0.89190835 2.725085 3.3022137 1.501812 0.8932675 -1.2495322 -0.041136228 -4.248781 -1.232584 1.5138737 1.7600499 -0.78436023 -0.5583002 -4.502255 -0.018212428 1.0165604 1.5989357 0.5741448 -1.5507523 -6.5412564 
-0.86076427 -0.21252036 0.43550256 -0.45699617 -0.98018235 -2.626419 -0.96710265 0.69689167 1.535694 1.8887472 0.5780122 0.31194884 -0.3553954 -0.38659015 2.2512338 0.6467936 0.40052965 -2.2473738 -2.073967 2.2144632 0.8923779 -1.1820165 -0.79579484 -0.4642812 -1.9797572 -0.10583154 2.0090978 0.68701255 1.4275395 0.08303504 -0.3059988 -0.034068745 -0.27715823 0.6723139 1.5203072 -0.11409339 -2.1293204 -0.47967157 1.7461458 -2.6846852 -0.6283603 0.9534219 -0.3244685 -0.824428 1.5420339 -1.3297179 0.90381765 -2.8065603 -0.7581178 1.6304432 -3.4727063 -0.022533631 -2.1647365 3.0102503 1.2131644 0.90952706 -3.427025 -5.9588428 -3.2297947 -2.3044293 -1.8885916 2.362451 -5.2889314 0.46137536 
-0.8617345 1.5490109 0.94470376 -1.7623267 -1.5589378 1.8529314 1.981835 0.20362692 0.7930023 0.2938559 -0.6713378 3.5744307 1.4755695 -0.32105628 3.1200001 -5.104383 3.207735 2.2811646 2.9000254 -0.97049433 -2.123459 0.8433315 0.31830505 1.8682616 -3.751593 0.64250576 -1.3292196 -0.6353223 0.6843763 4.2053695 0.942051 -0.27663127 1.6441311 -1.3521056 -0.63866585 1.7520938 -0.7929682 -0.25486863 -2.2125165 0.9999415 -0.60236645 1.051299 1.9474843 -0.9268569 -2.7147987 -0.93598026 -0.72399694 1.7580825 -1.4505664 -2.4053478 -0.9276773 -5.24252 -3.567732 2.4801612 -0.029710688 -0.9573207 -0.34457168 -1.3983896 -0.43870616 -1.1448143 0.6901136 2.9344077 -1.4597096 -7.3403177 
0.9485179 -0.72599113 -1.4972651 -0.596209 -3.1545572 2.1677403 2.369663 -0.39420927 -1.2748241 3.1267848 0.90486556 -0.7561175 0.5229169 -0.5848591 -0.56496847 4.894155 -0.38878798 1.7746341 -2.1287923 -0.42802325 -0.53017193 0.7673095 -0.6934621 -1.7197583 5.879638 -2.029457 -0.3899192 2.2668755 -0.28923258 2.644306 -0.15572952 -2.9729116 -0.024057489 -0.4602047 0.7133511 -0.14368835 0.32759452 0.21338846 0.19357452 0.86793333 -1.7469754 -0.120486185 -3.2958012 1.3928852 1.9071779 -1.1054976 -1.8678933 -1.494045 1.3552194 -0.40327665 1.3523693 5.2477155 -1.3021275 -0.5471455 2.4541895 4.961983 1.482828 2.2583373 -0.28196973 -0.81605715 0.74915516 -3.0610676 0.46818426 -1.0966316 
0.045728877 -1.1005359 3.5934694 1.127388 -0.80691075 -0.7871437 0.5047167 0.5114233 1.598788 1.2979965 0.53457636 0.25861806 -0.29270458 -0.25935128 2.5159218 -3.571093 0.077844195 -2.913743 -1.5719016 -0.48187146 -0.6000179 -1.6329311 -0.6069426 -1.4284025 -2.768808 -1.7714851 -0.6984273 -2.403774 -1.7302868 0.68269837 0.9097994 -1.8002042 0.062109493 -2.529848 -1.26682 2.4303498 -0.18091647 -0.31470355 -3.917062 0.50339013 2.025654 2.6835585 -0.7599281 -0.10020816 -2.0299726 2.565044 -1.7263119 1.3874347 -1.028555 -2.1216621 1.0506581 -1.6133586 0.5779311 2.8228595 1.3396785 3.6402998 -0.70401144 -0.6820467 -0.29571936 0.1645282 -1.6643289 -1.5734102 -0.20173463 -5.1661925 
-0.04087761 2.3696814 -0.48391038 2.1725516 -2.682581 1.8811322 0.6604259 1.867002 1.9595369 -1.339753 -0.6523835 -0.12220288 -0.75705594 -0.26054758 -6.4056416 -1.5674027 2.3527768 -1.160875 -1.7068256 -0.03757399 0.34006938 1.4267737 -3.4121127 0.756882 -0.22044323 -0.99737155 -1.0699686 0.9225049 1.6531457 -0.019478843 0.23924632 -0.58049875 2.8515558 0.40751198 -0.83067596 -1.8878857 0.9238662 -0.7163062 1.6202387 -0.5097782 -0.55805004 1.1882188 -2.842667 -1.0352131 -0.91475874 -1.626937 1.5279559 2.6488314 2.333394 -0.3457215 2.275367 -1.2208719 -2.8148007 2.423781 0.84185207 -1.5673544 1.0314248 1.676437 0.50369406 -2.3060458 1.7206876 -0.4377939 0.3072152 -2.896333 
-0.11636832 -3.2430067 -3.2455502 -0.32871556 0.6081411 -2.3220155 1.3507092 -3.8744345 -1.1907616 -0.47475916 1.0006496 0.902999 0.20545174 -1.3143094 0.7940322 0.082215935 0.26053205 1.2187223 0.4699058 1.1713451 0.0038308543 0.14616556 -2.394058 -2.9717746 -5.186157 0.40764105 -4.855038 0.096601374 0.47833043 1.123178 -3.6332383 -2.8088982 -2.3550684 0.63491416 -2.5238044 -1.6717583 1.5573027 -0.45635444 -0.31668606 -2.057371 1.0044973 -3.6883335 0.13421781 0.5053165 -1.3415694 -1.3810978 -0.38557798 -0.779897 1.3772773 -2.273672 -0.12025713 2.3535228 0.7458086 -1.6268969 -0.76343536 -2.4237857 -1.4497005 0.8640167 -2.527094 -1.54295 0.86879987 -0.50755614 1.3488278 0.5707928 
-2.448374 -0.20112555 -0.4907712 -1.6075639 -1.3081212 0.04472089 -1.7243973 -1.3899417 -1.5962943 -3.8343847 -1.0593352 -0.40347096 -0.7268334 -1.1704962 -1.0336975 0.64518434 -1.1120839 -0.36140987 -0.032577265 2.914582 0.18338937 -1.4640955 -1.9779977 -0.9584883 0.9988927 0.11026155 -0.4720076 0.44471046 -1.3086447 -1.5568018 -0.030473856 -2.5845854 -1.1599871 -1.8702298 -1.8386809 0.511133 -1.6707169 -1.6394898 0.5314687 -0.61173266 0.4740436 0.13686955 0.38800147 -2.6598551 -1.0860975 -0.6632273 -1.6670512 1.0050602 -0.54487306 -0.96866494 -2.3278153 -0.16475502 -1.7469429 0.3726494 -0.4600394 -0.6058546 -0.73751885 0.39741737 0.75860465 -0.8671338 -1.2469959 -2.4906607 -0.09440063 -0.53654206 
-0.55227965 3.6055305 1.7514591 -0.2562983 -0.4098822 -1.282219 -0.62773556 -1.5021813 2.714278 -2.5350473 1.9490746 4.338469 0.4130534 0.23853336 -2.7808597 -4.3399777 3.7335382 -1.403555 -0.42838663 -0.8314492 -1.1702827 -0.8092179 -0.5575333 -1.6349822 -3.7118964 3.0594878 -0.8796534 0.20873497 -0.5749928 -0.41043627 -0.35870662 -1.2507844 0.23434475 3.3526196 -3.11583 1.1788625 -1.3781911 -0.54830885 -0.44904083 1.9738911 -0.8027134 2.1860151 -2.4789953 0.9847549 -1.0776569 -1.1134635 0.53404164 1.0070796 3.5430462 -2.2896543 2.7181246 -1.2321393 -3.052854 0.8234116 -1.6540416 -1.8438584 -1.265762 -1.6207418 -0.41518855 -2.089677 1.0718826 1.0475067 0.4522262 -5.923056 
5.309043 1.492043 -2.2004876 1.0798845 1.5462514 0.20003344 2.418937 -1.3806758 -1.5614995 1.5706551 -4.7296877 -4.609031 2.7705188 -0.21149392 0.73075515 3.842135 -1.8766364 3.0701013 0.09911123 2.343996 -0.58301985 -3.149399 -0.10576361 0.8832444 1.3899403 -2.225945 -0.12628454 1.9166604 0.6232535 1.6922278 -2.4066637 -4.0550785 -0.61928725 1.075512 2.7478554 -1.1823858 1.6050547 -0.42360952 -4.1139846 -1.4377178 0.15514676 -1.4317673 3.3726208 1.9445486 2.6262128 1.9405103 -0.572554 -5.8997526 2.410458 -0.042581666 -1.5983604 -0.09768474 -1.4346266 -2.5333598 -1.5129302 -0.6333552 -1.1628904 0.7874906 2.6337135 -0.72084665 1.4741685 -2.8720815 0.7265952 -4.4260573 
0.67353 -2.563332 -1.9555384 -0.17242104 1.5290875 -0.18597789 -0.0046124537 -4.722578 -0.8687688 2.0600445 -0.7070749 1.7383955 -2.8467927 -1.587695 -4.1019554 2.092892 -2.0486908 -1.8833095 2.4604552 -0.5221406 -1.233743 1.837786 -0.3724298 0.3735902 1.2587363 1.3999856 1.4663179 -3.2934039 -0.48568588 -0.46110815 0.539942 -0.12274821 -1.7565606 1.5340413 2.0242987 -2.915949 1.3050705 -1.468995 1.6395292 0.64397746 0.27385464 0.48405948 0.27187604 -2.0479453 -0.112114295 -2.413154 -0.49467736 -6.0715322 0.7532736 0.36900762 -0.61681145 -0.5381887 -4.14123 -4.2187853 -1.1151193 0.6099111 0.76064575 0.02205791 -0.36752647 1.0777788 1.1664311 0.38787967 -3.0850184 -0.94681394 
1.1265 -0.01105071 0.37945253 -0.21853772 1.4626949 0.032532997 1.7856224 -0.097709134 1.0875717 4.7532496 -0.388641 -0.24609892 -1.8724477 -0.1843034 -0.9733998 -1.186572 1.4936156 0.7911171 -3.2594845 -0.62813103 4.814776 -2.908928 -1.2177929 2.3459995 1.3999813 0.45272878 0.8414833 -1.5121163 -0.89603853 2.4501927 2.0645163 -0.0122944135 0.39678898 1.1130991 -1.2017674 -0.9060217 2.0721855 0.20578414 1.5110393 1.3242701 -0.85916924 0.030216122 -4.262945 1.2455 2.4184244 0.6609767 0.32917213 -2.5220082 0.23550773 -1.422127 0.13992193 2.52178 -1.1046882 -1.0456952 1.29253 -0.6254694 -0.09197923 2.2182314 -0.052674856 1.1561447 1.7202961 -2.623835 -1.3429177 -2.8084078 
1.3025862 3.9135165 3.0974236 0.9198089 3.7625837 -0.84780794 -1.7851385 2.3205726 1.5605365 2.4357457 1.5751135 -0.3433134 -3.7169497 0.46453124 -0.7770386 -2.348916 1.1748332 -2.3560338 -5.2860017 1.1918416 -2.278338 0.86961067 -1.6990912 -0.05093844 -2.579274 -0.7559864 1.5835001 0.18692541 -1.7989017 2.0072453 0.59241956 -1.5398444 1.7812053 -0.43627325 -0.009210834 1.8819565 -1.5867362 -1.1145455 -3.8685753 -1.6219156 1.6288667 2.7226372 -5.204483 0.7117306 -3.154244 1.9623586 0.40934685 -0.7158906 -1.4321911 -0.9741062 -0.7341376 0.33190298 -0.6363142 2.1070309 -0.27072206 0.7851871 0.3005596 1.0803137 0.225857 0.72825795 -3.0559812 -1.8547223 -0.47077212 -4.7255745 
2.3526385 0.31908914 0.6400839 2.2084086 -0.840835 -0.88713676 -0.7199405 0.33530307 3.0564268 -0.5986255 1.8498769 1.190565 2.4635878 -0.7544891 -5.1761703 -1.8345917 2.7554305 0.47893158 1.9312903 0.95895135 -1.1670907 -0.37210995 -3.8703191 3.285227 -4.121535 2.5594075 1.8586444 -1.6747468 2.6740448 -0.21405883 2.1764216 1.5634629 0.33336338 -0.4520256 -0.8504625 1.4839029 0.8469922 -0.5784955 -5.2839108 2.4786115 -1.6663291 2.151639 1.9194671 -2.3931117 -1.1166888 0.94832176 -0.2152599 -1.035295 1.2986523 -1.7159748 0.9273271 2.613438 -4.0982523 0.08991891 1.565121 -1.1862218 -0.13518119 -3.0249498 -1.3109429 -0.207788 -0.1263044 -0.35473272 0.7571779 3.2000985 
2.0561192 -1.6635988 -0.22684053 2.3860953 1.3264899 0.58906174 1.7039453 -4.77857 0.19657932 1.6537393 2.5019238 -3.2460637 -1.2365875 0.86082 -3.9611073 4.0769286 0.5961498 1.5774406 -1.8813344 1.7098339 2.5559113 1.6869601 -1.3805594 2.556442 -2.557418 0.45675868 0.5892603 -1.7763343 0.84048945 0.8847044 -1.7149532 -2.581772 3.6504846 0.6963803 -1.2718908 -1.9009265 2.3254313 -0.25765803 -1.9612646 1.5156955 -0.7549187 1.2570233 4.3982887 2.115179 2.7656815 3.0428586 0.038277283 -1.2900952 1.2637907 -1.3712939 4.1857567 3.7273908 -3.5421922 0.053216938 0.8873006 -2.91087 0.8316469 -0.0897361 -0.98421353 2.3987615 0.9604306 -1.4446256 2.0275714 4.34659 
3.3013887 -1.0574968 0.8310472 -1.5552616 2.9505973 1.6340601 1.9039732 0.6227528 -4.041591 0.31388032 -1.5261494 -1.1286613 1.6466185 0.69059753 -1.3970178 1.2744771 -1.5188049 1.3397478 -3.7880118 2.509398 -0.044046283 -3.4520175 -2.6489222 2.042152 0.079328336 -2.1498983 0.11952387 -0.8730513 -0.4361253 1.0134166 -3.876169 -0.26255596 0.8203122 -1.2124351 -2.4182074 1.1291277 0.064508714 0.8370778 0.9436124 0.36214992 -2.7545655 2.1669497 -5.31327 -0.050882854 0.83179307 0.59822017 -1.353494 0.6229843 1.3395435 -0.12912634 3.1050708 3.7570672 3.0549235 -0.44743076 -2.5416875 0.5774979 0.07644324 0.40764102 -0.7612046 -1.4194506 0.994015 -0.9611631 3.1388597 -1.935163 
0.7751491 0.9661301 1.7563888 0.46829396 1.5021877 -2.8339422 -0.3677705 1.7615044 0.020385245 1.6923053 -2.9056096 5.021053 0.9064528 -0.8730286 -0.3122756 -1.0281376 1.621197 -2.424984 -2.009138 1.8404658 -1.2136252 2.563054 0.7432898 2.3747637 -0.69681466 0.5329277 0.9404867 0.30151448 -1.0390105 -1.6818556 -1.4863467 -2.071978 1.8214748 -0.59051764 -1.1138182 -0.32906294 -0.48518038 -0.33794528 -1.1993872 -4.112989 0.9887795 1.3885572 -4.8708982 -0.57484895 -2.0173109 0.67154026 2.4898357 -1.161224 -1.139338 -0.54797965 -2.1291966 -1.5013798 1.9871147 1.7706783 -0.77289295 -1.6753691 -0.13076052 -1.6223229 -1.5006266 -2.2414544 2.5398514 0.6690566 -1.9882984 -3.9345822 
3.8674607 1.1962754 -1.2277342 -1.8153461 0.817378 1.8067851 -0.065358184 -2.2511783 1.288645 0.9363782 2.6712832 0.66112304 -2.0817237 0.09136836 -7.2803035 -2.8716557 2.7945278 0.56842554 1.0013762 3.311618 -1.2242428 3.133468 -1.2735891 2.4277165 -5.136039 -2.2042432 2.9769642 -0.89943004 0.61871713 0.67301536 -0.45090345 -0.89747876 2.7552822 -1.0159591 -0.36946225 1.0742191 -2.3611994 -1.2986952 -2.607641 2.748505 1.4667419 1.7449739 -3.2904394 -2.1523392 -5.864409 -0.30445492 3.4994988 2.1790247 2.5484228 -1.5119064 -2.5943053 -1.5094056 -3.478322 -1.7860523 1.5614237 0.16850594 0.39345205 -3.2199824 0.026070049 1.4354181 2.0423365 -0.013954908 2.8375733 0.07340605 
2.1705754 1.7894961 0.80917007 2.965865 0.010357454 2.5944402 -0.038768794 2.1908689 0.808337 -0.75365233 2.8418205 -0.9619782 -1.8731908 -0.3039319 0.878707 -4.4450507 3.2352748 -2.0524023 -1.18794 3.9416673 -3.7592943 -0.85409373 0.30779827 1.6984847 -2.7523263 -0.31051245 1.2860286 -0.76869476 -1.530979 -1.3164918 -0.69042766 0.86802 0.47762632 -2.4456253 1.660777 -1.5998669 -2.1259205 -0.42927507 -2.5743093 0.06282687 4.0963807 0.6464254 -1.005639 -1.0966605 -1.4322388 1.6926028 -0.16097958 -2.4366443 1.864112 -1.358062 -0.5707099 2.7103238 0.31357026 0.7972257 0.79038286 -2.639993 -0.15720944 -3.2183254 -3.403555 -3.490818 -2.706909 0.061749846 -1.4542394 -2.5890815 
1.2386309 -0.7878036 2.245807 0.4041808 0.34856206 3.4369736 -1.2474815 2.350577 3.520605 -1.9317063 1.9784161 1.0811106 0.27399066 -0.053229228 -4.0065756 -3.4594753 1.8640586 -0.86038554 3.1529894 1.2934344 -0.17103034 3.238454 -1.9785929 0.4862916 -2.5401642 0.909213 0.32440335 -0.17659724 0.33809146 0.16759804 -0.5491881 0.74892396 2.7914567 1.1853628 0.24527448 1.6684943 -4.470956 0.07650529 -2.0482347 1.3680544 1.7172443 2.2959158 0.47848225 -0.53981024 0.9316408 -0.7915163 1.260701 4.009722 -0.7297782 -1.318764 -1.1411221 -0.76357603 -3.0881732 3.1098816 -2.3602817 -1.9572655 -0.61007786 -0.5884155 -1.4258987 -0.9085797 0.24580258 -0.9105248 1.5914559 -4.328772 
-1.4941477 -0.73784935 1.3735359 1.2959346 -0.028002117 -0.4708472 -0.6193197 2.6759531 2.133532 -0.4603348 2.2181551 2.7897942 -1.6732801 -0.46315742 -1.1936901 -5.662918 1.6579578 -0.10987912 -1.857416 -1.0832587 -1.4579651 -1.24247 -0.6317155 -0.03142302 -2.1362734 -0.14563538 1.3053517 0.5646958 0.7674858 -1.1082613 -0.7404693 0.3424015 0.86112744 -0.060379602 -1.1040921 -1.6959441 -1.0747412 -0.6375935 -1.6152774 -1.2867956 1.6968235 0.3418679 -0.26968682 -0.0986061 -5.0412927 0.026008734 -1.1289169 2.3275955 -1.7573583 -5.5328255 1.206825 -6.0116262 0.8131342 -0.633199 -1.0181715 -3.3487494 0.14424601 0.08348096 2.1273196 2.3688052 -1.9171631 0.10549196 -1.4976853 -2.74366 
1.7865825 -2.8787692 1.7693347 0.038963653 -1.2737398 -0.090457715 -0.44165897 2.1897297 1.359785 -0.7182603 0.4395787 -0.33583665 -1.286561 -0.006857579 -0.14974797 -2.3268452 0.6814498 -1.2728772 1.3594213 1.2059851 -1.9346766 0.15951234 1.9248849 -0.91348267 -3.8916605 -1.1719095 2.2987776 -3.1937423 -0.23910315 1.0849645 0.05973391 0.89794177 0.84226686 2.521149 0.37128845 -0.042009704 -6.5071745 0.64309055 -4.2533317 1.9238795 -0.057260845 0.19850911 -4.2654667 -1.6504339 -2.9960217 1.0995924 1.5696973 0.6950667 0.93325794 -5.565612 2.3192444 -2.164466 0.909327 1.0128872 2.6948705 -4.8278604 -1.942614 -2.7764857 2.5875545 -1.1307473 2.9731984 -0.9277159 0.9900043 -3.2960844 
-1.1580614 2.6950533 -1.0797178 0.3445786 0.27481738 -3.181324 0.6516638 1.3274251 0.5651773 -2.5046487 -0.09910513 -0.065740146 -0.5145892 -0.58245075 1.2931118 -2.3360162 2.750874 -2.7606068 -0.45482245 1.0964495 -6.5333643 0.9648151 2.1611633 2.2447295 1.7304215 -0.88757515 -0.5348207 -4.746381 -3.9743066 -1.7331438 0.45483738 -0.34666574 3.7995021 0.33632752 -2.8356185 1.3701333 3.1171134 -0.285648 -1.5388246 -2.3670046 -1.3435879 1.4695939 -0.24392074 -1.0319161 -7.382329 0.69300216 1.7962734 1.1513834 -1.4286764 0.2126685 -2.280638 -2.2276282 2.5060477 -0.74542165 1.5377854 -5.5038543 0.9159203 -3.9226992 -4.1994586 0.2622711 0.8644104 1.1727262 1.9868402 -3.4562209 
