0.27750516 -0.82676786 0.31032753 -0.404885 0.14656208 -0.0816393 -0.35442168 0.63871646 -0.60759175 0.5475446 0.21503325 -0.6479544 0.16960767 0.30612764 -0.057804827 1.9143711 0.41183564 0.5933075 0.4817153 -0.0051839175 0.5569269 -0.44453952 0.52913773 0.49075386 2.1099324 -0.21785687 0.5896884 0.42056414 -0.3569179 -0.033824258 -0.69400525 0.38654405 0.61335117 0.28184474 1.0088035 -1.0450792 0.60038203 -1.0260946 0.4173652 -0.83455586 -0.23339924 -0.0103154695 0.8076669 -0.72707945 0.7539272 0.9914958 0.6997846 -0.5603441 -0.5121762 0.07397788 -0.3909946 1.2573338 0.7148012 -0.75883365 -0.3535397 0.3252553 -0.12279593 1.1292055 -0.45829505 0.34843042 1.0028152 -0.8407014 0.033086874 1.6438813 
1.0204864 0.051381476 1.225235 0.19413485 -0.26084617 -0.16238739 -0.32220843 1.8697455 0.9228787 -0.8815564 -0.6617729 0.08780165 0.5292542 -0.44578272 0.20012872 1.4224482 -0.16964304 -0.41923642 -2.451306 0.5895947 -0.08457762 0.50574315 0.9973063 1.4549314 1.0129653 -1.4057922 0.37540668 0.12489432 -0.9847496 0.19561864 -0.3315044 -0.11197475 -0.5726306 -0.23780912 -0.13504899 -0.58053565 -0.59944063 0.28799853 1.2782643 -0.13560645 0.369128 -1.0295866 0.83526444 0.76427454 0.0127539495 -0.5596004 0.3250809 0.4430657 0.24335487 -0.8861605 0.037237503 0.79225427 -0.14530715 -0.71266454 -1.036366 0.16176723 -0.24537937 0.6912071 -1.104487 0.81786597 0.16119167 0.27080536 -0.93623096 -0.2859087 
-0.38885456 1.444009 0.6933645 0.1284887 -0.12136615 0.5475965 0.70036805 -0.99436885 -0.94965965 0.23822379 0.45840436 0.5901476 0.2922633 -0.1803106 -0.035058536 -3.2368107 1.2372861 0.1510577 -0.75945336 -0.57369417 -0.23433328 -1.1044565 0.7022639 -0.2741322 -2.330349 0.5939767 -0.30924243 -0.2442564 -0.0076587982 0.571923 0.5993852 -0.4065296 0.632368 -0.3281463 -0.030029168 0.4660824 -0.13854371 -0.5378402 0.5077717 -1.2546529 -0.41376916 -0.3607276 -1.176324 -0.26406643 -0.16363597 -0.10549887 0.3218473 0.69358605 -0.3874576 0.38375494 -0.04416548 -1.4565485 0.78799945 0.1811722 0.21201935 0.28197345 0.44901583 -1.4962758 -0.16046272 0.09645892 0.3402179 -2.5902817 1.0265636 -0.62418365 
0.26926115 -0.50964445 -0.73789656 0.22509341 0.098934755 -0.56145334 -0.73268837 0.37484148 -0.2210693 0.26222357 0.22978558 0.8837158 0.028317383 -0.9521067 -0.5775677 0.8659985 -0.5766302 -0.38058951 -0.7281601 1.2744406 0.29794112 1.1650089 -0.28432226 0.6017083 1.466146 0.16725673 0.8525162 -0.6858883 0.107609496 0.7455057 0.65982497 0.29882678 0.26271588 0.41274565 -0.4837643 0.12508298 -0.035105854 -0.25965622 -0.6615763 0.18003005 0.7369612 1.0954378 0.1843196 -0.44185224 0.3167601 0.7771377 0.36133304 -1.3020462 0.5414616 -0.8204037 -0.032959063 -0.2984896 -0.0403361 -0.6186422 -0.92374474 -0.60605234 0.006636217 -1.509962 0.8527508 -0.05575881 0.55862504 0.16428684 0.017790029 1.2703741 
-0.6089977 -0.9250569 -0.33172622 0.047775432 0.33735794 0.026383659 -0.4212614 0.037371326 0.61520797 0.6533377 0.15359971 1.5818349 -0.40044156 -0.90427506 0.6104668 -1.337146 0.76395786 0.4400071 0.89162457 -0.97695804 -1.0660642 -0.5532253 0.11669067 0.95504606 -1.654631 0.43686995 -0.31214464 0.2283112 0.30170724 1.1236467 -0.49452865 0.18612492 0.30942383 1.1184436 0.7664633 2.058698 0.70406055 0.06608337 -0.18220392 0.89657766 -0.5433518 -0.43583167 -0.4488892 -0.22233874 0.5438298 -0.52774495 -0.15672141 1.496025 0.24794777 0.8261842 0.07108604 -0.7634049 0.14588466 -0.20071088 -0.66288835 -0.014488598 0.58988553 -4.4749274 0.6023559 -0.20027068 0.24411952 -0.0012185747 0.5317581 -1.146418 
-1.0152661 -0.551466 0.4775915 -0.9155971 -0.029337434 0.070158474 -0.02100103 -0.22177035 0.58707935 -0.5500563 0.5752944 0.21940969 0.88089573 -0.19221394 -0.087027244 -1.9253178 1.1412185 -0.40853575 0.21412173 -1.2992116 -0.8168747 0.54620796 -0.19591394 0.77282816 -2.5157757 0.13028029 0.20747581 0.73746604 0.7059267 -0.060796592 1.2313105 0.078080975 0.5893421 -0.5983121 0.2654879 1.1965834 0.0479792 0.045239776 -0.089289576 -1.0683788 -0.7576161 0.6230016 -0.67982745 -0.2830316 -0.6101186 -0.5284912 0.6872914 0.97240293 -0.21173564 -0.84186554 0.601625 -2.4501445 -0.40100253 -0.39459878 -0.78855854 0.31685987 0.054330647 -0.0817715 1.2204486 0.9007672 -0.019758109 0.39890027 0.15658006 -1.7824091 
-0.22347385 0.5283371 -0.07322232 0.45757908 -0.19002566 -0.2926033 -0.47914818 0.20811614 0.6577691 -0.55336446 -0.16732003 0.14886291 0.242224 0.07857236 -0.25457093 -0.020093907 -0.7727909 -0.0644611 0.0170039 0.53185534 0.44752434 -1.172196 -0.13407968 -0.26185966 -0.104243115 -1.6336951 -1.3957666 -1.053757 -1.2850952 -0.8880893 0.8205745 -0.3790087 -0.50461626 -0.686989 -0.4491273 -1.2052357 0.06369664 -0.4247619 -0.4146436 0.04703095 -1.0122734 -1.6019977 0.24075459 -0.45407096 -0.13068534 0.12447528 -0.4228771 -0.34331036 -0.74950916 -0.46823832 0.52259475 0.21837175 -0.37136617 0.27163506 0.35478136 0.046759635 0.12140329 0.18662733 -1.2873737 0.53062916 -0.5543572 -1.7886307 -0.45464802 0.017887807 
0.00018644924 -1.7890068 -0.6733258 -0.028821358 -1.0966145 0.47985074 -0.7035041 -0.5672129 0.27102825 -0.4857261 -0.0380146 0.6858669 0.183566 0.5892597 0.78390557 1.3728745 -0.11652282 0.5034927 -0.015031803 1.5495936 1.0193942 0.09564334 -0.62938 -0.21603553 1.2295996 0.68623036 0.16765185 0.47186005 0.49705935 0.9576028 0.7771324 -0.17186241 0.29384896 0.15002799 0.31662217 -0.6683131 0.05120235 -0.7604068 -0.4658756 1.2412018 0.12674135 0.8134188 0.23275308 -0.44635254 0.3627252 0.45612404 0.017505694 -0.17410147 -0.033397723 0.3995093 -0.0005248823 0.9776938 0.029554982 0.35229945 -0.84598637 0.9983818 -0.91343 -0.5665839 0.81764007 0.9699242 0.019499233 1.0136393 0.8481381 2.1092355 
-0.43862438 0.8666463 0.11194004 -1.1941612 0.49795324 -0.3661926 1.0995678 0.5523094 -0.61181206 0.3094435 0.10811555 0.341349 0.1893165 -0.6469375 -0.28540707 -1.4758061 -1.129921 1.046026 0.40000823 0.6730393 -0.7588065 -0.57445055 0.82088107 -0.23621206 -0.8208831 1.1773787 -1.0694085 -0.4268143 -0.6017422 0.05696137 0.7197671 0.5525107 -0.2798336 -0.32744744 -0.20780672 1.3570663 0.4420053 0.25873506 -0.19823964 0.39239717 -0.7890408 -0.09072674 -2.0244565 -0.29952833 -0.46199885 -0.64894885 0.11318406 -0.32458487 -0.13358738 1.4068929 -0.8462822 0.049898636 -0.5778408 0.025921816 0.3307664 -0.5719168 0.10447772 -0.9833127 0.49221352 1.0405843 0.34283194 0.06454849 -0.37801003 -2.4536932 
0.22840042 0.29616135 0.9873557 -0.23391305 -0.6764244 0.025019446 -0.16628842 0.24567822 -0.32194632 -0.102235705 0.5141576 -1.4959579 0.7292999 0.09613303 -0.423367 -2.4457774 0.30317965 0.37802112 -0.67051286 -0.14457105 -0.5196148 0.22537427 -0.15577634 0.84984607 -1.4950962 0.4442761 -0.5625258 0.17935775 0.2644243 -0.051119704 0.80142546 -0.44883612 0.7496408 0.5123994 -0.61648464 1.1587822 0.27730504 -0.30299687 -0.17994393 -0.006103663 0.63097787 -0.63165474 -2.1586332 0.084945545 -1.1032934 0.24698159 -0.2671908 0.3676652 -0.5470917 -0.023123085 -0.42506233 -0.75612986 -0.028086234 -0.12183749 0.054473255 0.74679935 0.28105342 -0.33402342 -0.15704897 0.40099663 -0.4624798 0.33183315 -0.26305795 -2.298073 
-1.038131 -0.41353923 0.061799623 -0.67269486 -0.37111545 0.053851727 -0.9830443 0.5435587 -0.8639816 0.22836086 -0.98084897 -0.13961089 0.04447212 -0.6329272 -0.53335375 0.45840213 -0.29448545 -2.6407585 -0.040480763 -0.13321215 0.52659744 -0.27896288 0.38240054 -0.7886933 0.29381132 0.0003016806 -0.012749303 -0.36068323 0.18494599 0.4268034 -1.2206345 -0.2154284 -0.121790744 -1.3234813 0.19185668 0.06424817 -0.29684392 0.035313353 0.46087775 0.698019 -2.5760074 0.03736447 0.7301245 -0.107242025 0.02902434 0.13929334 0.3458673 -0.21485071 -0.7950582 -0.48775834 -1.3279325 0.122441344 -2.4029503 -0.256203 -1.1683631 -0.9716569 -0.062190183 0.04043838 -0.25698587 -0.52439433 0.2876742 0.27732623 -0.588199 -0.17442676 
-0.59196657 -0.59671897 -0.50179803 -0.46497932 -0.682977 0.5908982 0.14178732 1.257372 -0.32473442 0.008313256 0.0063221403 -0.4229032 -0.018842706 -0.40509284 -0.00382698 0.8528848 -0.06432816 1.1153609 0.15196943 -0.151682 0.14204061 -1.0988307 0.52709484 0.056738574 0.9340233 0.6558864 0.46682116 0.33588824 -0.08984438 0.5155909 -0.07651498 0.19336157 0.31975427 -0.8178036 0.5601332 -0.8292054 -0.45008 -0.8350634 0.7488325 0.5501752 -0.045321383 0.15101837 0.57701427 0.10332869 0.8578613 0.32797 1.1692742 -1.1917043 -0.6861377 1.2872266 0.23320279 1.5040969 0.096064195 -1.4464679 -0.081124306 -0.8471158 -0.6544444 1.3191035 0.77448547 0.36935028 0.34690833 -0.36117402 -0.36672857 1.8169341 
-0.6205485 0.2377149 0.13760684 1.0942699 -0.030316597 -0.008566131 -0.085124895 0.98228115 -0.26538768 0.020778572 -0.5902869 -0.51174885 -0.3524558 0.9726432 0.4335321 2.047857 -0.66374993 -1.1324325 0.44707504 0.038794264 0.62234056 -0.1684885 0.86540157 0.96780306 1.0181123 -0.39944652 -0.4539368 -0.23138212 0.40836444 0.31607112 -0.22570598 0.44654706 -0.04974945 0.34798208 1.1434292 -0.3688523 -0.24494098 0.9862708 0.03881675 -1.5285604 -0.14860322 -0.5913551 -0.6444069 -0.3082534 -0.42052078 -0.5881643 0.35600045 -0.41571015 0.52559537 -0.09958763 -0.17681013 2.0953732 -0.75353426 -0.07219619 -1.2570349 0.13604285 0.18926527 -1.6749591 0.63718414 1.006013 -0.04275506 -0.028232658 -0.24898462 0.52084064 
0.012006765 0.9600486 -0.42381057 -0.2685189 -0.67205584 -0.107399076 -0.30463856 -0.41318622 0.22761719 0.11841209 -0.16129516 0.062129516 -0.25877145 0.11450859 -0.08374318 -2.8640046 0.6271138 -1.170145 -0.17322913 0.9567182 -0.36915624 0.8290053 0.6410212 0.21442564 0.47373006 0.1898565 0.48019677 -0.7755147 0.21128015 0.16477458 -1.0959518 -0.372719 -0.18892215 -0.34217262 -0.68235123 0.37976232 -0.6465256 -0.44154343 0.25208578 1.237483 -0.26510072 0.79666704 -1.5864741 -0.13793658 -4.5456533 0.6187712 -0.16947834 0.5176527 0.0139182 0.38688838 -1.3948157 0.7771736 -0.13232955 -0.5263224 0.16751796 0.91714066 0.46807292 -3.113617 -0.5438376 -0.79899627 -0.03374059 -0.7957329 -0.3679654 -0.032115534 
-0.016696637 0.14508756 0.46775764 -0.68229544 -1.0587283 0.5019245 0.3227219 0.97432524 -0.08823855 -0.88387644 0.05397786 1.2180477 -0.63303953 0.8235121 0.0828418 -1.6693296 0.18930386 0.4248902 -0.12963039 -0.75975376 -0.36702114 1.0634248 0.044718903 0.13280031 -2.257443 0.80487883 -0.19215913 -0.5940812 0.117304906 0.51167107 -0.06099276 -0.0021996894 -0.057175152 0.5963908 0.8475722 0.9987255 -0.30746633 -0.8889339 -0.008144999 0.21886313 -0.88174397 0.1494255 -0.36373803 0.23790772 -2.0167093 0.017137539 -0.73978204 -0.08697374 -0.30477068 0.09885394 -0.11792747 -0.835311 1.1029229 -0.03419633 0.25912973 -0.78260577 0.45271817 -0.27099738 -0.07895857 -0.048434686 -0.4903057 0.21554652 -0.61206543 -1.0487494 
0.56105363 0.04804966 -0.44183192 -0.18076643 -0.19886911 -0.09937981 0.5926786 -0.48475143 -0.0148627 0.30822995 -0.32761815 0.2139563 -0.7905262 -1.1345615 -0.35934487 1.8593731 0.2782846 -0.43403915 -0.18426023 1.2850866 0.94293016 0.37120748 1.5857352 0.94967407 0.32644993 -0.79919446 -0.061179332 -0.63227785 -0.43423694 -0.55026877 0.2748769 0.25488016 0.50021225 -0.4113438 -0.23062326 -0.10251887 -0.22141549 -0.0052955532 -0.16629632 -0.015081146 0.76013106 -0.04488465 -0.45759904 0.11516178 0.87759894 0.20630561 -0.3971996 0.8731135 -0.25310916 -0.76334417 0.11631087 0.81189525 -0.051235892 0.5868245 -0.3813818 -0.5151528 0.7494638 1.1076688 -0.7496138 -0.88935167 0.20881958 -0.9140897 0.1391781 0.8805733 
-0.41914564 0.3476359 -0.016049646 -0.53748435 0.5465664 -0.13192919 -0.23255648 0.9530695 -0.22935864 -0.24148604 0.05091276 0.9410218 0.14282925 -1.067516 -0.21532096 -1.0942563 -0.2173896 -0.75394976 0.45123276 -0.06982579 -1.1080436 0.31855252 -0.12715976 -0.32785827 -0.8396187 0.026066154 -0.32684273 0.13840565 0.013275551 0.089590095 0.0010451806 -0.20145704 -0.36261392 -1.1058944 -0.6345211 -0.12716739 0.07794414 -0.3221288 -0.048066236 -1.601177 0.30977383 -0.2977114 0.38542357 -0.6498694 -0.7519563 -0.14368303 0.24036208 0.73751444 0.20340008 -0.718292 0.22812054 -1.8038701 0.48744902 0.3242131 -0.18072526 -0.38267052 0.5088465 -0.6725672 -0.039279155 0.20553827 -0.08173918 -0.41706902 -0.50942224 -2.1618474 
0.5123405 0.043420956 -0.120520875 -0.36723912 0.20585105 0.27036706 -0.41780072 -0.5313555 -0.15141997 0.66075474 0.15796785 2.148096 -0.89863235 -0.832512 0.6444614 -1.9418305 1.441939 0.21753825 -0.21015728 -0.32821238 0.09518259 -0.119446844 -0.27348927 -0.3721043 -1.517124 -0.16711394 -0.12772945 -0.6531563 0.9285336 -0.20110653 0.79237676 -0.14847389 -0.28743404 -0.2185748 0.37133417 0.44898015 0.03483403 -0.7379046 1.0983101 1.585934 -0.5371063 -1.1906947 -0.59294236 -0.14284664 -0.08817242 -0.8087814 0.42115766 0.19942331 -0.42407757 -0.09779991 0.1361415 -1.6046231 -1.0328435 0.34403512 -0.61270124 -0.7924584 0.57692724 -1.2002125 0.22329545 -0.3810947 -0.333365 -0.3765742 -0.08094034 -0.69054365 
0.46151507 0.244795 1.2546996 0.023680873 -0.31001928 -0.16053265 -0.13143596 -0.76003116 0.09153848 -0.13741961 -0.4667402 -0.46534026 0.12846382 0.29755878 -0.6074471 -2.550483 0.31681478 0.60722387 0.047856882 -0.8906809 -0.55688214 -0.1592774 0.19630516 -0.06693598 -1.8969954 0.5582815 0.27546284 -0.3548832 0.33318737 0.44258067 0.2161513 0.12671441 1.4053594 0.56542087 0.79546744 0.033814896 -0.13344651 0.10018585 -0.14541288 -0.85795414 -0.14121926 -0.057501625 -1.158468 0.50628805 -1.0476753 -0.44831145 -0.14154465 1.6771196 0.2735661 0.4865312 0.30550125 -2.1173995 0.3597462 -0.09490809 -0.2648614 -0.19340895 0.26722524 -1.3059411 0.362623 -0.8768926 0.50581837 0.35945484 0.10421339 -2.7703927 
-0.13248217 -0.204207 0.891467 -0.39459082 0.1520376 -0.31126902 -0.100706086 -0.25515938 -0.40685114 0.84105194 0.12176688 -0.44278914 0.90506995 -0.21863599 0.00225511 -1.988649 0.6019742 -0.50225997 -0.8695969 -0.23486833 -0.7586463 0.81039405 0.8294635 0.41857165 -1.5965254 0.18736689 -0.5792814 -0.93239266 -0.70329446 0.25636882 -0.5525259 0.025590824 0.10747793 0.1128547 -0.8659268 0.8657494 -0.8424114 0.74695086 -1.2116064 -0.28139016 0.76005787 0.06925641 -0.28040335 0.37012908 -2.60448 -0.38968548 0.7661175 0.73825574 -0.3820746 0.27331126 -0.5645967 -1.3696966 0.7721527 0.2716598 -0.5322386 0.63983345 -0.36448398 -1.6514037 0.8130246 -0.5804499 0.8463522 -0.4562054 -0.7064598 -1.048854 
-0.15740746 -0.32141447 1.1475185 -0.63170767 -0.102121234 0.8253763 0.57055455 0.34960335 -0.18023811 0.7063128 -0.69338566 -0.69056964 0.52230954 0.15745431 -0.3442382 -2.5138888 0.2212489 0.048574388 0.0018882342 0.3387101 -1.2991792 0.08612527 0.3957227 -0.10769789 -0.900821 0.7930039 0.8001267 0.24164207 -0.20445286 0.4900461 0.3133748 0.20338161 1.0142447 -0.1446571 -0.44653317 0.19363475 -0.33347762 -0.34724838 -0.7993742 -0.88268363 0.8390794 1.8174646 0.116482005 0.100251175 -0.7123702 0.39942363 -0.8558254 0.8289764 -1.1519271 -0.22099519 0.014973727 -1.042937 0.06995594 -1.0963814 0.17296305 -0.1413352 -0.3459071 -0.48973176 0.5084369 -0.7528298 0.27695808 -0.6962307 -0.671148 -1.7327726 
0.6167083 -0.5453702 0.8660496 -0.15911895 -0.40547273 -0.67379975 -0.9796947 1.973305 0.2015878 1.1817888 0.70850444 -0.5087981 -0.84216666 0.12905456 -0.46040875 -1.0107155 0.71230876 -0.061557658 -0.21384417 -0.16136688 -1.8413218 0.08498231 0.32856238 0.146452 -1.1033592 1.1484773 -0.0077653956 -0.63582826 0.53977555 0.50077057 -0.024040082 -0.43716606 -0.6825261 -0.3766219 -0.3758278 0.8658602 -0.46512982 0.4325822 -0.18464002 -0.0032939266 0.80720216 0.73433274 -0.53404975 0.3639077 -0.6239999 0.33190316 0.3021789 0.20963688 0.5269355 0.523808 -0.05579177 -1.242711 -0.07879834 -1.1741496 -0.088927515 -0.9004106 0.4861096 -0.87471646 0.55770123 -1.9301203 -0.71168303 0.2557214 -0.97583073 -1.3364788 
0.24014299 -1.6649256 -0.9963506 -0.18335108 0.4990236 -0.11080398 -0.37409514 -0.07897038 -0.9850246 0.36459857 -0.6250904 0.09233509 -0.20081407 0.116125934 -0.081242085 1.545667 0.13795994 0.17965971 -1.2831854 1.4278181 -0.11578839 -0.8215901 0.4104923 -0.45991877 0.5416169 -0.65200794 -0.24576804 -0.44141808 -1.1774774 0.09916048 0.5176868 -0.5960229 -0.25464225 1.0919703 0.17394336 -0.080182865 -0.51108676 -0.6765403 0.95589465 0.53049475 -1.5999377 -0.5797009 -0.16429563 0.37989044 0.87726337 -0.6773874 0.26330224 -0.9174455 1.0002011 0.023943875 0.3559594 1.2416861 0.60419166 0.6132312 -0.45501894 0.15973935 -0.36456552 0.6359392 -0.6368716 0.08940429 0.31996778 -0.35639995 0.006977718 0.92139465 
-0.08947438 -0.56045467 0.32393247 0.8230204 -0.29272634 0.45985764 0.5112402 1.1812303 -0.48856658 -0.43173313 -0.18587759 1.0233879 0.43819547 0.103579074 0.55808634 1.4290907 0.15559697 0.27987525 0.9045174 0.22753288 0.040239435 0.35876244 0.6175456 0.94106317 0.3543028 -0.33557615 0.5244688 0.5517371 -0.15982401 0.08119179 -0.9060026 -0.32452774 -0.5484369 -0.41463014 0.9015632 -1.2966597 -0.37673292 -0.36649275 2.3563306 0.64029276 -0.45135576 -0.54729986 0.4302429 0.08812902 0.38158217 -0.07800355 -0.69865364 -0.12814593 0.12008256 1.0582006 0.036649134 0.9737109 -0.20587955 0.87524855 0.6949593 0.40613854 -0.6713744 0.9062015 -0.0005032754 -0.16837403 0.6669027 -1.3839575 0.3971067 0.39761075 
-0.25762093 0.28560543 1.3497438 -0.20708232 -0.82008165 -0.200122 0.1637167 -0.33727533 -0.446541 -1.0989883 -0.20176582 -0.12151826 0.625929 -0.07501712 -0.15229715 -4.1945815 0.16272065 -0.099684335 -0.36556664 0.94598395 -0.49450186 -1.1133139 1.1232647 0.57447135 -1.1561621 0.6709603 1.1696237 0.35848838 -0.41804838 -0.036046077 -0.60371715 0.1359273 1.3834002 -0.12891302 -0.47797552 1.157883 -0.9036776 0.89233434 0.35666206 0.719872 -0.29192805 -0.9055855 -0.8821319 -0.45571896 -0.12298072 -0.6388247 0.65818506 -0.20740388 -0.8415162 -0.07117998 -0.86575544 -1.3385334 0.25505298 -0.4345425 0.29919305 -2.0090547 -0.6076498 -0.84922135 -0.46437266 -0.71443945 -0.13702996 -1.8236814 -0.4840977 -1.7686884 
0.09338859 0.109673634 1.4631379 0.48795003 -0.34564537 0.6648179 -0.29217085 1.2448808 -0.6001627 0.15644637 0.28034687 -0.5964174 -0.25348485 0.06087374 0.90535635 -2.3335865 1.0455039 -1.3059754 -0.3294053 0.043342464 -0.41676584 -0.23292063 0.26023394 -0.8506004 -1.0108451 -1.0091496 -0.499524 -1.0169607 -0.29960358 -0.7758916 -0.5747241 -0.14878926 -0.854104 -0.23280217 0.17005636 -0.034590054 -0.07002562 -0.70749354 0.22625917 -0.7390648 -1.3909876 0.91591996 0.13014121 0.03198879 -1.590621 -0.88339525 -0.21279693 -0.08360814 -0.76095456 -0.6193933 -0.31935012 0.5723226 0.08884464 -1.208749 0.026355792 0.13082223 -1.1223454 0.20007922 -0.30163935 0.03676598 -0.9039212 -0.56507 -0.6091238 -0.668971 
0.74663925 1.0864191 0.4106273 0.25055775 0.3154922 0.63867235 0.32682213 0.04883737 0.5028173 0.25307283 0.36920658 0.99994165 0.586238 -0.02561765 -1.1747006 -1.9334439 0.88947546 -0.090460375 0.14845225 -0.88209695 -0.5968569 -0.31670362 0.6775876 -0.5221991 -2.0852354 0.73197263 -0.032470178 -0.04049707 0.93952316 0.28112316 0.5108441 -0.36769214 0.40478572 0.17300795 -0.94353193 0.7827666 -1.3860165 0.20531681 -1.1435705 -0.5577578 -0.78021705 -0.051184036 -1.3291327 -0.2051826 -1.9143941 -0.2978604 -0.2701953 1.550375 0.08381339 0.79329616 0.40129945 -1.1675471 -1.0776316 0.26917282 0.03252688 -1.2854719 0.5199909 -1.2735968 0.7512562 -0.056532864 -0.23024522 0.42505503 0.39977083 -2.1623979 
0.9948546 0.00072255766 0.4134081 -0.3243125 -0.66756254 0.21064726 -0.32121038 -0.041428223 -0.2021426 0.53070986 -0.38694263 -1.3389647 -0.28395635 -0.4045155 0.04508638 0.87586075 0.017810412 0.2515649 0.7852226 0.5484418 0.30106997 -0.020840656 -0.07562049 -0.063090764 1.9729097 0.65338576 0.78889734 0.23458673 0.16669294 -0.87891495 -0.56657964 -0.34619313 0.66348034 -0.37207946 -0.52216065 -0.43606383 0.27548897 0.69672626 0.6223142 -0.1650596 1.0687172 0.768431 0.55661625 -0.005169034 0.90980947 -0.3500227 0.51353705 -0.48010877 -0.39124042 0.4268312 0.05355985 0.80767107 0.14936158 -0.19261512 -0.19781327 -0.778294 -0.48427716 -0.009249577 0.46357536 -0.5361833 -0.37290892 -0.3127842 -0.2156886 1.6312138 
0.07093966 0.12260009 -0.80308706 -0.18233816 0.43225884 -0.45889702 0.36065134 0.62191963 -0.6791167 -0.33789217 -0.4628712 -0.42813858 -0.35790482 0.12820889 -0.69592565 1.9812462 0.14327641 -0.0008001681 -0.13443689 0.35393658 -0.20379294 -0.0005533282 0.3757176 0.08894516 0.42733058 -1.1759834 -0.5215313 0.2055125 -0.2547818 -0.26305595 -0.19525604 0.9333579 0.4584914 -0.8480059 0.86811846 0.34576672 -0.19725038 0.13595502 0.5939027 -0.921484 -0.5199193 -0.32321593 1.4359794 -0.23489022 0.7101183 0.111485995 0.12448696 -0.8223489 -0.1039689 -0.08404429 -0.9170256 1.7013725 0.07586153 0.5688842 0.23441075 0.32156777 -0.35878184 -0.046953827 -0.5753492 0.3802617 0.17481586 -0.12048265 -1.43328 0.75459206 
0.56147206 -0.17642938 0.44426298 -0.59075576 -0.08410528 0.32053563 0.7422848 -0.36994836 0.7939651 0.06275821 -0.122979805 1.186313 -0.52887124 -0.24336144 -0.7235954 0.007910434 0.14783883 0.2786045 -2.7133832 0.2128392 0.28764975 0.002994944 0.66120404 -0.4781366 -1.5277362 0.24437648 -0.35449255 0.11603156 -0.2763245 -0.21295469 -1.1935526 1.0221711 0.83442783 0.49554437 0.31390274 0.5605402 0.16975692 0.22801739 -1.0981411 1.2865126 -0.5864926 -0.068218336 -0.3047613 -0.124534644 -0.15486826 -0.22178604 -0.09781777 0.8386787 0.47358 0.7815827 -0.4156122 -0.49176732 -0.20329665 0.10462342 -0.18515095 -0.6395395 0.75874823 0.17397588 0.015209563 0.23803566 0.73513633 -1.0817175 -0.4175417 -1.1565108 
-1.3271327 0.23294476 -1.1370939 -0.49990308 -0.6986395 -1.3356152 -0.6497103 -0.421186 -0.22963996 -0.090055816 -1.626726 0.6225117 -1.0589212 -1.1001065 -0.22416638 -0.35163286 0.4239352 -0.796947 -0.74827015 0.27169928 -1.4093639 -2.272082 0.22046915 -0.8877092 -0.14386645 0.61457753 -0.2580568 -1.3759936 -0.14397775 -1.9314233 0.68153316 -0.36580405 -0.16155666 -1.3781723 -0.41559443 0.5094544 -0.9659681 -0.7084947 -0.21196583 0.26137084 -1.6146849 -0.6917635 -0.7056563 -0.38821077 -0.7746497 -1.5254271 -0.15917915 0.28824717 -0.97015846 -1.0645423 0.07099954 0.1825905 -0.574444 0.3965191 -0.39776486 -1.6539699 -1.7235126 -0.36772493 -0.92793876 -0.39292446 -0.80151343 -1.4906516 -0.18410249 -0.49575004 
-0.17584148 -0.2164715 -1.2146809 -1.2391082 -0.52517337 -0.66016793 -0.3303407 0.09535048 -0.81858814 -0.047078025 -0.6945025 -0.18027242 -0.1618087 0.052228786 0.28202203 0.13812262 -0.450997 0.21015051 -1.3487861 0.6666297 -0.16714317 0.35063374 -0.5377616 -2.0904758 -0.021835275 -0.9711015 0.0015366103 -0.89651346 -0.8261882 -1.6018051 -0.5922407 0.28027222 0.052043263 -0.016220622 -0.42237222 0.1374215 -0.37945274 0.14788608 0.16875492 -0.08485207 -0.90321785 -0.7888831 0.28767142 -0.3192229 -0.61804247 -0.91605985 0.20288022 -0.19972783 -1.0434806 -0.26636672 0.79096144 0.03560421 -0.5771621 0.008859229 -1.9635478 -0.2885926 0.015465541 0.19233479 -0.89202 0.061523534 -1.8094395 -1.6900166 0.15160108 0.41339323 
-0.08445434 -0.3367836 0.9781078 0.6572851 0.11400667 0.6885097 -0.26932803 0.28550777 0.9934409 -0.30605665 0.17917566 0.21676253 0.51697963 0.054471627 0.68129355 2.6494124 0.49243927 0.45124352 1.2895472 -0.25479034 1.1846746 -0.12395099 0.060546465 0.026636552 2.2569687 -0.068823054 -0.0152901495 0.77785695 0.65040916 0.69716907 0.55738986 0.63432086 0.37708098 -0.50225043 0.6647842 -0.9349531 0.16205981 -0.0063671097 -1.0912297 -0.1116564 -0.4046299 -0.090009764 0.7032881 0.41665384 -0.13514747 -0.9551062 0.98309416 0.3218882 -0.045143124 0.43559414 0.96907455 2.4825335 0.55865 0.09652116 -0.9252689 1.2446803 0.32160667 1.982673 0.12459241 -0.13562448 0.21595764 0.112383656 -0.41327637 1.4829409 
-0.23585352 -1.9859865 -1.949862 -0.5783133 0.52633715 -1.2277217 -0.87276804 0.7945687 -0.23044893 0.53215516 -0.39629045 -1.6322228 -1.1041745 -0.15442306 -1.5796274 0.3966873 -0.5257456 0.12286509 -0.0071594804 1.3136194 -0.22121786 -0.7683487 -0.69383824 -0.01713266 0.2859636 -0.51853675 0.1746352 -0.18833606 -0.88454384 0.2585368 -0.5669398 -0.11092413 -0.4602832 -0.4418613 0.1772047 0.19299136 0.5737991 0.6384758 -0.3853551 -0.31745014 -0.5138122 -0.46309832 0.5269625 0.33509317 -0.29483145 0.33517736 -0.4360262 0.3165741 -1.3206908 -0.27254182 0.43571946 1.2951541 0.53521043 -0.74881226 -0.051378135 -0.014447429 -0.1044666 0.15814848 -1.1532762 0.49574065 -0.7682189 -1.3459907 -0.083059825 1.3851513 
0.6131018 0.5830419 0.05819742 0.5692936 0.37793687 0.793635 0.29841846 0.97733355 0.2384757 -0.2706683 0.79969436 0.011239277 0.29722533 0.75875413 -0.12611288 -1.6164911 0.89357764 -0.8825014 0.46562028 -0.5427643 -0.6887002 0.0019037361 -0.35830584 -0.305049 -1.689435 0.26329097 0.63962597 -0.16367227 0.089989744 -0.4573829 -0.37570924 0.12497798 0.6251213 0.5091867 -0.109443285 0.24466838 -0.493033 -0.10557274 0.54030526 -0.7716143 -0.10995464 0.9575702 -0.62929195 0.6798364 -2.216628 0.2085958 1.2440972 1.2565823 0.1448451 -0.42904884 -0.24109113 -1.35925 -0.69594944 0.19232804 -0.844895 0.09343649 0.37235972 0.14609018 -0.10605043 0.43443725 -0.264008 -0.21758896 0.37162122 -0.469951 
0.599915 1.7270075 0.5626788 -0.21987145 0.31780282 -0.5741014 0.31252152 -0.41027778 -0.70549583 -0.2185546 -0.14620426 0.08215837 0.7638194 -1.258581 -0.05746634 -2.4569004 0.5012361 -0.14408703 -0.4740349 -1.2164958 -0.1302349 -0.16315016 -0.21529225 0.48555517 -0.99097186 -1.06787 0.17710882 0.5415579 0.80037725 0.15739776 -0.21832125 -0.3755949 0.024996437 -0.31703913 0.093166836 0.48698285 -0.49228454 -0.74825144 -0.1391921 -0.49333963 -0.04201861 0.4739923 -0.20609888 0.42817828 -0.61588037 -0.5448814 0.19934432 1.0975823 0.08720711 -0.6626258 -0.6239073 -2.0203152 -0.67301685 -0.17815833 -0.57836175 -0.51350266 -0.7238735 -1.1969612 0.446716 0.35953957 0.12676814 0.23368134 0.5547561 -1.2454596 
-0.25334704 -0.45933256 0.62116057 -0.31218675 0.2665254 -0.7610116 0.0103038605 0.9065363 -0.35192007 -0.22276779 -0.17774686 0.6970024 -0.46287623 0.9006697 -1.0397826 -0.34379515 0.18596925 -0.6086327 0.8713436 -0.42827594 -0.4746751 0.49706286 0.26534247 -0.3084484 -1.2010012 1.2810029 -0.42730877 0.03593285 -0.3415337 0.6470403 0.2868249 -0.43678972 -0.31289813 -0.5112937 1.0425469 0.62196213 -0.48301926 -0.37224838 -0.38780516 0.5894507 -0.23579444 0.48029935 2.0372221 -0.3753631 -0.87830055 -0.031313464 -0.28961036 -0.13492031 -0.7679112 -0.51251477 0.16679178 -0.24167407 0.09475677 -0.9386838 -0.75600135 -0.09952434 0.12126587 -2.612403 0.06938041 -2.3657594 0.30319884 -0.33838457 -0.6686388 -0.64412564 
0.13353203 1.5155842 0.31433722 -0.032240774 0.23343447 0.7733876 -0.94493467 0.14824684 0.37259537 0.49906152 -0.016185626 -0.77675295 0.42683083 -0.15833971 0.018964846 -1.8500414 0.68172586 0.64030915 -0.6856309 -0.3795175 -0.8394869 0.3329873 0.3612063 0.2788678 -1.7985212 1.1849874 -0.1274988 0.3627707 -0.18894316 0.36639223 0.045157395 0.27028462 0.40141565 -1.2473568 -0.54851633 0.7361202 -0.6211645 -0.18076697 0.41558382 -0.4204496 0.029197909 0.8073355 -0.71605074 0.03996159 -0.94118005 -0.14462414 0.28047785 1.3600934 0.051438577 0.27872357 -0.79801583 -2.1858811 -0.21894063 -0.623811 -0.102607444 0.14285506 0.002278157 -1.0409391 0.9248098 0.84081024 0.656413 0.6048227 0.2502243 -0.6097619 
0.22090884 1.0624222 0.9688497 -1.69565 0.037664644 0.6127551 -0.476072 0.66813076 -0.3783462 -0.27521327 0.5739131 0.7889225 -1.2477342 0.26750976 0.54557616 -1.2982881 0.0400261 0.90345985 0.30183378 -0.31101558 -0.68025786 -0.9790739 -0.80434823 -0.72396773 -1.3940665 -0.21443956 0.37619072 -0.30713195 0.2721809 -0.1944426 1.1554251 -0.6941953 0.13259965 0.26461208 0.6443354 -0.49939406 0.652557 0.99842507 1.1090075 0.25330085 0.24415414 0.6249682 -0.4494882 0.31853205 0.49772286 0.5950588 -0.41874903 1.6167322 -0.19409159 0.07193369 0.32556695 -1.5196576 0.09659207 1.0697944 -1.3744733 -0.5650359 0.116858676 -0.9529117 -1.209464 -1.2471416 -1.1413653 0.016792746 -1.5271503 -3.005698 
-0.31875378 0.614465 -1.3373686 0.29875115 -0.1510235 -0.4265625 -0.29369295 0.40576118 -0.35018015 -0.44042593 0.14808846 0.5112915 -0.21390022 -1.0382372 0.24178186 -2.3058898 -0.59159595 -0.91259265 -0.15059458 -0.5907939 -0.10874112 0.1799989 -0.6125566 -0.4227974 -2.8767161 -0.115324296 0.03277022 -0.42899743 -0.14624242 0.58533645 -1.1349374 -0.1516492 -0.5667662 0.11655392 -0.676336 0.9357379 -0.8107083 -0.062052824 0.5056084 0.25067058 -0.5978175 -0.41652384 -0.24096367 0.37669024 -1.512543 -1.5352407 -0.3207136 0.40446272 0.004364616 -0.43335775 0.43908256 -1.1776876 0.036211338 0.29071015 -0.73278046 0.09870002 0.45637274 -1.3725259 0.38002482 0.2122576 -0.012430054 0.3648197 -2.63263 -2.2139933 
0.69275504 0.76088023 0.5422321 -0.30050886 -0.04050733 -2.0109904 0.27702367 -0.2899462 -0.4537927 -0.62583476 -0.10503543 0.54271805 -0.9908886 0.22023179 -0.24039991 -1.3802661 1.2180313 -0.64887804 0.74929065 -0.9977449 -0.29637277 0.20159982 -1.129106 -0.21269135 -1.7785867 0.54066354 -0.5205677 0.16190329 0.31301606 0.46257553 0.17556874 0.51448154 0.55393314 -1.008911 -0.82898855 0.5909468 0.2225155 0.06909283 -0.18891436 1.1189436 -1.9002985 -0.033781208 -0.029822702 0.234911 0.17009923 -0.6822614 -0.02019856 0.10359241 0.03125601 0.40252805 0.5668665 -1.4277433 0.9570059 -0.028194975 -0.88995004 0.30068055 1.2524515 -0.20274822 1.0951855 0.4131026 0.32262325 -1.124859 -0.62365925 -2.089723 
0.097187005 0.45222613 0.6767651 0.16448899 -0.6209882 0.17732929 0.48541155 -0.42913052 -0.0043759616 0.80045825 0.3584386 -0.96489716 0.24715306 -0.57341063 0.47883576 -1.2668546 -0.27861354 0.39661497 0.16297427 -0.6839402 -0.098466575 0.1608828 0.27187464 -0.5072768 -0.8467548 0.4669639 -0.7305091 -1.0494539 -0.0075224745 -0.018731166 -1.1469761 0.029947821 0.46252078 -0.101078436 -0.097939275 0.968329 -0.16843604 0.18322334 0.85875833 -0.6897611 0.5557719 0.17758974 -0.04117845 -0.01932886 -0.70245993 -0.05125422 1.1575884 0.88905853 0.13555822 1.6883293 -0.7706474 -0.9095188 0.19852825 0.18336782 -0.08156223 -0.045067202 0.29686007 -0.5014742 -0.051760565 0.40015066 -0.12054145 -0.106009685 0.15647282 -1.520767 
0.33520067 0.5221861 -0.7986475 -0.011779958 -0.79030895 -0.5654835 -0.1433361 0.24822843 -0.4274942 0.011142119 -1.7298155 0.4820964 0.016139258 -0.3238708 -0.816255 0.06984426 0.08099238 -0.96237385 -0.59583384 0.4025081 0.13583161 -0.6903227 -0.50876796 -0.3238324 0.5289258 0.53685397 -0.41871002 0.20469552 -0.1856363 -0.09117955 -0.5010482 0.10603547 0.35783744 0.02414113 -0.7869925 0.008128128 -0.75660086 -0.5773769 -0.2720797 -0.542426 -1.2557757 0.36780828 -0.056279738 -0.5776535 0.4929384 -0.19296564 0.06068589 -0.03509886 -0.48590517 0.47884506 -0.88283604 0.77893806 -0.40677008 0.16261502 -0.43921906 0.4551455 -0.8834536 -5.8218465 -0.29866236 0.03391474 -1.1735831 -0.39220923 -1.2516576 0.10209221 
-0.5316508 0.48617125 -0.36041793 -0.20511682 -0.03838899 -0.45227256 0.34314308 0.28228086 0.7183123 0.51312983 -0.5541727 -0.7036654 0.001081674 -0.36325684 0.5121775 -2.2542467 0.92992276 -0.59068656 -0.30231342 -1.2034194 -0.9666187 0.07276359 0.51352 -0.051741194 -1.6621803 0.45747125 -1.0879805 0.28497988 0.37046948 1.2377418 1.2377448 0.2063474 0.094600156 0.03576957 -0.48943937 1.4625039 0.26455536 -0.18486069 -0.6580991 0.54566145 0.041269645 0.03433406 -0.620209 -0.11204034 -1.5596263 0.15152198 0.25357354 1.3697034 0.45786467 -1.1399179 0.5415682 -1.150195 -0.35263222 -1.103218 0.87522423 0.26730987 0.13818526 -2.1623251 0.68954855 -1.3332936 0.7247792 -0.67556 -0.519223 -2.0362003 
-0.01954344 -0.4300118 0.04299557 -1.3954121 -0.09103776 -0.4276501 0.27311942 -0.33180398 0.28691053 0.20265016 1.1095678 -0.48727384 -0.022613632 -0.6684047 -1.1372787 1.8608526 -0.08599765 -0.04046178 -0.34034678 1.0551032 -1.462707 0.106260754 -0.19256704 -0.5152018 1.8969054 -0.7997401 -0.39487457 0.14752321 -0.2961147 -0.72027445 0.3731878 0.30725765 0.6498841 0.41504836 -0.6809428 -0.16666976 0.22729221 0.27436373 -0.6707002 -0.50102484 0.28910002 0.81480646 0.62578076 0.28947055 1.0937208 -0.04933803 0.3778628 0.2921679 -0.77533835 0.412839 0.82748216 1.3100845 0.13769068 0.5099436 0.3384738 -0.0056916247 0.72346514 0.7341866 0.064936146 -1.4512839 -0.28197798 -1.9595138 -0.6225135 0.82745 
0.5165467 -0.14825012 -1.0902178 -0.8828346 -0.5325977 0.034788363 0.14339213 0.28964967 -0.32995725 0.8880521 -0.6179577 0.7514671 -0.33267644 -0.18997593 -0.3867711 -1.2588354 1.038816 -0.5595684 -0.24003164 -1.2153834 1.4000205 -0.316677 -0.39136416 -1.1488667 -1.2209232 0.59612435 0.62017316 0.043444656 0.8264315 -0.087084934 -0.94351536 0.50367284 -0.27439535 -0.49677613 -0.11210644 0.6112066 -0.42503816 -0.4140231 -1.1552635 -0.067391135 -0.288076 0.11196353 -1.068086 -0.5232554 -0.49327433 0.2831136 -0.035403553 0.583583 0.002973805 -0.6543147 1.005673 -1.2464243 0.2519739 1.4204911 1.0693914 0.9800199 -0.7726956 -0.68446356 0.35866016 -0.2463779 -0.27018508 0.07098172 0.49218962 -0.9701774 
0.4270558 0.7953605 0.37726817 -0.4385679 -0.20149642 -0.6024097 -0.6662005 -0.09016005 0.18609674 -0.19534315 -0.43577445 0.2046943 -0.29745182 -0.1681672 -1.3209833 -2.6330566 0.5910804 -1.6626295 0.8823423 -0.38873965 -0.31035128 -1.4106677 0.47748625 0.023736851 -1.4799329 -0.5395701 -0.37839746 0.8040285 0.62623364 0.34940264 -0.77470213 -0.19999222 1.5628272 -0.92089665 -0.5888095 -1.290595 0.0011247931 -0.7760468 0.04842821 0.07305814 -0.3479029 0.28884742 -0.9038265 0.028130598 -1.0139673 -0.8322734 0.21079712 0.48163754 -0.14779708 -0.33954677 0.24570072 -1.0117153 0.11858326 -0.21611503 0.6157457 -0.42507702 0.71878046 -1.017627 0.46712652 -0.55242866 0.67580366 0.27143368 1.3861353 -1.2705243 
0.18816082 -2.1056066 -0.08059147 -0.69706786 -0.10713186 -0.31897265 -0.1452966 0.1402922 0.520949 -0.5006473 0.44588122 -0.13008791 -0.81016976 -1.414407 -0.9747154 0.36651233 -0.53007233 -0.43493074 0.101551525 -0.38305113 0.417082 -0.46391973 -1.5334483 -0.6492474 0.16092388 0.109015845 -1.6975869 -1.3755184 0.22294575 0.41022745 -1.0838531 -0.24859865 -0.7719282 -1.212298 -0.82159835 -0.019461885 0.1285776 -0.3152883 -0.25250375 0.2921882 0.15553881 -0.96084356 0.10786875 0.046486866 -0.01480739 -0.7804616 -0.8953883 -1.0586908 0.5105247 -0.34441203 -1.4681584 -0.014227216 0.3288052 -0.29056847 -0.803871 -0.9102763 -0.7129396 0.4644618 0.15269002 0.10334413 -0.17848618 -0.5845113 0.65479684 0.0108306 
-1.075929 0.20947298 0.1744617 -1.1334844 -1.8700094 -0.13781962 -0.9022167 -0.57460535 -0.9585026 -1.99917 -0.18409696 0.18134451 -0.40908948 -0.8202333 -1.0152011 0.15719736 -0.0496596 -0.06443836 -1.0043961 0.6176021 -0.22424221 -0.67129457 -1.3527404 -0.37239096 0.35462508 0.08224913 -0.9393672 -0.9081301 -0.10026212 -0.19008555 -0.9662043 -1.5252262 -0.6802352 -0.24099146 -0.38639778 0.25072783 -0.20855066 -0.7123528 0.072405174 -0.22540742 -0.16536619 -0.54036605 -0.03134187 -1.5159713 -0.0019518606 -0.08375251 -1.8381668 0.61892605 -0.395499 -0.64023054 -0.5958337 0.15796678 -0.6280423 0.25950947 -0.21544099 -0.35118374 -0.09766913 -0.038538575 -0.1424851 -1.3791077 -1.4631163 -1.1070827 -0.31845993 -0.021398257 
-0.23083115 0.9587301 0.33882508 0.35961643 -0.41008118 0.49121404 -0.11314636 -0.7666544 0.6681239 -0.17309113 0.7689693 -0.22528014 0.45520103 0.21193303 0.06642479 -2.2307048 0.90055156 -0.88668 1.0113605 -0.6203736 -1.4876542 -0.33935115 0.75669754 -0.2253536 -1.6645362 1.2494445 0.45005184 0.44061846 0.84810305 0.29847917 -0.35507068 -0.0033983209 0.41019836 0.81236905 -0.5310461 0.6960243 0.17070651 -0.4938503 -0.26370934 -0.4208162 -0.4475546 -0.09414134 -1.8964971 0.09761337 -1.2439557 0.25268736 -0.26656857 0.43597984 0.03121247 0.6683423 0.1679206 -1.140557 -0.38939303 -0.16856612 0.921762 0.21498601 -0.21866345 -1.5398499 -0.33341253 -0.38058183 -0.025833007 0.022631481 0.8840213 -1.9410573 
1.1949396 -0.12648997 0.0028874131 -0.006596163 -0.27547544 0.31479266 0.30061445 -0.2925729 -0.29892555 -0.23847835 -0.6489329 0.40885344 0.92005914 -0.096019834 0.28483778 1.757146 -0.4701443 -0.13077651 0.417912 -0.2697751 1.2643815 -0.11005382 0.34532565 0.75928247 1.2223773 -0.16119656 0.25107133 0.5089842 -0.40284854 0.6821911 -0.67008525 0.33519432 -0.1267369 0.35661694 -0.25453675 -0.006602541 -0.039056517 -0.44968155 0.08800506 0.32558948 1.5528339 -0.8514134 0.72195953 -0.47442755 0.21359019 -0.2399907 0.38711604 -0.62522537 0.8189677 -0.13346821 -0.110167496 0.6977363 0.18554105 0.17733923 -0.2061027 0.64040494 -1.4157223 -0.32366267 -0.14827864 0.07553971 -0.28781584 -0.66292197 0.7561971 -0.020068724 
-0.15246488 -0.15530199 0.4290577 -0.42295817 0.052524358 -0.34987494 -1.4077228 -0.023535753 -0.3433981 0.1734063 -0.071374744 0.440176 -1.0539216 -1.6087102 0.33243483 0.19406936 -0.30661628 -0.5461541 -0.058419243 0.14425059 -0.17043005 0.48811734 -0.38254625 -0.04332694 0.4377309 0.45888653 -0.48050317 -0.07215991 -0.7366525 -0.6024433 -0.7864699 -0.37036714 0.00717391 0.36182475 0.21334215 -1.5148126 -0.1768555 -1.7200607 0.27894035 0.1362543 0.071082234 -0.28976378 -0.49961695 -0.16974837 -1.5789 -1.1771997 -0.7972436 -1.2418573 0.08156187 -0.18475676 -1.4608552 -0.4068505 -0.5618473 0.3105667 -1.6828635 0.043885916 -0.68458855 0.14773726 -0.646283 0.57099265 0.07313079 -0.0063144816 -1.7595199 0.573988 
-0.095985845 -0.16256508 -0.31537113 -0.41737086 -0.3634852 0.18450378 0.7235373 0.47011754 -0.11329864 1.656871 -0.061219998 -0.7772043 0.45547867 -0.2717558 -0.72660094 0.86384606 0.58772665 -0.75083226 -0.004003412 -0.3526355 0.32475293 -0.04333252 -0.4980896 -0.034491166 1.0199853 0.7135685 0.82003826 0.34949493 -1.1322335 0.76188034 0.15217766 0.4921722 1.1567023 -0.4335102 -0.12995347 -0.16933762 -0.042871907 0.17588395 1.3768669 -0.34959158 -0.45481944 -0.24228424 0.48900798 0.053834032 0.47351164 0.7964515 0.47015327 -0.74351305 -0.09764911 -0.40527803 -0.18111686 1.5845037 -0.46556327 -1.5483272 0.018754538 0.8325829 0.19545454 -0.5621436 -0.22808588 0.9562254 0.36487916 -1.0841879 0.16116789 1.6337897 
-0.103233606 -1.0210346 0.8544587 -0.63208115 0.17599778 -0.35897025 -1.335281 0.5121297 -0.42986938 0.75848997 -0.35936353 -1.1509116 -0.5937004 0.3647011 0.05754629 -1.1992346 0.2957936 0.08934777 0.20743981 0.61875296 -0.71369225 0.1400767 0.4880161 0.77862924 -0.83460796 0.2785201 0.38500345 0.14551878 -0.13478273 0.43505895 -0.7375661 0.51048744 0.7739671 -0.022368897 -0.7473144 -1.3595643 -0.34002197 -0.98659194 0.44106176 -2.4460213 -0.017741341 0.9943457 -1.1465973 0.3966505 -0.05634187 1.3434858 0.027043443 -0.4175522 -0.30804992 -0.43092385 -0.541888 -0.1622292 0.23086673 0.6575667 -0.478544 -0.26513606 -0.7569073 -2.7067327 0.663798 0.45109773 -0.18760546 -0.47509775 -0.61714286 -0.2653094 
1.1084821 1.2667301 -0.5608988 0.29525787 0.38295323 -0.081859514 0.2774416 -0.2700599 -1.0084183 -0.095358714 0.19762814 -0.6889456 0.76010406 -0.7257513 0.32338935 -1.30363 -0.27201787 0.30723348 0.37317935 0.9439571 -0.123602696 -0.021369636 0.22422527 0.9069287 -1.1506808 0.9854489 -0.47468445 0.38676223 0.88921165 0.7050916 -0.51792955 0.30852494 -0.46716905 -0.5642169 -0.600391 -0.79231715 -0.18431605 -0.51589465 0.54076993 0.11837952 -0.16348107 -0.070999265 0.5746514 -1.128331 0.10733418 0.49553904 0.065388314 -0.2351024 0.0110425195 0.5459198 0.53966707 1.1680318 -0.07668727 -1.304313 0.5746451 -0.040478963 -0.20992535 -0.14600435 0.6523364 1.321873 0.20317508 0.03868937 0.35146752 -1.8542187 
0.2637289 -0.10227447 0.16537407 0.61074024 0.31894347 -0.5370827 -0.8127464 -0.93260103 0.07503077 0.49782267 0.40530053 -0.5676266 0.38922593 1.0096449 0.23695718 2.13784 0.04365949 0.7164669 -0.31333557 -0.18762775 0.9682962 -0.52873915 0.1963757 0.61658114 1.272503 0.86648506 0.25450766 -0.73184115 -0.6107312 -0.0076448712 0.50074464 0.63407 0.041144975 0.07528582 -0.24188025 0.039180752 -0.49093613 -0.26932073 -0.041621283 -0.2406143 0.34252667 0.58740246 1.5415245 0.48040968 1.0878234 0.87889224 0.38760066 -0.62851125 -0.36828065 0.16434906 0.051291507 1.3399563 -0.4602214 -0.6157983 -0.96439296 -0.52658933 0.08400929 1.2253035 0.17492136 -0.58101904 0.35645762 -0.7828128 -0.42979556 1.261369 
0.6360392 -0.2965266 0.13478544 -0.12477009 -0.1836151 1.0424327 -0.10503731 1.258711 -0.8603543 0.1920971 0.59883404 0.50012827 0.14134559 0.7394362 0.1120895 3.4705296 -0.61171216 -0.32910833 0.6449236 -0.044192556 0.20165402 0.2689631 1.369504 0.61105716 2.1615508 -0.10261974 0.5829417 0.27699593 0.3881447 0.5785688 -0.38329083 -0.77324325 -0.13673364 0.18060057 0.253632 -0.16479008 0.08606434 0.7338793 0.62567955 0.15016885 -0.883103 0.25901124 0.36692256 -0.06453342 0.615108 0.5031199 -0.73397887 -0.46962214 0.3349058 0.6633899 -0.56443673 2.042289 0.26778224 0.3383014 -1.7102821 0.43347663 -0.34363714 2.0402079 -0.35535938 0.34245756 0.509794 0.34883964 -0.09596141 0.9916963 
1.2129922 0.537059 1.2989255 -0.4159483 0.5417895 -0.32790613 -0.122889884 0.1105725 -1.0060492 1.1386632 -1.2393962 0.6007508 0.13806029 -0.94474715 0.45738548 -1.6746874 1.0344483 -1.6275713 1.2460123 -0.85090107 -0.97811425 0.55483496 0.852398 -0.20117636 -1.3404969 1.3687884 0.57461125 -0.52489334 1.0735811 0.7062378 -0.69734025 0.6097273 0.40585482 -0.5554316 -0.47192258 0.82829726 0.41106036 -0.4294143 0.663391 -0.9772552 -0.5906472 0.9290391 -1.9697843 -0.039509945 -1.2756071 0.14929049 1.3044472 0.51325494 -0.11059179 0.6987517 -0.6624563 -1.4173021 0.010663333 -0.05409465 0.38608477 -0.20553075 0.5308677 -1.6521271 -0.3662669 0.071415916 0.2929162 -0.0544471 0.60183054 -2.14675 
0.07218449 -0.9535779 -0.8285654 -0.53459984 -0.030448806 -0.023716237 0.040208105 -0.3420697 0.0570875 0.82719684 -0.36289537 0.8739666 -0.512168 0.2342492 -0.7704866 -0.56007504 -0.60169554 0.18372464 0.3805202 -0.3774743 -0.47514287 0.4535279 -0.033620007 -0.18092425 -0.6216816 0.09686295 0.51919895 0.33692545 0.32077402 0.038923282 -0.5501893 0.13692863 0.5384178 -1.0053093 -0.31580877 -2.2982514 0.6589217 -1.3710345 -1.1784104 0.10586902 -0.9120965 0.62143385 0.032358844 -0.41569942 -0.39965883 0.019988904 0.2501316 0.15257834 -0.117070846 0.81321335 -1.5676079 -0.58283675 0.47086728 0.6231131 -0.2798755 -1.1349025 -0.3968947 -0.9230848 0.1051348 -0.41352972 -0.294533 0.3848078 0.17071319 0.024864463 
0.3856467 0.37769273 0.1426215 0.09657363 -0.17024411 0.16463737 0.11558421 0.98966116 -0.85387385 0.6089837 0.62016445 -0.44325295 -0.14533544 -0.21638705 -1.3734208 -0.42415154 0.24007604 -0.24013327 -1.4255267 -1.0776478 -0.33555007 -0.009648115 0.026903814 1.4654638 -0.4785905 1.4659506 0.3318612 -1.030113 0.619072 -0.33175203 -1.0363133 0.29536557 -0.297407 -0.020455949 0.452447 1.0257046 -0.013716636 -0.42581892 -0.8736797 -1.6902163 1.3972055 -0.12248377 0.8445537 -0.24212733 -0.9255953 0.70581746 -0.35445273 0.088902116 -0.19071798 -0.031052904 -0.7184437 -0.8990147 0.50580597 0.7062672 0.2683313 -0.16544068 -0.36489382 -1.0342927 -0.65931356 -0.473892 -0.97012275 -0.084315844 0.19988048 -2.119917 
0.4167187 0.21201536 -0.24087588 0.4970527 -0.45506287 0.8527477 -0.051158804 1.0029694 0.2481251 0.7972438 0.7648927 0.114773646 0.45591736 -0.081116624 0.12857135 -1.478383 1.6480621 -0.904796 -0.76156324 -1.0421557 -0.13831918 0.57611054 -0.22982484 -0.42341346 -2.2987602 -0.004626035 0.1895683 0.22303411 0.8019276 0.91756797 0.6387682 -0.075072624 0.35828927 0.523525 0.40126026 0.71795756 0.31673387 0.0725155 0.18662731 -0.19443241 -0.5640204 0.58611715 -1.1202611 -0.9381049 -0.58616054 1.349507 0.8404963 2.0406117 -0.12509143 0.53189063 0.616948 -1.5837376 -0.88863254 0.5045827 0.26971233 -0.44912064 -0.25686693 -1.8421417 0.29456514 1.0515739 0.39257506 -1.4266976 -0.20600975 -2.0905938 
-0.14056349 0.79264516 -0.038543046 -0.5307626 -0.30480826 -0.4476496 1.0386856 -0.17120376 -0.24466228 0.8062649 0.06747918 0.33385512 0.03201139 -0.46900052 0.19656976 -4.100407 0.17940216 0.9170239 -1.2040336 -0.44940132 -0.06393748 -0.4417906 0.7623977 0.3400808 -2.6869183 0.5697053 0.99384815 -0.39171562 0.41809258 0.55913496 -0.14649871 0.1891236 1.8573321 -0.23292658 0.4592788 0.6825113 -0.023889007 -0.6129498 0.31563017 -0.68973863 -1.0409778 0.18686664 -0.16184463 -0.33081692 -2.6678853 0.05571489 0.2970485 0.8333429 -0.35309687 -1.1104498 -0.32320476 -1.2819377 -0.89605963 -1.4938774 1.7938913 -0.037392847 0.4056618 0.21000636 0.74844474 0.26635775 -0.089021906 0.19889356 -1.3673023 -1.4624592 
-0.3408914 0.8631871 1.0907955 0.51519144 0.34251654 0.8579483 -1.169192 1.7547735 0.027390648 0.48435053 0.64544106 -0.13287294 0.06733701 0.21196838 -0.6756746 -2.487604 0.12216291 0.5161945 0.13771045 -0.6958836 -0.30816442 -0.09432715 0.38845786 0.33533958 -1.1532 0.7970814 -0.0022226176 -1.7812741 -0.758825 -0.54641867 -1.7438964 0.69183695 0.5408074 0.7300179 0.11878601 1.2503595 -0.21873304 0.8086435 -0.21255629 -0.17200571 -0.36879689 -0.8859731 -1.1975694 -0.12237942 -1.9901189 -0.09698485 -0.09834327 0.2874219 0.1728457 -0.567041 -0.4293714 -0.96226203 -0.28023618 -0.8451523 0.74738216 -0.33782986 0.25051838 -0.6818645 0.4101565 -0.619903 0.35390416 -1.1273983 0.13420145 -0.8547651 
0.39346123 0.041011263 -0.16672942 -0.99552464 0.032611 -0.95381504 -0.18605645 -0.112716675 -0.5210935 0.35992178 0.30321664 -0.06680384 -0.63549083 -0.57863283 0.1695791 -1.5109978 0.753435 -0.29923263 -0.6545214 0.7440313 -1.5716969 -0.5434838 0.349629 -0.65976524 -0.06770757 0.23585398 -1.0893464 -1.3275563 -0.101114556 -0.46111143 -1.488564 0.41685387 -0.18158917 0.81931025 -0.22069667 0.7630896 -0.3161099 -0.43310437 0.23903278 -0.13887894 -2.254337 -0.10411503 0.028126208 -0.29008624 -1.6324046 0.14399667 1.4562012 0.3347862 -1.2970479 -0.3910335 -0.41254532 -0.9395318 -0.31235287 0.019297024 0.18553908 -0.48163393 0.49339703 -1.6377462 -0.31257197 0.24608049 0.44073248 0.45207348 -0.58733016 -1.6022099 
