0.09227478 0.043579333 0.08824516 0.085334636 0.006142266 0.049828313 0.021616139 0.061135195 0.04827202 0.066386364 -0.090483725 0.07425531 -0.0731087 0.07916158 0.017420374 -0.06942454 0.057905443 -0.07104231 -0.03903506 0.0197637 -0.038017884 0.029476874 -0.0072427318 0.07613868 -0.07901723 0.07626591 -0.08278419 0.059746884 0.0759578 0.01995454 0.051323257 0.10447564 -0.009692885 -0.097508214 -0.047479667 0.0008499101 -0.06316337 0.005237147 -0.04870147 -0.054351054 -0.02573707 -0.02026198 0.080395125 0.047566287 0.056518175 0.007650934 0.08655115 -0.014546245 -0.09731797 -0.0039984956 -0.0050847456 0.04390452 -0.04235162 -0.095668405 0.022622712 0.027142353 0.072754614 -0.05564752 -0.06673523 0.07576833 0.039715357 -0.08452861 -0.026882626 -0.049788255 -0.010430604 -0.039163545 -0.061524436 0.07130324 -0.0037558079 0.01888173 0.044032253 -0.01254794 0.09413638 0.08524237 -0.053991243 0.1062488 0.026894905 -0.01157257 -0.027531482 -0.049073227 0.017039947 -0.08286314 0.047632612 0.032522358 -0.019674659 -0.08986316 0.049835466 -0.06463214 -0.038958177 0.025582679 -0.05289369 -0.056833494 -0.03931187 0.04620991 0.08275121 -0.085275844 -0.064900145 0.10786312 -0.0046349615 -0.034531213 -0.007598363 -0.0059074983 -0.0029033422 -0.020466574 0.10755358 -0.058013946 -0.0037722737 0.08427309 0.09863005 0.08791802 -0.07272364 0.005883731 0.013491772 0.09684075 0.027890988 -0.036038518 -0.0013398752 0.0028843507 -0.026191317 0.074624695 0.05109618 -0.0018494129 0.042722605 -0.06482914 -0.032570384 -0.0069667473 -0.028675437 0.10574115 
0.04995305 0.033281796 0.07956987 0.089499764 0.09407406 0.015793622 0.046952195 -0.04310265 -0.014504306 0.030713521 0.015262619 0.05658365 -0.067078546 0.067095436 0.0724751 0.025861524 -0.03721665 0.07179909 0.05954025 -0.0056288317 -0.042524718 -0.06899935 -0.021066777 0.06737644 0.06427493 -0.044100344 -0.051883195 -0.07518126 0.058859907 0.023195036 0.0343026 -0.0922699 -0.05463124 -0.022122517 0.025850601 0.10208773 0.007510975 -0.03954155 0.062337182 -0.06504272 -0.08187729 0.014739975 0.04367157 -0.06142236 -0.06973216 -0.078404516 -0.019713864 0.04982049 0.041084982 -0.014463969 -0.048089135 -0.012143172 -0.013676487 0.0374782 0.08332082 -0.082450345 -0.08552447 -0.080154344 0.025423639 0.09833562 0.003255181 -0.031773873 -0.08342759 0.041235976 -0.0022088066 0.08699962 0.041420944 -0.03720449 0.073895045 0.055419795 -0.08744088 0.08242064 0.058264844 -0.021087915 -0.0986842 0.04618215 -0.04028546 -0.07167031 -0.048120726 -0.007076077 -0.006232366 0.10048733 -0.024995558 0.0021651164 0.0179495 -0.06292592 -0.006340146 0.043701194 0.043418743 0.080879115 0.012395278 0.0009563714 -0.079923354 -0.05918462 0.058366098 0.10756148 -0.037542418 -0.050951753 -0.078440204 0.010587886 0.103370525 0.10742041 0.07960824 -0.012849681 -0.07719691 -0.05137859 0.06287178 -0.019495904 0.09274537 0.057792597 -0.023629047 0.024806835 -0.022408977 -0.0703415 0.10207436 -0.07403307 -0.050263 0.04847019 -0.0039413795 -0.08332506 -0.0014605373 -0.022998206 -0.0009874776 0.03137333 0.087235846 0.05476845 0.09771722 0.05155637 
0.07645362 -0.10563211 0.042601533 -0.103214346 0.012561776 0.03620533 -0.10310512 0.048777096 0.01397384 -0.026308984 -0.057592217 -0.07626655 0.0325555 0.056164928 0.07204286 -0.051149737 0.107758634 0.10490725 -0.059030507 0.063843586 0.0042224675 -0.08931749 0.0039120615 0.08901905 0.046578147 0.102180175 -0.004150979 0.0006136969 -0.025187328 -0.06768123 0.00791347 0.04782591 -0.038116887 0.07517729 0.040442787 -0.03967142 0.022627093 0.09081083 -0.045284748 -0.09276854 -0.07153334 0.030652292 0.055895425 0.09819812 0.025279902 -0.038975775 0.10386229 -0.10018498 -0.02552171 -0.07987493 -0.090880856 0.10150314 -0.06828894 0.010064855 0.012317568 0.08963511 -0.07737768 0.024879344 0.029280074 -0.07329406 0.065664284 0.02555526 -0.10076249 -0.010267176 0.046590008 -0.10247232 0.076914035 -0.00015158206 -0.09343889 0.09926798 -0.05009619 0.0071140975 -0.031522848 -0.027270257 -0.10641305 -0.046106316 0.07913766 -0.04018774 0.04661832 -0.017524667 0.07203794 -0.087555915 -0.09587062 -0.07159762 -0.031065919 0.01786331 -0.06850417 0.013583109 -0.10454333 -0.0631246 0.09476883 0.07114702 0.09391642 0.090591945 -0.06570847 0.052083842 0.08924807 -0.046463545 0.05057434 -0.06390101 -0.07730678 0.09874082 -0.10667789 0.004843943 0.028271832 -0.06730583 0.07008707 -0.025577284 0.077688195 0.06177438 0.063735925 0.09261263 0.10083499 -0.1052764 0.025531955 -0.07846795 0.077721365 0.10642146 0.10690168 -0.019450143 0.020239793 -0.016153097 0.03808341 0.10818898 -0.024029821 0.03320556 0.07812112 -0.06486332 
0.031434424 -0.102803096 0.07098935 0.06561995 -0.03198939 0.025974356 -0.03420733 -0.021015234 0.05453115 -0.10203575 0.06838312 0.023884483 0.063329555 0.07021082 0.0020527393 0.0814575 0.016014092 -0.00074641407 0.035989143 -0.051712643 -0.047911618 -0.027234614 0.061635055 0.074681275 0.012248963 -0.10009178 -0.10341679 -0.032047562 0.028493397 0.034273066 -0.017279297 0.07163272 -0.08537343 0.0012191385 0.06617067 -0.053534284 0.005509101 0.07856507 -0.023458056 -0.05044653 -0.05239128 -0.09728362 -0.06383563 -0.10216093 -0.041130155 0.007270865 -0.043671258 -0.035668798 0.05127915 0.06023241 -0.08190759 0.008684248 -0.0018790886 0.048024558 -0.08466485 -0.0784711 -0.0407004 0.04246094 -0.07654552 -0.106113635 0.026350178 -0.10470684 0.09074598 -0.0763711 0.011715144 0.00417351 -0.011207752 -0.018088765 -0.0719298 0.013408303 0.0075718835 0.096028216 0.0070498586 -0.028532892 0.06683328 -0.060556732 -0.015235104 -0.07316561 0.027746372 0.085331984 0.028641142 0.04957994 -0.060437877 0.035335936 0.07615196 -0.05588244 0.011917256 -0.020555384 0.03902299 0.0024125203 0.0941096 0.046603538 -0.0660345 -0.08263292 0.027863525 -0.102771066 -0.060927458 -0.040719397 0.059948035 0.032965936 0.0011978224 -0.06234696 0.06509062 -0.0011249632 -0.045627937 0.060019247 0.07082682 -0.081952065 0.08946616 -0.08867896 -0.0029845685 -0.08792721 -0.028994031 0.014310323 0.0759343 0.037880547 0.0065821633 -0.04769652 -0.00078920275 0.098821126 -0.10698316 0.017765112 -0.0797855 0.020674415 0.004290864 -0.055087194 0.0836506 -0.052403487 
-0.07126432 -0.06735502 -0.096800745 0.031210966 -0.035579473 -0.08546126 -0.013117768 -0.06839667 0.078515954 0.08666732 -0.06726737 -0.072349586 0.09819416 -0.09472612 0.10707546 0.06420357 -0.028762184 -0.006229788 0.054535843 0.014488824 0.019648872 0.07161438 0.041786186 -0.04781607 -0.026604116 0.00676433 0.059608124 0.095781185 -0.051407754 -0.08055799 0.035848506 0.05541379 0.05538989 0.027245276 -0.061758786 -0.037260346 0.039581455 -0.011306345 -0.07684685 0.00887008 0.06386892 -0.09512178 0.000525482 0.05288791 0.08186447 -0.04393989 0.0058774054 0.053348847 -0.053456984 0.1050609 0.10776537 0.023589171 -0.010457419 -0.069245294 -0.10778065 0.07667463 -0.010749683 -0.07332343 -0.08629212 0.047146447 -0.004840791 0.0067704692 -0.076332465 -0.06332646 -0.06951451 0.0042010993 0.089590065 -0.04091289 -0.09058934 0.103056036 -0.020343743 0.03571319 0.077778585 0.10051934 -0.06650935 -0.010980271 -0.0231812 -0.029227398 -0.038487047 -0.0584986 -0.04714732 -0.10737449 -0.030556202 -0.047603272 0.0027775243 0.104787596 0.08564585 -0.039883032 0.00018492341 -0.07665878 -0.074205816 -0.07955146 -0.009667747 0.00739488 0.081069045 0.08375842 -0.040272266 -0.062185366 -0.07156123 0.08937525 0.047218584 -0.017081104 -0.0816185 0.049254723 -0.010527179 0.055601545 0.025892265 0.010977276 0.08652892 -0.034535192 0.091255404 -0.097376816 -0.035849363 -0.018479317 -0.012097642 -0.014785737 0.04217247 0.081298225 0.09985071 0.047704853 -0.029251456 0.078646444 0.021575816 -0.0884267 -0.008573398 -0.0755295 0.0017241538 0.04929284 
-0.016214497 0.010774337 0.103343494 0.057214476 -0.03172788 -0.05158548 0.053309657 -0.039488897 0.06467981 -0.079857334 -0.07509206 0.009102181 0.10580299 0.007382542 -0.06951115 -0.04574441 0.07771798 -0.075170495 -0.093637295 -0.10767442 0.0438335 -0.050593566 0.06949987 -0.035461776 -0.068016134 0.04263518 0.094182216 -0.08271262 0.036438726 -0.028651848 -0.0732794 0.06997692 -0.070170484 0.07283638 0.0035271868 0.059079207 -0.082536235 0.0145064 0.072956316 0.060404815 -0.059130676 0.06725512 -0.049686465 -0.06276053 -0.031601958 0.034359403 0.035966612 -0.06487772 -0.09320034 -0.0072219074 0.09061048 -0.0019716695 -0.04354766 -0.061408576 0.0967012 0.06472879 -0.05127889 0.019239716 0.05582223 -0.016182005 0.05285325 -0.060146462 -0.035771236 -0.0022872165 0.07030132 -0.1055258 -0.09135844 -0.10129881 0.09659944 -0.024555042 -0.04010079 -0.06908834 -0.06417913 -0.10000813 -0.047372144 -0.0412457 0.056210972 -0.062313665 -0.06983073 0.014832579 -0.08374345 0.10346774 0.096911855 -0.0336731 -0.03885243 0.006307885 0.05468648 -0.10183862 -0.039591365 0.081755005 0.043692447 0.051357843 -0.080445714 -0.071601756 -0.10147669 0.015929587 -0.09326827 -0.06133778 -0.08764478 0.10487973 0.055873044 0.062471755 -0.031873472 -0.025875226 -0.07144658 -0.07774799 0.09675037 -0.0014686957 -0.09235726 0.086622976 0.06411474 -0.10755745 0.028839715 -0.027381316 -0.07551606 -0.0772015 -0.08270575 -0.09426798 0.012244314 -0.056912806 -0.04892387 0.022887789 0.10006637 0.10579016 -0.07212995 -0.086687624 -0.091801666 0.10148681 
0.081437446 0.0063613877 0.080657534 -0.08518525 0.049636416 0.027820982 0.081987806 0.055550598 -0.08330227 -0.07524323 0.03426718 -0.018417113 0.0836774 0.10696616 -0.05356252 0.07410204 0.10155379 -0.03270013 -0.013929889 0.073222704 0.072913446 -0.021760717 -0.044387735 0.016045652 0.07579059 0.078893654 -0.059218325 0.008226104 -0.06162997 0.017302684 0.06185312 -0.03909135 -0.034462586 -0.04229094 0.029492669 -0.014334708 -0.00010726601 -0.014050603 0.06789034 -2.0571053e-05 -0.025714226 0.051692776 0.07918871 0.087808825 0.093712844 0.08331499 0.010967106 0.075165726 0.029745556 -0.055526316 -0.025335006 -0.10432609 0.006382987 -0.093804255 -0.009400003 0.06317971 -0.03377463 -0.046277665 0.009763658 -0.0367281 -0.06462078 0.038234524 -0.0071309283 0.005868502 0.02921421 0.10735483 0.048780285 -0.04182004 0.032651015 -0.090683594 0.104983546 0.012461863 0.076971956 -0.06944655 0.024548955 0.06521616 -0.056724474 -0.010118432 -0.018786348 0.1000048 0.028120197 -0.058212448 0.03127957 0.06495967 0.07144564 -0.0923201 0.048207752 0.05464066 -0.0805816 -0.07613288 -0.005227186 -0.07570584 0.012869112 -0.039961755 -0.008276254 0.0027528778 -0.00022792071 -0.07341743 -0.07051058 -0.022290304 0.046645068 -0.035550565 0.031821437 -0.088044 0.007453032 0.10457554 0.08050036 0.043949224 0.042218156 -0.10324243 0.06171409 0.10130999 0.08481752 0.05268114 0.015986755 0.046660624 -0.045533627 -0.053270277 -0.09341876 -0.02868896 -0.03377863 0.043674 0.039531328 0.08531693 0.07899279 0.07902474 0.023558013 -0.051215086 
0.0017344803 0.10371304 -0.074892886 0.10704655 -0.09416337 -0.06424187 0.096163966 0.018353365 -0.03875967 -0.06888501 -0.023081236 0.1028591 -0.055588365 -0.023314789 -0.008386046 -0.055339277 -0.06154658 -0.022784993 -0.07983173 0.05048261 0.0069107935 -0.084977254 0.1064064 -0.05743491 0.09710079 0.0842847 0.075209655 0.09879992 -0.052456606 -0.0010980964 0.008221559 0.003989227 -0.031929456 -0.07290003 0.09748695 0.08129854 -0.010515854 0.10355728 0.048804633 0.055993028 0.10633377 0.037253685 -0.02919808 -0.003627278 -0.005343847 0.09485661 -0.09429572 -0.0071184337 0.04024703 -0.040976174 0.09553432 0.017468713 -0.08556628 -0.051768523 0.024262793 0.021574818 -0.10509842 0.06109137 0.08981673 -0.012402065 -0.023617223 -0.026480772 -0.07876177 0.078277715 0.011874363 0.10176093 0.1057139 0.0951437 0.08847239 -0.020711072 -0.082674034 0.009073511 -0.021422558 -0.10236586 -0.076770045 0.088772036 -0.06238944 -0.06446417 0.08277444 -0.09180151 0.0728303 0.06823342 0.024466641 -0.102905996 0.07964822 0.07210607 0.09211602 0.049018122 0.0029928014 -0.050408177 0.033862688 0.032397814 0.038692363 -0.07932803 -0.027760461 0.10227325 -0.094073474 -0.06543846 -0.107239865 0.007582538 0.06354306 0.07101294 -0.0013215542 -0.038716935 -0.07458072 0.053473763 0.094388254 -0.039912403 -0.051422544 0.08812099 -0.08268898 -0.024382792 0.09070382 -0.102453224 0.075716905 0.08645744 0.05500775 -0.06626736 0.0021539107 0.03291037 0.09635074 -0.004521504 -0.091505006 -0.06204455 -0.08823514 0.01591266 0.10641991 -0.0040720254 
-0.27313003 -0.097356334 0.10563098 2.0988333 0.09124961 -0.61729443 -0.57428354 0.33419952 0.16165362 0.29775214 -0.19308689 -0.027744198 -0.30224323 0.29180667 0.6868974 0.038584072 0.5202383 0.72057945 -0.44779038 0.57771283 0.000429635 -0.5828123 -0.35426742 8.123405 -0.19496603 -0.3502813 -0.1991556 0.9665904 -0.62993914 0.6451371 0.5718622 -0.20552993 0.6186302 -0.26634333 0.23913147 -0.14573659 2.3028872 0.62326926 0.079751454 0.09342774 -1.065047 1.4021469 0.015291996 1.1492869 0.49395132 0.008373823 -0.59120935 1.6479324 0.0714802 0.033310086 -0.097697854 -0.17723097 -0.4044895 0.42985415 -0.42443576 -0.3303142 0.55842 -0.087547004 0.2055526 -0.059144292 0.82269335 -0.526131 0.021182312 0.48190618 -0.24139042 0.16402411 0.22316717 -0.52605444 1.0316414 -0.2016567 -0.20524366 1.1400537 -0.40467376 0.1714685 0.82429165 -0.5016091 0.07729236 2.0538745 0.60961944 0.08767044 -0.26171076 -0.4643174 0.09824331 0.5018619 0.6486634 0.20830534 -0.52178586 -0.13447095 -0.024821306 -0.2349608 -0.254953 -0.008528354 0.23862953 0.120458506 0.02738823 -0.07364184 0.012642401 0.052365668 0.7953107 -0.30947292 0.5675949 -0.37169024 0.8613818 0.47915515 0.049117394 0.5335052 2.256283 0.05542949 -0.076527104 0.03285404 -0.5008766 -0.69036466 -1.717754 -0.33270273 0.99530786 1.0432782 1.22779 0.19074538 -0.7567261 -0.34671232 0.7863921 -0.06481397 -0.6975489 0.048104618 -0.3680773 -0.20020108 -0.67468107 -0.36108518 
-0.30443737 -0.5523353 1.0305065 1.731787 -0.27157253 1.1605589 -0.75801677 -0.2119913 -0.28376186 -0.43079916 -0.7549717 0.7396887 1.5609504 -0.84009033 1.4288844 0.20721488 0.24560536 0.5295432 -0.4660311 0.4992709 3.4179227 -0.068392485 -0.17433275 1.3724227 0.1715439 -0.24251878 -0.31445122 1.0004685 0.033933356 1.7226555 4.6169267 -0.4130079 -0.5111331 -0.2375812 0.15258545 -1.5667137 -0.5985975 0.15587628 0.71513146 0.9473276 0.1152785 -0.43529344 -0.09205225 0.16295385 0.31170273 -0.29492426 0.23846805 0.9468356 -0.49164775 0.5238177 0.6286957 -0.102702424 0.5228241 0.5137696 -0.18090273 -1.07032 0.3537143 1.0949835 1.5160699 -0.29508683 1.458064 -1.2442056 -0.39317343 -0.7953777 -0.5730876 2.0924563 -0.46503186 -0.74712616 0.23617901 2.2114494 0.057154827 0.62399477 -0.96885663 0.48401245 0.8912115 -1.7931429 -0.18198854 0.48470336 -0.1423197 0.48173875 0.12515007 0.35798538 -0.235199 0.25842845 -1.6384134 -0.6049351 -0.08242733 0.27399606 -0.40582132 0.28696847 0.10095387 -0.66647303 0.201788 -0.25280973 -0.6596827 0.6190702 -0.5172432 -0.043874603 1.0583061 0.45598355 -0.3974441 0.37629196 0.11327437 0.007019527 0.12635507 0.41711977 1.4876264 0.71163106 0.10525504 0.14100088 -0.6402447 -0.60215086 -0.3964627 1.0256907 -0.31889582 0.94593984 0.22830705 0.013137705 0.15120128 0.042099275 5.570393 -0.5042806 -0.5552961 0.7767697 -2.7405012 0.6358591 -0.20735702 -1.0149559 
0.47916406 0.117370695 0.6418552 0.39228955 -0.18754645 -0.25324932 1.9196914 -0.44913006 -0.2560059 -0.95484424 0.7671252 -0.3204112 -1.6701081 -0.6746264 1.3044884 0.1389269 1.0473787 -1.0875386 -0.30282906 0.5202232 -0.47450426 -0.6904557 0.032030858 1.5765724 -0.759253 -0.10973358 -0.45107397 0.47120866 -0.10837445 2.8992507 -0.34326732 1.2761517 0.29666206 0.3899881 -0.2550936 4.759582 0.63070804 0.1941537 -1.4432298 -0.12999201 -0.3105948 0.053945873 0.8935188 0.66609293 0.20399293 -0.8337911 -0.8338304 0.34332782 0.11809641 -0.7165347 0.39607295 -0.18370157 -0.71202946 0.5036926 0.55506253 -0.33228487 1.4589046 -0.2653975 0.2703882 -0.17099646 0.8619278 -0.9221442 0.2922236 0.1662411 -0.0026966962 -0.64157367 -0.7254614 -0.21769911 3.1651077 -0.37322423 0.02354775 -0.111933045 0.38843527 0.2350378 0.27941954 -0.2605203 0.40476102 1.5921971 0.2078948 -0.20114669 0.17112747 0.3984559 0.06500021 0.09929834 1.0110397 0.14981045 -0.7639449 -0.03866292 0.41719952 0.7392419 -0.4585541 0.11574292 0.07456211 0.33737934 -0.49687815 -0.63846594 -0.0735875 0.56369036 1.912268 0.05659119 0.11029642 0.1967975 -0.0033455424 -0.5462587 -0.30505115 0.2078546 -0.24671806 0.026102014 0.4819303 0.35180527 -0.23348089 0.121431455 -0.21479207 1.0360882 1.348451 -0.98962146 2.0258815 -0.4178207 0.30366266 0.13381852 1.0044122 -0.018812057 -0.93622875 -0.30924577 0.770977 -0.49655837 0.7724378 0.35486066 
0.34327415 -0.36992928 0.2763471 0.34295404 -0.274389 -0.29902273 -0.4852357 -0.032711327 -0.1254771 -0.23656519 0.31778783 1.2319592 2.610352 1.4050162 -1.6511502 0.32406613 0.67008144 -0.1042688 0.17072526 2.1693468 -0.76005083 0.57944095 0.12428677 1.8839993 0.61047274 0.24750684 -0.117168434 0.5466147 -0.110282235 -0.8422602 4.337824 0.172894 -0.6179966 -0.7764982 1.7746572 0.4440048 0.30092603 1.1644417 -0.7338142 -0.31470028 -0.022977727 -0.034218557 1.0715466 0.4601767 0.41054568 0.26847273 0.04177093 0.08573828 -0.042063456 -0.29071105 0.38659152 0.1826534 -0.9837727 -0.4909627 -0.49726942 -0.36125046 3.3880634 -0.4775862 -0.27141237 0.60712606 0.18890488 -1.0743426 -0.30628768 -0.73346233 -0.49967813 -1.4849088 0.5012741 0.3720261 1.3818326 1.7878591 -0.35470647 -0.25281855 -1.1917262 0.36948064 0.031037271 2.4342217 0.7639614 0.031258743 0.20992672 -0.55192965 -0.88100195 0.77716714 0.7506653 0.080941685 -0.88031036 -0.10173596 0.28492293 -0.1916975 0.76638544 -0.464499 0.07041624 0.1343647 0.70939046 0.400223 0.6882557 -0.26565877 0.43773773 -0.24817929 0.25456384 -0.5905826 0.19768323 0.19539148 -0.6007153 -0.16215807 -0.55302626 1.051504 -0.56953436 -0.42933118 -0.21599786 -0.908406 -0.008653263 -0.23406917 -0.16939639 0.6978824 0.48756012 3.7084568 -0.755994 1.2096785 -1.0928462 -0.40250805 0.21297653 -0.53868675 -0.5029958 -0.22236095 0.123477735 -0.40800294 -0.43593222 -0.27874377 
0.70929843 3.8131185 1.202068 1.8242106 -0.5623354 -0.33606255 2.9138396 -0.05570862 -0.23548563 0.096531 0.36253044 0.5839302 -0.5966158 0.36839056 -0.6977463 -0.18750918 0.21919878 0.3219614 -0.48082954 -0.4090901 -0.582893 -0.3006161 0.054656945 0.6115548 -0.34262705 0.0836718 0.37412545 0.24367273 0.9869773 1.2558725 0.2133198 -0.38907474 0.060123947 0.0032396996 -0.56918 1.7750063 0.9715823 0.24498652 -0.7067255 -0.10734317 -0.16015565 -0.5364904 0.10183601 -0.048974928 -0.82610756 0.61774844 0.20770036 -0.7877186 -0.31689075 0.69575286 -0.1360163 -0.13173214 -0.43155432 -0.56317544 1.2689976 -0.5841855 0.12802163 -0.3323285 -0.3991123 -0.00040060395 0.028251933 0.3547435 1.0209178 0.028991133 -0.5318761 2.5841932 -0.034504306 0.23126712 0.49876344 -1.497942 0.039409775 -0.8896022 1.7247851 0.36373705 4.515878 1.4794439 0.47208622 -0.96490216 -0.27376089 0.23239917 0.09391223 -0.08901696 -0.0361041 -0.89639264 1.7880114 0.7283827 -0.761508 0.2841616 -0.7168991 -1.5027002 0.19155121 0.19444044 0.42907056 1.0536997 -0.113294795 0.46063185 0.4968129 0.8981774 1.2335314 -0.17059186 -0.2754567 0.37687203 -0.23777989 0.25255036 -0.09310672 -1.1434093 0.17101277 -0.31264848 0.17550762 -0.46806583 -0.012105278 -0.306405 3.142005 0.30636126 0.008159467 -0.8215581 0.5968387 0.26980615 0.20823687 -0.31697762 -0.6828455 -0.83765185 -0.058802746 -0.049555164 0.34721032 -0.56287414 -0.5521208 -0.21793889 
-0.8118809 -0.8250903 0.5314227 1.2896788 2.683468 -0.62756747 -0.061356906 0.21980383 -0.6866527 -0.6276726 0.085814774 -0.43392265 0.42289296 -0.15293822 -0.36070713 -0.9281935 0.4862065 0.7811922 1.0863379 1.1365205 0.6229489 -0.20077172 -0.41501614 0.07914269 0.043144707 -0.0055703353 -0.6302521 0.4823821 -0.23967311 -0.11904748 0.44921252 -0.6595163 -0.37183183 0.9404866 0.67269635 -1.507359 -0.34161657 0.6191356 -0.5646351 0.36238727 0.30401906 -0.2360366 0.7936585 -0.09646603 1.3892895 0.010183813 -0.3484509 -0.44260165 -0.19979602 0.032825295 1.0804507 -0.67185736 0.38594186 0.05288554 -0.3275696 -0.5729117 2.8870573 -0.7614812 -0.38952544 0.07951536 -0.23986764 -0.43401754 1.2756644 -0.33082452 -1.37749 0.10719567 -0.59621274 0.39532095 3.845352 0.7744018 0.40216082 0.27194774 0.07486984 0.09915161 -0.7225766 0.25277686 -0.27485898 2.571409 0.35645226 -0.44564632 -0.31468904 -1.0821893 0.80364174 -0.24383198 0.70404375 -0.6619457 -0.64354795 0.025466288 -0.05923859 0.018988717 -0.43164203 -1.1984742 0.5494393 0.92143816 -0.08227515 1.1333778 0.41852063 -0.12070783 -0.7062664 -0.1885151 -0.4083836 0.03410971 -0.0729638 -0.8866513 -0.047802083 1.0259842 -0.8933101 -0.2454189 0.8766611 0.13514845 0.44020808 -0.19133651 -2.176886 0.6788847 0.04363511 1.6008509 -0.62916714 -0.17882967 0.8926015 -0.6075695 1.3693469 0.17232145 -0.4733457 -0.2305209 0.39761645 0.09838067 0.5567251 -0.21511635 
0.48267654 3.8708136 -0.652845 1.505638 -1.4047403 -0.85249954 1.6816876 -0.33337426 -0.45806286 0.56986016 1.8149848 0.061379794 0.2072629 1.0663786 0.07268893 -0.33224943 0.13536409 0.6404909 -0.17227744 0.8076023 0.12674864 0.019692529 0.21610829 0.17022085 0.116910934 0.41140762 -0.91936636 0.2769132 -0.2005527 -0.56563586 0.5609085 0.5772755 0.036653973 0.6024509 1.6177018 -1.0855933 0.6719787 0.8200615 -0.75826484 0.72325665 0.32751107 1.4952894 0.13842674 -0.30286068 -0.595859 1.0070654 0.57620263 -0.51607746 -0.040174473 -0.097362004 -0.004762249 0.10874331 0.5057861 -0.10574877 0.45996016 0.7138451 1.9763765 0.4236861 0.7072155 0.254594 2.0187583 -0.36205086 0.6316683 0.1344678 -0.77597237 3.7932787 -0.06760909 -0.8541519 1.5962756 -2.1371896 0.15264846 -1.2338599 1.1020563 -0.6079764 3.0109563 2.5392792 -0.32407418 1.7402325 0.23424704 0.35157707 -0.18442842 0.6337465 0.49079117 0.20281215 0.4508452 -0.00066938106 0.12688442 1.1611704 0.1310721 0.5051429 -0.054210573 -1.1528416 1.0616916 0.6729965 0.38387 1.3780544 -0.7492065 1.3672453 1.4131753 0.005199339 -1.3608565 0.22740595 0.12939593 -0.25236338 -0.17686693 0.13918933 4.206287 -0.24988471 1.9247772 -0.4759017 0.31382403 -0.35417685 1.7576615 0.4177772 0.9770512 -0.5512399 -0.12047201 -0.28046185 1.193884 0.38022417 0.19401993 0.12799758 -0.53610796 0.2772904 3.0581813 -0.8845988 0.17631513 -0.36971837 
0.83522826 0.028972426 -0.29664636 -0.56890756 0.6478945 -0.03302937 2.0241952 -0.81441516 0.07109886 0.66757643 -0.9862591 0.5639444 -0.6951713 -0.4492978 -0.24337956 -0.005614945 1.2422649 -0.27001923 0.7642332 1.0416969 3.3059995 0.39921325 0.7071816 -0.7896143 0.04689297 0.6657201 -0.023702819 -0.31193864 1.9354471 -0.09641206 -0.46866572 -0.063887306 0.3944085 0.029747311 0.1545138 -0.55180085 -0.680375 1.0189288 0.471788 -0.044687785 1.9520307 -0.82876915 -0.76078933 -0.21771288 -0.44610795 -0.58155185 0.6496594 0.3867712 -0.4000459 -2.228587 0.63969916 -0.09986617 -0.6020025 -0.5655377 -1.0614822 0.18797587 0.88063306 -0.6496209 -0.8375491 0.5559544 0.215056 -0.61014366 0.37666246 -0.42078808 -1.2772733 -0.09689503 0.36459813 -1.0159564 -0.8070922 0.6545217 0.07577514 -0.020942194 -0.298088 -0.24148595 -1.2377197 1.2405764 -0.21037367 1.1178905 -0.1446505 0.5331828 -0.14491056 0.58280516 1.0016847 0.09539382 -0.7078588 0.5554089 1.1080339 -0.41536725 0.025918575 0.19852634 -0.92755514 -0.052936062 1.4354212 1.3408768 0.04834502 -0.17799018 -0.14739065 0.50042796 -0.5392601 0.22500317 -0.1007022 0.23206672 -0.5720459 0.5537113 0.2536467 0.18944088 -0.7152705 -0.2113284 -0.987383 0.29987317 0.5615712 0.5459093 0.7958552 0.11699119 8.649257 0.40000838 1.4316486 0.5421887 -0.074091524 -0.30767593 0.012349249 0.114889406 0.17211033 0.34354052 0.44667614 0.569493 -0.39359632 -0.54572 
-0.38256863 0.77696794 0.46791404 0.5364979 0.62651706 -0.09519258 0.5980154 0.21660486 -0.1971955 -0.12667091 1.0839275 1.0120418 2.3882656 0.39054433 0.5970495 0.4849295 1.7560816 0.72905153 -0.27999312 -1.0480201 0.2673801 2.1437783 0.7182646 0.4900685 0.5029806 0.11712392 0.5833955 -0.20207272 0.27273142 0.25519115 0.57450384 1.8759995 -0.14024939 -0.19925329 -0.3636325 0.94285893 1.2766056 0.033856828 0.30905148 0.20733263 1.0330522 -0.36364084 -0.4129481 1.0483447 0.40075025 0.12763596 -0.1781356 -0.7757581 0.11719833 -0.28085548 0.76434654 -0.6342848 -0.10972992 0.026650598 -0.5767897 0.9431642 1.1573628 -0.14739627 -0.12586181 0.16531996 0.52441806 0.18583588 2.4661922 -1.8924106 -0.2988994 0.15031749 0.41845593 -0.7402162 0.6848612 -0.3233015 -0.097133875 0.41625634 -1.1487362 1.2197266 -0.9421157 0.5631204 0.35604957 0.64824283 0.34793118 -0.62393683 -0.42616794 -1.2160401 1.1831048 -0.6931193 -0.6587526 -1.1336293 0.46019372 0.6700294 0.0013739341 0.73018163 0.34181172 0.55424106 -0.02341726 -0.7775286 -0.4054756 0.35829356 -0.3220812 0.64652324 0.596376 -0.40720838 0.09136282 -0.09312333 0.3168176 0.11255744 -0.2963296 0.52578753 1.26401 0.43442902 -0.49162605 0.86407995 0.3603239 -0.37738845 0.27649757 -1.0158058 0.89483196 -1.3762803 -0.22930174 0.44807974 -0.64466447 -0.015688134 0.31562704 0.33317906 -0.09208937 0.57145464 -0.36485553 0.49669713 -0.38629076 -0.40884358 
1.2209855 0.5542969 0.24584123 0.12875311 1.1131531 -0.1484522 -0.79367477 -0.6309669 -0.4605746 0.21374074 0.025519699 -0.49268296 -0.6321937 -0.74502826 0.03179973 0.014512742 0.042000774 -1.3512352 0.10971039 1.8309069 -0.4751263 0.58645046 -0.14517473 0.40915972 -0.17799176 -0.05767841 -0.06929901 1.1413164 -0.09739704 0.69390744 3.0205896 -0.4251242 -0.26120618 1.4252018 -0.89430875 -0.39100793 -0.27181938 0.026789004 0.61915517 -0.12470576 -0.7723419 1.146668 0.31045297 -2.3821514 1.2237748 -0.4527056 0.6931775 0.7366062 -0.07166557 0.57150525 0.04317491 -0.7362561 0.6932669 0.092775166 -0.4462316 0.074796826 -1.2981954 0.59827715 0.8056176 0.1462823 0.5725049 -1.5155652 -0.3872694 0.231319 -1.3134077 -0.13384874 -0.6579361 -0.25693798 -1.1439265 -0.39861426 -0.09820421 0.09287224 2.3034675 0.48602626 -0.110349424 0.311452 0.753004 -0.34889072 -1.5926557 1.3776447 -0.12685928 -0.27417436 1.0627209 0.44479555 0.008980186 0.19099742 0.784299 -0.9601249 -0.24423575 -0.34933382 -0.86938095 -0.5773177 0.72073185 -1.9872272 0.2573117 0.16655515 -0.51091397 -0.3958695 2.422794 -0.7785847 -0.1657781 -0.09161225 0.21098047 -0.17279364 0.15961532 0.24663284 2.5186355 0.3365497 -0.6799041 1.5385966 -0.9179097 -0.7705049 -1.0349054 -0.584256 0.5248608 1.9378549 0.92757654 -0.02039772 -0.07251953 -0.34295204 0.4631906 -0.14782506 0.29105732 -1.0684897 0.2923658 0.10351294 -0.1226624 -0.635518 
-0.50164384 -0.59320426 -0.28144184 1.8442583 0.2738389 -1.0376296 0.08464732 -0.5058414 -1.2277005 0.24545461 -0.4090753 -0.9987638 -0.98760915 -0.34216794 0.11528835 -0.46205318 1.0024152 1.5591972 -0.39373863 -0.69113004 0.40387508 1.7742203 0.34726122 1.9471847 0.023947839 -0.23015025 -0.0815163 -0.37269664 0.98295027 1.9976047 -0.80182457 0.28257078 -0.12072043 0.57945573 -0.22090077 0.8995204 -0.23673649 0.9344016 -0.8724597 -0.060221132 0.8226787 -0.13017912 1.082264 -0.5124689 0.2912408 -0.13380685 -0.86572593 0.17307423 0.27343407 -0.7189692 0.9105937 0.27545342 -0.3332085 -0.69122845 0.30205223 0.06667536 0.9045931 -0.73387104 0.46778446 -0.053693213 1.049331 -0.8563756 1.7702194 -1.7821604 -0.70354563 -0.25288823 -0.18693817 -0.21381979 0.82359284 0.16165356 -0.20836923 0.48490167 0.35909355 0.60885626 0.770882 0.71358407 -0.29820448 -0.01565687 0.44557115 0.34413132 0.27175793 0.70948976 1.2536832 -0.90396345 0.7899478 -1.0243299 0.48904136 0.6324147 0.5522625 0.95878154 0.0024353852 -1.123936 -0.93563575 -1.7541639 -0.61296237 0.15725838 -0.70621943 -0.74023974 0.58294266 -0.74741554 -0.034051765 0.21629983 0.4055024 -0.30922416 0.6025771 0.49725646 -0.5156653 -0.45861346 0.2520513 -0.17400739 0.06602789 -0.20497438 0.10324992 0.27123433 0.17882912 -1.4007353 2.1641045 -0.24369973 0.710313 0.08492265 -0.3564989 0.6152208 0.8637275 -0.6272164 -0.5425399 -0.08640062 -0.5518969 -0.5455942 
0.47252798 -0.34156862 -0.10893908 0.013090447 0.7854987 -0.14533517 2.3823764 -0.620609 -0.46859503 -0.042742535 0.19910027 1.0433139 -0.024842072 -0.70523936 1.7005687 -0.6604238 -1.1451321 -0.8275082 0.28612617 1.1456553 0.030498058 0.90170145 0.5196344 1.612577 0.00872613 0.7427033 -0.3128417 0.8082785 -0.49326262 -1.1211973 1.3585349 0.5723944 0.19612001 -0.7217177 -0.37183782 -0.28113028 1.9519573 -0.08937071 0.31166762 -0.085303865 -0.6945784 -0.6008222 1.332491 0.5624798 -0.68041146 -0.145446 1.7912523 0.71407706 0.8886856 -0.7156662 1.8622556 -0.48344767 0.38974324 -1.1139998 0.9842412 -0.35913557 -0.6018132 -0.55853975 0.12960847 -0.15904617 0.9514552 -1.0860547 -0.069068655 0.5280839 -0.96274054 -0.76425475 -0.1639456 0.21911013 -0.27720854 0.002457069 0.5981305 -0.4353396 0.49633497 0.38166592 1.9769391 -0.7355401 0.37002563 1.4012655 0.26118603 -0.14322601 0.21260637 -1.1232438 1.2548602 -0.3676271 -0.42113116 1.4076313 -0.11205201 -0.7716418 0.8457771 0.08509006 0.34744766 -1.3109832 -0.68189853 1.1657015 0.06716285 1.0066435 -0.5196024 0.22212653 0.3113442 -0.09535858 0.41231304 0.19445655 -0.4168669 -0.16906984 -0.734513 1.0263408 -0.23287743 -0.17137033 -0.94575256 -0.12049174 0.79914373 -0.11717927 1.7809986 0.27083287 -1.7469282 0.84631884 0.39347747 -0.27388245 1.2401898 0.296298 0.77966785 0.30519632 -0.5107425 -0.7938512 0.74766666 0.10883583 -0.55208147 0.12857226 
-0.28650308 -0.32455933 0.41324162 0.24465245 0.9767365 -0.9619809 -0.31363916 -0.37145877 -0.49519086 -0.14693657 -0.90296936 -0.78949744 0.7545824 0.53435355 -0.9979395 0.5965684 -1.1607083 0.43397984 -0.4417334 0.9385226 2.1271746 0.28620595 -0.33375338 -0.05628714 -0.21139903 -0.97511554 0.20450863 -0.76722646 -0.6195339 1.1307604 -0.47345302 0.21558195 -0.8355189 0.67290616 0.6871492 0.75834084 0.11250985 -0.51628697 -0.13364787 -0.17935707 0.09769652 -0.73681396 0.23600517 0.8739511 0.63232297 -0.022330534 -0.056711197 -0.59682953 0.038705263 -0.024775019 1.1003683 0.004790859 -0.91319317 -0.25524735 -0.8165746 -0.025629409 -0.11677793 -0.34180713 0.7538421 0.55879754 1.118727 0.43425336 0.96327114 -0.06187768 -0.69404405 -0.24960324 -0.28222096 0.27589718 0.6405586 0.7937446 -0.7950084 -0.90712243 1.032215 0.22419369 -1.4196067 2.1258457 0.8101585 0.46282136 0.10487965 0.5493184 -0.4972512 1.0946797 0.25808373 -0.811285 0.05628475 -0.07068039 0.15756549 0.14501639 1.3046707 -0.23928969 -0.5996243 -0.42990032 0.50637037 1.2078424 0.39251575 0.7128088 0.30985516 0.68489003 -1.4137034 -0.52206427 -0.26887786 -0.03865611 -0.66940737 -0.55502135 -0.21586451 0.097829916 0.7008415 -0.48059356 1.9987764 -0.07434938 0.015136714 -0.20311503 -0.123174965 1.2535415 1.9795663 -0.9002879 -0.29407424 1.217271 0.20875224 -1.4141645 0.4807681 -0.18124057 -0.07134328 -0.16187783 0.095275275 -0.089244634 -1.0240425 -0.37179723 
-0.13710853 0.36480027 0.57476825 -0.59153754 -1.5047488 0.01342252 0.7078115 -0.31865203 0.0323645 -0.59031445 -0.9160408 -0.01798428 0.12456605 0.47302362 -0.060890447 -0.38698217 -1.2839564 -0.23436102 -0.80311316 -0.2689832 -1.2557968 -0.16101927 -1.0784308 -0.6883144 1.1243387 -0.24876404 -0.6278298 0.18636936 -0.37179044 0.4282568 -0.97121364 1.4695206 0.7729685 1.2135465 -0.36570296 -0.08569599 -0.5942257 -0.52504086 0.51643634 0.6732925 -0.03637275 0.21653275 3.037973 0.016727636 0.054286435 0.675809 1.1827631 -0.22505876 -0.44429216 -0.32224706 -1.3034025 -1.0256559 0.26802766 -0.0044762227 0.18218085 1.223386 -0.16290706 1.0287205 0.9037205 -0.0072787604 0.7568018 -0.7076383 -0.056495104 0.37540042 0.58816046 1.7488997 -1.2200818 0.3866788 0.97846967 2.0871036 -0.0245073 0.19519947 1.0395103 0.3495647 0.94086844 0.34589222 -0.75794864 -0.17991784 0.57355285 -0.04436765 -0.05669876 -0.64641094 0.93162537 0.4150893 0.8005094 1.1208384 0.5693141 -0.46086374 0.3957048 0.24445157 -0.12227402 0.5480629 -0.04656654 0.16761684 -0.45887405 2.492313 0.97942346 -0.2750407 0.25069603 0.1491898 -0.4061239 0.2712616 -0.062003672 -0.10249668 -0.40950832 -0.1818665 -0.037542768 -1.3304888 -0.45016864 -0.37213743 0.6264535 0.42609417 1.7365257 0.475843 -2.6809242 1.3961046 -0.9712622 -0.6359022 0.4729522 0.499916 2.7835 -0.196212 0.33378306 0.86439794 -0.2609106 0.6248408 0.014601492 -0.086498775 
-0.56842184 -0.84634525 -1.0196469 0.17569706 -0.00017278634 -1.5312798 0.22718924 -0.16226634 -0.74286 0.21022254 0.08314185 1.1888655 -0.5446217 0.1619488 1.0264566 -0.38302213 -1.2876896 1.3794936 -0.055521064 0.27403113 -0.3744047 0.41136134 -0.5922443 0.1053993 0.5906967 -0.34283212 0.16085854 -0.01587414 0.055438064 -0.27064383 1.9779835 -0.28615856 0.07309321 -0.023706486 0.87630117 1.4807683 -0.81971896 -0.13621183 -0.11597594 0.3961031 0.49133 -0.12361077 1.3194478 0.25597498 -0.04019192 0.3305098 1.3921468 0.9081343 0.66872853 -0.5286381 -0.450439 -0.512286 0.009044938 -0.68470514 1.5054668 0.84931594 0.8204758 -0.30178392 0.25614217 0.12686796 0.69771165 -1.1492872 0.88065773 0.75595874 -0.74421257 0.22680007 0.008300754 0.38041344 -0.2987399 -0.47226718 0.44920242 -0.95538217 1.7280898 -0.3508761 -1.7083604 1.00588 0.15668257 0.31903785 -0.4052133 -0.25678444 0.24541496 -1.5297856 -0.23391163 0.5632658 -1.2938462 0.23891513 0.15644135 0.5173592 0.83375126 0.47870028 0.84292096 -1.5350811 1.6219314 -0.89070046 -0.8909854 0.38224316 -1.3554299 0.9711403 -1.2951254 -1.1499608 -0.28239202 -0.09193249 -0.19777349 -0.4564335 -0.32499728 0.40688208 1.1375798 -0.19663337 4.9716506 0.134224 -0.4422558 -0.6874508 0.6211219 0.034916013 0.38713962 -0.0022446592 0.6889596 -0.20420651 1.1191771 0.5718809 -0.35983434 -0.10962101 0.11723644 -0.30176842 1.2408924 -1.1867508 0.38685495 -0.090649195 
0.28793615 -0.54320663 0.041968394 0.69527894 -1.4631917 -0.7844364 -0.6129947 -0.52993095 -0.38490903 0.7611774 -0.13390765 -0.3870219 -1.512335 -0.4877711 -0.33356252 -0.27580446 0.5400757 0.42070484 -0.23003799 -0.38626993 3.710011 0.33150724 -0.25830445 0.032540992 0.13971727 -0.20966558 0.19989681 -0.5424435 0.69656706 -0.52791715 0.67357576 0.828595 -0.37765452 -0.3129877 0.9253733 1.9040504 -0.72004205 0.54962415 0.35356548 -0.32844007 0.8906819 0.066203624 2.1774788 0.9436575 0.4751724 -0.34301835 -0.23538162 0.81759065 -0.1984447 -0.6249512 -0.22318384 0.078406096 -0.24074012 0.38801506 0.87751293 1.6283059 1.897177 -0.78135425 0.3507031 -0.4307475 -0.50506836 0.39137125 0.67680895 0.066984005 1.2723234 0.11176495 0.056210026 -0.20497037 -0.8376902 -0.13175863 0.17949392 -0.045778837 1.510849 -1.4057645 2.0060673 0.20058696 -0.06561855 0.6660931 -0.6496332 -0.9400204 -0.37910554 1.3347709 0.50494635 -1.1664002 -0.93493193 0.09703461 0.08701035 -0.46844274 0.5697756 0.3666599 -0.54559314 0.5624186 0.6514744 -0.7318307 0.28339234 2.256962 -0.17758334 -0.24960132 -0.8657603 0.7676104 -0.30878484 0.22545896 0.2776082 0.19704713 -0.029252987 0.25109318 -0.8107471 -0.0827276 0.31411043 0.64938843 -1.0412995 0.12905931 -0.20544286 -0.37519246 0.57042974 0.5621138 -0.59670186 0.86020786 0.14204933 0.4291639 0.370595 0.39252308 -0.20753421 4.6363087 0.0077360044 0.3407411 -0.0047647613 -0.9185172 
-0.1833819 0.57884336 -0.3070014 -1.2449689 0.7221069 -0.8271793 -0.110583276 -0.12597461 0.31712416 0.7872468 -0.06296547 -0.002843561 0.8317216 0.77633554 -0.3830894 0.0060065403 -0.42113444 -0.24957278 0.51543796 0.51567554 0.36170128 -1.2087165 0.11025888 0.47905105 0.012275151 -0.45737484 0.10794983 0.024782289 0.592022 0.031619217 1.5202048 0.604103 -1.0275302 1.9240042 0.17395091 0.33912107 0.10800988 -0.7016557 0.7430248 0.32130152 -0.17020704 0.17305529 -0.17664473 -0.060923573 0.4946512 -0.6043208 -0.7320715 0.62308514 -0.48044622 -0.31519848 -0.96895605 -0.29458603 -0.46973732 -1.2367266 0.6254941 -0.46094882 0.17968841 0.5185783 0.3249398 0.034388307 -1.4617077 1.0100517 0.31523857 -0.31574848 -1.7441177 1.1988785 0.09279493 -0.58523494 -0.6363138 -0.47094983 -0.8872242 0.70812094 -1.0581633 0.6028006 0.9095749 0.18262221 -0.4681559 0.9942421 0.012448666 -0.8102943 0.11568672 0.06536405 0.722104 0.14786506 -0.7638236 1.3174027 -0.78566575 0.2950349 0.06632032 -1.2578995 -0.5261378 0.72581923 -0.45882186 -0.1546679 0.018003652 -0.6987382 -0.33543184 -0.49967334 -0.3134593 0.16336428 -0.4324216 -0.38331118 -0.29355794 -0.6807191 -0.59384626 1.2043576 0.4741263 0.46234182 -0.1420384 0.37559563 -0.21141468 0.48899192 -0.12202219 0.7972812 -0.18868297 -0.21408573 -0.8212127 -0.12509309 0.09540785 -0.079893574 1.3709427 0.5111392 -0.47479022 0.18406849 -1.3022184 0.07788518 -0.0777119 0.5879098 
-0.059191126 -0.26517987 -0.22960149 0.9779377 0.7483157 -0.13669597 0.25663996 -0.47185656 -0.19179106 -0.47779986 -0.4868137 -0.5540137 0.18735251 -0.049970508 -0.61733913 -1.1602826 0.8856263 0.82983327 -0.49164993 -0.67812765 -0.90005934 3.5591443 -0.06317718 -0.4520668 0.36080408 0.6064729 -0.533763 0.10109531 1.4423263 0.5686321 1.2975731 0.084872976 0.090941414 0.27759388 0.39913 1.0952975 -0.80202806 -0.64016634 -0.2919488 -1.7626439 0.21061713 -0.9162709 -0.43457845 0.115658775 -0.64791673 1.0568274 0.6485531 0.004590979 0.40398687 0.5613326 -1.7986084 -0.12224441 0.057965368 -0.8317269 0.58493346 -0.66337514 0.28734466 0.15179504 -0.155686 0.035334766 0.12753718 -0.112267256 -0.40031683 0.57091236 0.08902758 0.2634025 -0.015384483 -0.08230771 0.33847502 0.7374425 0.7192386 -0.21197154 0.32749978 -1.5526723 -0.4054792 -0.20893292 -0.825137 -0.117441066 0.050604843 -0.48291728 -0.04333076 -0.7685668 -1.7949557 -0.23450689 -0.036456153 -0.031047123 -0.08359509 0.8765529 -0.45406008 -0.5918591 -0.71691406 0.40806973 0.13360788 1.5542344 -0.43932608 -0.31764224 -0.2971938 0.21436962 1.0141493 -0.15934864 -0.4516723 -0.41299558 -0.30906472 -0.13572942 -0.40356478 -0.02451969 0.6592208 -0.7787267 0.50841546 -0.16014993 0.5989586 0.45358407 0.3261127 0.2371324 -0.44705594 0.16032548 -0.7229772 0.7212384 0.16872624 -0.23350751 1.2251893 -0.5639418 -0.7592399 0.66689825 0.089707874 0.5036472 -0.5474138 0.5517189 
0.45673105 0.69741863 0.2169026 1.5617496 0.29014823 -0.563021 1.4405937 0.01238627 -0.18364908 -0.058392525 0.060526647 0.4980043 -0.27576122 -0.21427299 0.74147666 -0.3911293 0.047036383 -0.067782156 -0.1532189 -0.4150852 1.446085 -0.75347203 0.17916195 -0.67376906 0.26461887 -0.0047815405 0.27863044 -0.3552083 0.2814094 0.049380194 1.4122307 1.3556879 -0.5299437 -0.059846073 0.3842832 -0.11824204 0.78083 0.40184954 0.48050734 -0.19105573 -0.7651278 1.4791226 0.17766854 -1.0055583 0.98236805 -0.2573453 -0.9468246 0.61959094 0.48042363 -0.86455643 -0.17559052 0.17291345 0.63086104 -0.5639854 0.43107772 0.0702129 -0.025872238 0.025373261 -0.5099579 -0.6743307 0.08208668 0.0752796 -0.30067706 0.041365363 -0.35344392 0.518821 -1.0275394 -0.44830567 0.70685005 0.8427925 -0.016900528 1.3563166 -1.2046152 -0.52316415 0.4453311 -0.034661483 0.23698893 0.007882006 0.72517157 -0.39564034 -0.2921254 0.9776338 -0.3840439 0.7338969 0.2784903 1.9906307 -0.027603095 0.8868835 0.6378303 -1.4632539 -0.7211403 -0.33324006 0.595602 -0.07505809 -0.6026787 0.9435412 0.1433955 -0.7122034 0.10355946 0.46940792 -0.8020405 0.3957377 0.37054685 -0.6059069 -0.14562057 0.88670427 0.9600972 0.42196384 -0.7305484 0.661238 0.40839335 -0.26154628 -1.3076037 0.6868221 -0.46246716 0.89956176 -0.4635799 -0.29146874 -0.62121 0.14611402 0.71639925 0.2459982 -0.7963549 -0.7588669 2.527442 0.48912743 0.0015862577 -0.19542691 
-0.008081441 0.25318238 0.44648406 -1.4133953 -0.113516025 -0.05291791 0.025104178 -0.966691 -0.2368263 -0.8230981 -0.3621132 -1.8082253 2.193662 -0.84876746 0.62298685 -0.96556383 0.012708513 -0.053329527 -0.7181035 0.79393536 -0.16070087 0.45420223 -0.28043434 0.1982429 0.39232138 -0.461327 -0.19653767 0.4575597 0.26652646 -0.96909165 0.37201855 0.4886193 -0.37798175 -0.734794 -0.17557609 0.8702605 -0.14237842 0.3099755 0.5737139 0.06634938 0.7643288 0.63534987 0.21452408 0.86860424 0.63877445 0.07614133 -0.46020696 -0.19107147 0.37696305 -0.3287315 1.2877253 -0.47275415 -0.3244686 0.057204798 -0.30985373 -0.45678082 0.043141223 0.039490044 0.5700114 -0.5573383 -0.8557039 0.2683393 -0.19175313 0.5086521 -1.3740531 -1.1183745 0.87101334 -0.2729251 -0.123035386 0.94604117 0.10750746 0.5599142 -0.24151671 0.17692332 -0.028443579 -1.9659712 -1.1332513 0.48879683 0.7615338 0.2661712 -0.103922315 -0.2855053 -0.47185406 -0.3073694 0.33691737 0.93182707 -0.6170416 0.84431034 0.6624352 -1.2249932 -1.151955 -0.7250007 -0.98619866 0.27407292 -0.009076686 -0.20849013 -0.81352603 1.4153239 1.1802022 0.08360828 -0.59242046 -0.31260467 -0.16725732 0.17181906 0.20994058 0.88477916 -0.5737538 -0.3796997 0.22242552 -1.6639656 0.16851789 0.46518067 -0.16389336 0.33446008 0.23342244 0.27181733 0.9861569 0.5673984 0.42171264 -0.19912146 -0.07569984 -0.7485247 -0.32487217 0.7797711 1.1171504 0.59311503 0.09384017 0.17113328 
0.08199166 1.4033972 -0.19528455 0.405901 0.2389807 -0.5775492 0.9871832 -0.46694148 0.03146975 -0.23313981 0.864802 -0.22999418 -0.55228883 0.22811253 -0.025650041 -0.819813 0.04852199 -0.20463187 -0.0899255 0.9315275 0.42659688 -0.25936112 -0.089948386 0.33768407 -0.10204242 -0.3301244 0.72054094 0.36458394 -0.33973888 -0.6821332 -0.4128971 0.65519625 0.061349552 -0.5194636 0.3779744 -0.24349782 0.23765191 0.18352753 -0.4487471 -0.03654663 -0.70469326 -0.19835944 0.9694249 -0.47087926 -0.094895795 -0.16220318 -0.12847488 -0.28077298 0.43846646 -1.2666061 1.2896454 0.21379805 -0.13259023 0.11480399 1.0400519 1.983162 1.0429158 -0.8080352 0.908872 -0.639454 -0.10853287 0.32641065 0.31095263 -0.3335191 0.1703867 -0.4787517 0.16161884 -0.106642574 0.96964765 0.846591 0.48693126 0.6542213 0.6881086 -0.53644085 -0.12277101 -0.057580516 0.6214937 0.42285877 0.19756462 -0.42151847 -0.45806453 -0.45415613 -0.24097389 -0.20290427 1.0921849 -0.29673645 0.17822163 0.81331646 0.69378144 0.435793 0.33276907 -0.62918866 0.24769178 1.67374 -0.69351614 1.3864409 -0.64317644 -0.5948932 -0.110279635 -0.23245561 -0.18844903 -0.018643774 -0.5819898 -0.56375843 0.14424874 0.022591198 -0.36793718 -0.5316094 0.01754624 0.3282254 0.4675596 -0.886857 -0.90561825 -0.36730862 0.22083323 1.1544085 -0.5815443 0.57423407 -0.03168667 -0.5393544 -0.35474613 0.14709553 0.26496232 -0.62182665 0.4533579 1.0827961 0.2809039 -0.7484595 
0.60583156 1.4601599 -0.40396166 -0.23938192 -0.8276563 -1.1857367 -0.6148181 -0.8039089 0.18804485 0.41811004 -0.18113992 -0.6051379 -0.5999246 -0.90568113 -0.62388366 -0.15489435 0.49227 0.08765101 -0.6155624 -0.16905032 -0.08729345 -0.20523034 -0.24988845 -0.05092513 0.17947395 -0.27997196 -1.1003757 0.20287687 0.320765 0.14951593 0.24380092 -0.18783875 -0.136619 -0.41651312 -0.7865612 3.2239068 -0.25488484 0.41960266 -0.13461049 0.5003431 -0.09002549 0.018886846 -0.09978625 -1.0357704 1.3407714 0.12440376 -1.1572528 0.5944126 1.727122 -0.76455814 1.1954936 0.3682612 -0.46712902 -1.1208811 0.1959269 -0.8681919 0.9386462 0.21864854 -0.20628256 -0.3679295 0.45539927 -0.32290465 0.92686546 0.8577024 -0.33730876 0.19706653 -0.5622991 -1.2110205 0.21035655 0.9405648 0.44843596 0.043069452 0.4393122 0.91791075 1.483102 1.5425799 -0.6156453 0.09408361 -0.8300347 -0.6497379 -0.043561812 -0.48626557 -0.3441968 0.06782474 0.17595126 -0.34256807 0.5417703 0.28312516 -0.46842462 0.08505768 -0.23110886 -0.011082004 0.12202143 0.1764972 0.021922138 0.008602708 -0.24983536 1.1680188 0.9224437 -0.61919606 -0.19827625 0.26253542 0.36056522 1.0487173 -0.43420777 1.1984465 0.019771367 -0.30100545 1.2539427 -0.03680546 0.8367274 -0.19917887 -0.5196736 0.45768204 0.027832689 1.168329 1.1314647 -0.08870497 0.5428789 -0.29659456 0.27576163 0.1040678 -0.5395892 0.1721293 1.2866578 0.46398857 1.0279969 0.72339416 
-0.19882649 -1.0113088 0.379669 0.027466653 0.58688426 -0.23878428 0.61852604 0.020628959 -0.6801591 0.31934163 0.13232699 -1.187327 0.17216502 -0.85637575 -1.404962 -0.65874404 0.9867471 -0.52078265 -0.1869642 -0.9489248 -1.4315473 0.06661828 -0.16064015 -0.57937276 -0.06702559 -0.31547388 -0.6676281 0.09486995 0.82122695 -0.46926546 -0.118402526 0.27842465 -0.036962483 -1.3443966 -0.82357764 0.95979565 -0.22835465 0.13351026 0.27459678 -0.25123817 -0.37932807 1.252606 0.17931575 -0.53361577 0.059529893 0.038293723 0.7638658 0.1893788 0.2334757 -0.19074202 1.4422393 -0.11467321 -0.5190202 0.14066799 -0.23311846 2.877467 -0.32221746 0.5706483 -0.28295714 -0.38098013 -0.17503785 0.41639093 0.046314266 0.5860803 -0.015354061 0.026210468 0.5627617 0.43805265 -0.14197093 0.67583096 -0.84559435 -0.5028073 0.104558125 -0.35098952 0.28566763 0.07066118 0.2289548 0.009671784 -0.53321016 1.2464578 0.08581909 -0.393503 1.7783836 0.4835955 -0.09365768 -0.7026887 0.23469996 0.079985626 0.48592553 -0.08044737 0.22778817 -0.8309571 0.14919537 0.24141854 -0.65733457 -2.9160662 -0.6908752 -0.34271303 -0.4181759 0.09092185 0.7398743 -0.44448364 0.17290238 -0.13942517 -0.56388664 0.5487831 0.31223217 0.7909529 -0.23182623 0.109575555 -0.4377281 -0.5584935 0.58529806 -0.40680358 -0.07680133 -0.5067992 0.947692 0.34567347 -0.1048914 -0.028532526 -0.6764215 0.2143928 0.27844614 2.4432685 0.121164046 0.02509152 0.010602348 -0.5711184 
0.41401944 0.09904129 0.32814014 1.2247782 -2.024661 0.0762914 1.4448646 -0.4246131 -0.24986449 0.31699523 0.08727845 0.1952932 0.35176966 -0.84178066 0.34023944 -0.3466303 -0.5829001 -0.20700336 0.016986342 0.24843457 0.10746095 -0.37927026 -0.39218366 0.3956034 -0.28476414 0.31331357 -0.18395112 0.03409528 -0.66875374 -0.22110125 0.13928857 0.062427863 0.24166669 1.0025371 0.23169366 0.33292475 0.3171774 0.75906914 -0.060748696 -0.17601717 -0.90602976 -0.5022673 -0.36735916 0.78298026 0.05157364 -0.49891263 -0.7508704 -0.36797765 -0.5166103 0.10274089 1.2754278 -0.17565204 0.39877027 -1.0954603 0.6159937 -0.23491314 0.3418047 -0.45144024 -0.11126591 -0.08564016 -0.3422533 -0.3262465 0.69308597 0.12367687 0.3819358 -0.51828396 -0.42793804 0.50062764 -0.7380995 -0.072496615 0.4680788 -0.7400362 0.40651494 0.43530634 -0.8184107 -0.77129084 -0.31382906 -0.12004045 0.28817016 0.23929127 0.14662455 0.012585026 -0.56348306 0.2836739 -1.3719274 0.020879181 0.35602108 0.2103987 -0.44887808 -0.47025982 -0.2445919 -0.33327696 -1.1425503 0.6223316 -0.3280212 -0.21291398 0.07387874 0.56364834 0.61538315 -0.08349351 -0.64923036 -0.53604907 -0.40288422 -0.39464495 0.1312256 -1.2275791 -0.8437087 -0.40823135 0.13764732 0.35509837 -0.32218143 0.4825623 1.0627869 0.71744525 0.45547134 0.4449414 -0.20469353 -0.20966052 -0.54422534 -0.40912253 0.4921374 0.72065884 -0.633051 0.47828123 -0.09921772 0.06696738 -0.104036056 0.15558137 
0.38408518 -0.1728988 -0.17175092 0.08511079 0.4130277 -1.6334113 -0.050387874 0.16592556 -0.026788682 -0.4450897 -0.9116444 0.27331167 0.06862507 -0.2785718 -1.5268666 -0.10874828 -0.15998864 -0.18449436 0.62614673 -1.3079544 -0.40757754 -0.29183605 0.40675515 0.49933085 0.36453438 0.43615073 0.4452364 -0.06104281 -1.4402759 0.31025967 0.24371903 -0.7164332 -0.13405006 0.15640579 -0.0886423 0.5319015 -0.0051947506 0.2628473 0.274786 -1.5375423 0.3498154 -0.8906028 -0.14798549 -0.016463961 -0.17760985 0.13219973 1.1044637 0.0716899 -0.248457 0.045588084 0.6634196 0.35484117 1.0440993 -1.5728983 0.64643687 0.08105366 -0.4895747 0.74780685 0.09299527 0.048174083 -0.9106712 0.05451624 0.15889037 0.035432216 -0.031569067 0.8109507 0.28191215 0.1018801 0.22975753 -0.08918305 -0.03641032 0.31281972 1.2235965 0.4264781 0.070522875 0.056427136 -0.05913225 0.22924969 0.5274628 -0.034667976 0.32610756 0.544373 0.42615005 0.12637232 -0.70530033 -0.61992836 0.024607426 0.2727503 -0.17283769 0.28006944 -0.2882149 -0.4582982 0.19753239 -0.17213844 -0.08207568 0.75004387 -0.4924544 0.94168955 -0.17651996 -0.34719762 0.030020515 -0.30466485 0.36708143 -0.93403304 0.013731038 -0.09019525 0.07786756 -0.16753407 -0.41532442 0.35031056 -0.121459305 0.61389387 -0.14983281 -0.45283931 -0.50379926 0.3977386 -0.11335141 -0.32642847 -0.014831185 0.5960578 0.31381637 -0.5497877 -0.36426023 0.5487615 -0.16700651 -0.4212163 -0.81301826 -0.57427853 
0.24249385 0.9969998 0.001318351 0.45496127 0.075447805 -0.3418532 -0.74404705 0.73033285 -0.28941742 0.508289 0.06382263 0.046068244 -0.0080863405 -0.43657303 -0.09011252 -0.54494065 0.03331765 -0.6059635 -1.1168014 -0.36633652 -0.11603748 -0.8492071 -1.1659893 -0.58165973 -0.41854146 0.10919796 0.3669081 -1.0008088 -0.3161757 -0.062361892 0.7234284 -0.6356857 1.7917991 0.2598394 0.55503577 0.28744957 -0.21611272 0.55403244 0.9365841 -0.28352752 -1.0349615 -0.7153837 0.07477305 -0.35706162 0.19318269 -0.86980516 0.66031575 -0.5539184 0.062856466 -0.48796192 -0.23987605 -0.03503256 -0.12869787 0.31447124 -0.42164856 0.33121908 0.8690413 -0.48195633 -0.9937584 -0.49430987 -0.35625303 0.19283319 -0.45935157 -0.1127906 0.5050811 -0.68800664 0.2660835 -0.99149936 -0.18742283 0.39290923 1.1604488 -1.5726696 -0.25376442 -0.03523296 1.0013049 -0.6492342 0.384522 -0.037670597 -0.1474084 -1.1080137 -0.2698232 0.07230673 0.5090548 0.305261 0.55949855 -0.6970784 -0.30559668 0.59457034 -0.0168716 1.0711702 -0.27999318 0.09426641 -0.16828011 0.11824855 0.3126422 -0.016556006 0.48776355 -1.9793671 -0.53638947 0.9567651 -0.8639555 0.04275055 0.024515186 0.0523269 -0.8762781 0.2935462 0.60906595 -1.563317 0.16856402 0.4345073 0.016835064 -1.9724504 0.55324835 1.4606262 -0.022197863 -0.67582315 0.60634935 0.107184805 -0.8913205 -0.09123479 -0.06493005 -0.55517447 -0.19190791 -0.0813581 0.5296286 -0.63082695 -1.526658 0.33829513 
0.13897718 0.51562846 -0.988561 0.010753488 -0.45702377 -0.13956273 0.111119434 0.45452568 -0.3000693 -0.52822775 -0.76232445 0.15805602 -0.19788873 0.08909107 -0.6958242 -0.0045789066 -0.08028413 -1.2804894 0.49001974 -0.054062318 1.2109334 0.14113663 0.38642746 -0.09968837 0.7961117 -0.20539203 0.007895507 0.3943312 -1.7749827 -0.5225972 -0.801746 -1.1269109 -0.3337782 0.30947822 0.10910542 0.08941072 0.043083247 0.22666372 -0.054910295 -0.6033525 -0.68341184 -0.89863324 0.725463 0.7419058 0.59015566 -0.19354588 -0.27756754 0.18989058 -0.18101297 -0.20667899 -0.027097266 -0.54252315 -1.0758723 -1.1292129 0.43246198 -0.8870543 -0.13436483 0.7499011 -0.44873303 0.10528308 1.1761277 0.30092692 -0.3906537 -0.287119 0.49047184 0.2845135 -0.53194803 -0.53554016 -0.4103222 0.41578758 -0.18216692 -0.56809974 0.6980988 0.21169326 0.02112175 0.48796308 1.2655663 -1.1237592 0.66074514 -0.17152119 0.2884642 0.4260823 -0.020185033 0.36917013 1.054533 -0.021056848 -0.21834324 0.6765132 -1.405767 0.978503 -0.5334999 0.37287918 0.8836579 0.23359054 0.04945125 -0.0693571 -0.4670117 0.45527294 0.050125156 -0.30991238 -0.7134412 0.05978899 0.3075453 -0.65872365 0.24177079 -0.08386053 0.19736132 -0.23449926 0.02517393 0.68479246 -0.23172554 -0.094294 1.1210505 0.24628575 -0.2699251 -0.6700872 0.024962494 -0.23698738 0.02898321 -0.039039716 -0.6888562 -0.29289365 -0.7667647 -0.3724087 -0.43891543 -0.051811136 -0.30812615 -1.3210385 
0.13255566 0.43655846 0.9137304 -0.5897092 1.3456467 -0.32548475 -0.18683034 -0.5154969 -0.3835945 -0.4856534 -1.0255234 0.08801205 -0.58204675 0.32728747 0.65878487 -0.1449374 -0.22135194 -0.17464261 -0.87483054 0.4719702 -0.6892972 0.18054393 0.63503754 0.44775495 -0.37705916 -0.50463086 0.33999416 0.7995228 -1.1926445 -0.4929743 0.043764085 -1.4910803 0.3204322 0.58076334 -0.28645188 -0.6036434 -0.9664933 -0.0715634 1.1546482 0.28076768 0.59220475 1.456048 -0.48225677 0.068728305 -0.3675216 -1.5012678 -0.75454503 0.6690578 -0.29431552 -0.12213698 0.33882195 -1.0783305 -0.6835822 -0.48942387 0.6316926 0.29599938 -0.77339745 -1.6455415 -0.15578635 -0.36955267 -0.41654572 0.716668 0.24964084 0.48068044 0.10975843 -1.1188147 0.32644036 0.21758236 0.7256139 -0.037376504 0.090499535 -0.45557845 0.035878137 -0.007803436 0.31569374 -0.13154602 -0.045900594 -0.42967558 0.56777847 -0.059507594 0.1902163 0.45716527 0.22475931 -0.14936383 -0.2154945 -0.27362993 -0.10221259 0.98469424 0.24404055 1.229766 -1.2381499 -1.2092172 0.6394268 0.4113828 0.06959874 0.74628836 -0.02934828 -0.11426853 -1.0217283 0.41080725 -0.96487164 0.38694096 0.20685565 -0.097832896 0.50515246 -0.035785336 -0.57832944 0.33783317 -0.38072452 0.8713331 -0.17992647 0.4784222 -0.6526176 -0.2420205 -0.72054636 0.5822872 1.1481003 -1.4479744 -0.73735005 -0.93196577 -0.2762691 -0.2174228 0.54831344 0.18224798 -0.83344096 -1.0391752 -0.4831194 0.27586174 
-0.46619353 0.7320097 -0.021302799 0.8615253 -0.85557413 -0.47014892 -0.39953595 -0.2570476 -0.13708548 0.060991634 0.0023125056 -0.32007635 -0.66562355 -0.788809 1.1538591 0.24844764 -0.2767372 0.43257442 -0.19668427 -0.54748124 -1.0705322 -0.27283725 0.3356885 0.93704206 0.0731527 -0.037269827 0.09907986 -0.9003552 0.35364482 0.031048695 -0.72241086 -0.61475223 -0.3351357 -0.45023096 -0.1875664 -0.093426354 -0.21347235 -0.8021057 -1.0967697 0.12287659 0.6157586 -0.4281004 0.51078635 -0.7475141 -0.6069294 0.14019667 -0.1354769 -1.252876 0.72884005 0.088688046 -0.49710992 -0.37405902 -0.97386944 -0.04300181 -0.48350194 -0.33450723 -0.09408501 -0.6707887 -0.8628586 0.6940892 0.8942121 -0.28591093 -0.21421376 0.79593647 -0.1796268 0.7168462 -1.043041 -0.5127204 -0.7332709 0.35276875 0.14419807 1.6065189 0.54184705 1.4493667 -0.74300474 0.30009857 -1.8665375 0.6421084 -0.013553995 0.1683454 -0.65669143 0.24828248 -0.18742856 -0.09387719 -0.339699 -0.33539402 -0.44781163 0.8401482 -0.029737001 -0.40148067 0.63491404 0.06517877 0.027514959 0.6806743 -0.41203037 0.115111075 0.46339235 -0.115847945 0.98250425 0.8301783 -0.7972717 0.4505809 1.8552895 -1.0983275 -0.028871443 0.8035838 -0.6598507 -0.5922204 -0.26535493 0.03507162 -0.3274924 -0.47238746 -0.13686846 -0.47350734 -0.5168322 -0.4512533 1.5480704 -0.2594986 -0.13371801 0.6547258 0.36942208 0.39667267 -0.86419433 0.6025999 0.06558218 -0.1839709 0.045043554 -1.5996436 
0.3149341 -0.96344405 0.616671 -0.34939462 -0.8138104 -0.04445649 -1.3092864 -0.32850185 0.08962665 -0.43179902 0.47546995 0.025914168 -0.12604733 -0.3760493 0.7565979 -0.034017965 0.085518986 -0.7045102 0.38676146 -0.77106136 0.7009735 0.51177216 -0.53461397 -0.15423594 -1.1207209 -0.24103355 0.14476895 0.154145 0.19333787 0.34450287 0.1935217 0.16447867 -0.29580462 -0.32217175 -0.056273375 0.001324473 -0.890542 0.010229194 -0.66296566 -0.58409745 -0.2979063 1.01951 -0.016732914 -0.6055474 -0.66343945 -0.3465407 -0.72012115 1.2743268 -0.865946 0.37144625 0.69455653 0.16961691 0.2297605 0.32069352 -0.81235504 0.5144109 -0.18439338 -0.9466478 -0.7437471 -0.9352478 -0.63907605 -0.34439924 -0.15151604 -0.15234119 -0.15223195 -0.4084138 0.11290644 -0.618096 0.3313455 -0.6146709 -0.24381083 -1.2420526 0.040230826 0.46401343 0.310639 0.26448667 0.6254541 -0.7619618 -0.0025441449 0.7072239 -1.1523848 0.12493682 -0.8404709 -0.14224 -0.61832756 0.92457455 -0.076526366 0.35663268 -1.4055241 -0.95319587 -0.35784513 0.6517532 -0.11847306 0.5480145 0.36336765 -1.0202422 0.05626998 -0.6909001 -0.3181691 0.26713195 -0.4453984 0.68108207 -1.9262515 0.28647104 0.49384117 0.34627128 -0.078879185 -0.052039366 0.54538524 0.6968852 0.67802924 -0.7432453 -0.55815244 -0.0995356 -0.80174035 -0.029221589 -0.08457302 -0.09754136 -0.25643036 0.84587663 -0.35276 -0.17801589 -0.38706216 -0.03962863 -1.2174066 -0.3919346 0.38402647 -0.6966414 
-0.02645254 -0.1309456 1.6640059 0.4956622 -0.25988054 -0.10770617 -0.28652853 0.17172489 0.050804436 -0.14931531 -1.001259 -0.7967582 -1.5821198 0.071444705 -0.9187312 -0.08490677 0.9548803 -0.5279448 -1.2152517 0.17433359 1.3254405 -0.039615 1.4987031 -0.326273 -1.1203902 -0.9854167 -0.20864937 -0.927548 0.535025 0.05589907 -0.26344582 0.86154544 -0.28434584 0.025535928 0.031405218 -0.20481336 -0.7730337 0.71366906 0.12471988 -0.06555076 0.3908792 -1.092144 0.18175855 0.5130215 -1.0511942 0.5937249 -0.519856 -0.3591855 -1.2654799 0.028110215 0.07065234 -0.28546953 0.094699554 -0.06306155 0.4404854 -0.24723938 -0.6308407 -0.7341734 -1.1886754 -0.5069654 1.7258775 -0.28752136 -0.13086806 0.28116027 0.311847 -1.0331236 -0.5396387 0.14323458 -0.5725071 0.38095936 -0.46768633 -0.63581896 -1.1539931 0.38721102 0.13998286 -0.2624598 -0.4313567 0.35706854 -0.2315252 0.9954869 -0.24260557 0.8136992 0.21289502 -0.41395038 0.18186918 0.37829712 0.42495796 0.17906305 -0.7110604 -0.4416268 -1.895331 -0.600689 0.71901023 0.7087472 -0.5354931 0.31227583 -0.5864099 -0.5234536 0.32566184 0.25631747 0.6353167 1.3222705 0.17536236 0.6995384 0.097137295 -0.29580146 0.6721428 -0.21520479 0.095920034 0.3664622 -0.027478589 0.18799835 -0.5427686 0.9006184 -0.72798616 0.30912355 -0.050660223 0.6264133 -0.18653277 -1.1554228 -0.8906795 -4.2152157 0.15041131 -0.075977884 0.52330077 0.578142 0.30469233 -0.92335296 
-0.66109467 -0.51151365 -0.036772694 0.058078356 -0.47734892 -0.42481032 0.6900531 0.0043744165 0.23712929 0.3774784 0.08132761 0.22464588 -0.2753945 -0.36528757 -0.25931534 -0.13566878 0.6227663 -0.5437214 -0.20163657 -1.0930203 0.45064428 -0.89500403 -0.61658156 -0.035673067 -0.4528644 -0.27761024 -0.060064282 -0.67965645 -0.75381154 -0.20104484 0.081078045 -0.2610536 0.3531218 0.21265772 0.18230662 -0.33167878 0.6237096 -0.24174824 0.014302108 -0.2377446 0.62380326 -0.9676978 0.41136095 0.6402287 -0.19612977 -0.2594853 0.8141391 -1.6211318 -1.9960785 0.42672405 -0.6551286 -0.1670642 0.5169099 0.6713005 -0.76069576 -0.02310269 -0.45472723 -0.4428966 -0.53559613 -0.4938168 0.15633513 0.104642585 0.50274646 -0.005498051 0.15666842 -0.42397323 0.126534 -0.90279555 -0.43490794 -0.5992841 -0.51772314 0.05597377 0.2143269 0.5252585 -0.47069266 -1.0748041 -0.09931838 -1.3885267 -0.94607353 -0.28598413 -0.84475106 1.3655827 -0.91616607 0.21658915 -0.6293363 0.2802281 -0.29643136 -0.21346009 -0.20236619 -0.001298934 0.17238767 0.5099881 -0.24102339 0.5819869 0.27080867 -0.023602655 0.33837977 0.42590943 -1.1884366 0.27994648 0.6864178 -0.074328564 0.008062803 0.05595928 -0.35627395 0.93849736 -1.445369 0.35288647 0.17003314 0.6432265 -0.38582432 -0.78196216 -0.8254541 -1.0500017 0.78240925 -0.40111983 0.11934807 -0.09369969 -0.9772434 -0.5699635 0.25597554 1.0415881 -0.7252173 0.066821195 -0.33970904 -0.033446185 0.0954213 -0.6286187 
-0.75983286 0.21986748 -0.9397509 -0.46791726 0.56339765 -0.49725726 0.9719195 0.9789661 0.2191382 -2.627245 -0.009025132 0.3931258 0.035209112 0.42486933 -0.32921678 -0.08388885 -0.35633296 0.3641317 0.2981827 0.3721506 -1.3185639 -0.07459823 0.02013739 0.0560885 -0.05726567 1.89379 -0.29866722 -0.07812773 1.1166141 -0.18052119 -0.5471989 1.3731133 -1.7793894 1.22895 0.31324324 0.5231502 0.1378407 -1.4952463 -1.4945079 -0.08693757 -0.34991935 -1.1128576 0.33986813 -0.43346646 0.06081556 0.7689893 -0.6783572 -0.8856193 0.11838881 -0.94799286 0.119756155 -0.24189754 0.783146 -2.0442708 -0.9414666 0.18661575 0.063283496 0.23232903 -0.021575622 0.74684596 1.2645241 -0.17072214 0.27160084 -0.17803207 1.1146122 -0.0542439 0.5551539 -0.3461219 -0.2553688 -0.057039462 0.20459439 0.036812462 0.35412425 0.037963346 -0.6891227 -0.074036 0.55411977 0.58973527 -0.688265 -1.9031956 -0.69977176 0.20047726 0.485571 0.07636686 -1.7336624 0.15358722 0.9651422 0.31785464 -0.021038396 -0.9405014 -0.56160104 -1.34737 -0.6889058 -0.33372802 -0.68486 0.17961863 -1.0258348 -0.24134997 0.32678005 0.59370524 -0.67304903 -0.6395721 0.3516614 0.25774935 -0.36383894 0.40059265 -0.9132544 0.46281874 -0.77965176 0.05144951 0.05015287 1.5468488 1.0450675 -0.17427814 0.48711866 -0.50206274 -1.1070502 -0.06065434 -1.818156 -0.32900918 -0.048851248 0.25222644 0.87106085 0.48355585 -0.39695638 -1.4585627 -0.60866433 -0.7771131 
-0.6444975 0.18484727 -0.25471815 0.22120827 -0.6774656 -1.672862 0.21736304 0.033565205 -0.1481547 -0.9355219 -0.13735086 0.19046527 0.27553698 0.057052538 -0.16678338 0.023967987 0.9882679 -0.8057364 0.553667 -2.388654 -0.29738984 -0.27876994 0.5105018 0.26896426 -0.11554783 -0.7195932 -1.4203789 0.60877246 -0.3408493 0.5143256 0.3530574 -0.93517965 0.5216321 0.97654474 0.5988577 0.2840943 0.35387197 0.5851454 0.051009916 -1.2033484 -0.34931117 1.136765 0.1155557 -0.6111693 0.35295603 0.20232797 -1.2931718 1.4133434 0.7915675 -0.61569893 -0.282684 -0.7050877 -0.44910914 0.914466 -1.1961035 -0.4305017 -0.3677032 -1.098412 -0.5489051 0.31829512 -1.3307353 0.9825201 0.12674603 -0.017138438 0.15275353 -0.000191431 -1.1620913 -0.1752666 -0.89576656 0.30593637 0.8421453 -2.620085 -0.2748918 0.01978225 0.51400816 0.5371346 0.70165384 0.109594315 -1.2158651 -0.39364457 0.051673032 0.20346057 -0.100655094 0.25758088 -1.2921329 0.37721398 -0.37078208 -0.44740373 0.5837981 -1.4176793 -0.67515326 -0.43489626 -0.52258694 0.08156989 1.0534002 0.5494096 -0.28673208 0.9996091 0.20925406 0.91317725 -0.86577934 -0.6001652 -1.6036029 -1.4371978 -0.23548983 0.47334757 0.0970574 0.58056605 0.14921124 0.86340684 0.054366525 -0.70074844 -0.70564795 -3.0709531 -0.88582474 -0.75366503 -0.8724723 0.44976497 -0.9542639 0.10627539 -0.7597108 0.29256678 1.222783 -0.025158044 -0.16393799 0.2545325 -0.7683901 0.15751019 
0.44035798 -0.4316979 -0.2567101 -0.6408783 0.5253808 0.36177135 0.011961959 0.27242187 -0.5181223 0.73186374 -0.10780581 0.28705674 -0.34176698 1.4373987 -0.52812463 -0.16852196 0.5017288 -0.7414232 0.10567827 0.097526915 0.678654 -0.52666676 -0.3343489 0.1235135 -0.019997202 -0.7969398 -0.9250769 -0.84939176 -0.25451535 0.6679307 -0.21666974 -0.34672332 -0.5062781 -0.85628796 1.0490952 -0.9230655 -0.21813357 0.83194613 -0.10077515 0.12535399 1.3578378 -0.49809277 -0.45870793 0.3149885 0.6211034 -0.55045134 0.11659935 -1.3431565 0.43676582 -1.6014156 0.006058445 0.29022837 -0.7737363 -1.4548792 0.18201523 -0.3392701 -0.31189677 -0.34132335 -0.89807546 0.5258525 0.36918628 0.67721874 -0.029993732 0.15984373 0.5733571 -1.1587942 0.5066793 -0.07449719 0.1071725 0.36734325 0.23476937 1.0113057 0.61978835 0.07431143 1.1275594 -0.0026363193 0.9300362 -0.7463365 -1.2039443 -1.0721722 0.32422566 -0.52086043 0.47434294 -0.30788678 -0.25239754 0.3200527 1.0333427 0.3724226 0.57334787 -0.53654087 -1.809885 0.14057146 -0.2659287 -0.43060845 -0.9846955 0.22691193 -1.6441538 0.5002869 -0.6264983 -0.386694 -0.84952414 -0.77346903 -0.5593962 -0.38939044 0.7483105 -0.63303363 -0.5976414 0.07445508 0.10818844 -0.050930653 0.50570816 0.25279146 -1.6102272 -1.5076641 -1.672806 0.50077987 -1.2157313 -0.22872947 1.5562681 -1.0401815 -0.04351903 0.06394557 -0.13230598 1.4847674 0.20448902 -0.7083165 -0.6133315 -1.151777 
-0.23865941 -0.7575778 -0.92156285 0.21674049 -0.49123064 -0.77417517 0.74302256 -0.3379617 0.53039825 0.18623355 -0.30556524 0.027024843 -0.3632458 0.6653425 -1.3605673 -0.2136101 0.4146873 -0.29823923 0.2148874 0.40455937 0.23643611 -0.36591348 0.26772052 -0.8474602 0.28952953 0.1411531 -0.3779657 0.7469921 -1.6957028 0.005645264 0.27506483 0.36999944 0.7357043 0.12694538 -0.08894004 0.1346468 0.17927688 -0.66325 0.17298524 0.023015032 -0.21623282 0.7185122 0.27134207 -0.2262757 0.9119473 -0.8089378 0.21475899 2.1004639 -0.57726693 0.16083269 -0.38692316 -0.6887874 -0.2104753 0.408557 -0.18317166 0.5484754 0.11504017 -1.575393 -1.5485548 -0.18044391 -1.8041685 0.50911003 0.26439485 0.027182067 1.0929022 0.5006509 0.14281718 -1.4824593 -0.5543078 0.27229732 -0.005127345 -0.512913 -0.08364526 -0.45438987 -0.63526964 -0.488339 0.18798469 0.27456805 0.13443753 0.3611707 0.69724905 0.055050053 0.5016738 -0.4308133 -0.7082916 -0.35989955 -1.5939586 0.15150444 0.42587993 -0.38648057 0.22832225 -0.32097048 -0.15700424 0.2936366 -1.2106766 0.008184521 -0.25450048 0.8061325 -0.2871955 0.49752307 -1.6846793 -0.75827295 0.36889386 0.8977949 0.3155459 -0.265361 -0.4933385 0.63805133 -0.6245341 0.51157993 -1.7740347 -0.32694736 -0.3985855 0.31965303 -0.32918817 -0.012340786 -0.41911727 0.30538943 -2.0542972 -1.7681653 -0.28749785 -0.029035283 0.13402112 -0.1429254 -0.5544578 0.760863 -0.8705034 -0.19241175 
-1.130184 -0.24709086 0.17328097 0.08743273 -0.8964312 0.5913246 0.081043854 -0.73366696 -1.0497301 -1.3095504 0.19684525 -0.27998427 -0.948965 0.3575595 -1.4151039 -0.13293812 0.40672627 0.56880975 0.19601679 -1.5579438 -0.6635909 0.31759712 -0.7036504 -0.29992583 -0.60042626 -0.084904626 0.10476939 -0.012590474 -0.37035635 -0.21215317 -0.2578464 0.15458016 0.1357051 -0.7540785 1.7972666 0.39637738 -0.19943206 0.38604224 -1.004787 0.15201913 -0.7916183 -0.715509 0.14210692 -0.8368184 -0.5886447 0.3612418 -0.024641348 -0.08484045 0.57091635 -0.26935193 -0.43288964 0.4122486 -0.5261137 0.14424025 -0.66285187 -0.17940705 0.023342567 0.6961839 -0.19124137 0.362313 -0.19297478 -0.3889528 -0.5616065 -0.17340617 0.94891506 -1.379892 -0.9016869 -0.9854098 -1.1062983 0.5220042 -0.29295924 0.8435987 -0.7746932 -0.008568529 0.16199383 -1.1267964 0.017453346 -0.51253426 0.3296948 -1.5711098 0.24256934 -0.24863826 0.45439166 -0.30400014 0.4077518 0.76751596 -1.0172843 0.9907837 -0.5147964 -0.64246655 -1.811841 -0.095796116 0.0011476872 0.8026602 0.16271627 -0.17836393 -0.41614696 -0.49747175 -0.6218112 -0.01876102 -0.4911808 -0.8062623 -0.5182141 1.2071999 0.5283518 0.43789887 0.106130615 0.21656935 0.4271073 0.9084773 -1.0759603 0.13814041 -1.0771587 -1.8555497 0.17805085 -0.6941636 -0.110552706 -0.7621241 0.8077528 -0.28582937 0.03915787 0.3503299 -0.26103574 -0.68441266 -0.113647446 -0.046197034 -0.4072818 -1.370881 
-0.35900688 0.18945622 -1.3911334 -0.032607857 0.8784424 0.2638638 -0.6347311 0.088134766 -0.06562826 -1.4402807 -0.99727595 0.29318288 -0.5170198 -0.12502347 0.36171448 -0.7207322 0.4894917 -0.48991677 1.3822683 -1.0509899 -0.6337514 0.12420092 0.03818106 -0.42595637 -0.619898 0.7040984 0.19808665 0.340586 0.013877341 0.72045517 0.3363414 0.9735554 0.49566624 -0.5438592 -1.0675509 -0.10853096 -0.2254077 -1.3686656 -0.6378143 0.113032155 0.111905135 -0.5177321 -1.0832708 -1.7640252 0.11587902 0.21659684 0.1671133 0.8273035 0.339175 -0.4908531 0.20197456 -0.3025375 -0.16049549 -0.77135456 0.10264636 -0.2025651 0.2532473 -0.6510636 0.29657415 -1.6892203 2.0939925 0.5207093 0.27135763 0.6757266 1.9639266 0.53680116 -0.1400832 -1.3840984 0.5131236 -0.68334484 -0.83976084 -0.12012587 -0.25022665 0.23967426 0.268028 -1.5440035 -0.4766151 -0.3624806 -0.77184045 -0.8531605 -0.71119815 0.87841314 -0.42809907 -0.79890835 -0.32530558 -0.13831879 -0.38794985 0.7288347 -0.63291246 -1.2628989 1.6292895 1.1797822 -0.2619594 -0.2854983 -1.0140122 0.21683489 0.41811433 -0.17699653 0.30156788 0.18168175 -0.5367564 -0.7800318 -0.09076014 0.8337896 0.41820735 0.889352 -0.48400232 -0.9404165 -0.3865469 -1.0609772 0.60215306 0.4739381 -0.46838856 0.42774737 -0.76134956 -0.62358123 0.22314495 1.1056281 -1.9938384 -0.6894368 -1.6895019 -1.1847421 -0.063024476 0.6847589 0.43235037 0.90967715 -1.1613611 -0.48307714 
-0.8985406 0.26350555 0.23330101 0.5525305 -0.43732554 0.7850872 -0.7681951 0.065276064 0.08104433 0.36160955 -0.18358879 -0.16833466 -0.56939393 -2.0057504 -0.4296967 0.7951971 0.080119185 0.5216323 0.0019003352 0.5481868 -0.6495363 -0.06888725 -0.75234056 0.07344379 -1.6322832 -1.2808437 0.2511152 0.18530893 0.59600896 0.08212471 0.19799395 -0.34008512 -0.22788121 0.37715054 0.10759762 -0.81150043 0.26143032 0.82122266 0.68308014 -0.35515338 -1.2209241 0.9428886 -0.5651 -0.31796408 0.48949426 -0.6966574 -1.0758828 -1.0180568 -1.675065 0.38338912 -0.6395013 -0.7116423 -0.554442 -1.9397874 -1.1223743 -0.22860372 0.34451684 -0.17384237 0.21251439 -0.6310677 1.1805801 -0.2867826 -1.3639423 0.23868985 0.84573346 -0.19212851 -0.7713832 0.015662195 0.9943974 0.7160902 0.6253245 0.85949516 0.27439952 1.0497972 1.5607923 0.13950257 -0.34870228 -0.710163 0.16325231 0.7528488 -1.3442351 0.1462149 0.13643311 0.28592965 0.2193671 0.42961395 -0.9287619 0.53677666 0.2014075 -0.37938622 0.7471655 -0.02147782 -0.87299836 -0.44268608 -0.31866816 -0.743874 0.16642693 -0.6678608 0.25507253 -0.90404046 -0.5431611 0.079663746 -0.015988804 -0.38038647 0.52867544 0.84485936 0.16087194 0.44776002 -0.5762218 1.1202196 -1.0000173 0.23786789 0.054771014 -0.43675327 -0.5255719 -0.19515851 0.34731528 0.6398538 0.033873226 0.46447337 0.38762143 -0.1560174 -0.2471123 0.71263623 -0.17597899 0.95396876 0.2938653 0.116102815 
-0.4733359 -1.0509789 0.9051525 -1.1540849 0.36987278 0.7520843 -0.26626086 -0.008648034 -0.6053068 0.3917177 0.5859962 0.3688853 -0.11550326 -0.11429676 0.59222364 -0.26440203 -0.16103616 0.37083584 -0.22346152 -0.8101033 -0.5531341 0.57445204 -0.5437959 -0.33798546 -1.382125 -0.63797975 -0.0726987 -0.5956162 -0.22992666 0.15305512 0.9880935 -0.17041208 -0.01930424 1.5110648 -0.8514184 0.21476616 0.8965205 0.27736312 -2.1800725 0.095457785 0.88598126 -0.3775335 -0.34032756 -0.7315807 -0.85461706 0.5697689 -0.5388012 -2.8068674 0.3038323 -0.050962236 -0.16008224 -0.48259574 0.2376067 -0.20632863 -1.070071 -0.3340279 0.6403573 0.04666669 -0.78532505 -1.2372202 -0.26139817 -0.38486347 -0.21790297 0.7731893 0.3554182 -0.31907144 -0.21761487 0.24822678 0.7155764 -0.3924095 -0.2690693 -0.9464878 -1.0713483 0.06493142 1.3434124 -0.55416524 -0.75534123 -0.9460781 -0.664161 -0.436323 0.56352115 0.20375499 -0.347202 0.72743064 -0.9899964 0.24096611 -0.33028564 0.0710598 -0.54975754 -0.10411571 1.5830051 1.056473 -0.063465856 -0.34634405 0.2765078 -0.52694166 -0.21099003 -0.75113344 0.37908506 -0.1939548 0.47859713 -0.51345676 0.5747166 1.1595728 0.24290319 -0.058702793 -1.0102842 0.20565653 -0.2085909 0.51362604 -0.098588586 0.21447496 -0.15430844 0.36600336 -0.645712 0.3045334 0.7700414 -0.5334972 0.28423014 -0.37604997 -1.5037475 0.021455605 -0.6203186 -0.020996552 -0.8490324 -0.0608945 -0.07776986 -0.08806735 
0.7133754 -1.7416718 0.21849163 1.2042919 -0.20829771 -1.0218534 -0.0880676 0.45232227 -0.33967984 0.6949073 -7.31938 0.34975806 -0.76990956 -1.082213 -1.2355858 0.66745776 0.62250286 0.5466024 0.80764705 0.9287923 0.5762422 0.06972614 -0.47569573 0.409028 0.41877514 0.36677802 -0.50123537 -0.11015736 0.43878892 0.19576015 -0.37599632 0.41995758 -0.120513804 -0.72138697 -0.0024482438 0.09471754 0.33980945 -1.2037061 -0.37821054 -0.11045398 -0.04150654 -2.087703 -0.19759639 -1.3536437 -2.4138236 -0.06528884 -0.195593 -3.655834 -2.4028575 0.033298444 0.18245596 0.56839114 0.4155348 -0.016591175 0.056560434 0.0013774448 -0.37352866 -1.4123484 0.1373769 0.023977011 -0.25987142 0.88500136 -0.26739752 0.1129583 0.7979996 -0.39011928 0.47476876 -1.0056636 0.13006896 0.25137335 -0.46979925 -0.6700165 0.45899504 0.23441467 -0.90385807 -0.2556695 1.3536491 -2.0189624 0.8967617 -1.5936745 -0.3005478 0.13397638 -0.38354322 0.88905376 0.94221383 0.0089028105 0.4958929 -0.103200935 0.13134402 -0.3085067 -0.6347791 -0.23221815 -1.6016672 0.32372347 -0.2918917 0.025625955 -0.7042011 0.20848303 0.4546845 -0.37987736 0.16907905 0.023257088 0.5479155 0.2895437 0.7220508 -0.32316342 0.46135747 0.27603766 -0.59259576 -0.54906374 -0.039221115 0.10291907 -1.115686 1.897557 -0.18069887 0.37372977 -0.3405166 -0.9539479 -4.1124253 -0.3315022 -0.04090578 -0.12965576 -0.7011952 -0.2748207 -0.9936401 -1.0057688 0.024127308 -0.53120774 
0.45003706 -0.4643691 0.9024798 -0.4547002 0.20197983 -0.85931826 -0.124760956 0.006913163 0.46387634 -2.8550482 -6.1993856 1.2198852 -0.04178837 0.61538255 0.7629168 -0.8180949 0.7865864 -0.4725802 0.48565027 1.7897565 0.35259447 -0.47350362 0.23226416 -0.43603927 1.2999592 0.8492829 0.89702076 0.43018496 1.147878 -0.2591738 0.16337205 0.53128725 -1.4277365 -1.1279781 -0.6437685 -0.079313576 -0.7340093 -0.2870561 -0.36464477 0.082615025 -0.9909873 -1.0985695 -0.24113095 -0.07274786 -1.8023206 -2.999329 -0.401888 -1.427219 0.3080561 0.7693743 0.5924491 -0.09209669 0.12297131 0.04518377 -2.891171 0.24849337 0.17105494 -0.772629 -1.8442575 0.7233227 1.0179113 -0.6438767 0.19794033 0.61112696 -0.24770024 -0.63669515 -1.1122931 -0.021105878 -1.2063954 0.41852286 -1.1140279 -0.8119085 -0.16842628 0.050405536 0.82478416 0.7804742 -0.24281944 -1.386872 -6.805056 1.1304824 0.6512078 -0.17741966 0.35349151 0.04667214 -1.0699903 0.20685601 -0.47495842 0.42418578 -0.15476662 -1.0471826 -0.7232258 -0.7701326 -0.4552326 0.38608727 1.5834495 0.5277964 0.041243732 0.18021156 -0.88181365 1.0270121 -0.51639557 -0.90887165 -0.54176885 -1.2723372 0.90626335 1.3592155 -0.99689996 0.82188344 -0.14113036 -0.41544032 -0.1893405 -0.64501774 0.33472362 -2.266425 -0.31388628 1.0551858 0.43000233 -0.040548325 -0.30259946 0.13708428 -1.4166807 0.05425084 1.2062516 0.38927695 -0.3824585 0.9129368 -0.87420636 0.79154414 
1.2213442 -1.134606 0.99317396 -0.8940753 0.0391496 0.6188439 -0.5250833 0.16766466 -0.8715932 0.5264155 -0.68810844 0.0981842 -0.22351228 0.13407645 -0.25031483 0.46362165 0.41761807 -0.5564299 0.7305338 0.058622565 1.0785234 -0.5254195 -0.7152744 0.7208458 1.5281096 0.18148796 -1.2536972 -0.048926946 -0.49331737 -0.2554302 0.08263385 -0.67832875 -0.63369393 -0.5062485 -0.122667015 0.54109955 0.28389966 0.95512587 -1.1746159 -0.5857443 -1.1168687 -0.1219978 0.27307734 -0.03171539 -0.06378774 0.32576895 -0.42401767 -0.89578784 -1.18458 -0.22831383 0.4595842 -0.1970111 0.58748394 -0.44797686 0.055294856 -0.24053247 0.17353654 0.016858608 -0.16960755 0.49504983 0.5447987 1.7312248 -0.13730505 0.2159663 0.9528917 2.7424707 1.2016816 0.30451593 -0.8697811 0.20704433 0.6230596 -1.2504338 0.45173565 0.5385753 -0.10402042 -1.8572974 0.659792 -0.5113493 -0.37378687 -2.9173603 0.03713258 0.07251717 0.03313267 1.1317091 -0.55132556 0.07643316 -0.20701094 0.2124994 0.6880489 -0.20464863 -1.7124494 -0.5333906 -2.0111063 -0.76368904 -0.7688182 0.07952552 -1.1814678 0.55142456 0.8683219 0.34029007 -0.6028644 0.048358742 0.010810852 -0.108659096 0.15329394 0.08263257 -0.10360297 -0.49666828 -0.051612727 -0.114583716 -1.9412407 -0.41382402 0.99392205 -0.8402802 -0.5329256 0.3162227 0.8191224 -1.9947324 -2.3497453 -0.6556345 -0.71219003 -1.0484099 -1.1049458 0.5969723 -0.3194294 -1.0401728 -1.1585703 -0.4404421 
0.92067003 0.3437359 -0.84311914 -0.35184228 -0.33781737 -1.2971122 0.16421153 -0.18152028 -0.18382272 -0.8626435 -2.158778 0.025507614 0.0050378386 0.021098778 -1.2489376 -0.31753442 -0.55233854 -1.4228522 -0.5503225 -0.051833797 -0.33182484 0.47560468 0.4950118 0.106101945 -0.23558721 0.2096664 -0.09785872 0.12469297 -1.5267057 0.11481775 0.23658676 0.8017914 -1.3201866 1.6134629 1.1160791 -0.8125632 0.67199194 -0.54203707 -0.9396901 -0.9815147 0.012172124 0.59778947 0.10333436 -2.4208012 -1.9905657 -1.0694666 0.8942437 0.5440762 0.20682709 -1.2311589 -0.29159364 0.057176787 -0.9561626 -0.3749983 -0.16992034 0.49612576 1.5217156 -1.5620716 -0.95298094 0.3891238 0.87116826 1.569911 -0.37802422 -0.34031078 0.986452 -0.61343724 -0.52643955 0.81485116 -0.2819649 -0.6068132 -0.07762365 -3.820858 -1.057115 -0.24277571 0.43833447 -1.4795138 -0.31971738 -0.055238657 -0.55684227 0.24387588 0.068372086 0.58721274 0.11364039 0.013256499 -0.1547302 0.18849418 -0.5263916 -0.039908323 0.4856311 0.0008718959 -0.42198676 -0.77104133 -0.56416285 0.69166166 -0.41764957 -0.25076616 -0.21738265 -0.26114675 0.45532557 0.713288 -0.44348928 -0.507478 0.8230488 0.43418014 0.42562455 0.056683224 -0.10404635 -0.78612375 0.79252577 0.5596963 0.5468539 -0.27310205 -0.3412614 -2.999007 -0.36044836 0.112633154 -0.027224746 1.0546676 -3.065266 0.30926603 -0.12207758 0.07711028 -1.1656117 -0.5169536 0.6133323 -0.43818262 0.22003269 0.52352923 
-0.038058627 0.008867168 1.5810014 0.802836 -1.301112 0.63194275 0.46612912 -1.189731 0.19518152 -1.4529653 -0.090271816 -0.023852842 0.058762193 -0.011132619 1.1844271 -0.63929224 0.547587 0.19514129 0.9507405 -0.72312135 -0.4772994 -0.0443966 0.27962777 -0.20254244 -0.6979678 0.2206406 -0.43726352 -0.5755533 -1.2609957 -0.09279519 -0.43449065 -0.17907608 -0.5494488 0.9039645 -1.9119592 -0.5149813 -0.84482 -0.4935859 0.1492098 -0.07140151 0.6108411 -0.3013688 -0.3013921 -0.39949664 1.5077573 -0.023389094 -0.6935601 -1.0906904 -0.8780986 -1.0325625 -0.6195795 -0.29211515 -0.6812548 -0.12551296 -0.018351516 -0.051377025 -0.9405612 2.3070264 0.770276 0.8730607 -3.0188377 -0.63209116 -1.109017 -0.19338748 1.4096717 0.61182505 -0.24494621 0.17231254 -0.64377457 0.7884986 1.4328169 -1.7003273 1.457321 -0.64982337 0.55913806 -0.9319387 0.1996143 -1.4897364 0.0030490984 -0.28086895 0.03839259 0.19133537 0.6503175 -2.0768778 0.061978355 0.3481292 0.21800916 -0.118828565 -1.895958 -0.6252034 0.40773216 -0.908527 -0.92325574 0.31399205 -0.08485233 -0.68511957 0.09196737 -1.3896531 -0.10943829 0.33194944 -0.076132484 1.02067 -1.4277843 0.4574002 0.38147676 0.23985653 -0.32768518 -0.1041115 -1.0324507 0.12710768 -2.7677636 -1.1345396 -0.08056965 -1.5840201 0.4617719 -0.083453566 0.08093499 -0.3644124 -0.89271027 -0.5411413 -0.39759758 -1.0953575 -0.87224436 -0.43537968 0.014118118 -1.3398678 -0.7182468 -0.6888467 
0.038811535 -0.9920806 1.2827936 -0.5419451 0.1192718 0.10743958 -1.3909967 -0.3969705 0.14446947 -0.49366012 -1.6351681 0.5746505 -0.7854135 -0.44133666 -0.235678 0.20341994 0.7599116 1.000174 0.32285097 -1.4269487 -0.6914003 0.073205255 -0.19473223 -0.06844089 0.2753121 0.003734782 -0.9990196 -0.320733 -1.4926245 0.15029919 -1.4895275 -1.5594286 -0.12550603 -0.11107229 -0.094956145 -1.3480713 -0.101478964 0.58774 -3.0406578 0.33529636 -0.4358094 0.7761388 -0.43558592 -0.39879876 -1.3053204 0.26203114 0.47659582 -1.157412 0.2891916 -1.792069 -0.31816572 0.69010746 -0.37867048 -0.5729371 0.0043402617 -0.26235855 -0.9369649 -1.9367085 0.8058086 -0.8481802 -1.9750558 -0.60209864 0.19916162 0.43964946 -0.31342638 -0.87418145 0.14071958 0.34157312 -1.016641 0.53383374 -1.0166321 0.32691464 -0.34194574 -0.31664634 0.7997313 -0.7241969 0.012245385 0.35751966 -1.1959095 0.5036525 -2.0935023 0.0997164 0.21610421 0.35179213 -1.5420122 -0.28971267 0.24423566 0.4697871 0.20055781 0.83370805 -0.49126107 -1.6851512 -0.6643894 -1.0045722 -0.19178483 -0.2220176 -1.1980461 -1.8151263 0.25863525 0.030806947 -0.74148554 -0.7761813 -0.14875695 -2.9792886 0.42338502 0.6059159 -0.08472937 0.4627772 0.85063165 -0.21400124 1.3922617 0.10314668 0.25913236 -0.6035646 1.1297162 0.1480532 -1.6831025 0.07808414 1.0876242 -0.5453911 2.0980666 -0.41862786 -0.025177903 -0.32154354 -0.30841756 -0.7351167 -2.2145078 -0.7100204 
-0.26879734 0.8371279 -0.040558364 -0.29827416 0.33331084 0.65285265 1.0217788 -0.9768409 0.73182756 -5.860196 -0.84751195 -0.40238592 -0.6484015 0.49618787 -0.6294716 1.229493 0.42293724 -0.042165093 0.6499298 -0.1997342 -0.9414976 0.026040995 -1.6358731 -0.41211304 -1.2045153 0.7190198 0.09274605 -0.8123305 -1.4378284 -0.38827476 -0.31628013 -1.3041195 -0.87340367 0.42949846 -1.0609815 -1.3631731 -0.01962922 1.4900638 0.53102756 0.48554292 -0.24786606 -1.2475265 0.011972443 -0.37815148 1.1916108 0.41438308 -0.21480907 -1.6400772 -0.7147688 -1.3095591 -0.25646433 -0.7311567 -0.5328381 -0.5239986 -1.9018198 -0.2675264 0.3640908 -0.9905976 0.9962795 -0.45669997 -1.676115 -0.8070552 -0.40227225 0.025295552 1.0827972 -1.1641507 -1.2964535 -0.046828274 0.48120493 -0.5055104 -0.0005160769 -0.55617535 0.20643443 0.19204198 -0.11869482 -0.4547769 -1.8773764 -1.4427505 -6.859224 -0.9451358 -0.40530068 -0.25835901 -0.01949615 -0.23861933 -1.0830997 -0.08952482 -0.40762767 0.5611569 0.7041703 -0.66325545 1.1072896 -0.65878886 -0.28630695 -0.0053464053 -1.2037914 0.15960579 0.9017633 -0.18783888 0.1343677 -0.37017617 -1.2464205 0.53641605 0.54304785 -0.46592394 0.33552378 0.9501129 1.302321 0.62093717 -0.16628411 0.52550936 -2.7544105 0.20572859 -0.722151 -0.2539537 -1.3189136 -0.22570212 0.45033762 0.415822 0.24646425 -1.5374913 -0.80592906 -1.2235007 -1.7169554 0.26298448 -1.7590444 -0.7887852 1.1541548 0.08297146 
-0.2629617 0.1489646 -0.13818529 -1.1265591 0.3692681 0.30673757 -0.31798038 -0.10672047 -0.12779608 0.49780834 -0.7281086 1.1186888 0.018549658 0.51166826 -0.35136256 -0.4010214 -0.16022858 0.7750019 -0.11028962 -1.2381039 -0.27601722 0.080747224 0.65665114 0.6776911 -1.7202005 0.25482112 0.1306359 -1.0065078 -0.7916077 1.2387769 1.3850632 -0.48529017 0.7121465 -0.37337434 1.3852948 -2.0211935 -0.3231935 0.9753621 0.6535582 -0.48383424 -0.63377225 -2.0706022 -0.5325966 0.8883654 -0.5735446 0.4803018 -1.672529 -1.3266029 -0.11461836 -0.13652441 0.2214795 -0.010786143 0.32568818 0.011389376 -8.478323 -0.14867604 -0.17046927 -0.5977444 0.0900233 -0.63405275 -1.5924182 0.9398 -0.06266626 -0.4734894 0.4300038 -0.011842571 -0.06415113 -0.24436253 -0.81633633 0.19599271 -0.781081 -0.19661312 -0.16530956 0.27196357 -0.90980756 -0.35007915 -1.0662069 -1.3329307 -1.1666424 0.2773376 0.16530545 0.081865184 -0.55310154 0.75403917 0.45242524 0.7087712 0.26231322 -0.34724492 -1.4285854 -0.45189503 0.75754136 -0.14274733 -0.49661925 0.19650538 0.09963202 -0.5653107 -0.9084654 -1.2110287 0.8537905 0.009068451 0.5551421 -0.42686018 -0.069899395 -0.80207676 0.010492554 -0.11043042 0.03481453 -0.21118176 0.41605604 0.7304347 -0.6520925 -0.3971879 -1.1163752 -0.16752608 -0.1329383 0.011205572 -0.32469139 -0.09247926 -0.9005809 -1.0099313 0.22798292 0.9038734 -1.4081988 0.32725865 -0.4840484 -0.37953165 -1.3978382 -0.6459586 
0.09278733 0.09381389 -0.04086499 -0.024326935 -0.02155447 0.061724998 -0.00870686 -0.051983852 -0.10323185 -0.091570795 0.043881096 0.043256782 0.09400738 0.01850029 -0.040314548 0.10130044 -0.013523981 -0.106607735 -0.028839976 0.038593642 -0.048405997 -0.017510995 0.09003743 0.06419214 0.00030329078 -0.085651115 0.028339751 -0.0666569 0.037930883 -0.061091427 0.054213278 -0.0013468713 -0.03127069 0.023014031 -0.028389104 0.04753036 0.08980178 -0.07935637 -0.07183484 -0.098731175 -0.09264585 -0.10453606 0.034378313 -0.041015945 0.012497172 0.093992956 0.03375525 0.0831959 -0.096725255 0.03873492 -0.058403336 -0.0823192 0.03300775 -0.030314445 0.012989312 -0.09222066 0.07320022 0.09772014 -0.0827727 0.0871344 -0.03397458 -0.010123879 -0.105871 -0.025899254 -0.0111474395 -0.03299485 -0.017212093 -0.03442599 0.046151735 0.027456664 0.047452204 0.044583865 -0.021976076 0.049121834 -0.09995744 0.028704606 -0.06773724 0.011635572 0.092625044 0.09310167 0.07291704 0.04956635 0.042292513 -0.07532762 -0.03270656 -0.04108669 0.0729635 -0.07416454 0.02099482 -0.091747284 -0.10271552 -0.07250914 0.052232705 -0.0038092881 -0.04533758 0.067857556 -0.0045275167 -0.07674728 0.019101508 -0.030508459 -0.058819927 -0.047006708 -0.006285511 0.09175875 0.05652847 0.09683014 0.041222416 0.049165808 0.08897988 -0.10216945 -0.025957406 0.040405057 -0.06916636 -0.027842946 0.006015204 -0.09674562 0.09077602 0.10498317 -0.090222225 -0.09340493 -0.07702081 -0.010216564 -0.037672937 0.021658458 -0.056624487 0.10537473 -0.046548486 0.013683483 
-0.023653746 0.015648752 -0.021373421 0.00021398813 -0.10768562 -0.09380157 0.027350165 0.08702568 0.012439333 0.005510062 -0.02298925 0.08540236 -0.07579984 -0.056097046 -0.009398036 0.05026073 -0.08567362 -0.08815676 0.03299261 0.032815553 0.022000901 -0.04033775 -0.033108078 0.09375439 0.1063283 0.039783023 0.044727392 -0.095726036 -0.054161016 0.031266145 -0.094009414 0.09812721 0.057028927 0.08592165 0.057916664 -0.06504233 0.005044535 -0.0793096 0.0040814504 -0.038309604 -0.0048320964 0.10768361 0.051700123 -0.07053611 0.06472754 -0.10190268 -0.05061615 0.10670372 0.018341072 0.02338887 -0.028851278 -0.108034335 0.0752847 -0.10099756 -0.0523433 0.107546665 0.086249866 -0.091993585 0.10490098 -0.10673454 -0.058421686 0.0262141 -0.003920883 -0.045361683 -0.06077201 -0.060918555 0.030890383 -0.07536536 0.079731174 -0.08036511 -0.061437637 -0.09182866 -0.0066201016 0.05581639 0.00017648935 -0.016245678 0.016364686 -0.07646175 -0.073314376 0.012749955 0.053070955 0.08425733 0.018070005 0.06822086 0.019982673 0.003353566 0.026489131 -0.08386321 0.068828486 0.030470215 -0.06191315 -0.008665405 -0.043494776 0.062215276 -0.048839368 0.096335344 0.0060693026 0.04127819 -0.098784596 0.08862365 0.096393116 0.019941278 -0.012613624 0.07325951 -0.08458152 0.044628747 -0.061005972 -0.0074632466 -0.024901353 -0.015411258 0.015692271 0.06533121 -0.028358027 0.013579369 -0.06787723 0.09561417 0.084515385 -0.079802305 -0.10271307 -0.020562999 0.035098515 -0.04113108 -0.061933544 0.10678054 0.079269 0.038020663 -0.08615242 0.10715937 
-0.09033852 0.027657919 -0.06792657 0.007947512 -0.002925463 0.08246521 0.016118594 -0.041418366 -0.0006588921 0.08175296 0.0022811815 0.09899644 -0.02026593 -0.028719775 -0.031953998 0.076579176 -0.0011147633 -0.098197356 -0.060997844 -0.06656736 0.020992734 0.046033345 0.025605641 -0.07869965 -0.03608536 -0.035850212 -0.05021636 0.061047293 0.010701574 0.00023324043 0.030965261 -0.08043407 0.03856688 -0.0073608086 0.0042865276 0.0033539757 0.0021129772 0.046460472 -0.030377448 -0.081095986 0.046791114 0.022194631 0.016676106 -0.07555635 0.068345 0.10378683 0.05289679 -0.079497986 0.102183156 -0.033183828 -0.07305584 0.027307741 -0.00044243038 0.06629353 -0.026565246 -0.09899957 0.00018603355 0.054827936 -0.0060532764 0.08421894 -0.010951906 -0.047033317 0.08051454 0.0058323666 -0.038726196 0.0066926777 -0.08142694 -0.034117334 -0.030656427 0.006035723 -0.10075048 -0.04992809 -0.02421885 0.036166556 -0.0057134405 -0.0032673627 -0.100814134 0.07291149 0.04369975 -0.09152728 0.015028626 -0.020904124 -0.09260127 -0.04709957 -0.03905744 -0.00802809 -0.034066617 0.020531021 0.09773188 0.03625328 0.013053909 -0.037201807 0.041446574 -0.09310755 0.034620337 -0.09245464 0.011497028 0.062300913 0.07446871 -0.06867319 0.012840308 0.036820598 0.047313787 -0.08824108 -0.09295866 0.005329214 -0.04970035 -0.012391299 -0.019822754 0.0039348975 0.049179338 0.027644835 -0.004564166 0.0785665 0.052787386 0.07692581 0.029643632 -0.06668243 0.09950187 0.04747107 0.07377281 0.030958734 -0.015632264 0.07513934 -0.00063633174 -0.055038825 0.008204088 0.058968104 
0.035567217 0.09151869 0.043590985 -0.0645306 -0.0046042725 0.017043121 -0.08657709 -0.10575798 -0.082449615 -0.04185708 0.019168787 -0.021478906 0.08035589 -0.034371145 0.098578684 -0.070952594 0.010105811 -0.031355448 -0.08187179 -0.028643847 0.049867205 0.033529647 -0.097434916 0.02203726 0.009663105 0.016060263 -0.03512592 0.10389004 0.047852077 0.04479312 -0.06900929 0.08276772 0.06286534 0.061550833 0.06678709 0.004058428 0.07528026 -0.037096456 0.07566025 0.09688672 0.019287772 -0.050869882 -0.009861529 -0.058235884 -0.011417016 -0.09227558 -0.013507254 0.0039078295 -0.08806155 -0.103510484 0.01990997 0.06808125 0.08273647 -0.028979242 0.04835763 0.10652035 0.05640065 0.055881582 0.0016267747 -0.10063729 0.098086186 -0.03208839 0.07056669 -0.052104484 -0.106729686 -0.04030951 0.07442584 0.0071989372 0.039273076 0.08351547 0.0009371191 -0.04873737 -0.07440772 -0.070597425 -0.033673048 0.09323121 -0.102233894 -0.0793104 -0.059784252 0.08183264 -0.018249094 -0.048354898 9.304285e-05 0.058385707 0.10032923 0.034697913 -0.101526946 -0.013173409 -0.003846787 0.009103626 0.022692002 0.09672425 0.037041165 -0.08643836 -0.032046117 0.002808258 -0.04006035 -0.04463592 -0.036622435 -0.057145532 -0.045720875 0.026963674 -0.022345096 -0.002171278 -0.1081312 0.012553617 0.047123216 0.043784104 -0.1005652 -0.03846348 0.09004102 0.028898232 -0.09493149 0.010707125 -0.10163364 -0.017214261 -0.10467891 -0.07739428 0.07959864 -0.0011751577 -0.068739444 -0.027646251 -0.08730466 -0.09856628 -0.04301182 -0.036482938 0.057864822 -0.08822879 
-0.0866531 -0.056592897 -0.0069766864 -0.013478659 0.012445763 0.097717814 0.0054987296 -0.013360269 0.034530602 0.055832632 -0.07388141 -0.073933676 0.0462491 -0.073368475 0.0879984 -0.033965185 -0.08168029 0.057485394 0.04162409 0.007847816 -0.034513563 0.042152442 -0.0788313 -0.027383126 -0.093861476 0.08334521 -0.10422531 0.021212213 0.018653966 -0.0948244 0.01114656 0.06508141 -0.09156889 -0.09425809 0.032929964 -0.08547822 -0.093304604 -0.10797704 0.07157863 -0.07960961 0.084301926 0.07064726 -0.04634402 -0.07681387 -0.014375724 0.009964868 -0.069502994 0.0601468 -0.08206178 -0.04277257 -0.09274875 0.0605636 0.04543989 0.00990659 -0.059816383 0.056040205 -0.06609035 0.0948314 -0.011533983 0.03382542 -0.10780367 0.06311386 0.06324934 -0.07499468 -0.00090175867 -0.00029791892 -0.024613582 -0.06746636 0.05253274 -0.03230132 -0.10767218 0.082360856 -0.04090915 -0.09783749 -0.03182503 0.09496533 -0.07688391 -0.08346492 -0.056072578 -0.07931079 -0.026504025 -0.106427096 0.10589101 0.097725965 -0.08854155 -0.06972003 0.022468723 0.06879597 0.08613724 0.059970357 -0.01938957 -0.07811596 -0.08933112 0.0068112463 -0.026673518 0.01310654 -0.016760163 0.09504693 -0.10079996 0.049837016 -0.025926434 -0.010641672 -0.06909167 -0.07043702 -0.052538447 -0.07789327 0.011261411 -0.041523695 -0.008070521 -0.08432161 -0.096252754 -0.059643332 0.09038951 -0.026926525 -0.0884894 -0.05788126 -0.052436113 0.064822175 -0.005930856 -0.03734131 0.076636426 -0.016424716 -0.07108541 0.016303025 0.103323705 0.06465294 -0.07403957 0.09359052 
-0.01694081 0.09204193 -0.033551328 -0.0023383498 -0.038308963 -0.073593915 0.09277136 0.019715391 0.072549276 0.041357927 0.048322506 -0.029692024 -0.024252012 -0.031942904 -0.030102186 0.009407535 0.056008212 -0.03757003 0.034291647 0.08162204 -0.04091624 -0.057859555 0.0039219707 0.07603829 0.014939636 -0.07498402 -0.106468 0.026604779 -0.032568887 -0.0942249 0.06265665 -0.087784275 -0.028990261 -0.019256212 0.091616504 -0.056234814 -0.058092073 0.04497666 -0.09022501 0.074282266 -0.022117227 -0.06153961 0.087107964 0.0649823 0.10569609 0.03257797 0.013603523 0.0131704435 -0.07017015 0.047590293 -0.00018689036 -0.084074356 -0.07746058 -0.09378407 -0.009048961 -0.006316453 -0.03488847 -0.053110827 0.07595041 -0.074376695 0.051351853 0.07068018 0.021711983 -0.07221037 0.027022101 0.03222116 -0.04957778 0.071453474 -0.05976701 -0.014177918 0.089577265 0.015631795 0.060726784 0.09253106 -0.0028051361 0.08800795 0.08865435 -0.049048115 0.066423275 -0.09556576 -0.049660757 -0.08630611 -0.029312007 0.07085926 0.058558963 0.072960936 0.075229935 -0.0077487826 -0.016097762 0.07610486 -0.09077535 -0.071753204 0.04515717 0.08076937 0.043427773 -0.100231305 -0.045552053 0.023222111 0.059104063 -0.09295071 -0.04545065 0.10170815 -0.023273833 0.04055462 -0.09367885 -0.035050914 -0.10078203 0.016260803 -0.09524822 0.03416071 0.106499486 0.085413255 0.0961367 -0.020586334 0.098617814 0.040827043 -0.047619864 0.007168554 0.03506545 0.0044852644 -0.017734602 -0.08387172 -0.043060012 0.012575373 -0.10675851 0.097471274 -0.09122247 -0.069307774 
0.03724111 -0.102829345 -0.060445413 -0.005759299 -0.09886006 -0.09798806 -0.0524867 0.041332655 0.10678267 0.05559335 0.045991562 -0.0439865 0.08897833 0.016238764 -0.0072523057 0.07296745 -0.09477735 0.031232156 -0.04874986 0.0672914 0.07490518 -0.033564746 -0.06853847 -0.014046885 0.025109611 0.01904779 0.093901925 -0.023317367 0.10001386 0.023288332 0.04326027 -0.09872487 0.04052957 -0.018931061 0.10078225 0.07505559 0.029728152 -0.08152796 0.039421476 0.09431069 -0.05811313 -0.08152409 -0.058944277 0.04449468 0.00064209104 -0.0072347596 -0.0133891255 -0.04054048 -0.0852171 0.0969548 0.10031877 -0.07527435 0.0886248 0.101380415 0.085928 0.035622828 0.08420769 0.037883393 -0.022732265 -0.038381353 -0.017281651 -0.06231289 0.09471605 0.10553976 0.044401906 0.009050794 -0.024735503 0.037407942 0.06012114 0.057258807 0.054053552 0.08091668 0.06833912 -0.038727358 0.09695669 -0.01669693 0.08858345 0.0546379 -0.08087792 0.07992927 -0.08200709 0.039684616 -0.035453826 0.075661115 -0.082092464 0.05502584 -0.0055234507 0.027084075 0.10373657 0.05289387 0.01997248 -0.03741967 -0.07266751 -0.009703286 0.016986229 -0.08573745 0.019920982 0.098841794 0.079962246 -0.017192118 -0.039253876 -0.092430465 -0.010501839 0.010368817 -0.042781137 -0.095532954 -0.025610574 -0.068027616 -0.0026002377 0.093284406 0.08919955 0.06459237 -0.09523356 0.010551184 0.023025416 -0.09767789 0.044503443 -0.039166562 -0.07556701 0.04605011 -0.08229102 -0.06186845 0.03945943 -0.023920722 -0.07447335 0.08705435 -0.044589825 -0.029301345 
-0.048961163 0.009672679 0.10316371 0.10709437 -0.10698704 0.023407452 -0.006926924 -0.013288647 -0.09697315 -0.039293624 0.053230457 0.005466573 0.07556378 -0.031833418 -0.017836913 -0.04276932 0.022908472 0.052239336 -0.090782575 0.10046593 -0.034339033 -0.09346424 -0.036431186 0.07757089 0.089167304 0.08987578 0.09096513 0.056880422 0.017630853 0.048900403 0.028050773 0.09345827 -0.038669832 -0.09367666 -0.0935627 0.08055494 -0.049305566 0.0679139 -0.07988495 -0.044073217 0.027391769 -0.09999546 0.079424374 -0.011979766 0.029082306 0.026011996 0.086467065 -0.0942561 -0.054283768 0.046451904 -0.010288753 0.10518994 -0.058635727 -0.014123566 -0.0074114725 0.0031362772 -0.0014978573 -0.096457735 -0.031220205 -0.047573123 -0.023310326 0.01158341 0.08521896 -0.08921978 -0.08471338 -0.063336626 0.05595649 0.008567795 -0.01887092 0.08009643 0.10577204 -0.10453546 0.004878424 -0.005297415 0.022958048 -0.0105535835 -0.09606231 -0.045783386 0.01999142 -0.0051225275 -0.029440403 -0.032616273 0.055158354 0.043357722 0.077173986 0.0388915 -0.066611245 0.031792514 -0.057298556 -0.0896467 -0.06729177 0.023282431 0.021426253 -0.09241619 0.0112898275 -0.07955954 0.076562606 0.07479026 0.075666524 0.089549415 0.061622106 0.049359553 -0.06121031 0.0020079836 -0.0049313307 0.07006023 0.019333102 0.041936256 -0.09906652 0.007999003 -0.024686694 0.014852606 -0.015596747 0.089872085 0.07184736 0.022101201 -0.022330925 0.04537923 -0.07819434 0.051472105 0.08007183 0.08905173 -0.019216202 0.049149103 -0.03572627 -0.044678606 0.036240228 0.0770838 
-0.80101436 1.7067782 -0.5216725 0.64855075 -0.28230348 -0.92136276 1.9044474 -0.54111296 -0.36010566 -1.4959813 1.4374883 2.5246084 2.596129 -1.1626483 1.829517 0.85332245 0.8118084 -0.9275069 -0.75031877 0.32158893 -1.3181949 0.9005051 -0.9471328 -1.1364523 -0.018498918 -0.7898708 0.16240554 1.8987983 0.03526697 -0.16612032 -2.019954 -0.6191428 -1.8888638 0.19343844 -1.111461 0.9045178 -0.9195301 -0.8321264 -0.013271175 0.8846195 -0.29757157 -1.7697734 0.5908312 -0.8054953 -2.4525168 1.4585375 -1.4453187 -1.9180943 1.0836251 0.023797426 1.5505834 -0.34781587 -0.42575368 -1.1413767 0.45382112 1.4129016 -2.7901657 -0.090195954 0.44970602 -0.36261132 -0.82768023 -1.5066097 -0.66346234 0.35279202 -0.2014344 -1.0965261 0.04826336 0.98802596 0.09455413 -0.42037696 0.8785222 -0.380275 -0.026840826 -0.8646269 0.9289174 0.6670104 -0.33756882 0.8314094 3.0135374 -0.37688392 -0.47203436 -1.3883824 -0.06306166 -0.26951298 -0.6783074 0.8323652 0.61122495 0.3606015 0.1574472 -1.7490114 0.1712806 1.000043 -0.30688393 0.4931898 0.85572046 -0.10966329 -0.40018454 -0.03189839 0.3712444 1.2186997 -1.3651485 0.17031069 -0.88923395 -0.64321613 -0.18953918 1.7151954 -0.5793043 -2.6618447 1.4413579 1.0154694 -0.22237843 -0.3989871 -2.2922008 0.21818516 -0.5981265 0.18720289 1.7062485 0.81025153 0.6543964 -0.042144455 -2.55809 0.112785295 1.1754516 2.42209 0.98836285 -2.204574 -0.123175986 -2.0450509 
0.591447 0.33848158 0.12422136 -1.0810708 0.8362808 -0.4304996 -0.22431919 0.022088444 -1.4041873 0.8222339 -0.7366701 0.30326232 0.9425654 -0.6815226 -0.45465603 -1.2973293 0.1665434 0.01301868 0.03103915 0.41623136 1.2132437 -0.26657563 -0.5006398 0.5059217 0.19797826 0.10253712 0.35911232 0.5237194 -0.8199773 0.26432818 -0.111392826 -1.5831506 0.42750934 0.71909124 -0.9637144 0.6395066 1.542842 0.2138987 1.129455 0.08839085 -0.21066251 -0.11528413 0.45458645 -0.12886699 0.009675628 -0.18076809 0.1689299 -0.56531507 -0.42845103 0.23315597 -1.2800722 -1.0743201 0.62896675 0.3241508 0.90476346 0.54450864 1.4426464 -0.5212006 0.28822666 -0.74641603 0.38282287 -0.7831456 0.1070336 0.64622843 -0.77358556 0.23424084 -1.3744005 0.18830709 0.89590544 0.32017958 -0.007220969 0.96662897 -0.48563665 0.7874651 1.2925135 0.65284675 -0.10327199 1.3847381 0.36659256 -0.570292 -0.40062982 -0.43524387 0.42303705 -0.46661225 1.753951 0.43129387 -0.022347366 0.7312113 1.5470552 -0.25905234 -0.6302013 -0.14508022 1.4062314 0.14860779 -0.8101647 0.6475714 -0.48180264 0.58098185 0.5704483 0.28561696 -0.5600497 -0.3369651 -0.30136096 -0.7766808 -1.487529 0.79453 -0.31766167 -0.1957215 -0.009050465 0.7213628 0.043449387 -0.061264534 0.36930373 1.4654949 0.090240486 1.076592 0.53962725 0.55407226 1.4032012 -0.55144143 -0.2955516 0.55836415 -0.3655384 0.18608929 -0.47952706 -1.300159 1.0763477 -0.5433675 
-0.18442369 1.473174 -0.00080348604 0.013452477 -1.9523753 -1.3412764 0.16820794 -1.4645759 -1.527866 -0.19656321 -0.6616707 0.12922512 -1.9186493 -0.66954273 1.4482857 -0.75495523 -0.046153255 0.07482449 -0.24573782 -0.27380887 0.8769069 -0.2838815 -0.538435 0.7245617 -0.54863524 1.1783041 -1.3985655 1.1936356 -0.5652901 0.9036552 0.6135663 -0.09911031 -0.86628217 0.62923056 1.8091701 -1.7928332 0.63137805 -1.1408709 2.2221017 -0.5640568 1.823265 1.261089 -0.85347337 -0.2835181 2.0207424 -1.119691 0.68141276 1.6550201 -0.05069036 -1.4240713 1.574795 -0.8908163 0.24700175 -1.0953115 -0.5009504 2.257828 0.30088642 1.6104275 -2.3981318 -0.4571079 -0.10917642 1.5502934 -0.6984131 0.7727598 1.1277337 -1.3521601 -1.8987155 -0.8587003 1.239562 -0.061386816 -0.48646992 0.20957893 -0.08459206 0.8662374 1.1049721 -0.030563662 -0.5578969 2.134988 -0.8060339 0.05489874 -0.93053716 -0.6360646 -0.21178019 -0.93841565 -1.6457032 -0.21513638 -0.25200027 -0.27790034 -0.51469696 0.9616713 -1.2992381 -1.2309253 1.1222616 0.51287246 -2.0514183 -0.73626924 -0.11904085 0.46885437 1.3006886 -0.5854171 -1.0467792 -0.29615662 -2.5692043 -0.9268917 -0.873208 -0.5461398 0.3735887 -0.9693894 0.86001796 -0.22948153 0.22552691 -1.4774363 -1.0798876 0.5098005 0.27516806 -1.4900029 1.7332381 -1.1794045 -0.7663318 0.64923763 2.5450034 -1.166783 -0.18957949 -1.2390494 1.6239241 -1.449691 2.2328596 -0.08465871 
-0.14963694 0.69208926 1.649318 0.817637 -1.633544 -0.76835483 1.0319953 -1.112833 0.18168703 0.36425108 -1.4957193 0.61110586 2.7448266 0.58796954 0.40474954 -0.063962616 -0.72791743 -0.3031085 -1.3766614 3.4607785 0.014793323 1.0563294 -0.115515776 -0.53781813 -0.900355 0.953438 0.03367812 2.0507798 -1.2670822 -0.16434658 -0.23832078 0.24757914 -0.82551086 -0.41196406 -0.13950427 0.51011735 0.61972517 0.7604209 -0.351983 -1.5425943 0.23098104 -0.4439962 1.4657294 -0.87210226 -1.480165 0.43155134 -0.004217271 0.116962366 1.5136349 -1.3078532 -0.6219366 -2.037422 0.1124041 -0.081551105 1.1089514 -0.43253785 1.6500683 0.8715657 -1.8522025 -0.0501481 -0.3447908 0.47319296 0.6026853 0.7750803 0.2884255 -0.015445607 -1.4933295 -0.20336989 0.7666436 1.3841608 -0.04848927 -0.39941877 -1.3794026 0.3997926 1.0985996 0.2612368 -0.67804366 -0.616681 -0.79243845 0.31415182 -1.1757708 -0.5954049 0.38824368 -1.8201563 0.60723525 0.43135026 0.13471048 1.159594 0.057953212 -1.7970772 0.6830557 1.2144861 0.37797537 0.6628161 0.6226104 0.97498345 0.16418432 -1.1677686 2.042953 0.09155973 -0.6715695 -0.08466155 -0.3703912 -0.7627265 -1.6156647 -0.62958556 -0.7973527 -0.35931888 -0.015753198 1.6523498 -0.29808956 -1.1149652 0.27997997 -0.053815648 0.31620634 3.0883954 1.2340331 -1.4145659 0.27758417 -1.4429334 -1.2038424 0.16532569 0.9582041 -0.28365847 -0.9097002 -1.5984316 0.4561353 -0.44727325 
