0.26686206 0.3931843 0.22029154 1.4897563 -0.7535926 0.13958278 0.42033434 -0.09165275 0.3312695 0.07823631 0.37905687 0.19132043 0.40070632 0.75345397 0.9028288 0.11641037 -0.07865407 -0.3755394 0.61129385 -0.27668354 0.31981808 -0.13934709 0.88054925 -0.39447123 0.49983686 -0.05123461 0.8072399 0.56060404 -0.24243611 0.3565616 -0.50616086 0.74560094 -0.99541855 0.42060736 0.628594 -0.46094278 0.7337876 0.07002155 0.77349305 0.3822553 0.26585406 0.7168765 0.17301156 0.17429681 1.7004973 1.2243415 0.9932931 0.70901287 0.8003613 -0.07769841 0.6023303 -1.8659147 0.19739386 -0.057501376 -0.7813379 -0.21570905 -0.539748 -1.5951557 0.91728836 -0.80903465 2.2252455 0.056162097 0.5644818 -0.578664 
0.36135456 -0.4617276 -0.9883338 -1.5080934 -1.7037133 -0.36720142 0.16314635 0.5814858 -0.2942634 -0.5533099 -0.6115797 1.0272353 -2.2103844 -0.78950584 -0.8361409 -0.34528264 0.6612487 -0.88182104 -0.7750593 0.064494275 -0.3408237 1.2050705 0.13145691 0.4434469 0.3350262 1.7179585 -0.6246374 -0.9700929 0.2255264 -0.5350056 1.5870436 -0.5208498 -0.4569871 -0.017778056 -0.2690374 1.0734227 -0.71605945 -0.3393735 -0.58186543 -0.67883533 0.15035604 0.32261336 0.1542631 0.57514614 -2.0724719 -0.835212 -0.17022638 -0.78433406 -0.66843784 -0.4610707 -0.66891485 1.964348 0.28744158 0.7033237 -0.6603608 0.38947684 -0.2796932 1.3489461 -0.42500895 0.539387 0.30383274 -0.22405764 -0.19450113 0.18883272 
-0.081836425 -0.70988405 -0.45238972 -1.1741852 -0.6988301 0.65132934 -0.37820596 0.18774256 0.14952663 0.5893667 0.29571986 -1.4588611 -0.8579665 0.112068 0.83399683 -0.20390493 -1.1749727 0.15094313 -0.8049297 -0.17781724 -0.5929778 2.0694554 -1.0914813 1.3670806 0.58060604 -0.11832841 -0.30858955 -0.3863694 -0.96546483 -0.3031759 0.37389082 0.08481989 0.76288337 0.17634352 -0.17354657 -0.29376638 0.2784038 0.38994536 0.20043682 0.21413901 0.48543793 0.9474131 -0.63658607 0.14349934 -1.4648176 -0.44697312 -0.08593731 1.4044871 -0.17237394 0.20864001 0.47127917 1.606155 -0.005442016 0.3561916 -1.5510515 -0.4446977 0.47122958 2.3175642 0.03106914 -0.07017027 -1.1462314 0.21521318 -0.30872652 -0.96032304 
-0.08936056 0.73698163 -0.19908124 2.4081137 -0.08878736 0.5317731 -0.048742335 0.64453924 0.4410087 -0.42772287 -0.35934618 0.69402015 -0.24086674 0.14285712 0.9525758 0.15254216 0.49476743 -0.16101176 0.29308516 -0.2531884 -0.67354715 0.9677103 0.23170014 0.31696054 -0.21379413 -1.9184772 1.1419358 0.5941241 0.08574839 0.060982455 0.020656696 -0.33432475 -0.8643758 0.26353544 0.80936456 0.46600366 0.13004197 0.29798165 0.05548782 0.044378858 -0.024593905 1.6967853 0.2123471 1.3098304 1.0230547 0.40603757 0.78557324 0.437961 0.11337038 -0.36008975 -0.15551446 -2.9862785 -0.20566972 -0.7826272 0.5804866 -0.2014341 0.0077778785 -1.6512793 -0.25798312 0.45064813 2.454751 0.14546362 -0.07856737 -0.47144008 
0.26021683 0.40774348 -1.1721565 -1.7425259 -2.0034297 0.7056413 -0.41893515 -0.06047201 0.019305523 -0.52636486 0.93508804 0.7944041 0.37606803 0.66494954 -0.21030661 -0.12705667 -0.09821725 0.96152914 -0.17634408 0.8770533 0.15703918 0.610363 0.4068095 -0.5052292 0.4165069 0.71940327 0.3004304 -0.19245178 0.4545373 0.16759314 -0.32113752 -0.055059314 0.7692657 0.24405675 0.012245429 0.10937246 -0.20300965 -0.35037786 0.26522893 -0.21952511 0.119271785 0.45376194 0.55188465 0.55927646 -1.1544363 0.4158617 -0.12108783 0.61016923 0.2944378 0.10258089 -0.033662617 -2.2104735 0.47869825 0.5417126 -0.35354903 -0.6937614 -0.008640129 -0.6723483 -0.042410545 1.1916447 -0.73290324 0.6051106 0.15019493 -0.6972493 
-0.29744643 -0.17978835 0.49323422 2.6614904 -0.084659874 -0.010679191 -0.15035522 -0.5140878 -0.3532779 0.1828178 -0.12820864 -0.14123487 0.29230556 0.4279317 0.083863854 -0.03240256 0.2633124 -0.73974645 0.7789329 0.014787971 -0.38160834 -0.10503355 -0.38494095 0.8134406 0.35053664 0.08985405 0.048740853 0.14969671 0.4998255 -0.23343988 -0.23057908 0.40212595 -1.4887458 0.6584145 -0.6891646 -0.10385061 -0.39098036 -1.3415749 -0.034869842 -0.38749847 -0.080769934 -0.09043548 -0.076304294 0.19250537 2.3489487 -0.77381057 0.72024304 -0.29073566 1.0503354 0.16761471 -0.39712992 -1.681518 -0.5040455 -0.4337019 0.8211363 -0.22918642 0.58698934 -1.0013511 -0.013299062 0.5960819 1.4755728 0.5416974 0.23460118 0.49354482 
0.084698536 -0.12603587 -0.30117723 -0.9247414 -0.55226016 0.57788974 0.74278927 -0.09606549 0.5316395 -0.502112 0.47624058 0.43210423 0.21773288 0.70520234 0.1311287 0.46386698 0.6395993 0.027518101 0.91252345 -0.6817956 -0.44686002 -2.0500436 1.2780961 1.9205712 0.101952896 0.33849183 -0.3581945 0.100310415 0.9027094 0.8139026 -0.5388649 0.38086087 -0.28675848 -0.58624583 -0.048475128 0.4757893 0.27087358 -1.2230955 -0.319589 0.032588214 0.31288353 0.6439487 -0.15581322 0.69608 0.36227125 0.1387724 0.9982404 0.22577047 0.27632126 0.7264841 -0.3010912 -2.5961905 0.22483768 0.9551106 0.9381849 -0.8530888 0.13827635 -1.4752591 0.88720703 1.1150615 0.4043473 0.1986851 0.4712058 0.13891555 
-0.10367336 -0.16035457 -0.2743824 -1.1388254 0.6067817 -0.8160948 0.18015972 0.20937721 -0.86435485 -0.46397316 -0.62234026 -1.7070433 -1.1198335 -0.6762952 0.0851938 -0.0738807 0.41524306 -0.011863413 -0.5519648 -0.69207793 -1.3340815 -1.5305762 -1.1614385 1.8178078 -0.5844903 1.3663633 0.34044325 -1.2111111 -1.2650732 -0.5243917 -0.8582922 -0.42167684 3.1050717e-05 0.2208935 -0.5611077 0.15724209 -0.43291467 -0.6344627 0.02223887 -0.11671946 -0.968166 0.3070395 -0.87336403 -0.43433475 -1.9415492 -0.24628976 -0.07238665 -0.6019842 -0.24718046 -0.04932718 0.036248975 3.5109115 -0.19180644 -0.34705427 -0.745579 0.29822904 -0.49618086 3.0869343 0.22559935 0.31869617 0.5282137 -0.38576415 -0.15534313 0.7049289 
-0.495735 0.02228245 0.48664117 2.1679468 -0.37243733 0.49555624 -1.1106887 0.3164332 0.92438394 0.29599103 0.9682178 0.17123841 -0.30739167 0.30817494 1.2122984 -0.31366324 -0.019526932 0.19484033 -0.029368449 0.25021702 -0.23578164 -0.43663657 -0.7806245 -1.7617774 1.1591368 0.61199677 0.050828516 0.30031675 0.491759 0.021007434 0.514826 -0.05972465 -0.4414737 -0.28444877 0.1294536 2.162437 0.027344836 -0.35681686 0.89295816 -0.15285966 0.22460723 0.7316074 0.40960106 -0.13464981 1.8481897 0.07735125 -0.07233036 -0.77481157 -0.39666206 0.010968402 0.08102462 -2.3432784 0.5934746 -0.92036325 0.84131545 1.5592277 -0.09050136 -0.7009613 -0.12136369 0.45651856 2.6478932 0.4518094 0.37899008 0.50752217 
1.2428727 0.065434255 -0.83791864 -0.83385354 -1.4364505 0.0017573803 0.6059683 -0.0062242546 0.28410962 1.1525847 0.3248524 0.7616143 -0.24599174 -0.40256387 -0.2684899 0.20853485 -0.45634317 0.8538934 0.05244921 0.37346196 0.044582196 -0.18664172 0.14902295 0.4515185 -0.5607336 1.2602817 -0.13750023 -0.6440335 -0.32096902 0.6394988 -0.615487 0.50041455 1.6227835 -0.7622386 -0.023858773 0.2600017 -0.62108755 0.21079256 0.07278504 0.044778798 0.2127851 -0.25254643 0.115224026 -0.19687499 -0.045911476 -0.40176946 0.050084546 1.6130416 -0.6032062 0.06938029 0.6834888 -1.2957946 0.7358502 -0.18768695 0.65175235 1.3346914 -0.47869053 -0.41098624 -0.42518452 0.51084274 1.0767412 0.31337997 -0.021810394 0.008556532 
-0.15886506 0.76841366 -0.3773032 1.9635476 2.2373772 0.37578046 -0.48854193 -0.415839 0.24032152 -0.8122036 0.29244724 0.68405896 0.20890115 -0.4331183 -0.50638646 0.35887375 -0.82678527 1.3497437 0.26418465 -0.84755224 0.29913202 0.43642548 1.0175277 -0.72991335 1.3491185 -1.404476 0.9499855 -0.44899207 -0.2166521 0.5716456 -0.020052457 -0.4241622 -1.341903 0.2984909 0.34671986 -0.61085385 -0.5787808 -0.7462773 0.60261863 -0.43720195 0.30063537 0.39459935 -0.40202513 0.14760363 -0.7027202 0.70555824 0.5379281 -0.017699398 0.47815463 0.3397978 0.54996264 0.26225388 -0.45495647 -0.3425519 0.16799915 -1.6398466 0.7136702 0.91756535 0.21533768 -1.0421886 0.77726793 0.024668656 0.22188456 -0.7003517 
-0.66344184 -0.45701998 0.063164644 -0.8705236 0.016213086 -0.47107047 -0.3686503 -1.0706445 -1.1349694 -1.3377687 -0.09180709 -0.98994213 -0.51820827 -1.1069897 -1.2381927 -0.77795047 0.5634806 -1.8050522 -0.5891135 -0.73338413 -0.39879942 -0.034288418 -2.8844733 -0.014441002 -1.0844299 0.7846927 -0.678879 -0.72173154 -0.2872256 -0.40125814 0.4577179 -0.47562173 -0.7521872 -0.94723105 -0.267771 -1.5213654 -0.50076395 0.2875424 -0.6570483 -0.65718144 -0.5271407 -1.3211288 -0.3615924 0.027646843 -0.87098 0.16620165 0.18941586 -0.565682 -0.041373182 -0.14396124 -0.3891919 0.95692927 -0.53506017 -1.0708073 -1.5197487 -0.3413332 -0.39511156 0.39134395 -0.27008328 0.1643107 0.23949894 -0.026424456 -0.5724104 0.030139321 
0.94610626 0.27139708 0.03253788 -1.075119 -0.5411419 0.06360259 -0.22351788 0.6379379 0.3586171 -0.9023346 -0.014963016 0.43537918 0.06822665 0.42153242 -0.34426647 0.28447488 -0.6818422 -0.19891487 -0.16016868 0.6773553 -0.11295664 -1.2299626 0.053201158 0.12552552 -1.0032628 0.02794352 0.41277638 -0.77523166 0.3826101 -0.42299446 -0.22013395 -0.45873114 0.9216957 -0.2279261 0.43883303 0.28051943 -0.018296912 0.5116095 0.37504455 -0.60299444 0.5033266 0.45976442 -0.05893083 0.09836038 -0.2534299 0.5910737 0.7224468 -0.035072785 1.4568472 -0.4395167 0.41287535 -1.2450614 0.20216574 -0.21168686 0.016137313 0.77552617 -0.23962411 -0.68962246 0.19871956 0.27088848 0.33782977 0.59382516 0.34282082 -0.55085814 
-0.8865343 0.6879556 0.6869718 -1.0460876 -0.010336086 0.17423612 -0.35035294 -0.58366436 0.6301771 -0.4642588 -0.13286081 -0.67596334 -0.90632707 0.24084365 0.69184697 -0.8954925 -0.33694437 -0.018157339 0.55601615 0.0021142452 0.7202647 -1.3552914 0.19325761 0.15223496 -0.70221883 0.04742967 0.5154861 -0.04771399 0.64646286 -0.21083815 -0.054590352 -0.5768877 -0.005121785 0.34454137 -0.008219989 -0.49864694 0.46594185 0.40944895 0.33689803 -0.0042168824 0.6993253 0.6061723 0.51573133 0.5897066 -0.9051651 -0.01206426 0.123560295 0.17373054 -0.3457238 0.3954127 -0.4596623 -0.65130657 0.19512051 -0.16826347 0.72209805 -0.5814434 -0.50360274 0.4120173 0.54410565 0.43487093 -1.2047337 0.5186924 0.055815604 -0.23565543 
0.15119262 -0.1996194 1.336947 2.196192 0.42163894 0.5679459 -0.051323663 1.1690962 1.486854 -0.8465283 0.016343644 -0.17379248 -0.7058127 0.41223797 0.8514308 0.31386444 0.08878707 -0.012396612 0.40316787 0.0381924 -0.23272315 -0.88332546 -0.04807539 -0.025350148 -0.11492166 -0.8854683 0.2166842 0.68440133 0.86635727 0.2922284 1.0214572 -0.26873645 -1.2956147 0.7982963 0.7870828 -0.93445086 0.7710626 -2.3651946 0.6392192 0.4365368 0.29311863 1.246415 0.015488501 -0.06542206 2.4805918 0.5812329 -0.079053044 1.4544097 0.008551319 0.38382465 0.12591599 -0.071235254 0.2532256 -0.39624733 0.7890345 -1.2843537 0.663194 -1.4939008 0.7546724 0.37676236 2.1074128 0.37077665 0.51889867 -0.3625473 
-0.3685995 -1.7239525 -0.21734287 -0.5759795 0.77672714 -1.0022844 -1.1208802 -0.6937432 -0.5780211 -0.1932661 0.05881215 -0.11921695 -0.5872254 -1.5108006 0.4344889 -0.26779768 0.04230355 0.019636968 -0.7441221 0.041430794 -0.12557569 0.24094905 -0.5097709 -0.4674926 -0.22621626 -1.9366001 -0.028084034 -0.24611382 0.26787224 -0.23240313 -0.9898673 -0.28614056 -0.5278703 -0.46832895 -0.3376817 -1.338734 -0.84916 0.2054824 -0.7128718 -0.26666623 -0.6676084 -1.0718458 -0.89322925 -0.9319167 0.5329267 -1.3055301 -0.41819507 -0.79585516 -1.4947002 -0.53710806 0.5223091 -0.4171484 -1.1312095 0.22272038 -0.1917539 -0.37641057 -1.2873763 -0.2931689 0.010810523 0.29723996 0.2526707 -0.15176268 -0.59890985 -1.2712181 
0.26261213 -0.72071713 0.003075456 0.16133545 -1.0072781 0.663248 -0.10296356 -0.5779857 -0.38083348 -0.46643716 0.2720497 0.14339814 -0.73728937 -0.29330137 -0.4468093 -0.038817804 -0.1332624 -0.033579193 0.06242819 0.6881999 -0.27437848 0.2755317 -1.907704 0.29633093 -0.5785948 -0.49298814 0.9342045 -0.17098485 0.83725286 -0.524351 -0.58891475 -1.1549276 0.55779535 -1.0256076 -0.26056087 0.7928578 -0.3464697 0.48469552 -1.2959327 -0.3478406 0.13834864 -0.32080337 -0.039054647 -0.3191011 -2.2153537 0.71325845 -0.070623055 -0.13715951 -0.20487039 -0.6152318 0.032715704 1.4628366 0.09400187 -1.4119635 -0.21342339 0.6783005 0.3802773 0.94281393 -0.2402995 -0.9326904 2.1242232 -0.2640601 -0.6548401 -0.30365828 
-0.15829751 -0.052723497 0.54017216 2.752723 0.30634165 0.28758627 -0.78647256 -0.5152983 -0.1739708 0.91318434 -1.7509531 0.69957435 0.24459249 -0.30945235 0.40412053 1.7665046 0.045645706 0.70493203 0.6886548 0.041251894 -0.5452212 0.112281784 0.26401693 -0.013888719 -0.94709945 -2.2406423 0.50009674 -0.23303753 0.009044613 -0.406655 -0.66905487 0.6202042 -0.5919784 0.21726026 0.016617248 -2.3901832 -0.052070916 -1.8130529 1.9061391 -0.53682953 -1.1621361 0.24051896 -0.8310682 -0.7500928 2.3535137 0.67755085 0.33634478 1.790554 1.3183846 0.36739928 -0.23170874 -0.4743865 -0.13901748 -0.96045864 -0.5447985 0.32670665 0.78406376 -1.2349505 0.9051297 -0.34852844 2.5295818 0.4595731 0.48949385 -0.6780735 
-0.45755708 0.20327215 0.5554193 -1.3938599 -0.65970415 0.14074852 0.71874374 -0.46441787 -0.017896602 -0.88105404 0.19347478 -0.66796416 0.31044263 -0.246021 -0.97739536 -0.2551171 -0.32499605 0.89158374 0.37274796 0.0072636562 0.16016565 -1.1535001 0.34461418 -1.1722156 -0.3261723 0.061690357 -0.080711626 0.47309703 -0.26102835 -0.4215506 -0.84527355 0.067207806 0.16330211 -0.13297716 0.60000324 -0.50235575 0.37065563 0.23899423 0.37498832 -0.13701048 0.20433328 2.1414955 0.12925883 -0.6498269 -1.3183407 0.14770214 0.10086312 -0.9680626 -0.32768586 0.45033252 -0.43074974 0.7413111 -0.36684933 -0.30128905 -0.30341426 -0.7908654 0.3590681 1.2914509 -0.56098884 0.8740192 -2.0450652 -0.100657 0.59266967 0.67478704 
-1.7365811 -0.9844727 -1.2544099 -0.3692962 -0.2701254 -1.3740577 -0.6355754 -1.3776631 -0.7232926 -1.3148474 -0.8307069 -0.6771306 -0.48623934 -0.47700202 -0.1415772 -0.23084006 -0.083550334 -0.56459236 -1.3024024 -1.7011926 -0.31776705 -0.25067595 -0.35280114 -0.17692386 -0.5971447 -0.36537382 -0.63410145 -0.69566125 -1.70788 -0.7922389 -0.84192723 -0.7621819 -1.0103016 -0.5131229 -0.9316465 -0.4436535 -1.3436049 -0.060146373 -1.1590381 -0.55088925 -1.0855149 -1.1547568 -0.7685277 -0.49637136 0.33409503 -0.56983143 -1.0406344 -1.4071401 -0.76820886 -0.8165975 -1.273701 0.24232596 -0.72916746 -0.34870604 -0.5107093 0.008615231 -0.13305007 0.23863712 -0.49214602 -0.6945851 0.8739166 -0.7174216 -1.0623239 -0.25723508 
-0.24551347 -0.01994768 0.5693493 -0.85648966 -0.032109607 0.21665515 0.55488753 -0.022340912 0.4045226 -0.02310156 -0.23295432 -0.97778285 -1.6766797 0.19533882 0.5777557 0.2384292 -0.64130694 0.3668883 0.80945355 -0.724728 0.06291666 0.63971573 -0.48476228 -0.26251563 0.46518984 -1.1995326 0.052750036 -0.28928423 -0.53744185 -0.69863814 0.5351963 -0.40847495 -1.5696076 -0.68475264 0.41910055 -0.8915497 -0.06415195 0.010642918 -0.8763555 1.0265056 0.7787472 1.2590952 -0.6984495 0.36280832 0.30616838 0.89723396 -0.26323754 0.4341751 -0.28624114 0.22915319 -1.493882 -0.39809555 0.25849512 -0.43648592 0.301821 0.93495744 -0.5271284 -0.4575115 0.6036405 0.0067174514 0.7364859 0.1708199 0.5178897 -0.34775108 
0.3208531 -0.15777618 0.25828546 -1.7185715 -0.02231354 0.7969383 0.7811443 0.083751634 0.1551788 -0.04718715 0.28896946 1.256105 -0.16014872 0.5917426 1.5554581 1.3171057 -0.26047912 0.71961284 0.4583038 0.25033566 0.00011521893 2.9265378 0.45335755 -0.5867877 -0.27221254 -2.0588381 0.3293254 -0.36032355 0.7929778 0.38022134 -0.13143793 0.057866327 0.6995505 0.084089965 0.060396016 -0.98483485 0.15173025 0.5947941 0.0017667832 0.6706576 0.72542495 0.93052197 -0.07122844 0.62738883 -1.6891145 0.63190776 0.40618917 -0.47361153 0.63574564 0.01950385 -0.1312959 0.7053993 -0.13461564 1.1556112 -0.371431 -0.49948478 0.1850966 0.66661 0.34948152 0.51320714 -1.8121119 0.42301285 0.021044826 -0.22134633 
0.058052972 0.36063904 -0.37379655 -1.5594231 -0.17651685 0.4662907 0.015026705 0.5006376 -0.30147615 0.5289964 0.10290274 0.90980494 0.338364 0.096315615 -0.19248354 0.09544189 -0.32536858 0.46420914 -0.10074633 0.2291775 -0.16133295 0.58384216 -0.32179853 -0.14343974 -0.632723 -1.1419212 0.671305 0.09444039 0.5016234 -0.39945775 0.51655316 0.043305624 0.70776486 -0.056579642 0.500858 0.10669248 0.22094493 -0.19915381 0.4546799 0.20583463 0.3863398 0.513492 -0.11198969 0.26934934 -1.7020613 0.93593925 0.41342527 0.3851166 0.5405254 -0.14718054 0.43109983 2.441113 0.14865045 -0.9690744 0.7831062 0.45520246 -1.1959555 1.5615817 0.6796483 -0.03371608 0.5445952 0.09912205 0.0021844937 0.56615627 
-0.63381684 0.09181162 -0.36114225 -1.0758226 -0.585821 0.36649677 0.23069502 0.6985756 0.24506325 -0.67659235 -0.43786103 0.28232685 -0.5431777 0.24330513 -0.025452167 0.17776482 0.25038514 0.06784951 0.3253961 -1.034664 -0.24375647 -0.1478051 -0.2558494 0.20752504 0.8718366 -1.2779385 0.23861708 -0.040136304 -0.2624021 -0.092869125 -0.033958916 -0.515045 0.55304056 -0.010248368 -0.27401575 -0.97181696 0.2662247 2.4540422 0.2114768 0.61519915 0.51589006 0.24656205 -0.3011026 0.37631726 -1.9809167 0.1413922 -0.8321404 -0.29631495 0.28931126 0.6601306 -0.43625262 0.29858822 0.46778065 -1.0759393 -0.42113054 -0.27540132 -1.510762 2.1121593 -0.19422944 0.512803 -2.2408445 -0.10032858 0.22519982 -0.17083725 
-0.15147562 -0.3796559 -0.9803731 -0.22065002 1.2407302 -0.48413697 -0.9751418 -0.90859985 -0.2361626 -0.24725412 0.091591716 -1.0710427 -1.5066061 -0.1386519 -0.9340774 -0.596767 0.101031564 -0.0449199 -0.1215584 -0.5653401 -0.18104927 0.28922608 -0.75717044 -0.2796972 -0.6168841 0.09743318 0.027759593 -0.2877234 0.402804 -0.8013562 1.3227993 -0.38481167 -0.65405643 -0.78583753 -0.98901325 -2.3545659 -0.309504 0.004471681 -0.70232975 -0.39044186 -0.09314451 0.41142187 0.32843575 -0.21552768 -0.01654211 0.31371686 -0.1063728 0.08893186 -0.6028364 -0.28524196 -0.6311892 -0.37163216 0.09882654 -0.34130174 -3.5748212 -0.12579559 0.92007285 -1.1011398 0.49846372 0.16009362 -0.054059602 -0.5329936 0.1684917 -1.1282543 
0.2925473 -0.022646831 0.70211804 -2.5953736 1.0316174 -0.5129132 -0.61016005 -0.4295179 -0.17206168 -0.19699848 -0.12621048 1.6097554 0.79977834 -0.11972438 -0.43584612 0.37696478 -0.3671248 1.2094164 0.2668475 -0.58207196 -0.09679994 1.2632173 -3.40157 1.4109827 -0.97583425 1.1353495 0.36246082 -0.38856965 0.15622425 -0.31323913 0.69415015 -0.6854149 0.10453446 -0.8962816 -0.7181008 -2.3338835 -0.4711923 -0.22879662 0.8487932 1.1586837 -0.21955167 -0.33652532 0.006961236 -0.13805476 -1.8290678 -0.48155323 0.5133012 -0.65781 -1.1008042 -0.275242 0.20983583 2.5170836 -0.25176677 0.01221459 -0.78501153 0.055962436 -0.6043317 2.0702167 0.60290337 0.059818808 0.9831797 -0.04011452 -0.21644297 0.5395133 
0.0008480545 -0.27819833 -0.44406104 -1.6359695 0.86116254 -0.18109831 0.519227 -0.2961916 -0.056581493 -0.5186525 0.33259052 0.6196169 -0.95902354 0.36440518 -0.5871049 0.44914982 -0.6675949 -0.6704777 0.13806213 0.4703799 -0.12769228 1.3386987 -0.9215593 0.0028183113 0.5540753 1.1693168 0.44513586 -0.37575346 1.2584884 -0.39830282 -1.1219978 0.07311679 1.0231566 -1.4362165 -0.23164488 -1.2890548 -0.11240952 0.42277026 1.0048463 -1.0953822 1.0405283 0.2903462 0.5225498 -0.7644193 -1.6397215 0.004780337 0.3911721 -0.016671525 0.30200395 0.18689784 0.11032101 -0.050519966 0.1501756 -1.4177141 -0.06404027 -0.019977193 -0.034245696 0.90632707 0.8016705 0.43697318 -1.6686658 -0.017704526 0.18105899 0.21447079 
-0.8224001 0.69330376 -0.38377503 0.8571264 -0.083587915 0.19423287 0.106473126 0.7068849 0.48518002 -0.12406077 0.118294105 -0.2970136 0.35291222 0.28086334 0.53589207 -0.49100778 -0.91581595 -0.26978487 -0.3260616 0.5559617 -0.6742045 -0.39838308 -0.03202022 -0.22794268 0.12516488 0.6977334 0.35617277 -0.15749666 0.28772673 0.33496264 -0.011035314 -0.18180537 -0.36760443 0.9245652 0.3460951 -0.05179769 0.038372822 -0.56273437 0.07085322 -0.34204936 -0.06903208 0.5770482 0.10041942 0.12422485 0.9636475 0.8334809 -0.15798491 0.44796035 0.28824267 -0.2503333 0.6151822 -0.40838665 1.1650354 0.4503329 0.33569694 0.33122557 0.30447438 -1.0619128 0.23644418 -0.654843 1.0551925 0.5105824 0.43514752 0.5965919 
-0.2831342 0.3446099 -0.55404645 3.5350616 1.0112792 0.24486758 -1.0828379 0.58095944 0.30319148 0.28316358 -0.16325085 0.7707712 -0.58917975 0.792216 0.14986303 -0.46931672 0.07520956 -0.8022894 1.8046811 -0.468349 0.13921873 -1.4045924 0.8732405 0.38406694 -0.06670742 3.3998957 0.19015434 0.6826898 2.0468636 -0.59498847 1.2047929 -0.25394136 -0.3650433 0.16100483 -0.016657766 -0.5398056 0.44228944 -0.2860607 0.43887693 -0.34462672 -0.47829762 1.6690682 -0.2842096 0.2890289 3.7544918 0.9173612 1.019313 1.3331841 0.22208454 0.90260094 0.14632465 -1.2881397 0.17798024 2.3559794 1.2813402 0.84122866 0.45739108 -1.1699756 0.13252744 -0.5682144 4.401178 0.39932036 0.5730493 1.4940963 
0.54140776 -0.16015905 0.46013898 3.6162481 0.880646 0.55810475 -0.8702206 -0.23139 1.32426 0.6165806 -0.050463222 -0.28084654 0.36742982 0.48140547 -0.058512527 0.6152606 0.15372415 0.4180778 0.26045033 -0.06392018 0.62499136 -0.7432425 0.23840514 -0.30806196 -0.2159093 -0.21927646 0.1694647 0.1577861 -0.7310881 0.39688376 0.73318934 -0.18456891 -1.3471067 -0.350712 0.682087 -0.44614762 0.40700254 0.115142055 0.39375997 0.3370775 -0.15603617 0.10324416 0.3567452 -0.35289767 0.49116015 1.1258472 -0.7236355 1.1939459 0.20177042 -0.06445461 -0.18893047 -1.4560038 0.20929287 -0.51856774 0.47634435 0.39568767 0.8958569 -0.6123516 0.70688444 0.37410554 2.4358017 0.02861001 0.32375285 0.33629274 
0.354434 0.29435974 -0.48062104 1.8878957 -1.3485126 -0.3683159 -0.22819118 1.5758426 -0.04971852 0.4672261 0.2546838 -0.31496397 -0.217481 -0.5336399 0.7144363 -0.4680881 0.37771407 -0.19310065 0.5564696 -0.3300589 0.46512955 0.45205688 0.49152243 -2.404618 -0.022658767 -1.0503333 -0.2756139 -0.72234124 1.2226115 -0.41873816 0.9911093 0.022206228 1.1720197 -1.0299699 -0.43265805 -0.1376195 -0.105175175 0.50142086 -0.14870943 -0.02402009 -0.4166634 -0.47800288 0.48657447 -0.21369365 0.356595 -0.18674254 -0.11684747 -0.007727449 0.21593392 0.375093 -0.15454789 -0.34341475 0.17636974 -0.05932479 -0.5811361 -0.30579445 -2.8227723 0.6220746 -0.60972434 -0.3697932 2.6382682 -0.5826381 0.11291218 0.8010336 
0.55242693 0.18218088 -0.7197211 -1.4998716 1.175525 0.9411587 -0.15310194 -0.006328624 0.33456352 -0.1160936 -0.18102513 0.37087303 -0.10268456 0.66601753 -0.2225395 1.2945192 -0.20549247 0.6079776 0.13965538 0.80094784 1.0001504 1.5305538 0.17066552 1.4147668 0.16871071 1.2191944 0.20247582 -0.5174752 1.8003683 -0.32943192 1.172721 -0.45983014 0.7481417 -0.13883026 0.45564157 -0.6000027 -0.059480194 0.3664459 -0.022575796 0.55542785 -0.055416275 0.423392 -0.36678445 0.65563583 -1.2406172 0.5549905 -0.41166174 0.48693335 -0.45419064 0.04722232 1.6397508 -1.2816983 1.1171652 -0.37549686 0.033555277 -1.5145066 0.8480147 0.36417988 1.1774441 0.35043773 -0.9912327 0.61914736 0.087313615 -0.18872276 
0.5522643 0.6373616 -0.7213378 0.0711118 -2.7439108 0.51067287 0.8705492 0.101755835 0.8525295 -0.2762496 -1.0678318 0.42856535 0.31967968 0.16552547 -0.12006696 1.0762374 0.13730286 -0.33824983 -0.0030651544 0.085642286 -0.3325595 0.5637103 0.52379626 -0.19775982 0.61204046 -0.075599335 0.830404 -0.15777521 0.14652981 -0.40274334 0.2787872 -0.5901903 0.34004512 0.6199433 -0.11027656 -1.050215 0.26301414 1.0180744 0.56950426 -0.19850862 0.28167942 0.24462979 0.22086245 0.4875504 1.2388421 0.10432479 0.6807753 0.65716445 0.3654017 0.22826123 0.42786267 0.475894 1.289083 -1.03714 -0.27684966 1.1131308 -0.07982527 0.21173511 0.099431664 -0.71079135 1.2123256 0.116863646 0.04240975 -0.089905836 
0.27244455 0.61964315 0.06410719 -0.9335528 -1.6034895 0.45690426 0.75695074 0.34734046 0.87215954 0.66974366 0.5810555 -0.77544516 -0.6810528 0.5247774 -0.73939407 1.2884797 -0.69442403 1.5332056 1.0152622 -0.5027153 0.15765376 0.62243223 -0.11567987 0.73665625 0.75633985 -0.09498116 0.33963478 1.0325972 0.71768844 0.42763653 0.990665 0.40533918 -0.7219962 0.40803677 0.29805136 -0.1593155 -0.5375463 -0.57744503 -0.82324696 1.0971986 0.1900257 0.16160175 -0.47358406 0.76672935 -1.6306959 0.63862383 -0.18812393 1.1033416 0.4198718 1.1209196 0.5049426 1.075899 0.51074487 -1.5841074 -0.26519284 0.5618031 -0.3687016 1.0028183 0.3871374 -0.6673648 -0.7971618 0.6739635 0.5014657 0.1303674 
0.042071145 0.8731365 -0.4571431 0.7217934 -1.4336429 0.024073653 -0.62359303 0.104287766 0.47396994 -0.15577942 -0.5629193 0.94147116 -0.7510073 0.563533 1.5353715 0.6202967 -0.03642861 0.4766043 0.6283464 0.39737308 0.6752447 -0.6024359 0.64948183 -0.08704848 -0.21255673 -0.48987263 -0.11536347 -0.16385885 0.110164225 0.2613734 0.32050282 -0.053919226 -0.4724215 -0.37070942 0.3605806 -0.6886559 0.038097743 0.3854177 1.150854 -0.43201247 0.007565351 1.7856704 0.18119155 0.44685176 1.4090493 0.36083522 0.57137793 -0.023723114 -0.3209341 0.7374718 -0.9146353 -0.53985846 -0.09119703 -0.9442499 0.06313238 1.2735844 -0.2961361 -0.7260576 0.020716138 0.40835205 2.1684697 0.3493295 0.4757921 0.10005075 
-0.23609237 -0.29017732 0.15167423 -1.2363383 -2.425676 -0.14249617 -0.43528008 -0.5861876 -0.8950417 0.9702247 0.043031637 1.2428138 -0.86024314 -0.23123959 -0.71531624 0.14195475 -0.4961571 1.0184747 -0.32384837 -0.6688179 -0.01952102 0.39880764 0.60175604 0.38783392 -0.06844192 1.9440466 -0.40683174 -0.44396362 -0.027195062 -0.5400436 1.0189115 0.29490036 0.88919103 0.2017174 -0.6103934 -0.77184564 -0.9229948 0.017867768 0.763481 -1.2217182 -0.45192638 0.07902892 -0.1712064 0.08018493 -0.84160036 0.2543847 -0.10651276 -0.012262522 -0.395518 -0.029342562 0.80342585 0.6543008 -0.6545197 0.25958443 -0.8130577 0.6180835 -0.0026402064 1.4620796 -0.9885051 0.08754932 -0.099327385 0.09397397 -0.580465 0.21589145 
-0.74528193 -0.122811586 -1.0844141 1.2236756 0.9016973 -0.270381 1.1035221 1.0727704 0.28981715 0.6380846 0.18335831 -0.95350575 -0.24502969 0.85150373 0.5126125 0.80076504 0.40548256 0.67123175 0.8609813 -0.16919275 -0.14632165 -1.7691087 -1.6294622 0.048529983 -0.5966094 0.46002057 0.57853305 0.33926553 -0.17931604 -0.6577898 0.13052015 -0.61299247 -0.51126975 0.14753008 0.26297688 -1.0072666 -0.48078716 0.6045517 0.0055079437 0.07674716 -0.1477839 -0.12095763 0.32543457 0.5033158 1.3623096 0.77341306 0.4418263 -0.51641303 -0.29072267 0.22805738 0.26642644 -1.1537962 -0.27235326 -0.78575784 -0.06009285 1.0884519 1.1582953 -2.5099652 1.066643 1.2462786 1.4739861 -0.10013447 -0.20358044 0.20075776 
-0.20178466 0.42119363 -0.26130286 -1.4028385 -1.0804586 0.33536527 1.0986938 0.19900908 -0.10911194 -0.057132013 -0.38448036 -0.07019046 -0.7305333 0.76866794 0.53828657 0.64594346 0.2434787 0.34925252 0.6264306 0.62205625 -0.23839211 0.65699476 0.14097679 -0.22921894 -0.35899252 -0.05308376 -0.16771264 0.4179623 -0.09434554 0.40565926 0.47197592 -0.23389071 0.40086672 -0.035775088 -0.41650915 -1.5382117 0.26183525 0.88284963 0.6898168 -0.056811776 0.031374667 0.45359236 -0.78930086 0.0453434 -1.8115917 0.42364994 0.04610617 0.2664689 -0.53714806 0.65514046 -0.68056256 -0.7977471 0.748542 -0.44062662 -1.1694485 -0.30736107 -0.2327794 0.10044566 0.2179788 0.22979105 -2.0515103 0.5867536 -0.02127979 0.24585591 
-1.0758309 0.118622884 -0.8109267 -0.2676958 -0.53734124 -0.52873933 -0.11758927 -0.8487653 -0.23629202 -0.60407525 -0.3573195 -2.1025143 -0.8640324 -0.25513777 -3.2962077 -0.6398197 -0.58757496 0.27888113 0.16532715 -1.3036462 0.16761054 -0.64483404 0.056226503 0.31176424 -1.0855365 0.7367932 -0.78893876 -0.6601065 -0.21359448 -0.2838368 -0.4670356 -0.14620492 -0.49103686 -0.7280646 -0.6098417 -0.3287022 -0.5285602 -0.03594576 0.48608348 0.6290977 -0.67239517 -0.8490188 -0.9155776 -0.62443256 0.855104 -0.14398882 -0.7311984 0.32106152 0.005745982 -0.36073032 -0.63506097 0.116562895 -0.013664967 -0.6085702 -0.4579501 0.8256626 -1.1409597 -0.39059424 -0.04308215 -0.2854877 0.9129995 -0.17357282 -0.3872077 -0.35800007 
-2.279592 -0.07387837 0.14361493 -1.4145652 0.46999693 -1.0653087 -1.1952498 -0.19365177 -1.0872924 0.53932136 0.107700266 0.09490539 -2.8741593 -0.6963565 0.77311224 -0.25109684 -0.31912133 -2.026519 -0.61503047 -0.275386 -0.38141933 0.03798026 -2.7684634 1.0720772 -1.3398888 -1.0593129 -0.4917733 -0.58558226 0.8933334 -0.92633396 -0.40496653 -0.1145058 -0.95749515 -0.25422132 -0.09763409 0.5197662 0.22792308 0.33878857 -0.022508292 0.75095254 0.20238578 0.13220455 0.029132677 0.39127886 -0.8068077 -0.38789505 -0.19257766 -0.7391841 -2.3295271 -0.79495496 -0.84833604 1.6071521 -0.31918854 1.3552607 -0.6363978 -0.9957312 -1.7346776 1.2459377 -0.07444232 -0.6379619 0.31732765 -0.69286966 -0.1843374 0.42288676 
-0.19810657 -0.25031385 0.29122767 -1.6522106 -0.50171953 0.15278247 0.40429297 -0.53571475 -0.4503848 0.61398566 1.1033111 -0.0896428 -0.44129992 -0.05221676 0.11700797 0.021406434 -0.4574673 -0.11954277 1.1406914 -0.58305514 -1.153911 1.7016332 -0.7475949 0.9667022 -0.284218 -1.405102 0.19573079 -0.013008936 0.043669604 0.06693353 1.146964 0.62180907 1.0655042 0.22384931 0.48940387 -0.23999953 0.29461518 -0.4073981 -0.39635372 -0.3710722 -0.16762476 -0.33512002 0.26143718 0.48195353 -2.5129654 0.29928893 0.42137814 0.086981095 -0.47269443 0.19637905 -0.037735622 1.2642599 -0.27497515 0.25273305 0.5066108 -1.3550305 1.6381305 1.2256247 0.9149544 0.24558295 -1.7864498 0.37467268 -0.17279187 0.18772122 
0.4623571 0.45257595 -0.20273541 -0.8180576 -0.5781088 0.10282826 0.09762043 -0.4085392 0.02847268 -0.20653977 0.072756656 1.3529212 0.1610363 -0.23316109 -0.72297305 -0.22925611 -1.4970565 -0.48735896 0.24373943 -0.12086316 -0.0678708 1.0715001 0.9598295 0.8600468 0.99979305 -1.9404454 0.82761323 -0.5153997 0.6753279 -0.025415791 0.7598619 0.29459122 0.30056357 -0.59155685 0.36473435 -1.7155334 -0.07504688 -0.3208803 -0.26928392 -0.37681097 -0.7205476 0.4317602 -0.43960732 -0.048134718 -0.4337906 -0.25843537 0.088335685 -0.413739 -0.12796523 0.23096837 0.14635848 0.2990729 -0.39777887 -0.66695666 0.19276977 -0.84605 -0.5811004 1.4062188 0.18314555 0.6668119 -0.5283188 0.22863463 -0.22769904 0.46770236 
-0.016991153 -0.33130482 -0.5272291 -1.3527001 0.8550239 0.20391083 -1.5253294 -0.43237162 -0.3447102 -0.022147473 -0.6452601 -0.50635153 -1.2813939 0.089758195 -0.0029084752 0.5522309 -0.80676377 0.17623098 -0.5364823 0.07346297 0.20565906 0.6948282 0.35874245 -0.6063706 -0.24694659 -0.6051296 0.011233067 -0.42893973 -0.77056515 -0.5098757 -0.5942472 -0.094807394 -0.12980027 -1.57917 -0.70776093 -0.8268778 0.29313764 -1.7074202 -0.12798044 0.4233797 -0.07970815 -0.052569356 0.5704862 -0.057594907 -0.106786326 -0.025936248 -0.6343023 -0.14695193 -0.32147378 -0.23056725 1.2199513 -0.5445298 -0.10497025 -0.40278506 -0.63986623 0.54869646 0.7922359 -0.33999726 0.7924632 0.5750735 -0.133461 -0.27640346 0.08133592 -0.63124794 
0.46577385 -0.82525146 -0.16270831 0.5740332 -0.3631581 0.121578045 -0.38082916 0.034386393 0.0040691257 0.060468983 -0.18228112 1.792884 -1.1138973 0.10848345 -0.39998794 0.02371168 -0.48816025 -0.3225105 0.87561727 0.5547061 -0.78956836 -1.1024423 -0.3352404 2.029463 0.032937676 0.5215236 0.6876303 -0.6397521 0.92742634 0.034447145 0.4158269 0.07282091 0.9291129 0.13407144 -0.10786233 -0.37949383 0.43354648 -1.1001629 -0.33242917 -0.06294458 0.2889317 -0.12726088 0.5808105 0.35211542 -0.32440597 -0.14829169 -0.9090414 0.14119862 -0.10233621 0.28805596 -0.2799451 -3.6578836 0.21947747 0.008045498 -1.0979611 -0.40976655 0.43295804 -1.1184456 1.2088753 0.3472139 0.42859617 -0.14376675 -0.34320197 -1.7661303 
-0.45014828 -0.72762424 -1.6370094 1.3648075 1.1047451 -0.3137318 0.39792478 -0.4272439 -0.54681605 0.45668253 0.6161949 0.93105096 0.118256666 -0.3867901 -0.39600104 -0.24703649 -0.1466799 -0.13187908 -0.3733369 0.22859697 -1.3847088 -0.6215935 0.25095695 -0.88487846 -0.7476578 -1.2117152 -1.0177662 -0.25689366 -0.41920456 -1.0777423 0.4219623 -0.5578016 0.14865002 -0.032036487 -0.7081569 -1.2725612 -0.39593932 0.68955696 -0.25838643 -1.4640536 -0.32085145 0.40314478 -0.975632 0.11964773 0.7107277 -0.38343397 -0.8481746 -1.2919489 -0.10854153 0.063580155 0.6993553 -1.4817531 -0.24476099 0.64959127 0.26959226 -0.12345865 0.43132815 -1.6249452 -1.2615693 0.33129516 1.7909622 -0.5087528 -0.5761423 0.18222181 
-0.08830504 -0.32054526 -0.8942424 1.0268756 -0.977489 -0.13141167 0.32595205 0.047925144 1.0315765 0.7589856 -0.54991734 0.11532233 0.041335545 0.21469252 1.0025568 0.46209806 -0.16827746 0.968738 0.44811815 0.55279094 -0.9682352 -1.6477184 0.31529975 0.4420624 0.54356575 -0.44563818 0.19779277 -0.54470164 0.08111181 0.39739794 0.01909581 -0.21145828 -0.2935864 0.6334568 0.29298088 -0.52037686 0.17199357 -1.6061989 0.6380737 0.16132028 0.03925345 0.12076145 0.6390266 0.03238633 1.5165032 -0.05148987 0.34332177 1.4772682 -1.088645 0.11649003 -0.5664159 -2.483933 0.8711716 0.48103434 -1.3605014 1.1781734 -1.1299975 -1.0621239 0.60558975 0.0050075003 1.0770775 -0.19402505 -0.04278391 -1.0890005 
1.2773232 -0.30664623 -0.9672799 -1.2700648 0.18351552 0.5728516 0.73496675 0.7083235 -0.23340285 0.17003633 0.7468719 0.10915633 -0.036367625 0.37496024 0.071881264 0.5796217 -0.3969775 0.49475834 1.0448617 0.42713612 -0.14990011 0.95474106 -1.034602 0.17128444 0.03335101 -0.39192578 0.97358817 -0.22597943 0.21568878 -0.17052722 0.127707 0.64077806 0.53376144 0.09295312 0.13406274 -0.73993874 -0.20481555 -0.8523073 -0.813671 0.23990948 0.567318 0.4286498 -0.58798647 0.19042814 -0.31031063 0.23870528 -0.00042742482 0.49236324 -0.9263022 0.102311164 1.1672536 -0.1881514 0.71792424 -0.43377605 0.24452367 -0.5781657 -0.92535466 1.3787087 0.71394295 -0.42374644 0.718303 0.4311044 0.34548715 0.8229653 
0.11488021 -0.14385901 0.4113897 -1.8338265 -0.30940753 -0.4728 -0.029686974 0.17828332 -0.21858126 0.2596169 -0.91478896 -0.44394204 0.44797423 -0.10059461 1.0638415 0.5102054 -1.4274383 0.3604002 -0.2850678 -0.3100028 -0.12618412 0.89048564 0.5319508 0.9332708 0.28659794 -1.1008959 -0.12358459 0.12949048 0.027157031 -0.36669707 -0.7332001 -0.25284383 -0.5979254 -1.4283894 0.03956777 1.0143075 0.2821286 -1.4444674 0.9910357 0.09255371 -0.59342384 -0.27741808 0.16827798 -1.0530626 -1.0080887 0.38890812 -0.9986864 0.6595858 -0.1327496 -0.13540095 -0.26390818 1.2056618 -0.44467774 0.51884323 0.13164662 -1.3635174 -0.80188125 0.9722153 -0.22807665 0.29150698 0.07403242 -0.3394129 0.40733147 -0.17493093 
-0.76026064 0.27844375 0.19668196 -0.06103022 -0.251279 -0.27857727 0.39472795 -0.19145717 0.42750907 0.52665704 1.2169116 -0.21185693 0.04044533 0.63573974 -0.5893178 0.24852361 0.63593847 -0.0057985224 -0.23759519 0.29127485 0.27019754 -0.7759707 0.25565758 0.34359914 0.12763698 0.17372423 0.55478233 -0.0687321 0.40776044 0.39214617 -0.42917114 0.14033118 -0.020736812 -0.44558686 0.2821839 -0.48506412 -0.18969874 -0.116552025 0.089512266 0.5792352 0.0035206983 -0.3061466 -0.22948094 1.0026047 1.0109252 0.061626647 -0.48492652 1.0906259 0.18939172 0.025085421 -1.0658721 -2.172287 0.215101 -0.17421483 0.32666472 0.043768927 -0.036871873 -0.18971899 0.030424178 0.14313883 0.37249425 0.7664521 0.003851548 -0.47246 
-0.30605716 0.37521622 -0.68537754 -0.5219195 -0.20019531 -0.25916478 0.53657293 -0.11611687 0.4262696 -0.14332545 -1.4082577 0.14452915 -0.14260957 0.21045102 1.7660099 -0.08812983 -1.3057235 -0.34679738 -0.18754724 -0.004097799 0.44045994 -0.6619115 -0.052074015 0.7044356 0.033153918 0.57895666 -0.028933933 0.4324192 -1.1820264 -0.34369653 -0.14634804 -0.10668231 0.23137149 0.44820818 0.15506388 -0.3349831 -0.6494474 0.98217463 0.15241867 -0.9828551 -0.27411538 -0.32895622 -0.011682818 -0.79664737 1.4645231 -0.61282164 0.17933741 -0.39406553 0.36651093 -0.05800592 -0.30009556 0.01971966 0.15430209 -0.027321491 -0.432197 -0.42111513 0.006573068 -0.8866625 -0.21868546 0.48772952 1.6927273 -0.010347129 0.1986556 -0.6335808 
0.080711775 -0.082814544 0.3692771 1.4910512 -3.2676597 0.30033043 0.31637982 0.33317173 0.33120298 -0.09567624 0.09693429 -0.214571 -0.29203668 -0.5984893 0.5127891 0.17775448 -0.6635409 -0.6484195 -0.66468674 -0.30351052 -0.12476865 -1.816483 1.7237273 1.6139642 -0.37644374 -0.4598906 -0.2083305 -0.4176064 2.264071 0.19538014 0.52370214 -0.66122997 -0.22394533 -1.6558428 -0.096467145 1.5815874 -0.717349 0.375182 -0.042790603 0.2793478 -0.0689964 -0.17197078 0.49009773 0.079617 0.90811 -0.17966104 0.121568516 1.2362713 -0.70936817 -0.84168303 -0.6017275 -3.5872378 0.3772885 -0.48964322 -0.17143749 2.1268675 0.78908527 -2.0511773 -0.39991653 0.39289042 3.2296836 0.1284969 -0.27560002 0.27238774 
-1.2194533 -1.1108274 -0.56131643 -1.1045445 -0.058720104 -0.84625673 -0.68424666 -0.2501773 -0.4246841 -0.33111712 0.08167922 0.006450144 -0.35440075 -0.885423 0.07148602 -0.87563425 -0.97540873 -0.37065664 -0.15150584 -0.4009672 0.26060146 -0.1524118 -1.9243749 -0.46616828 -0.5844145 -1.9840771 -0.5681971 -0.1996727 -0.06780261 -0.36425465 -0.29482272 -0.52363557 -0.14544481 -0.47771668 -1.064145 -0.49584964 -0.93448573 -0.7271469 -0.15099044 -1.0252051 -0.34936172 -0.49821267 -0.07050722 -0.3143473 -0.56034046 -1.1789505 -0.23381487 0.2960406 -1.2192698 -0.94393903 -0.33459523 -0.06687373 -1.4221789 -0.04277131 -1.0176076 0.3365205 -2.314012 -0.5498381 -1.768413 -1.1345662 0.13351062 -0.38143075 -1.3439074 -0.94908863 
-1.5131893 -0.31492758 1.688586 0.10924566 -0.72180957 0.29276955 0.3540255 0.0050666034 -0.47461885 0.18052028 -0.179226 -0.40763316 -0.4075488 0.14720134 0.7405968 0.25867507 -0.22269525 0.65305215 1.5871146 -0.24520881 0.23424557 -0.029455509 -0.619523 0.1904696 -0.37021616 0.77324456 0.6562608 -0.04076726 0.28733674 -0.04565981 0.47181058 -0.21906891 -0.53412646 0.84509224 0.34030694 -0.5630367 -0.6011995 -0.5815701 0.8201914 -0.37970412 -0.3124734 1.2779417 0.09655871 0.22459067 1.2696139 1.1222925 -0.48053545 1.3039606 -0.6535375 0.58479136 0.17506695 -0.91074336 -0.386582 0.31337294 0.58053064 0.47711143 -0.059678927 -0.1933909 1.3682916 0.67370963 0.20343837 0.005443194 0.46736124 0.1924603 
0.6320781 -0.4650467 -0.95701045 0.40057403 0.11063194 -0.4882369 -0.60302496 -0.7698304 -0.038750503 0.2292886 -0.009960019 -0.8597792 -0.032954346 -0.38227096 -0.008626906 -0.8003358 -1.1772165 0.73767287 -0.031384144 -0.11244725 0.13007627 0.58681816 -0.1746931 0.46121114 -2.3354821 -1.8682226 -0.75293714 -0.27892482 -0.5079952 -0.074809946 0.669716 -0.91455024 -0.9340598 -0.4915274 -1.2877648 -0.5188134 -0.6433923 0.84765625 -0.30444166 -0.7730654 -0.24839139 -0.644054 -0.6017147 0.042633127 -0.3095326 -0.60561943 -0.27715978 -0.5750291 -0.34794983 -0.7278244 -0.29037648 0.089056216 -0.71240073 -0.05829814 -0.02010922 -2.327846 0.64419055 0.8568832 -0.45486206 0.35805655 0.8659308 -0.11776679 -0.41440332 0.11949868 
-0.57149583 -0.3663681 0.44802973 -2.2195919 -3.115321 -0.30312017 -0.0023577902 0.13087009 -0.26757842 -0.15220803 0.28536528 1.099221 -0.8834458 -0.4197475 -0.31256375 -0.120061345 -0.5792486 -0.34891197 0.15973523 0.04055885 0.022708917 -0.39112955 -1.3179834 -0.0893871 -0.8466267 -1.2926815 -0.32426754 -0.3272515 -1.0011812 0.0048181787 -1.0759226 -0.025374517 0.35064313 0.6486876 0.20907205 1.2989881 0.31085598 0.34772798 0.5680565 -1.3993249 0.20841007 0.05644017 -0.3907142 -0.09341656 -0.81424516 -0.15414177 -0.16218051 -0.6037835 -1.4284631 -0.2708716 -0.28836575 0.35248193 0.04791074 -0.9437947 -0.69709885 -0.86284363 1.1497567 0.010764035 -0.20775855 -0.97212684 -0.83038527 -0.8531291 -0.92944396 0.13377601 
0.1610646 0.6053621 0.0120887505 1.065778 1.3769953 0.53978896 -0.40955603 0.52819735 0.05836366 0.10294807 0.16579841 0.69667464 -0.0990601 -0.11470241 0.8390594 0.29653612 -0.39412963 -0.50124866 -0.56556004 -0.3621813 -0.21870837 -1.1490088 0.50983185 0.58869255 -0.8050868 2.1245303 0.15445767 0.015886735 0.24315427 -0.34466946 -0.47669512 -0.029670533 -1.062599 0.25245744 -0.35876042 0.7959993 0.13419761 -0.31516188 0.17398313 1.0987022 0.53475827 0.41481712 -0.14623934 0.26570234 0.56301665 0.66102767 0.5940883 -0.26754346 0.57579845 0.09310906 -0.66000855 -0.37058055 -0.69751567 -1.2457765 0.72121376 0.005193881 -0.67604107 -2.0309772 -0.20589206 0.20118634 2.4189637 0.7415901 0.24598299 -0.7328428 
-0.005559884 0.073880866 -0.67329824 3.2103202 0.42827967 0.4863924 -2.3028374 0.2325651 -0.9886069 -0.03255817 -0.083324656 -0.28016308 0.43056375 0.4448908 -0.3125232 0.1763465 -0.39522946 0.5013021 0.3912767 0.751133 0.13625844 -0.9774925 -0.61775446 0.5858922 -0.3579835 1.4956112 -0.2515504 0.4924428 0.1918954 -0.11920899 0.8970234 -0.13604851 0.06622817 -0.20379013 -0.30699506 1.8211696 0.16559865 -0.69165534 0.39020526 -0.034419093 0.5898382 0.042883 -0.22739093 0.21659161 3.0431173 0.08578896 -0.067524575 0.34463823 -0.31188682 0.17120878 1.053028 -2.0370789 -0.27233803 -1.1736385 0.4106651 0.34005713 -0.45085272 -2.1745796 0.37753388 0.22447252 4.8801126 0.09265608 0.015070629 -1.1346525 
1.0660579 0.42316353 -0.021412037 0.026733741 0.20156209 0.61742985 -0.57461727 0.113571376 -1.0196036 -0.73367214 -0.3027376 0.080888286 -0.1518646 -0.20880787 0.7674161 0.40231892 0.6897025 -0.6400246 -0.17780536 0.4538367 -0.06141372 -0.9646015 -0.67423654 -0.845535 -0.109125026 0.5343454 -0.071004905 -0.072859384 0.16406825 -0.37499738 0.526188 -0.5154798 0.6811536 0.5113352 0.09017675 -0.8409531 -0.16494194 -0.1783416 0.05937082 1.0960823 -0.15417385 0.340676 0.12826985 -0.5986206 0.7875915 -0.64986897 -0.053873196 0.258553 0.5998896 0.013635925 -0.71278006 -1.1252549 0.5381772 0.33476722 0.35569528 0.3644302 -1.6975571 -0.85770345 0.9031647 -0.041739482 1.0230789 -0.06473346 0.32231018 0.13046628 
0.18517724 0.38202795 -0.01840176 1.4564682 1.687955 -0.41806424 -1.1389688 -0.70796645 -0.5078053 0.7891632 0.028745512 0.13707423 -0.4278726 0.24216984 -1.8238986 -0.31446928 -0.5760643 0.33063492 0.20227627 -0.35624638 -1.968904 -0.8094694 -2.223201 1.1408682 0.7814221 0.051230866 0.8078883 0.058673408 0.41506585 0.115125045 1.5337815 -0.3436659 0.094315514 0.2903798 -0.5385123 0.81782687 -0.9745808 -1.4340951 0.8405727 0.41887653 -0.82677764 -0.68028647 0.19142097 -0.21173339 1.2249675 -0.08024987 0.679906 -0.41925865 -1.4737508 0.3670796 0.20419228 -1.654943 0.068987615 -0.8045537 0.30888462 -0.55255103 1.2038163 -1.981521 -0.22103155 0.23154092 3.5450914 0.027063042 0.32589355 -0.7683481 
0.11003181 -0.18535542 0.34407023 1.8040105 0.35679856 0.06391502 -1.0385672 0.09628859 0.39498395 0.020250406 0.68374544 -0.81488854 -0.38200894 -0.15787104 0.81907386 0.795016 0.82760906 0.31268668 0.44780508 -0.5475108 0.036387093 -0.5787947 -0.4788102 -1.4817424 -0.29837543 -0.4608368 0.6867537 0.29841307 -0.10170843 -0.08032746 -0.046328936 -0.17871611 -0.80944437 -0.6068174 0.26550072 0.43304414 0.30131358 -1.5803797 -0.4438372 1.0666704 0.013347123 1.3401446 0.5537065 -0.034845542 3.3707893 0.36049953 0.51700705 -0.041793227 0.27927098 -0.20399766 0.4397683 -1.0090708 0.1328505 -0.72150517 -0.18507521 -0.8516328 0.16976573 -1.7984135 0.5783682 0.10598078 2.9720669 0.15083434 0.3418701 0.6067974 
0.82722247 -0.007288864 -0.95486027 0.08947207 0.89039725 0.13689765 -0.7549 0.28554678 0.07603828 0.20421459 1.3080729 1.6621791 1.0651689 -0.3628331 0.007045006 -0.35547346 -0.4088401 0.33491337 -0.050388318 0.6097354 0.045567226 -0.6525923 -0.3474489 -1.9204932 -0.5992871 -2.214984 0.12823418 0.43381023 0.099666916 0.31833056 0.6077767 -0.020869417 0.02909228 0.41589612 -0.3185475 -0.16283733 0.34573615 0.51243377 0.29095706 0.15323468 0.18685968 -0.19589253 0.48841435 0.696358 0.59349835 0.06602593 0.56753606 0.22008201 -1.1813047 0.14866133 0.65992576 0.6786825 -0.42911312 0.7746046 0.13481478 -1.8869872 0.1959485 -0.18469776 0.6808139 1.0821422 1.7985684 0.5263735 0.54650927 0.7039759 
0.20195088 -0.14251038 0.221376 -1.4427407 -0.70182157 0.45765904 1.524445 0.28371823 -0.8241307 -0.26772773 -0.6505182 -0.2515467 -0.13226789 0.4003013 0.03132136 1.3816473 -0.0012494102 0.029111968 -0.24850851 -0.34018028 -0.20179643 -0.33371994 1.0189472 0.34244758 0.68652195 -0.79825634 -0.44303858 -1.2437239 0.052296855 0.37089407 0.09924336 -0.700099 -0.8078998 -0.46850204 -0.4219888 -0.33051398 0.7559027 0.6241345 -0.13763502 -0.24544218 -0.14453611 0.053013302 0.29526946 0.98979956 -1.0467615 0.38397262 0.4498005 0.3291972 0.4761809 0.54967654 0.09129652 0.63428557 0.81141275 -0.9409977 -0.35204703 -0.5156406 -0.06202079 0.7939377 0.25869626 -0.01995549 -1.5932573 0.46413183 -0.16982594 0.21046157 
-0.15347709 -0.1712021 0.092801645 3.2039661 1.052669 -0.17364764 -0.9987747 0.8628387 0.136133 0.20528796 -0.78013885 -0.4234891 -0.68224704 -0.251051 1.8500417 -0.43067822 0.2832801 1.539306 0.20417483 0.7270538 -0.5977278 -1.2692106 0.47310233 -0.009707504 0.38366967 1.4825349 0.8722465 1.0838445 0.8487396 -0.12560226 1.1250799 0.2209703 -0.7286386 0.59130234 0.20194289 0.15737644 -0.02343717 -2.2270796 1.0469462 0.026058003 -0.17824481 -0.28087017 0.4997626 -0.057914563 2.9500837 -0.46006963 -0.85303473 -0.43125755 -0.55740654 -0.37639526 -0.11297526 -0.85732234 0.80599266 -0.05930784 0.6173429 -1.2179632 1.5478978 -1.6175133 0.15918565 0.32478097 3.584708 -0.3878806 0.5622278 0.0064060576 
0.0757262 0.050689917 -0.23474777 -0.6143594 0.5570471 0.3408833 -0.23511295 -1.5206585 -0.0055170595 -0.63550514 -0.70947975 -0.4647707 -0.19984387 -0.42218214 0.25059524 0.37180504 1.0593275 -0.14141548 0.07034635 -0.6737023 0.5043519 0.58891445 1.1395415 -1.2468351 -1.4326661 1.0628939 0.11278879 -0.26779196 -0.20404856 0.14030756 -0.2554044 0.7687351 -0.3238917 -1.3029176 -0.4644129 0.036158383 0.29431412 -0.92719704 0.012037394 0.34944806 -0.057444964 -0.28196293 0.04366432 0.523792 0.2116501 0.035504326 0.08221431 1.0993247 -0.22938451 0.060521904 -0.6593121 -1.6148046 0.54653066 -0.24134402 0.012287347 0.26629633 0.43005213 -0.4723962 -0.44527292 0.18290913 0.60209364 0.28108245 -0.07736453 -1.8656063 
