0.044339087 0.1152489 0.32465157 0.7958998 0.22224985 -0.13225074 -0.13157423 -0.12498005 0.22955053 0.4572479 -0.143735 0.12667687 0.19076651 0.6386529 0.34907818 0.46152735 -0.18770595 -0.16162567 0.16892192 -0.36170352 0.5194865 0.3013 0.06497636 0.15914918 0.29727933 -0.27387 0.6564851 0.45197728 0.23455097 0.36942533 -0.5926984 0.6092622 -0.823852 0.34518299 0.4157343 -0.15489933 0.74001724 0.5320013 0.27604058 0.2823886 0.21606988 0.6387157 0.1590972 0.010827524 0.8912369 0.45839483 0.61845183 0.6897766 0.63771254 -0.42290014 0.260895 -1.0618234 0.16615659 0.25909686 -0.7799837 -0.29481113 -0.010061873 -0.35738117 0.4526428 -0.6296833 0.53538674 0.05754294 0.30927265 -0.4616106 
0.6269071 -0.12646322 -0.7644562 -0.225507 -0.6435485 -0.1835738 0.1462396 0.23507866 -0.45830923 -0.8396437 -0.06360854 -0.17557378 -0.36735615 -0.451654 -0.7807297 -0.30110452 0.276685 -0.900967 -0.63925076 -0.05355139 -0.46065053 -0.115592875 -0.13723536 -0.5073217 0.39026824 0.76260525 -0.11955769 -0.826033 -0.15175593 -0.5607221 0.09474507 -0.27326655 -0.085835174 0.40446538 0.13078941 -0.5852296 -0.6148039 0.14996617 0.0783684 -0.7562495 0.06568041 -0.4426522 0.555721 0.09373327 -0.9315294 -0.62066305 -0.03286944 -0.30041936 0.009033806 0.18290739 -0.20326185 0.5331943 0.21333252 0.41026515 -0.719591 0.0042135436 0.43449363 0.019616596 -0.37137073 0.285695 0.6427345 -0.29672664 0.23770651 -0.23703487 
-0.27033806 -0.09711397 -0.14422767 0.28423625 -0.39693266 0.36859787 -0.4245119 -0.53109175 0.05635293 -0.12979038 0.267424 -0.08779299 -0.10952559 0.4444428 -0.037635494 -0.45582005 -0.4769576 -0.5314642 -0.4262179 -0.08519387 -0.7375559 0.57389027 0.03512635 0.25077716 0.1336214 -0.09243125 -0.32825625 0.012981992 0.25298208 -0.2820086 0.2743879 -0.038714945 0.7279017 -0.17076558 -0.37687907 -0.18441701 -0.03460862 0.018507121 -0.44495234 -0.070321485 0.2331911 0.14489661 -0.40790042 0.45853087 -0.21551456 -0.14794508 -0.09971829 0.20789263 -0.12227956 0.12677117 0.26370084 0.30508474 -0.13355751 0.060734708 -0.7647663 0.22346617 0.003080447 0.46396098 -0.29729307 0.2646451 -0.29814613 0.299391 -0.5121694 -0.7441017 
0.10104369 0.67393893 -0.011495836 1.161341 1.0256854 0.31304273 0.25516853 0.13931246 0.15862003 -0.23132436 -0.30192032 0.0907801 -0.044670153 0.0702914 0.69210196 0.12264615 0.15298177 -0.24078006 -0.107939065 -0.27071768 -0.18358009 0.20718102 -0.14770104 0.76533854 -0.017770851 -0.5685571 0.9175022 0.3574814 -0.38030928 -0.008275672 0.21888801 -0.16157117 -0.6330698 0.22396222 0.73793364 0.111433126 -0.0100934915 -1.6018778 -0.055943392 0.22241265 -0.38124382 0.41077253 -0.5470466 0.8078473 0.90511376 0.1782389 0.63770777 0.31848046 0.39310604 -0.6417201 -0.058045495 -0.9470786 -0.54608476 0.09960885 0.40970856 0.03266155 -0.42217365 0.18096194 -0.39942226 0.043236505 1.3522849 0.024982532 -0.17039214 -0.4897053 
0.30933133 0.32674605 -0.91702783 -1.2232378 -1.2162209 0.7135464 -0.39041156 -0.14575015 -0.076078705 -0.66302896 0.7250927 0.5545106 0.3022109 0.9134691 0.22037472 -0.236348 -0.21536064 0.86568546 0.07508302 0.79064727 -0.15745139 0.5234115 -0.07401273 -0.52798945 0.3177732 0.27489305 0.3420308 -0.09772867 0.2633182 -0.1655271 0.13336352 -0.050337978 0.82804805 0.16573712 -0.10080547 0.024189107 -0.17401664 -0.24161361 0.22973335 -0.5333428 -0.05380695 0.2690747 0.21576948 0.39210504 -1.012073 0.20960037 0.19009665 0.594584 0.5807514 0.16263343 0.0769252 -0.8583021 0.5659151 0.23517329 -0.37982765 -0.29877865 -0.3272206 0.077244245 0.015481994 0.24966241 -0.4577111 0.5071556 -0.16289878 -0.45797622 
-0.41343278 -0.27135044 0.63875824 0.8376942 0.16757119 -0.19933684 -0.15428844 -0.8445754 -0.25591928 -0.34258798 0.6913599 -0.07143128 0.38835582 -0.07706495 -0.32170027 0.17077114 0.09085102 -0.51843166 0.13852857 -0.21273655 -0.20143075 -0.31398183 -0.40851754 0.61330706 0.2985219 0.101603806 -0.09968409 -0.2136349 0.20725937 -0.17311448 -0.10259633 0.56910586 -1.7191837 -0.2823123 -0.93239135 -0.48810858 -0.4211428 -0.6142301 -0.8039068 -0.27626958 -0.28532124 -0.08564002 -0.12727197 -0.17039795 0.81978494 -0.8454567 0.8168707 -0.16901846 1.0493624 -0.3195904 -0.57733095 -0.53132135 -0.7038492 0.19472408 0.38634223 0.5160321 0.4856672 0.20619261 -0.4209455 0.4819394 0.62239283 0.23344055 -0.32821402 0.25580585 
0.12289873 -0.16274312 -0.19382757 -0.67408663 -0.058838997 0.36230004 0.60814124 -0.25241286 0.67950684 0.035311334 0.4773266 0.46578774 -0.06412995 0.42586672 -0.33752048 0.094844066 0.037124038 -0.07124787 0.4537185 -0.605703 -0.22951525 -0.5990902 0.76547605 0.7012412 0.11491647 -0.061165176 -0.3344577 -0.04978808 0.8157063 0.98161644 -0.23013599 0.36743322 -0.16414714 -0.47904918 -0.24889539 0.08770546 0.22254543 -0.94208616 -0.55786586 -0.09106919 0.20175254 0.35285538 -0.7639333 0.4294166 -0.39246 -0.05457973 1.008548 -0.03357815 0.14723663 0.43770888 -0.009142654 -0.016942302 0.16787313 0.46817142 1.1423913 -0.38155708 0.003970692 0.28149217 0.30275518 1.0728399 -0.49783298 -0.08494255 0.34252453 -0.100699514 
-0.7465538 0.121164024 0.011353741 -0.25049546 0.2303237 -0.65929925 0.09562968 -0.28306434 -0.73180246 -0.7324504 -0.2626588 0.29868203 -0.8510524 -0.39830288 -0.097041845 0.06858213 0.094473585 -0.27134898 -0.05632204 -0.76403415 -0.04002196 0.18387976 -0.84991205 -0.31719837 0.059178624 0.084893994 0.18709813 -0.9869574 -0.38398784 0.05333453 0.031170893 -0.19211608 -0.28041 0.31290972 -0.44387072 0.38719118 -0.35059854 -0.6786602 -0.40184876 -0.40704963 -0.3003108 -0.16872972 -0.31532872 -0.0032798573 0.049606096 -0.54101115 -0.52707285 -0.39371222 0.058705833 -0.04075202 0.16863824 -0.24803269 -0.08156282 -0.20814513 -0.32534596 -0.88685626 -0.61594236 0.18462595 -0.40627643 -0.115504555 0.17432526 -0.24918179 -0.08874331 0.16947816 
-0.012940796 0.47443646 0.08905408 1.3289069 0.5880737 0.13284785 -0.98530626 0.0081387 0.42101416 0.071237326 0.7062384 -0.39781886 -0.054011144 0.26700878 0.17043714 -0.1712685 -0.5814706 -0.07876969 0.1718327 0.30081415 0.06431631 0.7016967 -1.0106075 -0.34755027 0.6084251 0.72516036 0.13813141 0.30681473 0.41365874 -0.21344076 0.51502776 0.07682894 -0.7891169 0.354474 -0.14045103 0.84571517 -0.179418 -0.22524044 0.58802855 -0.11135312 0.011815177 0.8712795 0.13368513 -0.07688344 0.011480724 -0.10540786 -0.06757618 -0.26856124 -0.4239993 -0.15124899 0.50519586 0.22122052 0.053205602 -0.25998348 0.86271644 -0.17689365 -0.4150319 -0.8847492 -0.038997233 -0.027693948 1.2733927 0.5493452 0.010580268 0.06377505 
1.1420075 -0.28811005 -1.3075813 -0.6961918 -0.464005 -0.24323118 0.4882532 0.16946366 0.27567017 0.22559394 -0.020163745 0.6594591 -0.46586782 -0.52060634 -0.41012713 0.14877975 -0.83414763 0.31237158 -0.030426204 0.36995637 0.13493341 -0.05272942 -0.27162263 0.47085214 -0.8023554 0.4736974 -0.1636665 -0.48614413 -0.590533 0.35855582 -0.50563 0.62011164 1.1154602 -0.12306102 -0.07174614 -0.20272951 -0.5529873 -0.32625973 0.55712605 0.18179302 -0.04021064 -0.32042342 -0.059654538 -0.36802933 -0.60042864 -1.1957707 -0.32775775 0.35314542 0.012736676 0.108446926 0.8959274 -0.63610834 0.595712 0.06350445 0.69768226 0.68870187 -0.8460031 -0.29290754 -0.074379265 0.59158456 -0.30504742 0.31728965 0.124762304 0.09887414 
0.17182979 0.72276294 -0.5577994 1.8264294 0.46074653 0.2966922 -0.30547035 -0.5100982 0.32201552 -0.29164833 -0.028846657 -0.045526613 0.19761774 -0.045051012 0.38409662 0.21475342 -1.0158309 0.12997836 0.08019788 -1.1103636 0.19966444 0.3119489 0.3701608 -0.09644388 0.5576384 -0.27380186 0.9487224 -0.5770145 0.1368213 0.43835697 0.26106745 -0.59751797 -1.4406966 -0.124072276 0.061223544 -0.49389705 -0.71151835 0.1288461 0.32057682 0.13604037 0.08499364 0.558706 -0.5107248 -0.21697816 0.8248154 0.16687913 0.5477458 -0.23921788 0.54970735 0.188132 0.10326599 0.34896088 -0.5196833 -0.96826094 0.48217788 0.3683595 0.31527954 0.65249294 -0.27457702 -0.78810424 0.8692184 0.15490188 0.00458747 -0.1929168 
-0.11568872 -0.08140032 0.5585739 0.19439727 0.4617223 -0.18374963 0.20486027 -0.58763367 -0.73761964 -1.4963455 0.18866996 -0.5437242 -0.57263 -0.5030527 -0.18099143 -1.2611256 0.20936428 -1.2434255 -0.28939664 -0.356303 -0.7817899 0.45553514 0.057496727 -0.57637125 -0.69061786 0.43644688 -0.8714684 -0.61300063 -0.30604556 -0.025347581 0.14350973 -0.34169352 -0.39121762 -0.46745095 -0.18232206 -0.9521444 -0.19363403 0.68307346 0.02518749 -0.8032035 -0.4650587 -0.67092246 -0.12579697 -0.28215498 0.30573434 -0.080839425 -0.0730502 -0.08421165 0.12009141 0.18949752 -0.42415863 0.11365863 -0.35314363 -0.91224474 -0.41106626 -0.5963572 -0.3669176 0.50590396 -0.7479272 -0.12186185 -0.10328747 -0.34794894 0.11803415 -0.26979998 
0.75007266 0.3377595 0.5301879 -0.8842719 -0.15849902 -0.05173252 0.12008614 0.3557005 0.42209217 -1.0162098 -0.46408457 0.16795935 0.2976349 0.0026426495 -0.49529383 0.171866 -0.6191183 -0.24427111 -0.47499707 0.5095115 0.035792675 -0.32911244 0.074539445 -0.5285715 -0.7955333 -0.34035578 0.5446345 -0.8345091 0.5338566 -0.32855552 0.072075196 -0.24822439 0.45161653 -0.35672358 0.19613972 0.049501173 -0.22824068 0.2020213 0.32747868 -0.38697776 0.52758867 0.26253223 0.16200268 0.013538478 -0.3679793 0.41915983 0.59531486 0.10139647 1.4155117 -0.6590509 0.115218274 -0.70674795 0.21707842 0.20413552 -0.26447442 0.5761401 -0.49468353 -0.11563208 0.06522337 0.34780073 0.18834828 0.354531 -0.11982058 -0.4790817 
-0.67031384 0.60273796 0.25633007 -1.1202722 -0.2306199 0.08366692 -0.16164531 -0.92461705 0.49167645 -0.15426768 -0.8274203 -1.0222695 -1.0868897 0.25056207 0.5173363 -0.85948724 -0.53601325 -0.15858822 0.012196928 0.03022682 0.75923175 -0.81770873 -0.47544658 0.19038542 -0.31653276 -0.6486275 0.18036011 -0.15458499 0.51861215 -0.18131894 -0.17917125 -0.35325894 0.25870007 -0.023750903 -0.13321123 -0.28075308 0.4694714 0.80022705 0.200753 0.15585724 0.6557149 0.52820134 0.50744873 0.3252446 -0.5747832 -0.31384933 0.3175694 0.19991232 -0.5843852 0.07405771 -0.4343415 -0.5966396 -0.044800825 0.1980035 0.43431258 -0.7816953 -0.597756 0.44123873 0.22724134 0.47051924 -0.44035238 0.28478414 -0.27606374 0.019270148 
0.43567595 -0.004815511 0.77505517 1.7961367 0.62327033 0.38466275 -0.116656564 1.0456655 0.9128039 -0.045509342 -0.27888557 -0.26713696 -0.30287743 0.2386988 0.7044907 0.39138833 0.16800468 -0.12839259 -0.14255373 -0.07421687 0.30162367 -0.64504653 -0.4637831 0.49193785 0.13376647 -0.19109753 -0.118684754 0.6849781 0.41543636 0.16932373 0.8282509 0.052062895 -1.2297593 0.105731994 0.6303903 -0.03917304 0.6368925 -0.8415108 0.14556974 0.12649971 0.18750367 0.91078097 -0.39189175 -0.19559368 1.5455004 0.20946296 0.37758842 1.0894386 -0.027099065 -0.07136286 -0.25740078 -0.1351777 -0.00564245 -0.0047838176 0.71895504 -0.008763318 0.67932236 0.15675534 0.40579072 0.05614399 1.299519 0.22435378 0.08090005 -0.31678587 
0.15727264 -1.6430564 0.2615864 0.40744472 0.6924023 -0.80272096 -0.5327138 -0.121510215 -0.29595912 0.032331716 -0.30392516 -0.95843667 0.64243484 -1.0676336 -0.41136977 0.086943716 -0.031281527 -0.0966844 -0.24208963 0.12775746 0.28700632 -0.47948936 -0.25581864 0.0029223904 0.22163218 -0.31381115 -0.17449605 0.22163045 0.028650288 0.28751665 -1.3237346 -0.030639749 0.14061609 -0.33823583 -0.3271765 -0.36093464 -0.56638175 -0.29692814 -0.22649103 -0.59916854 -0.32678157 -0.86893284 -0.9693411 -0.10671785 0.31488985 -1.1998963 -0.26663142 -0.2766481 -0.6292748 -0.5634038 -0.06492828 0.19242543 -0.7900651 -0.18140252 -0.37391543 -0.051530495 0.3009142 -0.088677004 -0.4018613 -0.28368357 0.8065063 -0.1611987 -0.47242773 -0.41896862 
0.06678689 -0.42775717 -0.36626855 0.98762006 -0.12630843 0.7225265 -0.28961426 0.006966737 -0.03922704 -0.023035929 0.44790372 0.28613195 -0.40554118 0.0036331797 0.73181826 -0.4448706 -0.50005835 -0.53441495 0.5207188 0.80006754 -0.049758576 -0.29461765 -0.86339194 0.19793658 -0.47035763 0.0090518445 0.6722231 0.013629231 0.12791963 -0.78326863 -0.12245078 -0.99016327 0.38334328 -0.34571025 -0.30885273 0.41070685 -0.5729269 -0.7622751 -0.08365396 0.16963877 0.12000831 0.083517484 -0.054258004 -0.10065969 -0.07446991 0.040085785 0.0791028 0.029562302 0.102585696 -0.69867814 0.18259066 -0.31948116 -0.38518876 0.41621646 0.22834095 0.23593658 -1.0414581 0.22885868 0.35569143 0.096518435 0.7041213 -0.37417835 -0.3772181 -0.6703806 
-0.38289163 0.15846056 0.621643 1.5404898 0.2941078 -0.18605585 -0.23284322 -0.22825539 0.1272756 -0.10551421 -0.28859052 0.18107006 0.0668044 -0.5940046 -0.012802056 1.1676668 -0.09517785 0.082582936 -0.11067239 0.018994903 -0.06670113 0.48301697 -0.28445357 -0.28478524 -0.99391216 -0.65140474 0.6377312 -0.53079414 0.09699718 -0.279316 -0.18710303 0.7110074 -0.50183845 -0.28872117 0.0059167463 -1.0232671 -0.20913894 -1.0737021 0.36794204 0.19395699 -0.6070129 -0.03498808 -0.63868153 -0.94046056 1.4629669 -0.25698113 0.053479422 -0.15854351 0.5789225 -0.04079464 -0.32743058 0.65567875 -0.52058434 0.04991088 -0.45079258 0.15501489 -0.21394049 -0.52651125 0.36012933 0.36307058 1.523243 0.35873395 0.22890797 -0.60489273 
-0.2241771 -0.21816452 -0.06072933 -0.57764393 -0.6041374 -0.028829332 0.3605707 -0.43388596 -0.24671364 -1.2611849 -0.3044678 -0.33964223 0.124582075 -0.2513126 -0.13731518 -0.25403026 -0.18956926 -0.24879463 -0.12425148 -0.17649949 0.09055858 -0.35627502 0.30638164 -0.28901255 -0.38043565 -0.02075491 -0.0724586 0.120585255 -0.07164359 -0.29998136 -0.583685 -0.20572561 0.33794296 -0.19804065 0.5302784 -0.17267872 -0.020362953 0.016848223 -0.037483178 0.2970843 0.24200647 -0.35051015 0.39923447 0.06548126 -0.7754564 0.09559573 0.22849847 0.03850616 -0.06274157 -0.27445826 -0.12362868 0.14375025 -0.50523865 -0.30684975 -0.3981116 -1.4312438 -0.5405364 0.115611196 -0.4627983 0.20104636 -0.67825496 -0.3648872 0.2999427 0.06377636 
-0.6778951 -0.21101673 -0.524287 0.09424066 -0.22773463 -1.1558124 0.17211506 -0.35351267 -0.28910127 -0.52137965 -0.26724428 -0.45451492 -0.22833022 -0.63277566 -0.31268403 -0.0052370797 -0.4016478 -0.554881 -0.4400872 -1.62017 -0.08270422 -0.12748663 -0.27345926 0.2221315 -0.31930333 0.073970735 -0.46277776 -0.45996603 -0.8055825 -0.40020573 -0.21853323 -0.35113895 -0.09474624 -0.19722372 -0.55415803 -0.060226616 -1.0781071 -0.02131619 -1.3903152 -0.7344029 -0.9852025 -0.19461505 -0.55350995 -0.21657589 0.11644718 -0.23621327 -0.87035334 -0.5784067 -0.1470583 -0.38591635 -0.7878459 0.03435751 -0.9563539 -0.6055248 0.59181637 -0.24300727 -0.5287765 0.35385635 -0.409827 -0.5179538 0.31053397 -0.7545935 -0.62965864 -0.11767032 
0.098250106 -0.28794208 0.59103364 1.4028808 0.6640089 0.06383582 0.47831205 -0.2992373 -0.0031032881 -0.03860169 0.16496187 0.35470018 -1.1606188 0.20300233 0.16347218 -0.37702468 -0.20102961 0.11216226 0.52772444 -0.7698929 0.6894294 0.010471949 -0.061600573 0.26690015 0.16597542 0.70903546 0.16598758 0.075859025 0.021990342 -0.30522043 0.54432064 -0.28192818 -1.0625689 -0.09312897 0.3907348 0.030364044 -0.28309783 0.25264388 -0.517953 0.60717756 0.6218408 0.08090979 -0.39319545 0.411043 1.29484 0.46767464 -0.4847649 -0.04718889 0.46682987 0.49731845 -0.6296211 0.5212535 0.16887727 -0.18320443 -0.48605365 0.718862 0.18194595 0.63536626 0.11714749 -0.062001638 0.65708613 0.3509833 0.2677163 0.31355825 
0.3125489 -0.12096908 0.24897245 -1.2380173 -0.9210641 0.39709178 0.6656625 -0.31800357 0.3903781 -0.22635205 -0.27646193 0.21554783 -0.1022215 0.49516577 -0.5344502 0.43245396 -0.5398058 0.30854845 0.23537998 0.3344166 -0.0068059484 0.4807564 0.54088527 0.24611226 -0.2018917 -1.0006231 0.6185995 -0.64081377 0.6866788 0.5480302 -0.94482106 0.111411475 0.64423907 -0.95966494 -0.004922266 0.073216714 0.19648229 0.17535761 -0.229613 0.56702465 0.65150845 0.72679377 0.06505309 0.15836754 -0.8689255 0.11118274 0.3317355 -0.0021590013 0.34638464 0.27125573 -0.016496683 -0.28940797 -0.2727686 0.067274176 -0.4000684 0.1672611 -0.0993324 -0.26150045 0.18751583 0.5981824 -0.6675522 0.1567725 -0.14464152 -0.30687222 
0.100090526 0.18451719 0.21555714 -0.97693944 -0.54303753 0.39354742 -0.07182452 0.20053004 0.24498944 0.25206682 -0.13944991 0.17436905 -0.048815537 0.05580693 -0.018535478 -0.09674673 -0.5194409 -0.051225245 0.33355388 0.4120732 -0.014791643 0.40710625 -0.44703525 0.47427252 -0.507083 0.5031606 0.5074327 0.12458163 0.54316837 -0.30925697 0.3122312 0.38994807 0.21058202 -0.03640852 0.36991993 -0.09734476 0.3081169 -0.07444215 0.22585633 0.30094135 0.5313728 0.11648969 -0.29870653 0.2169288 -1.312549 0.089059375 -0.040780876 0.16872452 -0.030862235 0.13513543 0.20252882 1.0884122 0.24184014 -0.52163035 0.49714413 -0.20997036 -0.983338 1.0511104 0.6233613 -0.030908037 -0.008199633 0.2000661 0.10010391 0.6655219 
-0.36893654 0.16060647 -0.21157645 0.21591285 0.13646765 0.04025466 -0.009178943 0.38621882 0.107723914 -0.075407095 -0.64722544 -0.22937581 -0.28409392 0.119906485 -0.101987585 0.24897619 -0.21067862 -0.15251026 0.043065663 -1.1270597 0.11556361 0.22478567 0.5042115 0.39056832 0.3607915 -0.24962248 -0.079640985 0.15694588 -0.34203136 -0.0404426 0.014079119 -0.40078387 0.21693873 -0.26576242 -0.54092383 -0.59864056 0.1571232 -0.9468999 -0.7254331 0.76416713 0.56166106 -0.019322535 -0.7644336 0.32595533 0.012996118 -0.17191267 -0.80150074 0.33239108 0.33478925 0.102855206 0.08661084 -1.1333643 0.41319573 -0.19664998 -0.9307975 -0.3489192 -0.14023587 0.03806734 -0.32978028 0.46793148 -0.007758968 -0.06851772 0.009038149 -0.038055394 
0.036779616 -0.5761715 -0.03921533 0.5615189 0.19473936 -0.02873885 -0.8415385 -1.0489409 -0.28608117 -0.92158735 0.24956383 -1.020609 0.014292053 -0.057806224 -0.1949727 -0.34425595 -0.072533734 -1.2274119 0.20983107 -0.5201633 -0.77771866 -0.05707197 -0.06940715 -0.50813276 -0.56508994 -0.023676237 -0.329614 0.07519038 0.14919189 -0.43524045 0.41248608 0.05766463 0.2769471 -0.35403296 -0.6770526 -1.2634271 0.0014550058 -0.077638164 -0.3795037 -1.0663526 0.033775438 -0.022429487 -0.2805608 -0.019215552 0.16412303 0.24915226 -0.04313089 -0.24431069 -0.021121249 -0.20520787 -0.819202 0.07916941 0.41670406 -0.044368573 -1.8718402 -0.579751 -0.22595699 0.14447786 -0.16161141 0.0007789565 0.28144735 -0.25190452 0.17636962 -0.630028 
0.5710436 0.71365565 -0.5375022 -1.4016305 -0.018129904 -0.0760372 0.17072167 -0.0065343543 0.36026505 0.232056 -0.17108484 0.50855464 0.30507475 -0.32264194 0.59180856 -0.3353642 0.086749814 0.48181078 0.14053266 -0.1882439 -0.31973764 0.5605203 -0.03984911 0.09742283 -0.24907388 0.6493734 0.66938895 -0.15183984 0.005060796 -0.23518749 0.22243592 -0.43821412 0.025451079 0.2565567 -0.5215186 -0.34152243 -0.07564704 -0.004249641 0.293308 -0.2650451 -0.0932802 0.038340125 -0.007857349 -0.13944846 -0.5201242 -0.27469614 0.33018604 -0.17527062 -0.29406303 0.0035465863 0.02341687 0.2701024 0.16117218 0.13355997 0.5041892 -0.46023056 -0.1493828 0.3784874 0.55606747 -0.45051613 -0.15907148 0.25270078 -0.0056843874 0.03185562 
0.25511858 -0.21289672 -0.5775871 -0.90164095 -0.10624205 -0.23350053 0.5906405 -0.44038343 0.10623318 -0.21852553 -0.3460885 0.508073 -0.738158 0.31791246 0.26765504 -0.060421422 -0.92905617 -0.4669841 0.23005867 0.40465197 -0.07087576 0.41275397 -0.32757244 0.4419475 0.6036587 0.355038 0.069036715 -0.357376 0.02761482 -0.6229728 -0.18405381 0.2760067 0.40210167 -0.9545279 -0.42628866 -0.38237774 -0.36590582 -0.49248147 0.30764753 -0.22847113 0.9205721 0.009357203 0.34146726 -0.71453416 -1.3708565 -0.43072727 0.40529147 -0.035303123 0.10048227 0.20384845 0.07613481 -1.0404114 0.056989692 -0.40245602 0.35459098 0.09643824 -0.39184377 -0.013304947 0.25375775 0.25651106 -0.7938247 -0.22663859 -0.09072274 -0.10787836 
-0.25318566 0.6579351 -0.32768 0.7581018 0.18659657 0.099315375 -0.032904457 0.59336895 0.4940019 -0.18593864 0.07655425 -0.55102843 0.3348351 0.2422935 0.47822344 -0.5837751 -1.059928 -0.5124437 -0.42964697 0.5854705 -0.6887028 -0.38663724 -0.23141176 -0.014956541 0.16263446 0.08468599 0.24620695 -0.16307718 0.099504404 0.28421158 0.2077881 -0.1320811 -0.5389727 0.94191724 0.24864797 0.051858477 0.030863672 -0.3608647 0.08637735 -0.23186405 -0.38160086 0.3652936 0.10193337 -0.006586124 0.4813151 0.6334952 -0.16752465 0.3662219 0.22708696 -0.34456736 0.20741895 -0.12153702 0.9413583 0.48766193 0.055490904 0.4560436 0.37267905 -0.17376754 0.19118886 -0.5479037 1.0755754 0.5352007 0.23407266 0.4957717 
-0.5662332 0.3662594 -0.39608288 2.1572368 1.4953723 0.29739475 -1.151615 -0.3906526 0.638207 -0.29646245 0.33684686 0.74776155 -0.08427128 0.54666847 -0.20853178 0.25520402 -0.1402164 -0.9585177 0.24516508 -0.23273356 0.6436128 -0.14593972 0.6759818 -0.2632483 0.20509127 0.973229 0.20926067 0.46235582 0.19681387 -0.8126058 0.85032964 -0.41517878 -0.33839065 -0.25039762 -0.34510478 0.24163781 0.79534036 -1.445517 -0.2757635 0.33391902 -0.26016548 0.6298449 0.30137518 0.5976876 2.0074024 0.1080297 0.5290712 0.51817334 -0.060160596 0.60855466 -0.47111645 0.45753118 0.5304556 0.29392093 1.2297783 0.5593019 0.046043243 0.17396192 -0.12972456 0.033126585 1.8254353 0.7068175 0.29956204 0.4541006 
-0.27165648 -0.318455 0.48095727 1.1005751 0.5567614 0.46374536 -0.38955495 -0.46817783 1.0764238 0.47644052 -0.4675119 -0.2492753 0.6388692 0.5598364 0.6311803 0.022167297 0.16901171 0.32446364 -0.2249995 -0.15149875 0.40286055 0.016665414 0.13071561 -0.015364057 0.23866181 -0.51857585 -0.20698492 -0.19162409 0.39422676 0.30658403 0.26814023 -0.09933823 -0.8013503 -0.7079681 0.59999275 -1.0450622 0.5079946 -0.18329948 0.395647 -0.26755035 -0.0056805587 0.22146676 0.11543381 0.11741029 0.11924659 0.3536763 -0.29874945 0.1982832 -0.34721825 -0.26655567 0.209252 -0.43584955 0.48060027 0.32873747 0.5695456 0.42657316 0.6033888 -0.050359413 0.14972393 0.17975336 0.6209932 0.03967218 0.5458885 0.14720672 
0.089436255 -0.1866528 -0.17530107 0.3261341 -1.1033819 -0.34793565 0.08457459 0.27659157 -0.41804004 -0.12784243 -0.5851884 -0.25215492 -0.61446965 -0.45852974 0.071954206 -0.34318417 -0.17223273 -0.13161178 0.047750317 -0.30491084 0.101143256 0.10654593 0.5339368 -0.5423315 0.35162804 0.6827761 -0.552373 -0.5872586 0.23726532 0.00024663904 -0.5569269 -0.07973693 -0.00034364892 -0.7655552 -0.78397804 -0.08086404 0.03951595 -0.7454455 -0.02899302 0.12209511 -0.29752314 -0.26190597 -0.08449749 -0.17487626 -0.74201244 -0.5945966 -0.34923258 0.23406582 -0.14414364 -0.32934862 -0.48704365 -0.24665834 0.33877635 0.7028022 -0.53056556 -0.61947364 -1.6858524 -0.0089254435 -0.37005985 0.41412053 1.0033159 -0.47291744 0.32321957 -0.006989135 
-0.123258956 0.08837067 -0.44937447 0.22183517 -0.03148 0.52870756 -0.09575748 -0.02132486 0.45475084 -1.264771 0.086724415 0.45437723 -0.13241717 0.49079287 0.14148039 0.5064187 -1.1489768 0.09733711 0.06700362 0.8045349 -0.03956188 0.1514972 -0.7735126 0.4715171 0.23071256 0.34274808 0.1431582 -0.31389675 -0.21973525 -0.6289688 -0.44564947 -0.5814353 0.8085983 0.04623975 0.28092784 -0.09886341 -0.12528712 0.02895994 -0.1488972 0.24170758 -0.1383509 -0.028336804 0.22777775 0.022528233 -0.21102373 0.25492623 -0.46560264 0.21078752 -0.25083658 -0.18743248 0.67654747 -0.4619717 0.5677868 -0.35667574 -0.1500013 -0.44272396 -0.08807226 -0.55263966 0.85329896 -0.3341301 -0.021063084 0.21875589 -0.07459124 -0.15978707 
0.3873972 0.48509496 -0.2943803 0.682801 -0.61127025 0.19480474 0.40787062 0.447527 0.5251223 -0.2338162 -0.19853525 0.38407838 0.19474162 -0.084589094 0.033990122 0.9503857 0.0030811056 -0.49138767 0.07771949 0.08069709 0.13672161 0.7786046 0.0821814 -0.10104361 0.6077621 0.54167175 0.91639477 -0.17925027 0.055181745 -0.39620316 0.05858816 -0.23650931 -0.16084583 0.5531492 -0.27507228 -0.6083473 -0.12133484 -0.02967838 0.41942498 0.37969542 0.40409303 0.36434478 0.25054014 0.21549915 0.13815407 -0.48465624 0.5372344 0.33409858 0.062169142 -0.14560473 0.7009235 0.06315679 0.59856015 -0.63863474 0.25448886 0.20963256 -0.062064856 -0.918238 0.39840472 0.085478894 -0.046792578 0.067374244 -0.13954891 0.14924963 
0.5171923 0.4319162 0.48299512 0.21403074 0.7229394 0.41307175 0.4017056 -0.39783564 -0.0345935 -0.29780456 0.15571971 -1.3656355 0.2588365 0.46424788 0.11720833 0.75479794 0.07942116 0.555297 0.7611866 -0.48490262 1.1482338 -0.36580548 0.48763758 0.51545584 0.79114014 0.3330362 -0.07951715 1.1849028 0.42370424 0.34194607 -0.115794025 0.48230183 -0.48968634 -0.35260987 0.113140106 -0.0924447 -0.5042906 -0.4517777 -0.21923198 0.560401 0.028663244 0.48076686 -0.9886851 0.11350495 -0.32409146 -0.2249599 0.17977217 0.5824423 0.4067149 0.60944706 0.055672213 0.29210877 0.12176565 -0.22560288 0.42380023 0.09181143 -0.28787118 -0.3138299 -0.02368132 0.6146564 -0.10821833 0.51343423 0.43566984 0.24541269 
-0.30460775 0.12285489 0.71611655 0.122959316 -1.177103 -0.44594663 -0.61406434 -0.044071965 0.63665664 -0.8244344 -0.389576 0.10323647 -0.501768 0.45734125 0.007916928 0.8375993 -0.38075927 -0.16267811 -0.052758947 0.30838376 0.45003697 -0.41889602 0.17449926 -0.3227701 -0.15082201 1.1111431 0.06569455 -0.026134549 0.3396058 0.47476757 0.35641983 0.263647 -0.4219578 -0.18894596 0.08073692 -0.37167835 -0.15236384 0.548241 0.8814292 -0.13665907 -0.059534475 0.36299053 0.50728095 -0.2776783 0.34460178 0.3023527 0.4963796 0.3385301 -0.37784716 0.5094452 -0.7793899 -0.21056384 -0.32782605 -0.7283092 0.48037627 -0.06354332 -0.6789342 0.38494638 0.3870746 0.39274776 0.92587507 0.09911352 0.28539404 0.039701466 
0.49823165 0.09340222 -0.016631212 -0.11692176 -1.131769 0.060410716 0.23231255 -0.78441805 -0.38005632 0.26564994 0.030684257 0.026410192 -0.44089684 -0.2121813 -0.21445513 0.0579234 -0.5517108 0.016493104 -0.34708393 -0.55551976 0.14520453 0.39955646 0.3120584 -0.0012867614 0.7865946 0.6482822 -0.28485057 -0.5590132 -0.18613201 -0.0915896 0.054811012 0.6151266 0.86419046 -0.62080276 -0.3280647 0.2600114 -0.4408119 -0.39030692 -0.12889649 -0.66035414 0.038675636 -0.093095854 -0.15219854 0.29957858 -0.23730446 0.10651542 -0.1640186 -0.24900824 0.29205516 0.04467024 -0.22652422 0.37296623 -0.39136547 -0.13200094 -0.3564109 0.18933238 -0.39420712 0.527185 -0.4832706 0.045031596 0.17527816 -0.20296334 -0.64902556 -0.75506943 
-1.119601 -0.13859597 -0.7343639 0.30603167 0.036387183 -0.46820107 1.004425 0.38875028 0.54163533 -0.29897726 0.0045286748 0.10825552 -0.18139163 0.6581965 0.21529858 -0.18558972 -0.02377048 0.51246387 -0.31956792 -0.22549704 0.07977295 -0.4772108 -0.031562623 0.74443483 -0.054959066 -0.6797994 0.47375274 -0.07142809 -0.5076498 -0.42752925 0.084122084 -0.6126672 -0.4702298 -0.18766493 -0.117940985 0.13294262 -0.6342404 1.3548275 -0.30336353 -0.2503644 -0.22331734 -0.23739123 -0.24237238 0.27783862 0.58838713 0.13559943 0.22360894 -0.4897018 -0.3273531 -0.27570078 0.0059380815 0.34902307 -0.50819623 -0.08351086 0.4750709 0.36793822 -0.101085976 -0.3178071 0.3884942 0.455262 0.061236583 -0.1985009 -0.6580237 -0.05931659 
-0.3008313 0.12849832 -0.10273533 -0.93744916 -1.0727174 0.16443306 0.4624674 -0.15362543 0.15196618 0.049701396 -0.28727788 -0.067107044 -0.9616738 0.20607956 0.3487681 0.628979 0.4320942 0.35657388 0.16833366 0.45805982 -0.37136096 0.08924948 -0.22826904 -0.4746037 -0.4445493 0.36956096 -0.46425492 0.3628933 -0.0019518347 0.45216617 0.2885181 0.1024319 0.53511757 -0.33629513 -0.68330735 -1.010012 0.13669495 1.1493489 0.3733935 0.45111138 -0.28808358 0.29996598 -0.89800626 0.16861254 -1.2295414 0.13147134 0.17922752 0.12984696 -0.47264454 0.38346913 -0.33617002 -0.3961364 0.44340286 -0.5585199 -0.78406787 -0.31566104 -0.26820055 0.27902463 0.017884556 -0.1718472 -0.8229179 0.40896425 -0.16235091 0.18793485 
-0.4144657 -0.016591646 -0.111724146 -0.09397953 0.15641655 -0.06344392 0.30233622 -0.9323401 -0.26075527 -0.2963901 -0.357059 -0.90857226 -0.047466286 0.02536003 -0.20955987 -0.8336614 -1.2844347 -0.4141338 -0.16197778 -1.3602797 0.21817292 -0.18153073 -0.2586271 -0.5767519 -0.9431376 -0.12638828 -0.73754126 -0.4031606 -0.2628747 -0.03164801 -0.14799342 -0.25263357 -0.34075537 0.16559999 -0.29832363 -0.70988816 -0.20043632 -0.08093085 -0.4857358 0.06468842 -0.3018128 0.10613336 -0.7987724 -0.1836233 0.04866158 -0.017757526 -0.20895177 -0.12060103 -0.0034324345 -0.12774682 -0.037338287 0.28879732 -0.04384012 -0.79900336 -0.19770275 -0.6228195 -1.7787265 0.06940413 -0.40822896 -0.75091344 0.039651033 -0.29695383 -0.029733416 -0.8401557 
-0.7362417 0.021682672 0.039230656 0.10856649 -0.11614836 -0.36728978 -0.3319516 -0.7947496 -0.31852397 0.505667 -0.3291655 -0.7187196 -0.49258664 -0.5686073 -1.482421 -0.89739156 -0.16815226 -1.2402284 -0.30643994 -0.40370303 0.22416669 0.39823967 0.31383628 -0.04426411 -0.7969674 -0.05128323 -1.1751062 -0.8595631 0.09432903 -0.9683656 -0.1082473 -0.17674316 -1.232604 -0.41642508 -0.1823617 0.04377471 0.29334268 0.32281902 -0.71378803 -0.20859754 0.24435711 -1.0013696 0.06796833 0.014357937 0.28610435 -0.45107153 -0.35155562 -0.1546263 -2.6959665 -0.7133668 -0.28060585 0.17178096 0.006505665 -0.33347479 0.34783894 -0.47477818 -0.2709532 -0.200739 -1.1079806 -0.1473253 0.13999367 -0.4630361 0.10933082 -0.61190903 
-0.31070283 -0.19354738 -0.08656698 -1.4381748 -0.53576964 0.14065649 0.29346573 -0.478188 -0.5770138 0.08243851 0.0030231874 0.10728032 -0.10608498 -0.011436381 0.0718804 -0.29254928 -0.06220801 -0.2436731 0.1943269 -0.49643275 -0.47107148 0.3860607 0.20086475 0.40351912 -0.361937 -0.7718811 0.33221412 0.3820621 0.039086517 -0.043419164 0.1403521 0.49087468 1.1498268 0.17650208 0.18301708 -0.60131323 0.22217251 0.24855523 -0.3783835 0.48290592 -0.05697493 0.06765762 0.088878624 0.2949333 -1.0185287 0.09891078 -0.13098115 0.43398398 -0.08463971 0.20437358 -0.2727973 -0.5346604 -0.14577895 0.49899435 0.32580364 -0.42200145 0.38329512 0.16627409 0.28197935 0.1925217 -0.5758526 0.47782212 -0.15899341 -0.20126425 
0.784004 0.2023108 -0.27591178 -1.1350363 -1.7612531 0.04466153 0.029663099 -0.21007985 -0.029603906 -0.7014821 -0.5689216 0.3928286 0.81162447 -0.08114186 -0.16092587 -0.381751 -0.36681548 -0.79337925 0.13485254 2.4197745e-06 0.15317278 -0.008089712 0.38617456 0.27968818 0.7184835 -0.057976674 0.7543828 -0.60724515 0.35606715 -0.01222065 -0.31004503 0.5572188 -0.06100181 -0.924044 0.18260053 -0.122648425 0.016013373 -0.12873167 0.12262038 -0.23119923 -0.797601 0.36033803 -0.36711335 0.021599265 -1.3389809 -0.66598046 0.40770224 0.21898684 -0.3362027 0.3446724 0.09751794 -0.47944447 -0.32889268 -0.86093634 0.5501285 -0.6738906 -1.0920802 0.14693032 -0.030614134 0.50935376 -0.7189269 0.08200689 -0.16211069 0.12357221 
0.4223319 -0.18396978 -0.55480367 0.07620622 -0.43467242 0.26580635 -0.86935526 -0.69467294 -0.61923534 -0.21331002 -0.7382799 -0.3354073 -1.3096237 -0.20420037 -0.13158189 0.36116284 -1.2554158 -0.162307 -0.038118355 0.1228028 -0.36699766 0.07877317 -0.13378614 -0.8295283 -0.47280478 0.30758196 0.082269765 -0.2952667 0.011265473 -0.22101219 -0.42473653 0.10905794 0.0067217364 -1.1129776 -0.6121807 -0.16968441 0.32470626 -1.0970254 -0.34388322 0.05364296 0.39471138 0.048722584 -0.13157403 0.116127774 -0.03599563 -0.06268792 -0.629318 0.097690895 -0.27536055 0.19738327 0.47443154 -0.2535207 0.17095293 0.11482434 -0.41102922 -0.21123423 0.5452349 -0.22243884 -0.30511457 0.1134575 0.06890762 0.08232803 0.015893845 -0.40599653 
-0.25827622 -0.66019076 -0.322134 -0.31463924 -0.30959934 -0.008605789 -0.47647166 -0.042153265 -0.16836107 -0.19184339 -0.52483374 0.6095126 -1.0677365 -0.01064072 -0.36571825 -0.28329802 0.24950926 -0.27046812 -0.044614345 0.4179939 -0.42598003 -0.7271547 -0.30552453 0.34547058 -0.2849362 -0.08367892 0.19593465 -0.795406 0.23409873 -0.27302557 -0.2625603 0.116202444 0.53247774 0.02752263 -0.067354836 -0.32081807 0.5300574 -0.4360616 -0.55470866 -0.17959675 0.1940531 -0.14770275 0.5023549 0.116537325 -0.22880758 -0.37433836 -0.84756666 -0.073258944 0.18108204 0.18745443 -0.42614847 -1.7558231 -0.2213608 0.222759 -1.3123565 -0.33735302 -0.30417567 0.034813907 0.34557265 0.11120322 -0.24204634 -0.061463095 -1.0614332 -1.3791461 
-0.16460042 -0.85127956 -1.6154393 0.03948768 0.1576432 -0.43351886 0.36037368 -0.43330687 -0.10164973 -0.016145892 0.24013889 -0.6399769 -0.21049842 -0.20546205 -0.97007173 -0.2615774 -0.52171046 -0.38124412 -0.11341732 0.13113621 -1.4137435 0.07003663 -0.98215646 -0.057048198 -0.9317692 0.36760905 -0.7652984 -0.19542083 -0.543085 -0.82928646 -0.36391604 -0.59047055 -0.22236817 0.22128505 -0.8949703 -0.646776 -0.627873 -0.30491516 0.041935775 -1.0077192 -0.49796245 -0.16779128 -1.0891995 -0.28598362 0.28822175 -0.8673691 -0.6118198 -0.015122694 0.09726168 0.2788029 -0.26311114 0.2669016 -0.63967097 -0.19838235 0.09278693 0.28664312 0.18099257 -0.13536313 -0.84693545 -0.5265307 0.4932149 -0.19150138 -0.33375952 0.13295123 
0.18996972 0.042229723 -0.2396838 0.076575026 -0.17753841 -0.23006219 0.122708894 -0.105357885 0.8002037 0.11854394 -0.14587466 -0.006238034 0.060273156 0.36415562 -0.2589592 -0.0829059 -0.27644676 0.36121786 0.22009897 0.3248425 -0.5778045 -0.15815009 -0.11024519 -0.6029289 0.50996834 -0.41779998 0.118600145 -0.68393826 0.15747659 0.30577755 0.15987153 -0.43790036 0.05800861 -0.10636142 0.10783984 0.040882245 -0.010181829 -1.4952753 0.3674059 0.31593955 -0.04153867 0.20903416 0.31814888 0.19879305 -0.2994161 -0.5715934 0.16265687 0.34465545 -1.0628283 -0.23486704 -0.34119985 -1.0932134 0.54326445 0.2185358 -1.0251151 0.35904634 -0.17392749 0.0022298123 0.57429755 0.156713 -0.0014467966 -0.46902937 -0.4006147 -1.060611 
0.8050207 0.093607366 -0.71218616 -0.34686825 0.043362755 0.44588107 0.6744337 0.6187831 -0.01274913 -0.1547771 0.12663262 0.36632156 0.046294235 0.0027632872 0.24226019 0.027475225 -0.30419466 0.3932393 0.3011027 0.4715195 0.047017485 0.37918374 -0.6053236 0.42639774 0.2525444 0.12183174 0.32393274 -0.10752101 0.07047353 -0.31651813 -0.5452071 1.0178853 0.34296343 -0.10158068 0.1377282 -0.39611274 -0.2641137 -0.26898494 -0.36907443 0.6817109 0.42270422 -0.21510231 -0.5306556 0.19687426 -1.321248 -0.22430621 -0.5467174 0.013759051 -0.76444674 -0.07091966 0.6525619 -0.4644776 0.0760411 -0.40296298 -0.039168004 -1.1206135 -0.75672424 0.028029744 0.33219033 -0.23285417 -0.31164867 0.047182836 0.36723173 0.3144946 
0.4526511 0.19916494 -0.025516614 -0.06715859 0.20849739 -0.24425147 0.7767683 1.0711449 0.015842872 0.49330053 0.013418521 -0.38006294 0.25451532 -0.050585516 0.12735155 -0.49204126 -0.24254839 -0.33212855 -0.00090864644 -0.07667999 0.48008302 1.1529624 0.27179855 0.11806226 0.6163019 -0.34638128 -0.7155439 0.25270998 -0.15202641 -0.24078108 -0.8562082 0.060662955 -0.65942544 -0.12097779 0.24416876 0.03257458 0.35399988 -0.34844914 0.91428566 -0.032985605 -0.38666323 -0.62081367 -0.2996896 -0.477294 0.17984775 0.6356231 -0.9536366 0.45743674 0.08035444 0.13052484 0.26767343 0.10331283 -0.7817121 0.3513785 0.7727315 0.26874578 -0.8380377 0.30315974 0.20024377 -0.6496072 0.25548586 0.09227867 0.5849721 -0.21222605 
-0.47422168 0.07730841 0.14237279 -0.096248865 0.13125692 -0.4267715 0.2731592 -0.3558838 0.48683447 0.34357503 0.23367156 0.31165126 0.04309446 0.55146974 0.2189305 0.5344386 0.45747155 -0.034042157 -0.20164171 0.19018747 0.42891857 -0.13876979 -0.3844351 0.5663098 0.12420854 -0.90389425 0.16893604 0.20528947 0.36569947 0.12942901 0.011361952 0.15837303 0.15119913 -0.2946254 0.03734478 -0.46782264 -0.2544142 0.091147184 -0.121249 0.19329202 -0.05804427 -0.076605216 -0.2651014 0.77760696 0.45206892 -0.29882142 -0.0686895 0.0884203 0.11391982 -0.30453056 -0.91419053 -0.8270317 0.2718113 -0.18127872 0.3692045 0.65802795 0.11369468 -0.022572055 -0.15429461 -0.35853198 0.5008806 0.65016717 -0.34873027 -0.28126687 
-0.5000598 0.029900951 -0.96223515 0.053315546 0.36566815 -0.5710224 0.67024773 0.0017463395 -0.3314431 -0.5257007 -0.8087189 -0.33584562 -0.085805126 0.14370687 -0.1418545 -0.015154134 -0.94037694 -0.2931761 -0.20872286 0.10074997 0.38613543 0.28500658 0.059188664 0.10047676 0.053180516 0.053531025 -0.16792329 -0.10599178 -0.55303437 0.03938342 -0.8936512 0.13165778 -0.66040134 0.1936154 -0.0068657375 -0.80157685 -0.6354461 1.1424612 0.039198015 -0.42438182 -0.40370938 -0.20294635 0.2695612 -0.10312682 0.07250706 -1.27155 0.09091461 0.08328466 0.23835865 -0.44374245 -0.20845827 0.42387 0.17265067 -0.149556 -0.2063931 -0.16309105 -0.2049146 0.31600723 0.11918797 0.2273479 0.15507397 0.10322741 0.23577552 -0.21902996 
-0.012182354 -0.13294582 0.3907198 0.43207133 -0.2700825 -0.067004554 0.19629459 -0.28845346 0.45193654 -0.09900943 -0.1063914 -0.30454612 -0.0479071 -0.30615562 0.15720688 0.1834599 -0.6900832 -0.98725355 -0.5297629 -0.22867551 -0.22815791 -0.5304518 0.37201118 0.51312804 -0.1481877 0.15530483 0.020483792 -0.34735245 0.048190095 -0.15202233 0.1677238 -0.51538366 -0.4692697 -0.7231255 -0.30906883 0.3389068 -0.66412836 -0.9627099 -0.17921111 0.2691082 0.034457922 -0.2933404 -0.13609065 0.20235512 -0.2419652 -0.33575267 -0.35404104 0.07980118 -0.6261352 -0.6385073 -0.50206196 -0.9012448 -0.22069056 -0.54947233 -0.27251858 0.3941674 -0.025834402 0.52292234 0.031994812 0.5103769 1.16087 -0.23980714 -0.08006378 -0.622909 
-0.2987321 -0.7534857 -0.09327066 0.14615716 0.21624137 -0.2760966 0.039990377 -0.037094783 -0.6291358 0.10008576 -0.47005326 0.040224526 0.5194655 -0.68525696 -0.19047011 -0.44593856 -0.20944402 -0.16127194 -0.08961641 -0.38492525 -0.39586562 -0.6436702 0.046748493 -0.68220675 -0.12198992 -0.8533059 -0.64303064 -0.03429448 -0.2489479 0.19221699 -0.3488311 -0.005023094 0.0477134 -0.08009044 -0.60236514 0.29400578 -0.57663727 0.099982604 -1.1758343 -0.73330784 -0.37373456 -0.3725022 -0.63113195 -0.5482178 -0.13096887 -1.2707257 -0.1585673 -0.0646392 -0.64944303 -0.38297486 -0.26549923 -0.07288215 -0.92584884 -0.101492435 -0.30012304 -0.07788607 -0.34452027 -0.33254683 -0.7921936 -1.1362511 0.40194386 -0.20929363 -1.3439887 -0.7775108 
-0.96624184 -0.12903318 0.3021043 0.112447515 1.0169864 0.15397388 0.07273019 -0.13650642 -0.60722154 0.9377994 0.18271214 -0.021918427 -0.27630553 -0.11607708 -0.215422 -0.27556485 -0.5329027 0.6143988 0.1379893 -0.17254712 0.45231023 -0.6654694 -0.694134 0.54574245 -0.14621595 0.39132717 0.72345555 0.2373111 0.11582933 0.1363524 0.12609038 -0.31678635 -0.6548115 0.7449264 0.10960531 0.41823253 -0.69551235 -0.7142331 0.71852124 0.07102173 -0.40560716 0.53672415 0.15169261 -0.06990914 1.2646427 0.44865352 -0.48004764 0.6344348 -0.72127134 0.24975951 -0.20520355 0.02346033 -0.42416131 0.08500674 0.5717629 -0.12707242 -0.30475864 0.11569891 0.8506635 -0.27129748 0.5148114 -0.052221335 0.34365943 -0.10825684 
0.55459696 0.09654966 -1.6945851 -0.09613555 0.19275296 -0.36850142 0.18621783 -0.13848403 0.22086255 0.15969871 0.19773622 -1.8528663 -0.20738953 -0.11736294 -0.08264496 -0.6500498 0.07970777 0.13439816 -0.43118948 -0.1944849 -1.6125392 0.01396365 -0.020604929 -0.41554862 -1.8765687 -0.5946559 -0.8627534 0.02431038 0.23110516 0.3859733 -0.43674004 -0.5566496 -0.31925973 -0.20041622 -0.9391656 -1.210759 -0.52754396 0.5293604 -0.12546425 -0.8777451 -0.24514373 -0.40533176 -0.6868933 0.35232863 -0.043697745 -0.6101094 0.11355342 -0.44204062 0.052316085 -0.2260726 0.4676667 0.2789365 -0.34285772 0.19329077 0.13696438 -0.42017382 -0.009395821 0.82569563 -0.75366354 -0.057521008 0.23798822 -0.11131662 -0.01533868 0.042870317 
-0.71765906 -0.22448304 0.14831378 -0.12788914 -0.9085016 -0.41711804 0.13717417 0.0965869 -0.48905438 0.12850118 -0.5051509 0.32925144 -0.52001446 -0.26416272 -0.98495567 0.21124083 -0.44652942 0.38425323 0.07037731 -0.21634483 0.6115009 0.11427172 -0.673069 -0.2534289 -0.6742278 0.021051122 -0.6910893 0.25648385 -1.0427704 0.0712049 -0.6293686 -0.097225845 0.058193948 0.32154197 -0.03154822 0.8169681 0.23085919 0.7308425 0.02960118 -0.90072066 -0.17938817 -0.90087044 -0.104580455 0.02406538 -0.6441398 0.018934097 -0.2652827 -0.6007417 -1.1486366 -0.31436238 0.37666577 0.47902733 0.072448865 -0.858673 -0.32828167 -0.38647816 -0.26063195 0.027234944 0.47864968 -0.27311945 0.2695579 -0.81724674 -0.9614217 -0.17113493 
-0.23871723 0.22867931 -0.1553186 0.5697046 -0.4121547 0.22603594 -0.2505199 0.25123864 -0.39792785 -0.54325265 0.026283799 0.036924392 -0.29324982 0.09098319 0.052292425 0.23358458 -0.8812 -0.49259004 -0.3962531 -0.2001263 -0.37667397 0.23936461 0.23360133 0.75763637 -0.7933876 0.5978733 0.10394492 -0.025966851 -0.0026716583 -0.33151177 -0.49714908 0.26720187 -1.4800259 -0.22715506 -0.48570943 0.4287148 0.09791114 -0.041146692 0.3589918 0.83610207 0.38724792 0.04867544 -0.3377055 -0.117607385 0.6786834 0.3026189 0.08961683 0.30260974 0.48915923 0.16582046 -0.6124606 1.0131509 -0.61606866 -0.5200787 0.67903244 -0.1493248 -0.83673817 -0.16082317 -0.046311613 0.20912448 0.9471982 0.5059686 -0.06393429 -0.41620538 
-0.13332976 0.029911598 -0.40185025 0.7358279 -0.5317402 0.40777272 -1.5760757 -0.54589266 -0.50646645 -0.20937644 0.034679998 -0.71092814 0.3743418 0.41699487 -0.0944385 0.48391107 -0.49802828 0.25706163 0.17115273 0.46048945 0.42500186 0.48272678 -0.66951895 -0.13311665 -0.00035105462 0.089762814 -0.18095146 0.13556029 0.41830978 -0.3229394 0.0052929525 -0.2173436 -0.17102176 -0.34698668 -0.62379366 0.06502031 -0.023762872 0.41253346 0.04429602 0.2901348 0.42523897 0.17496127 -0.50020504 -0.1250859 0.39123031 -0.061735816 -0.3888646 0.4311685 -0.26946816 0.012197097 0.27406612 -0.6562269 -0.29890302 -0.7454381 0.22706376 -0.378845 -0.39584693 -0.1918194 0.47769973 0.03184986 0.7436188 0.40630847 -0.12471053 -0.7840729 
1.0538685 0.39041883 0.5347445 1.2569203 0.25399408 0.826426 -0.32390776 0.024517845 0.53105056 0.40945944 0.12926711 0.47630215 0.03635239 0.26278913 0.111271895 0.791611 0.21596989 -0.46365124 0.4239544 0.48366368 0.13080971 0.04353167 -0.27038297 -0.90486896 -0.043757763 0.22053969 0.14034836 0.24593428 1.0079124 -0.07624551 0.025985563 -0.035102468 0.31913748 -0.45452663 0.14668049 0.1622159 -0.15105323 -0.45507467 0.24139279 0.25803936 0.02272824 0.17033711 0.3855673 -0.033345666 0.6514596 0.12109112 1.0613887 0.4570979 0.67846334 0.3240474 0.65761626 0.5041532 0.92114985 -0.23029801 0.5493355 0.8135556 -0.44963193 1.1076874 0.42008305 0.26356682 1.2968822 0.16056575 0.29755744 0.18163788 
-0.20407104 0.2785793 0.24561298 1.4182433 1.345656 -0.56889015 -1.2387995 -0.66021246 -0.6173093 -0.578401 0.23501016 0.38926038 -0.4872471 0.2800554 0.014389089 -0.42179787 -0.6516883 0.27306065 0.54509 -0.42049912 0.27272317 0.9028031 -0.9370162 0.038050223 0.5526945 0.6004235 0.76805294 0.15829434 0.2627261 -0.18008393 1.0344143 0.15005329 0.16377631 0.004531279 -0.77909166 1.3503487 -0.9442487 -0.95988 -0.27386707 0.0773797 -1.0058596 -0.06509951 0.16510504 0.0014897365 1.6111157 -0.04933044 0.7535176 -0.32507545 -1.458356 -0.009981689 -0.015430779 -0.062183905 0.22200179 0.043615606 0.31958115 -0.5293405 -0.011040174 -0.40585893 -0.107226335 0.68941945 1.5222623 -0.2720039 0.057999197 -0.21950422 
0.19494225 -0.071999036 0.4074392 1.3264794 1.3280514 0.0861596 -0.37481293 0.36742413 0.13722512 -0.25234058 -0.34820345 -0.73023933 -0.70439893 -0.13973604 0.20634697 0.5654218 -0.06352618 -0.13908143 0.16001453 -0.45374233 0.28712797 -0.121311255 -0.782993 -0.71989125 -0.3230962 -1.0308264 0.38353273 0.35762903 -0.17206505 -0.3172226 0.43256572 -0.2780053 -0.9887873 0.071444854 0.11298885 -0.21044849 0.35948533 -0.91126937 -0.48335814 0.6515307 0.10636137 0.3853244 0.11807375 -0.15496472 1.8028885 0.1661646 0.33620968 0.111594066 0.23450038 -0.35253733 -0.0234088 0.015487057 -0.0013534465 -0.23403738 0.0128929615 -0.6408996 -0.328877 0.123162165 0.66347086 -0.28333992 0.8017103 0.07970799 0.24820445 0.466162 
0.73390925 -0.19059919 -0.5846457 0.5953631 0.21350504 0.14756095 -0.72010165 0.18596706 0.07619564 -0.3004606 0.2296135 -0.6558383 0.4612961 0.2154787 -0.50066715 -0.35653812 -0.36141238 -0.4142854 0.27552822 0.5192534 0.22813314 -0.46121997 -0.27790114 -0.16472206 -0.6313841 0.51244766 -0.3150111 0.43649077 0.45455432 -0.0064451597 -0.20214917 -0.078038156 -0.3667506 0.23216996 -0.6394273 0.5229299 0.38637343 -0.28372422 0.8788936 0.26772258 0.19617788 0.087276526 0.19441488 0.3555115 0.996586 -0.2086535 0.39376384 -0.059983265 -1.0264274 -0.20716558 0.37357104 0.41253257 -0.3021574 0.8896397 0.30891564 -0.47361448 0.22482312 0.82574433 -0.5116815 0.2903589 1.4805039 0.4913467 0.57262856 0.3653058 
0.189837 -0.09212426 0.09368551 -1.608537 -1.2488947 0.37739578 1.6447352 0.1487901 -0.51185983 -0.5255514 -0.440955 -0.4243714 -0.18183234 0.30570495 0.09111189 0.8773314 0.18215466 -0.21209374 -0.17180303 -0.40768704 -0.10571551 -0.023850014 0.803582 0.6200083 0.50779015 0.029708894 -0.18047367 -1.1578981 -0.014596376 0.3387906 0.11830197 -0.64300966 -0.88741714 -0.3711132 -0.80376744 -0.36672696 0.47819257 1.0836858 -0.42572623 -0.050628375 -0.0876407 -0.208593 0.023086986 0.6988162 -1.290677 0.5358605 0.6074852 0.4541037 0.43737203 0.50910395 0.06333773 0.61615556 0.80100477 -0.7628203 -0.06716218 -0.010435969 -0.34689966 0.49222672 -0.058474828 0.07151166 -1.4569346 0.42386183 -0.015396693 0.01624351 
-0.48053586 -0.5437846 -0.1738877 2.1630065 1.3731035 -0.054311667 -0.93552566 0.5193603 0.14591776 0.15451744 -0.41134536 0.04392862 -0.41949484 -0.2894004 0.7040229 -0.10401314 -0.66406846 0.69262904 0.3728477 0.67188525 0.3803536 -0.5838009 -0.83318865 0.26505515 -0.08609686 0.7759584 0.9656875 0.46071672 0.16883355 -0.17066811 0.16264258 0.06882965 -0.738922 0.58941776 0.14042997 0.43232077 -0.13352442 -2.0865755 0.20137645 0.19921958 -0.016281769 0.46560922 0.9209329 0.14543135 1.3393968 -0.56683457 -0.90906316 -0.29826146 -1.1837221 0.05858697 0.68007565 0.7659397 0.88417524 0.75383776 0.22015792 -0.5302807 0.1948253 -0.6388322 0.54528517 -0.2987985 1.2311984 0.062143918 0.61568016 0.1604289 
0.4226332 -0.18883318 0.034424357 0.4759534 -0.05487751 0.076525025 -0.29575092 -1.1830618 -0.6226849 -0.76898175 -0.39003417 -0.7186857 -0.1356484 -0.29874274 -0.08964928 -0.40345713 -0.16010125 -0.89051485 0.07713392 -0.73846126 -0.41435274 -0.11393619 -0.18029864 -0.8733843 -0.82214606 -0.29547513 -0.14029792 0.2747042 0.23020177 0.095246874 0.18774071 0.6129958 0.20316726 0.05446697 -0.7032586 -0.40627939 -0.12005209 -1.1903731 -0.5504052 -0.063572235 0.12811252 -0.42125127 -0.3779616 0.39296725 0.34995782 0.008784357 -0.0027812105 0.58960885 -0.09308148 0.13988963 -0.63965535 -0.03907305 -0.08315238 -0.1322491 -0.7560445 0.32587758 -0.28844652 0.19980523 -0.6018627 -0.11533774 0.7471778 0.50773305 -0.06753489 -0.658337 
